2.1155e-10,-1.0224e-05,-2.4528e-05,-3.2344e-05,6.3539e-07,9.2752e-06,-2.0393e-07,9.8656e-06,-1.6112e-05,-4.6186e-06,5.2649e-07,9.1626e-06,-4.8601e-07,9.5141e-07,1.5113e-05,-4.1279e-06,-7.6183e-06,-3.5879e-06,2.2938e-05,8.1478e-06,-1.6333e-05,8.4049e-06,-2.2342e-06,8.487e-06,-1.2942e-05,-2.7461e-06,4.0418e-06,8.0824e-06,1.2054e-05,8.6813e-06,-4.2637e-06,-3.9571e-06,-1.7494e-05,4.959e-06,-8.7536e-07,2.2174e-05,-6.5572e-06,-3.1082e-06,-1.8914,-1.6723e-05,3.0746e-05,5.9639e-06,5.905e-06,-1.7163e-06,-8.8659e-06,6.8057e-06,6.4715e-06,-1.256e-05,-9.1398e-06,-6.6112e-06,-4.9432e-06,-3.7343e-06,-1.5058e-06,6.065e-06,4.6308e-06,4.7071e-06,4.8188e-06,-3.0474e-05,-5.9639e-06,-2.0377e-05,8.3457e-06,-1.2342e-05,1.2491e-06,-1.1266e-05,-1.0301e-05,-9.6731e-06,-7.6403e-06,-7.4787e-06,9.7664e-06,-2.5337e-07,-1.2931e-05,-5.9366e-07,-6.8985e-07,-2.8247e-05,-2.7548e-06,9.3157e-06,-1.2471e-05,5.3862e-07,-1.5191e-06,5.2575e-06,-4.0809e-05,-1.0713e-06,-0.19477,-1.037e-05,-1.2748e-05
-2.0683e-05,4.2932e-10,-5.5252e-05,-7.4617e-05,-1.106e-06,3.0738e-05,-3.2934e-06,2.3569e-05,-3.2034e-05,-1.4212e-05,1.2144e-06,2.096e-05,1.9411e-06,3.5144e-06,3.8297e-05,-1.3939e-05,-1.7659e-05,-8.84e-06,5.0177e-05,2.2183e-05,-4.6326e-05,2.0472e-05,-9.7476e-06,2.1682e-05,-3.3601e-05,-8.5548e-06,8.5145e-06,1.7474e-05,2.6717e-05,2.0573e-05,-1.2635e-05,-1.2251e-05,-4.7118e-05,9.6413e-06,-5.2292e-06,5.9125e-05,-1.9688e-05,-5.3488e-06,-1.5973,-4.5955e-05,7.3278e-05,2.1889e-05,2.4185e-05,-4.4254e-06,-1.9965e-05,1.4411e-05,1.4396e-05,-2.9488e-05,-1.7525e-05,-1.5721e-05,-1.2013e-05,-9.3622e-06,-3.3449e-06,1.509e-05,1.0794e-05,9.0292e-06,1.1309e-05,-6.8888e-05,-1.0589e-05,-4.7717e-05,2.4416e-05,-3.4169e-05,8.9468e-08,-2.4167e-05,-2.4912e-05,-2.6008e-05,-1.9967e-05,-1.6798e-05,2.6162e-05,5.3227e-07,-3.4953e-05,-6.1386e-08,-5.855e-06,-6.6187e-05,-8.2463e-06,2.4304e-05,-3.0698e-05,-3.1898e-07,-7.2799e-06,1.0682e-05,-9.9737e-05,-2.0502e-06,-0.23314,-2.2301e-05,-3.5938e-05
-8.0403e-06,-8.5374e-06,2.8251e-10,-2.4996e-05,3.4312e-07,8.488e-06,-1.2622e-06,5.4856e-06,-1.3161e-05,-5.955e-06,1.0344e-06,6.9347e-06,-1.0964e-06,-1.1619e-09,1.0993e-05,-2.4498e-06,-6.3214e-06,-4.3922e-06,2.0677e-05,5.4314e-06,-1.2342e-05,6.5054e-06,-2.6238e-06,7.1989e-06,-1.0956e-05,-2.3064e-06,1.8244e-06,7.5302e-06,9.4809e-06,7.2317e-06,-2.4331e-06,-2.4215e-06,-1.2422e-05,5.0312e-06,-1.7943e-06,1.7341e-05,-6.4152e-06,-2.3366e-06,-1.4383,-1.3024e-05,2.4571e-05,5.4962e-06,6.2498e-06,-6.552e-07,-6.7623e-06,4.3049e-06,3.7222e-06,-8.8657e-06,-7.8966e-06,-3.4928e-06,-5.3662e-06,-5.0124e-06,2.6713e-07,4.8074e-06,3.694e-06,3.2591e-06,4.4881e-06,-2.5636e-05,-6.0407e-06,-1.4484e-05,6.4851e-06,-1.1334e-05,4.1502e-07,-1.0804e-05,-7.7754e-06,-8.6064e-06,-8.4175e-06,-6.6193e-06,7.4382e-06,-1.0439e-06,-1.0444e-05,-1.3606e-06,-9.3579e-07,-2.6139e-05,-3.7671e-06,6.6819e-06,-9.5481e-06,-5.974e-07,-2.6573e-06,3.3404e-06,-2.7767e-05,-6.2635e-07,-0.18952,-7.7398e-06,-1.0266e-05
-8.2167e-05,-8.6132e-05,-0.00018397,5.412e-10,1.3132e-05,0.0001192,-1.1045e-05,8.3447e-05,-0.00010117,-4.6874e-05,2.6597e-05,8.2278e-05,6.0476e-05,6.0502e-06,0.00015893,-3.8281e-05,-6.4851e-05,-3.94e-05,0.00024341,7.1931e-05,-0.00014695,5.8086e-05,-3.4436e-05,0.00011327,-0.0001111,-2.3678e-05,2.9264e-05,6.8227e-05,0.00010955,7.0747e-05,-2.7428e-05,-2.217e-05,-0.00014773,6.1844e-05,-1.3362e-05,0.00021398,-6.7444e-05,-6.9805e-06,-0.00072302,-0.00013656,0.00026173,7.9196e-05,7.9459e-05,1.0511e-05,-7.1998e-05,4.8012e-05,5.0992e-05,-9.4539e-05,-5.5976e-05,-3.8196e-05,-4.123e-05,-3.9608e-05,-1.2605e-06,6.3275e-05,4.9087e-05,3.6141e-05,4.5099e-05,-0.00010465,-4.1756e-05,-0.0001076,8.2218e-05,-0.00011904,-1.2907e-06,-7.3457e-05,-6.1724e-05,-9.5338e-05,-7.787e-05,-6.2872e-05,7.976e-05,1.4215e-06,-0.00012181,-1.8163e-05,-1.2544e-05,-0.00023965,-2.9509e-05,9.2512e-05,-7.3154e-05,-4.5698e-06,-2.4529e-05,3.8873e-05,-0.00016583,-1.312e-05,-0.20303,-7.2822e-05,-0.00011516
-0.00015307,-0.00020375,-0.00037596,-0.00060998,1.043e-10,0.00019401,-4.636e-06,0.00014133,-0.00023309,-9.3292e-05,3.3315e-05,0.00012406,1.2782e-05,-2.0934e-05,0.000222,-5.1951e-05,-0.0001505,-9.0789e-05,0.00032623,9.5798e-05,-0.00022619,0.00010961,-3.576e-05,0.00015301,-0.00022144,-4.145e-05,5.7905e-05,0.00011858,0.00019905,0.00016572,-3.2906e-05,-6.4265e-05,-0.0002315,0.0001015,-7.9883e-06,0.00030207,-0.00010913,-5.6717e-05,-1.5645,-0.00022767,0.00045211,6.731e-05,6.6968e-05,-1.9636e-05,-0.00013644,0.00010434,9.4184e-05,-0.00021331,-0.00015516,-4.9409e-05,-0.00010818,-8.9919e-05,5.9261e-06,9.8639e-05,7.9015e-05,6.2279e-05,7.4449e-05,-0.00051914,-0.00012832,-0.00033456,0.00013092,-0.00024088,7.6051e-06,-0.000218,-0.00011978,-0.00015815,-0.00015021,-0.00014268,0.00015333,-1.9376e-05,-0.00019935,-4.602e-05,-7.1386e-06,-0.00056215,-6.4417e-05,0.00010754,-0.00018889,-3.9457e-09,-3.4216e-05,7.7893e-05,-0.00066236,-8.6122e-06,-0.2051,-0.00016908,-0.00020169
-0.00030267,-0.00027059,-0.00065035,-0.0016112,3.1012e-05,2.4536e-10,-6.1179e-06,0.00025661,-9.385e-05,-0.00014039,6.0895e-05,0.00013386,1.2961e-05,-7.0731e-05,0.00032285,-5.7388e-05,-0.00024668,-0.00015831,0.00030246,0.00011298,-0.00038897,0.0001209,-7.0691e-05,0.00022092,-0.00032842,-7.8461e-05,8.2177e-05,0.00014417,0.00029103,0.00025623,-4.1337e-05,-8.3985e-05,-0.00032221,0.00013437,3.6485e-05,0.00036128,-0.00023702,-9.3125e-05,-0.35349,-0.00035405,0.00078449,0.00039073,0.0015258,-5.3983e-05,-0.00023397,0.00014222,0.00015143,-0.00039235,-8.8834e-05,9.7358e-05,-0.00020691,-0.00017022,0.00035435,8.413e-05,4.013e-05,0.00011741,8.7354e-05,-0.0010687,-0.00020489,-0.0022209,0.00028887,-0.0005006,-1.0846e-05,-0.0004017,-0.00024033,-0.00025292,-0.00026315,-0.00022662,0.00043915,-1.4083e-05,-0.00031458,-0.00014407,-9.6154e-06,-0.00072104,-0.00010194,0.00018327,-0.00027721,-4.2347e-05,-9.2716e-05,0.00011211,-0.0011231,-1.75e-05,-0.19293,-0.00029737,-0.00034389
-3.3557e-05,-4.5269e-05,-9.3024e-05,-0.00012109,3.9921e-06,4.4404e-05,6.5828e-10,3.579e-05,-5.2941e-05,-1.5164e-05,6.2603e-06,2.6432e-05,1.2575e-06,-5.382e-06,5.4429e-05,-1.2143e-05,-3.6142e-05,-1.5483e-05,7.5154e-05,2.2632e-05,-5.248e-05,2.1106e-05,-8.1498e-06,3.1476e-05,-4.5769e-05,-9.8841e-06,2.0499e-05,2.5323e-05,3.9375e-05,3.4715e-05,-1.6226e-05,-1.4361e-05,-6.0956e-05,1.9036e-05,2.0477e-06,7.0095e-05,-2.6264e-05,-1.6144e-05,-2.2193,-5.6475e-05,0.0001002,1.7448e-05,1.1401e-05,-8.5627e-06,-3.1634e-05,2.3771e-05,2.2291e-05,-5.2569e-05,-3.6154e-05,-1.9266e-05,-2.5667e-05,-1.6834e-05,-1.0049e-05,1.9162e-05,1.4206e-05,1.5056e-05,1.3918e-05,-9.7685e-05,-2.8076e-05,-7.4104e-05,3.2844e-05,-5.4688e-05,9.3545e-07,-5.1556e-05,-3.7694e-05,-3.5837e-05,-2.5876e-05,-3.497e-05,3.9961e-05,-6.0347e-06,-4.1871e-05,-1.0278e-05,-5.1811e-07,-0.00012275,-1.1607e-05,2.2799e-05,-4.275e-05,-1.0756e-06,-7.9317e-06,1.7981e-05,-0.00012913,-2.5557e-06,-0.22407,-4.0753e-05,-5.0132e-05
-5.3617e-06,-6.71e-06,-1.6422e-05,-1.904e-05,5.479e-08,7.0104e-06,-1.2838e-07,6.914e-10,-9.8409e-06,-7.305e-07,1.2174e-06,2.8785e-06,6.6525e-07,-9.8741e-07,8.9411e-06,-3.3092e-06,-6.4744e-06,-2.2597e-06,1.0363e-05,3.4601e-06,-8.0682e-06,2.2086e-06,-1.3115e-06,3.7591e-06,-5.924e-06,-1.0213e-06,2.1965e-06,3.1731e-06,4.8068e-06,4.3445e-06,-2.9901e-06,-4.1622e-06,-1.0198e-05,1.4197e-06,1.5964e-06,1.0286e-05,-3.761e-06,-2.827e-06,-1.7521,-9.5328e-06,1.3164e-05,1.0125e-06,-1.0671e-06,-1.0672e-06,-5.2839e-06,3.7878e-06,3.816e-06,-1.1476e-05,-5.8232e-06,-4.301e-06,-3.7176e-06,-1.3143e-06,-2.863e-06,1.4463e-06,5.6402e-07,2.8936e-06,-2.8863e-07,-1.1603e-05,-2.8894e-06,-1.2594e-05,4.5516e-06,-9.0951e-06,-1.0137e-07,-7.4103e-06,-6.3658e-06,-5.307e-06,-4.0168e-06,-5.4682e-06,4.7418e-06,-5.0196e-07,-6.5962e-06,-1.9632e-06,2.7867e-07,-1.7638e-05,-1.0045e-06,3.1876e-06,-4.5727e-06,7.2814e-08,-9.9022e-07,2.4936e-06,-2.0678e-05,-5.7835e-07,-0.24152,-7.3192e-06,-8.2721e-06
-2.9054e-05,-2.8117e-05,-7.9583e-05,-0.00012951,2.2361e-06,0.00022433,1.261e-06,2.8982e-05,1.4281e-09,-1.8182e-05,3.2452e-06,5.7976e-05,5.5278e-06,-2.8134e-06,5.1368e-05,-1.4988e-05,-2.3296e-05,-1.0486e-05,6.0103e-05,1.8616e-05,-5.3778e-05,2.3536e-05,-1.0274e-05,3.0419e-05,-3.7697e-05,-1.1324e-05,1.4016e-05,2.795e-05,4.0866e-05,5.818e-05,-2.5306e-05,-3.8272e-06,-5.2805e-05,2.5959e-05,-3.3926e-06,7.287e-05,-2.8345e-05,-3.1856e-06,-0.17554,-4.7925e-05,0.00027265,7.3863e-05,0.78859,4.7571e-06,-2.7959e-05,1.3108e-05,1.8865e-05,-3.9296e-05,-4.5993e-06,-3.7856e-06,-1.8889e-05,-1.8135e-05,0.00018227,1.8853e-05,1.3515e-05,1.1266e-05,1.8568e-05,-7.3533e-05,-2.0261e-05,-0.00010186,3.2272e-05,-4.9362e-05,-1.1998e-06,-3.7312e-05,-2.805e-05,-2.7696e-05,-2.6562e-05,-2.0353e-05,4.393e-05,-1.9779e-06,-3.7534e-05,-5.5333e-06,-1.0043e-05,-7.7129e-05,-1.4894e-05,3.6671e-05,-2.9385e-05,-4.7099e-06,-1.3174e-05,1.0444e-05,-0.00010889,-3.2291e-06,-0.20915,-3.2004e-05,-4.2173e-05
-6.253e-06,-8.2917e-06,-1.9785e-05,-2.3693e-05,-3.3862e-07,7.0832e-06,-5.9726e-08,8.8239e-06,-1.2485e-05,1.1546e-09,1.4448e-06,4.3622e-06,1.0904e-06,-1.3062e-06,1.1525e-05,-4.007e-06,-8.2441e-06,-2.7882e-06,1.2386e-05,3.1463e-06,-1.0016e-05,2.7031e-06,-1.4714e-06,3.4109e-06,-7.3933e-06,-1.4001e-06,3.1289e-06,4.634e-06,6.3629e-06,5.6352e-06,-4.253e-06,-4.3741e-06,-1.2411e-05,1.1916e-06,3.2716e-06,1.2985e-05,-4.2514e-06,-3.1408e-06,-1.7682,-1.1697e-05,1.6911e-05,1.0004e-06,-1.0184e-06,-1.222e-06,-6.4482e-06,5.2888e-06,4.9484e-06,-1.3757e-05,-7.2508e-06,-7.1543e-06,-4.4918e-06,-1.4283e-06,-4.504e-06,1.8612e-06,8.6553e-07,2.769e-06,-9.9394e-08,-1.4905e-05,-4.2826e-06,-1.6525e-05,5.6645e-06,-1.0985e-05,1.757e-07,-8.5953e-06,-8.123e-06,-6.8423e-06,-4.8659e-06,-6.5544e-06,5.123e-06,-1.4389e-06,-7.8876e-06,-2.6307e-06,3.3824e-07,-2.2016e-05,-1.2396e-06,4.1182e-06,-5.0516e-06,3.3553e-07,-1.0438e-06,3.1115e-06,-2.5563e-05,-8.2039e-07,-0.24179,-9.2506e-06,-1.002e-05
-0.00015175,-0.00017781,-0.00033464,-0.00054959,1.6404e-05,0.00018431,-8.7885e-06,0.00013831,-0.00021945,-5.6423e-05,5.0202e-11,8.8192e-05,3.0636e-05,-2.2818e-05,0.0002312,-6.297e-05,-0.0001515,-6.9928e-05,0.0003586,8.4481e-05,-0.00018423,8.4043e-05,-3.5267e-05,0.00013353,-0.00017757,-2.9002e-05,5.2794e-05,0.00010032,0.00016311,0.00012153,-4.528e-05,-6.751e-05,-0.00021087,7.4568e-05,1.3758e-05,0.00026533,-0.00010481,-5.5785e-05,-1.2443,-0.00021216,0.00036449,4.5535e-05,3.0819e-05,-2.3613e-05,-0.00011906,8.5042e-05,9.631e-05,-0.00021152,-0.00016295,-8.2917e-05,-0.00011239,-7.271e-05,-1.5264e-05,7.8996e-05,6.3692e-05,5.1549e-05,4.4585e-05,-0.00041089,-0.00011549,-0.00027826,0.00010234,-0.0002386,-3.4688e-06,-0.00019154,-0.000117,-0.00013454,-0.00013299,-0.0001428,0.00011736,-2.6747e-05,-0.00016352,-4.3428e-05,9.6565e-06,-0.00078352,-4.0223e-05,9.9799e-05,-9.9868e-05,-3.4805e-06,-4.1285e-05,6.9007e-05,-0.00054119,-8.2564e-06,-0.20464,-0.00018005,-0.00018848
-0.00010536,-0.000135,-0.00026622,-0.00039896,1.5406e-05,0.00016832,-1.3005e-05,8.6037e-05,-5.5636e-05,-6.4372e-05,1.141e-05,1.0919e-09,8.919e-06,-7.5678e-06,0.00015472,-8.9449e-06,-7.0304e-05,-3.8554e-05,0.00024124,6.0725e-05,-0.00019654,7.7901e-05,-3.2286e-05,0.00013052,-0.00013101,-2.614e-05,3.3076e-05,0.00030244,0.0001784,0.00017061,-6.2017e-06,-7.6048e-06,-0.00013535,0.00012749,-1.5024e-05,0.00065817,-6.8062e-05,-1.5852e-05,-1.2151,-0.00014251,0.03671,0.00014178,0.0001556,3.1869e-05,-7.1343e-05,6.3815e-05,7.2574e-05,-0.00011353,-5.5919e-05,-3.8166e-05,-6.2564e-05,-5.9445e-05,5.0262e-05,4.2248e-05,2.4385e-05,3.4487e-05,6.9063e-05,-0.00029001,-6.6436e-05,-0.00033882,0.00010988,-0.00015702,1.3277e-05,-0.00011007,-7.8258e-05,-0.00011503,-9.7948e-05,-7.8719e-05,0.00014933,-5.2831e-06,-0.00014046,-3.4049e-05,-2.5578e-06,-0.00020942,-2.9384e-05,0.00013883,-0.00013183,-4.4464e-06,-3.5459e-05,5.7445e-05,-0.0003829,-6.2989e-06,-0.1419,-0.000106,-0.00012377
-0.00017068,-0.00018159,-0.000498,-0.00056181,-7.8004e-06,6.8289e-05,-1.6904e-05,0.0001753,-0.00028941,-5.606e-05,3.0084e-05,8.3009e-05,5.6669e-10,-5.6031e-06,0.0002786,-0.00011761,-0.00016915,-8.483e-05,0.00017783,0.0001057,-0.00028693,9.7377e-05,-6.3745e-05,0.00013996,-0.00021156,-5.4567e-05,6.2458e-05,6.9231e-05,0.00016519,0.0001028,-0.00010114,-0.00011507,-0.00034285,3.8519e-05,-1.8233e-06,0.0001771,-0.00012464,-4.441e-05,-0.10897,-0.00030327,0.00021501,5.4388e-05,1.6622e-05,-1.5999e-05,-0.00015715,8.6688e-05,9.1226e-05,-0.0002588,-0.00016469,-0.00016907,-8.4499e-05,-5.8695e-05,-0.00012523,9.8068e-05,6.8371e-05,6.2583e-05,3.2485e-05,-0.00033991,-9.9367e-05,-0.00025451,0.0001172,-0.0002516,-2.0893e-05,-0.00019549,-0.00017701,-0.00017532,-0.00013635,-0.00013735,8.3634e-05,-1.9555e-05,-0.0002204,-3.2469e-05,-3.132e-05,-0.0010115,-6.4795e-05,0.00014523,-0.00016429,-6.986e-06,-4.0495e-05,5.7445e-05,-0.00072631,-3.0295e-05,-0.17199,-0.00018117,-0.00026199
-9.1838e-06,-1.1007e-05,-2.5875e-05,-3.4513e-05,-2.574e-07,9.6873e-06,-1.4601e-06,1.0811e-05,-1.9549e-05,-6.7462e-06,5.4099e-07,1.0201e-05,-1.6736e-07,1.2403e-09,1.6295e-05,-6.0605e-06,-7.4438e-06,-3.9242e-06,2.7278e-05,1.1574e-05,-2.0191e-05,1.1157e-05,-3.6405e-06,8.3134e-06,-1.4037e-05,-3.1443e-06,3.6995e-06,9.0319e-06,1.2038e-05,9.4316e-06,-5.6851e-06,-5.6869e-06,-2.0884e-05,4.0963e-06,-3.2387e-06,2.7527e-05,-8.0426e-06,-1.8051e-06,-1.7387,-2.0598e-05,3.5504e-05,9.8756e-06,1.0828e-05,-2.5023e-06,-9.8623e-06,6.8495e-06,6.3284e-06,-1.2992e-05,-1.0845e-05,-8.0173e-06,-4.0366e-06,-4.7341e-06,-6.1973e-07,7.3877e-06,5.7865e-06,6.3673e-06,7.1676e-06,-3.3921e-05,-4.5425e-06,-1.9744e-05,8.54e-06,-1.3365e-05,1.01e-07,-1.347e-05,-1.3122e-05,-1.2774e-05,-8.9699e-06,-7.224e-06,1.011e-05,7.4361e-07,-1.5699e-05,1.302e-06,-2.4422e-06,-2.9605e-05,-4.0275e-06,1.0493e-05,-1.715e-05,-6.4173e-08,-3.2698e-06,4.9804e-06,-4.5581e-05,-1.7696e-06,-0.25701,-9.5773e-06,-1.4886e-05
-1.1148e-05,-1.3167e-05,-2.8582e-05,-3.3496e-05,1.9069e-07,1.2396e-05,-4.3816e-07,1.2294e-05,-1.6199e-05,-2.9238e-06,3.5208e-06,7.0289e-06,2.1029e-06,-2.1896e-06,2.7828e-10,-6.2966e-06,-1.1963e-05,-5.0904e-06,2.2838e-05,5.5801e-06,-1.7529e-05,5.2121e-06,-3.2592e-06,7.0914e-06,-1.3261e-05,-3.1799e-06,4.5878e-06,7.3078e-06,1.1253e-05,8.9769e-06,-7.4072e-06,-6.9038e-06,-2.1564e-05,2.1775e-06,1.4902e-06,2.4847e-05,-7.7696e-06,-4.3808e-06,-1.3657,-2.0237e-05,2.6319e-05,2.8637e-06,5.724e-07,-1.6608e-06,-1.1272e-05,6.7507e-06,7.1698e-06,-1.9914e-05,-1.0869e-05,-1.1486e-05,-7.4365e-06,-4.1372e-06,-5.6266e-06,6.2527e-06,4.6258e-06,4.7716e-06,8.9191e-07,-2.4976e-05,-7.8914e-06,-2.2732e-05,8.0511e-06,-1.8384e-05,-7.2223e-07,-1.3489e-05,-1.174e-05,-1.1475e-05,-8.4865e-06,-1.1671e-05,8.1801e-06,-2.7715e-06,-1.3591e-05,-3.7873e-06,-4.733e-07,-3.9548e-05,-2.8624e-06,8.0156e-06,-7.9188e-06,-5.7744e-07,-2.8311e-06,4.7581e-06,-3.9268e-05,-1.6452e-06,-0.22848,-1.4337e-05,-1.7852e-05
-0.00032113,-0.00043021,-0.00069612,-0.001459,5.5249e-05,0.00048097,-5.7858e-06,0.00023805,-0.0004607,-0.00023739,3.3955e-05,0.0003278,3.6739e-06,-3.8942e-05,0.00040834,1.0029e-10,-0.00027176,-0.00015977,0.00065795,0.00019869,-0.00047985,0.00025451,-6.8564e-05,0.0003211,-0.0004911,-0.00011279,0.00012433,0.00031491,0.00046195,0.00034972,-5.0302e-05,-7.8677e-05,-0.00037721,0.00022593,-4.1919e-05,0.00062218,-0.00017104,-0.00011212,-1.843,-0.00047544,0.0013021,0.00026797,0.00019278,-3.3162e-05,-0.00026553,0.00021493,0.00020891,-0.00039056,-0.00033719,-6.4278e-05,-0.00023934,-0.00020904,0.00011155,0.00020154,0.00014714,9.8871e-05,0.00022068,-0.0017678,-0.00028205,-0.00098391,0.0002849,-0.00048825,1.5033e-05,-0.00048105,-0.00024962,-0.00034745,-0.00034985,-0.00027844,0.00034742,-7.2226e-05,-0.00045159,-8.8251e-05,2.9169e-06,-0.0011071,-0.00013712,0.00028322,-0.00042402,-8.1202e-06,-7.323e-05,0.00019206,-0.001282,7.0234e-05,-0.18927,-0.00032166,-0.00041615
-3.4615e-06,-4.1961e-06,-9.8557e-06,-1.4586e-05,7.4165e-07,7.1275e-06,-1.3802e-07,4.6157e-06,-5.3633e-06,-3.2944e-06,6.5671e-07,7.2745e-06,4.0726e-07,1.5965e-06,7.8606e-06,-1.0476e-06,1.2445e-10,-1.3044e-06,1.2824e-05,5.201e-06,-8.3284e-06,4.9701e-06,-1.2999e-06,6.1668e-06,-6.3506e-06,-1.2308e-06,1.4332e-06,5.6409e-06,7.2484e-06,5.4626e-06,2.7556e-07,-3.0689e-07,-6.0729e-06,4.4803e-06,-1.3132e-06,1.5498e-05,-3.2318e-06,-2.1121e-07,-1.1257,-7.1682e-06,2.105e-05,6.5117e-06,7.7429e-06,4.2787e-07,-2.9412e-06,2.8483e-06,3.118e-06,-3.7249e-06,-3.2017e-06,-1.631e-06,-1.4474e-06,-2.2916e-06,2.2381e-06,3.9488e-06,3.1069e-06,2.8632e-06,4.2611e-06,-1.4733e-05,-1.3659e-06,-9.5998e-06,4.6685e-06,-4.9285e-06,4.8184e-07,-5.2594e-06,-5.1243e-06,-4.5728e-06,-3.4032e-06,-2.4287e-06,5.8283e-06,4.8712e-07,-5.9456e-06,7.8334e-07,-8.8918e-07,-1.2108e-05,-1.5617e-06,7.7814e-06,-7.2936e-06,3.4165e-09,-1.156e-06,2.5875e-06,-1.7419e-05,-1.053e-07,-0.1949,-3.0681e-06,-5.0791e-06
-0.0001409,-0.00016995,-0.00042775,-0.00059224,4.7959e-06,0.00017476,1.9781e-07,0.00019093,-0.00025079,-7.488e-05,3.0103e-05,0.0001691,2.5931e-05,2.4974e-05,0.00028262,-6.7302e-05,-0.00012727,1.1703e-09,0.0003682,0.00015083,-0.00027063,0.0001499,-4.6383e-05,0.00015944,-0.00022407,-3.892e-05,8.1444e-05,0.00012723,0.0001904,0.00014603,-7.8936e-05,-6.8237e-05,-0.00030875,7.8332e-05,-1.0807e-05,0.00037509,-0.00011412,-3.9493e-05,-1.9234,-0.00031907,0.00053862,0.00012932,8.3552e-05,-2.1976e-05,-0.00014911,0.00011385,0.00015004,-0.00023189,-0.00016634,-0.00011249,-7.4991e-05,-5.4734e-05,-7.0132e-05,0.00011479,8.9278e-05,0.00010512,8.2962e-05,-0.00050265,-9.1316e-05,-0.00032477,0.00015239,-0.00020734,1.0505e-05,-0.00020162,-0.00019221,-0.00017088,-0.00012666,-0.00011667,0.00017481,5.5849e-06,-0.00021206,8.0889e-06,1.5914e-05,-0.00062791,-2.5003e-05,0.00017223,-0.00020311,1.1269e-05,-3.0258e-05,0.00011053,-0.0007467,2.8904e-06,-0.29196,-0.00015657,-0.00023624
-9.897e-05,-0.00013141,-0.00020785,-0.00044584,8.1039e-06,7.9458e-05,-1.3577e-05,7.1762e-05,-0.00016961,-6.1958e-05,4.4161e-05,5.9192e-05,1.4847e-05,-9.082e-06,0.00013141,-4.1178e-05,-0.00010099,-4.747e-05,1.0011e-10,6.3006e-05,-0.00011184,6.471e-05,-2.908e-05,7.5772e-05,-0.00012831,-3.1453e-05,1.8366e-05,5.966e-05,0.00011994,7.7447e-05,-4.7392e-06,-5.0128e-05,-0.00013576,3.867e-05,-1.6639e-05,0.00019537,-5.6988e-05,-3.9927e-05,-1.183,-0.00014952,0.00023873,3.8492e-05,3.8421e-05,-3.7015e-05,-9.3274e-05,5.301e-05,4.7021e-05,-0.00012322,-0.00010922,-4.7755e-05,-6.7694e-05,-6.2287e-05,2.2888e-05,4.9324e-05,3.7126e-05,3.0758e-05,3.0924e-05,-0.00041447,-8.3337e-05,-0.00015494,5.8806e-05,-0.00014349,-6.0558e-06,-0.00016171,-9.045e-05,-8.6568e-05,-9.8297e-05,-9.838e-05,6.3579e-05,-8.1149e-06,-0.00011099,-2.5018e-05,-2.6205e-07,-0.00057324,-3.8544e-05,7.5003e-05,-7.6707e-05,-1.0063e-05,-3.5862e-05,4.9469e-05,-0.00039628,-9.8735e-06,-0.21156,-0.00010441,-0.00012539
-2.4546e-05,-2.8842e-05,-6.9715e-05,-8.8425e-05,8.7568e-07,2.6945e-05,-6.5542e-07,3.673e-05,-5.2121e-05,-1.6951e-05,4.6676e-06,2.3281e-05,-7.9888e-08,8.1249e-06,4.6804e-05,-1.7002e-05,-2.1194e-05,-1.1286e-05,7.1643e-05,6.1659e-10,-4.9077e-05,2.8473e-05,-8.1191e-06,2.6212e-05,-3.7922e-05,-7.8278e-06,1.1008e-05,2.0975e-05,3.6285e-05,2.4448e-05,-1.4179e-05,-1.4208e-05,-5.4373e-05,1.5931e-05,-6.0329e-06,6.7552e-05,-2.3584e-05,-7.4357e-06,-1.6426,-5.2699e-05,8.6219e-05,1.9992e-05,2.3719e-05,-6.1341e-06,-2.3752e-05,1.8217e-05,1.9422e-05,-3.4369e-05,-3.2988e-05,-1.8622e-05,-1.4052e-05,-1.269e-05,-3.385e-06,2.1908e-05,1.7213e-05,1.5241e-05,1.6471e-05,-8.6014e-05,-1.1399e-05,-5.0445e-05,2.4551e-05,-3.7638e-05,5.3627e-07,-3.7017e-05,-3.5555e-05,-3.1061e-05,-2.3253e-05,-2.1074e-05,2.916e-05,3.8355e-06,-4.0474e-05,2.6528e-06,-4.286e-06,-7.5546e-05,-1.084e-05,2.4068e-05,-3.8509e-05,6.7664e-07,-5.3621e-06,1.4094e-05,-0.00012045,-3.0411e-06,-0.23197,-2.8345e-05,-4.0937e-05
-2.7538e-05,-3.7345e-05,-6.2704e-05,-9.6471e-05,2.4865e-06,2.8997e-05,-7.1461e-07,2.3916e-05,-5.1021e-05,-1.3143e-05,6.765e-06,1.7458e-05,-3.2271e-06,-5.7739e-06,3.5795e-05,-9.6191e-06,-2.9749e-05,-1.3415e-05,7.5403e-05,1.4149e-05,5.5272e-10,1.7388e-05,-5.0688e-06,2.1699e-05,-3.3785e-05,-6.6582e-06,8.803e-06,2.1188e-05,3.0708e-05,2.3538e-05,-9.1151e-06,-1.2665e-05,-3.9068e-05,1.4041e-05,1.2078e-06,4.6708e-05,-1.8691e-05,-1.4445e-05,-1.9139,-4.2811e-05,7.0138e-05,8.3423e-06,-1.6807e-07,-7.946e-06,-2.4484e-05,1.8889e-05,1.7175e-05,-4.1776e-05,-3.3078e-05,-1.2962e-05,-1.9677e-05,-1.4576e-05,-6.6398e-06,1.0523e-05,7.726e-06,9.5059e-06,1.0417e-05,-8.5564e-05,-2.2823e-05,-6.0996e-05,2.0602e-05,-4.3136e-05,3.4469e-08,-4.2514e-05,-2.4296e-05,-2.5217e-05,-2.5852e-05,-2.7803e-05,2.7212e-05,-5.3257e-06,-3.2593e-05,-9.3221e-06,2.4386e-06,-9.6638e-05,-7.5258e-06,1.5638e-05,-2.8314e-05,-1.1027e-08,-6.8977e-06,1.4871e-05,-9.922e-05,-2.4717e-06,-0.23809,-3.3873e-05,-3.6509e-05
-2.8759e-05,-3.7189e-05,-7.3864e-05,-0.00011468,2.8252e-06,2.9297e-05,-3.5452e-06,3.0065e-05,-5.5662e-05,-2.3792e-05,4.1086e-06,3.1429e-05,-2.7255e-06,7.1312e-06,5.0106e-05,-1.5464e-05,-2.7013e-05,-1.4448e-05,8.331e-05,3.146e-05,-5.226e-05,3.7923e-10,-9.2821e-06,2.9444e-05,-4.7651e-05,-8.0159e-06,1.1379e-05,2.9342e-05,4.3009e-05,2.8625e-05,-1.5833e-05,-1.305e-05,-5.8575e-05,2.0021e-05,-8.5666e-06,7.1391e-05,-2.3318e-05,-8.2573e-06,-1.9995,-5.9444e-05,0.00010776,2.3027e-05,2.2974e-05,-6.4857e-06,-2.8604e-05,2.2774e-05,1.947e-05,-3.6587e-05,-3.6096e-05,-1.6485e-05,-1.7178e-05,-1.7395e-05,-6.4481e-06,2.4806e-05,2.0195e-05,1.7605e-05,2.2206e-05,-0.00010947,-1.8483e-05,-5.9335e-05,2.4999e-05,-4.1964e-05,3.3645e-06,-4.1548e-05,-3.4633e-05,-3.7313e-05,-3.1426e-05,-2.3511e-05,3.5378e-05,9.8804e-07,-4.4572e-05,4.114e-06,-5.7777e-06,-9.0814e-05,-1.1988e-05,3.2377e-05,-4.6416e-05,1.6767e-06,-8.9836e-06,1.7736e-05,-0.00014764,-3.9341e-06,-0.22223,-3.1546e-05,-4.3887e-05
-3.9642e-05,-5.638e-05,-0.00010706,-0.00015942,4.5256e-06,4.9157e-05,-9.4359e-07,4.1687e-05,-7.2602e-05,-1.8916e-05,7.3342e-06,3.3818e-05,-2.2282e-06,-5.2577e-06,6.1573e-05,-1.4496e-05,-4.3789e-05,-2.1154e-05,9.2172e-05,2.6172e-05,-6.0683e-05,2.7924e-05,4.5623e-10,3.2024e-05,-5.5731e-05,-1.1321e-05,1.6501e-05,3.4953e-05,4.7737e-05,4.2621e-05,-1.6663e-05,-2.0606e-05,-6.7492e-05,1.7257e-05,2.0062e-06,8.2969e-05,-2.9977e-05,-1.7798e-05,-2.0199,-7.0613e-05,0.00012546,2.1256e-05,1.2765e-05,-8.9781e-06,-4.0196e-05,3.0579e-05,2.7606e-05,-6.5739e-05,-4.7298e-05,-2.3797e-05,-2.9126e-05,-1.9043e-05,-6.3255e-06,2.0054e-05,1.4162e-05,1.7175e-05,1.7353e-05,-0.00012875,-3.1247e-05,-9.8636e-05,3.3822e-05,-5.8541e-05,4.3285e-06,-6.0985e-05,-4.0844e-05,-4.4546e-05,-3.9904e-05,-3.8112e-05,4.0432e-05,-6.1278e-06,-5.562e-05,-1.1464e-05,5.2866e-07,-0.00014383,-1.3631e-05,2.8857e-05,-5.0798e-05,4.9643e-07,-5.576e-06,2.3232e-05,-0.00016264,-3.658e-06,-0.22485,-5.2099e-05,-6.04e-05
-0.00017471,-0.000207,-0.00041241,-0.00056209,4.5486e-05,0.00026561,1.2252e-06,0.0001947,-0.00024451,-0.00012879,6.793e-05,0.00017409,6.15e-05,-1.6694e-05,0.00027493,-4.5317e-05,-0.00013725,-8.6178e-05,0.00034568,0.00014038,-0.00027579,0.00013877,-6.1504e-05,7.1535e-10,-0.00025285,-3.1668e-05,8.1801e-05,0.00015936,0.00026216,0.00018309,-1.0004e-05,4.218e-05,-0.00029448,0.00023976,-1.2538e-05,0.00037409,-0.00014128,-6.6723e-05,-0.65908,-0.00023178,0.0005386,0.0001814,0.00015846,4.7602e-05,-0.00013619,0.00011103,0.00013622,-0.00021198,-0.0001224,-4.192e-05,-0.00010859,-9.7371e-05,1.761e-05,0.00011923,9.4998e-05,7.3975e-05,0.00011435,-0.00046883,-0.00013427,-0.00043248,0.00019763,-0.00028804,1.0703e-05,-0.00016125,-0.00010086,-0.00018996,-0.00016593,-0.00016083,0.00028104,-2.9469e-05,-0.00022168,-4.0709e-05,8.2667e-06,-0.00047819,-4.6214e-05,0.00018228,-0.00021766,-1.7956e-06,-3.9441e-05,0.00010798,-0.00054697,-5.5426e-07,-0.11198,-0.00018921,-0.00021955
-3.5678e-05,-4.3935e-05,-9.1345e-05,-0.00012507,-2.5091e-06,4.0583e-05,-3.2733e-06,3.645e-05,-5.4402e-05,-1.4291e-05,3.5674e-06,3.125e-05,3.4193e-07,-2.5071e-06,5.2029e-05,-2.0234e-05,-3.7397e-05,-1.8441e-05,7.4654e-05,2.0856e-05,-5.5496e-05,1.9318e-05,-1.0961e-05,2.4697e-05,2.7471e-10,-8.0597e-06,1.3779e-05,3.2049e-05,3.5306e-05,2.6617e-05,-1.7094e-05,-2.0808e-05,-5.9861e-05,1.4949e-05,3.1401e-06,8.2668e-05,-2.3822e-05,-1.0446e-05,-1.6165,-5.9495e-05,0.00010854,2.0033e-05,1.2511e-05,-4.9381e-06,-3.4041e-05,2.295e-05,1.9815e-05,-5.7605e-05,-3.217e-05,-2.629e-05,-2.0823e-05,-1.4682e-05,-9.9846e-06,1.0856e-05,5.9804e-06,1.4221e-05,1.0741e-05,-9.5092e-05,-2.4232e-05,-8.943e-05,2.7554e-05,-5.7011e-05,-3.9154e-07,-4.7039e-05,-3.7344e-05,-3.7538e-05,-3.1338e-05,-3.3336e-05,3.1923e-05,-6.1914e-06,-4.3654e-05,-1.0947e-05,-2.4483e-06,-0.00010477,-1.2493e-05,2.6894e-05,-3.8951e-05,-1.2358e-06,-1.0316e-05,1.3683e-05,-0.00012745,-6.7687e-06,-0.17248,-4.2684e-05,-5.2316e-05
-2.5117e-05,-3.1985e-05,-6.0809e-05,-8.5063e-05,8.0751e-07,2.7348e-05,-2.4295e-06,2.4611e-05,-4.4281e-05,-1.1003e-05,4.5223e-06,1.9862e-05,-8.9574e-07,-3.0892e-06,3.4099e-05,-1.2384e-05,-2.5982e-05,-1.2191e-05,5.0607e-05,1.3735e-05,-3.7671e-05,1.539e-05,-7.153e-06,2.1229e-05,-2.9749e-05,3.0658e-10,8.4719e-06,2.0619e-05,2.9066e-05,2.3548e-05,-9.2405e-06,-1.097e-05,-3.9806e-05,1.5427e-05,1.8307e-06,4.9404e-05,-1.7269e-05,-1.1003e-05,-1.8517,-3.8169e-05,7.2482e-05,1.0015e-05,4.1215e-06,-4.5473e-06,-2.1563e-05,1.5384e-05,1.5778e-05,-3.7902e-05,-2.4174e-05,-1.3643e-05,-1.6981e-05,-1.1891e-05,-3.1899e-06,8.7131e-06,5.6523e-06,9.1837e-06,8.73e-06,-6.667e-05,-1.8017e-05,-5.5807e-05,1.9578e-05,-3.961e-05,5.6446e-07,-3.2802e-05,-2.4042e-05,-2.6083e-05,-2.2983e-05,-2.3618e-05,2.5435e-05,-4.343e-06,-3.0228e-05,-6.3781e-06,-8.1698e-07,-7.5671e-05,-8.422e-06,1.7369e-05,-2.7191e-05,-1.2288e-06,-7.3077e-06,1.1603e-05,-8.3207e-05,-2.5236e-06,-0.21906,-2.9004e-05,-3.4989e-05
-1.1417e-05,-1.4662e-05,-3.2172e-05,-4.0851e-05,5.3032e-07,1.2969e-05,1.3877e-06,1.1516e-05,-1.9003e-05,-3.9559e-06,2.0603e-06,7.7184e-06,3.5238e-07,-2.2945e-06,1.7732e-05,-4.8247e-06,-1.4399e-05,-5.0858e-06,2.2517e-05,5.5521e-06,-1.7778e-05,5.6242e-06,-2.9117e-06,8.7518e-06,-1.3721e-05,-3.0068e-06,1.1674e-09,7.9144e-06,1.131e-05,9.7733e-06,-6.5258e-06,-6.9156e-06,-2.158e-05,4.4083e-06,1.4013e-06,2.3071e-05,-8.3766e-06,-5.7168e-06,-1.9815,-1.9691e-05,3.0922e-05,4.9712e-06,8.5722e-07,-2.9874e-06,-1.1297e-05,8.0031e-06,7.077e-06,-2.0436e-05,-1.1015e-05,-8.5144e-06,-8.564e-06,-4.8143e-06,-6.9441e-06,4.7869e-06,3.3498e-06,4.4427e-06,2.8963e-06,-3.126e-05,-9.6417e-06,-2.7755e-05,9.2324e-06,-1.8804e-05,1.2867e-07,-1.6081e-05,-1.1911e-05,-1.1968e-05,-8.6447e-06,-1.1782e-05,1.0812e-05,-2.5073e-06,-1.3219e-05,-4.3973e-06,1.5493e-07,-3.9462e-05,-3.5271e-06,6.5813e-06,-1.3199e-05,2.0332e-07,-2.5314e-06,5.4494e-06,-4.5503e-05,-6.5667e-07,-0.24867,-1.4642e-05,-1.7276e-05
-0.00024088,-0.00030765,-0.00051051,-0.0013186,1.5838e-05,0.00026995,-4.0864e-05,0.00017622,-0.00030577,-0.00013761,3.0536e-05,0.00051927,1.6154e-05,-2.2841e-05,0.00030946,-5.2839e-05,-0.00019916,-0.00013543,0.00040447,0.00013099,-0.00036116,0.00017049,-6.6097e-05,0.00020987,-0.0002763,-5.5654e-05,6.2597e-05,9.1252e-10,0.00034252,0.00022601,-4.1357e-05,-5.0975e-05,-0.00030213,0.00020892,-1.5638e-05,0.0013989,-0.00013547,-4.8147e-05,-1.2576,-0.00032351,0.012318,0.00016463,8.7576e-05,1.5812e-06,-0.00018826,0.00015065,0.00012733,-0.00027329,-0.00021212,-0.00014549,-0.00017073,-0.00012547,4.2444e-05,9.0987e-05,5.51e-05,6.9052e-05,0.00012127,-0.00086101,-0.00018761,-0.00065775,0.00020966,-0.00038266,1.0486e-05,-0.0002836,-0.00015864,-0.00022691,-0.00025403,-0.00020416,0.0002306,-3.3339e-05,-0.00031174,-6.4443e-05,-2.4944e-05,-0.00041847,-8.7306e-05,0.00021745,-0.00025699,1.3947e-06,-6.1077e-05,0.00011032,-0.00085483,-3.7715e-05,-0.14836,-0.00023506,-0.00026671
-4.7062e-05,-6.2772e-05,-0.00011243,-0.00016283,6.1524e-06,5.9723e-05,-5.8725e-06,3.6294e-05,-6.5676e-05,-2.778e-05,9.038e-06,4.9926e-05,-1.4762e-07,-1.0037e-05,6.452e-05,-1.1985e-05,-4.3502e-05,-3.0293e-05,0.00011143,2.5944e-05,-7.0204e-05,2.8566e-05,-1.5073e-05,4.5058e-05,-6.5537e-05,-1.0507e-05,1.2332e-05,5.0652e-05,-1.0234e-10,4.546e-05,-3.6423e-06,-1.174e-05,-5.7626e-05,3.7033e-05,-3.9237e-06,0.00011608,-3.1909e-05,-1.3876e-05,-1.6502,-4.5337e-05,0.00018655,1.9695e-05,1.9722e-05,-1.1469e-06,-2.2807e-05,3.2628e-05,2.6022e-05,-4.0752e-05,-4.3725e-05,-2.1353e-05,-3.5974e-05,-2.6997e-05,1.1922e-05,1.7973e-05,1.2559e-05,1.4152e-05,2.1256e-05,-0.00013727,-3.719e-05,-9.5236e-05,3.751e-05,-7.3652e-05,5.7078e-06,-6.5921e-05,-4.0063e-05,-4.3933e-05,-4.6239e-05,-4.4787e-05,4.513e-05,-1.1317e-05,-5.9587e-05,-1.7474e-05,-3.8817e-06,-0.00012421,-1.8586e-05,4.8408e-05,-5.0714e-05,3.9379e-07,-1.5486e-05,2.1209e-05,-0.00015091,-2.959e-06,-0.14295,-5.2066e-05,-5.5362e-05
-5.7571e-05,-6.9585e-05,-0.00013202,-0.00031673,1.1448e-05,8.9904e-05,-2.0315e-06,4.7301e-05,-3.2493e-05,-2.6674e-05,9.605e-06,6.1628e-05,5.1494e-06,-9.6837e-06,7.4183e-05,-1.3426e-05,-5.3008e-05,-3.1629e-05,0.00010465,2.6776e-05,-8.2561e-05,2.8695e-05,-1.1542e-05,4.9368e-05,-7.7839e-05,-1.1199e-05,1.7143e-05,4.73e-05,6.4732e-05,-4.1317e-11,-1.1162e-05,-1.3069e-05,-7.6327e-05,3.1416e-05,1.6917e-07,0.00011597,-3.8696e-05,-2.1552e-05,-1.0972,-8.0008e-05,0.00021379,4.5185e-05,8.9815e-05,-5.1925e-08,-4.3659e-05,3.2513e-05,3.3547e-05,-8.0277e-05,-2.9454e-05,-1.3061e-05,-4.398e-05,-3.4668e-05,4.5412e-05,2.759e-05,1.8562e-05,1.758e-05,2.2911e-05,-0.00017906,-4.1084e-05,-0.00015849,5.3313e-05,-8.8708e-05,-2.3644e-07,-7.1707e-05,-4.986e-05,-5.6302e-05,-4.312e-05,-5.1176e-05,6.1429e-05,-8.7065e-06,-6.5709e-05,-1.7482e-05,-2.379e-06,-0.00011705,-2.0723e-05,3.7553e-05,-6.131e-05,-2.0088e-06,-1.3627e-05,2.8532e-05,-0.00021307,-3.7869e-06,-0.13605,-6.8086e-05,-7.52e-05
-0.00010374,-0.00013149,-0.00022672,-0.00042862,2.3622e-05,0.00014642,-1.5651e-05,8.5499e-05,-0.00020442,-7.8684e-05,1.9208e-05,0.00010456,4.8865e-06,-9.1186e-06,0.00012257,-2.5677e-05,-5.7991e-05,-6.4272e-05,0.00027584,7.0257e-05,-0.00015565,7.4833e-05,-3.0294e-05,0.00011881,-0.00014455,-2.5536e-05,2.5176e-05,9.7122e-05,0.00016834,0.00010848,-2.2081e-10,-3.725e-05,-9.8491e-05,9.4347e-05,-1.4208e-05,0.00020281,-6.9069e-05,-1.9756e-05,-1.1527,-0.00012924,0.00036729,6.7151e-05,6.4337e-05,9.6571e-07,-7.2488e-05,6.2582e-05,5.5987e-05,-0.00011211,-0.0001339,-2.6779e-05,-7.637e-05,-7.628e-05,4.1204e-05,6.2961e-05,4.5897e-05,5.5271e-05,8.1288e-05,-0.00038872,-7.0801e-05,-0.00024323,8.6558e-05,-0.00015437,6.7372e-06,-0.00015584,-7.2851e-05,-9.0768e-05,-0.00010896,-8.9474e-05,0.00010304,-1.4084e-08,-0.00014142,-2.7536e-05,-1.0946e-05,-0.00021069,-4.6924e-05,0.00013319,-0.00012045,-3.2683e-06,-3.0299e-05,5.157e-05,-0.00035062,9.7017e-08,-0.17463,-8.0898e-05,-0.00011167
-4.7863e-05,-6.463e-05,-0.00011015,-0.00017298,9.4127e-06,0.00011115,1.885e-06,3.878e-05,-4.0109e-05,-3.5186e-05,1.0255e-05,8.3093e-05,-2.8513e-06,-4.2093e-06,7.4441e-05,-3.3924e-06,-3.2496e-05,-2.2986e-05,0.00013386,3.5284e-05,-8.2654e-05,4.2764e-05,-1.3993e-05,0.00011098,-7.4725e-05,-1.0212e-05,1.7144e-05,7.5625e-05,8.9188e-05,7.7864e-05,-8.5572e-06,8.911e-11,-7.8334e-05,6.8905e-05,-6.2073e-06,0.00018269,-3.8301e-05,-2.0464e-05,-0.76455,-7.1666e-05,0.00028573,7.4115e-05,9.1542e-05,1.3966e-05,-3.8382e-05,3.7406e-05,3.5176e-05,-5.6221e-05,-2.0558e-05,7.0436e-06,-3.333e-05,-3.1202e-05,3.812e-05,3.0356e-05,2.1108e-05,2.3461e-05,3.609e-05,-0.00018329,-3.5924e-05,-0.00013122,5.6809e-05,-7.3535e-05,9.6471e-06,-4.7333e-05,-3.4594e-05,-5.0995e-05,-5.0821e-05,-3.8562e-05,9.0019e-05,-9.3437e-06,-6.3376e-05,-1.4146e-05,-1.7751e-06,-0.00011959,-1.5539e-05,5.9345e-05,-7.4537e-05,-6.9225e-07,-1.166e-05,3.0194e-05,-0.00016405,-2.4397e-06,-0.14596,-4.9849e-05,-6.2918e-05
-5.7357e-05,-7.2148e-05,-0.00012521,-0.00023782,7.726e-06,7.7135e-05,-7.0138e-06,4.4356e-05,-8.386e-05,-3.7195e-05,1.0389e-05,5.7186e-05,7.4387e-07,-5.1363e-06,7.1078e-05,-8.292e-06,-3.8302e-05,-3.2859e-05,0.00012498,3.7025e-05,-8.0285e-05,4.2595e-05,-1.4199e-05,4.9065e-05,-7.4441e-05,-1.4384e-05,1.3714e-05,5.5456e-05,8.6619e-05,5.6072e-05,6.1955e-06,-2.3429e-05,-3.4886e-11,4.1658e-05,-4.6099e-06,0.00011409,-4.0409e-05,-1.6425e-05,-1.3129,-7.0144e-05,0.00020937,4.36e-05,3.6014e-05,-1.6683e-06,-4.017e-05,3.4382e-05,3.0803e-05,-6.432e-05,-5.7544e-05,-2.1769e-05,-3.8719e-05,-3.6224e-05,1.5278e-05,2.6483e-05,1.9119e-05,2.158e-05,3.1614e-05,-0.00019819,-4.2222e-05,-0.00012823,4.8016e-05,-8.2931e-05,4.3834e-06,-8.9978e-05,-5.4353e-05,-5.7091e-05,-5.9399e-05,-4.7568e-05,5.3882e-05,-5.7045e-06,-8.0428e-05,-1.231e-05,-3.76e-06,-0.0001246,-2.393e-05,5.8102e-05,-6.9641e-05,-1.6555e-06,-1.6606e-05,2.8528e-05,-0.00023402,-2.6773e-06,-0.15893,-5.0745e-05,-6.0199e-05
-3.2345e-05,-4.2904e-05,-6.7547e-05,-0.00010681,7.0812e-06,6.1864e-05,-1.7405e-06,2.1688e-05,-2.6387e-05,-2.5103e-05,7.4047e-06,4.7408e-05,-2.0388e-06,-8.7363e-06,3.2718e-05,-3.8254e-06,-2.2968e-05,-1.9649e-05,6.6265e-05,1.6799e-05,-4.6064e-05,1.9153e-05,-1.2014e-05,6.1553e-05,-4.156e-05,-4.0973e-06,7.7814e-06,4.677e-05,4.9194e-05,3.5647e-05,3.9707e-06,2.1697e-06,-3.531e-05,8.2611e-10,-3.0047e-06,7.471e-05,-2.2361e-05,-1.743e-05,-0.88155,-3.4674e-05,0.00019094,3.5222e-05,3.1495e-05,4.8889e-06,-1.9584e-05,1.8253e-05,1.4738e-05,-3.1506e-05,-2.0487e-05,4.8761e-06,-2.773e-05,-2.2317e-05,2.969e-05,8.8028e-06,6.6419e-06,6.9235e-06,2.0657e-05,-8.6429e-05,-2.7344e-05,-8.5311e-05,3.3376e-05,-5.3469e-05,3.275e-06,-2.8405e-05,-1.2421e-05,-3.5895e-05,-3.6605e-05,-3.2168e-05,5.0091e-05,-5.4755e-06,-3.3993e-05,-1.5707e-05,1.825e-06,-8.522e-05,-1.1388e-05,2.2321e-05,-3.4244e-05,-2.8268e-06,-1.2509e-05,1.4021e-05,-7.6748e-05,-4.497e-06,-0.10716,-3.7133e-05,-3.7754e-05
-5.8096e-05,-7.671e-05,-0.00015706,-0.00020603,-4.1587e-07,7.1661e-05,-1.5767e-06,6.2139e-05,-0.00010181,-2.0743e-07,1.2933e-05,2.8561e-05,2.5407e-06,-2.237e-05,7.925e-05,-2.6701e-05,-7.5822e-05,-2.8924e-05,9.5025e-05,1.4005e-05,-7.3569e-05,1.397e-05,-1.183e-05,3.1949e-05,-5.7245e-05,-9.7348e-06,2.1419e-05,3.7491e-05,4.7941e-05,4.4622e-05,-2.6598e-05,-3.4723e-05,-8.6855e-05,1.7786e-05,1.0786e-09,9.7166e-05,-3.5793e-05,-3.2245e-05,-2.0798,-8.4674e-05,0.00012975,5.1928e-06,-1.9743e-05,-1.275e-05,-5.7634e-05,4.0254e-05,3.445e-05,-0.00012127,-5.8464e-05,-4.1528e-05,-4.8361e-05,-1.9191e-05,-2.6312e-05,8.8195e-06,2.0175e-06,1.8859e-05,-2.5472e-06,-0.00012156,-4.8131e-05,-0.00014585,4.2082e-05,-0.00010564,1.8727e-06,-7.8508e-05,-5.397e-05,-5.5294e-05,-4.8019e-05,-6.2247e-05,4.7039e-05,-1.5762e-05,-5.8335e-05,-3.3731e-05,4.9734e-06,-0.00021227,-1.3014e-05,2.3232e-05,-4.0595e-05,-1.5121e-06,-1.042e-05,2.4077e-05,-0.00018344,-7.1428e-06,-0.2389,-8.5679e-05,-7.8463e-05
-0.00016361,-0.00017311,-0.00039928,-0.00077276,5.6883e-06,0.00017665,-2.6243e-05,0.00014088,-0.0002207,-9.1331e-05,2.0462e-05,0.00026924,3.6919e-05,1.699e-06,0.00026158,-7.1338e-05,-0.00011989,-7.8453e-05,0.00031777,0.00011205,-0.00029946,9.8346e-05,-6.1994e-05,0.00013138,-0.00018826,-5.1141e-05,5.2353e-05,0.00029705,0.00022643,0.00015321,-5.5622e-05,-3.2274e-05,-0.00025317,7.7368e-05,-1.2745e-05,9.3351e-10,-0.00012303,-2.243e-05,-1.0451,-0.00026724,0.0013282,0.00010252,2.787e-05,2.291e-07,-0.00015783,8.7132e-05,9.661e-05,-0.00022347,-8.7028e-05,-8.8596e-05,-0.00010665,-7.7545e-05,-6.5248e-05,8.3488e-05,6.0799e-05,5.389e-05,8.6617e-05,-0.00044779,-9.9724e-05,-0.00037376,0.00013454,-0.0002609,-4.5604e-06,-0.00018975,-0.00013555,-0.00016864,-0.00013364,-0.00015884,0.00015935,-1.675e-05,-0.00020957,-3.4448e-05,-2.605e-05,-0.00037118,-5.4369e-05,0.00015944,-0.00019684,-1.0742e-05,-3.5127e-05,6.8181e-05,-0.00061796,-4.0011e-05,-0.15782,-0.00019933,-0.00019429
-8.1346e-06,-1.1097e-05,-2.2774e-05,-3.2167e-05,4.3299e-07,7.8077e-06,-8.701e-07,8.0497e-06,-1.7094e-05,-3.8519e-06,7.3561e-07,7.9479e-06,-3.0429e-07,-7.8962e-07,1.259e-05,-1.9175e-06,-8.6735e-06,-4.0149e-06,2.1577e-05,4.5588e-06,-1.3538e-05,5.7935e-06,-2.3844e-06,6.2991e-06,-1.063e-05,-2.2198e-06,2.9146e-06,8.4992e-06,1.0308e-05,7.7314e-06,-2.9874e-06,-4.4196e-06,-1.4326e-05,4.1803e-06,4.4392e-08,1.8118e-05,2.6526e-10,-2.9655e-06,-1.7505,-1.4888e-05,2.6443e-05,4.3502e-06,1.6526e-06,-2.454e-06,-7.4484e-06,6.1984e-06,5.0985e-06,-1.2829e-05,-9.2902e-06,-5.964e-06,-5.6276e-06,-4.0557e-06,-1.2128e-06,3.5316e-06,2.3309e-06,3.7733e-06,3.1665e-06,-2.747e-05,-6.7103e-06,-1.7419e-05,6.7616e-06,-1.3572e-05,4.3337e-07,-1.1176e-05,-7.8199e-06,-8.6676e-06,-7.5635e-06,-7.6779e-06,7.6558e-06,-1.7429e-06,-1.0964e-05,-2.0434e-06,7.0969e-08,-2.719e-05,-2.5575e-06,7.3939e-06,-9.4182e-06,2.4533e-07,-2.4403e-06,4.4688e-06,-3.3777e-05,1.6803e-08,-0.17873,-9.641e-06,-1.2485e-05
-7.8246e-05,-8.6225e-05,-0.00019166,-0.00025105,4.3863e-06,0.00011394,-1.0638e-05,7.6803e-05,-9.3141e-05,-4.7853e-05,1.0503e-05,0.00010398,1.0896e-05,1.3507e-05,0.00013653,-3.6532e-05,-5.9785e-05,-3.5847e-05,0.0002011,6.6869e-05,-0.00015496,7.0617e-05,-2.6367e-05,7.1566e-05,-9.6215e-05,-2.5592e-05,2.8314e-05,9.1942e-05,0.00011728,8.1592e-05,-2.3265e-05,-4.1768e-05,-0.00013851,3.2635e-05,-1.3974e-05,0.00024691,-5.5094e-05,3.0037e-10,-0.84996,-0.00013679,0.00033037,8.0755e-05,9.4107e-05,-8.5153e-06,-6.7615e-05,4.724e-05,4.7234e-05,-9.9175e-05,-7.0088e-05,-4.3289e-05,-3.9786e-05,-3.935e-05,1.3369e-05,5.4864e-05,4.0032e-05,3.5797e-05,4.9467e-05,-0.00022015,-4.3888e-05,-0.00016004,6.6475e-05,-0.00010496,2.3202e-06,-9.7171e-05,-7.876e-05,-9.1209e-05,-7.3282e-05,-5.3366e-05,8.3337e-05,1.6764e-07,-0.00011664,-5.8408e-06,-1.5628e-05,-0.00025813,-2.9589e-05,9.4896e-05,-0.00010776,-2.3169e-06,-2.3331e-05,3.8998e-05,-0.00029812,-9.353e-06,-0.16845,-7.3222e-05,-0.00011344
-1.3768e-05,-1.3017e-05,-2.4876e-05,-6.0848e-06,5.67e-06,5.6095e-05,-2.6065e-06,1.8257e-05,-6.9699e-08,-4.39e-06,1.0961e-05,2.2956e-05,2.5215e-05,8.0644e-07,3.6175e-05,-4.7666e-06,-6.7696e-06,-6.9694e-06,6.7807e-05,1.293e-05,-2.1378e-05,9.4844e-06,-3.6803e-06,3.1942e-05,-1.3433e-05,-1.6787e-06,6.2873e-06,2.3477e-05,2.4071e-05,2.8975e-05,2.3907e-06,4.9179e-06,-1.4781e-05,2.2254e-05,3.7469e-07,6.5867e-05,-7.4493e-06,5.4238e-06,7.4952e-10,-1.8728e-05,0.00010225,3.5064e-05,2.8087e-05,9.9195e-06,-7.5799e-06,1.0547e-05,9.8293e-06,-1.7003e-05,3.5767e-06,4.9844e-06,-5.4451e-06,-4.0142e-06,1.4979e-05,1.1297e-05,8.5617e-06,7.8898e-06,5.9709e-06,-1.8504e-06,-2.3884e-06,-1.7425e-05,1.8753e-05,-1.8031e-05,7.623e-07,-6.6473e-06,-7.262e-06,-1.3359e-05,-1.1128e-05,-1.0755e-05,2.728e-05,3.2347e-06,-1.9302e-05,-2.5317e-06,-6.3052e-07,-1.3645e-05,-3.0565e-06,2.3348e-05,-2.768e-06,7.9552e-07,-2.8628e-06,7.7836e-06,-7.5443e-06,7.2849e-07,-0.11689,-8.4741e-06,-1.4158e-05
-0.00020184,-0.00026109,-0.00047397,-0.00082708,3.1027e-05,0.00024355,-1.4571e-05,0.00016889,-0.00027836,-0.00013107,3.1088e-05,0.00018444,2.1489e-05,-1.5541e-05,0.00026274,-7.5165e-05,-0.0001758,-0.00013272,0.00040204,0.00014323,-0.00031601,0.0001572,-6.2765e-05,0.00021355,-0.00027387,-4.6418e-05,6.6471e-05,0.00017295,0.00037461,0.00018672,-2.5304e-05,-6.8979e-05,-0.0002549,0.0001505,-1.5302e-05,0.00037196,-0.00015882,-5.7294e-05,-1.5884,3.2711e-11,0.00067291,0.00010109,0.00010054,-7.9577e-06,-0.00012512,0.00013659,0.00011596,-0.00017127,-0.00018948,-8.6305e-05,-0.00013732,-0.00012129,2.8154e-05,0.00011338,8.5662e-05,7.7333e-05,0.00011682,-0.0007213,-0.00015586,-0.00050172,0.00018462,-0.00030604,1.749e-05,-0.00028417,-0.00016667,-0.00020262,-0.00021013,-0.00017776,0.00020494,-2.548e-05,-0.0002576,-3.8957e-05,-1.7241e-05,-0.00059585,-9.6615e-05,0.00018991,-0.00026669,-5.1997e-07,-5.8055e-05,9.5867e-05,-0.00074442,-1.2538e-05,-0.18828,-0.00019656,-0.00021452
-1.7659e-05,-2.186e-05,-4.1536e-05,-7.1047e-05,2.376e-06,3.9205e-05,-1.7257e-06,1.3864e-05,-7.7996e-06,-9.9106e-06,2.4617e-06,5.1022e-05,-9.7258e-07,-2.4716e-06,2.1368e-05,3.8701e-07,-1.3723e-05,-7.5081e-06,3.7023e-05,7.8025e-06,-2.904e-05,1.0057e-05,-4.5098e-06,2.1033e-05,-2.0311e-05,-3.8206e-06,5.2231e-06,4.6627e-05,2.9303e-05,2.7903e-05,-3.9828e-07,-8.2586e-07,-1.845e-05,2.2651e-05,-5.0321e-07,0.00010045,-1.1427e-05,-3.9691e-06,-1.0311,-2.0569e-05,-9.8341e-11,2.6377e-05,2.2607e-05,2.8998e-06,-1.1238e-05,1.0652e-05,1.0346e-05,-1.9531e-05,-9.174e-06,1.0395e-07,-1.324e-05,-1.0852e-05,1.3564e-05,4.1218e-06,1.4409e-06,4.5803e-06,1.1659e-05,-4.8356e-05,-1.3519e-05,-5.2385e-05,1.686e-05,-2.6842e-05,2.8999e-06,-1.9389e-05,-1.1742e-05,-1.7863e-05,-1.6364e-05,-1.4335e-05,2.6746e-05,-2.4271e-06,-2.0723e-05,-6.8623e-06,6.9451e-07,-2.9644e-05,-5.2967e-06,1.748e-05,-1.8775e-05,-5.3885e-07,-6.0999e-06,9.1513e-06,-5.4685e-05,-1.9478e-06,-0.14531,-2.0421e-05,-1.9493e-05
-4.5076e-05,-3.9325e-05,-0.00010069,-0.00015316,1.0041e-06,0.00038968,-5.3105e-06,2.986e-05,2.2696e-05,-4.0748e-05,1.9808e-07,8.0287e-05,4.0149e-06,7.2347e-06,5.4375e-05,2.3533e-06,-2.1648e-05,-1.5515e-05,9.9577e-05,3.2127e-05,-8.8846e-05,3.3564e-05,-1.5033e-05,8.0126e-05,-5.6023e-05,-1.7328e-05,1.472e-05,6.025e-05,5.0192e-05,7.5509e-05,-5.1007e-06,3.7431e-06,-5.2286e-05,5.187e-05,-1.678e-05,0.00013639,-3.4335e-05,-4.6996e-06,-0.20494,-6.9465e-05,0.00032979,6.4948e-11,0.024112,1.5892e-05,-3.2729e-05,1.6724e-05,1.446e-05,-4.2318e-05,1.4561e-05,6.009e-05,-2.3853e-05,-3.2297e-05,0.00011476,2.1682e-05,1.2964e-05,1.3593e-05,3.8988e-05,-0.00014696,-2.6952e-05,-0.00010952,6.3759e-05,-5.8258e-05,7.3718e-07,-4.2498e-05,-3.6736e-05,-5.0919e-05,-4.9116e-05,-2.8038e-05,0.00012655,3.8358e-06,-7.1476e-05,-8.2948e-06,-8.3673e-06,-8.4319e-05,-2.0633e-05,5.2546e-05,-7.9648e-05,-7.4777e-06,-1.738e-05,1.7129e-05,-0.00016724,-5.867e-06,-0.14167,-3.6435e-05,-6.0435e-05
-6.2496e-05,-4.9462e-05,-0.00014356,-0.00022396,7.4689e-06,0.00040638,-8.5249e-06,4.4897e-05,0.0014983,-6.93e-05,4.1726e-07,0.00013322,1.1348e-05,3.2319e-05,0.00010155,-2.5683e-05,-2.8172e-05,-3.2528e-05,0.00016312,8.4327e-05,-0.00017053,7.6671e-05,-3.0605e-05,0.00012188,-9.8852e-05,-3.7452e-05,2.1992e-05,5.7228e-05,9.0888e-05,0.0002018,-2.0397e-05,9.5348e-06,-0.00011218,5.7777e-05,-4.5922e-05,0.00014911,-7.2952e-05,6.2754e-06,-0.72373,-0.00012451,0.00040032,0.0022606,1.138e-09,1.6342e-05,-2.1752e-05,4.1543e-05,3.3077e-05,-4.4631e-05,1.617e-06,7.6008e-05,-1.8053e-05,-7.519e-05,1.279,6.4908e-05,4.8699e-05,3.6531e-05,5.4993e-05,-0.00027861,-1.9014e-05,-0.00021383,0.00010638,-9.0931e-05,1.5134e-05,-5.4722e-05,-8.0841e-05,-8.957e-05,-6.9977e-05,-1.9986e-05,0.00016141,1.2063e-05,-0.00012776,-3.039e-06,-2.5511e-05,-5.938e-05,-4.1945e-05,0.00010326,-0.00011368,-3.4087e-06,-4.5734e-05,3.1591e-05,-0.00035943,1.6152e-06,-0.19489,-3.2899e-05,-8.3997e-05
-7.4163e-05,-8.9227e-05,-0.00016263,-0.00021698,3.4691e-06,0.00010185,-1.2297e-05,6.4106e-05,-6.817e-05,-3.6122e-05,8.139e-06,9.7738e-05,7.1812e-06,-1.3585e-05,0.00010424,-2.5367e-05,-5.9996e-05,-3.9175e-05,0.00012899,3.395e-05,-0.00012694,3.7589e-05,-2.504e-05,9.1846e-05,-8.6953e-05,-2.0733e-05,1.848e-05,7.7206e-05,9.3951e-05,8.1295e-05,-1.6298e-05,-9.2087e-06,-0.00010255,6.019e-05,-3.8793e-06,0.00018857,-6.0357e-05,-2.6917e-05,-0.85242,-0.00010182,0.000295,7.8013e-05,6.9411e-05,7.6154e-11,-5.7035e-05,4.0141e-05,3.8792e-05,-8.8876e-05,-4.8049e-05,-2.7221e-05,-4.9927e-05,-3.6404e-05,2.4568e-05,2.6464e-05,1.6459e-05,1.9668e-05,2.4317e-05,-0.00016407,-4.622e-05,-0.00018403,6.2494e-05,-0.0001166,2.2408e-06,-7.3894e-05,-6.3291e-05,-7.2991e-05,-6.0157e-05,-6.1837e-05,8.2036e-05,-1.0336e-05,-8.8735e-05,-2.1272e-05,-4.5317e-06,-0.00019323,-2.3158e-05,8.2333e-05,-6.8627e-05,-6.7724e-06,-2.7787e-05,2.7006e-05,-0.00020918,-1.6517e-05,-0.16205,-7.9224e-05,-9.71e-05
-2.7104e-06,-2.9859e-06,-6.4477e-06,-9.4493e-06,2.5711e-07,3.5858e-06,-1.3475e-07,2.5116e-06,-4.0073e-06,-1.5769e-06,5.1823e-07,3.3162e-06,-2.1334e-08,-8.975e-08,3.8031e-06,-8.1384e-07,-2.0546e-06,-1.3017e-06,6.3713e-06,2.0893e-06,-4.4476e-06,2.101e-06,-8.5868e-07,2.9308e-06,-3.7415e-06,-6.3061e-07,9.1488e-07,2.822e-06,5.1415e-06,3.0209e-06,-4.6048e-07,-8.9345e-07,-3.7937e-06,2.2564e-06,-4.5349e-07,6.2248e-06,-1.8368e-06,-7.8824e-07,-1.4503,-3.3166e-06,1.0937e-05,2.1817e-06,3.3454e-06,-1.2892e-07,3.8089e-10,1.9414e-06,1.7185e-06,-2.0046e-06,-2.5284e-06,-8.6368e-07,-1.7315e-06,-1.4052e-06,1.7789e-07,1.2996e-06,8.4218e-07,1.1323e-06,1.6585e-06,-8.6133e-06,-1.7226e-06,-6.5255e-06,2.5143e-06,-3.9427e-06,3.4834e-07,-3.6089e-06,-2.7566e-06,-2.7488e-06,-2.3803e-06,-2.1218e-06,3.0645e-06,-2.9648e-07,-3.6253e-06,-5.2583e-07,-3.0557e-07,-7.7257e-06,-1.0248e-06,2.9725e-06,-3.5639e-06,2.3851e-07,-1.0576e-06,1.3036e-06,-1.0545e-05,4.6203e-08,-0.17855,-2.7554e-06,-3.4094e-06
-9.2065e-05,-0.00011935,-0.0002503,-0.00038675,5.9771e-06,7.7052e-05,-7.8373e-06,9.406e-05,-0.00020655,-3.4021e-05,1.0505e-05,4.8072e-05,6.0401e-06,-9.5536e-06,0.00013308,-4.7273e-05,-0.00011291,-5.1553e-05,0.00016119,5.6043e-05,-0.0001353,6.4567e-05,-2.223e-05,6.0055e-05,-0.00011915,-2.6364e-05,3.8393e-05,5.814e-05,0.00011344,6.9592e-05,-4.5451e-05,-5.0458e-05,-0.00016672,3.4511e-05,1.0106e-05,0.00014338,-6.1753e-05,-4.4546e-05,-2.0588,-0.00015427,0.00021389,1.2404e-05,1.0405e-05,-2.0585e-05,-8.4767e-05,2.1172e-11,5.952e-05,-0.00014662,-0.00011009,-7.942e-05,-6.7521e-05,-4.1822e-05,-3.056e-05,4.709e-05,3.3293e-05,3.7559e-05,2.3309e-05,-0.00029451,-7.1437e-05,-0.0001927,8.0624e-05,-0.00015429,2.2632e-05,-0.00014487,-0.00010191,-9.9026e-05,-8.4246e-05,-8.6675e-05,7.3775e-05,-1.5844e-05,-0.00011387,-2.2096e-05,-3.3716e-06,-0.00036491,-3.4707e-05,6.0729e-05,-0.00010796,1.7298e-05,-2.0762e-05,4.2895e-05,-0.00040811,-6.2129e-06,-0.16294,-0.00011884,-0.00013553
-9.3084e-05,-0.0001203,-0.00026088,-0.00032835,5.0136e-06,0.00011416,-4.4262e-06,0.00010172,-0.00016245,-2.8551e-05,2.5242e-05,7.4229e-05,8.2299e-08,-1.98e-05,0.00014451,-3.6264e-05,-0.00010694,-2.9402e-05,0.00020081,4.7555e-05,-0.00013267,4.4477e-05,-2.1499e-05,7.7654e-05,-0.00011898,-1.8621e-05,3.5901e-05,7.1259e-05,0.00010001,8.9238e-05,-4.454e-05,-4.8003e-05,-0.00016098,3.6491e-05,1.4017e-05,0.00019708,-6.6218e-05,-4.8374e-05,-1.9838,-0.00015734,0.00026722,2.0224e-05,6.8686e-06,-1.9098e-05,-8.6941e-05,6.5557e-05,8.6923e-10,-0.00016678,-9.6576e-05,-6.298e-05,-7.1939e-05,-3.8801e-05,-1.9342e-05,3.3034e-05,2.1973e-05,3.8345e-05,2.5743e-05,-0.00025479,-7.5703e-05,-0.00022532,7.5341e-05,-0.0001516,2.3614e-06,-0.0001266,-9.2139e-05,-9.1127e-05,-8.2625e-05,-9.6301e-05,9.1695e-05,-2.2629e-05,-0.00011196,-3.5969e-05,2.1662e-05,-0.00032422,-1.1383e-05,5.7747e-05,-8.8004e-05,1.3772e-06,-2.2498e-05,5.9064e-05,-0.00032901,1.2345e-07,-0.26124,-0.00012327,-0.00013831
-6.0606e-06,-7.1017e-06,-1.4354e-05,-2.0123e-05,1.103e-06,8.5818e-06,-5.0429e-07,4.6202e-06,-9.6258e-06,-7.1006e-06,8.5984e-07,1.0987e-05,-2.1095e-07,1.8656e-06,9.9344e-06,-1.706e-06,-2.8899e-06,-3.3373e-06,2.1824e-05,7.7416e-06,-1.3078e-05,8.7169e-06,-2.5741e-06,9.3298e-06,-1.0981e-05,-2.2625e-06,1.8785e-06,8.9357e-06,1.6327e-05,7.5645e-06,-6.4377e-07,-8.7266e-07,-1.0252e-05,7.6807e-06,-3.6164e-06,1.9521e-05,-5.42e-06,-7.1618e-07,-1.5527,-7.519e-06,3.3571e-05,9.1602e-06,1.2646e-05,6.0078e-07,-1.7063e-06,4.7075e-06,3.7362e-06,1.9653e-10,-6.1091e-06,-1.0637e-06,-3.3647e-06,-4.344e-06,1.7685e-06,5.9985e-06,4.9741e-06,3.6479e-06,7.0528e-06,-2.3724e-05,-3.429e-06,-1.2133e-05,6.8704e-06,-8.0018e-06,1.5689e-06,-8.5221e-06,-6.5821e-06,-7.8412e-06,-6.9135e-06,-3.8396e-06,9.1297e-06,3.3628e-07,-1.0311e-05,6.2025e-07,-1.5435e-06,-1.9891e-05,-3.4141e-06,1.0269e-05,-1.1616e-05,3.2612e-07,-2.9646e-06,3.4696e-06,-2.4719e-05,-3.1919e-07,-0.18941,-5.0191e-06,-7.0982e-06
-1.3547e-05,-1.2958e-05,-3.707e-05,-5.5485e-05,1.1079e-06,4.8471e-05,-1.1983e-06,1.3943e-05,-4.7871e-06,-8.8474e-06,1.2422e-07,2.1664e-05,3.4865e-06,-4.7244e-08,2.3578e-05,-6.3197e-06,-1.0961e-05,-6.8663e-06,3.2031e-05,8.9979e-06,-2.9195e-05,1.0298e-05,-5.6969e-06,2.039e-05,-1.8011e-05,-3.7151e-06,6.7204e-06,1.5431e-05,1.9559e-05,2.3635e-05,-8.9345e-06,-2.8905e-08,-2.5278e-05,1.1978e-05,-1.5466e-06,5.4613e-05,-1.1728e-05,-3.626e-06,-0.21444,-2.2669e-05,6.7252e-05,3.4479e-05,2.92e-05,1.6604e-06,-1.2789e-05,9.2434e-06,9.2752e-06,-1.9233e-05,4.3608e-10,1.3055e-06,-7.6381e-06,-8.0055e-06,7.7677e-06,7.0534e-06,4.579e-06,4.0401e-06,6.5731e-06,-4.1854e-05,-8.7203e-06,-4.3383e-05,2.0971e-05,-2.2628e-05,-2.3935e-07,-1.3751e-05,-1.5106e-05,-1.5566e-05,-1.0742e-05,-1.3126e-05,2.7904e-05,-1.432e-07,-1.7537e-05,-3.3356e-06,-2.4703e-06,-3.1166e-05,-4.7818e-06,1.4509e-05,-2.1451e-05,-4.0235e-07,-4.1649e-06,7.2577e-06,-4.9875e-05,-1.7212e-06,-0.18968,-1.4244e-05,-2.1129e-05
-7.3217e-05,-8.3313e-05,-0.00014591,-0.00030725,1.9218e-05,0.0004424,-5.5504e-06,4.6987e-05,-5.5598e-05,-6.7181e-05,5.8102e-06,5.888e-05,-7.6484e-06,-1.2454e-05,6.1044e-05,-3.6308e-06,-5.8389e-05,-3.8321e-05,0.00014316,4.1633e-05,-9.8074e-05,5.3621e-05,-1.9795e-05,8.5053e-05,-0.00010361,-1.8156e-05,1.279e-05,4.8484e-05,8.3595e-05,8.408e-05,-1.5661e-06,-2.9167e-06,-8.7285e-05,7.0661e-05,-1.6906e-05,0.0001378,-5.6168e-05,-2.3924e-05,-0.74072,-8.965e-05,0.00028794,0.00019274,0.00047203,-5.1956e-06,-4.8137e-05,3.2307e-05,3.1022e-05,-6.7531e-05,-3.0605e-05,7.1806e-11,-4.8988e-05,-6.0156e-05,0.00011595,3.7196e-05,2.6807e-05,2.1141e-05,4.8128e-05,-0.00038592,-5.4981e-05,-0.00020338,7.5963e-05,-0.00010428,4.2017e-06,-9.3754e-05,-4.9758e-05,-6.8663e-05,-9.1087e-05,-4.9997e-05,0.0001664,-4.5832e-06,-9.5701e-05,-2.5931e-05,4.7049e-07,-0.00012871,-3.3862e-05,4.6231e-05,-0.00010715,-1.1426e-05,-2.0058e-05,3.4132e-05,-0.00027056,-2.7754e-06,-0.17074,-6.6525e-05,-8.8532e-05
-9.9049e-06,-1.2279e-05,-3.0291e-05,-3.6822e-05,-9.2539e-09,1.1406e-05,-1.3663e-06,1.2622e-05,-2.0021e-05,-6.1157e-06,-2.1205e-07,1.2228e-05,1.087e-06,3.0829e-06,1.953e-05,-6.8958e-06,-8.1189e-06,-4.0092e-06,2.8036e-05,1.0674e-05,-2.0688e-05,1.0749e-05,-3.6561e-06,1.0131e-05,-1.4365e-05,-3.2853e-06,4.4818e-06,8.9668e-06,1.3532e-05,9.3172e-06,-6.9738e-06,-5.4274e-06,-2.3024e-05,4.0893e-06,-2.4442e-06,2.7473e-05,-8.431e-06,-2.2684e-06,-1.5197,-2.2385e-05,3.6851e-05,9.2262e-06,9.6936e-06,-1.8376e-06,-1.0621e-05,7.0321e-06,7.2173e-06,-1.5142e-05,-1.0552e-05,-8.4651e-06,3.3743e-10,-4.3863e-06,-5.6912e-06,7.6845e-06,5.7702e-06,7.9792e-06,4.548e-06,-3.4203e-05,-5.2415e-06,-2.3455e-05,9.7279e-06,-1.42e-05,5.3355e-07,-1.3776e-05,-1.4409e-05,-1.2314e-05,-8.7956e-06,-6.5732e-06,1.1078e-05,8.5011e-07,-1.7531e-05,1.0361e-07,-2.1602e-06,-3.1768e-05,-4.1272e-06,1.304e-05,-1.73e-05,-8.7783e-08,-3.227e-06,5.2316e-06,-5.246e-05,-1.7322e-06,-0.21334,-8.6713e-06,-1.6654e-05
-9.7679e-06,-1.1974e-05,-3.1031e-05,-3.819e-05,-5.915e-07,9.8617e-06,-5.7443e-07,1.4446e-05,-2.2795e-05,-2.3574e-06,1.0324e-06,8.4756e-06,1.1654e-06,-2.2826e-07,1.8796e-05,-6.7263e-06,-1.1655e-05,-3.9858e-06,2.1685e-05,7.4351e-06,-1.8558e-05,6.9858e-06,-2.6581e-06,7.5379e-06,-1.309e-05,-2.7776e-06,5.0546e-06,8.2938e-06,1.177e-05,7.9146e-06,-7.8299e-06,-6.6516e-06,-2.2574e-05,3.2401e-06,1.548e-06,2.4142e-05,-7.6939e-06,-4.2168e-06,-1.6938,-2.0886e-05,2.9811e-05,3.826e-06,-2.2857e-06,-1.8812e-06,-1.0475e-05,7.7454e-06,7.8308e-06,-1.8051e-05,-1.2164e-05,-1.1902e-05,-6.1706e-06,1.22e-09,-8.503e-06,4.7022e-06,2.9739e-06,5.3424e-06,2.5108e-06,-2.7124e-05,-6.0633e-06,-2.3142e-05,9.1323e-06,-1.5697e-05,-9.5585e-08,-1.3918e-05,-1.3237e-05,-1.1678e-05,-8.7926e-06,-9.7999e-06,9.1822e-06,-1.139e-06,-1.4485e-05,-2.8698e-06,-6.2793e-07,-4.3465e-05,-2.5878e-06,8.7203e-06,-1.236e-05,4.7784e-07,-1.2912e-06,5.3872e-06,-4.3943e-05,-1.1798e-06,-0.2519,-1.3209e-05,-1.6951e-05
-1.0944e-05,-1.3109e-05,-2.2428e-05,-4.7905e-05,1.4885e-06,2.5487e-05,-3.0534e-06,5.6261e-06,3.6173e-06,-1.0647e-05,1.2044e-06,1.0368e-05,-2.8169e-06,-1.2958e-06,9.4159e-06,-2.086e-07,-6.7033e-06,-8.4459e-06,2.9841e-05,5.4708e-06,-1.7099e-05,5.113e-06,-3.6527e-06,1.2189e-05,-1.5989e-05,-2.887e-06,-1.3502e-06,1.1453e-05,1.5727e-05,1.808e-05,1.879e-06,-1.0317e-06,-1.0653e-05,1.2623e-05,-3.4577e-06,1.578e-05,-7.1889e-06,-3.1232e-06,-1.0733,-1.276e-05,4.379e-05,1.5268e-05,0.71793,8.1118e-07,-9.8579e-06,5.1808e-06,4.6542e-06,-1.351e-05,-7.2321e-06,3.5717e-06,-1.0666e-05,-9.9415e-06,1.108e-10,3.5186e-06,2.9054e-06,7.2699e-07,5.6717e-06,-5.781e-05,-9.6665e-06,-2.4869e-05,1.0558e-05,-1.9822e-05,4.621e-07,-1.2215e-05,-4.3807e-06,-1.1569e-05,-1.2815e-05,-9.2266e-06,1.4576e-05,-2.6168e-06,-1.3769e-05,-3.7974e-06,-4.3896e-08,-1.4237e-05,-7.4308e-06,5.3777e-06,-1.1672e-05,-2.4535e-06,-4.8716e-06,4.2368e-06,-3.4929e-05,-1.9966e-06,-0.1335,-1.0882e-05,-1.3171e-05
-7.3705e-05,-9.2755e-05,-0.00018294,-0.00023673,1.4786e-05,7.8771e-05,1.5182e-06,7.3125e-05,-0.00012628,-5.2963e-05,2.1834e-05,6.2118e-05,6.0543e-06,5.697e-06,0.0001553,-3.4505e-05,-6.6601e-05,-3.6008e-05,0.00021235,7.0871e-05,-0.00013624,7.27e-05,-2.2755e-05,7.4794e-05,-0.00012285,-2.8034e-05,3.527e-05,5.4619e-05,9.43e-05,8.28e-05,-3.4878e-05,-3.5207e-05,-0.00015734,3.2532e-05,-1.4568e-05,0.00018324,-6.3565e-05,-2.1177e-05,-1.5891,-0.00014834,0.00022294,4.9167e-05,5.866e-05,-1.5526e-05,-7.83e-05,5.3068e-05,5.0198e-05,-0.00010236,-8.9048e-05,-4.3384e-05,-4.7222e-05,-4.4471e-05,-1.3397e-05,2.7763e-10,8.4882e-05,3.8567e-05,4.4846e-05,-0.00023461,-5.8217e-05,-0.00011989,5.954e-05,-0.00010566,2.0663e-06,-0.00010638,-8.5541e-05,-8.3481e-05,-6.7689e-05,-6.8812e-05,8.5197e-05,-5.0321e-06,-0.00010998,-6.2911e-06,-8.5163e-06,-0.00030748,-3.0274e-05,6.351e-05,-0.00010662,5.5178e-07,-1.4577e-05,4.2304e-05,-0.0003153,-6.1461e-06,-0.2038,-8.6775e-05,-0.00011438
-7.3817e-05,-9.5871e-05,-0.00018329,-0.00023963,1.7257e-05,7.6025e-05,1.8967e-06,7.0175e-05,-0.00013059,-5.5586e-05,2.5183e-05,6.144e-05,3.5512e-06,6.9044e-06,0.00015574,-3.5351e-05,-6.7808e-05,-3.5676e-05,0.00021929,7.215e-05,-0.00013338,7.6056e-05,-2.266e-05,7.8495e-05,-0.00012451,-2.7209e-05,3.6729e-05,5.4894e-05,9.8481e-05,8.1577e-05,-3.5384e-05,-3.7357e-05,-0.00015592,3.922e-05,-1.5349e-05,0.00018604,-6.4129e-05,-2.2905e-05,-1.6311,-0.00014683,0.00022167,4.5953e-05,5.7372e-05,-1.585e-05,-8.0998e-05,5.3777e-05,5.2377e-05,-0.00010051,-9.1657e-05,-4.4376e-05,-4.7841e-05,-4.613e-05,-6.8486e-06,0.00010159,2.6338e-10,3.9933e-05,4.867e-05,-0.00024427,-6.125e-05,-0.0001242,6.0092e-05,-0.00010609,3.1403e-06,-0.0001072,-8.1371e-05,-8.4339e-05,-7.0015e-05,-7.0986e-05,8.9009e-05,-5.424e-06,-0.00010733,-4.4688e-06,-5.5777e-06,-0.00030614,-3.0154e-05,6.229e-05,-0.00010572,2.7621e-07,-1.5585e-05,4.434e-05,-0.00031861,-4.9257e-06,-0.20089,-8.6307e-05,-0.00011276
-8.4838e-06,-1.1546e-05,-2.1665e-05,-3.0819e-05,5.3178e-07,1.1279e-05,-3.0642e-07,1.0596e-05,-1.6035e-05,-3.7209e-06,1.4662e-06,6.0633e-06,-4.2478e-08,-2.0558e-08,1.4143e-05,-4.6383e-06,-8.545e-06,-3.0694e-06,2.0065e-05,5.5328e-06,-1.3884e-05,5.906e-06,-2.3269e-06,6.3379e-06,-1.086e-05,-2.2607e-06,3.4607e-06,6.1582e-06,9.2661e-06,7.5222e-06,-2.7953e-06,-4.5444e-06,-1.5226e-05,3.0901e-06,5.9683e-07,1.7898e-05,-5.8216e-06,-3.8749e-06,-1.842,-1.5085e-05,2.3469e-05,3.6171e-06,2.4752e-06,-2.3108e-06,-8.2854e-06,5.9863e-06,5.8027e-06,-1.3362e-05,-1.075e-05,-5.686e-06,-4.4312e-06,-3.6927e-06,-3.6082e-06,4.0583e-06,2.896e-06,6.4144e-10,2.6686e-06,-2.5559e-05,-6.2305e-06,-1.9602e-05,6.7502e-06,-1.3235e-05,5.9535e-07,-1.2231e-05,-9.4703e-06,-9.1287e-06,-7.3358e-06,-7.3738e-06,7.8869e-06,-5.4707e-07,-1.19e-05,-2.1962e-06,8.3755e-08,-4.4202e-05,-2.2899e-06,7.6241e-06,-9.9215e-06,1.1784e-07,-2.2084e-06,4.5878e-06,-3.6644e-05,-7.9629e-07,-0.23629,-8.7154e-06,-1.2175e-05
-7.339e-06,-9.39e-06,-1.6717e-05,-2.389e-05,1.4065e-06,1.02e-05,-2.8769e-07,4.6546e-06,-1.0197e-05,-7.3255e-06,1.0568e-06,9.6554e-06,-1.1089e-06,1.1759e-06,9.7429e-06,-1.1289e-06,-5.0883e-06,-3.9057e-06,1.9506e-05,6.3451e-06,-1.2124e-05,7.4739e-06,-1.9305e-06,9.3608e-06,-1.0869e-05,-1.9317e-06,2.7071e-06,8.7599e-06,1.1432e-05,8.9191e-06,-7.4276e-08,-1.8759e-06,-1.1369e-05,7.5076e-06,-2.7755e-06,2.1843e-05,-5.691e-06,-1.7044e-06,-1.9443,-1.1548e-05,3.5475e-05,9.0501e-06,7.4367e-06,-1.0254e-06,-5.5835e-06,4.2879e-06,4.8958e-06,-7.7014e-06,-7.6916e-06,-1.0419e-06,-5.7862e-06,-5.2325e-06,2.4627e-06,5.2569e-06,4.3097e-06,3.1718e-06,3.1376e-10,-2.5995e-05,-5.6868e-06,-1.5638e-05,6.4084e-06,-1.0218e-05,2.8336e-07,-1.0088e-05,-5.3599e-06,-8.2648e-06,-7.5342e-06,-6.0553e-06,1.0815e-05,-4.6653e-07,-1.0603e-05,-1.0361e-06,-2.2833e-07,-2.5344e-05,-3.6805e-06,7.0998e-06,-1.248e-05,-3.1793e-07,-3.0437e-06,4.4174e-06,-2.5048e-05,-8.1075e-08,-0.16599,-7.2605e-06,-9.8774e-06
-0.00013713,-0.00013438,-0.00031318,-0.00014972,1.5428e-05,0.00022605,-1.2996e-05,0.00017795,-7.9928e-05,-2.9194e-05,5.0906e-05,0.00015026,0.00014857,-8.4394e-06,0.0002757,-9.8209e-05,-0.00011142,-6.1611e-05,0.00032976,8.9183e-05,-0.00022805,6.8074e-05,-4.6615e-05,0.00018523,-0.00014174,-2.5061e-05,5.3004e-05,0.00011961,0.00016078,0.00014513,-4.4128e-05,-5.0389e-05,-0.00021156,0.00010557,1.968e-05,0.0004187,-0.00010002,-3.2368e-06,-0.00066727,-0.00020703,0.00049552,0.00011968,6.9247e-05,4.0415e-05,-0.00011152,7.4755e-05,8.3296e-05,-0.00018996,-5.1855e-05,-8.3756e-05,-6.7919e-05,-3.2053e-05,-3.7141e-05,7.503e-05,5.0873e-05,5.4711e-05,3.3778e-05,5.2543e-10,-5.2926e-05,-0.00017206,0.00012526,-0.00019577,-1.1627e-05,-0.00011878,-0.00012442,-0.00013359,-0.00010526,-0.00011384,0.00013897,9.7793e-06,-0.00016461,-3.2012e-05,-1.9376e-05,-0.00033738,-3.5533e-05,0.00012146,-7.7796e-05,-7.2106e-06,-3.227e-05,5.0863e-05,-0.00017568,-2.5016e-05,-0.18884,-0.00012356,-0.0001714
-3.1e-05,-3.1471e-05,-9.3775e-05,-0.00011329,6.0819e-07,4.8431e-05,-2.7321e-06,5.4353e-05,-5.3432e-05,-1.354e-05,3.9272e-06,4.3413e-05,6.8054e-06,1.2219e-05,6.6419e-05,-1.9925e-05,-2.0721e-05,-1.2118e-05,8.9534e-05,4.3149e-05,-6.5881e-05,3.7178e-05,-9.338e-06,3.376e-05,-4.4663e-05,-7.8577e-06,1.5165e-05,3.2726e-05,4.7879e-05,3.8418e-05,-1.4193e-05,-1.4572e-05,-6.7596e-05,1.7892e-05,-3.1063e-06,0.00010473,-2.7068e-05,-4.6794e-06,-1.0658,-6.613e-05,0.0001284,3.205e-05,4.0918e-05,5.0878e-07,-2.8613e-05,2.669e-05,2.6e-05,-4.3367e-05,-3.0375e-05,-2.3243e-05,-1.2247e-05,-9.2551e-06,-6.6754e-06,2.3649e-05,1.6589e-05,2.1647e-05,1.9201e-05,-9.7012e-05,1.6841e-10,-7.7827e-05,3.3986e-05,-4.3061e-05,2.075e-06,-3.4823e-05,-3.8631e-05,-4.184e-05,-2.473e-05,-2.0014e-05,4.4206e-05,6.1563e-06,-4.9068e-05,5.7457e-06,-6.8318e-06,-8.5984e-05,-9.9311e-06,4.5841e-05,-4.7313e-05,1.9113e-06,-8.7266e-06,1.796e-05,-0.00015744,-5.7918e-07,-0.15904,-2.8659e-05,-5.0119e-05
-0.00016433,-0.00018732,-0.00034667,-0.00035906,-1.4179e-05,1.9009e-05,-2.8275e-05,0.00010836,-0.00045905,-0.00012965,8.0071e-06,4.8126e-05,1.6015e-05,9.4799e-06,0.00020827,-0.00013801,-0.00015262,-9.0846e-05,0.00039263,0.00011839,-0.00029187,0.00012193,-7.9123e-05,6.7059e-05,-0.0002638,-6.9183e-05,2.0523e-05,6.4355e-05,0.00016219,6.2717e-05,-0.00010637,-0.00010993,-0.00033914,2.7644e-05,-6.326e-05,0.00027039,-0.00011642,-4.857e-05,-1.2324,-0.00034011,0.00031008,5.3456e-05,-2.4626e-05,-6.5632e-05,-0.00017743,6.3163e-05,5.6092e-05,-0.00018069,-0.00024008,-0.0001665,-9.932e-05,-8.7479e-05,-9.0237e-05,0.00012764,9.9349e-05,4.1683e-05,6.1419e-05,-0.00035455,-0.00012068,2.0001e-09,6.8318e-05,-0.00019233,-2.3417e-05,-0.00022231,-0.00016588,-0.00017797,-0.00016858,-0.00013059,3.8159e-05,-2.7064e-05,-0.0002406,-1.2632e-05,-4.93e-05,-0.00069786,-8.7035e-05,5.3869e-05,-0.00022539,-1.9299e-05,-4.6206e-05,4.378e-05,-0.00057459,-5.694e-05,-0.46722,-0.00016713,-0.00023505
-1.7692e-05,-1.8425e-05,-4.3099e-05,-6.5443e-05,8.9188e-07,2.7919e-05,-3.6344e-07,1.6391e-05,-2.301e-05,-7.7791e-06,1.2769e-06,1.3893e-05,1.0591e-06,-3.2487e-06,2.2793e-05,-7.3162e-06,-1.747e-05,-8.9799e-06,2.9212e-05,9.0473e-06,-2.7281e-05,8.314e-06,-5.6608e-06,1.6907e-05,-2.2455e-05,-4.8294e-06,5.5382e-06,1.3999e-05,1.8728e-05,1.7896e-05,-6.3265e-06,-6.7909e-06,-2.7312e-05,1.1824e-05,1.1775e-07,3.3232e-05,-1.2948e-05,-8.1829e-06,-1.6054,-2.6315e-05,4.8562e-05,1.4566e-05,1.3089e-05,-1.8889e-06,-1.5285e-05,1.1538e-05,9.3212e-06,-2.5695e-05,-1.0162e-05,-4.9363e-06,-1.2799e-05,-8.7696e-06,4.0702e-06,5.4305e-06,3.0399e-06,5.1033e-06,4.5938e-06,-5.1375e-05,-1.3544e-05,-4.733e-05,1.2792e-09,-3.1219e-05,1.5665e-07,-2.2448e-05,-1.6832e-05,-1.8255e-05,-1.628e-05,-1.6044e-05,2.1479e-05,-1.6973e-06,-2.1559e-05,-7.4521e-06,-5.8818e-07,-4.5958e-05,-6.7118e-06,1.1595e-05,-1.9163e-05,-5.4263e-07,-6.2362e-06,7.4848e-06,-6.7159e-05,-1.5954e-06,-0.34841,-2.0854e-05,-2.424e-05
-8.0608e-06,-1.1737e-05,-2.5337e-05,-3.5335e-05,1.1305e-06,1.0361e-05,-2.9713e-07,1.1129e-05,-1.9209e-05,-6.422e-06,8.0548e-07,1.2313e-05,5.7737e-07,3.1034e-06,1.752e-05,-4.1131e-06,-6.2536e-06,-2.7696e-06,3.0245e-05,1.122e-05,-1.887e-05,1.2105e-05,-1.5172e-06,9.8592e-06,-1.5099e-05,-3.0678e-06,4.6789e-06,9.5421e-06,1.4815e-05,1.0647e-05,-4.1822e-06,-3.5577e-06,-1.891e-05,5.5345e-06,-2.6933e-06,2.6749e-05,-7.9708e-06,-1.0884e-06,-1.5437,-1.8751e-05,3.92e-05,1.0198e-05,8.8566e-06,-1.6537e-06,-8.8715e-06,7.3863e-06,7.7126e-06,-1.1245e-05,-1.0777e-05,-6.4317e-06,-3.7065e-06,-3.9139e-06,-3.4901e-06,9.2947e-06,7.4913e-06,6.328e-06,7.9772e-06,-3.4599e-05,-4.4684e-06,-1.813e-05,8.6049e-06,2.7084e-10,1.7142e-06,-1.23e-05,-1.1024e-05,-1.142e-05,-8.5824e-06,-6.9321e-06,1.1534e-05,1.2736e-06,-1.499e-05,1.6624e-06,-1.0817e-06,-3.3733e-05,-3.5042e-06,1.2059e-05,-1.7007e-05,1.0274e-06,-1.62e-06,6.2951e-06,-4.5622e-05,-5.6197e-07,-0.21339,-8.8298e-06,-1.4723e-05
-1.1558e-05,-1.5928e-05,-3.0383e-05,-4.5083e-05,1.26e-06,1.4961e-05,-8.2715e-07,1.1618e-05,-2.1536e-05,-6.0492e-06,1.6118e-06,1.1752e-05,-1.243e-06,-1.7896e-06,1.7298e-05,-4.5269e-06,-1.3197e-05,-6.0721e-06,2.8006e-05,7.0274e-06,-2.0126e-05,8.5777e-06,-2.4925e-06,1.0804e-05,-1.6686e-05,-3.1445e-06,4.6275e-06,1.1578e-05,1.6937e-05,1.1944e-05,-4.1207e-06,-4.8433e-06,-1.9342e-05,7.7965e-06,7.5435e-07,2.7116e-05,-8.6511e-06,-5.4762e-06,-2.0146,-1.8861e-05,4.3425e-05,6.638e-06,7.3988e-06,-1.793e-06,-1.0462e-05,1.2121e-05,7.8262e-06,-1.6696e-05,-1.3523e-05,-5.8245e-06,-8.8258e-06,-6.7771e-06,9.4394e-07,5.3963e-06,3.7538e-06,5.5101e-06,4.3669e-06,-4.0531e-05,-1.02e-05,-2.9025e-05,1.11e-05,-1.8813e-05,2.799e-10,-1.7897e-05,-1.2444e-05,-1.2835e-05,-1.2475e-05,-1.0775e-05,1.3384e-05,-1.632e-06,-1.5792e-05,-3.8532e-06,6.8516e-08,-4.3243e-05,-3.7531e-06,9.0749e-06,-1.6193e-05,1.9047e-06,-3.055e-06,7.0345e-06,-5.4026e-05,-8.2836e-07,-0.20729,-1.5299e-05,-1.7474e-05
-2.0701e-06,-2.1887e-06,-6.3794e-06,-7.0406e-06,1.0158e-07,2.9867e-06,-3.5294e-07,2.5583e-06,-3.3515e-06,-1.2127e-06,3.5938e-07,3.2359e-06,5.2803e-07,1.8832e-07,4.4018e-06,-1.2442e-06,-2.0768e-06,-9.8306e-07,5.3786e-06,1.9561e-06,-4.8599e-06,2.1215e-06,-8.9267e-07,3.4152e-06,-3.2835e-06,-6.3606e-07,9.8563e-07,2.6392e-06,3.0438e-06,2.571e-06,-1.2971e-06,-3.0797e-07,-5.2149e-06,2.3708e-06,-2.3731e-07,7.0034e-06,-1.7142e-06,-5.631e-07,-0.85094,-4.4168e-06,9.769e-06,2.5329e-06,3.0682e-06,2.6584e-07,-2.2368e-06,1.4368e-06,1.7134e-06,-3.2578e-06,-1.5461e-06,-1.4513e-06,-1.2356e-06,-1.0276e-06,3.8841e-07,1.4937e-06,1.109e-06,1.1226e-06,1.2834e-06,-7.0062e-06,-1.0434e-06,-5.4072e-06,2.417e-06,-3.3456e-06,5.0839e-08,5.8033e-10,2.1954e-08,-2.9167e-06,-2.2062e-06,-1.8424e-06,2.8818e-06,-7.1019e-08,-3.282e-06,-8.0475e-08,-2.5136e-07,-6.9239e-06,-7.0458e-07,3.0429e-06,-2.6071e-06,-1.2923e-07,-7.4748e-07,1.2501e-06,-9.2484e-06,-4.031e-07,-0.19304,-2.3449e-06,-3.642e-06
-0.00011859,-0.00013517,-0.00027568,-0.00036946,2.4584e-05,0.00012424,-1.8177e-05,9.199e-05,-0.00016776,-8.5976e-05,2.5212e-05,0.00011367,1.4381e-05,-1.4016e-05,0.00016408,-3.8951e-05,-0.00012502,-7.6715e-05,0.00023374,6.7716e-05,-0.00017421,8.9097e-05,-3.2039e-05,0.00014394,-0.00016016,-3.0953e-05,4.0803e-05,0.00011688,0.00015451,0.00010279,-2.0295e-05,-2.831e-05,-0.00019719,0.0001135,-1.0484e-05,0.00025116,-7.5208e-05,-3.0164e-05,-1.3459,-0.00017522,0.00039307,7.174e-05,5.4155e-05,-8.1607e-06,-0.0001075,6.547e-05,7.1763e-05,-0.00015022,-0.00012243,-5.0126e-05,-8.5227e-05,-7.1513e-05,3.6037e-05,6.6524e-05,5.4081e-05,4.2994e-05,8.153e-05,-0.00042772,-8.4095e-05,-0.00021929,9.6726e-05,-0.00017429,1.5072e-06,-2.9479e-05,2.958e-10,-0.00012718,-0.00014463,-0.00010639,0.00010231,-1.1274e-05,-0.00015112,-2.9731e-05,-1.5377e-06,-0.00040127,-5.1458e-05,0.00010432,-0.00013166,-9.9686e-06,-3.3298e-05,5.918e-05,-0.00041649,-1.2366e-05,-0.18255,-0.000112,-0.00015352
-1.6632e-05,-2.146e-05,-4.4983e-05,-6.4411e-05,1.2315e-06,2.1608e-05,-7.498e-07,1.7949e-05,-2.7217e-05,-9.2427e-06,3.3331e-06,1.5422e-05,-1.8866e-07,-2.4249e-06,2.6669e-05,-7.8803e-06,-1.6811e-05,-8.3251e-06,4.6012e-05,1.1438e-05,-2.6414e-05,1.1506e-05,-5.0806e-06,1.4887e-05,-2.3549e-05,-4.9777e-06,6.6863e-06,1.6326e-05,2.3502e-05,1.6573e-05,-4.6339e-06,-7.4998e-06,-2.9401e-05,7.5853e-06,-6.0365e-07,3.9738e-05,-1.2154e-05,-7.3164e-06,-1.8303,-2.8567e-05,5.4753e-05,9.2938e-06,5.8788e-06,-2.455e-06,-1.5488e-05,1.1769e-05,1.2088e-05,-2.6224e-05,-1.7768e-05,-9.8014e-06,-1.1332e-05,-8.7728e-06,-3.3792e-06,9.3642e-06,6.7521e-06,7.5318e-06,7.3082e-06,-5.2653e-05,-1.4535e-05,-3.7633e-05,1.5032e-05,-2.7419e-05,1.1076e-06,-2.5984e-05,-1.8714e-05,2.8296e-10,-1.7241e-05,-1.5452e-05,1.8637e-05,-2.1014e-06,-2.2829e-05,-4.3084e-06,-8.4018e-07,-6.0983e-05,-5.9465e-06,1.3763e-05,-2.1192e-05,4.7279e-07,-3.4885e-06,8.6864e-06,-6.6729e-05,-6.5669e-07,-0.21734,-1.8182e-05,-2.4259e-05
-1.0626e-05,-1.3549e-05,-3.4468e-05,-4.3157e-05,2.7358e-07,1.3309e-05,1.313e-06,1.4674e-05,-2.0683e-05,-4.21e-06,1.3001e-06,1.1245e-05,8.8661e-07,4.0044e-07,2.1691e-05,-6.5608e-06,-1.0493e-05,-4.2014e-06,2.7419e-05,9.5538e-06,-2.0816e-05,8.4753e-06,-3.6838e-06,1.006e-05,-1.5636e-05,-3.397e-06,6.8717e-06,8.9561e-06,1.4003e-05,1.3419e-05,-6.5769e-06,-6.5781e-06,-2.3893e-05,3.8099e-06,6.8241e-08,3.1075e-05,-8.4049e-06,-4.3281e-06,-1.761,-2.2472e-05,3.8044e-05,5.5111e-06,4.3586e-06,-1.0713e-06,-1.0756e-05,8.8805e-06,8.3605e-06,-1.8747e-05,-1.0138e-05,-1.21e-05,-6.2042e-06,-4.6059e-06,-5.3201e-06,7.2292e-06,5.162e-06,6.3405e-06,4.7357e-06,-3.4694e-05,-6.6571e-06,-2.8028e-05,1.0599e-05,-1.7461e-05,-1.0131e-07,-1.621e-05,-1.6879e-05,-1.3662e-05,6.3468e-10,-9.997e-06,1.2535e-05,-1.3595e-07,-1.3857e-05,-1.1958e-06,-9.0491e-07,-2.7505e-05,-3.4692e-06,1.1685e-05,-1.475e-05,6.8038e-07,-3.1571e-06,5.9563e-06,-5.1227e-05,-9.7903e-07,-0.23929,-1.3893e-05,-1.8721e-05
-7.083e-06,-8.1259e-06,-1.9586e-05,-2.5588e-05,4.4946e-07,1.0337e-05,-1.0229e-06,7.8919e-06,-1.0642e-05,-4.8939e-06,2.9719e-07,9.8071e-06,3.4788e-07,1.6597e-06,1.1852e-05,-3.2627e-06,-5.3475e-06,-2.6845e-06,1.9261e-05,7.4212e-06,-1.5106e-05,7.994e-06,-2.2343e-06,7.4774e-06,-1.1232e-05,-2.4561e-06,2.8313e-06,7.6916e-06,1.0253e-05,8.0527e-06,-3.2724e-06,-2.5575e-06,-1.4058e-05,3.9786e-06,-1.7076e-06,1.8947e-05,-5.7905e-06,-9.8046e-07,-1.6915,-1.4315e-05,3.0323e-05,8.0706e-06,1.0996e-05,-6.5509e-07,-6.4751e-06,5.546e-06,4.8937e-06,-8.7893e-06,-8.1186e-06,-3.211e-06,-2.6919e-06,-3.8156e-06,9.5255e-07,5.1566e-06,3.7212e-06,4.6288e-06,4.9407e-06,-2.5512e-05,-3.4255e-06,-1.6046e-05,7.4802e-06,-1.0428e-05,1.0971e-06,-9.5959e-06,-8.8775e-06,-8.4399e-06,-6.7648e-06,1.2229e-09,9.1472e-06,6.7307e-07,-1.1474e-05,2.0552e-07,-1.1944e-06,-2.335e-05,-2.6627e-06,9.8467e-06,-1.19e-05,9.1186e-08,-2.2043e-06,3.9075e-06,-3.6708e-05,-8.0766e-07,-0.26007,-5.8699e-06,-1.124e-05
-8.9391e-05,-9.6973e-05,-0.00022373,-0.00046612,1.4713e-05,0.00022868,6.9984e-06,9.1176e-05,-9.4731e-05,-5.6711e-05,1.2996e-05,8.1097e-05,7.0116e-06,-6.7485e-06,0.00012341,-2.8278e-05,-8.6814e-05,-3.9831e-05,0.00014442,6.9557e-05,-0.00013175,7.7769e-05,-2.5602e-05,0.00012249,-0.0001222,-1.4909e-05,3.8482e-05,7.4201e-05,0.00011521,9.7947e-05,-2.379e-05,-1.755e-05,-0.00014141,7.4381e-05,7.65e-07,0.00018386,-7.0714e-05,-3.4005e-05,-1.127,-0.00013004,0.00032029,0.00012049,0.00011148,-2.9486e-06,-7.9406e-05,6.6604e-05,6.2161e-05,-0.00011693,-4.7879e-05,2.0709e-05,-5.9623e-05,-4.9561e-05,3.6563e-05,5.961e-05,4.776e-05,3.5275e-05,6.0154e-05,-0.0003327,-5.7909e-05,-0.00032118,0.00011284,-0.00014252,6.3365e-06,-0.00011597,-8.6514e-05,-8.9258e-05,-8.2668e-05,-7.6334e-05,2.1851e-10,-2.4973e-06,-0.00010999,-1.8162e-05,-8.4128e-07,-0.00024842,-3.5815e-05,7.1019e-05,-0.00011202,-2.5788e-06,-2.4081e-05,4.6943e-05,-0.00039302,2.7618e-06,-0.17591,-9.7825e-05,-0.00013422
-2.0438e-05,-2.3842e-05,-5.6369e-05,-7.2101e-05,9.6639e-07,2.9715e-05,-2.3294e-06,2.5571e-05,-3.516e-05,-1.31e-05,1.7258e-06,2.1853e-05,4.0806e-07,2.6922e-06,3.2238e-05,-1.338e-05,-1.9074e-05,-9.1923e-06,5.5139e-05,2.099e-05,-3.8412e-05,1.9208e-05,-6.7428e-06,1.734e-05,-3.0465e-05,-6.577e-06,7.7661e-06,1.833e-05,2.4757e-05,2.0752e-05,-7.5515e-06,-1.2771e-05,-3.9617e-05,1.1651e-05,-2.6922e-06,5.1898e-05,-1.8034e-05,-5.9922e-06,-1.4638,-4.0429e-05,7.1978e-05,1.875e-05,1.6358e-05,-2.9333e-06,-2.0617e-05,1.3837e-05,1.2717e-05,-3.0068e-05,-2.0397e-05,-1.1471e-05,-1.0937e-05,-1.033e-05,-3.8134e-06,1.3035e-05,9.4572e-06,1.2135e-05,1.0607e-05,-6.0015e-05,-1.1375e-05,-4.6487e-05,2.1149e-05,-2.9848e-05,1.2959e-06,-2.8443e-05,-2.3638e-05,-2.3837e-05,-1.8006e-05,-1.6109e-05,2.3874e-05,5.3452e-10,-2.9991e-05,-1.7514e-06,-3.2527e-06,-6.2093e-05,-7.6177e-06,2.0421e-05,-3.0937e-05,-5.2019e-07,-6.3518e-06,1.0303e-05,-8.8114e-05,-4.1276e-06,-0.23569,-2.1444e-05,-3.0563e-05
-3.4133e-05,-4.3823e-05,-8.3646e-05,-0.00012144,1.1017e-06,3.8302e-05,-4.374e-07,3.1599e-05,-5.4149e-05,-1.6259e-05,5.9925e-06,2.8334e-05,-9.5344e-07,-4.7945e-06,4.9916e-05,-1.7437e-05,-3.2325e-05,-1.5872e-05,7.9385e-05,1.9464e-05,-5.2503e-05,2.231e-05,-1.0647e-05,2.9917e-05,-4.2546e-05,-8.2286e-06,1.4755e-05,2.6353e-05,3.9296e-05,3.2201e-05,-1.5331e-05,-1.4094e-05,-6.2533e-05,2.17e-05,1.9675e-06,7.2126e-05,-2.4178e-05,-1.4869e-05,-2.0719,-5.4813e-05,0.00010358,1.2417e-05,5.9614e-06,-4.6596e-06,-3.1443e-05,2.381e-05,2.1515e-05,-5.1093e-05,-3.0152e-05,-2.3187e-05,-2.5914e-05,-1.7252e-05,-6.1689e-06,1.5313e-05,1.1606e-05,1.1348e-05,1.2304e-05,-9.3945e-05,-2.5299e-05,-7.7193e-05,2.85e-05,-5.3647e-05,1.3744e-06,-4.4731e-05,-3.3439e-05,-3.5161e-05,-2.6075e-05,-3.2268e-05,3.4833e-05,-4.7588e-06,3.0297e-10,-8.365e-06,-2.3102e-07,-9.1585e-05,-1.0997e-05,2.4228e-05,-4.0514e-05,-3.1611e-07,-9.9413e-06,1.7073e-05,-0.00011373,-2.2947e-06,-0.21776,-4.3547e-05,-4.6995e-05
-1.4724e-05,-1.7678e-05,-4.3565e-05,-6.3805e-05,5.9079e-08,1.3486e-05,-1.312e-06,1.9423e-05,-3.2426e-05,-1.1846e-05,1.6971e-06,1.6921e-05,-1.9305e-07,6.7508e-06,3.0279e-05,-1.0469e-05,-1.1692e-05,-4.8947e-06,4.8289e-05,2.1186e-05,-3.2925e-05,2.2738e-05,-5.2785e-06,1.5598e-05,-2.5616e-05,-4.1237e-06,6.9535e-06,1.5319e-05,2.2131e-05,1.7191e-05,-1.0212e-05,-9.2021e-06,-3.4828e-05,6.7113e-06,-6.0103e-06,4.5916e-05,-1.2728e-05,-3.2385e-06,-1.7763,-3.4121e-05,5.9341e-05,1.4265e-05,1.2681e-05,-2.222e-06,-1.595e-05,1.281e-05,1.1818e-05,-2.125e-05,-1.9362e-05,-1.5072e-05,-7.4681e-06,-8.8709e-06,-4.0873e-06,1.4659e-05,1.1978e-05,1.0317e-05,1.1297e-05,-5.705e-05,-6.7542e-06,-3.2143e-05,1.3605e-05,-2.0947e-05,1.061e-06,-2.0579e-05,-2.1673e-05,-1.9708e-05,-1.3733e-05,-1.1528e-05,1.8305e-05,1.6977e-06,-2.4725e-05,6.1274e-10,-2.8901e-06,-5.2707e-05,-5.2111e-06,1.9611e-05,-2.9433e-05,6.9734e-07,-5.6566e-06,1.0557e-05,-8.2809e-05,-2.0523e-06,-0.23786,-1.5397e-05,-2.5073e-05
-0.00034362,-0.00047738,-0.00091289,-0.0019308,3.4022e-05,0.00038615,-2.3129e-05,0.00033955,-0.00075497,-0.00014726,9.9537e-05,0.0002484,5.1921e-05,-5.9756e-05,0.00049337,-0.00011626,-0.00041282,-0.00011575,0.00071084,0.00021212,-0.00046091,0.00021194,-7.9046e-05,0.00033471,-0.00044082,-8.3627e-05,0.00013108,0.00023892,0.0003884,0.0003008,-0.00011516,-0.00016072,-0.00053696,0.0002069,1.7953e-05,0.00059833,-0.0002212,-0.00015179,-2.1437,-0.0005368,0.0009215,0.00014305,8.0755e-05,-3.668e-05,-0.0003326,0.00023568,0.00028902,-0.00058763,-0.00038054,-0.0001616,-0.00025181,-0.00016286,-1.6281e-05,0.00017378,0.0001344,0.00014411,0.0001467,-0.0012833,-0.000299,-0.00088929,0.00029437,-0.00057471,8.2843e-06,-0.0004894,-0.00028072,-0.00035337,-0.00032545,-0.000339,0.00031998,-5.4628e-05,-0.00041003,-9.7216e-05,1.0524e-09,-0.0024471,-6.9319e-05,0.00025364,-0.00031749,3.5189e-06,-8.8267e-05,0.00021448,-0.0015672,4.631e-06,-0.27018,-0.00044183,-0.0004846
-8.8391e-05,-0.00010255,-0.00026379,-0.00055132,-3.7432e-06,9.5044e-05,-2.7549e-05,8.7552e-05,-0.0001307,-6.1139e-05,-2.0805e-05,0.00012076,-9.4488e-06,1.2738e-05,0.00012089,-5.1041e-05,-7.8093e-05,-5.9628e-05,0.00016179,8.4369e-05,-0.00018515,8.1114e-05,-4.6379e-05,8.6801e-05,-0.00012612,-3.3191e-05,2.5446e-05,0.00012254,0.00012569,0.00011049,-8.203e-06,-2.3843e-05,-0.00013011,4.2927e-05,-2.8965e-05,0.00024794,-7.7078e-05,-3.759e-05,-0.27376,-0.00015487,0.00046343,8.4369e-05,0.00018576,-9.0189e-06,-8.3344e-05,4.9111e-05,4.5421e-05,-0.0001245,-6.3509e-05,-2.7659e-05,-4.2045e-05,-7.2162e-05,5.8038e-05,2.3881e-05,1.1669e-05,-4.9931e-06,2.8715e-05,-0.00048121,-3.7349e-05,-0.0002845,9.4648e-05,-0.00014719,-1.4429e-05,-0.00011702,-0.00010914,-0.00011934,-4.7979e-05,-7.5185e-05,8.0968e-05,-1.2851e-06,-0.00011571,-7.2626e-06,-3.0658e-05,6.5601e-10,-4.5535e-05,8.5804e-05,-0.00015736,1.1156e-06,-2.9819e-05,3.7179e-05,-0.00052931,-2.1912e-05,-0.12691,-7.8551e-05,-0.00012582
-0.00027331,-0.00034222,-0.00083435,-0.0012932,7.6844e-06,0.00032092,-2.3651e-05,0.00032911,-0.00058274,-0.00011608,6.4205e-05,0.00024385,5.178e-05,-9.4633e-06,0.00047592,-0.00014075,-0.00029487,-9.2917e-05,0.00057219,0.00020755,-0.00044648,0.00022371,-8.0806e-05,0.00028532,-0.000389,-7.7736e-05,0.00011359,0.00022491,0.0003438,0.00025357,-0.00012664,-0.00012833,-0.00052463,0.0001521,5.7324e-06,0.00060852,-0.0001995,-9.4252e-05,-1.8788,-0.00052978,0.00082659,0.00013796,6.0681e-05,-2.4948e-05,-0.00028132,0.00019748,0.00024468,-0.00047852,-0.00029253,-0.00022001,-0.00018153,-0.00011129,-0.00014606,0.00016378,0.00012002,0.00014074,9.7639e-05,-0.00090321,-0.00019115,-0.0006792,0.0002408,-0.00045593,1.183e-05,-0.00037452,-0.00030522,-0.00030946,-0.00025932,-0.0002554,0.00025811,-2.0256e-05,-0.0003755,-3.7937e-05,1.9756e-05,-0.0012883,1.1896e-09,0.00028866,-0.00029926,9.3409e-06,-5.4913e-05,0.0002445,-0.0013832,-2.0552e-05,-0.28597,-0.00032724,-0.00043302
-0.00044449,-0.00053672,-0.0012022,-0.0021404,-3.442e-05,0.000447,-0.00010428,0.00046913,-0.00066611,-0.00031701,3.7389e-05,0.00046894,8.8327e-05,3.7022e-05,0.00081838,-0.00022851,-0.00025519,-0.00023389,0.00083305,0.00036016,-0.0009051,0.0004598,-0.00019785,0.00042364,-0.00066473,-0.00015356,0.00014269,0.00036789,0.00079283,0.00034443,-3.1226e-05,-0.00019091,-0.00075401,0.00017519,-0.00010913,0.00087091,-0.00032859,-7.1269e-05,-1.107,-0.00079299,0.0013335,0.00028422,0.00027255,8.6051e-05,-0.00037153,0.00026337,0.00028545,-0.00052243,-0.00054614,-0.00043079,-0.00021475,-0.00023894,-0.0002509,0.00029009,0.00019616,0.00028258,0.00023896,-0.0021209,-0.00026466,-0.0014698,0.00036813,-0.00071089,-2.0136e-05,-0.00054874,-0.00048571,-0.0005579,-0.00041913,-0.0003151,0.00032088,-2.1163e-05,-0.0006994,-2.4184e-05,-0.00012671,-0.0017165,-0.00016345,2.8808e-10,-0.00053634,-2.8631e-05,-0.00023618,0.00022921,-0.0020534,-0.00010545,-0.20472,-0.00039035,-0.00063958
-1.966e-05,-2.2736e-05,-4.5515e-05,-5.6877e-05,-7.5473e-07,2.3368e-05,-2.4096e-06,2.0348e-05,-2.491e-05,-3.5387e-06,8.1864e-06,1.2698e-05,2.671e-06,-6.5611e-06,3.4884e-05,-9.5519e-06,-2.4664e-05,-9.5597e-06,4.9928e-05,7.7416e-06,-2.6318e-05,7.6668e-06,-5.8643e-06,1.248e-05,-2.2014e-05,-4.5563e-06,5.3303e-06,1.4804e-05,1.9757e-05,1.4915e-05,-7.4028e-06,-1.2975e-05,-3.1692e-05,8.1575e-06,4.4993e-06,3.5336e-05,-1.1993e-05,-9.2955e-06,-0.76659,-3.23e-05,5.0424e-05,1.5564e-06,1.7049e-06,-1.1794e-06,-1.8658e-05,1.1029e-05,1.2516e-05,-3.4334e-05,-2.2069e-05,-1.6492e-05,-1.5995e-05,-8.2804e-06,-3.0207e-06,5.3152e-06,3.2521e-06,6.3353e-06,7.5665e-07,-4.2529e-05,-1.5477e-05,-4.2793e-05,1.4495e-05,-3.5781e-05,-1.844e-06,-2.1565e-05,-1.7105e-05,-1.9107e-05,-1.6887e-05,-2.0451e-05,1.5053e-05,-5.4769e-06,-2.328e-05,-1.0006e-05,1.8244e-06,-7.4987e-05,-3.9925e-06,1.5213e-05,7.0494e-10,-2.2332e-06,-6.4495e-06,7.9793e-06,-5.8024e-05,-3.3307e-06,-0.26961,-2.6283e-05,-2.8354e-05
-1.0587e-05,-1.3727e-05,-2.9155e-05,-3.9627e-05,6.9588e-07,1.0754e-05,-9.6763e-07,1.1384e-05,-2.1585e-05,-4.575e-06,1.6119e-06,8.6542e-06,-8.9921e-08,-1.185e-06,1.6279e-05,-4.9907e-06,-1.2278e-05,-5.1193e-06,2.3733e-05,6.8113e-06,-1.713e-05,7.5264e-06,-2.8416e-06,8.5209e-06,-1.4464e-05,-3.1971e-06,4.686e-06,9.4691e-06,1.3597e-05,1.0089e-05,-4.971e-06,-5.8723e-06,-1.9194e-05,4.9351e-06,2.9549e-07,2.307e-05,-7.4312e-06,-4.8631e-06,-1.9585,-1.8364e-05,3.2893e-05,4.2915e-06,3.0763e-06,-2.4926e-06,-9.1633e-06,1.0012e-05,7.3384e-06,-1.6449e-05,-1.1734e-05,-8.3269e-06,-7.8183e-06,-4.8918e-06,-3.3677e-06,5.1484e-06,3.5083e-06,4.7696e-06,3.5428e-06,-3.3262e-05,-8.4421e-06,-2.3979e-05,9.4842e-06,-1.6826e-05,2.1387e-06,-1.6131e-05,-1.2363e-05,-1.1276e-05,-9.6137e-06,-1.0372e-05,1.0115e-05,-1.8225e-06,-1.4181e-05,-3.0528e-06,-1.1719e-07,-3.2433e-05,-3.2839e-06,7.8516e-06,-1.4019e-05,2.3654e-10,-2.563e-06,5.8551e-06,-4.554e-05,-6.6205e-07,-0.18812,-1.3579e-05,-1.5755e-05
-8.0143e-06,-1.1458e-05,-2.373e-05,-3.1722e-05,7.5438e-07,9.0169e-06,-1.9038e-07,9.8595e-06,-1.9118e-05,-3.3517e-06,9.5672e-07,6.8746e-06,4.4406e-08,-1.1159e-06,1.388e-05,-3.7332e-06,-9.6265e-06,-4.0593e-06,1.8964e-05,6.114e-06,-1.4023e-05,5.7222e-06,-1.2496e-06,7.2364e-06,-1.1823e-05,-2.5369e-06,3.9691e-06,7.4133e-06,9.9054e-06,8.4009e-06,-4.2942e-06,-4.225e-06,-1.61e-05,3.4843e-06,9.7911e-07,2.0316e-05,-6.5842e-06,-3.8349e-06,-1.9053,-1.5865e-05,2.5398e-05,3.9277e-06,-2.2862e-07,-2.4365e-06,-9.641e-06,6.4002e-06,5.9611e-06,-1.557e-05,-9.569e-06,-5.7856e-06,-6.3239e-06,-3.0591e-06,-3.8862e-06,4.9336e-06,3.5197e-06,3.852e-06,2.2889e-06,-2.6038e-05,-7.0054e-06,-1.8267e-05,6.7881e-06,-1.3242e-05,5.5557e-07,-1.2893e-05,-9.6265e-06,-8.7412e-06,-8.3079e-06,-8.4912e-06,8.2787e-06,-1.4282e-06,-1.1874e-05,-2.9963e-06,-3.6475e-07,-2.9397e-05,-2.3996e-06,4.8402e-06,-1.1329e-05,2.7958e-07,1.1221e-09,4.8389e-06,-3.5316e-05,-9.9355e-07,-0.24199,-1.1359e-05,-1.3388e-05
-1.0615e-05,-1.4016e-05,-2.7695e-05,-3.7858e-05,4.9107e-07,1.1868e-05,-7.642e-07,9.2609e-06,-2.0419e-05,-5.0556e-06,1.7921e-06,7.8811e-06,-1.0736e-06,-2.4623e-06,1.3938e-05,-3.4677e-06,-1.1944e-05,-4.3676e-06,2.4918e-05,4.5419e-06,-1.4682e-05,5.3831e-06,-2.4471e-06,8.3165e-06,-1.4433e-05,-2.8216e-06,3.3984e-06,8.2269e-06,1.0977e-05,1.001e-05,-4.1866e-06,-5.2653e-06,-1.6619e-05,4.7357e-06,3.572e-07,2.0337e-05,-7.1339e-06,-5.3748e-06,-2.0595,-1.7362e-05,3.0133e-05,3.7103e-06,1.871e-06,-2.8667e-06,-1.0235e-05,6.4473e-06,7.4466e-06,-1.7487e-05,-1.104e-05,-5.2224e-06,-8.6683e-06,-5.5165e-06,-1.0115e-06,3.6557e-06,2.4308e-06,3.7748e-06,3.1855e-06,-3.2463e-05,-9.5458e-06,-2.4992e-05,8.1337e-06,-1.7155e-05,5.3328e-07,-1.5169e-05,-1.0194e-05,-1.1205e-05,-1.0271e-05,-1.0958e-05,9.6812e-06,-2.6025e-06,-1.289e-05,-3.7223e-06,1.4145e-06,-3.5299e-05,-3.8545e-07,6.2684e-06,-1.1715e-05,-2.0373e-07,-2.7918e-06,9.9041e-10,-3.8974e-05,-8.6293e-07,-0.24019,-1.3692e-05,-1.5382e-05
-6.5978e-05,-7.1064e-05,-0.00012341,-8.8513e-05,5.7908e-06,0.00010719,-8.2586e-06,5.1587e-05,-4.7869e-05,-3.2075e-05,1.9715e-05,6.2388e-05,3.6205e-05,-8.3591e-06,9.6013e-05,-1.9843e-05,-4.7658e-05,-3.4731e-05,0.00017361,3.2396e-05,-9.4916e-05,2.6444e-05,-2.0712e-05,8.8304e-05,-6.9153e-05,-1.1101e-05,1.4758e-05,6.5986e-05,8.2835e-05,6.7859e-05,-3.9123e-06,-5.027e-06,-8.8233e-05,6.9107e-05,-1.9544e-06,0.00016979,-4.3574e-05,-8.2772e-06,-0.00036107,-8.0331e-05,0.0002375,5.6105e-05,3.648e-05,1.4787e-05,-4.9097e-05,3.1389e-05,3.4915e-05,-7.0586e-05,-2.2466e-05,-1.496e-05,-4.3674e-05,-3.025e-05,9.872e-06,2.7943e-05,1.92e-05,1.6256e-05,3.0597e-05,-6.1528e-05,-4.1307e-05,-0.00010527,5.3297e-05,-9.3278e-05,-8.3305e-06,-5.9213e-05,-4.1865e-05,-6.0711e-05,-5.8649e-05,-6.1375e-05,6.5537e-05,-5.7758e-06,-7.0432e-05,-2.3409e-05,-4.6112e-06,-0.00013982,-2.2015e-05,6.6139e-05,-4.248e-05,-7.8857e-06,-1.9214e-05,2.4953e-05,5.0885e-10,-9.2129e-06,-0.13624,-5.9014e-05,-7.2167e-05
-2.4915e-05,-2.8999e-05,-5.7624e-05,-8.9236e-05,2.062e-06,3.0342e-05,-1.0823e-06,2.2425e-05,-3.9773e-05,-1.222e-05,4.4994e-06,2.0203e-05,-1.8889e-06,-4.4805e-06,3.3311e-05,-2.7211e-06,-2.4702e-05,-1.0124e-05,5.5787e-05,1.2808e-05,-3.6635e-05,1.3536e-05,-6.3136e-06,2.0904e-05,-3.334e-05,-6.0834e-06,9.8475e-06,1.8029e-05,2.8785e-05,2.3334e-05,-7.3718e-06,-1.1531e-05,-3.7403e-05,1.1211e-05,-5.6492e-08,4.4749e-05,-1.4303e-05,-1.0747e-05,-1.8212,-3.8225e-05,6.9399e-05,1.1875e-05,1.1196e-05,-6.9288e-06,-1.9262e-05,1.6665e-05,1.7131e-05,-3.5466e-05,-2.4839e-05,-1.0879e-05,-1.8305e-05,-1.2175e-05,-2.3094e-06,1.0378e-05,7.3798e-06,9.3086e-06,9.8016e-06,-7.8259e-05,-1.7912e-05,-6.0388e-05,2.0738e-05,-3.8069e-05,1.3058e-06,-3.5529e-05,-2.4296e-05,-2.34e-05,-2.1974e-05,-2.3049e-05,2.6497e-05,-5.8642e-06,-2.919e-05,-8.2711e-06,2.09e-06,-8.1433e-05,-7.4032e-06,1.4714e-05,-2.915e-05,4.2312e-07,-6.9507e-06,1.2713e-05,-9.4025e-05,5.7571e-10,-0.24688,-2.7539e-05,-3.4586e-05
5.2772e-06,-1.601e-05,-3.9368e-06,-0.00012647,-5.8746e-06,-2.859e-05,1.0874e-07,5.4977e-06,-1.2523,-6.2029e-06,-1.4417e-06,0.00010731,2.7213e-05,-9.8717e-06,1.1432e-05,-4.9651e-06,-1.5234e-05,-3.6177e-05,2.3102e-05,4.1414e-06,-4.449e-05,1.0017e-05,-3.2542e-06,1.0739,1.7877e-05,-6.5302e-06,-4.4269e-06,8.0805e-05,5.5417,2.7869,-5.316e-06,9.0681e-06,3.5523e-06,0.64348,-2.9141e-06,0.00027867,1.6443e-05,2.869e-05,6.7263e-06,-2.6771e-05,0.48275,4.884e-05,-5.6477e-05,1.5818e-05,-2.7647e-06,2.6834,-9.6998e-06,-1.4364e-05,-4.6203e-05,-1.9674e-05,-1.8753e-06,-1.0537e-05,6.5713e-06,1.8333e-05,1.6272e-05,2.2179e-06,2.9103e-05,-3.5917e-05,3.1954e-05,-2.8839,-0.00036542,-1.2394e-05,3.9192e-06,-1.535e-05,-8.1938e-06,-8.4514e-06,-1.9279e-05,-4.5754e-05,-7.9098e-08,-6.775e-06,-1.5105e-05,-6.4888e-06,-2.4993e-05,1.5688e-05,-5.1068e-05,3.7309e-06,-1.3814,2.1561e-05,-6.0692e-06,-3.5029e-06,7.2232e-06,-2.2407e-05,-3.8963e-09,-5.8897e-06,-5.043e-06
-4.9819e-06,-5.3749e-06,-1.2084e-05,-1.6564e-05,5.5812e-07,6.6449e-06,-2.8707e-07,5.08e-06,-7.9719e-06,-3.9523e-06,1.6038e-07,6.4998e-06,3.2101e-07,1.4058e-06,8.312e-06,-1.9829e-06,-2.9774e-06,-1.9869e-06,1.4773e-05,5.1095e-06,-9.8961e-06,5.5044e-06,-1.9247e-06,5.4082e-06,-7.5976e-06,-1.5013e-06,2.0873e-06,5.5206e-06,7.5524e-06,4.9667e-06,-8.8242e-07,-1.5281e-06,-8.4567e-06,3.1043e-06,-1.761e-06,1.2573e-05,-3.7764e-06,-5.4683e-07,-1.1808,-8.9398e-06,1.8981e-05,5.7213e-06,7.7234e-06,-3.5772e-07,-4.2327e-06,3.1531e-06,3.3074e-06,-5.4154e-06,-4.531e-06,-2.4658e-06,-1.3804e-06,-2.7608e-06,5.2096e-07,3.806e-06,2.9832e-06,3.7525e-06,3.878e-06,-1.6668e-05,-2.1645e-06,-1.0633e-05,4.8788e-06,-6.4878e-06,2.7205e-07,-6.0719e-06,-5.1011e-06,-5.1065e-06,-4.8037e-06,-2.5496e-06,5.8415e-06,5.4099e-07,-8.2736e-06,4.5671e-07,-9.6569e-07,-1.3598e-05,-1.9206e-06,7.0875e-06,-8.1913e-06,-4.7473e-08,-1.6849e-06,2.7279e-06,-2.1482e-05,-1.5888e-07,-0.19777,3.9986e-10,-6.5858e-06
-6.5711e-06,-9.224e-06,-1.6956e-05,-2.5859e-05,1.1817e-06,9.9665e-06,-3.8416e-07,6.9418e-06,-1.1245e-05,-4.4097e-06,1.4398e-06,9.2656e-06,-3.6177e-07,2.9365e-07,1.0365e-05,-2.3044e-06,-5.3039e-06,-3.6327e-06,1.9985e-05,5.5164e-06,-1.1773e-05,6.406e-06,-2.0792e-06,8.3267e-06,-1.0224e-05,-1.9235e-06,2.7013e-06,8.8841e-06,1.1563e-05,7.6864e-06,-8.1013e-07,-2.1863e-06,-9.6674e-06,5.4677e-06,-3.8222e-07,2.0812e-05,-5.4883e-06,-2.2414e-06,-1.4291,-9.4445e-06,3.0319e-05,5.403e-06,6.4135e-06,-6.4389e-07,-5.6259e-06,5.2037e-06,4.6943e-06,-7.5359e-06,-7.2505e-06,-3.4066e-06,-4.5366e-06,-4.1146e-06,6.717e-07,4.3585e-06,3.3934e-06,3.7478e-06,4.4423e-06,-2.3043e-05,-4.996e-06,-1.6011e-05,6.8545e-06,-1.0889e-05,7.3824e-07,-1.008e-05,-6.8724e-06,-7.4259e-06,-7.2934e-06,-6.1798e-06,7.666e-06,-2.4249e-07,-9.5581e-06,-1.0851e-06,-3.6254e-07,-2.0554e-05,-2.75e-06,7.8381e-06,-9.8002e-06,2.4537e-07,-2.0944e-06,3.9224e-06,-2.6925e-05,-6.0994e-07,-0.18323,-6.9314e-06,2.9931e-10
