7.9229e-10,3.2273e-05,-0.0020225,0.00076878,0.00017633,2.7494,-7.67e-05,-7.6547e-05,4.312e-05,-0.00037112,-0.00036074,0.0012554,-0.00062668,-8.2963e-05,-0.00010904,-0.00058605,9.8103e-05,-0.059154,-0.00061979,0.0040689,0.0001449,0.0004053,-0.00057245,-3.1454e-05,-6.5186e-05,0.00023558,-0.00059389,-0.0003932,0.00074596,0.0002172,-0.00046504,-0.1154,-4.6816e-05,-0.00049943,0.00076381,-0.0011235,0.00020502,-0.00034015,-0.0002064,0.00013358,5.8359e-05,-0.00019629,0.00018876,-4.221e-05,-0.012786,0.00022137,0.00033022,0.00043769,-0.00022683,0.00055154,-0.0002137,-0.00070768,0.00079602,-0.00011034,-0.0037763,0.0005235,-0.00010083,-2.6125e-05,-0.00065173,-0.00054151,-0.00019229,0.00010971,-0.00057388,0.0003151,-0.00038542,-0.00061736,6.3127e-05,-0.19683,0.0001376,-0.000644,-0.00085694,-0.00024893,-6.189e-05,-2.0392e-06,-0.0012438,-0.00041583,-0.0007372,0.0002617,-0.00013204,0.00047765,-0.0012375,0.00041196,6.8942e-05,-0.0012902,1.3769e-05,8.3478e-05,-0.0003618,0.00016363,-0.00036304,-0.00024277,-0.0044222,0.00012356,-0.00058402,9.4992e-05,0.00014687,0.00020133,-1.6173e-05,0.00064201,-0.020319,-0.00046119,0.00010391,0.00062387,0.0002891,1.1176e-05,-0.0005371,-0.00050314,0.00030159,-8.8114e-05,-0.00070751,-0.00034895,-6.7616e-05,-7.4933e-05,-0.0003015,-0.0045368,2.8654e-05,0.00040637,-0.00033999,-0.00021097,-0.00018728,-0.00075189,0.00092455,-0.00026456,-0.00010104,-0.00072442,-0.00023599,0.0011058,-0.00026221,0.00070074,-1.2382,0.00032135,-0.0015581,-0.00051929,-0.00070326,-0.0012947,-0.00024343,-0.0010415,-0.00035909,-0.0001202,-0.00017286,-7.5631e-05,-0.0016647,-0.0077376,-0.00016166,-0.00020517,2.639e-05,0.00048237,-0.00027459,-0.00040737,-0.00052409,-0.00053072,4.5501,6.061e-06,-0.0004173,0.00037956,-9.0513e-05,0.0027348,-0.00063286,0.0001374,-0.00032141,1.6552e-05,0.00055994,1.8647,1.5175e-05,0.00017639,0.00013548,-0.0001557,-9.1234e-05,-0.00074365,-0.00096617,-8.6269e-05,-0.00080137,-0.0003402,-0.00015171,0.00058971,5.7512,0.00015045,-0.0002947,0.00037129,0.00042427,-0.00026005,0.00014157,-8.6763e-05,-0.00023411,-0.0007963,0.00023623,-0.0023233
0.42803,9.4146e-10,-0.0021345,0.001077,0.00011229,1.635,-9.8579e-05,-1.429e-06,9.9665e-05,-0.00041071,-0.00041342,0.0017337,-0.00075913,-2.7474e-05,-3.547e-05,-0.0006116,6.456e-05,-0.029275,-0.00069548,0.0014593,0.00018798,0.00051502,-0.00067355,5.6108e-05,-0.00017586,0.00034475,-0.00072518,-0.00039878,0.0010663,0.00033796,-0.00058548,-0.67827,-9.1935e-05,-0.00090669,0.0012441,-0.0011498,0.00029375,-0.00038869,-0.00021304,0.00025741,0.00014519,-0.00023052,0.00048202,-0.00040957,-0.33506,0.00031165,0.00044149,0.00072943,-0.00025464,0.00075915,-0.0015835,-0.00086225,0.0013625,-0.00011891,-1.3914,0.00085431,-7.6741e-05,-1.7123e-05,-0.035006,-0.00065673,-0.00021106,0.00024972,-0.00071818,0.00045864,-0.00026928,-0.00080654,0.00017801,-0.21437,0.00018049,-0.00097513,-0.00082168,-0.00025701,-3.2186e-05,6.5252e-05,-0.0014614,-0.00044637,-0.00079876,0.0002288,-9.1046e-05,0.00085408,-0.00153,0.00061107,0.00030329,-0.0015754,0.00013433,0.00015225,-0.00030699,0.00029085,-0.00047017,-0.00024454,-0.003038,0.00021996,-0.00060028,0.00023636,0.00023519,0.0002513,0.00012103,0.00091747,-0.0070359,-0.00045195,9.3714e-05,0.0010124,0.00049765,8.6851e-06,-0.00069065,-0.00054317,0.00040728,-0.00016892,-0.00064931,-0.00071271,7.6657e-05,-7.1553e-05,-0.00033446,-0.07508,6.1985e-05,0.00026749,-0.00037449,-0.00014409,-0.00020988,-0.00081574,0.0010261,-0.00044561,-0.00013289,-0.00076214,-0.00021765,0.00069749,-0.00036976,0.00046076,-0.077889,0.00034144,-0.0026074,-0.00066634,-0.0007585,-0.0014994,-0.00024782,-0.0012378,-0.00045318,-9.0546e-05,-0.00014526,5.2088e-06,-0.0017112,-0.0019175,-0.0001074,-8.097e-05,0.00018656,0.00054676,-0.00028466,-0.00057176,-0.00056681,-0.00062976,5.0624,6.0492e-05,-0.00052197,0.00041481,-0.00012473,0.0034844,-0.0006858,0.00022809,-0.00034232,3.1598e-05,0.00058891,1.3851,0.000106,-0.00013454,0.00020873,-0.00025774,-0.00019075,-0.00090681,-0.00099201,-0.00010909,-0.00086077,-0.00034212,-0.00013596,0.00096479,3.2748,0.00023851,-0.00029528,0.00051583,0.00026576,-0.00050559,0.00032033,-4.5417e-05,-0.00025577,-0.00089675,0.00044794,-0.0016608
0.47885,8.7e-05,9.9417e-10,0.00075289,9.8238e-05,1.6098,-6.8425e-05,3.3691e-06,8.5397e-05,-0.00030183,-0.00029501,0.0011903,-0.00055794,-4.855e-05,-4.6199e-05,-0.000426,5.4117e-05,-0.0091633,-0.00047404,0.0010343,0.00012794,0.00037095,-0.00048261,4.187e-05,-0.00011952,0.00022822,-0.00051823,-0.00026902,0.00069544,0.00021252,-0.00044162,-0.55884,-4.5736e-05,-0.00065133,0.00077216,-0.00086772,0.00019333,-0.00026938,-0.00012402,0.00019023,9.1202e-05,-0.00015032,0.00036846,-0.00021716,-0.11164,0.00017964,0.00030642,0.0005173,-0.00014027,0.00051102,-0.00096176,-0.00061801,0.00082097,-9.6214e-05,-1.6649,0.00059331,-4.7709e-05,-3.6826e-06,-0.012014,-0.00046909,-0.0001293,0.00016858,-0.00052057,0.00030929,-0.00020446,-0.00059469,0.00010885,-0.12621,0.0001168,-0.00069487,-0.0005128,-0.00021559,-1.9371e-05,4.9984e-05,-0.0010522,-0.00032373,-0.00055124,0.00016373,-7.7037e-05,0.00057541,-0.0010935,0.00038392,0.00016883,-0.0011532,7.2628e-05,0.00010905,-0.00024681,0.00018858,-0.00033394,-0.00016555,-0.003317,0.00014077,-0.0004345,0.0001551,0.00016288,0.00017274,0.00012079,0.00065879,-0.0078814,-0.00034222,6.718e-05,0.00063776,0.00030566,-6.1081e-06,-0.00047216,-0.00038648,0.00029266,-0.00011866,-0.00042363,-0.00048355,2.6698e-05,-4.4652e-05,-0.00021398,-0.078389,5.1684e-05,0.00019647,-0.00026033,-0.00010811,-0.00015558,-0.00059612,0.00074348,-0.00032533,-9.7295e-05,-0.00054431,-0.00017316,0.0004824,-0.00024655,0.00033137,-0.10229,0.00023371,-0.0018796,-0.0004219,-0.00056547,-0.0011271,-0.00016627,-0.00087934,-0.00033132,-8.8225e-05,-0.00010265,-4.2787e-06,-0.0013244,-0.0029725,-8.6273e-05,-8.5874e-05,0.00012328,0.00042862,-0.00021135,-0.00038165,-0.00039461,-0.00046272,4.6852,2.2846e-05,-0.00035806,0.00025928,-8.6978e-05,0.0022154,-0.00045263,0.00015341,-0.00023586,2.2859e-05,0.00041589,0.92697,3.1046e-05,-9.4551e-05,0.00014523,-0.00014736,-0.00013844,-0.00070401,-0.00073602,-8.1643e-05,-0.00062596,-0.00025462,-9.3798e-05,0.00062556,3.2274,0.00018332,-0.00021639,0.00032745,0.00015601,-0.00034653,0.00020961,-4.1285e-05,-0.0001831,-0.0006333,0.00028006,-0.001296
0.55531,6.6069e-05,-0.0015762,6.5009e-10,0.00012586,2.4601,2.8242e-05,2.6798e-05,0.00010452,-0.00029394,-0.00025939,0.0013915,-0.00053564,-3.3513e-05,-6.4185e-06,-0.00041369,0.00010262,-0.0093281,-0.00042947,0.0011783,0.00011523,0.00042852,-0.0004829,4.4784e-05,-0.00010809,0.00025152,-0.00048895,-0.00026627,0.00076436,0.00025263,-0.00041249,-0.67923,-4.2037e-05,-0.00058517,0.00088331,-0.00086065,0.00020255,-0.00026192,-0.00014667,0.00020076,0.00012203,-0.00016878,0.00028677,-0.00017358,-0.22829,0.00021139,0.00036519,0.00051128,-0.00015775,0.00059546,-0.00073599,-0.00063583,0.00099004,-9.4238e-05,-1.0084,0.00062739,-2.2897e-05,1.0215e-05,-0.041487,-0.00046966,-0.00011407,0.00017131,-0.00051056,0.00034852,-0.00020177,-0.00050242,0.00011265,-0.4384,0.00016199,-0.00063134,-0.00055589,-0.00017502,2.1206e-05,6.8333e-05,-0.00084015,-0.00028346,-0.00052138,0.00020517,-5.9236e-05,0.00057747,-0.0010559,0.00040148,0.00017587,-0.0012795,0.00010617,8.2423e-05,-0.00014572,0.00019289,-0.00026644,-0.00014962,-0.0016091,0.00014426,-0.00047371,0.0001652,0.00020445,0.00021325,0.00012689,0.00072069,-0.0049581,-0.00030676,5.4261e-05,0.00068631,0.00032808,1.63e-05,-0.00048053,-0.00039084,0.00031439,-5.8208e-05,-0.00044842,-0.00051451,4.6325e-05,-3.9856e-05,-0.00022153,-0.043231,8.2202e-05,0.00021104,-0.00025684,-0.00012196,-0.00011253,-0.00061007,0.00083309,-0.00029648,-7.6063e-05,-0.00054764,-0.00016533,0.00051839,-0.00024408,0.00043644,-0.16458,0.00024004,-0.0019974,-0.00040422,-0.00047114,-0.0011784,-0.00012877,-0.00081532,-0.00030573,-4.0123e-05,-5.0029e-05,3.8775e-05,-0.0012868,-0.0021847,-8.5568e-05,-7.7887e-05,0.00012583,0.00046782,-0.00016097,-0.0003407,-0.00036662,-0.00043941,5.6577,-7.0442e-06,-0.00033376,0.00029508,-8.2304e-05,0.0027246,-0.00040588,0.00019078,-0.00024263,5.3694e-05,0.00041793,1.6763,1.0022e-05,9.2798e-06,0.00017301,-0.0001474,-0.0001042,-0.00053916,-0.00070214,-6.156e-05,-0.00064474,-0.00027451,-8.7111e-05,0.0006151,3.0218,0.00023902,-0.00019854,0.00035334,0.00023751,-0.00034396,0.00023638,-6.5246e-05,-0.00016046,-0.0005822,0.00032647,-0.0011545
0.6199,1.4116e-05,-0.0010148,0.00048482,1.0834e-09,2.1231,-2.1119e-05,-1.9075e-05,4.0342e-05,-0.0002287,-0.0002086,0.00078999,-0.00040369,-3.6747e-05,-5.3878e-05,-0.00033255,3.885e-05,-0.024218,-0.00035123,0.00070839,3.9964e-05,0.0002278,-0.00034262,1.1308e-05,-7.4721e-05,0.00012558,-0.00039218,-0.00019748,0.00044269,0.00013437,-0.00033246,-0.64126,-4.2201e-05,-0.00038406,0.00051631,-0.00061345,0.00011249,-0.00019751,-0.00012776,0.0001079,4.0236e-05,-0.00012528,0.00016328,-9.8827e-05,-0.058502,0.00010703,0.00016972,0.0003288,-0.00013104,0.00031724,-0.0005935,-0.00044585,0.00049784,-8.0193e-05,-0.99273,0.00037985,-3.2362e-05,-1.2828e-05,-0.028319,-0.00032834,-9.7043e-05,9.1773e-05,-0.00036745,0.00019937,-0.0001724,-0.00046699,5.1239e-05,-0.14725,6.9898e-05,-0.00047635,-0.00039454,-0.00015414,-4.1442e-05,1.3348e-05,-0.00074539,-0.00022505,-0.00041148,0.0001417,-5.7694e-05,0.00032647,-0.00073801,0.00023136,7.3833e-05,-0.00071164,2.7203e-05,6.0642e-05,-0.00017468,0.00011758,-0.00026003,-0.00011216,-0.0033749,6.6662e-05,-0.00032104,7.6697e-05,8.687e-05,0.00011985,6.9372e-05,0.00042284,-0.0048806,-0.00024886,4.9944e-05,0.00041189,0.00019097,-3.3381e-05,-0.00033034,-0.00027277,0.00019461,-9.6194e-05,-0.00033006,-0.0003487,-9.564e-06,-3.8383e-05,-0.00015694,-0.006423,1.2088e-05,0.00011878,-0.00020094,-9.1874e-05,-0.00011405,-0.00044288,0.00048655,-0.00019779,-7.5442e-05,-0.00039237,-0.00013111,0.00032225,-0.00016733,0.00027913,-0.48274,0.00018409,-0.0012832,-0.00030511,-0.00036403,-0.00076702,-0.00015142,-0.00062776,-0.00024169,-6.329e-05,-9.1293e-05,-2.3754e-05,-0.00099759,-0.0015411,-7.108e-05,-7.8405e-05,5.9479e-05,0.00026054,-0.00017449,-0.00023504,-0.00028524,-0.00034427,5.1367,1.6159e-06,-0.00023866,0.00022923,-6.3713e-05,0.0015561,-0.00035433,9.5615e-05,-0.00017736,2.2735e-05,0.00023976,0.79286,-1.5673e-05,4.937e-05,9.7935e-05,-0.00012849,-8.6725e-05,-0.00047463,-0.00054181,-4.8216e-05,-0.0004806,-0.00019665,-7.4169e-05,0.0003802,3.4278,0.00012404,-0.0001695,0.00022498,0.00019427,-0.00022308,0.00012911,-4.1861e-05,-0.00012716,-0.00046016,0.0001727,-0.00088996
1.593,1.2758e-05,-0.00053357,0.00030106,5.9133e-05,1.0097e-09,1.4336e-06,6.0402e-06,3.0454e-05,-0.0001186,-8.8707e-05,0.00045632,-0.00019233,-1.0545e-05,-2.7267e-05,-0.00016529,6.9877e-06,-0.0011198,-0.00018331,0.00058631,3.7912e-05,0.00011991,-0.00016262,-7.0531e-07,4.0436e-06,5.2102e-05,-0.00018089,-8.6269e-05,0.00023303,6.8479e-05,-0.00014755,-0.6722,-1.7115e-05,-0.00012784,0.00027799,-0.00028043,5.737e-05,-9.6449e-05,-5.5216e-05,4.7586e-05,3.0242e-05,-5.0814e-05,8.862e-05,-3.9449e-05,-0.34085,5.2961e-05,8.5423e-05,0.00017982,-4.6763e-05,0.00021637,-0.0005036,-0.0001831,0.00023985,-2.2709e-05,-0.7088,0.00019036,-1.6749e-05,-1.4999e-05,-0.00052532,-0.00013404,-4.5572e-05,4.4474e-05,-0.00016427,9.9279e-05,-7.4259e-05,-0.00017614,2.6706e-05,-0.0017658,4.3403e-05,-0.00021226,-0.00021322,-9.5492e-05,-2.4349e-05,4.3984e-06,-0.00034272,-0.00011185,-0.00019633,6.9874e-05,-2.8951e-05,0.00022083,-0.00037325,9.1078e-05,6.4297e-05,-0.00038065,1.5198e-05,2.5274e-05,-6.4309e-05,7.4881e-05,-0.00011243,-4.9287e-05,-0.00073113,5.4004e-05,-0.00014828,3.489e-05,4.5289e-05,5.9488e-05,2.5056e-05,0.00020267,-0.0012279,-0.00011273,1.9897e-05,0.00016095,0.000109,-1.3284e-05,-0.00014697,-0.00012777,7.5588e-05,-4.4196e-05,-0.00017004,-9.0188e-06,-1.2267e-05,-2.6898e-05,-6.4848e-05,-0.0013692,1.589e-05,8.6608e-05,-8.1593e-05,-4.9516e-05,-4.6341e-05,-0.00021925,0.0002405,-5.7004e-05,-4.2308e-05,-0.00018784,-6.3238e-05,0.00018096,-8.9192e-05,0.00015178,-0.97317,4.9446e-05,-0.00055184,-0.00015094,-0.00014179,-0.00037057,-7.2877e-05,-0.00026446,-0.00011224,-3.2283e-05,-3.5405e-05,-6.5417e-06,-0.00046544,-0.00049039,-3.8369e-05,-3.0182e-05,2.169e-05,0.00013122,-8.1544e-05,-8.7652e-05,-0.00013166,-0.00015913,5.2214,-4.4644e-06,-0.00011626,0.00010616,-4.0316e-05,1.6386,-0.00016728,5.2319e-05,-8.2285e-05,5.8827e-06,0.00015491,1.7095,5.0726e-06,0.00013778,3.3133e-05,-5.0982e-05,-1.9843e-05,-0.00023311,-0.00023138,-3.5376e-05,-0.00022836,-0.00010311,-3.5831e-05,0.00017729,4.1387,7.7854e-05,-7.3314e-05,0.00010675,9.9327e-05,-1.9996e-05,6.0215e-05,-1.2153e-05,-6.4349e-05,-0.00021443,8.5555e-05,-0.00038247
0.47776,5.8483e-05,-0.0027239,0.0013407,0.00021626,2.1843,8.5605e-10,-2.1874e-05,7.9957e-05,-0.00059253,-0.000473,0.0019685,-0.00099718,-8.2189e-05,-0.0001086,-0.00072346,7.9353e-05,-0.007847,-0.0008053,0.0015658,0.00010891,0.00062146,-0.00085615,2.1957e-05,-0.00024388,0.00032733,-0.00089349,-0.00047982,0.0011388,0.00034239,-0.00080355,-0.47931,-9.5897e-05,-0.001026,0.0012975,-0.0015088,0.00027203,-0.00051104,-0.00031481,0.00028612,0.00010831,-0.00028479,0.00045868,-0.00034458,-0.32097,0.00031111,0.00047366,0.00080943,-0.00029527,0.00089046,-0.0014961,-0.0011836,0.0014346,-0.00015363,-1.0549,0.0010247,-4.4845e-05,-7.819e-05,-0.15217,-0.00085359,-0.00022809,0.00025569,-0.00094813,0.00052374,-0.00038478,-0.0009664,0.00012673,-0.16518,0.00018491,-0.0011066,-0.0010364,-0.00036752,-3.3761e-05,7.1241e-05,-0.0016774,-0.0004733,-0.00086016,0.00027412,-0.00014686,0.00087856,-0.0019001,0.00067616,0.00024227,-0.0019928,0.00012018,0.00011369,-0.00027169,0.0003336,-0.00052306,-0.00031361,-0.0047485,0.00021435,-0.00081296,0.00021294,0.00023642,0.00030667,0.00013402,0.0011149,-0.007937,-0.00057176,0.00012972,0.0010102,0.00052269,-7.2338e-05,-0.00086214,-0.00071104,0.00052163,-0.00019901,-0.00080575,-0.00085424,7.3219e-05,-0.0001248,-0.00039963,-0.010508,8.6813e-06,0.00017213,-0.00045295,-0.0002149,-0.00020977,-0.0011201,0.0012191,-0.00057001,-0.000171,-0.00098951,-0.00032365,0.0007737,-0.00044582,0.00071618,-0.30224,0.0003917,-0.0029976,-0.00083042,-0.00077991,-0.00187,-0.00035309,-0.0014867,-0.00051535,-0.00016141,-0.00019202,-3.2781e-05,-0.0022024,-0.0040745,-0.00017778,-0.00024684,0.00015741,0.00063741,-0.00038444,-0.00063035,-0.00064785,-0.00081678,5.3939,-1.8954e-05,-0.00056767,0.00049052,-0.00016139,0.0041456,-0.00083259,0.00029467,-0.00044206,6.8271e-05,0.00075179,0.9754,-9.927e-06,-4.5185e-05,0.00022263,-0.00034214,-0.00028417,-0.00095923,-0.0012726,-9.8997e-05,-0.0011609,-0.00048936,-0.00019027,0.00092849,3.0404,0.00032501,-0.00040599,0.00058327,0.00031562,-0.00059377,0.00033257,-0.00010687,-0.00033001,-0.0011106,0.00045375,-0.0017592
0.26378,1.915e-05,-0.00073047,0.00031429,3.4831e-05,1.9676,-2.9483e-05,9.738e-10,2.6068e-05,-0.00013692,-0.00012019,0.00054494,-0.000256,-1.36e-05,-9.6338e-06,-0.00019075,2.2856e-05,-0.002393,-0.00018997,0.00039368,5.4658e-05,0.00015538,-0.0002138,1.6594e-05,-6.0263e-05,8.8321e-05,-0.0002063,-0.0001247,0.00029858,8.8413e-05,-0.00021248,-0.60598,-3.0495e-05,-0.00028724,0.00039087,-0.00036766,7.9417e-05,-0.00012478,-6.7533e-05,7.9366e-05,3.6529e-05,-6.6923e-05,0.0001282,-0.00010157,-0.042692,8.5663e-05,0.00011928,0.00021977,-8.6015e-05,0.00023659,-0.00050563,-0.00028376,0.00037978,-5.4316e-05,-1.8135,0.00024137,-1.7924e-05,-6.6982e-06,-0.0096512,-0.00019502,-5.449e-05,6.8808e-05,-0.0002253,0.00012851,-7.4511e-05,-0.00025199,4.0383e-05,-0.099726,5.3873e-05,-0.00029125,-0.00025789,-8.264e-05,1.877e-06,1.4898e-05,-0.00043961,-0.00013958,-0.00022928,6.5161e-05,-3.4001e-05,0.00023847,-0.0004954,0.00015935,6.594e-05,-0.00050928,3.3956e-05,4.0977e-05,-7.6124e-05,8.0396e-05,-0.0001416,-6.2036e-05,-0.00096756,5.9268e-05,-0.00018495,5.7591e-05,6.4277e-05,7.7596e-05,4.1515e-05,0.00028892,-0.0020546,-0.00014174,2.0573e-05,0.00026247,0.00013042,-6.0481e-06,-0.00020819,-0.00017238,0.00013539,-6.4386e-05,-0.00018613,-0.0002147,1.027e-06,-2.2815e-05,-9.6097e-05,-0.011435,1.139e-05,7.5706e-05,-0.00011167,-5.4653e-05,-5.4264e-05,-0.00026909,0.00032297,-0.00014535,-3.1138e-05,-0.00024583,-6.9168e-05,0.00019978,-0.00011123,0.00014456,-0.09513,8.2192e-05,-0.00090569,-0.00020048,-0.00020938,-0.00048063,-6.2277e-05,-0.00039905,-0.00013344,-3.5924e-05,-5.2482e-05,-9.8521e-06,-0.00059048,-0.00071944,-3.9388e-05,-4.1365e-05,4.9324e-05,0.00017184,-9.305e-05,-0.00016179,-0.00017469,-0.00019807,5.184,-5.3095e-06,-0.00015582,0.00012159,-3.6072e-05,0.0011533,-0.00020659,7.2463e-05,-0.00011274,1.1088e-05,0.00016148,1.3409,1.1396e-05,-4.4466e-05,6.4778e-05,-7.9033e-05,-6.2218e-05,-0.00024068,-0.00032611,-3.1251e-05,-0.00029855,-0.00012251,-4.9469e-05,0.00025158,3.3166,8.0656e-05,-0.00010581,0.00014073,8.0352e-05,-0.00015038,8.466e-05,-2.9571e-05,-8.5869e-05,-0.00027718,0.00012945,-0.00056876
0.3845,7.2381e-06,-0.00020869,0.00010519,1.6802e-05,1.9022,-8.3014e-06,3.6405e-07,6.7875e-10,-4.2275e-05,-3.799e-05,0.00018792,-7.6901e-05,-7.0261e-06,-1.5742e-06,-5.9732e-05,9.978e-06,-0.0030415,-5.7075e-05,0.00014361,1.5096e-05,5.6322e-05,-6.6005e-05,4.7032e-06,-1.4063e-05,3.1176e-05,-6.0475e-05,-3.6634e-05,0.00010623,2.985e-05,-6.2857e-05,-1.0554,-6.067e-06,-8.0951e-05,0.00011254,-0.00011862,2.5972e-05,-3.9112e-05,-1.8202e-05,3.0404e-05,1.2982e-05,-2.0543e-05,4.105e-05,-2.744e-05,-0.30591,2.1819e-05,4.2023e-05,7.3271e-05,-2.3589e-05,6.8825e-05,-0.00011764,-8.8026e-05,0.00011937,-1.1957e-05,-1.3735,7.9488e-05,-5.3568e-06,-1.6716e-06,-0.014137,-6.4622e-05,-1.6045e-05,2.6223e-05,-7.1848e-05,4.5893e-05,-3.0318e-05,-7.2667e-05,1.6036e-05,-0.18141,2.0505e-05,-8.9529e-05,-7.7672e-05,-2.5013e-05,1.8419e-06,6.2832e-06,-0.00013218,-4.0598e-05,-8.2002e-05,2.525e-05,-9.7215e-06,7.034e-05,-0.0001469,5.0438e-05,2.1384e-05,-0.00015905,1.5393e-05,1.2425e-05,-3.0755e-05,2.7287e-05,-4.2074e-05,-2.0927e-05,-0.00022848,1.8933e-05,-6.0073e-05,2.1151e-05,3.1538e-05,3.0588e-05,1.1394e-05,9.4485e-05,-0.00072739,-4.5483e-05,7.0821e-06,8.3828e-05,3.9026e-05,1.7427e-06,-6.3733e-05,-5.3774e-05,3.7664e-05,-1.3578e-05,-6.5874e-05,-7.3111e-05,7.4902e-06,-4.0031e-06,-3.0225e-05,-0.023237,1.1752e-05,2.7829e-05,-3.4671e-05,-1.5647e-05,-2.0142e-05,-8.4762e-05,0.00011264,-4.0639e-05,-6.7373e-06,-7.6509e-05,-2.1856e-05,6.9857e-05,-3.3108e-05,5.8206e-05,-0.017915,3.332e-05,-0.00028165,-5.4311e-05,-7.2384e-05,-0.00015575,-2.3362e-05,-0.00012438,-4.4248e-05,-9.6192e-06,-1.1918e-05,3.2121e-07,-0.00017997,-0.00044864,-1.1451e-05,-1.0932e-05,1.6566e-05,6.7725e-05,-2.5607e-05,-5.1148e-05,-5.4138e-05,-6.4166e-05,5.3681,-5.2447e-07,-4.6919e-05,4.0763e-05,-1.0621e-05,0.00039073,-4.7976e-05,2.4845e-05,-3.3094e-05,4.0351e-06,6.1224e-05,1.9269,1.2182e-07,-5.2614e-06,2.1964e-05,-2.0721e-05,-1.4536e-05,-6.2927e-05,-0.00010356,-1.0322e-05,-8.9825e-05,-3.5027e-05,-1.3423e-05,7.8475e-05,3.2744,2.6643e-05,-2.987e-05,4.6677e-05,3.3436e-05,-4.5176e-05,2.909e-05,-4.4241e-06,-2.3584e-05,-8.3596e-05,4.1777e-05,-0.00017425
0.42503,0.00034593,-0.0060183,0.0028874,0.00031416,1.5577,-0.00033533,-2.8118e-06,0.00026963,1.2493e-09,-0.0011166,0.0045709,-0.0019477,-0.00022056,-0.00021007,-0.0016619,0.00023384,-0.048111,-0.001795,0.0041235,0.00041283,0.0014645,-0.0017749,0.00015635,-0.00041531,0.00086362,-0.0020358,-0.0010603,0.0025874,0.00080969,-0.0014963,-0.55755,-0.00023719,-0.0023831,0.003494,-0.003113,0.00072509,-0.00095007,-0.00055876,0.00065322,0.00038883,-0.00064382,0.0014307,-0.00077267,-0.15191,0.00070126,0.0014205,0.0020472,-0.00075104,0.0020387,-0.0034961,-0.0023022,0.0030073,-0.00030149,-1.7485,0.0023999,-0.00033176,-6.8078e-05,-0.040579,-0.0016527,-0.00051454,0.00059618,-0.0015986,0.0012035,-0.00055699,-0.0021313,0.00043327,-0.064718,0.00057592,-0.0026789,-0.0021877,-0.00088959,-8.0284e-05,0.00019211,-0.0037063,-0.0011707,-0.0019564,0.00064292,-0.00027968,0.0022313,-0.0039779,0.0014873,0.00073821,-0.0045829,0.0002732,0.00040064,-0.00068591,0.00071465,-0.0013675,-0.00067158,-0.0091629,0.00046483,-0.0016729,0.00062221,0.00061965,0.00066668,0.00043286,0.0024605,-0.021532,-0.0012222,0.00025872,0.0022761,0.0012198,4.3605e-05,-0.0019437,-0.0014242,0.001175,-0.00042732,-0.0017118,-0.0019264,7.0442e-05,-0.00023618,-0.00082556,-0.033577,0.0001799,0.00081269,-0.00099668,-0.00037992,-0.00052788,-0.0021205,0.002709,-0.0010956,-0.00042194,-0.0019889,-0.00069501,0.0019387,-0.00093773,0.0014256,-0.22436,0.0010645,-0.0072251,-0.0017139,-0.0019514,-0.0043043,-0.00070753,-0.003396,-0.0012929,-0.00031586,-0.00043367,-5.3706e-05,-0.0049663,-0.010133,-0.00032806,5.2457e-05,0.00047345,0.001517,-0.00072735,-0.001457,-0.001462,-0.0015542,4.9032,0.00014367,-0.0013428,0.0010195,-0.00033748,0.010737,-0.0017245,0.0005869,-0.00086163,7.804e-05,0.0015862,1.3556,3.0508e-05,-0.00021141,0.00043829,-0.00066674,-0.00048757,-0.0025472,-0.0028164,-0.00031143,-0.0022175,-0.00097571,-0.00029145,0.0024004,3.5768,0.00050416,-0.00064965,0.0012442,0.00076891,-0.0013095,0.00077886,-0.00017706,-0.00068659,-0.0023081,0.001133,-0.0049992
0.41034,0.00018798,-0.0046625,0.0021355,0.00025113,1.8717,-0.00013326,3.6004e-05,0.00019513,-0.00086028,1.1421e-09,0.0034346,-0.0015499,-9.0836e-05,-0.00010109,-0.0012682,0.00014813,-0.017218,-0.0012917,0.002682,0.00030494,0.0010436,-0.001349,7.895e-05,-0.00032562,0.00060353,-0.001424,-0.00079404,0.0019685,0.00060573,-0.0012116,-0.58147,-0.00012476,-0.0017433,0.0026663,-0.0023353,0.00051217,-0.00079437,-0.00043999,0.00050677,0.00028864,-0.0004177,0.00099356,-0.00066468,-0.26927,0.00053663,0.00080557,0.0014119,-0.00050686,0.001593,-0.0030837,-0.0017902,0.0023851,-0.00021594,-1.1515,0.0016781,-0.00012337,-8.8702e-05,-0.21379,-0.0013307,-0.00037054,0.00047319,-0.0014391,0.00090122,-0.00054184,-0.0016832,0.00028627,-0.16037,0.00037751,-0.0018918,-0.001626,-0.00057201,-2.1404e-05,0.00010067,-0.0028131,-0.00087428,-0.0015391,0.00042087,-0.0002005,0.0016501,-0.0029361,0.0010838,0.00046734,-0.0034173,0.00025136,0.00024892,-0.00055547,0.00056952,-0.0010102,-0.00045379,-0.0057996,0.0003847,-0.0012693,0.00037692,0.00044716,0.00053265,0.00025066,0.0018839,-0.018072,-0.00090945,0.00021503,0.0017624,0.00088365,-1.8533e-05,-0.0013156,-0.0010523,0.00077962,-0.00035271,-0.0013692,-0.0014169,8.3885e-05,-0.00016069,-0.00058591,-0.040575,8.6682e-05,0.00040006,-0.000761,-0.00036229,-0.00037851,-0.001692,0.0020967,-0.00085575,-0.00026816,-0.0015272,-0.00049306,0.0013388,-0.0006881,0.00091558,-0.23366,0.00060205,-0.0052033,-0.0012543,-0.001425,-0.0030907,-0.00045468,-0.0024869,-0.00089881,-0.0001951,-0.00034769,-6.9273e-05,-0.0036449,-0.012347,-0.00025254,-0.00026972,0.00037843,0.0011412,-0.00058749,-0.0010454,-0.001139,-0.0012511,4.8733,-3.9781e-05,-0.0010118,0.00075669,-0.00023617,0.0067387,-0.0013395,0.00046332,-0.00064815,9.1607e-05,0.0010824,1.302,4.0508e-05,-0.00023574,0.0004091,-0.0004707,-0.00037143,-0.001654,-0.0021168,-0.00018317,-0.0018522,-0.00078499,-0.00023378,0.0016781,2.9092,0.0004558,-0.00058781,0.00090408,0.00050894,-0.00099204,0.00057558,-0.00012007,-0.00050809,-0.0017927,0.00079861,-0.0037341
0.53256,1.4637e-05,-0.00065795,0.00029228,3.5635e-05,2.0729,-2.1353e-05,1.2088e-06,3.6045e-05,-0.00012446,-0.00010807,6.7074e-10,-0.00022419,-1.2417e-05,-3.9568e-07,-0.00016987,1.9803e-05,-0.0024641,-0.0001598,0.00041058,4.2703e-05,0.00017866,-0.00019659,9.3986e-06,-3.9604e-05,7.8577e-05,-0.0001773,-0.0001063,0.00029798,9.1344e-05,-0.00018011,-1.1454,-2.4656e-05,-0.00025544,0.00030535,-0.00033956,7.5022e-05,-0.00011572,-6.07e-05,8.5259e-05,3.2514e-05,-5.5206e-05,0.00010861,-5.3298e-05,-0.46814,5.9434e-05,0.00010928,0.00020666,-7.8613e-05,0.00021016,-0.00045426,-0.00025154,0.00036341,-3.1842e-05,-1.0086,0.00022461,-3.7744e-06,-2.8923e-06,-0.061427,-0.00018334,-4.1724e-05,7.1045e-05,-0.00020218,0.00012984,-7.6261e-05,-0.00022417,4.5201e-05,-0.16578,6.535e-05,-0.00024793,-0.00020843,-6.9028e-05,2.4092e-05,1.4263e-05,-0.00038381,-0.00011727,-0.00020041,6.3849e-05,-2.7257e-05,0.00022132,-0.00043676,0.00015309,6.0405e-05,-0.00046431,4.3354e-05,3.2713e-05,-5.2013e-05,7.556e-05,-0.00011314,-5.7682e-05,-0.00067921,5.0497e-05,-0.00017404,5.8669e-05,6.6666e-05,0.00010006,4.5684e-05,0.00026257,-0.0028713,-0.00012787,1.9991e-05,0.00025462,0.00012626,4.4894e-06,-0.0001896,-0.00015648,0.00011843,-4.7029e-05,-0.00017936,-0.00018866,2.4131e-05,-2.198e-05,-8.5884e-05,-0.011793,1.8213e-05,7.2152e-05,-0.00010934,-4.8895e-05,-5.6773e-05,-0.00024791,0.00039757,-0.00010996,-1.6713e-05,-0.00022231,-6.4504e-05,0.00019202,-9.3755e-05,0.00011904,-0.039301,7.5045e-05,-0.00074467,-0.00016267,-0.00020124,-0.00046045,-5.7048e-05,-0.00034651,-0.00012437,-3.3206e-05,-3.89e-05,4.2442e-07,-0.00053623,-0.00071929,-3.1084e-05,-3.059e-05,4.5723e-05,0.0001812,-6.9468e-05,-0.00014604,-0.0001527,-0.00017275,5.7212,-2.7034e-06,-0.00014417,0.00011625,-2.8799e-05,0.001227,-0.00015397,6.5417e-05,-9.4903e-05,9.9586e-06,0.00017906,1.5662,4.6455e-06,-9.4828e-06,6.1994e-05,-7.4156e-05,-4.3352e-05,-0.00017647,-0.00027868,-3.2025e-05,-0.00025994,-0.00010366,-4.081e-05,0.00022068,3.3697,9.4768e-05,-8.3641e-05,0.00012371,7.4087e-05,-0.00012995,8.4586e-05,-9.1609e-06,-7.1316e-05,-0.00024652,0.00011816,-0.00048284
0.45995,0.00014293,-0.0024944,0.0011581,0.0001347,1.6274,-0.0001079,-1.9715e-05,9.9187e-05,-0.00041427,-0.00044182,0.0018055,1.121e-09,-0.00010344,-0.00010635,-0.00072104,8.8028e-05,-0.038587,-0.00081967,0.0016024,0.00014012,0.00057587,-0.000747,4.6011e-05,-0.00016451,0.00034285,-0.00089886,-0.0004479,0.0010392,0.00032528,-0.00064352,-0.49279,-9.8795e-05,-0.00096605,0.0013229,-0.0012691,0.0002835,-0.00039867,-0.00023903,0.00024825,0.00013643,-0.00027145,0.00049815,-0.00034198,-0.32431,0.00026972,0.00047791,0.0007423,-0.00029413,0.00072621,-0.001463,-0.00095624,0.001234,-0.00015667,-1.4524,0.00090366,-0.00013447,-4.8809e-05,-0.13032,-0.00071988,-0.00023286,0.00022866,-0.00074887,0.00046161,-0.0002957,-0.0009622,0.00016778,-0.15152,0.00020267,-0.0011142,-0.00091725,-0.00036353,-5.5592e-05,6.202e-05,-0.0016108,-0.00050428,-0.00083736,0.00024126,-0.00013489,0.00082011,-0.0016273,0.00055757,0.00026838,-0.0018676,9.1995e-05,0.00014931,-0.00035614,0.00027964,-0.00056231,-0.00026816,-0.0046488,0.00018316,-0.00067911,0.00022448,0.00020995,0.00026039,0.00013584,0.00095721,-0.017924,-0.00051515,7.7672e-05,0.00092667,0.00047819,1.0463e-05,-0.00072446,-0.00057433,0.0004453,-0.00016418,-0.00075971,-0.00081483,2.343e-05,-0.00010048,-0.00034068,-0.017125,3.4023e-05,0.00030054,-0.00041797,-0.00015929,-0.00024801,-0.00087552,0.0010713,-0.00044594,-0.00020695,-0.00082401,-0.00030658,0.00077242,-0.00039885,0.00053338,-0.23139,0.0003683,-0.0027208,-0.00071832,-0.0008281,-0.0017966,-0.00030299,-0.0012693,-0.00051678,-0.00010398,-0.00019387,-3.0762e-05,-0.0020922,-0.0061828,-0.00014648,-0.0001092,0.00019147,0.0006056,-0.00032152,-0.00061348,-0.00061604,-0.0006894,4.7001,1.6187e-05,-0.00056478,0.00042266,-0.00014969,0.003711,-0.00078711,0.0002195,-0.00035848,2.6527e-05,0.00060096,1.2651,-1.4161e-05,-9.4473e-05,0.00017613,-0.00026882,-0.00020236,-0.0011204,-0.0011755,-0.00013039,-0.00091599,-0.00043391,-0.00012746,0.00094519,3.4382,0.00019579,-0.00030434,0.00049555,0.00028161,-0.00056191,0.00029393,-9.6726e-05,-0.00029702,-0.00098329,0.00044774,-0.0021008
0.47125,6.4533e-05,-0.0018285,0.00074072,8.5053e-05,1.6586,-6.8768e-05,7.1308e-06,4.9409e-05,-0.00036628,-0.00030589,0.0013701,-0.00066702,8.7966e-10,-1.2369e-05,-0.00046706,3.5463e-05,-0.0097775,-0.0004448,0.00095503,0.00011321,0.0003723,-0.00053609,2.8632e-05,-0.00015059,0.00020151,-0.00047842,-0.00029803,0.00076758,0.00023462,-0.00053161,-0.64991,-7.0363e-05,-0.00063351,0.0008745,-0.00095793,0.00018349,-0.00034186,-0.00017995,0.00018767,8.607e-05,-0.00016781,0.00032261,-0.00022071,-0.28555,0.0002082,0.00029902,0.00051434,-0.00020499,0.00068604,-0.0011575,-0.00068842,0.00096576,-8.1662e-05,-1.5357,0.00062242,-1.0464e-05,-2.8826e-05,-0.15641,-0.00047275,-0.00012941,0.00016536,-0.00058939,0.00030984,-0.00026445,-0.00062396,9.9464e-05,-0.19215,0.00012094,-0.00071091,-0.0006108,-0.00017766,-1.1516e-05,4.5384e-05,-0.0010915,-0.00033915,-0.00060041,0.00017812,-9.2149e-05,0.00059943,-0.0011433,0.00043266,0.00017176,-0.0012886,7.845e-05,0.00011941,-0.00017843,0.00024129,-0.00034836,-0.00016193,-0.0020571,0.0001753,-0.00048849,0.00013926,0.00014992,0.00018842,8.5584e-05,0.00071764,-0.0047104,-0.00033701,0.00010124,0.0006472,0.00039726,-3.0726e-05,-0.00053639,-0.00043911,0.00033162,-0.00020629,-0.00044735,-0.00049243,9.4238e-06,-5.2363e-05,-0.00024227,-0.017298,2.9439e-06,0.00014343,-0.00027637,-0.00013128,-0.00014683,-0.00071199,0.00079509,-0.00034527,-6.4003e-05,-0.00063272,-0.00016419,0.00046915,-0.00027353,0.00037472,-0.022326,0.0002255,-0.0019506,-0.00049878,-0.00049976,-0.0011737,-0.00016004,-0.00092497,-0.00029493,-0.0001069,-0.00012208,-2.2503e-05,-0.0014426,-0.0014821,-9.1392e-05,-0.0001165,0.00010042,0.00038635,-0.00023831,-0.00039735,-0.00041508,-0.00050674,5.0162,6.7513e-06,-0.00038085,0.00031253,-8.9335e-05,0.0023409,-0.0005281,0.00019189,-0.00028674,3.0091e-05,0.00042869,1.6321,8.2698e-05,-5.1731e-05,0.00016428,-0.00022196,-0.00015137,-0.0005349,-0.00074699,-7.7822e-05,-0.00077526,-0.0002775,-0.00012413,0.00060736,3.7031,0.00026932,-0.00025926,0.00038543,0.00021401,-0.00033846,0.0002415,-4.6647e-05,-0.00020708,-0.00071702,0.00031854,-0.0011642
0.19409,6.0979e-06,-0.00028109,0.00011234,8.0338e-06,1.5072,-1.2913e-05,3.208e-06,1.4497e-05,-5.5485e-05,-4.61e-05,0.00023545,-0.00010044,-3.4252e-06,7.5412e-10,-6.8616e-05,7.8444e-06,-0.00065547,-3.0779e-05,0.00014868,2.4142e-05,5.8056e-05,-8.0164e-05,7.9971e-06,-2.3507e-05,3.0459e-05,-4.0641e-05,-4.038e-05,0.00014282,3.7101e-05,-7.9544e-05,-0.52744,-1.0238e-05,-0.00010344,0.00012764,-0.00014502,3.2108e-05,-5.0437e-05,-2.4123e-05,3.9928e-05,1.5554e-05,-2.0966e-05,4.9158e-05,-3.7637e-05,-0.12562,2.9732e-05,5.0598e-05,7.4558e-05,-2.9256e-05,8.8573e-05,-0.00020354,-0.00010653,0.00014858,-1.5896e-05,-1.3485,9.205e-05,7.7912e-07,-6.1744e-06,-0.0019163,-6.7912e-05,-1.3806e-05,3.5567e-05,-8.9032e-05,5.0422e-05,-3.455e-05,-8.2699e-05,2.1312e-05,-0.23564,1.9786e-05,-0.00010331,-9.2287e-05,-2.2066e-05,5.5366e-06,4.3831e-06,-0.0001421,-4.7111e-05,-9.5848e-05,2.3622e-05,-1.0209e-05,9.5596e-05,-0.00017089,6.7234e-05,2.3805e-05,-0.00020004,2.4178e-05,1.6478e-05,-3.8872e-05,3.088e-05,-4.3833e-05,-2.0942e-05,-0.0002136,2.5947e-05,-7.043e-05,2.7171e-05,3.3147e-05,3.3541e-05,1.3726e-05,0.00011443,-0.00082174,-5.5557e-05,7.0214e-06,0.00011346,5.051e-05,-5.0855e-08,-7.3046e-05,-6.4535e-05,4.3281e-05,-2.0464e-05,-6.4063e-05,-8.663e-05,8.6485e-06,-5.8647e-06,-3.5355e-05,-0.0010966,5.6231e-06,2.7541e-05,-4.562e-05,-1.9057e-05,-2.1642e-05,-0.00010224,0.00013823,-5.4811e-05,1.2857e-05,-9.5227e-05,-2.3596e-05,7.8205e-05,-4.0365e-05,5.2345e-05,-0.0013187,2.7435e-05,-0.00032975,-7.2627e-05,-8.6951e-05,-0.00017758,-2.2667e-05,-0.00014379,-4.586e-05,-8.6812e-06,-1.5828e-05,-2.1837e-07,-0.00020011,-0.00025869,-1.0738e-05,-1.7903e-05,1.9552e-05,7.4483e-05,-2.7888e-05,-6.6255e-05,-5.5974e-05,-7.7755e-05,5.4748,1.0797e-06,-6.068e-05,4.0064e-05,-1.0755e-05,0.00039991,-5.8362e-05,3.3837e-05,-4.1174e-05,1.818e-06,7.3404e-05,2.0732,1.1526e-05,-1.5041e-05,3.0431e-05,-2.6814e-05,-2.3496e-05,-3.4934e-05,-0.00012119,-1.3914e-05,-0.00011493,-3.7593e-05,-1.736e-05,8.9045e-05,3.3573,4.359e-05,-3.9445e-05,4.8689e-05,2.8179e-05,-5.4869e-05,4.2663e-05,-5.3476e-06,-3.0803e-05,-0.00010121,5.2671e-05,-0.00019009
0.25332,0.00020047,-0.0041851,0.0020134,0.0001882,1.4926,-0.00014633,7.499e-06,0.00018649,-0.00082523,-0.00080901,0.0033122,-0.001591,-9.2933e-05,-5.3525e-05,9.4015e-10,0.00013205,-0.013507,-0.00123,0.0028229,0.00023654,0.0010732,-0.0013562,0.00010285,-0.00032094,0.00056199,-0.0012764,-0.0007623,0.002013,0.00062025,-0.001238,-0.52145,-0.00019702,-0.0017062,0.0023616,-0.0023894,0.00056924,-0.00079219,-0.00038118,0.00052327,0.00022306,-0.00036243,0.00098378,-0.00069177,-0.31741,0.00051527,0.00078628,0.0014167,-0.00047872,0.001462,-0.0028862,-0.0017577,0.0024665,-0.00030914,-1.4439,0.0016298,-0.00010644,-2.7753e-05,-0.024664,-0.0012848,-0.00036069,0.00047504,-0.0014812,0.00089711,-0.00055159,-0.0015624,0.00029551,-0.15689,0.00033689,-0.001788,-0.0013109,-0.00051978,-1.3999e-05,9.0103e-05,-0.002759,-0.00084422,-0.0016063,0.00042891,-0.00020393,0.0016645,-0.0029752,0.0011809,0.00045263,-0.0032072,0.00023787,0.00026358,-0.0005332,0.0005414,-0.00087351,-0.00048794,-0.005745,0.00040199,-0.0012153,0.00039637,0.00045765,0.000429,0.0003732,0.0017978,-0.013486,-0.0009046,0.00015242,0.0017222,0.00088346,-1.6218e-05,-0.0013532,-0.0011097,0.00082049,-0.00038229,-0.00121,-0.0014142,9.1344e-05,-0.00012113,-0.00059754,-0.024083,8.5468e-05,0.00054224,-0.00078042,-0.00035346,-0.00036749,-0.0017155,0.0020498,-0.00088464,-0.00017365,-0.0015495,-0.00045794,0.0013493,-0.00072852,0.00097969,-0.06783,0.00064389,-0.0051735,-0.0011839,-0.0015222,-0.003009,-0.00043285,-0.0023101,-0.00083786,-0.00028875,-0.00030627,-5.033e-05,-0.0035979,-0.0044156,-0.00020474,-0.00019177,0.00030789,0.0010947,-0.00054392,-0.0010364,-0.0010597,-0.0012483,4.8111,6.1551e-05,-0.00096336,0.00076259,-0.0001897,0.0065312,-0.0012267,0.00046944,-0.00067042,4.2299e-05,0.0010487,1.274,8.2897e-05,-0.00027656,0.00039117,-0.0005092,-0.00038223,-0.0015761,-0.0020659,-0.00019003,-0.0018358,-0.00068118,-0.00027919,0.0016634,3.375,0.00053062,-0.00060346,0.00087433,0.00053226,-0.00099005,0.00058486,-0.00015494,-0.00054033,-0.0018024,0.00084995,-0.0031039
0.77962,0.00016318,-0.0048915,0.002482,0.00039842,1.6959,-0.00012818,3.094e-05,0.0002759,-0.00093235,-0.00089772,0.0039168,-0.0017324,-0.00013628,-7.1399e-05,-0.0013934,1.0036e-09,-0.054788,-0.0014176,0.0038266,0.00037226,0.0014047,-0.001532,0.00013608,-0.00030885,0.00077099,-0.0015505,-0.00084517,0.002403,0.000696,-0.0013746,-0.69447,-7.8127e-05,-0.0018213,0.0025986,-0.0026596,0.00063836,-0.00085012,-0.00044915,0.00059167,0.00028899,-0.00049329,0.00096644,-0.00051162,-0.15962,0.00064474,0.00104,0.0016449,-0.00058006,0.0017681,-0.0024845,-0.0019709,0.0027488,-0.00037702,-1.6161,0.0018408,-0.00014404,8.5993e-05,-0.16532,-0.0014439,-0.00045301,0.00052395,-0.0016025,0.0011244,-0.00069604,-0.0017007,0.00038525,-0.20345,0.00047025,-0.002221,-0.0017464,-0.00064813,2.4683e-05,0.00014761,-0.0030143,-0.00097224,-0.0016821,0.00061669,-0.00017395,0.001786,-0.0032723,0.0011792,0.00049323,-0.0037562,0.0002565,0.00025336,-0.00054617,0.00061177,-0.00092412,-0.00046631,-0.0063144,0.00042586,-0.0013998,0.00049823,0.00054781,0.0006499,0.00033711,0.00211,-0.020002,-0.0010442,0.00021199,0.0019897,0.00097731,9.5818e-05,-0.0014774,-0.0012513,0.00097907,-0.00026819,-0.001422,-0.0016063,8.7265e-05,-0.00013484,-0.00070395,-0.069699,0.00017187,0.0006546,-0.00081976,-0.00042134,-0.00043169,-0.0018538,0.0025039,-0.00094076,-0.00033187,-0.0017316,-0.00060179,0.0017473,-0.00075097,0.0014088,-0.1869,0.00079366,-0.0062721,-0.0015319,-0.0016823,-0.0034485,-0.00051354,-0.0027958,-0.00098816,-0.00018527,-0.0002344,7.1614e-05,-0.0042777,-0.013491,-0.00026271,-0.00019501,0.00039102,0.0014111,-0.00057602,-0.0010871,-0.0012119,-0.001423,5.2166,6.1506e-05,-0.0010755,0.00084032,-0.00023204,0.0085678,-0.0013422,0.00058198,-0.00075042,0.00014853,0.0012204,1.3896,-7.7556e-05,-7.3208e-05,0.0004677,-0.00042725,-0.00024939,-0.0017325,-0.0024505,-0.00020372,-0.0019945,-0.00079562,-0.00030769,0.0019474,3.4466,0.00061096,-0.00065982,0.0010707,0.00082047,-0.0010543,0.00064327,-0.00017189,-0.00057453,-0.0019076,0.00099102,-0.0034588
0.34701,5.7104e-05,-0.0031641,0.0012788,5.9509e-05,1.8258,-8.0833e-05,1.4553e-05,8.289e-05,-0.00057848,-0.00049015,0.0022424,-0.0010807,-6.9698e-05,-1.1725e-05,-0.00074833,4.2268e-05,8.9677e-10,-0.00064387,0.0015923,0.00018315,0.00067826,-0.00086522,7.1767e-05,-0.00023728,0.00029634,-0.00080537,-0.00048819,0.0012008,0.00036651,-0.00084655,-0.44285,-0.00014561,-0.0010486,0.0013207,-0.001539,0.00030185,-0.00054709,-0.000308,0.00027807,0.00016419,-0.00024141,0.0007155,-0.00045411,-0.13614,0.00031116,0.00053383,0.00085625,-0.00028729,0.00092825,-0.0019745,-0.0011636,0.0015473,-0.00013656,-1.7668,0.0009601,-3.794e-05,-8.8902e-05,-0.018153,-0.00081254,-0.00021383,0.00025518,-0.00096795,0.0005518,-0.00036224,-0.00099413,0.00011972,-0.25386,0.0002268,-0.0010913,-0.0010539,-0.00036892,3.9031e-05,1.0822e-05,-0.0017178,-0.00060068,-0.00093819,0.00024543,-0.0001404,0.0010733,-0.0020112,0.00074247,0.00027977,-0.0020619,0.00011822,0.00014386,-0.0001953,0.00030418,-0.00061009,-0.00031644,-0.0030574,0.00024733,-0.00073859,0.00019279,0.00022728,0.00033853,0.00013894,0.0011583,-0.010511,-0.00054796,8.8792e-05,0.0010166,0.00049773,-7.3111e-05,-0.00088416,-0.00074272,0.00056818,-0.0002326,-0.00073738,-0.00072462,4.7445e-05,-0.00012109,-0.00040095,-0.013748,7.2786e-06,0.00022088,-0.00041579,-0.00024259,-0.00024625,-0.0011363,0.0013131,-0.00059248,-9.5513e-05,-0.0010004,-0.00027438,0.00080319,-0.00043433,0.00049777,-0.26276,0.00030589,-0.0035666,-0.00086337,-0.00084806,-0.0019859,-0.0002465,-0.0015755,-0.00053416,-0.00015904,-0.00022113,-3.1745e-05,-0.0024623,-0.0031798,-0.00019812,-0.00017632,0.0001709,0.00066786,-0.00035058,-0.00066577,-0.00066682,-0.00078207,5.1526,-5.1391e-05,-0.00059832,0.00044749,-0.00011802,0.0037839,-0.00092638,0.00025943,-0.00045465,9.5107e-05,0.00064192,1.5448,7.8377e-05,-9.5815e-05,0.00023277,-0.00034487,-0.00027219,-0.00094173,-0.0013812,-0.00013875,-0.0012667,-0.00048717,-0.00021205,0.00097719,3.1299,0.00038364,-0.00040397,0.0005032,0.00028639,-0.00057663,0.00034718,-8.4082e-05,-0.000351,-0.0011712,0.00050451,-0.0020476
0.19162,1.8763e-05,-0.00094776,0.00040542,2.6363e-05,1.4359,-4.5193e-05,1.3033e-05,5.7491e-05,-0.00019089,-0.00016025,0.00081626,-0.0003662,-7.3572e-06,0.00010395,-0.00024684,2.4155e-05,-0.0020996,7.8391e-10,0.00054642,8.4944e-05,0.00021206,-0.00028389,3.6709e-05,-7.1664e-05,0.00010434,-0.00011752,-0.00015082,0.0005218,0.00013646,-0.00027918,-0.53109,-2.8234e-05,-0.00033936,0.00044312,-0.00051401,0.00011376,-0.0001818,-7.9108e-05,0.00014743,5.8875e-05,-7.944e-05,0.00017227,-0.00013429,-0.06053,0.00011302,0.0001811,0.00026491,-0.00010817,0.00027829,-0.00068891,-0.0003732,0.00054429,-4.1581e-05,-1.4416,0.00034799,1.0734e-05,-1.947e-05,-0.0048056,-0.00024813,-3.8157e-05,0.00013528,-0.00032305,0.00019356,-0.00012133,-0.00028796,7.3149e-05,-0.38642,7.6991e-05,-0.00036709,-0.00030936,-7.6384e-05,2.512e-05,1.7612e-05,-0.00042675,-0.00015866,-0.00034288,8.3105e-05,-3.5024e-05,0.00032127,-0.00061301,0.00023295,7.8101e-05,-0.0007023,9.6144e-05,6.3024e-05,-0.00011948,0.00010929,-0.00015735,-7.1386e-05,-0.00070397,9.6819e-05,-0.00025177,0.00010174,0.00012109,0.00013266,5.5277e-05,0.00040553,-0.003837,-0.00019061,2.7645e-05,0.00041126,0.0001767,-9.4197e-06,-0.00027825,-0.00022832,0.00015609,-7.3172e-05,-0.00021695,-0.00029072,3.6998e-05,-1.7964e-05,-0.00012627,-0.0066942,2.7198e-05,8.9549e-05,-0.00015719,-6.5272e-05,-7.7034e-05,-0.00035615,0.0005085,-0.00018584,7.0054e-05,-0.00033188,-8.6016e-05,0.0002825,-0.00013884,0.00018176,-0.01023,0.00011403,-0.001168,-0.00027512,-0.00031008,-0.00060157,-8.5036e-05,-0.00051196,-0.00015255,-3.0733e-05,-5.086e-05,5.5147e-06,-0.00070499,-0.0010481,-3.8892e-05,-6.4371e-05,8.0457e-05,0.00027344,-9.3051e-05,-0.00022649,-0.00019565,-0.00028368,5.2652,-2.1859e-06,-0.00020939,0.00013477,-3.4326e-05,0.0013281,-0.00019522,0.00013658,-0.00014718,7.0755e-06,0.00026169,2.1121,4.2628e-05,-4.8172e-05,0.00011933,-0.00010649,-7.5333e-05,-0.00010324,-0.00042959,-4.1476e-05,-0.00041118,-0.00013667,-5.6749e-05,0.00032752,3.6518,0.00014478,-0.0001459,0.00017464,9.695e-05,-0.00018082,0.00015213,-2.014e-05,-0.00010659,-0.00035237,0.00018426,-0.00061296
1.9108,0.00025883,-0.0074839,0.0033366,0.00045073,2.2668,-0.00034133,-0.00015469,0.00027898,-0.0013141,-0.0014336,0.0053547,-0.002539,-0.0003253,-0.00026248,-0.0020306,0.00037977,-0.07149,-0.0022039,1.0842e-09,0.00050663,0.0017222,-0.0022799,0.00014657,-0.00026255,0.0008625,-0.0025324,-0.0013414,0.0032384,0.00095031,-0.0020062,-0.41194,-0.00012875,-0.0023205,0.0035371,-0.0040161,0.00084507,-0.0012716,-0.00071153,0.00069894,0.00021504,-0.00076782,0.0013575,-0.00049144,-0.20755,0.00070767,0.0013858,0.0021319,-0.00087324,0.0026747,-0.0042223,-0.0028336,0.0035023,-0.00040905,-0.96776,0.0024763,-0.00026629,-6.8666e-05,-0.021764,-0.0022851,-0.00069735,0.00064935,-0.0023336,0.0014925,-0.00097576,-0.0027119,0.00048295,-0.11114,0.00065479,-0.0032167,-0.0027364,-0.0010142,-0.00018187,7.3868e-05,-0.0046664,-0.0015187,-0.0029073,0.00078616,-0.00034392,0.0025865,-0.0051414,0.001556,0.00064459,-0.0055704,0.00026103,0.00039969,-0.0010884,0.00080995,-0.0016894,-0.00083699,-0.012769,0.00054178,-0.0022914,0.00065181,0.00067029,0.00088923,0.00058323,0.0025885,-0.043105,-0.001648,0.00024277,0.00276,0.001235,-4.841e-06,-0.0024557,-0.0016483,0.0013536,-0.00040001,-0.0019774,-0.0024152,2.3876e-05,-0.00025779,-0.00096656,-0.024041,0.00015694,0.00095684,-0.0013279,-0.00052706,-0.00067237,-0.0027591,0.0033086,-0.0011038,-0.00059589,-0.0025221,-0.00097427,0.0032248,-0.0010648,0.0017177,-1.1145,0.0010027,-0.0077601,-0.0022187,-0.0025571,-0.0050523,-0.0010049,-0.0037815,-0.0016585,-0.00040847,-0.0005102,1.1235e-05,-0.0063534,-0.016008,-0.00042597,-0.00037949,0.00049333,0.0017858,-0.0010058,-0.0016543,-0.001828,-0.0020965,5.0208,2.7843e-05,-0.0016001,0.0012411,-0.00049749,0.01037,-0.0023877,0.00058854,-0.0010167,5.1773e-05,0.0014931,1.585,-6.5619e-05,0.00027309,0.00049755,-0.00092652,-0.00037435,-0.003317,-0.0036464,-0.00039249,-0.0029725,-0.0012284,-0.00036269,0.0027483,3.2491,0.00081325,-0.00091791,0.0013499,0.00095957,-0.0014382,0.00078421,-0.00026411,-0.00093441,-0.0031259,0.001227,-0.0050394
0.45135,7.2325e-05,-0.0017858,0.00069319,5.8041e-06,1.6658,-0.00013291,1.2162e-05,5.5451e-05,-0.00034059,-0.00031821,0.0012326,-0.00064178,-5.378e-05,-1.0096e-05,-0.00054216,5.3716e-05,-0.023489,-0.00047563,0.0010966,6.7402e-10,0.00035529,-0.00051782,2.154e-05,-0.00013646,0.00023092,-0.00049018,-0.00029476,0.00076353,0.00024846,-0.00050179,-0.7062,-6.9086e-05,-0.0006465,0.0008793,-0.00094352,0.00018914,-0.0003213,-0.00014089,0.00018803,9.6724e-05,-0.00015503,0.00036311,-0.00032644,-0.21146,0.00020422,0.00033293,0.00054099,-0.0001848,0.00065588,-0.0015013,-0.0006757,0.00091098,-0.00013915,-1.4585,0.00060202,-5.7591e-05,-2.9163e-05,-0.030861,-0.00043838,-0.00015523,0.00018286,-0.00055271,0.00032979,-0.00024264,-0.00066474,0.00010815,-0.13264,0.00012997,-0.00071143,-0.00065438,-0.00019293,-3.4703e-05,3.3394e-05,-0.0010859,-0.00036126,-0.00063942,0.00015727,-7.817e-05,0.00063388,-0.0012244,0.00043038,0.00012568,-0.0013095,8.4492e-05,9.4071e-05,-0.00025042,0.00018918,-0.00035668,-0.00016153,-0.00246,0.00015992,-0.00045441,0.00015141,0.00017316,0.00020595,0.00011698,0.00068786,-0.0061838,-0.00038265,5.8441e-05,0.00069317,0.00033947,-2.7358e-05,-0.00052664,-0.00042899,0.00027241,-0.00018901,-0.00044593,-0.00056547,2.4639e-05,-5.8871e-05,-0.00022841,-0.011925,2.2819e-05,0.00019343,-0.00028199,-0.00013825,-0.00014541,-0.00066421,0.00079996,-0.00036126,-7.6895e-05,-0.00061664,-0.00020694,0.00051408,-0.00030421,0.00030918,-0.39494,0.00017592,-0.0021027,-0.00051995,-0.00058286,-0.0011884,-0.00019801,-0.00090825,-0.0003196,-5.998e-05,-0.00013249,-2.6039e-05,-0.0015318,-0.0019976,-0.0001005,-0.00010903,0.00011701,0.00043232,-0.00021925,-0.00044435,-0.00043237,-0.00052527,5.2875,4.8624e-06,-0.00041908,0.00025733,-9.9319e-05,0.0023482,-0.00054208,0.0001721,-0.000278,-3.0655e-06,0.00040963,1.3754,3.2036e-05,-5.143e-05,0.00015821,-0.00014067,-0.00013935,-0.00057702,-0.00083272,-8.997e-05,-0.0007345,-0.00029278,-0.00012316,0.00062339,3.8389,0.00020824,-0.00024315,0.00032477,0.00015763,-0.00033205,0.00022908,-3.6453e-05,-0.0002086,-0.00070047,0.00029728,-0.0014362
0.80807,6.7487e-06,-0.0016059,0.00066473,6.8509e-05,1.7462,-4.2906e-05,-7.1372e-06,9.299e-05,-0.00027648,-0.00025816,0.0013403,-0.00050396,-5.7307e-05,-3.8143e-05,-0.0003871,8.2517e-05,-0.0064782,-0.00039481,0.00099111,7.8065e-05,7.517e-10,-0.00045304,6.89e-06,-7.2486e-05,0.0001847,-0.00043806,-0.00027266,0.00064039,0.00017274,-0.0003815,-0.67331,-4.8823e-05,-0.00051177,0.00069515,-0.00076995,0.00014044,-0.00025648,-0.00013767,0.0001568,8.7197e-05,-0.0001391,0.00023167,-0.00014152,-0.2475,0.00012648,0.00026062,0.00043418,-0.00016706,0.0004812,-0.00084111,-0.00058324,0.00066242,-7.5684e-05,-1.5335,0.00050444,-3.8352e-05,-2.0865e-05,-0.11388,-0.00042019,-9.914e-05,0.00013875,-0.00045772,0.00028725,-0.0002355,-0.0005357,9.4163e-05,-0.14079,0.00014821,-0.00058964,-0.00053303,-0.00019308,2.8025e-05,2.8146e-05,-0.00085082,-0.00028846,-0.0004997,0.00016187,-7.2131e-05,0.00049478,-0.0009952,0.00032048,9.3991e-05,-0.0011508,6.9506e-05,7.7396e-05,-0.00013093,0.00016314,-0.00029408,-0.0001498,-0.0018841,9.9593e-05,-0.00040694,0.00011731,0.00014978,0.00019937,9.7915e-05,0.00061536,-0.010165,-0.00030139,4.9833e-05,0.00048774,0.00027348,-1.1718e-06,-0.00043886,-0.00035929,0.0002549,-0.00010476,-0.00039089,-0.00041854,1.6422e-05,-4.3258e-05,-0.00019718,-0.047369,3.268e-05,0.00014833,-0.00024571,-9.5008e-05,-0.00011767,-0.00056351,0.00072798,-0.00022236,-6.6961e-05,-0.00050277,-0.00016747,0.00045655,-0.0002235,0.00034262,-0.28556,0.00018917,-0.0017044,-0.00039303,-0.0004719,-0.0010205,-0.0001845,-0.00077048,-0.00029786,-7.0207e-05,-9.3583e-05,-7.1643e-06,-0.0013249,-0.0062626,-9.2948e-05,-4.5093e-05,9.4997e-05,0.00040253,-0.00015894,-0.00030137,-0.00035869,-0.00040912,5.4125,9.1094e-07,-0.00030654,0.00024311,-6.5349e-05,0.002627,-0.00036721,0.00017625,-0.00022472,2.7037e-05,0.00037285,1.8767,-5.4419e-05,2.3647e-05,0.00010547,-0.0001531,-7.9588e-05,-0.00047318,-0.0007064,-8.0006e-05,-0.00057554,-0.0002588,-0.0001017,0.0004685,3.4562,0.00014875,-0.0001941,0.00029477,0.0001702,-0.00026749,0.0001554,-4.5352e-05,-0.00017536,-0.00057212,0.00026634,-0.0010613
0.35893,0.00011634,-0.0024904,0.001105,0.00011196,1.6703,-0.0001102,-4.3939e-06,9.6851e-05,-0.00044336,-0.00043934,0.0017593,-0.00085192,-7.1593e-05,-7.4607e-05,-0.00069937,7.5e-05,-0.013245,-0.00073138,0.0015106,0.0001758,0.00054653,1.1439e-09,4.8827e-05,-0.00018473,0.00032893,-0.00078701,-0.0004294,0.0010358,0.00032213,-0.00066938,-0.42752,-9.7728e-05,-0.00095099,0.0013084,-0.0012861,0.00027432,-0.00042705,-0.00024589,0.00026047,0.00013732,-0.00025265,0.00050141,-0.00036601,-0.2606,0.00029535,0.0004324,0.00078402,-0.00028366,0.00082768,-0.0016216,-0.00093958,0.0012338,-0.00014908,-1.4397,0.00090787,-9.4202e-05,-3.9751e-05,-0.075185,-0.00069567,-0.00021388,0.0002447,-0.00076775,0.00046497,-0.00028576,-0.00091962,0.00015454,-0.061712,0.0001963,-0.0010535,-0.00090291,-0.00032963,-4.439e-05,6.0934e-05,-0.0015763,-0.00050101,-0.00080761,0.00025983,-0.00011728,0.00087252,-0.0016483,0.00058015,0.00025457,-0.0017429,9.5549e-05,0.00013444,-0.00029297,0.00028659,-0.00054943,-0.00025853,-0.0040192,0.00020911,-0.0006784,0.00021841,0.00021891,0.0002651,0.00014121,0.00098276,-0.0084946,-0.00050145,9.2859e-05,0.00093576,0.00046288,-1.3573e-05,-0.00075069,-0.00059324,0.00044035,-0.0002004,-0.00069922,-0.00084701,2.6204e-05,-9.5227e-05,-0.00034012,-0.011235,3.7533e-05,0.00030114,-0.00041377,-0.00017767,-0.00022684,-0.00091391,0.001068,-0.00047307,-0.00015693,-0.00083287,-0.00028553,0.00074635,-0.00039531,0.00056842,-0.17332,0.00036404,-0.0028818,-0.00072166,-0.0007975,-0.0016947,-0.00028477,-0.0013263,-0.00050127,-0.00013553,-0.00019693,-3.8851e-05,-0.0020431,-0.0034376,-0.00013738,-0.00011678,0.00016876,0.00059022,-0.00031972,-0.00059692,-0.00060424,-0.00068676,4.8599,1.8599e-05,-0.00053476,0.00040762,-0.00014533,0.0036102,-0.00074869,0.00023791,-0.00036051,4.6582e-05,0.0006513,1.4452,3.8921e-05,-9.6707e-05,0.00020502,-0.00027942,-0.00021513,-0.0009496,-0.0011394,-0.00011202,-0.00098791,-0.00040897,-0.00014215,0.00091609,3.4862,0.00023719,-0.00032112,0.00049884,0.00029814,-0.00053347,0.00030447,-7.2761e-05,-0.00028637,-0.0009788,0.00044527,-0.0018298
0.23078,6.209e-05,-0.001256,0.00061052,8.6589e-05,1.6354,-4.5703e-05,1.8961e-05,6.4172e-05,-0.00023412,-0.00023138,0.00099322,-0.00044941,-2.1016e-05,5.8874e-06,-0.00034173,5.5387e-05,-0.0064973,-0.00030579,0.00083768,9.396e-05,0.00029491,-0.00038006,9.4443e-10,-9.776e-05,0.0001746,-0.0003308,-0.00021672,0.00060705,0.00019351,-0.00035145,-0.45133,-4.8926e-05,-0.00049292,0.00067895,-0.0006639,0.00016006,-0.0002198,-0.00011265,0.00015365,9.7833e-05,-0.0001033,0.00030939,-0.00018692,-0.24795,0.00015773,0.00028322,0.00042282,-0.00012806,0.00040353,-0.00068125,-0.00048754,0.00072152,-5.9712e-05,-1.5807,0.00048643,-2.3359e-05,-1.5749e-05,-0.0092217,-0.00034537,-8.1406e-05,0.00013915,-0.00040156,0.0002725,-0.00013081,-0.00042979,9.0041e-05,-0.24112,0.00010628,-0.00051466,-0.00043616,-0.0001352,8.7921e-06,4.6989e-05,-0.00071778,-0.00022954,-0.00042555,0.00012954,-6.1552e-05,0.00051013,-0.00083836,0.00032431,0.00014886,-0.00097861,8.7123e-05,0.00010143,-0.000149,0.00016784,-0.00025418,-0.00011456,-0.0017145,0.00013923,-0.00034954,0.00012436,0.00012644,0.00016171,8.8939e-05,0.00056959,-0.0050795,-0.00024356,5.6919e-05,0.0005408,0.00026523,-2.1945e-06,-0.00038247,-0.0003119,0.00025483,-8.9768e-05,-0.00033784,-0.00039995,2.4469e-05,-3.5256e-05,-0.00017779,-0.0092176,3.0989e-05,0.00015458,-0.00019891,-8.6769e-05,-0.00010529,-0.0004742,0.00060821,-0.00024524,-2.4603e-05,-0.0004336,-0.00011492,0.00040776,-0.00019515,0.00029038,-0.038814,0.00019749,-0.0016056,-0.00035278,-0.00041543,-0.00089329,-0.00012222,-0.00067043,-0.00026826,-5.5821e-05,-8.1535e-05,4.4705e-06,-0.0010144,-0.0014594,-6.3295e-05,-5.8094e-05,0.00010332,0.00034196,-0.0001582,-0.00030377,-0.00029969,-0.00034737,4.8595,2.1294e-05,-0.00027143,0.00022705,-5.5707e-05,0.0019414,-0.00034646,0.00014289,-0.00018471,3.1368e-05,0.00034599,1.2314,5.3631e-05,-5.1235e-05,0.00013081,-0.00013711,-8.9744e-05,-0.00041338,-0.00056414,-5.6497e-05,-0.00052342,-0.00019249,-7.2989e-05,0.00050069,3.4125,0.00016373,-0.00015673,0.00026469,0.00016187,-0.00027087,0.00017943,-3.1653e-05,-0.0001468,-0.00050233,0.00025103,-0.0009437
0.75301,5.971e-05,-0.0019421,0.00084141,0.00012153,2.4215,-9.9408e-05,-2.7329e-05,7.9303e-05,-0.00034434,-0.00033786,0.0014435,-0.00063066,-7.0356e-05,-8.054e-05,-0.00051616,6.8596e-05,-0.018906,-0.00055943,0.0014445,0.00010862,0.00046433,-0.000568,1.8334e-05,1.1051e-09,0.00023416,-0.000628,-0.00035747,0.00076613,0.00023561,-0.00050107,-0.5687,-5.0557e-05,-0.0005966,0.00088623,-0.00097138,0.00020577,-0.00032735,-0.00018225,0.00017532,9.1171e-05,-0.0002073,0.00032672,-0.00021478,-0.48198,0.00019097,0.0002816,0.00058858,-0.00023414,0.00056118,-0.00093605,-0.00072501,0.00087992,-0.00012277,-0.9255,0.00067576,-7.0068e-05,-2.4058e-05,-0.018744,-0.0005489,-0.00017315,0.00016383,-0.00057829,0.0003321,-0.00027929,-0.00073875,0.00010174,-0.11317,0.00017207,-0.00086904,-0.00068914,-0.00027168,-5.5254e-05,1.749e-05,-0.0011642,-0.00037911,-0.00066131,0.00019779,-9.9648e-05,0.00059232,-0.0013037,0.00039296,0.00019622,-0.0013939,5.532e-05,8.3446e-05,-0.00028648,0.00020017,-0.00042208,-0.00021054,-0.00364,0.00014834,-0.00054656,0.00015019,0.00016782,0.00021781,0.00011604,0.00066768,-0.0087017,-0.00040586,4.2932e-05,0.00068604,0.00032918,-2.2281e-05,-0.00056935,-0.00044315,0.00035465,-0.00013356,-0.00053989,-0.0004473,-1.1568e-05,-7.7591e-05,-0.00024935,-0.0073261,5.4305e-05,0.00023184,-0.00032939,-0.00015608,-0.00018157,-0.00071046,0.00083452,-0.00023544,-0.0001357,-0.00063502,-0.00023575,0.00062854,-0.00028319,0.00047267,-0.69929,0.00026771,-0.0021634,-0.00053949,-0.00065611,-0.0013469,-0.00027535,-0.00097743,-0.00041704,-0.00010729,-0.00014948,-2.8829e-05,-0.0016748,-0.0037194,-0.00012319,-0.00010538,0.00011356,0.00046818,-0.00025279,-0.00040833,-0.00048085,-0.00053782,4.9465,7.2428e-06,-0.00041287,0.000328,-0.00012093,0.0028315,-0.00057053,0.00015344,-0.00026894,3.7335e-05,0.00046017,1.0049,-1.3388e-05,0.0001289,0.00012654,-0.00021168,-6.078e-05,-0.00080562,-0.00087995,-9.9785e-05,-0.00075719,-0.00032742,-0.00010643,0.00069966,3.2444,0.00015557,-0.00023687,0.00034489,0.00030865,-0.00034405,0.00019496,-5.6566e-05,-0.00023199,-0.00077501,0.00032392,-0.0013365
0.68808,0.00015801,-0.0031304,0.0016338,0.00019621,1.8334,-0.00012892,-4.7921e-07,0.00015373,-0.0006103,-0.00060016,0.0024934,-0.0011508,-0.00010263,-0.00010288,-0.00093722,0.00014961,-0.030911,-0.0010203,0.0020035,0.0002493,0.00078583,-0.00099076,5.2968e-05,-0.00024451,1.1246e-09,-0.001042,-0.00059634,0.0013739,0.00042501,-0.00094272,-0.48409,-0.00011643,-0.0013874,0.0018516,-0.0017164,0.00041566,-0.00057682,-0.00033243,0.00034775,0.00019222,-0.00037218,0.00054706,-0.00036517,-0.025081,0.00040104,0.00047562,0.0010755,-0.00040703,0.00097748,-0.0020173,-0.001281,0.0017266,-0.00018176,-1.6039,0.0013316,-0.0001511,3.566e-05,-0.17853,-0.00092492,-0.0002982,0.00030161,-0.0010022,0.00060843,-0.00041779,-0.0013276,0.00022396,-0.30287,0.00029102,-0.0014317,-0.0013415,-0.00044254,-0.00010198,8.3782e-05,-0.0023418,-0.00066363,-0.0010089,0.00039068,-0.00011157,0.0010612,-0.0022399,0.00070155,0.00032021,-0.0025421,0.00010502,0.00018126,-0.00036442,0.00035379,-0.00074051,-0.00032112,-0.0064186,0.0002575,-0.00090801,0.0003303,0.0003081,0.00032091,0.00013708,0.0014611,-0.01145,-0.00066051,0.00013023,0.0013551,0.00061437,-2.2396e-05,-0.00099157,-0.00082019,0.00055899,-0.00025577,-0.00087164,-0.0011589,-3.3915e-06,-0.00014447,-0.00045329,-0.024519,7.2324e-05,0.00048587,-0.000555,-0.00026368,-0.00035444,-0.0012427,0.0014105,-0.00068256,-0.00019887,-0.0011173,-0.00040962,0.0009735,-0.00050243,0.00086374,-0.13212,0.00053443,-0.0038313,-0.00091117,-0.0011389,-0.0023519,-0.00037258,-0.0019035,-0.00070951,-0.00014126,-0.00024047,-4.9629e-05,-0.0027445,-0.0030159,-0.00016765,-0.00010545,0.00023135,0.00083828,-0.00040747,-0.00077713,-0.0008505,-0.00090034,4.8714,9.7872e-08,-0.00071111,0.00050949,-0.00018743,0.0069737,-0.00097797,0.00029976,-0.00050263,0.00011114,0.0009312,1.4325,6.2691e-05,-0.00011285,0.00031151,-0.00029692,-0.00024579,-0.0013573,-0.0014926,-0.00017875,-0.0013232,-0.00056207,-0.00019345,0.0013217,3.4296,0.0002979,-0.00041818,0.00074689,0.00049021,-0.00076893,0.00036796,-0.00011391,-0.00035405,-0.0012741,0.0006421,-0.0025317
0.28694,1.9946e-05,-0.0012276,0.00046868,2.5236e-05,1.4536,-6.5411e-05,5.8653e-06,6.5259e-05,-0.0002428,-0.00020491,0.00096095,-0.00045625,-1.8e-05,9.2413e-05,-0.0003,2.7169e-05,-0.0031486,-0.00013001,0.00063557,0.00010318,0.0002449,-0.00035054,4.0022e-05,-9.9732e-05,0.00013398,7.4557e-10,-0.00019286,0.00062572,0.00014975,-0.00035577,-0.22746,-4.9466e-05,-0.00043167,0.00053512,-0.00065035,0.00013423,-0.00022837,-0.0001065,0.00017993,6.6761e-05,-9.0654e-05,0.00021648,-0.00016399,-0.27023,0.0001255,0.00021515,0.00032877,-0.00013679,0.00036875,-0.00087271,-0.0004745,0.00063479,-6.765e-05,-1.5947,0.00037928,2.9058e-07,-3.5936e-05,-0.0027077,-0.00029587,-6.0211e-05,0.00015958,-0.00039304,0.00023765,-0.00015383,-0.00036309,9.0734e-05,-0.2938,7.9788e-05,-0.00045189,-0.00040405,-9.2756e-05,1.2959e-05,1.9157e-05,-0.00064732,-0.00020539,-0.00042666,9.6864e-05,-4.4833e-05,0.0004069,-0.00078327,0.00027327,0.00010315,-0.0008849,9.7785e-05,8.0461e-05,-0.00015794,0.00013286,-0.00019228,-9.3591e-05,-0.00092252,0.00011221,-0.00030603,0.00011591,0.00014134,0.0001374,6.8789e-05,0.00050087,-0.0033881,-0.00024667,2.5265e-05,0.00049466,0.00021241,-8.4438e-06,-0.00034138,-0.00028507,0.00016852,-0.00011997,-0.00030566,-0.00036034,3.1235e-05,-2.5275e-05,-0.00015775,-0.0055179,2.4545e-05,0.00011745,-0.00019461,-9.0458e-05,-0.00010165,-0.00045138,0.00056362,-0.00023581,6.454e-05,-0.00042181,-0.00011321,0.0003322,-0.00018235,0.00022621,-0.0055057,0.00013408,-0.0014653,-0.00032703,-0.0003963,-0.0008134,-0.00010728,-0.00063055,-0.00019813,-4.9207e-05,-8.5538e-05,-2.0148e-05,-0.00090246,-0.0013339,-4.7956e-05,-8.6498e-05,7.9988e-05,0.00032324,-0.00012698,-0.00028887,-0.0002452,-0.00034184,5.4469,2.1808e-05,-0.00025982,0.00015539,-3.9736e-05,0.0016781,-0.00026383,0.00015678,-0.00017918,6.9583e-06,0.00030796,1.9447,3.7485e-05,-5.5729e-05,0.00013298,-0.00012666,-0.00010198,-0.0001537,-0.00054561,-6.1099e-05,-0.00051946,-0.00016775,-7.8675e-05,0.00039556,3.0458,0.00015929,-0.00018327,0.00020999,0.00012275,-0.00023668,0.0001833,-2.7936e-05,-0.00013306,-0.00045175,0.00022599,-0.00078237
0.19265,3.7774e-05,-0.0010704,0.00043918,3.9797e-05,1.6564,-3.9047e-05,-9.0621e-06,4.6257e-05,-0.0002015,-0.00018828,0.00075345,-0.00036708,-2.8131e-05,-1.0186e-05,-0.00029501,3.6826e-05,-0.0098898,-0.00029493,0.0006456,7.652e-05,0.00020934,-0.00031446,1.758e-05,-8.5357e-05,0.0001314,-0.00032273,7.2587e-10,0.00050023,0.00014501,-0.00028965,-0.71759,-4.6954e-05,-0.00039517,0.00051004,-0.00055849,0.00011941,-0.00018865,-0.00010958,0.00014424,5.7706e-05,-8.9021e-05,0.00020886,-0.00014458,-0.32929,0.00011577,0.00020911,0.00028635,-0.00011356,0.00039067,-0.0008101,-0.00043102,0.0005035,-6.4747e-05,-1.3668,0.00036668,-2.1158e-05,-1.9902e-05,-0.24186,-0.00027971,-8.1104e-05,0.00013341,-0.00033436,0.00021536,-0.0001345,-0.00038281,8.9946e-05,-0.033034,8.4712e-05,-0.0004336,-0.00036953,-0.00014207,-1.8804e-05,3.2085e-05,-0.00068201,-0.00019336,-0.00034912,0.00011581,-4.13e-05,0.00039765,-0.00066956,0.00025128,9.3371e-05,-0.00081127,4.4977e-05,6.7972e-05,-0.00011514,0.00012265,-0.00020574,-0.00010483,-0.0018964,8.1482e-05,-0.00029366,0.00011352,9.7837e-05,0.00011776,6.8241e-05,0.00043568,-0.013002,-0.00022379,3.5934e-05,0.0004237,0.0001929,-7.5887e-06,-0.00031203,-0.00025005,0.00018342,-7.5369e-05,-0.00031033,-0.00033218,9.8458e-06,-3.763e-05,-0.00014051,-0.0056548,6.1728e-06,0.00011666,-0.00017229,-5.5457e-05,-9.0756e-05,-0.00040471,0.00049215,-0.00019813,-4.2355e-05,-0.00036962,-0.00012968,0.00030276,-0.00016352,0.00020457,-0.22157,0.00013959,-0.0011998,-0.0002832,-0.00031672,-0.00072221,-0.00013107,-0.00054205,-0.00022,-5.441e-05,-7.5706e-05,-1.5812e-05,-0.00085992,-0.0032102,-3.4449e-05,-5.1603e-05,7.6356e-05,0.00026321,-0.00013978,-0.00023386,-0.00024913,-0.00030384,5.0116,-1.3477e-05,-0.00023627,0.00017201,-6.0208e-05,0.001452,-0.00030906,0.00011584,-0.00015069,1.9077e-05,0.00026688,1.6735,3.2048e-05,-1.8171e-05,9.6184e-05,-0.00010948,-9.2567e-05,-0.00036991,-0.0005133,-5.2722e-05,-0.00043582,-0.00012848,-5.3937e-05,0.00038773,3.6699,0.00013131,-0.0001571,0.00020703,0.00010524,-0.00022241,0.00018515,-3.3799e-05,-0.00013108,-0.00044651,0.00018962,-0.00083853
0.37582,1.6716e-05,-0.00063602,0.00023868,2.4867e-05,1.8932,-2.6261e-05,-2.6513e-06,2.9069e-05,-0.00011893,-0.00010487,0.00048072,-0.00021236,-1.4303e-05,4.5653e-06,-0.0001488,2.3921e-05,-0.0062682,-0.00013747,0.0003805,4.147e-05,0.00013212,-0.0001794,1.2529e-05,-4.6525e-05,6.385e-05,-0.00014137,-8.3351e-05,6.4977e-10,7.9429e-05,-0.00015904,-0.66067,-1.6913e-05,-0.00021564,0.00025984,-0.00032058,6.7343e-05,-0.00011154,-6.0283e-05,8.459e-05,2.7022e-05,-5.0343e-05,9.9984e-05,-6.0536e-05,-0.3131,5.4975e-05,0.00011914,0.00015206,-6.4155e-05,0.00017614,-0.00038571,-0.00023906,0.00030692,-3.7423e-05,-1.4684,0.00018898,-4.6138e-06,-1.0448e-05,-0.0038587,-0.0001671,-4.3181e-05,7.4459e-05,-0.00019554,0.00012472,-8.3584e-05,-0.00018989,5.0154e-05,-0.39527,4.0652e-05,-0.00022931,-0.00020658,-5.4773e-05,3.9012e-06,1.0358e-05,-0.00034802,-0.00010674,-0.00021955,4.9566e-05,-2.4463e-05,0.00020466,-0.00040591,0.00014273,3.9572e-05,-0.00043852,3.4358e-05,3.1155e-05,-8.0266e-05,7.0241e-05,-0.00010793,-5.6488e-05,-0.00057498,4.916e-05,-0.00016511,6.2072e-05,6.6087e-05,7.4861e-05,3.2305e-05,0.000236,-0.0016668,-0.00012273,1.6286e-05,0.00024463,0.00011707,-6.6242e-06,-0.00017485,-0.00013614,7.8899e-05,-5.125e-05,-0.0001548,-0.00022837,5.6593e-06,-1.3402e-05,-7.6601e-05,-0.012892,8.1191e-06,6.256e-05,-9.9624e-05,-4.6846e-05,-5.3823e-05,-0.00022663,0.00028236,-0.00011827,-1.3954e-05,-0.00021192,-6.0376e-05,0.0001764,-8.8316e-05,0.00012922,-0.027075,6.2744e-05,-0.00065009,-0.00015469,-0.00019084,-0.0004006,-5.7987e-05,-0.00032771,-0.00010485,-2.6485e-05,-4.0749e-05,-5.9967e-06,-0.00048682,-0.00083073,-1.9811e-05,-3.9975e-05,3.6089e-05,0.00016097,-6.4705e-05,-0.00013909,-0.00013945,-0.00016889,5.677,3.941e-06,-0.00012884,7.9508e-05,-2.8084e-05,0.00092214,-0.00014495,6.9182e-05,-8.5816e-05,4.5925e-06,0.00014149,1.6634,8.9377e-06,-2.8691e-05,5.7241e-05,-6.2745e-05,-4.3266e-05,-0.00014716,-0.00027437,-3.0784e-05,-0.00024607,-7.8653e-05,-3.4425e-05,0.00019944,3.1544,7.9841e-05,-8.7706e-05,0.00011039,6.2138e-05,-0.00012392,9.0609e-05,-1.6852e-05,-7.5093e-05,-0.00023565,0.00010676,-0.0004294
0.46432,9.0436e-05,-0.0030008,0.001182,0.0001156,1.6045,-0.00012122,-2.4204e-05,9.9583e-05,-0.00057432,-0.0005139,0.0022923,-0.0010283,-6.0722e-05,-2.4714e-05,-0.00074236,6.1832e-05,-0.015164,-0.00073264,0.0016703,0.00021736,0.00057355,-0.00086503,5.498e-05,-0.0002306,0.00031386,-0.00081289,-0.00047102,0.0012707,8.2214e-10,-0.00081359,-0.52121,-0.00011985,-0.0010846,0.0014416,-0.0015178,0.00029393,-0.00052231,-0.00028363,0.00032024,0.00016001,-0.00023996,0.00055132,-0.00050367,-0.29538,0.00028627,0.00051802,0.0008241,-0.0002988,0.00090195,-0.0020561,-0.0011272,0.00153,-0.00012947,-1.7743,0.00097932,-5.2512e-05,-4.8745e-05,-0.021022,-0.00077183,-0.00022583,0.00028945,-0.00093087,0.00051789,-0.00039852,-0.00099364,0.00017355,-0.18456,0.00021757,-0.0011861,-0.0009581,-0.00031005,3.2642e-06,7.4608e-05,-0.0016757,-0.00049402,-0.00094786,0.00024886,-0.00013518,0.00095507,-0.0019052,0.00069327,0.00025604,-0.0019905,0.00012779,0.00014233,-0.0004036,0.00032412,-0.0005237,-0.00027223,-0.0033643,0.00023162,-0.0007969,0.00024769,0.0002705,0.00034746,0.00015004,0.001121,-0.0085687,-0.0005622,5.8074e-05,0.0010912,0.00053992,-1.6124e-05,-0.00082714,-0.00069845,0.0004747,-0.00025121,-0.00072884,-0.0010327,7.5491e-05,-9.3363e-05,-0.00038959,-0.012997,2.9657e-05,0.00029263,-0.00041949,-0.0002265,-0.00025223,-0.0011113,0.0013447,-0.00057906,-8.1479e-05,-0.00099475,-0.00028484,0.00081055,-0.00045168,0.00053937,-0.15289,0.00031686,-0.0030735,-0.00073081,-0.00091582,-0.0018565,-0.00025901,-0.0015118,-0.00052928,-0.00015427,-0.00018648,-1.7824e-05,-0.0023149,-0.0024167,-0.00012975,-0.00016424,0.00016661,0.0006992,-0.00033413,-0.00067117,-0.00066817,-0.00080662,5.2021,-1.0069e-05,-0.00064598,0.00045835,-0.00015892,0.0039373,-0.00082092,0.00026383,-0.00045325,6.0177e-06,0.00063831,1.5042,3.0653e-05,-0.00015506,0.00024624,-0.00034271,-0.00024811,-0.00087641,-0.0012117,-0.00012716,-0.0011973,-0.00044238,-0.00018836,0.00097311,3.1775,0.00038715,-0.00039368,0.00054806,0.00032161,-0.00060161,0.00039661,-6.9199e-05,-0.00035673,-0.0011401,0.00051153,-0.0020876
0.68998,0.00039019,-0.0056022,0.0028866,0.00028658,1.9717,-0.00022643,-2.484e-05,0.00024827,-0.0009721,-0.0010093,0.0043486,-0.0019198,-0.00018249,-0.00017624,-0.0016156,0.0002496,-0.047844,-0.0017107,0.0039618,0.00041348,0.0015389,-0.0017282,0.00015591,-0.00038636,0.0008195,-0.001943,-0.0010094,0.0027193,0.00083999,1.2042e-09,-0.45312,-0.00015988,-0.0023711,0.0032072,-0.003136,0.00068725,-0.00096688,-0.00059797,0.00068351,0.00038778,-0.00060822,0.0013986,-0.00091541,-0.39896,0.00071005,0.0013017,0.0020294,-0.00071923,0.0020615,-0.0036322,-0.0022359,0.0029116,-0.00035722,-1.7212,0.0022008,-0.00022715,-1.4151e-05,-0.14128,-0.0016685,-0.00050226,0.00065018,-0.0018132,0.0012044,-0.000694,-0.0020138,0.00045007,-0.19566,0.00050976,-0.0025785,-0.0021241,-0.00082714,3.0442e-05,0.00015115,-0.0033084,-0.0011682,-0.0020611,0.00058762,-0.00023406,0.0020509,-0.0037502,0.0016215,0.00068225,-0.0041403,0.00029995,0.00033406,-0.00069662,0.00070584,-0.00123,-0.00064351,-0.0069184,0.00046994,-0.0017012,0.0006127,0.00057288,0.00067809,0.00036845,0.0024108,-0.021014,-0.0011988,0.00029952,0.0023535,0.0012151,9.6394e-05,-0.0017636,-0.0013769,0.0011785,-0.00034324,-0.0017049,-0.0019043,0.00012008,-0.00021018,-0.00079307,-0.026852,0.00012424,0.00068595,-0.00090461,-0.00042335,-0.00049274,-0.0021073,0.0026793,-0.0010956,-0.00044169,-0.0019939,-0.0006734,0.0018857,-0.00091036,0.0013023,-0.10544,0.00093375,-0.0072528,-0.0018135,-0.0020575,-0.0039817,-0.0006088,-0.0030719,-0.0012194,-0.0002436,-0.00041439,-1.3032e-07,-0.0046502,-0.01416,-0.00027251,-0.00017935,0.00047726,0.0015252,-0.00063496,-0.0013975,-0.0014584,-0.0016036,5.123,2.7506e-05,-0.0012697,0.00090155,-0.00033078,0.009723,-0.0016483,0.00064017,-0.0008068,2.8155e-05,0.0015091,1.4243,4.04e-05,-0.00044906,0.00046259,-0.00069946,-0.00042654,-0.002294,-0.0027766,-0.00028317,-0.0021984,-0.00093602,-0.00026267,0.002387,3.0993,0.00044608,-0.00070257,0.0012253,0.00061884,-0.0012702,0.00082687,-0.00020323,-0.00070882,-0.0022714,0.0011206,-0.0041141
0.53012,4.4173e-05,-0.002632,0.00085627,9.1343e-05,1.6977,-0.00010503,-7.8642e-05,-3.5488e-05,-0.00045642,-0.00044333,0.0012905,-0.00081827,-0.00010611,-0.00010003,-0.00066811,-4.5452e-05,-0.011667,-0.00071968,0.0014291,8.1209e-05,0.00041109,-0.00069861,-1.2676e-05,-0.00018734,0.00020659,-0.00073629,-0.00045901,0.00082941,0.00024365,-0.00068311,1.0743e-09,-0.0001239,-0.00077088,0.0011129,-0.0012337,0.00016678,-0.00043506,-0.00024373,0.00017653,6.5383e-05,-0.00021154,0.00048101,-0.00027088,-0.42877,0.0001947,0.00026995,0.00064964,-0.00025258,0.0008349,-0.0013357,-0.000934,0.00090048,-0.00016613,-0.0046599,0.00077714,-0.00012368,-0.00011381,-0.19112,-0.00063965,-0.00021524,0.00014876,-0.00073976,0.00039208,-0.00033508,-0.0012113,8.9548e-05,-0.037494,9.0476e-05,-0.001072,-0.0009517,-0.00036967,-0.00010716,-5.0771e-05,-0.0016017,-0.00048754,-0.00065706,0.00017239,-0.00014542,0.00081392,-0.0016745,0.00050302,0.00011084,-0.0016565,1.5704e-05,0.0001019,-0.00034046,0.00024341,-0.00069464,-0.00025402,-0.009014,0.00013468,-0.00065406,0.00014446,0.00010051,0.00015364,2.3015e-05,0.00083208,-0.036249,-0.0004905,4.477e-05,0.00078495,0.0003986,-6.82e-05,-0.00074114,-0.00055867,0.00027664,-0.00028349,-0.00056479,-0.00062904,-2.4034e-05,-0.00012556,-0.00032387,-0.003552,-7.8322e-05,0.0001609,-0.00039679,-0.00021991,-0.00021582,-0.00091427,0.00078784,-0.00038251,-0.00017631,-0.00081539,-0.00038961,0.00068825,-0.00038848,0.00041123,-1.3887,0.00027203,-0.0014893,-0.00071817,-0.00077079,-0.0015911,-0.00035644,-0.0011377,-0.00046675,-0.00016024,-0.00027166,-0.00011634,-0.0023455,-0.0027992,-0.000162,-0.00019092,0.0001008,0.00040808,-0.00036674,-0.00058468,-0.00053996,-0.00068252,4.6451,1.4728e-05,-0.00052628,0.00043331,-0.00013653,0.0024426,-0.0010497,0.00013198,-0.00035281,-1.9629e-05,0.0004979,0.69445,-3.5943e-05,-4.5494e-05,0.00013628,-0.00034691,-0.00023794,-0.0010438,-0.0011732,-0.00014932,-0.0010063,-0.00046039,-0.00014445,0.00069162,3.1154,0.00016232,-0.0003428,0.00038218,0.00018266,-0.00042504,0.00019021,-9.0428e-05,-0.00033139,-0.00097928,0.00032925,-0.0015184
0.70725,0.0001672,-0.0051641,0.0024373,0.00031657,1.8456,-0.00017242,-2.234e-05,0.00025162,-0.0010643,-0.00093298,0.0041371,-0.0019367,-0.00014204,-0.00013401,-0.0015667,0.00025235,-0.077444,-0.0014725,0.0038319,0.00037161,0.001258,-0.0016595,7.5929e-05,-0.00033815,0.00071137,-0.0016919,-0.00099106,0.0024868,0.00071817,-0.0014839,-0.58132,1.0503e-09,-0.0018715,0.0027102,-0.0028944,0.00061708,-0.00096959,-0.00053304,0.00063829,0.00026452,-0.00058392,0.0010509,-0.0004626,-0.27877,0.00057329,0.00094207,0.001813,-0.00056368,0.0021076,-0.0042142,-0.002167,0.0029166,-0.00023155,-1.2082,0.0020115,-0.00015246,-5.5523e-05,-0.015874,-0.0016481,-0.00049109,0.00056114,-0.0017391,0.0010329,-0.00078848,-0.0019796,0.00037048,-0.08912,0.0004329,-0.0023747,-0.0019531,-0.0007272,-4.7933e-06,0.00012243,-0.0032584,-0.0010518,-0.0019503,0.00056681,-0.00029823,0.0018755,-0.003597,0.0012849,0.00056297,-0.004039,0.00026512,0.00024664,-0.00074163,0.000656,-0.0012236,-0.00056014,-0.0077774,0.00037109,-0.0016769,0.00052145,0.0005531,0.00066431,0.00026146,0.002017,-0.014675,-0.0011438,0.00018437,0.0021237,0.00099043,-4.95e-05,-0.0016201,-0.0012459,0.0010054,-0.0005186,-0.0015547,-0.0018576,5.4791e-05,-0.00018879,-0.00065511,-0.053095,0.00014168,0.00055929,-0.00084796,-0.00044518,-0.00054018,-0.0020341,0.0025472,-0.0010135,-0.0003131,-0.0018779,-0.00063955,0.0017123,-0.00085595,0.0013588,-0.30896,0.00070651,-0.0060516,-0.0015472,-0.001831,-0.0037948,-0.00065522,-0.0028973,-0.0011049,-0.00024345,-0.00041395,-7.5295e-05,-0.0045599,-0.0091012,-0.00028189,-0.00028426,0.0003864,0.0014128,-0.00067061,-0.0012143,-0.0013537,-0.0015783,5.0366,4.2859e-05,-0.001174,0.00091325,-0.00035264,0.0088815,-0.0015481,0.00051592,-0.00074056,0.00011103,0.0013911,1.2774,1.7733e-05,-0.00037414,0.00044981,-0.00059149,-0.00037305,-0.0019635,-0.0026611,-0.00023811,-0.0022349,-0.00093618,-0.00024547,0.0019859,3.178,0.00058446,-0.00073435,0.0010973,0.0006829,-0.0011688,0.00070802,-0.00015861,-0.00066368,-0.0022162,0.00093993,-0.0041986
0.93173,0.00028414,-0.010212,0.0039446,0.00059843,2.1138,-0.00030895,-0.00018243,0.00032083,-0.0017593,-0.0016458,0.0061785,-0.0031578,-0.0001775,-0.00025538,-0.0025176,0.0003146,-0.029402,-0.0023971,0.0067018,0.00060695,0.0020426,-0.0027107,0.00013603,-0.00032218,0.00088884,-0.0025987,-0.0016197,0.0038512,0.0011445,-0.002742,-0.17724,-0.0001781,1.1752e-09,0.0040688,-0.0047569,0.00096009,-0.0016606,-0.00096104,0.00081625,0.00038534,-0.00096386,0.001659,-0.0011286,-0.24011,0.00094122,0.001676,0.0025779,-0.00085735,0.0036746,-0.0046644,-0.0036372,0.0046695,-0.00054909,-0.86938,0.0027246,-0.00023461,-0.00016175,-0.085719,-0.002484,-0.00083742,0.00080535,-0.0028755,0.0018572,-0.0012586,-0.0032881,0.00044592,-0.41464,0.0007036,-0.0041477,-0.0032725,-0.0011181,-0.00024238,0.00018516,-0.005349,-0.0018746,-0.0031808,0.00098425,-0.00040567,0.0030664,-0.0061611,0.001874,0.00074266,-0.0063971,0.00032066,0.00044821,-0.00099342,0.00094763,-0.0020171,-0.0010363,-0.014552,0.00077042,-0.0027032,0.00060931,0.00076963,0.0010247,0.00054679,0.0030525,-0.027697,-0.0018161,0.00018419,0.0034091,0.0016537,-0.00033046,-0.0029037,-0.0022416,0.0014069,-0.00094276,-0.0021853,-0.0018022,-0.00012732,-0.0002958,-0.0013306,-0.035339,0.00011594,0.00077009,-0.0014105,-0.0005586,-0.00091751,-0.0033852,0.0039625,-0.0011243,-0.00042778,-0.0030594,-0.0012873,0.0029027,-0.0015739,0.0020369,-0.7236,0.0013043,-0.0091044,-0.0025545,-0.0028147,-0.0065325,-0.0012823,-0.0047086,-0.0019097,-0.00044434,-0.00065476,-7.5623e-05,-0.0083205,-0.0086541,-0.0006251,-0.00064615,0.00055226,0.0020868,-0.0012231,-0.0019196,-0.00224,-0.0027462,4.8933,9.788e-05,-0.001912,0.0017145,-0.00039978,0.01253,-0.0028389,0.00091666,-0.0014303,0.00018136,0.0022437,0.82013,0.00022647,0.0017454,0.00069606,-0.0010821,-0.0004041,-0.0030503,-0.004425,-0.00042426,-0.0038819,-0.001664,-0.00057309,0.0031987,3.5068,0.0011912,-0.0012819,0.0017786,0.0014915,-0.0013974,0.0011362,-0.000321,-0.0010951,-0.003734,0.001552,-0.0054836
0.46235,2.4309e-05,-0.0011038,0.00037477,5.5527e-05,1.9635,-4.5399e-05,4.8823e-06,2.3133e-05,-0.0001696,-0.00014163,0.00062751,-0.00032415,-2.1663e-05,-3.0639e-05,-0.00024345,1.3732e-05,-0.026562,-0.00027007,0.00050958,5.9713e-05,0.00018723,-0.0002726,9.421e-06,-8.1941e-05,0.00011621,-0.00029135,-0.00016577,0.0003436,0.00011397,-0.00026604,-0.31427,-4.6776e-05,-0.00037231,1.112e-09,-0.00046674,9.4507e-05,-0.00016157,-9.7432e-05,8.5487e-05,5.0727e-05,-8.6605e-05,0.00016047,-0.00014771,-0.029296,0.00010225,0.00013837,0.00028875,-0.00012228,0.00028475,-0.00058604,-0.00036382,0.00040643,-6.1162e-05,-1.5729,0.00032912,-3.7285e-05,-1.6711e-05,-0.23012,-0.00025361,-7.5234e-05,7.5364e-05,-0.00028589,0.00015239,-0.00011648,-0.0003416,4.254e-05,-0.053121,6.6818e-05,-0.00035543,-0.00032281,-0.00011761,-2.7992e-05,8.6064e-06,-0.00055851,-0.0001691,-0.00033258,0.00010187,-3.8192e-05,0.00033157,-0.0006303,0.00021024,8.6202e-05,-0.00068022,2.8682e-05,6.2108e-05,-0.00012675,0.00010906,-0.00019781,-8.4247e-05,-0.0014876,7.7227e-05,-0.00024278,5.7536e-05,8.0689e-05,9.5678e-05,4.1153e-05,0.00036435,-0.0037568,-0.00017735,6.7128e-05,0.00032177,0.00017131,-2.6507e-05,-0.00026251,-0.00021874,0.00013845,-8.916e-05,-0.00026627,-0.00030546,8.7712e-06,-3.0755e-05,-0.00012314,-0.055299,5.7296e-06,9.0593e-05,-0.00015898,-8.4132e-05,-7.529e-05,-0.00034875,0.00040466,-0.00016467,-4.7526e-05,-0.00030934,-8.6478e-05,0.00024792,-0.00014582,0.00020465,-0.51611,0.00013018,-0.0010602,-0.0002608,-0.0002968,-0.00059429,-0.00010393,-0.00048216,-0.00017241,-5.5946e-05,-8.7866e-05,-3.1723e-05,-0.00072175,-0.0010067,-5.6978e-05,-6.0743e-05,4.7068e-05,0.00019747,-0.00012287,-0.00021251,-0.00024114,-0.00025461,5.4328,-3.9322e-06,-0.00019593,0.00014193,-4.6312e-05,0.0013216,-0.00028118,7.4314e-05,-0.00014284,1.8362e-05,0.00017591,1.5039,2.81e-05,-6.6373e-05,6.7003e-05,-0.00010249,-7.0529e-05,-0.00034746,-0.00042145,-2.9208e-05,-0.00036675,-0.00017448,-6.1602e-05,0.00033429,3.1762,7.6355e-05,-0.00012024,0.00017938,0.00010912,-0.00018317,9.2629e-05,-2.0933e-05,-0.00010138,-0.00036784,0.0001514,-0.0006999
0.10807,3.8295e-05,-0.00082447,0.00034812,3.5238e-05,1.7062,-3.1878e-05,-4.0067e-06,2.5536e-05,-0.00014185,-0.00013719,0.00055638,-0.00026111,-2.7911e-05,-3.0361e-05,-0.00022673,2.4002e-05,-0.0084092,-0.00024396,0.00046237,4.9119e-05,0.00017345,-0.00023366,1.3299e-05,-5.6635e-05,0.00010187,-0.0002715,-0.00013466,0.00031335,9.8366e-05,-0.00022505,-0.50917,-3.3513e-05,-0.00030555,0.00040851,1.1502e-09,7.9321e-05,-0.00013603,-7.3367e-05,6.6396e-05,4.5076e-05,-7.8717e-05,0.00015292,-0.00010238,-0.17626,8.9166e-05,0.00013298,0.00023929,-9.7234e-05,0.00023381,-0.00050916,-0.00029945,0.00038365,-5.1648e-05,-1.263,0.00027766,-3.5758e-05,-9.8858e-06,-0.04192,-0.00022001,-6.38e-05,6.5184e-05,-0.00023928,0.00013931,-9.9449e-05,-0.00032094,4.1694e-05,-0.090551,6.2416e-05,-0.00033656,-0.00030218,-0.00010899,-1.8887e-05,1.3446e-05,-0.00050524,-0.00015055,-0.00025317,7.8266e-05,-4.1027e-05,0.00024286,-0.00053699,0.00017978,7.906e-05,-0.00059409,2.6365e-05,4.9933e-05,-0.00010484,8.8636e-05,-0.00018035,-8.1584e-05,-0.0019365,6.1388e-05,-0.00021795,6.3619e-05,6.056e-05,8.3744e-05,3.408e-05,0.00030238,-0.0064014,-0.00014802,2.3881e-05,0.00028678,0.0001437,-8.9084e-06,-0.0002327,-0.00018477,0.00013536,-5.1642e-05,-0.00023539,-0.00029455,9.3515e-06,-3.4664e-05,-0.00010508,-0.0037373,1.3756e-05,6.5984e-05,-0.00012614,-5.4118e-05,-7.7546e-05,-0.00028694,0.00033368,-0.0001431,-5.3061e-05,-0.00025854,-9.4971e-05,0.00023389,-0.00012566,0.0001755,-0.1988,0.00010977,-0.00091788,-0.00022052,-0.00025645,-0.00054701,-9.4412e-05,-0.00041721,-0.00016195,-4.0785e-05,-6.2703e-05,-1.3336e-05,-0.00061452,-0.0012066,-4.6238e-05,-4.1876e-05,5.6463e-05,0.00018163,-0.00011259,-0.00017945,-0.00019994,-0.0002125,4.6931,2.6233e-07,-0.00017458,0.00012399,-4.1349e-05,0.001177,-0.00024621,6.1978e-05,-0.00011142,1.1888e-05,0.00019384,1.2373,-1.2066e-06,-5.0095e-05,5.8261e-05,-8.602e-05,-6.3709e-05,-0.00034876,-0.00036807,-4.0016e-05,-0.00030321,-0.00013469,-4.402e-05,0.00027953,3.4434,5.4038e-05,-0.00010752,0.00015718,8.8195e-05,-0.00017703,8.8182e-05,-1.7751e-05,-9.3587e-05,-0.00030597,0.00014166,-0.00060178
0.54258,2.8063e-05,-0.00095453,0.00040652,5.1643e-05,1.8111,-4.4545e-05,-5.3312e-06,3.2562e-05,-0.00018512,-0.00017277,0.00074722,-0.00033836,-3.2392e-05,-1.6646e-05,-0.00024022,3.1103e-05,-0.0043454,-0.00025698,0.00060849,6.2983e-05,0.0002007,-0.00029119,1.4672e-05,-7.1506e-05,0.00012479,-0.00027652,-0.0001602,0.00041187,0.00011684,-0.00028037,-0.95258,-3.9688e-05,-0.00035001,0.00047349,-0.00052093,7.7531e-10,-0.00016873,-9.9661e-05,0.00011193,4.762e-05,-8.5225e-05,0.00017785,-0.00011353,-0.13824,9.486e-05,0.00014235,0.00028406,-0.00010483,0.00029904,-0.0006328,-0.00037954,0.00054834,-7.0358e-05,-1.1901,0.00033444,-2.6892e-05,-1.3865e-05,-0.086437,-0.00027125,-8.6034e-05,9.9923e-05,-0.00030388,0.00019443,-0.00012241,-0.00033782,6.3522e-05,-0.1832,7.1579e-05,-0.00038798,-0.00032313,-0.00010951,-1.0698e-05,6.6013e-06,-0.00060553,-0.00019656,-0.00034352,8.8027e-05,-4.6931e-05,0.00033457,-0.00065434,0.00020995,8.9048e-05,-0.00070986,4.0209e-05,4.6659e-05,-0.00013626,0.00010182,-0.00019885,-8.5785e-05,-0.0011642,7.234e-05,-0.00026631,8.443e-05,9.0237e-05,8.9167e-05,5.7706e-05,0.00037673,-0.0028883,-0.00020034,2.0754e-05,0.00036629,0.00016892,-1.0543e-06,-0.00029517,-0.0002325,0.00017873,-7.6861e-05,-0.00026924,-0.00033003,1.0986e-05,-3.2125e-05,-0.00013014,-0.0096229,1.2555e-05,0.00010532,-0.00017511,-7.4067e-05,-8.5315e-05,-0.00036603,0.00042976,-0.00018968,-4.9352e-05,-0.00033585,-9.7734e-05,0.0002834,-0.0001463,0.00021209,-0.071917,0.00013562,-0.0011225,-0.00028714,-0.00032682,-0.00065292,-9.4491e-05,-0.00050601,-0.00017936,-5.7272e-05,-6.9511e-05,-8.689e-06,-0.00077585,-0.00077639,-5.1468e-05,-4.7511e-05,5.779e-05,0.00023716,-0.00011838,-0.00023157,-0.00023804,-0.00027757,5.1754,9.395e-06,-0.00021815,0.00016123,-5.2228e-05,0.00159,-0.00027725,9.1706e-05,-0.00014516,5.9863e-06,0.00021851,1.3683,1.85e-05,-3.512e-05,8.1347e-05,-0.00010457,-8.6174e-05,-0.00032619,-0.00044368,-4.5216e-05,-0.00039612,-0.00015083,-6.2477e-05,0.00032994,3.1287,0.00012024,-0.00013596,0.00019014,0.00011932,-0.00020433,0.00012844,-3.1632e-05,-0.00011784,-0.00038593,0.00017079,-0.000721
0.40786,0.00010531,-0.0019448,0.00094669,0.00012487,1.6939,-8.71e-05,-6.7903e-07,8.1239e-05,-0.00032306,-0.00035182,0.0014261,-0.00063051,-7.4807e-05,-7.5096e-05,-0.0005569,8.3811e-05,-0.027917,-0.00061752,0.0013277,0.00012614,0.00046485,-0.00058422,4.5524e-05,-0.00013443,0.00027505,-0.00069931,-0.00035119,0.00081513,0.00026197,-0.0005127,-0.52459,-6.968e-05,-0.00076442,0.0010704,-0.0010297,0.00023091,1.0937e-09,-0.00018614,0.00020763,0.00011985,-0.00019752,0.00040054,-0.00025317,-0.18529,0.00022304,0.00038814,0.00063781,-0.00021547,0.00064852,-0.0012691,-0.00073926,0.00097417,-0.00013027,-1.4903,0.00073292,-9.26e-05,-2.0452e-05,-0.0482,-0.00055695,-0.00016717,0.00018431,-0.00058218,0.00037787,-0.00023493,-0.00073254,0.00013144,-0.084394,0.00017149,-0.00086579,-0.00072304,-0.00028863,-2.4403e-05,5.4188e-05,-0.0012458,-0.00041056,-0.00066273,0.00021172,-0.00010116,0.00072306,-0.0013017,0.00043058,0.00020851,-0.0014726,6.4148e-05,0.00011548,-0.00024817,0.00022429,-0.00043356,-0.00020096,-0.0042187,0.00015314,-0.00053401,0.00017881,0.00017467,0.0002156,0.00013026,0.00079242,-0.01635,-0.00040056,8.4717e-05,0.00073067,0.00037465,3.021e-06,-0.00057267,-0.00045416,0.00038217,-0.00012798,-0.00057757,-0.00063268,1.913e-05,-6.9852e-05,-0.00025629,-0.026093,4.1444e-05,0.00028053,-0.0003266,-0.00014467,-0.00019503,-0.00068131,0.00087915,-0.00036787,-0.00015019,-0.0006529,-0.00023892,0.0006336,-0.00030789,0.00042062,-0.33214,0.00029463,-0.0022496,-0.00055324,-0.000651,-0.0013944,-0.00020828,-0.0010005,-0.00041419,-0.0001016,-0.00014545,-1.751e-05,-0.0016767,-0.0047771,-0.0001186,-6.7309e-05,0.00014772,0.00049483,-0.00025942,-0.00046603,-0.00047713,-0.00053578,4.7467,1.5326e-05,-0.00044626,0.0003369,-0.00011349,0.0030258,-0.00061569,0.00017467,-0.00027525,3.0223e-05,0.00049873,1.229,-9.5632e-06,-8.9112e-05,0.00014264,-0.00021098,-0.00015773,-0.00092059,-0.00091059,-9.1918e-05,-0.00072701,-0.00035164,-9.5654e-05,0.00075756,3.3619,0.0001624,-0.00024061,0.00039189,0.00023506,-0.00042737,0.00023592,-6.3449e-05,-0.00022792,-0.0007728,0.00035818,-0.0017554
0.4171,0.00045319,-0.0080034,0.0037493,0.00031467,1.6913,-0.00046329,2.9412e-05,0.0004427,-0.0015693,-0.0015316,0.0060981,-0.0029679,-0.00022957,-0.00010004,-0.002257,0.00032064,-0.067297,-0.0023667,0.005455,0.00075385,0.0019968,-0.0026076,0.000229,-0.00061057,0.0011318,-0.002616,-0.0015337,0.003771,0.0012182,-0.0025111,-0.37317,-0.0002939,-0.0033676,0.0044762,-0.0044518,0.00094826,-0.0015007,9.6783e-10,0.0009722,0.0005543,-0.00077922,0.0020741,-0.0014606,-0.3301,0.0009856,0.0017055,0.0026619,-0.00091106,0.0025664,-0.0059977,-0.0033116,0.0043443,-0.00042147,-1.7901,0.0032197,-0.0002354,-0.00012354,-0.080817,-0.0024475,-0.0006483,0.00088962,-0.0027629,0.0016936,-0.0011232,-0.0032364,0.00056782,-0.27395,0.00069991,-0.0037176,-0.0028613,-0.0011018,-7.406e-05,0.00028923,-0.0052004,-0.0016255,-0.0029422,0.00080107,-0.00039552,0.0029301,-0.0057462,0.0021237,0.00088181,-0.0064628,0.00049613,0.00056428,-0.0012997,0.001077,-0.0017864,-0.0009151,-0.014452,0.00078187,-0.0023248,0.00077297,0.00088547,0.0010145,0.00054193,0.0034547,-0.030644,-0.0017565,0.00032456,0.0034353,0.0016744,2.1219e-05,-0.0024522,-0.0020876,0.0013728,-0.00067758,-0.0023347,-0.0026736,0.00018844,-0.00020197,-0.0011497,-0.068976,0.0002494,0.00093249,-0.0013785,-0.00062132,-0.00070853,-0.0031922,0.003936,-0.0016434,-0.00042754,-0.0028876,-0.0009125,0.0027405,-0.0013195,0.0018138,-0.28694,0.0010858,-0.0099509,-0.002268,-0.0029634,-0.0060243,-0.00097195,-0.0046103,-0.0016051,-0.00042208,-0.00059989,-5.0736e-05,-0.0069787,-0.016558,-0.00049338,-0.00040923,0.00075795,0.0021863,-0.0010717,-0.0021809,-0.0020845,-0.0023847,5.1885,4.4398e-05,-0.0019254,0.0014591,-0.00038835,0.010947,-0.0024701,0.00084286,-0.0012322,0.00010116,0.0021683,1.4488,0.00011728,-0.00042033,0.00073496,-0.0008555,-0.00067935,-0.0032911,-0.0039574,-0.00039645,-0.0034814,-0.0014357,-0.00047113,0.003262,3.4432,0.00086518,-0.001155,0.0017033,0.00082758,-0.0018222,0.0011287,-0.00017069,-0.0010759,-0.0033799,0.0015778,-0.006602
0.35246,3.6479e-05,-0.0016611,0.00071786,8.1994e-05,1.6632,-6.6851e-05,6.3808e-06,0.00010245,-0.00034615,-0.00029299,0.0014934,-0.00062399,-4.5365e-05,2.5627e-05,-0.00044091,5.2453e-05,-0.023974,-0.00038071,0.00097324,0.00012234,0.00037255,-0.00051306,3.1191e-05,-0.00014195,0.00020294,-0.00040169,-0.00022961,0.00089596,0.00023384,-0.00048096,-0.64255,-4.792e-05,-0.00065612,0.00081801,-0.0009792,0.00021098,-0.00031167,-0.00017055,6.1647e-10,8.6991e-05,-0.0001356,0.0003112,-0.00019539,-0.29649,0.00016541,0.00028558,0.00049084,-0.00019191,0.00056388,-0.0011532,-0.00070922,0.00085592,-0.00010576,-1.5432,0.00060072,-4.1962e-07,-3.5342e-05,-0.058252,-0.00047289,-0.00011607,0.00027426,-0.00056984,0.00035917,-0.00022082,-0.00055134,0.00016511,-0.15853,0.00012303,-0.00067804,-0.00059357,-0.00016401,2.1365e-05,4.1133e-05,-0.00097096,-0.00031749,-0.0006112,0.00014602,-6.7581e-05,0.00060101,-0.0011159,0.00042459,0.00012909,-0.0012394,0.00012109,0.00010819,-0.00021152,0.00020436,-0.00030944,-0.00016521,-0.0016273,0.00012626,-0.0004637,0.00020284,0.0002134,0.00021382,0.00011738,0.00075374,-0.0054755,-0.000368,4.009e-05,0.00073277,0.00031961,-2.0198e-05,-0.0005064,-0.00039818,0.00026768,-0.00016578,-0.00047823,-0.00060132,5.6068e-05,-3.8764e-05,-0.00021929,-0.020124,2.4185e-05,0.00018734,-0.00029332,-0.00012507,-0.00015878,-0.00063891,0.00084438,-0.00034439,-2.0251e-05,-0.00061678,-0.00017542,0.00047995,-0.00026303,0.00033876,-0.026837,0.00020674,-0.0019759,-0.00044649,-0.00055933,-0.0011791,-0.00017267,-0.00090891,-0.00030473,-9.3549e-05,-0.00011571,-1.4956e-05,-0.0013521,-0.002145,-4.0576e-05,-9.9802e-05,0.00012008,0.00048221,-0.00019724,-0.00042549,-0.00039398,-0.00050193,5.8013,1.2307e-05,-0.00038695,0.00026819,-7.7485e-05,0.0025472,-0.00040307,0.00021946,-0.00024992,1.1197e-05,0.00045934,1.6444,3.9023e-05,-9.5681e-05,0.0001702,-0.00020448,-0.00015175,-0.00038922,-0.00079293,-8.8356e-05,-0.00071868,-0.00022439,-9.6056e-05,0.00057543,3.3859,0.00025943,-0.0002525,0.00031411,0.00016308,-0.00038122,0.00027792,-4.3468e-05,-0.00021865,-0.00068079,0.00031359,-0.0012886
0.42013,6.6283e-05,-0.0022158,0.00094281,7.7342e-05,1.7758,-0.00011473,-1.2634e-05,7.8165e-05,-0.00039948,-0.00037113,0.0015644,-0.00076592,-7.1421e-05,-5.3689e-05,-0.00062449,5.0457e-05,-0.0072369,-0.00058069,0.0011464,0.00014294,0.0004891,-0.0006503,4.693e-05,-0.00016779,0.00026437,-0.000634,-0.00037414,0.00087169,0.00028192,-0.00059455,-0.48074,-0.00010307,-0.00085085,0.001154,-0.0010938,0.00022284,-0.00037867,-0.00019674,0.00021327,1.0094e-09,-0.00018454,0.00043481,-0.00031808,-0.3124,0.00021666,0.0003922,0.000648,-0.00024266,0.00073903,-0.0016224,-0.00084316,0.0010585,-0.00012377,-1.5818,0.00076145,-6.396e-05,-3.9506e-05,-0.036588,-0.00055695,-0.00014026,0.00019941,-0.00066654,0.00038461,-0.00027136,-0.0007877,0.00010446,-0.16983,0.00017417,-0.00089851,-0.00078147,-0.00025567,3.9071e-06,5.8418e-05,-0.001066,-0.00041391,-0.00064486,0.00020068,-9.9372e-05,0.00079915,-0.0013765,0.00047468,0.00020888,-0.0017041,8.9999e-05,0.00013893,-0.0002745,0.00025262,-0.00043365,-0.0002103,-0.0026068,0.00018028,-0.00057832,0.00015703,0.00018383,0.00022873,0.00010342,0.0009025,-0.010667,-0.00040911,7.45e-05,0.00081728,0.00039652,-2.8263e-05,-0.00062039,-0.00053042,0.00037883,-0.00018628,-0.00066752,-0.00070922,1.9625e-05,-8.4717e-05,-0.00029133,-0.016192,3.5113e-05,0.00024465,-0.00033693,-0.00016201,-0.00017278,-0.00084705,0.0010285,-0.00040483,-9.5984e-05,-0.00070833,-0.00022621,0.00060817,-0.00032066,0.00044246,-0.25352,0.00025744,-0.0027148,-0.0005762,-0.00067086,-0.0014319,-0.00021781,-0.0011857,-0.0004124,-0.00010753,-0.00016053,-2.9448e-05,-0.0018427,-0.0020172,-0.00013207,-0.00010987,0.00013714,0.00052155,-0.00025192,-0.00051514,-0.00052786,-0.00057404,4.7752,-8.6547e-06,-0.0004636,0.00033098,-9.4135e-05,0.0030322,-0.00062137,0.00021424,-0.00032715,2.2881e-05,0.00055584,1.5779,1.6329e-05,-9.843e-05,0.00017725,-0.00023975,-0.00018007,-0.00076487,-0.00096828,-0.00010641,-0.00088567,-0.00037369,-0.00013082,0.00075433,3.4239,0.00020737,-0.00028843,0.00041529,0.00028233,-0.0004554,0.00025839,-6.5639e-05,-0.00027392,-0.00080759,0.00038547,-0.0016891
0.50407,3.3545e-05,-0.0012349,0.00044827,3.5183e-05,1.3475,-5.4554e-05,-7.378e-06,4.1926e-05,-0.00023254,-0.00019795,0.0008381,-0.00042085,-3.1768e-05,-9.2769e-06,-0.00029168,2.7937e-05,-0.019709,-0.00030295,0.00065942,8.93e-05,0.00025243,-0.00035378,2.8762e-05,-9.8069e-05,0.00011645,-0.000314,-0.00017861,0.00049415,0.00015918,-0.00034166,-0.28958,-5.7007e-05,-0.00044196,0.00055622,-0.00061203,0.00012657,-0.000207,-0.00010374,0.00013495,7.0713e-05,8.3987e-10,0.00031201,-0.00013827,-0.14118,0.00011396,0.00021673,0.00036056,-0.00012743,0.00035803,-0.00089551,-0.00044439,0.00056599,-7.673e-05,-1.7993,0.00038203,-3.0701e-05,-2.5232e-05,-0.035458,-0.0003157,-6.9627e-05,0.00012282,-0.00038397,0.00021981,-0.00017457,-0.00040333,7.087e-05,-0.1184,8.5575e-05,-0.00045093,-0.00039217,-0.00012826,1.1118e-05,-5.2683e-07,-0.00066299,-0.00022437,-0.00034396,0.00010405,-5.4886e-05,0.00043411,-0.00075189,0.00028254,0.00010108,-0.00090853,5.3029e-05,8.4716e-05,-0.00017933,0.00014063,-0.00020963,-0.00011341,-0.0012795,8.7595e-05,-0.00029644,9.2978e-05,0.00010884,0.00012109,8.8441e-05,0.00047276,-0.014304,-0.00021191,2.7901e-05,0.00043955,0.00021923,2.2295e-06,-0.00033362,-0.0002794,0.00021593,-0.00010707,-0.00029777,-0.00036466,1.4066e-05,-3.8223e-05,-0.00014569,-0.055221,1.2873e-05,0.00011982,-0.00018585,-8.6411e-05,-9.2816e-05,-0.00043447,0.00054662,-0.00022409,-1.9936e-05,-0.0004043,-0.00010017,0.00032101,-0.00018398,0.00020804,-0.39531,0.00014424,-0.0014645,-0.00030069,-0.00038893,-0.00074939,-0.00010269,-0.00057563,-0.00020502,-6.492e-05,-9.0942e-05,-1.4348e-05,-0.00099082,-0.0021692,-4.9929e-05,-6.1019e-05,7.0942e-05,0.00027574,-0.00014453,-0.00026214,-0.00026744,-0.00031738,5.0512,-4.3651e-06,-0.00025173,0.00019163,-4.2201e-05,0.001396,-0.00031492,0.00012279,-0.00017007,1.021e-05,0.000257,1.85,4.7572e-05,-0.00011718,9.4583e-05,-0.00011264,-9.9187e-05,-0.00037962,-0.000519,-5.9706e-05,-0.00048588,-0.00017985,-6.7863e-05,0.00041299,3.6028,0.00015609,-0.00016827,0.00021123,0.00012817,-0.0002224,0.00014154,-9.0627e-06,-0.00014956,-0.00047178,0.00022521,-0.00077354
0.31485,2.6145e-05,-0.001095,0.0004749,7.5366e-05,1.7441,-4.7359e-05,-1.8223e-05,6.1063e-06,-0.00024708,-0.00022027,0.00078874,-0.00043986,-2.7825e-05,-8.2487e-05,-0.00029714,-1.0213e-05,-0.0039306,-0.00042192,0.00073038,6.0869e-05,0.00022874,-0.00034666,1.7912e-05,-9.8463e-05,0.00013477,-0.00039574,-0.00016592,0.00048721,0.00014397,-0.00021902,-0.012022,-4.769e-05,-0.00043355,0.00057142,-0.00064621,0.00012438,-0.00023733,-0.00010212,0.00010936,7.673e-05,-0.0001259,1.0023e-09,-0.00019086,-0.39989,0.00012307,0.00024587,0.00036194,-0.00010377,0.00040835,-0.00076151,-0.00045341,0.00061202,-6.702e-05,-2.7336,0.00045935,-5.4316e-05,-2.9958e-05,-0.002715,-0.00032497,-9.8597e-05,9.8743e-05,-0.00040342,0.00018195,-0.00020133,-0.00058258,6.5384e-05,-0.26927,5.9148e-05,-0.00049631,-0.00042326,-0.00014967,-1.9517e-05,3.6005e-05,-0.00090067,-0.000246,-0.00042537,0.00010014,-0.00011916,0.00042823,-0.00074736,0.00036064,0.00022534,-0.0008609,4.9968e-05,8.5531e-05,-0.00015009,0.00013416,-0.00029764,-0.00013016,-0.0024748,0.00011245,-0.00031147,7.4895e-05,6.8756e-05,7.4176e-05,3.4135e-05,0.00044658,-0.002376,-0.00023947,2.3145e-05,0.00039639,0.00024734,-1.1021e-05,-0.00039223,-0.00031234,0.00033826,-0.00010084,-0.00035699,-0.0003794,-4.7502e-05,-4.692e-05,-0.00015474,-0.0016073,-4.3118e-06,0.0001054,-0.00019535,-8.2046e-05,-0.00012669,-0.0004756,0.00045522,-0.00020974,-8.0776e-05,-0.00041937,-0.00010011,0.00036611,-0.00018654,0.00018854,-0.1077,0.00015736,-0.0011312,-0.00026042,-0.0003458,-0.00068485,-0.00010958,-0.00059167,-0.00025445,-9.2482e-05,-0.00012843,-4.1605e-05,-0.0010786,-0.00092811,-6.5507e-05,-8.0965e-05,4.7819e-05,0.00023042,-0.00016853,-0.00025974,-0.00031661,-0.00038425,4.4744,2.4052e-05,-0.00026209,0.00021397,-7.1233e-05,0.0018753,-0.0004117,0.0001006,-0.00017482,3.2574e-06,0.00033506,2.0576,-1.4206e-05,-2.4243e-05,8.8869e-05,-0.00017439,-9.9998e-05,-0.00053473,-0.00051103,-6.5149e-05,-0.00052816,-0.0002233,-8.9711e-05,0.00037409,3.0621,0.00011606,-0.00016783,0.00023122,0.00015037,-0.00024479,0.00014203,-4.6007e-05,-0.00016248,-0.00046792,0.00018914,-0.00080305
1.1609,-1.7334e-05,-0.0019155,0.00079123,0.00017489,2.0029,-3.3933e-05,-4.2555e-05,3.7218e-05,-0.00035891,-0.00035804,0.0013788,-0.00065482,-6.9437e-05,-6.6415e-05,-0.00053167,6.206e-05,-0.064762,-0.00045646,0.0014494,5.601e-05,0.00040972,-0.0005788,2.8144e-06,-0.00011334,0.00019801,-0.00049647,-0.00034134,0.00078175,0.00017856,-0.0005412,-0.036627,-2.0308e-05,-0.00062676,0.00073232,-0.00099471,0.00017756,-0.00032865,-0.00021015,0.00018683,6.4243e-05,-0.00015806,0.00027086,1.0022e-09,-0.10066,0.00016567,0.0002527,0.00046404,-0.00022892,0.00068928,-0.0011457,-0.00074955,0.00082311,-0.00013721,-1.731,0.00059901,-7.0068e-05,-6.9534e-06,-0.014529,-0.00058037,-0.00017482,0.00014728,-0.00058218,0.00027536,-0.00026057,-0.00066329,0.00011449,-0.44865,0.00012625,-0.00073988,-0.00069093,-0.00023856,-6.6221e-05,1.5465e-05,-0.0010705,-0.0004121,-0.00070415,0.00017118,-0.00010129,0.00048962,-0.0011493,0.00038354,0.00012516,-0.0012778,5.3041e-05,8.1713e-05,-0.00026377,0.00016497,-0.00040557,-0.00021076,-0.0023578,0.00011971,-0.00056414,0.00016302,0.00013259,0.00020242,7.4153e-05,0.00070891,-0.033917,-0.00039738,2.075e-05,0.00063918,0.00027885,-7.3669e-05,-0.00052141,-0.00042555,0.0003052,-0.00014744,-0.00046505,-0.00059571,-6.8826e-06,-8.2091e-05,-0.00022048,-0.030126,1.2863e-05,0.0002337,-0.00031116,-0.00014506,-0.00018994,-0.00069528,0.000829,-0.00034573,-9.9683e-05,-0.00064577,-0.0002366,0.0005413,-0.00026452,0.00052529,-0.54334,0.00022571,-0.0020046,-0.00045034,-0.0005829,-0.0012973,-0.00025752,-0.00089086,-0.00033945,-9.6144e-05,-0.00014268,-3.5875e-05,-0.0017744,-0.0012231,-0.00011722,-0.00012271,8.7827e-05,0.0004331,-0.00027926,-0.00039853,-0.00042414,-0.00056144,5.0703,-7.4557e-06,-0.00037847,0.00035568,-0.00013068,0.0032676,-0.0005918,0.00013292,-0.00024528,3.1049e-05,0.00033514,1.5015,2.6386e-05,5.2199e-05,0.00011338,-0.00019149,-0.00013775,-0.00064281,-0.00084166,-7.8711e-05,-0.00078788,-0.0003305,-8.987e-05,0.00055702,3.5559,0.00031216,-0.0002989,0.00035495,0.00024368,-0.00037642,0.00018435,-5.4667e-05,-0.0002564,-0.00075005,0.00028052,-0.0010415
0.65454,3.1622e-06,-0.0010457,0.00040135,5.7797e-05,1.6482,-5.7727e-05,-1.1349e-05,1.3446e-05,-0.00019271,-0.00018636,0.00063981,-0.00037504,-3.7683e-05,-4.8768e-05,-0.0002922,2.2246e-05,-0.0029644,-0.00026705,0.00056289,5.8525e-05,0.00020624,-0.00031604,-1.09e-05,-9.6269e-05,0.00012334,-0.00032711,-0.00018158,0.00037372,0.0001026,-0.00031258,-0.45105,-4.9707e-05,-0.00037235,0.00051499,-0.00052681,9.5356e-05,-0.00018128,-0.00010933,8.5033e-05,3.5956e-05,-9.0801e-05,0.00016858,-0.00010732,9.3984e-10,0.00010732,0.00012047,0.00028872,-0.00012195,0.00031595,-0.00067571,-0.00038369,0.000437,-6.5636e-05,-1.3165,0.00033356,-4.6729e-05,-9.5616e-06,-0.0042033,-0.00027827,-7.759e-05,7.1117e-05,-0.00032809,0.00014286,-0.00013599,-0.00043887,3.4037e-05,-0.10549,6.2666e-05,-0.00040217,-0.00038751,-0.00014976,-3.7065e-05,-5.7334e-06,-0.00063191,-0.0002069,-0.00031449,0.00011001,-5.8392e-05,0.00032091,-0.00068074,0.00018857,5.9837e-05,-0.00074018,2.0741e-05,5.4273e-05,-0.0001148,0.00010332,-0.00024572,-0.000105,-0.0022821,7.1245e-05,-0.00028638,5.4925e-05,6.8689e-05,9.6996e-05,3.6967e-05,0.00037932,-0.0034255,-0.00020737,2.7119e-05,0.00032632,0.00017089,-3.4691e-05,-0.00028518,-0.00026674,0.00014583,-0.00011253,-0.00026623,-0.00029112,-1.5983e-05,-4.2505e-05,-0.00014466,-0.0073478,-1.2463e-05,7.8927e-05,-0.00014947,-7.3812e-05,-8.162e-05,-0.00040616,0.00040116,-0.00021733,-6.3929e-05,-0.00035557,-0.00011298,0.00028491,-0.00015898,0.00021058,-0.13626,0.00011386,-0.0011283,-0.00028818,-0.00033204,-0.00066312,-0.00012425,-0.00054485,-0.00019812,-5.1282e-05,-9.9391e-05,-4.1299e-05,-0.00086689,-0.0010742,-6.7372e-05,-5.1093e-05,4.6319e-05,0.00020725,-0.00014781,-0.00022386,-0.00026722,-0.00030324,5.4351,-2.0063e-06,-0.00022887,0.00015372,-5.4592e-05,0.0013504,-0.00033641,9.3188e-05,-0.00016412,1.1649e-05,0.00018146,0.89996,-1.1897e-05,-3.4849e-05,6.3704e-05,-0.00010326,-0.00010541,-0.0003942,-0.00046013,-5.0498e-05,-0.00043052,-0.00018571,-7.8312e-05,0.00030598,3.0976,8.7274e-05,-0.0001504,0.00018985,0.00011222,-0.00020859,0.00011211,-3.8513e-05,-0.00013486,-0.00040611,0.00014629,-0.0007068
0.55419,2.9081e-05,-0.00079983,0.00033352,3.7142e-05,1.6593,-2.3493e-05,5.3994e-06,1.1731e-05,-0.00014862,-0.00013496,0.000505,-0.00027411,-1.4655e-05,-2.0028e-05,-0.00020727,2.428e-05,-0.0066573,-0.0002072,0.00042046,5.1644e-05,0.00014999,-0.00022087,7.5454e-06,-6.2726e-05,9.5922e-05,-0.00023,-0.00013343,0.00029638,8.9677e-05,-0.00021801,-0.73145,-3.874e-05,-0.00027644,0.00039184,-0.00038462,7.4566e-05,-0.00013828,-8.2369e-05,6.3788e-05,3.3767e-05,-7.9863e-05,0.00011666,-0.0001047,-0.019565,1.0283e-09,0.00011212,0.00022833,-9.2971e-05,0.00021877,-0.0003994,-0.00030071,0.00039847,-5.6969e-05,-1.0389,0.00025692,-2.5695e-05,-2.7424e-06,-0.0024913,-0.00019603,-6.1045e-05,6.1588e-05,-0.0002437,0.00014256,-0.00010696,-0.00028357,3.7637e-05,-0.19484,4.6124e-05,-0.00032453,-0.0002805,-9.6314e-05,-1.896e-05,1.1135e-05,-0.00047794,-0.00015412,-0.00022784,9.0815e-05,-3.6044e-05,0.00024456,-0.00051489,0.00019151,6.8893e-05,-0.00053092,2.7492e-05,2.7457e-05,-7.0708e-05,8.0018e-05,-0.00016359,-7.502e-05,-0.0013503,5.8627e-05,-0.00021162,5.612e-05,6.0163e-05,7.7292e-05,3.9108e-05,0.00031356,-0.0021446,-0.00015238,3.6713e-05,0.00027135,0.00014774,-2.4774e-05,-0.00022841,-0.00019228,0.00013141,-7.8053e-05,-0.00019068,-0.00023246,-5.4967e-06,-3.2051e-05,-0.00011099,-0.0072787,5.2908e-06,6.993e-05,-0.00012621,-5.7665e-05,-5.8728e-05,-0.00029586,0.00030235,-0.00015766,-3.8627e-05,-0.00025812,-8.642e-05,0.0002116,-0.0001296,0.00020149,-0.10276,0.00010975,-0.00083183,-0.00022375,-0.00023057,-0.00049377,-9.1466e-05,-0.00042009,-0.0001508,-4.4458e-05,-6.4163e-05,-1.7467e-05,-0.00058005,-0.00059849,-4.3342e-05,-6.1519e-05,4.2913e-05,0.0001655,-0.00010263,-0.00015917,-0.00017139,-0.00022083,4.9001,7.2975e-06,-0.00015862,0.00013476,-4.342e-05,0.0010354,-0.00024939,6.672e-05,-0.00012433,2.4024e-05,0.00017543,1.293,2.0565e-05,-1.0409e-05,6.2874e-05,-7.0811e-05,-6.8492e-05,-0.00026683,-0.00032026,-3.2744e-05,-0.00031833,-0.00013411,-5.3861e-05,0.00030195,3.6895,7.5455e-05,-0.00010915,0.00014106,0.00010827,-0.00016086,8.1147e-05,-2.4593e-05,-8.8391e-05,-0.00030028,0.00013524,-0.00055527
0.59771,4.8838e-05,-0.001027,0.00051243,6.233e-05,1.6842,-2.139e-05,2.3754e-06,5.8115e-05,-0.00016875,-0.00018911,0.00085213,-0.00035314,-1.6497e-05,4.281e-06,-0.00028403,6.1525e-05,-0.0027805,-0.00026236,0.00074548,9.0095e-05,0.00028078,-0.00031909,4.0242e-05,-8.7402e-05,0.00013251,-0.0002834,-0.00016602,0.00052522,0.0001624,-0.00025806,-0.82936,-4.1275e-05,-0.00037699,0.00055729,-0.00055782,0.00012102,-0.00017723,-9.0148e-05,0.00012707,7.9117e-05,-8.6699e-05,0.00028641,-0.0001312,-0.50376,0.00011818,8.0166e-10,0.00033486,-0.00012064,0.00039217,-0.00060038,-0.00039131,0.00059817,-6.5374e-05,-1.5946,0.0003907,-4.0122e-05,6.0004e-10,-0.016145,-0.00026523,-7.3763e-05,0.00011562,-0.00030904,0.00024896,-0.00010237,-0.00030919,8.0808e-05,-0.19555,0.000103,-0.00045418,-0.00037364,-0.00012209,3.7521e-05,6.4473e-05,-0.00053308,-0.00018354,-0.00033497,0.00011143,-2.8509e-05,0.00046388,-0.00062226,0.00026779,0.00014122,-0.00074864,8.9114e-05,7.5887e-05,-7.5466e-05,0.00013752,-0.00016157,-9.618e-05,-0.00094674,0.00010203,-0.00028843,0.00010365,0.00011648,0.00013777,4.066e-05,0.00044018,-0.0044324,-0.00020355,4.4497e-05,0.00042678,0.00022058,2.1748e-05,-0.0003121,-0.00025579,0.00024785,-3.4292e-05,-0.00028427,-0.00044505,3.3895e-05,-2.4168e-05,-0.00013484,-0.007421,3.5302e-05,0.00013585,-0.00016269,-6.2252e-05,-8.3346e-05,-0.00039574,0.0005527,-0.00020714,-3.442e-05,-0.00034185,-0.00010174,0.00034491,-0.00016209,0.00023143,-0.0099257,0.00018702,-0.0013243,-0.00027793,-0.00030919,-0.00070794,-7.216e-05,-0.00057468,-0.00020242,-4.512e-05,-2.8297e-05,3.4969e-05,-0.00090048,-0.0017764,-4.8326e-05,-2.775e-05,9.3978e-05,0.00028697,-0.00010589,-0.00026059,-0.00022671,-0.00026874,5.3162,1.7618e-05,-0.00022622,0.00017397,-3.6097e-05,0.0020293,-0.00025228,0.00011493,-0.00014983,2.0524e-05,0.00030013,1.7085,-1.2912e-05,-6.2965e-05,9.9468e-05,-0.00010677,-8.2001e-05,-0.00030204,-0.00049766,-4.7484e-05,-0.00039874,-0.00016043,-5.1599e-05,0.00040381,3.3318,0.000138,-0.00011985,0.00022612,0.00013362,-0.00022548,0.00016836,-3.2945e-05,-0.00010149,-0.00038335,0.00020938,-0.00089239
0.38504,3.5581e-05,-0.0013055,0.00055072,5.8434e-05,1.9201,-5.1555e-05,-9.6746e-06,4.9474e-05,-0.00024028,-0.00023368,0.0010186,-0.0004818,-4.5693e-05,-5.2272e-05,-0.00036051,3.748e-05,-0.0093152,-0.00038874,0.000864,0.00012185,0.0002739,-0.00039278,2.1585e-05,-9.6973e-05,0.00015904,-0.00041517,-0.00025439,0.00049,0.00016224,-0.00036299,-0.61605,-4.4511e-05,-0.00050007,0.00070021,-0.00066405,0.00014025,-0.00022608,-0.00012887,0.00012323,7.443e-05,-0.00011342,0.0002441,-0.00022078,-0.039644,0.00015749,0.00020164,9.8245e-10,-0.00013546,0.00044041,-0.00081577,-0.00047028,0.00063441,-0.00010954,-0.90995,0.00047825,-6.1438e-05,8.6658e-06,-0.18017,-0.00036986,-0.00011959,0.00010631,-0.00042517,0.0002453,-0.00016902,-0.00051775,5.7076e-05,-0.1285,0.00010012,-0.00053324,-0.00044836,-0.00017497,-2.1742e-05,2.1217e-05,-0.00078953,-0.00027193,-0.00044544,0.00016154,-5.8989e-05,0.0004248,-0.00089243,0.00031449,0.00012854,-0.00090025,3.3678e-05,6.1608e-05,-0.00015133,0.00015146,-0.00029399,-0.00013259,-0.0019187,9.5733e-05,-0.00035545,8.9195e-05,0.00011048,0.00013759,6.7186e-05,0.00051359,-0.0031913,-0.00024461,3.924e-05,0.00043459,0.00022219,2.182e-06,-0.00038835,-0.00033811,0.00026749,-0.00012893,-0.00037218,-0.00036155,9.2679e-06,-4.8329e-05,-0.0001933,-0.027054,2.3659e-05,0.00015104,-0.00020045,-0.00011842,-0.00012395,-0.00047211,0.00059304,-0.00025638,-7.1903e-05,-0.00043249,-0.00014885,0.00040131,-0.00024204,0.00031088,-0.63093,0.00015945,-0.001619,-0.00034594,-0.00045386,-0.00087538,-0.0001557,-0.00069787,-0.00025034,-8.2025e-05,-0.00010177,-2.6943e-05,-0.0011253,-0.002177,-8.1781e-05,-5.7919e-05,5.2696e-05,0.00029252,-0.00015366,-0.00029056,-0.00030742,-0.00036352,5.1399,-1.5787e-05,-0.00026489,0.00022351,-6.4282e-05,0.0020161,-0.00037738,0.00010112,-0.00020335,2.6113e-05,0.00030756,1.4014,-8.6412e-06,-6.8588e-05,9.1559e-05,-0.00015621,-0.00011308,-0.00047807,-0.0006064,-5.7559e-05,-0.00051661,-0.00022562,-9.9897e-05,0.00053812,3.1,0.00013616,-0.00017025,0.00025904,0.00019441,-0.00027568,0.00015139,-2.8587e-05,-0.0001476,-0.00049771,0.0002332,-0.00094018
