7.9229e-10,0.0002259,-0.001866,0.00020274,0.00019039,0.00038064,-0.00018932,-8.8219e-05,-0.00033005,-4.4543e-05,-0.00029714,-6.3536e-05,-0.00034173,-0.0006171,-0.00083578,-0.00028187,-0.0012564,5.458e-05,-0.0011364,-0.00017395,-0.00057341,0.00074984,-0.00023337,-1.0563e-05,-0.00030462,1.3249e-05,-0.00073447,-0.00044576,-0.00039531,-4.6858e-05,2.7214e-05,-0.013228,0.00019272,9.2813e-05,0.00042833,-0.00030556,-0.00034457,-9.0663e-05,-0.00078576,-0.00050787,-8.1879e-05,0.00027817,-0.00057921,0.0034161,-8.465e-05,-0.00016839,-0.00082481,-0.021478,-0.00042431,0.00023197,-0.00076721,-0.00036299,-0.00011729,0.00010492,-0.00070003,0.00016211,-0.00086208,-1.6743e-05,0.0036027,-0.00061785,-0.000643,-0.00025951,-0.00039743,-6.9283e-05,-0.0011332,-0.00095825,-0.0003378,0.0027172,0.00014213,-0.00062719,-0.0013841,-0.00070976,-0.00074415,-0.00064816,-0.001529,-0.00020264,-0.00031998,0.00033875,-0.00044149,-6.5847,-0.0012892,-0.00054884,-0.00090402,-0.0007272,-0.00057187,0.00040696,-1.3681,-0.0006361,-0.0010086,-0.00022954,-0.0093816,-0.00060728,-0.00078684,-0.00033325,-0.00028212,-0.00011321,-0.00061587,-0.00028123,-0.0048649,-0.00034375,0.00014161,-0.00028974,0.00018588,-0.0016755,-0.00016538,2.2021e-05,0.0002969,-0.00065653,-0.0024667,-0.0020918,-0.0011159,-9.0681e-05,0.00038056,0.00015615,-0.00026734,-0.0004114,-0.0007583,-0.00046636,-0.00068247,-0.00083874,0.00069934,0.00023107,-0.019055,-0.00013308,-0.00084085,0.00036487,-0.0003388,1.446,-1.2381,-0.00017576,-2.458,-0.00020079,-0.0011384,-0.0011131,-0.001068,-0.00029418,-0.0013168,-0.00025074,-0.00068406,-0.00055525,-0.0011742,-0.17955,-0.00036318,-0.00056678,-0.00045056,-0.0012297,-0.00057632,-0.00034084,-0.00039122,7.2612e-05,0.00026609,0.00051405,-0.00033888,-1.054,6.8595e-05,0.00014315,-0.00082208,-0.00087104,-0.00025948,8.7836e-05,-0.0005229,-0.00048926,-0.00099248,2.6588,-0.0002117,-0.0024409,-0.00048269,-0.0012463,-0.00054456,2.7195e-05,-0.00070219,-0.001632,-0.00025538,0.00059438,3.3984,-1.201,-0.00035549,0.00033075,0.00041448,-0.00038633,-0.00053419,-3.8855e-05,-0.00033464,-0.00069393,-0.00019657,-0.0016001
0.42061,9.4146e-10,-0.0020596,0.00034505,0.00023758,0.00041428,-0.0002797,-9.6418e-05,-0.00039825,-5.9122e-05,-0.00038536,-8.9089e-05,-0.00042099,-0.00080998,-0.0010739,-0.00032336,-0.0020593,0.0001417,-0.0013025,-0.00052293,-0.00074341,0.00096104,-0.00026943,4.1107e-05,-0.00047685,1.2487e-05,-0.00091266,-0.00048792,-0.00055233,-5.6607e-05,3.5134e-05,-0.075661,0.00017364,8.6387e-06,0.00064962,-0.00030301,-0.000508,-8.6864e-05,-0.0010342,-0.00067962,-5.9464e-05,0.00038967,-0.00073416,0.003771,-0.00020016,-0.00023273,-0.0011252,-0.13228,-0.00060322,0.00035354,-0.001183,-0.00048894,-8.5614e-05,0.00010903,-0.0016594,0.00025524,-0.0012214,1.8215e-06,0.0013418,-0.00079906,-0.00089895,-0.00034996,-0.00056891,-3.4549e-05,-0.0016151,-0.0012683,-0.00045201,0.0039088,0.00016223,-0.00096193,-0.0016428,-0.00094856,-0.00099641,-0.00087221,-0.0018371,-0.00026343,-0.00037615,0.0003665,-0.00060229,-6.5273,-0.0016526,-0.0007992,-0.0012319,-0.0010391,-0.00076229,0.00060326,-2.1387,-0.00083737,-0.0013157,-0.00026147,-0.0068493,-0.00081401,-0.00091574,-0.00041328,-0.00035904,-0.00019585,-0.00089151,-0.00038595,-0.0032786,-0.0004258,0.00018753,-0.0003584,0.00028106,-0.0022903,-0.00020668,3.5709e-05,0.00044522,-0.00089631,-0.0028987,-0.0047583,-0.0013099,-0.00014144,0.00054001,0.00012214,-0.00032698,-0.0005867,-0.00095795,-0.00055722,-0.00093743,-0.00094817,0.00077666,0.00029064,-0.021088,-0.00013812,-0.0010502,0.00019527,-0.00053267,1.4134,-0.077963,-0.0002642,-3.2258,-0.0002548,-0.0017884,-0.0013852,-0.001185,-0.00033796,-0.0019419,-0.00030714,-0.00090666,-0.00073167,-0.0011645,-0.043471,-0.00045609,-0.00069006,-0.00056896,-0.0031375,-0.00072849,-0.00049182,-0.00044877,0.00011226,0.00045862,0.00064109,-0.00046123,-2.3688,0.00012142,0.00012437,-0.00095468,-0.0010601,-0.00033234,0.00011314,-0.0007217,-0.00058981,-0.0013244,1.0646,-0.0002708,-0.00323,-0.00072026,-0.0015962,-0.00062129,7.9603e-05,-0.00082668,-0.0020678,-0.00033459,0.00095676,2.2765,-1.1031,-0.00045869,0.00048372,0.0004294,-0.00063721,-0.00066126,-4.5787e-05,-0.00041454,-0.00086787,-0.00021794,-0.0009518
0.47573,0.00024091,9.9417e-10,0.00024988,0.00020285,0.00030968,-0.00017914,-7.3921e-05,-0.00027498,-1.7e-05,-0.00025793,-6.8933e-05,-0.00029664,-0.00060586,-0.00078211,-0.00021617,-0.0013846,6.4161e-05,-0.00093461,-0.00035213,-0.00050448,0.00063692,-0.00019744,5.4415e-05,-0.00031959,1.122e-05,-0.00068861,-0.00033897,-0.00039734,-4.6972e-05,3.8108e-05,-0.031899,0.00015131,1.4091e-06,0.00039474,-0.00021117,-0.00034501,-5.7609e-05,-0.00068486,-0.00046389,-3.7569e-05,0.00027038,-0.00050787,0.0024015,-0.00012188,-0.00012739,-0.00069968,-0.067349,-0.00037018,0.0002201,-0.00080767,-0.00034996,-6.9711e-05,8.5302e-05,-0.0010932,0.00019771,-0.00081569,6.0678e-06,0.0010296,-0.00055389,-0.00060042,-0.00024306,-0.00037925,-4.0299e-05,-0.00094386,-0.00092775,-0.00031368,0.002654,0.00010137,-0.00066619,-0.0010634,-0.00069062,-0.00066231,-0.00060188,-0.0013151,-0.0001667,-0.00024824,0.00027803,-0.00041273,-6.7836,-0.0011373,-0.00049958,-0.00085869,-0.00078648,-0.00048793,0.00042727,-1.7055,-0.00052621,-0.00094592,-0.00018018,-0.0060812,-0.00055572,-0.00064271,-0.00028305,-0.00024343,-0.00013374,-0.00057675,-0.00027154,-0.0031054,-0.00028267,0.00013305,-0.0002552,0.00020053,-0.0016701,-0.00012584,3.5191e-05,0.0003538,-0.00062182,-0.0020414,-0.0034656,-0.0009629,-7.8007e-05,0.00038636,5.3209e-05,-0.00023244,-0.00035793,-0.00065919,-0.000392,-0.0006726,-0.00068289,0.00057066,0.00019446,-0.027611,-7.0615e-05,-0.00074603,0.0001167,-0.00035172,1.6076,-0.1023,-0.00017714,-2.5684,-0.00015463,-0.001124,-0.00099456,-0.00078314,-0.00025984,-0.001317,-0.00021995,-0.00061746,-0.00049259,-0.00089119,-0.033217,-0.00031173,-0.00050584,-0.00036993,-0.0021023,-0.00053049,-0.00031436,-0.00032434,7.1435e-05,0.0002833,0.00044378,-0.0003044,-1.8904,9.6392e-05,8.0166e-05,-0.00067465,-0.00074152,-0.00022003,0.00011021,-0.00050675,-0.00036454,-0.000931,1.0268,-0.00018631,-0.0020344,-0.00050567,-0.001206,-0.00043103,5.296e-05,-0.00058709,-0.001444,-0.00021596,0.00063099,2.46,-0.86694,-0.00032538,0.00029809,0.00025515,-0.0004643,-0.0004739,8.9505e-07,-0.00030036,-0.00057814,-0.00014813,-0.00084482
0.52529,0.00023323,-0.0014975,6.5009e-10,0.00019884,0.00032223,-0.00013829,-5.5647e-05,-0.00024695,-2.1801e-05,-0.00024139,-4.9885e-05,-0.00028703,-0.00055983,-0.00064678,-0.00020097,-0.0012978,0.00012564,-0.00085739,-0.0003575,-0.00053941,0.00066127,-0.0001934,4.3583e-05,-0.0003064,4.6401e-05,-0.00059439,-0.00032848,-0.00037119,-1.3027e-05,1.3045e-05,-0.12161,0.0001385,-1.8036e-05,0.00043757,-0.00020272,-0.00033366,-4.7484e-05,-0.00071344,-0.00044587,-1.8786e-05,0.0002703,-0.00049198,0.002801,-0.00010116,-0.00011786,-0.0006571,-0.052318,-0.00043154,0.00024154,-0.00054088,-0.00034257,-4.0322e-05,8.5682e-05,-0.0012334,0.00020697,-0.00080504,6.0757e-06,0.0010013,-0.00053454,-0.00057537,-0.00022564,-0.00035671,-2.0473e-05,-0.00094419,-0.00082747,-0.00028878,0.0023598,0.00013563,-0.00062906,-0.0010692,-0.00060766,-0.00062963,-0.00057079,-0.001081,-0.00014574,-0.00021243,0.00028944,-0.00039922,-6.4962,-0.0010622,-0.00047875,-0.00080681,-0.00086016,-0.00047187,0.00039975,-1.4127,-0.00054665,-0.00082511,-0.00016555,-0.0045611,-0.00055096,-0.00066007,-0.00026654,-0.00022434,-0.00013793,-0.00055025,-0.00025355,-0.0025204,-0.00027284,0.00015104,-0.00023379,0.00017861,-0.0014914,-0.0001525,3.6305e-05,0.00035541,-0.00057747,-0.0020079,-0.0026657,-0.00086094,-7.9686e-05,0.00037948,7.1995e-05,-0.00019445,-0.00033694,-0.00062584,-0.00041321,-0.00061568,-0.00068049,0.00059698,0.00019654,-0.013069,-7.149e-05,-0.00068738,0.00011824,-0.00032554,1.6583,-0.16458,-0.0001468,-3.9761,-0.00012724,-0.00099916,-0.0010505,-0.00075533,-0.00021143,-0.0013845,-0.00019771,-0.0005602,-0.0004475,-0.00089019,-0.16999,-0.00030437,-0.00045984,-0.00036629,-0.0018182,-0.00045506,-0.00029771,-0.00029829,8.7495e-05,0.00027501,0.00043803,-0.00030914,-1.7833,9.0276e-05,0.00012456,-0.00061374,-0.00069298,-0.00021894,0.00012678,-0.00046094,-0.00040808,-0.00092796,1.2111,-0.00016152,-0.0019165,-0.00047333,-0.0010006,-0.00040498,5.827e-05,-0.00058194,-0.0014478,-0.00019936,0.00064542,2.8549,-0.89564,-0.00029774,0.0002995,0.00026367,-0.00046671,-0.00047407,-6.5295e-06,-0.00026782,-0.00054527,-0.00010865,-0.00072291
0.61552,0.00012951,-0.00097703,0.0001489,1.0834e-09,0.00015393,-0.00014009,-5.5374e-05,-0.00019801,-3.6018e-05,-0.0001872,-6.5029e-05,-0.00022582,-0.00040339,-0.00050269,-0.00018253,-0.00092444,1.3664e-05,-0.00066986,-0.00022719,-0.00034827,0.00038709,-0.00013665,9.1746e-06,-0.00022143,-7.8691e-06,-0.00047153,-0.00024385,-0.00027239,-3.9512e-05,-2.6895e-05,-0.0336,9.0626e-05,-2.6525e-05,0.00025928,-0.00016005,-0.00023455,-5.1605e-05,-0.00049278,-0.0003202,-3.2374e-05,0.00016781,-0.00034873,0.0017867,-0.00010188,-9.9447e-05,-0.00050342,-0.016516,-0.00028808,0.00012605,-0.0005552,-0.00024412,-4.8735e-05,4.1646e-05,-0.00081078,0.00011306,-0.0005478,-1.4167e-05,0.00061862,-0.00035848,-0.0003915,-0.00016931,-0.00027479,-4.475e-05,-0.00060839,-0.00068536,-0.0002143,0.0017812,5.4388e-05,-0.00045583,-0.00076887,-0.00046218,-0.00045158,-0.00041364,-0.00092939,-0.00012188,-0.00018898,0.00018472,-0.00028086,-6.6312,-0.00076251,-0.00034859,-0.00058848,-0.00048757,-0.00035698,0.00027075,-1.5833,-0.00037111,-0.00068528,-0.00012897,-0.0052258,-0.00038859,-0.00042769,-0.00020139,-0.00017637,-9.7415e-05,-0.00038007,-0.00017302,-0.0026947,-0.00019989,7.3396e-05,-0.00017428,0.00011009,-0.0011152,-0.00010605,9.3029e-06,0.00019835,-0.00043389,-0.0014219,-0.0026453,-0.00068438,-6.9116e-05,0.00023963,5.0312e-05,-0.00016901,-0.00026864,-0.00047899,-0.00026073,-0.0004382,-0.00048216,0.00034881,0.00010939,-0.0079793,-7.1081e-05,-0.00049723,8.4088e-05,-0.00023061,1.5279,-0.48275,-0.00012198,-3.1727,-0.00011968,-0.00067545,-0.00068884,-0.00057464,-0.00020173,-0.00089216,-0.0001583,-0.00044465,-0.00035337,-0.00068285,-0.38149,-0.00021556,-0.00031261,-0.00025806,-0.0011219,-0.00037617,-0.00022498,-0.00023918,3.5399e-05,0.0001645,0.00026297,-0.00022018,-1.6462,5.0038e-05,3.217e-05,-0.00048002,-0.0004822,-0.00015512,5.8541e-05,-0.00033162,-0.00028129,-0.00062578,1.7459,-0.00012787,-0.0011629,-0.00035387,-0.00079026,-0.00031439,3.6963e-05,-0.00043416,-0.00097832,-0.00014795,0.00038015,2.5067,-1.4378,-0.00024411,0.00018859,0.00017292,-0.00031412,-0.00032532,-2.4887e-05,-0.00021772,-0.00041746,-0.00011056,-0.00053584
1.2711,5.4253e-05,-0.00050741,7.1033e-05,3.5739e-05,1.0097e-09,-5.8499e-05,-2.398e-05,-9.6978e-05,-2.0046e-05,-8.9587e-05,-3.3154e-05,-0.00011428,-0.0002008,-0.00024764,-8.4181e-05,-0.00048804,4.3587e-05,-0.00030609,-0.00011438,-0.00015828,0.0001778,-7.6767e-05,3.2188e-06,-9.1129e-05,-1.4093e-05,-0.00021511,-0.00011143,-0.00013058,-2.1773e-05,-1.3464e-05,-0.00099003,3.9498e-05,9.456e-06,0.00012018,-8.6016e-05,-0.00011476,-3.371e-05,-0.00023492,-0.00015572,-1.7938e-05,7.2092e-05,-0.00016871,0.00077978,-3.6472e-05,-4.6076e-05,-0.00023139,-0.84591,-0.0001351,6.4177e-05,-0.00018007,-0.00011508,-4.4459e-05,1.4944e-05,-0.00031663,4.8587e-05,-0.00026753,-1.6579e-05,0.00031455,-0.00017452,-0.00019359,-8.7398e-05,-0.00012528,-2.1643e-05,-0.00032473,-0.00031608,-0.00010667,0.00069919,2.7467e-05,-0.0002045,-0.00037923,-0.00024057,-0.00023731,-0.00019494,-0.00042003,-5.8848e-05,-9.5346e-05,8.3462e-05,-0.0001281,-6.5255,-0.00038602,-0.0001596,-0.00028154,-0.00026139,-0.00016952,0.00012077,-1.6001,-0.00017412,-0.00031197,-6.4636e-05,-0.0017121,-0.00017492,-0.00021733,-0.00010072,-8.8353e-05,-4.9178e-05,-0.000211,-9.3058e-05,-0.0006738,-9.9378e-05,2.752e-05,-9.4066e-05,5.9641e-05,-0.00053465,-4.7461e-05,-1.6089e-06,9.5661e-05,-0.00021343,-0.00069742,-0.00064881,-0.00033164,-3.8913e-05,0.00010992,1.5591e-05,-8.4406e-05,-0.00013337,-0.00020223,-0.00013432,-0.00020685,-0.00024465,0.00016319,6.9337e-05,-0.00177,-4.2833e-05,-0.00025452,3.5302e-05,-0.00011157,1.4783,-0.97316,-7.0818e-05,-3.2802,-6.2739e-05,-0.00037431,-0.00033215,-0.00029314,-9.5744e-05,-0.00046971,-7.6679e-05,-0.00020608,-0.00016178,-0.0003131,-0.52951,-0.00010746,-0.00016481,-0.00012753,-0.00058383,-0.00017725,-8.7802e-05,-0.00011425,7.8145e-06,7.384e-05,0.00012841,-0.00011047,-1.3789,2.3969e-05,3.3983e-05,-0.00024278,-0.00023837,-8.0963e-05,2.8001e-05,-0.00015784,-0.00011673,-0.00029645,2.1583,-7.0882e-05,-0.00059578,-0.00015497,-0.00038869,-0.00015144,1.0951e-05,-0.000212,-0.00046026,-7.8807e-05,0.00017818,2.1723,-1.2626,-0.00010697,7.6037e-05,9.8688e-05,-8.5988e-05,-0.00015259,-8.1068e-06,-0.00010394,-0.0002062,-5.8418e-05,-0.00020792
0.47507,0.00031985,-0.002589,0.00041883,0.00019445,0.00042819,8.5605e-10,-0.00013378,-0.00051183,-7.6816e-05,-0.00043012,-0.00010336,-0.00053475,-0.00095402,-0.0012087,-0.0003558,-0.002235,0.00023668,-0.0015445,-0.00062267,-0.00089497,0.0010542,-0.00037523,6.8645e-05,-0.00058623,5.8763e-06,-0.0010534,-0.00058659,-0.00066197,-8.2411e-05,-5.2069e-05,-0.084403,0.00022345,-2.3745e-05,0.0007149,-0.00036606,-0.0006179,-0.00014124,-0.001256,-0.00080734,-9.2127e-05,0.00044193,-0.00087373,0.00491,-0.00024104,-0.00020859,-0.0011509,-0.16935,-0.00072453,0.00036063,-0.00074583,-0.0006764,-0.00010072,0.00010158,-0.0019843,0.00030805,-0.0013621,-4.7253e-05,0.0016981,-0.00097478,-0.0010154,-0.00043039,-0.00065509,-8.7613e-05,-0.0015424,-0.0014784,-0.00052169,0.0042178,0.00017016,-0.0010856,-0.0019314,-0.0010831,-0.0010575,-0.0010019,-0.0020789,-0.00028931,-0.00039107,0.0004583,-0.00067347,-6.4532,-0.0018839,-0.00074417,-0.0014133,-0.0013919,-0.0008719,0.00066237,-1.7819,-0.00094493,-0.0014646,-0.00032701,-0.0094706,-0.00094492,-0.0011621,-0.00050651,-0.00043015,-0.00025257,-0.00099635,-0.00038119,-0.0040926,-0.00050929,0.0002183,-0.00050318,0.00030015,-0.0026909,-0.00024603,1.7201e-05,0.00056321,-0.0010275,-0.0037111,-0.0054775,-0.0015222,-0.0001992,0.00059899,6.8184e-05,-0.00040507,-0.000669,-0.0010595,-0.00066728,-0.0010716,-0.0012065,0.00093726,0.00028444,-0.0081798,-0.00015607,-0.0012432,0.00020406,-0.00055309,1.5003,-0.30218,-0.00029885,-3.4419,-0.00029074,-0.0020803,-0.0017451,-0.0013883,-0.00046869,-0.0022233,-0.00034797,-0.001028,-0.00081501,-0.0013987,-0.01782,-0.00055101,-0.00093541,-0.00064968,-0.0031625,-0.0009405,-0.00053264,-0.00052893,9.5369e-05,0.00042465,0.00063976,-0.00057637,-1.4048,0.00013528,0.00016835,-0.0011308,-0.0012489,-0.00040552,0.00014939,-0.00087062,-0.00071584,-0.001634,1.4128,-0.00031064,-0.0023594,-0.0008495,-0.0017411,-0.0007409,9.2436e-05,-0.0010274,-0.0024684,-0.00037108,0.00093549,3.454,-0.73355,-0.0005609,0.00046513,0.00039154,-0.00080803,-0.00083723,-2.0166e-05,-0.00052421,-0.00097731,-0.00026538,-0.00095756
0.26295,7.8826e-05,-0.00072105,7.6889e-05,5.6826e-05,0.0001085,-9.3907e-05,9.738e-10,-0.00014147,-2.6021e-05,-0.00012569,-4.71e-05,-0.00016261,-0.0002654,-0.0003354,-0.00010502,-0.00072502,4.297e-05,-0.00041305,-0.0001639,-0.000227,0.00023494,-9.9297e-05,6.6433e-06,-0.00015979,-1.3261e-05,-0.00027215,-0.0001703,-0.00018161,-3.2869e-05,-3.3627e-05,-0.093573,5.0694e-05,-1.2218e-05,0.00017968,-0.00011299,-0.00015827,-5.0358e-05,-0.00032284,-0.00021607,-2.8279e-05,0.00010095,-0.00022298,0.0011043,-5.4438e-05,-6.9364e-05,-0.00035928,-0.71684,-0.00020051,9.2256e-05,-0.00029448,-0.00017144,-3.1765e-05,1.1932e-05,-0.00047153,6.3744e-05,-0.00036977,-2.1662e-05,0.00042759,-0.00024265,-0.00026559,-0.0001157,-0.00017578,-3.0556e-05,-0.00039407,-0.00044236,-0.00015235,0.0010869,3.3616e-05,-0.00027613,-0.0005048,-0.00029874,-0.00031397,-0.00027146,-0.00056932,-7.488e-05,-0.00011509,9.4366e-05,-0.00017529,-6.7827,-0.00051431,-0.00021702,-0.00038706,-0.00034478,-0.00023277,0.00018111,-1.6309,-0.00025361,-0.00042588,-8.3004e-05,-0.002351,-0.00025642,-0.00029306,-0.00014362,-0.00012433,-6.8703e-05,-0.00026411,-0.00011408,-0.001076,-0.00013429,3.8812e-05,-0.00011702,8.1596e-05,-0.00073767,-8.6004e-05,-2.1157e-06,9.706e-05,-0.00030177,-0.00096654,-0.0014328,-0.00041481,-5.0427e-05,0.00015213,2.1667e-05,-0.00012325,-0.00019791,-0.00028775,-0.00017928,-0.00027612,-0.00032434,0.00022947,6.3563e-05,-0.0035188,-5.4698e-05,-0.00030952,5.4257e-05,-0.00015594,1.4998,-0.095134,-8.1951e-05,-3.1999,-9.1485e-05,-0.00044543,-0.00044066,-0.00035491,-0.0001417,-0.00060491,-0.00012533,-0.00029126,-0.00023429,-0.00040765,-0.065511,-0.00014686,-0.00022482,-0.00017433,-0.00083137,-0.00023352,-0.00014702,-0.00014521,2.1708e-05,0.00011241,0.00018433,-0.00015644,-1.6731,2.6595e-05,2.2996e-05,-0.00033106,-0.000332,-0.00011331,2.6464e-05,-0.00021988,-0.00019129,-0.00041223,1.5679,-9.1541e-05,-0.0010035,-0.00024205,-0.00049773,-0.00020386,2.5437e-05,-0.00029766,-0.00066211,-0.00011099,0.00024166,2.7411,-0.41547,-0.00016264,0.00010988,0.00010793,-0.00020499,-0.00021101,-2.3712e-05,-0.00014176,-0.00027178,-7.7014e-05,-0.00034448
0.37945,3.0011e-05,-0.0002014,3.2024e-05,2.1306e-05,3.6891e-05,-2.7084e-05,-1.0453e-05,6.7875e-10,-4.8381e-06,-3.5307e-05,-7.907e-06,-4.2739e-05,-8.2563e-05,-0.00010377,-3.1664e-05,-0.00019279,1.3837e-05,-0.00012699,-4.8144e-05,-7.2848e-05,8.1439e-05,-2.7552e-05,8.3233e-07,-4.5144e-05,2.475e-07,-8.9464e-05,-4.7404e-05,-5.2923e-05,-6.1016e-06,-6.0296e-06,-0.20528,1.8248e-05,2.0977e-06,5.5379e-05,-3.1072e-05,-4.7836e-05,-1.0257e-05,-9.6305e-05,-6.2881e-05,-6.5112e-06,3.3267e-05,-7.547e-05,0.00032355,-1.6051e-05,-1.8289e-05,-9.8396e-05,-0.17513,-5.9921e-05,2.8749e-05,-8.433e-05,-4.846e-05,-7.9973e-06,9.4528e-06,-0.00015775,2.2374e-05,-0.00011394,-2.0832e-06,0.00013305,-7.834e-05,-8.1473e-05,-3.276e-05,-5.3266e-05,-3.2633e-06,-0.00013724,-0.00012459,-4.1386e-05,0.0003644,1.3903e-05,-8.9402e-05,-0.00015228,-8.9035e-05,-9.3443e-05,-8.0904e-05,-0.00017398,-2.1941e-05,-3.663e-05,3.6273e-05,-5.414e-05,-6.4585,-0.00015467,-6.4569e-05,-0.00011427,-0.00010162,-6.5999e-05,5.6195e-05,-1.5556,-7.3696e-05,-0.00012529,-2.6481e-05,-0.00065457,-7.3544e-05,-8.9288e-05,-3.9329e-05,-3.1524e-05,-1.7365e-05,-8.356e-05,-3.4885e-05,-0.00034811,-3.8821e-05,1.5221e-05,-3.7711e-05,2.2778e-05,-0.00021527,-1.9633e-05,1.2697e-06,4.0544e-05,-8.4967e-05,-0.00029253,-0.00044244,-0.00012214,-1.3083e-05,4.9295e-05,1.0455e-05,-3.0648e-05,-5.0783e-05,-8.7299e-05,-5.5178e-05,-9.0301e-05,-9.8065e-05,8.0945e-05,2.3918e-05,-0.0025861,-1.2943e-05,-0.00010131,1.6714e-05,-4.649e-05,1.5434,-0.017922,-2.2257e-05,-3.2077,-2.2031e-05,-0.00016062,-0.00013641,-0.00011301,-3.5145e-05,-0.000185,-2.9326e-05,-8.1917e-05,-6.4627e-05,-0.00012077,-0.0016904,-4.3419e-05,-6.5896e-05,-5.2308e-05,-0.00024881,-6.9851e-05,-4.4722e-05,-4.5486e-05,7.8878e-06,3.7792e-05,5.7208e-05,-4.0502e-05,-1.6005,1.202e-05,8.9808e-06,-8.4773e-05,-9.9456e-05,-3.0797e-05,1.1921e-05,-6.9054e-05,-5.8301e-05,-0.00012787,1.3149,-2.6133e-05,-0.00021232,-6.8191e-05,-0.00014341,-6.135e-05,7.4572e-06,-8.2925e-05,-0.0001964,-3.0583e-05,8.2722e-05,2.4406,-0.47039,-4.3841e-05,3.624e-05,3.7906e-05,-6.1886e-05,-6.7508e-05,-3.3021e-06,-3.9094e-05,-8.095e-05,-2.1128e-05,-0.00012398
0.40845,0.00075635,-0.0057037,0.00081806,0.00054012,0.0010279,-0.00075222,-0.00028862,-0.0011297,1.2493e-09,-0.0010321,-0.00032812,-0.0011286,-0.0024233,-0.0028814,-0.00081621,-0.0057043,0.00025606,-0.0035006,-0.001374,-0.0019812,0.0023271,-0.00078174,0.00013651,-0.0013053,-3.526e-05,-0.0025361,-0.00136,-0.001525,-0.00020522,-9.1117e-05,-0.079774,0.00047278,-3.6118e-05,0.0016069,-0.00080464,-0.0014025,-0.00023875,-0.0027914,-0.0018173,-0.00017528,0.00092321,-0.0019605,0.0097008,-0.00049412,-0.00053152,-0.0027389,-0.23191,-0.0016977,0.00080711,-0.0035767,-0.0013996,-0.00020475,0.00021391,-0.0041509,0.00073257,-0.0032225,-0.00010045,0.0039195,-0.0020867,-0.0023435,-0.00093685,-0.0013726,-0.00018293,-0.0035142,-0.0036852,-0.0011998,0.0097453,0.00036473,-0.0024859,-0.0043305,-0.0026149,-0.0025111,-0.002351,-0.0047207,-0.00064044,-0.00092616,0.00094755,-0.0015199,-6.5341,-0.0042828,-0.0018483,-0.0032226,-0.0031372,-0.0019921,0.0015965,-1.6343,-0.0021629,-0.0037563,-0.00075279,-0.019988,-0.002211,-0.0025612,-0.0011112,-0.00096926,-0.00055409,-0.0022924,-0.0010696,-0.0095515,-0.0011201,0.00042542,-0.0010643,0.00070982,-0.0063598,-0.0006627,0.00011067,0.0012128,-0.002493,-0.0083179,-0.012793,-0.0035663,-0.00037884,0.001471,0.00025428,-0.00093304,-0.0015169,-0.0025492,-0.0015452,-0.0025016,-0.0025682,0.0021084,0.00071052,-0.065741,-0.00032149,-0.0029766,0.0004979,-0.0013593,1.5335,-0.22431,-0.0007112,-3.1007,-0.00072084,-0.0045055,-0.0039623,-0.0030016,-0.0010304,-0.0054417,-0.0009872,-0.0024391,-0.001969,-0.0033725,-0.060421,-0.0012254,-0.0017797,-0.0014897,-0.0059688,-0.0019806,-0.0013206,-0.0011619,0.00029333,0.0010747,0.0018151,-0.0012994,-2.4743,0.00034151,0.00019277,-0.0026036,-0.0028602,-0.00086196,0.00035765,-0.0018591,-0.0016597,-0.0036316,0.90533,-0.000792,-0.0072543,-0.0019784,-0.004405,-0.0017683,0.00019687,-0.0022064,-0.0053745,-0.00081732,0.0023163,2.557,-1.1818,-0.0011749,0.00096104,0.00090562,-0.0018422,-0.0017301,-9.3408e-05,-0.0011567,-0.0022247,-0.0005932,-0.0033189
0.40528,0.00057651,-0.0044768,0.00065295,0.00039245,0.00078604,-0.00050001,-0.0002198,-0.00081036,-0.0001044,1.1421e-09,-0.00019131,-0.0008893,-0.0016487,-0.001991,-0.00059513,-0.0042216,0.00022351,-0.0026589,-0.0010042,-0.0014995,0.0017688,-0.00056089,9.4949e-05,-0.0009599,5.6032e-05,-0.0017911,-0.00096245,-0.0011186,-0.00014085,-4.2593e-05,-0.22906,0.00035314,-4.1459e-05,0.0013237,-0.00063395,-0.0010198,-0.00018915,-0.0020393,-0.001336,-0.00012297,0.00074043,-0.0014913,0.0059242,-0.00038581,-0.00043348,-0.0019304,-0.20974,-0.0012692,0.00061185,-0.0018235,-0.0010225,-0.00010299,0.00022427,-0.0033483,0.00053362,-0.0022712,-6.0864e-05,0.0027244,-0.0015492,-0.0016697,-0.00067857,-0.0011019,-0.00012862,-0.0026632,-0.0026983,-0.00085615,0.0073406,0.00032162,-0.00183,-0.0031811,-0.0018984,-0.0018475,-0.0017084,-0.0035662,-0.00050779,-0.00069359,0.00073115,-0.001102,-6.3901,-0.0031102,-0.0013895,-0.0024446,-0.002312,-0.0014027,0.0011587,-1.7851,-0.0015763,-0.0027157,-0.00054026,-0.014183,-0.0015671,-0.0018892,-0.00082265,-0.00069915,-0.00041294,-0.001715,-0.00073514,-0.0072293,-0.00081102,0.0003439,-0.00072583,0.00052304,-0.0045065,-0.00042976,8.3553e-05,0.0009217,-0.0018011,-0.0058666,-0.010538,-0.0026223,-0.00029085,0.0010837,0.00020599,-0.00066255,-0.0010585,-0.0018873,-0.0011613,-0.0018003,-0.0019596,0.0016097,0.00050339,-0.04919,-0.0002204,-0.0020876,0.00035672,-0.00095245,1.548,-0.23372,-0.0005102,-3.2692,-0.00048408,-0.0030267,-0.0028039,-0.0022266,-0.00079216,-0.0038473,-0.00067833,-0.001785,-0.0014405,-0.002493,-0.11763,-0.00089764,-0.0013972,-0.0010484,-0.0047848,-0.0015186,-0.00091505,-0.00087633,0.00020369,0.00079668,0.0012457,-0.00095791,-1.3767,0.00024112,0.00019303,-0.0019118,-0.0020509,-0.00060801,0.00026965,-0.0014321,-0.0011634,-0.0026955,0.85378,-0.00051284,-0.0056582,-0.0014515,-0.0030397,-0.0012535,0.0001688,-0.0017365,-0.0040859,-0.00057508,0.0017315,2.7067,-1.1145,-0.00089027,0.00075184,0.00068087,-0.0013865,-0.0013215,-6.7514e-05,-0.00082589,-0.0016589,-0.0004211,-0.0024587
0.53112,8.3824e-05,-0.0006173,8.5012e-05,5.775e-05,0.00010491,-6.113e-05,-2.6062e-05,-0.00010156,-1.4108e-05,-9.5516e-05,6.7074e-10,-0.00011987,-0.00021995,-0.00027354,-7.6036e-05,-0.00053795,5.8455e-05,-0.00034002,-0.00012589,-0.00020568,0.00027826,-7.7653e-05,5.841e-06,-0.00012178,6.7654e-06,-0.00024073,-0.00013695,-0.00014622,-1.3773e-05,-1.5519e-06,-0.17519,5.2068e-05,-2.3486e-06,0.00016381,-9.1254e-05,-0.00013174,-3.072e-05,-0.00026525,-0.00017871,-2.1222e-05,0.00010673,-0.00018778,0.00096656,-3.711e-05,-6.5196e-05,-0.00027959,-0.19396,-0.00017047,8.9939e-05,-0.0002605,-0.00013238,-1.9702e-05,3.6834e-05,-0.00045699,7.0028e-05,-0.00031986,-3.0957e-06,0.00043223,-0.00020877,-0.00022503,-9.4455e-05,-0.00014316,-1.0926e-05,-0.00036297,-0.00034186,-0.00011678,0.0011292,4.9514e-05,-0.000244,-0.00042001,-0.00024541,-0.00024354,-0.00022529,-0.00048726,-6.8169e-05,-9.1644e-05,0.00010235,-0.00014953,-6.5837,-0.00043835,-0.00018185,-0.0003105,-0.00029153,-0.00017878,0.00015538,-1.5552,-0.00022075,-0.00034332,-7.3204e-05,-0.0018727,-0.00020799,-0.00024726,-0.00011122,-9.6227e-05,-4.0512e-05,-0.00022628,-9.8098e-05,-0.00096801,-0.00011068,4.276e-05,-9.4796e-05,6.9449e-05,-0.0005867,-5.0327e-05,6.0201e-06,0.00012849,-0.0002336,-0.00081601,-0.0011003,-0.00034131,-3.8805e-05,0.00013918,2.7952e-05,-8.7183e-05,-0.00014987,-0.00025101,-0.00015194,-0.00024626,-0.000273,0.00027222,7.6796e-05,-0.0043718,-2.9097e-05,-0.00026003,5.3489e-05,-0.00012448,1.53,-0.039317,-6.8047e-05,-3.5554,-5.5316e-05,-0.00042896,-0.00040441,-0.00029579,-0.00010145,-0.00053489,-8.2905e-05,-0.000234,-0.00018378,-0.00034353,-0.0083091,-0.00012178,-0.00018872,-0.00013774,-0.0006292,-0.00019772,-0.00012158,-0.00011975,3.0128e-05,0.00011232,0.00016149,-0.0001285,-1.4277,3.4508e-05,5.7181e-05,-0.00023746,-0.00027847,-8.5123e-05,3.1646e-05,-0.00018695,-0.00015892,-0.0003514,1.3126,-6.29e-05,-0.00068097,-0.0001841,-0.00038908,-0.00016765,1.5522e-05,-0.00022999,-0.00056424,-8.3648e-05,0.00022389,2.9648,-0.421,-0.00011427,0.00010584,0.00010668,-0.00017325,-0.00018314,-7.8118e-06,-0.00010912,-0.0002235,-5.5718e-05,-0.00032838
0.45334,0.00037797,-0.0023388,0.00037959,0.00025208,0.00043382,-0.00026922,-0.00013501,-0.00043417,-1.3386e-05,-0.00039469,-0.00010412,1.121e-09,-0.00093073,-0.0011176,-0.00036863,-0.0021187,0.00010623,-0.0014762,-0.00054499,-0.00082616,0.0010086,-0.00030134,5.9341e-05,-0.00050682,1.3335e-05,-0.0010501,-0.0005299,-0.00058041,-8.1349e-05,3.2546e-05,-0.084339,0.00019568,-1.4034e-05,0.00066764,-0.00031844,-0.00056928,-5.8765e-05,-0.0011078,-0.00073192,-6.943e-05,0.00039861,-0.00080086,0.0037904,-0.00020323,-0.00020936,-0.0010681,-0.11132,-0.00066614,0.00033591,-0.0013064,-0.00054785,-9.2059e-05,0.0001473,-0.0018409,0.00029283,-0.0012989,-1.669e-05,0.001507,-0.00087244,-0.00093545,-0.00037705,-0.00057949,-6.0512e-05,-0.0014398,-0.0014299,-0.00045585,0.0041491,0.0001599,-0.0010656,-0.0017252,-0.0010316,-0.0010207,-0.00094282,-0.0019673,-0.00026753,-0.00037511,0.00041148,-0.00062313,-6.6442,-0.0016963,-0.0007703,-0.0013,-0.0012726,-0.00078305,0.00064791,-1.6203,-0.0008889,-0.0014458,-0.00029621,-0.0087555,-0.00089072,-0.00099805,-0.00042909,-0.00038801,-0.00021699,-0.00093259,-0.000404,-0.004068,-0.00044494,0.00020606,-0.00041649,0.00028686,-0.0024059,-0.00019769,6.5865e-05,0.00049289,-0.00094239,-0.0033505,-0.0060053,-0.0014114,-0.00014377,0.00061518,0.00011775,-0.00035415,-0.00056149,-0.0010191,-0.00062526,-0.0010133,-0.0010105,0.00085942,0.00030906,-0.023777,-0.00011223,-0.0012275,0.00020066,-0.0005381,1.5354,-0.23134,-0.0002588,-2.9984,-0.00028898,-0.0017894,-0.0016346,-0.0012446,-0.0003264,-0.0020595,-0.00032501,-0.0009585,-0.00077178,-0.0013922,-0.049592,-0.0004931,-0.00074022,-0.00058579,-0.002482,-0.00077193,-0.00053651,-0.00046543,0.00013131,0.00041668,0.00069009,-0.00048499,-2.0662,0.00013269,0.00012959,-0.0010442,-0.0011559,-0.00033354,0.00015494,-0.00073903,-0.00070659,-0.0014186,1.058,-0.00030236,-0.0025308,-0.00077479,-0.0017577,-0.00068512,8.0956e-05,-0.00083051,-0.0022943,-0.00032341,0.00098071,2.5959,-1.3288,-0.00045657,0.00044776,0.00035009,-0.00073816,-0.00073014,-3.5248e-05,-0.00045771,-0.00089548,-0.00022119,-0.0014669
0.46917,0.00025136,-0.0017338,0.00023034,0.00017309,0.00028464,-0.00017273,-6.2717e-05,-0.00031259,-5.5689e-05,-0.00026399,-7.4943e-05,-0.00035468,8.7966e-10,-0.00076973,-0.00024886,-0.0014031,0.00010014,-0.00091543,-0.00037895,-0.00052427,0.00065983,-0.00021226,4.0928e-05,-0.00035981,1.2433e-05,-0.00062384,-0.00034004,-0.00039169,-4.5737e-05,-4.0495e-06,-0.15331,0.00012871,-3.5146e-05,0.0004649,-0.00023773,-0.00039742,-8.8059e-05,-0.00074914,-0.00048259,-4.8169e-05,0.00027481,-0.00051887,0.0027048,-0.00012071,-0.00014443,-0.00080125,-0.023499,-0.00049072,0.00021493,-0.00071571,-0.00038486,-2.4824e-05,5.0199e-05,-0.0012318,0.0001943,-0.00083667,-6.2695e-06,0.00091603,-0.00056258,-0.00060902,-0.00023876,-0.00042854,-5.3315e-05,-0.0010173,-0.00092654,-0.00031625,0.0031889,0.00012326,-0.00068567,-0.001234,-0.00066915,-0.0006613,-0.00063559,-0.0013425,-0.00019349,-0.00025638,0.00027655,-0.00043205,-6.2749,-0.001148,-0.00050659,-0.00086395,-0.00084348,-0.00056438,0.00047153,-1.1876,-0.00057245,-0.00096437,-0.00017739,-0.0049569,-0.00056918,-0.00069298,-0.00030553,-0.00026989,-0.00015677,-0.00062585,-0.00028776,-0.0022998,-0.00029926,0.00014745,-0.00027277,0.00022981,-0.0016095,-0.00014497,1.6631e-05,0.00034371,-0.00068173,-0.0022161,-0.003275,-0.00099936,-0.00010104,0.00038262,6.703e-05,-0.00024231,-0.00041988,-0.0006835,-0.00042385,-0.00065995,-0.00078048,0.00059918,0.00018255,-0.006535,-0.00010251,-0.00075736,0.00012952,-0.00034217,1.6255,-0.022316,-0.00018443,-4.0545,-0.00017771,-0.0012125,-0.0010717,-0.00081002,-0.00030821,-0.0014561,-0.00025277,-0.00063814,-0.00050771,-0.00098605,-0.25695,-0.00032936,-0.00053068,-0.00039494,-0.0017177,-0.00053871,-0.00032423,-0.00031139,5.0845e-05,0.00033328,0.00043442,-0.0003421,-1.347,9.5939e-05,4.8098e-05,-0.00069918,-0.00073395,-0.00024658,9.008e-05,-0.00055477,-0.00043302,-0.001003,1.2625,-0.00019476,-0.0016979,-0.00051962,-0.0010825,-0.00043297,5.4315e-05,-0.00067573,-0.0014737,-0.00023396,0.00062786,2.6217,-1.5385,-0.0003536,0.00031758,0.000257,-0.00047342,-0.00047976,-3.6347e-05,-0.00031057,-0.00061711,-0.00014084,-0.00070213
0.19373,2.8155e-05,-0.00027478,3.3828e-05,2.3616e-05,3.9874e-05,-3.1736e-05,-1.2534e-05,-5.2064e-05,-1.0181e-05,-4.1792e-05,-1.4886e-05,-5.4821e-05,-9.9061e-05,7.5412e-10,-4.1421e-05,-0.00023299,1.6378e-05,-9.8256e-05,-5.7139e-05,-8.4209e-05,0.00010169,-3.5352e-05,3.0465e-06,-5.5226e-05,-3.6706e-06,-6.2428e-05,-5.4384e-05,-5.893e-05,-9.9612e-06,-6.8098e-06,-0.043074,1.7797e-05,-4.4462e-06,6.534e-05,-4.0107e-05,-5.4895e-05,-1.3274e-05,-0.00011864,-7.2391e-05,-9.8462e-06,3.9938e-05,-7.7474e-05,0.00081635,-2.0501e-05,-2.5558e-05,-0.00011265,-0.083721,-7.1729e-05,3.1552e-05,-0.0001074,-5.9005e-05,-7.6624e-06,1.0663e-05,-0.00019251,2.7167e-05,-0.00012959,-6.8235e-06,0.00015182,-8.7928e-05,-9.5046e-05,-3.6567e-05,-6.4351e-05,-9.3859e-06,-0.00016749,-0.00014333,-4.8219e-05,0.00043271,1.5568e-05,-0.00010288,-0.00017862,-0.00010307,-0.0001021,-0.00010026,-0.00019173,-3.0454e-05,-4.1805e-05,3.7033e-05,-6.0293e-05,-6.4297,-0.0001787,-8.1871e-05,-0.00013378,-0.00013511,-8.047e-05,6.4341e-05,-1.3647,-9.6047e-05,-0.00014446,-3.0523e-05,-0.00073777,-9.1609e-05,-0.00010886,-4.586e-05,-4.2167e-05,-2.3845e-05,-9.7466e-05,-3.8433e-05,-0.00039026,-4.829e-05,1.6128e-05,-4.1333e-05,3.0194e-05,-0.00025167,-2.678e-05,1.9722e-06,4.3826e-05,-0.00010516,-0.00031056,-0.00055826,-0.00014226,-1.8825e-05,5.8759e-05,1.5127e-05,-4.1102e-05,-6.7066e-05,-0.0001045,-6.7283e-05,-0.00010457,-0.00011345,8.9187e-05,2.2943e-05,-0.00056827,-1.8437e-05,-0.0001161,2.3448e-05,-5.5084e-05,1.5195,-0.0013324,-2.9418e-05,-4.6345,-3.4162e-05,-0.00016921,-0.00016213,-0.00012998,-4.4076e-05,-0.00021285,-3.9162e-05,-0.00010492,-8.1954e-05,-0.00013163,-0.00094919,-5.0177e-05,-7.6489e-05,-6.3091e-05,-0.00028638,-8.0048e-05,-5.608e-05,-4.7428e-05,1.0569e-05,4.1117e-05,6.7902e-05,-5.8922e-05,-1.766,1.2932e-05,1.6111e-05,-0.00010437,-0.00010749,-3.7675e-05,1.3227e-05,-8.1655e-05,-7.379e-05,-0.00014206,1.0708,-2.9446e-05,-0.00034415,-8.3196e-05,-0.00011485,-7.2787e-05,6.16e-06,-0.00010152,-0.00022854,-3.5848e-05,8.996e-05,2.5464,-0.68309,-5.3795e-05,3.8067e-05,3.6286e-05,-7.6462e-05,-7.3857e-05,-3.8716e-06,-5.1391e-05,-9.6848e-05,-2.3399e-05,-0.00010967
0.24653,0.0005662,-0.0040603,0.00060937,0.00034834,0.00075979,-0.0004818,-0.00017273,-0.00082347,-6.9362e-05,-0.00068243,-0.00016299,-0.00092155,-0.0016624,-0.0020628,9.4015e-10,-0.0045082,0.00015097,-0.0026381,-0.00095279,-0.0014602,0.0018342,-0.00054535,3.0537e-05,-0.00093261,4.5498e-05,-0.0017229,-0.001005,-0.0011254,-0.00011206,-0.0001645,-0.12777,0.00034038,7.0498e-05,0.0012399,-0.00064595,-0.00095823,-0.00020211,-0.0019159,-0.001321,-0.00016814,0.00073268,-0.0014058,0.0068061,-0.00035779,-0.00045621,-0.0019151,-0.52556,-0.0012025,0.0006411,-0.0024798,-0.0010104,-7.113e-05,0.00011868,-0.0033674,0.00049253,-0.0023237,-9.0897e-05,0.0027838,-0.0014296,-0.0016579,-0.00066937,-0.0011286,-0.00015446,-0.0025778,-0.0025867,-0.00088372,0.0061647,0.00027396,-0.0016743,-0.0027143,-0.0018755,-0.0017733,-0.0016115,-0.003481,-0.00044924,-0.00075084,0.00066397,-0.0010769,-6.4738,-0.0031092,-0.0013122,-0.0023356,-0.0022089,-0.0013559,0.0011308,-1.4118,-0.0014779,-0.0025871,-0.00059718,-0.012934,-0.0015565,-0.0017996,-0.00083216,-0.00067652,-0.00038711,-0.0014914,-0.00074006,-0.0060727,-0.00077477,0.00026643,-0.00072653,0.00050791,-0.0044305,-0.00050625,6.8263e-05,0.00089196,-0.0018144,-0.0056274,-0.0077243,-0.0024597,-0.00024028,0.0010822,0.00014496,-0.00067072,-0.001032,-0.0019512,-0.001125,-0.0017887,-0.0019403,0.0016412,0.00050893,-0.037894,-0.00015175,-0.0020118,0.00033109,-0.001013,1.5018,-0.067848,-0.00054579,-3.7065,-0.00033027,-0.0031083,-0.0027314,-0.0020495,-0.0007814,-0.0038944,-0.00074373,-0.0017389,-0.0014511,-0.0024319,-0.079783,-0.00086949,-0.0013355,-0.0010164,-0.0037511,-0.0014245,-0.00093495,-0.00082283,0.00019681,0.00079037,0.0013286,-0.00094696,-1.723,0.00029536,0.00012778,-0.0018061,-0.0020774,-0.00060226,0.00024248,-0.0013816,-0.0011559,-0.0026263,1.1407,-0.00052846,-0.0078266,-0.0014003,-0.0031382,-0.0012257,0.00017281,-0.0017124,-0.0039484,-0.00059219,0.0016748,2.652,-0.77149,-0.00091083,0.00071415,0.00064585,-0.0013096,-0.0012077,-0.00011161,-0.0008159,-0.0016616,-0.0004354,-0.0019299
0.76951,0.00068929,-0.0045758,0.00084547,0.0006315,0.00086928,-0.0004816,-0.00023029,-0.00082344,-6.9368e-05,-0.00080074,-0.00019114,-0.00091711,-0.0017785,-0.0020111,-0.00074248,1.0036e-09,0.00017197,-0.0026452,-0.0010435,-0.0016798,0.0023743,-0.00061724,0.00021281,-0.0010095,6.5911e-05,-0.0018648,-0.0010044,-0.0011393,-0.00013286,4.5344e-05,-0.48213,0.00047386,-5.8301e-05,0.0012683,-0.00058161,-0.0010984,-0.00017364,-0.0022446,-0.0014326,-0.0001035,0.0008781,-0.0014789,0.0089175,-0.00036996,-0.00031849,-0.0022188,-0.06289,-0.0013737,0.0006676,-0.0018605,-0.001111,-0.00022881,0.00020765,-0.0036573,0.00061395,-0.0024418,4.4428e-05,0.0032761,-0.0017027,-0.0018248,-0.00071475,-0.0011721,-8.6955e-05,-0.003148,-0.0026574,-0.00089581,0.0086544,0.00038358,-0.0021145,-0.0034422,-0.0020517,-0.0019255,-0.0018998,-0.0038699,-0.00049638,-0.00068664,0.00091217,-0.0011734,-6.814,-0.0032656,-0.001612,-0.0025161,-0.0024604,-0.0015233,0.0012984,-1.0183,-0.0017981,-0.0027386,-0.00051592,-0.014385,-0.0017034,-0.0020287,-0.00087007,-0.00071674,-0.00045726,-0.0017871,-0.00074534,-0.0081373,-0.00086881,0.00042687,-0.00078633,0.0005837,-0.0045803,-0.00034321,8.5531e-05,0.0011338,-0.0018416,-0.006283,-0.0089133,-0.0027775,-0.00025704,0.0011854,0.00016673,-0.00067798,-0.0011848,-0.0019964,-0.0012544,-0.0020456,-0.002087,0.0018819,0.00055104,-0.032514,-0.00024622,-0.0023373,0.00047229,-0.0010074,1.4838,-0.18682,-0.00047539,-2.8979,-0.00058567,-0.0034981,-0.0030347,-0.0025181,-0.00071075,-0.0040491,-0.00060792,-0.0018409,-0.0014693,-0.0027331,-0.03768,-0.00097733,-0.0014668,-0.0011484,-0.0039635,-0.0015163,-0.00097063,-0.00097885,0.00024942,0.00089922,0.0014646,-0.00095639,-1.4878,0.00031062,0.00034029,-0.0019448,-0.00222,-0.00070053,0.00038624,-0.0015157,-0.0010722,-0.0029733,1.0828,-0.00056364,-0.0043481,-0.0013613,-0.0030371,-0.0013261,0.00016605,-0.0017478,-0.0043923,-0.00068047,0.001877,2.5737,-0.79538,-0.00099821,0.00091448,0.00081934,-0.001469,-0.0014923,-2.9353e-05,-0.00092877,-0.0017492,-0.0003995,-0.0022448
0.33805,0.00032345,-0.0031189,0.00039607,0.00014391,0.00052495,-0.00027924,-0.00012851,-0.00055122,-0.00012274,-0.0004956,-0.00010151,-0.00065042,-0.0010604,-0.0013036,-0.00048413,-0.002882,8.9677e-10,-0.0014177,-0.00073918,-0.00096323,0.0010557,-0.00040973,4.6696e-05,-0.00057639,-7.2201e-05,-0.0011003,-0.00068575,-0.00069512,-0.00010896,-4.6691e-05,-0.10448,0.00021007,-7.8794e-05,0.00074035,-0.00048863,-0.00064875,-0.00020019,-0.001338,-0.00085447,-9.8308e-05,0.00039765,-0.00084882,0.0043966,-0.00024019,-0.00032036,-0.0014164,-3.5291,-0.00075222,0.00032187,-0.00075588,-0.00068265,-0.00016272,0.00010551,-0.0025341,0.00025598,-0.0015249,-8.1186e-05,0.0014521,-0.0010336,-0.0010879,-0.00048893,-0.00066824,-9.4519e-05,-0.0017976,-0.0016531,-0.00058089,0.003948,0.00015152,-0.0010835,-0.0020853,-0.0012477,-0.0011494,-0.0011099,-0.0021318,-0.00038921,-0.00043067,0.00043153,-0.00071497,-6.6217,-0.0021096,-0.0007383,-0.0014898,-0.0013837,-0.00097233,0.0006496,-1.2759,-0.0010728,-0.0016291,-0.0003605,-0.0079043,-0.0010105,-0.0010869,-0.00057018,-0.00051846,-0.0002447,-0.0011002,-0.00053581,-0.0048589,-0.00059318,0.00021045,-0.00055729,0.00030472,-0.003039,-0.00031798,-5.2221e-05,0.0005233,-0.001172,-0.0035337,-0.008682,-0.0016755,-0.00024297,0.00054136,7.1281e-05,-0.00047835,-0.00076211,-0.0010452,-0.00076593,-0.001077,-0.0013247,0.00096227,0.00029199,-0.070687,-0.00022334,-0.0013141,0.00019998,-0.00054719,1.3086,-0.26289,-0.00040468,-3.1247,-0.00038329,-0.0018951,-0.0018968,-0.0014184,-0.00052001,-0.0025774,-0.00046038,-0.0011124,-0.00088175,-0.0016344,-0.012587,-0.00062632,-0.00087734,-0.00072687,-0.46513,-0.00095627,-0.00056873,-0.0005987,8.9356e-05,0.00039794,0.00059114,-0.000638,-1.4996,7.9288e-05,7.5219e-05,-0.001365,-0.0014671,-0.00050617,0.00015524,-0.00095663,-0.00084462,-0.0017086,1.1913,-0.00035499,-0.0039414,-0.00088203,-0.0019345,-0.00082856,4.2097e-05,-0.0011676,-0.0026825,-0.00047103,0.0010593,2.8985,-0.77477,-0.00058658,0.00039809,0.00047288,-0.00077608,-0.00091386,-6.0448e-05,-0.00056959,-0.001126,-0.0002898,-0.0014933
0.19039,0.00011835,-0.00090083,0.0001244,7.9346e-05,0.00016471,-0.00010716,-3.8066e-05,-0.00017336,-2.8189e-05,-0.00015509,-4.3233e-05,-0.00019908,-0.00033633,-0.00028714,-0.00014625,-0.00086714,9.5965e-05,7.8391e-10,-0.00021771,-0.00029679,0.00036389,-0.00012628,2.2902e-05,-0.00019697,-7.3301e-06,-0.00020737,-0.00019202,-0.00020535,-2.5702e-05,-6.2997e-07,-0.081285,8.1181e-05,3.2854e-07,0.00023326,-0.00014498,-0.0001873,-4.8076e-05,-0.00041176,-0.00025278,-2.6097e-05,0.00015198,-0.00028793,0.0093735,-5.1566e-05,-7.9429e-05,-0.00040999,-0.17791,-0.0002356,0.00010955,-0.00037886,-0.00021212,-3.0334e-05,5.113e-05,-0.00066448,0.00010783,-0.00046733,-1.3548e-05,0.00055464,-0.00031276,-0.00033099,-0.00012716,-0.00023238,-2.1421e-05,-0.00057677,-0.00049376,-0.00017759,0.0017023,5.906e-05,-0.00034959,-0.00062631,-0.0003646,-0.00036984,-0.00034519,-0.00054794,-9.7116e-05,-0.0001476,0.00014199,-0.00022062,-6.856,-0.00064291,-0.00026441,-0.00048378,-0.00046732,-0.00028851,0.00023798,-1.4386,-0.00033647,-0.00050177,-0.00010333,-0.0023237,-0.0003205,-0.00039749,-0.00016281,-0.00014762,-6.937e-05,-0.00035054,-0.00013822,-0.001304,-0.00016602,6.0955e-05,-0.00014962,0.00011303,-0.00090529,-0.00010027,1.2705e-05,0.00018957,-0.00037248,-0.0010896,-0.0016878,-0.00051787,-5.9557e-05,0.00021512,4.2243e-05,-0.00014061,-0.00023613,-0.00036926,-0.00024386,-0.0003786,-0.00040897,0.00034312,9.0162e-05,-0.0019512,-6.2915e-05,-0.00040432,7.8259e-05,-0.00018917,1.5519,-0.010277,-0.00011279,-3.8884,-0.00011964,-0.00064228,-0.00054593,-0.00045415,-0.00015515,-0.00073267,-0.00014102,-0.00035426,-0.00027473,-0.00046305,-0.0028054,-0.00017401,-0.00028138,-0.00021697,-0.0012143,-0.00026728,-0.0001872,-0.00016799,3.6201e-05,0.0001656,0.00024361,-0.00019198,-1.9463,5.0192e-05,4.0513e-05,-0.000359,-0.00037332,-0.00013301,5.2352e-05,-0.00029926,-0.00024371,-0.00050709,1.2308,-9.638e-05,-0.00135,-0.00029343,-0.00040614,-0.00024807,2.2866e-05,-0.00036761,-0.0008037,-0.00012934,0.00035528,2.4489,-0.16534,-0.0001978,0.00015006,0.00014197,-0.00024984,-0.00025324,4.0405e-06,-0.00017565,-0.0003411,-8.3567e-05,-0.00035173
1.906,0.00097299,-0.00713,0.0010211,0.00087904,0.0014558,-0.00084049,-0.00034433,-0.0012607,-7.3732e-05,-0.0011482,-0.00025985,-0.001364,-0.0026334,-0.003185,-0.00093788,-0.0058317,0.00011532,-0.0042658,1.0842e-09,-0.0022924,0.0029592,-0.00090015,0.00015989,-0.0013279,4.6693e-05,-0.0029529,-0.0015512,-0.0016658,-0.00016991,2.1015e-05,-0.061962,0.00073669,0.00013989,0.0018787,-0.0010485,-0.0015424,-0.00025678,-0.003191,-0.0020927,-0.00028328,0.001251,-0.0024281,0.011421,-0.00052291,-0.00073081,-0.0029791,-0.42461,-0.0019766,0.0010529,-0.0029734,-0.0015426,-0.00024064,0.00044817,-0.0039937,0.00083187,-0.0038146,-9.9189e-05,0.0065652,-0.0023837,-0.002683,-0.0010401,-0.0016722,-0.0002166,-0.004459,-0.0040559,-0.001288,0.0095203,0.00052045,-0.0029496,-0.0053082,-0.0030392,-0.0029032,-0.0026903,-0.0059194,-0.00077959,-0.0012536,0.0012251,-0.0017128,-6.6334,-0.0053396,-0.0022376,-0.003952,-0.0035783,-0.0023396,0.0018947,-1.4612,-0.0025761,-0.0044067,-0.00082331,-0.027382,-0.0024616,-0.0030313,-0.0012505,-0.0010939,-0.00055615,-0.0027299,-0.0012778,-0.016057,-0.0013174,0.00044062,-0.0011293,0.00079046,-0.00706,-0.00064653,0.00022965,0.0014758,-0.002768,-0.0091035,-0.010704,-0.0040911,-0.00043363,0.0018343,0.00046766,-0.0010351,-0.0016517,-0.0030995,-0.0016948,-0.0028872,-0.0030739,0.0025623,0.00099547,-0.043297,-0.00038538,-0.0034449,0.00092799,-0.0014596,1.4611,-1.1142,-0.00076621,-2.492,-0.00082586,-0.0048085,-0.0044215,-0.003743,-0.0011556,-0.0061751,-0.00091889,-0.0027919,-0.0022276,-0.0042116,-0.15442,-0.0014033,-0.0021631,-0.0017038,-0.0045935,-0.0023876,-0.001442,-0.0013504,0.00034904,0.0012201,0.0021049,-0.0014986,-1.3871,0.00044998,0.00051405,-0.0031381,-0.0033525,-0.00091552,0.00046574,-0.0023461,-0.0019939,-0.0040563,2.1923,-0.0008747,-0.0077456,-0.0020933,-0.0052633,-0.002118,0.00018575,-0.0026789,-0.0062429,-0.00087089,0.0026507,2.395,-1.1257,-0.0013593,0.0012724,0.0011622,-0.0019089,-0.0020609,-7.387e-05,-0.0013898,-0.0028217,-0.00067569,-0.0036602
0.31596,0.00023722,-0.0017194,0.00020834,0.00015752,0.00031455,-0.00021423,-7.8371e-05,-0.00032021,-3.6231e-05,-0.00028418,-9.8125e-05,-0.00035818,-0.00060671,-0.00077485,-0.00027138,-0.0016823,4.3089e-05,-0.00099777,-0.00037691,6.7402e-10,0.00061855,-0.00021377,3.8167e-05,-0.00036097,7.9454e-06,-0.00065407,-0.00034161,-0.00039716,-4.4846e-05,-3.5974e-05,-0.20281,0.00013508,1.7227e-05,0.00046032,-0.00026141,-0.00038217,-8.142e-05,-0.00075477,-0.00049271,-4.4426e-05,0.00028507,-0.00051993,0.0025667,-0.00013249,-0.00013253,-0.00071456,-0.029443,-0.00045136,0.00022371,-0.00088655,-0.00037133,-8.3519e-05,3.3494e-05,-0.0010694,0.00018069,-0.00085279,-2.566e-05,0.0010094,-0.00052258,-0.00061451,-0.00024872,-0.00042675,-1.3668e-05,-0.00092185,-0.0010375,-0.00032518,0.0025625,0.00010376,-0.00066687,-0.0012084,-0.00069918,-0.00074821,-0.00063776,-0.0013611,-0.0001767,-0.00029134,0.00027585,-0.00041284,-6.8042,-0.0012685,-0.00048452,-0.00093274,-0.00087465,-0.00057292,0.00044647,-1.2533,-0.00059089,-0.0010061,-0.00017192,-0.0058758,-0.00054949,-0.00067331,-0.00029995,-0.00027205,-0.00014376,-0.00063256,-0.00028197,-0.0033251,-0.00032709,0.00012105,-0.00029549,0.00021702,-0.0017368,-0.00016012,2.8807e-05,0.00038661,-0.00072326,-0.0021342,-0.0043982,-0.00099069,-0.0001069,0.00041376,6.7052e-05,-0.00026108,-0.00041676,-0.00072288,-0.00042029,-0.00070198,-0.00075982,0.00059105,0.00017831,-0.016896,-0.00011269,-0.00083302,0.00012388,-0.00042294,1.6837,-0.3949,-0.00022335,-2.4722,-0.00022191,-0.0012666,-0.0010598,-0.00086178,-0.0002756,-0.0014375,-0.00024266,-0.00067134,-0.00052752,-0.0010437,-0.017739,-0.0003331,-0.0005285,-0.00042204,-0.0017579,-0.00053935,-0.00035971,-0.00034967,4.4842e-05,0.00032372,0.00048305,-0.00034237,-2.3067,0.00012701,4.3988e-05,-0.00079228,-0.00075966,-0.00024408,0.00011567,-0.00052864,-0.00037761,-0.00096369,1.7209,-0.0001923,-0.0024327,-0.00053806,-0.0011276,-0.00047516,5.6307e-05,-0.00067777,-0.0014909,-0.00022899,0.00065094,2.4966,-1.2105,-0.00034875,0.00028693,0.00023395,-0.00045785,-0.00048385,-6.1722e-06,-0.00032338,-0.0006449,-0.00016179,-0.00094005
0.80669,0.00019561,-0.001477,0.0001966,0.00013352,0.00025206,-0.00013895,-7.2591e-05,-0.00025244,-2.9758e-05,-0.00021915,-4.9086e-06,-0.00026538,-0.00050463,-0.00057355,-0.00015179,-0.0010242,8.5323e-05,-0.00076025,-0.00027579,-0.00047576,7.517e-10,-0.0001772,1.3353e-05,-0.00025409,-3.2351e-07,-0.0005067,-0.00031728,-0.00031755,-4.9499e-05,3.2962e-05,-0.10032,0.00010618,3.8909e-05,0.00035447,-0.00019844,-0.00030801,-4.4543e-05,-0.00062136,-0.00040911,-4.5369e-05,0.00025001,-0.00042318,0.0022983,-8.8974e-05,-0.00014448,-0.00060144,-0.077278,-0.00035132,0.00018252,-0.00065055,-0.00030588,-5.4114e-05,8.9798e-05,-0.0010208,0.00017641,-0.00063344,-3.6112e-06,0.00089466,-0.00047141,-0.00051041,-0.00020375,-0.00032693,-3.4802e-05,-0.0010163,-0.00071177,-0.00025053,0.0025144,0.00011108,-0.00054543,-0.00094507,-0.00056945,-0.00047801,-0.00050419,-0.0011655,-0.00018347,-0.00021556,0.00023779,-0.00034332,-6.4969,-0.00097551,-0.00043866,-0.00069644,-0.00071045,-0.00044645,0.00036971,-1.1122,-0.00051005,-0.0008075,-0.0001676,-0.0046219,-0.00048538,-0.00057284,-0.00025322,-0.00020595,-0.00010118,-0.00048838,-0.00019277,-0.0022194,-0.0002428,9.452e-05,-0.000214,0.00016159,-0.0013258,-7.8187e-05,1.5125e-05,0.00028949,-0.00050346,-0.0017576,-0.0020124,-0.00082486,-6.8772e-05,0.00032467,9.5938e-05,-0.00018435,-0.00036163,-0.00057411,-0.00031613,-0.00056012,-0.00060696,0.00054582,0.00018878,-0.0081876,-7.0542e-05,-0.00065172,0.0001313,-0.00029021,1.7036,-0.28552,-0.00012598,-4.6414,-0.00013951,-0.00093895,-0.0008736,-0.00070198,-0.00023133,-0.0012627,-0.00018488,-0.00052343,-0.00040304,-0.00086991,-0.032609,-0.00028862,-0.00040217,-0.0003138,-0.0011191,-0.00043993,-0.00026078,-0.00026174,6.4218e-05,0.00027081,0.00040487,-0.00027344,-2.58,0.00010304,0.00019608,-0.00052056,-0.00062806,-0.00019213,8.86e-05,-0.00038908,-0.00035705,-0.0008391,1.4937,-0.00014124,-0.0016949,-0.00035782,-0.00084159,-0.00037414,1.8873e-05,-0.00049117,-0.0012579,-0.00019576,0.00049452,3.0177,-0.7912,-0.00026634,0.00025561,0.00021081,-0.00036776,-0.00037996,-2.4438e-05,-0.00024884,-0.0005097,-0.00012833,-0.00064798
0.3528,0.00032899,-0.0024188,0.00030581,0.00024546,0.00037111,-0.00032785,-0.00012939,-0.00046158,-6.4318e-05,-0.00040809,-0.00013588,-0.00049794,-0.00092869,-0.0011671,-0.00035383,-0.0023158,0.00010219,-0.0014955,-0.00056607,-0.00079533,0.00091995,1.1439e-09,2.3376e-05,-0.00052041,-4.4333e-06,-0.0010226,-0.00055179,-0.00061331,-8.7852e-05,-5.8662e-05,-0.075884,0.00016839,-3.7527e-05,0.00067108,-0.00034342,-0.00055725,-0.00012418,-0.0011258,-0.00073274,-9.0325e-05,0.0003838,-0.00078673,0.0033603,-0.00022966,-0.00023849,-0.0011455,-0.069757,-0.00067414,0.00032883,-0.0013699,-0.00054637,-9.9043e-05,8.5896e-05,-0.0017076,0.00027436,-0.0013145,-4.8804e-05,0.0014786,-0.00083745,-0.00093593,-0.00037279,-0.00060965,-8.2783e-05,-0.0014881,-0.0015185,-0.00048128,0.0041814,0.00014041,-0.0010188,-0.0017828,-0.0010587,-0.0010343,-0.00096276,-0.002003,-0.00028446,-0.00039054,0.00037515,-0.00061142,-6.4184,-0.001765,-0.00079808,-0.0012978,-0.0011813,-0.00082703,0.00061623,-1.3611,-0.00087665,-0.001524,-0.00031543,-0.008778,-0.00086729,-0.0010038,-0.00045319,-0.00040232,-0.00022671,-0.00094803,-0.00040953,-0.0037388,-0.00047001,0.00016088,-0.00041876,0.0002797,-0.0025564,-0.00025827,2.9487e-05,0.00045242,-0.0010059,-0.0031913,-0.0064185,-0.0014784,-0.00017002,0.00057834,0.00010446,-0.0003904,-0.00061428,-0.0010769,-0.0006319,-0.0010104,-0.0010639,0.00081452,0.00026517,-0.030584,-0.00013982,-0.00121,0.00018119,-0.00055961,1.5152,-0.17335,-0.00029007,-3.0745,-0.00030388,-0.0017275,-0.0015501,-0.0012337,-0.00042446,-0.0020785,-0.00040258,-0.0010264,-0.00082546,-0.001404,-0.042438,-0.00048952,-0.00074946,-0.0005975,-0.0029414,-0.00081533,-0.00055411,-0.00050132,9.8167e-05,0.00040963,0.00066692,-0.00052669,-2.1776,0.00012859,6.1594e-05,-0.0010976,-0.001155,-0.00034004,0.00013736,-0.00076414,-0.00062603,-0.0014245,1.1844,-0.00030751,-0.0029256,-0.00080533,-0.0017345,-0.00069402,8.3155e-05,-0.00093826,-0.0022127,-0.00033511,0.00091027,2.6016,-1.0157,-0.00050601,0.00040023,0.00037804,-0.00074521,-0.00074547,-6.051e-05,-0.00048275,-0.00093526,-0.00024879,-0.0011615
0.21541,0.00017246,-0.001195,0.00018604,0.00011648,0.00022302,-0.00013527,-3.9968e-05,-0.00024472,-2.1506e-05,-0.00020728,-6.8911e-05,-0.0002555,-0.00046652,-0.0005449,-0.00019381,-0.0011155,9.979e-05,-0.00064742,-0.00030125,-0.0004095,0.00048557,-0.00016397,9.4443e-10,-0.00027513,1.1426e-06,-0.00044814,-0.00025301,-0.00031615,-3.071e-05,5.0093e-06,-0.15781,9.1975e-05,-3.1096e-05,0.00035159,-0.00016371,-0.00028338,-5.8851e-05,-0.00056061,-0.0003788,-1.0918e-05,0.00021194,-0.00036849,0.0026182,-0.00013159,-7.9032e-05,-0.00055126,-0.07555,-0.00032621,0.00017432,-0.00053591,-0.00029543,-6.4041e-05,7.7571e-05,-0.00087723,0.00015158,-0.0006434,-1.1801e-05,0.00070359,-0.00043644,-0.00046349,-0.00018895,-0.00030456,-2.7588e-05,-0.00069606,-0.00072554,-0.00025061,0.0021376,7.9754e-05,-0.00049592,-0.0008832,-0.00050463,-0.00051703,-0.00049527,-0.00089714,-0.00010703,-0.00017435,0.00020571,-0.00031665,-6.3485,-0.00085374,-0.00036174,-0.00066929,-0.0006679,-0.00038154,0.00035325,-2.2433,-0.00045117,-0.00072127,-0.00012576,-0.0041028,-0.00041115,-0.00052846,-0.00023149,-0.00021139,-0.00011341,-0.00046432,-0.0001781,-0.0017675,-0.00022188,0.00010196,-0.0001982,0.00016652,-0.0013145,-9.8898e-05,1.7524e-05,0.00026782,-0.00051654,-0.0015982,-0.0062995,-0.0007273,-7.6408e-05,0.00029143,2.0693e-05,-0.00020017,-0.00030703,-0.00051345,-0.0002987,-0.00043754,-0.00054836,0.00044802,0.0001348,-0.019426,-6.6712e-05,-0.00057173,0.00010455,-0.000264,1.5541,-0.038788,-0.00013837,-4.4212,-0.00014216,-0.00088285,-0.00079392,-0.00062882,-0.00022789,-0.0011923,-0.00018113,-0.00050571,-0.00040126,-0.0006813,-0.0045213,-0.00024716,-0.00039992,-0.00029572,-0.0014797,-0.00040212,-0.00025127,-0.0002306,6.1673e-05,0.00022023,0.00035957,-0.00025752,-2.3172,6.6255e-05,7.2209e-05,-0.00055495,-0.00059875,-0.00018355,9.6807e-05,-0.00039306,-0.00030934,-0.00071009,1.2208,-0.00015135,-0.0013097,-0.00039138,-0.0008352,-0.00033168,5.0917e-05,-0.00048776,-0.0011541,-0.00018145,0.00048549,3.0633,-0.60587,-0.00024201,0.00021507,0.00018016,-0.00039959,-0.00036105,-1.6636e-05,-0.00024365,-0.00046091,-0.00011436,-0.00066494
0.75106,0.00024316,-0.0018288,0.00026306,0.00019334,0.00040019,-0.000228,-0.00010264,-0.00033568,-3.7868e-05,-0.00030537,-8.5133e-05,-0.00036004,-0.00068875,-0.00086064,-0.00026633,-0.0015602,0.00012214,-0.0010966,-0.00036069,-0.00060401,0.00076665,-0.00023087,2.1835e-05,1.1051e-09,-1.057e-05,-0.00078088,-0.00040343,-0.00046036,-6.3179e-05,-8.6586e-06,-0.064525,0.00016197,3.6821e-05,0.00045767,-0.00026952,-0.00041266,-7.767e-05,-0.0008385,-0.00054794,-6.994e-05,0.00030061,-0.00059725,0.0028887,-0.00017329,-0.00018391,-0.00083176,-0.067777,-0.00050803,0.00022382,-0.00072497,-0.00040571,-0.00012038,7.0505e-05,-0.0011337,0.00020648,-0.00096271,-3.107e-05,0.0012878,-0.00065342,-0.00069315,-0.00029099,-0.00041342,-8.6979e-05,-0.0012448,-0.0011398,-0.00034811,0.0025043,0.00012633,-0.00080706,-0.001328,-0.00080156,-0.00079094,-0.00071402,-0.0014711,-0.00021146,-0.00030264,0.00029962,-0.00046147,-6.4629,-0.0013598,-0.00060903,-0.00099701,-0.00094496,-0.00060735,0.00044556,-1.3099,-0.00064362,-0.0011329,-0.00023968,-0.0069878,-0.00063067,-0.00073796,-0.00033788,-0.00029418,-0.00015686,-0.00068944,-0.00031357,-0.0032912,-0.0003563,0.00011803,-0.00030836,0.00021035,-0.0019081,-0.00015611,2.9999e-05,0.00033981,-0.00072661,-0.0023257,-0.002994,-0.0011527,-0.00012477,0.00043574,9.3227e-05,-0.00027333,-0.00043559,-0.00079618,-0.00045644,-0.00072946,-0.00080542,0.00063549,0.00028347,-0.012386,-0.00010688,-0.00093678,0.00016336,-0.00039257,1.4326,-0.6993,-0.00021071,-2.7543,-0.00022131,-0.001269,-0.0012119,-0.0010056,-0.00031397,-0.0016256,-0.00024827,-0.00075271,-0.00059964,-0.0011396,-0.098262,-0.00037895,-0.00054937,-0.00044374,-0.001761,-0.00062091,-0.00037679,-0.00039093,6.3251e-05,0.00029709,0.00049263,-0.00039401,-1.9324,0.00010785,0.00011759,-0.00080929,-0.0008689,-0.00025254,0.00012589,-0.00057394,-0.0005248,-0.0010906,2.1461,-0.00023719,-0.0020287,-0.00048739,-0.0013659,-0.0005243,4.67e-05,-0.00068996,-0.0016523,-0.00024599,0.00068891,2.7814,-1.5551,-0.00035769,0.0002955,0.00032285,-0.00045676,-0.00054504,-2.5223e-05,-0.00036911,-0.00072808,-0.00018844,-0.00086874
0.6833,0.00041269,-0.0030644,0.00049001,0.00030056,0.00051094,-0.00036884,-0.00015296,-0.0005983,-8.5371e-05,-0.0005183,-0.00015442,-0.00067504,-0.0012156,-0.0014993,-0.00043028,-0.0029331,0.00013696,-0.0018912,-0.000777,-0.0010732,0.0012073,-0.0004114,5.946e-05,-0.00073058,1.1246e-09,-0.0012877,-0.0006402,-0.00081751,-0.00010648,-9.6807e-05,-0.40784,0.00020623,-0.00011976,0.00092137,-0.00046288,-0.00073116,-0.00017933,-0.0014847,-0.00095148,-0.00011515,0.00052366,-0.001024,0.0042503,-0.00025168,-0.00029539,-0.0014158,-0.19451,-0.00093814,0.00046775,-0.0016254,-0.00074292,-0.00012814,0.00013026,-0.0023428,0.00038453,-0.001694,-5.8686e-06,0.0019879,-0.0010995,-0.0012156,-0.00047145,-0.00084166,-0.0001172,-0.0017418,-0.0020332,-0.00062542,0.005212,0.00020833,-0.0013738,-0.0024397,-0.0013813,-0.0013376,-0.0012408,-0.0027925,-0.00035807,-0.00049224,0.0005348,-0.00078151,-6.5709,-0.0022753,-0.0010291,-0.0017155,-0.0017104,-0.0010157,0.00081813,-1.48,-0.0011715,-0.0019631,-0.00038803,-0.011646,-0.0011588,-0.0013538,-0.00058096,-0.00052158,-0.00031887,-0.0012519,-0.00051452,-0.0045467,-0.00060136,0.00025275,-0.00051706,0.00037036,-0.0032913,-0.00034469,2.3447e-05,0.00061685,-0.0013194,-0.0041384,-0.0077248,-0.0018776,-0.0002266,0.00077012,6.982e-05,-0.00048351,-0.00077714,-0.0014009,-0.00086743,-0.0013714,-0.0014373,0.0011333,0.00033508,-0.018825,-0.00016758,-0.001505,0.00023273,-0.0007194,1.6196,-0.13208,-0.00037103,-2.8922,-0.00036621,-0.0021729,-0.002093,-0.0015719,-0.00058662,-0.0028458,-0.00051176,-0.0013007,-0.0010586,-0.0018584,-0.08543,-0.0006158,-0.00097451,-0.00077644,-0.0040652,-0.0010263,-0.00071422,-0.00065188,0.0001443,0.00057359,0.00082852,-0.00068168,-1.7334,0.00016103,0.00010296,-0.0014037,-0.0015118,-0.00047911,0.0002087,-0.00099932,-0.00074702,-0.0019514,0.82314,-0.00038926,-0.004255,-0.0010812,-0.0022827,-0.00092453,0.00011987,-0.0012665,-0.0029196,-0.00046163,0.0012658,2.4796,-1.3059,-0.00069209,0.00053008,0.0005124,-0.0010152,-0.00096106,-8.978e-05,-0.00060179,-0.001214,-0.00029653,-0.001479
0.2802,0.00012117,-0.0012314,0.0001249,7.737e-05,0.00017104,-0.00014765,-5.1834e-05,-0.00024198,-5.5045e-05,-0.00020107,-8.1457e-05,-0.00026931,-0.00043856,-0.00038098,-0.00018496,-0.0012174,7.0707e-05,-0.00043909,-0.0002805,-0.00036842,0.00042093,-0.00016648,7.6942e-06,-0.00026287,-2.3263e-05,7.4557e-10,-0.00024697,-0.00026938,-5.3845e-05,-4.7426e-05,-0.10075,7.9791e-05,-6.6553e-06,0.00026414,-0.0001904,-0.00024913,-7.5128e-05,-0.00052898,-0.00032385,-4.5342e-05,0.00016566,-0.00034568,0.0055536,-8.6509e-05,-0.0001146,-0.0005326,-0.2123,-0.00031725,0.00013245,-0.00052981,-0.0002741,-4.4249e-05,2.7577e-05,-0.00077699,9.8095e-05,-0.00058103,-4.4017e-05,0.00061283,-0.00038696,-0.0004231,-0.00016341,-0.00030236,-4.1689e-05,-0.00068818,-0.00066165,-0.00022775,0.0019424,5.9504e-05,-0.00045468,-0.00080586,-0.00046163,-0.00047133,-0.00044824,-0.00090276,-0.00013605,-0.00019734,0.00014421,-0.00027291,-6.6024,-0.00082991,-0.00034276,-0.00059762,-0.00061617,-0.00038227,0.00028752,-1.3956,-0.00043498,-0.00064344,-0.00013676,-0.0033547,-0.00041897,-0.0004968,-0.00021145,-0.00019803,-0.00011137,-0.00044077,-0.00017754,-0.0016864,-0.00021773,6.4956e-05,-0.00017792,0.00013112,-0.0011782,-0.00014654,3.6198e-06,0.00017025,-0.00049405,-0.0014237,-0.0024887,-0.00065358,-8.1098e-05,0.00025414,4.7313e-05,-0.00018926,-0.00032525,-0.00047978,-0.00030159,-0.00047936,-0.0005165,0.00036385,8.738e-05,-0.0023009,-9.2163e-05,-0.00052638,8.9909e-05,-0.00025849,1.5276,-0.0055726,-0.00014892,-4.1959,-0.00016662,-0.00072459,-0.0007474,-0.00057135,-0.00021176,-0.00093592,-0.00020325,-0.00048051,-0.00037413,-0.00061462,-0.0038486,-0.00022201,-0.00036571,-0.00029391,-0.0015597,-0.00037364,-0.00025796,-0.00021317,3.4618e-05,0.00018545,0.00029867,-0.00026691,-2.0701,5.357e-05,3.0791e-05,-0.00049749,-0.00049462,-0.00017161,4.4888e-05,-0.00035202,-0.00031463,-0.00065374,1.0009,-0.00014213,-0.0018976,-0.00039042,-0.00052542,-0.00032811,2.2409e-05,-0.00048057,-0.001004,-0.00016696,0.00040052,2.7535,-0.82935,-0.00025504,0.00016456,0.00015275,-0.00032482,-0.00031619,-2.9285e-05,-0.00023471,-0.00044628,-0.00011772,-0.00039945
0.16458,0.00014615,-0.0010239,0.00015534,9.3709e-05,0.00019373,-0.00011858,-5.8219e-05,-0.00017881,-2.1607e-05,-0.0001612,-4.7301e-05,-0.00019734,-0.00035591,-0.00045391,-0.00015905,-0.00090945,4.6704e-05,-0.00058566,-0.0002265,-0.00031669,0.00039766,-0.00013046,3.457e-05,-0.00020854,2.6238e-05,-0.00040023,7.2587e-10,-0.0002042,-2.572e-05,-1.7335e-05,-0.13725,7.4914e-05,-1.3484e-05,0.00028473,-0.00013096,-0.00022599,-4.0202e-05,-0.00047489,-0.00025109,-2.8482e-05,0.0001658,-0.00029274,0.0012497,-6.144e-05,-6.7277e-05,-0.00045617,-0.91154,-0.00027231,0.00013882,-0.00047231,-0.00022402,-7.1793e-05,4.792e-05,-0.00065572,0.0001077,-0.00048612,1.1885e-06,0.0005718,-0.00033474,-0.00036947,-0.00010741,-0.00024036,-8.7134e-06,-0.00059509,-0.00060424,-0.00015553,0.001652,7.9931e-05,-0.00044498,-0.00071246,-0.00042406,-0.00043152,-0.00039758,-0.00083867,-9.6992e-05,-0.0001518,0.00017926,-0.00023762,-6.0446,-0.00068573,-0.00032953,-0.00052544,-0.0005473,-0.00032428,0.00024964,-1.0868,-0.0003795,-0.00058229,-0.00010848,-0.0041035,-0.00035,-0.00042175,-0.00014002,-0.00016084,-8.6356e-05,-0.00038709,-0.00016914,-0.0016372,-0.00018765,8.3652e-05,-0.00016015,0.00012459,-0.0010635,-8.4821e-05,2.011e-05,0.00020155,-0.00040261,-0.0012727,-0.00482,-0.00057198,-6.7893e-05,0.00023437,4.0224e-05,-0.00014258,-0.00023626,-0.00043955,-0.00024553,-0.00041332,-0.00044777,0.00036831,0.00011732,-0.084141,-5.6177e-05,-0.00048934,7.7414e-05,-0.00022002,1.5543,-0.22154,-0.00011313,-4.1588,-0.00011263,-0.00066618,-0.00063817,-0.00059293,-0.00016964,-0.00090996,-0.00014517,-0.00040797,-0.00032819,-0.00057092,-0.012985,-0.0001617,-0.00030657,-0.00023883,-0.001064,-0.00032501,-0.00020019,-0.00019676,5.0815e-05,0.00020248,0.00027397,-0.00020349,-1.5768,6.5721e-05,4.3982e-05,-0.00044425,-0.00042024,-0.00013881,7.368e-05,-0.00030365,-0.0002578,-0.00057456,1.5629,-0.00012406,-0.0014995,-0.00030581,-0.00068393,-0.00028852,2.2477e-05,-0.00039034,-0.00079986,-0.0001385,0.00040462,2.4911,-0.542,-0.00022128,0.00017591,0.00015093,-0.00028132,-0.0002528,-2.306e-05,-0.00019184,-0.00039537,-8.7998e-05,-0.00061298
0.36513,6.8573e-05,-0.0006137,6.4913e-05,4.5216e-05,8.7102e-05,-7.1725e-05,-3.036e-05,-0.00010664,-1.9079e-05,-9.8115e-05,-3.1781e-05,-0.00011585,-0.00020568,-0.00024321,-9.0669e-05,-0.00052338,3.4649e-05,-0.00030459,-0.000126,-0.00017939,0.00021316,-7.6106e-05,4.2169e-07,-0.00012393,-8.184e-06,-0.00020296,-0.00010304,6.4977e-10,-1.9385e-05,-2.4553e-05,-0.040672,3.9558e-05,-7.4608e-06,0.00013852,-8.3876e-05,-0.00012173,-3.2197e-05,-0.00026063,-0.00014798,-1.8319e-05,8.5546e-05,-0.00016985,0.00086513,-3.7462e-05,-5.7775e-05,-0.00026334,-0.28197,-0.00014971,6.6795e-05,-0.00029621,-0.00012944,-2.9217e-05,2.1276e-05,-0.00037173,5.561e-05,-0.00028296,-1.0899e-05,0.00033142,-0.00018968,-0.00020723,-7.115e-05,-0.00014125,-1.1976e-05,-0.00032949,-0.00032444,-9.7023e-05,0.00094692,3.1647e-05,-0.00022849,-0.00039299,-0.00022574,-0.00023395,-0.00021639,-0.00044315,-6.0338e-05,-9.4225e-05,8.2324e-05,-0.00013178,-6.4227,-0.00040841,-0.00017722,-0.00030009,-0.00028369,-0.00018594,0.00013996,-1.41,-0.00020661,-0.00032674,-6.52e-05,-0.0018097,-0.00019775,-0.00023982,-9.2666e-05,-9.0952e-05,-4.6051e-05,-0.00021261,-0.00010095,-0.0007984,-0.00010474,3.514e-05,-9.2486e-05,6.6903e-05,-0.000563,-6.21e-05,5.1063e-06,9.7729e-05,-0.00022952,-0.00073839,-0.0011316,-0.0003141,-3.9346e-05,0.000123,2.2953e-05,-9.0765e-05,-0.0001459,-0.00023195,-0.00014961,-0.00023265,-0.00025706,0.00019364,5.1797e-05,-0.0091263,-4.1067e-05,-0.00026447,4.3256e-05,-0.00011901,1.5416,-0.02709,-6.508e-05,-3.215,-7.1478e-05,-0.00039574,-0.00035625,-0.00028918,-9.5595e-05,-0.00047043,-9.1745e-05,-0.00022297,-0.00017779,-0.00032761,-0.012846,-0.00010017,-0.00017568,-0.00013862,-0.00060638,-0.00017138,-0.00012027,-0.00010857,2.2165e-05,0.00010058,0.00016053,-0.00011621,-1.6744,2.6955e-05,1.868e-05,-0.00023341,-0.00024526,-8.3136e-05,2.89e-05,-0.00018199,-0.00014976,-0.00031716,1.1523,-6.8135e-05,-0.00075314,-0.00018102,-0.00034508,-0.00016052,9.4857e-06,-0.00022296,-0.00046651,-8.2854e-05,0.00020254,2.5372,-0.71205,-0.00012394,9.2076e-05,7.8391e-05,-0.00016075,-0.00015468,-1.3054e-05,-0.00011568,-0.00021641,-5.3403e-05,-0.00029695
0.44479,0.00034255,-0.0028587,0.00037896,0.00024604,0.00042851,-0.0003206,-0.00014066,-0.00049679,-7.8795e-05,-0.00046154,-0.00013048,-0.00059061,-0.0010098,-0.0012335,-0.00037799,-0.0025123,0.00015446,-0.0015185,-0.00061629,-0.00087951,0.00096786,-0.00035971,4.2555e-05,-0.00059009,-1.7784e-05,-0.0010699,-0.00060009,-0.00065749,8.2214e-10,-0.00011922,-0.14237,0.00018175,-5.9896e-06,0.00072023,-0.00039724,-0.00059847,-0.00015278,-0.0012338,-0.00079134,-7.7924e-05,0.00043686,-0.00085366,0.0044823,-0.00020432,-0.00025327,-0.0012306,-0.10746,-0.00073005,0.00036183,-0.0010975,-0.00062959,-0.00011262,0.00011889,-0.0020188,0.00027576,-0.0014174,-6.0204e-05,0.0017411,-0.00090588,-0.0010141,-0.0004053,-0.00068381,-8.6531e-05,-0.001714,-0.0016313,-0.00053416,0.0038535,0.00015988,-0.0011292,-0.001915,-0.0011094,-0.0011303,-0.00099564,-0.0021063,-0.00027232,-0.00043172,0.0004069,-0.0006916,-6.4188,-0.0019783,-0.00081292,-0.0014286,-0.0013255,-0.00087758,0.00067114,-1.4205,-0.00096506,-0.0015736,-0.00032692,-0.0081933,-0.00093697,-0.0011564,-0.00049965,-0.00044596,-0.00022738,-0.0010176,-0.00044856,-0.004283,-0.00049732,0.00016852,-0.00047547,0.00029723,-0.0028012,-0.00030955,1.5726e-05,0.00051629,-0.0011145,-0.0034293,-0.0052465,-0.0015468,-0.00018182,0.00060651,8.5252e-05,-0.00042934,-0.0006781,-0.0011289,-0.00068618,-0.0010728,-0.0012483,0.00096098,0.00027843,-0.01315,-0.0001791,-0.0012502,0.00021012,-0.00058742,1.5689,-0.15294,-0.00032465,-3.4911,-0.00029373,-0.0020056,-0.0016551,-0.0012959,-0.00046075,-0.0023418,-0.00040902,-0.001075,-0.00085862,-0.0015568,-0.07475,-0.00052904,-0.00084964,-0.00065632,-0.0028414,-0.00086979,-0.0005752,-0.00053773,9.3781e-05,0.00047893,0.00070951,-0.00058859,-1.7364,0.00013832,7.6536e-05,-0.0011822,-0.0012544,-0.00040534,0.00013034,-0.00086412,-0.00068826,-0.0016018,1.0969,-0.00033397,-0.0032282,-0.00090257,-0.0018023,-0.00075259,7.8619e-05,-0.0011018,-0.0024524,-0.00038264,0.00098839,2.6394,-0.83005,-0.00057659,0.00044814,0.00042256,-0.00078425,-0.00079944,-3.9321e-05,-0.00055026,-0.0010347,-0.00026901,-0.0013407
0.68257,0.00092708,-0.0051844,0.00093083,0.00066558,0.0012366,-0.0006385,-0.00023859,-0.0010559,-4.2338e-05,-0.00091576,-0.00018292,-0.001032,-0.002068,-0.0025739,-0.00091145,-0.0048827,0.00045228,-0.0030217,-0.0013246,-0.0019572,0.0026622,-0.00070986,0.00026235,-0.0011954,8.8639e-05,-0.0021865,-0.0012514,-0.001428,-0.00017598,1.2042e-09,-0.11678,0.00057916,0.00011269,0.0016504,-0.00085573,-0.0013658,-0.00019372,-0.0027269,-0.0016995,-0.00014092,0.0010641,-0.0018825,0.011026,-0.00039507,-0.00052625,-0.0027307,-0.084232,-0.00155,0.0010257,-0.0023755,-0.0012862,-0.00026693,0.00036528,-0.004124,0.00072372,-0.0029505,2.3345e-05,0.0038424,-0.0020863,-0.0022215,-0.00083795,-0.0014379,-7.574e-05,-0.0034589,-0.0029681,-0.001144,0.0097296,0.00045176,-0.0023729,-0.0041374,-0.0024791,-0.0024296,-0.0023236,-0.0043259,-0.00070486,-0.00092011,0.0010563,-0.0013782,-6.4171,-0.0038831,-0.0015533,-0.0030395,-0.0025658,-0.0019347,0.0015946,-1.7697,-0.0020796,-0.0033621,-0.00072246,-0.016778,-0.0021402,-0.002449,-0.0010331,-0.00092496,-0.00054832,-0.0022371,-0.00092529,-0.0072078,-0.0009894,0.00049313,-0.00086128,0.0007015,-0.0057913,-0.00041373,0.00013619,0.0012328,-0.0022122,-0.0073484,-0.012201,-0.003415,-0.00028465,0.001461,0.00042617,-0.00082655,-0.0014306,-0.002217,-0.0014724,-0.0023332,-0.0024782,0.0020824,0.00072853,-0.024486,-0.00031863,-0.0027186,0.00048493,-0.0012602,1.37,-0.10537,-0.00068604,-4.3831,-0.00069082,-0.0040811,-0.0035492,-0.0029655,-0.00086993,-0.0048628,-0.00075892,-0.0023264,-0.0017867,-0.0031021,-0.062253,-0.0011206,-0.0016887,-0.0013759,-0.0059341,-0.0018847,-0.0011736,-0.0011095,0.00029947,0.0009413,0.0016346,-0.0011128,-2.006,0.00042562,0.00035833,-0.0023605,-0.002596,-0.00077786,0.00034413,-0.0018456,-0.0014008,-0.0031822,1.4007,-0.00066543,-0.0062854,-0.0017916,-0.0037996,-0.0015506,0.00021826,-0.0020821,-0.005314,-0.00081013,0.0023665,2.8473,-1.141,-0.0010978,0.0010983,0.0010053,-0.0016965,-0.0016229,1.7486e-05,-0.0010697,-0.0021737,-0.0005175,-0.0026521
0.52804,0.000213,-0.0024849,0.0002244,0.00016886,0.000404,-0.00029828,-0.00013954,-0.00050055,-8.488e-05,-0.00044324,-0.00021898,-0.00051227,-0.0010139,-0.0011387,-0.00040389,-0.0026576,7.2955e-05,-0.0014128,-0.00051116,-0.00074741,0.00068616,-0.00032793,3.7444e-05,-0.00052411,-0.00011954,-0.00097248,-0.00050853,-0.00055773,-0.00012013,-0.00017262,1.0743e-09,0.00012375,6.4632e-06,0.00048918,-0.00038534,-0.00051729,-0.00016078,-0.0010664,-0.00070141,-0.00013422,0.00028677,-0.00073803,0.0032589,-0.00025362,-0.00018883,-0.0010414,-0.93266,-0.00050703,0.00032812,-0.001011,-0.00056857,-0.00017348,0.00010516,-0.00084617,0.00019678,-0.0012472,-0.00011351,0.001464,-0.00077783,-0.00085058,-0.00039448,-0.00062457,-0.00014435,-0.0011797,-0.0017138,-0.00048259,0.0027772,6.0001e-05,-0.00098667,-0.0017917,-0.0010604,-0.00094847,-0.00085998,-0.0018826,-0.00024705,-0.00039426,0.0002821,-0.0005922,-7.0061,-0.0017686,-0.00064729,-0.0012777,-0.001178,-0.00075548,0.00050782,-1.6963,-0.00079464,-0.001586,-0.00024809,-0.012818,-0.00080096,-0.00095928,-0.00043109,-0.00043577,-0.00025949,-0.00087512,-0.00041603,-0.013578,-0.00042867,4.1588e-05,-0.00037805,0.00020212,-0.0025685,-0.00037476,-4.0301e-06,0.00019107,-0.0010129,-0.0031398,-0.0034662,-0.0013615,-0.00017904,0.00052708,0.00010143,-0.0004507,-0.00065517,-0.00091208,-0.00058693,-0.000969,-0.0010774,0.00061644,0.00021383,-0.18715,-0.00019872,-0.0012397,0.00016619,-0.00046003,1.4434,-1.3887,-0.00036174,-0.54063,-0.0003187,-0.0014853,-0.0014656,-0.0012952,-0.00044686,-0.0017822,-0.00045843,-0.00099367,-0.00082296,-0.0016738,-0.01426,-0.00046812,-0.00082764,-0.00059311,-0.0025048,-0.00081372,-0.00052212,-0.00041341,8.1604e-05,0.00027937,0.00057761,-0.00046681,-1.9376,4.2228e-05,9.515e-05,-0.001364,-0.0011204,-0.00033402,8.2092e-05,-0.00071592,-0.00069808,-0.0014414,2.3299,-0.00033521,-0.030732,-0.00083183,-0.0017883,-0.00075877,4.5056e-05,-0.0009686,-0.002119,-0.00029402,0.00070606,3.0399,-0.034647,-0.00053214,0.00028017,0.00024906,-0.00055331,-0.00074837,-5.892e-05,-0.00053245,-0.00094172,-0.00030552,-0.00087609
0.70302,0.00063467,-0.0049616,0.00069348,0.00060295,0.00098622,-0.00059181,-0.00020378,-0.00098089,-0.000134,-0.00091315,-0.00026357,-0.0011356,-0.002081,-0.0024801,-0.00080248,-0.0049045,0.00038494,-0.0029199,-0.0011008,-0.0017824,0.0020271,-0.00073525,1.8528e-05,-0.0010962,-8.6235e-05,-0.0020493,-0.0012742,-0.0013347,-0.00020984,-3.0055e-05,-0.11254,1.0503e-09,0.00014103,0.0013342,-0.00082045,-0.0011718,-0.00026008,-0.0024788,-0.0015697,-0.00021676,0.00087924,-0.0017334,0.011282,-0.00036982,-0.0005067,-0.0027275,-0.18058,-0.001409,0.00073844,-0.00193,-0.0012331,-0.000146,0.00021216,-0.0033185,0.00057697,-0.0028731,-0.00014366,0.0036955,-0.0019743,-0.0020322,-0.00085063,-0.0012572,-0.00020137,-0.0033531,-0.0030416,-0.0010851,0.0088167,0.00036115,-0.0021841,-0.0038933,-0.0023089,-0.0022819,-0.0021185,-0.0040719,-0.00054342,-0.00089525,0.00088865,-0.0013842,-6.1748,-0.0038387,-0.0016929,-0.0029621,-0.0027399,-0.0017168,0.0013935,-1.9353,-0.0018334,-0.0032441,-0.00063192,-0.016808,-0.0020671,-0.0023323,-0.00099216,-0.00090399,-0.0004531,-0.0020256,-0.00099061,-0.0085735,-0.00098639,0.00036431,-0.00085151,0.00061276,-0.0057101,-0.00055062,0.00013327,0.00097866,-0.0022358,-0.007591,-0.0077121,-0.0031665,-0.00034492,0.001351,0.00034089,-0.0008276,-0.0014405,-0.0022672,-0.0013466,-0.0022786,-0.0023893,0.0019699,0.00063841,-0.018517,-0.00032738,-0.0027162,0.00045869,-0.0012288,1.4393,-0.30914,-0.00083878,-3.0682,-0.00062512,-0.0037758,-0.0034614,-0.0029462,-0.00091444,-0.0045037,-0.00077669,-0.0021938,-0.001765,-0.0030594,-0.027606,-0.001106,-0.0018047,-0.0013253,-0.0055606,-0.0019181,-0.0010348,-0.0011551,0.00019133,0.00089378,0.0015847,-0.0011608,-2.617,0.00025251,0.00024778,-0.0023298,-0.0023522,-0.00070549,0.00025472,-0.0018163,-0.0015222,-0.0032439,1.5665,-0.00067607,-0.0054094,-0.0016575,-0.0036846,-0.0016277,0.00015896,-0.0021534,-0.0049732,-0.00067902,0.0019039,2.7502,-1.1588,-0.0011678,0.00095199,0.00077346,-0.0014449,-0.0016338,-4.2393e-05,-0.0010979,-0.0021169,-0.00055754,-0.0026232
0.92721,0.0011347,-0.0095147,0.0010566,0.00056804,0.0016966,-0.0010786,-0.00052016,-0.0015504,-0.0002424,-0.0015383,-0.00048828,-0.0018523,-0.00356,-0.0042745,-0.001119,-0.0090133,0.00011468,-0.0050091,-0.0017642,-0.0026918,0.0037186,-0.0012449,-7.5592e-05,-0.0016794,-0.00028186,-0.0033633,-0.0020923,-0.0022275,-0.00025769,-2.9997e-05,-0.05229,0.00090173,1.1752e-09,0.0019982,-0.0014448,-0.0019887,-0.00039176,-0.0040023,-0.0027126,-0.0003699,0.0013868,-0.0034647,0.016017,-0.00058945,-0.00079437,-0.0040831,-0.046219,-0.0019805,0.0013082,-0.0040602,-0.0020638,-0.00047948,0.00014296,-0.0053239,0.00074851,-0.004527,-0.00030573,0.0067471,-0.0029175,-0.0033117,-0.001397,-0.0022402,-0.00030444,-0.0057453,-0.00506,-0.0019196,0.011292,0.00046759,-0.0038544,-0.0063844,-0.0037497,-0.0041207,-0.0033096,-0.0069225,-0.0010953,-0.0015579,0.00138,-0.0022714,-6.5705,-0.0066165,-0.002277,-0.0051088,-0.0042702,-0.0030486,0.0023714,-0.92769,-0.003177,-0.0054194,-0.0012052,-0.03486,-0.0029773,-0.0039616,-0.0017741,-0.0014143,-0.00064728,-0.0032639,-0.001542,-0.016327,-0.001566,0.00044066,-0.0014805,0.00091462,-0.0099155,-0.00084476,7.3022e-05,0.0015915,-0.0037699,-0.011414,-0.010549,-0.0054673,-0.00048045,0.0019815,0.0005323,-0.0014455,-0.0023142,-0.0037771,-0.0019837,-0.003518,-0.0040588,0.0030643,0.0011052,-0.093021,-0.00060151,-0.0045898,0.00077845,-0.0023544,1.2126,-0.7235,-0.001156,-2.9026,-0.0011254,-0.0078094,-0.0057565,-0.0048087,-0.0014429,-0.0070544,-0.0012263,-0.0036707,-0.0028339,-0.0055612,-0.034312,-0.0019787,-0.0030814,-0.0021587,-0.0072593,-0.0032229,-0.0018225,-0.0018314,0.00025916,0.0018623,0.0026231,-0.0018457,-1.534,0.00079262,0.00023028,-0.0040451,-0.0043286,-0.0012258,0.00040218,-0.0028619,-0.0016713,-0.0053182,2.7377,-0.0011815,-0.012234,-0.0026852,-0.0059825,-0.0024392,0.00011551,-0.0036712,-0.0077786,-0.0012726,0.0032259,2.2336,-1.8764,-0.0019454,0.0014146,0.0016785,-0.0019364,-0.0023303,-0.00010485,-0.0018192,-0.0036127,-0.0010397,-0.0040705
0.45783,0.00010265,-0.0010651,9.13e-05,6.3541e-05,0.00012677,-0.00010462,-3.9684e-05,-0.00017628,-3.3382e-05,-0.00013869,-5.2305e-05,-0.00019285,-0.00032391,-0.00040955,-0.00012079,-0.0010037,6.6059e-05,-0.000536,-0.00020874,-0.00027988,0.00029552,-0.00011106,3.5404e-06,-0.00019745,-5.958e-07,-0.00036796,-0.00019598,-0.00022108,-3.1944e-05,-4.6515e-05,-0.077247,4.6497e-05,-2.9266e-05,1.112e-09,-0.00013699,-0.00020534,-5.3258e-05,-0.00041007,-0.00026075,-3.4439e-05,0.00011792,-0.00028169,0.0010369,-7.76e-05,-8.697e-05,-0.00039736,-0.30605,-0.00025627,0.00011814,-0.00034985,-0.00020724,-3.6763e-05,2.2861e-05,-0.00065453,9.2838e-05,-0.0004616,-2.784e-05,0.00051502,-0.00029392,-0.00032839,-0.00013421,-0.00021914,-3.5159e-05,-0.00048868,-0.0005148,-0.00017232,0.0012773,4.8208e-05,-0.00035786,-0.00060888,-0.00037075,-0.00037814,-0.00034418,-0.00069669,-0.00010155,-0.00015287,0.00013615,-0.00021938,-6.3714,-0.00065188,-0.00026805,-0.00044523,-0.00043047,-0.00030753,0.00021652,-1.5719,-0.00030275,-0.00052742,-0.00010764,-0.0031372,-0.00030131,-0.00035685,-0.00016817,-0.00014545,-8.3566e-05,-0.0003313,-0.00013929,-0.0013087,-0.00017692,7.1437e-05,-0.00015908,9.6593e-05,-0.00093068,-0.00010062,1.4337e-06,0.00014416,-0.00036618,-0.0011514,-0.0033978,-0.00050772,-7.1575e-05,0.00019366,2.877e-05,-0.00014068,-0.00023016,-0.00037386,-0.00023072,-0.00035251,-0.00039434,0.000287,8.9684e-05,-0.02857,-6.2413e-05,-0.00041392,6.8367e-05,-0.00020083,1.5462,-0.51612,-0.00010511,-3.5334,-0.00011008,-0.00061871,-0.00055707,-0.00044305,-0.00017158,-0.00075043,-0.00015215,-0.00037437,-0.0003017,-0.00048886,-0.042282,-0.00017728,-0.00025758,-0.00021837,-0.0011444,-0.00030203,-0.0001934,-0.00018549,3.2895e-05,0.00013242,0.00022897,-0.00020053,-1.6862,3.4278e-05,2.2901e-05,-0.00039964,-0.00040594,-0.00012983,4.2211e-05,-0.00028781,-0.00023969,-0.00049173,1.0567,-0.00011342,-0.0012408,-0.00029548,-0.00061931,-0.00026092,3.6419e-05,-0.00035148,-0.00081625,-0.00012372,0.000314,2.5697,-1.3708,-0.00018495,0.00013057,0.00012182,-0.00026533,-0.00027091,-3.1454e-05,-0.00017027,-0.00034602,-9.4344e-05,-0.00043361
0.099916,0.00010368,-0.00077663,0.00010716,7.0355e-05,0.00011396,-8.5618e-05,-4.0499e-05,-0.00014073,-1.1899e-05,-0.00012752,-4.3744e-05,-0.00014714,-0.00028566,-0.0003646,-0.00011713,-0.00064547,1.9632e-05,-0.00047851,-0.00017492,-0.00025629,0.00029246,-9.5043e-05,1.8097e-05,-0.00016245,-2.423e-06,-0.00032943,-0.00016064,-0.00018429,-2.4465e-05,-2.9095e-05,-0.15137,5.5211e-05,-1.4388e-05,0.00019692,1.1502e-09,-0.00017231,-3.2947e-05,-0.00034841,-0.00022571,-1.8367e-05,0.00011512,-0.00022772,0.0010407,-5.6532e-05,-6.2314e-05,-0.00034448,-0.030398,-0.00021283,0.00010488,-0.00037784,-0.00017538,-3.1084e-05,2.8273e-05,-0.00058076,8.5301e-05,-0.00038599,-7.3459e-06,0.00045371,-0.00025963,-0.00028601,-0.00011156,-0.00018165,-2.1193e-05,-0.00044438,-0.00047586,-0.000145,0.001196,4.8498e-05,-0.00031765,-0.00055957,-0.0003196,-0.00031467,-0.00029865,-0.00062592,-8.1838e-05,-0.00011162,0.00011776,-0.00018787,-6.6506,-0.00054987,-0.00024518,-0.00039687,-0.0004081,-0.00024798,0.00019803,-1.5251,-0.00027625,-0.00046139,-8.7477e-05,-0.0033565,-0.00026949,-0.00032344,-0.0001362,-0.00012238,-6.9881e-05,-0.00028279,-0.00012671,-0.0013023,-0.00013711,5.7966e-05,-0.00012753,9.1281e-05,-0.00080974,-7.4508e-05,1.2161e-05,0.00014987,-0.00030074,-0.00098762,-0.0019482,-0.00043863,-4.8585e-05,0.00017209,2.523e-05,-0.00011579,-0.00018799,-0.00032067,-0.00019387,-0.00031498,-0.00032616,0.00025313,7.8941e-05,-0.029724,-4.19e-05,-0.00037788,5.8572e-05,-0.00016918,1.57,-0.19879,-8.0099e-05,-3.5013,-8.7573e-05,-0.00053773,-0.00049851,-0.00038612,-0.000123,-0.00065341,-0.00011587,-0.00030507,-0.00024347,-0.00040732,-0.026095,-0.00014959,-0.00023727,-0.00018345,-0.00077255,-0.00026019,-0.00015941,-0.00016072,3.3639e-05,0.00013178,0.00021792,-0.00016557,-2.3203,3.8105e-05,2.6442e-05,-0.00033586,-0.00036325,-0.00010948,4.4414e-05,-0.0002369,-0.00017144,-0.00046111,1.3411,-9.6794e-05,-0.00084773,-0.00024424,-0.00056829,-0.00021516,2.1045e-05,-0.00028218,-0.00068302,-0.00010428,0.00027606,2.804,-1.1748,-0.00015832,0.00013209,0.00011209,-0.00024065,-0.00022956,-1.6785e-05,-0.00014982,-0.00027737,-6.9546e-05,-0.0003825
0.54076,0.00010936,-0.0009237,0.00010771,8.7676e-05,0.00014955,-0.00012675,-4.5801e-05,-0.0001796,-3.3943e-05,-0.000163,-5.6028e-05,-0.00020722,-0.00037735,-0.00042137,-0.00013712,-0.00091652,4.4968e-05,-0.00051337,-0.0002076,-0.00030691,0.00032722,-0.00012636,1.3541e-06,-0.00020184,-1.2935e-05,-0.00035596,-0.00020981,-0.00022534,-3.5086e-05,-5.1089e-05,-0.037198,6.8982e-05,-6.0408e-06,0.00022391,-0.00014481,7.7531e-10,-5.5504e-05,-0.00042735,-0.00027269,-3.5703e-05,0.00014031,-0.00029791,0.0013529,-7.3088e-05,-9.9065e-05,-0.00044276,-0.090079,-0.00023555,0.00011988,-0.00044219,-0.0002132,-5.3357e-05,3.133e-05,-0.00067336,9.6724e-05,-0.00049708,-2.724e-05,0.00057799,-0.00031373,-0.00035351,-0.00014225,-0.00023043,-3.0841e-05,-0.00057129,-0.00057648,-0.00018476,0.0016236,4.7457e-05,-0.00037173,-0.00065458,-0.00039346,-0.00041181,-0.00036432,-0.00075417,-0.00010631,-0.00016624,0.00012955,-0.00023212,-6.4889,-0.0006982,-0.00029885,-0.00050615,-0.00047423,-0.00030879,0.00022367,-1.4157,-0.00034389,-0.00056971,-0.00010957,-0.0029333,-0.00033506,-0.00040274,-0.00017155,-0.00015644,-8.0052e-05,-0.00035127,-0.00016029,-0.0014929,-0.00017664,5.0011e-05,-0.0001566,0.0001041,-0.00097784,-0.00011762,3.7061e-06,0.00016105,-0.00038762,-0.0012058,-0.0018176,-0.00055233,-6.5915e-05,0.00020753,3.3519e-05,-0.00015804,-0.0002402,-0.00040527,-0.00024581,-0.00037103,-0.00042797,0.00031546,8.7506e-05,-0.0050748,-6.4633e-05,-0.00043723,7.0639e-05,-0.00020113,1.5199,-0.071941,-0.00010727,-3.0037,-0.00011605,-0.00065619,-0.00058131,-0.00049467,-0.00017078,-0.00078046,-0.00015989,-0.00038462,-0.00030815,-0.00051712,-0.010838,-0.00018564,-0.00029727,-0.0002266,-0.00098065,-0.00030375,-0.00019997,-0.0001935,3.2832e-05,0.00015688,0.00026763,-0.00020818,-1.9906,4.1325e-05,1.4167e-05,-0.00041996,-0.00042716,-0.00013616,3.9523e-05,-0.0003141,-0.00023286,-0.00052711,1.3602,-0.00011779,-0.0013956,-0.00031557,-0.00062758,-0.0002715,2.2623e-05,-0.0003791,-0.00084074,-0.00013268,0.00031695,2.7216,-0.60413,-0.00020409,0.00015438,0.00014881,-0.00026981,-0.00028171,-2.0272e-05,-0.00019336,-0.00036958,-9.7679e-05,-0.00046137
0.38282,0.00029108,-0.0018576,0.00031199,0.0002257,0.00034563,-0.00022301,-0.00010411,-0.00034241,-1.3018e-05,-0.00030154,-9.2287e-05,-0.00033052,-0.00072876,-0.00086305,-0.00026447,-0.0017658,7.0229e-05,-0.001134,-0.00041832,-0.00064038,0.00083332,-0.00023707,4.6371e-05,-0.00039124,8.1746e-06,-0.00079992,-0.00041383,-0.00046856,-5.3238e-05,1.8226e-05,-0.092827,0.00017206,1.2415e-05,0.00054096,-0.00025227,-0.00043153,1.0937e-09,-0.00087556,-0.00056907,-5.6565e-05,0.00032104,-0.00063204,0.0030784,-0.00015864,-0.00017374,-0.00083552,-0.048012,-0.00052165,0.00030756,-0.0010142,-0.00041147,-4.8314e-05,0.00010875,-0.001411,0.00024654,-0.0010049,-2.2164e-05,0.0012179,-0.00067322,-0.0007295,-0.00028404,-0.000443,-3.5746e-05,-0.0011665,-0.0010887,-0.00035815,0.0030754,0.00014289,-0.00081198,-0.0013803,-0.00081834,-0.0007894,-0.00075383,-0.0015451,-0.00024013,-0.0003037,0.00032713,-0.00049646,-6.4942,-0.001372,-0.00064987,-0.0010374,-0.00099209,-0.0006452,0.00051275,-1.7127,-0.00069508,-0.0011652,-0.00023125,-0.007497,-0.0006841,-0.00078987,-0.00033428,-0.00030056,-0.00016102,-0.00073366,-0.00031684,-0.0034601,-0.00035311,0.0001633,-0.000323,0.00022432,-0.0019741,-0.00016109,5.8206e-05,0.00039099,-0.00075521,-0.0025459,-0.0044033,-0.0011529,-0.00011438,0.00049906,0.00013143,-0.00026844,-0.00043021,-0.00082227,-0.00049213,-0.00079479,-0.0007853,0.00068104,0.0002363,-0.025341,-9.0759e-05,-0.00095262,0.00016401,-0.00043186,1.4905,-0.33209,-0.00020712,-3.483,-0.00021716,-0.001373,-0.0012564,-0.00097689,-0.00028003,-0.0016537,-0.00026173,-0.0007653,-0.0006078,-0.0011158,-0.089696,-0.00038856,-0.00057674,-0.00046028,-0.0016301,-0.0006203,-0.00040719,-0.00036306,0.00011842,0.00035773,0.00055547,-0.00039554,-2.126,0.00011384,0.00010856,-0.00084771,-0.00088948,-0.00024302,0.00012425,-0.00059201,-0.00052647,-0.0011352,0.98452,-0.00023294,-0.002331,-0.00061256,-0.0014236,-0.00053764,6.2375e-05,-0.00068263,-0.0018191,-0.00023458,0.00073899,2.414,-1.4952,-0.00037949,0.00034357,0.00028814,-0.00057592,-0.00056728,-1.5098e-05,-0.00035743,-0.00071138,-0.00017462,-0.0011905
0.39637,0.0012351,-0.0077094,0.0012962,0.00087477,0.0015529,-0.0010081,-0.00036173,-0.0014829,-0.00013877,-0.0013348,-0.00031217,-0.0016419,-0.0030821,-0.0039376,-0.0010991,-0.0080384,0.00034633,-0.0049446,-0.0018987,-0.0027012,0.0034131,-0.0010493,0.00030155,-0.0018134,0.00012271,-0.0034112,-0.001873,-0.0020593,-0.00017955,-0.00010327,-0.18408,0.00073396,-1.398e-05,0.0023249,-0.0011672,-0.0018759,-0.00033227,9.6783e-10,-0.0024922,-0.00020769,0.0015027,-0.0026723,0.01148,-0.00062638,-0.0006834,-0.0035973,-0.14709,-0.0022395,0.001119,-0.004342,-0.0019009,-0.00023307,0.00043083,-0.0060626,0.0010767,-0.0044184,-2.7865e-05,0.006266,-0.0027808,-0.0031406,-0.0012495,-0.0020851,-0.00019741,-0.0045936,-0.0050641,-0.0016297,0.013152,0.00057184,-0.0034569,-0.0059229,-0.0035697,-0.0034456,-0.0032035,-0.0066079,-0.00083099,-0.0013289,0.001439,-0.0021522,-6.4318,-0.006016,-0.0025686,-0.0045176,-0.0042928,-0.002647,0.0023479,-1.5195,-0.0029104,-0.0050861,-0.00094585,-0.031314,-0.0029013,-0.0034931,-0.0015265,-0.0012897,-0.00071322,-0.0031474,-0.0014476,-0.016457,-0.0014952,0.00068623,-0.0013322,0.0010332,-0.0084827,-0.00078376,0.0001922,0.0019541,-0.0034139,-0.011279,-0.017425,-0.0049365,-0.00039471,0.0021318,0.00032501,-0.0012432,-0.0020322,-0.0035824,-0.0021783,-0.0034247,-0.0037209,0.0031899,0.00097924,-0.064245,-0.00036486,-0.0039201,0.00066573,-0.0018771,1.6264,-0.28682,-0.00091205,-3.178,-0.00081334,-0.0058217,-0.0053578,-0.0041468,-0.0014215,-0.0072086,-0.0012935,-0.0033028,-0.0026219,-0.0046509,-0.15739,-0.0016417,-0.0026938,-0.0019886,-0.0088822,-0.0027134,-0.0017615,-0.0015997,0.00041885,0.0016173,0.0024606,-0.0016797,-2.0874,0.00055784,0.00043891,-0.0036262,-0.0040112,-0.0011393,0.00061716,-0.0026729,-0.0021187,-0.004842,1.2327,-0.00096798,-0.012757,-0.0027754,-0.0059987,-0.0023234,0.00029598,-0.0032643,-0.0075811,-0.0011022,0.0033862,2.4171,-1.0928,-0.0017113,0.0015185,0.0012622,-0.0025678,-0.002415,-3.6447e-05,-0.0016084,-0.0031303,-0.00074817,-0.0040064
0.32601,0.0002038,-0.0016129,0.00021411,0.00014602,0.00026331,-0.00021291,-8.8469e-05,-0.00030662,-4.7662e-05,-0.00027931,-9.511e-05,-0.00035043,-0.00061329,-0.00072162,-0.00025246,-0.0015789,9.2462e-05,-0.00088504,-0.00038307,-0.00053218,0.00060305,-0.0002168,1.4256e-05,-0.00036131,-6.5048e-06,-0.00059237,-0.00028549,-0.00035355,-5.2732e-05,-4.9693e-05,-0.10117,0.00012933,-2.3717e-05,0.00042702,-0.00024676,-0.00036177,-8.7613e-05,-0.00075545,6.1647e-10,-5.0209e-05,0.00027049,-0.00049901,0.0025481,-0.00012687,-0.00016266,-0.00075832,-0.52257,-0.00044357,0.00021171,-0.00087448,-0.00037505,-7.5561e-05,4.8965e-05,-0.0011007,0.00017771,-0.00084168,-2.86e-05,0.0010176,-0.00054754,-0.00060649,-0.00018464,-0.00040889,-3.8667e-05,-0.00093764,-0.00094423,-0.00027541,0.0027321,9.8901e-05,-0.00068639,-0.0011666,-0.00067789,-0.00067818,-0.00065141,-0.0012731,-0.00017778,-0.00026998,0.00025196,-0.0003886,-6.4035,-0.0011677,-0.00052125,-0.0008669,-0.00082387,-0.00053988,0.00041102,-1.4968,-0.00059116,-0.0009631,-0.0001959,-0.0054281,-0.00059074,-0.00068439,-0.0002532,-0.00025513,-0.00014557,-0.00063147,-0.00028321,-0.0024783,-0.00030603,0.0001134,-0.00026152,0.00019058,-0.0017334,-0.00019172,2.4705e-05,0.00030848,-0.00068426,-0.0021813,-0.0044124,-0.00094234,-0.00010718,0.00038017,5.5738e-05,-0.00025901,-0.00041941,-0.00070481,-0.00042937,-0.00068828,-0.00072662,0.00057493,0.00015701,-0.014092,-0.00011046,-0.00080157,0.00011692,-0.00037325,1.5382,-0.026906,-0.0001952,-3.1882,-0.00019761,-0.0011335,-0.0010563,-0.00083378,-0.00028302,-0.0013595,-0.00027684,-0.00066199,-0.00052842,-0.00091402,-0.018397,-0.00027344,-0.00050147,-0.00040589,-0.0020859,-0.00053196,-0.00036101,-0.00031454,6.5484e-05,0.00030268,0.00047323,-0.00035034,-1.4571,9.5894e-05,4.2526e-05,-0.0006947,-0.00072821,-0.00023427,9.4782e-05,-0.000518,-0.0004416,-0.00093077,0.88568,-0.00020361,-0.0029468,-0.00055221,-0.0010038,-0.00047141,3.7032e-05,-0.00065755,-0.0013671,-0.00023068,0.0006107,2.2695,-0.64558,-0.000366,0.00025979,0.00024056,-0.00050524,-0.00044002,-2.8172e-05,-0.00033971,-0.00064144,-0.00015721,-0.00085898
0.29004,0.00024244,-0.002119,0.00026758,0.00020174,0.00033377,-0.00027267,-0.00011244,-0.00040868,-6.5805e-05,-0.00036193,-0.00014799,-0.00045468,-0.00081026,-0.00098882,-0.00035375,-0.0019603,0.00010702,-0.001213,-0.00051269,-0.00067407,0.00072365,-0.0002939,4.0051e-05,-0.00047262,-4.2054e-05,-0.00083515,-0.00048101,-0.00051865,-7.912e-05,-0.00010193,-0.30214,0.00012229,-4.179e-05,0.00051263,-0.00029629,-0.00048252,-0.00013293,-0.00096529,-0.00062126,1.0094e-09,0.0003021,-0.00065074,0.0034755,-0.00019057,-0.00018613,-0.00097431,-0.39182,-0.00058018,0.00027749,-0.0011128,-0.00049064,-0.00013066,5.4265e-05,-0.0015484,0.00020332,-0.0010483,-4.8541e-05,0.0011378,-0.00066634,-0.00076012,-0.00032406,-0.0005434,-6.2718e-05,-0.0011693,-0.0012748,-0.00042816,0.0042083,0.00010372,-0.00084855,-0.0015024,-0.00085039,-0.0009031,-0.00080218,-0.0013695,-0.00023213,-0.00033096,0.00031601,-0.00052598,-6.684,-0.0014487,-0.0006672,-0.0011098,-0.0011411,-0.00068724,0.00051643,-1.3691,-0.00072893,-0.0012438,-0.00023986,-0.0064326,-0.00073599,-0.00088816,-0.00040183,-0.00034829,-0.00020819,-0.00077847,-0.00036603,-0.0036379,-0.00039051,0.00012912,-0.00033881,0.00024122,-0.0021821,-0.00026132,-3.1979e-06,0.00040548,-0.00088299,-0.0027286,-0.0051883,-0.0012637,-0.00014768,0.00044168,4.3234e-05,-0.00034178,-0.00055801,-0.00086098,-0.00054968,-0.00079331,-0.0009722,0.00067946,0.00018365,-0.018883,-0.00015182,-0.0009816,0.00013557,-0.00045089,1.4493,-0.25354,-0.00025836,-2.8058,-0.0002772,-0.0014127,-0.0013034,-0.0010308,-0.00036769,-0.0017457,-0.00037331,-0.00084564,-0.00068097,-0.0012306,-0.016198,-0.00041631,-0.00065111,-0.00051899,-0.0024118,-0.00067704,-0.00046069,-0.00042072,7.5086e-05,0.00034785,0.00057707,-0.00044051,-1.6962,8.1522e-05,4.6044e-05,-0.00096314,-0.0009935,-0.00033242,9.5489e-05,-0.0006272,-0.00046766,-0.0012714,1.2592,-0.00026566,-0.0029362,-0.00070154,-0.0014672,-0.00057049,5.8725e-05,-0.00085364,-0.0019068,-0.00031963,0.00075148,2.5256,-0.95793,-0.00045306,0.00032571,0.00034009,-0.00061445,-0.00061986,-5.1275e-05,-0.00043607,-0.00077719,-0.00022241,-0.00097561
0.49791,0.00015363,-0.0011687,0.00015665,0.00012888,0.0002153,-0.00010907,-3.7652e-05,-0.00019568,-3.2526e-05,-0.00017231,-3.0587e-05,-0.00022653,-0.00038733,-0.00045156,-0.00014225,-0.00089307,6.8645e-05,-0.00058378,-0.0002273,-0.00034497,0.00047052,-0.00013647,2.3327e-05,-0.00021517,1.3853e-05,-0.00039252,-0.00023618,-0.00025201,-1.6901e-05,7.2769e-06,-0.13941,9.9509e-05,-1.8401e-06,0.00028759,-0.00015983,-0.00022759,-5.0566e-05,-0.00049099,-0.00030215,-2.2481e-05,8.3987e-10,-0.00032401,0.0023381,-0.00010278,-9.7633e-05,-0.00050198,-0.62498,-0.00031518,0.00015143,-0.00040918,-0.00022569,-4.0165e-05,5.8387e-05,-0.00069063,0.00013442,-0.00056092,-9.2043e-06,0.00085327,-0.00034839,-0.00039925,-0.00015129,-0.00027088,-1.6338e-05,-0.00076443,-0.0006059,-0.0001991,0.0018554,7.059e-05,-0.00041522,-0.00076969,-0.00044712,-0.00044078,-0.00041041,-0.00085441,-0.00012395,-0.00015421,0.00019522,-0.00026175,-6.7912,-0.00076352,-0.0003412,-0.00057059,-0.00056011,-0.00035139,0.00028161,-1.1934,-0.00038304,-0.00060194,-0.00012171,-0.0032285,-0.00037539,-0.00042756,-0.00019442,-0.00016286,-8.4502e-05,-0.00039334,-0.00016773,-0.0021806,-0.00019121,7.6374e-05,-0.00017427,0.00013966,-0.0010494,-0.00010848,2.0356e-05,0.00024144,-0.00041485,-0.0013983,-0.0015097,-0.0006239,-6.6184e-05,0.0002723,5.227e-05,-0.00015712,-0.00026663,-0.00044136,-0.00025984,-0.00042764,-0.0004725,0.00042016,0.00013814,-0.0027357,-5.6686e-05,-0.00041252,8.8109e-05,-0.00023859,1.4987,-0.39531,-0.0001133,-3.6754,-0.00010924,-0.00086319,-0.0006509,-0.00051493,-0.00016411,-0.0008826,-0.00015104,-0.00043449,-0.00033994,-0.00065083,-0.0612,-0.00019918,-0.00033093,-0.00025607,-0.0012085,-0.00032393,-0.00021217,-0.00019365,6.0715e-05,0.00020605,0.00029633,-0.00021393,-1.9415,0.00010126,5.0739e-05,-0.00042408,-0.00045668,-0.00015044,7.3259e-05,-0.00034008,-0.00030193,-0.00059355,0.89621,-0.00010434,-0.0013712,-0.00032109,-0.00070687,-0.00030548,2.8955e-05,-0.00042983,-0.00099561,-0.00013436,0.00041484,2.6667,-0.83063,-0.00024037,0.00018743,0.0001844,-0.00029369,-0.0003001,7.2703e-06,-0.00020447,-0.00041682,-8.2791e-05,-0.00046168
0.28387,0.0001196,-0.001122,0.00011635,8.7176e-05,0.00015091,-0.00016178,-6.8141e-05,-0.00026088,-4.9584e-05,-0.00022045,-8.083e-05,-0.00026862,-0.00045065,-0.00055149,-0.00019622,-0.0010339,5.2379e-05,-0.00074467,-0.00029533,-0.00037379,0.00039929,-0.00016302,8.8168e-06,-0.00026474,-2.6471e-05,-0.00047092,-0.0002384,-0.00028297,-5.6967e-05,-6.7301e-05,-0.01074,6.6629e-05,-6.3464e-05,0.00026713,-0.00017042,-0.00027098,-8.7857e-05,-0.0005373,-0.00034116,-4.0993e-05,0.00015545,1.0023e-09,0.0022274,-0.00010523,-0.00010072,-0.0005605,-0.006715,-0.00033797,0.0001421,-0.00071445,-0.0002721,-7.5483e-05,1.5572e-05,-0.0008277,0.00011638,-0.00058862,-2.7813e-05,0.00063097,-0.00037779,-0.00043678,-0.00018013,-0.00030628,-5.7115e-05,-0.00059722,-0.00077184,-0.00022958,0.0017453,5.6044e-05,-0.00048856,-0.00082265,-0.0004766,-0.0005075,-0.00046892,-0.0010714,-0.00014529,-0.00019836,0.00016653,-0.00030024,-6.4184,-0.00077341,-0.00036323,-0.00058861,-0.00057875,-0.00037816,0.00028514,-1.8334,-0.0004471,-0.00073046,-0.00014183,-0.0047894,-0.00040844,-0.00048276,-0.00022155,-0.00022373,-0.00012326,-0.00044597,-0.00018907,-0.001436,-0.00022834,5.9361e-05,-0.00021157,0.00014034,-0.0012748,-0.00014075,-7.7834e-06,0.00021212,-0.0005174,-0.0014743,-0.0041108,-0.00072775,-8.8667e-05,0.00024035,3.932e-05,-0.00021301,-0.00034393,-0.00047294,-0.00030483,-0.00049331,-0.0005269,0.00035871,8.0798e-05,-0.0095471,-9.4995e-05,-0.00054974,7.2348e-05,-0.00027133,1.5669,-0.10772,-0.0001527,-3.7394,-0.00012576,-0.00082219,-0.0006781,-0.00060047,-0.00022776,-0.0010428,-0.00022594,-0.0005077,-0.00039662,-0.00071121,-0.0056353,-0.00022437,-0.00037187,-0.00029981,-0.0012832,-0.00038645,-0.00025231,-0.0002425,2.8139e-05,0.00018614,0.00031618,-0.00026535,-2.2888,4.51e-05,3.5572e-05,-0.00058229,-0.00053543,-0.00018132,5.2651e-05,-0.00035571,-0.00030853,-0.00068999,0.98555,-0.00015484,-0.001522,-0.00039285,-0.0008619,-0.00033791,1.8455e-05,-0.00048294,-0.0010439,-0.00017942,0.00037581,2.771,-0.64693,-0.00026377,0.00014686,0.00013863,-0.000376,-0.00035501,-4.7417e-05,-0.00026029,-0.00044177,-0.000122,-0.00057782
1.1283,0.00018817,-0.0018857,0.00020171,0.00013646,0.00025827,-0.00018138,-8.0595e-05,-0.00034753,-5.8732e-05,-0.00034245,-0.00011433,-0.00038866,-0.00066542,-0.00070714,-0.00029878,-0.001513,7.8926e-05,-0.00079744,-0.00036227,-0.00057776,0.0006675,-0.0002771,2.162e-05,-0.00038291,-7.5208e-05,-0.00051608,-0.00047768,-0.0004399,-8.7727e-05,-3.355e-05,-0.0068492,0.00018031,4.7395e-05,0.00033008,-0.000306,-0.00041524,-0.00011567,-0.00081354,-0.00052446,-7.0463e-05,0.00027998,-0.00053636,1.0022e-09,-0.00011135,-0.00018318,-0.00086866,-0.24377,-0.00047782,0.00025145,-0.00065757,-0.00044038,-3.7864e-05,1.3271e-05,-0.0012587,0.00016246,-0.00092544,-4.2028e-05,0.00086808,-0.00064667,-0.00067857,-0.00029649,-0.00043714,-7.2003e-05,-0.0010944,-0.0010478,-0.00036324,0.0049918,8.6586e-05,-0.0007449,-0.0013479,-0.00071249,-0.00075618,-0.0006524,-0.0013482,-0.00023992,-0.00034904,0.00024046,-0.00043743,-6.9788,-0.001198,-0.000461,-0.0010369,-0.00087886,-0.00057055,0.00045379,-1.7296,-0.00063223,-0.001007,-0.0002372,-0.0058272,-0.00060719,-0.00075526,-0.00034319,-0.00029711,-0.00015334,-0.00069773,-0.00028487,-0.0029406,-0.0003261,5.376e-05,-0.00022888,0.00014765,-0.0018623,-0.00014835,-1.7773e-05,0.00029891,-0.00072612,-0.0024717,-0.0035933,-0.0010174,-0.00012626,0.00037776,0.00011078,-0.00029622,-0.00046664,-0.00067871,-0.00042898,-0.00073063,-0.00079192,0.0005929,0.00015096,-0.0040133,-0.00014809,-0.00086178,0.0001309,-0.0003934,1.3729,-0.54332,-0.00021694,-4.9732,-0.00017887,-0.0013988,-0.0012065,-0.0008765,-0.00032194,-0.0013473,-0.00024746,-0.00071424,-0.00055012,-0.0011876,-0.0032684,-0.00037683,-0.00059614,-0.00045948,-0.0010268,-0.00065846,-0.00037259,-0.00036057,1.5141e-05,0.0002772,0.0004369,-0.00039913,-0.9352,9.1162e-05,0.0001098,-0.00083529,-0.00081073,-0.00027052,7.4314e-05,-0.00061061,-0.0004243,-0.00098642,1.5206,-0.00024193,-0.0018495,-0.00056351,-0.0010622,-0.00046653,5.1854e-05,-0.00074481,-0.0016424,-0.00027613,0.00053857,3.2121,-1.1779,-0.00041578,0.00026716,0.00030735,-0.00047258,-0.00050844,-4.843e-05,-0.00039258,-0.00069589,-0.00020566,-0.0004454
0.6536,8.2361e-05,-0.0010248,9.1259e-05,5.3485e-05,0.00015039,-0.00014038,-5.0696e-05,-0.00019793,-4.088e-05,-0.000182,-6.651e-05,-0.0002309,-0.00037723,-0.00048196,-0.00016864,-0.00099931,4.1498e-05,-0.00055722,-0.00021748,-0.00031978,0.00032161,-0.00015178,-2.841e-05,-0.00023315,-1.9371e-05,-0.00040222,-0.0002213,-0.00024009,-4.8672e-05,-6.6101e-05,-0.3205,5.9844e-05,-1.8879e-06,0.00022037,-0.00015322,-0.00022168,-7.4652e-05,-0.00045903,-0.00029533,-5.1265e-05,0.00010052,-0.00031648,0.0016472,9.3984e-10,-9.986e-05,-0.0004857,-0.43278,-0.00027094,0.00011449,-0.0005025,-0.00024077,-5.3167e-05,2.4969e-05,-0.00080642,8.0734e-05,-0.00050404,-3.5399e-05,0.00051669,-0.00033621,-0.0003598,-0.0001597,-0.00025031,-4.8418e-05,-0.00051982,-0.00062938,-0.00021152,0.0013854,5.0625e-05,-0.00038856,-0.00070448,-0.00041757,-0.00042954,-0.00036918,-0.00080565,-0.00011159,-0.0001651,0.00013145,-0.00022721,-6.3664,-0.00071065,-0.00027356,-0.00053671,-0.00050702,-0.00031496,0.00023476,-1.6394,-0.00035801,-0.0006148,-0.00012425,-0.0043627,-0.00034924,-0.00043788,-0.00019591,-0.00018215,-8.9848e-05,-0.00036906,-0.00017522,-0.0013987,-0.00018136,4.5827e-05,-0.00017555,9.8827e-05,-0.0010375,-0.00011958,-2.0105e-05,0.000147,-0.00043526,-0.0013318,-0.0014797,-0.0005992,-7.7865e-05,0.00018645,2.8703e-05,-0.00018133,-0.0002704,-0.00039664,-0.00026201,-0.00042858,-0.00048411,0.00030447,6.6364e-05,-0.014545,-8.2893e-05,-0.00047848,7.1498e-05,-0.00020019,1.4787,-0.13628,-0.00012048,-3.1067,-0.00012681,-0.00065627,-0.00061389,-0.00052592,-0.00019883,-0.00087169,-0.00017415,-0.00040927,-0.00032403,-0.00059978,-0.015748,-0.00020465,-0.0003009,-0.00024313,-0.00091636,-0.00033642,-0.00020584,-0.0002198,1.3441e-05,0.00013756,0.00026183,-0.00022445,-1.5115,2.7932e-05,4.0844e-05,-0.00048457,-0.00046718,-0.00016257,3.1096e-05,-0.00032961,-0.00019501,-0.00055673,1.2577,-0.00014009,-0.0015571,-0.00035465,-0.00069029,-0.00028103,1.2927e-05,-0.00041942,-0.00086901,-0.00016832,0.00030938,2.4312,-1.0867,-0.00022271,0.00015874,0.0001386,-0.00025953,-0.00030011,-3.4798e-05,-0.00020732,-0.00038247,-0.00011213,-0.00050405
0.41,7.6462e-05,-0.00075535,9.2871e-05,5.7695e-05,0.00012206,-8.3464e-05,-3.5449e-05,-0.00013523,-2.199e-05,-0.00013287,-5.8566e-05,-0.00015613,-0.00027709,-0.00033291,-0.00012288,-0.00065629,2.2443e-05,-0.00040132,-0.0001895,-0.00023011,0.00024177,-9.9516e-05,2.2288e-05,-0.00016717,-1.088e-05,-0.00028528,-0.00014602,-0.00019005,-3.0082e-05,-4.7002e-05,-0.088794,4.6028e-05,-8.7676e-06,0.00018455,-0.00010062,-0.00017157,-4.548e-05,-0.00033335,-0.00022228,-2.0648e-05,0.00010183,-0.00021434,0.0011471,-5.8694e-05,1.0283e-09,-0.00034928,-0.061128,-0.00019775,7.5427e-05,-0.00025523,-0.00017607,-5.0915e-05,1.4085e-05,-0.00050561,6.7469e-05,-0.00036357,-1.0936e-05,0.00039237,-0.00024373,-0.00026686,-0.00011448,-0.00018969,-2.0916e-05,-0.0004084,-0.0004388,-0.00014326,0.0010974,3.5248e-05,-0.0003155,-0.00051148,-0.00029702,-0.0003185,-0.00028314,-0.00057675,-7.4986e-05,-0.00010611,0.00012478,-0.00018407,-6.627,-0.00051226,-0.00020002,-0.00037592,-0.00035693,-0.00023403,0.00018095,-1.4124,-0.00025962,-0.00042988,-8.1585e-05,-0.0033005,-0.00024432,-0.00031164,-0.00013644,-0.00012632,-7.0179e-05,-0.00027299,-9.9047e-05,-0.0010625,-0.00014245,4.9244e-05,-0.00013519,8.6246e-05,-0.00077287,-8.1799e-05,1.3026e-07,0.0001286,-0.00031261,-0.00093737,-0.0019892,-0.00043633,-5.0685e-05,0.00015772,1.1451e-05,-0.00011906,-0.00019616,-0.00029546,-0.00018105,-0.00029686,-0.00034172,0.000227,5.9279e-05,-0.0058008,-5.053e-05,-0.00035547,4.3008e-05,-0.00016655,1.5229,-0.10277,-8.382e-05,-3.0902,-9.3647e-05,-0.0005013,-0.00044824,-0.00040716,-0.00013913,-0.0006492,-0.00012306,-0.00030584,-0.00024278,-0.0003687,-0.0029541,-0.00014245,-0.00024562,-0.00017708,-0.00086087,-0.00023166,-0.00014526,-0.0001423,2.1121e-05,0.00012107,0.00019191,-0.00014939,-1.8804,3.4525e-05,2.0133e-05,-0.00035558,-0.0003328,-0.00011123,4.8226e-05,-0.00022524,-0.00017355,-0.00042069,1.5157,-9.4386e-05,-0.00069608,-0.00023903,-0.00048238,-0.00019564,2.2203e-05,-0.00029512,-0.00066307,-0.00010608,0.0002788,2.4848,-0.90797,-0.00016094,9.644e-05,0.00010495,-0.00021114,-0.00023946,-1.9276e-05,-0.00014922,-0.00026551,-7.2531e-05,-0.00044146
0.18585,0.00012092,-0.00097574,0.0001708,8.3801e-05,0.0001651,-0.00011373,-6.2814e-05,-0.00018299,-1.4246e-05,-0.00016381,-4.9434e-05,-0.00019622,-0.00041003,-0.00042998,-0.00013469,-0.0010021,4.0109e-05,-0.00054937,-0.00024052,-0.00033792,0.00042286,-0.00013881,4.0693e-05,-0.00023336,7.3914e-06,-0.00036527,-0.00021836,-0.00025278,-2.785e-05,-2.5213e-05,-0.10543,6.4362e-05,-8.7077e-06,0.00028488,-0.00014507,-0.00024765,-4.4631e-05,-0.00045802,-0.0003018,-2.717e-05,0.00016161,-0.0003149,0.0016951,-9.4174e-05,-9.9996e-05,8.0166e-10,-0.019956,-0.00030769,0.00014941,-0.00044829,-0.0002245,-1.4937e-05,5.7752e-05,-0.00097824,0.00012021,-0.00053565,-1.0404e-05,0.00064456,-0.00032135,-0.00038327,-0.00014873,-0.00025389,-1.3326e-05,-0.00050677,-0.00054044,-0.00019499,0.0016534,7.256e-05,-0.00043008,-0.00071091,-0.00043436,-0.00037082,-0.00036541,-0.00074922,-0.00010211,-0.00014581,0.00017453,-0.00024457,-5.9421,-0.00066556,-0.00031037,-0.00054204,-0.00050498,-0.00029983,0.0002725,-1.3966,-0.00036685,-0.00055256,-0.00012768,-0.0026662,-0.0003488,-0.00042199,-0.00018866,-0.00015778,-9.698e-05,-0.00041166,-0.00018466,-0.0019697,-0.00017368,7.6007e-05,-0.00017231,0.00011263,-0.0010656,-0.00010633,1.8124e-05,0.0002343,-0.0004062,-0.0013866,-0.0025749,-0.0005473,-6.2137e-05,0.00025505,2.4007e-05,-0.0001471,-0.00022131,-0.00043543,-0.00027796,-0.00041993,-0.0004449,0.0003878,9.973e-05,-0.0096407,-4.0206e-05,-0.0004816,8.2102e-05,-0.00026059,1.5918,-0.0099005,-0.00010814,-4.0071,-0.00010845,-0.00070815,-0.00065071,-0.00044179,-0.00016153,-0.00093096,-0.00017188,-0.00036611,-0.00028755,-0.00061447,-0.12343,-0.00020086,-0.00030342,-0.00025558,-0.00096388,-0.00032772,-0.00023071,-0.00018398,6.3033e-05,0.00015974,0.00032279,-0.0002201,-2.4871,6.4554e-05,5.937e-05,-0.00042634,-0.00051858,-0.00015284,8.4024e-05,-0.0003436,-0.00025404,-0.00067358,1.015,-0.00011808,-0.0014685,-0.00034032,-0.0006138,-0.00029582,3.1184e-05,-0.00037521,-0.00093916,-0.00014298,0.00039799,2.6815,-0.56011,-0.00019422,0.00016425,0.00014105,-0.00034262,-0.00030284,-9.9787e-06,-0.00018571,-0.00036643,-9.0479e-05,-0.00062077
