0,1,2,3,4,5,6,7,8,9,10,11,12,13,14,15,16,17,18,19,20,21,22,23,24,25,26,27,28,29,30,31,32,33,34,35,36,37,38,39,40,41,42,43,44,45,46,47,48,49,50,51,52,53,54,55,56,57,58,59,60,61,62,63,64,65,66,67,68,69,70,71,72,73,74,75,76,77,78,79,80,81,82,83,84,85,86,87,88,89,90,91,92,93,94,95,96,97,98,99,100
1,-0.30704,0.00011019,-0.0058599,0.0009732,-0.099816,-0.039865,-0.0012023,-0.043467,0.0073607,-0.021143,0.093088,0.0064473,-0.045624,0.0082552,0.00085034,-0.0043471,0.01346,0.043135,0.58938,-0.32056,-0.00022422,-0.18537,-0.031279,-0.17882,-0.070981,-0.013695,0.15331,0.033643,-0.027469,-0.016673,0.0076825,-0.12327,-0.0089743,0.29583,0.011757,-0.034798,-0.022259,-0.00025696,0.0017516,-0.22317,0.010606,0.035025,-0.014151,-0.0019285,0.013357,-0.67866,0.028089,-6.4798e-06,0.066604,-1.8397e-05,0.019212,-0.016191,0.00682,0.011826,0.11916,-1.0652e-05,0.013057,0.021643,0.0064678,0.21148,0.097288,0.20138,0.002706,-0.26697,0.064893,0.028447,-0.032674,-0.014558,-0.031743,-0.028263,-0.005882,0.093497,0.038225,0.035207,-0.032134,0.014128,-0.014993,0.034392,0.00051034,0.020608,0.00093865,-0.068704,0.051416,-0.04618,-0.00040576,0.0076805,0.00038889,-0.026595,-0.0037583,-0.026854,0.063613,-0.0098174,0.0021162,0.00016816,0.17026,0.002234,0.036088,-0.090461,-0.0046795,-0.05902
2,0.00039729,-0.023954,-0.0068319,-0.0045096,0.0018129,-0.0023378,0.0015999,0.0033754,-0.0041476,-0.0056488,-0.0015492,0.012419,-0.016924,-0.00076833,0.0038427,-0.0072424,0.00036852,0.00036142,0.0085344,-4.6604e-05,-0.00060335,0.00029714,-0.011159,0.0044229,0.0010384,0.0014544,0.00095427,0.00081704,-0.00046982,-0.002615,-0.0093112,0.013679,0.0012399,-0.0016677,-0.00064805,-0.00054156,-0.02169,-0.024533,0.012924,0.0024445,-0.0005438,-0.0015565,0.0025221,0.018656,0.012088,-0.0086992,0.001215,0.00015395,-0.0047747,-0.0045213,0.0007433,-0.01933,-0.0031271,-0.010702,0.022911,-0.0036699,0.00070587,0.0023829,-8.159e-05,0.002145,0.0067821,0.00056029,0.011555,0.00097709,-1.2841e-05,-0.00063689,0.0041605,0.0012172,-0.0017745,-0.00051022,0.0033627,0.0033038,-8.0399e-05,-0.0025236,0.00059433,-0.0038522,0.00049765,-0.00071463,0.001067,0.0022986,-0.00025545,0.013623,0.0059513,0.040328,-0.0032552,0.0001638,0.0024115,0.0013891,0.013762,-0.0012563,-0.001352,-0.0020233,-0.017561,0.00066729,0.0045705,-0.00086277,4.0754e-05,-0.0025498,0.0010586,-0.0046971
3,-0.021225,0.12582,-0.17612,-0.018102,-0.0053055,-0.016683,0.016835,-0.0017732,-0.0026678,-0.020803,0.052589,0.0088772,0.03402,0.0074045,-0.0050225,-0.0058514,0.014796,0.0089231,-0.0028785,0.025995,0.019517,-0.012672,-0.017279,0.029961,-0.013887,0.0032307,0.013751,-0.0072165,-0.0034654,0.013991,0.029201,-0.0327,0.0051472,0.0027721,-0.0014406,8.2332e-05,-0.010573,0.0058255,0.012047,-0.0013242,0.026148,-0.010206,-0.0022992,-0.024179,0.043092,0.0075025,-0.018902,-0.022842,0.0025666,0.004179,0.0032621,0.0061092,0.01017,-0.013069,-0.059372,0.035654,0.023439,0.0051932,0.01451,0.031413,0.02076,-0.00045867,-0.012965,-0.00097782,0.014954,-0.0086594,-0.044214,-0.003197,-0.022869,-0.00059475,0.0028405,-0.00018882,0.035044,0.016344,0.003823,-0.0087845,0.010527,0.01192,-0.0055298,0.0049281,-0.0098263,0.0072458,-0.011384,-0.044498,-0.0005498,0.016248,-0.0048103,0.0062288,-0.019308,-0.0011681,-0.016986,0.011011,0.0081965,-0.0068352,-0.0017699,-0.0079797,-0.0016631,0.016572,-0.014614,-0.0063617
4,0.003586,-0.026204,0.0055278,-0.2223,0.023228,0.00051099,0.0072352,0.040781,-0.0039772,0.011153,-0.0036601,-0.00029511,0.0041838,0.013046,-0.016459,-0.0044848,0.017315,-0.0020273,-0.014629,-0.002666,0.17383,-0.00049398,-0.0054967,0.16072,-0.0086679,0.039154,0.0059474,0.012636,-0.0064598,0.0060777,0.010242,0.006753,0.0036845,-0.011132,0.013198,-0.0089533,-0.0063667,-0.0018178,-0.022719,0.00297,0.00092384,-0.0031285,0.0039116,0.0068191,0.018455,-0.096569,-0.016507,-0.0067078,-0.0047352,-0.0060572,-0.01555,-0.0026069,-0.0077214,0.0095805,0.012012,0.0052887,-0.070534,0.013404,-0.0015068,0.033446,-0.01951,0.01943,0.023085,-0.024388,0.02151,-0.00030799,-0.0060993,-0.0095905,0.00079238,0.0029842,0.015085,-0.016202,-0.0053481,0.012473,-0.0018548,0.0066085,0.022676,-0.016872,0.00055921,0.012073,-0.013227,0.018286,-0.022393,0.073347,0.00078055,0.00081691,0.016874,0.01138,0.0053768,-0.0070521,0.022034,-0.0042634,-0.003716,-0.022073,-0.038842,-0.011071,-0.054429,0.0017294,0.011877,0.0042297
5,0.0015338,0.0051649,-0.016058,0.015059,-0.023808,0.020502,-0.00059096,0.020939,-0.01019,5.7414e-05,-0.013588,-7.5909e-07,0.0021458,-0.0080332,0.0023441,-0.0081492,0.0026928,-0.0020363,0.014466,-0.0037147,-0.0039655,0.0026448,0.012216,-0.013078,0.0019926,-0.019451,0.031803,0.00014138,-0.0010434,-0.0042148,-0.0055297,0.032177,-0.003552,0.0061249,-0.0067493,0.0064043,-0.01178,0.00033473,0.0041281,-0.0023577,-0.0042619,-0.00032028,0.00291,-0.0041785,0.004495,-0.046368,-0.00070676,0.0012087,-0.0040898,-0.0069811,-2.53e-05,-0.015237,0.0042439,0.0024014,-0.0084274,0.0030003,0.0047682,-0.007354,0.0075109,-0.0064012,-0.00021774,-0.001918,0.0094935,0.012463,0.0033891,-0.0030589,0.013378,-0.0056147,0.039741,-0.0026788,-0.011238,0.0056982,-0.016113,-0.013962,0.0050051,-0.017272,0.00082663,-0.01194,0.0021027,-0.0086944,0.0012662,0.015294,-0.002915,0.019998,0.011056,-0.0036317,-0.0023642,-0.00082395,0.010732,0.0039513,0.010333,-0.0042629,-0.0068535,0.0004399,0.0079164,0.0028902,-0.0020737,-0.00046691,0.0030592,0.0046384
6,0.00035086,0.0075871,-0.0065755,-0.0071141,0.0065931,-0.027718,-0.00016996,0.003387,-0.00043697,0.00070369,0.036321,0.0054607,0.0010516,0.013906,-0.00076819,-0.010101,0.00030299,-0.0041717,0.0042043,0.0042029,0.0027107,0.0038478,-0.0027615,0.0031816,0.039839,-0.0035999,0.0033836,0.01421,0.00067936,0.0022016,0.0084406,0.0034039,0.0011606,0.0036807,0.0015753,-0.0053359,-0.00086099,0.042683,0.0058032,0.0037279,-0.0021255,0.0037035,0.0036327,0.0041793,-0.0040876,0.0076133,0.0028108,-0.00013521,0.00040212,-0.0047489,-0.0021318,0.00074169,-0.0025367,-0.0013962,0.004029,-0.0016384,0.0046373,-0.0031566,0.0033644,0.0037937,0.0057293,0.0029515,0.0051826,0.0066429,0.0045623,6.9738e-05,0.0036032,0.0032281,0.01381,7.7513e-05,-0.00020645,0.0034485,-0.0041983,-0.00023039,0.0016324,0.00043792,0.0091307,0.00048706,-0.005622,-0.0087902,-0.0028123,0.0073179,0.0041788,0.0063638,-0.00073497,-0.0011005,0.0039997,0.0018245,-0.0010072,-0.00026069,0.0037061,-0.00011237,0.0054288,0.0037318,0.0041313,-0.0012553,0.01879,-0.00025861,-0.0046839,-0.0045903
7,-0.00014708,0.00038834,-0.00026585,0.00024843,-0.00034608,0.002094,-0.28815,-0.00051107,9.8664e-06,-7.0246e-05,0.00010214,0.00073328,0.00012147,0.00045197,0.00052016,-0.00070885,-0.0004033,-0.00025294,-0.00057612,0.00049518,0.0005744,-0.00031943,6.7188e-05,-0.00015546,-0.00055165,-0.00030593,0.0010047,0.0001812,-0.00051088,0.00068149,0.00032353,-0.0012582,3.9868e-05,-0.00044997,-0.00010772,0.00016222,-0.00090226,-0.00036486,-0.0023284,0.00059465,8.1463e-05,0.00015256,-0.00080693,-3.8748e-05,0.00038829,0.0015626,-0.00033945,4.3377e-05,0.00055027,-0.00014677,-0.00026426,0.00028799,-0.00028434,-0.00019226,-0.00060681,0.28785,-0.00026329,0.00039467,9.3895e-05,-0.00026425,-0.00088669,0.00017353,-0.00058146,0.0011225,-0.00072384,-5.9741e-05,-0.0011468,-0.00015342,-0.00011178,-0.00046657,0.00011116,0.001301,0.00048499,-0.00027298,-0.00010569,0.00034268,-0.00019913,0.00025857,0.00077892,-0.00040104,-0.00020331,0.00047281,0.00018637,0.0025112,-1.1806e-05,0.00016115,3.4245e-05,-0.00012704,-5.6935e-05,-0.00047821,-0.00022991,-0.00042272,8.968e-05,1.6772e-05,0.00088534,-0.00031944,0.00097552,0.00037755,0.00054965,-0.00042343
8,-0.00056469,0.00013396,0.0004894,0.0027854,2.0637e-06,-0.0013082,0.0023979,-0.064646,0.00017672,0.00058142,-0.0030077,0.0034196,0.00029059,0.0037375,0.0011628,0.00055384,0.00050292,0.0024453,-0.00051672,0.0044481,0.0032963,1.8332e-05,-0.0032565,0.031524,0.00093449,0.00067301,0.0099885,0.0021846,0.001824,-0.00017779,-0.0059936,0.00077015,0.0014218,0.013252,0.0037103,0.0002983,0.0067293,0.0014869,-0.00085978,0.0038648,0.00080796,0.00038996,0.0015327,0.00017379,-0.0074797,0.00027443,0.00022663,-0.0014591,-0.0025459,-0.00033529,-0.0023044,-0.0013948,0.00083842,-0.0031707,-0.0022715,-0.0041822,0.0025979,0.0018792,0.0012163,0.010284,0.0016072,-7.3559e-05,0.0030304,0.002044,-0.0032891,-0.00050744,-0.0016775,-0.00024384,0.0012979,0.00053698,-0.0061957,0.00030726,-0.00063769,0.0013746,-0.0017875,0.0040603,-0.0035542,-0.00011028,0.0053096,0.00038284,-0.002492,-0.0024856,0.00057861,0.013046,-0.00041347,-0.0024645,0.012844,0.0021836,0.00060593,-0.0014008,-0.0023229,-0.0027106,-0.00018528,0.0015176,0.0030325,-0.0014059,0.0017166,-0.0077563,-0.0011083,-0.0016237
9,0.0059985,0.046989,0.031032,-0.011818,-0.03398,0.03789,0.010624,-0.039345,-0.25743,0.011099,-0.038424,0.0085314,0.015879,0.013289,-0.043808,-0.003596,0.015153,-0.0035126,-0.036077,0.0054702,-0.012061,-0.0016767,0.010873,0.011241,-0.012739,-0.012248,0.013479,0.01266,0.0018309,0.0013181,0.043208,0.034371,0.0087672,0.003881,0.025405,-0.036787,0.016808,-0.020505,-0.039296,0.02392,0.0040927,0.0066438,0.0051209,0.00051931,0.016881,0.0073065,0.0078439,-0.0047307,0.0093813,0.015495,0.0011473,0.005835,-0.00075814,0.0035513,-0.030506,0.04705,0.016739,-0.0020247,-0.0026977,-0.0048502,-0.0055752,-0.027017,-0.010669,0.028845,-0.040966,0.013802,-0.037109,-0.027855,-0.00089977,0.005754,0.010816,0.0058753,0.0095013,-0.005495,0.015172,0.031879,0.051013,0.0022687,-0.008398,0.021478,0.0069489,0.059514,-0.015124,0.057057,0.013984,0.014719,-0.0059861,0.013034,-0.0094485,0.0058543,-0.011409,-0.001351,0.015112,0.0060133,-0.0031139,0.063142,-0.012296,-0.013352,-0.0032445,-0.032679
10,0.0029982,-0.022226,-0.0091973,0.0045262,-0.013661,0.0009185,0.00071426,-0.0067026,0.0070583,-0.18023,0.0056083,-0.0016378,0.002545,3.3318e-05,0.00030372,0.0016372,0.00038275,-0.0011338,0.10527,-0.00048211,0.0070287,-0.0014192,0.006309,0.081898,0.0081617,-0.0026657,0.027922,-0.0013516,0.010137,0.0046746,-0.0039648,-0.0019777,-0.00044586,-0.056812,-0.0043796,-0.0016082,-0.0092212,-0.0068699,-0.041306,0.0029938,0.0058906,-0.0041247,-0.0029732,-0.0053271,0.00092363,-0.0066899,0.0019688,0.0016684,-0.0016818,0.012251,-0.0033439,-5.0412e-05,0.0038661,-0.010435,-0.062,-0.0023926,-0.026833,0.0016123,0.006713,-0.021876,-0.00043223,0.00026607,-0.0024335,0.0076638,-0.0027362,0.0026785,-0.00059377,-0.0055719,0.010912,0.013368,0.0132,0.022133,-0.0012181,0.029629,0.0084917,0.0016152,-0.00819,0.0024069,0.0074624,0.0022333,0.0011246,-0.002975,0.013699,0.0040849,-0.0020289,0.009874,0.025946,-0.0041066,-0.0033898,0.0072705,0.0029744,0.012951,0.00050233,0.0025082,-0.0067575,0.0018933,-0.0037081,0.022059,-0.0025429,0.080305
11,-0.00047264,0.0024447,0.014953,0.0020472,0.0031481,0.065186,-0.0025704,0.0033545,0.00059999,-0.0028241,-0.081137,-0.00062902,0.00014337,0.0060005,-0.0010987,-0.0029845,0.0037865,0.0017668,0.0015464,-0.012108,0.0052736,-4.6988e-05,-0.0037557,-0.0021529,0.014242,7.7206e-05,0.0024456,0.00072121,0.0012173,-0.0033746,-0.0066409,0.045447,-0.0029875,-0.0020325,-0.0045676,-0.0016383,0.0044158,0.011878,0.011667,-0.0042326,-0.00075829,0.0037274,-0.00038374,0.0054348,0.0037314,-0.0013947,-0.0016354,0.00041651,0.0014989,-0.0034115,-0.001201,-0.0039925,-0.0060197,0.0066553,0.0083951,-0.001855,0.0077692,-0.016581,0.0026603,0.0082939,0.0024312,-0.00015923,-0.0053152,-4.6864e-05,-0.001767,0.0055777,-0.0020036,-0.0021769,0.020713,0.0003536,0.00572,-0.00092018,-0.0018061,-0.00048674,0.0087031,-0.0029502,0.0030681,0.004018,-0.002352,0.001697,-0.0014128,0.025826,-0.0018847,-0.0095688,-0.012742,0.0032933,0.0029599,0.0045096,-0.0013963,-0.007018,0.0042389,-0.0046852,0.0091256,-2.1094e-05,-0.0065488,-0.00088612,0.003456,-0.0046397,-0.0088784,-0.0074418
12,-0.0091209,-0.0084295,0.002512,0.00091238,-0.013483,0.00374,0.0037146,0.0041326,-0.0018294,-0.01454,0.0030346,-0.041063,-0.0014881,-0.00028087,-0.0019409,-0.00046061,-0.00093407,0.0053392,0.036066,0.0036014,-0.0051811,-0.010395,-0.0070907,0.0016868,0.0068516,-0.0092256,0.012744,0.0039819,0.02564,-0.00061642,0.00085952,-0.0030122,-0.047373,-0.040498,-0.0065753,-0.0079515,0.041475,-0.010116,-0.011665,0.00056887,0.00055592,-0.0029118,0.0064957,0.0095067,-0.010338,-0.016341,-0.011804,0.0004108,-0.006971,-0.0051637,-0.0017586,-0.00062739,-0.0022621,0.004556,-0.010066,-0.0054747,0.0052472,-0.0045973,0.0043485,0.01035,0.0055295,0.0063452,-0.00027827,0.017498,0.019888,0.0007335,0.030821,0.059162,-0.0014046,-0.022849,0.0056916,0.0086801,-0.074151,-0.0002428,0.031661,-0.0092054,0.00065128,-0.0029106,0.0094829,-0.0055203,0.0058859,0.012239,-0.00019096,0.00096802,0.0014076,-0.017486,0.016397,0.0046564,-0.00092811,0.010468,0.082235,-0.0014897,-0.0021642,0.0020161,-0.0036355,-0.0016642,0.0050835,-6.3621e-05,0.025523,0.0048939
13,-0.019412,-0.069708,0.10245,0.0036714,0.025002,-0.0034483,0.01428,-0.0038612,0.027041,-0.004434,0.023344,-0.0040805,-0.21571,0.01376,-0.011851,0.0018636,0.0079189,0.0054629,0.0012071,-0.0048089,0.043945,0.0022139,0.013536,0.010742,0.0021288,0.026032,0.0031438,-0.00018497,-0.0059569,0.012277,0.02248,-0.020568,-0.00019744,-0.017026,0.01304,0.0028384,-0.0060727,-0.018028,-0.0020055,-9.4162e-05,0.022481,0.0054264,-0.0043556,-0.0023573,0.0059966,0.0037797,0.0057625,-0.00011966,-0.0011146,0.011876,-0.001839,-0.0046195,0.0068895,-0.0015141,0.058075,0.0073407,-0.0033187,0.02297,0.0011899,0.016352,-0.002779,0.015362,-0.0090815,-0.0015729,0.021199,-0.012803,-0.0021594,-0.016535,-0.0016793,0.0049492,0.0021409,-0.0010884,0.0028129,0.0094198,0.0016548,0.0092962,0.017924,-0.024349,0.0099512,-0.013565,-0.024389,0.0041274,-0.00015954,0.013394,-0.020889,0.0078749,0.019124,-0.002145,-0.019347,-0.00011402,0.010708,-0.0049331,-0.012508,-0.003881,-0.0012089,-0.0013348,-0.014526,-0.010374,0.0070643,0.0065237
14,0.00022596,-0.0056573,-0.00039949,0.00026732,-0.0022415,-0.00018829,-0.00010196,0.0016542,0.00021236,0.00097394,0.0006691,-0.00049023,-0.00026436,-0.010603,0.00032247,-0.00028513,-8.213e-05,0.00036755,0.0058084,0.00065816,-0.00010038,-0.0014389,-0.00013673,0.0038237,-0.00021562,-0.00036217,0.0026398,0.00034689,0.00046285,-3.8715e-05,0.00026403,-0.00026127,0.00023498,-0.0059965,0.00027626,0.00012819,-0.00073707,-0.0014696,-0.00085738,-0.0014407,-0.00038357,-0.00034372,-0.00074489,-0.0010474,0.00035708,-0.0072867,-0.0045232,6.8079e-05,-0.00025947,-0.00040198,-8.5319e-05,6.4246e-05,0.00027789,-0.00016145,0.0024952,0.00040526,0.00040546,-0.0011397,-0.00018767,0.00021127,-0.00033531,0.0057133,-0.0022812,0.00088783,0.00038806,-0.00047167,0.0056715,-0.0021523,-0.0002724,0.00095696,-0.0019085,0.00060354,-0.0013778,0.0012423,0.00051938,0.0004089,-0.00021398,0.00036958,0.0011427,0.00020564,0.0016803,0.0010091,-0.00085534,0.0020558,0.00021106,-7.5746e-05,0.0026753,-0.00032643,-0.00044433,9.9951e-05,0.0013161,0.00066102,0.0010188,-0.00026633,-0.0055054,3.522e-05,-0.0011881,0.0016902,0.0011743,0.0015418
15,0.0016303,-0.021066,-0.0009435,0.0013486,-0.019119,-0.00051281,0.0035643,-0.0094372,-0.001705,0.009234,0.0010042,-0.0026037,-0.00022004,0.0037232,-0.18867,0.0089588,-0.0024345,0.00039523,0.01412,0.0047335,-0.00053712,0.00285,0.0019224,0.01632,0.001139,-0.0015525,0.020243,7.9262e-05,-0.00088666,0.0051986,-0.0029187,-0.00028142,-0.0044483,0.03597,0.00018186,-0.003898,0.003886,-0.0066864,-0.036099,0.10198,0.0022257,-0.013555,-0.0042887,-0.0095461,-0.00024336,0.00046365,0.094324,-0.0018504,-0.0089593,0.004435,0.00042895,-0.0033745,-0.0017539,-0.0033075,-0.021444,-0.0031567,-0.012252,0.032266,0.0014897,-0.074923,0.00098906,0.0063471,-0.0093188,-0.032635,-0.00031935,0.0041065,-0.0097136,0.00061059,0.0014153,0.01472,0.01061,-0.016219,-9.1827e-05,0.021453,0.0049532,0.00051199,0.0019277,0.0053786,-0.0023465,0.0054924,0.0046512,0.0040807,0.004039,-0.028511,-0.0019447,0.0078839,-7.5368e-05,-0.0031332,-0.0012482,0.0091592,-0.00047138,0.0052262,0.0154,0.0034191,-0.0059033,-0.0017021,-0.0035462,0.0075628,-0.0060505,0.047512
16,-1.8253e-05,-0.0039217,-0.00080704,0.00034184,-0.0071772,-0.0005069,0.00049213,-0.0046253,0.001415,0.0053768,0.00019889,0.0051081,-5.0794e-05,-0.00034537,0.006816,-0.073819,-0.0011492,6.6006e-05,0.0093269,-0.0018062,0.00046952,0.001131,-0.00056605,0.0083468,0.003807,0.0011745,0.015586,-0.0016783,-0.0056188,0.00022043,-1.5632e-05,-0.001681,0.0001802,0.00013491,-0.00053057,-0.0014319,-0.0069629,-0.0014994,0.00068913,0.0089349,-0.0012028,-0.0015389,-0.0057225,-0.0016879,-4.1359e-05,-0.0027421,0.015153,0.00029128,0.0028508,-0.00052824,0.00040332,-0.00037198,0.0002683,-0.0038662,-0.011826,8.2888e-05,-0.0026555,0.0037717,0.0014286,-0.0053399,-0.00085077,-0.00099866,0.00017925,-0.0061033,-0.00084359,0.0013498,-0.0039343,0.0022558,0.0022707,-0.0021914,0.0032088,0.0013629,-0.00016831,0.025239,0.00091694,0.0010443,0.00050196,-0.00086556,0.0022362,-0.0014055,0.0027635,0.0024268,0.0014434,-0.0051738,5.5495e-05,-0.00034702,-0.00077506,-6.5404e-05,-6.2074e-05,-0.00039494,0.00097978,0.00016032,0.0022611,-0.00046085,-0.00068926,-0.0013706,-0.0024441,0.0027699,0.0047478,0.021126
17,0.016051,-0.055021,-0.00095162,0.11389,0.0027539,0.0029494,-0.03863,-0.018727,0.0068365,0.0038652,0.024455,0.011273,0.042315,-0.010637,-0.02246,-0.03265,-0.050007,0.099793,-0.0020475,0.052119,0.013083,-0.00085892,0.019729,0.021183,-0.033448,-0.1129,-0.036886,0.022212,-0.015683,0.033273,0.010741,-0.01721,0.0044582,0.040831,0.0086663,0.064675,-0.044234,-0.0068693,0.0062509,-0.0023121,-0.032367,-0.0015486,-0.0030057,-0.020145,-0.0062007,0.0033269,0.010808,-0.030088,0.0092073,0.013983,0.015201,0.013543,0.0068406,-0.023814,0.064936,-0.0021978,-0.0033018,0.066948,0.025925,0.025507,0.022279,-0.0080794,-0.020113,-0.0029215,-0.0021052,-0.017753,-0.021686,0.0047265,-0.0073661,-0.015848,0.036769,0.014332,0.0045233,-0.00024901,0.0044717,0.0098673,0.022162,0.0078079,-0.0024297,0.0078609,-0.0033407,0.015366,-0.0013804,0.0094838,0.00042271,0.0089213,0.060145,-0.0017128,-0.01762,-0.002235,0.0038759,-0.0090542,0.0089251,0.0015383,-0.0014116,-0.038216,0.039527,0.007878,-0.03117,-0.031556
18,0.0094004,0.1022,0.035453,-0.0022145,0.0024239,-0.010741,-0.011806,-0.0030062,-0.0040385,-0.0014445,0.0013,0.0087391,0.024188,0.0079046,-0.0026188,-0.00081101,0.025092,-0.1827,0.0041533,0.021444,0.21347,-0.0029884,0.0023882,0.0074728,0.00041791,0.012059,-0.0039448,0.0018129,-0.0039147,0.0075398,-0.004703,0.0039507,-0.0013577,0.0065726,-0.0010564,-0.0054252,0.0015482,0.0095413,0.012389,0.011621,0.00088852,0.012155,0.0007153,-0.0087145,0.027066,0.00081084,-0.0050732,-0.013062,0.0018321,-0.0069498,0.016952,-0.0072821,0.0031894,0.0023199,-0.057734,0.0070064,0.0075549,0.007736,0.010224,0.0079687,0.015315,-0.0033001,-0.014231,-0.00090237,0.0011668,0.0076784,-0.01094,-0.0063392,-0.0022736,0.0012899,-0.0043707,-0.0075114,0.0033929,0.0072039,-0.0030766,-0.0067456,0.00033624,-0.010759,-0.01061,0.0067698,-0.00016197,0.025524,-0.0030509,-0.0053728,0.00077364,-0.0028534,-0.0013521,0.015744,-0.0078286,3.6242e-05,0.00015988,-0.011088,0.0061981,-0.0047427,0.0033899,-0.0055573,0.00638,0.0044899,-0.011491,-0.0038418
19,0.0041826,0.010797,-0.00067307,-0.00042435,-0.0021957,-0.0024476,-0.0035208,0.0023802,0.0030675,-0.0010119,-0.0002141,0.00049403,-0.0014646,-0.0002874,-0.00077663,0.0067059,0.00014664,0.0013997,-0.021863,-0.0011531,-0.020259,0.0002456,-0.0011984,0.0011405,-0.0025678,0.0012107,-0.00015479,-0.0021089,0.00083968,-0.0022405,-0.020558,0.01024,0.00014805,-3.5525e-05,0.0034008,0.00093014,-0.0011516,-0.0015307,0.0029762,0.031264,0.00017346,-0.00067375,0.00067316,0.0076618,0.00061394,0.015316,0.006662,-0.00030248,-0.002909,-0.0013739,-0.0032006,-0.0006146,-0.0092316,-0.0013693,0.019638,-0.00094293,0.00020685,-0.00059212,-0.0014291,-0.00035785,0.00072061,0.00036498,-0.0035514,0.0035176,-0.00081346,-0.0021603,0.012933,-0.00072455,-0.0076032,0.0029704,-0.009348,0.001718,0.00059306,-0.0057378,0.00020659,-0.00018609,-0.00078811,-0.001382,0.00074083,-0.0007914,-0.0049353,0.0013454,-0.010131,0.013359,0.00029742,-0.00021579,0.0085457,-0.00071994,0.00029697,-0.0003475,-0.0048121,-0.0010046,0.001092,-1.9022e-05,0.008603,0.00063479,-0.0008058,0.00034167,-0.0046119,-0.00079165
20,-0.001783,0.0017719,-0.0013773,0.0070747,0.0028832,0.012211,-0.0013351,0.004937,-0.0049875,0.0035549,-0.004446,0.0026263,-0.0022802,0.0037206,0.0038418,-0.0026962,0.0013026,-0.00070361,0.0032224,-0.038088,-0.0047299,0.0022259,-0.0019158,-0.0025194,0.0066544,-0.015597,0.026207,-0.00030008,7.5436e-05,-0.0001096,0.0078461,0.019454,0.0022525,0.0023179,-0.0017332,0.00093795,-0.0038706,0.0045757,0.0024569,-0.0018704,-0.0033382,0.0013919,-4.8555e-05,-0.0033019,0.0022505,0.00031363,0.00042031,7.93e-05,-0.0040423,-0.0056404,-0.010156,-0.006173,0.0019827,0.0033536,0.0032789,0.0024834,0.0092345,-0.015703,0.0041965,9.6146e-05,0.00089717,0.0062253,0.01771,0.0022798,0.003082,-0.0053522,0.0031401,-0.0031242,0.016504,-0.0050899,-0.0027126,0.0068759,-0.0037089,-0.010784,0.0012803,-0.0055267,0.001248,0.0016327,-0.00038382,-0.0022602,-0.0030977,0.0099113,-0.0027839,0.012202,0.0048209,-0.0067297,0.0032686,0.0039085,0.0052564,-0.0042409,0.0033073,-0.0054553,0.00061273,9.6087e-05,0.0045409,-0.0057918,0.0092119,-0.00015701,-0.0028256,0.0060218
21,0.016818,0.056888,0.01858,0.034734,-0.0020114,0.14267,0.022992,0.11926,-0.043767,0.064352,-0.014089,0.012021,0.047404,0.0036116,-0.041853,-0.041136,0.0090528,0.024261,-0.037946,-0.069658,-0.12749,-0.0097725,0.0098904,-0.076222,-0.031599,-0.010297,0.014591,0.013084,-0.012463,0.010445,0.057057,0.023248,0.0011222,-0.01871,-0.0066691,-0.01319,-0.033959,-0.022684,-0.010268,0.054323,-0.022005,-0.009685,-0.010673,-0.0092848,0.00933,0.201,-0.034432,-0.029279,-0.019297,-0.02699,0.035782,0.01432,0.0076047,-0.0053326,0.06563,-0.0003967,0.034865,0.0072512,-0.0023479,-0.043675,-0.052097,-0.0011334,-0.0030534,-0.009335,0.012722,0.01576,-0.029159,0.0068772,-0.13203,0.013207,-0.099286,0.052266,0.015127,0.019797,-0.020554,-0.026352,0.0032265,-0.028063,0.0040479,0.022615,0.0058385,0.035301,-0.062494,-0.18807,0.0012802,0.0023228,0.0038453,0.0027076,-0.010737,-0.018892,0.01846,-0.010597,0.11679,-0.012035,0.047422,-0.04187,-0.024425,-0.0073389,0.013552,0.05345
22,0.00067634,0.002744,-0.025815,0.0097843,-0.0035655,0.0082039,-0.0073924,0.012435,-0.018156,-0.010676,-0.017445,0.0046557,0.0069862,0.0038252,0.0046933,-0.0082493,0.0022427,-0.0042169,0.0095627,-0.0094001,-0.0059406,-0.013421,0.014355,-0.010693,-0.0023562,-0.018119,0.023935,0.0032439,0.00016906,-0.0064272,-0.00032418,0.035998,-0.0035704,0.00039577,-9.2913e-05,0.0035884,-0.0076632,0.0018712,0.0019211,-0.003711,-0.0059026,-0.0014566,0.0054866,0.0063403,-0.0060316,-0.052418,0.0062632,0.0038879,-0.0019014,-0.0048414,-0.00052346,-0.012103,0.00087523,0.0062774,-0.0026587,0.003201,0.0017796,-0.0089029,0.0030619,-0.0089813,0.01014,0.025518,0.0064809,0.0070998,0.0077504,0.0033464,0.010924,-0.007679,0.059321,-0.00029716,-0.0024569,0.0062524,-0.01367,-0.022294,0.012163,-0.009295,0.0027686,-0.014939,-0.0029198,-0.011026,-0.0043237,0.017691,-0.0020632,0.041679,0.0028522,-0.0096372,-0.0031293,-0.0035603,0.0063172,-9.8101e-05,0.0078782,-0.0071886,-0.0070299,-0.0016315,0.0038245,0.0044446,0.0047966,0.0020785,0.0016165,-0.0071051
23,0.0039627,0.011392,0.0029745,-0.024243,-0.023254,0.035376,0.00043803,0.024173,0.026762,0.012026,-0.043848,-0.012072,0.028798,-0.00036703,-0.0041983,0.0027494,0.028464,0.0004967,-0.003203,0.0043714,0.053949,0.0010767,-0.21375,0.028075,0.012177,-0.0045098,-0.007799,-0.0017478,-0.0062565,0.0079747,0.00065138,0.00084943,-0.0020161,-0.0035187,0.0049445,0.00026382,-0.004668,8.7163e-05,0.027024,-0.0072828,-0.00083168,0.0060295,-0.0017422,0.051627,0.082013,-0.0045485,-0.01539,-0.026489,0.0017149,-0.0083032,0.016561,-0.0074928,0.0071438,0.0066392,-0.038072,0.0054217,0.0086926,-0.00080276,0.012273,0.0097472,0.0013944,0.01893,0.015746,0.0204,0.0022249,-0.019737,-0.017922,-0.0071316,0.0015901,0.00044485,0.008909,-0.0019391,0.0048088,0.013897,0.003959,0.0055919,0.015396,-0.0023719,-0.0067654,-7.9109e-05,-0.0050925,0.014801,-0.0049086,-0.035679,0.0014831,-0.0004207,0.0098581,0.017259,-0.0083303,-0.021696,-0.0050399,-0.0075458,0.012842,-0.008155,-0.0072559,0.01588,-0.043863,-0.00076331,0.0058065,-0.0040788
24,0.001424,0.0055029,0.002157,0.0029561,-0.0023657,0.0034611,0.0098619,0.021467,-0.00091663,-0.0050267,-0.00055247,-0.0080788,0.00041903,-0.016582,0.0083223,0.00045459,0.0019316,-0.0023324,-0.0090147,0.0043892,-0.0022906,-0.0039454,-0.0045677,-0.033862,0.0054694,-0.0026096,0.015577,0.0051963,0.0030698,-0.0035082,-0.02682,0.0043094,-0.0052965,0.013967,-0.0047436,0.0026413,-0.011467,0.00060459,0.0017546,0.0018372,-0.0016259,-0.00054109,0.00049294,0.001263,-0.018033,-0.0018404,-0.0030538,0.0010358,-0.0021736,0.002585,0.00021211,-0.00083307,0.0020049,0.0026456,0.00027795,0.0047993,0.00036432,0.0026495,0.0089618,0.008277,0.0033096,0.0060614,0.00053235,0.01653,0.00013356,-0.0059667,0.016554,0.0076948,0.0024787,-0.0049335,-0.010613,-0.00014219,-0.0012508,-0.024904,0.0093641,-0.0012227,-0.002984,9.8283e-06,0.0030785,0.00082932,-0.0044657,-2.518e-05,0.013721,0.0059955,0.0074595,0.0020818,0.0037832,-0.00056874,0.0040729,0.0033941,0.0024042,-0.012882,0.0005193,-3.0177e-05,0.0011885,0.00064153,-0.0081003,-0.0019452,-0.0012679,-0.0010662
25,-0.00035181,-0.00064483,-0.0075724,0.00031743,0.0015461,0.056633,-0.0071013,0.004992,0.00077213,0.0045759,0.044135,0.0064493,-0.00035295,-0.01015,-0.00078921,-0.0011642,3.1793e-05,0.00075072,0.005136,0.0023792,-0.0018613,0.0023602,0.00078991,0.0092481,-0.037598,-0.0019552,0.0062973,0.0048152,0.00033583,0.0047865,0.0048281,0.00045075,-0.00024132,0.0037226,-0.0011631,-0.004014,-0.003699,0.040981,-0.0036997,0.010126,-0.0015259,0.0038042,0.002068,-0.0064583,-0.00094175,0.0016294,0.0046512,0.0010008,-0.00098054,0.0024303,0.0017431,-0.0016673,-0.0018494,-0.0027284,0.016309,0.0024862,0.0036993,0.0027142,0.0028151,0.00037179,0.00013371,0.010791,0.0027041,0.00073771,-0.0013381,-0.002128,0.0031157,-0.0015433,0.0058252,-0.00089386,-0.0057497,0.0037406,-0.00057444,-0.0011224,-0.001794,0.0015393,0.001549,-0.00012447,0.003222,-0.0048039,-0.0011046,0.0079186,0.0005417,0.011709,0.001878,0.0020255,0.0037535,-0.00030529,-0.0010287,0.0018305,0.003009,-0.0010177,-0.007444,0.0026519,0.0050261,0.00065953,0.021974,0.0027729,0.002114,0.0058705
26,0.0010715,0.025275,0.057968,0.030159,-0.066378,-0.0056267,-0.0028118,-0.0095598,0.0037033,-0.0012543,0.013863,-0.0054297,0.032366,-0.0034621,-0.0091986,0.001569,-0.0014651,0.0014435,-0.0086989,0.0019667,0.0035151,-0.0092826,-0.0060048,0.059562,-0.024903,-0.18468,-0.0098762,0.0080894,-0.010691,-0.0032011,0.03757,-0.055782,0.0012177,-0.0067171,-0.0023342,-0.024102,0.0051106,-0.023242,-0.0033572,0.0045111,0.0042962,-0.0049811,0.00085895,-0.0066027,-0.00022095,-0.028122,-0.0076262,-0.0011156,-0.0075899,0.0024332,0.0022553,0.0081536,-0.0031347,-0.0090887,0.035681,0.02732,0.027182,0.0078231,-0.0013026,0.031331,0.016512,-0.072427,-0.0068462,0.08683,-0.0074585,0.012518,-0.0067949,-0.002146,0.01796,0.011395,-0.0009765,0.0079026,0.01589,-0.0079381,0.01001,0.0062261,-0.00091403,0.020529,0.0021251,0.0044145,-0.00057577,0.015741,0.00039219,0.0011769,0.00028711,0.0063148,0.0077107,-0.0085499,-0.016564,0.0084218,-0.0063867,-0.0080296,0.0022191,-0.0029805,-0.0012979,-0.0054814,0.0082106,0.0091255,-0.006106,-0.0091937
27,0.002256,0.0021631,-0.0048779,0.009724,0.0017717,-0.0070506,0.0049165,-0.0096555,-0.00023618,-0.0031613,-0.0092939,-0.0021778,8.9949e-06,0.001722,0.00026259,-0.0059176,0.0001278,0.0010566,-0.0049202,0.01069,0.00011819,0.028061,0.0027025,-0.0013253,-0.0026882,-0.0037766,-0.048585,-0.0024274,-0.0039129,-0.014827,0.0019811,0.0049074,-0.0023636,0.022402,-0.001511,0.0082571,0.00073062,0.0033099,-0.0026758,0.0075732,-0.0013034,-0.0017531,0.016941,-0.0016768,-0.0020436,0.0044138,0.0059292,0.0022658,0.0032131,0.0076088,0.0016947,-0.010208,-0.0014166,0.0050967,-0.0084803,-0.001246,0.00066082,0.0046903,0.0053689,-0.010912,0.0096829,0.004263,0.005317,0.0029913,0.0012432,0.0041577,0.0024679,-0.0053452,0.050707,0.0020834,0.00066766,-0.0022885,-0.00081509,-0.016979,0.013325,-0.0017599,-0.0032947,-0.0019828,-0.00075537,-0.010146,0.0063557,-0.0017786,0.01344,0.016395,0.0012774,0.00015307,0.017758,-0.0042358,-0.0059229,-0.0015406,-0.0011209,-0.0053291,-0.0020622,-0.0022988,0.016456,0.00067955,0.00064003,-0.0081485,0.0079133,-0.0036036
28,0.0011908,0.0051034,-0.006618,1.6227e-05,0.00022449,0.0088645,-0.0046983,0.010123,0.0052039,-0.0082622,0.0091336,0.0088018,-0.0022485,-0.0068221,-0.0003328,-0.00072664,0.00084698,0.0013084,0.0062151,-0.0015604,-0.0027387,0.0064311,0.00039562,0.0023656,0.010574,-0.0014281,0.010857,-0.011237,0.008015,-0.00083799,-0.0011199,0.0011027,-0.0041151,0.0030401,-1.3448e-05,-0.0029437,-0.00496,0.0084741,0.0045646,0.0021017,-0.0016038,0.0055563,0.0016188,-0.00098886,-0.0039565,-0.007178,0.0046496,-0.00079525,-0.0012466,0.00089495,0.0018931,-0.00014141,0.0029371,-0.0049587,0.0049947,0.0049861,0.003715,-0.0079884,0.0051221,0.0015887,0.0058876,0.0060233,0.004468,0.0085311,-0.0081787,-0.0081152,0.011115,0.00050892,0.15377,0.0058562,-0.0069072,-0.0026353,-0.0013768,-0.0027476,0.016434,-0.0086881,0.003827,-0.00047755,0.0013046,-0.0050468,0.0022782,0.0022735,0.0031166,0.0032651,0.0014676,0.0025471,0.0060547,-0.00094457,0.0023415,-0.00055938,0.0034194,-0.0035376,-0.00081487,0.0076931,-0.00044091,0.0033869,0.0036659,0.0017999,-0.0012661,-0.0015665
29,-3.2977e-05,0.0083522,0.00015375,-0.00023686,0.0091777,0.0091336,-0.00014797,0.0093545,-0.00026874,-0.00023423,0.0093065,0.00093026,-0.00068744,5.1748e-06,-0.00086884,-0.0018506,-0.00041979,0.00017625,0.0091307,0.009235,-0.00053154,0.0092092,-0.00019264,0.0089796,0.0093856,-0.00085134,0.0091436,0.0093791,-0.00201,-0.0018987,0.00019774,0.0092897,-0.0013139,0.0090048,-0.00053829,-0.00035138,0.00044213,0.0092371,0.0084888,0.0094607,6.7334e-05,0.0094678,0.0092566,0.0017728,-0.00035011,0.0092482,0.0094967,2.2434e-05,5.4013e-05,-5.9893e-05,-3.1197e-05,0.00012763,-9.9712e-05,0.0004199,0.0093572,-4.4917e-05,0.0088831,-0.00033744,0.0093498,0.0091665,0.0091846,0.0097984,0.0092905,0.0096564,0.00042498,-0.00040139,0.0097101,0.0028929,0.0092718,-0.00013726,0.00043349,0.0094897,-0.0017292,0.00065728,0.32854,-0.00024343,2.7083e-05,-0.00018979,3.2925e-05,4.9963e-05,0.0003336,0.0034167,-0.00042075,0.0099945,-0.00019281,-0.00037508,0.0093937,0.00056374,-0.00027115,0.0016859,0.0022391,6.8627e-05,-0.00045563,0.0092312,0.0085365,-0.00013149,0.0013719,-0.00073267,0.00083024,-0.00041026
30,-0.006711,0.043578,0.021243,0.029757,-0.0071065,-0.052443,0.031289,-0.066697,-0.0042847,0.052043,0.012211,-0.01554,-0.00091684,0.0088689,-0.019652,-0.022568,0.015142,-0.0094344,0.014073,0.12117,0.03485,-0.0031133,-0.014907,-0.04575,0.028743,-0.067153,-0.068047,0.015234,0.0054174,-0.18497,-0.01937,-0.073323,0.015148,-0.032019,0.0023428,-0.0082484,-0.016597,0.048614,-0.074449,-0.053866,0.00067812,0.021793,-0.04662,0.043852,0.0061525,0.010782,-0.0088746,-0.029943,-0.010891,-0.0071611,0.12114,-0.0081682,0.0079875,-0.0097355,0.059563,0.047184,0.014094,-0.003214,0.0067761,0.095766,0.06882,-0.099897,0.018158,0.060301,0.0479,0.049498,0.0029722,-0.024116,-0.041972,0.0097817,-0.065366,0.028814,-0.035338,0.0078643,-0.00053572,0.010396,0.0072078,0.0020153,0.0036927,0.0069552,-0.0029397,-0.030428,0.05349,0.00088931,0.026668,-0.017695,0.037842,0.0001575,-0.033033,-0.03132,-0.052508,-0.011589,0.059321,-0.047331,0.056878,-0.026637,0.0031944,-0.0043185,-0.0015009,0.0063958
31,0.0034504,0.092178,0.039436,0.0016603,-0.077385,-0.028811,-0.0010401,-0.021654,0.033626,-0.012332,-0.05929,-0.0060822,-0.0063961,0.006126,-0.017482,0.0056441,0.0029162,-0.076589,0.15731,0.075153,0.10693,0.0134,-0.027158,-0.059004,0.076041,-0.0032484,0.018491,-0.017028,0.013176,-0.027829,-0.2949,-0.0088396,0.0055383,-0.040479,0.031937,-0.014602,0.0015301,-0.020836,0.0058192,-0.041291,0.010364,0.01035,-0.0020184,-0.011486,0.015921,0.0045929,-0.10523,0.015742,0.0075698,-0.01015,-0.0010567,0.003271,0.02262,0.018354,0.0023765,0.0044118,-0.0016659,0.0025505,0.0026811,0.098632,-0.016476,-0.19331,-0.031297,0.096858,0.0032109,0.012675,-0.063115,-0.024516,-0.020456,-0.0073857,-0.0062623,0.0059925,0.0038538,-0.017252,-0.055881,-0.012476,0.019656,-0.011996,-0.018308,-0.0042806,-0.0147,-0.039627,0.036287,-0.064996,0.035649,0.014216,0.033093,0.0031702,0.0095184,-0.022947,0.015647,-0.021981,0.026495,-0.041343,0.10133,0.050203,0.072648,-0.01541,0.026575,-0.034816
32,0.00093433,0.039236,-0.010895,0.00060039,0.013029,0.0091631,-0.0036005,0.0071861,0.00037538,0.010878,0.039763,-0.0034843,0.0063638,-0.0081169,-0.00087756,-0.0056289,0.00048079,-0.0040325,0.010478,0.0044252,-0.0029177,0.0091548,0.0036623,-0.0048924,-0.00062499,-0.018683,0.007107,-0.0022285,-0.0021442,-0.0007813,0.0049213,-0.064298,-0.00060184,0.0061261,0.00023331,-0.0085699,-0.012036,0.0046995,0.0020774,-0.0028221,-0.0033224,0.0023767,-0.000284,-0.012845,-0.016002,-0.012272,-0.0049959,-0.00022314,-0.00035109,-0.0029734,-0.0018409,-0.0080183,0.0049515,-0.0047916,-0.017612,0.0029906,0.0026432,-0.0028472,0.0058693,0.0053371,0.0029288,0.015297,0.0040979,-0.010744,0.00057206,-0.0046531,0.00096,-0.00087341,0.020778,-0.002888,-0.00125,-0.00077871,-0.0029782,-0.0081686,0.003959,0.0040806,-0.00013896,0.014679,0.00029462,-0.015325,-0.0035643,0.0051888,0.0032508,0.00079041,0.00042155,0.00080033,-0.00035998,-0.0055503,0.0025231,-0.0084203,0.00058362,-0.00091902,-0.0026087,0.00090191,0.0027878,0.0072037,0.012833,0.017267,0.0071333,-0.0067307
33,0.0014677,-0.022927,0.0030462,0.0030271,0.0031266,0.0020301,0.0022828,0.022242,-0.00056344,0.011457,-0.00056043,-0.0047678,0.00069323,0.0011355,0.0030619,0.0057773,-0.00035827,-0.0045142,0.07558,0.0010337,-0.0012575,0.0032507,0.001495,0.032695,-0.010363,-0.0022182,-0.01684,-0.0022809,0.0015185,0.0033149,-0.0020571,0.0090519,-0.2567,-0.10231,0.00057874,-0.0051232,0.0062696,0.0050419,-0.092066,0.22554,0.00086391,-0.035836,0.013485,-0.01011,0.0034729,0.23954,-0.03191,-0.0027355,-0.0061136,0.0014702,-0.0011197,-0.0017003,-0.0011922,0.0045806,-0.012789,0.00044257,-0.00094758,0.070273,0.0058445,-0.099181,0.0084929,-0.0034148,-0.00086865,0.0038215,-0.00015897,0.0027091,-0.045867,0.0012478,0.00014067,0.0091016,0.0043962,-0.036706,7.2999e-05,0.0029928,-0.0048562,0.0024613,-0.0010595,0.0013351,-0.0035181,0.0054757,0.00023331,0.010978,0.0028811,-0.13706,-0.0035294,0.00039774,0.0084713,-0.002327,-0.0010835,0.0026756,0.0035326,0.00035755,0.0046712,-0.00040272,-0.0034844,-0.0023725,-0.003288,0.14684,-0.0025594,-0.0009904
34,-0.00086902,0.0067763,-0.0036195,-0.0047839,-0.00027098,-0.0044775,0.0021557,0.032198,0.0025849,-0.029791,-1.323e-05,-0.0002127,0.0047445,-0.016658,0.018705,0.0082427,0.00027165,-0.0010156,-0.0012154,0.0071326,-0.0046733,-0.014093,-0.0024226,0.014637,0.0057788,-0.009993,0.00094403,0.0062872,-0.00024582,-0.0058032,-0.027916,0.010924,3.8655e-05,-0.0066499,-0.0016986,-0.0017123,-0.0036256,0.011363,-0.011682,0.014744,-0.00013958,0.00091889,-8.9988e-05,0.0024577,-0.015075,-0.0203,-0.0048566,-0.0015136,-0.0091742,0.0019131,-0.0011874,0.005799,0.000617,9.2721e-05,0.0043336,-1.3008e-05,0.00027049,0.0021232,0.0027208,0.005278,0.0080771,0.0035316,0.00024939,0.023432,-0.00073595,-0.0059492,0.023273,-0.0018309,0.00023205,0.0058847,-0.015069,0.0041758,-0.00019997,-0.011785,0.0064113,-0.01282,-0.0005906,-0.010344,0.0015462,-0.016351,-0.0018103,0.014707,0.0020733,0.023324,0.0024674,-2.1756e-05,0.0068463,-0.0018538,0.019798,-0.0014965,0.001602,0.0033735,-0.0057414,-0.0027744,-0.00017862,0.00085234,-0.0005646,0.0096022,-0.011607,-0.010788
35,0.0017247,-0.35935,-0.0001717,0.0013034,-0.24217,0.0048263,-0.0048754,0.0047423,0.00019882,0.00017731,-0.0012275,0.0055423,0.0026277,0.0030123,0.00037807,-0.0029753,-0.00048068,0.00017756,-0.18244,0.10062,-0.0018263,0.0042934,-4.0163e-06,0.11114,0.00059268,0.00014569,0.040063,-0.0020508,-0.00045379,-0.00011122,0.0019327,-0.069669,0.00082754,-0.014401,-0.13284,0.00089031,-0.0054635,0.0016641,-0.44957,0.067808,-0.0021318,-0.0031844,-0.0025938,0.00027844,0.0013648,0.069693,-0.063536,0.0005712,-0.0014349,-0.0013921,0.0017759,-0.00044232,0.0018163,0.00091478,-0.10975,0.0021808,-0.52107,-0.0016556,0.0034168,-0.058488,0.0018308,0.060977,-0.00099234,0.40289,-0.00016694,-0.00032714,-0.0013075,0.0014802,-0.00088891,-0.0024922,0.002749,-0.013957,0.0068929,-0.0037044,0.0018081,-0.00033727,0.00025099,-0.0006919,0.0019285,-0.0023089,0.0021971,0.0016673,-0.0018696,1.0842,0.00078155,0.0017062,-0.0031293,0.00053769,0.00018986,-0.00013232,-0.0033652,0.0027353,-0.00059432,0.005318,0.01108,-0.00086659,-0.0027674,0.0012655,0.00024732,-0.00057314
36,-0.014765,-0.031539,0.02923,0.015155,0.014854,-0.0028848,0.0081469,-0.031423,-0.0012269,0.011066,0.010592,0.015556,0.012421,0.0088742,-0.021156,-0.027203,0.014921,-0.0098195,-0.022795,-0.010364,0.12814,-0.0062075,0.0057268,0.02925,0.0062832,-0.016971,0.021698,0.0015164,-0.011611,0.010292,0.0054011,-0.050773,-0.0021033,0.00039644,0.013569,-0.22046,-0.013084,0.013646,0.001373,0.01872,0.016888,-0.0056444,-0.0052899,-0.001204,0.011605,0.013012,-0.0076992,-0.014745,0.012434,0.010214,-0.0027847,-0.0073312,0.015473,0.0014008,0.074608,0.033633,0.019895,0.02472,0.018016,0.024149,-0.011458,0.016521,-0.0039042,0.010848,-0.028076,0.023952,-0.016586,-0.010128,-0.033212,-0.0065249,0.0075543,0.0021534,-0.0053098,0.014069,-0.017917,0.0047766,0.02655,0.024954,0.0025357,-0.02527,0.00060696,0.013246,-0.0084557,0.0068339,-0.0010296,0.011281,0.0011267,0.013561,-0.0064951,0.0037276,0.019836,-0.011918,0.0030338,0.0048034,0.0062104,-0.0086089,0.013822,0.0027839,0.0026457,0.0040713
37,-0.0016962,-0.012002,0.0010234,0.0046906,-0.011203,0.0040627,-0.0043323,0.0075222,0.0067133,-0.0014785,0.013124,0.020951,-0.0038801,-0.0014891,0.011453,-0.014047,-0.005745,0.001268,0.0088057,-0.0090189,-0.0080695,0.0093009,-0.00048282,0.025618,0.0020357,-0.0031499,0.011524,-0.00073566,0.019993,0.0050288,-0.0041481,-0.0022548,-0.0037823,-0.0019733,-0.0053899,-0.0036709,-0.14409,0.0058745,-0.0015716,0.0003688,-0.00033082,-0.0077123,-0.0068883,-0.0064912,0.00045428,-0.010838,-0.0026366,-0.0017214,-0.022781,0.0051118,-0.00093749,0.0031847,-0.0011663,-0.0083084,0.0013333,-0.00092536,-0.0033175,-0.0028189,0.0020561,0.0016233,0.0033052,0.012982,0.0026405,-0.025193,0.0053094,-0.002117,0.004755,0.013213,0.009722,0.023115,0.0042001,0.0011215,0.00023999,0.0043788,0.06615,0.00047307,-0.00025468,0.0011918,0.0013171,-0.0096863,-0.0080039,0.0089749,0.004399,0.011485,-0.0025286,0.0015948,0.0027132,0.00045925,0.00047327,0.0098681,0.015222,-0.0048895,-0.0026639,-0.0015102,-0.0023646,-0.0050488,0.0021788,0.036746,0.0068675,0.032402
38,-0.0014147,0.0026292,-0.011121,0.0021601,-0.00017061,0.025175,0.00074602,0.0036256,-0.0016523,0.032552,0.027699,0.0014865,-0.0025995,-0.010489,-0.010695,0.00021677,0.0013896,0.0022275,0.024393,-0.0017662,-0.0023399,0.0030923,-0.0019273,0.01595,0.02497,0.00083929,0.0093978,0.0036821,0.0013745,0.0035412,-0.0033807,0.00094454,0.0010011,-0.0068507,-0.0011568,-0.0011482,0.0087635,-0.084421,0.00070517,0.0039045,-0.0037076,0.00087866,0.0018481,-0.007767,-0.007013,-0.003744,-0.001648,0.00058773,-0.007728,-0.0006511,0.00047601,0.001072,-0.0021839,-4.6219e-05,0.001415,-0.00022968,-0.0018332,-0.0030025,0.00099727,0.006353,0.0026611,0.0042533,-0.00013201,-8.291e-05,-0.0038984,-0.0011999,-0.00097057,-0.0079568,0.018209,0.0027017,-0.0010361,0.0011639,0.0011152,0.0064666,0.039776,0.0014837,0.0011824,0.0051894,0.012584,-0.0098784,-0.00027424,0.0033891,0.0032144,0.0041341,0.0022655,0.0025241,0.015861,-0.0033058,-0.00081348,0.0026429,0.0038747,0.00097465,0.003305,0.00022368,0.0014801,0.00076651,-0.0017626,0.0045896,-0.00058074,0.0083527
39,0.0057067,0.0030841,-0.0021544,-0.00059743,-0.0019302,-0.0026233,-0.0026593,0.0051531,0.0016057,-0.0025694,9.7269e-05,0.0017793,-0.0043993,-0.00044055,-0.00036109,0.0053699,0.00028049,0.0039903,0.0052211,-0.00024825,-0.010427,-0.000892,-0.0021868,0.00011194,0.00034586,0.00048718,-0.0015735,-0.0013102,0.0043193,-0.0037694,-0.0061257,0.0067905,-0.00016463,-0.001852,0.0060371,0.0014421,-0.00046125,-0.0016223,-0.033302,0.0023413,0.00061726,-0.0008654,0.0010091,0.0070922,-0.00023917,0.049728,0.0017833,0.0011729,-0.0054767,0.0021512,-0.00035014,-0.0031736,-6.6431e-05,-0.0038194,0.0080591,-0.0013223,0.00030081,-0.0028683,3.7079e-05,0.005399,0.002848,0.0021692,-0.0010026,0.0062229,-0.003162,-0.0032498,0.0062066,-0.00070079,-0.0080724,0.0022821,-0.0025269,0.0010064,-0.00012041,-0.0021628,-0.0011396,-0.0022045,0.00041663,-0.0027357,0.0022325,-0.0032744,-0.00936,0.00075793,-0.0035886,0.011783,0.0018757,0.00033444,0.015879,-0.0014721,0.0021433,-0.00056396,-0.0065435,-0.0036156,0.001357,0.00027769,0.0017424,0.0015391,-0.00046787,-0.0023096,0.00040907,-0.0012686
40,-0.0019603,0.0062613,-0.0036453,0.00052827,0.00022439,-0.0051903,0.0020661,0.0053032,0.0081385,-0.0050783,-0.0064164,0.00026098,1.7109e-05,1.0248e-05,0.005002,-0.0018511,0.0022053,-0.00029962,0.0027815,0.00065387,0.00093399,0.0015142,-0.0079179,0.00059517,0.0053117,0.0039932,0.024418,0.0020376,0.003027,-0.0054555,-0.017325,0.0013907,0.0038847,-0.00070414,0.00031898,5.347e-05,-0.02109,0.00030447,-0.00028973,-0.036986,0.00077892,0.0068629,-0.0012282,0.0042605,-0.010819,-0.0063972,0.0043258,-0.010053,-0.0032894,0.0048956,-0.0025683,-0.00094855,0.0075051,0.011454,-0.0027827,-0.0008281,0.0062343,-0.0055988,0.012605,0.025241,0.012695,0.0079904,0.0034442,0.013353,-0.0038937,-0.00073432,0.0018762,0.0041123,0.00066199,-0.0066286,-0.0074822,0.0020727,-0.0010095,-0.001321,0.0012122,-0.0011576,-0.0010359,0.0010738,0.006581,-0.0013075,-0.0033708,0.0012763,0.0062791,0.0036399,0.0052842,0.0013041,0.0064364,-0.00024837,-0.0033327,-0.0015477,-0.003801,-0.020258,8.7912e-05,0.0037963,0.0042467,-0.00012952,-0.00055546,-0.0035168,0.0032072,-0.0055624
41,0.00073222,-0.02927,0.034072,-0.0225,-0.0055091,0.054351,0.031183,0.0039471,-0.0011286,0.036051,0.0043432,0.0036621,0.039372,0.0073766,-0.015744,-0.02248,-0.00028898,-0.019588,0.00058631,0.035787,0.021202,-0.012378,-0.007267,0.00061017,-0.017625,-0.0022524,-0.0058772,-0.022848,-0.00035905,-0.0035964,0.028407,0.0071523,0.0040806,0.0082802,-0.011015,0.00016794,-0.013267,-0.026506,-0.0058087,0.0056211,-0.28749,0.0020029,-0.0017057,-0.010005,0.064393,0.041708,0.00013778,-0.0068278,-0.0085394,-0.011472,0.00069934,-0.0074291,0.0021198,0.0016995,0.091596,0.037362,0.0099811,-0.0043758,-0.0008918,0.0072197,-0.018177,-0.043083,0.001261,0.017487,0.03094,0.026573,-0.039541,-0.025034,-0.024648,0.036142,-0.023176,-0.0025831,0.0303,-0.0034873,0.0035441,0.0045091,0.014823,0.0050887,0.0036192,-0.01491,0.011285,0.026524,-0.027499,-0.051221,0.017494,0.00052932,-0.01257,0.021629,-0.024171,0.00016654,-0.025708,-0.0011878,0.001919,-0.0077614,0.0080571,-0.0075347,-0.036152,0.047129,0.0021428,0.0005111
42,0.0010144,0.0089469,-0.01851,0.00050779,0.0064564,0.0014863,-0.0033436,0.017461,-0.00027505,-0.0065028,-0.0042208,0.0055262,0.005243,-0.013936,0.0051926,0.011802,0.00070585,0.0063419,-0.0012887,0.0068667,-0.0031436,-0.010794,-0.007336,-0.0021835,-0.0038092,0.00087652,0.017357,0.014748,0.013591,-0.0037573,-0.0087091,0.013903,-0.0025932,0.0040166,-0.0033023,-0.0010387,-0.027029,-0.0014185,-0.0019827,0.014186,0.0028187,-0.019121,0.0044423,0.0015108,-0.014722,0.00058507,-0.00050172,-0.0028552,-0.0013379,0.0086419,-0.0023174,-0.00027198,0.003445,-0.0035239,0.0015676,-0.0028252,0.0018875,0.0026417,0.0057092,0.013449,-0.00030099,0.011087,0.00067013,0.010483,-0.0054676,-0.010024,-0.0059273,0.0015356,-0.00018537,-0.0084312,-0.0020533,0.002506,-0.004403,-0.018572,0.013254,-0.001695,-0.00059759,0.00062982,-0.00066656,-0.0080601,0.0013362,0.0022117,0.0020163,0.012756,0.0067655,0.0025421,0.008901,-0.0018762,0.0021162,0.0015522,7.5087e-05,-0.0034188,-0.016863,0.001676,0.0030179,0.0031424,0.0010721,0.0065047,-0.010352,-0.0046132
43,0.010204,0.024735,-0.027941,0.013945,0.0091603,-0.0093646,0.0026297,0.0052715,0.00081408,0.015056,-0.00093549,0.023329,-0.0025666,-0.011892,3.8463e-05,-0.0015218,0.0058817,0.0033566,-0.022885,0.0070451,-0.0072772,0.0041983,-0.0012651,-0.022941,0.0099916,-0.012641,0.043868,-0.0011104,0.0073875,-0.024265,0.0015186,0.0088637,0.021223,-0.0032645,0.0014313,0.009744,-0.0072727,0.0093699,-0.016376,-0.010559,-0.01546,0.0050253,-0.037302,0.0015731,-0.017455,-0.0021196,0.012909,-0.00029289,-0.0079092,-0.00064146,0.0016252,-0.011998,0.0050668,0.0043732,-0.0052066,-0.0021825,0.0057864,-0.001544,0.0036925,0.0146,0.0067309,0.005404,0.0050313,-0.00082713,-0.0095756,0.004414,0.0022829,0.0014216,0.013351,-0.0046388,0.0039567,0.0031585,-0.0048258,-0.012291,0.00061359,0.00021249,-0.0071151,0.023408,-0.0048011,0.002528,-0.028137,0.0038583,-0.014531,0.02754,-0.010649,0.00044409,0.004437,0.0080829,0.001194,0.0019931,-0.0092983,0.00083273,0.003813,-0.0030226,0.0059736,-0.006113,0.020271,-0.0022775,-0.0022011,-0.013891
44,0.0006394,0.04003,-0.0048603,-0.0083418,0.0057274,0.01682,0.025924,0.0072362,0.0042488,-0.057276,0.015788,0.016198,1.3714e-05,0.0074436,-0.0053095,-0.015023,0.0001954,-0.0062279,-0.0085361,-0.0018471,-0.003632,0.00066168,0.0069767,0.0051375,-0.01093,-0.00087284,0.0034598,0.0024707,0.08444,0.019253,0.0031569,-0.011411,-0.0088422,0.0013785,-0.00052792,-0.0072431,-0.013686,0.010421,-0.0087991,0.013905,-5.7314e-05,0.00029336,-0.00093878,-0.10943,0.0042463,0.010953,-0.0046424,-0.0026897,0.0063563,-0.0030439,0.0024055,0.0030732,3.8417e-05,-0.0037321,-0.020242,0.0016528,0.0011648,0.0010588,0.00016615,-0.0049359,-0.0016901,0.015192,-0.0031417,-0.010403,0.049144,-0.0033363,-0.0072658,0.016992,-0.0058114,-0.0061208,-0.0018917,-0.0009521,-0.0013668,-0.0045056,0.006111,0.0092033,0.0045358,-0.0062804,-0.009913,-0.014223,-0.0058694,0.017136,-0.018908,-0.0032204,0.0010482,0.0018287,-8.5882e-05,0.010356,-0.0029394,0.0082789,0.021018,0.0044333,0.0020044,5.001e-06,-0.007997,0.0034769,0.011765,0.0048251,0.0077342,-0.00083648
45,0.003647,0.075531,0.014712,0.010327,0.0083053,0.005714,0.018698,-0.12961,0.0043306,0.015505,-0.0010654,-0.013783,-0.0032019,0.012092,-0.012543,-0.0040824,-0.01388,-0.0065661,0.094225,-0.0097958,0.016259,0.0052709,0.014146,-0.15042,-0.0070988,0.0083863,-0.0096719,-0.0024664,0.0055198,-0.012002,0.01986,-0.00042484,0.002631,-0.00020211,0.0030048,-0.0039509,-0.0082869,0.0026448,0.063747,-0.04657,0.02405,-0.016032,0.0073571,-0.00031629,-0.14093,0.040082,0.039718,-0.0025831,-0.0091175,0.0043308,0.016092,-0.0076322,-7.0344e-05,-0.0087596,-0.015631,-0.0050781,-0.15054,0.0064193,0.0066873,-8.5325e-05,-0.0091696,-0.0026015,0.0095524,-0.015167,0.0081957,0.0034107,-0.0023225,0.0044423,-0.0043634,0.0089889,0.013397,-0.021812,0.017677,-0.010273,0.0061235,-0.012498,-0.00083707,-0.00036196,-0.002863,-0.008225,-0.0021776,0.0005159,-0.005494,0.2179,0.0056207,0.0036969,0.0022476,0.011342,-0.0026872,-0.0089478,0.0021654,-0.011731,0.022059,-4.0539e-05,-0.017964,0.01745,-0.001953,-0.0040905,0.0069097,-0.010034
46,0.004664,0.0059902,-0.00040751,-0.00045755,-0.0010931,-0.0021917,-0.0040132,0.001021,0.0054754,-0.0015213,-0.00053774,-0.001257,-0.0112,-0.0055196,-0.00016104,0.0053773,0.00015799,0.0049021,0.0024924,0.00024158,-0.012425,-0.0019765,-0.0016596,0.012496,0.00020437,0.0036766,0.00024296,-0.00047463,0.0052009,-0.0063913,-0.0091112,0.0031957,-0.00093472,0.0012629,0.0081011,0.0016415,0.0013363,0.00036077,0.011248,-0.0011792,0.0013746,-0.0016898,0.001951,0.0086574,-0.00058255,-0.028941,0.012987,0.00031976,-0.002876,0.0010815,-0.00018354,-0.0052839,0.00054901,-0.0013645,0.015584,-0.0019843,0.00043477,-0.0028672,-0.00081599,0.0013405,0.0069549,0.00060487,-0.00045807,0.0039719,-0.0030566,-0.0032935,0.019169,-0.00027528,-0.003843,0.0037511,-0.0027593,0.0014098,-0.00017535,-0.001149,0.0016792,-0.0026046,0.00024106,-0.0011068,0.00079174,-0.012273,-0.0038556,0.0014976,-0.0015176,0.017177,0.00084556,-0.0009712,0.019129,-0.00021582,0.00023836,-0.00092501,-0.0069836,-0.0019097,0.0011882,0.00054168,0.0012423,0.00041879,4.5271e-06,0.0014327,-0.0086072,-0.00067091
47,0.0076895,0.011975,-0.0012902,-0.0026885,8.2159e-05,-0.0075317,-0.001242,0.0050498,0.0032041,0.00058427,-0.0026719,-0.002025,0.00037259,-0.0038552,0.0048975,0.0017258,0.00033623,0.0017762,0.00071555,0.00047856,-0.0084918,-0.00057367,-0.00093549,0.0094051,0.00019035,-0.0004726,0.0016063,0.0067678,0.0028391,-0.0058286,-0.015835,-0.00059082,-0.0011334,0.0021644,0.003661,-0.0065499,-0.00065798,-0.0035475,0.0028838,0.0030246,-0.00085836,0.0015271,-0.00032261,0.0043161,0.0032501,0.0063607,-0.029865,-0.0069517,-0.0048097,-0.0016175,-0.00060243,-0.0012915,-0.00016678,-0.00072169,0.021474,-0.0026606,-0.0027353,-0.00024427,-0.0014089,0.020668,0.0052918,-0.0015319,-0.0010807,0.0077687,-0.005377,0.00090509,0.019311,0.0025581,-0.0020945,-0.0017881,-0.0045158,0.00028903,-0.00043089,-0.0065628,0.0032589,-0.0036086,-0.0017234,0.0029079,-0.00036424,0.0018412,-0.0063995,0.0012459,0.0059174,0.006596,0.004248,-0.0013519,0.0073047,-0.00088662,-0.00035364,-0.0025449,0.0033082,-0.0072498,-0.0019786,0.00090386,0.0051103,0.00080156,-0.0030641,-0.0047313,-0.0088334,-0.0048547
48,-0.00079324,-0.073595,-0.015159,-0.0012623,0.040622,-0.047127,0.011484,0.0008638,0.024731,0.033057,-0.046267,0.056842,0.012441,-0.008788,0.032214,-0.0022043,0.0049116,-0.0083429,-0.17189,0.044809,0.0052218,0.00059356,-0.0067196,0.0070642,0.085103,0.0041552,-0.1114,0.049458,-0.018169,0.0031273,-0.0038477,0.075878,-0.010369,-0.0026716,-0.0075144,-0.0062228,-0.019615,0.0033616,0.68501,-0.33776,0.010718,0.0062972,-0.00092176,0.0048354,0.0029507,-0.26625,-0.070462,-0.27884,0.013528,0.012867,-0.017202,0.0040169,0.00021127,-0.0011662,-0.057257,-0.021077,0.013506,-0.020416,0.039245,0.28181,0.0068483,-0.028241,-0.002865,-0.002377,0.027166,0.014823,-0.064454,0.053743,-0.10033,0.0037599,0.036675,0.0057348,-0.00010367,0.14968,-0.06465,0.0052439,-0.018285,0.005307,0.003718,0.012339,-0.0025069,-0.033373,0.00014444,0.013294,-0.0087237,-0.0026631,-0.0054783,-0.013054,0.013531,-0.0031528,0.03938,0.010353,0.077312,0.020145,0.0045163,-0.0081056,-0.0081105,-0.062917,-0.022384,0.017022
49,0.00037491,-0.010962,-0.00034203,0.00010219,-0.006942,-0.00068179,2.0647e-05,-0.001472,-3.4634e-05,0.0013026,0.0011756,0.0014274,-0.00061867,-5.5009e-05,-0.00012143,8.1605e-05,-0.00032559,0.00026905,0.018791,0.0028616,0.00022283,0.00086873,4.3421e-05,0.0094999,0.00073271,-0.00036634,0.00043938,-3.6549e-05,-4.947e-05,-0.00033246,-4.3273e-05,0.0010031,-0.00029579,-0.019468,-0.00041806,0.00059946,-0.001845,0.00038782,-0.017532,-0.0007539,-0.00038152,0.0012539,-0.000131,-0.00047131,-0.00020835,-0.0014024,-0.0091755,0.0002957,-0.0044214,-0.00026557,0.00034137,-0.00025939,0.00049885,0.00062403,-0.0069229,0.00029839,-0.0010488,-0.0011671,0.0011408,0.00011863,0.0091428,0.0056999,-0.00066321,0.0041065,0.00016533,0.00017756,0.012067,-0.00013012,-0.00013672,0.0022559,0.001597,-0.00029562,-0.0004602,0.0010436,-0.001303,-0.00023087,0.00020955,0.00036802,0.001294,-0.00068357,0.0012097,0.0014813,-0.00018762,0.012298,0.00051079,-9.4574e-05,0.0054237,0.00015085,-0.00045272,5.3486e-06,0.00042842,0.0007722,0.00078482,0.00033055,-0.0046942,0.00028848,-0.00033676,-0.00086859,0.0011127,0.0031214
50,-0.00013666,-0.013818,0.00016571,-0.00046145,-0.0079375,-0.0062091,-0.0020685,-0.0068469,0.0020208,0.17313,0.0015142,0.003646,-0.00022543,-0.0044822,-0.0005212,-0.0024079,-0.0012534,-0.00016751,0.0077921,-0.016359,-0.00083433,0.0011385,-0.0018839,0.0064611,0.0015669,3.1324e-05,0.020793,0.0010248,-0.0019865,0.0009649,0.0011485,-0.020042,0.0011741,-0.028066,-0.0014757,0.0002641,-0.0038156,-0.0015955,-0.0067516,0.031502,-0.0028783,9.9494e-05,-0.0024888,0.0034783,0.0020113,-0.015994,0.043799,0.0013288,-0.0061191,-0.2143,0.0017317,-0.0010417,0.0029568,-0.0021098,-0.0073178,0.00053769,0.008838,-0.0013006,-0.00036316,-0.019766,-0.0044401,0.02045,-7.2916e-05,-0.0018814,0.0022805,-0.00031476,0.0092245,0.0045162,0.00089669,0.0044315,-0.00096018,0.015248,-0.003134,-0.0076212,-0.0076644,0.0010876,-0.00070105,0.00074265,0.0014247,0.0029089,0.0079528,-0.0021726,0.0017747,-0.01206,0.00021867,0.00062577,0.0027696,2.0464e-05,0.00062037,0.00046431,0.0013382,0.0019996,0.0047701,-0.0045332,-0.0078615,-0.0011987,-0.0018844,0.0080777,-3.4109e-05,0.021239
51,-0.00051878,-0.0017367,-0.028038,-0.032504,-0.037126,0.03939,-0.01016,-0.025351,-0.0012238,0.00055592,0.00020247,0.0024043,0.011685,0.0038893,-0.0093482,-0.0047448,0.0069247,0.0040924,-0.061067,-0.056314,0.024449,-0.016764,-0.022842,-0.011401,0.014026,0.0077014,0.0063285,0.0017893,0.0063369,0.032983,0.013262,-0.012012,0.0051665,-0.018543,-0.016196,0.0084688,0.0030871,-0.018196,0.0013626,0.052586,0.0013213,-0.025537,0.0079035,0.020586,0.031575,0.10906,-0.01408,-0.0088331,0.00019207,0.00529,-0.10322,0.02905,-0.010173,3.8781e-05,-2.9766e-05,0.0034918,0.011649,-0.0038249,-0.0072802,-0.035956,-0.010696,0.0061527,0.0070898,0.078439,0.011456,-0.017563,-0.034427,-0.026004,-0.035967,0.0088797,0.0054605,0.015606,0.0066503,0.015269,0.0062585,0.0088715,0.0017138,0.0062252,-0.014287,-0.00326,-4.3443e-05,-0.019713,0.00090457,-0.00050201,-0.0052351,0.0011913,-0.00016144,-0.0020086,-0.0073714,-0.0032145,-0.0026825,0.013394,-0.024076,0.014517,0.026822,-0.00043197,-0.011969,0.022685,-0.00031256,0.0062487
52,0.0031812,0.14252,0.0059465,-0.031265,0.0033706,0.02929,0.012307,0.018913,0.0087148,-0.012299,-0.017212,-0.0042561,0.0041348,0.0016485,-0.011121,-0.0004709,0.0090153,-0.0096385,-0.002556,0.015596,0.022136,-0.013865,-0.0044036,0.014019,0.0033284,0.027388,-0.013111,-0.0032817,0.017472,-0.0070974,0.0095737,-0.033278,0.0082858,0.013548,-0.0043992,-0.0089176,-0.0037528,-0.001944,-0.0036967,-0.0070272,-0.011958,0.0027906,-0.015847,-0.0097116,0.024528,-0.004193,-0.029649,0.0039833,0.021785,-0.0099722,0.013473,-0.078999,-0.0057712,0.0022538,0.0032399,0.014858,0.0070566,-0.0027662,0.018158,-0.012511,0.00902,0.042598,0.0029975,-0.0089982,0.032295,-0.0034214,-0.036753,-0.012086,-0.014319,-0.006064,-0.034473,0.0017374,-0.0073643,-0.0069493,-0.0039199,0.019178,0.0058748,-0.021501,-0.017654,0.029842,-0.0034899,0.0053471,-0.0076239,-0.096172,0.0060224,0.0091676,-0.012623,0.0067382,-0.0048037,-0.01826,-0.0041309,0.0078741,0.031159,-0.011418,0.030599,0.011626,-0.037729,-0.0053942,0.0048251,0.018799
53,0.0079425,-0.052705,-0.012315,-0.0080661,0.0052975,-0.0052007,-0.00068165,-0.0098407,-0.0012204,0.039249,0.0063924,-0.0028749,0.00055621,0.0081224,-0.0087565,0.0041416,-0.0019554,0.00078005,0.033679,0.0016851,0.0020427,-0.0022579,0.0020604,0.037429,-6.9137e-05,-0.010766,-0.0016642,-0.00036886,0.010237,0.0081406,0.0020631,0.017584,-0.0031013,-0.14087,-0.0015834,0.0012315,0.00078644,-0.018605,-0.0425,0.02804,0.0074233,0.0075347,-0.00014492,-0.00040644,0.0080734,-0.08947,0.0027801,-0.011762,-0.0033139,0.0013325,-0.0042771,0.0031155,-0.23032,-0.026704,0.0077564,0.0044308,0.024832,-0.012758,0.00017057,0.045126,-0.0041713,0.04075,-0.014688,0.0059551,-0.009046,-0.0018819,0.066938,-0.026301,0.0095502,0.026387,0.011336,0.0061968,0.012938,0.014511,0.030493,0.0028579,-0.0032083,0.011209,0.01215,0.0021621,-0.0055975,0.00086101,0.014092,0.066422,-0.0026442,0.0060994,0.017955,-0.0077981,0.0027,-0.00026343,0.0016059,0.01466,0.0041426,0.0025703,-0.046906,-0.0060933,-0.0070006,0.041978,-0.0025927,0.08494
54,0.005256,-0.029924,-0.011519,0.0079829,-0.012196,-0.0062485,0.0098963,-0.028027,0.0054767,0.0068494,0.046776,0.013205,-0.0020854,0.014302,-0.0030066,-0.0024908,-0.013512,0.0018716,0.034007,0.026009,0.0025301,0.07301,0.0062746,0.10145,0.00011751,-0.011764,-0.062128,-0.0094382,0.002949,0.0080552,0.0012178,-0.043352,0.0021035,-0.028553,-0.008453,0.0030652,-0.020507,0.0021832,-0.1215,0.068192,0.0028546,-0.042625,0.0052711,-0.0080166,0.0010448,0.0022122,0.06282,-0.0014057,0.0079476,0.0013996,0.00060299,-0.0032866,-0.016906,-0.30959,-0.0571,-0.0021394,-0.029194,0.0035961,0.017634,0.0062248,0.021756,-0.0037396,0.0025536,-0.035293,-0.0082446,0.0067569,-0.0042054,-0.022197,0.0058679,0.048511,0.024729,-0.019369,-0.0049115,0.067972,0.025532,-0.0018467,0.00048264,0.01535,0.024492,-0.0042774,-0.0039028,0.0039142,0.0035077,0.080615,-0.0059049,0.0025574,0.026538,-0.0093207,-0.0069508,-0.002428,0.017567,0.012627,0.0070688,0.0015494,0.0074667,-0.0090743,-0.013617,0.035966,0.0016607,0.1408
55,0.0002688,0.020802,-0.011957,-0.0028216,0.00072526,-0.0029176,-0.0033978,0.0028665,-0.00021887,-0.00014633,-0.0016511,0.012215,0.0016381,-0.00028813,0.0036494,-0.0094339,0.00095248,-0.0012117,0.012307,1.576e-05,-0.0071117,-0.0001093,-0.0024478,0.00044833,0.004226,0.0090528,0.00041975,-0.00026317,-0.0016268,-0.0094014,-0.0041657,0.02019,0.0010132,-0.0020605,0.00012718,0.0035171,-0.025569,-0.011714,0.014759,0.00058362,-0.00052558,0.00061019,5.0784e-05,0.010944,-0.019645,-0.0057405,0.0010391,5.063e-05,-0.0010162,-0.0018745,-0.0035171,-0.0024693,-0.00074339,-0.01232,-0.016234,-0.0009293,0.00099689,-0.0056006,0.00021502,0.0013744,0.011804,-0.0025107,0.010986,0.0040453,9.9063e-05,-0.00099783,0.0019483,-0.0020838,-0.0061,-0.00079526,0.0020441,0.0029098,-0.00057592,-0.0012521,0.00066658,-0.0064291,0.0010554,-0.0026361,-0.001478,0.0013495,-0.0036186,-0.013087,0.011804,0.040619,-0.0012635,-0.0043699,0.0018986,-0.00031363,0.0049821,-0.0021033,-0.00030352,-0.010894,-0.0037345,0.00090952,0.0069693,0.00083239,0.020404,-0.0073192,0.005337,-0.00792
56,-0.0050837,0.013128,0.0056885,-0.0034201,0.014545,0.005657,0.58709,0.0072566,0.011966,0.0013491,0.018061,0.0051182,-0.0046641,0.0033409,-0.011114,0.0052641,0.0001718,-0.00050849,0.023641,0.013987,0.0008981,0.012867,0.00060575,0.0077754,0.006434,-0.0011003,0.0064721,0.013582,0.0049253,-0.00098605,-0.0010347,0.0075203,-0.00022165,0.007347,-0.00026831,0.0022188,0.006675,0.010287,0.0077758,0.017982,0.0047676,0.0077251,0.0061053,0.0044533,0.00078403,0.030067,0.00812,-0.0015962,-0.0047789,-0.0011926,-0.0019048,0.0014961,0.0018419,-0.0028649,0.0073291,-0.077743,0.011299,0.0046395,0.010806,0.011231,0.0080279,0.0082772,0.0073285,0.017409,0.010521,0.0015996,0.0082097,0.0099254,0.003387,-0.0048324,0.0013707,0.022874,-0.0042084,0.0040525,0.008031,0.0018105,-0.0016898,0.0013522,-0.002925,0.0065035,-0.0041621,0.008615,-0.0082069,0.013164,-0.0012593,9.1688e-05,0.026003,-0.00074108,0.0014369,0.005708,0.0045926,-0.0010303,0.0061961,0.0075142,0.0081878,-0.0068366,0.014166,-0.00077181,0.0045449,0.0060006
57,-0.0023051,-0.0024992,-0.0010504,-0.0026828,0.0024469,-0.0021708,0.0045231,0.01085,0.0011178,-0.027582,-0.00015495,-0.00218,-0.0046791,-0.0096127,0.0029554,-0.00057257,0.00026285,0.0011827,-0.00064269,0.0025855,-0.00048682,-9.8198e-05,-0.001146,0.011865,0.0024401,0.0064023,0.020062,0.006869,0.0028451,-0.0052768,-0.017903,0.0013727,-0.0020265,0.00062558,-0.00050124,-0.0013895,-0.0050511,7.9315e-05,-0.013669,0.001454,0.0015916,0.0037628,0.00055264,-0.0015144,-0.011397,0.00062814,0.0015253,-0.00070111,-0.0010541,0.005845,-0.00010793,6.8024e-05,0.0063258,0.0057503,-0.00090682,-0.00089737,-0.048233,5.5337e-05,0.0074599,0.0076236,0.0022827,0.0082753,0.0017563,0.013354,-0.0009394,-0.00055757,-0.00072468,0.014815,0.00013028,-0.0066453,-0.0028384,0.0019546,-0.00093795,0.0032975,0.0044106,-0.0027847,-0.0029308,-0.0025834,0.00025943,-0.004771,0.0026438,0.0017091,-0.00027988,0.021907,0.0054884,0.0012616,0.012409,-0.0039619,0.0061616,-0.0046019,0.0033671,0.0020282,-0.0001781,0.0016409,0.0024288,0.0041892,-0.003109,-0.00018893,-0.00091785,0.0011434
58,-0.0005461,-0.011668,-0.0042168,-0.0017959,-0.024855,9.8156e-05,5.5909e-06,0.0090641,0.0027364,0.01169,-0.00064188,-0.0020668,-0.0013213,-0.0024252,0.016833,0.00094946,0.00035624,0.0017507,0.049581,-0.0080154,0.0039823,0.032156,-0.004713,0.095698,0.0071195,-0.00090658,0.028098,1.4023e-05,0.00041443,0.0021673,0.00046066,-0.0047699,0.0028296,-0.071205,-0.0010612,-0.003478,-0.0099377,-0.01401,-0.0041936,-0.040739,-0.0027697,-0.00078561,-0.02166,-0.0052615,0.0024725,-0.050378,-0.018605,-0.0013954,-0.0033548,-0.0025611,-0.00051619,-0.00027167,0.0016241,-0.0076766,-0.023065,-0.001052,-0.0023656,-0.14276,0.0042005,0.021382,-0.0036532,0.00084516,0.0048754,-0.013364,0.00091937,3.988e-05,0.024516,-0.0084491,0.016097,-0.0044094,0.0016095,0.015472,0.0031379,0.032065,0.017626,0.003588,0.00089225,0.0027074,0.0072687,-0.0025616,0.0022981,0.0044615,0.00046358,0.032169,-0.00025831,0.0032994,0.055458,-0.0010047,0.0034289,-0.0014906,-0.0038924,0.0032207,0.0024903,-0.0029541,-0.015926,-0.0013826,-0.0060247,0.051053,0.0061673,0.087599
59,-0.00039843,0.0056173,-0.0078929,-0.0021119,-0.00097982,0.016565,-0.0096852,0.011037,-0.0021641,-0.0054756,0.01552,0.024851,-0.0023775,-0.012992,-0.0040004,-0.010586,-0.00056052,0.0019683,-0.0030247,-0.0029487,-0.007994,-0.00084695,0.0029574,-0.00043706,0.010709,-0.015693,0.010297,0.0078736,0.00049103,-0.0089724,0.008275,0.0014532,-0.0010474,0.0001959,0.00030437,0.0047681,-0.0081011,0.0012404,-0.0027892,0.0067911,-0.0090014,0.00091528,0.00036698,0.0004153,0.015397,-0.003225,0.003081,0.0031272,-0.0049145,-0.0010883,-0.0026769,0.0031323,-0.0049188,-0.00056288,0.00014069,0.002277,0.0053801,-0.030567,-0.018079,-0.0015363,0.0097193,-0.00044094,-0.0011709,0.002324,0.0010377,-0.0026461,0.002831,-0.0012904,0.074691,-0.00031398,-0.0016159,0.0026231,-0.0041327,-0.021081,0.010488,-0.0077144,0.0057697,0.0039506,-0.0032668,-0.0087617,-0.0016373,0.016667,-0.0030761,0.017332,-0.0037359,0.0030629,0.0022961,0.0009591,0.011094,-0.0014214,0.0084449,-0.012713,0.0080075,-0.0013157,0.0037618,-0.0024097,0.0083357,0.010505,-0.0011846,-0.011622
60,0.0034124,0.00090119,0.0029514,0.0013144,-0.00086499,0.003715,-0.0042429,0.015647,-0.0082824,0.0012171,0.0016363,0.0030472,0.0032106,-0.013096,-0.001599,0.0055537,0.0018204,0.0022368,-0.0027494,0.0074407,-0.0098523,-0.0073425,8.801e-05,0.0039444,-0.00022023,-0.002523,-0.0010619,0.0039175,0.0071924,-0.0033371,-0.0010082,0.0056281,-0.0060443,0.0093494,-0.0015698,0.0014612,-0.0050509,0.0027272,-0.0075473,0.031271,0.005125,-0.001951,0.002969,-0.00016931,-0.011686,-0.00030252,0.0057572,0.013484,0.00017125,-0.0066814,0.0020444,-0.0036641,0.0055076,0.004368,0.0036122,0.0012122,0.005534,0.003891,0.0047345,-0.049595,-0.00092047,0.00057913,0.0060296,0.013194,0.00069156,-0.021663,0.0081655,-0.0014628,0.0018124,-0.004652,-0.0054146,-0.00011651,-0.0017076,-0.011035,0.0013142,-0.00049482,0.0098582,-0.0010424,0.0038803,-0.0021865,0.0015789,-0.0066911,0.0082187,-0.0010827,0.0027367,-6.9063e-05,0.011847,-0.0091277,0.0019924,0.017451,0.0020776,0.0020139,-0.017676,0.004927,-0.0017787,0.013957,0.0017653,-0.0014253,-0.0097527,-0.0023087
61,0.0042959,0.0038121,-0.00069236,0.0026798,0.0030279,0.0013681,0.00032342,0.011649,-0.00043167,-0.0031459,0.0014767,-0.0010125,-0.00033519,-0.014781,-0.0048349,0.0043095,0.0029069,0.0013375,-0.0032607,0.0072686,-0.0065784,0.0022396,-0.0044308,0.013138,0.0045423,0.0057553,0.0074705,0.0041907,0.002742,-0.0050739,-0.016105,0.0018416,-0.00037821,0.0012029,0.0010226,-0.0039903,-0.0050902,-0.0027466,-0.02084,0.023874,0.0026615,0.0038845,-0.0006019,-0.0020563,-0.0047423,0.0004983,0.0078418,0.00058831,0.0037211,-0.0078252,-0.0038963,-0.0056467,0.0050513,0.0095067,-0.0009952,-0.00084193,0.0045281,0.0012336,0.0021456,0.0079014,-0.047439,-0.00029178,-0.00037386,0.016334,-0.0023956,-0.0050849,0.0058677,0.0033965,-0.0041604,-0.0082263,-0.0065976,0.0040097,-0.00036363,-0.0035641,0.0086992,0.002255,0.0034656,-0.0021857,0.0098731,-0.0015516,0.0066096,0.00050819,-0.0091809,0.010246,0.0034484,0.0031755,0.015576,0.0003579,-0.00016845,-0.0015766,-0.00019202,0.014834,-0.011916,0.0041875,0.0019059,0.0025358,-0.0016295,-0.0071234,-0.0063741,0.0042098
62,-0.00014875,0.011079,-0.00089286,-0.00023738,-0.0017281,0.0022653,0.00097508,0.0042112,-0.0089205,-0.0025305,-0.016774,0.0021519,0.0034945,0.0079277,0.0026244,-0.013896,6.1936e-05,-0.00050082,-4.3322e-05,0.0064289,0.00027491,0.0053224,0.0017306,-0.0067929,0.0042457,-0.013321,0.013316,0.0036184,0.00072643,-0.0030607,0.00041731,0.033258,0.00094706,0.0036753,0.0011546,0.004592,-0.010595,0.0088631,0.0031476,0.00082933,-0.0040949,0.0022123,-0.0012088,-0.0025832,0.00023505,-0.0031645,-0.00019801,0.0010832,-0.0042358,-0.004597,-0.00030017,-0.0024963,0.0011733,0.00029315,-0.011208,0.00030143,0.0059325,-0.0032901,0.0056788,-0.0041485,0.0014343,-0.047253,0.017895,0.0055218,0.0045684,-0.0059938,0.00026934,-0.00055832,0.027104,-0.0040398,-0.00080606,0.0060123,-0.0029923,-0.011862,0.001957,-0.010554,0.013935,-0.015451,-0.0053553,-0.014029,0.0017576,0.018876,-2.1554e-05,0.0067741,0.00044355,-0.0045398,0.0034607,-0.0019386,0.0033836,0.0012443,-0.0038898,-0.0039599,0.0018977,0.0024355,0.015291,0.0035688,0.0060882,0.0016359,-0.0038732,0.0024728
63,0.0012385,0.0089763,-0.0073212,0.0097001,0.0045959,0.0098499,-0.0043106,0.0024283,-0.0060937,-0.00058867,-0.0060384,-0.0013807,-0.0057785,-0.0035882,-0.0017459,-0.00016518,0.0004243,-0.00043602,0.0083598,0.045576,-0.0023,0.002102,0.0077275,0.00066737,0.0031197,-0.0050655,0.010924,0.00063486,0.000122,-0.000318,-0.0072167,0.01747,0.0018082,0.0027473,-0.0016962,0.0035806,-0.0070684,0.00011054,0.0048048,-0.0032334,-0.0013175,0.00034219,-0.00030757,-0.0069278,0.00054708,-0.0053364,1.8968e-05,-0.0013018,-0.0024969,-0.0051957,-6.3864e-05,-0.0074531,0.0024399,-0.0014509,-0.0037266,0.0018666,0.0025637,0.0096792,0.00228,0.0062831,0.0012259,0.0061292,-0.070124,-0.00090228,-0.000314,0.00045442,0.00047833,-0.0057491,0.0070165,-0.0015158,-0.0019805,0.0037665,-0.0039871,-0.0045992,-0.0034797,-0.0039097,-0.0054537,0.0043855,0.0058654,-0.0079715,-0.0024567,0.011575,-0.0046053,-0.00040732,-0.00091756,0.0039038,0.0027522,0.0047402,0.005113,0.0004933,-0.00020833,-0.003065,-0.0057084,0.0010727,0.0025855,-0.0048219,0.02438,0.0085939,0.0022394,0.0033273
64,-0.003485,0.015846,-0.013622,0.0030677,0.010751,-0.00074081,9.6902e-05,0.030388,0.0010634,-0.0050962,-0.00084741,0.011107,0.016654,-0.010813,-0.0012711,-0.0064473,6.3077e-05,0.00033758,-2.7533e-05,0.0057558,-0.0085316,0.0015199,-0.004715,0.004488,-0.0002532,0.0034581,0.016571,-0.0015721,0.0013147,0.0084123,-0.012208,0.0065022,0.00071944,0.0080136,-3.6741e-05,-0.0042057,-0.034433,0.0056316,0.0015386,0.011792,-0.0013609,0.000232,-0.0024369,-0.0074012,-0.014906,-0.026782,-0.0035571,-0.0040014,0.0021485,0.0020614,0.00050042,-0.005414,-0.00029269,-0.010146,0.0015389,0.0023534,0.0073191,0.0024927,0.0064742,0.0066519,0.0021675,0.00604,0.004031,-0.013762,0.0030335,0.00013202,0.0016348,0.0057299,0.0087991,-0.0038451,0.0019796,0.0030013,-0.0012557,-0.018793,0.0089081,-0.0010502,-0.001949,-0.010156,-0.0068989,-0.024718,-0.0044646,0.0034314,-0.00072619,0.025902,-0.0014625,-0.0040278,-0.0014427,-0.0096552,0.0052226,-6.9471e-05,0.0016572,0.0041872,-0.002992,-0.00066966,0.0038922,0.0084911,-0.00072636,0.0090705,-0.0040317,-0.0069024
65,0.0010589,0.0039947,-0.002746,-0.0016002,0.0035883,0.0058044,-0.0013584,0.0050845,-0.0016308,-0.0094352,0.0038458,0.0092951,0.0018599,5.6902e-05,-0.0021617,-0.0072548,-0.0025575,0.00067423,0.0044918,0.003927,0.004075,0.003836,-0.0021411,0.004266,0.0038739,-0.0066721,0.0052141,0.0037825,0.0043114,0.0011398,0.0024156,0.0042908,-0.0019281,0.0053324,-0.00078382,0.00030906,0.0010229,0.0048369,0.0041323,0.004501,0.00038121,0.0037553,0.0039403,0.0044551,0.0011475,0.0043414,0.0041429,0.0014698,-0.023742,0.0012148,-0.0016572,0.010168,-0.0032732,-0.00043203,0.0053554,0.0013554,0.0044793,-0.0010597,0.0038618,0.0039003,0.0056515,0.0037993,0.0039427,0.0058023,-0.011234,-0.00055374,0.003768,0.0093545,0.008868,-0.002943,-0.00038088,0.0043688,-0.035582,-0.0079801,0.092357,0.0025391,0.0016917,0.0030077,-0.0017757,-0.0036932,-0.00064269,0.073328,-0.072246,0.0062904,-0.0022227,0.0018887,0.0039893,-0.0013995,-0.0011941,0.010375,0.064045,-0.0031792,-0.00080902,0.0048006,0.0042425,-0.0011527,0.096448,0.0030705,0.0014675,-0.012471
66,0.014289,0.069233,-0.011768,-0.025428,-0.012815,0.14696,-0.0062529,-0.025502,0.0085821,0.0026322,0.062447,0.0024905,-0.013205,0.013073,0.0070025,0.012998,-0.0070065,0.0048688,0.00097287,0.070256,0.037776,0.011489,-0.011361,-0.030003,-0.013997,-0.013906,0.0015152,-0.097557,-0.009261,0.020284,0.022342,-0.015586,0.0061484,0.0019837,0.005961,0.028216,0.0028243,-0.0035,0.00097915,0.005274,0.011429,-0.001016,0.0090346,-0.038546,0.012912,0.023726,-0.0025816,0.0033685,0.013789,0.0039697,-0.0079935,0.0077068,-0.0072022,0.0022869,-0.061014,0.0084066,0.025242,-0.022586,-0.0020008,-0.012169,-0.036754,-0.053939,-0.029304,0.047164,0.031526,-0.074325,-0.012482,-0.015732,-0.12057,-0.024729,-0.006881,0.032891,0.007121,0.02434,0.0042546,-0.0015333,0.0023743,0.014018,-0.0077799,-0.0019899,0.0014887,0.015788,-0.019962,-0.019177,-0.018434,-0.0033303,0.033817,0.012541,-0.0018393,-0.020672,0.0035088,-0.0029119,-0.0057676,-0.0030013,0.02302,0.0016366,-0.0012226,-0.0022163,0.0079684,0.020844
67,0.0078894,0.021391,-0.020609,-8.2477e-05,0.000373,0.00062665,-0.013008,-0.00068124,-0.0011756,-0.0012989,-0.0010222,0.005324,-0.0066534,-0.0012036,0.00031704,0.0074959,0.00011304,0.0056301,0.00020996,-9.6921e-05,-0.0087543,-0.00054409,-0.01828,0.017048,-0.0022862,0.011413,0.00053911,0.0024888,0.0056498,-0.0043404,-0.0093469,0.0075038,-0.0041218,-0.0011368,0.0065198,0.00092961,-0.0029361,-0.0029567,0.0025378,0.0032361,0.0045696,-0.0012458,0.001272,0.025265,-0.0067104,0.004216,0.012781,-0.0044511,0.015952,0.0027893,-0.00025249,-0.0071038,-0.0011386,-0.01433,0.016542,-0.0013267,0.00039465,-0.0035436,-0.0020028,0.01115,0.0010719,-0.0021359,-0.0065366,0.0062813,-0.0051091,-0.00048894,-0.010841,-0.00070178,-0.00070898,0.0021757,-0.0026318,0.015543,0.00021281,-0.020888,-0.0010694,-0.0078437,0.00075687,0.0066232,0.0010911,-0.010522,-0.011965,-0.00067909,-0.0019808,0.016385,-0.0024148,-0.0026996,0.013534,-0.00087071,0.010927,0.00030295,-0.019488,-0.0021252,0.00039233,0.00090832,-0.00049271,0.00096453,-0.00026783,0.0055103,-0.0010852,0.00018612
68,-0.0013877,-0.012917,-6.8136e-05,0.0019191,0.0022848,-0.0036796,0.0016071,0.0026752,-0.0011063,0.0092527,0.00687,0.0052116,-0.0031791,-0.03224,0.0045235,0.0034555,-0.00033078,0.0032306,0.007498,0.0014767,0.0029657,-0.0014697,0.00023915,0.025561,0.00546,-0.0015769,0.00022053,0.00042122,0.0031575,-0.0009747,-0.0016009,-0.0044141,-0.0010729,-0.061502,0.0019429,0.0010216,-0.00019843,-0.00013206,-0.027203,0.038155,-0.0037798,-0.00449,0.0026791,0.0040595,-0.0027583,0.0011216,0.012753,-0.0010393,-0.0079083,3.3102e-05,-0.0015494,0.00028785,-7.8726e-05,-0.0018308,-0.0022988,-0.0015314,-0.0011467,0.0013661,-0.00023838,-0.0065527,0.004721,0.0062704,-0.00061485,-0.0012402,0.0022228,-2.4324e-05,0.002908,-0.14056,-0.00079306,0.0088369,0.0016992,-0.002844,-0.0054761,0.0022738,0.13143,0.0014264,0.0019812,-0.00094875,0.0013598,-0.0012778,0.0037527,0.0023291,0.00043524,0.021389,0.00062065,-0.00050977,0.010912,0.0012156,-0.005331,0.0041462,0.0070551,-0.0015425,0.0066464,-0.00057943,-0.0029193,-0.0015894,-0.00068567,-0.0075241,0.017196,0.006249
69,0.00045666,-0.0028574,-0.00040321,-0.0023623,-0.00088174,0.002864,-0.0040901,0.002461,0.00094924,0.001675,0.0025632,0.0062649,0.0024656,0.0031058,0.00066774,0.0027517,0.00071188,-0.0035501,0.021954,0.0025971,0.0013491,-0.0003332,-0.0031902,0.023422,0.0018368,0.0015338,0.0089027,0.12099,0.0027661,0.00359,0.00085994,0.00014883,0.0017627,-0.0053686,0.0013815,-0.0026109,0.0075322,0.017207,0.0038607,0.013195,-0.00061512,0.0017668,0.0031075,-0.0011543,0.00058158,-0.00022998,0.0073913,-0.0025448,-0.010286,-0.0050562,-0.0019457,-0.00031411,0.0021413,0.0019021,-0.00019228,-0.0032009,-0.0002383,0.018531,0.019683,-0.0021804,-0.004557,0.0037407,0.0035553,0.001998,0.002789,-0.0037673,0.0033375,0.00050197,-0.062057,0.0073369,-0.0076439,0.0072216,0.0009529,0.0074629,0.0028584,0.0043466,-0.0040907,0.00094415,0.010484,0.0011111,-0.0049157,0.0037713,-0.0078478,-0.005749,-0.0024121,0.00011274,0.0022624,0.0034205,-0.0018845,-0.0026221,-0.0021645,0.016014,0.0013539,0.0033996,-0.0016863,0.00019448,-0.0025218,0.0046082,-0.0078977,0.0045853
70,-0.0016502,-0.26964,-0.0017321,-0.012082,0.072888,-0.021675,-0.0075049,0.020491,0.027849,-0.00039003,0.0022096,0.0020665,0.0034382,0.0018928,0.031734,-0.02132,-0.001151,-0.0057198,-0.014139,-0.017074,0.018561,0.16877,-0.018865,-0.055735,0.046033,0.0050835,-0.031374,-0.019384,-0.0042199,-0.012975,-0.00063934,-0.18433,-0.00091124,0.38505,-0.00053085,-0.0063132,-0.00331,0.018105,-0.001611,-0.225,0.0068643,-0.0069576,-0.0090438,0.0063094,0.017905,0.13497,-0.23565,0.0031224,0.025997,-0.0032964,0.0043203,0.0030039,0.004211,0.0030102,0.0054427,0.0022596,-0.40974,-0.0082524,0.040898,0.2392,-0.29381,0.0013418,0.012539,0.11597,-0.015106,-0.0091771,0.054467,0.00069306,-0.014583,-0.094374,0.029732,0.20964,-0.014637,0.038135,0.015341,-0.0045461,-0.0062049,-0.0059695,0.0058737,-0.0008957,0.011864,-0.029646,0.017772,0.18125,0.005159,-0.018408,0.25835,0.0022488,-0.0097066,-0.0027543,0.028314,-0.00036875,0.001171,-0.0050117,-0.054163,0.0049348,-0.0015163,-0.040373,-0.0083671,0.12154
71,0.0028419,-0.032182,0.001124,0.0021665,-0.020463,-0.0040841,0.0022912,-0.046601,0.00091084,0.0015895,0.0057553,0.0054207,-0.00060027,-0.0052169,0.00025537,-0.0090236,-0.0017371,-0.00057423,0.12909,0.01109,-0.0011616,0.011845,-0.00022748,0.07928,0.0045769,-0.0037352,0.0080901,-0.0012335,-0.0016325,-0.0011054,-0.00074195,-0.0028034,0.0031002,-0.12927,-0.0027578,0.00083186,-0.0075688,0.0021166,-0.026195,-0.0041553,-0.0039016,0.0032017,-0.0062362,-0.0066691,0.001195,-0.025797,-0.044486,0.0017512,0.0013313,-0.0031072,0.00078081,-0.0011878,0.0019746,-0.0018718,-0.050137,0.0022782,0.0033634,-0.0034672,0.0033507,0.0085146,0.016125,0.012957,-0.0026074,0.013548,-0.00015912,-0.00077314,0.041876,-0.00060366,-0.0012772,0.0071947,-0.04483,0.059901,-0.0032617,0.019379,-0.0019911,0.0011128,0.0010421,0.0031294,0.0031932,-0.0015913,0.00365,0.0066273,-0.0023941,0.0085295,-0.00035602,0.00032026,0.022511,-0.00092503,-0.0014783,6.6749e-05,0.0053049,0.0057412,0.0095342,-0.0024498,-0.022166,0.0001451,-0.0057898,0.0055666,0.0031655,0.034599
72,0.0060339,0.0064481,-0.00071032,-0.007062,-0.0041262,-0.0093116,0.00067517,0.01995,0.0025223,-0.0034592,1.0477e-05,0.0029925,-0.0057599,-0.012934,0.0046225,0.00039081,0.00046454,-0.0062808,-0.01588,0.011471,-0.0043138,0.0035283,-0.0030323,-0.0011437,0.0035843,0.0072434,0.0010705,0.0018406,0.0005794,-0.004167,-0.015212,-0.0010308,-0.0031098,0.015484,0.00024885,-0.0076659,-0.041103,0.0024882,-0.00079819,6.5462e-05,-0.0047467,-0.0025445,0.005403,0.011034,-0.017921,-0.011179,-0.0012416,0.0043946,-0.00062091,0.017493,-0.0012862,-0.015108,0.0017074,-0.010603,0.0057741,0.0014016,0.006673,0.0023072,0.0097604,0.0046394,0.014133,0.010754,0.0020206,0.022158,2.9078e-05,-0.00036418,0.0062002,0.00058032,0.027747,-0.0014811,-0.0022072,-0.012466,-0.00044826,-0.025141,0.01048,0.0018159,0.012749,-0.00017163,-0.00093439,-0.008392,-0.0012504,0.00093215,-0.0031897,0.031643,0.0016512,-0.0014029,0.002168,-0.0086039,-0.0013746,0.0022726,0.005949,-0.003639,-0.010114,-0.003422,0.0022916,0.0057171,-0.0065395,0.0046601,-0.0098053,-0.0097066
73,0.011418,-0.024471,0.030865,0.0043341,-0.014558,-0.014676,0.0029256,-0.14597,-0.013894,-0.00034192,-0.0053045,-0.025281,-0.0063656,-0.03624,-0.018401,0.0049258,0.0044004,-0.0011043,0.59051,0.087628,-0.002523,0.01283,0.0069845,0.0029813,-0.0092709,-0.013071,0.044196,-0.026176,-0.025018,-0.010593,0.0043542,0.033638,-0.0063409,0.1912,0.034495,-0.018156,0.012251,-0.0066914,-0.16284,-0.094153,0.0016935,-0.029785,-0.0023351,-0.013831,0.0072132,-0.5871,0.045199,0.0032766,-0.006333,-0.0085009,0.0057171,-0.014194,0.0039039,0.017767,0.04999,-0.00715,0.010793,0.028338,-0.016104,0.070442,-0.00083133,-0.024696,-0.00090063,-0.0073042,-0.0033552,0.015033,0.19264,-0.028023,-0.024545,0.0044648,-0.0070586,0.0012209,-0.223,-0.0011112,-0.060044,0.014466,0.0058076,-0.0065733,-0.013933,0.028718,0.011535,-0.02991,0.018718,-0.13425,-0.0038904,-0.020724,0.0093815,0.016709,-0.0011902,0.00036217,0.17781,-0.029327,-0.0042606,0.0089687,-0.14891,-0.0074389,-0.026173,0.047484,-0.0063066,0.02619
74,0.0011144,-0.049785,-0.00056059,0.0020024,-0.010342,0.00167,2.4745e-05,-0.0041176,0.0016902,-0.00020039,0.00055508,0.0020689,-0.0017778,0.0001145,-0.00061365,-0.0020084,-0.0019092,0.000739,-0.0092547,-0.017283,0.00033062,-0.013872,0.00011066,-0.0084922,-0.00071371,-0.0017181,0.0092177,-0.0021427,0.0014219,0.0001617,-0.00013489,0.0055833,0.00085996,0.032616,-0.0015361,0.00053493,-0.0030568,-0.0024166,-0.0024002,-0.0017516,-0.0005222,-0.0089889,0.0036429,-0.00010269,-0.000565,-0.00017986,-0.03403,0.00086804,-0.0014002,-0.00027106,0.00075229,0.00070319,-0.0005217,-0.0028175,0.014543,-4.3365e-05,-0.0016665,0.00025523,0.00010343,-0.010457,0.0088193,0.015408,-0.0018786,-0.0012553,-0.0011207,0.00082762,0.0075129,-0.0012919,0.0045724,0.0037101,0.0011172,-0.0064293,-0.0018636,-0.0035256,0.0019948,-0.00019185,-0.00034,0.0028357,0.0034143,-0.0043818,0.00055664,0.00024878,0.00049929,0.077273,0.00032816,0.0026326,0.022318,-0.001947,-0.00046801,0.0010532,-0.00031802,0.0016119,0.00064315,-0.005737,0.002296,-0.001216,-0.0002722,0.0040711,-0.0016579,0.010347
75,0.0021242,-0.00022124,-0.0072157,0.0013939,-0.0034138,0.0029452,0.0033282,-0.0033963,-0.0076757,-0.0071228,0.0055467,0.0044928,-0.0023995,9.2364e-05,0.00204,-0.0045834,0.0005067,0.00096454,0.021992,0.00071315,0.00037355,-1.8726e-05,5.349e-05,0.010961,0.00057564,0.0011212,0.018787,0.0042863,0.023675,-0.0049091,-0.0014736,0.0005087,-0.0081552,0.00076243,-0.011216,-0.0040511,0.053458,0.001404,0.00083247,-0.0025185,-0.00090196,0.0035203,-0.0015432,0.00057012,-0.0051918,0.012652,0.0073871,-0.0022287,-0.020698,0.0010175,-0.0001003,-0.0033785,0.0043824,0.0053039,-0.0061345,-0.0019434,-0.00020286,0.0030564,0.0057251,-0.0014466,0.0058003,0.001605,0.00056479,0.011122,0.058214,0.0029893,-0.0026973,0.07217,0.0013879,0.013381,0.0012793,0.001413,-0.027924,0.020668,-0.057789,-0.0012176,0.002779,0.00059458,0.0017083,0.00071927,0.0054859,0.022494,0.00072629,-0.0013517,0.0015229,0.0023897,0.019342,0.0039956,-0.0045177,0.06015,0.021621,-0.0013189,-0.0065596,0.0013699,0.0013135,0.0016675,-0.00092287,0.0017613,0.0049751,0.0055247
76,0.022041,0.15574,-0.018544,0.014625,-0.050345,0.060883,0.019464,-0.0025175,0.022586,0.0050468,-0.028758,-0.0088886,0.17786,0.031434,-0.023219,-0.01174,-0.0018585,0.026355,0.0057403,0.01079,-0.07175,-0.0035871,0.0097833,-0.017345,-0.001403,0.00050671,0.0036427,-0.022179,-0.004298,0.017974,-0.0042083,0.072174,0.010456,0.0020853,0.012648,0.025049,-0.0001339,-0.0015869,0.031955,0.0026461,-0.011627,0.014989,-0.0093781,-0.014819,-0.0012696,0.033926,-0.0069698,-0.0030836,-0.015716,0.0082208,0.0067432,0.04053,-0.0057062,-0.0076347,-0.16479,0.0010177,0.026495,0.013499,0.0063725,-0.0028148,0.0012978,-0.042173,0.0057349,0.039709,0.036577,-0.024081,-0.046744,-0.0070582,-0.036589,0.018932,0.022314,0.00097151,0.009876,0.0080846,0.02405,-0.12253,0.046004,-0.027591,-0.025338,-0.011958,-0.035043,0.0028322,-0.016123,0.00083366,0.0040339,0.0086053,0.010554,0.037553,0.0081974,-0.0067945,0.0067145,-0.016817,0.021615,-0.010293,0.032258,-0.0098124,0.0099711,-0.0023621,-0.010893,0.0079094
77,0.011021,0.051235,0.14218,0.024283,0.018885,0.066435,0.0010613,-0.022884,0.060137,-0.00082177,0.0058363,0.0074555,0.039535,0.0094687,-0.021782,0.0044789,0.0092493,-0.0036727,-0.016263,-0.0050548,0.0017788,-0.0026167,-0.0039209,0.023186,-0.048043,0.0097664,-0.0034656,0.0039959,-0.012467,0.0037228,0.020337,-0.029953,0.0018257,0.017565,0.0071122,0.020275,-0.0023319,0.0027649,-0.013297,0.015357,0.0044296,0.0048648,-0.0038541,-0.042549,0.026607,0.0082871,-0.011992,-0.028805,-0.0080955,-0.0012163,0.0019459,-0.058265,-0.0078305,-0.0059367,0.0040589,-0.0040632,0.039907,0.018046,0.0032445,0.0043866,-0.0050176,0.06459,-0.015113,-0.053075,0.0058453,0.0083868,-0.017931,-0.0042165,-0.059156,-0.0029771,-0.011833,0.0030616,0.0065127,0.018479,0.012146,0.016775,-0.24983,0.0096582,0.022129,-0.0035765,-0.02192,0.0010955,-0.019297,-0.01717,-0.021863,0.0095173,0.00054948,-0.002445,-0.029184,0.0037108,0.00098993,-0.0049045,-0.010119,-0.011942,-0.0092588,0.00073584,0.056283,0.028522,-0.005996,-0.0032054
78,-0.0090073,0.047497,0.077257,-0.011154,0.011415,0.012501,0.023376,0.031732,0.029384,-0.0081521,0.016205,-0.000596,0.012647,-0.00029352,-0.0087331,-0.0077012,0.0052392,-0.00017882,-0.012638,-0.0019814,0.011637,0.0020113,0.01009,0.0085332,-0.011001,0.080343,0.00062535,-0.0013197,-0.0048701,-0.006041,0.0031471,0.0088674,0.00093203,-0.0021198,0.0035517,0.0070563,-0.012682,0.0067048,-0.012535,0.011903,0.026532,0.0012506,-0.0016855,-0.001671,0.0098233,0.029302,-0.010446,-0.00089685,-0.0089238,0.00093238,0.0072833,-0.034377,0.01094,0.0033203,-0.033705,0.013967,-0.0049681,0.00020515,0.0060834,0.004388,-0.0060902,0.0061821,0.0089934,-0.025319,0.004749,-0.00066191,-0.0019711,-0.010144,-0.00079751,0.0007119,0.0091755,-0.0043769,0.004892,-0.0017608,-0.0025276,-0.019341,0.0048639,-0.18601,-0.0039281,0.0015632,-0.0052118,0.010891,-0.004937,-0.02693,0.0069423,0.0055096,0.0096201,-0.00054385,-0.013917,-0.0033775,0.0043396,-0.0022808,0.0066264,-0.0047837,-0.0092332,-0.0030627,-0.0009606,0.010052,0.014489,0.0081702
79,0.00072138,-0.064596,-0.00027416,0.00022264,-0.0068275,-0.0038296,0.0016675,-0.00060816,3.8288e-05,0.00049633,0.0025312,0.0023398,0.00098687,-9.0954e-05,-0.0020515,-0.0012124,-0.00045616,-0.00084565,0.0032291,0.0079685,0.00045072,-0.0054152,-0.00022599,0.00057302,0.00055525,-0.0015155,-0.0079814,0.0005436,-0.00037576,3.3045e-05,-0.00071664,0.0027935,0.00015754,-0.085677,-0.00038237,0.00058246,-0.0026726,0.0023237,-0.099165,0.11447,-2.1149e-05,-0.071403,0.00077481,-0.0035621,0.00048499,0.066541,-0.034553,0.00036554,0.0013317,-0.00011834,5.8947e-06,-0.00054154,0.0012453,0.0003453,0.0061248,-0.00042929,-0.010732,0.001712,0.0016741,0.042927,0.023621,0.0096122,-0.00082681,-0.025887,0.00078488,0.00052083,0.084898,1.3205e-06,-0.001695,0.0017511,0.001447,0.013516,-0.0017068,0.002875,-0.0023172,-0.00074493,0.00017559,0.001513,-0.026613,0.00064493,0.00092027,0.0033044,-0.00070741,0.028422,-0.00056414,0.00061484,-0.0030579,-0.00030751,-0.00087423,4.9159e-05,0.0024415,0.0016675,0.0008453,0.0027113,-0.004092,0.0003656,-0.0003525,-0.0029027,0.00069566,0.0097645
80,0.0035903,-0.027303,-0.00054814,0.0043885,-0.043586,-0.0025418,-0.0014838,-0.021953,0.0024921,0.013123,0.00087346,-0.0022899,-0.0011258,0.0063911,-0.0074412,-0.0029786,-0.0026685,0.00060893,0.070829,0.0019018,0.00121,0.020801,-0.0019786,0.11406,0.00068687,-0.0021955,0.0068588,-0.0014565,0.0045792,0.00020041,0.00066891,0.0019258,-0.0036162,-0.034506,-0.0072058,-0.0030517,-0.0060286,-0.013685,0.030121,0.0025679,-0.00094749,-0.0097444,-0.0059833,-0.00035502,-0.0040732,-0.064748,-0.011826,0.000169,-0.0046414,0.0049439,-0.00063678,0.0023954,-0.00060401,-0.0073582,-0.019474,0.00064163,-0.0034009,-0.0013571,0.0022964,-0.031296,0.0058978,-0.0029392,-0.0027743,-0.023412,-0.004859,6.9955e-05,0.017984,-0.0067912,0.013773,0.014044,0.0073269,0.0012341,-0.0028043,0.0064817,0.010369,-0.00016857,-0.0014556,0.010627,0.017014,-0.093214,0.0014148,0.0027872,0.0016803,0.0054136,0.0010911,0.0031659,0.03509,0.00048456,0.0041714,0.0026734,0.00024922,0.0059433,-0.0016942,-0.0044836,-0.00075845,-0.0020277,-0.0082648,0.020774,0.0015624,0.034449
81,-0.0012467,-0.3504,-0.002269,-0.0094782,-0.040175,-0.02634,0.0092518,-0.04028,0.017331,0.014657,0.030241,0.049362,-0.017209,0.010905,0.0054619,0.0032342,-0.00701,0.0014815,0.122,0.0048323,0.0102,-0.011076,0.0025827,0.0023494,0.028107,-0.00055738,0.00012126,0.0050686,-0.00072501,-0.0025719,0.0047926,0.00070525,-0.0009109,-0.042974,0.0037402,0.014243,-0.056284,-0.0016472,-0.18807,-0.066094,0.0080567,0.019972,-0.016834,-0.0031857,-0.013454,-0.030557,-0.022015,-0.0050773,0.016113,0.0021306,0.0016638,-0.0084819,-0.012601,-0.0091646,0.1108,-0.0075176,-0.0095328,0.0076247,0.0063563,0.050724,0.038389,0.2059,-0.028673,0.040823,-0.00041121,0.0018079,0.14689,-0.014552,-0.0044463,0.044086,0.0054082,0.001909,-0.012341,0.0092293,0.0095372,0.0043148,-0.0027813,0.0018783,0.0070118,-0.005678,-0.17119,-0.0014612,-0.0050606,0.20593,-0.00074689,0.011151,0.026252,-0.010515,-0.0005464,-0.013979,0.014873,0.0028339,0.0021438,-0.0048737,-0.23131,0.0015361,-0.002645,-0.011942,0.012251,0.018346
82,-0.0005215,0.037484,0.0011943,0.0020337,0.012514,0.0034555,0.0090258,-0.0013628,0.013623,-0.11082,0.01861,0.0044784,-0.0038923,0.00040817,-0.0026061,-0.0065402,0.00013601,0.0018466,-1.4838e-05,-0.0061964,0.00028786,0.0056643,0.0021105,-0.00094687,0.0027015,0.0036234,0.0048737,-0.0013808,0.040442,-0.0060331,-0.0018306,-0.0036964,0.0023736,0.0034914,0.00061421,-0.00034706,-0.0014311,0.0044773,0.0037208,0.0062891,0.00017679,0.0034761,-0.0010635,0.0092748,9.0046e-05,0.0035978,-0.0021272,-0.00089325,0.0040688,-0.0016136,0.00041599,-0.00030076,0.00046163,-0.00088371,-0.010212,0.0013491,0.0095197,-0.0054859,0.0034445,0.0022191,-0.00040408,0.0081291,0.0049256,-0.0034398,0.040283,-0.0011042,-0.0014726,-0.0045737,0.0030377,-0.021268,0.0015402,0.0029625,-0.0035284,0.0007696,0.086924,0.00044061,-0.0016809,0.0026632,-0.0003969,-0.0022505,-6.2455e-06,-0.034433,-0.0003822,0.0015325,-0.0035354,-0.0014032,0.0055738,-0.00079616,0.00069819,0.0015631,0.031346,-0.0011183,0.0030124,0.0028619,2.7312e-05,0.002449,0.077356,0.0065761,-0.0012977,-0.0085101
83,0.0051347,-0.060271,-0.0060198,-0.013114,0.0017729,0.025167,0.0013748,0.010779,-0.005801,0.03336,-0.0020126,0.015535,-0.0020438,-0.0030003,-0.019682,-0.00062573,0.00014167,0.0017049,0.018058,-0.066413,-0.0042778,-0.0016829,0.0023791,0.0077982,0.0047119,0.0043446,0.0811,0.000989,0.0038433,0.013467,0.001253,0.033044,0.0046721,0.19265,0.00086164,0.0023699,-0.017199,-0.019249,-0.024781,0.023445,0.0016431,0.0038896,0.00082585,0.0087785,0.0033984,-0.029475,0.077301,-0.0074027,-0.02414,-0.001027,-0.010854,0.0055007,0.01443,-0.011453,0.072589,-0.0055379,-0.062773,-0.0033206,0.0061894,-0.010374,-0.15775,0.045246,0.0034463,-0.009674,-0.0016722,-0.00058284,-0.050596,-0.023926,-0.0048336,0.072408,0.017693,0.0088733,0.014169,0.011097,0.029009,0.006146,0.005647,-0.00031609,0.00173,0.0070753,-0.0028873,-0.0016614,-0.29506,-0.0067771,0.0011313,0.0032067,0.011135,-0.0048899,0.014665,-0.0046423,-0.0017854,0.0087847,0.0056119,0.0026516,-0.11349,-0.0057544,-0.017757,0.033588,0.0022826,0.14722
84,-0.00087741,0.0092476,-0.0014614,0.0018874,0.00027533,-0.00048219,-0.0010338,0.0030723,0.00035336,-0.0013893,-0.00063088,-0.0035756,-0.0015601,-0.0095749,-0.0028841,0.0051309,0.0019891,0.0035635,0.0061907,-0.0013115,-0.010266,-0.00018244,-0.0014521,0.0014384,0.00097104,0.0031342,7.8969e-05,0.00034255,0.0057568,-0.0034577,-0.0076363,0.0010073,-0.0005342,-0.0053867,0.0061703,0.00056204,0.00088461,0.0013881,0.015579,5.4722e-06,0.0017052,-0.0018921,0.0015213,0.0029741,0.00092321,0.038695,0.0017103,0.0025574,-0.0024025,-0.005233,-0.0014245,-0.0024083,0.0011783,0.00069528,0.0045351,-0.0013375,0.0043416,-0.0014808,0.0058109,-0.00049067,0.011717,-0.0019488,-0.0026997,0.0024948,-0.0044124,-0.0035001,0.0045695,0.00059518,-0.0010959,-0.0028663,-0.0055924,-0.0015707,-0.0017313,0.0059686,-0.0056192,8.9662e-06,-0.00024395,-0.00097906,-0.0032199,-0.0020378,0.001795,0.00015856,0.00017762,-0.042183,0.0030204,0.0032767,0.020269,-0.00011523,-8.5698e-05,-0.00075184,-0.0039446,0.00056058,0.0012474,0.0033468,0.00023307,0.0023536,0.0012866,0.0055745,0.00018815,0.00017858
85,0.0061475,-0.060743,0.0010472,0.015306,0.012936,-0.0049387,-0.01334,0.0087604,0.11602,0.0099986,-0.085823,-0.0098281,-0.068437,-0.00059389,-0.0078014,-0.024764,0.038679,0.032986,0.088101,-0.014496,-0.0071368,-0.014218,-0.050065,-0.016088,0.021678,-0.030724,-0.0046264,-0.011846,-0.017406,0.16193,0.062489,0.021763,0.032595,-0.02728,-0.00080078,0.0098219,0.0091834,0.030923,-0.019707,-0.0036134,0.034266,0.022007,-0.0088684,0.0019194,0.0018786,-0.037959,-0.014476,-0.0029859,0.011006,-0.0096603,0.017508,-0.00022663,-0.01166,-0.0054873,0.07589,0.030689,0.03511,-0.0084711,-0.017951,0.019675,0.011256,-0.015997,-0.023284,-0.023912,-0.048144,-0.028758,-0.045307,-0.036711,-0.00078874,0.043999,-0.042276,0.017817,-0.010673,0.031308,-0.011776,0.031887,-0.040174,0.046973,-0.0025232,0.010798,-0.030475,-0.033564,-0.03288,0.0031873,-0.33518,0.012806,-0.0066085,-0.0058968,-0.0017293,-0.020934,0.051482,0.041948,-0.058123,0.010913,0.0051383,-0.044387,0.14099,0.072543,-0.0014584,0.001722
86,6.7713e-05,-0.026255,0.00047336,0.00036486,-0.0099044,-0.00121,0.00024805,0.00042131,0.0013527,0.0024713,0.0043857,0.0012971,-0.00055887,-0.00095492,0.0036056,-0.0031004,-0.00099249,0.00088213,0.07098,-0.012367,0.00026039,-0.029638,-0.0012842,0.050804,0.0028864,-0.0012335,0.033871,-0.00014639,-0.0027075,-0.0014012,0.00017421,0.0019816,-2.3844e-05,-0.10702,-0.0009017,-5.7157e-05,-0.0023568,0.0013964,-0.037791,-0.00024451,-0.00055268,-0.0048997,-0.0016987,7.4686e-06,0.00072827,-0.048115,-0.0093016,0.00025856,0.00033488,1.8692e-06,0.00027157,0.00081727,0.00096183,-0.0031078,-0.0048998,-0.00085386,0.013185,-0.002335,0.0021372,-0.0016816,0.017687,0.03639,-0.0076434,0.020372,0.00019632,0.00030461,0.036152,-0.0015557,-0.0020114,-0.0016518,0.0019073,0.0068332,-0.0038062,0.1382,-0.00085803,0.0004289,0.00021025,0.0015636,0.0028057,-0.0019168,0.0028655,0.00080612,-0.0010008,0.019054,0.0002692,-0.06583,0.085043,-0.00018235,-0.00049102,0.00066815,0.003559,0.0020381,-0.00036125,-0.0032538,-0.015959,-0.0010112,-0.00061333,0.0044813,0.00096991,0.0055035
87,-0.00068175,0.022196,0.00081861,-0.00018187,0.00076791,-0.005657,-0.0061971,0.0062452,-0.010611,-0.0091243,-0.0034896,-0.00048585,-0.0037421,-5.5253e-05,-0.0012041,-0.011681,0.019575,-0.014004,0.0082122,0.0023899,-0.0082903,-0.0087631,0.0054261,-0.016771,-0.00027889,0.0075805,0.0070926,0.0011907,0.0030249,-0.00037484,-0.011638,-0.0017295,0.0021908,0.00051227,0.00056503,-0.0014735,-0.0018462,-0.0079829,0.016052,0.001206,-0.017541,0.0096739,-0.001191,0.0040801,0.011075,0.00066762,0.00058867,3.2856e-05,0.0039381,0.0010101,-0.00017306,-0.011192,-0.0025895,-0.0029856,0.010431,0.0003259,0.0090783,0.0015005,-0.0017394,-0.0023238,0.0089378,0.0039134,0.020171,-0.0059502,-0.00053833,0.020586,0.0063181,0.00048379,-0.0036298,0.012103,-0.0057167,-0.003811,-0.0019361,-0.0093327,-0.0030333,-0.0049423,-0.0096973,0.0029289,-0.010978,0.0071807,-0.0039109,0.0067836,-0.0016763,0.0024698,-0.011705,-0.00020016,-0.063411,-0.0011732,0.0046316,-0.0021946,0.0047144,-0.0038353,0.0044961,-0.00071253,0.0060372,0.0046305,0.0040893,0.01048,-0.00058319,-0.0024552
88,-0.0021498,0.013216,0.002693,-0.002905,0.013357,0.026927,0.00078964,0.030783,0.018525,-0.0014697,0.028402,-0.0053078,-0.054861,-0.036306,-0.015467,-0.0091417,0.0032383,-0.042614,-0.06313,0.0053698,0.0051461,-0.0062718,0.014157,0.017843,-0.011763,-0.00709,-0.0059528,-0.0014367,-0.005264,0.015216,0.020463,-0.034715,0.0083884,-0.0020641,-0.0032693,0.017312,-0.015324,-0.014495,-0.010813,0.036828,0.045331,0.00158,-0.002249,0.0010743,0.046924,0.020578,-0.0048284,-0.014076,0.0107,-0.00844,0.056425,0.008035,-0.00091647,0.0080727,0.032392,0.022627,0.019857,0.0081294,0.006277,-0.024703,0.029759,0.0061424,0.0025998,-0.014732,-0.0047722,0.056144,-0.017766,-0.015589,-0.0044791,0.0094751,0.0028705,-0.0015434,0.0044334,-0.0013132,0.0067873,0.14003,-0.006428,-0.037559,-0.022462,0.014443,0.0072191,-0.036243,-0.01485,0.018424,-0.0067451,0.0090531,0.0004263,-0.22113,0.0086336,0.012398,-0.00010727,0.0036136,-0.0016206,-0.0012053,0.0060925,0.0067393,0.089089,0.036753,-0.0045102,-0.00099579
89,5.8088e-05,-0.0055755,0.0087212,0.018034,0.016222,-0.0054194,0.029147,-0.057187,0.0093635,0.017596,0.0035753,0.0044847,-0.0053585,-0.0034121,-0.0040913,0.0070067,-0.0093881,-0.0067873,-0.006774,0.0086086,-0.0042593,0.0059225,0.0047082,0.075976,-0.00039722,-0.0049492,-0.0029544,0.0078934,-0.0064971,-0.010105,0.12409,-0.0201,-0.0021907,-0.006945,0.0039394,0.00070061,0.0022216,0.0064828,0.0031701,0.00088064,-0.00082496,0.0036641,-0.0044842,-0.032428,0.021103,-0.03407,-0.0035694,-3.0429e-05,-0.011502,-0.00011805,-0.00024053,-0.0088836,-0.0012669,-0.0065225,0.00059445,0.0039776,0.0075011,0.031266,0.0023763,0.013095,0.0072056,-0.0088611,0.0088745,-0.0080732,0.010492,0.01714,-6.6289e-05,0.010455,-0.0071415,-0.0026177,-0.0053958,-0.0038432,0.0076674,0.011151,-0.017886,0.0125,-0.0070956,0.00011328,0.0023098,-0.0048069,0.012159,0.057822,0.024262,0.046852,-0.0066766,-0.0018421,0.018358,0.0067074,-0.15786,0.0036901,0.011187,-0.023632,0.00044153,-0.013075,-0.0060133,0.011146,-0.032736,-0.036492,-0.020025,-0.01059
90,0.0002223,0.010606,-0.0040029,0.0013816,0.003439,0.0045895,-0.0026453,0.00049997,-0.0020608,0.011741,0.0084266,-0.0030645,-0.005127,0.0028776,0.004502,0.00094801,0.00070889,0.0016472,0.032368,0.0012074,0.0012253,-0.0027454,-0.0017564,0.016646,0.010482,-0.0059475,0.014483,0.0014367,0.021613,0.00076867,-0.0065942,0.0011018,-0.0033971,-0.017562,-0.00059195,0.0072081,0.0026647,0.0044505,-0.0012104,-0.0058098,0.00097022,0.0027148,0.0039491,0.0055077,-0.013977,-0.0046523,-0.010659,-0.0008714,-0.011864,-0.00018433,0.00057119,0.0050216,-0.0003563,0.00071278,-0.0002884,-0.0020985,-0.00091723,-0.010209,0.004605,0.033469,0.012268,0.00062389,-6.9189e-05,0.0046881,0.0022865,-0.0038067,0.0090326,0.0020236,0.002793,0.0058363,0.0027222,0.0029804,-0.0037836,0.00073415,0.22213,-0.0012014,0.0058848,0.0032583,-4.0251e-07,-0.0061421,-0.018273,0.011285,-0.00072363,0.016022,-0.0035175,0.0010955,0.017933,-0.001419,0.0011986,-0.045528,0.0064517,0.001168,-0.0027898,0.0072539,0.0091995,0.00085136,0.0013891,0.0034621,0.0073614,0.0027388
91,0.00048778,0.00016312,-0.00031771,-0.0009311,0.0018894,-0.00023466,-0.0005995,-0.0025645,-0.001226,-0.036179,0.0013225,-0.0016278,0.0010756,0.0027538,-0.21116,-0.0020461,-0.00035027,0.00023534,0.0023443,0.00046592,-0.0007572,0.00085825,-0.0006642,0.00064624,-1.8123e-05,-0.0015873,-0.00042595,-0.0004646,0.062126,-0.022095,0.00077219,-0.0022548,-0.0017108,-0.0001565,-0.001302,0.00018498,0.047811,0.00072194,-0.0024179,-0.00061488,-0.00053954,0.00072919,0.00019096,0.0019836,-0.0028525,0.00059797,8.7658e-05,0.00046275,-0.0011565,0.00026242,0.00040173,7.7459e-05,-0.00056899,-0.0014063,-0.0019047,-0.0086805,-7.6373e-05,-0.022185,0.00021678,0.0009146,-0.00090599,0.0013087,-0.00015101,0.0040929,0.074659,0.00021046,-0.00060946,0.04827,0.0022323,-0.0012332,-0.0012826,0.0011152,0.036211,-0.0018301,0.1521,0.00097748,-0.00088649,0.00038133,0.0018963,-0.0018096,-0.001504,0.0024243,-0.0056045,0.0037066,-2.2349e-05,0.0012671,0.0013513,0.00036676,0.00035902,0.045447,-0.034948,0.0019435,-0.0012957,0.00093023,-0.0002094,-0.00021505,0.004012,-0.021217,0.0025031,-0.0009095
92,2.8268e-05,-0.020846,9.7001e-05,0.00055232,-0.012747,-0.00061071,-0.00032128,-0.0082625,0.00037109,0.00086972,-0.00049804,-0.00037216,-0.00033647,-0.00011945,0.00069247,-0.00058298,-0.00020612,2.2414e-05,0.046138,0.0053489,0.00030162,-0.0053033,-0.00026482,-0.0029984,0.00039681,-0.00047005,0.0052596,0.0001504,-0.0002301,-0.00044319,8.4923e-05,0.0012518,-8.18e-05,-0.041272,0.00026254,-0.00011646,-0.00050465,0.00010632,-0.018024,-0.010232,-0.00011614,-0.0057667,-0.00049458,-0.00025104,-0.00037075,-0.015228,-0.049402,-0.00018106,0.00033472,-5.8519e-07,0.00031098,0.00010763,0.00042629,-0.00039567,0.0021788,0.00016208,0.004021,-0.00050119,0.00059638,0.022416,0.036787,0.01372,-0.00036749,0.0045184,-1.2915e-05,0.0002062,0.035705,0.0002101,-0.00020357,-0.00057534,0.00049009,0.00047418,-0.00056248,0.00063675,-0.00016293,-0.00011523,-0.0004641,0.00071769,0.00079915,-0.00062004,0.00027402,0.00029351,0.00012944,0.018346,0.00031845,-0.00012776,0.0038763,-2.2e-05,-0.00038266,0.00017344,0.00075538,-0.0013084,0.0005463,-0.00037195,-0.0088623,0.00014688,0.00048323,0.00021537,0.00013864,-5.0278e-05
93,-2.8347e-06,-0.0013348,-7.9341e-05,-2.5839e-05,-0.00048124,5.682e-06,-1.1452e-05,-0.00021139,6.7282e-05,1.9498e-05,0.000206,0.00025424,-6.1341e-05,7.2076e-05,0.000192,1.2349e-05,3.1893e-06,-1.6593e-05,0.0009322,8.566e-05,9.6281e-05,-0.00016673,4.3671e-05,0.00077228,9.2072e-05,6.2938e-06,0.00013018,2.4942e-05,-8.1759e-05,4.6827e-06,2.8936e-05,-4.0214e-05,-1.5114e-05,-0.0012166,-0.00014131,3.5138e-05,-0.00025534,7.5531e-05,-0.0014405,6.7854e-05,8.1889e-05,3.3165e-05,-6.4295e-05,-0.0001162,-2.4798e-05,-0.00077936,-0.00066115,1.426e-05,6.0081e-05,3.1854e-05,-6.3107e-05,3.8321e-05,-3.6139e-05,-5.0729e-06,0.00029837,-2.5411e-05,-8.0367e-05,-0.00017654,0.00018052,0.00019445,0.00036873,0.00094342,-1.9934e-05,-2.3239e-05,2.0807e-05,1.0338e-05,0.00092436,9.3736e-05,1.1137e-05,6.9316e-05,0.00032276,-0.0001317,-0.00018457,0.00037538,-0.0001924,-8.0067e-07,-2.0442e-05,2.5918e-05,8.5947e-05,-4.2339e-05,5.9881e-05,0.00010718,-6.2882e-05,0.0011784,-5.0556e-05,-1.6213e-05,0.00054983,-5.514e-05,-6.7102e-06,-4.5608e-05,0.000157,0.00021748,-0.0013275,-9.9577e-05,-0.00054738,1.3855e-05,-2.1524e-05,0.00023339,8.2801e-05,9.5187e-05
94,-6.0655e-05,0.024011,-0.0020413,-0.0010931,-0.0041853,-0.00056919,-0.0019642,0.0018074,0.0022713,-0.0077257,-0.0018547,0.00039249,-0.002005,-0.00601,0.00086374,0.0032921,0.0025083,-0.0049221,2.9927e-05,-0.0077309,-0.016704,-0.0014766,-0.0012792,0.00017698,-0.00061016,0.0045292,-0.0032701,0.0035104,0.00035695,-0.0079083,-0.016665,0.0054384,0.0024421,-4.1643e-05,0.011698,0.0035902,0.0002545,0.00017255,0.0021819,0.0074218,1.5216e-05,-0.00028847,-1.2099e-05,0.0088471,-0.0010009,0.029,-9.2533e-05,0.015329,-0.01518,-1.5243e-05,-0.00029928,-0.0066833,0.0010421,-0.0097155,0.023951,-0.0022732,0.0025467,-0.012476,-0.0045497,0.0051479,0.015577,0.00031326,-1.5619e-06,-3.5972e-06,0.00062036,0.0011303,0.013931,0.00082187,-0.0057724,0.0027956,-0.0081231,1.338e-05,-0.0028828,-0.0083987,-0.0017087,-0.0083167,-0.0057084,-0.00019356,0.0055874,-0.0015726,-0.010917,0.0044624,-0.0025304,0.015368,0.00054428,-7.2391e-05,0.0021096,-0.002114,0.00051782,-0.0024371,0.0014402,-0.0032289,0.0076818,-0.0090131,0.0025329,0.0016042,3.1023e-05,0.0025653,-0.01538,-0.0030626
95,-0.00019693,-5.6304e-05,-0.012318,-0.00045653,0.0030035,0.0057028,0.0037953,0.0016196,-0.0034114,-0.0020156,-0.0013105,0.011852,0.0039735,-0.0070442,0.00084602,-0.0075611,0.0028835,-0.00061666,0.0073036,-0.00017108,-0.0001392,0.0028855,0.0040538,-0.00038789,-0.0017835,-0.018775,0.035395,0.0014798,-0.00090529,0.00053941,0.0066701,0.019598,-0.0027398,0.001103,0.0011075,0.006113,-0.0071589,0.013025,0.0022084,0.0017717,-0.0029868,8.5466e-05,0.0025214,-0.0030062,-0.0089185,-0.0036893,0.0027731,0.0018504,-0.0010414,-0.005564,-0.00068621,-0.0035584,0.0017339,-0.0025918,-0.0019148,0.00015982,0.0044584,-0.00048435,0.0060679,-0.0023074,-7.6218e-05,0.013766,0.006906,0.0034387,0.00032636,-0.0054933,0.0070457,0.00083961,0.011183,-0.0040782,-0.013207,0.0033601,-0.011441,-0.012159,0.0093906,-0.0026243,0.0025785,-0.0017004,-0.0010251,-0.0030406,0.001071,0.015332,-0.00055716,0.018808,-0.00011873,-0.0048505,0.0013984,-0.005455,0.004062,-0.0027914,0.0037621,-0.001221,-0.004511,0.0026468,-0.023444,-0.0019218,0.011537,-0.00081593,-0.011574,-4.3763e-06
96,0.0016025,0.0071618,0.0085668,0.021511,0.012348,-0.00093841,0.033179,-0.081733,0.041462,0.02812,0.015629,-0.0059928,0.013019,-0.0017279,-0.02496,-0.0094611,-0.048663,-0.0012767,-0.030789,-0.011795,-0.0075658,0.0095988,0.013242,0.043126,-0.041885,-0.018,0.014116,0.02262,-0.0049571,-0.014547,0.15544,0.036146,-0.0015571,-0.0082299,0.010814,-0.0010059,-0.016516,0.0081658,-0.061177,0.021517,0.00026368,-0.012633,0.0088376,-0.0028224,0.038145,-0.00079206,0.00050018,-0.011168,0.0080312,-0.0066053,-0.018878,0.0058969,0.0031307,-0.014637,-0.0065629,-0.012164,0.036485,0.021202,-0.0039819,0.059049,-0.0023899,0.0085555,-0.066002,-0.0054077,0.0085508,0.012895,-0.03617,-0.026099,-0.049172,0.002015,-0.010914,0.022262,-0.0041,0.010029,0.025294,0.013663,0.0020033,0.0085092,0.0044982,-0.0086577,-0.00026269,-0.017393,-0.020261,0.10629,-0.0088452,0.00050965,0.016648,0.00020373,0.00036146,-0.0029025,-0.0075758,-0.010309,0.02384,-0.0044184,-0.030071,-0.24266,0.050365,0.030764,-0.027697,-0.015005
