1.3124e-09,-1.4797e-05,-2.731e-05,-6.3957e-05,-5.2669e-06,-6.5976e-06,-8.6246e-07,4.705e-06,-3.981e-05,-8.2585e-06,-7.8563e-06,-4.6886e-07,-1.9583e-05,-3.0631e-06,5.4424e-06,-7.796e-06,-1.6825e-05,-5.9915e-06,8.0493e-06,2.7017e-06,-1.6851e-05,5.1326e-06,-4.3131e-06,-5.6143e-06,-1.7337e-05,-5.8942e-06,1.5109e-06,-7.9424e-07,5.1083e-06,-1.5086e-06,-1.3256e-05,-1.7014e-05,-2.3924e-05,-6.982e-06,-2.3683e-06,6.4257e-06,-1.0324e-05,-1.4856e-05,-0.026302,-2.0506e-05,9.8763e-06,-1.082e-05,-1.1042e-05,-1.3343e-05,-1.4996e-05,4.1583e-06,3.6649e-06,-1.7319e-05,-2.7001e-05,-1.9365e-05,-1.0448e-05,-7.8675e-06,-1.5586e-05,-7.2318e-08,-1.1281e-06,8.7113e-07,1.1754e-06,-6.6952e-05,-1.5706e-05,-2.5344e-05,2.6319e-06,-1.7197e-05,-1.3014e-06,-2.3051e-05,-1.74e-05,-1.2458e-05,-1.0955e-05,-1.1652e-05,-4.1485e-07,-6.4618e-06,-1.3114e-05,-4.2812e-06,-1.9147e-06,-4.7068e-05,-5.9325e-06,-7.8475e-07,-2.3979e-05,-2.1644e-06,-4.1593e-06,2.7168e-06,-7.5784e-05,-4.644e-06,-0.19317,-1.8845e-05,-1.8628e-05
-0.00011221,1.3483e-09,-0.00027253,-0.00081351,-5.2891e-05,-1.1707e-06,-1.7882e-05,6.3531e-05,-0.00039609,-9.0585e-05,-6.5294e-05,1.5494e-05,-0.00016708,-1.2716e-05,8.882e-05,-9.1298e-05,-0.00015853,-5.5953e-05,0.00010094,5.7707e-05,-0.00019494,6.7827e-05,-5.814e-05,-2.0307e-05,-0.00018337,-6.1322e-05,1.9007e-05,5.4019e-06,6.6676e-05,7.5165e-06,-0.00013439,-0.00017603,-0.00026295,-5.8623e-05,-3.4221e-05,0.00011675,-0.00011521,-0.00012566,-0.028746,-0.00022762,0.00014901,-4.6196e-05,-3.3807e-05,-0.00012118,-0.00013958,4.3106e-05,4.293e-05,-0.00016792,-0.00024932,-0.00018848,-9.5144e-05,-7.2479e-05,-0.00014416,2.009e-05,3.9114e-06,1.0915e-05,2.2792e-05,-0.00084897,-0.00012962,-0.00025029,5.8848e-05,-0.00018665,-1.9693e-05,-0.00021683,-0.00017111,-0.00013407,-0.00011195,-0.00010604,2.9543e-05,-4.5881e-05,-0.00014811,-2.5045e-05,-3.5743e-05,-0.00055953,-6.1996e-05,2.9279e-05,-0.0002413,-2.1611e-05,-5.0102e-05,2.676e-05,-0.0010594,-3.7319e-05,-0.21753,-0.0001724,-0.00020542
-9.305e-05,-0.00010652,1.3464e-09,-0.00048997,-2.2815e-05,1.3743e-05,-1.3891e-05,3.9904e-05,-0.00028729,-7.7194e-05,-2.902e-05,3.0309e-05,-0.00011262,-1.1846e-05,7.3983e-05,-4.3955e-05,-0.0001092,-5.3181e-05,0.00011496,4.1595e-05,-0.00012783,5.9674e-05,-3.5999e-05,1.1262e-05,-0.00013309,-3.6802e-05,1.1296e-05,3.6235e-05,6.9945e-05,2.8577e-05,-6.8007e-05,-9.1898e-05,-0.00016287,-4.2782e-06,-2.5227e-05,9.9557e-05,-8.2639e-05,-8.1051e-05,-0.007949,-0.00015051,0.00013794,-2.0877e-05,-8.7927e-06,-6.2552e-05,-9.858e-05,3.5336e-05,3.0494e-05,-0.000111,-0.00018362,-0.00010215,-7.6949e-05,-6.8229e-05,-6.829e-05,2.7731e-05,1.7159e-05,1.9774e-05,3.3999e-05,-0.00054295,-0.00010937,-0.00016865,4.3967e-05,-0.00013417,-6.4005e-06,-0.00017302,-0.00011465,-9.9358e-05,-9.7236e-05,-8.4251e-05,3.1502e-05,-3.5648e-05,-0.00010541,-2.3909e-05,-1.665e-05,-0.0004003,-5.3964e-05,3.1258e-05,-0.00015852,-1.6086e-05,-3.6214e-05,2.444e-05,-0.00055298,-2.1587e-05,-0.18178,-0.00011959,-0.00013258
-5.9151e-06,-5.9761e-06,-1.1372e-05,1.1401e-09,7.8612e-07,7.7832e-06,-7.7194e-07,5.8779e-06,-6.4409e-06,-3.3762e-06,1.6896e-06,5.4833e-06,3.9895e-06,5.9163e-07,1.003e-05,-3.0263e-06,-4.7694e-06,-2.778e-06,1.315e-05,5.3593e-06,-9.4049e-06,4.1916e-06,-2.5272e-06,7.0798e-06,-7.6926e-06,-1.6616e-06,2.2423e-06,4.698e-06,7.3197e-06,4.8517e-06,-2.1103e-06,-2.2184e-06,-9.6814e-06,3.8437e-06,-9.0728e-07,1.2103e-05,-4.7696e-06,-8.0384e-07,-2.2779e-05,-9.0705e-06,1.3854e-05,5.2847e-06,5.3623e-06,4.5717e-07,-5.1414e-06,3.4592e-06,3.7605e-06,-6.4904e-06,-4.0481e-06,-2.9443e-06,-2.8656e-06,-2.7729e-06,-4.6785e-07,4.3974e-06,3.3685e-06,2.6019e-06,3.0035e-06,-7.359e-06,-3.157e-06,-7.0955e-06,5.7887e-06,-7.9789e-06,-2.4753e-07,-5.4004e-06,-4.4887e-06,-6.5737e-06,-5.3246e-06,-4.5338e-06,5.3849e-06,1.5066e-07,-8.0849e-06,-1.1521e-06,-1.0084e-06,-1.3599e-05,-2.3311e-06,6.3918e-06,-4.9912e-06,-3.1726e-07,-1.6224e-06,2.6421e-06,-1.0575e-05,-9.9391e-07,-0.16056,-5.2131e-06,-7.7563e-06
-2.1921e-05,-2.9768e-05,-4.7129e-05,-0.00011159,1.1548e-09,4.6944e-06,-8.6967e-07,1.1475e-05,-6.5525e-05,-1.5344e-05,-6.0174e-06,5.0397e-06,-2.5315e-05,-7.842e-06,1.5451e-05,-1.0368e-05,-3.0555e-05,-1.3423e-05,2.2265e-05,4.9182e-06,-2.8081e-05,8.7828e-06,-6.7367e-06,1.3844e-06,-3.158e-05,-8.6926e-06,4.3377e-06,5.2049e-06,1.5274e-05,8.0493e-06,-1.5068e-05,-2.5177e-05,-3.6653e-05,-1.919e-06,-2.1099e-06,1.9268e-05,-1.7754e-05,-2.3188e-05,-0.0014442,-3.2408e-05,2.7832e-05,-1.1849e-05,-1.2605e-05,-1.7487e-05,-2.4292e-05,9.8537e-06,8.5206e-06,-3.1718e-05,-4.3335e-05,-2.1143e-05,-2.0558e-05,-1.5999e-05,-1.6202e-05,3.4621e-06,1.5635e-06,3.1718e-06,4.2493e-06,-0.00011287,-2.8663e-05,-4.4543e-05,9.208e-06,-3.4e-05,-1.8233e-06,-4.1581e-05,-2.4086e-05,-2.2429e-05,-2.1594e-05,-2.2619e-05,7.5888e-06,-1.0436e-05,-2.3881e-05,-1.0773e-05,-1.6534e-06,-8.7571e-05,-1.1205e-05,1.1788e-06,-3.7322e-05,-3.1635e-06,-7.4184e-06,6.5871e-06,-0.00012611,-5.4775e-06,-0.19376,-3.2298e-05,-3.1778e-05
-7.6012e-06,-6.9958e-06,-1.319e-05,-1.8388e-05,9.6586e-07,1.1921e-09,2.8867e-07,6.3135e-06,1.5172e-06,-3.2415e-06,1.7417e-06,5.8663e-06,-1.4903e-06,-2.7885e-06,7.5674e-06,-1.6912e-07,-6.5962e-06,-3.6767e-06,9.3648e-06,1.6474e-06,-8.6589e-06,1.6671e-06,-1.6248e-06,7.2934e-06,-7.5447e-06,-1.6743e-06,2.2232e-06,5.9914e-06,7.1356e-06,8.5986e-06,-4.9314e-07,-1.8063e-06,-6.9956e-06,5.2026e-06,1.7959e-06,1.1341e-05,-5.6793e-06,-3.508e-06,-3.5976e-05,-7.5832e-06,1.7133e-05,1.368e-05,1.3497e-05,-1.0223e-06,-5.5699e-06,3.7404e-06,4.0099e-06,-9.59e-06,-4.4091e-07,5.6274e-06,-6.0642e-06,-4.6923e-06,8.7591e-06,5.6397e-07,-4.9549e-07,2.5288e-06,1.8263e-06,-1.5958e-05,-5.8944e-06,-1.8802e-05,7.9557e-06,-1.1249e-05,4.6891e-08,-9.2119e-06,-5.7918e-06,-6.1368e-06,-6.2812e-06,-6.1593e-06,1.2391e-05,-1.0629e-06,-7.1109e-06,-4.9185e-06,7.1012e-07,-1.4697e-05,-2.1993e-06,4.3198e-06,-6.2116e-06,-1.1854e-06,-2.6025e-06,2.9622e-06,-1.6919e-05,-3.731e-07,-0.15874,-8.2316e-06,-8.172e-06
-1.4034e-05,-1.9809e-05,-3.3397e-05,-0.00010745,-5.4878e-06,-4.6301e-06,8.9908e-10,5.7774e-06,-5.6887e-05,-9.1123e-06,-7.6832e-06,-1.8748e-06,-2.3529e-05,-6.2878e-06,6.6097e-06,-8.204e-06,-2.3301e-05,-7.7312e-06,8.5365e-06,1.5232e-06,-1.8227e-05,3.5727e-06,-5.0289e-06,-6.0941e-06,-2.0153e-05,-6.8136e-06,3.5977e-06,-1.6135e-06,5.3217e-06,-5.2248e-07,-1.6089e-05,-2.0811e-05,-2.8119e-05,-7.6179e-06,-1.0493e-06,6.4453e-06,-1.2897e-05,-1.9863e-05,-0.27581,-2.3248e-05,1.089e-05,-1.4624e-05,-1.7671e-05,-1.6817e-05,-1.7679e-05,4.7672e-06,4.145e-06,-2.2632e-05,-3.6595e-05,-2.1998e-05,-1.4838e-05,-1.0238e-05,-2.1062e-05,-6.9861e-07,-1.9238e-06,5.9071e-07,5.2544e-07,-0.00010405,-2.1269e-05,-3.0473e-05,4.0377e-06,-2.3141e-05,-2.515e-06,-3.2083e-05,-2.088e-05,-1.4853e-05,-1.2325e-05,-1.6038e-05,1.0941e-06,-9.1596e-06,-1.4056e-05,-7.5761e-06,-1.5728e-06,-7.682e-05,-7.3538e-06,-3.4954e-06,-2.8377e-05,-3.3808e-06,-5.5795e-06,3.0137e-06,-0.0001209,-4.9784e-06,-0.21571,-2.3907e-05,-2.3344e-05
-1.8194e-05,-2.3871e-05,-4.3758e-05,-9.4012e-05,-6.9303e-06,-9.2231e-07,-1.0396e-06,9.9016e-10,-5.9658e-05,-6.6643e-06,-6.7569e-06,-2.5703e-06,-2.0949e-05,-7.1711e-06,1.2233e-05,-1.3785e-05,-2.932e-05,-9.2022e-06,1.1965e-05,4.2281e-06,-2.3607e-05,3.5347e-06,-6.2565e-06,-5.9438e-06,-2.2603e-05,-6.6986e-06,3.4114e-06,-1.2774e-06,6.5344e-06,1.6118e-07,-1.9657e-05,-2.8599e-05,-3.5886e-05,-1.034e-05,2.4881e-06,1.0717e-05,-1.5277e-05,-2.2676e-05,-0.0025253,-3.0706e-05,1.48e-05,-1.7676e-05,-2.4642e-05,-1.723e-05,-2.2384e-05,7.631e-06,7.5607e-06,-3.4282e-05,-3.9756e-05,-2.8641e-05,-1.6958e-05,-8.7035e-06,-2.6572e-05,-2.5517e-06,-4.7714e-06,3.7148e-06,-4.556e-06,-7.7277e-05,-1.9998e-05,-3.8795e-05,6.1109e-06,-2.9763e-05,-3.2417e-06,-3.5425e-05,-2.6498e-05,-1.8341e-05,-1.534e-05,-1.9932e-05,1.3657e-06,-8.7031e-06,-1.8864e-05,-9.5365e-06,-8.7358e-07,-7.1848e-05,-6.8455e-06,-1.8815e-06,-2.7247e-05,-2.8851e-06,-5.8626e-06,4.1942e-06,-0.00010338,-5.9337e-06,-0.22514,-3.0472e-05,-2.9666e-05
-1.0164e-05,-8.2711e-06,-2.251e-05,-2.4504e-05,3.1837e-06,5.1368e-05,1.4499e-06,1.2382e-05,1.2389e-09,-6.43e-06,3.7445e-06,2.7415e-05,5.687e-06,8.976e-07,2.1002e-05,-2.9314e-06,-5.071e-06,-2.5411e-06,2.5855e-05,9.5676e-06,-1.8438e-05,1.0059e-05,-3.1691e-06,1.8313e-05,-1.2411e-05,-3.1953e-06,6.62e-06,1.6115e-05,1.7954e-05,2.843e-05,-5.9283e-06,3.5743e-06,-1.4894e-05,1.573e-05,-8.9697e-07,3.002e-05,-9.6967e-06,2.2977e-06,-5.1383e-05,-1.446e-05,4.9646e-05,3.9421e-05,0.00027865,6.4957e-06,-7.3991e-06,6.0441e-06,8.7333e-06,-1.1331e-05,7.548e-06,8.368e-06,-5.3645e-06,-6.7879e-06,6.1386e-05,8.7878e-06,6.4737e-06,5.6906e-06,9.2185e-06,-1.7442e-05,-4.6915e-06,-2.7419e-05,1.631e-05,-1.5607e-05,1.0288e-06,-9.5899e-06,-7.8882e-06,-9.4349e-06,-8.4978e-06,-5.4603e-06,2.3725e-05,1.6686e-06,-1.326e-05,-9.7591e-07,-3.2532e-06,-1.7163e-05,-5.114e-06,1.8402e-05,-7.5347e-06,-1.0477e-06,-4.7339e-06,4.918e-06,-2.3418e-05,2.8662e-07,-0.15984,-9.0288e-06,-1.2602e-05
-0.00012045,-0.00016886,-0.00033054,-0.0012929,-4.6833e-05,2.4352e-07,-9.1439e-07,0.00010798,-0.00072726,9.8681e-10,-3.9453e-05,1.7426e-05,-0.00015938,-3.7642e-05,0.00011853,-9.332e-05,-0.00022355,-5.8797e-05,0.00010624,3.6324e-05,-0.00017457,4.3827e-05,-3.8576e-05,-4.3313e-05,-0.00016561,-4.3951e-05,4.0133e-05,2.0191e-05,7.61e-05,2.708e-05,-0.00015053,-0.00020778,-0.00027292,-7.3138e-05,4.0233e-05,0.00011583,-9.982e-05,-0.0001589,-0.079693,-0.00022576,0.00016112,-0.00014133,-0.00020994,-0.00011806,-0.00015751,7.2761e-05,6.9189e-05,-0.00024588,-0.0003628,-0.00027126,-0.00011088,-5.194e-05,-0.00024706,1.8402e-06,-1.461e-05,2.6839e-05,-1.214e-05,-0.0010045,-0.00015417,-0.0002986,6.0917e-05,-0.00021174,-1.1158e-05,-0.00027116,-0.00019826,-0.00013407,-0.00010341,-0.00013294,2.1653e-05,-6.4108e-05,-0.00013333,-5.7195e-05,-6.0717e-06,-0.00083318,-4.5461e-05,1.625e-05,-0.00019694,-8.7465e-06,-3.1813e-05,3.8317e-05,-0.0015094,-3.7158e-05,-0.2264,-0.00023006,-0.00021548
-4.9527e-05,-6.087e-05,-9.4499e-05,-0.00017287,-1.0622e-05,1.0583e-05,-3.4695e-06,2.589e-05,-0.00011425,-2.4246e-05,1.243e-09,3.2172e-06,-4.2048e-05,-1.9274e-05,3.6386e-05,-2.6108e-05,-6.652e-05,-2.5701e-05,5.5161e-05,7.5373e-06,-5.3766e-05,1.2538e-05,-1.505e-05,1.4593e-07,-6.0031e-05,-1.6219e-05,8.7903e-06,8.4273e-06,2.671e-05,9.7238e-06,-3.5529e-05,-5.3052e-05,-7.447e-05,-8.7949e-06,2.1214e-06,3.5974e-05,-3.8773e-05,-4.8355e-05,-0.00051692,-6.8026e-05,4.7799e-05,-2.8263e-05,-3.4543e-05,-3.6973e-05,-4.9635e-05,1.8155e-05,2.0255e-05,-7.0498e-05,-8.7644e-05,-5.3008e-05,-4.7545e-05,-3.1429e-05,-3.7406e-05,3.1171e-06,-2.0351e-07,4.9305e-06,1.0325e-06,-0.00016333,-5.875e-05,-8.7983e-05,1.5122e-05,-7.4808e-05,-7.0341e-06,-8.1038e-05,-5.1788e-05,-4.5e-05,-4.5143e-05,-5.1433e-05,1.0407e-05,-2.5166e-05,-4.6336e-05,-2.5028e-05,1.5026e-06,-0.00016973,-1.8611e-05,1.2185e-06,-5.4649e-05,-8.1692e-06,-1.887e-05,1.3303e-05,-0.00018126,-1.1893e-05,-0.18633,-7.2546e-05,-6.6846e-05
-0.0001029,-0.00013317,-0.00022188,-0.00039206,-1.447e-05,6.2184e-05,-1.2373e-05,4.9797e-05,-0.00012079,-7.3172e-05,-3.1401e-05,9.4933e-10,-8.711e-05,-2.543e-05,8.1161e-05,-2.0937e-05,-0.00010283,-4.3233e-05,0.00012246,2.8277e-05,-0.00015884,5.1555e-05,-3.6652e-05,3.8742e-05,-0.00013169,-3.6145e-05,1.7886e-05,0.00015308,0.00010805,8.6209e-05,-4.4083e-05,-6.5941e-05,-0.00014327,4.7566e-05,-1.8248e-05,0.00021986,-7.5624e-05,-7.0991e-05,-0.0009859,-0.00013656,0.00030957,3.9813e-05,5.4628e-05,-2.7126e-05,-8.8604e-05,4.3674e-05,5.0304e-05,-0.0001172,-0.00011905,-8.1223e-05,-8.1291e-05,-7.2151e-05,-7.6932e-06,4.4104e-06,-9.5245e-06,1.1251e-05,4.3162e-05,-0.00035235,-0.00010498,-0.00026283,6.6972e-05,-0.00015197,8.3207e-07,-0.000148,-9.8687e-05,-0.00010902,-9.7339e-05,-8.7092e-05,7.6129e-05,-3.4498e-05,-0.00011628,-4.7135e-05,-6.3181e-06,-0.00024755,-4.1003e-05,6.3788e-05,-0.00016287,-1.6033e-05,-4.2635e-05,3.7591e-05,-0.00039672,-2.2114e-05,-0.13696,-0.00013159,-0.00013028
-6.0426e-06,-6.1463e-06,-1.2039e-05,-1.0703e-05,-3.5002e-07,6.1723e-06,-4.7813e-07,5.8491e-06,-6.6898e-06,-1.7144e-06,1.1269e-06,4.0142e-06,8.4396e-10,-8.597e-07,8.4778e-06,-3.7078e-06,-5.7929e-06,-2.9048e-06,9.7718e-06,2.849e-06,-8.5301e-06,2.361e-06,-2.1882e-06,4.3654e-06,-6.6631e-06,-1.7853e-06,2.214e-06,3.68e-06,5.3159e-06,4.4464e-06,-3.3025e-06,-3.9673e-06,-9.3102e-06,1.5062e-06,5.4475e-07,9.9732e-06,-4.2174e-06,-2.1964e-06,-2.5287e-05,-8.7508e-06,1.1105e-05,2.7755e-06,1.6561e-06,-7.1866e-07,-5.2612e-06,3.0241e-06,3.2733e-06,-8.2493e-06,-4.4376e-06,-4.5419e-06,-3.4975e-06,-2.2111e-06,-2.8863e-06,2.2833e-06,1.2978e-06,1.936e-06,4.7342e-07,-8.1233e-06,-3.8648e-06,-8.5605e-06,4.4025e-06,-8.0811e-06,-7.8602e-07,-6.1614e-06,-5.676e-06,-5.798e-06,-4.5771e-06,-5.0845e-06,4.1335e-06,-1.0792e-06,-6.9076e-06,-2.011e-06,-6.6812e-07,-1.389e-05,-2.1057e-06,4.22e-06,-4.6745e-06,-4.2552e-07,-1.5457e-06,1.9328e-06,-1.2287e-05,-1.1713e-06,-0.13737,-6.3397e-06,-7.9048e-06
-1.7075e-05,-2.2148e-05,-4.1409e-05,-9.6134e-05,-8.8257e-06,-9.1101e-06,-2.853e-06,8.251e-06,-6.2794e-05,-1.475e-05,-1.1439e-05,6.4665e-07,-2.7874e-05,1.2508e-09,9.8033e-06,-1.3952e-05,-2.3742e-05,-8.9389e-06,1.5428e-05,8.492e-06,-2.8624e-05,1.1218e-05,-8.0999e-06,-8.1976e-06,-2.6552e-05,-8.938e-06,1.886e-06,-6.6509e-08,8.004e-06,-1.2294e-06,-2.1194e-05,-2.7325e-05,-3.874e-05,-1.1453e-05,-6.6781e-06,1.4143e-05,-1.6819e-05,-1.9331e-05,-0.0023303,-3.4059e-05,1.8995e-05,-1.0633e-05,-9.3355e-06,-2.0444e-05,-2.2849e-05,6.1639e-06,5.32e-06,-2.5229e-05,-4.1801e-05,-3.0338e-05,-1.3398e-05,-1.2538e-05,-2.1637e-05,2.0023e-06,2.4354e-07,3.5523e-06,4.9984e-06,-0.00010255,-2.0257e-05,-3.5702e-05,4.2487e-06,-2.5901e-05,-3.4423e-06,-3.6211e-05,-2.8696e-05,-2.174e-05,-1.7341e-05,-1.6207e-05,-1.2955e-07,-7.6592e-06,-2.215e-05,-3.097e-06,-5.2844e-06,-6.9876e-05,-1.0348e-05,8.2453e-07,-4.0963e-05,-3.826e-06,-8.1862e-06,3.554e-06,-0.00011756,-7.5914e-06,-0.23521,-2.5751e-05,-2.9468e-05
-6.6285e-05,-8.2364e-05,-0.00014087,-0.00025385,-2.2938e-05,-4.3679e-06,-5.1554e-06,3.8381e-05,-0.00016605,-2.9184e-05,-1.604e-05,-2.4105e-06,-6.1329e-05,-2.7429e-05,1.2396e-09,-4.6554e-05,-9.6193e-05,-3.5465e-05,5.2191e-05,7.6822e-06,-8.6874e-05,1.3852e-05,-2.4828e-05,-2.0641e-05,-8.3268e-05,-2.8595e-05,1.2889e-05,1.7543e-06,2.8844e-05,3.9936e-06,-7.3041e-05,-8.7656e-05,-0.00012571,-3.677e-05,1.7606e-06,5.0785e-05,-5.3789e-05,-6.9333e-05,-0.00078352,-0.00011037,5.3978e-05,-5.1998e-05,-6.6688e-05,-5.4577e-05,-8.0261e-05,2.3401e-05,2.4437e-05,-0.00011112,-0.00012232,-0.00010748,-5.9397e-05,-3.7163e-05,-8.6259e-05,5.6963e-06,-9.8898e-07,8.3095e-06,-1.0759e-05,-0.00023078,-7.8767e-05,-0.00012623,1.8015e-05,-0.00010493,-1.4074e-05,-0.00011237,-8.6239e-05,-6.7599e-05,-5.568e-05,-7.3777e-05,1.4053e-06,-3.8905e-05,-6.7982e-05,-3.4427e-05,-7.4e-06,-0.00023764,-2.7507e-05,4.0335e-07,-8.2377e-05,-1.3817e-05,-2.4666e-05,1.3456e-05,-0.00028156,-2.2804e-05,-0.20749,-0.00010352,-0.0001071
-1.521e-05,-2.1466e-05,-3.1508e-05,-9.6782e-05,-4.081e-06,1.5756e-06,-2.7267e-07,4.2845e-06,-5.0432e-05,-1.2501e-05,-7.4847e-06,4.5646e-06,-2.5312e-05,-6.5868e-06,6.3231e-06,9.7424e-10,-2.1254e-05,-8.0586e-06,1.2234e-05,8.2039e-07,-1.9357e-05,4.9942e-06,-4.5383e-06,-1.7166e-06,-2.3e-05,-7.4445e-06,2.1781e-06,4.6833e-06,9.8178e-06,3.3839e-06,-1.0952e-05,-1.7149e-05,-2.238e-05,-3.0394e-06,-2.4973e-06,1.0955e-05,-1.0487e-05,-1.8892e-05,-0.029301,-2.2382e-05,1.9791e-05,-6.0339e-06,-9.4112e-06,-1.4373e-05,-1.6787e-05,5.7983e-06,5.2677e-06,-2.0884e-05,-3.4039e-05,-1.4153e-05,-1.6198e-05,-1.2724e-05,-9.2332e-06,-5.3162e-07,-2.0408e-06,-9.6699e-08,4.1716e-06,-0.00012064,-2.2583e-05,-3.792e-05,4.9426e-06,-2.3796e-05,-1.4242e-06,-3.2013e-05,-1.7988e-05,-1.6157e-05,-1.6215e-05,-1.5634e-05,4.2592e-06,-1.0252e-05,-1.6969e-05,-8.692e-06,-1.6908e-08,-6.3663e-05,-7.694e-06,1.0606e-07,-2.9639e-05,-3.0617e-06,-5.8938e-06,4.8967e-06,-0.00010137,-1.4133e-06,-0.18607,-2.35e-05,-2.2713e-05
-7.324e-05,-9.0896e-05,-0.00018229,-0.00035285,-1.1281e-05,4.9361e-05,-4.3045e-06,6.2941e-05,-0.00017298,-7.1643e-05,-2.3739e-05,7.536e-05,-6.7112e-05,1.6292e-05,9.6061e-05,-3.717e-05,1.4001e-09,-3.1526e-05,0.00013027,7.2841e-05,-0.00014135,7.6305e-05,-3.1477e-05,4.4077e-05,-0.00012901,-3.3223e-05,1.7817e-05,5.5716e-05,9.2973e-05,4.9246e-05,-3.15e-05,-6.1115e-05,-0.00013732,2.4134e-05,-2.8778e-05,0.00014849,-7.1783e-05,-5.0089e-05,-0.0014126,-0.00014117,0.00018367,3.6915e-05,5.2838e-05,-3.9637e-05,-7.7275e-05,4.0789e-05,4.623e-05,-8.3985e-05,-0.00012561,-8.2865e-05,-4.3908e-05,-5.4583e-05,-2.2481e-05,4.6875e-05,3.3572e-05,3.5919e-05,5.8467e-05,-0.00037119,-6.1318e-05,-0.00017412,5.9031e-05,-0.00010494,-2.8034e-06,-0.00013913,-0.00011745,-9.0914e-05,-7.1363e-05,-5.8986e-05,5.4527e-05,-1.3438e-05,-0.00010362,4.34e-06,-2.2357e-05,-0.00027345,-4.2045e-05,8.5931e-05,-0.00016892,-9.6205e-06,-2.8176e-05,3.4898e-05,-0.00040319,-1.6005e-05,-0.17961,-8.6333e-05,-0.00011266
-6.5061e-06,-8.6314e-06,-1.6204e-05,-3.8324e-05,-3.4487e-06,-3.2915e-06,-3.337e-07,3.1313e-06,-2.2572e-05,-4.5107e-06,-4.0116e-06,1.6758e-07,-1.1205e-05,-1.9929e-06,3.3193e-06,-4.2373e-06,-1.0148e-05,1.1697e-09,4.7994e-06,1.1975e-06,-9.4817e-06,2.4943e-06,-2.7234e-06,-3.3949e-06,-1.0077e-05,-3.2344e-06,1.1478e-06,-5.9689e-07,2.168e-06,-9.9855e-07,-8.2331e-06,-1.0232e-05,-1.4142e-05,-4.6323e-06,-1.0186e-06,3.8864e-06,-6.0523e-06,-8.8124e-06,-0.025403,-1.2669e-05,5.9357e-06,-5.7103e-06,-7.4703e-06,-7.9406e-06,-8.7203e-06,2.2557e-06,3.1107e-06,-1.0888e-05,-1.6274e-05,-1.1092e-05,-6.1819e-06,-4.3986e-06,-1.0789e-05,-4.1644e-07,-1.008e-06,1.0505e-06,2.3495e-07,-3.8517e-05,-9.2514e-06,-1.4943e-05,1.627e-06,-1.0127e-05,-1.0559e-06,-1.4005e-05,-1.0838e-05,-7.3783e-06,-6.2194e-06,-6.6467e-06,1.0914e-07,-3.8351e-06,-7.2657e-06,-2.4828e-06,2.3386e-08,-3.0168e-05,-2.5687e-06,-7.8982e-07,-1.3631e-05,-1.2965e-06,-2.6987e-06,2.1141e-06,-4.4757e-05,-2.1138e-06,-0.25772,-1.0897e-05,-1.1508e-05
-4.9063e-05,-6.5006e-05,-9.1087e-05,-0.00017595,-1.2402e-05,-3.5255e-06,-6.846e-06,1.7207e-05,-0.0001179,-3.4957e-05,-4.2886e-06,2.8442e-06,-4.8131e-05,-1.7505e-05,2.788e-05,-2.5206e-05,-6.5628e-05,-2.6545e-05,1.3268e-09,8.261e-06,-5.0935e-05,1.4949e-05,-1.7499e-05,-7.2771e-06,-6.3805e-05,-2.1442e-05,1.4994e-06,5.7768e-06,2.9098e-05,8.0052e-06,-2.5676e-05,-5.5003e-05,-7.2421e-05,-1.3875e-05,-9.0144e-06,3.8082e-05,-3.4266e-05,-5.0169e-05,-0.00051653,-7.0143e-05,4.5833e-05,-2.6074e-05,-2.7025e-05,-4.6501e-05,-5.4428e-05,1.6206e-05,1.325e-05,-6.4236e-05,-8.6697e-05,-4.8753e-05,-4.5515e-05,-3.7874e-05,-2.0872e-05,4.83e-07,-3.4087e-06,2.6748e-06,1.7211e-06,-0.00018077,-6.1385e-05,-8.1447e-05,1.1454e-05,-7.0288e-05,-8.5291e-06,-9.0397e-05,-5.6543e-05,-4.4357e-05,-4.8945e-05,-5.2444e-05,5.1587e-06,-2.2429e-05,-4.7572e-05,-2.4102e-05,-1.3573e-06,-0.00016482,-2.3762e-05,1.6018e-06,-6.0444e-05,-1.1774e-05,-2.2721e-05,1.4246e-05,-0.00018016,-1.3918e-05,-0.19046,-6.7272e-05,-6.6579e-05
-2.4441e-05,-3.1125e-05,-5.8897e-05,-0.00012991,-1.0799e-05,-9.4754e-06,-1.7446e-06,1.6734e-05,-8.6425e-05,-1.9777e-05,-1.2816e-05,-1.0969e-07,-3.7599e-05,-1.8909e-06,1.64e-05,-1.9838e-05,-3.4445e-05,-1.3198e-05,2.4499e-05,1.2383e-09,-3.8008e-05,1.4694e-05,-1.0167e-05,-7.5558e-06,-3.7507e-05,-1.2003e-05,3.6127e-06,-4.7152e-07,1.41e-05,-5.8782e-07,-2.8354e-05,-3.6768e-05,-5.3255e-05,-1.1213e-05,-7.2213e-06,2.0224e-05,-2.4995e-05,-2.8829e-05,-0.0014247,-4.6732e-05,2.6705e-05,-1.6975e-05,-1.4395e-05,-2.7502e-05,-3.0199e-05,9.0091e-06,9.4307e-06,-3.59e-05,-6.0457e-05,-3.8616e-05,-2.1581e-05,-1.7664e-05,-2.9371e-05,4.2038e-06,1.4423e-06,4.0803e-06,5.1043e-06,-0.00013666,-2.7848e-05,-4.9909e-05,7.8743e-06,-3.8168e-05,-4.4253e-06,-5.1378e-05,-4.0633e-05,-2.8828e-05,-2.4101e-05,-2.442e-05,2.8655e-06,-9.2793e-06,-3.0733e-05,-5.4244e-06,-5.4745e-06,-9.6982e-05,-1.4316e-05,-6.0211e-07,-5.1298e-05,-4.6788e-06,-9.1899e-06,5.8955e-06,-0.00015966,-9.3027e-06,-0.21571,-3.8607e-05,-4.2296e-05
-9.3987e-06,-1.313e-05,-1.9413e-05,-4.989e-05,-3.6004e-06,-3.9291e-06,-6.9557e-07,2.9518e-06,-3.2897e-05,-6.2559e-06,-4.2496e-06,-1.9255e-06,-1.4871e-05,-4.4342e-06,3.1814e-06,-5.3679e-06,-1.486e-05,-5.4144e-06,7.1386e-06,2.7692e-07,1.0776e-09,2.6175e-06,-2.928e-06,-4.2457e-06,-1.2523e-05,-4.145e-06,6.3025e-07,-6.6495e-07,3.4392e-06,-1.0089e-06,-9.0751e-06,-1.3096e-05,-1.5878e-05,-4.831e-06,-8.0336e-07,2.8268e-06,-7.881e-06,-1.2675e-05,-0.011994,-1.4634e-05,5.7317e-06,-9.969e-06,-1.2818e-05,-1.0735e-05,-1.1232e-05,3.2377e-06,2.6805e-06,-1.455e-05,-2.2847e-05,-1.2879e-05,-9.3766e-06,-6.9705e-06,-1.2308e-05,-1.372e-06,-1.9253e-06,-9.2801e-08,2.6274e-07,-5.0863e-05,-1.3448e-05,-1.964e-05,1.57e-06,-1.4795e-05,-1.7968e-06,-2.0112e-05,-1.1953e-05,-8.9958e-06,-9.3689e-06,-1.0448e-05,-7.8577e-08,-5.9613e-06,-9.1987e-06,-5.196e-06,-2.8968e-07,-3.9394e-05,-4.397e-06,-2.5673e-06,-1.6237e-05,-1.952e-06,-3.787e-06,2.219e-06,-5.3192e-05,-3.2825e-06,-0.22551,-1.5391e-05,-1.4232e-05
-0.00012442,-0.00017441,-0.00030307,-0.0014527,-5.5177e-05,-8.9344e-05,-1.6425e-05,4.944e-05,-0.00076728,-0.00011684,-8.1862e-05,2.1308e-06,-0.00028414,-1.5963e-05,6.8759e-05,-9.1826e-05,-0.00020581,-7.1466e-05,0.00010711,4.9935e-05,-0.00018344,8.9438e-10,-5.2388e-05,-6.156e-05,-0.00020918,-5.9491e-05,1.2732e-05,3.5146e-07,7.1906e-05,-1.5801e-05,-0.00016216,-0.0002142,-0.00028573,-7.0303e-05,-4.3646e-05,8.1176e-05,-0.0001183,-0.0001726,-0.18271,-0.00024496,0.00014079,-0.00013493,-0.00014558,-0.00016497,-0.00016754,4.8127e-05,3.7347e-05,-0.00017907,-0.00042099,-0.00022417,-0.0001167,-0.00010109,-0.00021712,1.8915e-05,7.3962e-06,1.817e-05,3.7222e-05,-0.001647,-0.00018018,-0.00026856,2.4039e-05,-0.00019646,-1.5692e-05,-0.00030463,-0.00020202,-0.00015221,-0.00013768,-0.00012303,5.8411e-06,-6.3338e-05,-0.00014782,-2.1802e-05,-3.2953e-05,-0.00080767,-7.3984e-05,2.8908e-06,-0.00031392,-2.1947e-05,-5.5723e-05,3.178e-05,-0.0019992,-5.1492e-05,-0.214,-0.00021152,-0.00021878
-1.8734e-05,-2.731e-05,-4.3732e-05,-0.0001543,-7.6619e-06,-7.9748e-06,-1.432e-06,7.036e-06,-8.4945e-05,-1.2469e-05,-1.0513e-05,-2.4625e-06,-3.3739e-05,-8.3331e-06,7.5864e-06,-1.1135e-05,-3.1772e-05,-1.1407e-05,1.1385e-05,1.267e-06,-2.3641e-05,5.1518e-06,8.5245e-10,-1.062e-05,-2.7199e-05,-9.0294e-06,1.9821e-06,-1.1892e-06,6.7601e-06,-8.8039e-07,-2.0718e-05,-2.9757e-05,-3.6002e-05,-1.2641e-05,-1.5804e-06,7.8082e-06,-1.6786e-05,-2.6319e-05,-0.11713,-3.1979e-05,1.4461e-05,-2.0227e-05,-2.5411e-05,-2.2349e-05,-2.4632e-05,6.7759e-06,5.5329e-06,-3.1419e-05,-5.166e-05,-3.0088e-05,-1.9542e-05,-1.3402e-05,-2.63e-05,-2.3073e-06,-3.9201e-06,2.2429e-07,4.715e-07,-0.00015081,-2.7922e-05,-4.3145e-05,3.4253e-06,-2.9121e-05,-2.4773e-06,-4.299e-05,-2.6622e-05,-2.0401e-05,-1.9508e-05,-2.0513e-05,-1.1344e-06,-1.2147e-05,-2.0282e-05,-1.0176e-05,-1.7234e-06,-0.00010237,-9.8096e-06,-4.7645e-06,-3.7789e-05,-4.0689e-06,-6.2601e-06,4.3597e-06,-0.00016908,-6.9952e-06,-0.21599,-3.3403e-05,-3.1474e-05
-1.0132e-05,-1.2133e-05,-2.0152e-05,-2.9257e-05,7.6931e-07,1.2962e-05,1.9076e-07,7.7514e-06,-1.4552e-05,-7.7116e-06,9.6949e-07,8.2101e-06,-4.289e-06,-2.9095e-06,9.8459e-06,-2.0656e-06,-1.0046e-05,-5.1008e-06,1.5073e-05,4.5176e-06,-1.3441e-05,5.1248e-06,-3.5627e-06,1.1781e-09,-1.3652e-05,-2.3464e-06,3.3978e-06,7.6989e-06,1.0904e-05,8.0497e-06,-2.2769e-06,-1.3452e-06,-1.5083e-05,9.6509e-06,-5.097e-07,1.5474e-05,-8.2304e-06,-7.7808e-06,-7.4083e-05,-1.2038e-05,2.1803e-05,6.9916e-06,7.4791e-06,-1.0277e-06,-8.5099e-06,5.0885e-06,6.1832e-06,-1.2182e-05,-9.5312e-06,-2.6287e-06,-8.2872e-06,-6.9368e-06,1.9942e-06,2.8555e-06,1.7858e-06,2.3721e-06,4.7155e-06,-2.7458e-05,-1.0589e-05,-2.2862e-05,8.8505e-06,-1.5829e-05,1.365e-07,-1.1893e-05,-6.9692e-06,-1.0301e-05,-9.5418e-06,-9.8394e-06,1.279e-05,-3.8434e-06,-1.0811e-05,-4.4021e-06,8.0616e-07,-2.6041e-05,-3.2978e-06,5.7087e-06,-1.3732e-05,-1.0642e-06,-3.122e-06,4.8657e-06,-2.9048e-05,-1.0138e-06,-0.097972,-1.2947e-05,-1.2546e-05
-0.00013218,-0.00017334,-0.00030151,-0.0010067,-5.8095e-05,-2.0848e-05,-1.473e-05,7.1452e-05,-0.00053493,-7.6585e-05,-6.2001e-05,1.4624e-05,-0.00018434,-3.6257e-05,8.3422e-05,-9.7353e-05,-0.00020573,-7.6465e-05,0.00010037,3.088e-05,-0.00017667,4.33e-05,-5.1764e-05,-4.3143e-05,1.1944e-09,-5.1435e-05,2.4101e-05,2.0591e-05,6.0344e-05,-3.5387e-06,-0.00013747,-0.00019949,-0.00025359,-5.9392e-05,-4.5336e-06,0.0001076,-0.00010702,-0.00014108,-0.036442,-0.00022066,0.00014455,-9.5732e-05,-0.00013395,-0.00012214,-0.00016243,5.1052e-05,4.1389e-05,-0.00021464,-0.000306,-0.0002194,-0.00010987,-7.9218e-05,-0.00018645,-9.6134e-06,-2.3179e-05,1.5144e-05,7.7336e-06,-0.00092336,-0.00016617,-0.00029556,3.9096e-05,-0.0002119,-2.2671e-05,-0.00026925,-0.00018295,-0.0001396,-0.00012429,-0.00013704,1.1424e-05,-6.9967e-05,-0.00013754,-5.9173e-05,-2.0403e-05,-0.00065055,-6.7327e-05,7.2725e-06,-0.0002358,-2.4539e-05,-5.1738e-05,2.2707e-05,-0.0011062,-5.1019e-05,-0.17093,-0.00021199,-0.00021466
-1.4093e-05,-1.879e-05,-2.9813e-05,-7.0646e-05,-5.632e-06,-3.9539e-06,-1.7653e-06,5.8207e-06,-4.4821e-05,-8.6791e-06,-6.4538e-06,-5.1462e-07,-1.9817e-05,-5.593e-06,5.8724e-06,-9.2838e-06,-2.1276e-05,-7.9849e-06,8.6959e-06,9.7728e-07,-1.7733e-05,3.7894e-06,-5.3467e-06,-4.7271e-06,-1.8085e-05,8.2101e-10,1.312e-06,3.7295e-07,6.0108e-06,1.7763e-07,-1.3351e-05,-1.8399e-05,-2.4698e-05,-5.1748e-06,-6.64e-07,7.0746e-06,-1.1676e-05,-1.7237e-05,-0.023494,-2.1316e-05,1.1412e-05,-1.2322e-05,-1.5395e-05,-1.3919e-05,-1.6135e-05,4.3765e-06,4.3048e-06,-2.1621e-05,-2.9266e-05,-1.8966e-05,-1.3463e-05,-9.6434e-06,-1.5512e-05,-2.2091e-06,-3.3e-06,2.9673e-07,2.0596e-07,-6.6901e-05,-1.8344e-05,-2.9471e-05,3.1752e-06,-2.2163e-05,-2.3125e-06,-2.6874e-05,-1.823e-05,-1.4551e-05,-1.3667e-05,-1.4899e-05,1.0922e-06,-8.3668e-06,-1.3957e-05,-6.8361e-06,-1.5737e-06,-5.2741e-05,-7.0247e-06,-2.0404e-06,-2.3944e-05,-3.2952e-06,-5.9941e-06,2.7257e-06,-7.2897e-05,-4.8288e-06,-0.21031,-2.1924e-05,-2.1584e-05
-1.457e-05,-1.973e-05,-3.3763e-05,-7.9792e-05,-6.346e-06,-6.1593e-06,5.0839e-07,5.5803e-06,-4.8782e-05,-8.3189e-06,-7.6901e-06,-3.0081e-06,-2.1682e-05,-6.8786e-06,6.3498e-06,-9.2769e-06,-2.5186e-05,-7.9492e-06,6.9408e-06,-8.7292e-08,-1.8844e-05,2.4833e-06,-5.3863e-06,-7.4298e-06,-1.9247e-05,-6.7706e-06,1.1234e-09,-2.2069e-06,3.9916e-06,-2.0561e-06,-1.7282e-05,-2.2601e-05,-2.9062e-05,-9.4272e-06,-4.4986e-07,5.7784e-06,-1.2885e-05,-1.973e-05,-0.047702,-2.4225e-05,9.1013e-06,-1.4659e-05,-1.9494e-05,-1.6674e-05,-1.8603e-05,4.9756e-06,3.9342e-06,-2.4953e-05,-3.2703e-05,-2.3956e-05,-1.5006e-05,-9.6882e-06,-2.4588e-05,-2.0075e-06,-3.1005e-06,1.3339e-07,-1.1158e-06,-7.5145e-05,-2.1276e-05,-3.2142e-05,2.7083e-06,-2.3693e-05,-2.7932e-06,-3.0081e-05,-2.0456e-05,-1.5265e-05,-1.2676e-05,-1.6441e-05,-9.8842e-07,-9.7331e-06,-1.3954e-05,-8.6252e-06,-1.3651e-06,-6.1286e-05,-7.2666e-06,-4.3259e-06,-2.6998e-05,-2.9266e-06,-5.6228e-06,2.6222e-06,-8.8871e-05,-4.8977e-06,-0.23328,-2.4575e-05,-2.3931e-05
-9.0398e-05,-0.0001168,-0.0001706,-0.00033594,-1.5306e-05,4.7207e-05,-1.3435e-05,3.994e-05,-0.00016523,-5.6636e-05,-1.9389e-05,0.0001153,-7.6347e-05,-2.9101e-05,6.3542e-05,-2.118e-05,-0.0001018,-5.1534e-05,9.5894e-05,1.5406e-05,-0.00011628,3.431e-05,-2.835e-05,2.3119e-05,-0.00010404,-2.8118e-05,1.2025e-05,9.1867e-10,8.3383e-05,4.837e-05,-3.9532e-05,-6.075e-05,-0.00011625,3.4559e-05,-4.9229e-06,0.00017707,-5.739e-05,-6.5995e-05,-0.0011595,-0.0001134,0.00022713,8.7752e-06,-1.7389e-05,-3.9496e-05,-8.2665e-05,4.1463e-05,3.3772e-05,-0.00010999,-0.00012158,-7.7659e-05,-8.3287e-05,-5.9781e-05,-1.5902e-05,-4.6155e-06,-1.4748e-05,6.5687e-06,2.4848e-05,-0.00030874,-0.00010228,-0.00019918,5.0438e-05,-0.00013864,-2.7813e-06,-0.00013376,-7.7208e-05,-8.4522e-05,-9.1575e-05,-8.6388e-05,5.2368e-05,-3.8687e-05,-9.697e-05,-4.4854e-05,-5.743e-06,-0.00019983,-3.7143e-05,3.3262e-05,-0.00012098,-9.996e-06,-3.197e-05,2.8284e-05,-0.00030972,-2.6185e-05,-0.14291,-0.00011677,-0.00010769
-0.0001064,-0.00014715,-0.00022873,-0.00072318,-3.0553e-05,-7.2291e-06,-1.4563e-05,3.4728e-05,-0.00039316,-7.6696e-05,-4.3154e-05,2.4135e-05,-0.00015726,-4.7475e-05,5.4533e-05,-4.9028e-05,-0.00015515,-7.1845e-05,9.1954e-05,1.2435e-05,-0.0001342,3.1496e-05,-4.2174e-05,-1.8026e-05,-0.00015192,-4.1757e-05,6.3194e-06,2.9211e-05,8.3169e-10,1.2191e-05,-7.2155e-05,-0.00012447,-0.00016393,-1.7627e-05,-1.6619e-05,9.011e-05,-8.6098e-05,-0.0001185,-0.03223,-0.00012215,0.00013495,-9.2202e-05,-0.00010124,-8.9681e-05,-8.9992e-05,4.2238e-05,2.9973e-05,-0.00011656,-0.00024257,-0.00013905,-0.00010815,-7.9386e-05,-8.4811e-05,-9.5654e-06,-1.7645e-05,4.1276e-07,1.3514e-05,-0.00073126,-0.00014776,-0.00021198,3.006e-05,-0.0001682,-7.3168e-06,-0.00022114,-0.00012934,-0.00010202,-0.00010775,-0.00011322,1.3512e-05,-6.6531e-05,-0.00011053,-5.9342e-05,-1.4798e-05,-0.00045892,-5.6542e-05,1.6932e-05,-0.00018491,-1.7976e-05,-4.6992e-05,2.2082e-05,-0.00074204,-3.1224e-05,-0.14683,-0.00016522,-0.00014891
-0.00014212,-0.00017359,-0.00027398,-0.00048346,-4.3972e-06,0.00012223,-5.2363e-06,7.6953e-05,-0.00013313,-7.9188e-05,-2.1178e-05,0.00010016,-9.8209e-05,-4.9301e-05,0.00010685,-3.9577e-05,-0.00016348,-8.1516e-05,0.00016021,2.6035e-05,-0.00017805,4.0303e-05,-3.598e-05,4.2069e-05,-0.000185,-4.0465e-05,2.6011e-05,7.667e-05,0.00010685,1.206e-09,-6.4811e-05,-9.1528e-05,-0.00018993,2.0341e-05,-2.2774e-06,0.00017056,-0.00010508,-0.00011538,-0.00076279,-0.00018477,0.00025642,3.7997e-05,0.00012829,-5.8229e-05,-0.00012627,6.1547e-05,6.2248e-05,-0.00019375,-0.00013383,-6.5389e-05,-0.00013239,-0.00010376,6.8766e-05,1.7094e-05,-4.5507e-07,1.6996e-05,3.0629e-05,-0.00041834,-0.00014614,-0.00031471,9.2602e-05,-0.00021033,-1.0441e-05,-0.00021005,-0.00014397,-0.00013708,-0.00011315,-0.00013639,9.9349e-05,-5.6332e-05,-0.00014139,-6.8441e-05,-5.1499e-06,-0.00030997,-6.1554e-05,3.0617e-05,-0.00018645,-1.9531e-05,-4.7716e-05,5.1409e-05,-0.00044587,-2.6659e-05,-0.13042,-0.00019431,-0.00018733
-1.1084e-05,-1.4614e-05,-2.1472e-05,-4.2453e-05,-1.058e-06,5.3887e-06,-1.4235e-06,4.6198e-06,-2.9878e-05,-8.9814e-06,-2.7602e-06,5.6288e-06,-1.2141e-05,-4.0121e-06,5.4007e-06,-2.9766e-06,-1.0903e-05,-6.9773e-06,1.5094e-05,2.1336e-06,-1.3782e-05,3.7563e-06,-3.6662e-06,3.0474e-06,-1.4963e-05,-3.8639e-06,7.6506e-07,5.676e-06,1.0248e-05,4.9149e-06,1.1379e-09,-1.0235e-05,-1.2087e-05,2.7951e-06,-1.5667e-06,1.1176e-05,-8.1137e-06,-9.5188e-06,-0.0001274,-1.3151e-05,1.7224e-05,-1.6736e-06,-2.0825e-06,-6.5245e-06,-9.7504e-06,4.3624e-06,3.6029e-06,-1.3075e-05,-2.0631e-05,-7.0812e-06,-1.0974e-05,-9.6184e-06,-1.264e-06,5.848e-07,-5.8255e-07,2.4083e-06,4.7496e-06,-4.2711e-05,-1.2778e-05,-2.4072e-05,4.8865e-06,-1.6531e-05,-4.1087e-07,-2.0058e-05,-1.05e-05,-9.7581e-06,-1.1442e-05,-1.089e-05,5.2858e-06,-4.2594e-06,-1.2172e-05,-5.8678e-06,-6.7243e-07,-2.8628e-05,-5.5767e-06,5.1193e-06,-1.6727e-05,-1.9016e-06,-4.5295e-06,3.4257e-06,-4.0572e-05,-2.0438e-06,-0.1613,-1.3334e-05,-1.3254e-05
-0.00010064,-0.00013327,-0.00020591,-0.0003454,-5.082e-06,0.00011187,2.4893e-06,5.7408e-05,-0.00014002,-7.9983e-05,-1.3748e-05,0.00010426,-7.5175e-05,-1.9575e-05,0.00010171,-2.2801e-05,-9.4705e-05,-5.1226e-05,0.00015918,5.2556e-05,-0.00015114,7.1243e-05,-3.4374e-05,0.00011743,-0.00015238,-3.0228e-05,2.5529e-05,9.6534e-05,0.00012657,9.4412e-05,-4.8939e-05,1.0255e-09,-0.00016779,7.1041e-05,-1.7018e-05,0.00019415,-8.5494e-05,-8.3069e-05,-0.00081975,-0.00014783,0.0002486,6.3484e-05,8.6702e-05,-1.7983e-05,-9.4893e-05,6.1615e-05,5.7992e-05,-0.00012032,-9.7513e-05,-3.2747e-05,-8.0832e-05,-7.305e-05,1.5847e-05,3.5776e-05,1.9354e-05,3.1226e-05,5.3828e-05,-0.00036492,-0.00010266,-0.00022873,8.2871e-05,-0.00014893,7.9585e-06,-0.00013101,-9.1878e-05,-0.00010502,-0.00010422,-8.7657e-05,0.00011123,-3.8973e-05,-0.0001176,-3.6685e-05,-9.2042e-06,-0.00025775,-4.361e-05,7.1449e-05,-0.00017387,-1.0261e-05,-2.9882e-05,4.6712e-05,-0.00034459,-1.8102e-05,-0.13206,-0.00012258,-0.00013654
-7.73e-05,-9.9684e-05,-0.00014976,-0.00031015,-9.428e-06,4.6403e-05,-8.5075e-06,3.4987e-05,-0.00016688,-5.5678e-05,-1.5169e-05,4.5537e-05,-7.3661e-05,-2.3421e-05,4.9662e-05,-1.524e-05,-7.7573e-05,-4.5661e-05,9.7877e-05,2.1377e-05,-9.3666e-05,3.4307e-05,-2.2514e-05,1.4235e-05,-9.9663e-05,-2.6105e-05,8.1335e-06,4.594e-05,7.4137e-05,3.8782e-05,-1.6294e-05,-7.0438e-05,9.5467e-10,1.5672e-05,-7.315e-06,8.8319e-05,-5.8837e-05,-6.4225e-05,-0.0028976,-9.1594e-05,0.00013542,6.3142e-06,3.6058e-07,-4.1065e-05,-6.6385e-05,3.3457e-05,2.8419e-05,-9.1559e-05,-0.00012108,-5.4946e-05,-6.8854e-05,-5.9138e-05,-1.0607e-05,3.9763e-06,-3.3374e-06,1.1846e-05,2.479e-05,-0.00030304,-8.6703e-05,-0.00016279,3.975e-05,-0.00011181,-1.0947e-06,-0.00014117,-8.6544e-05,-7.5101e-05,-7.8896e-05,-7.1904e-05,3.9895e-05,-3.0371e-05,-8.9553e-05,-3.2655e-05,-4.1758e-06,-0.00020254,-3.7391e-05,3.2351e-05,-0.00011745,-1.0865e-05,-2.9477e-05,2.6232e-05,-0.00032154,-1.4751e-05,-0.15372,-9.3531e-05,-8.9427e-05
-1.3297e-05,-1.7382e-05,-2.4577e-05,-4.3047e-05,-5.8459e-07,1.0644e-05,-9.4807e-07,5.4576e-06,-1.929e-05,-1.1052e-05,-1.8377e-06,1.0635e-05,-1.0955e-05,-5.4614e-06,7.3237e-06,-3.3289e-06,-1.3447e-05,-8.4483e-06,1.4661e-05,3.4624e-06,-1.6611e-05,5.298e-06,-5.5119e-06,1.085e-05,-1.7114e-05,-3.1699e-06,1.6539e-06,1.086e-05,1.2653e-05,7.2261e-06,-3.0972e-06,-6.1544e-06,-1.6436e-05,1.1953e-09,-1.7657e-06,1.5581e-05,-1.0174e-05,-1.2904e-05,-0.00010767,-1.497e-05,2.6977e-05,3.5558e-06,2.6096e-06,-4.3969e-06,-1.0569e-05,5.4423e-06,4.1811e-06,-1.4165e-05,-1.5846e-05,-4.0296e-06,-1.3093e-05,-1.0447e-05,3.6344e-06,-1.9252e-07,-8.9572e-07,5.3389e-07,5.3771e-06,-4.0512e-05,-1.5325e-05,-2.8661e-05,8.8776e-06,-2.059e-05,-1.908e-07,-1.6555e-05,-8.4262e-06,-1.4211e-05,-1.4584e-05,-1.3836e-05,1.1134e-05,-5.4432e-06,-1.254e-05,-7.8623e-06,9.8089e-08,-3.5554e-05,-6.0559e-06,3.0023e-06,-1.7995e-05,-2.4992e-06,-6.0084e-06,3.8248e-06,-3.7697e-05,-3.5687e-06,-0.099164,-1.7821e-05,-1.6545e-05
-1.0247e-05,-1.3995e-05,-2.2587e-05,-5.5371e-05,-4.4107e-06,-2.4222e-06,-7.3938e-07,4.8086e-06,-3.5078e-05,-2.8466e-06,-4.2914e-06,-2.5262e-06,-1.3591e-05,-6.144e-06,4.181e-06,-6.6589e-06,-1.7705e-05,-5.9758e-06,4.1417e-06,-1.4159e-06,-1.155e-05,1.437e-07,-3.3032e-06,-5.4839e-06,-1.1909e-05,-3.8191e-06,1.2872e-06,-1.0105e-06,2.3918e-06,-1.0526e-06,-1.0723e-05,-1.5139e-05,-1.7674e-05,-6.154e-06,1.0625e-09,3.407e-06,-8.0916e-06,-1.3736e-05,-0.11601,-1.5251e-05,5.4497e-06,-1.1938e-05,-1.6698e-05,-1.0551e-05,-1.294e-05,3.825e-06,2.968e-06,-1.8876e-05,-2.2766e-05,-1.5982e-05,-1.1044e-05,-5.8977e-06,-1.5013e-05,-2.9451e-06,-3.7537e-06,2.416e-08,-2.8523e-06,-4.561e-05,-1.4437e-05,-2.2468e-05,1.956e-06,-1.7392e-05,-1.5841e-06,-2.0279e-05,-1.3284e-05,-1.0083e-05,-9.3957e-06,-1.1761e-05,-6.112e-07,-6.9084e-06,-8.9405e-06,-7.528e-06,-2.4902e-07,-4.3279e-05,-4.2759e-06,-3.4386e-06,-1.4574e-05,-2.1878e-06,-3.4964e-06,1.7238e-06,-5.5122e-05,-3.7053e-06,-0.22623,-1.8317e-05,-1.5568e-05
-9.0081e-05,-0.00010137,-0.00018414,-0.00030168,-1.5039e-05,5.6072e-05,-1.1739e-05,5.4648e-05,-0.00015602,-5.3952e-05,-1.5643e-05,0.00010891,-5.4017e-05,-1.7365e-05,9.0296e-05,-3.7706e-05,-9.0561e-05,-4.3615e-05,0.00011657,3.0759e-05,-0.00013652,3.2268e-05,-3.5401e-05,2.6477e-05,-0.00010405,-3.2802e-05,1.9713e-05,0.00011752,8.7136e-05,5.5313e-05,-5.1156e-05,-5.4747e-05,-0.00013436,1.2206e-05,-5.0719e-06,8.7544e-10,-7.0322e-05,-5.4991e-05,-0.00067926,-0.00013104,0.00022629,1.5917e-05,-2.4987e-05,-3.4143e-05,-9.3057e-05,3.7625e-05,4.1724e-05,-0.00012173,-8.5687e-05,-6.9775e-05,-7.5493e-05,-5.3795e-05,-6.2701e-05,1.0496e-05,1.7573e-07,1.3534e-05,2.9983e-05,-0.00025635,-8.411e-05,-0.00018531,5.1978e-05,-0.00013673,-7.1691e-06,-0.00012648,-8.8367e-05,-9.0315e-05,-7.4096e-05,-9.1829e-05,6.091e-05,-3.1382e-05,-9.7831e-05,-3.6459e-05,-1.0391e-05,-0.0002128,-3.3623e-05,4.5983e-05,-0.00012609,-1.3304e-05,-2.7774e-05,2.7633e-05,-0.00029319,-3.0982e-05,-0.14666,-0.00012734,-0.00011169
-1.2698e-05,-1.7779e-05,-3.0093e-05,-8.9736e-05,-4.9013e-06,-5.189e-06,-1.694e-06,5.6122e-06,-5.6643e-05,-8.1887e-06,-6.8623e-06,9.1159e-07,-1.9182e-05,-4.4296e-06,7.2189e-06,-6.2209e-06,-2.0015e-05,-7.2395e-06,1.1084e-05,1.5484e-06,-1.7438e-05,4.764e-06,-4.929e-06,-5.0237e-06,-1.7625e-05,-5.6569e-06,1.482e-06,1.9629e-06,6.651e-06,1.8655e-07,-1.2423e-05,-1.8887e-05,-2.4674e-05,-5.9808e-06,-1.3684e-06,8.2917e-06,1.1661e-09,-1.5074e-05,-0.010785,-2.219e-05,1.2902e-05,-1.0915e-05,-1.577e-05,-1.4389e-05,-1.531e-05,5.3136e-06,3.9596e-06,-2.0261e-05,-3.1765e-05,-2.0829e-05,-1.2024e-05,-8.7505e-06,-1.6336e-05,-7.3688e-07,-1.9993e-06,1.3229e-06,7.4523e-07,-9.0363e-05,-1.7939e-05,-2.5829e-05,3.3524e-06,-2.0891e-05,-1.8714e-06,-2.6065e-05,-1.6769e-05,-1.3417e-05,-1.2427e-05,-1.3414e-05,1.9168e-07,-7.7925e-06,-1.3882e-05,-5.6811e-06,-1.2449e-06,-6.0672e-05,-6.2424e-06,4.4219e-07,-2.3126e-05,-2.1085e-06,-5.3212e-06,3.2446e-06,-0.00010019,-3.3106e-06,-0.1783,-2.0294e-05,-2.1062e-05
-6.8844e-05,-7.7768e-05,-0.00014638,-0.00021738,-1.1371e-05,4.5453e-05,-9.137e-06,4.9741e-05,-0.00011047,-4.7449e-05,-1.3508e-05,5.4755e-05,-3.6228e-05,3.6985e-06,7.9303e-05,-3.9421e-05,-6.8655e-05,-3.3487e-05,0.00010287,4.395e-05,-0.00011498,5.0434e-05,-2.6262e-05,2.0902e-05,-8.7708e-05,-2.7425e-05,1.8276e-05,4.8343e-05,7.2717e-05,3.856e-05,-3.978e-05,-6.6705e-05,-0.00012068,-4.6303e-06,-1.4743e-05,0.00011815,-5.2828e-05,9.3958e-10,-0.00045904,-0.00011294,0.00014423,2.1992e-05,3.3043e-05,-3.5485e-05,-6.8093e-05,3.2565e-05,3.2934e-05,-8.6623e-05,-9.3137e-05,-6.4323e-05,-4.3318e-05,-4.0809e-05,-2.258e-05,2.9654e-05,1.8566e-05,2.0257e-05,3.1058e-05,-0.00020829,-5.7515e-05,-0.000129,4.0185e-05,-9.1883e-05,-4.6961e-06,-0.0001025,-7.8815e-05,-7.7606e-05,-6.427e-05,-5.2305e-05,4.0187e-05,-1.3492e-05,-8.9305e-05,-1.0728e-05,-1.6325e-05,-0.00020061,-3.2934e-05,4.9754e-05,-0.00010887,-7.5905e-06,-2.3577e-05,2.4721e-05,-0.00024159,-1.6144e-05,-0.1523,-7.6952e-05,-0.00010002
-7.3268e-06,-6.7683e-06,-1.2057e-05,-3.9222e-06,2.7984e-06,1.9249e-05,-1.353e-06,9.1317e-06,3.415e-07,-2.3284e-06,5.432e-06,1.065e-05,1.1354e-05,5.3873e-07,1.5284e-05,-2.8324e-06,-3.8826e-06,-3.6582e-06,2.1323e-05,6.9208e-06,-1.0367e-05,4.9612e-06,-2.0067e-06,1.338e-05,-7.1704e-06,-8.0806e-07,3.4743e-06,1.0997e-05,1.1212e-05,1.2846e-05,1.123e-06,1.8431e-06,-7.8196e-06,1.0066e-05,3.4718e-07,2.1025e-05,-3.9123e-06,2.471e-06,1.29e-09,-9.4931e-06,2.4954e-05,1.4498e-05,1.2253e-05,4.7884e-06,-4.1174e-06,5.5327e-06,5.2759e-06,-8.6175e-06,1.8432e-06,2.4008e-06,-2.8419e-06,-2.0517e-06,7.0246e-06,5.6731e-06,4.2344e-06,4.1221e-06,2.8286e-06,-1.3534e-06,-1.5106e-06,-8.6459e-06,9.329e-06,-9.1021e-06,2.0577e-07,-3.8966e-06,-3.984e-06,-6.924e-06,-5.6727e-06,-5.7691e-06,1.2304e-05,1.7218e-06,-9.5024e-06,-1.2399e-06,-4.2508e-07,-7.1492e-06,-1.8742e-06,1.0985e-05,-1.2491e-06,4.4559e-07,-1.3577e-06,3.9152e-06,-4.025e-06,3.3165e-07,-0.090147,-4.6824e-06,-7.3243e-06
-3.0589e-05,-4.1568e-05,-6.4855e-05,-0.00014388,-6.9296e-06,3.9921e-06,-1.793e-06,1.2366e-05,-8.2028e-05,-2.2415e-05,-1.1392e-05,1.0173e-05,-3.9317e-05,-1.1327e-05,1.5603e-05,-1.3663e-05,-4.0619e-05,-2.0105e-05,2.8703e-05,5.4711e-06,-4.0474e-05,1.1074e-05,-1.1203e-05,1.7583e-06,-4.1965e-05,-1.1215e-05,3.9514e-06,9.9811e-06,3e-05,6.8951e-06,-1.8386e-05,-3.3177e-05,-4.4388e-05,-1.1242e-06,-3.1118e-06,2.4934e-05,-2.6483e-05,-3.2335e-05,-0.0010726,1.2516e-09,4.1098e-05,-1.5606e-05,-1.6192e-05,-2.3276e-05,-2.6648e-05,1.3117e-05,1.0004e-05,-3.1986e-05,-5.6801e-05,-3.1212e-05,-2.9843e-05,-2.3642e-05,-1.9008e-05,-7.4309e-07,-3.3017e-06,2.5769e-06,7.123e-06,-0.00014519,-3.9773e-05,-6.9194e-05,1.2809e-05,-4.7064e-05,-1.1652e-06,-5.8147e-05,-3.5314e-05,-3.0449e-05,-3.1292e-05,-3.1126e-05,1.0628e-05,-1.6497e-05,-3.1851e-05,-1.461e-05,-2.2454e-06,-0.00010565,-1.6528e-05,4.5902e-06,-5.499e-05,-4.8219e-06,-1.2812e-05,7.8818e-06,-0.00014693,-8.4096e-06,-0.181,-4.4e-05,-3.8541e-05
-9.664e-05,-0.00012029,-0.00019492,-0.00034005,-1.0539e-05,9.2615e-05,-9.9451e-06,5.236e-05,-0.00010451,-6.3471e-05,-2.0071e-05,0.00014549,-7.4024e-05,-2.4928e-05,7.1681e-05,-1.3553e-05,-0.00010109,-4.5618e-05,0.00011168,2.5144e-05,-0.00013764,4.2091e-05,-3.0474e-05,4.3922e-05,-0.00011713,-3.0259e-05,1.89e-05,0.00013755,0.00010463,8.3081e-05,-3.5054e-05,-5.3909e-05,-0.000119,5.5582e-05,-7.7435e-06,0.00020096,-7.0862e-05,-6.3797e-05,-0.00062305,-0.00011805,9.6678e-10,5.3027e-05,4.1805e-05,-2.8966e-05,-7.9281e-05,4.4848e-05,4.3436e-05,-0.00011163,-0.00010486,-4.5089e-05,-8.4116e-05,-6.8604e-05,1.2343e-05,2.746e-08,-1.2875e-05,1.0274e-05,4.433e-05,-0.0002961,-0.00010221,-0.00022298,6.1519e-05,-0.00014133,4.7395e-06,-0.00013629,-8.5228e-05,-9.7506e-05,-9.0885e-05,-8.5621e-05,8.0853e-05,-3.4043e-05,-0.00010178,-4.5218e-05,-1.7733e-06,-0.0001973,-3.9991e-05,4.8748e-05,-0.00013242,-1.1818e-05,-3.8937e-05,3.6183e-05,-0.00031262,-2.3085e-05,-0.13718,-0.00012832,-0.00011652
-7.1537e-06,-6.3069e-06,-1.3648e-05,-1.8844e-05,-2.6047e-07,2.4075e-05,-7.5533e-07,4.2975e-06,3.1645e-06,-6.4332e-06,-6.9066e-07,1.0559e-05,-1.1257e-06,8.7427e-07,7.377e-06,2.0353e-07,-4.0748e-06,-2.5124e-06,1.2183e-05,4.7057e-06,-1.1899e-05,4.8785e-06,-2.4542e-06,9.7446e-06,-8.6613e-06,-2.7765e-06,2.2306e-06,8.4226e-06,7.1682e-06,9.957e-06,-1.2248e-06,-5.479e-07,-8.1268e-06,6.7489e-06,-2.5585e-06,1.5274e-05,-5.4697e-06,-1.8122e-06,-3.931e-05,-1.005e-05,2.3315e-05,1.1936e-09,2.9121e-05,1.5055e-06,-5.3682e-06,2.5107e-06,2.2455e-06,-6.6135e-06,1.5752e-06,8.3301e-06,-4.1097e-06,-5.2619e-06,1.2927e-05,2.7078e-06,1.3496e-06,1.8297e-06,5.5631e-06,-1.8472e-05,-5.0113e-06,-1.4628e-05,8.9653e-06,-8.9505e-06,-1.0007e-07,-7.3536e-06,-5.975e-06,-7.6897e-06,-7.4178e-06,-4.6785e-06,1.4742e-05,1.8881e-07,-9.9682e-06,-1.5286e-06,-1.3307e-06,-1.2756e-05,-3.5529e-06,7.0524e-06,-1.1552e-05,-1.3516e-06,-2.7917e-06,2.4196e-06,-1.9878e-05,-1.129e-06,-0.11542,-6.2674e-06,-9.0785e-06
-1.9766e-05,-1.4266e-05,-4.0119e-05,-6.101e-05,4.9324e-06,9.6948e-05,-1.8226e-06,1.1435e-05,0.00013759,-2.6557e-05,-4.1175e-07,5.0101e-05,-3.5552e-06,1.1889e-05,2.705e-05,-4.5801e-08,-4.1386e-06,-9.9333e-06,5.1886e-05,2.6831e-05,-4.6666e-05,2.4479e-05,-9.086e-06,4.3846e-05,-3.1213e-05,-1.119e-05,5.2862e-06,2.6564e-05,3.2589e-05,6.8464e-05,3.902e-07,9.325e-06,-2.6514e-05,2.8329e-05,-1.6966e-05,4.5854e-05,-2.2625e-05,2.8399e-06,-0.00014717,-3.0927e-05,8.9082e-05,0.00011902,1.0191e-09,8.9628e-06,-4.1737e-06,1.2954e-05,1.1048e-05,-9.2792e-06,1.2443e-05,4.635e-05,-7.48e-06,-2.8646e-05,0.0041667,1.9245e-05,1.4619e-05,1.0182e-05,2.3056e-05,-7.2485e-05,-6.9697e-06,-6.2147e-05,3.9048e-05,-2.8522e-05,7.3956e-06,-1.6117e-05,-1.9678e-05,-2.6833e-05,-2.2725e-05,-3.4851e-06,5.9518e-05,4.7418e-06,-3.6186e-05,-6.8209e-07,-6.6797e-06,-1.0609e-05,-1.5906e-05,3.2703e-05,-3.5187e-05,-1.9872e-06,-1.6391e-05,1.0689e-05,-7.6329e-05,1.7062e-06,-0.14943,-9.4168e-06,-2.3423e-05
-7.3335e-05,-8.8371e-05,-0.0001405,-0.00021118,-1.1032e-05,4.7189e-05,-1.2095e-05,4.7916e-05,-0.00010071,-4.2204e-05,-1.3131e-05,5.9816e-05,-3.6235e-05,-1.9814e-05,6.9477e-05,-3.3502e-05,-7.5122e-05,-4.0834e-05,7.7963e-05,2.3651e-05,-0.00010827,3.0244e-05,-2.8099e-05,4.3604e-05,-8.9184e-05,-2.6037e-05,1.3049e-05,4.6742e-05,6.6609e-05,4.6704e-05,-3.5742e-05,-4.0499e-05,-0.00010669,2.3715e-05,-6.8108e-06,0.00010391,-6.3484e-05,-5.2556e-05,-0.00044418,-9.9829e-05,0.00013869,2.8514e-05,2.3647e-05,9.0249e-10,-6.6425e-05,3.2181e-05,3.1234e-05,-8.8659e-05,-8.0884e-05,-5.4278e-05,-5.7087e-05,-4.2627e-05,-1.049e-05,1.1628e-05,2.6137e-06,1.033e-05,1.455e-05,-0.00018857,-6.4332e-05,-0.00015084,4.4304e-05,-0.00010868,-4.2133e-06,-9.2969e-05,-7.4157e-05,-7.2281e-05,-6.1212e-05,-6.5263e-05,4.7747e-05,-2.2933e-05,-7.9479e-05,-2.5955e-05,-7.7983e-06,-0.00018173,-3.024e-05,4.9697e-05,-8.7388e-05,-1.1807e-05,-3.0558e-05,1.9004e-05,-0.00021245,-2.3715e-05,-0.14699,-8.9249e-05,-9.7982e-05
-7.2387e-05,-8.449e-05,-0.00015708,-0.00038403,-1.3552e-05,2.6767e-05,-3.6107e-06,4.5959e-05,-0.00019611,-5.0196e-05,-1.7267e-05,4.5131e-05,-7.2889e-05,-1.0794e-05,6.1101e-05,-3.3225e-05,-8.0666e-05,-3.7061e-05,8.7525e-05,3.894e-05,-0.00010524,4.532e-05,-2.7284e-05,2.1499e-05,-0.00010402,-2.4689e-05,1.6218e-05,3.5804e-05,8.7824e-05,3.5682e-05,-4.1981e-05,-7.0656e-05,-0.00011711,1.1253e-05,-1.6012e-05,8.5787e-05,-5.6461e-05,-6.0621e-05,-0.0075071,-9.5602e-05,0.00013349,-5.6752e-06,2.2572e-05,-4.4018e-05,1.2923e-09,3.9096e-05,3.4726e-05,-6.282e-05,-0.00013189,-6.793e-05,-5.7044e-05,-4.607e-05,-4.8001e-05,1.5138e-05,4.6534e-06,1.6719e-05,3.0694e-05,-0.00039394,-7.456e-05,-0.00015775,4.1969e-05,-0.00010589,2.4807e-07,-0.00012972,-9.0552e-05,-7.4053e-05,-6.5624e-05,-6.274e-05,3.7256e-05,-2.544e-05,-8.4672e-05,-1.9696e-05,-1.2752e-05,-0.00026789,-3.6236e-05,4.0268e-05,-0.00012824,-1.5671e-06,-3.1856e-05,2.3447e-05,-0.00043565,-1.0411e-05,-0.17328,-9.4262e-05,-0.00010072
-2.8525e-05,-3.9736e-05,-6.6465e-05,-0.00024743,-1.2497e-05,-1.5469e-05,-3.0167e-06,1.0394e-05,-0.00015323,-1.5873e-05,-1.6715e-05,-7.5385e-06,-5.1468e-05,-1.3435e-05,1.0041e-05,-1.8664e-05,-5.1819e-05,-1.7501e-05,1.3359e-05,-8.7815e-07,-3.4381e-05,5.7212e-06,-9.9462e-06,-1.838e-05,-3.8767e-05,-1.3451e-05,3.0007e-06,-3.7071e-06,1.038e-05,-5.0685e-06,-3.2977e-05,-4.629e-05,-5.5962e-05,-1.9114e-05,-1.1197e-07,8.7038e-06,-2.3485e-05,-4.2676e-05,-0.1495,-4.5981e-05,1.7326e-05,-3.9611e-05,-4.4194e-05,-3.4283e-05,-3.5451e-05,8.9635e-10,7.5871e-06,-4.7157e-05,-7.961e-05,-5.1266e-05,-3.0979e-05,-1.995e-05,-4.322e-05,-5.2824e-06,-7.622e-06,-3.0174e-07,-3.9539e-06,-0.00024078,-4.3329e-05,-6.2303e-05,5.8471e-06,-4.804e-05,-7.1695e-07,-6.7022e-05,-4.2409e-05,-2.9925e-05,-2.7604e-05,-3.1407e-05,-3.057e-06,-1.9766e-05,-2.7473e-05,-1.6248e-05,-2.3877e-06,-0.00015671,-1.4506e-05,-9.4578e-06,-5.5067e-05,-2.7834e-06,-1.1544e-05,4.5908e-06,-0.00028081,-1.0082e-05,-0.16822,-5.226e-05,-4.6997e-05
-1.1844e-05,-1.6101e-05,-2.7393e-05,-6.5444e-05,-5.0484e-06,-4.2557e-06,-1.0667e-06,5.2041e-06,-4.0772e-05,-6.412e-06,-5.392e-06,-1.366e-06,-1.7953e-05,-5.6575e-06,5.2674e-06,-7.2078e-06,-1.947e-05,-5.3089e-06,6.5575e-06,2.2037e-07,-1.4485e-05,1.9735e-06,-4.1573e-06,-5.3719e-06,-1.6256e-05,-4.9178e-06,1.2921e-06,-1.1342e-06,3.9265e-06,-8.1129e-07,-1.312e-05,-1.7407e-05,-2.2519e-05,-7.501e-06,-1.1205e-07,5.2722e-06,-1.0291e-05,-1.6193e-05,-0.061529,-1.9465e-05,8.1158e-06,-1.394e-05,-1.5648e-05,-1.2947e-05,-1.4642e-05,4.1352e-06,1.0747e-09,-2.0267e-05,-2.7432e-05,-1.8727e-05,-1.237e-05,-7.8298e-06,-1.5571e-05,-2.1121e-06,-2.9622e-06,3.6002e-07,-6.4064e-07,-6.2118e-05,-1.6957e-05,-2.6134e-05,2.2994e-06,-1.9125e-05,-2.0997e-06,-2.4033e-05,-1.6164e-05,-1.1878e-05,-1.1392e-05,-1.3356e-05,-3.9762e-07,-8.0891e-06,-1.1714e-05,-6.9939e-06,8.5298e-07,-5.0295e-05,-4.2403e-06,-3.0525e-06,-1.9977e-05,-2.3731e-06,-4.7403e-06,3.4933e-06,-6.9043e-05,-3.4147e-06,-0.24075,-2.0292e-05,-1.9246e-05
-7.7369e-05,-9.7555e-05,-0.00017489,-0.00047741,-2.2083e-05,-5.8838e-06,-7.3573e-06,2.554e-05,-0.00025955,-9.0247e-05,-4.014e-05,4.9202e-05,-0.00012297,8.0296e-07,5.5005e-05,-4.0603e-05,-8.1839e-05,-4.5236e-05,0.00010538,5.268e-05,-0.00013339,7.1839e-05,-3.7514e-05,1.1725e-05,-0.00013684,-3.9903e-05,8.1119e-06,3.5085e-05,0.00010344,1.7731e-05,-5.8664e-05,-8.7478e-05,-0.00015056,5.1901e-06,-4.3947e-05,9.3357e-05,-7.6343e-05,-7.5078e-05,-0.014695,-0.0001072,0.0001465,-7.826e-06,2.1366e-05,-6.1599e-05,-5.3461e-05,3.4902e-05,2.6312e-05,1.4424e-09,-0.00017858,-8.7272e-05,-6.2545e-05,-6.5293e-05,-6.7887e-05,2.9973e-05,2.1334e-05,1.7994e-05,5.0513e-05,-0.00058706,-9.0808e-05,-0.00015555,3.9383e-05,-0.0001095,1.5576e-06,-0.00016088,-0.00010947,-9.468e-05,-8.6467e-05,-6.1691e-05,3.1813e-05,-2.8713e-05,-0.00010392,-9.1836e-06,-2.3551e-05,-0.00035906,-5.2823e-05,4.6231e-05,-0.00019126,-1.0308e-05,-4.2171e-05,2.2052e-05,-0.00057629,-2.2834e-05,-0.18401,-9.9967e-05,-0.000109
-5.3157e-06,-5.0224e-06,-1.1761e-05,-1.5156e-05,7.3955e-08,1.3225e-05,-3.7809e-07,4.8433e-06,-1.3294e-06,-3.5397e-06,-5.1938e-07,7.3311e-06,-1.6408e-07,-2.215e-07,7.5369e-06,-2.4105e-06,-4.6083e-06,-2.6196e-06,9.8073e-06,3.181e-06,-9.5883e-06,3.5598e-06,-2.239e-06,6.2285e-06,-6.7856e-06,-1.4827e-06,2.4873e-06,5.4954e-06,6.5966e-06,7.8288e-06,-3.6521e-06,-8.5744e-07,-8.795e-06,3.7605e-06,-5.3621e-07,1.3756e-05,-4.5319e-06,-2.2547e-06,-3.2486e-05,-7.9901e-06,1.5436e-05,1.0311e-05,1.054e-05,-5.555e-08,-4.9589e-06,3.3409e-06,3.4324e-06,-7.0395e-06,1.0823e-09,5.7952e-07,-3.2395e-06,-3.3115e-06,3.154e-06,2.0518e-06,1.1041e-06,1.2831e-06,2.205e-06,-1.3294e-05,-3.9427e-06,-1.3023e-05,7.2871e-06,-8.1936e-06,-2.3054e-07,-5.7293e-06,-5.8045e-06,-5.7895e-06,-4.0813e-06,-5.0778e-06,9.0618e-06,-3.8815e-07,-6.2515e-06,-1.5277e-06,-9.2192e-07,-1.0956e-05,-2.0793e-06,4.7951e-06,-7.8616e-06,-3.1786e-07,-1.6962e-06,2.517e-06,-1.4698e-05,-8.2184e-07,-0.15462,-5.8121e-06,-7.6318e-06
-9.3449e-06,-1.0674e-05,-1.6349e-05,-2.8967e-05,8.0791e-07,1.7854e-05,-5.6517e-07,3.7227e-06,-8.1849e-06,-8.8853e-06,-1.627e-06,5.5918e-06,-7.5193e-06,-3.0216e-06,4.1962e-06,-2.0897e-07,-9.2428e-06,-5.0628e-06,1.2072e-05,2.7676e-06,-1.1074e-05,4.5731e-06,-2.7787e-06,6.3347e-06,-1.2489e-05,-2.931e-06,7.5368e-07,4.6379e-06,7.6487e-06,7.84e-06,-1.758e-06,-3.2531e-06,-1.0834e-05,5.725e-06,-2.2206e-06,1.1498e-05,-7.5705e-06,-6.6496e-06,-6.6885e-05,-1.0599e-05,1.7956e-05,1.3124e-05,1.6037e-05,-3.7133e-06,-6.9839e-06,3.1255e-06,2.9135e-06,-9.0437e-06,-6.2818e-06,9.9403e-10,-7.8618e-06,-8.6598e-06,9.5767e-06,1.6745e-06,6.1208e-07,1.1909e-06,4.7041e-06,-3.1812e-05,-9.5712e-06,-2.0127e-05,7.6467e-06,-1.2985e-05,7.0805e-08,-1.3543e-05,-7.5009e-06,-8.624e-06,-1.0904e-05,-7.1221e-06,1.3703e-05,-2.5369e-06,-1.0431e-05,-4.8755e-06,2.4663e-07,-1.8589e-05,-4.7977e-06,2.4755e-06,-1.4677e-05,-2.2574e-06,-3.4513e-06,3.3583e-06,-2.8739e-05,-1.194e-06,-0.14993,-1.0492e-05,-1.1355e-05
-0.00010186,-0.00013389,-0.00026914,-0.0007018,-4.3084e-05,-2.4989e-05,-1.4714e-05,6.8615e-05,-0.00041118,-7.7216e-05,-6.5438e-05,2.8977e-05,-0.00014298,2.1477e-06,9.0748e-05,-8.5972e-05,-0.00013822,-4.8978e-05,0.00010813,5.6819e-05,-0.00017058,7.1647e-05,-4.5009e-05,-1.82e-05,-0.00015577,-4.8912e-05,2.1309e-05,8.3483e-06,6.7904e-05,3.0193e-06,-0.00012919,-0.0001544,-0.00024341,-5.7314e-05,-3.127e-05,0.00010348,-9.7099e-05,-0.00010827,-0.016414,-0.0002108,0.000145,-5.2234e-05,-4.5473e-05,-0.0001057,-0.0001348,4.0835e-05,4.2841e-05,-0.00015858,-0.00024805,-0.00018198,1.5036e-09,-6.4089e-05,-0.00017546,2.5254e-05,1.1453e-05,3.9024e-05,1.5948e-05,-0.00073082,-0.00011651,-0.00022631,4.1573e-05,-0.00015288,-1.4141e-05,-0.00021365,-0.00017378,-0.00012106,-9.5688e-05,-8.3638e-05,1.6736e-05,-3.4729e-05,-0.00014098,-1.8809e-05,-2.8487e-05,-0.00048566,-5.8496e-05,3.9557e-05,-0.00023923,-1.8452e-05,-4.2506e-05,2.5724e-05,-0.00094861,-3.9304e-05,-0.20223,-0.00013592,-0.00018222
-1.1439e-05,-1.4644e-05,-2.8912e-05,-5.616e-05,-4.8699e-06,-1.6008e-06,-8.7504e-07,9.5543e-06,-3.5318e-05,-5.0699e-06,-5.241e-06,1.7036e-06,-1.2592e-05,-2.8265e-06,1.0109e-05,-9.0762e-06,-1.7543e-05,-5.481e-06,1.0372e-05,3.865e-06,-1.7859e-05,4.9494e-06,-4.0982e-06,-2.6197e-06,-1.6027e-05,-4.9387e-06,3.2228e-06,1.7814e-06,6.8234e-06,6.3161e-07,-1.4032e-05,-1.5998e-05,-2.5053e-05,-5.4488e-06,3.9026e-07,1.0925e-05,-1.0203e-05,-1.2646e-05,-0.0031883,-2.1754e-05,1.3757e-05,-7.8037e-06,-1.2964e-05,-1.0213e-05,-1.4437e-05,5.6781e-06,5.7194e-06,-1.9621e-05,-2.4093e-05,-2.0463e-05,-9.8089e-06,1.1194e-09,-1.7958e-05,3.7618e-07,-1.1129e-06,2.5e-06,1.4114e-07,-4.9703e-05,-1.2804e-05,-2.5081e-05,4.8906e-06,-1.8089e-05,-1.8706e-06,-2.1616e-05,-1.7627e-05,-1.316e-05,-1.0752e-05,-1.2252e-05,1.855e-06,-5.4544e-06,-1.3894e-05,-5.1675e-06,-1.5727e-06,-4.755e-05,-4.9627e-06,1.6257e-06,-2.021e-05,-1.4069e-06,-3.0566e-06,3.4508e-06,-6.3731e-05,-3.7352e-06,-0.2306,-1.8513e-05,-1.9859e-05
-2.2936e-05,-2.6158e-05,-4.0127e-05,-7.0105e-05,1e-06,4.7192e-05,-5.9093e-06,5.7322e-06,2.9048e-05,-2.4361e-05,-2.2529e-06,2.2003e-05,-1.9123e-05,-5.0691e-06,1.1362e-05,7.8643e-07,-1.6985e-05,-1.7867e-05,3.957e-05,7.2545e-06,-3.2335e-05,7.5444e-06,-8.2959e-06,1.8613e-05,-3.1203e-05,-7.9385e-06,-4.596e-06,2.0605e-05,2.5364e-05,3.6678e-05,1.5173e-06,-5.9198e-06,-2.0365e-05,2.1589e-05,-8.8925e-06,2.3188e-05,-1.722e-05,-1.2266e-05,-0.00014392,-2.353e-05,5.3313e-05,3.6492e-05,0.00058441,-3.1369e-06,-1.9057e-05,8.75e-06,7.1673e-06,-2.4749e-05,-1.4074e-05,1.6206e-05,-2.4627e-05,-2.5863e-05,7.5294e-10,1.9814e-06,8.6356e-07,-1.579e-06,1.0895e-05,-7.916e-05,-2.442e-05,-5.0446e-05,2.2037e-05,-3.722e-05,1.3617e-06,-2.7929e-05,-1.1392e-05,-2.3765e-05,-2.6715e-05,-1.797e-05,3.0789e-05,-8.728e-06,-2.5808e-05,-1.135e-05,1.2026e-07,-2.916e-05,-1.7236e-05,5.4033e-06,-2.8947e-05,-6.6571e-06,-1.3798e-05,7.2104e-06,-6.861e-05,-5.0199e-06,-0.11838,-2.4903e-05,-2.6596e-05
-0.00010684,-0.00014188,-0.00024822,-0.00070141,-2.3274e-05,-2.0662e-05,-8.0405e-07,5.7571e-05,-0.00040543,-8.9885e-05,-3.526e-05,1.1294e-05,-0.00014609,-1.3664e-05,0.00010987,-6.9553e-05,-0.00014972,-5.744e-05,0.00012181,5.7787e-05,-0.00016639,7.3712e-05,-4.1686e-05,-8.2437e-06,-0.00017958,-5.4752e-05,2.8175e-05,4.6037e-06,7.2294e-05,2.6515e-05,-0.00011013,-0.0001487,-0.00024137,-4.8551e-05,-2.8869e-05,0.00010579,-0.00010327,-0.00011402,-0.025379,-0.00020482,0.00013511,-6.6017e-05,-4.8751e-05,-0.00010738,-0.00013979,4.7737e-05,4.5195e-05,-0.00015464,-0.00027655,-0.00015804,-9.1854e-05,-8.0677e-05,-0.00013258,1.3457e-09,6.3985e-05,2.3092e-05,3.4487e-05,-0.00077234,-0.00014412,-0.00018716,3.619e-05,-0.00016007,-1.4377e-05,-0.00022763,-0.00015759,-0.00011944,-0.00010254,-0.00010895,3.0531e-05,-4.5859e-05,-0.00013143,-2.4973e-05,-2.1046e-05,-0.00065385,-6.011e-05,1.6858e-05,-0.00022575,-1.5846e-05,-3.2702e-05,3.4371e-05,-0.00091902,-3.1512e-05,-0.19572,-0.00016798,-0.00018087
-0.00010444,-0.00014223,-0.00024355,-0.000713,-2.1275e-05,-2.7613e-05,-3.4786e-07,5.1631e-05,-0.00041466,-9.1278e-05,-3.2812e-05,8.2694e-06,-0.00015354,-1.2888e-05,0.00010485,-6.9097e-05,-0.00014914,-5.5825e-05,0.00011988,5.589e-05,-0.00016,7.4245e-05,-4.0827e-05,-7.9169e-06,-0.00017736,-5.3016e-05,2.8296e-05,2.6595e-06,7.2548e-05,2.1974e-05,-0.00010988,-0.00015093,-0.0002353,-4.2144e-05,-2.9372e-05,0.00010224,-0.00010189,-0.00011659,-0.031922,-0.0001989,0.00012827,-7.3526e-05,-5.3691e-05,-0.00010815,-0.00014038,4.6422e-05,4.5521e-05,-0.00014926,-0.00027936,-0.00015814,-9.1374e-05,-8.1518e-05,-0.00012259,7.5224e-05,1.3289e-09,2.2888e-05,3.714e-05,-0.00080683,-0.00014649,-0.00018895,3.4338e-05,-0.00015721,-1.3184e-05,-0.00022564,-0.00015012,-0.0001176,-0.00010291,-0.00010908,3.1052e-05,-4.6681e-05,-0.00012536,-2.3087e-05,-1.7308e-05,-0.00064707,-5.9059e-05,1.2266e-05,-0.00022237,-1.6417e-05,-3.3675e-05,3.4969e-05,-0.00094029,-3.0119e-05,-0.19426,-0.00016489,-0.00017565
-0.00012697,-0.00018176,-0.00030848,-0.0012894,-4.1141e-05,4.3869e-07,-4.4931e-06,9.5613e-05,-0.00071164,-8.1109e-05,-5.6395e-05,8.8222e-06,-0.0002129,-1.9518e-05,0.00010416,-9.083e-05,-0.00019911,-5.3789e-05,0.00011864,4.7355e-05,-0.00018592,6.9344e-05,-4.6299e-05,-3.3999e-05,-0.00018444,-5.3374e-05,2.946e-05,9.1869e-06,7.82e-05,1.4462e-05,-0.00011895,-0.00019906,-0.00027095,-6.5547e-05,-7.6267e-06,0.00010997,-0.00010742,-0.00016636,-0.10896,-0.00023031,0.00015539,-0.00011958,-0.00013794,-0.00014311,-0.00016253,5.9142e-05,5.8386e-05,-0.00020416,-0.00040388,-0.00022007,-9.646e-05,-8.0046e-05,-0.00021434,1.5704e-05,2.1118e-06,9.4915e-10,1.9635e-05,-0.0012856,-0.00017196,-0.00028942,4.5966e-05,-0.00020553,-9.9937e-06,-0.00029457,-0.00019082,-0.00013975,-0.00011807,-0.00012291,2.0951e-05,-5.2512e-05,-0.00015083,-4.4118e-05,-1.2574e-05,-0.001107,-5.7559e-05,3.118e-05,-0.00026123,-1.5933e-05,-4.5391e-05,4.1518e-05,-0.0016519,-3.8159e-05,-0.22365,-0.00019141,-0.00021164
-1.3083e-05,-1.7913e-05,-2.8068e-05,-8.4699e-05,-4.8547e-06,-5.2161e-06,-1.1042e-06,1.2904e-06,-4.628e-05,-1.3785e-05,-8.2873e-06,1.578e-06,-2.5354e-05,-2.9478e-06,3.5423e-06,-5.8934e-06,-1.7716e-05,-7.9639e-06,9.1518e-06,2.6321e-06,-1.7669e-05,6.4215e-06,-4.9806e-06,-4.0094e-06,-1.9917e-05,-6.2354e-06,8.8057e-07,1.2073e-06,7.106e-06,-1.6198e-08,-1.0438e-05,-1.7828e-05,-2.3992e-05,-3.9842e-06,-5.3581e-06,9.2802e-06,-1.2073e-05,-1.6073e-05,-0.060508,-2.0869e-05,1.5018e-05,-7.9271e-06,-9.9551e-06,-1.5029e-05,-1.487e-05,3.0612e-06,3.5517e-06,-1.6373e-05,-3.3232e-05,-1.5946e-05,-1.4099e-05,-1.1748e-05,-1.2867e-05,2.2406e-07,-6.5504e-07,4.4742e-08,1.1714e-09,-0.00010099,-1.9316e-05,-2.7778e-05,2.3404e-06,-1.9553e-05,-2.4305e-06,-2.8106e-05,-1.5774e-05,-1.4377e-05,-1.3889e-05,-1.3016e-05,2.1266e-06,-7.7168e-06,-1.4625e-05,-5.5199e-06,-1.7681e-06,-6.4042e-05,-8.5485e-06,-1.5979e-06,-3.1204e-05,-3.432e-06,-6.989e-06,3.1014e-06,-9.2741e-05,-4.2412e-06,-0.17086,-1.9979e-05,-2.0466e-05
-5.8475e-06,-5.5788e-06,-1.1085e-05,-6.4521e-06,5.3601e-07,8.5078e-06,-5.3802e-07,7.1982e-06,-2.9611e-06,-1.2539e-06,2.0408e-06,5.9648e-06,5.8974e-06,-2.3276e-07,1.0025e-05,-4.3882e-06,-4.8447e-06,-2.623e-06,1.1081e-05,4.1157e-06,-8.6899e-06,2.9976e-06,-2.0662e-06,6.9422e-06,-6.0376e-06,-1.0281e-06,2.4351e-06,4.938e-06,6.508e-06,5.8673e-06,-2.0156e-06,-2.7038e-06,-8.3913e-06,4.0314e-06,9.5274e-07,1.2812e-05,-4.2492e-06,-3.7661e-07,-1.7045e-05,-8.2192e-06,1.4129e-05,4.8471e-06,2.8822e-06,1.5471e-06,-4.7719e-06,3.2609e-06,3.6978e-06,-7.5447e-06,-2.2558e-06,-3.7689e-06,-2.8385e-06,-1.3048e-06,-1.9556e-06,3.1587e-06,2.0747e-06,2.3848e-06,1.248e-06,9.3159e-10,-2.3953e-06,-6.7712e-06,5.3235e-06,-7.7353e-06,-6.4708e-07,-5.1746e-06,-5.2994e-06,-5.5805e-06,-4.3482e-06,-4.8511e-06,5.6141e-06,4.8229e-07,-6.6741e-06,-1.248e-06,-9.3252e-07,-1.1611e-05,-1.7145e-06,5.1697e-06,-3.1641e-06,-2.8733e-07,-1.2744e-06,2.08e-06,-7.1012e-06,-1.1228e-06,-0.1496,-5.2371e-06,-6.9295e-06
-6.3846e-05,-6.9401e-05,-0.00015945,-0.00025234,-1.8462e-05,2.8417e-05,-6.082e-06,7.3075e-05,-0.00014908,-3.6195e-05,-2.1559e-05,4.1714e-05,-4.7957e-05,1.0893e-05,7.7677e-05,-4.7927e-05,-6.4995e-05,-2.8157e-05,9.289e-05,5.811e-05,-0.00011126,5.5809e-05,-2.3293e-05,1.1484e-05,-9.3091e-05,-2.3365e-05,1.9912e-05,2.7643e-05,6.0641e-05,3.2302e-05,-5.3656e-05,-6.9482e-05,-0.00013379,-8.9314e-06,-1.0342e-05,0.00010273,-5.9319e-05,-4.5898e-05,-0.00070516,-0.00012258,0.00012171,1.2492e-06,1.6903e-05,-3.6879e-05,-6.9635e-05,3.8868e-05,3.8004e-05,-8.8418e-05,-0.00010579,-8.1616e-05,-3.7501e-05,-2.9106e-05,-5.7124e-05,2.2869e-05,1.1488e-05,2.6259e-05,2.2646e-05,-0.0002411,8.7769e-10,-0.00014117,4.1565e-05,-8.9363e-05,-4.8509e-06,-9.7718e-05,-8.9355e-05,-8.0539e-05,-5.308e-05,-4.8401e-05,4.1261e-05,-7.8525e-06,-8.4599e-05,9.6152e-07,-1.6807e-05,-0.00019103,-2.9071e-05,4.5616e-05,-0.00011633,-4.6692e-06,-2.2576e-05,2.3153e-05,-0.0003051,-1.2624e-05,-0.14909,-7.6301e-05,-0.00010352
-3.8362e-06,-4.6003e-06,-7.3865e-06,-1.2206e-05,-1.6129e-06,-2.9986e-06,-7.102e-07,1.1954e-06,-1.2811e-05,-3.2963e-06,-1.6957e-06,-1.0323e-06,-3.6153e-06,-6.4673e-07,2.1495e-06,-3.5581e-06,-5.0517e-06,-2.2912e-06,3.7867e-06,1.2775e-06,-5.5864e-06,1.7499e-06,-2.0318e-06,-1.7052e-06,-5.9072e-06,-2.0803e-06,-6.8443e-08,-6.0891e-07,1.778e-06,-8.6498e-07,-4.196e-06,-5.1195e-06,-7.6503e-06,-2.1787e-06,-1.5646e-06,2.2155e-06,-3.1586e-06,-3.5348e-06,-4.8558e-05,-7.0052e-06,2.6774e-06,-2.5775e-06,-4.1812e-06,-3.9118e-06,-4.7896e-06,7.622e-07,6.1602e-07,-4.6432e-06,-8.4411e-06,-6.099e-06,-3.13e-06,-2.6084e-06,-5.0132e-06,1.1554e-06,6.9948e-07,5.0916e-08,3.9413e-07,-1.2638e-05,-4.5201e-06,1.3357e-09,2.5183e-07,-4.8455e-06,-1.0208e-06,-6.7716e-06,-4.8431e-06,-4.0723e-06,-3.938e-06,-3.4897e-06,-1.2975e-06,-1.8726e-06,-4.6187e-06,-1.0157e-06,-1.2538e-06,-1.4869e-05,-2.4174e-06,-9.2695e-07,-6.7018e-06,-9.5767e-07,-1.4669e-06,3.4115e-07,-1.5907e-05,-1.9061e-06,-0.30877,-5.1104e-06,-5.7938e-06
-6.3435e-06,-7.3772e-06,-1.3011e-05,-2.7807e-05,-2.3294e-06,7.9194e-07,-4.5462e-07,2.4077e-06,-1.5491e-05,-3.7604e-06,-3.1508e-06,1.9629e-07,-7.9573e-06,-3.0188e-06,2.4363e-06,-3.5621e-06,-9.1909e-06,-3.6722e-06,3.4658e-06,2.1077e-09,-7.9817e-06,6.9877e-07,-2.5321e-06,-1.3511e-06,-8.2391e-06,-2.7937e-06,4.6666e-07,4.9309e-07,2.3378e-06,8.4515e-07,-5.7493e-06,-7.5329e-06,-1.0491e-05,-1.6985e-06,-4.528e-07,3.4311e-06,-5.3761e-06,-7.7123e-06,-0.00015001,-9.16e-06,5.3448e-06,-2.7e-06,-2.9519e-06,-5.5588e-06,-7.0561e-06,2.1397e-06,1.4913e-06,-9.396e-06,-9.9147e-06,-6.1525e-06,-6.3263e-06,-4.4507e-06,-3.8905e-06,-1.4066e-06,-1.9508e-06,-2.6654e-07,-4.932e-07,-2.6954e-05,-8.3801e-06,-1.4064e-05,1.0508e-09,-1.0473e-05,-1.0365e-06,-1.1406e-05,-7.9274e-06,-6.4154e-06,-6.0907e-06,-6.5457e-06,1.7848e-06,-3.4176e-06,-6.2696e-06,-4.159e-06,-5.2276e-07,-2.0011e-05,-3.2107e-06,-1.1498e-06,-1.0127e-05,-1.4215e-06,-3.0338e-06,1.0688e-06,-2.9623e-05,-2.0572e-06,-0.28095,-9.8119e-06,-9.4017e-06
-9.6025e-05,-0.00014118,-0.00026062,-0.00073924,-3.6394e-05,-3.3745e-05,-7.1939e-06,6.3813e-05,-0.00043409,-8.6459e-05,-6.093e-05,3.2002e-05,-0.00015891,1.5861e-06,8.5769e-05,-7.0017e-05,-0.0001322,-4.31e-05,0.00012373,6.4395e-05,-0.00017316,8.6378e-05,-3.0626e-05,-2.1147e-05,-0.0001741,-5.1433e-05,2.4807e-05,1.3999e-05,8.0879e-05,1.4489e-05,-0.00011271,-0.00014583,-0.00023243,-4.7345e-05,-3.598e-05,0.00010687,-0.00010208,-0.0001046,-0.019316,-0.00020297,0.00015994,-4.5541e-05,-5.4506e-05,-0.00011154,-0.0001313,4.712e-05,5.0261e-05,-0.00014063,-0.00026945,-0.00017383,-7.3457e-05,-6.5805e-05,-0.00016195,3.9563e-05,2.6126e-05,2.8515e-05,4.4712e-05,-0.000804,-0.00011868,-0.0002073,3.6628e-05,1.4898e-09,-5.3637e-06,-0.00021686,-0.0001596,-0.00012478,-0.00010243,-9.4614e-05,2.2069e-05,-3.3922e-05,-0.00013546,-7.889e-06,-2.162e-05,-0.00054524,-5.8176e-05,3.4967e-05,-0.00025648,-1.0694e-05,-3.2664e-05,3.6809e-05,-0.00093806,-3.2764e-05,-0.20278,-0.00014908,-0.00018229
-1.8585e-05,-2.6653e-05,-4.3221e-05,-0.00015284,-7.9082e-06,-8.4085e-06,-2.0114e-06,6.4423e-06,-8.541e-05,-1.3297e-05,-1.1588e-05,-9.6369e-07,-3.5501e-05,-8.3674e-06,6.9436e-06,-1.1654e-05,-3.2106e-05,-1.1224e-05,1.1234e-05,9.0621e-07,-2.5932e-05,5.9789e-06,-6.4499e-06,-9.4101e-06,-2.7848e-05,-8.9285e-06,1.7525e-06,-3.5293e-07,9.283e-06,-1.8779e-06,-2.0046e-05,-2.8443e-05,-3.6018e-05,-9.8848e-06,-1.6063e-06,9.1164e-06,-1.6785e-05,-2.681e-05,-0.10639,-3.0478e-05,1.6892e-05,-2.0376e-05,-2.0239e-05,-2.1576e-05,-2.3229e-05,9.9106e-06,5.2811e-06,-2.8509e-05,-5.1889e-05,-2.9284e-05,-1.9719e-05,-1.4849e-05,-2.3035e-05,-2.6073e-06,-4.1459e-06,7.6416e-07,-7.401e-08,-0.00016261,-2.9245e-05,-4.3029e-05,4.4371e-06,-3.0638e-05,8.0846e-10,-4.3252e-05,-2.7361e-05,-2.0246e-05,-2.0354e-05,-1.9903e-05,-1.9333e-07,-1.1935e-05,-1.9896e-05,-1.0389e-05,-2.0399e-06,-0.0001035,-9.7371e-06,-4.0882e-06,-4.0309e-05,-2.0135e-06,-7.88e-06,4.5705e-06,-0.00019134,-6.7899e-06,-0.20328,-3.3275e-05,-3.1338e-05
-7.026e-05,-7.6558e-05,-0.00017731,-0.00024734,-1.2833e-05,4.4627e-05,-1.1501e-05,6.4448e-05,-0.00014103,-4.6431e-05,-1.2343e-05,6.5785e-05,-3.0862e-05,-8.9025e-07,9.8862e-05,-4.9131e-05,-8.4898e-05,-3.479e-05,0.00010816,5.0579e-05,-0.00013458,5.8668e-05,-3.2542e-05,5.7255e-05,-0.00010917,-2.6582e-05,2.5408e-05,5.2795e-05,7.3268e-05,4.8252e-05,-6.2229e-05,-4.5871e-05,-0.00015968,3.4679e-05,-1.0997e-05,0.00013092,-6.1177e-05,-4.7429e-05,-0.00066423,-0.00013518,0.00016569,3.0493e-05,4.5917e-05,-2.2505e-05,-8.2326e-05,3.786e-05,4.6412e-05,-0.00010491,-8.7929e-05,-7.7065e-05,-4.8759e-05,-4.0462e-05,-2.603e-05,3.129e-05,2.0073e-05,2.5349e-05,2.988e-05,-0.00025344,-5.5571e-05,-0.00015675,5.8214e-05,-0.00010848,-5.7887e-06,1.3073e-09,-1.7912e-05,-9.2182e-05,-7.2488e-05,-6.5055e-05,5.6263e-05,-1.5993e-05,-9.6157e-05,-7.7259e-06,-1.2248e-05,-0.00022186,-3.1453e-05,6.4069e-05,-0.00010487,-9.8993e-06,-2.7405e-05,3.067e-05,-0.00029283,-2.1158e-05,-0.17245,-9.0034e-05,-0.0001188
-8.5935e-05,-0.00010324,-0.00018243,-0.00039342,-4.1621e-07,4.528e-05,-1.0001e-05,4.9183e-05,-0.00021797,-6.71e-05,-8.5846e-06,5.9904e-05,-7.2466e-05,-2.1198e-05,8.0314e-05,-3.1683e-05,-0.00011506,-5.3867e-05,0.00011397,3.0508e-05,-0.00011444,4.9446e-05,-2.6201e-05,5.6522e-05,-0.0001183,-2.8073e-05,2.2383e-05,6.1952e-05,8.3096e-05,4.4913e-05,-3.8796e-05,-6.2874e-05,-0.00014847,4.4803e-05,-8.4965e-06,0.00012235,-6.0214e-05,-6.5848e-05,-0.0054182,-0.00012403,0.00016845,4.5717e-06,-5.1996e-06,-4.4397e-05,-8.974e-05,3.8892e-05,4.3371e-05,-0.00011231,-0.0001502,-6.8807e-05,-7.6084e-05,-6.0761e-05,-9.0312e-06,2.2695e-05,1.5448e-05,1.9076e-05,4.5674e-05,-0.00045702,-9.254e-05,-0.0001646,5.0402e-05,-0.00012683,-3.5649e-06,-5.9557e-05,1.2786e-09,-9.0855e-05,-9.9784e-05,-8.2972e-05,4.8926e-05,-2.7807e-05,-9.6091e-05,-3.1971e-05,-8.2696e-07,-0.00033964,-4.1636e-05,4.2219e-05,-0.00012772,-1.3179e-05,-2.9375e-05,3.3674e-05,-0.00044235,-1.8614e-05,-0.17325,-0.00010864,-0.00011894
-1.0678e-05,-1.4431e-05,-2.4565e-05,-5.741e-05,-4.2373e-06,-2.5977e-06,-8.7217e-07,4.8463e-06,-3.2101e-05,-7.6938e-06,-5.2721e-06,5.1131e-08,-1.5807e-05,-4.4347e-06,5.5454e-06,-7.0105e-06,-1.6071e-05,-6.1436e-06,9.3162e-06,1.6539e-06,-1.416e-05,3.4437e-06,-4.2702e-06,-4.0054e-06,-1.5543e-05,-5.1205e-06,1.3779e-06,8.2139e-07,5.8967e-06,-5.2426e-08,-9.7261e-06,-1.4562e-05,-2.0308e-05,-5.9193e-06,-1.5416e-06,6.8837e-06,-9.2931e-06,-1.3502e-05,-0.019459,-1.7656e-05,1.006e-05,-8.9217e-06,-1.0516e-05,-1.0834e-05,-1.2927e-05,3.8531e-06,3.8492e-06,-1.6819e-05,-2.3631e-05,-1.5315e-05,-1.027e-05,-7.8585e-06,-1.3073e-05,-2.1699e-07,-1.2561e-06,7.0993e-07,8.0918e-07,-5.5708e-05,-1.5448e-05,-2.2912e-05,2.9708e-06,-1.737e-05,-1.4913e-06,-2.265e-05,-1.5322e-05,9.4173e-10,-1.1268e-05,-1.1194e-05,9.7031e-07,-6.159e-06,-1.1721e-05,-5.1791e-06,-1.4419e-06,-4.4072e-05,-5.6525e-06,-1.0301e-06,-2.0214e-05,-1.9667e-06,-3.9199e-06,2.3684e-06,-6.1347e-05,-3.3148e-06,-0.20896,-1.6247e-05,-1.6987e-05
-7.1727e-06,-9.538e-06,-1.8718e-05,-4.1988e-05,-2.8356e-06,-8.4249e-07,5.1057e-07,5.2225e-06,-2.2024e-05,-4.3005e-06,-3.7031e-06,1.5024e-06,-9.4497e-06,-1.5102e-06,6.2712e-06,-5.3945e-06,-1.0189e-05,-3.3969e-06,6.9315e-06,2.8925e-06,-1.1492e-05,3.4805e-06,-3.0631e-06,-1.4743e-06,-1.0907e-05,-3.4261e-06,2.5519e-06,5.2166e-07,4.4766e-06,1.9453e-06,-8.1641e-06,-1.0325e-05,-1.5889e-05,-3.9106e-06,-7.8871e-07,7.4792e-06,-6.5599e-06,-8.3648e-06,-0.0048926,-1.3711e-05,9.301e-06,-5.1688e-06,-4.9651e-06,-6.4629e-06,-8.9524e-06,3.5756e-06,3.3234e-06,-1.1942e-05,-1.4442e-05,-1.3125e-05,-6.0364e-06,-4.6418e-06,-9.726e-06,1.0898e-06,1.2699e-07,1.6207e-06,1.117e-06,-4.0244e-05,-8.4714e-06,-1.7107e-05,3.027e-06,-1.1616e-05,-1.2645e-06,-1.4714e-05,-1.2504e-05,-8.7409e-06,1.1231e-09,-7.3769e-06,1.7386e-06,-3.081e-06,-7.8004e-06,-2.2118e-06,-1.1963e-06,-2.4184e-05,-3.6079e-06,1.5286e-06,-1.4164e-05,-9.1925e-07,-2.9761e-06,2.0534e-06,-5.0003e-05,-2.3403e-06,-0.22337,-1.167e-05,-1.2792e-05
-0.00012417,-0.00015757,-0.00031126,-0.0010031,-5.1851e-05,-2.9301e-05,-1.8697e-05,6.5279e-05,-0.00049359,-0.00010336,-8.1877e-05,3.379e-05,-0.00021051,-8.4532e-06,8.0469e-05,-8.6563e-05,-0.00017092,-5.9092e-05,0.0001078,6.0837e-05,-0.00020919,8.7758e-05,-5.1361e-05,-3.5574e-05,-0.00020363,-6.351e-05,1.8292e-05,1.3367e-05,8.0663e-05,6.5971e-06,-0.00014129,-0.00018183,-0.00027642,-6.8251e-05,-3.8682e-05,0.00010324,-0.00011801,-0.00013387,-0.054352,-0.00024138,0.00017393,-7.0429e-05,-3.4853e-05,-0.00013116,-0.00015515,5.3076e-05,4.5198e-05,-0.00017002,-0.00034987,-0.00019497,-8.6572e-05,-9.0072e-05,-0.00015387,2.1056e-05,3.9345e-06,2.9246e-05,3.7977e-05,-0.0011323,-0.000146,-0.00026934,4.8523e-05,-0.00019219,-1.0466e-05,-0.00027101,-0.00019878,-0.00014396,-0.00012447,1.2791e-09,1.9727e-05,-4.7236e-05,-0.00015779,-2.3325e-05,-3.1673e-05,-0.0006602,-6.9738e-05,4.2189e-05,-0.00030226,-2.2513e-05,-5.1857e-05,3.0441e-05,-0.0014282,-4.5672e-05,-0.23804,-0.00016789,-0.0002182
-8.4815e-05,-9.7307e-05,-0.00017716,-0.00032184,-3.9158e-06,0.00012332,6.7919e-06,5.7661e-05,-0.00011868,-5.592e-05,-1.2474e-05,5.6616e-05,-6.7529e-05,-2.6833e-05,6.7543e-05,-2.2259e-05,-0.00010267,-3.9036e-05,9.8166e-05,2.9318e-05,-0.00010609,4.0802e-05,-2.5406e-05,6.3238e-05,-0.00010943,-2.0369e-05,2.4355e-05,5.3575e-05,7.2064e-05,6.4287e-05,-4.0503e-05,-4.9511e-05,-0.00012442,3.8427e-05,2.791e-06,0.00011817,-6.8455e-05,-7.3731e-05,-0.00095325,-0.00011031,0.00016567,6.6493e-05,6.0108e-05,-3.6982e-05,-8.1518e-05,4.8e-05,4.404e-05,-0.00011333,-7.5256e-05,5.8431e-06,-7.5848e-05,-5.8684e-05,2.0119e-05,1.5272e-05,7.0353e-06,1.5335e-05,3.4312e-05,-0.00029434,-8.5794e-05,-0.00022045,7.6603e-05,-0.00013137,8.6377e-07,-0.00013011,-9.0636e-05,-8.1544e-05,-7.7251e-05,-8.0504e-05,1.1969e-09,-2.6969e-05,-8.6509e-05,-3.94e-05,4.199e-06,-0.00023718,-3.5334e-05,2.3756e-05,-0.00012174,-1.1114e-05,-3.0451e-05,3.2921e-05,-0.00031375,-8.5183e-06,-0.16345,-0.00011641,-0.00012272
-4.2898e-05,-5.3722e-05,-9.9246e-05,-0.00019708,-1.693e-05,-2.949e-06,-5.8119e-06,2.512e-05,-0.0001251,-3.2788e-05,-2.3232e-05,5.8389e-06,-5.7374e-05,-8.3114e-06,2.3965e-05,-3.3416e-05,-6.0501e-05,-2.2774e-05,4.0942e-05,1.6924e-05,-6.3935e-05,2.113e-05,-1.76e-05,-1.5163e-05,-6.3645e-05,-2.0684e-05,5.3017e-06,3.0393e-06,2.0205e-05,2.5632e-06,-4.05e-05,-6.2161e-05,-8.4448e-05,-1.8209e-05,-8.88e-06,3.3946e-05,-4.1276e-05,-4.6656e-05,-0.00062918,-7.6996e-05,4.7778e-05,-2.1313e-05,-2.538e-05,-4.1057e-05,-5.319e-05,1.5045e-05,1.2833e-05,-6.4378e-05,-8.6871e-05,-5.7307e-05,-3.5591e-05,-2.9963e-05,-4.9367e-05,2.1294e-06,-2.66e-06,7.8272e-06,5.6612e-06,-0.00018958,-4.9421e-05,-9.0911e-05,1.6792e-05,-6.4162e-05,-5.8856e-06,-8.2909e-05,-6.1159e-05,-4.7833e-05,-4.0118e-05,-4.0256e-05,7.4387e-06,1.2822e-09,-4.9877e-05,-1.4745e-05,-9.0063e-06,-0.00015484,-2.259e-05,2.4234e-06,-8.4852e-05,-9.2632e-06,-1.8611e-05,9.2512e-06,-0.0002237,-1.7989e-05,-0.21433,-6.2349e-05,-6.8295e-05
-1.7603e-05,-2.4133e-05,-3.9063e-05,-0.000146,-8.0048e-06,-8.1977e-06,-1.1232e-06,5.7109e-06,-7.8162e-05,-1.1755e-05,-9.7016e-06,-2.046e-06,-3.0902e-05,-7.5916e-06,6.8716e-06,-1.2359e-05,-2.7663e-05,-9.8443e-06,1.0743e-05,7.4087e-07,-2.2475e-05,4.8288e-06,-7.2144e-06,-8.3369e-06,-2.3932e-05,-7.8358e-06,2.3366e-06,-1.9405e-06,6.3475e-06,-1.7258e-06,-1.9852e-05,-2.6191e-05,-3.5642e-05,-8.6598e-06,-1.4063e-06,7.8751e-06,-1.5246e-05,-2.4318e-05,-0.15381,-2.8426e-05,1.3257e-05,-2.1242e-05,-2.622e-05,-1.9359e-05,-2.2054e-05,5.8072e-06,4.7229e-06,-2.7714e-05,-4.3535e-05,-2.9975e-05,-1.8528e-05,-1.2862e-05,-2.5294e-05,-2.2382e-06,-3.3138e-06,-7.2338e-07,-4.2849e-08,-0.00013738,-2.5434e-05,-3.8286e-05,3.3993e-06,-2.8383e-05,-3.0509e-06,-3.7557e-05,-2.4442e-05,-1.8211e-05,-1.5416e-05,-1.8977e-05,-5.9386e-07,-1.0904e-05,7.961e-10,-8.6203e-06,-1.9437e-06,-8.3738e-05,-8.9564e-06,-3.9391e-06,-3.4707e-05,-3.9468e-06,-7.7127e-06,3.3054e-06,-0.00014962,-6.1147e-06,-0.2111,-3.0917e-05,-2.8005e-05
-7.2512e-06,-9.3509e-06,-1.8487e-05,-4.6172e-05,-3.3633e-06,-3.6291e-06,-7.127e-07,4.6037e-06,-2.4945e-05,-6.7471e-06,-4.3844e-06,1.2859e-06,-1.1605e-05,5.5882e-07,5.9282e-06,-6.0435e-06,-9.538e-06,-3.1275e-06,8.5377e-06,5.0616e-06,-1.2802e-05,6.861e-06,-3.2165e-06,-1.932e-06,-1.2453e-05,-3.3586e-06,1.3895e-06,8.5978e-07,4.9188e-06,8.0506e-07,-9.0602e-06,-1.1123e-05,-1.6914e-05,-4.2368e-06,-3.2033e-06,7.6941e-06,-7.1023e-06,-7.9783e-06,-0.0082657,-1.4916e-05,1.0231e-05,-3.9543e-06,-3.6479e-06,-7.5714e-06,-9.6089e-06,3.514e-06,3.1574e-06,-1.0587e-05,-1.7791e-05,-1.3134e-05,-5.8482e-06,-5.8099e-06,-9.2306e-06,2.2411e-06,1.4263e-06,1.8479e-06,2.5832e-06,-4.7528e-05,-8.0251e-06,-1.5725e-05,2.2229e-06,-1.0797e-05,-9.7574e-07,-1.4674e-05,-1.2282e-05,-9.1093e-06,-7.0943e-06,-6.6853e-06,1.327e-06,-2.7536e-06,-9.5314e-06,1.262e-09,-1.8942e-06,-3.0483e-05,-3.9605e-06,1.9276e-06,-1.8154e-05,-1.1936e-06,-3.5591e-06,2.6383e-06,-5.8661e-05,-2.8267e-06,-0.22274,-1.0664e-05,-1.2842e-05
-1.2276e-05,-1.7292e-05,-2.6205e-05,-6.8545e-05,-5.043e-06,-4.1037e-06,-1.3263e-06,3.9676e-06,-4.6096e-05,-7.2844e-06,-5.3623e-06,-1.8352e-06,-1.8837e-05,-6.7948e-06,3.7679e-06,-6.375e-06,-2.0616e-05,-5.8383e-06,7.0356e-06,-1.0213e-06,-1.3659e-05,1.1384e-06,-4.1937e-06,-5.306e-06,-1.6208e-05,-5.4738e-06,8.4947e-07,-1.097e-06,3.3435e-06,-1.2637e-06,-1.2176e-05,-1.7613e-05,-2.1046e-05,-5.9052e-06,-3.8796e-07,3.9531e-06,-9.8182e-06,-1.6936e-05,-0.19288,-1.8417e-05,7.7019e-06,-1.2686e-05,-1.5869e-05,-1.2943e-05,-1.5264e-05,3.7915e-06,4.5843e-06,-2.0056e-05,-2.8627e-05,-1.6058e-05,-1.3232e-05,-8.8636e-06,-1.3306e-05,-2.8171e-06,-3.4698e-06,-2.4289e-07,-7.3069e-07,-6.738e-05,-1.8586e-05,-2.6413e-05,2.3353e-06,-1.9705e-05,-2.1855e-06,-2.4929e-05,-1.5105e-05,-1.24e-05,-1.216e-05,-1.3738e-05,-2.8768e-07,-8.5003e-06,-1.1505e-05,-7.7691e-06,9.3636e-10,-5.2636e-05,-4.7027e-06,-4.0438e-06,-1.9675e-05,-2.8247e-06,-5.3725e-06,3.2145e-06,-7.0651e-05,-3.6412e-06,-0.24434,-2.0828e-05,-1.8961e-05
-0.00012962,-0.00014491,-0.00029759,-0.00039936,-1.246e-05,0.00014457,-3.7557e-05,0.00010958,-0.0001401,-9.3264e-05,-4.3023e-05,0.00017264,-5.4268e-05,1.1566e-05,0.00014377,-6.6481e-05,-0.00011763,-8.4332e-05,0.0002051,0.00010564,-0.00022989,0.00010184,-6.7097e-05,0.00010227,-0.0001735,-4.8819e-05,3.2702e-05,0.0001721,0.00016094,0.00015822,-1.6392e-05,-4.8175e-05,-0.00017257,5.4498e-05,-4.1837e-05,0.00028423,-0.00011016,-7.2882e-05,-0.00076432,-0.00019817,0.00039981,0.00012756,0.00029613,-2.6251e-05,-0.00011686,6.6849e-05,6.1656e-05,-0.00016776,-8.8389e-05,-2.4694e-05,-7.0906e-05,-0.00011114,0.00012885,1.5537e-05,-2.2163e-06,-1.3688e-05,3.6004e-05,-0.00038734,-6.9738e-05,-0.00031897,0.00013087,-0.00019884,-2.1126e-05,-0.00016836,-0.00015285,-0.00016213,-7.1861e-05,-0.00010952,0.00012265,-1.1863e-05,-0.00015465,-2.0032e-05,-4.1704e-05,1.174e-09,-7.0452e-05,0.00010655,-0.0002088,-3.156e-06,-4.8763e-05,4.7725e-05,-0.00040816,-3.5039e-05,-0.10537,-0.00012406,-0.00017013
-5.4619e-06,-7.2973e-06,-1.2933e-05,-2.9415e-05,-2.604e-06,-1.9554e-06,-6.2084e-07,2.503e-06,-1.9738e-05,-3.1836e-06,-2.7318e-06,-2.9758e-07,-8.2387e-06,-2.4049e-06,2.5824e-06,-3.5866e-06,-8.8403e-06,-2.4971e-06,3.349e-06,1.629e-07,-7.0475e-06,1.2916e-06,-2.1129e-06,-2.2822e-06,-7.7132e-06,-2.6019e-06,5.4231e-07,-1.8105e-07,1.8522e-06,-5.5373e-07,-6.0726e-06,-7.9218e-06,-1.0617e-05,-3.0953e-06,-3.1468e-07,2.9162e-06,-4.6833e-06,-7.1593e-06,-0.012656,-9.4325e-06,4.1769e-06,-5.4588e-06,-7.2392e-06,-5.765e-06,-7.0245e-06,1.7975e-06,2.2615e-06,-9.2721e-06,-1.2369e-05,-8.7812e-06,-5.5767e-06,-3.6106e-06,-8.6055e-06,-8.7977e-07,-1.3437e-06,2.7673e-07,-5.819e-07,-2.8058e-05,-7.6015e-06,-1.2223e-05,1.0721e-06,-8.9388e-06,-9.1634e-07,-1.0954e-05,-7.8915e-06,-5.8822e-06,-5.3361e-06,-5.926e-06,-2.3397e-07,-3.4176e-06,-5.709e-06,-2.8214e-06,2.3111e-09,-2.2858e-05,1.1068e-09,-6.8682e-07,-9.4273e-06,-1.1468e-06,-2.1426e-06,2.3203e-06,-3.2338e-05,-1.9867e-06,-0.25282,-9.121e-06,-9.0877e-06
-9.2947e-05,-0.00011407,-0.00021636,-0.00039757,-2.5249e-05,5.964e-05,-1.6747e-05,7.1367e-05,-0.00018538,-6.621e-05,-2.0596e-05,7.9978e-05,-6.4242e-05,-8.8279e-06,0.00010944,-4.7521e-05,-8.3114e-05,-4.6353e-05,0.00013755,4.4505e-05,-0.00015735,6.4591e-05,-4.1604e-05,3.6251e-05,-0.00013365,-3.6491e-05,2.0872e-05,6.2246e-05,0.00011455,4.5017e-05,-3.2997e-05,-8.1866e-05,-0.00015712,-8.9303e-08,-1.9443e-05,0.0001549,-7.1793e-05,-6.1284e-05,-0.0016456,-0.00015089,0.00019728,1.8136e-05,1.9117e-05,-2.4336e-05,-8.7352e-05,4.3539e-05,4.7097e-05,-0.00011463,-0.00015362,-0.00011133,-6.2757e-05,-5.8273e-05,-8.0505e-05,2.2691e-05,7.0544e-06,3.9453e-05,2.9302e-05,-0.00041086,-8.5176e-05,-0.00024202,5.5058e-05,-0.00014357,-8.6803e-06,-0.00014194,-0.00011547,-0.00010921,-8.3613e-05,-7.4775e-05,4.7637e-05,-2.6785e-05,-0.000123,-2.2686e-05,-2.0864e-05,-0.00032423,-3.6731e-05,1.4378e-09,-0.00013404,-1.2972e-05,-5.167e-05,3.4712e-05,-0.00041548,-3.0888e-05,-0.18418,-0.0001105,-0.00013597
-0.00017321,-0.00020087,-0.0003474,-0.00058065,-3.2705e-05,0.0001115,-2.3192e-05,0.00014904,-0.00032256,-4.8045e-05,3.1284e-05,6.3622e-05,-4.8799e-05,-6.0144e-05,0.00022376,-0.00010644,-0.00024241,-8.9375e-05,0.00025084,6.7336e-05,-0.00021804,7.0441e-05,-6.0172e-05,4.7255e-05,-0.00020726,-5.0886e-05,4.0595e-05,8.1704e-05,0.00014185,7.9422e-05,-0.00010512,-0.00018321,-0.0002891,1.2463e-05,2.848e-05,0.00020148,-0.00011807,-0.00013152,-0.0020942,-0.00027536,0.00027268,-6.242e-05,-6.054e-05,-6.1456e-05,-0.00018377,8.5291e-05,9.8715e-05,-0.00027812,-0.00027956,-0.00021305,-0.00014839,-8.3538e-05,-0.00010893,3.2763e-05,1.3927e-05,4.3406e-05,-4.0038e-06,-0.00050653,-0.00017205,-0.0003174,0.00010177,-0.00028426,-2.8825e-05,-0.00023598,-0.00017788,-0.000171,-0.00015143,-0.00017992,7.9247e-05,-6.5687e-05,-0.00019241,-8.5876e-05,3.8819e-06,-0.00061727,-5.3146e-05,0.00010219,1.3139e-09,-2.7437e-05,-6.0498e-05,5.6853e-05,-0.00061038,-4.2868e-05,-0.22485,-0.00024498,-0.00025145
-2.2989e-05,-3.1631e-05,-5.4299e-05,-0.00017353,-1.0248e-05,-1.3251e-05,-2.8676e-06,9.1849e-06,-0.00010656,-1.476e-05,-1.3604e-05,-3.6163e-06,-3.9707e-05,-9.5239e-06,9.3811e-06,-1.5646e-05,-3.9507e-05,-1.3191e-05,1.2772e-05,1.847e-06,-3.0478e-05,7.0055e-06,-8.7927e-06,-1.2859e-05,-3.3117e-05,-1.1443e-05,2.9879e-06,-1.4737e-06,9.5601e-06,-2.9033e-06,-2.6417e-05,-3.7082e-05,-4.6128e-05,-1.5012e-05,-2.492e-06,1.0162e-05,-1.9879e-05,-3.2131e-05,-0.079553,-3.8903e-05,1.726e-05,-2.7072e-05,-3.0637e-05,-2.7493e-05,-2.7822e-05,1.0985e-05,6.9252e-06,-3.6723e-05,-6.0678e-05,-4.1181e-05,-2.3774e-05,-1.6132e-05,-3.5949e-05,-2.6682e-06,-4.806e-06,7.493e-07,-7.2547e-07,-0.00017399,-3.404e-05,-4.985e-05,4.8967e-06,-3.7153e-05,-1.4674e-06,-5.2142e-05,-3.5041e-05,-2.4335e-05,-2.2478e-05,-2.5273e-05,-2.4943e-06,-1.5038e-05,-2.4322e-05,-1.2038e-05,-2.7276e-06,-0.00010891,-1.1674e-05,-5.1867e-06,-4.7633e-05,1.0987e-09,-9.3012e-06,4.9251e-06,-0.00020827,-8.0812e-06,-0.18836,-4.0032e-05,-3.8125e-05
-2.0277e-05,-2.9453e-05,-4.9208e-05,-0.00011703,-8.9465e-06,-1.0928e-05,-1.5804e-06,9.4441e-06,-8.1924e-05,-1.2847e-05,-1.2804e-05,-3.3398e-06,-3.308e-05,-9.1367e-06,9.5109e-06,-1.3707e-05,-3.469e-05,-1.1991e-05,1.2e-05,2.5264e-06,-2.8246e-05,5.6824e-06,-6.1734e-06,-1.072e-05,-3.0357e-05,-1.0397e-05,3.1101e-06,-1.464e-06,7.2938e-06,-2.0711e-06,-2.4167e-05,-3.1253e-05,-4.2165e-05,-1.4221e-05,-8.7755e-07,1.0928e-05,-1.917e-05,-2.819e-05,-0.039488,-3.6781e-05,1.4881e-05,-2.2082e-05,-3.1513e-05,-2.5181e-05,-2.9094e-05,7.5494e-06,6.4682e-06,-3.6807e-05,-5.0574e-05,-3.3719e-05,-2.174e-05,-1.3142e-05,-3.3201e-05,-1.23e-06,-3.2865e-06,7.1174e-07,-1.7853e-06,-0.00011394,-3.073e-05,-4.3796e-05,3.2403e-06,-3.3304e-05,-3.3948e-06,-4.5321e-05,-3.0983e-05,-2.1713e-05,-2.1514e-05,-2.3397e-05,-1.8339e-06,-1.3632e-05,-2.3051e-05,-1.2151e-05,-2.864e-06,-8.9113e-05,-1.0176e-05,-7.2556e-06,-4.1858e-05,-4.2037e-06,1.0858e-09,4.8075e-06,-0.00012984,-8.2133e-06,-0.22792,-3.6516e-05,-3.55e-05
-9.4221e-06,-1.2974e-05,-2.0918e-05,-5.2145e-05,-4.0477e-06,-3.9059e-06,-1.0309e-06,2.8796e-06,-3.4513e-05,-6.3114e-06,-4.9919e-06,-1.4107e-06,-1.5167e-05,-4.656e-06,3.0633e-06,-5.2835e-06,-1.5334e-05,-4.9126e-06,5.7503e-06,-3.7381e-07,-1.1263e-05,1.7526e-06,-3.3033e-06,-4.5405e-06,-1.3389e-05,-4.3866e-06,5.7801e-07,-8.215e-07,2.8861e-06,-7.0937e-07,-9.7664e-06,-1.3658e-05,-1.6927e-05,-5.5128e-06,-9.178e-07,3.4278e-06,-7.9086e-06,-1.2766e-05,-0.10971,-1.5156e-05,6.2291e-06,-9.9574e-06,-1.1563e-05,-1.0812e-05,-1.1859e-05,2.6669e-06,3.1099e-06,-1.5336e-05,-2.1905e-05,-1.3337e-05,-1.0166e-05,-6.967e-06,-1.1394e-05,-1.7397e-06,-2.3935e-06,-8.9308e-08,-3.4426e-07,-5.2465e-05,-1.4157e-05,-2.0407e-05,1.562e-06,-1.5132e-05,-1.4953e-06,-1.9601e-05,-1.2649e-05,-9.9239e-06,-9.5894e-06,-1.0625e-05,-7.1362e-07,-6.4521e-06,-9.3701e-06,-5.3291e-06,-1.4941e-08,-3.9026e-05,-2.7592e-06,-2.6113e-06,-1.713e-05,-2.1364e-06,-3.9251e-06,1.0513e-09,-5.5926e-05,-3.2965e-06,-0.22761,-1.5926e-05,-1.5082e-05
-9.4221e-06,-9.7858e-06,-1.5396e-05,-1.2115e-05,6.9046e-07,1.3586e-05,-1.1559e-06,7.5421e-06,-6.2016e-06,-4.686e-06,2.6799e-06,8.5177e-06,5.0126e-06,-1.0388e-06,1.2712e-05,-3.2636e-06,-7.0203e-06,-4.9882e-06,1.8638e-05,5.2338e-06,-1.244e-05,4.0099e-06,-3.0982e-06,1.1228e-05,-9.8277e-06,-1.5261e-06,2.3926e-06,9.1216e-06,1.1117e-05,9.3294e-06,-6.7468e-07,-1.4664e-06,-1.2e-05,9.014e-06,-1.5992e-07,1.8455e-05,-6.26e-06,-1.5403e-06,-2.7523e-05,-1.1082e-05,2.2259e-05,7.789e-06,5.2114e-06,1.9079e-06,-7.1103e-06,4.6778e-06,5.2868e-06,-9.7328e-06,-3.2834e-06,-2.3772e-06,-6.1591e-06,-4.3139e-06,1.07e-06,4.0317e-06,2.6712e-06,2.4299e-06,4.2132e-06,-8.8623e-06,-6.1338e-06,-1.3262e-05,7.748e-06,-1.2301e-05,-1.4178e-06,-8.5764e-06,-6.1535e-06,-8.5716e-06,-8.0996e-06,-8.6734e-06,9.011e-06,-7.4912e-07,-9.7114e-06,-3.2195e-06,-7.9064e-07,-1.6668e-05,-3.4908e-06,9.3517e-06,-5.8897e-06,-1.1199e-06,-2.6349e-06,3.5001e-06,1.1589e-09,-1.3985e-06,-0.10715,-8.3793e-06,-9.942e-06
-5.5389e-06,-7.0108e-06,-1.1489e-05,-2.8387e-05,-2.0825e-06,-1.5382e-06,-4.7983e-07,1.9449e-06,-1.7257e-05,-3.711e-06,-2.6767e-06,-3.2995e-07,-8.224e-06,-2.4319e-06,2.135e-06,-2.1227e-06,-8.2692e-06,-2.828e-06,3.5774e-06,2.5326e-07,-6.9136e-06,1.2606e-06,-2.0047e-06,-2.1113e-06,-7.7442e-06,-2.4218e-06,7.2236e-07,-4.1944e-07,2.2713e-06,-1.5203e-07,-5.078e-06,-7.5535e-06,-9.5727e-06,-2.9336e-06,-6.4866e-07,2.1169e-06,-4.1778e-06,-6.8615e-06,-0.00049704,-8.5224e-06,4.0216e-06,-4.8141e-06,-5.0411e-06,-6.1115e-06,-6.0727e-06,1.8975e-06,1.8828e-06,-8.2026e-06,-1.2026e-05,-7.2238e-06,-5.542e-06,-3.8955e-06,-6.2898e-06,-5.844e-07,-9.955e-07,1.2195e-07,2.6843e-07,-2.8646e-05,-7.3103e-06,-1.2074e-05,1.3358e-06,-8.5536e-06,-8.1443e-07,-1.1194e-05,-7.3431e-06,-5.3819e-06,-5.277e-06,-5.7994e-06,3.6617e-07,-3.6162e-06,-5.4061e-06,-2.9879e-06,-1.779e-07,-2.1749e-05,-2.6612e-06,-1.2883e-06,-1.0025e-05,-1.0387e-06,-2.3289e-06,1.2366e-06,-3.0578e-05,1.1046e-09,-0.22967,-8.4557e-06,-8.5431e-06
1.3453e-06,-3.6199e-06,-8.6821e-07,-7.3233e-06,1.3417e-06,1.7439e-06,9.6138e-07,1.3511e-06,-1.1554e-05,-1.7487e-06,1.7698e-06,4.8044e-05,7.3536e-06,-3.0324e-06,3.0308e-06,1.4624e-06,-1.3452e-06,-6.4801e-06,5.2628e-06,7.8754e-07,-4.405e-06,2.2312e-06,-2.2906e-08,2.7144,4.1199e-06,-1.4423e-08,-4.1159e-07,2.7672e-05,6.6241e-05,0.00062421,2.5707e-06,9.2261e-06,3.909e-06,2.1591,4.9429e-09,4.8321e-05,4.2616e-06,6.1568e-06,4.1126e-06,-9.388e-07,0.00059904,3.8207e-05,-9.5621e-07,7.2238e-06,2.1964e-06,1.6782e-05,-1.0448e-06,-8.208e-07,-2.2067e-06,1.8333e-06,-3.8404e-07,-2.9175e-06,2.5975e-05,3.698e-06,3.664e-06,5.091e-07,8.7127e-06,-4.6958e-06,7.7705e-06,-3.5754e-05,-8.3757e-06,-2.68e-06,1.8913e-06,-1.4374e-06,9.8157e-07,-1.4469e-06,-3.4566e-06,-6.3699e-06,6.1412e-06,-1.9055e-06,-1.5937e-06,-1.6455e-06,-2.8391e-06,2.3474e-05,-5.5248e-06,2.557e-06,-1.0656e-05,5.1492e-06,-1.6405e-06,2.6067e-07,6.8701e-06,-2.3947e-06,1.0423e-09,-7.0332e-07,6.0394e-07
-8.9997e-05,-0.00010246,-0.00019812,-0.0003992,-1.7671e-05,2.8775e-05,-6.3905e-06,6.0301e-05,-0.00022745,-7.6814e-05,-3.6027e-05,5.3419e-05,-7.975e-05,9.1238e-06,8.8526e-05,-5.078e-05,-8.7412e-05,-4.0169e-05,0.00013047,6.226e-05,-0.00014905,7.4902e-05,-3.9155e-05,2.0411e-05,-0.00013784,-3.6188e-05,2.4355e-05,4.2959e-05,8.5524e-05,3.1015e-05,-5.4257e-05,-8.6906e-05,-0.00016388,-7.5814e-06,-3.362e-05,0.00011198,-7.5337e-05,-6.0303e-05,-0.0021305,-0.00015527,0.00016068,1.132e-05,3.8049e-05,-5.8442e-05,-9.399e-05,3.9406e-05,4.2703e-05,-0.00010439,-0.0001537,-0.00010011,-4.2274e-05,-5.8839e-05,-6.061e-05,3.6294e-05,2.448e-05,4.2673e-05,4.4905e-05,-0.0004229,-7.6068e-05,-0.00017722,5.2495e-05,-0.00012076,-7.6706e-06,-0.00014913,-0.00011172,-9.1791e-05,-8.6959e-05,-5.7653e-05,4.2922e-05,-1.5714e-05,-0.00012412,-3.2693e-06,-2.2168e-05,-0.00030031,-4.5634e-05,6.5481e-05,-0.00017676,-1.1134e-05,-3.4817e-05,3.1466e-05,-0.00048268,-1.7754e-05,-0.18318,1.4257e-09,-0.00012849
-7.2946e-05,-0.00010256,-0.00017008,-0.00042228,-1.1929e-05,2.7233e-05,-4.6655e-06,4.8948e-05,-0.00021986,-5.6611e-05,-2.0924e-05,4.7573e-05,-8.7957e-05,-8.1754e-06,6.3919e-05,-3.8071e-05,-8.7807e-05,-4.1915e-05,0.00010473,3.8827e-05,-0.00011273,5.3519e-05,-2.7814e-05,2.2124e-05,-0.00011501,-2.9781e-05,1.8504e-05,4.5202e-05,7.8375e-05,3.1714e-05,-4.3825e-05,-7.7925e-05,-0.00012411,2.6965e-06,-9.7319e-06,0.00010812,-6.6939e-05,-7.0438e-05,-0.0059403,-0.00010889,0.00014453,-1.5506e-05,-2.2697e-06,-5.4358e-05,-7.8674e-05,4.0478e-05,3.6705e-05,-8.9333e-05,-0.00015179,-8.7973e-05,-6.2271e-05,-5.4176e-05,-5.2553e-05,2.1717e-05,1.3274e-05,2.2674e-05,3.0978e-05,-0.00042431,-8.7565e-05,-0.00016366,4.4022e-05,-0.00011848,-2.6301e-06,-0.00014717,-9.4849e-05,-8.0958e-05,-7.9468e-05,-7.3039e-05,3.2549e-05,-2.4262e-05,-8.999e-05,-1.9509e-05,-9.5746e-06,-0.00029431,-3.9803e-05,3.8692e-05,-0.00014335,-6.6643e-06,-2.8075e-05,2.7911e-05,-0.00045401,-1.9311e-05,-0.17661,-0.00010012,1.3381e-09
