1.3124e-09,-1.4718e-05,-2.7357e-05,-6.4174e-05,-5.6514e-06,-6.4382e-06,-8.1029e-07,4.4786e-06,-3.6767e-05,-8.5724e-06,-8.2471e-06,-9.9481e-07,-2.0039e-05,-3.1179e-06,5.3193e-06,-8.9609e-06,-1.7025e-05,-6.348e-06,8.2163e-06,3.1677e-06,-1.701e-05,5.1397e-06,-4.599e-06,-5.9958e-06,-1.7648e-05,-5.6493e-06,1.3043e-06,-1.1278e-06,6.3458e-06,-1.3698e-06,-1.3889e-05,-1.7093e-05,-2.3991e-05,-7.3501e-06,-2.6653e-06,5.9221e-06,-9.6498e-06,-1.5113e-05,-0.026299,-2.0105e-05,9.0014e-06,-1.0896e-05,-1.0831e-05,-1.3248e-05,-1.4151e-05,4.1249e-06,3.2646e-06,-1.6214e-05,-2.5831e-05,-1.9212e-05,-1.0268e-05,-7.718e-06,-1.4484e-05,-7.6496e-07,-1.8807e-06,5.3273e-07,4.4293e-07,-6.6271e-05,-1.5604e-05,-2.4243e-05,2.4411e-06,-1.7202e-05,-1.7365e-06,-2.3614e-05,-1.7291e-05,-1.2393e-05,-1.1213e-05,-1.1822e-05,-6.03e-07,-7.0014e-06,-1.3069e-05,-4.108e-06,-2.3397e-06,-4.5569e-05,-6.7647e-06,-4.882e-08,-2.3085e-05,-2.1738e-06,-4.1896e-06,1.8947e-06,-7.3771e-05,-5.1029e-06,-0.19317,-1.8857e-05,-1.8907e-05
-0.0001159,1.3483e-09,-0.00027391,-0.0008175,-5.7537e-05,-2.3009e-06,-1.667e-05,6.113e-05,-0.0003637,-9.3548e-05,-7.0354e-05,9.8965e-06,-0.00017343,-1.305e-05,8.7302e-05,-0.00010473,-0.00016135,-5.9502e-05,0.00010281,6.2723e-05,-0.00019704,6.8194e-05,-6.0994e-05,-2.6553e-05,-0.00018676,-5.8509e-05,1.7136e-05,1.5563e-06,8.0514e-05,8.3134e-06,-0.00014299,-0.00017717,-0.00026424,-6.3808e-05,-3.7371e-05,0.00011054,-0.00010668,-0.00012918,-0.02872,-0.00022328,0.00013845,-4.9024e-05,-3.417e-05,-0.0001209,-0.00013021,4.3162e-05,3.8531e-05,-0.00015556,-0.00023815,-0.00018844,-9.2627e-05,-7.0495e-05,-0.000135,1.2039e-05,-4.7001e-06,7.6519e-06,1.4068e-05,-0.00084259,-0.00012883,-0.00023809,5.6072e-05,-0.00018611,-2.4163e-05,-0.0002242,-0.0001712,-0.0001334,-0.00011459,-0.00010809,2.6234e-05,-5.204e-05,-0.00014759,-2.3214e-05,-4.04e-05,-0.00054374,-7.1321e-05,3.7796e-05,-0.00023173,-2.1306e-05,-4.9994e-05,1.7279e-05,-0.0010373,-4.2885e-05,-0.2175,-0.00017323,-0.00020862
-9.5758e-05,-0.00010627,1.3464e-09,-0.00049425,-2.6476e-05,1.2443e-05,-1.2815e-05,3.8252e-05,-0.00026388,-7.953e-05,-3.3482e-05,2.4759e-05,-0.00011844,-1.2343e-05,7.2205e-05,-5.4583e-05,-0.00011217,-5.6025e-05,0.00011574,4.5444e-05,-0.00012962,5.9688e-05,-3.8246e-05,5.7699e-06,-0.00013626,-3.4773e-05,1.0002e-05,3.1884e-05,8.0054e-05,2.8182e-05,-7.4916e-05,-9.4454e-05,-0.00016458,-9.68e-06,-2.7517e-05,9.3491e-05,-7.6356e-05,-8.4646e-05,-0.0079317,-0.00014767,0.00012855,-2.4402e-05,-1.0075e-05,-6.3793e-05,-9.1818e-05,3.5262e-05,2.7083e-05,-0.00010247,-0.00017568,-0.00010275,-7.5426e-05,-6.6762e-05,-6.1272e-05,2.1355e-05,1.0374e-05,1.6737e-05,2.7189e-05,-0.00053964,-0.00010928,-0.00015985,4.1877e-05,-0.0001342,-1.0117e-05,-0.000179,-0.00011462,-9.8553e-05,-9.912e-05,-8.607e-05,2.8996e-05,-4.059e-05,-0.000105,-2.2926e-05,-2.0449e-05,-0.00038952,-6.1438e-05,3.6735e-05,-0.00015214,-1.59e-05,-3.5896e-05,1.7147e-05,-0.00053826,-2.587e-05,-0.18176,-0.00012078,-0.00013577
-6.1208e-06,-5.9562e-06,-1.1523e-05,1.1401e-09,3.9865e-07,7.5162e-06,-6.713e-07,5.7985e-06,-4.8258e-06,-3.4866e-06,1.2649e-06,5.0187e-06,3.3994e-06,5.283e-07,9.8844e-06,-3.8652e-06,-5.0349e-06,-2.9815e-06,1.3124e-05,5.6612e-06,-9.5302e-06,4.1837e-06,-2.6946e-06,6.5264e-06,-7.8928e-06,-1.5487e-06,2.1441e-06,4.3666e-06,8.0376e-06,4.7743e-06,-2.7292e-06,-2.5193e-06,-9.8631e-06,3.2456e-06,-1.0252e-06,1.1583e-05,-4.3139e-06,-1.1369e-06,-2.1676e-05,-8.8993e-06,1.3092e-05,4.8215e-06,5.042e-06,3.0001e-07,-4.6712e-06,3.4689e-06,3.5016e-06,-5.9057e-06,-3.5921e-06,-3.2256e-06,-2.7642e-06,-2.6005e-06,-2.6571e-07,3.8379e-06,2.7665e-06,2.3965e-06,2.3855e-06,-7.294e-06,-3.172e-06,-6.5752e-06,5.5892e-06,-8.02e-06,-5.2703e-07,-5.9726e-06,-4.6488e-06,-6.5066e-06,-5.445e-06,-4.7198e-06,5.0989e-06,-2.5732e-07,-8.0626e-06,-1.0835e-06,-1.3016e-06,-1.2872e-05,-2.8951e-06,6.8206e-06,-4.5165e-06,-2.8995e-07,-1.5613e-06,2.0634e-06,-9.6714e-06,-1.3284e-06,-0.16056,-5.3963e-06,-8.0269e-06
-2.2686e-05,-2.9771e-05,-4.7426e-05,-0.0001127,1.1548e-09,4.3097e-06,-7.623e-07,1.1001e-05,-6.0544e-05,-1.5902e-05,-7.0422e-06,3.7565e-06,-2.6734e-05,-8.0723e-06,1.5063e-05,-1.2688e-05,-3.1261e-05,-1.4118e-05,2.2409e-05,5.7013e-06,-2.8484e-05,8.6655e-06,-7.3265e-06,8.5909e-08,-3.2235e-05,-8.3148e-06,3.9198e-06,4.3495e-06,1.7424e-05,7.8962e-06,-1.665e-05,-2.5739e-05,-3.7033e-05,-3.1582e-06,-2.6008e-06,1.7979e-05,-1.6561e-05,-2.4066e-05,-0.0014405,-3.1859e-05,2.5803e-05,-1.2634e-05,-1.2991e-05,-1.7697e-05,-2.2937e-05,9.7675e-06,7.7221e-06,-2.9923e-05,-4.1695e-05,-2.1534e-05,-2.0399e-05,-1.576e-05,-1.4719e-05,1.9087e-06,-9.03e-08,2.4167e-06,2.6425e-06,-0.0001123,-2.8791e-05,-4.2752e-05,8.766e-06,-3.4197e-05,-2.674e-06,-4.3002e-05,-2.4237e-05,-2.2341e-05,-2.2128e-05,-2.3151e-05,6.881e-06,-1.1616e-05,-2.3779e-05,-1.0643e-05,-2.4834e-06,-8.5359e-05,-1.2864e-05,2.3646e-06,-3.5803e-05,-3.2335e-06,-7.5134e-06,4.9408e-06,-0.00012292,-6.4684e-06,-0.19375,-3.2708e-05,-3.2519e-05
-7.8544e-06,-7.1393e-06,-1.3412e-05,-1.8944e-05,5.3964e-07,1.1921e-09,3.1959e-07,6.1691e-06,2.2257e-06,-3.352e-06,1.3114e-06,5.2703e-06,-2.1166e-06,-2.9253e-06,7.41e-06,-1.1156e-06,-7.0555e-06,-3.9286e-06,9.2825e-06,1.834e-06,-8.8056e-06,1.6166e-06,-1.8381e-06,6.6108e-06,-7.8086e-06,-1.5781e-06,2.0992e-06,5.5779e-06,7.7282e-06,8.2858e-06,-1.2043e-06,-2.2649e-06,-7.3355e-06,4.5224e-06,1.6515e-06,1.0687e-05,-5.287e-06,-3.9712e-06,-3.5115e-05,-7.5162e-06,1.6161e-05,1.2517e-05,1.2309e-05,-1.2382e-06,-5.2387e-06,3.7643e-06,3.7727e-06,-9.1629e-06,-4.5907e-07,4.8267e-06,-6.0542e-06,-4.5614e-06,8.4023e-06,8.8208e-09,-1.0724e-06,2.2449e-06,1.1428e-06,-1.5929e-05,-6.0692e-06,-1.8222e-05,7.6657e-06,-1.1389e-05,-2.525e-07,-9.7749e-06,-5.8923e-06,-6.1485e-06,-6.4775e-06,-6.4564e-06,1.1748e-05,-1.6017e-06,-7.0941e-06,-4.8847e-06,4.4571e-07,-1.4202e-05,-2.7394e-06,4.5755e-06,-5.786e-06,-1.1707e-06,-2.6092e-06,2.4176e-06,-1.6114e-05,-7.5973e-07,-0.15874,-8.4841e-06,-8.5187e-06
-1.448e-05,-1.9749e-05,-3.3494e-05,-0.00010776,-5.9441e-06,-4.5285e-06,8.9908e-10,5.5147e-06,-5.3607e-05,-9.4676e-06,-8.1878e-06,-2.4596e-06,-2.411e-05,-6.3705e-06,6.4632e-06,-9.5592e-06,-2.3577e-05,-8.1805e-06,8.7131e-06,2.0156e-06,-1.848e-05,3.547e-06,-5.3618e-06,-6.6715e-06,-2.0526e-05,-6.5447e-06,3.327e-06,-1.9444e-06,6.7085e-06,-3.9835e-07,-1.6797e-05,-2.0946e-05,-2.8219e-05,-8.088e-06,-1.3687e-06,5.9039e-06,-1.2158e-05,-2.019e-05,-0.2758,-2.2821e-05,9.9132e-06,-1.4791e-05,-1.752e-05,-1.6713e-05,-1.6751e-05,4.7581e-06,3.6886e-06,-2.144e-05,-3.5322e-05,-2.1881e-05,-1.4686e-05,-1.0089e-05,-1.9764e-05,-1.5365e-06,-2.8236e-06,2.0257e-07,-3.6291e-07,-0.00010336,-2.1206e-05,-2.9349e-05,3.823e-06,-2.3203e-05,-2.9726e-06,-3.2726e-05,-2.0754e-05,-1.4785e-05,-1.2661e-05,-1.6244e-05,8.069e-07,-9.7612e-06,-1.3967e-05,-7.4553e-06,-2.0588e-06,-7.5142e-05,-8.2817e-06,-2.6392e-06,-2.7364e-05,-3.3866e-06,-5.6324e-06,2.0912e-06,-0.00011864,-5.5496e-06,-0.21571,-2.4017e-05,-2.3689e-05
-1.8745e-05,-2.3827e-05,-4.3898e-05,-9.4316e-05,-7.5134e-06,-7.2384e-07,-9.6198e-07,9.9016e-10,-5.5254e-05,-6.9868e-06,-7.3367e-06,-3.1763e-06,-2.1554e-05,-7.3312e-06,1.2103e-05,-1.5443e-05,-2.9697e-05,-9.8073e-06,1.215e-05,4.806e-06,-2.3944e-05,3.4451e-06,-6.6782e-06,-6.527e-06,-2.2969e-05,-6.3387e-06,3.1617e-06,-1.5884e-06,8.3757e-06,4.0257e-07,-2.0598e-05,-2.861e-05,-3.5996e-05,-1.0814e-05,2.1621e-06,1.0165e-05,-1.43e-05,-2.3049e-05,-0.0025217,-3.0077e-05,1.3642e-05,-1.7893e-05,-2.4441e-05,-1.7032e-05,-2.1234e-05,7.6367e-06,7.0059e-06,-3.274e-05,-3.7937e-05,-2.8616e-05,-1.6782e-05,-8.4907e-06,-2.507e-05,-3.6389e-06,-5.9338e-06,3.1318e-06,-5.6627e-06,-7.6259e-05,-1.9949e-05,-3.7421e-05,5.9042e-06,-2.9862e-05,-3.8524e-06,-3.6179e-05,-2.6322e-05,-1.8281e-05,-1.5678e-05,-2.0248e-05,1.1096e-06,-9.5455e-06,-1.8765e-05,-9.4517e-06,-1.4873e-06,-6.9744e-05,-8.0094e-06,-6.8261e-07,-2.585e-05,-2.8801e-06,-5.9589e-06,3.0301e-06,-0.00010031,-6.6398e-06,-0.22513,-3.0595e-05,-3.0074e-05
-1.0656e-05,-8.4612e-06,-2.2944e-05,-2.5674e-05,2.3078e-06,4.9319e-05,1.5329e-06,1.2201e-05,1.2389e-09,-6.6285e-06,2.8419e-06,2.5567e-05,4.3317e-06,8.0867e-07,2.0592e-05,-4.8293e-06,-5.8325e-06,-3.0836e-06,2.5702e-05,1.0168e-05,-1.8762e-05,9.9611e-06,-3.6094e-06,1.6865e-05,-1.307e-05,-2.9375e-06,6.2954e-06,1.5073e-05,1.9222e-05,2.7371e-05,-6.9582e-06,2.5159e-06,-1.5618e-05,1.4153e-05,-1.2017e-06,2.8529e-05,-8.7216e-06,1.2719e-06,-4.9502e-05,-1.4406e-05,4.7234e-05,3.7101e-05,0.00027447,5.892e-06,-6.6796e-06,6.1379e-06,8.1724e-06,-1.0365e-05,7.5186e-06,6.8363e-06,-5.1975e-06,-6.3777e-06,5.9423e-05,7.5772e-06,5.2011e-06,5.2227e-06,7.6721e-06,-1.7575e-05,-4.8543e-06,-2.5908e-05,1.5685e-05,-1.5743e-05,3.9685e-07,-1.0817e-05,-8.3387e-06,-9.4534e-06,-8.8168e-06,-5.9657e-06,2.2514e-05,6.9743e-07,-1.3305e-05,-8.0805e-07,-3.7565e-06,-1.6014e-05,-6.195e-06,1.8899e-05,-6.7801e-06,-9.8947e-07,-4.5954e-06,3.7808e-06,-2.1762e-05,-5.5995e-07,-0.15984,-9.4562e-06,-1.3328e-05
-0.00012472,-0.00016821,-0.00033187,-0.0012959,-5.1497e-05,1.9853e-06,-3.136e-07,0.00010634,-0.00069319,9.8681e-10,-4.4135e-05,1.1529e-05,-0.00016453,-3.866e-05,0.00011727,-0.0001072,-0.00022638,-6.3109e-05,0.00010756,4.1302e-05,-0.00017721,4.3073e-05,-4.1896e-05,-4.8111e-05,-0.00016848,-4.1098e-05,3.8277e-05,1.675e-05,8.9796e-05,2.7848e-05,-0.00015835,-0.00020968,-0.00027413,-7.766e-05,3.7252e-05,0.00011033,-9.2438e-05,-0.00016228,-0.079665,-0.00022156,0.00015079,-0.00014367,-0.0002104,-0.00011674,-0.00014862,7.2327e-05,6.4655e-05,-0.00023457,-0.00034952,-0.00027129,-0.00010905,-4.9776e-05,-0.00023706,-6.9106e-06,-2.4074e-05,2.3064e-05,-2.1423e-05,-0.0009965,-0.00015322,-0.00028747,5.9039e-05,-0.00021258,-1.6325e-05,-0.00027775,-0.00019772,-0.00013344,-0.00010594,-0.00013591,1.9284e-05,-7.0261e-05,-0.00013293,-5.63e-05,-1.1117e-05,-0.00081767,-5.4661e-05,2.5216e-05,-0.00018629,-8.8352e-06,-3.2146e-05,2.8789e-05,-0.0014861,-4.2839e-05,-0.22637,-0.00023124,-0.00021895
-5.0958e-05,-6.0884e-05,-9.5219e-05,-0.00017487,-1.2384e-05,1.0167e-05,-3.3315e-06,2.5047e-05,-0.0001042,-2.5265e-05,1.243e-09,1.1626e-06,-4.4572e-05,-1.9889e-05,3.5583e-05,-3.0554e-05,-6.799e-05,-2.7287e-05,5.5018e-05,8.7532e-06,-5.4821e-05,1.2176e-05,-1.615e-05,-2.3616e-06,-6.127e-05,-1.5505e-05,8.1177e-06,6.9867e-06,3.0863e-05,9.7802e-06,-3.8429e-05,-5.3995e-05,-7.5233e-05,-1.1002e-05,1.256e-06,3.37e-05,-3.6384e-05,-5.0043e-05,-0.00050938,-6.6827e-05,4.4149e-05,-2.9582e-05,-3.5394e-05,-3.7027e-05,-4.7087e-05,1.8124e-05,1.8634e-05,-6.7123e-05,-8.3873e-05,-5.3304e-05,-4.7132e-05,-3.0857e-05,-3.4771e-05,-4.4919e-08,-3.6102e-06,3.4828e-06,-2.2737e-06,-0.00016171,-5.8961e-05,-8.4825e-05,1.4555e-05,-7.5274e-05,-8.621e-06,-8.3763e-05,-5.2019e-05,-4.4909e-05,-4.6172e-05,-5.2367e-05,9.2451e-06,-2.7397e-05,-4.6299e-05,-2.4954e-05,-2.0556e-07,-0.00016462,-2.1913e-05,3.4007e-06,-5.1778e-05,-8.2368e-06,-1.8869e-05,1.0033e-05,-0.00017477,-1.3875e-05,-0.18632,-7.3184e-05,-6.8343e-05
-0.00010686,-0.00013274,-0.00022408,-0.0003973,-1.9723e-05,5.8996e-05,-1.145e-05,4.8622e-05,-0.00010124,-7.5522e-05,-3.5969e-05,9.4933e-10,-9.4377e-05,-2.6597e-05,7.9617e-05,-3.4974e-05,-0.00010817,-4.74e-05,0.00012306,3.2746e-05,-0.00016081,5.1003e-05,-3.957e-05,3.1081e-05,-0.00013573,-3.4719e-05,1.6397e-05,0.00014289,0.00011743,8.2567e-05,-5.4137e-05,-7.1149e-05,-0.00014733,3.7935e-05,-2.0187e-05,0.00020883,-7.0098e-05,-7.6575e-05,-0.00096731,-0.0001352,0.00029281,3.158e-05,4.7493e-05,-3.0317e-05,-8.2455e-05,4.3876e-05,4.6181e-05,-0.0001094,-0.00011332,-8.4422e-05,-8.0548e-05,-7.0272e-05,-5.0597e-06,-2.7157e-06,-1.7129e-05,8.2127e-06,3.3191e-05,-0.00034932,-0.00010602,-0.00025173,6.397e-05,-0.00015337,-4.2076e-06,-0.00015636,-0.00010079,-0.00010898,-9.9941e-05,-9.0345e-05,7.0487e-05,-4.0962e-05,-0.00011652,-4.609e-05,-1.078e-05,-0.00023861,-4.9739e-05,6.8049e-05,-0.00015496,-1.5915e-05,-4.2603e-05,2.8999e-05,-0.00038117,-2.7436e-05,-0.13694,-0.00013406,-0.00013521
-6.2344e-06,-6.1371e-06,-1.2158e-05,-1.1085e-05,-6.6098e-07,5.9937e-06,-4.1978e-07,5.7782e-06,-5.3028e-06,-1.8057e-06,8.0423e-07,3.6161e-06,8.4396e-10,-9.2239e-07,8.3735e-06,-4.4306e-06,-6.0387e-06,-3.0923e-06,9.7483e-06,3.0871e-06,-8.6649e-06,2.3189e-06,-2.3354e-06,3.9404e-06,-6.837e-06,-1.6644e-06,2.1259e-06,3.4159e-06,5.9226e-06,4.37e-06,-3.815e-06,-4.1778e-06,-9.4745e-06,1.0621e-06,4.4907e-07,9.5831e-06,-3.8665e-06,-2.4891e-06,-2.4268e-05,-8.6047e-06,1.0461e-05,2.3611e-06,1.351e-06,-7.9765e-07,-4.8835e-06,3.0253e-06,3.08e-06,-7.7691e-06,-4.0328e-06,-4.7913e-06,-3.4362e-06,-2.0797e-06,-2.6541e-06,1.7856e-06,7.6516e-07,1.7486e-06,-5.0012e-08,-7.9801e-06,-3.8784e-06,-8.1183e-06,4.2736e-06,-8.1553e-06,-1.0365e-06,-6.6136e-06,-5.7739e-06,-5.7779e-06,-4.6903e-06,-5.2437e-06,3.8795e-06,-1.4252e-06,-6.8877e-06,-1.9801e-06,-9.1078e-07,-1.3249e-05,-2.56e-06,4.5621e-06,-4.2284e-06,-4.2291e-07,-1.5193e-06,1.4515e-06,-1.1401e-05,-1.4639e-06,-0.13737,-6.4942e-06,-8.1363e-06
-1.7624e-05,-2.1985e-05,-4.1532e-05,-9.6644e-05,-9.4715e-06,-9.0322e-06,-2.676e-06,7.8779e-06,-5.7705e-05,-1.5235e-05,-1.2205e-05,-2.3538e-07,-2.8747e-05,1.2508e-09,9.5961e-06,-1.5914e-05,-2.4062e-05,-9.521e-06,1.5628e-05,9.2405e-06,-2.8932e-05,1.1254e-05,-8.5562e-06,-8.9298e-06,-2.7158e-05,-8.5438e-06,1.5888e-06,-6.9852e-07,1.0074e-05,-1.0999e-06,-2.2343e-05,-2.742e-05,-3.8889e-05,-1.2075e-05,-7.1555e-06,1.3286e-05,-1.5674e-05,-1.9871e-05,-0.0023263,-3.3456e-05,1.7441e-05,-1.0984e-05,-9.2502e-06,-2.0272e-05,-2.1454e-05,6.0981e-06,4.6717e-06,-2.342e-05,-3.9862e-05,-3.0107e-05,-1.311e-05,-1.2272e-05,-2.0114e-05,8.6761e-07,-9.9557e-07,2.9403e-06,3.7119e-06,-0.00010152,-2.0126e-05,-3.3887e-05,3.9551e-06,-2.5892e-05,-4.1328e-06,-3.712e-05,-2.855e-05,-2.1557e-05,-1.7705e-05,-1.651e-05,-4.2045e-07,-8.55e-06,-2.2009e-05,-2.8492e-06,-6.0105e-06,-6.7511e-05,-1.1715e-05,2.1055e-06,-3.9466e-05,-3.8027e-06,-8.1715e-06,2.175e-06,-0.00011434,-8.3426e-06,-0.2352,-2.585e-05,-2.9984e-05
-6.838e-05,-8.2244e-05,-0.0001418,-0.00025594,-2.5164e-05,-4.1242e-06,-4.8328e-06,3.7331e-05,-0.00015152,-3.0554e-05,-1.8623e-05,-5.1982e-06,-6.4308e-05,-2.8058e-05,1.2396e-09,-5.2717e-05,-9.7836e-05,-3.7583e-05,5.233e-05,9.776e-06,-8.8184e-05,1.3455e-05,-2.6443e-05,-2.3154e-05,-8.4937e-05,-2.7453e-05,1.1932e-05,-4.4712e-08,3.5049e-05,4.209e-06,-7.6721e-05,-8.8642e-05,-0.00012658,-3.8958e-05,5.2523e-07,4.8157e-05,-5.0479e-05,-7.1377e-05,-0.00077206,-0.00010861,4.9287e-05,-5.337e-05,-6.6968e-05,-5.4436e-05,-7.6213e-05,2.3215e-05,2.2281e-05,-0.00010599,-0.00011667,-0.0001075,-5.8701e-05,-3.6367e-05,-8.1782e-05,1.3448e-06,-5.6654e-06,6.3668e-06,-1.5121e-05,-0.00022809,-7.8618e-05,-0.00012186,1.735e-05,-0.00010561,-1.6339e-05,-0.00011574,-8.6275e-05,-6.7401e-05,-5.7098e-05,-7.5147e-05,2.2314e-07,-4.1997e-05,-6.7853e-05,-3.4267e-05,-9.8307e-06,-0.00023039,-3.206e-05,3.8665e-06,-7.7945e-05,-1.4007e-05,-2.4958e-05,8.8394e-06,-0.00027182,-2.5384e-05,-0.20748,-0.00010424,-0.00010902
-1.5693e-05,-2.1442e-05,-3.1698e-05,-9.7286e-05,-4.6076e-06,1.3343e-06,-2.2499e-07,4.0182e-06,-4.7046e-05,-1.2921e-05,-8.0341e-06,3.6202e-06,-2.6103e-05,-6.7273e-06,6.1386e-06,9.7424e-10,-2.17e-05,-8.5934e-06,1.2407e-05,1.3959e-06,-1.9561e-05,5.0056e-06,-4.9054e-06,-2.4106e-06,-2.3423e-05,-7.159e-06,1.9009e-06,4.0231e-06,1.1225e-05,3.2916e-06,-1.1958e-05,-1.7499e-05,-2.2662e-05,-3.6987e-06,-2.8193e-06,1.0119e-05,-9.7974e-06,-1.94e-05,-0.029298,-2.1971e-05,1.8342e-05,-6.6729e-06,-9.5279e-06,-1.4474e-05,-1.5882e-05,5.781e-06,4.7424e-06,-1.9627e-05,-3.2885e-05,-1.4261e-05,-1.6046e-05,-1.254e-05,-8.3561e-06,-1.4239e-06,-2.982e-06,-4.7447e-07,3.0938e-06,-0.00011991,-2.2662e-05,-3.6548e-05,4.6773e-06,-2.3917e-05,-1.9504e-06,-3.2818e-05,-1.7931e-05,-1.6118e-05,-1.6598e-05,-1.5967e-05,3.8373e-06,-1.0956e-05,-1.6887e-05,-8.5945e-06,-5.8047e-07,-6.2092e-05,-8.7769e-06,8.7645e-07,-2.86e-05,-3.0643e-06,-5.9271e-06,3.8337e-06,-9.92e-05,-2.1697e-06,-0.18607,-2.3695e-05,-2.3137e-05
-7.6667e-05,-9.0744e-05,-0.00018441,-0.00035809,-1.6245e-05,4.5694e-05,-3.4852e-06,6.0622e-05,-0.00014801,-7.4236e-05,-2.9483e-05,6.7501e-05,-7.452e-05,1.5701e-05,9.388e-05,-4.9785e-05,1.4001e-09,-3.4822e-05,0.00013022,7.7223e-05,-0.00014317,7.6509e-05,-3.4305e-05,3.6562e-05,-0.00013289,-3.1165e-05,1.6332e-05,4.9964e-05,0.00010335,4.7966e-05,-4.0957e-05,-6.4963e-05,-0.00014032,1.6221e-05,-3.1568e-05,0.00014051,-6.553e-05,-5.4644e-05,-0.001394,-0.00013915,0.00017201,3.1263e-05,5.0294e-05,-4.143e-05,-7.0841e-05,4.0447e-05,4.249e-05,-7.5216e-05,-0.00011784,-8.5318e-05,-4.2362e-05,-5.2835e-05,-1.6953e-05,3.9703e-05,2.5965e-05,3.2372e-05,5.0238e-05,-0.00036799,-6.1921e-05,-0.00016365,5.6276e-05,-0.00010558,-7.0688e-06,-0.00014596,-0.00011809,-9.0666e-05,-7.3951e-05,-6.1515e-05,5.0475e-05,-1.9182e-05,-0.00010352,5.673e-06,-2.6669e-05,-0.00026237,-5.018e-05,9.1064e-05,-0.00016172,-9.5458e-06,-2.8102e-05,2.6855e-05,-0.00038781,-2.1238e-05,-0.17958,-8.8238e-05,-0.00011663
-6.7126e-06,-8.5853e-06,-1.6244e-05,-3.8449e-05,-3.6538e-06,-3.2032e-06,-3.1238e-07,2.9764e-06,-2.0849e-05,-4.7002e-06,-4.2613e-06,-1.5056e-07,-1.1464e-05,-2.0396e-06,3.2435e-06,-4.9308e-06,-1.026e-05,1.1697e-09,4.866e-06,1.463e-06,-9.6295e-06,2.4878e-06,-2.891e-06,-3.6385e-06,-1.0249e-05,-3.1054e-06,1.0208e-06,-7.7804e-07,2.8977e-06,-9.2374e-07,-8.6034e-06,-1.0273e-05,-1.417e-05,-4.8204e-06,-1.1854e-06,3.6006e-06,-5.6673e-06,-8.9469e-06,-0.025401,-1.2409e-05,5.4209e-06,-5.7986e-06,-7.3411e-06,-7.8744e-06,-8.2356e-06,2.2408e-06,2.849e-06,-1.0234e-05,-1.5593e-05,-1.1019e-05,-6.0895e-06,-4.3228e-06,-1.0094e-05,-8.1987e-07,-1.4461e-06,8.3536e-07,-1.9392e-07,-3.8115e-05,-9.1943e-06,-1.432e-05,1.5292e-06,-1.0149e-05,-1.299e-06,-1.4323e-05,-1.0767e-05,-7.3599e-06,-6.3734e-06,-6.7385e-06,-2.6814e-08,-4.1455e-06,-7.2487e-06,-2.4042e-06,-2.6151e-07,-2.9239e-05,-3.0757e-06,-3.5278e-07,-1.3127e-05,-1.2963e-06,-2.7266e-06,1.6178e-06,-4.3565e-05,-2.4093e-06,-0.25772,-1.0916e-05,-1.1654e-05
-5.0445e-05,-6.4813e-05,-9.1629e-05,-0.00017776,-1.392e-05,-3.8113e-06,-6.4663e-06,1.6324e-05,-0.0001075,-3.6128e-05,-6.4465e-06,7.0179e-07,-5.0716e-05,-1.7994e-05,2.7038e-05,-2.9597e-05,-6.6955e-05,-2.8103e-05,1.3268e-09,9.8432e-06,-5.1913e-05,1.4879e-05,-1.8492e-05,-9.6391e-06,-6.5209e-05,-2.0581e-05,9.0036e-07,4.2561e-06,3.3512e-05,8.117e-06,-2.8502e-05,-5.5852e-05,-7.294e-05,-1.5739e-05,-1.0019e-05,3.5576e-05,-3.1785e-05,-5.1819e-05,-0.00050882,-6.8693e-05,4.2184e-05,-2.7247e-05,-2.7532e-05,-4.6678e-05,-5.1521e-05,1.6115e-05,1.1697e-05,-6.0352e-05,-8.3081e-05,-4.8987e-05,-4.5068e-05,-3.7385e-05,-1.7935e-05,-2.4474e-06,-6.5817e-06,1.2675e-06,-1.2634e-06,-0.00017926,-6.1404e-05,-7.7852e-05,1.0712e-05,-7.0578e-05,-1.0027e-05,-9.2923e-05,-5.6434e-05,-4.4223e-05,-4.9904e-05,-5.3237e-05,4.2036e-06,-2.4738e-05,-4.7558e-05,-2.3734e-05,-3.0874e-06,-0.00015985,-2.7071e-05,3.7066e-06,-5.7579e-05,-1.1734e-05,-2.273e-05,1.0998e-05,-0.00017369,-1.5702e-05,-0.19045,-6.7767e-05,-6.7925e-05
-2.5273e-05,-3.1063e-05,-5.9173e-05,-0.00013065,-1.1723e-05,-9.4188e-06,-1.5541e-06,1.6142e-05,-7.9275e-05,-2.0486e-05,-1.4025e-05,-1.2932e-06,-3.8878e-05,-2.1146e-06,1.6066e-05,-2.2557e-05,-3.4959e-05,-1.4018e-05,2.4792e-05,1.2383e-09,-3.8498e-05,1.4719e-05,-1.0791e-05,-8.6686e-06,-3.8271e-05,-1.1385e-05,3.192e-06,-1.258e-06,1.7006e-05,-3.6926e-07,-2.9981e-05,-3.7016e-05,-5.3447e-05,-1.2411e-05,-7.8994e-06,1.9012e-05,-2.3294e-05,-2.9494e-05,-0.0014192,-4.5828e-05,2.4585e-05,-1.7353e-05,-1.4276e-05,-2.7313e-05,-2.829e-05,8.9956e-06,8.473e-06,-3.3276e-05,-5.769e-05,-3.8484e-05,-2.1154e-05,-1.727e-05,-2.7217e-05,2.539e-06,-3.5601e-07,3.2979e-06,3.3409e-06,-0.00013526,-2.7713e-05,-4.7413e-05,7.4065e-06,-3.8119e-05,-5.3226e-06,-5.2816e-05,-4.0467e-05,-2.8578e-05,-2.4701e-05,-2.4826e-05,2.3087e-06,-1.0574e-05,-3.0659e-05,-5.0881e-06,-6.545e-06,-9.381e-05,-1.6266e-05,1.2828e-06,-4.9327e-05,-4.6109e-06,-9.2323e-06,3.9852e-06,-0.00015504,-1.0462e-05,-0.2157,-3.8725e-05,-4.2972e-05
-9.6299e-06,-1.3095e-05,-1.9484e-05,-5.0075e-05,-3.8455e-06,-3.8125e-06,-6.5894e-07,2.7784e-06,-3.0808e-05,-6.4862e-06,-4.5677e-06,-2.2627e-06,-1.5233e-05,-4.4925e-06,3.0813e-06,-6.1338e-06,-1.4994e-05,-5.7119e-06,7.2076e-06,5.7881e-07,1.0776e-09,2.6016e-06,-3.1306e-06,-4.544e-06,-1.2749e-05,-3.9708e-06,4.8452e-07,-8.9153e-07,4.2971e-06,-8.9014e-07,-9.4992e-06,-1.3181e-05,-1.5891e-05,-5.0884e-06,-1.0005e-06,2.4378e-06,-7.41e-06,-1.2884e-05,-0.011992,-1.4337e-05,5.144e-06,-1.0048e-05,-1.2649e-05,-1.0683e-05,-1.0671e-05,3.2194e-06,2.3946e-06,-1.3805e-05,-2.2018e-05,-1.2783e-05,-9.289e-06,-6.8901e-06,-1.1473e-05,-1.8697e-06,-2.4614e-06,-3.3661e-07,-2.6412e-07,-5.0428e-05,-1.3402e-05,-1.8943e-05,1.4621e-06,-1.4823e-05,-2.0756e-06,-2.0516e-05,-1.1891e-05,-8.9567e-06,-9.5587e-06,-1.0592e-05,-2.3372e-07,-6.335e-06,-9.1654e-06,-5.1365e-06,-5.8279e-07,-3.8369e-05,-4.9951e-06,-2.0354e-06,-1.5625e-05,-1.972e-06,-3.8041e-06,1.6324e-06,-5.1813e-05,-3.6033e-06,-0.22551,-1.5442e-05,-1.4426e-05
-0.00012861,-0.00017341,-0.00030425,-0.0014569,-6.0207e-05,-8.8417e-05,-1.5537e-05,4.6346e-05,-0.00073208,-0.00012092,-8.7768e-05,-4.4997e-06,-0.00029138,-1.6671e-05,6.653e-05,-0.00010547,-0.00020814,-7.573e-05,0.00010876,5.5553e-05,-0.00018598,8.9438e-10,-5.5847e-05,-6.7249e-05,-0.00021339,-5.6543e-05,1.0309e-05,-4.4798e-06,8.6329e-05,-1.4681e-05,-0.00017052,-0.00021559,-0.00028712,-7.5839e-05,-4.7688e-05,7.4462e-05,-0.00011013,-0.00017672,-0.18268,-0.00024082,0.00012955,-0.00013638,-0.00014326,-0.00016496,-0.00015781,4.7497e-05,3.237e-05,-0.00016606,-0.00040736,-0.00022294,-0.00011485,-9.974e-05,-0.00020411,1.0286e-05,-1.9366e-06,1.3713e-05,2.8252e-05,-0.0016411,-0.00017936,-0.00025676,2.1948e-05,-0.00019677,-2.0997e-05,-0.00031186,-0.00020127,-0.00015154,-0.0001407,-0.00012527,3.3983e-06,-7.0093e-05,-0.00014697,-1.977e-05,-3.8101e-05,-0.00079185,-8.4252e-05,1.1723e-05,-0.00030419,-2.2133e-05,-5.6122e-05,2.1639e-05,-0.0019764,-5.7013e-05,-0.21397,-0.00021239,-0.00022248
-1.9307e-05,-2.7225e-05,-4.3866e-05,-0.00015471,-8.2439e-06,-7.8112e-06,-1.3504e-06,6.6862e-06,-8.0562e-05,-1.2936e-05,-1.1124e-05,-3.2347e-06,-3.4473e-05,-8.4784e-06,7.373e-06,-1.2873e-05,-3.2122e-05,-1.198e-05,1.1627e-05,1.9392e-06,-2.3968e-05,5.1082e-06,8.5245e-10,-1.1214e-05,-2.7685e-05,-8.6402e-06,1.7005e-06,-1.6659e-06,8.6058e-06,-7.2188e-07,-2.1658e-05,-2.9896e-05,-3.6094e-05,-1.3134e-05,-1.9746e-06,7.0833e-06,-1.5818e-05,-2.6817e-05,-0.11713,-3.1348e-05,1.3152e-05,-2.0487e-05,-2.5237e-05,-2.2204e-05,-2.3417e-05,6.7161e-06,4.9533e-06,-2.9825e-05,-4.9905e-05,-2.9886e-05,-1.9349e-05,-1.3223e-05,-2.4688e-05,-3.3838e-06,-5.073e-06,-3.0494e-07,-6.6889e-07,-0.0001499,-2.7879e-05,-4.1614e-05,3.2178e-06,-2.9229e-05,-3.1368e-06,-4.3852e-05,-2.6486e-05,-2.0323e-05,-1.9879e-05,-2.0872e-05,-1.3797e-06,-1.2964e-05,-2.0153e-05,-1.0044e-05,-2.3383e-06,-0.00010022,-1.1037e-05,-3.6747e-06,-3.6423e-05,-4.0852e-06,-6.3505e-06,3.1414e-06,-0.00016614,-7.7075e-06,-0.21598,-3.3499e-05,-3.1898e-05
-1.0492e-05,-1.2215e-05,-2.0422e-05,-2.9983e-05,1.814e-07,1.2449e-05,2.0488e-07,7.5483e-06,-1.2322e-05,-7.9269e-06,3.0419e-07,7.3728e-06,-5.1396e-06,-3.0315e-06,9.6526e-06,-3.3597e-06,-1.0598e-05,-5.4994e-06,1.4985e-05,4.9078e-06,-1.3687e-05,5.0817e-06,-3.8267e-06,1.1781e-09,-1.403e-05,-2.1716e-06,3.1905e-06,7.1415e-06,1.1938e-05,7.8747e-06,-3.2305e-06,-2.0114e-06,-1.5374e-05,8.5103e-06,-7.5599e-07,1.4627e-05,-7.5911e-06,-8.2259e-06,-7.2357e-05,-1.1827e-05,2.0537e-05,6.1414e-06,6.697e-06,-1.3523e-06,-7.8881e-06,5.0379e-06,5.7404e-06,-1.1367e-05,-8.9911e-06,-3.1474e-06,-8.2278e-06,-6.7544e-06,2.2927e-06,2.062e-06,9.3477e-07,2.0454e-06,3.7406e-06,-2.7284e-05,-1.0783e-05,-2.1877e-05,8.5054e-06,-1.5916e-05,-3.1351e-07,-1.2821e-05,-7.2117e-06,-1.0261e-05,-9.8128e-06,-1.0117e-05,1.2092e-05,-4.4391e-06,-1.0844e-05,-4.3013e-06,2.8569e-07,-2.5052e-05,-4.1915e-06,6.2551e-06,-1.3026e-05,-1.0678e-06,-3.0735e-06,3.9972e-06,-2.762e-05,-1.5965e-06,-0.097969,-1.3185e-05,-1.3011e-05
-0.0001359,-0.00017244,-0.00030295,-0.0010098,-6.2088e-05,-1.9657e-05,-1.3676e-05,7.0071e-05,-0.00050301,-7.8689e-05,-6.6263e-05,8.5717e-06,-0.00018971,-3.7483e-05,8.2385e-05,-0.00010996,-0.00020876,-7.9928e-05,0.00010175,3.6019e-05,-0.00017871,4.3071e-05,-5.458e-05,-4.8098e-05,1.1944e-09,-4.8652e-05,2.2529e-05,1.6595e-05,7.3798e-05,-2.1972e-06,-0.00014519,-0.00020064,-0.00025454,-6.4286e-05,-6.869e-06,0.00010197,-9.9752e-05,-0.00014506,-0.036416,-0.00021642,0.00013436,-9.8707e-05,-0.00013422,-0.00012142,-0.00015336,5.1264e-05,3.7716e-05,-0.00020333,-0.00029402,-0.00021872,-0.0001083,-7.6938e-05,-0.00017651,-1.7334e-05,-3.1535e-05,1.1764e-05,-1.4612e-06,-0.00091616,-0.00016508,-0.00028428,3.7666e-05,-0.0002121,-2.7243e-05,-0.00027561,-0.00018243,-0.0001386,-0.00012657,-0.00013927,9.2478e-06,-7.5731e-05,-0.00013696,-5.7957e-05,-2.4683e-05,-0.00063551,-7.5839e-05,1.5474e-05,-0.00022546,-2.3991e-05,-5.1333e-05,1.3963e-05,-0.0010848,-5.5858e-05,-0.1709,-0.00021281,-0.00021763
-1.4508e-05,-1.8763e-05,-2.9949e-05,-7.1071e-05,-6.0671e-06,-3.8884e-06,-1.6892e-06,5.5913e-06,-4.1738e-05,-8.9757e-06,-6.9404e-06,-1.175e-06,-2.0407e-05,-5.7222e-06,5.725e-06,-1.0546e-05,-2.156e-05,-8.4129e-06,8.8164e-06,1.4502e-06,-1.7955e-05,3.7713e-06,-5.6297e-06,-5.2557e-06,-1.8455e-05,8.2101e-10,1.1113e-06,-6.0797e-08,7.2632e-06,2.3166e-07,-1.4141e-05,-1.8611e-05,-2.4816e-05,-5.7622e-06,-9.4657e-07,6.4576e-06,-1.096e-05,-1.7614e-05,-0.023492,-2.0953e-05,1.0374e-05,-1.2623e-05,-1.5384e-05,-1.3917e-05,-1.5324e-05,4.3743e-06,3.8782e-06,-2.0564e-05,-2.814e-05,-1.8967e-05,-1.3352e-05,-9.4995e-06,-1.4496e-05,-2.9846e-06,-4.1353e-06,-1.021e-07,-6.5974e-07,-6.6337e-05,-1.8311e-05,-2.8396e-05,2.9807e-06,-2.2225e-05,-2.7655e-06,-2.7591e-05,-1.8242e-05,-1.4503e-05,-1.3938e-05,-1.5151e-05,8.0444e-07,-8.9919e-06,-1.3858e-05,-6.7329e-06,-2.0439e-06,-5.1272e-05,-7.9231e-06,-1.3542e-06,-2.3033e-05,-3.2874e-06,-5.998e-06,1.8301e-06,-7.0922e-05,-5.3575e-06,-0.2103,-2.2045e-05,-2.193e-05
-1.4996e-05,-1.9668e-05,-3.3834e-05,-8.0053e-05,-6.7612e-06,-5.9531e-06,5.3404e-07,5.3629e-06,-4.5512e-05,-8.6183e-06,-8.091e-06,-3.5064e-06,-2.2177e-05,-6.9756e-06,6.2566e-06,-1.0561e-05,-2.5383e-05,-8.3863e-06,7.1482e-06,4.0702e-07,-1.9082e-05,2.4542e-06,-5.6816e-06,-7.8747e-06,-1.9569e-05,-6.4866e-06,1.1234e-09,-2.479e-06,5.3647e-06,-1.8769e-06,-1.7928e-05,-2.2653e-05,-2.9075e-05,-9.803e-06,-7.1256e-07,5.3091e-06,-1.2155e-05,-2.004e-05,-0.047699,-2.3754e-05,8.1916e-06,-1.4806e-05,-1.9325e-05,-1.6491e-05,-1.7677e-05,4.953e-06,3.5042e-06,-2.3758e-05,-3.1436e-05,-2.3757e-05,-1.4858e-05,-9.5425e-06,-2.3252e-05,-2.8061e-06,-3.9612e-06,-2.6062e-07,-1.9686e-06,-7.4379e-05,-2.1183e-05,-3.1039e-05,2.5481e-06,-2.3735e-05,-3.2533e-06,-3.0713e-05,-2.0378e-05,-1.5193e-05,-1.297e-05,-1.6655e-05,-1.1839e-06,-1.0306e-05,-1.3865e-05,-8.4838e-06,-1.8348e-06,-5.9612e-05,-8.1497e-06,-3.4613e-06,-2.594e-05,-2.9444e-06,-5.6523e-06,1.7255e-06,-8.6576e-05,-5.4479e-06,-0.23328,-2.4656e-05,-2.4222e-05
-9.3441e-05,-0.00011671,-0.00017276,-0.00034005,-1.9116e-05,4.5378e-05,-1.2423e-05,3.9182e-05,-0.00014686,-5.8288e-05,-2.3169e-05,0.00010583,-8.1728e-05,-3.0303e-05,6.2351e-05,-3.1838e-05,-0.00010575,-5.4363e-05,9.613e-05,1.8719e-05,-0.00011802,3.3571e-05,-3.0535e-05,1.7753e-05,-0.00010716,-2.6838e-05,1.1041e-05,9.1867e-10,9.0897e-05,4.6926e-05,-4.6907e-05,-6.4653e-05,-0.000119,2.7438e-05,-6.3258e-06,0.00016852,-5.3356e-05,-7.0466e-05,-0.0011455,-0.00011179,0.00021466,2.8544e-06,-2.073e-05,-4.1113e-05,-7.7747e-05,4.1397e-05,3.0949e-05,-0.0001041,-0.00011599,-7.9651e-05,-8.2303e-05,-5.853e-05,-1.3039e-05,-1.0224e-05,-2.0715e-05,4.2092e-06,1.7384e-05,-0.00030588,-0.00010305,-0.00019149,4.8421e-05,-0.00013952,-6.4711e-06,-0.00014,-7.8498e-05,-8.466e-05,-9.319e-05,-8.88e-05,4.8638e-05,-4.35e-05,-9.6709e-05,-4.4237e-05,-8.8422e-06,-0.0001933,-4.3739e-05,3.699e-05,-0.00011489,-1.006e-05,-3.1917e-05,2.173e-05,-0.00029758,-2.986e-05,-0.14289,-0.00011868,-0.00011145
-0.00010951,-0.00014692,-0.0002301,-0.00072731,-3.4195e-05,-7.8007e-06,-1.3636e-05,3.3461e-05,-0.00036993,-7.8933e-05,-4.74e-05,1.7834e-05,-0.00016299,-4.8191e-05,5.3354e-05,-5.9538e-05,-0.00015822,-7.4533e-05,9.2654e-05,1.6124e-05,-0.00013585,3.1309e-05,-4.4295e-05,-2.3054e-05,-0.00015481,-3.9989e-05,4.9479e-06,2.4734e-05,8.3169e-10,1.2579e-05,-7.9247e-05,-0.00012704,-0.00016625,-2.3047e-05,-1.8547e-05,8.4251e-05,-8.0276e-05,-0.00012228,-0.032213,-0.00012043,0.00012549,-9.4917e-05,-0.00010224,-9.0696e-05,-8.4639e-05,4.2114e-05,2.6829e-05,-0.00010926,-0.00023442,-0.00013934,-0.00010708,-7.8045e-05,-7.8059e-05,-1.5617e-05,-2.4169e-05,-2.0006e-06,6.5537e-06,-0.00072787,-0.0001478,-0.00020394,2.834e-05,-0.0001689,-1.0955e-05,-0.00022684,-0.00012933,-0.00010174,-0.00010972,-0.00011524,1.1228e-05,-7.1359e-05,-0.00011063,-5.8172e-05,-1.7997e-05,-0.0004489,-6.3733e-05,2.123e-05,-0.00017807,-1.7997e-05,-4.7048e-05,1.5182e-05,-0.00072758,-3.5425e-05,-0.14681,-0.00016657,-0.00015246
-0.00014722,-0.00017455,-0.00027762,-0.00049134,-1.1588e-05,0.00011532,-4.6716e-06,7.4452e-05,-0.00011179,-8.2944e-05,-2.8197e-05,8.7526e-05,-0.00010856,-5.1694e-05,0.00010363,-5.6489e-05,-0.0001699,-8.6587e-05,0.00015962,3.0193e-05,-0.00018084,3.9245e-05,-4.0193e-05,3.2345e-05,-0.00018995,-3.9014e-05,2.3393e-05,6.8632e-05,0.00011926,1.206e-09,-7.6377e-05,-9.8582e-05,-0.00019486,1.0583e-05,-5.2412e-06,0.00015945,-9.8179e-05,-0.00012262,-0.00074428,-0.00018258,0.00023886,2.6249e-05,0.00011282,-6.2123e-05,-0.00011994,6.0976e-05,5.7238e-05,-0.00018383,-0.00012928,-7.1481e-05,-0.00013204,-0.00010178,6.8058e-05,6.6151e-06,-1.1303e-05,1.2186e-05,1.9021e-05,-0.00041636,-0.00014845,-0.00030242,8.817e-05,-0.00021279,-1.6387e-05,-0.00022077,-0.00014556,-0.00013694,-0.00011783,-0.00014085,9.1826e-05,-6.4736e-05,-0.00014143,-6.8642e-05,-1.0416e-05,-0.00030009,-7.1949e-05,3.6017e-05,-0.00017793,-2.0367e-05,-4.8262e-05,4.0597e-05,-0.00042854,-3.3673e-05,-0.13039,-0.00019804,-0.00019308
-1.1414e-05,-1.464e-05,-2.1647e-05,-4.2972e-05,-1.5144e-06,5.123e-06,-1.2877e-06,4.4329e-06,-2.7118e-05,-9.2274e-06,-3.2347e-06,4.8494e-06,-1.2836e-05,-4.118e-06,5.2608e-06,-4.192e-06,-1.1369e-05,-7.3163e-06,1.5156e-05,2.5464e-06,-1.3933e-05,3.7413e-06,-3.891e-06,2.4022e-06,-1.5314e-05,-3.6838e-06,6.4467e-07,5.1383e-06,1.1252e-05,4.8414e-06,1.1379e-09,-1.0484e-05,-1.2397e-05,2.0457e-06,-1.7921e-06,1.0441e-05,-7.5163e-06,-1.0004e-05,-0.00012555,-1.2919e-05,1.6087e-05,-2.1676e-06,-2.3298e-06,-6.7323e-06,-9.1472e-06,4.376e-06,3.2609e-06,-1.2222e-05,-1.9721e-05,-7.2866e-06,-1.0862e-05,-9.4556e-06,-5.8606e-07,-1.0119e-07,-1.2949e-06,2.0264e-06,3.8864e-06,-4.2393e-05,-1.2893e-05,-2.3096e-05,4.6816e-06,-1.6607e-05,-8.158e-07,-2.0727e-05,-1.0558e-05,-9.7208e-06,-1.1679e-05,-1.1151e-05,4.9474e-06,-4.8521e-06,-1.2106e-05,-5.7561e-06,-1.0706e-06,-2.763e-05,-6.3787e-06,5.5177e-06,-1.5981e-05,-1.8921e-06,-4.5043e-06,2.6594e-06,-3.9074e-05,-2.5315e-06,-0.1613,-1.3594e-05,-1.363e-05
-0.00010492,-0.00013301,-0.00020897,-0.00035316,-1.1033e-05,0.00010624,3.2878e-06,5.5919e-05,-0.00011634,-8.341e-05,-2.0193e-05,9.3955e-05,-8.4239e-05,-2.0396e-05,9.9108e-05,-3.777e-05,-0.00010036,-5.5337e-05,0.00015887,5.715e-05,-0.00015411,7.0892e-05,-3.7632e-05,0.00010619,-0.00015651,-2.874e-05,2.3577e-05,8.8676e-05,0.00013732,9.1071e-05,-5.8608e-05,1.0255e-09,-0.00017153,6.0412e-05,-2.0456e-05,0.0001837,-7.8784e-05,-8.8509e-05,-0.0008023,-0.00014576,0.00023352,5.4739e-05,7.9638e-05,-2.1709e-05,-8.7786e-05,6.0652e-05,5.3181e-05,-0.00011084,-9.2116e-05,-3.8481e-05,-7.9997e-05,-7.1278e-05,1.9471e-05,2.7197e-05,1.0398e-05,2.7182e-05,4.3925e-05,-0.00036235,-0.00010416,-0.00021706,7.915e-05,-0.00014973,2.5583e-06,-0.00014092,-9.3672e-05,-0.00010446,-0.00010727,-9.078e-05,0.00010438,-4.5254e-05,-0.00011775,-3.5037e-05,-1.427e-05,-0.00024775,-5.347e-05,7.6415e-05,-0.00016594,-1.0457e-05,-3.0216e-05,3.6966e-05,-0.00032979,-2.447e-05,-0.13203,-0.00012528,-0.00014166
-7.989e-05,-9.9716e-05,-0.00015128,-0.00031407,-1.2757e-05,4.3876e-05,-7.8809e-06,3.3582e-05,-0.00015071,-5.7451e-05,-1.8998e-05,3.9716e-05,-7.8984e-05,-2.4223e-05,4.8109e-05,-2.4258e-05,-8.0767e-05,-4.8059e-05,9.8158e-05,2.4296e-05,-9.4827e-05,3.3981e-05,-2.4359e-05,9.58e-06,-0.00010215,-2.4683e-05,7.1571e-06,4.1825e-05,8.0906e-05,3.7567e-05,-2.2907e-05,-7.3089e-05,9.5467e-10,1.022e-05,-8.8266e-06,8.275e-05,-5.4457e-05,-6.7768e-05,-0.0028853,-9.0056e-05,0.00012675,1.2211e-06,-3.2227e-06,-4.2796e-05,-6.2245e-05,3.3555e-05,2.5971e-05,-8.5828e-05,-0.00011603,-5.7186e-05,-6.813e-05,-5.7882e-05,-7.3306e-06,-1.189e-06,-8.8017e-06,9.4598e-06,1.8854e-05,-0.00030122,-8.734e-05,-0.0001563,3.7939e-05,-0.00011252,-4.1444e-06,-0.00014627,-8.6856e-05,-7.4776e-05,-8.0721e-05,-7.3864e-05,3.6933e-05,-3.4572e-05,-8.9283e-05,-3.2211e-05,-7.1068e-06,-0.00019628,-4.3239e-05,3.5551e-05,-0.00011253,-1.0777e-05,-2.9171e-05,2.0532e-05,-0.00031099,-1.83e-05,-0.15371,-9.5227e-05,-9.2489e-05
-1.3768e-05,-1.7427e-05,-2.4928e-05,-4.404e-05,-1.2784e-06,9.9752e-06,-8.7928e-07,5.2488e-06,-1.6962e-05,-1.1306e-05,-2.5845e-06,9.3808e-06,-1.205e-05,-5.5911e-06,7.0963e-06,-4.8443e-06,-1.4185e-05,-8.8636e-06,1.4628e-05,3.7985e-06,-1.6901e-05,5.2074e-06,-5.8049e-06,9.4633e-06,-1.761e-05,-3.1049e-06,1.4155e-06,9.8982e-06,1.3691e-05,6.9525e-06,-4.3946e-06,-6.9323e-06,-1.6965e-05,1.1953e-09,-2.0357e-06,1.453e-05,-9.4813e-06,-1.3498e-05,-0.00010597,-1.4874e-05,2.5214e-05,2.4736e-06,1.8286e-06,-4.8886e-06,-1.0012e-05,5.4106e-06,3.7463e-06,-1.3371e-05,-1.5301e-05,-4.6833e-06,-1.3023e-05,-1.0294e-05,3.758e-06,-1.0504e-06,-1.8435e-06,1.4364e-07,4.2083e-06,-4.0535e-05,-1.5511e-05,-2.7573e-05,8.4136e-06,-2.0732e-05,-7.2739e-07,-1.7772e-05,-8.8226e-06,-1.4133e-05,-1.4858e-05,-1.4166e-05,1.0334e-05,-6.2392e-06,-1.2598e-05,-7.7295e-06,-4.4031e-07,-3.4473e-05,-7.0806e-06,3.5292e-06,-1.7341e-05,-2.5073e-06,-6.0051e-06,2.8539e-06,-3.635e-05,-4.1539e-06,-0.099162,-1.8157e-05,-1.7126e-05
-1.0543e-05,-1.3998e-05,-2.2679e-05,-5.553e-05,-4.6678e-06,-2.2953e-06,-7.1754e-07,4.6713e-06,-3.3007e-05,-3.0535e-06,-4.5485e-06,-2.8411e-06,-1.3883e-05,-6.2457e-06,4.1162e-06,-7.4526e-06,-1.7894e-05,-6.2628e-06,4.226e-06,-1.1496e-06,-1.1718e-05,6.9907e-08,-3.505e-06,-5.7637e-06,-1.2123e-05,-3.6637e-06,1.1555e-06,-1.1906e-06,3.2328e-06,-9.3702e-07,-1.1174e-05,-1.524e-05,-1.7711e-05,-6.3852e-06,1.0625e-09,3.1168e-06,-7.646e-06,-1.3955e-05,-0.11601,-1.4987e-05,4.8844e-06,-1.2061e-05,-1.6649e-05,-1.0457e-05,-1.2386e-05,3.8101e-06,2.7062e-06,-1.8188e-05,-2.196e-05,-1.5916e-05,-1.0978e-05,-5.8123e-06,-1.428e-05,-3.4762e-06,-4.326e-06,-2.4316e-07,-3.408e-06,-4.512e-05,-1.4405e-05,-2.1822e-05,1.8637e-06,-1.7473e-05,-1.8995e-06,-2.0695e-05,-1.3243e-05,-1.0072e-05,-9.5726e-06,-1.1939e-05,-7.5218e-07,-7.3277e-06,-8.9027e-06,-7.4944e-06,-5.3114e-07,-4.2239e-05,-4.8334e-06,-2.9214e-06,-1.3923e-05,-2.1921e-06,-3.5464e-06,1.1655e-06,-5.3673e-05,-4.0305e-06,-0.22622,-1.8393e-05,-1.5781e-05
-9.385e-05,-0.00010192,-0.00018689,-0.00030738,-1.9875e-05,5.1924e-05,-1.1203e-05,5.3371e-05,-0.00013848,-5.6038e-05,-2.0607e-05,9.9191e-05,-6.0619e-05,-1.8814e-05,8.8571e-05,-4.9192e-05,-9.5526e-05,-4.7257e-05,0.00011554,3.373e-05,-0.00013945,3.1305e-05,-3.8159e-05,1.9328e-05,-0.00010759,-3.1959e-05,1.8021e-05,0.00010951,9.4705e-05,5.2691e-05,-5.9796e-05,-5.9834e-05,-0.00013798,4.9508e-06,-7.0374e-06,8.7544e-10,-6.5894e-05,-6.0364e-05,-0.00066556,-0.00012976,0.0002131,8.6531e-06,-2.9226e-05,-3.6312e-05,-8.7773e-05,3.7233e-05,3.838e-05,-0.00011526,-8.1969e-05,-7.3223e-05,-7.469e-05,-5.2926e-05,-5.8983e-05,3.6241e-06,-7.2362e-06,1.0748e-05,2.1501e-05,-0.00025479,-8.5251e-05,-0.00017665,4.9493e-05,-0.00013832,-1.1206e-05,-0.00013355,-9.0557e-05,-9.0581e-05,-7.6565e-05,-9.4221e-05,5.5573e-05,-3.6844e-05,-9.8339e-05,-3.574e-05,-1.3999e-05,-0.00020631,-4.1109e-05,4.9591e-05,-0.00012038,-1.3469e-05,-2.8615e-05,2.0171e-05,-0.00028202,-3.5275e-05,-0.14664,-0.00012926,-0.00011622
-1.3099e-05,-1.7669e-05,-3.0172e-05,-9.009e-05,-5.3402e-06,-5.0367e-06,-1.6189e-06,5.395e-06,-5.331e-05,-8.5167e-06,-7.3214e-06,2.6243e-07,-1.9806e-05,-4.5241e-06,7.0641e-06,-7.5933e-06,-2.0291e-05,-7.6287e-06,1.1222e-05,2.0642e-06,-1.7647e-05,4.7546e-06,-5.2462e-06,-5.504e-06,-1.8011e-05,-5.3828e-06,1.2747e-06,1.474e-06,7.9839e-06,2.9865e-07,-1.3197e-05,-1.9034e-05,-2.4781e-05,-6.4259e-06,-1.6404e-06,7.6985e-06,1.1661e-09,-1.5457e-05,-0.010782,-2.1738e-05,1.1896e-05,-1.1184e-05,-1.5587e-05,-1.4337e-05,-1.4448e-05,5.2546e-06,3.54e-06,-1.9081e-05,-3.0557e-05,-2.0758e-05,-1.186e-05,-8.5985e-06,-1.5268e-05,-1.5202e-06,-2.8324e-06,9.392e-07,-1.2587e-07,-8.97e-05,-1.7869e-05,-2.48e-05,3.1804e-06,-2.0931e-05,-2.3436e-06,-2.6766e-05,-1.6773e-05,-1.3377e-05,-1.2683e-05,-1.3695e-05,-1.1783e-08,-8.3762e-06,-1.3799e-05,-5.5899e-06,-1.7447e-06,-5.9169e-05,-7.148e-06,1.173e-06,-2.2191e-05,-2.115e-06,-5.3313e-06,2.3608e-06,-9.8087e-05,-3.8118e-06,-0.1783,-2.0387e-05,-2.1361e-05
-7.1273e-05,-7.7452e-05,-0.0001478,-0.00022127,-1.5074e-05,4.3212e-05,-8.2311e-06,4.8588e-05,-9.2446e-05,-4.9217e-05,-1.7621e-05,4.9082e-05,-4.1728e-05,2.8933e-06,7.7797e-05,-4.878e-05,-7.1448e-05,-3.57e-05,0.00010287,4.7481e-05,-0.00011651,5.0164e-05,-2.8507e-05,1.663e-05,-9.0657e-05,-2.5851e-05,1.7e-05,4.4024e-05,8.07e-05,3.7688e-05,-4.6455e-05,-6.8785e-05,-0.00012266,-9.0034e-06,-1.6587e-05,0.00011235,-4.8146e-05,9.3958e-10,-0.00044504,-0.00011096,0.00013535,1.7781e-05,3.0126e-05,-3.6096e-05,-6.2826e-05,3.2467e-05,3.0264e-05,-7.9503e-05,-8.7052e-05,-6.607e-05,-4.2243e-05,-3.9291e-05,-1.861e-05,2.3941e-05,1.2503e-05,1.7885e-05,2.452e-05,-0.0002057,-5.7598e-05,-0.00012176,3.8584e-05,-9.248e-05,-7.9312e-06,-0.00010774,-7.9552e-05,-7.7277e-05,-6.5761e-05,-5.4387e-05,3.7403e-05,-1.7826e-05,-8.9109e-05,-9.8247e-06,-1.9316e-05,-0.00019154,-3.9123e-05,5.4181e-05,-0.00010311,-7.4576e-06,-2.346e-05,1.8367e-05,-0.00022938,-1.9884e-05,-0.15228,-7.8393e-05,-0.00010284
-7.6149e-06,-6.7973e-06,-1.2376e-05,-4.7915e-06,2.2332e-06,1.8614e-05,-1.2029e-06,9.0687e-06,1.9961e-06,-2.4198e-06,4.8124e-06,9.901e-06,1.0443e-05,4.3972e-07,1.504e-05,-3.9437e-06,-4.3581e-06,-3.9194e-06,2.1142e-05,7.2165e-06,-1.058e-05,4.8901e-06,-2.268e-06,1.2515e-05,-7.4841e-06,-6.8891e-07,3.3561e-06,1.0385e-05,1.2003e-05,1.245e-05,1.8418e-07,1.1906e-06,-8.2175e-06,9.083e-06,2.4901e-07,2.0196e-05,-3.3884e-06,1.8776e-06,1.29e-09,-9.3346e-06,2.3735e-05,1.3465e-05,1.1478e-05,4.4267e-06,-3.6759e-06,5.5239e-06,4.9796e-06,-8.0116e-06,2.1205e-06,1.6336e-06,-2.7518e-06,-1.8555e-06,6.8356e-06,4.8853e-06,3.3971e-06,3.8366e-06,1.9793e-06,-1.4927e-06,-1.6515e-06,-8.0634e-06,9.0445e-06,-9.265e-06,-1.8073e-07,-4.7263e-06,-4.2656e-06,-6.8903e-06,-5.8636e-06,-6.0238e-06,1.1692e-05,1.1299e-06,-9.4639e-06,-1.236e-06,-7.9697e-07,-6.6593e-06,-2.584e-06,1.1391e-05,-7.4904e-07,4.5272e-07,-1.3092e-06,3.1648e-06,-3.1856e-06,-1.5237e-07,-0.090145,-5.0176e-06,-7.7561e-06
-3.1584e-05,-4.1518e-05,-6.5296e-05,-0.00014511,-8.1254e-06,3.6553e-06,-1.5888e-06,1.1921e-05,-7.5311e-05,-2.3127e-05,-1.2639e-05,8.1937e-06,-4.1049e-05,-1.1691e-05,1.5154e-05,-1.686e-05,-4.1689e-05,-2.094e-05,2.9008e-05,6.5654e-06,-4.0952e-05,1.0933e-05,-1.185e-05,1.7455e-07,-4.29e-05,-1.0704e-05,3.5132e-06,8.6886e-06,3.2667e-05,6.8425e-06,-2.0568e-05,-3.3933e-05,-4.4992e-05,-2.8652e-06,-3.772e-06,2.321e-05,-2.4679e-05,-3.3482e-05,-0.0010671,1.2516e-09,3.8169e-05,-1.6707e-05,-1.6793e-05,-2.3613e-05,-2.4917e-05,1.3108e-05,9.0255e-06,-2.9788e-05,-5.4595e-05,-3.1551e-05,-2.9587e-05,-2.3222e-05,-1.7076e-05,-2.6485e-06,-5.3424e-06,1.674e-06,4.9318e-06,-0.00014408,-3.991e-05,-6.6531e-05,1.2184e-05,-4.7284e-05,-2.2469e-06,-6.0021e-05,-3.5375e-05,-3.0267e-05,-3.198e-05,-3.1842e-05,9.7147e-06,-1.8006e-05,-3.1835e-05,-1.4434e-05,-3.3561e-06,-0.00010251,-1.8644e-05,5.9817e-06,-5.2773e-05,-4.7272e-06,-1.2732e-05,5.7785e-06,-0.00014238,-9.7205e-06,-0.18099,-4.448e-05,-3.9635e-05
-0.00010019,-0.00012055,-0.00019742,-0.00034544,-1.5411e-05,8.7663e-05,-9.058e-06,5.1012e-05,-8.7715e-05,-6.5686e-05,-2.4853e-05,0.00013391,-8.1158e-05,-2.64e-05,7.01e-05,-2.6416e-05,-0.00010598,-4.9306e-05,0.00011172,2.8744e-05,-0.00013955,4.1406e-05,-3.3185e-05,3.648e-05,-0.00012087,-2.9037e-05,1.7281e-05,0.00012838,0.00011276,7.9455e-05,-4.4208e-05,-5.9157e-05,-0.00012304,4.6285e-05,-9.656e-06,0.00019072,-6.5781e-05,-6.9348e-05,-0.00060842,-0.00011693,9.6678e-10,4.3805e-05,3.4934e-05,-3.1896e-05,-7.4425e-05,4.4791e-05,3.988e-05,-0.00010505,-0.0001001,-4.9798e-05,-8.3495e-05,-6.708e-05,1.3662e-05,-6.5613e-06,-1.9803e-05,7.5473e-06,3.4828e-05,-0.00029439,-0.00010338,-0.0002142,5.8769e-05,-0.000143,1.5139e-07,-0.00014421,-8.7287e-05,-9.7525e-05,-9.3291e-05,-8.8605e-05,7.5178e-05,-3.997e-05,-0.00010198,-4.4533e-05,-5.7009e-06,-0.00019076,-4.77e-05,5.2701e-05,-0.00012613,-1.1842e-05,-3.8876e-05,2.843e-05,-0.00030005,-2.7723e-05,-0.13716,-0.00013052,-0.00012111
-7.3804e-06,-6.3426e-06,-1.3856e-05,-1.9484e-05,-6.8193e-07,2.2923e-05,-6.4194e-07,4.1604e-06,4.154e-06,-6.6033e-06,-1.1402e-06,9.7022e-06,-1.9468e-06,7.7401e-07,7.2093e-06,-9.4125e-07,-4.5296e-06,-2.7929e-06,1.2166e-05,5.0569e-06,-1.2031e-05,4.9163e-06,-2.6771e-06,8.9116e-06,-9.018e-06,-2.6578e-06,2.0958e-06,7.775e-06,7.9596e-06,9.5293e-06,-2.0174e-06,-1.0626e-06,-8.5638e-06,5.902e-06,-2.7476e-06,1.4445e-05,-5.0272e-06,-2.3179e-06,-3.8355e-05,-9.9282e-06,2.2014e-05,1.1936e-09,2.7719e-05,1.1038e-06,-4.9061e-06,2.551e-06,2.0245e-06,-5.9534e-06,1.5168e-06,7.4059e-06,-4.0446e-06,-5.0763e-06,1.2453e-05,2.1558e-06,7.8152e-07,1.6025e-06,4.8083e-06,-1.8487e-05,-5.1097e-06,-1.3863e-05,8.548e-06,-9.0346e-06,-4.289e-07,-8.0576e-06,-6.1254e-06,-7.629e-06,-7.556e-06,-4.9108e-06,1.3949e-05,-3.4073e-07,-9.8806e-06,-1.3923e-06,-1.6671e-06,-1.218e-05,-4.1791e-06,7.4002e-06,-1.0996e-05,-1.3119e-06,-2.7546e-06,1.789e-06,-1.892e-05,-1.5445e-06,-0.11542,-6.4859e-06,-9.4193e-06
-2.0619e-05,-1.468e-05,-4.0975e-05,-6.3544e-05,3.1055e-06,9.1847e-05,-1.4097e-06,1.0944e-05,0.00013665,-2.7423e-05,-2.513e-06,4.648e-05,-6.8154e-06,1.1426e-05,2.6213e-05,-3.9039e-06,-5.7746e-06,-1.0741e-05,5.1515e-05,2.7905e-05,-4.6992e-05,2.4637e-05,-9.9149e-06,4.02e-05,-3.2724e-05,-1.0719e-05,4.7571e-06,2.4369e-05,3.5213e-05,6.5269e-05,-2.5991e-06,7.0896e-06,-2.8285e-05,2.5206e-05,-1.7792e-05,4.3102e-05,-2.0676e-05,6.9832e-07,-0.00014354,-3.0735e-05,8.428e-05,0.00011307,1.0191e-09,7.2248e-06,-3.138e-06,1.2801e-05,9.9038e-06,-7.0362e-06,1.1963e-05,4.234e-05,-7.1191e-06,-2.7569e-05,0.0041586,1.7062e-05,1.2342e-05,9.1573e-06,2.0455e-05,-7.2443e-05,-7.6797e-06,-5.8553e-05,3.707e-05,-2.8464e-05,5.7669e-06,-1.9096e-05,-2.0224e-05,-2.6567e-05,-2.3414e-05,-4.6703e-06,5.6211e-05,2.8291e-06,-3.5911e-05,-7.0228e-08,-7.9905e-06,-9.8989e-06,-1.822e-05,3.3829e-05,-3.3844e-05,-1.9206e-06,-1.5946e-05,8.1857e-06,-7.2614e-05,-1.8477e-07,-0.14942,-1.0497e-05,-2.4854e-05
-7.5747e-05,-8.8328e-05,-0.00014244,-0.0002155,-1.4492e-05,4.5316e-05,-1.1165e-05,4.7028e-05,-8.4892e-05,-4.3313e-05,-1.6464e-05,5.3806e-05,-4.1241e-05,-2.0219e-05,6.8382e-05,-4.2327e-05,-7.8232e-05,-4.3044e-05,7.7998e-05,2.6724e-05,-0.0001097,2.9857e-05,-2.9747e-05,3.7994e-05,-9.1507e-05,-2.4756e-05,1.2356e-05,4.2838e-05,7.3473e-05,4.534e-05,-4.2385e-05,-4.3846e-05,-0.00010918,1.7829e-05,-7.9639e-06,9.8828e-05,-5.9075e-05,-5.5616e-05,-0.00043221,-9.8482e-05,0.00013016,2.309e-05,1.9409e-05,9.0249e-10,-6.2161e-05,3.217e-05,2.8881e-05,-8.3497e-05,-7.6064e-05,-5.6954e-05,-5.6323e-05,-4.1278e-05,-8.8696e-06,6.4598e-06,-2.9787e-06,8.2437e-06,8.2379e-06,-0.00018671,-6.4774e-05,-0.00014434,4.2766e-05,-0.00010929,-7.363e-06,-9.8379e-05,-7.5139e-05,-7.2154e-05,-6.2697e-05,-6.7012e-05,4.4624e-05,-2.7022e-05,-7.9374e-05,-2.5436e-05,-1.0717e-05,-0.00017453,-3.5816e-05,5.2806e-05,-8.2416e-05,-1.1498e-05,-3.0162e-05,1.3357e-05,-0.00020218,-2.7054e-05,-0.14697,-9.0781e-05,-0.00010092
-7.4863e-05,-8.4237e-05,-0.00015825,-0.00038771,-1.7004e-05,2.5309e-05,-2.7889e-06,4.4458e-05,-0.00017785,-5.2148e-05,-2.1306e-05,3.9932e-05,-7.8113e-05,-1.135e-05,5.9886e-05,-4.232e-05,-8.3539e-05,-3.9421e-05,8.7949e-05,4.199e-05,-0.00010679,4.518e-05,-2.9247e-05,1.6645e-05,-0.00010646,-2.3307e-05,1.5102e-05,3.2115e-05,9.5068e-05,3.4671e-05,-4.8458e-05,-7.2851e-05,-0.00011927,5.7914e-06,-1.768e-05,8.1169e-05,-5.1779e-05,-6.3809e-05,-0.0074935,-9.3979e-05,0.00012509,-9.0682e-06,1.9512e-05,-4.5147e-05,1.2923e-09,3.8927e-05,3.1908e-05,-5.662e-05,-0.0001258,-6.9504e-05,-5.5842e-05,-4.4696e-05,-4.3759e-05,9.9447e-06,-8.7993e-07,1.4373e-05,2.4309e-05,-0.0003913,-7.4855e-05,-0.00015061,4.0244e-05,-0.00010626,-2.9878e-06,-0.00013471,-9.0779e-05,-7.3607e-05,-6.7549e-05,-6.4673e-05,3.4605e-05,-2.9569e-05,-8.4711e-05,-1.8905e-05,-1.5868e-05,-0.0002599,-4.2184e-05,4.4486e-05,-0.00012258,-1.7624e-06,-3.1583e-05,1.7413e-05,-0.00042389,-1.4478e-05,-0.17326,-9.5509e-05,-0.00010344
-2.9372e-05,-3.9643e-05,-6.6689e-05,-0.00024801,-1.3307e-05,-1.4888e-05,-2.8697e-06,9.9446e-06,-0.00014655,-1.6562e-05,-1.7521e-05,-8.4594e-06,-5.2497e-05,-1.3716e-05,9.7467e-06,-2.1066e-05,-5.2313e-05,-1.8312e-05,1.3661e-05,4.0166e-08,-3.4853e-05,5.5922e-06,-1.0594e-05,-1.9274e-05,-3.9432e-05,-1.2913e-05,2.5539e-06,-4.3059e-06,1.2933e-05,-4.6865e-06,-3.4305e-05,-4.6546e-05,-5.6026e-05,-1.9806e-05,-6.7289e-07,7.793e-06,-2.2184e-05,-4.3307e-05,-0.14949,-4.513e-05,1.564e-05,-3.9685e-05,-4.3831e-05,-3.4091e-05,-3.3753e-05,8.9635e-10,6.77e-06,-4.4993e-05,-7.705e-05,-5.0867e-05,-3.0711e-05,-1.9695e-05,-4.091e-05,-6.872e-06,-9.3356e-06,-1.068e-06,-5.5634e-06,-0.00023936,-4.3148e-05,-6.0261e-05,5.4846e-06,-4.8194e-05,-1.7288e-06,-6.82e-05,-4.2126e-05,-2.9809e-05,-2.818e-05,-3.1922e-05,-3.4044e-06,-2.0969e-05,-2.7384e-05,-1.6117e-05,-3.2766e-06,-0.00015361,-1.623e-05,-7.7958e-06,-5.3092e-05,-2.9001e-06,-1.1687e-05,2.8641e-06,-0.00027653,-1.1095e-05,-0.16821,-5.2442e-05,-4.7603e-05
-1.2219e-05,-1.6095e-05,-2.7514e-05,-6.5729e-05,-5.4172e-06,-4.1145e-06,-1.0417e-06,4.985e-06,-3.8134e-05,-6.7052e-06,-5.8047e-06,-1.8646e-06,-1.8382e-05,-5.7763e-06,5.1263e-06,-8.2857e-06,-1.9689e-05,-5.7302e-06,6.6434e-06,5.6991e-07,-1.4717e-05,1.9131e-06,-4.4304e-06,-5.8057e-06,-1.6541e-05,-4.7303e-06,1.0844e-06,-1.4224e-06,5.0015e-06,-7.0114e-07,-1.3715e-05,-1.754e-05,-2.2576e-05,-7.8243e-06,-3.5321e-07,4.8527e-06,-9.7255e-06,-1.6467e-05,-0.061527,-1.9123e-05,7.3201e-06,-1.4025e-05,-1.5576e-05,-1.2875e-05,-1.3946e-05,4.1038e-06,1.0747e-09,-1.9357e-05,-2.6402e-05,-1.8616e-05,-1.2267e-05,-7.7396e-06,-1.4654e-05,-2.8042e-06,-3.7117e-06,2.3314e-08,-1.3919e-06,-6.1526e-05,-1.6918e-05,-2.5229e-05,2.174e-06,-1.9204e-05,-2.4927e-06,-2.4599e-05,-1.6144e-05,-1.1879e-05,-1.1635e-05,-1.3558e-05,-5.9574e-07,-8.5822e-06,-1.1715e-05,-6.947e-06,4.1649e-07,-4.8968e-05,-5.0216e-06,-2.4047e-06,-1.9187e-05,-2.4039e-06,-4.8067e-06,2.7167e-06,-6.7284e-05,-3.9037e-06,-0.24074,-2.0389e-05,-1.9528e-05
-8.0301e-05,-9.7061e-05,-0.00017651,-0.00048225,-2.6181e-05,-7.861e-06,-6.5128e-06,2.3861e-05,-0.00023729,-9.2895e-05,-4.508e-05,4.2636e-05,-0.00012957,1.0904e-07,5.3228e-05,-5.1116e-05,-8.5099e-05,-4.7759e-05,0.00010611,5.6779e-05,-0.00013517,7.1958e-05,-3.9825e-05,5.8187e-06,-0.00014011,-3.8359e-05,6.6696e-06,2.9951e-05,0.00011218,1.7431e-05,-6.6098e-05,-9.0015e-05,-0.000153,-1.2093e-06,-4.6489e-05,8.7315e-05,-7.0264e-05,-7.8684e-05,-0.014678,-0.00010569,0.00013644,-1.1168e-05,2.0048e-05,-6.3639e-05,-4.79e-05,3.4499e-05,2.2815e-05,1.4424e-09,-0.0001712,-8.8125e-05,-6.1195e-05,-6.4019e-05,-6.1459e-05,2.3857e-05,1.4733e-05,1.5249e-05,4.3613e-05,-0.00058438,-9.0891e-05,-0.00014733,3.7087e-05,-0.00010985,-2.415e-06,-0.00016679,-0.00010974,-9.4079e-05,-8.8672e-05,-6.3846e-05,2.8737e-05,-3.3611e-05,-0.0001039,-7.7352e-06,-2.7365e-05,-0.00034848,-5.9997e-05,5.1221e-05,-0.00018514,-1.0228e-05,-4.1992e-05,1.4933e-05,-0.00056264,-2.7384e-05,-0.18399,-0.00010141,-0.00011273
-5.5586e-06,-5.1141e-06,-1.1948e-05,-1.5657e-05,-3.0269e-07,1.2599e-05,-3.2206e-07,4.7792e-06,-2.9261e-07,-3.6552e-06,-8.6333e-07,6.6841e-06,-7.6154e-07,-2.8722e-07,7.413e-06,-3.2736e-06,-4.9452e-06,-2.8475e-06,9.7517e-06,3.4527e-06,-9.7143e-06,3.5464e-06,-2.4036e-06,5.5929e-06,-7.0564e-06,-1.3855e-06,2.3495e-06,5.0658e-06,7.2153e-06,7.5049e-06,-4.2044e-06,-1.302e-06,-9.0587e-06,3.1359e-06,-6.793e-07,1.3088e-05,-4.1489e-06,-2.6351e-06,-3.1562e-05,-7.9318e-06,1.4546e-05,9.4371e-06,9.7733e-06,-2.6699e-07,-4.5938e-06,3.3392e-06,3.1981e-06,-6.5526e-06,1.0823e-09,4.916e-08,-3.2012e-06,-3.1853e-06,3.0958e-06,1.5563e-06,5.7531e-07,1.102e-06,1.5975e-06,-1.3255e-05,-4.0065e-06,-1.238e-05,6.9743e-06,-8.2596e-06,-5.1221e-07,-6.3153e-06,-5.9204e-06,-5.7834e-06,-4.2618e-06,-5.248e-06,8.5452e-06,-8.1968e-07,-6.2723e-06,-1.4566e-06,-1.1744e-06,-1.0477e-05,-2.6141e-06,5.119e-06,-7.3878e-06,-3.2552e-07,-1.7183e-06,1.965e-06,-1.3936e-05,-1.1729e-06,-0.15461,-6.0275e-06,-7.9288e-06
-9.6928e-06,-1.0785e-05,-1.6576e-05,-2.972e-05,2.572e-07,1.6805e-05,-5.3091e-07,3.4242e-06,-7.0026e-06,-9.1813e-06,-2.1717e-06,4.8151e-06,-8.4429e-06,-3.1412e-06,3.9352e-06,-1.3476e-06,-9.7317e-06,-5.4267e-06,1.1955e-05,3.0128e-06,-1.1307e-05,4.5146e-06,-3.0505e-06,5.4349e-06,-1.2876e-05,-2.8779e-06,5.6986e-07,4.0797e-06,8.4164e-06,7.4769e-06,-2.6369e-06,-3.8673e-06,-1.1244e-05,4.8432e-06,-2.4927e-06,1.0716e-05,-7.1417e-06,-7.2052e-06,-6.594e-05,-1.0531e-05,1.6723e-05,1.1852e-05,1.4805e-05,-4.1013e-06,-6.5812e-06,3.0679e-06,2.5636e-06,-8.4011e-06,-6.2106e-06,9.9403e-10,-7.8848e-06,-8.5643e-06,9.3065e-06,1.0173e-06,-6.074e-08,8.4365e-07,3.9613e-06,-3.1902e-05,-9.8253e-06,-1.9345e-05,7.2608e-06,-1.3126e-05,-3.6258e-07,-1.4311e-05,-7.6056e-06,-8.6509e-06,-1.1133e-05,-7.4455e-06,1.2874e-05,-3.1427e-06,-1.0371e-05,-4.815e-06,-1.4292e-07,-1.8114e-05,-5.5441e-06,2.7956e-06,-1.4236e-05,-2.2958e-06,-3.5152e-06,2.6379e-06,-2.779e-05,-1.7078e-06,-0.14992,-1.0778e-05,-1.1781e-05
-0.00010524,-0.00013249,-0.0002699,-0.00070529,-4.7566e-05,-2.4373e-05,-1.3643e-05,6.6348e-05,-0.00037818,-7.9953e-05,-6.9966e-05,2.3049e-05,-0.00014901,1.6651e-06,8.9564e-05,-9.864e-05,-0.00014034,-5.2445e-05,0.00010971,6.227e-05,-0.00017272,7.1798e-05,-4.7892e-05,-2.3554e-05,-0.0001593,-4.633e-05,1.943e-05,4.9965e-06,8.1297e-05,4.0049e-06,-0.00013672,-0.00015588,-0.00024443,-6.2083e-05,-3.4125e-05,9.8419e-05,-8.9344e-05,-0.0001115,-0.016389,-0.00020675,0.00013504,-5.4506e-05,-4.386e-05,-0.00010523,-0.00012543,4.0908e-05,3.8876e-05,-0.00014668,-0.00023606,-0.00018173,1.5036e-09,-6.2031e-05,-0.00016387,1.7823e-05,3.3935e-06,3.5191e-05,8.0496e-06,-0.00072449,-0.00011545,-0.00021501,3.9718e-05,-0.00015283,-1.8753e-05,-0.00021966,-0.00017284,-0.00012028,-9.8057e-05,-8.6143e-05,1.4531e-05,-4.0311e-05,-0.00014007,-1.6846e-05,-3.315e-05,-0.00047071,-6.7267e-05,4.7824e-05,-0.00022921,-1.7869e-05,-4.2258e-05,1.678e-05,-0.00092724,-4.4235e-05,-0.20219,-0.00013716,-0.00018516
-1.1824e-05,-1.4574e-05,-2.9032e-05,-5.6425e-05,-5.3141e-06,-1.4339e-06,-7.8347e-07,9.3484e-06,-3.1935e-05,-5.3325e-06,-5.6755e-06,1.1461e-06,-1.3096e-05,-2.9068e-06,1.001e-05,-1.0368e-05,-1.7785e-05,-5.8735e-06,1.0513e-05,4.3905e-06,-1.8091e-05,4.9023e-06,-4.4126e-06,-3.0862e-06,-1.6331e-05,-4.6586e-06,3.0276e-06,1.4056e-06,8.1895e-06,7.9289e-07,-1.4772e-05,-1.612e-05,-2.5125e-05,-5.9229e-06,1.3082e-07,1.0348e-05,-9.4467e-06,-1.2951e-05,-0.0031856,-2.1303e-05,1.2775e-05,-7.9812e-06,-1.2709e-05,-1.012e-05,-1.3509e-05,5.6734e-06,5.2963e-06,-1.846e-05,-2.281e-05,-2.0373e-05,-9.6155e-06,1.1194e-09,-1.6851e-05,-4.4876e-07,-2.0119e-06,2.1269e-06,-7.4303e-07,-4.8981e-05,-1.2737e-05,-2.3982e-05,4.7141e-06,-1.8129e-05,-2.3293e-06,-2.2248e-05,-1.7563e-05,-1.3094e-05,-1.0982e-05,-1.2484e-05,1.6114e-06,-6.0343e-06,-1.3845e-05,-5.0291e-06,-2.0503e-06,-4.5863e-05,-5.8626e-06,2.5145e-06,-1.9162e-05,-1.4003e-06,-3.0759e-06,2.5349e-06,-6.1511e-05,-4.2788e-06,-0.2306,-1.8569e-05,-2.0186e-05
-2.3653e-05,-2.6611e-05,-4.0685e-05,-7.2266e-05,-1.3956e-07,4.4374e-05,-5.4448e-06,5.3188e-06,2.9691e-05,-2.4992e-05,-3.75e-06,1.9579e-05,-2.143e-05,-5.5523e-06,1.0715e-05,-2.2051e-06,-1.8299e-05,-1.8358e-05,3.9218e-05,7.8315e-06,-3.2544e-05,7.5761e-06,-8.8228e-06,1.6325e-05,-3.2261e-05,-7.6146e-06,-4.7283e-06,1.8803e-05,2.7157e-05,3.5058e-05,-5.3123e-07,-7.4297e-06,-2.1447e-05,1.9076e-05,-9.3509e-06,2.1336e-05,-1.6079e-05,-1.3795e-05,-0.00014193,-2.3334e-05,4.9943e-05,3.2852e-05,0.00057663,-4.4962e-06,-1.8123e-05,8.6266e-06,6.3712e-06,-2.3214e-05,-1.4037e-05,1.3909e-05,-2.4387e-05,-2.5454e-05,7.5294e-10,5.5302e-07,-6.687e-07,-2.1503e-06,9.197e-06,-7.949e-05,-2.5003e-05,-4.8317e-05,2.0708e-05,-3.7285e-05,4.7951e-07,-3.0236e-05,-1.2136e-05,-2.347e-05,-2.7106e-05,-1.8772e-05,2.8802e-05,-1.0152e-05,-2.5635e-05,-1.1171e-05,-8.4159e-07,-2.8519e-05,-1.8861e-05,5.9594e-06,-2.8295e-05,-6.5805e-06,-1.357e-05,5.5423e-06,-6.6496e-05,-6.0728e-06,-0.11837,-2.5706e-05,-2.7526e-05
-0.00011067,-0.00014134,-0.00024951,-0.0007066,-2.8376e-05,-2.1392e-05,-1.634e-07,5.4813e-05,-0.00037573,-9.3519e-05,-4.1318e-05,5.5975e-06,-0.0001539,-1.4308e-05,0.00010701,-8.2215e-05,-0.00015241,-6.1323e-05,0.00012255,6.2747e-05,-0.00016876,7.3565e-05,-4.4831e-05,-1.4096e-05,-0.00018313,-5.2246e-05,2.5839e-05,9.1794e-07,8.5389e-05,2.6378e-05,-0.00011795,-0.00015067,-0.00024271,-5.3455e-05,-3.226e-05,9.9386e-05,-9.6033e-05,-0.00011814,-0.025356,-0.00020086,0.00012508,-6.852e-05,-4.8622e-05,-0.00010756,-0.00013094,4.7125e-05,4.0487e-05,-0.00014309,-0.00026544,-0.00015791,-9.0037e-05,-7.9323e-05,-0.00012184,1.3457e-09,5.4296e-05,1.9113e-05,2.639e-05,-0.00076853,-0.00014381,-0.00017745,3.4281e-05,-0.00016046,-1.8856e-05,-0.00023478,-0.0001575,-0.00011885,-0.00010538,-0.00011123,2.7601e-05,-5.1821e-05,-0.00013071,-2.3683e-05,-2.5867e-05,-0.0006387,-6.9534e-05,2.4455e-05,-0.00021776,-1.6059e-05,-3.3236e-05,2.5017e-05,-0.00090019,-3.7036e-05,-0.19569,-0.00016914,-0.00018439
-0.00010825,-0.00014164,-0.00024473,-0.00071817,-2.6255e-05,-2.8177e-05,2.7048e-07,4.8948e-05,-0.00038559,-9.4951e-05,-3.8868e-05,2.7136e-06,-0.00016128,-1.3605e-05,0.00010197,-8.1349e-05,-0.00015168,-5.9704e-05,0.00012049,6.0739e-05,-0.00016234,7.4061e-05,-4.3876e-05,-1.3707e-05,-0.00018088,-5.0579e-05,2.5978e-05,-8.8401e-07,8.536e-05,2.2061e-05,-0.00011727,-0.00015266,-0.00023651,-4.7231e-05,-3.2766e-05,9.5815e-05,-9.4707e-05,-0.00012056,-0.0319,-0.00019501,0.00011858,-7.5673e-05,-5.345e-05,-0.00010842,-0.00013163,4.5771e-05,4.0796e-05,-0.00013796,-0.00026851,-0.00015767,-8.9628e-05,-8.0317e-05,-0.0001121,6.6314e-05,1.3289e-09,1.8926e-05,2.9243e-05,-0.00080325,-0.00014623,-0.00017928,3.2428e-05,-0.00015755,-1.7571e-05,-0.00023274,-0.00015009,-0.00011687,-0.00010571,-0.00011126,2.8049e-05,-5.2466e-05,-0.00012474,-2.1867e-05,-2.2137e-05,-0.00063234,-6.8432e-05,1.9646e-05,-0.00021477,-1.6588e-05,-3.4122e-05,2.5721e-05,-0.00092195,-3.5503e-05,-0.19423,-0.00016604,-0.00017914
-0.0001313,-0.00018078,-0.00031011,-0.0012934,-4.6537e-05,-7.459e-08,-3.6236e-06,9.2297e-05,-0.00067726,-8.4497e-05,-6.2059e-05,2.6113e-06,-0.00021958,-2.0955e-05,0.00010212,-0.00010443,-0.00020247,-5.8418e-05,0.00011983,5.2768e-05,-0.00018847,6.8706e-05,-4.9788e-05,-3.9615e-05,-0.00018824,-5.0924e-05,2.6966e-05,5.307e-06,9.3025e-05,1.5106e-05,-0.00012827,-0.00020099,-0.00027245,-7.091e-05,-1.1227e-05,0.00010398,-9.9671e-05,-0.00017017,-0.10893,-0.00022607,0.00014471,-0.00012201,-0.00013794,-0.00014263,-0.00015297,5.8707e-05,5.356e-05,-0.00019162,-0.00039035,-0.00022002,-9.5146e-05,-7.8295e-05,-0.00020231,6.7082e-06,-7.5991e-06,9.4915e-10,1.0225e-05,-0.0012788,-0.00017139,-0.00027716,4.4145e-05,-0.00020618,-1.5419e-05,-0.0003018,-0.00019066,-0.00013923,-0.00012124,-0.00012576,1.8312e-05,-5.9575e-05,-0.00015037,-4.2872e-05,-1.7882e-05,-0.0010899,-6.7619e-05,3.9556e-05,-0.00025105,-1.5983e-05,-4.5726e-05,3.1484e-05,-0.0016287,-4.3992e-05,-0.22362,-0.00019323,-0.00021568
-1.349e-05,-1.7883e-05,-2.8194e-05,-8.5226e-05,-5.3429e-06,-5.3962e-06,-1.0487e-06,1.0257e-06,-4.3392e-05,-1.4166e-05,-8.8844e-06,7.485e-07,-2.6116e-05,-3.0779e-06,3.3146e-06,-7.3048e-06,-1.8052e-05,-8.3845e-06,9.2685e-06,3.1388e-06,-1.7922e-05,6.4217e-06,-5.311e-06,-4.7165e-06,-2.0402e-05,-6.0172e-06,6.1817e-07,6.3748e-07,8.387e-06,-3.5915e-08,-1.137e-05,-1.8068e-05,-2.4177e-05,-4.6706e-06,-5.7085e-06,8.5057e-06,-1.1387e-05,-1.6549e-05,-0.060506,-2.0518e-05,1.3713e-05,-8.367e-06,-9.9897e-06,-1.5144e-05,-1.4079e-05,3.0151e-06,3.0391e-06,-1.5221e-05,-3.2178e-05,-1.5919e-05,-1.3929e-05,-1.1628e-05,-1.1776e-05,-5.491e-07,-1.4839e-06,-3.5107e-07,1.1714e-09,-0.00010058,-1.9372e-05,-2.6552e-05,2.0886e-06,-1.96e-05,-2.8985e-06,-2.8887e-05,-1.5855e-05,-1.4329e-05,-1.4239e-05,-1.3291e-05,1.7193e-06,-8.374e-06,-1.4597e-05,-5.3754e-06,-2.2868e-06,-6.2537e-05,-9.5269e-06,-9.2825e-07,-3.0384e-05,-3.4357e-06,-6.9421e-06,2.1362e-06,-9.0868e-05,-4.8227e-06,-0.17086,-2.012e-05,-2.0837e-05
-6.0482e-06,-5.572e-06,-1.1248e-05,-6.9498e-06,1.7464e-07,8.281e-06,-4.6524e-07,7.1281e-06,-1.634e-06,-1.3156e-06,1.6903e-06,5.5051e-06,5.3722e-06,-2.9211e-07,9.8916e-06,-5.0943e-06,-5.1112e-06,-2.8114e-06,1.1025e-05,4.3642e-06,-8.8245e-06,2.943e-06,-2.2331e-06,6.4361e-06,-6.2122e-06,-9.2507e-07,2.3521e-06,4.637e-06,7.1183e-06,5.7479e-06,-2.5949e-06,-2.9603e-06,-8.5978e-06,3.4567e-06,8.6044e-07,1.2336e-05,-3.8376e-06,-7.003e-07,-1.6109e-05,-8.0847e-06,1.339e-05,4.3744e-06,2.5926e-06,1.4066e-06,-4.3718e-06,3.2825e-06,3.5009e-06,-7.0579e-06,-1.8846e-06,-4.0732e-06,-2.766e-06,-1.1682e-06,-1.7784e-06,2.61e-06,1.4851e-06,2.1995e-06,6.4925e-07,9.3159e-10,-2.4015e-06,-6.3745e-06,5.1712e-06,-7.8154e-06,-9.075e-07,-5.6418e-06,-5.4206e-06,-5.5585e-06,-4.446e-06,-4.9996e-06,5.2998e-06,7.1078e-08,-6.68e-06,-1.2292e-06,-1.1774e-06,-1.0967e-05,-2.1944e-06,5.5866e-06,-2.7017e-06,-2.5232e-07,-1.2486e-06,1.5688e-06,-6.3254e-06,-1.4159e-06,-0.14959,-5.4115e-06,-7.1903e-06
-6.6615e-05,-6.9325e-05,-0.00016083,-0.00025578,-2.2322e-05,2.6611e-05,-5.6299e-06,7.1094e-05,-0.0001291,-3.8137e-05,-2.5731e-05,3.6418e-05,-5.2839e-05,1.004e-05,7.631e-05,-5.7797e-05,-6.7865e-05,-3.0876e-05,9.3093e-05,6.1117e-05,-0.00011305,5.5576e-05,-2.5836e-05,6.0599e-06,-9.5637e-05,-2.1945e-05,1.8387e-05,2.3847e-05,6.8917e-05,3.1485e-05,-6.0443e-05,-7.193e-05,-0.00013569,-1.3668e-05,-1.2468e-05,9.7749e-05,-5.4543e-05,-4.903e-05,-0.00069003,-0.00012075,0.00011351,-1.9961e-06,1.4764e-05,-3.7644e-05,-6.4449e-05,3.8679e-05,3.495e-05,-8.1307e-05,-9.8881e-05,-8.3557e-05,-3.6552e-05,-2.8163e-05,-5.2583e-05,1.712e-05,5.3103e-06,2.3597e-05,1.5877e-05,-0.00023759,8.7769e-10,-0.00013322,3.9777e-05,-8.9989e-05,-8.3431e-06,-0.00010321,-9.0372e-05,-8.0302e-05,-5.4897e-05,-5.0667e-05,3.789e-05,-1.2506e-05,-8.4645e-05,1.502e-06,-2.032e-05,-0.00018263,-3.5291e-05,5.0407e-05,-0.00011041,-4.7712e-06,-2.293e-05,1.6661e-05,-0.00029222,-1.7019e-05,-0.14907,-7.7892e-05,-0.00010651
-3.927e-06,-4.5607e-06,-7.4103e-06,-1.2377e-05,-1.7342e-06,-2.9682e-06,-6.821e-07,1.1144e-06,-1.1806e-05,-3.3899e-06,-1.8691e-06,-1.1535e-06,-3.847e-06,-6.5271e-07,2.066e-06,-3.8931e-06,-5.0877e-06,-2.3844e-06,3.8141e-06,1.4319e-06,-5.6506e-06,1.7488e-06,-2.1083e-06,-1.8414e-06,-6.0029e-06,-1.9993e-06,-1.288e-07,-7.0857e-07,2.1551e-06,-7.9484e-07,-4.4033e-06,-5.1238e-06,-7.6803e-06,-2.3058e-06,-1.6583e-06,2.0998e-06,-2.9545e-06,-3.6405e-06,-4.7901e-05,-6.8707e-06,2.408e-06,-2.6326e-06,-4.0579e-06,-3.9017e-06,-4.5221e-06,7.5737e-07,5.0656e-07,-4.3093e-06,-8.0588e-06,-6.0421e-06,-3.0714e-06,-2.5696e-06,-4.6487e-06,9.0554e-07,4.3649e-07,-4.1073e-08,1.869e-07,-1.2549e-05,-4.4675e-06,1.3357e-09,1.9846e-07,-4.8482e-06,-1.1299e-06,-6.9648e-06,-4.8457e-06,-4.0408e-06,-3.9852e-06,-3.5289e-06,-1.3126e-06,-2.0312e-06,-4.5942e-06,-9.4359e-07,-1.3826e-06,-1.437e-05,-2.6708e-06,-6.6479e-07,-6.4703e-06,-9.5179e-07,-1.4665e-06,9.0859e-08,-1.5359e-05,-2.0236e-06,-0.30877,-5.131e-06,-5.8839e-06
-6.5341e-06,-7.4006e-06,-1.3089e-05,-2.8005e-05,-2.521e-06,7.3728e-07,-4.3033e-07,2.316e-06,-1.4259e-05,-3.8859e-06,-3.3256e-06,-9.7491e-08,-8.2173e-06,-3.0738e-06,2.4032e-06,-4.1166e-06,-9.3455e-06,-3.8515e-06,3.5166e-06,1.8774e-07,-8.0761e-06,6.8772e-07,-2.6501e-06,-1.6201e-06,-8.3865e-06,-2.6864e-06,3.7986e-07,3.0605e-07,2.8781e-06,8.3995e-07,-6.0825e-06,-7.6443e-06,-1.0562e-05,-1.9662e-06,-5.5499e-07,3.1759e-06,-5.0691e-06,-7.8754e-06,-0.00014899,-9.0102e-06,4.8876e-06,-2.952e-06,-3.1439e-06,-5.5537e-06,-6.7098e-06,2.1263e-06,1.3342e-06,-8.9502e-06,-9.5323e-06,-6.2034e-06,-6.2739e-06,-4.3843e-06,-3.6355e-06,-1.732e-06,-2.3024e-06,-4.0949e-07,-8.6767e-07,-2.6704e-05,-8.369e-06,-1.3603e-05,1.0508e-09,-1.05e-05,-1.2414e-06,-1.171e-05,-7.8922e-06,-6.3818e-06,-6.2239e-06,-6.6627e-06,1.5993e-06,-3.712e-06,-6.2545e-06,-4.1195e-06,-7.1205e-07,-1.9438e-05,-3.583e-06,-8.1248e-07,-9.7122e-06,-1.43e-06,-3.0331e-06,6.9321e-07,-2.8736e-05,-2.2904e-06,-0.28095,-9.8756e-06,-9.5649e-06
-9.9695e-05,-0.00013975,-0.00026139,-0.00074332,-4.1132e-05,-3.3885e-05,-6.2503e-06,6.1262e-05,-0.0004006,-9.003e-05,-6.6339e-05,2.5435e-05,-0.0001659,1.1437e-06,8.35e-05,-8.3658e-05,-0.00013491,-4.7016e-05,0.00012508,7.0204e-05,-0.00017534,8.6428e-05,-3.3996e-05,-2.6398e-05,-0.00017765,-4.8631e-05,2.2819e-05,9.8343e-06,9.4337e-05,1.4873e-05,-0.00012084,-0.00014707,-0.0002338,-5.2403e-05,-3.9409e-05,0.00010036,-9.4226e-05,-0.0001085,-0.019291,-0.00019887,0.00014872,-4.8184e-05,-5.2178e-05,-0.00011134,-0.00012201,4.6781e-05,4.5791e-05,-0.00012853,-0.000257,-0.00017332,-7.1448e-05,-6.4009e-05,-0.00014976,3.1517e-05,1.7513e-05,2.4621e-05,3.6243e-05,-0.00079837,-0.00011796,-0.00019585,3.4675e-05,1.4898e-09,-1.0308e-05,-0.00022371,-0.00015917,-0.00012389,-0.00010486,-9.6871e-05,1.9622e-05,-3.9854e-05,-0.00013481,-6.2458e-06,-2.6609e-05,-0.00052961,-6.7663e-05,4.2972e-05,-0.00024695,-1.0589e-05,-3.2754e-05,2.7222e-05,-0.00091733,-3.8364e-05,-0.20274,-0.00014976,-0.00018562
-1.9199e-05,-2.6582e-05,-4.3408e-05,-0.00015331,-8.5099e-06,-8.2285e-06,-1.895e-06,6.0842e-06,-8.0909e-05,-1.3819e-05,-1.2208e-05,-1.8652e-06,-3.632e-05,-8.5284e-06,6.7376e-06,-1.3424e-05,-3.2485e-05,-1.1812e-05,1.1484e-05,1.6224e-06,-2.6236e-05,5.8977e-06,-6.9271e-06,-1.0087e-05,-2.839e-05,-8.5674e-06,1.4331e-06,-9.2306e-07,1.1105e-05,-1.7177e-06,-2.109e-05,-2.8668e-05,-3.617e-05,-1.0496e-05,-2.063e-06,8.3517e-06,-1.5814e-05,-2.7313e-05,-0.10638,-2.9878e-05,1.5442e-05,-2.0634e-05,-2.026e-05,-2.1553e-05,-2.2046e-05,9.7785e-06,4.6832e-06,-2.6968e-05,-5.0162e-05,-2.9167e-05,-1.9566e-05,-1.4658e-05,-2.1431e-05,-3.6959e-06,-5.3165e-06,1.7755e-07,-1.2258e-06,-0.00016171,-2.9186e-05,-4.1417e-05,4.1423e-06,-3.0764e-05,8.0846e-10,-4.4194e-05,-2.7234e-05,-2.0149e-05,-2.0734e-05,-2.0311e-05,-5.0725e-07,-1.283e-05,-1.9814e-05,-1.0226e-05,-2.6834e-06,-0.00010127,-1.1045e-05,-3.0286e-06,-3.8931e-05,-2.0716e-06,-7.9534e-06,3.2932e-06,-0.00018826,-7.5155e-06,-0.20328,-3.3416e-05,-3.1804e-05
-7.3291e-05,-7.6666e-05,-0.00017891,-0.0002526,-1.7208e-05,4.3029e-05,-1.047e-05,6.3211e-05,-0.00011901,-4.8464e-05,-1.7153e-05,5.9302e-05,-3.7323e-05,-1.3302e-06,9.721e-05,-5.959e-05,-8.7716e-05,-3.7714e-05,0.00010854,5.4252e-05,-0.00013642,5.8527e-05,-3.4871e-05,5.0547e-05,-0.00011202,-2.514e-05,2.3763e-05,4.8274e-05,8.2928e-05,4.712e-05,-6.9249e-05,-4.9412e-05,-0.00016153,2.7293e-05,-1.3255e-05,0.00012483,-5.5884e-05,-5.1112e-05,-0.00064823,-0.00013291,0.00015555,2.5806e-05,4.2505e-05,-2.3863e-05,-7.6001e-05,3.7908e-05,4.2861e-05,-9.6594e-05,-8.1396e-05,-7.9056e-05,-4.7268e-05,-3.8836e-05,-2.2394e-05,2.4669e-05,1.2905e-05,2.2572e-05,2.2373e-05,-0.00025027,-5.5984e-05,-0.00014856,5.6072e-05,-0.00010898,-9.6083e-06,1.3073e-09,-2.0819e-05,-9.1281e-05,-7.4306e-05,-6.6932e-05,5.2703e-05,-2.1006e-05,-9.5769e-05,-6.7232e-06,-1.6449e-05,-0.00021213,-3.8708e-05,6.921e-05,-9.8751e-05,-9.5986e-06,-2.7326e-05,2.3054e-05,-0.00027907,-2.5423e-05,-0.17243,-9.1585e-05,-0.00012196
-8.8944e-05,-0.00010361,-0.00018396,-0.00039957,-4.9303e-06,4.3695e-05,-8.8471e-06,4.7798e-05,-0.00019783,-6.9254e-05,-1.3622e-05,5.2957e-05,-7.965e-05,-2.199e-05,7.8233e-05,-4.1901e-05,-0.00011829,-5.6654e-05,0.00011427,3.4066e-05,-0.00011632,4.9263e-05,-2.8514e-05,4.9564e-05,-0.00012149,-2.6874e-05,2.0562e-05,5.7027e-05,9.2368e-05,4.4177e-05,-4.627e-05,-6.6205e-05,-0.00015033,3.7373e-05,-1.0768e-05,0.00011532,-5.5289e-05,-7.0264e-05,-0.0054037,-0.00012183,0.00015807,-1.3361e-07,-7.4656e-06,-4.6192e-05,-8.3719e-05,3.9119e-05,3.9697e-05,-0.00010448,-0.0001436,-7.0096e-05,-7.4897e-05,-5.9457e-05,-5.071e-06,1.606e-05,8.3075e-06,1.6011e-05,3.7712e-05,-0.00045528,-9.3753e-05,-0.0001574,4.8687e-05,-0.00012758,-7.0993e-06,-6.8282e-05,1.2786e-09,-9.0124e-05,-0.00010175,-8.5234e-05,4.6006e-05,-3.3103e-05,-9.5773e-05,-3.112e-05,-5.0345e-06,-0.00033102,-4.8979e-05,4.6829e-05,-0.00012196,-1.2875e-05,-2.9391e-05,2.6255e-05,-0.00043002,-2.2754e-05,-0.17322,-0.00011087,-0.00012242
-1.101e-05,-1.4402e-05,-2.4635e-05,-5.7652e-05,-4.5751e-06,-2.5208e-06,-7.9408e-07,4.6406e-06,-2.9464e-05,-7.963e-06,-5.6572e-06,-4.6467e-07,-1.629e-05,-4.4787e-06,5.4385e-06,-8.0893e-06,-1.6308e-05,-6.5013e-06,9.4308e-06,2.1007e-06,-1.4342e-05,3.4305e-06,-4.522e-06,-4.3985e-06,-1.5826e-05,-4.896e-06,1.2148e-06,4.586e-07,6.9938e-06,6.8036e-08,-1.0356e-05,-1.4642e-05,-2.0381e-05,-6.2313e-06,-1.7925e-06,6.4066e-06,-8.6953e-06,-1.3799e-05,-0.019456,-1.7278e-05,9.2184e-06,-9.0686e-06,-1.0392e-05,-1.081e-05,-1.218e-05,3.8526e-06,3.4745e-06,-1.5835e-05,-2.2619e-05,-1.5229e-05,-1.0149e-05,-7.7367e-06,-1.2034e-05,-8.6906e-07,-1.945e-06,3.8852e-07,1.1261e-07,-5.5166e-05,-1.5384e-05,-2.1954e-05,2.841e-06,-1.7399e-05,-1.8544e-06,-2.3144e-05,-1.5213e-05,9.4173e-10,-1.1484e-05,-1.1408e-05,7.5897e-07,-6.6562e-06,-1.1676e-05,-5.0769e-06,-1.8214e-06,-4.2721e-05,-6.4349e-06,-4.5335e-07,-1.9412e-05,-1.9707e-06,-3.9455e-06,1.6246e-06,-5.9585e-05,-3.7763e-06,-0.20895,-1.636e-05,-1.7265e-05
-7.4533e-06,-9.5175e-06,-1.8796e-05,-4.2202e-05,-3.1438e-06,-8.4317e-07,5.2563e-07,5.0753e-06,-1.9983e-05,-4.4961e-06,-4.0288e-06,1.0872e-06,-9.8176e-06,-1.5688e-06,6.1614e-06,-6.2865e-06,-1.0395e-05,-3.6794e-06,7.0107e-06,3.1958e-06,-1.1663e-05,3.4555e-06,-3.2694e-06,-1.8346e-06,-1.1138e-05,-3.2614e-06,2.3951e-06,2.8436e-07,5.3379e-06,1.9204e-06,-8.6781e-06,-1.045e-05,-1.5988e-05,-4.2173e-06,-9.7363e-07,7.0851e-06,-6.0824e-06,-8.5832e-06,-0.0048909,-1.3461e-05,8.6182e-06,-5.3183e-06,-4.978e-06,-6.4355e-06,-8.4109e-06,3.5456e-06,3.0407e-06,-1.1215e-05,-1.3705e-05,-1.3088e-05,-5.9386e-06,-4.521e-06,-9.0332e-06,5.519e-07,-4.5101e-07,1.3565e-06,5.0918e-07,-3.9794e-05,-8.427e-06,-1.6331e-05,2.8638e-06,-1.1644e-05,-1.5675e-06,-1.514e-05,-1.2464e-05,-8.7011e-06,1.1231e-09,-7.5545e-06,1.5301e-06,-3.5001e-06,-7.7897e-06,-2.1456e-06,-1.5082e-06,-2.3286e-05,-4.1902e-06,2.024e-06,-1.3533e-05,-9.2667e-07,-2.9894e-06,1.4481e-06,-4.8607e-05,-2.7075e-06,-0.22337,-1.173e-05,-1.3004e-05
-0.00012873,-0.00015702,-0.00031292,-0.0010088,-5.7741e-05,-3.0802e-05,-1.7566e-05,6.2192e-05,-0.00045738,-0.00010779,-8.7924e-05,2.5793e-05,-0.00021864,-9.6002e-06,7.7807e-05,-0.00010236,-0.00017473,-6.3361e-05,0.00010933,6.6672e-05,-0.00021214,8.754e-05,-5.5595e-05,-4.2244e-05,-0.00020826,-6.0962e-05,1.5675e-05,7.9038e-06,9.5438e-05,6.649e-06,-0.00015127,-0.00018421,-0.0002786,-7.4475e-05,-4.274e-05,9.6295e-05,-0.00011036,-0.00013909,-0.054323,-0.00023751,0.00016117,-7.3952e-05,-3.5577e-05,-0.00013144,-0.00014569,5.2177e-05,4.0032e-05,-0.00015735,-0.00033619,-0.00019548,-8.5505e-05,-8.8484e-05,-0.00014288,1.1609e-05,-6.1456e-06,2.4453e-05,2.7533e-05,-0.0011257,-0.00014632,-0.00025629,4.5589e-05,-0.00019296,-1.6655e-05,-0.00027903,-0.00019882,-0.00014383,-0.00012809,1.2791e-09,1.6133e-05,-5.4665e-05,-0.00015742,-2.1746e-05,-3.7289e-05,-0.00064332,-8.0342e-05,5.0601e-05,-0.00029173,-2.2688e-05,-5.2363e-05,1.964e-05,-0.0014039,-5.2192e-05,-0.238,-0.00017007,-0.00022234
-8.8193e-05,-9.8263e-05,-0.00017898,-0.00032692,-8.5232e-06,0.00011736,6.7606e-06,5.5805e-05,-0.00010239,-5.8162e-05,-1.7156e-05,4.9344e-05,-7.4272e-05,-2.7849e-05,6.5802e-05,-3.2957e-05,-0.0001066,-4.2719e-05,9.8134e-05,3.2035e-05,-0.0001085,4.021e-05,-2.7841e-05,5.5341e-05,-0.00011273,-1.94e-05,2.246e-05,4.8517e-05,8.0289e-05,6.1911e-05,-4.7778e-05,-5.4103e-05,-0.00012716,3.0952e-05,4.0069e-07,0.00011079,-6.3685e-05,-7.7995e-05,-0.00094053,-0.00010891,0.00015492,5.7748e-05,5.2601e-05,-3.9062e-05,-7.6645e-05,4.7358e-05,4.0532e-05,-0.00010679,-7.1991e-05,-1.0197e-07,-7.5402e-05,-5.7769e-05,2.1054e-05,8.7589e-06,1.8342e-08,1.2411e-05,2.6461e-05,-0.00029307,-8.7452e-05,-0.00021203,7.317e-05,-0.00013245,-2.9959e-06,-0.0001369,-9.1333e-05,-8.1772e-05,-7.9863e-05,-8.3212e-05,1.1969e-09,-3.2573e-05,-8.6468e-05,-3.9136e-05,3.0556e-07,-0.00022963,-4.2385e-05,2.8283e-05,-0.00011628,-1.1275e-05,-3.075e-05,2.5987e-05,-0.00030201,-1.3496e-05,-0.16343,-0.00011837,-0.00012611
-4.4299e-05,-5.3514e-05,-9.9644e-05,-0.00019839,-1.8518e-05,-3.384e-06,-5.4037e-06,2.4163e-05,-0.00011397,-3.3876e-05,-2.4892e-05,3.554e-06,-5.9502e-05,-8.5982e-06,2.3427e-05,-3.7929e-05,-6.1441e-05,-2.4171e-05,4.134e-05,1.8712e-05,-6.4661e-05,2.1066e-05,-1.8647e-05,-1.6852e-05,-6.4866e-05,-1.9777e-05,4.6682e-06,1.6057e-06,2.4956e-05,2.781e-06,-4.3346e-05,-6.2442e-05,-8.486e-05,-2.0036e-05,-1.0046e-05,3.1924e-05,-3.8576e-05,-4.7913e-05,-0.00062036,-7.5473e-05,4.4055e-05,-2.2429e-05,-2.5294e-05,-4.092e-05,-5.0004e-05,1.4935e-05,1.1456e-05,-6.0197e-05,-8.2781e-05,-5.7243e-05,-3.493e-05,-2.9289e-05,-4.574e-05,-5.7489e-07,-5.5553e-06,6.3842e-06,2.6428e-06,-0.00018759,-4.9264e-05,-8.6738e-05,1.587e-05,-6.421e-05,-7.5987e-06,-8.5246e-05,-6.0995e-05,-4.7557e-05,-4.1114e-05,-4.1062e-05,6.3604e-06,1.2822e-09,-4.9704e-05,-1.4191e-05,-1.0623e-05,-0.00014947,-2.5822e-05,5.2733e-06,-8.135e-05,-9.1832e-06,-1.8566e-05,6.0624e-06,-0.00021608,-1.9785e-05,-0.21431,-6.2643e-05,-6.9497e-05
-1.8144e-05,-2.412e-05,-3.9238e-05,-0.00014647,-8.5067e-06,-8.0234e-06,-1.0039e-06,5.4169e-06,-7.4283e-05,-1.2178e-05,-1.0314e-05,-2.8432e-06,-3.1645e-05,-7.7114e-06,6.6594e-06,-1.3909e-05,-2.804e-05,-1.0394e-05,1.0847e-05,1.2743e-06,-2.2783e-05,4.818e-06,-7.5596e-06,-9.0324e-06,-2.4418e-05,-7.4727e-06,2.087e-06,-2.4088e-06,7.8676e-06,-1.5746e-06,-2.076e-05,-2.6405e-05,-3.5776e-05,-9.2945e-06,-1.758e-06,7.1259e-06,-1.434e-05,-2.4795e-05,-0.1538,-2.7983e-05,1.1994e-05,-2.1402e-05,-2.6006e-05,-1.9348e-05,-2.1057e-05,5.7657e-06,4.1441e-06,-2.6377e-05,-4.2111e-05,-2.9704e-05,-1.8348e-05,-1.2723e-05,-2.3831e-05,-3.1905e-06,-4.3485e-06,-1.1999e-06,-1.1067e-06,-0.00013668,-2.5412e-05,-3.695e-05,3.1321e-06,-2.8466e-05,-3.6159e-06,-3.8379e-05,-2.4359e-05,-1.8171e-05,-1.5803e-05,-1.9274e-05,-8.5406e-07,-1.1692e-05,7.961e-10,-8.4874e-06,-2.5426e-06,-8.1894e-05,-1.0091e-05,-3.0222e-06,-3.3581e-05,-3.9711e-06,-7.7569e-06,2.1814e-06,-0.00014704,-6.7834e-06,-0.2111,-3.102e-05,-2.842e-05
-7.5153e-06,-9.2971e-06,-1.8598e-05,-4.6491e-05,-3.7171e-06,-3.6272e-06,-6.5496e-07,4.3843e-06,-2.2631e-05,-7.0166e-06,-4.811e-06,8.2229e-07,-1.2115e-05,4.967e-07,5.7538e-06,-7.0391e-06,-9.73e-06,-3.4134e-06,8.6133e-06,5.4318e-06,-1.3e-05,6.8856e-06,-3.4695e-06,-2.3372e-06,-1.2747e-05,-3.1819e-06,1.2411e-06,5.3504e-07,5.9065e-06,7.9086e-07,-9.6455e-06,-1.1214e-05,-1.7045e-05,-4.594e-06,-3.4547e-06,7.2701e-06,-6.5874e-06,-8.2584e-06,-0.0082639,-1.4657e-05,9.448e-06,-4.1288e-06,-3.5832e-06,-7.5934e-06,-8.971e-06,3.4604e-06,2.8068e-06,-9.7021e-06,-1.6923e-05,-1.3097e-05,-5.7008e-06,-5.6919e-06,-8.5047e-06,1.6497e-06,7.8661e-07,1.5578e-06,1.9558e-06,-4.7161e-05,-8.0098e-06,-1.4835e-05,2.0453e-06,-1.0822e-05,-1.3238e-06,-1.518e-05,-1.225e-05,-9.075e-06,-7.3098e-06,-6.8399e-06,1.099e-06,-3.204e-06,-9.4967e-06,1.262e-09,-2.296e-06,-2.9416e-05,-4.6723e-06,2.5063e-06,-1.7517e-05,-1.193e-06,-3.5521e-06,1.9258e-06,-5.7184e-05,-3.2358e-06,-0.22274,-1.0741e-05,-1.31e-05
-1.2614e-05,-1.7267e-05,-2.6323e-05,-6.884e-05,-5.3756e-06,-3.9936e-06,-1.2822e-06,3.768e-06,-4.3526e-05,-7.559e-06,-5.7454e-06,-2.3104e-06,-1.9296e-05,-6.907e-06,3.6231e-06,-7.3935e-06,-2.0842e-05,-6.2325e-06,7.1083e-06,-6.894e-07,-1.385e-05,1.1056e-06,-4.4357e-06,-5.7636e-06,-1.6487e-05,-5.2926e-06,6.6224e-07,-1.3726e-06,4.3933e-06,-1.1553e-06,-1.2766e-05,-1.7739e-05,-2.1131e-05,-6.2743e-06,-5.9996e-07,3.5503e-06,-9.3034e-06,-1.7204e-05,-0.19288,-1.81e-05,6.9315e-06,-1.2885e-05,-1.5843e-05,-1.2919e-05,-1.4602e-05,3.7699e-06,4.208e-06,-1.9187e-05,-2.7653e-05,-1.5986e-05,-1.3147e-05,-8.7744e-06,-1.2502e-05,-3.4507e-06,-4.1579e-06,-5.593e-07,-1.4192e-06,-6.6866e-05,-1.8568e-05,-2.5568e-05,2.1911e-06,-1.9781e-05,-2.5476e-06,-2.5504e-05,-1.511e-05,-1.2365e-05,-1.2386e-05,-1.3924e-05,-4.9335e-07,-8.9859e-06,-1.148e-05,-7.7394e-06,9.3636e-10,-5.1412e-05,-5.4497e-06,-3.4252e-06,-1.8951e-05,-2.8338e-06,-5.4066e-06,2.484e-06,-6.8989e-05,-4.0855e-06,-0.24433,-2.0926e-05,-1.9231e-05
-0.00013491,-0.00014469,-0.00030091,-0.00040978,-2.0657e-05,0.00013763,-3.4763e-05,0.00010685,-0.00010648,-9.6373e-05,-5.0287e-05,0.00015795,-6.6727e-05,9.5853e-06,0.00014101,-8.6017e-05,-0.00012442,-8.7831e-05,0.00020462,0.00011046,-0.00023312,0.00010078,-7.1029e-05,8.94e-05,-0.00017948,-4.6081e-05,3.0497e-05,0.00015961,0.00017501,0.00015297,-3.2427e-05,-5.6807e-05,-0.00018024,4.2202e-05,-4.4599e-05,0.00026933,-0.00010092,-8.0199e-05,-0.00074301,-0.00019572,0.00037751,0.00011495,0.00028,-3.0228e-05,-0.00010797,6.6903e-05,5.6602e-05,-0.00015446,-8.1323e-05,-3.4096e-05,-6.9713e-05,-0.00010683,0.00012777,5.7587e-06,-1.2912e-05,-1.6551e-05,2.3403e-05,-0.00038406,-7.2469e-05,-0.00030271,0.00012519,-0.00019989,-2.6887e-05,-0.00018072,-0.00015546,-0.00016082,-7.6935e-05,-0.00011322,0.00011461,-2.1563e-05,-0.00015445,-1.8815e-05,-4.7677e-05,1.174e-09,-8.2141e-05,0.00011385,-0.00019788,-3.3962e-06,-4.8862e-05,3.5137e-05,-0.0003878,-4.2567e-05,-0.10533,-0.00012896,-0.00017685
-5.632e-06,-7.2851e-06,-1.2995e-05,-2.9552e-05,-2.7818e-06,-1.9046e-06,-5.9443e-07,2.4103e-06,-1.8436e-05,-3.3098e-06,-2.9303e-06,-5.4384e-07,-8.4483e-06,-2.4508e-06,2.5104e-06,-4.1032e-06,-8.9451e-06,-2.6888e-06,3.3863e-06,3.4808e-07,-7.1576e-06,1.266e-06,-2.2381e-06,-2.4915e-06,-7.8456e-06,-2.5062e-06,4.5905e-07,-3.3567e-07,2.3579e-06,-5.0228e-07,-6.3732e-06,-7.9901e-06,-1.0664e-05,-3.2808e-06,-4.2211e-07,2.6898e-06,-4.4099e-06,-7.3e-06,-0.012655,-9.2599e-06,3.7837e-06,-5.5364e-06,-7.1905e-06,-5.7415e-06,-6.6822e-06,1.7887e-06,2.0795e-06,-8.8231e-06,-1.1889e-05,-8.7498e-06,-5.5216e-06,-3.5552e-06,-8.1515e-06,-1.206e-06,-1.6986e-06,1.1812e-07,-9.2843e-07,-2.7783e-05,-7.5702e-06,-1.1787e-05,1.0055e-06,-8.9726e-06,-1.1119e-06,-1.1217e-05,-7.8755e-06,-5.8786e-06,-5.4378e-06,-6.0135e-06,-3.3008e-07,-3.6637e-06,-5.6934e-06,-2.794e-06,-2.006e-07,-2.2221e-05,1.1068e-09,-3.826e-07,-9.0555e-06,-1.1554e-06,-2.1745e-06,1.9354e-06,-3.1485e-05,-2.2058e-06,-0.25282,-9.1662e-06,-9.2169e-06
-9.6386e-05,-0.00011332,-0.00021835,-0.00040197,-2.9821e-05,5.8183e-05,-1.5101e-05,7.0694e-05,-0.00015874,-6.7918e-05,-2.6004e-05,7.2161e-05,-7.0875e-05,-9.1237e-06,0.00010782,-6.0312e-05,-8.7289e-05,-4.9379e-05,0.00013739,4.9962e-05,-0.00015877,6.4755e-05,-4.4093e-05,3.0217e-05,-0.00013679,-3.4446e-05,1.9878e-05,5.6876e-05,0.00012495,4.4393e-05,-4.3011e-05,-8.5416e-05,-0.00016023,-6.3883e-06,-2.1219e-05,0.00014779,-6.5141e-05,-6.5611e-05,-0.0016245,-0.00014857,0.0001859,1.3676e-05,1.713e-05,-2.6255e-05,-8.0098e-05,4.4321e-05,4.3732e-05,-0.00010517,-0.00014381,-0.00011279,-6.0966e-05,-5.5607e-05,-7.4354e-05,1.5275e-05,-9.7638e-07,3.6158e-05,2.0459e-05,-0.00040517,-8.4787e-05,-0.00023074,5.3705e-05,-0.00014411,-1.292e-05,-0.00014915,-0.00011626,-0.00010928,-8.5878e-05,-7.721e-05,4.4957e-05,-3.228e-05,-0.00012243,-2.1138e-05,-2.4646e-05,-0.00031211,-4.492e-05,1.4378e-09,-0.00012611,-1.2053e-05,-5.0814e-05,2.6271e-05,-0.00039743,-3.5742e-05,-0.18415,-0.00011222,-0.00013958
-0.00017887,-0.00020075,-0.00035124,-0.00058906,-3.952e-05,0.00011125,-2.1249e-05,0.00014725,-0.00027985,-5.0967e-05,2.3106e-05,5.4976e-05,-5.8902e-05,-6.136e-05,0.00022123,-0.00012545,-0.0002478,-9.5049e-05,0.00025121,7.3602e-05,-0.00022125,6.9339e-05,-6.3907e-05,3.7946e-05,-0.0002117,-4.7247e-05,3.8857e-05,7.5724e-05,0.00016009,8.014e-05,-0.00011757,-0.00018692,-0.00029242,1.972e-06,2.5805e-05,0.00019206,-0.00010741,-0.00013799,-0.0020623,-0.00026948,0.00025696,-6.722e-05,-6.4024e-05,-6.2734e-05,-0.00017178,8.613e-05,9.3126e-05,-0.00026374,-0.00026295,-0.00021521,-0.00014555,-8.0013e-05,-0.00010043,1.9466e-05,-5.6351e-07,3.8167e-05,-1.8136e-05,-0.00049917,-0.00017169,-0.00030448,9.9394e-05,-0.00028538,-3.4824e-05,-0.00024774,-0.00017922,-0.00016998,-0.00015476,-0.00018354,7.4705e-05,-7.4351e-05,-0.00019184,-8.5063e-05,-2.8833e-06,-0.00059748,-6.6197e-05,0.00011211,1.3139e-09,-2.6609e-05,-5.9619e-05,4.3553e-05,-0.00058289,-5.044e-05,-0.22479,-0.00024794,-0.00025716
-2.3721e-05,-3.1549e-05,-5.4481e-05,-0.00017403,-1.0986e-05,-1.2858e-05,-2.7621e-06,8.7657e-06,-0.0001009,-1.5348e-05,-1.4365e-05,-4.514e-06,-4.0641e-05,-9.7068e-06,9.1018e-06,-1.7785e-05,-3.9912e-05,-1.389e-05,1.3058e-05,2.685e-06,-3.0926e-05,6.9262e-06,-9.3392e-06,-1.3615e-05,-3.3682e-05,-1.0982e-05,2.579e-06,-2.0652e-06,1.1792e-05,-2.6798e-06,-2.7636e-05,-3.7242e-05,-4.6236e-05,-1.5649e-05,-2.9747e-06,9.3488e-06,-1.8676e-05,-3.2675e-05,-0.079548,-3.8115e-05,1.5705e-05,-2.7244e-05,-3.0312e-05,-2.7285e-05,-2.6385e-05,1.0854e-05,6.1828e-06,-3.4758e-05,-5.8528e-05,-4.0872e-05,-2.3484e-05,-1.5917e-05,-3.3859e-05,-4.0334e-06,-6.2649e-06,9.5102e-08,-2.1159e-06,-0.00017274,-3.3903e-05,-4.8001e-05,4.5591e-06,-3.7254e-05,-2.3027e-06,-5.3166e-05,-3.4817e-05,-2.4269e-05,-2.296e-05,-2.5659e-05,-2.7662e-06,-1.6043e-05,-2.4246e-05,-1.1832e-05,-3.5102e-06,-0.00010627,-1.3221e-05,-3.7492e-06,-4.5937e-05,1.0987e-09,-9.3928e-06,3.3666e-06,-0.00020451,-8.9903e-06,-0.18835,-4.0132e-05,-3.8625e-05
-2.0921e-05,-2.9349e-05,-4.9296e-05,-0.00011731,-9.5944e-06,-1.056e-05,-1.4962e-06,9.0032e-06,-7.6466e-05,-1.339e-05,-1.3399e-05,-4.1397e-06,-3.3787e-05,-9.253e-06,9.3061e-06,-1.5668e-05,-3.5011e-05,-1.2659e-05,1.2315e-05,3.2895e-06,-2.8579e-05,5.6366e-06,-6.6984e-06,-1.1255e-05,-3.084e-05,-9.9177e-06,2.7863e-06,-1.9438e-06,9.4294e-06,-1.7727e-06,-2.5193e-05,-3.1361e-05,-4.215e-05,-1.4722e-05,-1.3637e-06,1.0088e-05,-1.7998e-05,-2.8637e-05,-0.039484,-3.5986e-05,1.3504e-05,-2.22e-05,-3.0935e-05,-2.4899e-05,-2.7601e-05,7.4802e-06,5.7869e-06,-3.4898e-05,-4.855e-05,-3.3425e-05,-2.1465e-05,-1.2934e-05,-3.1068e-05,-2.486e-06,-4.623e-06,1.0882e-07,-2.9277e-06,-0.00011271,-3.0599e-05,-4.2023e-05,3.0346e-06,-3.3371e-05,-4.1205e-06,-4.6253e-05,-3.0786e-05,-2.1624e-05,-2.1922e-05,-2.3741e-05,-2.0751e-06,-1.451e-05,-2.2932e-05,-1.1892e-05,-3.5724e-06,-8.6532e-05,-1.1634e-05,-5.8819e-06,-4.0214e-05,-4.2176e-06,1.0858e-09,3.4086e-06,-0.00012626,-9.0147e-06,-0.22792,-3.6572e-05,-3.5926e-05
-9.6992e-06,-1.297e-05,-2.101e-05,-5.2394e-05,-4.3342e-06,-3.8418e-06,-9.913e-07,2.7221e-06,-3.2475e-05,-6.5364e-06,-5.3168e-06,-1.8031e-06,-1.5549e-05,-4.7441e-06,2.9277e-06,-6.1091e-06,-1.5502e-05,-5.2183e-06,5.8073e-06,-7.5755e-08,-1.1441e-05,1.7132e-06,-3.509e-06,-4.8707e-06,-1.3623e-05,-4.2417e-06,4.2466e-07,-1.0728e-06,3.7111e-06,-6.5958e-07,-1.0235e-05,-1.3772e-05,-1.6995e-05,-5.7897e-06,-1.1005e-06,3.0595e-06,-7.4644e-06,-1.3016e-05,-0.10971,-1.4885e-05,5.5864e-06,-1.01e-05,-1.1545e-05,-1.0791e-05,-1.1322e-05,2.642e-06,2.8112e-06,-1.4618e-05,-2.1168e-05,-1.3279e-05,-1.0095e-05,-6.8936e-06,-1.0698e-05,-2.2648e-06,-2.961e-06,-3.4557e-07,-9.0244e-07,-5.2073e-05,-1.414e-05,-1.9714e-05,1.4382e-06,-1.52e-05,-1.8051e-06,-2.0061e-05,-1.2632e-05,-9.8993e-06,-9.7811e-06,-1.0782e-05,-8.653e-07,-6.8514e-06,-9.3484e-06,-5.2925e-06,-3.367e-07,-3.806e-05,-3.3869e-06,-2.1461e-06,-1.6552e-05,-2.1647e-06,-3.964e-06,1.0513e-09,-5.4604e-05,-3.6427e-06,-0.22761,-1.6004e-05,-1.5301e-05
-9.7558e-06,-9.7691e-06,-1.5678e-05,-1.2969e-05,1.7735e-07,1.3156e-05,-1.0087e-06,7.5002e-06,-4.2164e-06,-4.7747e-06,2.104e-06,7.7564e-06,4.1761e-06,-1.17e-06,1.2509e-05,-4.5197e-06,-7.5051e-06,-5.2691e-06,1.8505e-05,5.6034e-06,-1.2652e-05,3.9665e-06,-3.3452e-06,1.0378e-05,-1.0161e-05,-1.3931e-06,2.2906e-06,8.5503e-06,1.1991e-05,9.1182e-06,-1.6563e-06,-2.0585e-06,-1.2361e-05,8.0196e-06,-2.6756e-07,1.7597e-05,-5.6673e-06,-2.0728e-06,-2.6273e-05,-1.0908e-05,2.1052e-05,7.014e-06,4.7338e-06,1.6147e-06,-6.5544e-06,4.6927e-06,4.938e-06,-9.0631e-06,-2.8802e-06,-2.8695e-06,-6.0403e-06,-4.1036e-06,1.2454e-06,3.2352e-06,1.8173e-06,2.1798e-06,3.2634e-06,-8.9078e-06,-6.224e-06,-1.2581e-05,7.5319e-06,-1.2447e-05,-1.7584e-06,-9.3813e-06,-6.3938e-06,-8.5529e-06,-8.2684e-06,-8.8725e-06,8.5415e-06,-1.3045e-06,-9.6857e-06,-3.1668e-06,-1.1683e-06,-1.5859e-05,-4.2346e-06,9.8519e-06,-5.2665e-06,-1.071e-06,-2.5903e-06,2.7172e-06,1.1589e-09,-1.8888e-06,-0.10715,-8.6518e-06,-1.0373e-05
-5.7014e-06,-7.0108e-06,-1.1544e-05,-2.8528e-05,-2.2551e-06,-1.5304e-06,-4.7043e-07,1.8369e-06,-1.6074e-05,-3.8504e-06,-2.872e-06,-5.7174e-07,-8.4582e-06,-2.4741e-06,2.073e-06,-2.6663e-06,-8.393e-06,-3.0132e-06,3.6307e-06,4.2141e-07,-7.006e-06,1.2525e-06,-2.1323e-06,-2.3322e-06,-7.8835e-06,-2.3342e-06,6.1639e-07,-5.5724e-07,2.7629e-06,-1.2686e-07,-5.3818e-06,-7.6334e-06,-9.6231e-06,-3.0979e-06,-7.6213e-07,1.9152e-06,-3.9046e-06,-7.0084e-06,-0.00049609,-8.3746e-06,3.6396e-06,-4.9189e-06,-5.0759e-06,-6.0963e-06,-5.7752e-06,1.8795e-06,1.6913e-06,-7.7851e-06,-1.1581e-05,-7.2158e-06,-5.4906e-06,-3.8559e-06,-5.8727e-06,-8.989e-07,-1.3314e-06,-3.1056e-08,-7.0833e-08,-2.8395e-05,-7.3251e-06,-1.1621e-05,1.2459e-06,-8.5917e-06,-9.9624e-07,-1.1452e-05,-7.3107e-06,-5.3827e-06,-5.3988e-06,-5.8994e-06,2.3811e-07,-3.8542e-06,-5.3959e-06,-2.9533e-06,-3.7664e-07,-2.1156e-05,-3.0261e-06,-1.003e-06,-9.6653e-06,-1.0538e-06,-2.3522e-06,8.8233e-07,-2.9778e-05,1.1046e-09,-0.22967,-8.5194e-06,-8.678e-06
8.8322e-07,-3.7402e-06,-1.316e-06,-7.8838e-06,9.9029e-07,1.4297e-06,8.4327e-07,1.1885e-06,-1.1075e-05,-1.9399e-06,1.3281e-06,4.7034e-05,6.291e-06,-3.0279e-06,2.8e-06,8.5197e-07,-1.7244e-06,-6.4145e-06,5.0049e-06,7.6988e-07,-4.4977e-06,2.0988e-06,-2.2761e-07,2.7144,3.418e-06,-1.0496e-07,-4.9242e-07,2.6784e-05,6.5698e-05,0.0006232,1.8998e-06,8.2858e-06,3.2207e-06,2.1591,-1.3973e-07,4.7449e-05,3.9227e-06,5.3185e-06,3.1873e-06,-1.2021e-06,0.00059796,3.7088e-05,-1.2751e-06,6.4776e-06,1.8932e-06,1.6104e-05,-1.0839e-06,-9.0639e-07,-2.3654e-06,1.3527e-06,-6.2649e-07,-2.9496e-06,2.5379e-05,3.1708e-06,3.1094e-06,3.1962e-07,7.9948e-06,-5.1663e-06,6.9639e-06,-3.5063e-05,-8.0112e-06,-2.9235e-06,1.5638e-06,-2.0275e-06,5.5933e-07,-1.6344e-06,-3.6079e-06,-6.3441e-06,5.6343e-06,-2.1572e-06,-1.7191e-06,-1.6939e-06,-2.8368e-06,2.2483e-05,-5.5808e-06,2.4031e-06,-1.0411e-05,4.7295e-06,-1.7086e-06,4.0588e-08,6.0884e-06,-2.4994e-06,1.0423e-09,-1.1043e-06,7.7688e-08
-9.2985e-05,-0.00010186,-0.00019957,-0.0004047,-2.2484e-05,2.6974e-05,-5.4624e-06,5.8321e-05,-0.00020061,-7.943e-05,-4.103e-05,4.6914e-05,-8.7077e-05,8.467e-06,8.6712e-05,-6.2997e-05,-9.0636e-05,-4.3301e-05,0.00013128,6.7037e-05,-0.00015107,7.502e-05,-4.1662e-05,1.4511e-05,-0.00014104,-3.3939e-05,2.2534e-05,3.8332e-05,9.6924e-05,3.0579e-05,-6.3106e-05,-8.9517e-05,-0.00016611,-1.3532e-05,-3.6205e-05,0.00010617,-6.8511e-05,-6.4516e-05,-0.0021111,-0.0001523,0.00015047,7.3078e-06,3.6114e-05,-5.9316e-05,-8.6496e-05,3.9342e-05,3.8871e-05,-9.4577e-05,-0.00014512,-0.00010143,-4.1141e-05,-5.6831e-05,-5.369e-05,2.9049e-05,1.6677e-05,3.8953e-05,3.6905e-05,-0.00041942,-7.6333e-05,-0.00016746,5.0243e-05,-0.00012087,-1.1778e-05,-0.00015597,-0.00011252,-9.1567e-05,-8.9032e-05,-6.0226e-05,3.9963e-05,-2.1288e-05,-0.00012329,-1.9491e-06,-2.6465e-05,-0.000289,-5.3952e-05,7.1848e-05,-0.00016907,-1.0691e-05,-3.4547e-05,2.3176e-05,-0.00046588,-2.3036e-05,-0.18315,1.4257e-09,-0.00013211
-7.588e-05,-0.00010226,-0.00017163,-0.00042626,-1.5768e-05,2.5734e-05,-4.0613e-06,4.733e-05,-0.00019928,-5.8779e-05,-2.5287e-05,4.1703e-05,-9.3472e-05,-9.1388e-06,6.2157e-05,-4.7807e-05,-9.0714e-05,-4.4585e-05,0.00010505,4.2303e-05,-0.00011442,5.3235e-05,-3.0045e-05,1.6923e-05,-0.00011765,-2.8167e-05,1.7083e-05,4.0949e-05,8.6802e-05,3.1265e-05,-5.0429e-05,-8.0417e-05,-0.00012613,-2.4785e-06,-1.1867e-05,0.00010225,-6.1562e-05,-7.3846e-05,-0.0059245,-0.00010697,0.00013548,-1.8826e-05,-3.8328e-06,-5.5343e-05,-7.2949e-05,4.0301e-05,3.3526e-05,-8.2252e-05,-0.00014476,-8.9221e-05,-6.1144e-05,-5.2965e-05,-4.6507e-05,1.5675e-05,6.7697e-06,1.9734e-05,2.4424e-05,-0.00042134,-8.786e-05,-0.00015603,4.2002e-05,-0.00011898,-6.0984e-06,-0.00015272,-9.5318e-05,-8.068e-05,-8.1272e-05,-7.4884e-05,2.9995e-05,-2.9024e-05,-8.968e-05,-1.8691e-05,-1.3085e-05,-0.00028508,-4.6442e-05,4.3677e-05,-0.00013723,-6.5222e-06,-2.8007e-05,2.1192e-05,-0.00044078,-2.336e-05,-0.17659,-0.00010162,1.3381e-09
