1.3124e-09,-1.4836e-05,-2.7304e-05,-6.3975e-05,-5.3158e-06,-6.6085e-06,-8.8663e-07,4.6697e-06,-3.9542e-05,-8.3104e-06,-7.8769e-06,-5.5678e-07,-1.9654e-05,-3.1245e-06,5.4001e-06,-7.9226e-06,-1.6871e-05,-6.0538e-06,8.0935e-06,2.6598e-06,-1.6905e-05,5.1165e-06,-4.3586e-06,-5.6229e-06,-1.7382e-05,-5.912e-06,1.456e-06,-8.8583e-07,5.1662e-06,-1.5736e-06,-1.3402e-05,-1.6938e-05,-2.3986e-05,-7.037e-06,-2.4365e-06,6.349e-06,-1.0306e-05,-1.4906e-05,-0.026302,-2.0478e-05,9.6898e-06,-1.0893e-05,-1.1087e-05,-1.331e-05,-1.4935e-05,4.0931e-06,3.5974e-06,-1.727e-05,-2.6941e-05,-1.9405e-05,-1.052e-05,-7.8702e-06,-1.5521e-05,-1.5965e-07,-1.2052e-06,8.2666e-07,1.0911e-06,-6.6924e-05,-1.5749e-05,-2.528e-05,2.6003e-06,-1.7231e-05,-1.3424e-06,-2.3133e-05,-1.7459e-05,-1.2497e-05,-1.1056e-05,-1.1691e-05,-4.5689e-07,-6.5756e-06,-1.3144e-05,-4.3208e-06,-1.9375e-06,-4.7077e-05,-5.9832e-06,-7.5008e-07,-2.394e-05,-2.1987e-06,-4.2136e-06,2.6427e-06,-7.5683e-05,-4.7196e-06,-0.19317,-1.8913e-05,-1.8731e-05
-0.00011242,1.3483e-09,-0.0002725,-0.00081375,-5.3456e-05,-1.5688e-06,-1.808e-05,6.3157e-05,-0.00039318,-9.1109e-05,-6.5566e-05,1.4553e-05,-0.00016793,-1.3333e-05,8.8361e-05,-9.2721e-05,-0.00015904,-5.6587e-05,0.00010144,5.7255e-05,-0.00019557,6.7708e-05,-5.861e-05,-2.0576e-05,-0.00018386,-6.1512e-05,1.845e-05,4.3689e-06,6.7315e-05,6.7148e-06,-0.00013617,-0.00017515,-0.00026369,-5.932e-05,-3.4988e-05,0.00011588,-0.00011489,-0.00012624,-0.028745,-0.00022734,0.00014685,-4.7153e-05,-3.4536e-05,-0.00012085,-0.0001389,4.2415e-05,4.2186e-05,-0.00016737,-0.00024878,-0.00018905,-9.5895e-05,-7.2463e-05,-0.00014373,1.9116e-05,3.0617e-06,1.0469e-05,2.1835e-05,-0.00084871,-0.00013008,-0.0002495,5.844e-05,-0.00018694,-2.0107e-05,-0.0002178,-0.00017191,-0.00013449,-0.00011303,-0.00010645,2.897e-05,-4.7162e-05,-0.00014844,-2.5444e-05,-3.5982e-05,-0.00055961,-6.2555e-05,2.9746e-05,-0.00024087,-2.1944e-05,-5.0657e-05,2.591e-05,-0.0010582,-3.82e-05,-0.21753,-0.00017321,-0.0002066
-9.3222e-05,-0.00010689,1.3464e-09,-0.00049025,-2.3243e-05,1.3404e-05,-1.4025e-05,3.9635e-05,-0.00028522,-7.7615e-05,-2.9261e-05,2.9476e-05,-0.00011336,-1.2381e-05,7.3578e-05,-4.5076e-05,-0.00010969,-5.3685e-05,0.00011533,4.1234e-05,-0.00012832,5.9549e-05,-3.6369e-05,1.1014e-05,-0.00013353,-3.6955e-05,1.087e-05,3.5327e-05,7.0401e-05,2.7896e-05,-6.9387e-05,-9.1387e-05,-0.0001635,-4.9512e-06,-2.5801e-05,9.879e-05,-8.2446e-05,-8.1572e-05,-0.0079481,-0.00015033,0.00013616,-2.1762e-05,-9.4748e-06,-6.2424e-05,-9.8107e-05,3.4776e-05,2.9913e-05,-0.00011067,-0.00018326,-0.00010261,-7.7571e-05,-6.8244e-05,-6.7901e-05,2.6956e-05,1.6479e-05,1.9379e-05,3.3257e-05,-0.00054287,-0.0001098,-0.00016804,4.3673e-05,-0.00013446,-6.7602e-06,-0.00017381,-0.00011523,-9.9673e-05,-9.808e-05,-8.4601e-05,3.106e-05,-3.6652e-05,-0.0001057,-2.4288e-05,-1.6846e-05,-0.0004005,-5.4434e-05,3.1512e-05,-0.00015825,-1.6379e-05,-3.6629e-05,2.3778e-05,-0.0005523,-2.2274e-05,-0.18178,-0.00012025,-0.00013354
-5.9282e-06,-6.0029e-06,-1.1374e-05,1.1401e-09,7.415e-07,7.7373e-06,-7.7991e-07,5.8603e-06,-6.2992e-06,-3.4021e-06,1.6608e-06,5.4132e-06,3.9184e-06,5.5035e-07,9.9972e-06,-3.1154e-06,-4.8101e-06,-2.8164e-06,1.3173e-05,5.3311e-06,-9.4434e-06,4.1815e-06,-2.5562e-06,7.0429e-06,-7.7221e-06,-1.6781e-06,2.2092e-06,4.6271e-06,7.3495e-06,4.7939e-06,-2.2284e-06,-2.1885e-06,-9.7365e-06,3.7723e-06,-9.4702e-07,1.2039e-05,-4.7548e-06,-8.4864e-07,-2.2731e-05,-9.0615e-06,1.371e-05,5.1956e-06,5.2878e-06,4.6169e-07,-5.1091e-06,3.4177e-06,3.7141e-06,-6.4723e-06,-4.0343e-06,-3.0072e-06,-2.9144e-06,-2.7678e-06,-4.7274e-07,4.3305e-06,3.3077e-06,2.5718e-06,2.9374e-06,-7.3715e-06,-3.187e-06,-7.0595e-06,5.7627e-06,-8.0036e-06,-2.7512e-07,-5.4721e-06,-4.5513e-06,-6.5965e-06,-5.3877e-06,-4.5629e-06,5.3413e-06,7.1013e-08,-8.1069e-06,-1.1796e-06,-1.0258e-06,-1.3625e-05,-2.3678e-06,6.411e-06,-4.9732e-06,-3.3802e-07,-1.6524e-06,2.5887e-06,-1.0544e-05,-1.0473e-06,-0.16056,-5.2711e-06,-7.8333e-06
-2.1979e-05,-2.9859e-05,-4.7133e-05,-0.00011169,1.1548e-09,4.6075e-06,-9.1257e-07,1.14e-05,-6.5098e-05,-1.5442e-05,-6.0838e-06,4.8446e-06,-2.5502e-05,-7.9742e-06,1.5357e-05,-1.062e-05,-3.0677e-05,-1.3544e-05,2.2333e-05,4.8241e-06,-2.819e-05,8.7386e-06,-6.8298e-06,1.3096e-06,-3.1672e-05,-8.7361e-06,4.2298e-06,5.0128e-06,1.5367e-05,7.889e-06,-1.5383e-05,-2.5073e-05,-3.6794e-05,-2.0776e-06,-2.2317e-06,1.9094e-05,-1.7728e-05,-2.3322e-05,-0.001444,-3.2376e-05,2.7441e-05,-1.2055e-05,-1.2772e-05,-1.7464e-05,-2.4203e-05,9.728e-06,8.3866e-06,-3.1658e-05,-4.3275e-05,-2.128e-05,-2.0717e-05,-1.6013e-05,-1.6129e-05,3.2715e-06,1.393e-06,3.0759e-06,4.0691e-06,-0.00011289,-2.8779e-05,-4.4439e-05,9.1432e-06,-3.4088e-05,-1.9064e-06,-4.1774e-05,-2.4233e-05,-2.2506e-05,-2.1795e-05,-2.2715e-05,7.4755e-06,-1.067e-05,-2.3939e-05,-1.0871e-05,-1.696e-06,-8.7646e-05,-1.1314e-05,1.2232e-06,-3.7259e-05,-3.2371e-06,-7.5253e-06,6.4375e-06,-0.00012598,-5.6339e-06,-0.19376,-3.2466e-05,-3.1997e-05
-7.6217e-06,-7.0411e-06,-1.3206e-05,-1.8444e-05,9.1677e-07,1.1921e-09,2.7355e-07,6.2896e-06,1.5565e-06,-3.2665e-06,1.7087e-06,5.7854e-06,-1.572e-06,-2.8394e-06,7.5303e-06,-2.7018e-07,-6.6608e-06,-3.7199e-06,9.3763e-06,1.6103e-06,-8.6964e-06,1.6503e-06,-1.6567e-06,7.2403e-06,-7.5826e-06,-1.6924e-06,2.1889e-06,5.915e-06,7.1536e-06,8.5181e-06,-6.1371e-07,-1.8033e-06,-7.0636e-06,5.1233e-06,1.7579e-06,1.126e-05,-5.6706e-06,-3.5736e-06,-3.5959e-05,-7.5858e-06,1.6973e-05,1.3519e-05,1.3323e-05,-1.0317e-06,-5.5545e-06,3.7044e-06,3.9676e-06,-9.589e-06,-4.809e-07,5.5119e-06,-6.1237e-06,-4.6926e-06,8.6946e-06,4.9518e-07,-5.5705e-07,2.4904e-06,1.7496e-06,-1.5984e-05,-5.9463e-06,-1.8767e-05,7.9185e-06,-1.1286e-05,1.8306e-08,-9.2896e-06,-5.8479e-06,-6.1672e-06,-6.3481e-06,-6.2044e-06,1.231e-05,-1.1555e-06,-7.1316e-06,-4.9532e-06,6.9661e-07,-1.4743e-05,-2.2364e-06,4.3176e-06,-6.2003e-06,-1.2065e-06,-2.6328e-06,2.9114e-06,-1.6903e-05,-4.31e-07,-0.15874,-8.302e-06,-8.255e-06
-1.4068e-05,-1.9857e-05,-3.3393e-05,-0.00010747,-5.5435e-06,-4.6487e-06,8.9908e-10,5.7343e-06,-5.6601e-05,-9.1709e-06,-7.7096e-06,-1.9723e-06,-2.3613e-05,-6.3596e-06,6.5614e-06,-8.3474e-06,-2.3359e-05,-7.8075e-06,8.5829e-06,1.4714e-06,-1.8292e-05,3.5521e-06,-5.0803e-06,-6.1154e-06,-2.0206e-05,-6.8332e-06,3.5324e-06,-1.7087e-06,5.3886e-06,-5.9717e-07,-1.6251e-05,-2.0732e-05,-2.8189e-05,-7.6828e-06,-1.1232e-06,6.3631e-06,-1.2878e-05,-1.9923e-05,-0.27581,-2.3217e-05,1.0684e-05,-1.4715e-05,-1.7737e-05,-1.6782e-05,-1.7613e-05,4.6974e-06,4.0683e-06,-2.2583e-05,-3.6533e-05,-2.2046e-05,-1.4927e-05,-1.0243e-05,-2.0983e-05,-8.0241e-07,-2.0151e-06,5.3869e-07,4.2912e-07,-0.00010403,-2.1325e-05,-3.0412e-05,4.0014e-06,-2.3186e-05,-2.5579e-06,-3.2178e-05,-2.0946e-05,-1.4896e-05,-1.2444e-05,-1.6083e-05,1.0418e-06,-9.2882e-06,-1.4089e-05,-7.6283e-06,-1.5969e-06,-7.6833e-05,-7.4106e-06,-3.4536e-06,-2.833e-05,-3.4187e-06,-5.6409e-06,2.9307e-06,-0.00012078,-5.0662e-06,-0.21571,-2.3994e-05,-2.3463e-05
-1.8233e-05,-2.3934e-05,-4.3754e-05,-9.4037e-05,-7.0038e-06,-9.3999e-07,-1.0744e-06,9.9016e-10,-5.9267e-05,-6.727e-06,-6.7868e-06,-2.6822e-06,-2.1044e-05,-7.2673e-06,1.2179e-05,-1.3972e-05,-2.9397e-05,-9.3002e-06,1.2026e-05,4.1558e-06,-2.3689e-05,3.5013e-06,-6.3239e-06,-5.9583e-06,-2.2661e-05,-6.7231e-06,3.3377e-06,-1.3915e-06,6.6194e-06,7.253e-08,-1.9869e-05,-2.8485e-05,-3.5978e-05,-1.0416e-05,2.4001e-06,1.0624e-05,-1.525e-05,-2.2748e-05,-0.0025251,-3.0664e-05,1.4543e-05,-1.7795e-05,-2.4722e-05,-1.7177e-05,-2.2306e-05,7.542e-06,7.466e-06,-3.4221e-05,-3.9655e-05,-2.8718e-05,-1.7071e-05,-8.7086e-06,-2.6484e-05,-2.6868e-06,-4.8912e-06,3.6449e-06,-4.6824e-06,-7.7234e-05,-2.0075e-05,-3.8721e-05,6.0722e-06,-2.9824e-05,-3.2993e-06,-3.554e-05,-2.6585e-05,-1.8398e-05,-1.5479e-05,-1.9997e-05,1.3048e-06,-8.8739e-06,-1.8906e-05,-9.6094e-06,-9.0556e-07,-7.1862e-05,-6.9158e-06,-1.8196e-06,-2.7178e-05,-2.9346e-06,-5.9447e-06,4.0888e-06,-0.00010322,-6.0475e-06,-0.22514,-3.0582e-05,-2.9818e-05
-1.0198e-05,-8.347e-06,-2.2534e-05,-2.4604e-05,3.0819e-06,5.1112e-05,1.4186e-06,1.2348e-05,1.2389e-09,-6.4762e-06,3.6779e-06,2.718e-05,5.5238e-06,8.2132e-07,2.0923e-05,-3.1361e-06,-5.1769e-06,-2.6291e-06,2.5882e-05,9.5135e-06,-1.8523e-05,1.003e-05,-3.2408e-06,1.8208e-05,-1.2496e-05,-3.2251e-06,6.5408e-06,1.5933e-05,1.7993e-05,2.8214e-05,-6.1358e-06,3.5791e-06,-1.5041e-05,1.5543e-05,-9.8076e-07,2.9845e-05,-9.6623e-06,2.1651e-06,-5.1326e-05,-1.4471e-05,4.9263e-05,3.9086e-05,0.00027809,6.4704e-06,-7.3568e-06,5.9696e-06,8.6375e-06,-1.1314e-05,7.4666e-06,8.1309e-06,-5.472e-06,-6.767e-06,6.1106e-05,8.6434e-06,6.3438e-06,5.6284e-06,9.0542e-06,-1.7502e-05,-4.7675e-06,-2.7307e-05,1.623e-05,-1.5664e-05,9.6589e-07,-9.744e-06,-8.0311e-06,-9.4948e-06,-8.6254e-06,-5.5382e-06,2.3568e-05,1.4944e-06,-1.3314e-05,-1.0285e-06,-3.2783e-06,-1.7255e-05,-5.1809e-06,1.8406e-05,-7.5268e-06,-1.0867e-06,-4.7855e-06,4.8113e-06,-2.338e-05,1.6308e-07,-0.15984,-9.1584e-06,-1.2774e-05
-0.00012074,-0.00016931,-0.00033053,-0.0012931,-4.7411e-05,1.1763e-07,-1.1701e-06,0.00010766,-0.00072423,9.8681e-10,-3.9716e-05,1.6455e-05,-0.00016015,-3.8369e-05,0.00011808,-9.4813e-05,-0.00022413,-5.9519e-05,0.00010664,3.5822e-05,-0.00017526,4.3581e-05,-3.9103e-05,-4.3433e-05,-0.00016605,-4.4143e-05,3.9564e-05,1.9219e-05,7.6755e-05,2.6283e-05,-0.00015224,-0.00020701,-0.00027368,-7.3787e-05,3.9499e-05,0.00011503,-9.9629e-05,-0.00015948,-0.079692,-0.00022548,0.00015899,-0.00014231,-0.00021077,-0.00011765,-0.0001569,7.2014e-05,6.8422e-05,-0.00024544,-0.00036209,-0.00027189,-0.00011171,-5.1912e-05,-0.00024656,7.6234e-07,-1.5577e-05,2.6329e-05,-1.3168e-05,-0.0010041,-0.00015465,-0.00029795,6.0587e-05,-0.0002122,-1.1653e-05,-0.00027208,-0.000199,-0.00013451,-0.00010448,-0.00013346,2.1161e-05,-6.5394e-05,-0.00013369,-5.7707e-05,-6.3481e-06,-0.00083331,-4.6016e-05,1.672e-05,-0.00019642,-9.1377e-06,-3.2412e-05,3.7451e-05,-0.0015082,-3.8064e-05,-0.2264,-0.00023092,-0.00021668
-4.9636e-05,-6.1052e-05,-9.4518e-05,-0.00017305,-1.0835e-05,1.0439e-05,-3.5534e-06,2.5756e-05,-0.00011339,-2.443e-05,1.243e-09,2.8689e-06,-4.2393e-05,-1.9553e-05,3.6197e-05,-2.6597e-05,-6.6771e-05,-2.596e-05,5.5272e-05,7.3254e-06,-5.4001e-05,1.244e-05,-1.5228e-05,1.0692e-08,-6.0216e-05,-1.6299e-05,8.5981e-06,8.0651e-06,2.6884e-05,9.4392e-06,-3.6128e-05,-5.2849e-05,-7.4755e-05,-9.0811e-06,1.8923e-06,3.5647e-05,-3.8719e-05,-4.8617e-05,-0.00051657,-6.7954e-05,4.7055e-05,-2.8649e-05,-3.491e-05,-3.6898e-05,-4.9471e-05,1.7923e-05,1.9993e-05,-7.0393e-05,-8.7481e-05,-5.3244e-05,-4.7856e-05,-3.1446e-05,-3.7308e-05,2.7344e-06,-5.4866e-07,4.7533e-06,6.7063e-07,-0.00016332,-5.8983e-05,-8.7815e-05,1.5016e-05,-7.4994e-05,-7.1813e-06,-8.1425e-05,-5.2079e-05,-4.5152e-05,-4.5532e-05,-5.1619e-05,1.0207e-05,-2.5624e-05,-4.6461e-05,-2.5235e-05,1.4118e-06,-0.00016989,-1.8821e-05,1.2936e-06,-5.4543e-05,-8.3035e-06,-1.9064e-05,1.301e-05,-0.00018099,-1.2198e-05,-0.18633,-7.2867e-05,-6.7284e-05
-0.00010318,-0.00013358,-0.00022195,-0.00039252,-1.5076e-05,6.1649e-05,-1.255e-05,4.9548e-05,-0.00011919,-7.3602e-05,-3.1683e-05,9.4933e-10,-8.8073e-05,-2.607e-05,8.071e-05,-2.2417e-05,-0.00010359,-4.3907e-05,0.00012283,2.7864e-05,-0.0001594,5.1346e-05,-3.7112e-05,3.8293e-05,-0.00013225,-3.6438e-05,1.7401e-05,0.00015157,0.00010838,8.5085e-05,-4.5835e-05,-6.5616e-05,-0.00014419,4.6467e-05,-1.883e-05,0.00021859,-7.5567e-05,-7.1769e-05,-0.00098507,-0.00013653,0.00030696,3.8356e-05,5.3311e-05,-2.7201e-05,-8.8218e-05,4.3091e-05,4.9605e-05,-0.00011701,-0.00011903,-8.2012e-05,-8.2126e-05,-7.2142e-05,-7.7595e-06,3.5292e-06,-1.0308e-05,1.0824e-05,4.2081e-05,-0.00035242,-0.00010556,-0.0002621,6.6555e-05,-0.00015244,3.5815e-07,-0.00014908,-9.9574e-05,-0.00010946,-9.8319e-05,-8.7629e-05,7.5333e-05,-3.5738e-05,-0.00011665,-4.7611e-05,-6.5742e-06,-0.00024817,-4.1585e-05,6.385e-05,-0.00016253,-1.6356e-05,-4.31e-05,3.6802e-05,-0.00039611,-2.2953e-05,-0.13696,-0.00013248,-0.00013149
-6.0552e-06,-6.1699e-06,-1.2041e-05,-1.0734e-05,-3.859e-07,6.1388e-06,-4.8723e-07,5.8351e-06,-6.5691e-06,-1.7349e-06,1.1068e-06,3.9547e-06,8.4396e-10,-8.956e-07,8.4523e-06,-3.7861e-06,-5.8296e-06,-2.9376e-06,9.7896e-06,2.8246e-06,-8.5637e-06,2.3494e-06,-2.2129e-06,4.3375e-06,-6.688e-06,-1.7963e-06,2.1863e-06,3.6214e-06,5.3402e-06,4.3954e-06,-3.4016e-06,-3.9404e-06,-9.3577e-06,1.4525e-06,5.1284e-07,9.9219e-06,-4.2087e-06,-2.2364e-06,-2.524e-05,-8.7439e-06,1.0984e-05,2.6964e-06,1.5887e-06,-7.119e-07,-5.2364e-06,2.9897e-06,3.2378e-06,-8.235e-06,-4.4255e-06,-4.5975e-06,-3.5416e-06,-2.2071e-06,-2.885e-06,2.2249e-06,1.2449e-06,1.9106e-06,4.1608e-07,-8.1274e-06,-3.8915e-06,-8.5324e-06,4.3829e-06,-8.1063e-06,-8.0998e-07,-6.2197e-06,-5.7255e-06,-5.8201e-06,-4.6306e-06,-5.1106e-06,4.095e-06,-1.1467e-06,-6.9249e-06,-2.0372e-06,-6.8159e-07,-1.3918e-05,-2.1335e-06,4.2339e-06,-4.6551e-06,-4.4443e-07,-1.5722e-06,1.8888e-06,-1.2252e-05,-1.2169e-06,-0.13737,-6.3906e-06,-7.9695e-06
-1.7109e-05,-2.2204e-05,-4.1401e-05,-9.6166e-05,-8.9065e-06,-9.1465e-06,-2.8821e-06,8.1934e-06,-6.2333e-05,-1.4832e-05,-1.1484e-05,5.0543e-07,-2.7995e-05,1.2508e-09,9.7368e-06,-1.4165e-05,-2.3814e-05,-9.0363e-06,1.5495e-05,8.424e-06,-2.8716e-05,1.1197e-05,-8.1743e-06,-8.2142e-06,-2.6637e-05,-8.9702e-06,1.8004e-06,-2.234e-07,8.1034e-06,-1.3472e-06,-2.1446e-05,-2.7191e-05,-3.8848e-05,-1.1543e-05,-6.7923e-06,1.402e-05,-1.6784e-05,-1.942e-05,-0.0023301,-3.4021e-05,1.8679e-05,-1.0773e-05,-9.43e-06,-2.0383e-05,-2.2748e-05,6.0533e-06,5.2099e-06,-2.5148e-05,-4.1697e-05,-3.0405e-05,-1.3519e-05,-1.2537e-05,-2.1557e-05,1.8614e-06,1.1901e-07,3.4749e-06,4.855e-06,-0.00010251,-2.0328e-05,-3.5591e-05,4.1997e-06,-2.5953e-05,-3.5069e-06,-3.6338e-05,-2.8797e-05,-2.1795e-05,-1.7499e-05,-1.6271e-05,-1.949e-07,-7.8466e-06,-2.2194e-05,-3.1614e-06,-5.3244e-06,-6.9886e-05,-1.0427e-05,8.9261e-07,-4.0888e-05,-3.8788e-06,-8.2673e-06,3.4313e-06,-0.0001174,-7.7147e-06,-0.23521,-2.5868e-05,-2.9645e-05
-6.6432e-05,-8.259e-05,-0.00014088,-0.00025401,-2.3203e-05,-4.4836e-06,-5.2658e-06,3.8218e-05,-0.00016478,-2.9426e-05,-1.6186e-05,-2.8723e-06,-6.174e-05,-2.7771e-05,1.2396e-09,-4.7226e-05,-9.6487e-05,-3.5799e-05,5.2361e-05,7.4415e-06,-8.7185e-05,1.3733e-05,-2.5071e-05,-2.0736e-05,-8.3506e-05,-2.8686e-05,1.2626e-05,1.2763e-06,2.9131e-05,3.6217e-06,-7.3839e-05,-8.7322e-05,-0.00012608,-3.7078e-05,1.4406e-06,5.0385e-05,-5.3709e-05,-6.965e-05,-0.00078291,-0.00011025,5.2996e-05,-5.2473e-05,-6.7081e-05,-5.4431e-05,-7.9975e-05,2.3073e-05,2.4087e-05,-0.00011092,-0.00012203,-0.00010776,-5.9793e-05,-3.7171e-05,-8.604e-05,5.1809e-06,-1.4525e-06,8.0722e-06,-1.1236e-05,-0.00023069,-7.9024e-05,-0.00012599,1.7886e-05,-0.00010517,-1.4289e-05,-0.00011284,-8.6603e-05,-6.7803e-05,-5.6202e-05,-7.4015e-05,1.1818e-06,-3.9517e-05,-6.8146e-05,-3.4685e-05,-7.5239e-06,-0.00023776,-2.7788e-05,5.6128e-07,-8.2184e-05,-1.4e-05,-2.4955e-05,1.3046e-05,-0.00028109,-2.3206e-05,-0.20749,-0.00010393,-0.00010768
-1.5249e-05,-2.1525e-05,-3.1512e-05,-9.6826e-05,-4.1489e-06,1.518e-06,-3.0312e-07,4.2317e-06,-5.0144e-05,-1.2572e-05,-7.521e-06,4.4246e-06,-2.5428e-05,-6.6762e-06,6.2614e-06,9.7424e-10,-2.1336e-05,-8.1514e-06,1.2286e-05,7.6182e-07,-1.9425e-05,4.9702e-06,-4.5962e-06,-1.7527e-06,-2.3064e-05,-7.4705e-06,2.1065e-06,4.5466e-06,9.879e-06,3.2793e-06,-1.1152e-05,-1.7081e-05,-2.2478e-05,-3.1261e-06,-2.5773e-06,1.0838e-05,-1.0481e-05,-1.8976e-05,-0.029301,-2.2356e-05,1.9519e-05,-6.1858e-06,-9.5127e-06,-1.4358e-05,-1.6729e-05,5.7161e-06,5.1754e-06,-2.0838e-05,-3.4002e-05,-1.4233e-05,-1.6304e-05,-1.2734e-05,-9.1994e-06,-6.4747e-07,-2.1415e-06,-1.614e-07,4.0567e-06,-0.00012062,-2.266e-05,-3.7842e-05,4.9028e-06,-2.3854e-05,-1.4768e-06,-3.2132e-05,-1.8071e-05,-1.621e-05,-1.6353e-05,-1.5695e-05,4.1885e-06,-1.0403e-05,-1.7008e-05,-8.7586e-06,-4.8469e-08,-6.3701e-05,-7.7675e-06,1.2943e-07,-2.9596e-05,-3.1071e-06,-5.9622e-06,4.7993e-06,-0.00010127,-1.526e-06,-0.18607,-2.3608e-05,-2.2852e-05
-7.3459e-05,-9.1285e-05,-0.00018234,-0.00035324,-1.1867e-05,4.874e-05,-4.4977e-06,6.2581e-05,-0.00017078,-7.2114e-05,-2.4117e-05,7.4259e-05,-6.8028e-05,1.5717e-05,9.5577e-05,-3.8533e-05,1.4001e-09,-3.2083e-05,0.00013058,7.2439e-05,-0.00014192,7.6183e-05,-3.1938e-05,4.3617e-05,-0.00012953,-3.3441e-05,1.7346e-05,5.46e-05,9.3382e-05,4.8367e-05,-3.3247e-05,-6.0646e-05,-0.00013816,2.3166e-05,-2.9443e-05,0.00014753,-7.1609e-05,-5.0725e-05,-0.0014117,-0.0001411,0.00018156,3.574e-05,5.1986e-05,-3.9568e-05,-7.6848e-05,4.0142e-05,4.5572e-05,-8.3678e-05,-0.00012532,-8.3614e-05,-4.4624e-05,-5.4571e-05,-2.2348e-05,4.6002e-05,3.2805e-05,3.5459e-05,5.7556e-05,-0.00037118,-6.1846e-05,-0.00017338,5.8634e-05,-0.0001053,-3.2225e-06,-0.00014002,-0.00011818,-9.1315e-05,-7.2321e-05,-5.9402e-05,5.388e-05,-1.4584e-05,-0.00010397,3.9532e-06,-2.2611e-05,-0.00027377,-4.2548e-05,8.6122e-05,-0.00016863,-9.949e-06,-2.8653e-05,3.4161e-05,-0.00040254,-1.6823e-05,-0.17961,-8.7113e-05,-0.00011377
-6.52e-06,-8.653e-06,-1.62e-05,-3.8334e-05,-3.4742e-06,-3.2971e-06,-3.4787e-07,3.109e-06,-2.242e-05,-4.5408e-06,-4.0248e-06,1.1605e-07,-1.1244e-05,-2.0281e-06,3.2962e-06,-4.3129e-06,-1.0173e-05,1.1697e-09,4.8235e-06,1.1741e-06,-9.5161e-06,2.485e-06,-2.7495e-06,-3.4002e-06,-1.0102e-05,-3.2459e-06,1.1158e-06,-6.4659e-07,2.2034e-06,-1.036e-06,-8.3165e-06,-1.0188e-05,-1.4177e-05,-4.661e-06,-1.0571e-06,3.8446e-06,-6.0413e-06,-8.8386e-06,-0.025403,-1.265e-05,5.8285e-06,-5.7559e-06,-7.496e-06,-7.9202e-06,-8.6848e-06,2.2193e-06,3.0697e-06,-1.0858e-05,-1.6238e-05,-1.1117e-05,-6.2244e-06,-4.4002e-06,-1.0744e-05,-4.6615e-07,-1.0517e-06,1.0249e-06,1.88e-07,-3.8499e-05,-9.2773e-06,-1.4905e-05,1.6105e-06,-1.0148e-05,-1.0791e-06,-1.4051e-05,-1.087e-05,-7.4009e-06,-6.277e-06,-6.6686e-06,8.2821e-08,-3.8999e-06,-7.2835e-06,-2.5068e-06,6.5813e-09,-3.0171e-05,-2.5996e-06,-7.663e-07,-1.3607e-05,-1.3153e-06,-2.7302e-06,2.0701e-06,-4.4696e-05,-2.1604e-06,-0.25772,-1.0936e-05,-1.1566e-05
-4.9171e-05,-6.5175e-05,-9.1087e-05,-0.00017609,-1.259e-05,-3.6373e-06,-6.9282e-06,1.7068e-05,-0.00011699,-3.5167e-05,-4.4146e-06,2.4977e-06,-4.8469e-05,-1.7779e-05,2.7678e-05,-2.5676e-05,-6.5853e-05,-2.6804e-05,1.3268e-09,8.0796e-06,-5.1159e-05,1.4869e-05,-1.7675e-05,-7.3802e-06,-6.4001e-05,-2.1528e-05,1.2923e-06,5.4119e-06,2.9295e-05,7.728e-06,-2.6227e-05,-5.4777e-05,-7.2669e-05,-1.4124e-05,-9.2706e-06,3.7753e-05,-3.4216e-05,-5.0419e-05,-0.00051612,-7.0047e-05,4.51e-05,-2.6436e-05,-2.7331e-05,-4.6433e-05,-5.4237e-05,1.596e-05,1.2986e-05,-6.4083e-05,-8.6539e-05,-4.896e-05,-4.5823e-05,-3.7901e-05,-2.069e-05,1.122e-07,-3.7458e-06,2.4902e-06,1.3759e-06,-0.00018075,-6.1595e-05,-8.1228e-05,1.1336e-05,-7.0454e-05,-8.6758e-06,-9.0766e-05,-5.6798e-05,-4.4499e-05,-4.9342e-05,-5.2614e-05,4.9687e-06,-2.2887e-05,-4.7701e-05,-2.4293e-05,-1.4483e-06,-0.00016496,-2.398e-05,1.6903e-06,-6.0326e-05,-1.1903e-05,-2.2934e-05,1.3956e-05,-0.00017986,-1.4217e-05,-0.19046,-6.7566e-05,-6.6994e-05
-2.4495e-05,-3.1222e-05,-5.889e-05,-0.00012996,-1.0917e-05,-9.5279e-06,-1.7956e-06,1.664e-05,-8.5785e-05,-1.9899e-05,-1.289e-05,-3.0807e-07,-3.7776e-05,-2.04e-06,1.6299e-05,-2.0135e-05,-3.4555e-05,-1.3341e-05,2.4599e-05,1.2383e-09,-3.8146e-05,1.4658e-05,-1.0272e-05,-7.5922e-06,-3.7619e-05,-1.2046e-05,3.4912e-06,-6.8513e-07,1.4235e-05,-7.4968e-07,-2.8714e-05,-3.6591e-05,-5.3406e-05,-1.1368e-05,-7.3838e-06,2.0046e-05,-2.4941e-05,-2.8948e-05,-0.0014244,-4.6672e-05,2.6259e-05,-1.7162e-05,-1.4533e-05,-2.7425e-05,-3.006e-05,8.8563e-06,9.2659e-06,-3.5783e-05,-6.0312e-05,-3.8729e-05,-2.1753e-05,-1.7666e-05,-2.9262e-05,3.9957e-06,1.258e-06,3.9757e-06,4.906e-06,-0.0001366,-2.7957e-05,-4.9755e-05,7.7963e-06,-3.8242e-05,-4.5127e-06,-5.1578e-05,-4.0784e-05,-2.8911e-05,-2.4333e-05,-2.4509e-05,2.7528e-06,-9.5499e-06,-3.0808e-05,-5.5216e-06,-5.5364e-06,-9.7005e-05,-1.4437e-05,-5.0254e-07,-5.1213e-05,-4.7571e-06,-9.3149e-06,5.719e-06,-0.00015943,-9.4868e-06,-0.21571,-3.8774e-05,-4.2545e-05
-9.4173e-06,-1.3162e-05,-1.9413e-05,-4.9909e-05,-3.6324e-06,-3.9362e-06,-7.1176e-07,2.9255e-06,-3.2719e-05,-6.2953e-06,-4.2686e-06,-1.986e-06,-1.4927e-05,-4.4818e-06,3.1488e-06,-5.4523e-06,-1.4896e-05,-5.4637e-06,7.1664e-06,2.4293e-07,1.0776e-09,2.6029e-06,-2.9612e-06,-4.256e-06,-1.2557e-05,-4.1573e-06,5.9168e-07,-7.2936e-07,3.4788e-06,-1.0523e-06,-9.1758e-06,-1.305e-05,-1.5918e-05,-4.8711e-06,-8.4926e-07,2.769e-06,-7.8695e-06,-1.2717e-05,-0.011994,-1.4613e-05,5.6024e-06,-1.0026e-05,-1.2851e-05,-1.0716e-05,-1.1195e-05,3.1929e-06,2.6326e-06,-1.452e-05,-2.2808e-05,-1.2906e-05,-9.4325e-06,-6.9767e-06,-1.2254e-05,-1.4366e-06,-1.9825e-06,-1.2406e-07,2.0283e-07,-5.085e-05,-1.3487e-05,-1.9602e-05,1.551e-06,-1.4825e-05,-1.8239e-06,-2.0175e-05,-1.1997e-05,-9.0242e-06,-9.4426e-06,-1.048e-05,-1.1042e-07,-6.0414e-06,-9.221e-06,-5.2315e-06,-3.0347e-07,-3.9408e-05,-4.4337e-06,-2.5445e-06,-1.6212e-05,-1.9779e-06,-3.8254e-06,2.1675e-06,-5.3127e-05,-3.3366e-06,-0.22551,-1.5444e-05,-1.4305e-05
-0.0001247,-0.00017484,-0.00030302,-0.001453,-5.5787e-05,-8.956e-05,-1.6663e-05,4.8975e-05,-0.00076416,-0.00011748,-8.2205e-05,1.0585e-06,-0.0002851,-1.6683e-05,6.8205e-05,-9.3305e-05,-0.00020634,-7.2191e-05,0.00010758,4.945e-05,-0.00018412,8.9438e-10,-5.2931e-05,-6.1725e-05,-0.00020976,-5.971e-05,1.2097e-05,-8.0463e-07,7.2568e-05,-1.6612e-05,-0.00016394,-0.0002133,-0.00028651,-7.1068e-05,-4.4509e-05,8.0248e-05,-0.00011808,-0.00017326,-0.18271,-0.00024467,0.0001385,-0.00013583,-0.00014611,-0.00016466,-0.00016685,4.7324e-05,3.6526e-05,-0.0001785,-0.00042027,-0.00022468,-0.00011759,-0.00010114,-0.00021632,1.7855e-05,6.4602e-06,1.7619e-05,3.6251e-05,-0.0016468,-0.00018073,-0.00026786,2.371e-05,-0.00019687,-1.6188e-05,-0.00030564,-0.00020279,-0.00015267,-0.00013887,-0.00012351,5.3337e-06,-6.4719e-05,-0.00014818,-2.2264e-05,-3.3221e-05,-0.00080783,-7.46e-05,3.33e-06,-0.00031351,-2.2358e-05,-5.6354e-05,3.0883e-05,-0.001998,-5.2391e-05,-0.214,-0.00021238,-0.00022005
-1.8777e-05,-2.7373e-05,-4.373e-05,-0.00015433,-7.7358e-06,-7.9958e-06,-1.4653e-06,6.9791e-06,-8.4569e-05,-1.2548e-05,-1.0548e-05,-2.5943e-06,-3.3852e-05,-8.434e-06,7.5197e-06,-1.132e-05,-3.1851e-05,-1.1506e-05,1.1445e-05,1.1993e-06,-2.3728e-05,5.1216e-06,8.5245e-10,-1.0635e-05,-2.727e-05,-9.0547e-06,1.9036e-06,-1.3211e-06,6.8476e-06,-9.8181e-07,-2.0937e-05,-2.9648e-05,-3.6094e-05,-1.2714e-05,-1.6759e-06,7.695e-06,-1.6764e-05,-2.6408e-05,-0.11713,-3.1934e-05,1.4183e-05,-2.0353e-05,-2.5499e-05,-2.2304e-05,-2.4548e-05,6.6805e-06,5.4322e-06,-3.1353e-05,-5.1572e-05,-3.0151e-05,-1.9661e-05,-1.3412e-05,-2.6205e-05,-2.4432e-06,-4.0398e-06,1.5325e-07,3.4277e-07,-0.00015078,-2.8002e-05,-4.3063e-05,3.3846e-06,-2.9187e-05,-2.5384e-06,-4.3119e-05,-2.6713e-05,-2.0461e-05,-1.9659e-05,-2.0583e-05,-1.1932e-06,-1.2322e-05,-2.0324e-05,-1.0249e-05,-1.7541e-06,-0.0001024,-9.8869e-06,-4.7168e-06,-3.7726e-05,-4.121e-06,-6.3436e-06,4.2494e-06,-0.00016894,-7.11e-06,-0.21598,-3.3518e-05,-3.1631e-05
-1.0159e-05,-1.2191e-05,-2.0166e-05,-2.933e-05,6.9886e-07,1.288e-05,1.6532e-07,7.7174e-06,-1.437e-05,-7.7538e-06,9.2247e-07,8.0904e-06,-4.4067e-06,-2.9767e-06,9.7942e-06,-2.2072e-06,-1.0131e-05,-5.1661e-06,1.5098e-05,4.4673e-06,-1.3502e-05,5.105e-06,-3.6064e-06,1.1781e-09,-1.3707e-05,-2.3742e-06,3.3414e-06,7.5846e-06,1.0941e-05,7.9541e-06,-2.4543e-06,-1.3352e-06,-1.5168e-05,9.5131e-06,-5.7201e-07,1.5364e-05,-8.2143e-06,-7.8514e-06,-7.4022e-05,-1.203e-05,2.1573e-05,6.8393e-06,7.3252e-06,-1.0374e-06,-8.4717e-06,5.0214e-06,6.1109e-06,-1.2161e-05,-9.534e-06,-2.7371e-06,-8.3757e-06,-6.9381e-06,1.9803e-06,2.7557e-06,1.6955e-06,2.3263e-06,4.6066e-06,-2.7483e-05,-1.066e-05,-2.28e-05,8.8058e-06,-1.5873e-05,9.3966e-08,-1.2017e-05,-7.0667e-06,-1.0342e-05,-9.6457e-06,-9.8904e-06,1.2695e-05,-3.9626e-06,-1.0849e-05,-4.4506e-06,7.7633e-07,-2.6101e-05,-3.3545e-06,5.7213e-06,-1.3708e-05,-1.0989e-06,-3.1707e-06,4.7883e-06,-2.901e-05,-1.1049e-06,-0.097971,-1.304e-05,-1.267e-05
-0.00013244,-0.00017377,-0.00030152,-0.001007,-5.8596e-05,-2.1043e-05,-1.4932e-05,7.1161e-05,-0.00053215,-7.7015e-05,-6.2232e-05,1.3603e-05,-0.00018514,-3.7007e-05,8.2993e-05,-9.8728e-05,-0.00020632,-7.7116e-05,0.00010081,3.0407e-05,-0.00017728,4.3098e-05,-5.2232e-05,-4.3322e-05,1.1944e-09,-5.1616e-05,2.3564e-05,1.953e-05,6.0972e-05,-4.2619e-06,-0.00013917,-0.00019869,-0.00025431,-6.0108e-05,-5.1822e-06,0.00010673,-0.00010684,-0.00014174,-0.03644,-0.00022039,0.00014242,-9.6818e-05,-0.00013473,-0.00012182,-0.00016179,5.0401e-05,4.0705e-05,-0.0002142,-0.00030543,-0.00021993,-0.00011069,-7.9184e-05,-0.00018597,-1.0589e-05,-2.4042e-05,1.4677e-05,6.6793e-06,-0.00092307,-0.00016668,-0.0002949,3.8825e-05,-0.0002123,-2.3101e-05,-0.00027018,-0.00018369,-0.00014,-0.00012534,-0.00013749,1.0934e-05,-7.1207e-05,-0.00013788,-5.9661e-05,-2.061e-05,-0.00065068,-6.7843e-05,7.6508e-06,-0.00023528,-2.4867e-05,-5.2257e-05,2.1909e-05,-0.0011052,-5.1828e-05,-0.17093,-0.0002128,-0.00021581
-1.4123e-05,-1.8838e-05,-2.9813e-05,-7.0683e-05,-5.686e-06,-3.9758e-06,-1.7869e-06,5.7834e-06,-4.4551e-05,-8.7311e-06,-6.4797e-06,-6.2133e-07,-1.9902e-05,-5.6678e-06,5.827e-06,-9.4191e-06,-2.1336e-05,-8.0576e-06,8.7367e-06,9.2717e-07,-1.7792e-05,3.7681e-06,-5.3935e-06,-4.7504e-06,-1.8137e-05,8.2101e-10,1.2578e-06,2.666e-07,6.0675e-06,9.891e-08,-1.3521e-05,-1.8331e-05,-2.477e-05,-5.2542e-06,-7.3228e-07,6.985e-06,-1.1658e-05,-1.7301e-05,-0.023494,-2.1292e-05,1.1201e-05,-1.2425e-05,-1.5471e-05,-1.3896e-05,-1.608e-05,4.3112e-06,4.2328e-06,-2.1583e-05,-2.9215e-05,-1.9025e-05,-1.3549e-05,-9.6474e-06,-1.546e-05,-2.3057e-06,-3.3852e-06,2.4573e-07,1.0845e-07,-6.6888e-05,-1.8401e-05,-2.9409e-05,3.1414e-06,-2.2207e-05,-2.3546e-06,-2.6975e-05,-1.8306e-05,-1.4592e-05,-1.3775e-05,-1.4949e-05,1.0397e-06,-8.4963e-06,-1.3986e-05,-6.8862e-06,-1.5979e-06,-5.2771e-05,-7.0799e-06,-2.0139e-06,-2.3904e-05,-3.3306e-06,-6.0488e-06,2.6456e-06,-7.2807e-05,-4.9124e-06,-0.21031,-2.2008e-05,-2.1702e-05
-1.4602e-05,-1.9776e-05,-3.3758e-05,-7.9815e-05,-6.3987e-06,-6.1667e-06,4.8002e-07,5.5436e-06,-4.8497e-05,-8.3718e-06,-7.7088e-06,-3.0975e-06,-2.176e-05,-6.9508e-06,6.3077e-06,-9.4144e-06,-2.5236e-05,-8.0232e-06,6.9884e-06,-1.3507e-07,-1.8905e-05,2.4622e-06,-5.4337e-06,-7.4427e-06,-1.9296e-05,-6.7864e-06,1.1234e-09,-2.2974e-06,4.0597e-06,-2.1234e-06,-1.7437e-05,-2.2517e-05,-2.9124e-05,-9.4833e-06,-5.1749e-07,5.6997e-06,-1.2866e-05,-1.9789e-05,-0.047701,-2.419e-05,8.9022e-06,-1.4747e-05,-1.9554e-05,-1.6634e-05,-1.8536e-05,4.9073e-06,3.862e-06,-2.4902e-05,-3.264e-05,-2.3996e-05,-1.5091e-05,-9.6933e-06,-2.4503e-05,-2.107e-06,-3.1882e-06,8.2492e-08,-1.2126e-06,-7.5116e-05,-2.1327e-05,-3.2085e-05,2.6792e-06,-2.3736e-05,-2.8347e-06,-3.0176e-05,-2.0526e-05,-1.5306e-05,-1.2788e-05,-1.6487e-05,-1.0295e-06,-9.8574e-06,-1.3986e-05,-8.6737e-06,-1.3886e-06,-6.1297e-05,-7.3199e-06,-4.2841e-06,-2.6947e-05,-2.965e-06,-5.6806e-06,2.5421e-06,-8.8756e-05,-4.983e-06,-0.23328,-2.4657e-05,-2.4045e-05
-9.0627e-05,-0.00011716,-0.0001707,-0.0003363,-1.575e-05,4.6845e-05,-1.3541e-05,3.9753e-05,-0.00016367,-5.6958e-05,-1.9626e-05,0.00011412,-7.7076e-05,-2.9652e-05,6.3183e-05,-2.2298e-05,-0.00010239,-5.2015e-05,9.616e-05,1.5052e-05,-0.00011674,3.4109e-05,-2.8693e-05,2.2815e-05,-0.00010449,-2.8329e-05,1.1658e-05,9.1867e-10,8.3653e-05,4.7639e-05,-4.0855e-05,-6.0496e-05,-0.00011693,3.3731e-05,-5.3572e-06,0.00017605,-5.7374e-05,-6.662e-05,-0.0011589,-0.00011333,0.00022514,7.6708e-06,-1.822e-05,-3.9474e-05,-8.2359e-05,4.1e-05,3.3269e-05,-0.00010987,-0.00012145,-7.8216e-05,-8.3928e-05,-5.9811e-05,-1.5888e-05,-5.3211e-06,-1.5371e-05,6.2214e-06,2.4036e-05,-0.00030874,-0.00010274,-0.00019872,5.0161e-05,-0.000139,-3.1259e-06,-0.00013459,-7.7879e-05,-8.4876e-05,-9.2308e-05,-8.681e-05,5.1817e-05,-3.9648e-05,-9.7225e-05,-4.524e-05,-5.8989e-06,-0.00020025,-3.757e-05,3.3344e-05,-0.00012074,-1.0264e-05,-3.2347e-05,2.769e-05,-0.00030925,-2.678e-05,-0.1429,-0.00011748,-0.00010863
-0.00010662,-0.00014754,-0.00022876,-0.00072352,-3.0989e-05,-7.5034e-06,-1.47e-05,3.4456e-05,-0.00039115,-7.7085e-05,-4.3411e-05,2.3226e-05,-0.00015804,-4.8022e-05,5.4162e-05,-5.0125e-05,-0.00015568,-7.235e-05,9.2266e-05,1.205e-05,-0.00013466,3.1329e-05,-4.2526e-05,-1.8282e-05,-0.00015233,-4.1927e-05,5.913e-06,2.83e-05,8.3169e-10,1.159e-05,-7.3543e-05,-0.000124,-0.00016461,-1.8312e-05,-1.7115e-05,8.9316e-05,-8.5926e-05,-0.00011909,-0.032229,-0.00012205,0.00013318,-9.3052e-05,-0.0001019,-8.9585e-05,-8.9636e-05,4.1708e-05,2.9422e-05,-0.00011635,-0.00024226,-0.0001395,-0.00010882,-7.9423e-05,-8.4488e-05,-1.033e-05,-1.8318e-05,6.7306e-08,1.2759e-05,-0.00073126,-0.0001482,-0.00021156,2.9783e-05,-0.00016856,-7.661e-06,-0.00022193,-0.00012992,-0.00010237,-0.00010859,-0.00011361,1.3105e-05,-6.7526e-05,-0.00011082,-5.9725e-05,-1.4951e-05,-0.00045916,-5.6995e-05,1.701e-05,-0.00018462,-1.8273e-05,-4.7411e-05,2.1463e-05,-0.00074143,-3.1887e-05,-0.14683,-0.00016592,-0.00014989
-0.00014251,-0.00017425,-0.00027415,-0.00048413,-5.204e-06,0.00012125,-5.5086e-06,7.654e-05,-0.00013146,-7.9808e-05,-2.1639e-05,9.8484e-05,-9.9519e-05,-5.0213e-05,0.0001062,-4.1332e-05,-0.00016443,-8.235e-05,0.00016054,2.5411e-05,-0.00017875,4.0003e-05,-3.6603e-05,4.1474e-05,-0.00018566,-4.0822e-05,2.5353e-05,7.5216e-05,0.00010735,1.206e-09,-6.6887e-05,-9.1247e-05,-0.00019103,1.9185e-05,-3.0105e-06,0.00016917,-0.00010496,-0.00011638,-0.00076213,-0.00018466,0.00025348,3.6005e-05,0.00012585,-5.8336e-05,-0.00012591,6.0751e-05,6.1416e-05,-0.00019346,-0.00013404,-6.6598e-05,-0.00013347,-0.0001038,6.8226e-05,1.5834e-05,-1.5684e-06,1.637e-05,2.9377e-05,-0.00041855,-0.00014697,-0.00031392,9.202e-05,-0.00021099,-1.1026e-05,-0.00021142,-0.00014491,-0.00013759,-0.0001145,-0.00013711,9.8327e-05,-5.7902e-05,-0.00014181,-6.9147e-05,-5.4129e-06,-0.00031083,-6.2254e-05,3.0698e-05,-0.00018614,-2.0023e-05,-4.8351e-05,5.041e-05,-0.00044525,-2.7693e-05,-0.13042,-0.00019548,-0.00018878
-1.111e-05,-1.4663e-05,-2.1478e-05,-4.2503e-05,-1.1135e-06,5.3417e-06,-1.4375e-06,4.5862e-06,-2.9635e-05,-9.0276e-06,-2.791e-06,5.5219e-06,-1.2239e-05,-4.079e-06,5.3544e-06,-3.1035e-06,-1.0977e-05,-7.0384e-06,1.5138e-05,2.0876e-06,-1.3833e-05,3.7399e-06,-3.7073e-06,3.012e-06,-1.5015e-05,-3.8902e-06,7.1785e-07,5.5727e-06,1.0287e-05,4.8361e-06,1.1379e-09,-1.0182e-05,-1.2169e-05,2.7044e-06,-1.6244e-06,1.1085e-05,-8.0998e-06,-9.5944e-06,-0.00012732,-1.314e-05,1.7023e-05,-1.7866e-06,-2.1697e-06,-6.5245e-06,-9.7115e-06,4.3044e-06,3.54e-06,-1.305e-05,-2.0598e-05,-7.1489e-06,-1.1055e-05,-9.6237e-06,-1.2326e-06,4.9526e-07,-6.6084e-07,2.3597e-06,4.6568e-06,-4.272e-05,-1.2843e-05,-2.4016e-05,4.8557e-06,-1.6576e-05,-4.4916e-07,-2.0153e-05,-1.0573e-05,-9.7985e-06,-1.1538e-05,-1.094e-05,5.2273e-06,-4.3785e-06,-1.2199e-05,-5.9157e-06,-6.9273e-07,-2.866e-05,-5.628e-06,5.1236e-06,-1.6698e-05,-1.935e-06,-4.576e-06,3.3563e-06,-4.0513e-05,-2.122e-06,-0.1613,-1.3428e-05,-1.3362e-05
-0.00010095,-0.00013377,-0.00020608,-0.00034608,-5.7901e-06,0.00011098,2.2366e-06,5.7067e-05,-0.00013809,-8.0573e-05,-1.4222e-05,0.00010284,-7.6371e-05,-2.0277e-05,0.0001011,-2.4417e-05,-9.5553e-05,-5.1939e-05,0.00015946,5.2032e-05,-0.00015188,7.1024e-05,-3.4899e-05,0.00011657,-0.00015298,-3.0552e-05,2.4933e-05,9.5103e-05,0.00012695,9.3202e-05,-5.0822e-05,1.0255e-09,-0.00016875,6.9769e-05,-1.7821e-05,0.00019284,-8.5346e-05,-8.3878e-05,-0.00081915,-0.00014777,0.00024597,6.1825e-05,8.5273e-05,-1.811e-05,-9.4451e-05,6.0836e-05,5.7177e-05,-0.00012003,-9.7616e-05,-3.3904e-05,-8.1759e-05,-7.3069e-05,1.5771e-05,3.469e-05,1.8395e-05,3.0676e-05,5.2743e-05,-0.00036509,-0.00010337,-0.00022794,8.2377e-05,-0.00014938,7.4532e-06,-0.0001323,-9.2839e-05,-0.00010548,-0.00010536,-8.8206e-05,0.00011026,-4.0302e-05,-0.00011804,-3.716e-05,-9.504e-06,-0.00025842,-4.4277e-05,7.1545e-05,-0.0001736,-1.0667e-05,-3.0476e-05,4.5803e-05,-0.00034417,-1.9092e-05,-0.13205,-0.00012357,-0.00013787
-7.7494e-05,-0.00010001,-0.00014982,-0.00031051,-9.8241e-06,4.5983e-05,-8.6331e-06,3.4739e-05,-0.00016551,-5.6016e-05,-1.5428e-05,4.4722e-05,-7.4367e-05,-2.3898e-05,4.9296e-05,-1.6203e-05,-7.8089e-05,-4.6101e-05,9.8126e-05,2.1052e-05,-9.4029e-05,3.4157e-05,-2.282e-05,1.3972e-05,-0.00010003,-2.6269e-05,7.7987e-06,4.5152e-05,7.4379e-05,3.8149e-05,-1.7501e-05,-7.0116e-05,9.5467e-10,1.5022e-05,-7.732e-06,8.7613e-05,-5.8737e-05,-6.4761e-05,-0.0028971,-9.1528e-05,0.00013389,5.3455e-06,-4.4366e-07,-4.1079e-05,-6.6132e-05,3.3037e-05,2.7971e-05,-9.1407e-05,-0.00012095,-5.5505e-05,-6.9428e-05,-5.9163e-05,-1.054e-05,3.3144e-06,-3.9224e-06,1.1499e-05,2.4118e-05,-0.00030312,-8.714e-05,-0.0001624,3.9502e-05,-0.00011215,-1.3907e-06,-0.00014187,-8.7045e-05,-7.5386e-05,-7.9603e-05,-7.2259e-05,3.9436e-05,-3.123e-05,-8.9772e-05,-3.302e-05,-4.3322e-06,-0.00020283,-3.7773e-05,3.2402e-05,-0.00011728,-1.1108e-05,-2.9803e-05,2.5712e-05,-0.00032113,-1.531e-05,-0.15372,-9.4172e-05,-9.0234e-05
-1.3334e-05,-1.7441e-05,-2.4598e-05,-4.3141e-05,-6.656e-07,1.0548e-05,-9.7185e-07,5.4186e-06,-1.9106e-05,-1.1101e-05,-1.8908e-06,1.0471e-05,-1.1094e-05,-5.5396e-06,7.2649e-06,-3.4883e-06,-1.3553e-05,-8.5217e-06,1.4692e-05,3.3964e-06,-1.6683e-05,5.2686e-06,-5.5586e-06,1.074e-05,-1.7184e-05,-3.2139e-06,1.5915e-06,1.0701e-05,1.2683e-05,7.1111e-06,-3.32e-06,-6.1387e-06,-1.6549e-05,1.1953e-09,-1.8354e-06,1.5451e-05,-1.0162e-05,-1.2992e-05,-0.00010762,-1.4974e-05,2.6687e-05,3.3705e-06,2.4525e-06,-4.4241e-06,-1.0541e-05,5.3709e-06,4.105e-06,-1.4159e-05,-1.5861e-05,-4.1565e-06,-1.3196e-05,-1.0454e-05,3.5997e-06,-2.9916e-07,-9.9448e-07,4.7791e-07,5.2508e-06,-4.0561e-05,-1.5405e-05,-2.86e-05,8.8161e-06,-2.0645e-05,-2.3869e-07,-1.6712e-05,-8.5483e-06,-1.4255e-05,-1.4698e-05,-1.3895e-05,1.1025e-05,-5.5935e-06,-1.2587e-05,-7.9162e-06,6.5903e-08,-3.5637e-05,-6.1255e-06,3.0085e-06,-1.7985e-05,-2.5396e-06,-6.063e-06,3.735e-06,-3.7681e-05,-3.6603e-06,-0.099164,-1.7936e-05,-1.669e-05
-1.027e-05,-1.4029e-05,-2.2589e-05,-5.5386e-05,-4.4424e-06,-2.4259e-06,-7.5558e-07,4.7854e-06,-3.4898e-05,-2.8816e-06,-4.304e-06,-2.5828e-06,-1.3639e-05,-6.1944e-06,4.1533e-06,-6.743e-06,-1.7744e-05,-6.0235e-06,4.1685e-06,-1.4512e-06,-1.159e-05,1.2442e-07,-3.3341e-06,-5.4907e-06,-1.194e-05,-3.8319e-06,1.2512e-06,-1.0671e-06,2.4332e-06,-1.0934e-06,-1.0822e-05,-1.5094e-05,-1.7715e-05,-6.1882e-06,1.0625e-09,3.3584e-06,-8.081e-06,-1.3775e-05,-0.11601,-1.5231e-05,5.3271e-06,-1.1998e-05,-1.6743e-05,-1.0527e-05,-1.2902e-05,3.7822e-06,2.9235e-06,-1.885e-05,-2.2727e-05,-1.6013e-05,-1.1102e-05,-5.902e-06,-1.4968e-05,-3.0112e-06,-3.8123e-06,-1.0337e-08,-2.913e-06,-4.5591e-05,-1.4473e-05,-2.2437e-05,1.9382e-06,-1.7424e-05,-1.6136e-06,-2.0341e-05,-1.3327e-05,-1.0111e-05,-9.4654e-06,-1.1796e-05,-6.3957e-07,-6.9925e-06,-8.9608e-06,-7.564e-06,-2.6198e-07,-4.3291e-05,-4.3103e-06,-3.415e-06,-1.4542e-05,-2.2112e-06,-3.5348e-06,1.6742e-06,-5.5049e-05,-3.757e-06,-0.22623,-1.8372e-05,-1.5642e-05
-9.0354e-05,-0.0001018,-0.00018426,-0.00030212,-1.5574e-05,5.55e-05,-1.1903e-05,5.442e-05,-0.00015448,-5.4318e-05,-1.5962e-05,0.00010773,-5.4832e-05,-1.7934e-05,8.9889e-05,-3.8908e-05,-9.12e-05,-4.4163e-05,0.00011678,3.0357e-05,-0.00013708,3.2067e-05,-3.5809e-05,2.6044e-05,-0.00010453,-3.3045e-05,1.9262e-05,0.00011631,8.7388e-05,5.4443e-05,-5.2604e-05,-5.4533e-05,-0.00013512,1.1398e-05,-5.5852e-06,8.7544e-10,-7.0265e-05,-5.5675e-05,-0.00067865,-0.000131,0.0002242,1.4681e-05,-2.584e-05,-3.4132e-05,-9.2704e-05,3.7093e-05,4.1158e-05,-0.00012155,-8.573e-05,-7.0505e-05,-7.6149e-05,-5.3845e-05,-6.2538e-05,9.6793e-06,-5.6963e-07,1.3159e-05,2.9061e-05,-0.00025646,-8.4592e-05,-0.00018474,5.167e-05,-0.00013713,-7.5406e-06,-0.00012736,-8.9124e-05,-9.0685e-05,-7.4928e-05,-9.2221e-05,6.0189e-05,-3.241e-05,-9.8152e-05,-3.6836e-05,-1.059e-05,-0.00021321,-3.4103e-05,4.6078e-05,-0.00012585,-1.3598e-05,-2.8256e-05,2.696e-05,-0.0002928,-3.1646e-05,-0.14665,-0.00012802,-0.00011272
-1.2725e-05,-1.7817e-05,-3.0089e-05,-8.976e-05,-4.9546e-06,-5.1993e-06,-1.7159e-06,5.5764e-06,-5.6345e-05,-8.2434e-06,-6.8867e-06,8.0706e-07,-1.9268e-05,-4.4981e-06,7.1722e-06,-6.3662e-06,-2.0069e-05,-7.3062e-06,1.1126e-05,1.5055e-06,-1.7497e-05,4.7441e-06,-4.9788e-06,-5.0358e-06,-1.7678e-05,-5.675e-06,1.4256e-06,1.8516e-06,6.7155e-06,1.1532e-07,-1.2586e-05,-1.8807e-05,-2.4743e-05,-6.0448e-06,-1.437e-06,8.2057e-06,1.1661e-09,-1.5137e-05,-0.010784,-2.2158e-05,1.2694e-05,-1.1012e-05,-1.5822e-05,-1.4357e-05,-1.5248e-05,5.2413e-06,3.889e-06,-2.021e-05,-3.1703e-05,-2.0879e-05,-1.2106e-05,-8.7548e-06,-1.6274e-05,-8.3404e-07,-2.0843e-06,1.2738e-06,6.4955e-07,-9.0336e-05,-1.7989e-05,-2.5771e-05,3.3232e-06,-2.0931e-05,-1.9155e-06,-2.6163e-05,-1.6846e-05,-1.3461e-05,-1.2532e-05,-1.3464e-05,1.4941e-07,-7.9146e-06,-1.3911e-05,-5.7337e-06,-1.2713e-06,-6.0692e-05,-6.298e-06,4.7526e-07,-2.3084e-05,-2.1455e-06,-5.3771e-06,3.1658e-06,-0.00010008,-3.3913e-06,-0.1783,-2.0375e-05,-2.1174e-05
-6.8994e-05,-7.8062e-05,-0.00014639,-0.00021767,-1.1805e-05,4.5015e-05,-9.2498e-06,4.9535e-05,-0.00010891,-4.7769e-05,-1.3766e-05,5.3942e-05,-3.6917e-05,3.2255e-06,7.8955e-05,-4.0418e-05,-6.9092e-05,-3.3887e-05,0.00010312,4.3662e-05,-0.00011542,5.0302e-05,-2.6616e-05,2.0708e-05,-8.81e-05,-2.7576e-05,1.7898e-05,4.75e-05,7.3033e-05,3.7907e-05,-4.1069e-05,-6.6272e-05,-0.00012129,-5.1842e-06,-1.5211e-05,0.00011742,-5.271e-05,9.3958e-10,-0.00045838,-0.00011285,0.00014261,2.1083e-05,3.227e-05,-3.5343e-05,-6.7738e-05,3.2097e-05,3.246e-05,-8.6362e-05,-9.2894e-05,-6.4889e-05,-4.386e-05,-4.0777e-05,-2.2484e-05,2.8969e-05,1.7962e-05,1.9925e-05,3.0322e-05,-0.00020825,-5.7872e-05,-0.00012852,3.994e-05,-9.2174e-05,-5.0061e-06,-0.00010318,-7.9404e-05,-7.7891e-05,-6.4956e-05,-5.2645e-05,3.9737e-05,-1.4364e-05,-8.9538e-05,-1.1029e-05,-1.6486e-05,-0.00020085,-3.3319e-05,4.9924e-05,-0.00010861,-7.8328e-06,-2.3941e-05,2.4141e-05,-0.00024106,-1.6736e-05,-0.15229,-7.7564e-05,-0.00010087
-7.3478e-06,-6.8073e-06,-1.207e-05,-3.992e-06,2.7358e-06,1.9163e-05,-1.3613e-06,9.1133e-06,4.8384e-07,-2.3558e-06,5.3878e-06,1.0547e-05,1.1252e-05,4.8531e-07,1.5239e-05,-2.954e-06,-3.9478e-06,-3.7065e-06,2.134e-05,6.879e-06,-1.042e-05,4.9419e-06,-2.0494e-06,1.3318e-05,-7.2127e-06,-8.3074e-07,3.4338e-06,1.089e-05,1.1239e-05,1.2744e-05,9.6216e-07,1.8513e-06,-7.9022e-06,9.9521e-06,3.026e-07,2.0929e-05,-3.8997e-06,2.3966e-06,1.29e-09,-9.4876e-06,2.4749e-05,1.4339e-05,1.2127e-05,4.7783e-06,-4.0932e-06,5.4792e-06,5.2211e-06,-8.6077e-06,1.8329e-06,2.2835e-06,-2.9055e-06,-2.0486e-06,6.9808e-06,5.5799e-06,4.149e-06,4.083e-06,2.7348e-06,-1.3874e-06,-1.5582e-06,-8.6021e-06,9.2934e-06,-9.1452e-06,1.6826e-07,-3.9974e-06,-4.0688e-06,-6.956e-06,-5.7548e-06,-5.8084e-06,1.2221e-05,1.6153e-06,-9.5294e-06,-1.2833e-06,-4.472e-07,-7.2083e-06,-1.9221e-06,1.0997e-05,-1.234e-06,4.1551e-07,-1.398e-06,3.8442e-06,-4.0106e-06,2.5788e-07,-0.090147,-4.7624e-06,-7.4279e-06
-3.0664e-05,-4.1697e-05,-6.4871e-05,-0.000144,-7.0754e-06,3.8842e-06,-1.8437e-06,1.2278e-05,-8.1459e-05,-2.2543e-05,-1.147e-05,9.8798e-06,-3.9566e-05,-1.1518e-05,1.5478e-05,-1.4004e-05,-4.0803e-05,-2.0263e-05,2.8805e-05,5.3429e-06,-4.0613e-05,1.1017e-05,-1.1313e-05,1.6747e-06,-4.2104e-05,-1.1276e-05,3.82e-06,9.7015e-06,3.0104e-05,6.6901e-06,-1.8819e-05,-3.3039e-05,-4.4595e-05,-1.3465e-06,-3.2735e-06,2.4691e-05,-2.6436e-05,-3.2526e-05,-0.0010723,1.2516e-09,4.0549e-05,-1.5895e-05,-1.6439e-05,-2.3259e-05,-2.6537e-05,1.295e-05,9.8331e-06,-3.1933e-05,-5.6737e-05,-3.1383e-05,-3.0067e-05,-2.3653e-05,-1.8931e-05,-9.8564e-07,-3.5159e-06,2.4541e-06,6.8799e-06,-0.00014519,-3.9935e-05,-6.9039e-05,1.2713e-05,-4.7183e-05,-1.2702e-06,-5.8412e-05,-3.5505e-05,-3.055e-05,-3.1564e-05,-3.126e-05,1.0478e-05,-1.681e-05,-3.1945e-05,-1.4744e-05,-2.3024e-06,-0.00010575,-1.6659e-05,4.619e-06,-5.4901e-05,-4.9052e-06,-1.2939e-05,7.6921e-06,-0.00014674,-8.6198e-06,-0.181,-4.4231e-05,-3.885e-05
-9.6904e-05,-0.00012073,-0.00019504,-0.00034056,-1.1103e-05,9.1915e-05,-1.0095e-05,5.2099e-05,-0.00010317,-6.3868e-05,-2.0402e-05,0.00014409,-7.4966e-05,-2.5554e-05,7.1246e-05,-1.4923e-05,-0.00010179,-4.6221e-05,0.00011196,2.4721e-05,-0.00013816,4.1879e-05,-3.0895e-05,4.3423e-05,-0.00011764,-3.0525e-05,1.8433e-05,0.00013618,0.00010489,8.2037e-05,-3.6614e-05,-5.3705e-05,-0.00011986,5.452e-05,-8.2637e-06,0.00019975,-7.0798e-05,-6.4559e-05,-0.00062251,-0.00011802,9.6678e-10,5.1506e-05,4.0576e-05,-2.9054e-05,-7.8984e-05,4.4304e-05,4.2832e-05,-0.0001115,-0.00010489,-4.5978e-05,-8.4886e-05,-6.8626e-05,1.2166e-05,-8.0055e-07,-1.3603e-05,9.8834e-06,4.3298e-05,-0.00029629,-0.00010277,-0.00022248,6.1128e-05,-0.0001418,4.3045e-06,-0.00013731,-8.604e-05,-9.7907e-05,-9.1767e-05,-8.6127e-05,8.0065e-05,-3.5176e-05,-0.00010211,-4.5666e-05,-2.0045e-06,-0.00019784,-4.0509e-05,4.88e-05,-0.0001322,-1.2119e-05,-3.9357e-05,3.5457e-05,-0.00031222,-2.3811e-05,-0.13718,-0.00012912,-0.00011762
-7.1658e-06,-6.3415e-06,-1.3656e-05,-1.8901e-05,-3.0923e-07,2.3942e-05,-7.6455e-07,4.2738e-06,3.2325e-06,-6.4657e-06,-7.2059e-07,1.0448e-05,-1.2263e-06,8.2467e-07,7.3385e-06,8.1533e-08,-4.1376e-06,-2.5587e-06,1.2206e-05,4.6765e-06,-1.194e-05,4.8724e-06,-2.4886e-06,9.6868e-06,-8.7107e-06,-2.7974e-06,2.1921e-06,8.3152e-06,7.1975e-06,9.8538e-06,-1.3649e-06,-5.3724e-07,-8.2112e-06,6.6525e-06,-2.6074e-06,1.5173e-05,-5.4615e-06,-1.8807e-06,-3.9292e-05,-1.0046e-05,2.3107e-05,1.1936e-09,2.8927e-05,1.4852e-06,-5.34e-06,2.469e-06,2.2034e-06,-6.5943e-06,1.5313e-06,8.1964e-06,-4.1713e-06,-5.2571e-06,1.2847e-05,2.6412e-06,1.2927e-06,1.7977e-06,5.4807e-06,-1.8502e-05,-5.057e-06,-1.4578e-05,8.9163e-06,-8.983e-06,-1.2982e-07,-7.4417e-06,-6.0428e-06,-7.7162e-06,-7.4859e-06,-4.7162e-06,1.4647e-05,9.2424e-08,-9.9854e-06,-1.5565e-06,-1.3495e-06,-1.2808e-05,-3.5901e-06,7.0585e-06,-1.1532e-05,-1.3719e-06,-2.8245e-06,2.364e-06,-1.9856e-05,-1.193e-06,-0.11542,-6.3373e-06,-9.1674e-06
-1.9813e-05,-1.4429e-05,-4.0166e-05,-6.1234e-05,4.7217e-06,9.633e-05,-1.8743e-06,1.1345e-05,0.00013735,-2.6709e-05,-5.8488e-07,4.9656e-05,-3.9449e-06,1.17e-05,2.6874e-05,-4.6268e-07,-4.3645e-06,-1.0088e-05,5.1937e-05,2.6702e-05,-4.6804e-05,2.4456e-05,-9.2212e-06,4.3555e-05,-3.1405e-05,-1.1273e-05,5.1334e-06,2.6192e-05,3.2674e-05,6.7902e-05,-1.293e-07,9.348e-06,-2.6837e-05,2.7969e-05,-1.7169e-05,4.5541e-05,-2.2562e-05,2.5629e-06,-0.00014708,-3.0947e-05,8.8334e-05,0.00011823,1.0191e-09,8.8652e-06,-4.1433e-06,1.2763e-05,1.0846e-05,-9.2237e-06,1.2237e-05,4.5783e-05,-7.6854e-06,-2.8585e-05,0.0041657,1.8975e-05,1.4381e-05,1.0043e-05,2.2748e-05,-7.258e-05,-7.1733e-06,-6.1869e-05,3.8808e-05,-2.8602e-05,7.2339e-06,-1.6482e-05,-1.9928e-05,-2.6933e-05,-2.2993e-05,-3.6602e-06,5.9096e-05,4.3938e-06,-3.6264e-05,-7.8011e-07,-6.7722e-06,-1.0859e-05,-1.6062e-05,3.2716e-05,-3.5195e-05,-2.0775e-06,-1.6469e-05,1.0448e-05,-7.6225e-05,1.4256e-06,-0.14943,-9.7017e-06,-2.3763e-05
-7.3491e-05,-8.8668e-05,-0.00014058,-0.00021152,-1.1434e-05,4.6831e-05,-1.2191e-05,4.7751e-05,-9.9346e-05,-4.2447e-05,-1.3327e-05,5.8989e-05,-3.6877e-05,-2.0206e-05,6.9191e-05,-3.4447e-05,-7.56e-05,-4.1218e-05,7.8181e-05,2.3377e-05,-0.00010865,3.0113e-05,-2.8379e-05,4.3267e-05,-8.951e-05,-2.6191e-05,1.2752e-05,4.5979e-05,6.6869e-05,4.6054e-05,-3.6947e-05,-4.0257e-05,-0.00010729,2.3e-05,-7.1846e-06,0.00010326,-6.3358e-05,-5.2994e-05,-0.00044363,-9.978e-05,0.00013718,2.7543e-05,2.2802e-05,9.0249e-10,-6.6158e-05,3.1759e-05,3.0811e-05,-8.8547e-05,-8.0751e-05,-5.4893e-05,-5.7601e-05,-4.2614e-05,-1.0565e-05,1.0998e-05,2.0499e-06,1.0054e-05,1.3846e-05,-0.00018861,-6.47e-05,-0.00015041,4.4082e-05,-0.00010896,-4.5155e-06,-9.3656e-05,-7.4702e-05,-7.2548e-05,-6.1867e-05,-6.5581e-05,4.7287e-05,-2.3737e-05,-7.9708e-05,-2.6267e-05,-7.9659e-06,-0.00018202,-3.0585e-05,4.9756e-05,-8.7167e-05,-1.2011e-05,-3.0851e-05,1.8506e-05,-0.00021206,-2.4241e-05,-0.14699,-8.9825e-05,-9.8768e-05
-7.2558e-05,-8.4804e-05,-0.00015711,-0.00038434,-1.3973e-05,2.6406e-05,-3.7333e-06,4.5697e-05,-0.00019454,-5.0555e-05,-1.7537e-05,4.4353e-05,-7.3584e-05,-1.1249e-05,6.0766e-05,-3.4212e-05,-8.1138e-05,-3.7488e-05,8.7757e-05,3.8619e-05,-0.00010567,4.5182e-05,-2.7614e-05,2.1232e-05,-0.00010437,-2.4861e-05,1.5859e-05,3.502e-05,8.8098e-05,3.5021e-05,-4.3207e-05,-7.0273e-05,-0.00011771,1.0577e-05,-1.6467e-05,8.5152e-05,-5.6344e-05,-6.1113e-05,-0.0075065,-9.5524e-05,0.00013195,-6.5029e-06,2.1762e-05,-4.3972e-05,1.2923e-09,3.8607e-05,3.4242e-05,-6.2634e-05,-0.00013171,-6.8481e-05,-5.7588e-05,-4.6071e-05,-4.7902e-05,1.4483e-05,4.0813e-06,1.6405e-05,2.9988e-05,-0.00039395,-7.4977e-05,-0.0001573,4.1681e-05,-0.00010618,-7.1037e-08,-0.00013041,-9.109e-05,-7.4338e-05,-6.6351e-05,-6.3081e-05,3.6815e-05,-2.6298e-05,-8.4933e-05,-2.0013e-05,-1.2925e-05,-0.00026817,-3.6611e-05,4.0419e-05,-0.00012802,-1.8429e-06,-3.2196e-05,2.2894e-05,-0.00043517,-1.104e-05,-0.17328,-9.4864e-05,-0.00010153
-2.8588e-05,-3.9827e-05,-6.6467e-05,-0.00024748,-1.2597e-05,-1.5463e-05,-3.0611e-06,1.0319e-05,-0.00015265,-1.5987e-05,-1.6756e-05,-7.7057e-06,-5.1623e-05,-1.3585e-05,9.9502e-06,-1.8924e-05,-5.1929e-05,-1.764e-05,1.3442e-05,-9.7698e-07,-3.4502e-05,5.6716e-06,-1.0043e-05,-1.8406e-05,-3.8862e-05,-1.3485e-05,2.8863e-06,-3.8819e-06,1.05e-05,-5.1962e-06,-3.3281e-05,-4.614e-05,-5.6085e-05,-1.9217e-05,-2.4728e-07,8.5573e-06,-2.346e-05,-4.2792e-05,-0.1495,-4.5925e-05,1.6952e-05,-3.9759e-05,-4.4302e-05,-3.4221e-05,-3.5339e-05,8.9635e-10,7.4447e-06,-4.7081e-05,-7.9478e-05,-5.1339e-05,-3.1147e-05,-1.9963e-05,-4.3077e-05,-5.4813e-06,-7.7992e-06,-4.0174e-07,-4.1336e-06,-0.00024073,-4.3436e-05,-6.22e-05,5.7852e-06,-4.813e-05,-8.1119e-07,-6.72e-05,-4.2529e-05,-3.0007e-05,-2.7822e-05,-3.1509e-05,-3.137e-06,-2.0014e-05,-2.7539e-05,-1.6357e-05,-2.4341e-06,-0.00015673,-1.4613e-05,-9.3764e-06,-5.4978e-05,-2.8647e-06,-1.1661e-05,4.436e-06,-0.00028059,-1.0246e-05,-0.16822,-5.2421e-05,-4.7222e-05
-1.1872e-05,-1.6143e-05,-2.7395e-05,-6.5471e-05,-5.0938e-06,-4.2649e-06,-1.0888e-06,5.1707e-06,-4.0544e-05,-6.4597e-06,-5.4149e-06,-1.449e-06,-1.802e-05,-5.7198e-06,5.2271e-06,-7.3253e-06,-1.9518e-05,-5.374e-06,6.592e-06,1.7483e-07,-1.4539e-05,1.9527e-06,-4.1998e-06,-5.388e-06,-1.6298e-05,-4.9362e-06,1.2424e-06,-1.2144e-06,3.9759e-06,-8.7002e-07,-1.3253e-05,-1.7348e-05,-2.2574e-05,-7.5491e-06,-1.691e-07,5.2047e-06,-1.0277e-05,-1.6243e-05,-0.061529,-1.9441e-05,7.9485e-06,-1.4007e-05,-1.5705e-05,-1.2922e-05,-1.4593e-05,4.0768e-06,1.0747e-09,-2.0232e-05,-2.7382e-05,-1.8765e-05,-1.2442e-05,-7.8371e-06,-1.552e-05,-2.1978e-06,-3.0388e-06,3.1893e-07,-7.2452e-07,-6.2098e-05,-1.7006e-05,-2.6087e-05,2.2749e-06,-1.9165e-05,-2.1374e-06,-2.4115e-05,-1.6224e-05,-1.1917e-05,-1.1483e-05,-1.3398e-05,-4.3708e-07,-8.1932e-06,-1.1744e-05,-7.0394e-06,8.2776e-07,-5.031e-05,-4.2895e-06,-3.0242e-06,-1.9943e-05,-2.4061e-06,-4.792e-06,3.4237e-06,-6.8959e-05,-3.4898e-06,-0.24075,-2.0364e-05,-1.9343e-05
-7.7547e-05,-9.789e-05,-0.00017492,-0.0004778,-2.2571e-05,-6.3266e-06,-7.5138e-06,2.5244e-05,-0.0002576,-9.0686e-05,-4.0455e-05,4.8255e-05,-0.0001238,2.7825e-07,5.4588e-05,-4.1721e-05,-8.2356e-05,-4.5707e-05,0.00010571,5.2347e-05,-0.00013388,7.1725e-05,-3.7881e-05,1.143e-05,-0.00013728,-4.0108e-05,7.6833e-06,3.4091e-05,0.00010378,1.7063e-05,-6.0105e-05,-8.697e-05,-0.00015126,4.3897e-06,-4.4535e-05,9.2574e-05,-7.6151e-05,-7.5627e-05,-0.014694,-0.00010715,0.00014466,-8.728e-06,2.0683e-05,-6.1582e-05,-5.3085e-05,3.43e-05,2.5729e-05,1.4424e-09,-0.00017831,-8.7795e-05,-6.3179e-05,-6.5313e-05,-6.7621e-05,2.9216e-05,2.0665e-05,1.7628e-05,4.9764e-05,-0.00058709,-9.1248e-05,-0.00015505,3.904e-05,-0.00010981,1.1723e-06,-0.00016168,-0.00011011,-9.5003e-05,-8.7329e-05,-6.2071e-05,3.1308e-05,-2.9722e-05,-0.00010422,-9.4985e-06,-2.3757e-05,-0.00035932,-5.3256e-05,4.6427e-05,-0.00019103,-1.0596e-05,-4.2571e-05,2.1418e-05,-0.00057575,-2.3545e-05,-0.18401,-0.00010066,-0.00011
-5.3321e-06,-5.0578e-06,-1.1769e-05,-1.5196e-05,3.1886e-08,1.3146e-05,-3.9019e-07,4.8298e-06,-1.2492e-06,-3.5633e-06,-5.4055e-07,7.2446e-06,-2.3476e-07,-2.6072e-07,7.509e-06,-2.5041e-06,-4.6547e-06,-2.6568e-06,9.8235e-06,3.1549e-06,-9.6237e-06,3.5497e-06,-2.2653e-06,6.1856e-06,-6.821e-06,-1.4983e-06,2.4529e-06,5.4178e-06,6.6176e-06,7.7485e-06,-3.7585e-06,-8.5005e-07,-8.854e-06,3.6862e-06,-5.7456e-07,1.3675e-05,-4.5226e-06,-2.3034e-06,-3.2452e-05,-7.9918e-06,1.5284e-05,1.0185e-05,1.0421e-05,-5.9908e-08,-4.9382e-06,3.3027e-06,3.3918e-06,-7.0286e-06,1.0823e-09,4.9451e-07,-3.2879e-06,-3.3089e-06,3.125e-06,1.9933e-06,1.0518e-06,1.2585e-06,2.1346e-06,-1.3308e-05,-3.9769e-06,-1.2976e-05,7.25e-06,-8.2185e-06,-2.5806e-07,-5.8012e-06,-5.8579e-06,-5.8155e-06,-4.1446e-06,-5.1057e-06,8.9959e-06,-4.6653e-07,-6.2755e-06,-1.5527e-06,-9.3556e-07,-1.0997e-05,-2.1122e-06,4.805e-06,-7.8421e-06,-3.3928e-07,-1.7278e-06,2.4674e-06,-1.4678e-05,-8.7568e-07,-0.15462,-5.8711e-06,-7.7068e-06
-9.3718e-06,-1.0723e-05,-1.6358e-05,-2.9037e-05,7.467e-07,1.7729e-05,-5.8455e-07,3.6811e-06,-8.1022e-06,-8.9337e-06,-1.6671e-06,5.4899e-06,-7.6332e-06,-3.0796e-06,4.1459e-06,-3.3041e-07,-9.3129e-06,-5.1228e-06,1.2089e-05,2.7218e-06,-1.1123e-05,4.5538e-06,-2.8204e-06,6.2677e-06,-1.254e-05,-2.9608e-06,7.0769e-07,4.5419e-06,7.6772e-06,7.7435e-06,-1.9073e-06,-3.2473e-06,-1.0915e-05,5.6233e-06,-2.2791e-06,1.1402e-05,-7.5669e-06,-6.7252e-06,-6.6871e-05,-1.06e-05,1.7757e-05,1.2941e-05,1.5854e-05,-3.7339e-06,-6.9634e-06,3.0708e-06,2.8555e-06,-9.0278e-06,-6.3188e-06,9.9403e-10,-7.9378e-06,-8.6677e-06,9.521e-06,1.5918e-06,5.4001e-07,1.1448e-06,4.623e-06,-3.1852e-05,-9.637e-06,-2.0077e-05,7.5999e-06,-1.3027e-05,3.0163e-08,-1.3644e-05,-7.5663e-06,-8.6615e-06,-1.0988e-05,-7.1729e-06,1.36e-05,-2.6453e-06,-1.0454e-05,-4.9167e-06,2.2456e-07,-1.8649e-05,-4.8493e-06,2.4758e-06,-1.467e-05,-2.2884e-06,-3.4971e-06,3.2918e-06,-2.8719e-05,-1.2693e-06,-0.14993,-1.0572e-05,-1.1456e-05
-0.00010205,-0.00013423,-0.00026905,-0.00070201,-4.3634e-05,-2.5244e-05,-1.493e-05,6.8255e-05,-0.00040827,-7.7708e-05,-6.5695e-05,2.7995e-05,-0.0001438,1.5122e-06,9.0332e-05,-8.7361e-05,-0.0001387,-4.9604e-05,0.00010859,5.6419e-05,-0.00017117,7.15e-05,-4.5488e-05,-1.8405e-05,-0.00015625,-4.9099e-05,2.076e-05,7.351e-06,6.8535e-05,2.2472e-06,-0.00013087,-0.0001536,-0.00024413,-5.8025e-05,-3.1997e-05,0.00010271,-9.6861e-05,-0.0001088,-0.016413,-0.00021055,0.0001429,-5.3167e-05,-4.5972e-05,-0.00010536,-0.00013413,4.0158e-05,4.2137e-05,-0.00015805,-0.00024739,-0.00018254,1.5036e-09,-6.4056e-05,-0.00017477,2.4333e-05,1.0643e-05,3.8536e-05,1.4971e-05,-0.00073056,-0.00011696,-0.00022559,4.125e-05,-0.00015322,-1.458e-05,-0.0002145,-0.00017447,-0.00012146,-9.6701e-05,-8.407e-05,1.6259e-05,-3.5919e-05,-0.00014128,-1.9189e-05,-2.8736e-05,-0.00048572,-5.9015e-05,3.9963e-05,-0.00023873,-1.877e-05,-4.3025e-05,2.4914e-05,-0.00094753,-4.013e-05,-0.20222,-0.00013671,-0.00018334
-1.1464e-05,-1.4688e-05,-2.8911e-05,-5.618e-05,-4.9262e-06,-1.6149e-06,-8.9645e-07,9.5187e-06,-3.5015e-05,-5.1179e-06,-5.2643e-06,1.6086e-06,-1.2668e-05,-2.8943e-06,1.0067e-05,-9.2185e-06,-1.7595e-05,-5.5481e-06,1.0418e-05,3.8196e-06,-1.7923e-05,4.929e-06,-4.1491e-06,-2.6333e-06,-1.6072e-05,-4.9564e-06,3.1662e-06,1.6788e-06,6.8857e-06,5.5872e-07,-1.42e-05,-1.5915e-05,-2.5124e-05,-5.5165e-06,3.2108e-07,1.084e-05,-1.0182e-05,-1.2701e-05,-0.0031881,-2.1724e-05,1.3548e-05,-7.896e-06,-1.3012e-05,-1.0179e-05,-1.4372e-05,5.6092e-06,5.6459e-06,-1.9574e-05,-2.4026e-05,-2.0517e-05,-9.8891e-06,1.1194e-09,-1.7897e-05,2.7422e-07,-1.2042e-06,2.4506e-06,4.2751e-08,-4.9674e-05,-1.2854e-05,-2.5017e-05,4.8583e-06,-1.813e-05,-1.9141e-06,-2.1706e-05,-1.7701e-05,-1.3201e-05,-1.0858e-05,-1.2297e-05,1.806e-06,-5.5794e-06,-1.3927e-05,-5.2114e-06,-1.5987e-06,-4.7565e-05,-5.0172e-06,1.6727e-06,-2.0158e-05,-1.4435e-06,-3.116e-06,3.3669e-06,-6.3621e-05,-3.8231e-06,-0.2306,-1.8591e-05,-1.9975e-05
-2.2991e-05,-2.6302e-05,-4.0151e-05,-7.0303e-05,8.7147e-07,4.6852e-05,-5.9246e-06,5.6631e-06,2.9003e-05,-2.4468e-05,-2.3665e-06,2.1704e-05,-1.9399e-05,-5.2326e-06,1.1233e-05,4.7056e-07,-1.7176e-05,-1.797e-05,3.962e-05,7.1316e-06,-3.242e-05,7.5133e-06,-8.3828e-06,1.8443e-05,-3.1344e-05,-7.9967e-06,-4.678e-06,2.0323e-05,2.5417e-05,3.6362e-05,1.1605e-06,-5.9014e-06,-2.0574e-05,2.1305e-05,-9.0113e-06,2.2977e-05,-1.7201e-05,-1.2468e-05,-0.00014391,-2.3535e-05,5.2786e-05,3.598e-05,0.00058341,-3.219e-06,-1.9017e-05,8.6196e-06,7.0292e-06,-2.4724e-05,-1.4177e-05,1.5879e-05,-2.4787e-05,-2.5863e-05,7.5294e-10,1.7977e-06,6.973e-07,-1.6637e-06,1.0697e-05,-7.9257e-05,-2.4581e-05,-5.0302e-05,2.1886e-05,-3.7298e-05,1.2739e-06,-2.8212e-05,-1.1596e-05,-2.3824e-05,-2.6899e-05,-1.81e-05,3.0534e-05,-8.9875e-06,-2.5864e-05,-1.1456e-05,6.4143e-08,-2.9377e-05,-1.7344e-05,5.3848e-06,-2.8972e-05,-6.7198e-06,-1.3867e-05,7.0559e-06,-6.8572e-05,-5.1837e-06,-0.11837,-2.5119e-05,-2.6837e-05
-0.0001071,-0.00014231,-0.00024819,-0.00070183,-2.3884e-05,-2.1031e-05,-1.0417e-06,5.715e-05,-0.00040285,-9.0476e-05,-3.5646e-05,1.035e-05,-0.0001471,-1.4321e-05,0.00010929,-7.0927e-05,-0.00015026,-5.8106e-05,0.00012216,5.733e-05,-0.00016703,7.3534e-05,-4.2186e-05,-8.5053e-06,-0.00018008,-5.4952e-05,2.758e-05,3.6137e-06,7.2894e-05,2.5661e-05,-0.00011182,-0.00014799,-0.00024212,-4.9228e-05,-2.9633e-05,0.00010489,-0.00010307,-0.00011467,-0.025378,-0.00020456,0.00013303,-6.6962e-05,-4.9465e-05,-0.00010714,-0.00013916,4.6999e-05,4.442e-05,-0.00015416,-0.00027601,-0.00015863,-9.2645e-05,-8.0731e-05,-0.00013199,1.3457e-09,6.3015e-05,2.2589e-05,3.3577e-05,-0.00077234,-0.00014464,-0.00018659,3.5863e-05,-0.00016046,-1.4808e-05,-0.0002286,-0.00015833,-0.00011987,-0.00010364,-0.00010939,2.9999e-05,-4.7101e-05,-0.00013174,-2.5428e-05,-2.1316e-05,-0.0006541,-6.0713e-05,1.7223e-05,-0.00022546,-1.6239e-05,-3.3305e-05,3.3519e-05,-0.00091819,-3.2383e-05,-0.19572,-0.00016881,-0.00018206
-0.0001047,-0.00014265,-0.00024353,-0.00071344,-2.1877e-05,-2.7974e-05,-5.7816e-07,5.1216e-05,-0.00041214,-9.1868e-05,-3.3201e-05,7.3281e-06,-0.00015455,-1.3546e-05,0.00010428,-7.0433e-05,-0.00014967,-5.6484e-05,0.0001202,5.5431e-05,-0.00016063,7.4064e-05,-4.1317e-05,-8.1933e-06,-0.00017787,-5.3216e-05,2.771e-05,1.6855e-06,7.3133e-05,2.1147e-05,-0.00011154,-0.00015024,-0.00023603,-4.2853e-05,-3.0122e-05,0.00010133,-0.00010169,-0.00011723,-0.031921,-0.00019865,0.00012624,-7.4439e-05,-5.4401e-05,-0.00010793,-0.00013975,4.5692e-05,4.4751e-05,-0.00014879,-0.00027885,-0.0001587,-9.2158e-05,-8.1585e-05,-0.00012204,7.4158e-05,1.3289e-09,2.2395e-05,3.624e-05,-0.00080686,-0.00014703,-0.0001884,3.4007e-05,-0.00015761,-1.3609e-05,-0.00022661,-0.00015087,-0.00011801,-0.000104,-0.00010951,3.0513e-05,-4.7905e-05,-0.00012568,-2.3538e-05,-1.7582e-05,-0.00064733,-5.9659e-05,1.2613e-05,-0.00022212,-1.68e-05,-3.4266e-05,3.4131e-05,-0.0009395,-3.0973e-05,-0.19425,-0.00016571,-0.00017682
-0.00012727,-0.00018223,-0.0003085,-0.0012897,-4.1792e-05,1.5488e-08,-4.7595e-06,9.5147e-05,-0.00070866,-8.1705e-05,-5.6719e-05,7.7494e-06,-0.00021388,-2.0324e-05,0.00010362,-9.2412e-05,-0.00019977,-5.4544e-05,0.00011906,4.6835e-05,-0.00018659,6.9106e-05,-4.6868e-05,-3.4226e-05,-0.000185,-5.3637e-05,2.8801e-05,8.0738e-06,7.8884e-05,1.3573e-05,-0.00012085,-0.00019827,-0.0002718,-6.6356e-05,-8.4647e-06,0.00010905,-0.00010723,-0.00016706,-0.10896,-0.00023006,0.00015312,-0.00012065,-0.00013877,-0.00014279,-0.00016186,5.8352e-05,5.7588e-05,-0.00020365,-0.00040321,-0.00022075,-9.7402e-05,-8.0092e-05,-0.0002137,1.46e-05,1.1365e-06,9.4915e-10,1.8583e-05,-0.0012854,-0.00017262,-0.00028868,4.5614e-05,-0.00020601,-1.0516e-05,-0.00029561,-0.00019166,-0.00014022,-0.00011928,-0.00012348,2.0387e-05,-5.3928e-05,-0.00015119,-4.4665e-05,-1.2856e-05,-0.0011073,-5.8169e-05,3.1572e-05,-0.00026076,-1.6354e-05,-4.6034e-05,4.0605e-05,-0.0016507,-3.9105e-05,-0.22365,-0.00019239,-0.00021293
-1.3114e-05,-1.7964e-05,-2.8067e-05,-8.4744e-05,-4.9151e-06,-5.2657e-06,-1.1276e-06,1.2469e-06,-4.6031e-05,-1.3847e-05,-8.3242e-06,1.4549e-06,-2.5459e-05,-3.0249e-06,3.4859e-06,-6.0388e-06,-1.7781e-05,-8.0348e-06,9.1923e-06,2.5825e-06,-1.7734e-05,6.4049e-06,-5.0327e-06,-4.0475e-06,-1.9985e-05,-6.262e-06,8.1501e-07,1.0869e-06,7.1635e-06,-1.0445e-07,-1.0619e-05,-1.7757e-05,-2.4074e-05,-4.0708e-06,-5.434e-06,9.1714e-06,-1.2059e-05,-1.6152e-05,-0.060508,-2.0846e-05,1.4776e-05,-8.0473e-06,-1.0044e-05,-1.5018e-05,-1.4817e-05,2.988e-06,3.4685e-06,-1.6326e-05,-3.32e-05,-1.6002e-05,-1.4195e-05,-1.1756e-05,-1.2812e-05,1.258e-07,-7.4158e-07,-6.422e-09,1.1714e-09,-0.00010099,-1.9384e-05,-2.7703e-05,2.3e-06,-1.9599e-05,-2.475e-06,-2.8216e-05,-1.5861e-05,-1.4426e-05,-1.4011e-05,-1.3069e-05,2.0599e-06,-7.8515e-06,-1.4663e-05,-5.5696e-06,-1.7966e-06,-6.4077e-05,-8.6089e-06,-1.5744e-06,-3.1173e-05,-3.471e-06,-7.0421e-06,3.0161e-06,-9.2664e-05,-4.3327e-06,-0.17086,-2.007e-05,-2.0589e-05
-5.8604e-06,-5.6036e-06,-1.1088e-05,-6.4913e-06,4.9491e-07,8.4679e-06,-5.4733e-07,7.1832e-06,-2.847e-06,-1.272e-06,2.0189e-06,5.8988e-06,5.8346e-06,-2.6943e-07,9.997e-06,-4.4644e-06,-4.8836e-06,-2.6567e-06,1.1097e-05,4.0898e-06,-8.7251e-06,2.9847e-06,-2.0935e-06,6.9099e-06,-6.0631e-06,-1.0427e-06,2.4057e-06,4.875e-06,6.5304e-06,5.8117e-06,-2.1232e-06,-2.6777e-06,-8.444e-06,3.964e-06,9.1976e-07,1.2753e-05,-4.2353e-06,-4.1831e-07,-1.7006e-05,-8.2139e-06,1.3995e-05,4.7611e-06,2.8156e-06,1.5501e-06,-4.7451e-06,3.2254e-06,3.6605e-06,-7.5313e-06,-2.2464e-06,-3.83e-06,-2.8837e-06,-1.3014e-06,-1.9578e-06,3.095e-06,2.0161e-06,2.359e-06,1.1838e-06,9.3159e-10,-2.4213e-06,-6.7448e-06,5.3018e-06,-7.762e-06,-6.7316e-07,-5.2338e-06,-5.3524e-06,-5.6048e-06,-4.4018e-06,-4.8755e-06,5.5681e-06,4.0673e-07,-6.6958e-06,-1.2769e-06,-9.4619e-07,-1.1639e-05,-1.7447e-06,5.1908e-06,-3.142e-06,-3.0492e-07,-1.3028e-06,2.0325e-06,-7.0762e-06,-1.1701e-06,-0.1496,-5.2902e-06,-6.9994e-06
-6.4002e-05,-6.969e-05,-0.00015945,-0.00025252,-1.8901e-05,2.8083e-05,-6.2378e-06,7.278e-05,-0.00014724,-3.6519e-05,-2.1815e-05,4.0985e-05,-4.8528e-05,1.0435e-05,7.7357e-05,-4.8949e-05,-6.5424e-05,-2.861e-05,9.3164e-05,5.7791e-05,-0.00011172,5.5684e-05,-2.3666e-05,1.1229e-05,-9.3443e-05,-2.3528e-05,1.9531e-05,2.6893e-05,6.1027e-05,3.1683e-05,-5.4914e-05,-6.9045e-05,-0.00013436,-9.4952e-06,-1.084e-05,0.00010212,-5.9178e-05,-4.632e-05,-0.00070431,-0.00012247,0.00012021,5.0662e-07,1.627e-05,-3.6721e-05,-6.9279e-05,3.8378e-05,3.749e-05,-8.8132e-05,-0.00010543,-8.2148e-05,-3.805e-05,-2.911e-05,-5.6931e-05,2.2192e-05,1.0881e-05,2.5876e-05,2.1921e-05,-0.00024093,8.7769e-10,-0.0001406,4.1324e-05,-8.9639e-05,-5.1773e-06,-9.839e-05,-8.9956e-05,-8.0823e-05,-5.3788e-05,-4.8738e-05,4.0779e-05,-8.7292e-06,-8.4848e-05,6.4598e-07,-1.702e-05,-0.0001912,-2.9443e-05,4.5852e-05,-0.00011604,-4.921e-06,-2.2956e-05,2.2577e-05,-0.00030444,-1.3268e-05,-0.14908,-7.6898e-05,-0.00010435
-3.8404e-06,-4.609e-06,-7.3807e-06,-1.2213e-05,-1.6256e-06,-2.9989e-06,-7.1569e-07,1.1846e-06,-1.2714e-05,-3.3112e-06,-1.7032e-06,-1.0525e-06,-3.6395e-06,-6.6332e-07,2.1354e-06,-3.593e-06,-5.0593e-06,-2.3071e-06,3.8033e-06,1.2674e-06,-5.6019e-06,1.7465e-06,-2.044e-06,-1.7045e-06,-5.9196e-06,-2.0835e-06,-8.4482e-08,-6.3413e-07,1.7963e-06,-8.7899e-07,-4.2395e-06,-5.0882e-06,-7.6675e-06,-2.1939e-06,-1.5859e-06,2.1993e-06,-3.1516e-06,-3.5487e-06,-4.8515e-05,-6.9931e-06,2.6215e-06,-2.5995e-06,-4.1834e-06,-3.8988e-06,-4.7676e-06,7.4292e-07,5.97e-07,-4.6265e-06,-8.4144e-06,-6.1053e-06,-3.1505e-06,-2.6088e-06,-4.9849e-06,1.1275e-06,6.7521e-07,4.0158e-08,3.7297e-07,-1.2633e-05,-4.5276e-06,1.3357e-09,2.4496e-07,-4.8539e-06,-1.0306e-06,-6.7946e-06,-4.8629e-06,-4.0817e-06,-3.9654e-06,-3.4987e-06,-1.3027e-06,-1.9044e-06,-4.6265e-06,-1.0242e-06,-1.26e-06,-1.487e-05,-2.432e-06,-9.0832e-07,-6.6894e-06,-9.673e-07,-1.4825e-06,3.1942e-07,-1.5876e-05,-1.926e-06,-0.30877,-5.1295e-06,-5.8237e-06
-6.3575e-06,-7.4019e-06,-1.3013e-05,-2.7823e-05,-2.3521e-06,7.7552e-07,-4.6548e-07,2.3924e-06,-1.5385e-05,-3.7831e-06,-3.1593e-06,1.5075e-07,-7.9948e-06,-3.0504e-06,2.4189e-06,-3.6197e-06,-9.2193e-06,-3.7024e-06,3.4853e-06,-2.0705e-08,-8.0061e-06,6.9044e-07,-2.5516e-06,-1.3623e-06,-8.2601e-06,-2.8026e-06,4.4303e-07,4.4952e-07,2.362e-06,8.0901e-07,-5.8184e-06,-7.5044e-06,-1.0521e-05,-1.733e-06,-4.8025e-07,3.395e-06,-5.3678e-06,-7.74e-06,-0.00014996,-9.1499e-06,5.2536e-06,-2.755e-06,-3.0036e-06,-5.5475e-06,-7.034e-06,2.1105e-06,1.4626e-06,-9.3811e-06,-9.9019e-06,-6.181e-06,-6.364e-06,-4.4529e-06,-3.8827e-06,-1.4479e-06,-1.9874e-06,-2.8659e-07,-5.3512e-07,-2.6947e-05,-8.4039e-06,-1.4038e-05,1.0508e-09,-1.0491e-05,-1.0551e-06,-1.1448e-05,-7.9547e-06,-6.4323e-06,-6.1389e-06,-6.5676e-06,1.7572e-06,-3.4745e-06,-6.2841e-06,-4.1806e-06,-5.3141e-07,-2.0019e-05,-3.2329e-06,-1.1333e-06,-1.0108e-05,-1.4375e-06,-3.0565e-06,1.036e-06,-2.9581e-05,-2.0934e-06,-0.28095,-9.8488e-06,-9.4516e-06
-9.6251e-05,-0.00014154,-0.00026054,-0.00073952,-3.6984e-05,-3.4067e-05,-7.4232e-06,6.3393e-05,-0.00043112,-8.7048e-05,-6.1276e-05,3.0952e-05,-0.00015984,9.3227e-07,8.5232e-05,-7.1475e-05,-0.00013273,-4.3786e-05,0.00012416,6.3988e-05,-0.00017382,8.6222e-05,-3.1171e-05,-2.1315e-05,-0.00017461,-5.1642e-05,2.4217e-05,1.2929e-05,8.1489e-05,1.3641e-05,-0.00011449,-0.00014497,-0.00023322,-4.8055e-05,-3.6773e-05,0.00010599,-0.00010185,-0.00010523,-0.019314,-0.00020272,0.00015771,-4.6537e-05,-5.4984e-05,-0.00011124,-0.00013065,4.6378e-05,4.9482e-05,-0.0001401,-0.0002688,-0.0001744,-7.4261e-05,-6.5814e-05,-0.00016122,3.8568e-05,2.5247e-05,2.7995e-05,4.3746e-05,-0.00080384,-0.00011918,-0.00020659,3.6305e-05,1.4898e-09,-5.8311e-06,-0.00021778,-0.00016034,-0.00012521,-0.00010352,-9.5058e-05,2.1569e-05,-3.5199e-05,-0.0001358,-8.3253e-06,-2.1916e-05,-0.00054543,-5.8766e-05,3.5354e-05,-0.00025606,-1.1066e-05,-3.3251e-05,3.5927e-05,-0.00093709,-3.3669e-05,-0.20277,-0.00014988,-0.00018348
-1.8631e-05,-2.6719e-05,-4.3225e-05,-0.00015289,-7.9845e-06,-8.4285e-06,-2.0427e-06,6.3857e-06,-8.5021e-05,-1.3381e-05,-1.162e-05,-1.1087e-06,-3.5623e-05,-8.471e-06,6.8748e-06,-1.1845e-05,-3.2189e-05,-1.1327e-05,1.1299e-05,8.3929e-07,-2.6017e-05,5.945e-06,-6.5215e-06,-9.4312e-06,-2.7924e-05,-8.9562e-06,1.6712e-06,-4.9625e-07,9.3656e-06,-1.9842e-06,-2.0274e-05,-2.8336e-05,-3.6117e-05,-9.9687e-06,-1.7099e-06,8.9995e-06,-1.6763e-05,-2.6901e-05,-0.10639,-3.0437e-05,1.6597e-05,-2.0504e-05,-2.0349e-05,-2.1543e-05,-2.3149e-05,9.8055e-06,5.1773e-06,-2.8453e-05,-5.1809e-05,-2.9353e-05,-1.9845e-05,-1.4858e-05,-2.2944e-05,-2.7456e-06,-4.2677e-06,6.8935e-07,-2.0398e-07,-0.00016259,-2.9327e-05,-4.2942e-05,4.3899e-06,-3.0704e-05,8.0846e-10,-4.339e-05,-2.7456e-05,-2.0306e-05,-2.0509e-05,-1.9982e-05,-2.5802e-07,-1.2119e-05,-1.9943e-05,-1.0461e-05,-2.0727e-06,-0.00010352,-9.8201e-06,-4.0432e-06,-4.025e-05,-2.0708e-06,-7.9637e-06,4.4547e-06,-0.00019119,-6.9068e-06,-0.20328,-3.3395e-05,-3.1503e-05
-7.044e-05,-7.6928e-05,-0.00017732,-0.00024775,-1.3338e-05,4.4218e-05,-1.1639e-05,6.4214e-05,-0.00013909,-4.6791e-05,-1.2668e-05,6.486e-05,-3.1672e-05,-1.3668e-06,9.8468e-05,-5.0262e-05,-8.5354e-05,-3.5283e-05,0.00010844,5.0219e-05,-0.00013509,5.8536e-05,-3.2917e-05,5.6838e-05,-0.00010957,-2.6789e-05,2.4953e-05,5.1861e-05,7.3692e-05,4.7496e-05,-6.3631e-05,-4.5476e-05,-0.00016032,3.3784e-05,-1.1562e-05,0.00013015,-6.1054e-05,-4.7944e-05,-0.00066347,-0.00013506,0.00016385,2.9492e-05,4.5045e-05,-2.239e-05,-8.1884e-05,3.7331e-05,4.5822e-05,-0.00010459,-8.7701e-05,-7.7728e-05,-4.9358e-05,-4.043e-05,-2.5992e-05,3.0504e-05,1.9362e-05,2.4979e-05,2.905e-05,-0.0002534,-5.6e-05,-0.0001562,5.7912e-05,-0.00010877,-6.1481e-06,1.3073e-09,-1.8793e-05,-9.2451e-05,-7.3285e-05,-6.5402e-05,5.571e-05,-1.698e-05,-9.6418e-05,-8.059e-06,-1.2511e-05,-0.0002222,-3.1914e-05,6.4303e-05,-0.00010465,-1.0155e-05,-2.7813e-05,2.9973e-05,-0.00029225,-2.1835e-05,-0.17245,-9.0719e-05,-0.00011976
-8.6148e-05,-0.00010366,-0.00018245,-0.00039397,-9.3893e-07,4.4876e-05,-1.0128e-05,4.8901e-05,-0.00021628,-6.7496e-05,-8.9442e-06,5.8918e-05,-7.3386e-05,-2.1746e-05,7.9857e-05,-3.2774e-05,-0.00011559,-5.4372e-05,0.00011423,3.0115e-05,-0.00011495,4.9287e-05,-2.658e-05,5.6064e-05,-0.00011876,-2.8309e-05,2.1901e-05,6.0975e-05,8.3482e-05,4.4212e-05,-4.0232e-05,-6.2499e-05,-0.0001491,4.3891e-05,-9.0536e-06,0.00012146,-6.0146e-05,-6.6487e-05,-0.0054176,-0.00012391,0.00016658,3.5386e-06,-5.9808e-06,-4.4354e-05,-8.9349e-05,3.8385e-05,4.2763e-05,-0.00011206,-0.00014999,-6.9378e-05,-7.6749e-05,-6.0804e-05,-8.9461e-06,2.1883e-05,1.4712e-05,1.8661e-05,4.4792e-05,-0.00045715,-9.31e-05,-0.00016419,5.0151e-05,-0.00012719,-3.9092e-06,-6.0649e-05,1.2786e-09,-9.1155e-05,-0.00010062,-8.3388e-05,4.844e-05,-2.8849e-05,-9.636e-05,-3.2365e-05,-1.0776e-06,-0.00034004,-4.2132e-05,4.2371e-05,-0.00012754,-1.3449e-05,-2.9802e-05,3.2994e-05,-0.00044192,-1.9288e-05,-0.17324,-0.00010942,-0.00011993
-1.0702e-05,-1.4471e-05,-2.4563e-05,-5.743e-05,-4.2805e-06,-2.6151e-06,-8.9062e-07,4.8131e-06,-3.187e-05,-7.7397e-06,-5.2922e-06,-3.3784e-08,-1.5878e-05,-4.4912e-06,5.5069e-06,-7.1265e-06,-1.612e-05,-6.2036e-06,9.3579e-06,1.6156e-06,-1.4212e-05,3.4264e-06,-4.3114e-06,-4.0174e-06,-1.5585e-05,-5.136e-06,1.3304e-06,7.3272e-07,5.946e-06,-1.1256e-07,-9.865e-06,-1.4497e-05,-2.0367e-05,-5.9675e-06,-1.6008e-06,6.8122e-06,-9.279e-06,-1.3554e-05,-0.019458,-1.763e-05,9.8848e-06,-8.9975e-06,-1.0568e-05,-1.0811e-05,-1.2875e-05,3.7962e-06,3.786e-06,-1.6779e-05,-2.3583e-05,-1.5355e-05,-1.0342e-05,-7.8625e-06,-1.3009e-05,-2.9968e-07,-1.328e-06,6.69e-07,7.2791e-07,-5.5692e-05,-1.5492e-05,-2.2857e-05,2.9458e-06,-1.7405e-05,-1.5269e-06,-2.2724e-05,-1.5375e-05,9.4173e-10,-1.1359e-05,-1.1237e-05,9.2901e-07,-6.2647e-06,-1.1749e-05,-5.2197e-06,-1.4609e-06,-4.4094e-05,-5.7011e-06,-1.0063e-06,-2.0178e-05,-1.9984e-06,-3.9695e-06,2.3014e-06,-6.1262e-05,-3.3885e-06,-0.20896,-1.632e-05,-1.7086e-05
-7.1919e-06,-9.5674e-06,-1.8717e-05,-4.2004e-05,-2.874e-06,-8.6018e-07,4.9124e-07,5.1998e-06,-2.1842e-05,-4.3337e-06,-3.7221e-06,1.4376e-06,-9.5032e-06,-1.5547e-06,6.2402e-06,-5.4913e-06,-1.0226e-05,-3.4433e-06,6.9587e-06,2.8617e-06,-1.1536e-05,3.4667e-06,-3.0963e-06,-1.4888e-06,-1.0939e-05,-3.4394e-06,2.5118e-06,4.5846e-07,4.5159e-06,1.8877e-06,-8.2728e-06,-1.0277e-05,-1.5938e-05,-3.9537e-06,-8.3505e-07,7.4237e-06,-6.5463e-06,-8.4019e-06,-0.0048925,-1.3695e-05,9.1642e-06,-5.2287e-06,-5.0112e-06,-6.444e-06,-8.9143e-06,3.5277e-06,3.2754e-06,-1.1914e-05,-1.4407e-05,-1.316e-05,-6.0894e-06,-4.6418e-06,-9.6851e-06,1.023e-06,6.7467e-08,1.5867e-06,1.0486e-06,-4.0225e-05,-8.5036e-06,-1.7061e-05,3.0019e-06,-1.1643e-05,-1.2935e-06,-1.4774e-05,-1.255e-05,-8.7686e-06,1.1231e-09,-7.4088e-06,1.7014e-06,-3.1651e-06,-7.824e-06,-2.2445e-06,-1.2129e-06,-2.419e-05,-3.6434e-06,1.5517e-06,-1.4135e-05,-9.4466e-07,-3.0125e-06,1.9978e-06,-4.9936e-05,-2.3975e-06,-0.22337,-1.1722e-05,-1.2868e-05
-0.00012446,-0.00015806,-0.00031123,-0.0010035,-5.2542e-05,-2.9756e-05,-1.8924e-05,6.4809e-05,-0.00049038,-0.00010403,-8.2232e-05,3.2565e-05,-0.00021155,-9.2379e-06,7.9888e-05,-8.8201e-05,-0.00017156,-5.9842e-05,0.0001083,6.0338e-05,-0.00020994,8.7548e-05,-5.1978e-05,-3.5814e-05,-0.00020424,-6.3771e-05,1.7628e-05,1.2101e-05,8.1348e-05,5.6282e-06,-0.00014332,-0.00018093,-0.00027731,-6.9067e-05,-3.9573e-05,0.00010228,-0.00011783,-0.00013462,-0.05435,-0.00024113,0.0001714,-7.1565e-05,-3.5712e-05,-0.00013086,-0.00015446,5.2196e-05,4.432e-05,-0.0001695,-0.00034914,-0.00019567,-8.7544e-05,-9.0091e-05,-0.00015331,1.9927e-05,2.9466e-06,2.8614e-05,3.684e-05,-0.001132,-0.00014663,-0.00026853,4.8112e-05,-0.00019266,-1.1062e-05,-0.00027209,-0.00019967,-0.0001445,-0.00012574,1.2791e-09,1.9105e-05,-4.8707e-05,-0.00015822,-2.384e-05,-3.1996e-05,-0.00066038,-7.0393e-05,4.2592e-05,-0.00030179,-2.2961e-05,-5.2521e-05,2.9473e-05,-0.0014269,-4.6683e-05,-0.23803,-0.00016888,-0.00021956
-8.5086e-05,-9.7782e-05,-0.00017726,-0.00032231,-4.4566e-06,0.00012249,6.5705e-06,5.7344e-05,-0.00011739,-5.6316e-05,-1.2799e-05,5.5584e-05,-6.842e-05,-2.7385e-05,6.7133e-05,-2.3403e-05,-0.00010331,-3.9631e-05,9.8364e-05,2.887e-05,-0.00010662,4.0602e-05,-2.5794e-05,6.2665e-05,-0.0001099,-2.061e-05,2.391e-05,5.2604e-05,7.2377e-05,6.3422e-05,-4.1909e-05,-4.9348e-05,-0.00012514,3.7508e-05,2.2515e-06,0.0001172,-6.8361e-05,-7.4369e-05,-0.00095283,-0.00011027,0.00016377,6.5076e-05,5.8729e-05,-3.7025e-05,-8.1235e-05,4.7449e-05,4.3461e-05,-0.00011319,-7.5393e-05,4.7932e-06,-7.6542e-05,-5.8741e-05,1.9828e-05,1.4471e-05,6.3105e-06,1.4935e-05,3.3437e-05,-0.00029455,-8.6393e-05,-0.00021991,7.6171e-05,-0.00013176,4.9156e-07,-0.00013103,-9.1263e-05,-8.1918e-05,-7.8118e-05,-8.0958e-05,1.1969e-09,-2.8027e-05,-8.6788e-05,-3.982e-05,3.9696e-06,-0.00023769,-3.5801e-05,2.3883e-05,-0.00012162,-1.14e-05,-3.0877e-05,3.2286e-05,-0.00031339,-9.2405e-06,-0.16344,-0.00011715,-0.00012368
-4.2991e-05,-5.3884e-05,-9.9236e-05,-0.00019718,-1.7127e-05,-3.0883e-06,-5.8829e-06,2.4974e-05,-0.00012412,-3.2977e-05,-2.3328e-05,5.4725e-06,-5.7676e-05,-8.5568e-06,2.3799e-05,-3.3907e-05,-6.0697e-05,-2.3014e-05,4.1103e-05,1.6759e-05,-6.4142e-05,2.106e-05,-1.7778e-05,-1.5204e-05,-6.3822e-05,-2.0765e-05,5.105e-06,2.6668e-06,2.0426e-05,2.2756e-06,-4.1106e-05,-6.187e-05,-8.4716e-05,-1.846e-05,-9.149e-06,3.3641e-05,-4.1196e-05,-4.6875e-05,-0.00062871,-7.6892e-05,4.7017e-05,-2.1675e-05,-2.5619e-05,-4.0953e-05,-5.2969e-05,1.4795e-05,1.2584e-05,-6.4208e-05,-8.6676e-05,-5.7507e-05,-3.5877e-05,-2.9967e-05,-4.9164e-05,1.7904e-06,-2.9579e-06,7.6464e-06,5.322e-06,-0.00018953,-4.9612e-05,-9.0651e-05,1.6654e-05,-6.4303e-05,-6.0499e-06,-8.3239e-05,-6.1418e-05,-4.7978e-05,-4.0507e-05,-4.042e-05,7.2392e-06,1.2822e-09,-4.9999e-05,-1.491e-05,-9.0902e-06,-0.00015489,-2.2791e-05,2.5577e-06,-8.4697e-05,-9.3859e-06,-1.8804e-05,8.9632e-06,-0.00022332,-1.8283e-05,-0.21432,-6.2635e-05,-6.8709e-05
-1.7639e-05,-2.4191e-05,-3.9068e-05,-0.00014604,-8.0656e-06,-8.2121e-06,-1.1495e-06,5.664e-06,-7.7824e-05,-1.1823e-05,-9.7341e-06,-2.1725e-06,-3.1007e-05,-7.6775e-06,6.8123e-06,-1.2525e-05,-2.7738e-05,-9.933e-06,1.0794e-05,6.7752e-07,-2.2552e-05,4.8039e-06,-7.271e-06,-8.3633e-06,-2.3998e-05,-7.8569e-06,2.2661e-06,-2.0634e-06,6.4166e-06,-1.8131e-06,-2.0049e-05,-2.6102e-05,-3.5727e-05,-8.7467e-06,-1.4912e-06,7.7679e-06,-1.5219e-05,-2.4396e-05,-0.1538,-2.8396e-05,1.3e-05,-2.1346e-05,-2.6291e-05,-1.9328e-05,-2.1984e-05,5.7222e-06,4.6319e-06,-2.7665e-05,-4.347e-05,-3.0021e-05,-1.8631e-05,-1.2869e-05,-2.5206e-05,-2.3565e-06,-3.4189e-06,-7.8154e-07,-1.6072e-07,-0.00013736,-2.5504e-05,-3.8213e-05,3.3577e-06,-2.8436e-05,-3.1033e-06,-3.7675e-05,-2.4526e-05,-1.8264e-05,-1.5553e-05,-1.9039e-05,-6.4742e-07,-1.1063e-05,7.961e-10,-8.6842e-06,-1.9729e-06,-8.3761e-05,-9.0262e-06,-3.8999e-06,-3.4656e-05,-3.9921e-06,-7.7819e-06,3.2059e-06,-0.0001495,-6.218e-06,-0.2111,-3.1018e-05,-2.8148e-05
-7.2674e-06,-9.3795e-06,-1.8487e-05,-4.6193e-05,-3.4069e-06,-3.6512e-06,-7.2971e-07,4.5719e-06,-2.4738e-05,-6.7885e-06,-4.4104e-06,1.2098e-06,-1.1671e-05,5.1036e-07,5.8905e-06,-6.1515e-06,-9.5758e-06,-3.1763e-06,8.5687e-06,5.0287e-06,-1.2851e-05,6.8509e-06,-3.2551e-06,-1.9475e-06,-1.2492e-05,-3.374e-06,1.348e-06,7.8084e-07,4.9636e-06,7.4004e-07,-9.1872e-06,-1.1064e-05,-1.6973e-05,-4.2871e-06,-3.2592e-06,7.6325e-06,-7.0907e-06,-8.0222e-06,-0.0082656,-1.49e-05,1.0072e-05,-4.0235e-06,-3.6952e-06,-7.5524e-06,-9.5627e-06,3.4584e-06,3.1011e-06,-1.0546e-05,-1.7746e-05,-1.3175e-05,-5.9045e-06,-5.8084e-06,-9.1957e-06,2.1699e-06,1.3635e-06,1.8106e-06,2.5138e-06,-4.7518e-05,-8.0625e-06,-1.5667e-05,2.1974e-06,-1.0824e-05,-1.0082e-06,-1.4741e-05,-1.2336e-05,-9.1395e-06,-7.1752e-06,-6.7163e-06,1.2873e-06,-2.8463e-06,-9.5574e-06,1.262e-09,-1.919e-06,-3.0497e-05,-4.0026e-06,1.9568e-06,-1.8127e-05,-1.2198e-06,-3.5995e-06,2.5748e-06,-5.859e-05,-2.8908e-06,-0.22274,-1.0723e-05,-1.293e-05
-1.2303e-05,-1.7333e-05,-2.6208e-05,-6.8574e-05,-5.0839e-06,-4.1137e-06,-1.3451e-06,3.9355e-06,-4.5874e-05,-7.33e-06,-5.3841e-06,-1.9151e-06,-1.8907e-05,-6.8565e-06,3.7283e-06,-6.4844e-06,-2.0665e-05,-5.9022e-06,7.0683e-06,-1.066e-06,-1.3707e-05,1.1198e-06,-4.2322e-06,-5.325e-06,-1.6249e-05,-5.4914e-06,8.0221e-07,-1.1739e-06,3.392e-06,-1.3183e-06,-1.2303e-05,-1.7556e-05,-2.1102e-05,-5.9585e-06,-4.4062e-07,3.8879e-06,-9.8085e-06,-1.6987e-05,-0.19288,-1.8395e-05,7.5389e-06,-1.2765e-05,-1.5931e-05,-1.2925e-05,-1.5219e-05,3.7368e-06,4.5224e-06,-2.0024e-05,-2.8582e-05,-1.6097e-05,-1.3303e-05,-8.8717e-06,-1.3263e-05,-2.8975e-06,-3.5416e-06,-2.8295e-07,-8.0793e-07,-6.7366e-05,-1.8635e-05,-2.637e-05,2.3106e-06,-1.9745e-05,-2.22e-06,-2.5014e-05,-1.5164e-05,-1.2434e-05,-1.2248e-05,-1.3779e-05,-3.2678e-07,-8.602e-06,-1.1532e-05,-7.8173e-06,9.3636e-10,-5.2657e-05,-4.7515e-06,-4.018e-06,-1.9645e-05,-2.8548e-06,-5.4193e-06,3.1482e-06,-7.0573e-05,-3.7108e-06,-0.24434,-2.0897e-05,-1.9055e-05
-0.00012995,-0.0001455,-0.0002977,-0.00040009,-1.3465e-05,0.00014365,-3.7806e-05,0.00010913,-0.00013716,-9.3948e-05,-4.3709e-05,0.00017071,-5.5904e-05,1.0699e-05,0.00014303,-6.8523e-05,-0.00011864,-8.5174e-05,0.00020543,0.00010505,-0.00023079,0.00010154,-6.7813e-05,0.00010147,-0.00017423,-4.9248e-05,3.1979e-05,0.00017028,0.00016154,0.00015657,-1.885e-05,-4.7708e-05,-0.00017382,5.292e-05,-4.2783e-05,0.00028272,-0.00011,-7.3954e-05,-0.00076328,-0.00019808,0.00039644,0.00012555,0.0002942,-2.6208e-05,-0.00011631,6.5983e-05,6.0672e-05,-0.00016738,-8.8294e-05,-2.6044e-05,-7.1983e-05,-0.00011115,0.00012842,1.4088e-05,-3.5288e-06,-1.4421e-05,3.4499e-05,-0.00038751,-7.055e-05,-0.00031806,0.00013038,-0.00019951,-2.1705e-05,-0.00016999,-0.00015418,-0.00016281,-7.3171e-05,-0.00011021,0.00012145,-1.3561e-05,-0.00015514,-2.0694e-05,-4.2106e-05,1.174e-09,-7.1202e-05,0.0001068,-0.00020858,-3.5949e-06,-4.9455e-05,4.6581e-05,-0.00040739,-3.629e-05,-0.10536,-0.00012538,-0.00017186
-5.474e-06,-7.3166e-06,-1.2934e-05,-2.9428e-05,-2.6263e-06,-1.9624e-06,-6.299e-07,2.4883e-06,-1.9624e-05,-3.2049e-06,-2.7429e-06,-3.3855e-07,-8.271e-06,-2.433e-06,2.5627e-06,-3.6429e-06,-8.8626e-06,-2.5268e-06,3.3647e-06,1.4292e-07,-7.0722e-06,1.2826e-06,-2.1327e-06,-2.2894e-06,-7.7331e-06,-2.6099e-06,5.199e-07,-2.2152e-07,1.8748e-06,-5.8332e-07,-6.1375e-06,-7.8936e-06,-1.0646e-05,-3.1222e-06,-3.4163e-07,2.882e-06,-4.6769e-06,-7.1845e-06,-0.012656,-9.42e-06,4.0943e-06,-5.4948e-06,-7.2658e-06,-5.7538e-06,-7.0006e-06,1.7705e-06,2.2319e-06,-9.2538e-06,-1.2346e-05,-8.8021e-06,-5.6103e-06,-3.6126e-06,-8.5802e-06,-9.2042e-07,-1.38e-06,2.5734e-07,-6.1968e-07,-2.8049e-05,-7.6225e-06,-1.22e-05,1.0604e-06,-8.9571e-06,-9.3468e-07,-1.0993e-05,-7.9209e-06,-5.9002e-06,-5.3786e-06,-5.9451e-06,-2.5297e-07,-3.4685e-06,-5.7226e-06,-2.8418e-06,-9.0361e-09,-2.2865e-05,1.1068e-09,-6.7387e-07,-9.4118e-06,-1.1617e-06,-2.168e-06,2.2866e-06,-3.2298e-05,-2.0211e-06,-0.25282,-9.1544e-06,-9.1336e-06
-9.316e-05,-0.00011442,-0.00021637,-0.00039788,-2.579e-05,5.9204e-05,-1.6864e-05,7.1162e-05,-0.00018302,-6.6585e-05,-2.091e-05,7.8859e-05,-6.5101e-05,-9.3928e-06,0.00010902,-4.8903e-05,-8.3738e-05,-4.6883e-05,0.00013791,4.4171e-05,-0.00015787,6.4461e-05,-4.2031e-05,3.596e-05,-0.00013411,-3.6707e-05,2.0425e-05,6.1148e-05,0.00011491,4.4169e-05,-3.48e-05,-8.1302e-05,-0.00015798,-8.9778e-07,-2.0022e-05,0.00015399,-7.1604e-05,-6.193e-05,-0.0016445,-0.00015079,0.00019514,1.703e-05,1.8287e-05,-2.4266e-05,-8.6846e-05,4.2984e-05,4.6471e-05,-0.00011428,-0.00015318,-0.00011201,-6.3503e-05,-5.8172e-05,-8.0282e-05,2.1797e-05,6.2634e-06,3.9035e-05,2.8342e-05,-0.00041063,-8.5635e-05,-0.0002412,5.483e-05,-0.00014395,-9.0737e-06,-0.00014286,-0.00011624,-0.00010963,-8.4586e-05,-7.5204e-05,4.7137e-05,-2.7931e-05,-0.0001233,-2.3071e-05,-2.1044e-05,-0.00032451,-3.7229e-05,1.4378e-09,-0.00013373,-1.3249e-05,-5.208e-05,3.3958e-05,-0.00041466,-3.1657e-05,-0.18418,-0.0001113,-0.00013708
-0.00017361,-0.00020158,-0.0003475,-0.00058128,-3.3508e-05,0.00011107,-2.3435e-05,0.00014865,-0.00031888,-4.8678e-05,3.0789e-05,6.2231e-05,-5.011e-05,-6.1098e-05,0.00022306,-0.00010845,-0.00024331,-9.0329e-05,0.00025135,6.6585e-05,-0.00021894,7.008e-05,-6.0819e-05,4.6868e-05,-0.00020789,-5.1168e-05,3.9863e-05,8.0223e-05,0.00014269,7.8309e-05,-0.00010763,-0.00018219,-0.00029028,1.1141e-05,2.7597e-05,0.00020026,-0.00011776,-0.00013247,-0.0020926,-0.00027498,0.00026958,-6.3945e-05,-6.1951e-05,-6.1099e-05,-0.00018294,8.4358e-05,9.7701e-05,-0.00027762,-0.00027873,-0.00021405,-0.00014951,-8.3458e-05,-0.00010869,3.1162e-05,1.2459e-05,4.2738e-05,-5.4964e-06,-0.00050627,-0.00017277,-0.00031661,0.00010133,-0.0002849,-2.9429e-05,-0.00023754,-0.0001791,-0.00017159,-0.00015295,-0.00018062,7.8379e-05,-6.7518e-05,-0.00019289,-8.6649e-05,3.5173e-06,-0.0006178,-5.3976e-05,0.00010257,1.3139e-09,-2.7926e-05,-6.1219e-05,5.5639e-05,-0.00060908,-4.4095e-05,-0.22484,-0.00024627,-0.00025317
-2.3041e-05,-3.1708e-05,-5.43e-05,-0.00017357,-1.034e-05,-1.3261e-05,-2.9074e-06,9.117e-06,-0.00010607,-1.4857e-05,-1.3645e-05,-3.7722e-06,-3.9848e-05,-9.6454e-06,9.3002e-06,-1.5877e-05,-3.9598e-05,-1.331e-05,1.285e-05,1.7638e-06,-3.0586e-05,6.9679e-06,-8.8771e-06,-1.2878e-05,-3.3201e-05,-1.1474e-05,2.886e-06,-1.6375e-06,9.6621e-06,-3.0259e-06,-2.6691e-05,-3.6945e-05,-4.6244e-05,-1.5109e-05,-2.6097e-06,1.003e-05,-1.985e-05,-3.2233e-05,-0.079553,-3.8847e-05,1.6924e-05,-2.7211e-05,-3.0731e-05,-2.7435e-05,-2.7723e-05,1.086e-05,6.8003e-06,-3.6644e-05,-6.057e-05,-4.125e-05,-2.3915e-05,-1.6143e-05,-3.5823e-05,-2.839e-06,-4.9562e-06,6.6347e-07,-8.8195e-07,-0.00017394,-3.413e-05,-4.9754e-05,4.8414e-06,-3.7226e-05,-1.5456e-06,-5.2295e-05,-3.515e-05,-2.441e-05,-2.2666e-05,-2.5356e-05,-2.5605e-06,-1.5249e-05,-2.4378e-05,-1.2121e-05,-2.767e-06,-0.00010893,-1.1769e-05,-5.1206e-06,-4.7557e-05,1.0987e-09,-9.4023e-06,4.7867e-06,-0.00020809,-8.2273e-06,-0.18836,-4.0169e-05,-3.8318e-05
-2.0324e-05,-2.9525e-05,-4.9199e-05,-0.00011706,-9.0278e-06,-1.0928e-05,-1.6191e-06,9.3769e-06,-8.1438e-05,-1.2937e-05,-1.2833e-05,-3.4758e-06,-3.3198e-05,-9.2446e-06,9.4372e-06,-1.3918e-05,-3.4768e-05,-1.2105e-05,1.2073e-05,2.4496e-06,-2.8342e-05,5.6497e-06,-6.253e-06,-1.0727e-05,-3.043e-05,-1.0422e-05,3.0203e-06,-1.6078e-06,7.3986e-06,-2.1727e-06,-2.4409e-05,-3.1121e-05,-4.2259e-05,-1.4296e-05,-9.89e-07,1.0798e-05,-1.9139e-05,-2.8279e-05,-0.039488,-3.6722e-05,1.4579e-05,-2.2206e-05,-3.1561e-05,-2.5116e-05,-2.8985e-05,7.4408e-06,6.352e-06,-3.6721e-05,-5.0468e-05,-3.378e-05,-2.1869e-05,-1.3154e-05,-3.3054e-05,-1.3874e-06,-3.4249e-06,6.33e-07,-1.9171e-06,-0.00011389,-3.0809e-05,-4.3704e-05,3.1987e-06,-3.3371e-05,-3.4621e-06,-4.5459e-05,-3.1081e-05,-2.178e-05,-2.1682e-05,-2.3469e-05,-1.8936e-06,-1.3824e-05,-2.3098e-05,-1.2225e-05,-2.8996e-06,-8.9125e-05,-1.0271e-05,-7.1837e-06,-4.1778e-05,-4.2626e-06,1.0858e-09,4.6789e-06,-0.00012965,-8.3426e-06,-0.22792,-3.6639e-05,-3.5672e-05
-9.4427e-06,-1.3007e-05,-2.092e-05,-5.2168e-05,-4.0827e-06,-3.9176e-06,-1.0461e-06,2.8543e-06,-3.4338e-05,-6.3486e-06,-5.0102e-06,-1.4755e-06,-1.5224e-05,-4.7037e-06,3.0294e-06,-5.3718e-06,-1.5371e-05,-4.9611e-06,5.7771e-06,-4.0695e-07,-1.1302e-05,1.7376e-06,-3.3353e-06,-4.5515e-06,-1.3423e-05,-4.4006e-06,5.3995e-07,-8.8593e-07,2.924e-06,-7.5911e-07,-9.8688e-06,-1.3614e-05,-1.6972e-05,-5.5533e-06,-9.6149e-07,3.3721e-06,-7.8979e-06,-1.2809e-05,-0.10971,-1.5136e-05,6.0954e-06,-1.0017e-05,-1.1612e-05,-1.0795e-05,-1.1822e-05,2.6227e-06,3.0615e-06,-1.5308e-05,-2.1872e-05,-1.3369e-05,-1.0223e-05,-6.9731e-06,-1.1355e-05,-1.8053e-06,-2.4517e-06,-1.2222e-07,-4.0522e-07,-5.2456e-05,-1.4194e-05,-2.0371e-05,1.5422e-06,-1.5164e-05,-1.5246e-06,-1.9667e-05,-1.2695e-05,-9.9516e-06,-9.6617e-06,-1.0657e-05,-7.4357e-07,-6.5343e-06,-9.392e-06,-5.3646e-06,-3.2474e-08,-3.9041e-05,-2.7983e-06,-2.5923e-06,-1.7107e-05,-2.1618e-06,-3.9648e-06,1.0513e-09,-5.5865e-05,-3.3512e-06,-0.22761,-1.5981e-05,-1.5156e-05
-9.445e-06,-9.824e-06,-1.5408e-05,-1.2186e-05,6.3247e-07,1.3518e-05,-1.1683e-06,7.5235e-06,-6.0339e-06,-4.7156e-06,2.6409e-06,8.412e-06,4.9104e-06,-1.1e-06,1.2667e-05,-3.3953e-06,-7.0884e-06,-5.0417e-06,1.866e-05,5.1916e-06,-1.2496e-05,3.9923e-06,-3.1388e-06,1.1167e-05,-9.8745e-06,-1.552e-06,2.3494e-06,9.014e-06,1.1147e-05,9.2408e-06,-8.4342e-07,-1.4474e-06,-1.2082e-05,8.8947e-06,-2.0795e-07,1.8352e-05,-6.2441e-06,-1.6117e-06,-2.7481e-05,-1.1078e-05,2.2048e-05,7.6507e-06,5.1048e-06,1.9011e-06,-7.0753e-06,4.6228e-06,5.2248e-06,-9.7209e-06,-3.2886e-06,-2.4718e-06,-6.2288e-06,-4.3107e-06,1.059e-06,3.9362e-06,2.5839e-06,2.3935e-06,4.1114e-06,-8.8941e-06,-6.1821e-06,-1.3217e-05,7.7149e-06,-1.2345e-05,-1.4525e-06,-8.6784e-06,-6.2392e-06,-8.6087e-06,-8.1865e-06,-8.7097e-06,8.94e-06,-8.5932e-07,-9.7445e-06,-3.2636e-06,-8.1244e-07,-1.6721e-05,-3.5403e-06,9.3661e-06,-5.8659e-06,-1.1476e-06,-2.6772e-06,3.4272e-06,1.1589e-09,-1.4752e-06,-0.10715,-8.4629e-06,-1.0052e-05
-5.5512e-06,-7.031e-06,-1.149e-05,-2.84e-05,-2.104e-06,-1.5483e-06,-4.8994e-07,1.928e-06,-1.7155e-05,-3.734e-06,-2.688e-06,-3.7006e-07,-8.2584e-06,-2.4601e-06,2.1161e-06,-2.1804e-06,-8.2937e-06,-2.8586e-06,3.5939e-06,2.3283e-07,-6.9382e-06,1.2524e-06,-2.0244e-06,-2.122e-06,-7.7644e-06,-2.4306e-06,6.9814e-07,-4.5725e-07,2.2933e-06,-1.8191e-07,-5.1428e-06,-7.5278e-06,-9.6007e-06,-2.9572e-06,-6.7556e-07,2.0849e-06,-4.1711e-06,-6.8872e-06,-0.00049699,-8.5127e-06,3.9419e-06,-4.8532e-06,-5.0749e-06,-6.1012e-06,-6.0535e-06,1.8699e-06,1.8518e-06,-8.1877e-06,-1.2007e-05,-7.246e-06,-5.5762e-06,-3.8997e-06,-6.2664e-06,-6.2367e-07,-1.0301e-06,1.0199e-07,2.3031e-07,-2.8639e-05,-7.3356e-06,-1.2049e-05,1.3216e-06,-8.5726e-06,-8.3152e-07,-1.1232e-05,-7.3695e-06,-5.4008e-06,-5.3208e-06,-5.8194e-06,3.448e-07,-3.6656e-06,-5.4196e-06,-3.0086e-06,-1.8911e-07,-2.1759e-05,-2.6848e-06,-1.2763e-06,-1.001e-05,-1.0549e-06,-2.3522e-06,1.2045e-06,-3.0541e-05,1.1046e-09,-0.22967,-8.4911e-06,-8.5892e-06
1.2987e-06,-3.6455e-06,-9.1501e-07,-7.3821e-06,1.302e-06,1.7022e-06,9.4177e-07,1.3303e-06,-1.1519e-05,-1.7739e-06,1.7281e-06,4.7914e-05,7.2264e-06,-3.0474e-06,2.9986e-06,1.3962e-06,-1.3946e-06,-6.4796e-06,5.2407e-06,7.6144e-07,-4.4225e-06,2.2118e-06,-4.8262e-08,2.7144,4.0393e-06,-3.5027e-08,-4.2786e-07,2.7551e-05,6.6159e-05,0.00062407,2.4722e-06,9.1456e-06,3.8145e-06,2.1591,-1.9483e-08,4.8212e-05,4.2104e-06,6.0553e-06,3.9647e-06,-9.7202e-07,0.00059888,3.805e-05,-1.0129e-06,7.1453e-06,2.1544e-06,1.669e-05,-1.0554e-06,-8.4971e-07,-2.2426e-06,1.763e-06,-4.3426e-07,-2.9246e-06,2.5891e-05,3.6374e-06,3.6052e-06,4.8752e-07,8.6324e-06,-4.7591e-06,7.6601e-06,-3.5694e-05,-8.3393e-06,-2.7154e-06,1.8564e-06,-1.5093e-06,9.1691e-07,-1.4777e-06,-3.4929e-06,-6.373e-06,6.08e-06,-1.9473e-06,-1.6174e-06,-1.6655e-06,-2.8318e-06,2.3278e-05,-5.5214e-06,2.5286e-06,-1.0644e-05,5.0941e-06,-1.6609e-06,2.4063e-07,6.7474e-06,-2.4115e-06,1.0423e-09,-7.6543e-07,5.2379e-07
-9.018e-05,-0.00010285,-0.00019809,-0.00039959,-1.8243e-05,2.8311e-05,-6.5855e-06,5.9965e-05,-0.00022509,-7.7283e-05,-3.634e-05,5.243e-05,-8.0667e-05,8.5318e-06,8.8079e-05,-5.2108e-05,-8.7941e-05,-4.073e-05,0.00013087,6.1876e-05,-0.00014961,7.477e-05,-3.9599e-05,2.0125e-05,-0.0001383,-3.6374e-05,2.3837e-05,4.1928e-05,8.6021e-05,3.0198e-05,-5.5978e-05,-8.6298e-05,-0.00016466,-8.3735e-06,-3.4279e-05,0.00011122,-7.5145e-05,-6.0923e-05,-0.0021295,-0.00015511,0.00015869,1.0295e-05,3.7241e-05,-5.8257e-05,-9.3474e-05,3.8774e-05,4.2029e-05,-0.00010401,-0.00015333,-0.00010073,-4.3018e-05,-5.881e-05,-6.0337e-05,3.5398e-05,2.3685e-05,4.2193e-05,4.4008e-05,-0.00042286,-7.6569e-05,-0.00017657,5.2167e-05,-0.00012109,-8.0723e-06,-0.00015004,-0.0001125,-9.2209e-05,-8.7903e-05,-5.8081e-05,4.2398e-05,-1.6851e-05,-0.0001244,-3.6692e-06,-2.2413e-05,-0.00030058,-4.615e-05,6.5774e-05,-0.00017644,-1.1442e-05,-3.5307e-05,3.0707e-05,-0.00048192,-1.8585e-05,-0.18318,1.4257e-09,-0.00012958
-7.314e-05,-0.0001029,-0.00017011,-0.0004226,-1.2379e-05,2.6886e-05,-4.8228e-06,4.8678e-05,-0.00021805,-5.6996e-05,-2.1205e-05,4.6741e-05,-8.8668e-05,-8.7065e-06,6.3527e-05,-3.9107e-05,-8.8286e-05,-4.2384e-05,0.00010502,3.8478e-05,-0.00011317,5.3368e-05,-2.8173e-05,2.1855e-05,-0.00011539,-2.9959e-05,1.8089e-05,4.435e-05,7.8729e-05,3.1077e-05,-4.5103e-05,-7.7477e-05,-0.00012471,2.0483e-06,-1.0251e-05,0.00010738,-6.679e-05,-7.0962e-05,-0.0059395,-0.00010878,0.00014287,-1.6331e-05,-2.8975e-06,-5.4243e-05,-7.8272e-05,3.9957e-05,3.6161e-05,-8.9085e-05,-0.0001515,-8.8489e-05,-6.2878e-05,-5.4189e-05,-5.226e-05,2.0966e-05,1.2602e-05,2.2309e-05,3.0253e-05,-0.00042429,-8.799e-05,-0.00016317,4.3756e-05,-0.0001188,-2.9649e-06,-0.00014793,-9.5455e-05,-8.1285e-05,-8.0249e-05,-7.3389e-05,3.2101e-05,-2.52e-05,-9.0242e-05,-1.9873e-05,-9.7703e-06,-0.00029455,-4.0217e-05,3.8907e-05,-0.00014309,-6.9286e-06,-2.846e-05,2.7306e-05,-0.00045343,-1.9955e-05,-0.17661,-0.00010078,1.3381e-09
