1.3124e-09,-1.482e-05,-2.7281e-05,-6.402e-05,-5.553e-06,-6.4565e-06,-9.0236e-07,4.5288e-06,-3.708e-05,-8.5353e-06,-8.1028e-06,-8.8607e-07,-1.9877e-05,-3.1372e-06,5.4729e-06,-8.7483e-06,-1.6874e-05,-6.343e-06,8.1612e-06,3.0791e-06,-1.7014e-05,5.1116e-06,-4.5492e-06,-5.7263e-06,-1.7547e-05,-5.674e-06,1.3453e-06,-1.0593e-06,6.228e-06,-1.3812e-06,-1.3797e-05,-1.6967e-05,-2.3968e-05,-7.2342e-06,-2.6088e-06,6.1242e-06,-9.7453e-06,-1.5019e-05,-0.0263,-2.0036e-05,9.0903e-06,-1.0935e-05,-1.0954e-05,-1.3105e-05,-1.4201e-05,4.0832e-06,3.325e-06,-1.6357e-05,-2.6004e-05,-1.9186e-05,-1.0305e-05,-7.6925e-06,-1.4731e-05,-6.2663e-07,-1.723e-06,5.227e-07,5.1551e-07,-6.6232e-05,-1.5595e-05,-2.4454e-05,2.4374e-06,-1.7153e-05,-1.7221e-06,-2.3437e-05,-1.7302e-05,-1.2391e-05,-1.1195e-05,-1.1846e-05,-6.1335e-07,-6.975e-06,-1.2945e-05,-4.1615e-06,-2.256e-06,-4.5738e-05,-6.687e-06,-1.0468e-09,-2.3176e-05,-2.1499e-06,-4.1285e-06,1.9285e-06,-7.3833e-05,-5.0613e-06,-0.19317,-1.8817e-05,-1.8826e-05
-0.00011525,1.3483e-09,-0.00027291,-0.00081529,-5.637e-05,-2.1907e-06,-1.7736e-05,6.1816e-05,-0.00036683,-9.3098e-05,-6.8599e-05,1.1188e-05,-0.00017121,-1.3147e-05,8.9143e-05,-0.00010229,-0.00015939,-5.9398e-05,0.00010218,6.1926e-05,-0.00019701,6.7932e-05,-6.0446e-05,-2.3177e-05,-0.00018554,-5.8763e-05,1.7597e-05,2.3647e-06,7.9222e-05,8.288e-06,-0.00014181,-0.00017561,-0.00026392,-6.2362e-05,-3.6779e-05,0.00011295,-0.00010779,-0.00012789,-0.028721,-0.00022246,0.0001396,-4.9122e-05,-3.5149e-05,-0.00011907,-0.00013067,4.2673e-05,3.926e-05,-0.00015705,-0.00023975,-0.00018795,-9.2921e-05,-7.0107e-05,-0.00013763,1.3735e-05,-2.808e-06,7.5929e-06,1.4967e-05,-0.00084171,-0.00012848,-0.00024032,5.6116e-05,-0.00018547,-2.403e-05,-0.00022193,-0.00017121,-0.00013333,-0.00011429,-0.00010822,2.6267e-05,-5.1618e-05,-0.00014618,-2.3677e-05,-3.9452e-05,-0.00054537,-7.035e-05,3.8552e-05,-0.00023257,-2.1003e-05,-4.9264e-05,1.769e-05,-0.0010377,-4.2365e-05,-0.2175,-0.00017256,-0.00020764
-9.5303e-05,-0.00010709,1.3464e-09,-0.00049258,-2.5542e-05,1.255e-05,-1.3621e-05,3.8675e-05,-0.00026625,-7.9243e-05,-3.2105e-05,2.5836e-05,-0.00011678,-1.2473e-05,7.361e-05,-5.2614e-05,-0.00011066,-5.5954e-05,0.00011537,4.4777e-05,-0.00012955,5.9498e-05,-3.7804e-05,8.3711e-06,-0.00013531,-3.4967e-05,1.0328e-05,3.2632e-05,7.9161e-05,2.8265e-05,-7.3942e-05,-9.3136e-05,-0.00016425,-8.4422e-06,-2.7064e-05,9.545e-05,-7.7207e-05,-8.3645e-05,-0.0079321,-0.00014697,0.00012952,-2.4461e-05,-1.0812e-05,-6.2337e-05,-9.214e-05,3.4897e-05,2.7635e-05,-0.00010354,-0.00017695,-0.0001023,-7.5681e-05,-6.653e-05,-6.3179e-05,2.2641e-05,1.1815e-05,1.67e-05,2.7913e-05,-0.00053897,-0.00010907,-0.00016152,4.1899e-05,-0.0001337,-9.9661e-06,-0.00017731,-0.00011458,-9.853e-05,-9.898e-05,-8.6191e-05,2.9e-05,-4.029e-05,-0.00010395,-2.3303e-05,-1.9668e-05,-0.00039076,-6.0711e-05,3.7328e-05,-0.00015272,-1.5697e-05,-3.5372e-05,1.7471e-05,-0.00053846,-2.5468e-05,-0.18176,-0.00012025,-0.00013495
-6.0878e-06,-6.0108e-06,-1.1458e-05,1.1401e-09,4.7695e-07,7.5524e-06,-7.3343e-07,5.8419e-06,-4.9739e-06,-3.4529e-06,1.3836e-06,5.1102e-06,3.5599e-06,5.2608e-07,1.0007e-05,-3.7203e-06,-4.9127e-06,-2.9736e-06,1.3106e-05,5.6096e-06,-9.5295e-06,4.1639e-06,-2.6607e-06,6.7375e-06,-7.8134e-06,-1.5585e-06,2.1754e-06,4.4292e-06,7.973e-06,4.7878e-06,-2.6492e-06,-2.4037e-06,-9.8351e-06,3.3565e-06,-9.8536e-07,1.1751e-05,-4.3713e-06,-1.0463e-06,-2.1666e-05,-8.8397e-06,1.3176e-05,4.8411e-06,5.0083e-06,4.3043e-07,-4.6845e-06,3.4441e-06,3.5478e-06,-5.9845e-06,-3.6609e-06,-3.1765e-06,-2.7752e-06,-2.5743e-06,-3.9934e-07,3.9405e-06,2.8802e-06,2.3954e-06,2.4407e-06,-7.2017e-06,-3.1366e-06,-6.6942e-06,5.6021e-06,-7.976e-06,-5.1868e-07,-5.8212e-06,-4.6347e-06,-6.5032e-06,-5.4264e-06,-4.7231e-06,5.1114e-06,-2.2575e-07,-7.9791e-06,-1.1112e-06,-1.2416e-06,-1.2944e-05,-2.8347e-06,6.8798e-06,-4.5425e-06,-2.7242e-07,-1.5232e-06,2.0879e-06,-9.6482e-06,-1.2957e-06,-0.16056,-5.3447e-06,-7.9607e-06
-2.2598e-05,-2.9975e-05,-4.7276e-05,-0.00011236,1.1548e-09,4.3465e-06,-9.3247e-07,1.1102e-05,-6.1089e-05,-1.5833e-05,-6.7407e-06,3.9776e-06,-2.6382e-05,-8.1198e-06,1.5368e-05,-1.2277e-05,-3.0968e-05,-1.4119e-05,2.2322e-05,5.5235e-06,-2.8475e-05,8.606e-06,-7.2298e-06,6.4151e-07,-3.2038e-05,-8.3582e-06,3.9995e-06,4.5023e-06,1.7223e-05,7.9147e-06,-1.6442e-05,-2.5475e-05,-3.6966e-05,-2.8926e-06,-2.4831e-06,1.839e-05,-1.6737e-05,-2.3874e-05,-0.0014406,-3.1708e-05,2.6001e-05,-1.2679e-05,-1.3197e-05,-1.74e-05,-2.3019e-05,9.6952e-06,7.8433e-06,-3.0192e-05,-4.1989e-05,-2.1432e-05,-2.0473e-05,-1.5718e-05,-1.5137e-05,2.1777e-06,2.137e-07,2.404e-06,2.7885e-06,-0.00011217,-2.8769e-05,-4.3144e-05,8.7701e-06,-3.4112e-05,-2.6477e-06,-4.2655e-05,-2.4228e-05,-2.2339e-05,-2.21e-05,-2.3198e-05,6.892e-06,-1.157e-05,-2.3549e-05,-1.0754e-05,-2.3108e-06,-8.5649e-05,-1.2713e-05,2.4611e-06,-3.5947e-05,-3.188e-06,-7.3945e-06,5.0126e-06,-0.00012299,-6.3829e-06,-0.19375,-3.262e-05,-3.2356e-05
-7.8287e-06,-7.1964e-06,-1.3358e-05,-1.8808e-05,6.1764e-07,1.1921e-09,2.652e-07,6.2128e-06,2.1216e-06,-3.322e-06,1.4258e-06,5.361e-06,-1.9759e-06,-2.943e-06,7.5194e-06,-9.6445e-07,-6.9517e-06,-3.9285e-06,9.2675e-06,1.7765e-06,-8.7973e-06,1.5904e-06,-1.8039e-06,6.8175e-06,-7.735e-06,-1.5884e-06,2.1276e-06,5.6443e-06,7.6722e-06,8.3183e-06,-1.1208e-06,-2.1586e-06,-7.2961e-06,4.6318e-06,1.7012e-06,1.0842e-05,-5.344e-06,-3.8937e-06,-3.5105e-05,-7.4583e-06,1.6254e-05,1.2571e-05,1.231e-05,-1.1218e-06,-5.2562e-06,3.7434e-06,3.8166e-06,-9.2489e-06,-5.0678e-07,4.9073e-06,-6.079e-06,-4.5454e-06,8.3176e-06,9.3056e-08,-9.7854e-07,2.2449e-06,1.1898e-06,-1.5857e-05,-6.0499e-06,-1.836e-05,7.6848e-06,-1.1364e-05,-2.4203e-07,-9.6528e-06,-5.8848e-06,-6.1451e-06,-6.4653e-06,-6.4682e-06,1.1786e-05,-1.576e-06,-7.0207e-06,-4.9311e-06,5.0749e-07,-1.4276e-05,-2.6846e-06,4.6244e-06,-5.808e-06,-1.1571e-06,-2.5715e-06,2.4426e-06,-1.6104e-05,-7.2581e-07,-0.15874,-8.4521e-06,-8.4595e-06
-1.443e-05,-1.9874e-05,-3.3412e-05,-0.00010758,-5.8301e-06,-4.5349e-06,8.9908e-10,5.5739e-06,-5.396e-05,-9.4247e-06,-8.0151e-06,-2.3406e-06,-2.3919e-05,-6.4047e-06,6.6381e-06,-9.3103e-06,-2.3417e-05,-8.1807e-06,8.6515e-06,1.9047e-06,-1.8477e-05,3.5069e-06,-5.3054e-06,-6.3539e-06,-2.0412e-05,-6.5761e-06,3.3761e-06,-1.8687e-06,6.5774e-06,-4.0378e-07,-1.6693e-05,-2.0806e-05,-2.8192e-05,-7.9514e-06,-1.2973e-06,6.1295e-06,-1.2267e-05,-2.0092e-05,-0.2758,-2.2739e-05,1.0013e-05,-1.484e-05,-1.7676e-05,-1.655e-05,-1.681e-05,4.7092e-06,3.759e-06,-2.1613e-05,-3.5521e-05,-2.1845e-05,-1.4737e-05,-1.0064e-05,-2.0052e-05,-1.3848e-06,-2.6505e-06,1.8889e-07,-2.8454e-07,-0.00010331,-2.1205e-05,-2.9588e-05,3.8204e-06,-2.3158e-05,-2.962e-06,-3.2535e-05,-2.0765e-05,-1.4786e-05,-1.2643e-05,-1.6281e-05,8.0353e-07,-9.7393e-06,-1.3837e-05,-7.5291e-06,-1.9587e-06,-7.5342e-05,-8.1952e-06,-2.5952e-06,-2.7461e-05,-3.3624e-06,-5.5612e-06,2.1298e-06,-0.00011871,-5.5007e-06,-0.21571,-2.3977e-05,-2.36e-05
-1.8684e-05,-2.3978e-05,-4.3805e-05,-9.408e-05,-7.3739e-06,-7.1491e-07,-1.0932e-06,9.9016e-10,-5.5693e-05,-6.9117e-06,-7.1126e-06,-3.0285e-06,-2.1289e-05,-7.3748e-06,1.2342e-05,-1.5155e-05,-2.9498e-05,-9.7991e-06,1.207e-05,4.6629e-06,-2.3937e-05,3.3851e-06,-6.611e-06,-6.1295e-06,-2.2815e-05,-6.3737e-06,3.2227e-06,-1.493e-06,8.1968e-06,3.9382e-07,-2.0475e-05,-2.8452e-05,-3.5968e-05,-1.0654e-05,2.2693e-06,1.0459e-05,-1.444e-05,-2.2917e-05,-0.0025218,-2.9986e-05,1.3769e-05,-1.796e-05,-2.4655e-05,-1.6814e-05,-2.1306e-05,7.5805e-06,7.1024e-06,-3.2984e-05,-3.8188e-05,-2.8586e-05,-1.684e-05,-8.4436e-06,-2.5443e-05,-3.4576e-06,-5.7288e-06,3.123e-06,-5.59e-06,-7.6163e-05,-1.9929e-05,-3.7734e-05,5.9077e-06,-2.9814e-05,-3.8381e-06,-3.5929e-05,-2.6348e-05,-1.828e-05,-1.5649e-05,-2.0296e-05,1.0934e-06,-9.5141e-06,-1.8594e-05,-9.5416e-06,-1.3599e-06,-6.9981e-05,-7.8908e-06,-6.3101e-07,-2.5951e-05,-2.8474e-06,-5.8631e-06,3.0763e-06,-0.00010038,-6.5797e-06,-0.22513,-3.055e-05,-2.9968e-05
-1.057e-05,-8.5479e-06,-2.2796e-05,-2.5325e-05,2.4807e-06,4.9509e-05,1.4185e-06,1.2299e-05,1.2389e-09,-6.5568e-06,3.0889e-06,2.5826e-05,4.6783e-06,8.0586e-07,2.0851e-05,-4.5078e-06,-5.5612e-06,-3.0547e-06,2.5686e-05,1.0075e-05,-1.8747e-05,9.9388e-06,-3.5316e-06,1.7337e-05,-1.2889e-05,-2.9514e-06,6.3697e-06,1.5234e-05,1.9112e-05,2.7471e-05,-6.7995e-06,2.7906e-06,-1.5525e-05,1.4413e-05,-1.1122e-06,2.8887e-05,-8.8288e-06,1.4937e-06,-4.9427e-05,-1.4257e-05,4.7471e-05,3.7253e-05,0.00027466,6.1891e-06,-6.6884e-06,6.0865e-06,8.2753e-06,-1.0506e-05,7.4616e-06,7.0035e-06,-5.2117e-06,-6.3238e-06,5.9344e-05,7.7996e-06,5.444e-06,5.2271e-06,7.8045e-06,-1.7352e-05,-4.7656e-06,-2.617e-05,1.5731e-05,-1.5647e-05,4.2856e-07,-1.0503e-05,-8.2967e-06,-9.4266e-06,-8.7635e-06,-5.9528e-06,2.2595e-05,7.7563e-07,-1.3135e-05,-8.6437e-07,-3.6403e-06,-1.6123e-05,-6.0683e-06,1.9045e-05,-6.8082e-06,-9.4856e-07,-4.5085e-06,3.833e-06,-2.1693e-05,-4.7319e-07,-0.15984,-9.3427e-06,-1.3171e-05
-0.00012415,-0.00016935,-0.00033104,-0.0012938,-5.0346e-05,2.1141e-06,-1.3168e-06,0.00010713,-0.00069642,9.8681e-10,-4.23e-05,1.2834e-05,-0.00016223,-3.8909e-05,0.00011922,-0.00010483,-0.0002247,-6.3025e-05,0.00010697,4.0293e-05,-0.00017717,4.268e-05,-4.1329e-05,-4.4897e-05,-0.00016719,-4.1335e-05,3.8806e-05,1.7631e-05,8.8555e-05,2.7913e-05,-0.0001573,-0.00020816,-0.00027384,-7.6283e-05,3.8132e-05,0.00011282,-9.3447e-05,-0.00016109,-0.079666,-0.00022074,0.00015196,-0.000144,-0.00021175,-0.00011492,-0.00014911,7.1955e-05,6.5466e-05,-0.0002363,-0.00035127,-0.00027101,-0.00010943,-4.9334e-05,-0.00023987,-5.3748e-06,-2.2349e-05,2.3008e-05,-2.0746e-05,-0.00099553,-0.00015296,-0.00028978,5.9099e-05,-0.00021206,-1.6171e-05,-0.00027559,-0.00019779,-0.00013337,-0.00010566,-0.00013615,1.924e-05,-6.9929e-05,-0.00013158,-5.691e-05,-1.0082e-05,-0.00081931,-5.367e-05,2.5847e-05,-0.00018695,-8.5232e-06,-3.1363e-05,2.9211e-05,-0.0014865,-4.2356e-05,-0.22637,-0.00023074,-0.00021801
-5.0816e-05,-6.1303e-05,-9.4949e-05,-0.00017422,-1.2001e-05,1.0234e-05,-3.6614e-06,2.5262e-05,-0.00010531,-2.5103e-05,1.243e-09,1.5528e-06,-4.3886e-05,-2.0005e-05,3.6192e-05,-2.9788e-05,-6.7464e-05,-2.7294e-05,5.4876e-05,8.4191e-06,-5.4789e-05,1.2032e-05,-1.5974e-05,-1.2883e-06,-6.0877e-05,-1.5585e-05,8.2706e-06,7.2625e-06,3.0463e-05,9.7869e-06,-3.8066e-05,-5.3526e-05,-7.5124e-05,-1.051e-05,1.5068e-06,3.4487e-05,-3.6755e-05,-4.9694e-05,-0.00050959,-6.6557e-05,4.451e-05,-2.9723e-05,-3.5864e-05,-3.6475e-05,-4.7251e-05,1.7985e-05,1.8884e-05,-6.7686e-05,-8.4493e-05,-5.3182e-05,-4.7322e-05,-3.0781e-05,-3.5639e-05,4.5244e-07,-3.0439e-06,3.4489e-06,-2.0209e-06,-0.00016147,-5.8932e-05,-8.5598e-05,1.4547e-05,-7.5147e-05,-8.5771e-06,-8.3114e-05,-5.2033e-05,-4.4911e-05,-4.6127e-05,-5.25e-05,9.2343e-06,-2.7337e-05,-4.5845e-05,-2.5205e-05,1.4257e-07,-0.00016527,-2.1602e-05,3.5932e-06,-5.2025e-05,-8.1573e-06,-1.8664e-05,1.0174e-05,-0.0001749,-1.3713e-05,-0.18632,-7.3076e-05,-6.8047e-05
-0.00010634,-0.00013375,-0.00022322,-0.00039541,-1.8627e-05,5.9347e-05,-1.2347e-05,4.9151e-05,-0.00010347,-7.513e-05,-3.4417e-05,9.4933e-10,-9.2409e-05,-2.6759e-05,8.1218e-05,-3.2713e-05,-0.00010644,-4.7293e-05,0.00012264,3.1884e-05,-0.00016074,5.0727e-05,-3.907e-05,3.4121e-05,-0.00013457,-3.4897e-05,1.6791e-05,0.00014418,0.0001165,8.2877e-05,-5.2908e-05,-6.9547e-05,-0.00014682,3.9589e-05,-1.9624e-05,0.00021137,-7.0937e-05,-7.5395e-05,-0.00096761,-0.0001343,0.00029439,3.1777e-05,4.695e-05,-2.8503e-05,-8.274e-05,4.347e-05,4.6836e-05,-0.00011064,-0.00011452,-8.3797e-05,-8.0829e-05,-7.0004e-05,-6.9263e-06,-1.3625e-06,-1.5611e-05,8.1345e-06,3.4039e-05,-0.00034846,-0.00010575,-0.00025387,6.4075e-05,-0.00015282,-4.0156e-06,-0.00015436,-0.00010062,-0.0001089,-9.9732e-05,-9.0464e-05,7.0731e-05,-4.0615e-05,-0.00011528,-4.6646e-05,-9.879e-06,-0.0002398,-4.8883e-05,6.8851e-05,-0.0001556,-1.5678e-05,-4.1992e-05,2.9383e-05,-0.00038129,-2.6972e-05,-0.13694,-0.00013348,-0.00013423
-6.2085e-06,-6.1884e-06,-1.211e-05,-1.0956e-05,-5.9772e-07,6.0226e-06,-4.7116e-07,5.8199e-06,-5.4344e-06,-1.7712e-06,9.0402e-07,3.6916e-06,8.4396e-10,-9.3015e-07,8.4781e-06,-4.3116e-06,-5.9425e-06,-3.0877e-06,9.7305e-06,3.0406e-06,-8.6622e-06,2.2996e-06,-2.308e-06,4.1118e-06,-6.7684e-06,-1.6746e-06,2.1526e-06,3.4663e-06,5.866e-06,4.3819e-06,-3.7537e-06,-4.0917e-06,-9.4522e-06,1.1488e-06,4.8929e-07,9.7184e-06,-3.9145e-06,-2.4161e-06,-2.426e-05,-8.5587e-06,1.053e-05,2.3711e-06,1.3108e-06,-6.911e-07,-4.8993e-06,3.0072e-06,3.119e-06,-7.8445e-06,-4.0944e-06,-4.7583e-06,-3.4485e-06,-2.0563e-06,-2.7789e-06,1.8687e-06,8.5731e-07,1.7479e-06,-1.3747e-08,-7.9036e-06,-3.8515e-06,-8.2237e-06,4.2815e-06,-8.1235e-06,-1.0294e-06,-6.4917e-06,-5.7675e-06,-5.7743e-06,-4.675e-06,-5.2515e-06,3.8892e-06,-1.4033e-06,-6.8172e-06,-2.0092e-06,-8.5964e-07,-1.3317e-05,-2.5094e-06,4.6094e-06,-4.2483e-06,-4.0717e-07,-1.4856e-06,1.471e-06,-1.139e-05,-1.4373e-06,-0.13737,-6.4587e-06,-8.0844e-06
-1.7534e-05,-2.2145e-05,-4.1397e-05,-9.6346e-05,-9.3059e-06,-9.0537e-06,-2.8372e-06,7.9606e-06,-5.8209e-05,-1.5179e-05,-1.1956e-05,-4.611e-08,-2.8448e-05,1.2508e-09,9.8564e-06,-1.5557e-05,-2.3792e-05,-9.5038e-06,1.5541e-05,9.1087e-06,-2.8936e-05,1.1213e-05,-8.4766e-06,-8.4571e-06,-2.6978e-05,-8.5877e-06,1.6529e-06,-5.7861e-07,9.8801e-06,-1.1117e-06,-2.2186e-05,-2.7204e-05,-3.8848e-05,-1.1878e-05,-7.0747e-06,1.3641e-05,-1.5833e-05,-1.9688e-05,-0.0023265,-3.3334e-05,1.7603e-05,-1.1019e-05,-9.4188e-06,-2.0023e-05,-2.1527e-05,6.0216e-06,4.7722e-06,-2.3641e-05,-4.0136e-05,-3.0056e-05,-1.3154e-05,-1.2223e-05,-2.0509e-05,1.1094e-06,-7.2191e-07,2.9309e-06,3.8455e-06,-0.00010142,-2.0092e-05,-3.4214e-05,3.9466e-06,-2.5796e-05,-4.1114e-06,-3.6807e-05,-2.8561e-05,-2.1554e-05,-1.767e-05,-1.6533e-05,-4.3969e-07,-8.4957e-06,-2.1813e-05,-2.9189e-06,-5.8735e-06,-6.7766e-05,-1.1582e-05,2.1942e-06,-3.9611e-05,-3.7643e-06,-8.0655e-06,2.2326e-06,-0.00011442,-8.2734e-06,-0.2352,-2.5759e-05,-2.9838e-05
-6.8162e-05,-8.2816e-05,-0.00014144,-0.00025504,-2.465e-05,-4.1038e-06,-5.3093e-06,3.7656e-05,-0.00015306,-3.0305e-05,-1.7805e-05,-4.6586e-06,-6.3342e-05,-2.8211e-05,1.2396e-09,-5.1663e-05,-9.7103e-05,-3.7571e-05,5.2064e-05,9.3178e-06,-8.8189e-05,1.3224e-05,-2.6201e-05,-2.1735e-05,-8.4383e-05,-2.7588e-05,1.2164e-05,3.1444e-07,3.4475e-05,4.1937e-06,-7.6279e-05,-8.8005e-05,-0.00012648,-3.8369e-05,8.8229e-07,4.9277e-05,-5.0974e-05,-7.0873e-05,-0.00077239,-0.00010826,4.9745e-05,-5.3581e-05,-6.7671e-05,-5.3641e-05,-7.6474e-05,2.3024e-05,2.2626e-05,-0.0001068,-0.00011752,-0.00010743,-5.8907e-05,-3.6212e-05,-8.3108e-05,2.0602e-06,-4.8578e-06,6.3383e-06,-1.481e-05,-0.00022773,-7.8576e-05,-0.00012294,1.7337e-05,-0.0001054,-1.629e-05,-0.00011481,-8.633e-05,-6.7399e-05,-5.6989e-05,-7.5325e-05,1.6983e-07,-4.1905e-05,-6.7256e-05,-3.4599e-05,-9.3678e-06,-0.00023128,-3.1639e-05,4.1283e-06,-7.8279e-05,-1.3877e-05,-2.4641e-05,9.0078e-06,-0.00027204,-2.5178e-05,-0.20748,-0.00010406,-0.00010864
-1.5639e-05,-2.1583e-05,-3.1597e-05,-9.7093e-05,-4.4806e-06,1.3537e-06,-3.2977e-07,4.0686e-06,-4.7423e-05,-1.2886e-05,-7.8548e-06,3.7657e-06,-2.5903e-05,-6.7628e-06,6.322e-06,9.7424e-10,-2.1515e-05,-8.5888e-06,1.2342e-05,1.2707e-06,-1.9557e-05,4.9583e-06,-4.8422e-06,-2.0602e-06,-2.3302e-05,-7.1931e-06,1.9517e-06,4.1261e-06,1.1092e-05,3.2983e-06,-1.1819e-05,-1.7328e-05,-2.2618e-05,-3.5278e-06,-2.7496e-06,1.0373e-05,-9.907e-06,-1.9287e-05,-0.029298,-2.1875e-05,1.8478e-05,-6.6935e-06,-9.6657e-06,-1.429e-05,-1.5935e-05,5.7278e-06,4.8136e-06,-1.9805e-05,-3.3093e-05,-1.4198e-05,-1.6104e-05,-1.2528e-05,-8.6181e-06,-1.2584e-06,-2.7931e-06,-4.9263e-07,3.1965e-06,-0.00011988,-2.2662e-05,-3.6829e-05,4.6802e-06,-2.386e-05,-1.9321e-06,-3.2613e-05,-1.7937e-05,-1.6113e-05,-1.6588e-05,-1.6003e-05,3.8447e-06,-1.0936e-05,-1.674e-05,-8.6712e-06,-4.6449e-07,-6.2298e-05,-8.6842e-06,9.374e-07,-2.8712e-05,-3.0413e-06,-5.8543e-06,3.8791e-06,-9.9259e-05,-2.1043e-06,-0.18607,-2.3648e-05,-2.3035e-05
-7.6062e-05,-9.1516e-05,-0.00018341,-0.00035606,-1.5136e-05,4.5943e-05,-4.3548e-06,6.1181e-05,-0.00015042,-7.3891e-05,-2.7903e-05,6.8871e-05,-7.2495e-05,1.5692e-05,9.5517e-05,-4.7594e-05,1.4001e-09,-3.4658e-05,0.00012994,7.653e-05,-0.00014315,7.6329e-05,-3.3805e-05,3.9558e-05,-0.00013176,-3.1374e-05,1.6732e-05,5.0867e-05,0.00010241,4.8102e-05,-3.9758e-05,-6.3335e-05,-0.00013983,1.775e-05,-3.1076e-05,0.00014287,-6.6313e-05,-5.3367e-05,-0.0013943,-0.00013827,0.00017321,3.144e-05,4.97e-05,-3.9712e-05,-7.1056e-05,4.0038e-05,4.3086e-05,-7.6259e-05,-0.00011905,-8.4719e-05,-4.2517e-05,-5.2485e-05,-1.8935e-05,4.121e-05,2.7635e-05,3.2392e-05,5.111e-05,-0.0003671,-6.1495e-05,-0.00016542,5.6321e-05,-0.00010486,-6.8998e-06,-0.00014393,-0.00011797,-9.0531e-05,-7.3615e-05,-6.1527e-05,5.0575e-05,-1.8742e-05,-0.00010232,5.3703e-06,-2.5873e-05,-0.00026353,-4.9364e-05,9.1901e-05,-0.00016237,-9.2708e-06,-2.7439e-05,2.7204e-05,-0.0003879,-2.0743e-05,-0.17958,-8.7487e-05,-0.00011564
-6.6837e-06,-8.6449e-06,-1.62e-05,-3.8356e-05,-3.5981e-06,-3.2111e-06,-3.6424e-07,3.0099e-06,-2.1027e-05,-4.6776e-06,-4.1758e-06,-8.6222e-08,-1.1367e-05,-2.0494e-06,3.3344e-06,-4.8059e-06,-1.0174e-05,1.1697e-09,4.8381e-06,1.4134e-06,-9.6248e-06,2.4709e-06,-2.8631e-06,-3.4795e-06,-1.0189e-05,-3.1192e-06,1.0451e-06,-7.377e-07,2.829e-06,-9.2941e-07,-8.5487e-06,-1.02e-05,-1.4157e-05,-4.7552e-06,-1.1521e-06,3.7188e-06,-5.722e-06,-8.8931e-06,-0.025401,-1.2372e-05,5.4745e-06,-5.8183e-06,-7.4175e-06,-7.7913e-06,-8.2635e-06,2.2169e-06,2.887e-06,-1.0319e-05,-1.5692e-05,-1.1005e-05,-6.1109e-06,-4.3076e-06,-1.0242e-05,-7.4103e-07,-1.3565e-06,8.3301e-07,-1.5225e-07,-3.8088e-05,-9.1899e-06,-1.4439e-05,1.5266e-06,-1.0121e-05,-1.2919e-06,-1.4222e-05,-1.0774e-05,-7.3558e-06,-6.3619e-06,-6.7519e-06,-2.9964e-08,-4.1307e-06,-7.1796e-06,-2.4351e-06,-2.1087e-07,-2.9343e-05,-3.0271e-06,-3.2636e-07,-1.3176e-05,-1.2827e-06,-2.6891e-06,1.6393e-06,-4.3601e-05,-2.383e-06,-0.25772,-1.0893e-05,-1.1608e-05
-5.0286e-05,-6.5246e-05,-9.1325e-05,-0.0001771,-1.3524e-05,-3.7696e-06,-6.8213e-06,1.6507e-05,-0.00010861,-3.6002e-05,-5.8242e-06,1.116e-06,-5.0033e-05,-1.8098e-05,2.7632e-05,-2.8779e-05,-6.636e-05,-2.8093e-05,1.3268e-09,9.4862e-06,-5.1856e-05,1.4732e-05,-1.8318e-05,-8.5385e-06,-6.481e-05,-2.0687e-05,1.0246e-06,4.5401e-06,3.3116e-05,8.1314e-06,-2.8059e-05,-5.535e-05,-7.2804e-05,-1.5249e-05,-9.8075e-06,3.6394e-05,-3.2158e-05,-5.1445e-05,-0.00050903,-6.8404e-05,4.2558e-05,-2.7361e-05,-2.7953e-05,-4.6123e-05,-5.169e-05,1.5956e-05,1.1937e-05,-6.0893e-05,-8.3709e-05,-4.8814e-05,-4.5226e-05,-3.7307e-05,-1.8702e-05,-1.9331e-06,-5.9921e-06,1.2348e-06,-9.9228e-07,-0.00017904,-6.139e-05,-7.8623e-05,1.0707e-05,-7.042e-05,-9.9857e-06,-9.2283e-05,-5.644e-05,-4.4195e-05,-4.9871e-05,-5.3363e-05,4.1799e-06,-2.4644e-05,-4.7092e-05,-2.3976e-05,-2.7346e-06,-0.00016049,-2.6772e-05,3.9317e-06,-5.7849e-05,-1.1663e-05,-2.2529e-05,1.1155e-05,-0.0001738,-1.5544e-05,-0.19045,-6.7608e-05,-6.7603e-05
-2.515e-05,-3.1275e-05,-5.8965e-05,-0.00013024,-1.1491e-05,-9.4423e-06,-1.7861e-06,1.6255e-05,-7.9992e-05,-2.0404e-05,-1.3651e-05,-1.032e-06,-3.8453e-05,-2.1416e-06,1.6456e-05,-2.206e-05,-3.4583e-05,-1.4e-05,2.467e-05,1.2383e-09,-3.8497e-05,1.4656e-05,-1.0687e-05,-7.9998e-06,-3.8023e-05,-1.1458e-05,3.284e-06,-1.0948e-06,1.6722e-05,-3.8411e-07,-2.9758e-05,-3.6705e-05,-5.3393e-05,-1.2102e-05,-7.7713e-06,1.9513e-05,-2.3525e-05,-2.9252e-05,-0.0014194,-4.5667e-05,2.48e-05,-1.7422e-05,-1.4523e-05,-2.6959e-05,-2.839e-05,8.88e-06,8.6123e-06,-3.3608e-05,-5.8092e-05,-3.8404e-05,-2.1228e-05,-1.7201e-05,-2.7795e-05,2.8778e-06,2.6132e-08,3.2719e-06,3.5108e-06,-0.00013513,-2.7667e-05,-4.7884e-05,7.3972e-06,-3.7995e-05,-5.31e-06,-5.2375e-05,-4.0489e-05,-2.8588e-05,-2.465e-05,-2.4872e-05,2.2851e-06,-1.0505e-05,-3.0368e-05,-5.2013e-06,-6.3483e-06,-9.4154e-05,-1.6079e-05,1.396e-06,-4.952e-05,-4.5679e-06,-9.0844e-06,4.0589e-06,-0.00015515,-1.0358e-05,-0.2157,-3.8606e-05,-4.2774e-05
-9.6071e-06,-1.3175e-05,-1.9434e-05,-4.9977e-05,-3.7789e-06,-3.8199e-06,-7.2365e-07,2.8132e-06,-3.1039e-05,-6.4639e-06,-4.4633e-06,-2.1936e-06,-1.5125e-05,-4.5187e-06,3.1829e-06,-5.9879e-06,-1.4906e-05,-5.712e-06,7.1765e-06,5.0843e-07,1.0776e-09,2.574e-06,-3.0963e-06,-4.3591e-06,-1.2683e-05,-3.9905e-06,5.107e-07,-8.42e-07,4.2163e-06,-8.9841e-07,-9.4363e-06,-1.3102e-05,-1.5875e-05,-5.0086e-06,-9.5628e-07,2.5796e-06,-7.4787e-06,-1.2829e-05,-0.011992,-1.4288e-05,5.204e-06,-1.0087e-05,-1.2756e-05,-1.0591e-05,-1.0709e-05,3.192e-06,2.4362e-06,-1.3913e-05,-2.215e-05,-1.2763e-05,-9.3251e-06,-6.8786e-06,-1.1649e-05,-1.7813e-06,-2.3599e-06,-3.465e-07,-2.1661e-07,-5.0408e-05,-1.3412e-05,-1.9094e-05,1.4598e-06,-1.4801e-05,-2.0684e-06,-2.0407e-05,-1.1897e-05,-8.9606e-06,-9.5544e-06,-1.062e-05,-2.3878e-07,-6.3244e-06,-9.0858e-06,-5.1819e-06,-5.184e-07,-3.8501e-05,-4.9431e-06,-2.0137e-06,-1.5686e-05,-1.9564e-06,-3.7648e-06,1.6597e-06,-5.186e-05,-3.5757e-06,-0.22551,-1.5423e-05,-1.4375e-05
-0.00012795,-0.00017457,-0.00030321,-0.0014548,-5.896e-05,-8.8598e-05,-1.6636e-05,4.6929e-05,-0.00073569,-0.00012054,-8.5961e-05,-3.1382e-06,-0.00028929,-1.6818e-05,6.8336e-05,-0.00010292,-0.00020624,-7.5635e-05,0.00010808,5.4572e-05,-0.00018594,8.9438e-10,-5.523e-05,-6.3785e-05,-0.00021211,-5.6857e-05,1.0781e-05,-3.5856e-06,8.4967e-05,-1.4746e-05,-0.00016929,-0.00021395,-0.00028673,-7.4322e-05,-4.709e-05,7.698e-05,-0.00011127,-0.00017543,-0.18268,-0.00023988,0.00013071,-0.00013673,-0.00014454,-0.00016311,-0.00015832,4.6975e-05,3.3099e-05,-0.00016763,-0.00040936,-0.00022249,-0.00011518,-9.9381e-05,-0.00020695,1.205e-05,6.2672e-08,1.3664e-05,2.9244e-05,-0.0016404,-0.00017919,-0.00025903,2.1908e-05,-0.00019603,-2.0806e-05,-0.00030963,-0.00020129,-0.00015145,-0.00014045,-0.00012545,3.3163e-06,-6.9683e-05,-0.00014557,-2.031e-05,-3.7087e-05,-0.00079364,-8.3292e-05,1.2338e-05,-0.00030524,-2.1807e-05,-5.5331e-05,2.2097e-05,-0.0019771,-5.6503e-05,-0.21397,-0.00021173,-0.00022141
-1.9242e-05,-2.7394e-05,-4.376e-05,-0.00015449,-8.0978e-06,-7.8264e-06,-1.4851e-06,6.7591e-06,-8.1042e-05,-1.2885e-05,-1.0906e-05,-3.0839e-06,-3.4234e-05,-8.5226e-06,7.5982e-06,-1.2555e-05,-3.1919e-05,-1.1983e-05,1.1539e-05,1.7897e-06,-2.3961e-05,5.0565e-06,8.5245e-10,-1.0813e-05,-2.7537e-05,-8.6858e-06,1.7574e-06,-1.5647e-06,8.4303e-06,-7.3406e-07,-2.1527e-05,-2.9717e-05,-3.6062e-05,-1.2965e-05,-1.8868e-06,7.3794e-06,-1.5963e-05,-2.6688e-05,-0.11713,-3.1251e-05,1.3282e-05,-2.0557e-05,-2.5443e-05,-2.2001e-05,-2.3499e-05,6.6565e-06,5.0395e-06,-3.0055e-05,-5.018e-05,-2.9855e-05,-1.9417e-05,-1.3194e-05,-2.5059e-05,-3.1893e-06,-4.8507e-06,-3.2345e-07,-5.6745e-07,-0.00014984,-2.7884e-05,-4.1937e-05,3.2058e-06,-2.9173e-05,-3.1164e-06,-4.3607e-05,-2.6501e-05,-2.0323e-05,-1.9866e-05,-2.092e-05,-1.3993e-06,-1.294e-05,-1.9982e-05,-1.0137e-05,-2.2092e-06,-0.00010049,-1.0928e-05,-3.623e-06,-3.6559e-05,-4.0538e-06,-6.2571e-06,3.1913e-06,-0.00016623,-7.6468e-06,-0.21598,-3.3456e-05,-3.1788e-05
-1.045e-05,-1.2311e-05,-2.0337e-05,-2.9794e-05,2.9333e-07,1.2494e-05,1.1987e-07,7.6038e-06,-1.2571e-05,-7.8927e-06,4.7156e-07,7.5044e-06,-4.9506e-06,-3.0519e-06,9.8115e-06,-3.1401e-06,-1.0435e-05,-5.4948e-06,1.4952e-05,4.8185e-06,-1.3683e-05,5.0548e-06,-3.7795e-06,1.1781e-09,-1.3922e-05,-2.1928e-06,3.2307e-06,7.2282e-06,1.1839e-05,7.8915e-06,-3.1161e-06,-1.8498e-06,-1.5335e-05,8.6828e-06,-6.9391e-07,1.4859e-05,-7.6794e-06,-8.1242e-06,-7.2388e-05,-1.174e-05,2.0656e-05,6.154e-06,6.6392e-06,-1.1786e-06,-7.9162e-06,5.011e-06,5.8043e-06,-1.1491e-05,-9.1157e-06,-3.075e-06,-8.2616e-06,-6.7349e-06,2.1011e-06,2.1973e-06,1.087e-06,2.034e-06,3.8176e-06,-2.72e-05,-1.0744e-05,-2.2088e-05,8.5181e-06,-1.587e-05,-2.9514e-07,-1.2621e-05,-7.1933e-06,-1.0257e-05,-9.7964e-06,-1.0137e-05,1.2123e-05,-4.4163e-06,-1.0716e-05,-4.3619e-06,3.8162e-07,-2.5186e-05,-4.1069e-06,6.3202e-06,-1.3084e-05,-1.0422e-06,-3.0276e-06,4.033e-06,-2.7637e-05,-1.5469e-06,-0.097969,-1.3136e-05,-1.2921e-05
-0.00013542,-0.00017363,-0.00030213,-0.0010079,-6.1018e-05,-1.9648e-05,-1.4714e-05,7.0693e-05,-0.0005063,-7.8217e-05,-6.4569e-05,9.832e-06,-0.00018768,-3.7723e-05,8.4156e-05,-0.00010768,-0.00020711,-7.993e-05,0.00010117,3.4999e-05,-0.00017872,4.2699e-05,-5.4062e-05,-4.5014e-05,1.1944e-09,-4.8917e-05,2.2971e-05,1.7436e-05,7.2533e-05,-2.2494e-06,-0.00014417,-0.00019929,-0.0002543,-6.2923e-05,-6.1401e-06,0.0001043,-0.00010077,-0.00014393,-0.036416,-0.00021569,0.00013546,-9.907e-05,-0.00013557,-0.00011971,-0.00015385,5.0825e-05,3.8377e-05,-0.00020499,-0.00029578,-0.00021842,-0.00010871,-7.6618e-05,-0.00017929,-1.5889e-05,-2.9904e-05,1.1638e-05,-7.2846e-07,-0.00091545,-0.000165,-0.0002866,3.7668e-05,-0.00021165,-2.7122e-05,-0.00027363,-0.00018253,-0.00013864,-0.0001264,-0.00013955,9.153e-06,-7.5459e-05,-0.00013565,-5.8582e-05,-2.3738e-05,-0.00063724,-7.4969e-05,1.6077e-05,-0.00022625,-2.3758e-05,-5.0684e-05,1.4328e-05,-0.0010853,-5.5412e-05,-0.1709,-0.00021238,-0.00021679
-1.446e-05,-1.888e-05,-2.9872e-05,-7.0898e-05,-5.961e-06,-3.8933e-06,-1.7899e-06,5.6479e-06,-4.2071e-05,-8.9359e-06,-6.776e-06,-1.0589e-06,-2.0226e-05,-5.7531e-06,5.8906e-06,-1.032e-05,-2.1414e-05,-8.4129e-06,8.7585e-06,1.3431e-06,-1.7951e-05,3.7298e-06,-5.582e-06,-4.9604e-06,-1.8344e-05,8.2101e-10,1.1535e-06,1.8596e-08,7.1432e-06,2.2977e-07,-1.4041e-05,-1.8477e-05,-2.4791e-05,-5.6244e-06,-8.7758e-07,6.6813e-06,-1.1063e-05,-1.7516e-05,-0.023492,-2.0878e-05,1.0475e-05,-1.2669e-05,-1.5529e-05,-1.3761e-05,-1.5378e-05,4.3312e-06,3.9451e-06,-2.0727e-05,-2.8323e-05,-1.894e-05,-1.3398e-05,-9.4761e-06,-1.4752e-05,-2.8456e-06,-3.9767e-06,-1.1304e-07,-5.8913e-07,-6.6283e-05,-1.831e-05,-2.8621e-05,2.9753e-06,-2.2185e-05,-2.7519e-06,-2.7404e-05,-1.8243e-05,-1.4501e-05,-1.3924e-05,-1.5187e-05,7.979e-07,-8.9725e-06,-1.3736e-05,-6.798e-06,-1.9469e-06,-5.1458e-05,-7.8399e-06,-1.3072e-06,-2.312e-05,-3.2635e-06,-5.9362e-06,1.8684e-06,-7.0979e-05,-5.3116e-06,-0.2103,-2.2008e-05,-2.1847e-05
-1.4949e-05,-1.9794e-05,-3.3765e-05,-7.9887e-05,-6.6555e-06,-5.967e-06,4.3739e-07,5.4203e-06,-4.5865e-05,-8.5751e-06,-7.9294e-06,-3.3998e-06,-2.1998e-05,-7.011e-06,6.428e-06,-1.033e-05,-2.524e-05,-8.3876e-06,7.0803e-06,2.9886e-07,-1.9079e-05,2.4104e-06,-5.6307e-06,-7.5817e-06,-1.9459e-05,-6.5171e-06,1.1234e-09,-2.4112e-06,5.2343e-06,-1.8878e-06,-1.7837e-05,-2.2534e-05,-2.906e-05,-9.6801e-06,-6.4202e-07,5.5217e-06,-1.2265e-05,-1.9949e-05,-0.047699,-2.3684e-05,8.2835e-06,-1.4864e-05,-1.9488e-05,-1.6341e-05,-1.7739e-05,4.9097e-06,3.571e-06,-2.3935e-05,-3.1635e-05,-2.3741e-05,-1.4911e-05,-9.5164e-06,-2.3545e-05,-2.6636e-06,-3.7989e-06,-2.7382e-07,-1.8998e-06,-7.4336e-05,-2.1183e-05,-3.1279e-05,2.5443e-06,-2.3699e-05,-3.2422e-06,-3.0531e-05,-2.039e-05,-1.5195e-05,-1.2956e-05,-1.6697e-05,-1.1967e-06,-1.0289e-05,-1.3741e-05,-8.56e-06,-1.7386e-06,-5.9815e-05,-8.0663e-06,-3.4259e-06,-2.6038e-05,-2.9203e-06,-5.5854e-06,1.762e-06,-8.6654e-05,-5.4021e-06,-0.23328,-2.4627e-05,-2.4145e-05
-9.3092e-05,-0.00011756,-0.0001721,-0.00033864,-1.8275e-05,4.5616e-05,-1.3156e-05,3.9572e-05,-0.0001489,-5.798e-05,-2.1941e-05,0.00010709,-8.0269e-05,-3.0489e-05,6.3584e-05,-3.0078e-05,-0.00010451,-5.435e-05,9.5799e-05,1.7991e-05,-0.00011794,3.3325e-05,-3.0144e-05,2.0035e-05,-0.00010629,-2.6986e-05,1.1323e-05,9.1867e-10,9.0167e-05,4.7085e-05,-4.5999e-05,-6.3474e-05,-0.00011863,2.8684e-05,-5.8315e-06,0.00017044,-5.4014e-05,-6.9603e-05,-0.0011457,-0.00011113,0.00021583,2.8811e-06,-2.144e-05,-3.9802e-05,-7.8034e-05,4.112e-05,3.1442e-05,-0.00010513,-0.00011706,-7.9223e-05,-8.2626e-05,-5.8341e-05,-1.4569e-05,-9.2237e-06,-1.958e-05,4.1295e-06,1.7977e-05,-0.00030531,-0.00010289,-0.00019316,4.8504e-05,-0.00013919,-6.3469e-06,-0.00013853,-7.8428e-05,-8.4601e-05,-9.3105e-05,-8.8977e-05,4.8769e-05,-4.3306e-05,-9.5783e-05,-4.4737e-05,-8.1402e-06,-0.00019425,-4.3097e-05,3.7523e-05,-0.00011538,-9.8791e-06,-3.1459e-05,2.2021e-05,-0.00029773,-2.9529e-05,-0.14289,-0.00011832,-0.00011074
-0.00010914,-0.00014784,-0.0002294,-0.00072582,-3.3299e-05,-7.7139e-06,-1.4427e-05,3.383e-05,-0.00037244,-7.8627e-05,-4.6052e-05,1.8866e-05,-0.00016145,-4.8419e-05,5.4725e-05,-5.766e-05,-0.00015692,-7.4571e-05,9.2299e-05,1.5305e-05,-0.00013579,3.1008e-05,-4.3891e-05,-2.0602e-05,-0.00015393,-4.0172e-05,5.2805e-06,2.547e-05,8.3169e-10,1.2593e-05,-7.829e-05,-0.00012584,-0.00016589,-2.1875e-05,-1.8021e-05,8.6099e-05,-8.1069e-05,-0.00012142,-0.032213,-0.00011966,0.00012641,-9.5186e-05,-0.00010319,-8.9356e-05,-8.4934e-05,4.1781e-05,2.7344e-05,-0.00011039,-0.00023578,-0.00013898,-0.00010743,-7.7883e-05,-7.9876e-05,-1.4476e-05,-2.2863e-05,-2.1183e-06,7.1994e-06,-0.00072735,-0.00014775,-0.00020568,2.8339e-05,-0.00016853,-1.0814e-05,-0.00022533,-0.00012932,-0.0001017,-0.00010962,-0.0001155,1.1224e-05,-7.1166e-05,-0.00010954,-5.8742e-05,-1.7274e-05,-0.00045016,-6.3072e-05,2.1706e-05,-0.00017869,-1.7805e-05,-4.6522e-05,1.5476e-05,-0.00072785,-3.5041e-05,-0.14681,-0.0001662,-0.00015167
-0.00014669,-0.00017578,-0.00027658,-0.00048911,-1.0208e-05,0.00011598,-5.719e-06,7.5121e-05,-0.00011448,-8.2414e-05,-2.6233e-05,8.9239e-05,-0.0001062,-5.1976e-05,0.0001056,-5.3761e-05,-0.00016801,-8.6578e-05,0.00015922,2.9124e-05,-0.00018076,3.8849e-05,-3.9563e-05,3.5956e-05,-0.00018863,-3.9206e-05,2.3914e-05,6.9804e-05,0.00011806,1.206e-09,-7.4978e-05,-9.6695e-05,-0.00019428,1.238e-05,-4.4497e-06,0.00016223,-9.9215e-05,-0.0001213,-0.00074451,-0.00018155,0.00024045,2.6428e-05,0.00011239,-6.0031e-05,-0.00012031,6.0562e-05,5.8017e-05,-0.00018547,-0.00013066,-7.0608e-05,-0.00013252,-0.00010155,6.6116e-05,8.3089e-06,-9.4153e-06,1.2085e-05,1.9948e-05,-0.00041533,-0.0001482,-0.00030502,8.8345e-05,-0.00021224,-1.618e-05,-0.00021849,-0.00014548,-0.00013689,-0.00011753,-0.00014114,9.214e-05,-6.4407e-05,-0.00013994,-6.9334e-05,-9.3099e-06,-0.00030156,-7.0978e-05,3.6748e-05,-0.00017867,-2.0039e-05,-4.7532e-05,4.1081e-05,-0.00042868,-3.3074e-05,-0.13039,-0.00019749,-0.000192
-1.1375e-05,-1.4742e-05,-2.1569e-05,-4.2809e-05,-1.4109e-06,5.1448e-06,-1.3785e-06,4.4726e-06,-2.7414e-05,-9.2028e-06,-3.0899e-06,4.9704e-06,-1.2673e-05,-4.1473e-06,5.3993e-06,-3.9742e-06,-1.1219e-05,-7.3172e-06,1.5126e-05,2.4529e-06,-1.3929e-05,3.7108e-06,-3.8492e-06,2.6784e-06,-1.5219e-05,-3.7093e-06,6.7383e-07,5.2216e-06,1.1159e-05,4.8496e-06,1.1379e-09,-1.0356e-05,-1.2353e-05,2.1885e-06,-1.738e-06,1.0655e-05,-7.5992e-06,-9.9093e-06,-0.00012561,-1.2839e-05,1.6196e-05,-2.1864e-06,-2.4273e-06,-6.5791e-06,-9.1806e-06,4.3366e-06,3.3149e-06,-1.235e-05,-1.9882e-05,-7.2306e-06,-1.0908e-05,-9.4413e-06,-7.8706e-07,2.4887e-08,-1.1535e-06,2.0176e-06,3.9653e-06,-4.2343e-05,-1.2884e-05,-2.3301e-05,4.6832e-06,-1.657e-05,-8.0101e-07,-2.0563e-05,-1.0552e-05,-9.7185e-06,-1.1671e-05,-1.1176e-05,4.9508e-06,-4.8308e-06,-1.1994e-05,-5.8212e-06,-9.832e-07,-2.7773e-05,-6.3057e-06,5.5829e-06,-1.6057e-05,-1.8755e-06,-4.4536e-06,2.6934e-06,-3.9102e-05,-2.4877e-06,-0.1613,-1.3549e-05,-1.3549e-05
-0.00010434,-0.0001341,-0.00020794,-0.00035089,-9.798e-06,0.00010669,2.297e-06,5.6386e-05,-0.00011892,-8.2988e-05,-1.8433e-05,9.552e-05,-8.2073e-05,-2.0601e-05,0.0001009,-3.5231e-05,-9.8405e-05,-5.5238e-05,0.00015848,5.6224e-05,-0.00015405,7.0623e-05,-3.7059e-05,0.00010969,-0.00015535,-2.8937e-05,2.3961e-05,8.9762e-05,0.0001363,9.1369e-05,-5.7358e-05,1.0255e-09,-0.00017103,6.2218e-05,-1.981e-05,0.00018628,-7.9728e-05,-8.7263e-05,-0.00080246,-0.00014478,0.00023495,5.4917e-05,7.9103e-05,-1.9684e-05,-8.8094e-05,6.0286e-05,5.3901e-05,-0.00011214,-9.3398e-05,-3.7603e-05,-8.0293e-05,-7.0963e-05,1.7414e-05,2.8784e-05,1.2157e-05,2.7136e-05,4.4844e-05,-0.00036142,-0.00010379,-0.00021924,7.9283e-05,-0.00014912,2.8069e-06,-0.00013863,-9.3506e-05,-0.00010445,-0.00010705,-9.0894e-05,0.00010468,-4.4955e-05,-0.0001164,-3.5636e-05,-1.3301e-05,-0.00024905,-5.2513e-05,7.7283e-05,-0.00016661,-1.0172e-05,-2.9513e-05,3.7412e-05,-0.0003298,-2.3931e-05,-0.13203,-0.00012461,-0.0001406
-7.9573e-05,-0.00010044,-0.0001507,-0.00031284,-1.2004e-05,4.4111e-05,-8.5118e-06,3.3927e-05,-0.00015253,-5.7225e-05,-1.7897e-05,4.0618e-05,-7.77e-05,-2.4389e-05,4.918e-05,-2.2706e-05,-7.9644e-05,-4.805e-05,9.7913e-05,2.3657e-05,-9.4769e-05,3.3789e-05,-2.4018e-05,1.1593e-05,-0.00010143,-2.484e-05,7.3993e-06,4.2469e-05,8.0272e-05,3.7683e-05,-2.2072e-05,-7.2085e-05,9.5467e-10,1.1266e-05,-8.4259e-06,8.4276e-05,-5.5068e-05,-6.705e-05,-0.0028855,-8.9465e-05,0.0001276,1.2297e-06,-3.8139e-06,-4.1675e-05,-6.2466e-05,3.3277e-05,2.6378e-05,-8.6724e-05,-0.00011701,-5.6767e-05,-6.8401e-05,-5.7752e-05,-8.6863e-06,-2.7047e-07,-7.7623e-06,9.4031e-06,1.9392e-05,-0.00030073,-8.7262e-05,-0.00015768,3.7984e-05,-0.0001122,-4.0374e-06,-0.00014502,-8.6814e-05,-7.4745e-05,-8.0631e-05,-7.4008e-05,3.7006e-05,-3.4398e-05,-8.8458e-05,-3.2597e-05,-6.4807e-06,-0.00019717,-4.2694e-05,3.6016e-05,-0.00011299,-1.0639e-05,-2.879e-05,2.0792e-05,-0.00031113,-1.7962e-05,-0.15371,-9.4882e-05,-9.1844e-05
-1.3717e-05,-1.7549e-05,-2.4829e-05,-4.3814e-05,-1.1461e-06,1.0027e-05,-9.8172e-07,5.3006e-06,-1.7246e-05,-1.1274e-05,-2.3941e-06,9.5496e-06,-1.1826e-05,-5.6238e-06,7.2717e-06,-4.579e-06,-1.3993e-05,-8.8675e-06,1.4585e-05,3.7032e-06,-1.6892e-05,5.1712e-06,-5.7514e-06,9.8381e-06,-1.7486e-05,-3.1198e-06,1.4609e-06,1.0022e-05,1.3584e-05,6.9752e-06,-4.2461e-06,-6.7455e-06,-1.6904e-05,1.1953e-09,-1.9695e-06,1.4795e-05,-9.5888e-06,-1.3382e-05,-0.00010599,-1.4768e-05,2.5373e-05,2.4884e-06,1.7442e-06,-4.6867e-06,-1.0044e-05,5.3671e-06,3.816e-06,-1.3514e-05,-1.5449e-05,-4.5883e-06,-1.3072e-05,-1.0273e-05,3.5621e-06,-8.9878e-07,-1.6693e-06,1.2778e-07,4.307e-06,-4.0433e-05,-1.5497e-05,-2.7813e-05,8.4311e-06,-2.0685e-05,-7.0689e-07,-1.7545e-05,-8.7999e-06,-1.4134e-05,-1.4849e-05,-1.4196e-05,1.0366e-05,-6.2085e-06,-1.2455e-05,-7.8041e-06,-3.3465e-07,-3.4633e-05,-6.988e-06,3.5986e-06,-1.7409e-05,-2.4832e-06,-5.9407e-06,2.8971e-06,-3.6353e-05,-4.1041e-06,-0.099162,-1.8107e-05,-1.702e-05
-1.0518e-05,-1.4083e-05,-2.264e-05,-5.5432e-05,-4.6026e-06,-2.2949e-06,-7.7891e-07,4.7143e-06,-3.3234e-05,-3.0179e-06,-4.4448e-06,-2.7774e-06,-1.377e-05,-6.2759e-06,4.2246e-06,-7.3135e-06,-1.7813e-05,-6.2681e-06,4.1843e-06,-1.2216e-06,-1.1714e-05,3.5214e-08,-3.4739e-06,-5.5807e-06,-1.2051e-05,-3.6807e-06,1.1841e-06,-1.144e-06,3.1526e-06,-9.4254e-07,-1.1115e-05,-1.5164e-05,-1.77e-05,-6.3106e-06,1.0625e-09,3.2528e-06,-7.7172e-06,-1.3902e-05,-0.11601,-1.4942e-05,4.9426e-06,-1.2104e-05,-1.6765e-05,-1.0364e-05,-1.243e-05,3.7864e-06,2.7498e-06,-1.831e-05,-2.2088e-05,-1.5909e-05,-1.1018e-05,-5.7969e-06,-1.4459e-05,-3.3957e-06,-4.2329e-06,-2.5139e-07,-3.3727e-06,-4.5089e-05,-1.4413e-05,-2.1976e-05,1.8622e-06,-1.7458e-05,-1.8913e-06,-2.0588e-05,-1.3253e-05,-1.0071e-05,-9.5677e-06,-1.197e-05,-7.5968e-07,-7.3191e-06,-8.8244e-06,-7.5486e-06,-4.6826e-07,-4.2371e-05,-4.7815e-06,-2.9029e-06,-1.3976e-05,-2.1777e-06,-3.5036e-06,1.1882e-06,-5.3721e-05,-4.0062e-06,-0.22622,-1.8383e-05,-1.5734e-05
-9.3458e-05,-0.00010276,-0.00018617,-0.0003057,-1.8965e-05,5.2253e-05,-1.1968e-05,5.3841e-05,-0.00014053,-5.5654e-05,-1.9251e-05,0.00010047,-5.8939e-05,-1.8941e-05,9.0011e-05,-4.7425e-05,-9.41e-05,-4.7196e-05,0.00011528,3.3042e-05,-0.00013933,3.1058e-05,-3.7745e-05,2.1857e-05,-0.00010665,-3.2078e-05,1.8344e-05,0.00011044,9.3928e-05,5.288e-05,-5.8781e-05,-5.856e-05,-0.00013763,6.2134e-06,-6.5018e-06,8.7544e-10,-6.6611e-05,-5.9375e-05,-0.00066568,-0.00012912,0.00021429,8.74e-06,-2.9935e-05,-3.4851e-05,-8.8116e-05,3.6902e-05,3.8936e-05,-0.00011636,-8.2911e-05,-7.2688e-05,-7.4963e-05,-5.2667e-05,-6.0747e-05,4.7919e-06,-5.9157e-06,1.0685e-05,2.2132e-05,-0.00025399,-8.4981e-05,-0.00017834,4.9612e-05,-0.00013788,-1.1102e-05,-0.00013191,-9.0437e-05,-9.0514e-05,-7.6368e-05,-9.4402e-05,5.578e-05,-3.657e-05,-9.7268e-05,-3.6234e-05,-1.3278e-05,-0.00020727,-4.0378e-05,5.0198e-05,-0.00012082,-1.3299e-05,-2.8076e-05,2.0482e-05,-0.00028203,-3.4935e-05,-0.14664,-0.00012886,-0.00011547
-1.3047e-05,-1.7789e-05,-3.0095e-05,-8.9907e-05,-5.2289e-06,-5.0441e-06,-1.7171e-06,5.4526e-06,-5.3644e-05,-8.4728e-06,-7.1595e-06,3.8591e-07,-1.961e-05,-4.5492e-06,7.2367e-06,-7.352e-06,-2.0125e-05,-7.6265e-06,1.1164e-05,1.9653e-06,-1.7641e-05,4.7169e-06,-5.1917e-06,-5.1971e-06,-1.7894e-05,-5.4077e-06,1.3179e-06,1.5607e-06,7.864e-06,2.9793e-07,-1.3082e-05,-1.8892e-05,-2.4748e-05,-6.295e-06,-1.5781e-06,7.9251e-06,1.1661e-09,-1.5349e-05,-0.010782,-2.1661e-05,1.1999e-05,-1.1216e-05,-1.5723e-05,-1.4177e-05,-1.4497e-05,5.2142e-06,3.6114e-06,-1.9242e-05,-3.0739e-05,-2.0727e-05,-1.1901e-05,-8.5697e-06,-1.5516e-05,-1.3734e-06,-2.6669e-06,9.3271e-07,-4.5411e-08,-8.9639e-05,-1.7859e-05,-2.5014e-05,3.1768e-06,-2.0882e-05,-2.3279e-06,-2.6573e-05,-1.6779e-05,-1.3368e-05,-1.2664e-05,-1.3724e-05,-2.136e-08,-8.349e-06,-1.3675e-05,-5.6464e-06,-1.647e-06,-5.9341e-05,-7.0593e-06,1.2299e-06,-2.2275e-05,-2.0889e-06,-5.2645e-06,2.4016e-06,-9.8142e-05,-3.7638e-06,-0.1783,-2.0341e-05,-2.1274e-05
-7.0868e-05,-7.8116e-05,-0.00014711,-0.00021974,-1.4262e-05,4.3445e-05,-8.9266e-06,4.9024e-05,-9.4208e-05,-4.8898e-05,-1.6409e-05,5.009e-05,-4.0158e-05,2.8625e-06,7.9076e-05,-4.7158e-05,-7.0125e-05,-3.5629e-05,0.00010261,4.6889e-05,-0.00011649,5.0012e-05,-2.8123e-05,1.8819e-05,-8.9776e-05,-2.5982e-05,1.7318e-05,4.4718e-05,7.9963e-05,3.7799e-05,-4.5606e-05,-6.7673e-05,-0.00012237,-7.977e-06,-1.6162e-05,0.00011411,-4.8782e-05,9.3958e-10,-0.00044518,-0.00011036,0.00013625,1.787e-05,2.9667e-05,-3.4806e-05,-6.3044e-05,3.2168e-05,3.074e-05,-8.0426e-05,-8.7978e-05,-6.5626e-05,-4.2395e-05,-3.9041e-05,-2.0126e-05,2.505e-05,1.3734e-05,1.785e-05,2.513e-05,-0.00020498,-5.7326e-05,-0.00012316,3.8622e-05,-9.2013e-05,-7.816e-06,-0.00010622,-7.9507e-05,-7.7202e-05,-6.5585e-05,-5.4415e-05,3.7489e-05,-1.7542e-05,-8.8177e-05,-1.0141e-05,-1.8704e-05,-0.0001925,-3.8488e-05,5.4772e-05,-0.00010355,-7.2758e-06,-2.3002e-05,1.8645e-05,-0.00022943,-1.9539e-05,-0.15228,-7.7901e-05,-0.00010214
-7.5726e-06,-6.8644e-06,-1.2289e-05,-4.5718e-06,2.3384e-06,1.8696e-05,-1.2809e-06,9.1312e-06,1.849e-06,-2.3695e-06,4.9754e-06,1.0033e-05,1.0672e-05,4.3375e-07,1.5204e-05,-3.7597e-06,-4.2014e-06,-3.9089e-06,2.1135e-05,7.1573e-06,-1.0571e-05,4.865e-06,-2.2202e-06,1.2801e-05,-7.3738e-06,-6.9501e-07,3.3977e-06,1.0485e-05,1.1935e-05,1.2494e-05,3.0001e-07,1.3543e-06,-8.1638e-06,9.243e-06,3.0663e-07,2.0422e-05,-3.4564e-06,2.0044e-06,1.29e-09,-9.2543e-06,2.3865e-05,1.3521e-05,1.1458e-05,4.6093e-06,-3.6833e-06,5.5007e-06,5.042e-06,-8.1106e-06,2.0636e-06,1.7212e-06,-2.7649e-06,-1.8155e-06,6.7039e-06,5.0137e-06,3.5384e-06,3.8412e-06,2.0434e-06,-1.3432e-06,-1.5937e-06,-8.2119e-06,9.0677e-06,-9.2072e-06,-1.6513e-07,-4.526e-06,-4.2395e-06,-6.8794e-06,-5.8338e-06,-6.0283e-06,1.1729e-05,1.1732e-06,-9.361e-06,-1.2697e-06,-7.1681e-07,-6.7116e-06,-2.5022e-06,1.1481e-05,-7.5853e-07,4.789e-07,-1.2574e-06,3.2003e-06,-3.1236e-06,-1.0451e-07,-0.090145,-4.947e-06,-7.6691e-06
-3.1468e-05,-4.181e-05,-6.5092e-05,-0.00014467,-7.8483e-06,3.6826e-06,-1.8238e-06,1.2041e-05,-7.6053e-05,-2.3042e-05,-1.2238e-05,8.5118e-06,-4.0592e-05,-1.1757e-05,1.5555e-05,-1.6285e-05,-4.1285e-05,-2.0954e-05,2.8889e-05,6.3112e-06,-4.0932e-05,1.0856e-05,-1.1729e-05,9.3449e-07,-4.264e-05,-1.0768e-05,3.6103e-06,8.9041e-06,3.2419e-05,6.8588e-06,-2.0279e-05,-3.3572e-05,-4.4894e-05,-2.4987e-06,-3.6129e-06,2.3753e-05,-2.4932e-05,-3.3232e-05,-0.0010672,1.2516e-09,3.8452e-05,-1.6768e-05,-1.7068e-05,-2.3212e-05,-2.5017e-05,1.3002e-05,9.1812e-06,-3.0143e-05,-5.5004e-05,-3.1424e-05,-2.9703e-05,-2.3176e-05,-1.7634e-05,-2.3008e-06,-4.9467e-06,1.645e-06,5.1256e-06,-0.00014394,-3.9895e-05,-6.7088e-05,1.2185e-05,-4.7179e-05,-2.2159e-06,-5.9556e-05,-3.5369e-05,-3.0274e-05,-3.1951e-05,-3.1908e-05,9.7243e-06,-1.7952e-05,-3.1515e-05,-1.4592e-05,-3.1246e-06,-0.00010293,-1.8446e-05,6.1288e-06,-5.2986e-05,-4.6814e-06,-1.2587e-05,5.8688e-06,-0.00014249,-9.6039e-06,-0.18099,-4.4373e-05,-3.9405e-05
-9.9757e-05,-0.00012142,-0.00019664,-0.00034374,-1.4415e-05,8.8137e-05,-9.8639e-06,5.1493e-05,-8.9711e-05,-6.5313e-05,-2.3407e-05,0.00013544,-7.9388e-05,-2.6551e-05,7.1525e-05,-2.434e-05,-0.00010449,-4.9234e-05,0.00011141,2.7948e-05,-0.00013946,4.115e-05,-3.272e-05,3.9197e-05,-0.00011984,-2.9182e-05,1.7654e-05,0.00012953,0.00011196,7.9765e-05,-4.3088e-05,-5.7709e-05,-0.00012253,4.7812e-05,-9.087e-06,0.000193,-6.6549e-05,-6.8293e-05,-0.00060857,-0.00011611,9.6678e-10,4.4064e-05,3.441e-05,-3.0293e-05,-7.4654e-05,4.4469e-05,4.0468e-05,-0.00010615,-0.00010118,-4.9122e-05,-8.3786e-05,-6.6855e-05,1.2076e-05,-5.375e-06,-1.8471e-05,7.4651e-06,3.5621e-05,-0.00029358,-0.00010314,-0.00021605,5.888e-05,-0.00014251,3.296e-07,-0.00014243,-8.7128e-05,-9.7462e-05,-9.3112e-05,-8.8749e-05,7.5434e-05,-3.9684e-05,-0.00010089,-4.5048e-05,-4.8913e-06,-0.00019173,-4.6953e-05,5.3357e-05,-0.00012664,-1.1626e-05,-3.8346e-05,2.8773e-05,-0.0003001,-2.7305e-05,-0.13716,-0.00013005,-0.00012024
-7.3384e-06,-6.4018e-06,-1.378e-05,-1.9309e-05,-5.9462e-07,2.3016e-05,-7.1299e-07,4.1989e-06,4.0319e-06,-6.5771e-06,-1.0162e-06,9.8272e-06,-1.7731e-06,7.722e-07,7.3358e-06,-7.5487e-07,-4.3824e-06,-2.7823e-06,1.2143e-05,4.9976e-06,-1.203e-05,4.8976e-06,-2.6378e-06,9.1667e-06,-8.929e-06,-2.6743e-06,2.1263e-06,7.8608e-06,7.8841e-06,9.5639e-06,-1.9211e-06,-9.2555e-07,-8.5155e-06,6.0376e-06,-2.7099e-06,1.4637e-05,-5.0892e-06,-2.2119e-06,-3.8339e-05,-9.8575e-06,2.2135e-05,1.1936e-09,2.7758e-05,1.258e-06,-4.92e-06,2.5175e-06,2.0666e-06,-6.0371e-06,1.467e-06,7.5125e-06,-4.0582e-06,-5.0546e-06,1.2358e-05,2.2684e-06,9.0489e-07,1.5966e-06,4.8823e-06,-1.8398e-05,-5.0764e-06,-1.4008e-05,8.571e-06,-8.9835e-06,-4.1592e-07,-7.8903e-06,-6.1112e-06,-7.6256e-06,-7.5404e-06,-4.9116e-06,1.3995e-05,-3.0562e-07,-9.7929e-06,-1.4291e-06,-1.6018e-06,-1.2252e-05,-4.1141e-06,7.4694e-06,-1.1043e-05,-1.2952e-06,-2.71e-06,1.8165e-06,-1.8907e-05,-1.5053e-06,-0.11542,-6.4292e-06,-9.3424e-06
-2.0432e-05,-1.4849e-05,-4.065e-05,-6.2855e-05,3.4558e-06,9.221e-05,-1.6778e-06,1.1064e-05,0.00013657,-2.7337e-05,-2.0362e-06,4.6993e-05,-6.1568e-06,1.1461e-05,2.6682e-05,-3.2148e-06,-5.1861e-06,-1.0712e-05,5.1466e-05,2.7741e-05,-4.6991e-05,2.4613e-05,-9.7615e-06,4.121e-05,-3.2378e-05,-1.0775e-05,4.8693e-06,2.4677e-05,3.4975e-05,6.5513e-05,-2.211e-06,7.6762e-06,-2.8092e-05,2.5723e-05,-1.7683e-05,4.3798e-05,-2.0909e-05,1.1439e-06,-0.00014348,-3.0442e-05,8.4737e-05,0.00011347,1.0191e-09,7.8316e-06,-3.1133e-06,1.2682e-05,1.0078e-05,-7.2801e-06,1.182e-05,4.2797e-05,-7.1468e-06,-2.7519e-05,0.0041587,1.7526e-05,1.2848e-05,9.152e-06,2.0749e-05,-7.2114e-05,-7.514e-06,-5.9097e-05,3.7172e-05,-2.825e-05,5.8489e-06,-1.8423e-05,-2.0155e-05,-2.6534e-05,-2.3333e-05,-4.6075e-06,5.641e-05,2.9822e-06,-3.5593e-05,-1.772e-07,-7.7609e-06,-1.0017e-05,-1.7992e-05,3.4122e-05,-3.3987e-05,-1.8391e-06,-1.579e-05,8.2915e-06,-7.2565e-05,-1.4627e-08,-0.14942,-1.0218e-05,-2.452e-05
-7.542e-05,-8.8985e-05,-0.00014184,-0.0002141,-1.3756e-05,4.5574e-05,-1.1778e-05,4.7453e-05,-8.6488e-05,-4.3015e-05,-1.5372e-05,5.4775e-05,-3.9799e-05,-2.0355e-05,6.9549e-05,-4.0842e-05,-7.7109e-05,-4.3005e-05,7.7714e-05,2.6135e-05,-0.00010969,2.9666e-05,-2.9429e-05,4.0089e-05,-9.0717e-05,-2.4882e-05,1.2639e-05,4.3483e-05,7.2818e-05,4.5505e-05,-4.1574e-05,-4.2736e-05,-0.00010889,1.8893e-05,-7.5399e-06,0.00010043,-5.9691e-05,-5.4824e-05,-0.00043228,-9.792e-05,0.00013103,2.3222e-05,1.9004e-05,9.0249e-10,-6.2367e-05,3.1916e-05,2.9315e-05,-8.4352e-05,-7.6888e-05,-5.65e-05,-5.6492e-05,-4.1068e-05,-1.0151e-05,7.415e-06,-1.9098e-06,8.203e-06,8.7213e-06,-0.00018599,-6.4558e-05,-0.00014571,4.283e-05,-0.00010895,-7.2672e-06,-9.6995e-05,-7.5064e-05,-7.2111e-05,-6.2542e-05,-6.7127e-05,4.4746e-05,-2.6799e-05,-7.8519e-05,-2.5785e-05,-1.0123e-05,-0.00017533,-3.5237e-05,5.3343e-05,-8.2719e-05,-1.1358e-05,-2.9766e-05,1.3603e-05,-0.00020218,-2.6748e-05,-0.14697,-9.042e-05,-0.00010028
-7.4496e-05,-8.493e-05,-0.00015762,-0.00038627,-1.6225e-05,2.5477e-05,-3.4603e-06,4.4872e-05,-0.0001797,-5.186e-05,-2.0118e-05,4.0875e-05,-7.6653e-05,-1.145e-05,6.1072e-05,-4.0705e-05,-8.2302e-05,-3.9372e-05,8.7667e-05,4.1416e-05,-0.00010675,4.4994e-05,-2.8899e-05,1.8858e-05,-0.00010565,-2.3454e-05,1.5392e-05,3.274e-05,9.4393e-05,3.4783e-05,-4.76e-05,-7.175e-05,-0.00011894,6.8769e-06,-1.7298e-05,8.2732e-05,-5.2409e-05,-6.2968e-05,-0.0074937,-9.335e-05,0.00012595,-9.0547e-06,1.9056e-05,-4.3915e-05,1.2923e-09,3.8632e-05,3.238e-05,-5.7485e-05,-0.00012679,-6.9074e-05,-5.6055e-05,-4.4481e-05,-4.5278e-05,1.0967e-05,2.639e-07,1.4348e-05,2.4908e-05,-0.00039067,-7.4668e-05,-0.00015201,4.025e-05,-0.00010586,-2.8888e-06,-0.00013329,-9.0745e-05,-7.359e-05,-6.7374e-05,-6.4748e-05,3.4676e-05,-2.9324e-05,-8.3815e-05,-1.9241e-05,-1.5248e-05,-0.00026083,-4.158e-05,4.5044e-05,-0.00012303,-1.5574e-06,-3.1146e-05,1.7684e-05,-0.00042397,-1.4117e-05,-0.17326,-9.5054e-05,-0.00010275
-2.9281e-05,-3.9882e-05,-6.6544e-05,-0.00024769,-1.3101e-05,-1.4917e-05,-3.0666e-06,1.0056e-05,-0.00014726,-1.6475e-05,-1.7206e-05,-8.2559e-06,-5.2142e-05,-1.3783e-05,1.0076e-05,-2.0626e-05,-5.2035e-05,-1.8318e-05,1.3538e-05,-1.7301e-07,-3.484e-05,5.5111e-06,-1.0489e-05,-1.8681e-05,-3.9216e-05,-1.2968e-05,2.6418e-06,-4.1618e-06,1.269e-05,-4.7067e-06,-3.4113e-05,-4.6288e-05,-5.5985e-05,-1.9566e-05,-5.3059e-07,8.2017e-06,-2.2384e-05,-4.313e-05,-0.14949,-4.4987e-05,1.5817e-05,-3.9803e-05,-4.4146e-05,-3.3797e-05,-3.387e-05,8.9635e-10,6.8966e-06,-4.5332e-05,-7.7439e-05,-5.0831e-05,-3.0813e-05,-1.9646e-05,-4.1435e-05,-6.5992e-06,-9.0233e-06,-1.0927e-06,-5.4316e-06,-0.00023927,-4.3171e-05,-6.0716e-05,5.4795e-06,-4.8122e-05,-1.6943e-06,-6.7858e-05,-4.216e-05,-2.9812e-05,-2.8159e-05,-3.1994e-05,-3.4284e-06,-2.0929e-05,-2.7138e-05,-1.6253e-05,-3.091e-06,-0.00015399,-1.6071e-05,-7.7308e-06,-5.3277e-05,-2.8455e-06,-1.1548e-05,2.9368e-06,-0.00027665,-1.1009e-05,-0.16821,-5.2383e-05,-4.7445e-05
-1.2181e-05,-1.6194e-05,-2.7452e-05,-6.5591e-05,-5.3287e-06,-4.1195e-06,-1.121e-06,5.0368e-06,-3.8418e-05,-6.6656e-06,-5.6664e-06,-1.771e-06,-1.8233e-05,-5.8027e-06,5.269e-06,-8.1e-06,-1.9572e-05,-5.7267e-06,6.5986e-06,4.8257e-07,-1.4712e-05,1.879e-06,-4.3883e-06,-5.5619e-06,-1.6451e-05,-4.7513e-06,1.1221e-06,-1.3599e-06,4.8978e-06,-7.0735e-07,-1.3634e-05,-1.7432e-05,-2.2558e-05,-7.7212e-06,-2.9302e-07,5.0346e-06,-9.8087e-06,-1.6391e-05,-0.061527,-1.9063e-05,7.4002e-06,-1.4075e-05,-1.5704e-05,-1.2749e-05,-1.3991e-05,4.0683e-06,1.0747e-09,-1.9498e-05,-2.6561e-05,-1.8598e-05,-1.2308e-05,-7.7199e-06,-1.4876e-05,-2.6882e-06,-3.5789e-06,1.5465e-08,-1.3339e-06,-6.1485e-05,-1.6921e-05,-2.5425e-05,2.1708e-06,-1.9172e-05,-2.4821e-06,-2.4449e-05,-1.6149e-05,-1.1876e-05,-1.1625e-05,-1.3592e-05,-6.0208e-07,-8.5679e-06,-1.1604e-05,-7.0021e-06,4.9866e-07,-4.9131e-05,-4.9509e-06,-2.3748e-06,-1.9259e-05,-2.3835e-06,-4.7511e-06,2.7501e-06,-6.7335e-05,-3.8625e-06,-0.24074,-2.0363e-05,-1.9461e-05
-7.9795e-05,-9.7825e-05,-0.00017565,-0.00048052,-2.524e-05,-7.7935e-06,-7.3239e-06,2.4196e-05,-0.00023958,-9.2665e-05,-4.372e-05,4.3774e-05,-0.00012789,8.4236e-08,5.4594e-05,-4.9181e-05,-8.3508e-05,-4.7695e-05,0.00010576,5.6112e-05,-0.00013512,7.1817e-05,-3.9399e-05,8.4757e-06,-0.00013919,-3.8553e-05,6.9863e-06,3.0717e-05,0.00011137,1.7479e-05,-6.5086e-05,-8.8646e-05,-0.00015262,8.0942e-08,-4.6131e-05,8.9229e-05,-7.1065e-05,-7.7654e-05,-0.014679,-0.00010492,0.00013744,-1.1145e-05,1.9454e-05,-6.2154e-05,-4.81e-05,3.4087e-05,2.3325e-05,1.4424e-09,-0.00017243,-8.7581e-05,-6.1394e-05,-6.378e-05,-6.3314e-05,2.5181e-05,1.6214e-05,1.5198e-05,4.4428e-05,-0.00058372,-9.0666e-05,-0.00014886,3.7093e-05,-0.00010925,-2.2699e-06,-0.00016508,-0.00010967,-9.4037e-05,-8.8499e-05,-6.3869e-05,2.879e-05,-3.3273e-05,-0.00010286,-8.0823e-06,-2.6647e-05,-0.00034966,-5.9316e-05,5.1871e-05,-0.00018579,-1.0028e-05,-4.1439e-05,1.5238e-05,-0.00056282,-2.698e-05,-0.18399,-0.00010079,-0.00011184
-5.5233e-06,-5.1606e-06,-1.1889e-05,-1.5513e-05,-2.3001e-07,1.2656e-05,-3.7925e-07,4.8149e-06,-4.0548e-07,-3.6271e-06,-7.5882e-07,6.7811e-06,-6.1532e-07,-2.9393e-07,7.5231e-06,-3.1319e-06,-4.8316e-06,-2.8406e-06,9.7323e-06,3.4015e-06,-9.7119e-06,3.5293e-06,-2.3736e-06,5.798e-06,-6.9796e-06,-1.3945e-06,2.3782e-06,5.13e-06,7.1567e-06,7.5344e-06,-4.1352e-06,-1.19e-06,-9.0256e-06,3.2408e-06,-6.416e-07,1.3249e-05,-4.2023e-06,-2.5504e-06,-3.1549e-05,-7.8738e-06,1.4632e-05,9.4796e-06,9.7671e-06,-1.4652e-07,-4.6088e-06,3.315e-06,3.2397e-06,-6.6287e-06,1.0823e-09,1.0987e-07,-3.211e-06,-3.1623e-06,2.9942e-06,1.6471e-06,6.7628e-07,1.0979e-06,1.6469e-06,-1.3174e-05,-3.977e-06,-1.2502e-05,6.9919e-06,-8.2224e-06,-5.0285e-07,-6.1762e-06,-5.9104e-06,-5.7769e-06,-4.2415e-06,-5.2539e-06,8.5715e-06,-7.9198e-07,-6.1951e-06,-1.4859e-06,-1.1224e-06,-1.0536e-05,-2.5585e-06,5.1704e-06,-7.4191e-06,-3.0904e-07,-1.6762e-06,1.9886e-06,-1.3918e-05,-1.1416e-06,-0.15461,-5.982e-06,-7.8669e-06
-9.6554e-06,-1.0862e-05,-1.6505e-05,-2.9562e-05,3.5412e-07,1.6877e-05,-6.0012e-07,3.4618e-06,-7.1795e-06,-9.1633e-06,-2.0448e-06,4.923e-06,-8.2888e-06,-3.1593e-06,4.051e-06,-1.1574e-06,-9.6e-06,-5.4277e-06,1.1932e-05,2.944e-06,-1.1296e-05,4.4932e-06,-3.0125e-06,5.6894e-06,-1.2793e-05,-2.8976e-06,5.9749e-07,4.1545e-06,8.3397e-06,7.5037e-06,-2.5327e-06,-3.7314e-06,-1.1201e-05,4.9822e-06,-2.452e-06,1.0903e-05,-7.2165e-06,-7.1137e-06,-6.5953e-05,-1.0457e-05,1.683e-05,1.1905e-05,1.4802e-05,-3.9599e-06,-6.6029e-06,3.0338e-06,2.6096e-06,-8.4954e-06,-6.2969e-06,9.9403e-10,-7.9151e-06,-8.5582e-06,9.1972e-06,1.1299e-06,6.5126e-08,8.3681e-07,4.0363e-06,-3.1838e-05,-9.8081e-06,-1.9507e-05,7.2743e-06,-1.3088e-05,-3.463e-07,-1.416e-05,-7.5971e-06,-8.6475e-06,-1.1128e-05,-7.456e-06,1.2918e-05,-3.1161e-06,-1.0283e-05,-4.8643e-06,-6.8541e-08,-1.8207e-05,-5.4816e-06,2.8512e-06,-1.4294e-05,-2.2788e-06,-3.4704e-06,2.6682e-06,-2.7795e-05,-1.6663e-06,-0.14992,-1.0735e-05,-1.1706e-05
-0.00010463,-0.0001335,-0.00026895,-0.00070319,-4.6426e-05,-2.4406e-05,-1.4661e-05,6.7002e-05,-0.0003813,-7.9507e-05,-6.8332e-05,2.4367e-05,-0.00014686,1.6051e-06,9.1379e-05,-9.6307e-05,-0.0001385,-5.2334e-05,0.00010918,6.1426e-05,-0.0001727,7.158e-05,-4.734e-05,-2.0364e-05,-0.00015807,-4.6556e-05,1.9886e-05,5.7898e-06,8.0084e-05,3.96e-06,-0.00013566,-0.00015431,-0.00024411,-6.0716e-05,-3.3548e-05,0.00010077,-9.0334e-05,-0.00011023,-0.016389,-0.00020595,0.00013615,-5.4655e-05,-4.4961e-05,-0.00010342,-0.00012586,4.0432e-05,3.9562e-05,-0.00014812,-0.00023765,-0.00018133,1.5036e-09,-6.1644e-05,-0.00016663,1.9433e-05,5.1936e-06,3.5174e-05,8.8563e-06,-0.00072363,-0.00011513,-0.00021707,3.9692e-05,-0.00015213,-1.8604e-05,-0.00021751,-0.00017291,-0.00012021,-9.7745e-05,-8.6199e-05,1.4477e-05,-3.9917e-05,-0.00013877,-1.7267e-05,-3.2247e-05,-0.00047222,-6.6358e-05,4.855e-05,-0.00023002,-1.7612e-05,-4.155e-05,1.716e-05,-0.00092763,-4.3752e-05,-0.20219,-0.00013643,-0.00018421
-1.1767e-05,-1.4683e-05,-2.8946e-05,-5.6224e-05,-5.2026e-06,-1.43e-06,-8.85e-07,9.4217e-06,-3.2257e-05,-5.2749e-06,-5.5033e-06,1.2732e-06,-1.2881e-05,-2.925e-06,1.0199e-05,-1.0141e-05,-1.7612e-05,-5.8658e-06,1.0459e-05,4.2966e-06,-1.8087e-05,4.8708e-06,-4.3575e-06,-2.7746e-06,-1.6205e-05,-4.6831e-06,3.0796e-06,1.4909e-06,8.062e-06,7.8748e-07,-1.4666e-05,-1.597e-05,-2.5098e-05,-5.7849e-06,2.048e-07,1.059e-05,-9.5484e-06,-1.2835e-05,-0.0031857,-2.1225e-05,1.2884e-05,-8.0105e-06,-1.2851e-05,-9.9442e-06,-1.3557e-05,5.6324e-06,5.3681e-06,-1.8621e-05,-2.298e-05,-2.0349e-05,-9.6491e-06,1.1194e-09,-1.7131e-05,-2.9575e-07,-1.8393e-06,2.121e-06,-6.7018e-07,-4.8891e-05,-1.2707e-05,-2.4208e-05,4.7155e-06,-1.8074e-05,-2.3157e-06,-2.2036e-05,-1.7571e-05,-1.3087e-05,-1.0957e-05,-1.2507e-05,1.6082e-06,-6.002e-06,-1.3708e-05,-5.0835e-06,-1.9571e-06,-4.6036e-05,-5.77e-06,2.5794e-06,-1.9236e-05,-1.3705e-06,-3.0038e-06,2.5716e-06,-6.1548e-05,-4.2291e-06,-0.2306,-1.8518e-05,-2.0091e-05
-2.3565e-05,-2.6805e-05,-4.0503e-05,-7.1875e-05,9.7633e-08,4.4553e-05,-5.6522e-06,5.39e-06,2.9418e-05,-2.4954e-05,-3.4274e-06,1.9879e-05,-2.1063e-05,-5.5908e-06,1.1005e-05,-1.7114e-06,-1.7962e-05,-1.8383e-05,3.9203e-05,7.6481e-06,-3.2539e-05,7.5192e-06,-8.7287e-06,1.6964e-05,-3.2064e-05,-7.6545e-06,-4.6836e-06,1.9017e-05,2.6995e-05,3.5182e-05,-2.7573e-07,-7.0916e-06,-2.1324e-05,1.9445e-05,-9.2526e-06,2.1773e-05,-1.6238e-05,-1.3559e-05,-0.00014194,-2.3137e-05,5.0229e-05,3.2983e-05,0.00057694,-4.1245e-06,-1.8182e-05,8.5533e-06,6.4875e-06,-2.3464e-05,-1.4244e-05,1.4159e-05,-2.4494e-05,-2.5448e-05,7.5294e-10,8.2001e-07,-3.6153e-07,-2.2028e-06,9.3705e-06,-7.9349e-05,-2.4986e-05,-4.8737e-05,2.0756e-05,-3.7208e-05,5.1893e-07,-2.9844e-05,-1.2076e-05,-2.3474e-05,-2.7092e-05,-1.8803e-05,2.8897e-05,-1.0113e-05,-2.5394e-05,-1.1297e-05,-6.544e-07,-2.8707e-05,-1.8726e-05,6.0835e-06,-2.8415e-05,-6.5526e-06,-1.348e-05,5.6129e-06,-6.6502e-05,-5.9712e-06,-0.11837,-2.5601e-05,-2.7341e-05
-0.0001101,-0.00014237,-0.00024859,-0.00070461,-2.7209e-05,-2.1426e-05,-1.1419e-06,5.534e-05,-0.00037879,-9.3153e-05,-3.9627e-05,6.7916e-06,-0.00015187,-1.4441e-05,0.00010881,-7.9888e-05,-0.00015065,-6.1245e-05,0.00012201,6.1857e-05,-0.00016873,7.3323e-05,-4.4297e-05,-1.1014e-05,-0.00018202,-5.252e-05,2.6299e-05,1.6532e-06,8.418e-05,2.6412e-05,-0.00011686,-0.00014917,-0.00024243,-5.2104e-05,-3.1706e-05,0.00010172,-9.705e-05,-0.00011697,-0.025357,-0.00020007,0.00012609,-6.8766e-05,-4.9692e-05,-0.00010586,-0.00013141,4.6666e-05,4.1158e-05,-0.00014451,-0.00026715,-0.00015747,-9.036e-05,-7.9039e-05,-0.00012441,1.3457e-09,5.622e-05,1.9039e-05,2.7271e-05,-0.00076777,-0.00014358,-0.00017944,3.4205e-05,-0.00015984,-1.8728e-05,-0.00023272,-0.0001575,-0.00011882,-0.00010514,-0.00011139,2.756e-05,-5.1493e-05,-0.0001294,-2.4133e-05,-2.497e-05,-0.00064038,-6.8672e-05,2.5073e-05,-0.0002186,-1.5802e-05,-3.2543e-05,2.5386e-05,-0.00090058,-3.6553e-05,-0.19569,-0.00016856,-0.00018343
-0.00010768,-0.00014266,-0.00024383,-0.00071625,-2.5112e-05,-2.8244e-05,-6.8353e-07,4.9441e-05,-0.00038862,-9.4608e-05,-3.7216e-05,3.8654e-06,-0.00015932,-1.3733e-05,0.00010373,-7.9069e-05,-0.00014997,-5.9627e-05,0.00011998,5.986e-05,-0.00016231,7.3837e-05,-4.3353e-05,-1.0708e-05,-0.00017981,-5.0853e-05,2.6421e-05,-1.7579e-07,8.4184e-05,2.2071e-05,-0.00011623,-0.00015122,-0.00023624,-4.5895e-05,-3.2226e-05,9.8108e-05,-9.5718e-05,-0.00011943,-0.031901,-0.00019423,0.00011955,-7.5962e-05,-5.4534e-05,-0.00010678,-0.0001321,4.5322e-05,4.1453e-05,-0.00013935,-0.00027021,-0.00015726,-8.9957e-05,-8.0049e-05,-0.00011461,6.8004e-05,1.3289e-09,1.8857e-05,3.0117e-05,-0.00080255,-0.00014603,-0.00018123,3.2344e-05,-0.00015695,-1.7444e-05,-0.00023074,-0.00015009,-0.00011687,-0.00010549,-0.00011144,2.8014e-05,-5.2165e-05,-0.00012345,-2.2303e-05,-2.1248e-05,-0.00063401,-6.759e-05,2.0237e-05,-0.00021561,-1.6346e-05,-3.3457e-05,2.609e-05,-0.00092235,-3.5036e-05,-0.19422,-0.00016548,-0.0001782
-0.0001307,-0.00018196,-0.00030912,-0.0012913,-4.5273e-05,2.3876e-08,-4.7131e-06,9.3016e-05,-0.00068075,-8.4001e-05,-6.0187e-05,3.9667e-06,-0.00021734,-2.113e-05,0.00010411,-0.00010188,-0.00020056,-5.8291e-05,0.00011926,5.1721e-05,-0.00018842,6.8415e-05,-4.9186e-05,-3.6231e-05,-0.00018697,-5.1174e-05,2.7479e-05,6.1945e-06,9.1674e-05,1.509e-05,-0.00012703,-0.00019935,-0.00027208,-6.9426e-05,-1.048e-05,0.00010651,-0.00010073,-0.00016894,-0.10893,-0.00022518,0.00014587,-0.00012235,-0.00013927,-0.00014076,-0.00015345,5.824e-05,5.4349e-05,-0.00019329,-0.00039228,-0.00021958,-9.5495e-05,-7.7936e-05,-0.0002053,8.3973e-06,-5.6883e-06,9.4915e-10,1.1081e-05,-0.001278,-0.0001712,-0.00027957,4.4136e-05,-0.00020554,-1.5227e-05,-0.00029956,-0.00019064,-0.00013916,-0.00012099,-0.00012594,1.8257e-05,-5.9176e-05,-0.00014891,-4.3468e-05,-1.6828e-05,-0.0010918,-6.6602e-05,4.0264e-05,-0.00025188,-1.5673e-05,-4.4955e-05,3.1933e-05,-0.0016292,-4.3446e-05,-0.22362,-0.00019258,-0.00021462
-1.3438e-05,-1.8001e-05,-2.8103e-05,-8.5045e-05,-5.227e-06,-5.4084e-06,-1.1521e-06,1.0623e-06,-4.3731e-05,-1.4145e-05,-8.7189e-06,8.7777e-07,-2.5942e-05,-3.0986e-06,3.4777e-06,-7.053e-06,-1.788e-05,-8.3828e-06,9.2098e-06,3.0334e-06,-1.7915e-05,6.3927e-06,-5.2573e-06,-4.4044e-06,-2.0292e-05,-6.0501e-06,6.5807e-07,7.1968e-07,8.2634e-06,-4.0972e-08,-1.125e-05,-1.7921e-05,-2.4144e-05,-4.523e-06,-5.6563e-06,8.735e-06,-1.1493e-05,-1.6442e-05,-0.060506,-2.0436e-05,1.3829e-05,-8.393e-06,-1.0114e-05,-1.4988e-05,-1.4127e-05,2.9618e-06,3.1022e-06,-1.5368e-05,-3.2374e-05,-1.5866e-05,-1.3979e-05,-1.1613e-05,-1.2033e-05,-3.9142e-07,-1.3041e-06,-3.6821e-07,1.1714e-09,-0.00010054,-1.9369e-05,-2.6783e-05,2.0805e-06,-1.9546e-05,-2.8858e-06,-2.8692e-05,-1.5846e-05,-1.4327e-05,-1.4228e-05,-1.3317e-05,1.7203e-06,-8.3464e-06,-1.4461e-05,-5.4344e-06,-2.1909e-06,-6.2732e-05,-9.4463e-06,-8.7858e-07,-3.0491e-05,-3.4158e-06,-6.883e-06,2.1771e-06,-9.0928e-05,-4.7738e-06,-0.17086,-2.0071e-05,-2.0746e-05
-6.0199e-06,-5.6225e-06,-1.1193e-05,-6.8001e-06,2.4377e-07,8.3191e-06,-5.2031e-07,7.1751e-06,-1.7534e-06,-1.2778e-06,1.7989e-06,5.5903e-06,5.5272e-06,-2.9907e-07,1.0007e-05,-4.9738e-06,-5.007e-06,-2.8046e-06,1.1008e-05,4.3168e-06,-8.8232e-06,2.9238e-06,-2.2029e-06,6.6278e-06,-6.1382e-06,-9.3297e-07,2.3805e-06,4.6942e-06,7.0604e-06,5.7661e-06,-2.5267e-06,-2.8635e-06,-8.5713e-06,3.5576e-06,9.0459e-07,1.2487e-05,-3.889e-06,-6.1847e-07,-1.6082e-05,-8.0349e-06,1.3469e-05,4.3922e-06,2.5541e-06,1.5276e-06,-4.386e-06,3.2626e-06,3.5436e-06,-7.1356e-06,-1.9391e-06,-4.033e-06,-2.7764e-06,-1.139e-06,-1.9044e-06,2.6999e-06,1.5842e-06,2.2e-06,6.8963e-07,9.3159e-10,-2.3694e-06,-6.4786e-06,5.1833e-06,-7.7801e-06,-8.9998e-07,-5.5099e-06,-5.4117e-06,-5.5537e-06,-4.4288e-06,-5.0059e-06,5.3152e-06,1.0062e-07,-6.6038e-06,-1.2571e-06,-1.1237e-06,-1.1029e-05,-2.1388e-06,5.6386e-06,-2.7157e-06,-2.3696e-07,-1.2118e-06,1.5899e-06,-6.2941e-06,-1.3887e-06,-0.14959,-5.3692e-06,-7.1326e-06
-6.6138e-05,-6.9906e-05,-0.00016012,-0.00025415,-2.1482e-05,2.6851e-05,-6.2819e-06,7.1644e-05,-0.00013089,-3.774e-05,-2.4455e-05,3.744e-05,-5.116e-05,1.0045e-05,7.763e-05,-5.6141e-05,-6.6495e-05,-3.0747e-05,9.2827e-05,6.0613e-05,-0.00011302,5.542e-05,-2.5426e-05,8.4899e-06,-9.4766e-05,-2.206e-05,1.8779e-05,2.4548e-05,6.8157e-05,3.1618e-05,-5.9566e-05,-7.0707e-05,-0.0001354,-1.2604e-05,-1.2003e-05,9.9548e-05,-5.5161e-05,-4.8057e-05,-0.00069008,-0.00012012,0.00011442,-1.9129e-06,1.4266e-05,-3.6286e-05,-6.466e-05,3.8367e-05,3.5463e-05,-8.2238e-05,-9.9768e-05,-8.3106e-05,-3.6656e-05,-2.7799e-05,-5.4233e-05,1.8274e-05,6.5878e-06,2.3595e-05,1.6494e-05,-0.00023677,8.7769e-10,-0.00013459,3.985e-05,-8.9471e-05,-8.2098e-06,-0.00010159,-9.029e-05,-8.0203e-05,-5.4623e-05,-5.0662e-05,3.8031e-05,-1.2132e-05,-8.3665e-05,1.2921e-06,-1.9666e-05,-0.00018344,-3.4613e-05,5.1011e-05,-0.00011077,-4.5436e-06,-2.2362e-05,1.6972e-05,-0.00029219,-1.6623e-05,-0.14907,-7.7328e-05,-0.00010576
-3.912e-06,-4.5924e-06,-7.383e-06,-1.2317e-05,-1.7027e-06,-2.9754e-06,-7.118e-07,1.1289e-06,-1.1905e-05,-3.3797e-06,-1.8195e-06,-1.1225e-06,-3.7871e-06,-6.5599e-07,2.1169e-06,-3.8291e-06,-5.0368e-06,-2.3828e-06,3.8011e-06,1.4065e-06,-5.6497e-06,1.7426e-06,-2.0941e-06,-1.7542e-06,-5.9706e-06,-2.0063e-06,-1.1707e-07,-6.8858e-07,2.1196e-06,-8.0059e-07,-4.3734e-06,-5.0819e-06,-7.6708e-06,-2.2678e-06,-1.6421e-06,2.1643e-06,-2.982e-06,-3.6063e-06,-4.792e-05,-6.8489e-06,2.4353e-06,-2.6407e-06,-4.0966e-06,-3.8548e-06,-4.5359e-06,7.4235e-07,5.2405e-07,-4.3487e-06,-8.1121e-06,-6.0317e-06,-3.0805e-06,-2.5613e-06,-4.7261e-06,9.5481e-07,4.9149e-07,-4.4726e-08,2.1144e-07,-1.2524e-05,-4.4619e-06,1.3357e-09,1.9632e-07,-4.8286e-06,-1.1272e-06,-6.9048e-06,-4.8468e-06,-4.0397e-06,-3.9808e-06,-3.5353e-06,-1.319e-06,-2.0217e-06,-4.5545e-06,-9.5785e-07,-1.3581e-06,-1.4423e-05,-2.6477e-06,-6.527e-07,-6.4964e-06,-9.4542e-07,-1.4473e-06,9.993e-08,-1.5371e-05,-2.0127e-06,-0.30877,-5.1133e-06,-5.8567e-06
-6.5151e-06,-7.4508e-06,-1.3057e-05,-2.7928e-05,-2.4753e-06,7.4425e-07,-4.7314e-07,2.3411e-06,-1.4396e-05,-3.8684e-06,-3.2577e-06,-4.6517e-08,-8.1375e-06,-3.0891e-06,2.4736e-06,-4.0169e-06,-9.2827e-06,-3.8538e-06,3.4921e-06,1.421e-07,-8.0739e-06,6.6904e-07,-2.6302e-06,-1.4892e-06,-8.3386e-06,-2.7002e-06,3.981e-07,3.4197e-07,2.8249e-06,8.4114e-07,-6.0377e-06,-7.585e-06,-1.055e-05,-1.9058e-06,-5.2596e-07,3.2734e-06,-5.1157e-06,-7.835e-06,-0.00014902,-8.978e-06,4.9321e-06,-2.9611e-06,-3.1938e-06,-5.486e-06,-6.7354e-06,2.1078e-06,1.3609e-06,-9.022e-06,-9.6043e-06,-6.1848e-06,-6.2972e-06,-4.3757e-06,-3.7371e-06,-1.6755e-06,-2.2376e-06,-4.1644e-07,-8.3825e-07,-2.6679e-05,-8.3699e-06,-1.3705e-05,1.0508e-09,-1.0486e-05,-1.2364e-06,-1.1631e-05,-7.8967e-06,-6.3844e-06,-6.2188e-06,-6.6784e-06,1.6018e-06,-3.7024e-06,-6.2014e-06,-4.1513e-06,-6.7053e-07,-1.9513e-05,-3.5477e-06,-7.9281e-07,-9.7494e-06,-1.4202e-06,-3.0074e-06,7.0844e-07,-2.8761e-05,-2.2716e-06,-0.28095,-9.8617e-06,-9.5292e-06
-9.9035e-05,-0.00014083,-0.00026041,-0.00074118,-3.9957e-05,-3.395e-05,-7.2915e-06,6.1824e-05,-0.00040386,-8.9624e-05,-6.4635e-05,2.6795e-05,-0.00016374,1.0715e-06,8.5325e-05,-8.1156e-05,-0.00013294,-4.6882e-05,0.00012452,6.9307e-05,-0.00017532,8.6259e-05,-3.3424e-05,-2.3147e-05,-0.00017645,-4.8902e-05,2.3255e-05,1.0662e-05,9.309e-05,1.4848e-05,-0.0001197,-0.00014547,-0.00023345,-5.0989e-05,-3.8849e-05,0.00010282,-9.5258e-05,-0.00010721,-0.019291,-0.00019804,0.00014991,-4.8338e-05,-5.3305e-05,-0.00010956,-0.00012245,4.6284e-05,4.6486e-05,-0.00012993,-0.00025875,-0.00017288,-7.1684e-05,-6.366e-05,-0.0001525,3.3218e-05,1.9411e-05,2.459e-05,3.7174e-05,-0.00079757,-0.00011765,-0.00019792,3.4603e-05,1.4898e-09,-1.0119e-05,-0.00022149,-0.00015918,-0.00012385,-0.00010461,-9.6963e-05,1.9562e-05,-3.9447e-05,-0.00013342,-6.6371e-06,-2.5696e-05,-0.00053127,-6.6739e-05,4.369e-05,-0.00024789,-1.0292e-05,-3.2025e-05,2.7637e-05,-0.00091771,-3.7835e-05,-0.20274,-0.00014907,-0.00018459
-1.913e-05,-2.6756e-05,-4.3295e-05,-0.00015308,-8.3607e-06,-8.249e-06,-2.0395e-06,6.1584e-06,-8.14e-05,-1.3767e-05,-1.1983e-05,-1.7036e-06,-3.6075e-05,-8.5714e-06,6.9669e-06,-1.3098e-05,-3.2273e-05,-1.1816e-05,1.1396e-05,1.4659e-06,-2.6232e-05,5.8465e-06,-6.8505e-06,-9.667e-06,-2.8237e-05,-8.6076e-06,1.4913e-06,-8.1708e-07,1.0932e-05,-1.7304e-06,-2.0944e-05,-2.8475e-05,-3.6134e-05,-1.0314e-05,-1.9684e-06,8.6518e-06,-1.5961e-05,-2.7182e-05,-0.10638,-2.9775e-05,1.558e-05,-2.0705e-05,-2.0457e-05,-2.134e-05,-2.2128e-05,9.7223e-06,4.7728e-06,-2.7198e-05,-5.044e-05,-2.9123e-05,-1.9636e-05,-1.463e-05,-2.18e-05,-3.4978e-06,-5.0896e-06,1.6162e-07,-1.1225e-06,-0.00016165,-2.9192e-05,-4.1748e-05,4.1358e-06,-3.0702e-05,8.0846e-10,-4.3941e-05,-2.7252e-05,-2.0153e-05,-2.0723e-05,-2.0355e-05,-5.2397e-07,-1.2804e-05,-1.9637e-05,-1.0323e-05,-2.5513e-06,-0.00010155,-1.0929e-05,-2.9757e-06,-3.9074e-05,-2.0393e-06,-7.8619e-06,3.3477e-06,-0.00018837,-7.4545e-06,-0.20328,-3.3369e-05,-3.169e-05
-7.2801e-05,-7.7386e-05,-0.00017813,-0.00025073,-1.6261e-05,4.3234e-05,-1.1262e-05,6.3736e-05,-0.00012113,-4.8048e-05,-1.5747e-05,6.0481e-05,-3.544e-05,-1.3874e-06,9.871e-05,-5.7777e-05,-8.6212e-05,-3.7612e-05,0.00010815,5.3602e-05,-0.0001364,5.8336e-05,-3.4444e-05,5.3241e-05,-0.00011103,-2.5265e-05,2.4161e-05,4.9053e-05,8.2043e-05,4.7251e-05,-6.8331e-05,-4.7987e-05,-0.00016122,2.8637e-05,-1.276e-05,0.00012686,-5.6631e-05,-5.0036e-05,-0.00064831,-0.0001322,0.00015662,2.592e-05,4.1983e-05,-2.2298e-05,-7.6256e-05,3.7552e-05,4.3441e-05,-9.7674e-05,-8.2386e-05,-7.8578e-05,-4.7435e-05,-3.8498e-05,-2.4158e-05,2.5959e-05,1.434e-05,2.2566e-05,2.3063e-05,-0.00024938,-5.5604e-05,-0.00015015,5.615e-05,-0.00010843,-9.4843e-06,1.3073e-09,-2.0567e-05,-9.1243e-05,-7.406e-05,-6.6997e-05,5.2807e-05,-2.0644e-05,-9.4733e-05,-7.0636e-06,-1.5707e-05,-0.00021317,-3.7949e-05,6.9935e-05,-9.9188e-05,-9.3705e-06,-2.6755e-05,2.3381e-05,-0.00027907,-2.5026e-05,-0.17243,-9.0998e-05,-0.00012116
-8.8554e-05,-0.00010444,-0.00018324,-0.00039789,-3.9815e-06,4.386e-05,-9.6399e-06,4.8188e-05,-0.00020004,-6.896e-05,-1.2265e-05,5.4084e-05,-7.7965e-05,-2.2163e-05,7.9586e-05,-4.0063e-05,-0.00011691,-5.6658e-05,0.00011392,3.3306e-05,-0.00011626,4.9025e-05,-2.8098e-05,5.2187e-05,-0.0001206,-2.7006e-05,2.0916e-05,5.7781e-05,9.1513e-05,4.4264e-05,-4.5294e-05,-6.4912e-05,-0.00014999,3.8677e-05,-1.029e-05,0.00011727,-5.6064e-05,-6.9337e-05,-0.0054039,-0.00012112,0.00015908,-1.6946e-07,-8.2228e-06,-4.4757e-05,-8.4035e-05,3.8737e-05,4.0251e-05,-0.00010559,-0.00014478,-6.9644e-05,-7.5223e-05,-5.9268e-05,-6.7377e-06,1.7268e-05,9.6657e-06,1.5978e-05,3.8473e-05,-0.00045456,-9.3554e-05,-0.00015907,4.8703e-05,-0.00012715,-7.0042e-06,-6.6479e-05,1.2786e-09,-9.0122e-05,-0.00010162,-8.5383e-05,4.6055e-05,-3.284e-05,-9.4761e-05,-3.1609e-05,-4.2282e-06,-0.00033216,-4.8292e-05,4.7412e-05,-0.00012248,-1.2714e-05,-2.8879e-05,2.6582e-05,-0.00043009,-2.2392e-05,-0.17322,-0.00011038,-0.00012166
-1.0971e-05,-1.4503e-05,-2.4572e-05,-5.7512e-05,-4.4879e-06,-2.5308e-06,-8.8178e-07,4.6856e-06,-2.9747e-05,-7.9297e-06,-5.5237e-06,-3.6717e-07,-1.6139e-05,-4.5058e-06,5.578e-06,-7.8936e-06,-1.6175e-05,-6.4994e-06,9.3867e-06,2.0066e-06,-1.4345e-05,3.3999e-06,-4.4792e-06,-4.1488e-06,-1.5738e-05,-4.9207e-06,1.2481e-06,5.2523e-07,6.8886e-06,5.9406e-08,-1.0269e-05,-1.4536e-05,-2.0359e-05,-6.1286e-06,-1.7363e-06,6.5934e-06,-8.7813e-06,-1.3715e-05,-0.019456,-1.722e-05,9.3003e-06,-9.1105e-06,-1.0513e-05,-1.0679e-05,-1.223e-05,3.8115e-06,3.5301e-06,-1.5976e-05,-2.2779e-05,-1.5206e-05,-1.0189e-05,-7.7161e-06,-1.2263e-05,-7.4976e-07,-1.8107e-06,3.7793e-07,1.7526e-07,-5.5126e-05,-1.5383e-05,-2.2149e-05,2.832e-06,-1.7365e-05,-1.8479e-06,-2.2992e-05,-1.5225e-05,9.4173e-10,-1.1472e-05,-1.1434e-05,7.5035e-07,-6.6401e-06,-1.1568e-05,-5.1319e-06,-1.7428e-06,-4.2884e-05,-6.3623e-06,-4.0632e-07,-1.9491e-05,-1.9527e-06,-3.892e-06,1.6558e-06,-5.9637e-05,-3.7375e-06,-0.20895,-1.6325e-05,-1.7193e-05
-7.4138e-06,-9.5855e-06,-1.8741e-05,-4.2074e-05,-3.0695e-06,-8.3849e-07,4.6369e-07,5.1209e-06,-2.0183e-05,-4.4629e-06,-3.9164e-06,1.172e-06,-9.6825e-06,-1.5789e-06,6.2838e-06,-6.1336e-06,-1.0278e-05,-3.6713e-06,6.9753e-06,3.1375e-06,-1.166e-05,3.4361e-06,-3.2339e-06,-1.629e-06,-1.1059e-05,-3.276e-06,2.4288e-06,3.3673e-07,5.2583e-06,1.9274e-06,-8.6076e-06,-1.0352e-05,-1.5967e-05,-4.1292e-06,-9.2915e-07,7.2424e-06,-6.146e-06,-8.5082e-06,-0.004891,-1.3408e-05,8.6916e-06,-5.3364e-06,-5.0549e-06,-6.321e-06,-8.4385e-06,3.5176e-06,3.087e-06,-1.1317e-05,-1.3811e-05,-1.3067e-05,-5.9576e-06,-4.4971e-06,-9.203e-06,6.5495e-07,-3.3523e-07,1.3531e-06,5.6155e-07,-3.9744e-05,-8.4092e-06,-1.6478e-05,2.8668e-06,-1.1607e-05,-1.5591e-06,-1.5004e-05,-1.2467e-05,-8.696e-06,1.1231e-09,-7.5665e-06,1.5314e-06,-3.4748e-06,-7.6974e-06,-2.1777e-06,-1.448e-06,-2.3381e-05,-4.132e-06,2.0653e-06,-1.3584e-05,-9.0836e-07,-2.9429e-06,1.4735e-06,-4.8637e-05,-2.6742e-06,-0.22337,-1.1696e-05,-1.2943e-05
-0.00012798,-0.00015814,-0.00031176,-0.0010063,-5.6359e-05,-3.0713e-05,-1.8719e-05,6.2909e-05,-0.0004609,-0.00010726,-8.595e-05,2.7403e-05,-0.00021614,-9.6301e-06,7.9867e-05,-9.9535e-05,-0.00017252,-6.3177e-05,0.00010868,6.5711e-05,-0.00021209,8.7325e-05,-5.4908e-05,-3.8479e-05,-0.00020682,-6.1221e-05,1.6213e-05,8.9345e-06,9.4052e-05,6.6626e-06,-0.00014987,-0.0001823,-0.00027812,-7.2787e-05,-4.2037e-05,9.9047e-05,-0.00011148,-0.00013753,-0.054324,-0.00023646,0.00016254,-7.4051e-05,-3.6601e-05,-0.00012934,-0.00014608,5.1682e-05,4.082e-05,-0.00015889,-0.00033809,-0.00019483,-8.5699e-05,-8.8041e-05,-0.00014575,1.354e-05,-3.9972e-06,2.4472e-05,2.8627e-05,-0.0011248,-0.00014589,-0.00025871,4.5639e-05,-0.00019211,-1.6391e-05,-0.00027649,-0.00019876,-0.00014367,-0.00012773,1.2791e-09,1.6175e-05,-5.4118e-05,-0.00015585,-2.2211e-05,-3.6222e-05,-0.00064507,-7.9273e-05,5.147e-05,-0.00029272,-2.2326e-05,-5.1488e-05,2.0094e-05,-0.0014043,-5.157e-05,-0.238,-0.00016915,-0.00022113
-8.782e-05,-9.9012e-05,-0.00017835,-0.00032543,-7.6216e-06,0.00011787,6.0984e-06,5.6225e-05,-0.00010429,-5.7864e-05,-1.588e-05,5.0432e-05,-7.2715e-05,-2.8052e-05,6.7065e-05,-3.114e-05,-0.00010536,-4.2665e-05,9.7792e-05,3.132e-05,-0.0001084,3.9959e-05,-2.7448e-05,5.7846e-05,-0.00011187,-1.9546e-05,2.2804e-05,4.9275e-05,7.9497e-05,6.2127e-05,-4.6883e-05,-5.2836e-05,-0.00012682,3.221e-05,9.1328e-07,0.00011266,-6.4418e-05,-7.7126e-05,-0.00094072,-0.00010823,0.00015592,5.799e-05,5.2179e-05,-3.7709e-05,-7.6914e-05,4.7084e-05,4.106e-05,-0.00010785,-7.2935e-05,6.435e-07,-7.57e-05,-5.7568e-05,1.9642e-05,9.8489e-06,1.2562e-06,1.2341e-05,2.7128e-05,-0.00029239,-8.7254e-05,-0.00021374,7.3317e-05,-0.00013209,-2.8676e-06,-0.00013539,-9.129e-05,-8.1724e-05,-7.9706e-05,-8.3361e-05,1.1969e-09,-3.233e-05,-8.5525e-05,-3.9589e-05,1.065e-06,-0.00023068,-4.1719e-05,2.8751e-05,-0.00011678,-1.1096e-05,-3.0273e-05,2.6289e-05,-0.00030215,-1.3071e-05,-0.16343,-0.000118,-0.00012543
-4.4101e-05,-5.3904e-05,-9.9334e-05,-0.0001977,-1.8134e-05,-3.3642e-06,-5.7722e-06,2.437e-05,-0.00011512,-3.3733e-05,-2.4321e-05,3.9982e-06,-5.8804e-05,-8.6646e-06,2.4026e-05,-3.7113e-05,-6.0834e-05,-2.4154e-05,4.1153e-05,1.837e-05,-6.4651e-05,2.0961e-05,-1.8468e-05,-1.578e-05,-6.4454e-05,-1.9886e-05,4.817e-06,1.8811e-06,2.4505e-05,2.7576e-06,-4.2965e-05,-6.1959e-05,-8.4766e-05,-1.9558e-05,-9.8214e-06,3.2744e-05,-3.895e-05,-4.7522e-05,-0.00062063,-7.5203e-05,4.4427e-05,-2.2525e-05,-2.5731e-05,-4.0334e-05,-5.0183e-05,1.4772e-05,1.168e-05,-6.0746e-05,-8.3409e-05,-5.7101e-05,-3.5067e-05,-2.9191e-05,-4.6708e-05,-3.8759e-08,-4.9525e-06,6.3614e-06,2.9331e-06,-0.00018734,-4.9195e-05,-8.7538e-05,1.5871e-05,-6.4017e-05,-7.5588e-06,-8.4528e-05,-6.1015e-05,-4.7555e-05,-4.1033e-05,-4.1134e-05,6.3412e-06,1.2822e-09,-4.9232e-05,-1.4391e-05,-1.03e-05,-0.00015009,-2.5514e-05,5.4795e-06,-8.1685e-05,-9.1046e-06,-1.8334e-05,6.1906e-06,-0.00021627,-1.9626e-05,-0.21431,-6.2464e-05,-6.9176e-05
-1.808e-05,-2.4265e-05,-3.9143e-05,-0.00014627,-8.3742e-06,-8.0454e-06,-1.1316e-06,5.486e-06,-7.4716e-05,-1.2133e-05,-1.011e-05,-2.7005e-06,-3.1421e-05,-7.7512e-06,6.861e-06,-1.3628e-05,-2.7855e-05,-1.0395e-05,1.0778e-05,1.1507e-06,-2.2782e-05,4.7652e-06,-7.4991e-06,-8.6553e-06,-2.4282e-05,-7.5145e-06,2.1349e-06,-2.3179e-06,7.7251e-06,-1.5815e-06,-2.0636e-05,-2.6241e-05,-3.5745e-05,-9.1311e-06,-1.6789e-06,7.4074e-06,-1.4477e-05,-2.4673e-05,-0.1538,-2.7886e-05,1.2115e-05,-2.1473e-05,-2.6205e-05,-1.9151e-05,-2.1123e-05,5.709e-06,4.2322e-06,-2.6582e-05,-4.2349e-05,-2.9683e-05,-1.8412e-05,-1.2692e-05,-2.4159e-05,-3.013e-06,-4.1457e-06,-1.2152e-06,-1.0101e-06,-0.00013661,-2.5407e-05,-3.7226e-05,3.1249e-06,-2.8412e-05,-3.6021e-06,-3.8155e-05,-2.4371e-05,-1.8168e-05,-1.5779e-05,-1.9317e-05,-8.71e-07,-1.1663e-05,7.961e-10,-8.5691e-06,-2.4214e-06,-8.2129e-05,-9.989e-06,-2.9737e-06,-3.3701e-05,-3.9411e-06,-7.6758e-06,2.229e-06,-0.00014713,-6.7265e-06,-0.2111,-3.098e-05,-2.8319e-05
-7.4683e-06,-9.3691e-06,-1.8523e-05,-4.6339e-05,-3.6327e-06,-3.6378e-06,-7.3219e-07,4.4292e-06,-2.2864e-05,-6.9852e-06,-4.6875e-06,9.1604e-07,-1.1964e-05,4.9461e-07,5.8843e-06,-6.8617e-06,-9.5898e-06,-3.404e-06,8.5746e-06,5.37e-06,-1.2995e-05,6.8696e-06,-3.4274e-06,-2.1056e-06,-1.2657e-05,-3.1981e-06,1.2723e-06,5.9318e-07,5.8112e-06,7.9125e-07,-9.5669e-06,-1.1103e-05,-1.7018e-05,-4.4932e-06,-3.4142e-06,7.4404e-06,-6.6573e-06,-8.1664e-06,-0.008264,-1.4595e-05,9.5277e-06,-4.1448e-06,-3.6647e-06,-7.4635e-06,-9.0004e-06,3.4262e-06,2.8602e-06,-9.807e-06,-1.7047e-05,-1.3068e-05,-5.7176e-06,-5.663e-06,-8.6943e-06,1.7745e-06,9.2684e-07,1.5546e-06,2.0242e-06,-4.7104e-05,-7.9817e-06,-1.4989e-05,2.0439e-06,-1.0767e-05,-1.312e-06,-1.5021e-05,-1.2255e-05,-9.0676e-06,-7.2859e-06,-6.8471e-06,1.0971e-06,-3.173e-06,-9.3965e-06,1.262e-09,-2.2264e-06,-2.9531e-05,-4.601e-06,2.556e-06,-1.7581e-05,-1.171e-06,-3.5012e-06,1.9569e-06,-5.7217e-05,-3.1972e-06,-0.22274,-1.0691e-05,-1.3026e-05
-1.2582e-05,-1.7368e-05,-2.6264e-05,-6.8713e-05,-5.2912e-06,-3.9959e-06,-1.3591e-06,3.8117e-06,-4.381e-05,-7.5265e-06,-5.615e-06,-2.2227e-06,-1.9158e-05,-6.9376e-06,3.7543e-06,-7.2102e-06,-2.0735e-05,-6.2348e-06,7.0669e-06,-7.76e-07,-1.3842e-05,1.0703e-06,-4.3951e-06,-5.527e-06,-1.6403e-05,-5.3129e-06,6.9631e-07,-1.3127e-06,4.2923e-06,-1.1602e-06,-1.2683e-05,-1.7639e-05,-2.111e-05,-6.172e-06,-5.4334e-07,3.7184e-06,-9.3856e-06,-1.7138e-05,-0.19288,-1.8041e-05,7.0068e-06,-1.2928e-05,-1.5969e-05,-1.2801e-05,-1.4649e-05,3.7361e-06,4.2618e-06,-1.9324e-05,-2.7812e-05,-1.5961e-05,-1.3193e-05,-8.7623e-06,-1.2704e-05,-3.3452e-06,-4.0357e-06,-5.7001e-07,-1.3633e-06,-6.6833e-05,-1.8576e-05,-2.576e-05,2.191e-06,-1.9757e-05,-2.5381e-06,-2.5367e-05,-1.5111e-05,-1.2365e-05,-1.2383e-05,-1.3961e-05,-4.9667e-07,-8.9748e-06,-1.1377e-05,-7.7981e-06,9.3636e-10,-5.1572e-05,-5.3859e-06,-3.4006e-06,-1.9022e-05,-2.8176e-06,-5.3572e-06,2.5154e-06,-6.9041e-05,-4.048e-06,-0.24433,-2.0907e-05,-1.9169e-05
-0.00013405,-0.00014595,-0.00029955,-0.00040644,-1.8997e-05,0.00013833,-3.622e-05,0.00010778,-0.00010975,-9.5728e-05,-4.7964e-05,0.00016022,-6.3441e-05,9.5518e-06,0.0001435,-8.2707e-05,-0.00012174,-8.7815e-05,0.00020411,0.00010956,-0.00023308,0.00010051,-7.0335e-05,9.4109e-05,-0.00017771,-4.6368e-05,3.1102e-05,0.00016133,0.00017373,0.00015351,-3.0528e-05,-5.4215e-05,-0.00017933,4.4507e-05,-4.3809e-05,0.00027306,-0.00010213,-7.8285e-05,-0.00074264,-0.00019441,0.00037972,0.00011552,0.00027997,-2.7367e-05,-0.00010832,6.6311e-05,5.751e-05,-0.00015626,-8.2739e-05,-3.2804e-05,-6.9927e-05,-0.0001064,0.00012548,7.8271e-06,-1.0605e-05,-1.677e-05,2.4529e-05,-0.00038235,-7.1662e-05,-0.00030559,0.00012548,-0.000199,-2.6726e-05,-0.00017757,-0.00015529,-0.00016077,-7.6299e-05,-0.0001133,0.00011496,-2.091e-05,-0.00015266,-1.9396e-05,-4.6478e-05,1.174e-09,-8.0932e-05,0.00011508,-0.00019878,-2.9355e-06,-4.7891e-05,3.5678e-05,-0.00038755,-4.1869e-05,-0.10533,-0.00012783,-0.00017542
-5.6129e-06,-7.3307e-06,-1.2964e-05,-2.9483e-05,-2.7396e-06,-1.906e-06,-6.3366e-07,2.4348e-06,-1.8572e-05,-3.2913e-06,-2.8634e-06,-4.9689e-07,-8.3745e-06,-2.4622e-06,2.5788e-06,-4.0133e-06,-8.8858e-06,-2.686e-06,3.3647e-06,3.0763e-07,-7.1554e-06,1.2508e-06,-2.2179e-06,-2.3718e-06,-7.8008e-06,-2.5167e-06,4.7694e-07,-3.0414e-07,2.3085e-06,-5.0518e-07,-6.3324e-06,-7.9355e-06,-1.0654e-05,-3.2291e-06,-3.9475e-07,2.7798e-06,-4.4501e-06,-7.2608e-06,-0.012655,-9.2307e-06,3.8232e-06,-5.5537e-06,-7.2506e-06,-5.6786e-06,-6.7035e-06,1.7714e-06,2.1068e-06,-8.8897e-06,-1.1963e-05,-8.7388e-06,-5.5399e-06,-3.5449e-06,-8.2608e-06,-1.1497e-06,-1.6343e-06,1.1526e-07,-9.0064e-07,-2.776e-05,-7.5689e-06,-1.188e-05,1.0052e-06,-8.9556e-06,-1.1062e-06,-1.1143e-05,-7.8788e-06,-5.876e-06,-5.4329e-06,-6.0273e-06,-3.325e-07,-3.6543e-06,-5.6424e-06,-2.8183e-06,-1.6282e-07,-2.2298e-05,1.1068e-09,-3.6531e-07,-9.0895e-06,-1.1451e-06,-2.1472e-06,1.954e-06,-3.1508e-05,-2.1869e-06,-0.25282,-9.1509e-06,-9.1845e-06
-9.5764e-05,-0.00011417,-0.00021733,-0.00039974,-2.8684e-05,5.8574e-05,-1.6043e-05,7.1254e-05,-0.00016119,-6.7452e-05,-2.4223e-05,7.3685e-05,-6.858e-05,-9.1983e-06,0.00010965,-5.7977e-05,-8.5368e-05,-4.9238e-05,0.00013714,4.9142e-05,-0.00015871,6.4512e-05,-4.3571e-05,3.3415e-05,-0.00013552,-3.459e-05,2.032e-05,5.7917e-05,0.000124,4.4562e-05,-4.1623e-05,-8.3674e-05,-0.00015968,-4.8496e-06,-2.0624e-05,0.00015027,-6.5964e-05,-6.4235e-05,-0.0016246,-0.00014762,0.00018721,1.3861e-05,1.6494e-05,-2.4302e-05,-8.0261e-05,4.3892e-05,4.4381e-05,-0.00010635,-0.00014507,-0.0001121,-6.1126e-05,-5.5202e-05,-7.6505e-05,1.6819e-05,7.4435e-07,3.6193e-05,2.1306e-05,-0.00040408,-8.435e-05,-0.00023282,5.3825e-05,-0.00014343,-1.2769e-05,-0.0001469,-0.00011608,-0.00010906,-8.5583e-05,-7.7248e-05,4.5074e-05,-3.1826e-05,-0.00012119,-2.1558e-05,-2.3782e-05,-0.0003133,-4.4036e-05,1.4378e-09,-0.0001266,-1.1794e-05,-5.0135e-05,2.664e-05,-0.00039742,-3.5218e-05,-0.18415,-0.00011145,-0.00013854
-0.00017812,-0.00020226,-0.0003498,-0.00058565,-3.7809e-05,0.00011191,-2.2696e-05,0.00014838,-0.00028385,-5.0022e-05,2.5911e-05,5.6957e-05,-5.5308e-05,-6.1694e-05,0.00022415,-0.00012206,-0.00024528,-9.4934e-05,0.00025063,7.2291e-05,-0.00022111,6.8784e-05,-6.3125e-05,4.2859e-05,-0.00020977,-4.7508e-05,3.9554e-05,7.7162e-05,0.00015855,8.0352e-05,-0.00011583,-0.00018451,-0.00029177,4.3502e-06,2.6989e-05,0.00019579,-0.00010879,-0.00013611,-0.0020623,-0.00026824,0.00025881,-6.7435e-05,-6.556e-05,-5.9753e-05,-0.0001723,8.5541e-05,9.4249e-05,-0.00026597,-0.00026511,-0.00021447,-0.00014604,-7.9382e-05,-0.00010384,2.1727e-05,1.9734e-06,3.8202e-05,-1.7058e-05,-0.00049733,-0.0001711,-0.00030759,9.9563e-05,-0.00028465,-3.4669e-05,-0.00024446,-0.00017903,-0.00016988,-0.00015436,-0.0001839,7.4847e-05,-7.3867e-05,-0.00018992,-8.5912e-05,-1.3965e-06,-0.00059965,-6.4775e-05,0.00011332,1.3139e-09,-2.623e-05,-5.8647e-05,4.414e-05,-0.00058276,-4.9688e-05,-0.22479,-0.00024707,-0.00025573
-2.3637e-05,-3.175e-05,-5.4353e-05,-0.00017375,-1.0806e-05,-1.2892e-05,-2.9323e-06,8.8614e-06,-0.00010151,-1.5278e-05,-1.4094e-05,-4.3289e-06,-4.0337e-05,-9.7577e-06,9.3901e-06,-1.7402e-05,-3.9656e-05,-1.3891e-05,1.2949e-05,2.5017e-06,-3.0915e-05,6.866e-06,-9.2505e-06,-1.3111e-05,-3.3497e-05,-1.103e-05,2.6545e-06,-1.9421e-06,1.1577e-05,-2.6947e-06,-2.7473e-05,-3.7021e-05,-4.6203e-05,-1.5441e-05,-2.8607e-06,9.7078e-06,-1.8856e-05,-3.2518e-05,-0.079549,-3.7998e-05,1.5861e-05,-2.7339e-05,-3.0569e-05,-2.7035e-05,-2.6476e-05,1.0786e-05,6.2945e-06,-3.5044e-05,-5.8862e-05,-4.0834e-05,-2.3569e-05,-1.5874e-05,-3.4334e-05,-3.7907e-06,-5.9895e-06,7.5019e-08,-1.9965e-06,-0.00017267,-3.3907e-05,-4.8397e-05,4.5532e-06,-3.718e-05,-2.2812e-06,-5.2857e-05,-3.4845e-05,-2.4269e-05,-2.2939e-05,-2.5717e-05,-2.7934e-06,-1.6011e-05,-2.4027e-05,-1.1944e-05,-3.3529e-06,-0.00010659,-1.3078e-05,-3.6855e-06,-4.6105e-05,1.0987e-09,-9.2797e-06,3.4326e-06,-0.00020463,-8.9159e-06,-0.18835,-4.0075e-05,-3.8488e-05
-2.0851e-05,-2.9542e-05,-4.9185e-05,-0.00011707,-9.43e-06,-1.0594e-05,-1.6507e-06,9.0976e-06,-7.704e-05,-1.3321e-05,-1.316e-05,-3.972e-06,-3.3524e-05,-9.3024e-06,9.5655e-06,-1.5314e-05,-3.4777e-05,-1.2658e-05,1.2205e-05,3.1234e-06,-2.8579e-05,5.5765e-06,-6.6138e-06,-1.0824e-05,-3.0673e-05,-9.9712e-06,2.8539e-06,-1.8352e-06,9.2271e-06,-1.7961e-06,-2.505e-05,-3.1162e-05,-4.2127e-05,-1.4538e-05,-1.2544e-06,1.043e-05,-1.8169e-05,-2.8499e-05,-0.039484,-3.5882e-05,1.3642e-05,-2.2296e-05,-3.12e-05,-2.4673e-05,-2.7699e-05,7.4168e-06,5.8889e-06,-3.5165e-05,-4.8861e-05,-3.34e-05,-2.1545e-05,-1.2898e-05,-3.1523e-05,-2.2631e-06,-4.37e-06,8.7929e-08,-2.8276e-06,-0.00011266,-3.0596e-05,-4.2394e-05,3.0193e-06,-3.3308e-05,-4.103e-06,-4.5969e-05,-3.0809e-05,-2.1626e-05,-2.1905e-05,-2.3798e-05,-2.1026e-06,-1.4484e-05,-2.2733e-05,-1.2005e-05,-3.4275e-06,-8.6843e-05,-1.1503e-05,-5.8233e-06,-4.0376e-05,-4.1824e-06,1.0858e-09,3.4633e-06,-0.00012638,-8.9466e-06,-0.22792,-3.6527e-05,-3.5803e-05
-9.6716e-06,-1.3049e-05,-2.0962e-05,-5.2292e-05,-4.2668e-06,-3.85e-06,-1.0553e-06,2.7546e-06,-3.2704e-05,-6.5125e-06,-5.2138e-06,-1.7329e-06,-1.5441e-05,-4.7656e-06,3.0308e-06,-5.9634e-06,-1.5411e-05,-5.2192e-06,5.7741e-06,-1.4564e-07,-1.1435e-05,1.6883e-06,-3.4768e-06,-4.6853e-06,-1.3555e-05,-4.26e-06,4.5092e-07,-1.0256e-06,3.6296e-06,-6.6469e-07,-1.0171e-05,-1.3689e-05,-1.6979e-05,-5.7097e-06,-1.0589e-06,3.1963e-06,-7.5315e-06,-1.2959e-05,-0.10971,-1.4839e-05,5.6459e-06,-1.0134e-05,-1.1644e-05,-1.0697e-05,-1.1359e-05,2.6132e-06,2.8532e-06,-1.4726e-05,-2.1294e-05,-1.3262e-05,-1.013e-05,-6.883e-06,-1.0868e-05,-2.1772e-06,-2.86e-06,-3.541e-07,-8.5502e-07,-5.205e-05,-1.4144e-05,-1.9867e-05,1.4347e-06,-1.5175e-05,-1.7964e-06,-1.9948e-05,-1.2637e-05,-9.8987e-06,-9.7763e-06,-1.0809e-05,-8.73e-07,-6.8409e-06,-9.2672e-06,-5.337e-06,-2.7506e-07,-3.8187e-05,-3.3299e-06,-2.1245e-06,-1.6614e-05,-2.1497e-06,-3.9239e-06,1.0513e-09,-5.4649e-05,-3.6138e-06,-0.22761,-1.5985e-05,-1.525e-05
-9.7114e-06,-9.8513e-06,-1.5591e-05,-1.2743e-05,2.8355e-07,1.3215e-05,-1.0955e-06,7.5564e-06,-4.4081e-06,-4.7327e-06,2.27e-06,7.8882e-06,4.3979e-06,-1.1818e-06,1.2673e-05,-4.3125e-06,-7.346e-06,-5.2662e-06,1.8492e-05,5.531e-06,-1.2644e-05,3.9358e-06,-3.2985e-06,1.0669e-05,-1.0051e-05,-1.407e-06,2.3265e-06,8.6438e-06,1.1913e-05,9.148e-06,-1.5357e-06,-1.8973e-06,-1.2311e-05,8.1807e-06,-2.1126e-07,1.7829e-05,-5.7474e-06,-1.9507e-06,-2.6235e-05,-1.0829e-05,2.1176e-05,7.0417e-06,4.678e-06,1.7938e-06,-6.5741e-06,4.6631e-06,5.003e-06,-9.1739e-06,-2.9625e-06,-2.7948e-06,-6.0657e-06,-4.0709e-06,1.0799e-06,3.3692e-06,1.9666e-06,2.1736e-06,3.337e-06,-8.7688e-06,-6.1779e-06,-1.2749e-05,7.5456e-06,-1.2395e-05,-1.7507e-06,-9.1833e-06,-6.3717e-06,-8.5451e-06,-8.25e-06,-8.887e-06,8.5632e-06,-1.2699e-06,-9.5809e-06,-3.2169e-06,-1.0843e-06,-1.595e-05,-4.1535e-06,9.9288e-06,-5.292e-06,-1.0489e-06,-2.5356e-06,2.7524e-06,1.1589e-09,-1.8443e-06,-0.10715,-8.5923e-06,-1.0284e-05
-5.6834e-06,-7.0572e-06,-1.1514e-05,-2.8464e-05,-2.2138e-06,-1.5322e-06,-5.0794e-07,1.8583e-06,-1.6205e-05,-3.8368e-06,-2.8094e-06,-5.2839e-07,-8.3902e-06,-2.4866e-06,2.1363e-06,-2.5733e-06,-8.3346e-06,-3.0123e-06,3.6083e-06,3.8197e-07,-7.0042e-06,1.2366e-06,-2.1119e-06,-2.2163e-06,-7.8416e-06,-2.3446e-06,6.3386e-07,-5.2913e-07,2.7153e-06,-1.2869e-07,-5.3409e-06,-7.5822e-06,-9.6116e-06,-3.0495e-06,-7.3795e-07,1.9969e-06,-3.945e-06,-6.9725e-06,-0.00049613,-8.3449e-06,3.6764e-06,-4.9364e-06,-5.1295e-06,-6.0379e-06,-5.7955e-06,1.8624e-06,1.7184e-06,-7.8488e-06,-1.1655e-05,-7.2024e-06,-5.5104e-06,-3.8475e-06,-5.9722e-06,-8.4407e-07,-1.2689e-06,-3.5782e-08,-4.1197e-08,-2.838e-05,-7.3256e-06,-1.1714e-05,1.2449e-06,-8.5752e-06,-9.9135e-07,-1.1383e-05,-7.3155e-06,-5.3812e-06,-5.3941e-06,-5.9131e-06,2.3721e-07,-3.8467e-06,-5.3458e-06,-2.9793e-06,-3.3838e-07,-2.1231e-05,-2.9934e-06,-9.8671e-07,-9.7021e-06,-1.045e-06,-2.3266e-06,8.9777e-07,-2.9804e-05,1.1046e-09,-0.22967,-8.5044e-06,-8.6462e-06
9.1696e-07,-3.7634e-06,-1.2721e-06,-7.8199e-06,1.0312e-06,1.4447e-06,8.2734e-07,1.2046e-06,-1.1148e-05,-1.9273e-06,1.386e-06,4.7114e-05,6.3878e-06,-3.0406e-06,2.8483e-06,9.2521e-07,-1.6713e-06,-6.4289e-06,5.0059e-06,7.5262e-07,-4.4957e-06,2.0965e-06,-2.0771e-07,2.7144,3.4824e-06,-1.0271e-07,-4.8289e-07,2.6852e-05,6.5724e-05,0.00062327,1.955e-06,8.3752e-06,3.2701e-06,2.1591,-1.2132e-07,4.7546e-05,3.9299e-06,5.3876e-06,3.2557e-06,-1.1627e-06,0.00059803,3.714e-05,-1.2936e-06,6.5599e-06,1.9112e-06,1.6137e-05,-1.0756e-06,-9.2459e-07,-2.3857e-06,1.3925e-06,-6.2267e-07,-2.9437e-06,2.5374e-05,3.2258e-06,3.1706e-06,3.2136e-07,8.048e-06,-5.1216e-06,7.0107e-06,-3.5151e-05,-8.0433e-06,-2.9006e-06,1.5801e-06,-1.9592e-06,5.8703e-07,-1.6217e-06,-3.6039e-06,-6.3621e-06,5.66e-06,-2.1467e-06,-1.6821e-06,-1.706e-06,-2.8241e-06,2.2519e-05,-5.5757e-06,2.4278e-06,-1.0444e-05,4.7619e-06,-1.6904e-06,4.9509e-08,6.1524e-06,-2.4916e-06,1.0423e-09,-1.0735e-06,1.2436e-07
-9.2422e-05,-0.00010272,-0.00019862,-0.00040262,-2.1385e-05,2.7119e-05,-6.3627e-06,5.8868e-05,-0.0002032,-7.9055e-05,-3.9492e-05,4.821e-05,-8.5024e-05,8.4442e-06,8.8357e-05,-6.0806e-05,-8.8822e-05,-4.3176e-05,0.00013089,6.6299e-05,-0.00015101,7.4849e-05,-4.118e-05,1.7478e-05,-0.00013994,-3.4137e-05,2.2948e-05,3.9172e-05,9.5902e-05,3.0637e-05,-6.1939e-05,-8.7974e-05,-0.0001657,-1.2166e-05,-3.57e-05,0.00010838,-6.9382e-05,-6.3274e-05,-0.0021113,-0.00015149,0.00015158,7.3472e-06,3.5454e-05,-5.7642e-05,-8.6752e-05,3.8915e-05,3.95e-05,-9.5723e-05,-0.00014641,-0.00010088,-4.1269e-05,-5.6513e-05,-5.5859e-05,3.055e-05,1.8354e-05,3.8976e-05,3.7753e-05,-0.0004185,-7.5925e-05,-0.00016926,5.0272e-05,-0.00012021,-1.1638e-05,-0.00015391,-0.00011241,-9.1452e-05,-8.8781e-05,-6.0205e-05,4e-05,-2.0884e-05,-0.00012211,-2.2965e-06,-2.5646e-05,-0.0002902,-5.3101e-05,7.2635e-05,-0.00016973,-1.0446e-05,-3.3933e-05,2.3538e-05,-0.00046603,-2.2523e-05,-0.18315,1.4257e-09,-0.00013113
-7.5456e-05,-0.00010304,-0.00017091,-0.00042476,-1.4892e-05,2.5875e-05,-4.7729e-06,4.7763e-05,-0.00020138,-5.8472e-05,-2.4012e-05,4.2742e-05,-9.1941e-05,-9.2295e-06,6.3424e-05,-4.6057e-05,-8.9381e-05,-4.4531e-05,0.00010474,4.1645e-05,-0.00011436,5.3052e-05,-2.9643e-05,1.9286e-05,-0.0001168,-2.8325e-05,1.7404e-05,4.1654e-05,8.6049e-05,3.1345e-05,-4.9539e-05,-7.9232e-05,-0.00012578,-1.3381e-06,-1.1391e-05,0.00010403,-6.2278e-05,-7.2964e-05,-0.0059249,-0.00010629,0.00013641,-1.8893e-05,-4.4917e-06,-5.4002e-05,-7.3195e-05,3.9999e-05,3.4041e-05,-8.3222e-05,-0.0001459,-8.8796e-05,-6.1397e-05,-5.2715e-05,-4.8233e-05,1.6833e-05,8.0735e-06,1.9716e-05,2.5055e-05,-0.00042072,-8.7651e-05,-0.00015757,4.2051e-05,-0.00011853,-5.9786e-06,-0.00015119,-9.5273e-05,-8.0614e-05,-8.1113e-05,-7.4992e-05,3.0024e-05,-2.8757e-05,-8.8717e-05,-1.9059e-05,-1.2376e-05,-0.00028618,-4.5794e-05,4.4211e-05,-0.00013778,-6.3266e-06,-2.7509e-05,2.1488e-05,-0.00044096,-2.2985e-05,-0.17659,-0.00010114,1.3381e-09
