1.3124e-09,-1.4827e-05,-2.719e-05,-6.3812e-05,-5.4713e-06,-6.3783e-06,-9.2059e-07,4.578e-06,-3.7275e-05,-8.4905e-06,-8.0071e-06,-7.9554e-07,-1.9739e-05,-3.1268e-06,5.6554e-06,-8.5833e-06,-1.6824e-05,-6.2882e-06,8.2159e-06,3.0384e-06,-1.7047e-05,5.0949e-06,-4.5028e-06,-5.5839e-06,-1.7464e-05,-5.7144e-06,1.4042e-06,-9.681e-07,6.1375e-06,-1.357e-06,-1.3668e-05,-1.687e-05,-2.3994e-05,-7.1606e-06,-2.5915e-06,6.3218e-06,-9.8616e-06,-1.4916e-05,-0.0263,-2.0018e-05,9.2142e-06,-1.0857e-05,-1.0898e-05,-1.2957e-05,-1.4219e-05,4.1071e-06,3.4253e-06,-1.6455e-05,-2.6051e-05,-1.9135e-05,-1.0298e-05,-7.6606e-06,-1.4849e-05,-5.076e-07,-1.5891e-06,5.8437e-07,5.7001e-07,-6.6191e-05,-1.5604e-05,-2.4645e-05,2.4826e-06,-1.7127e-05,-1.6365e-06,-2.3301e-05,-1.7281e-05,-1.2365e-05,-1.1195e-05,-1.1815e-05,-5.098e-07,-6.9056e-06,-1.2937e-05,-4.21e-06,-2.1974e-06,-4.5854e-05,-6.6082e-06,2.6364e-11,-2.3189e-05,-2.1198e-06,-4.1036e-06,1.994e-06,-7.395e-05,-4.9702e-06,-0.19317,-1.8786e-05,-1.8761e-05
-0.00011446,1.3483e-09,-0.00027172,-0.0008125,-5.5412e-05,-9.8633e-07,-1.7984e-05,6.2432e-05,-0.00036861,-9.2553e-05,-6.74e-05,1.2267e-05,-0.0001693,-1.2901e-05,9.1342e-05,-0.0001004,-0.00015863,-5.8731e-05,0.00010275,6.1638e-05,-0.00019734,6.78e-05,-5.9933e-05,-2.1307e-05,-0.00018452,-5.9203e-05,1.8274e-05,3.4334e-06,7.821e-05,8.6402e-06,-0.00014023,-0.0001744,-0.00026419,-6.1424e-05,-3.6626e-05,0.00011533,-0.00010916,-0.00012649,-0.028721,-0.00022226,0.00014111,-4.7882e-05,-3.4056e-05,-0.00011716,-0.00013077,4.2912e-05,4.0411e-05,-0.00015804,-0.0002399,-0.00018718,-9.2703e-05,-6.9642e-05,-0.0001388,1.5195e-05,-1.2073e-06,8.3236e-06,1.5648e-05,-0.00084085,-0.00012835,-0.0002423,5.6726e-05,-0.00018512,-2.3098e-05,-0.00022012,-0.00017086,-0.00013298,-0.0001142,-0.0001077,2.7586e-05,-5.0715e-05,-0.00014609,-2.4078e-05,-3.8803e-05,-0.00054637,-6.9403e-05,3.8746e-05,-0.00023252,-2.0646e-05,-4.8962e-05,1.8441e-05,-0.0010388,-4.1268e-05,-0.2175,-0.00017202,-0.00020686
-9.4757e-05,-0.00010709,1.3464e-09,-0.00049043,-2.4765e-05,1.3481e-05,-1.3809e-05,3.9056e-05,-0.00026762,-7.8904e-05,-3.1145e-05,2.6752e-05,-0.00011535,-1.2347e-05,7.5279e-05,-5.1065e-05,-0.00011009,-5.5455e-05,0.00011593,4.4495e-05,-0.00012975,5.9403e-05,-3.7387e-05,9.8515e-06,-0.00013454,-3.531e-05,1.081e-05,3.3578e-05,7.8472e-05,2.863e-05,-7.2661e-05,-9.2088e-05,-0.00016438,-7.5858e-06,-2.6956e-05,9.7349e-05,-7.825e-05,-8.2568e-05,-0.0079322,-0.00014674,0.00013078,-2.3497e-05,-9.9806e-06,-6.0824e-05,-9.2203e-05,3.5098e-05,2.8505e-05,-0.00010424,-0.00017712,-0.00010164,-7.5565e-05,-6.6254e-05,-6.3969e-05,2.3753e-05,1.3045e-05,1.7269e-05,2.8464e-05,-0.0005383,-0.00010905,-0.00016301,4.2346e-05,-0.00013344,-9.1996e-06,-0.00017602,-0.00011431,-9.8301e-05,-9.9007e-05,-8.5815e-05,2.9985e-05,-3.9628e-05,-0.0001039,-2.3636e-05,-1.9113e-05,-0.00039153,-6.0002e-05,3.7483e-05,-0.00015264,-1.5447e-05,-3.5178e-05,1.8056e-05,-0.00053918,-2.4629e-05,-0.18176,-0.00011984,-0.0001343
-6.0459e-06,-6.0037e-06,-1.1382e-05,1.1401e-09,5.4322e-07,7.6512e-06,-7.4949e-07,5.8826e-06,-5.0442e-06,-3.4149e-06,1.472e-06,5.1899e-06,3.7057e-06,5.4244e-07,1.015e-05,-3.6076e-06,-4.8627e-06,-2.9334e-06,1.316e-05,5.5902e-06,-9.5487e-06,4.1529e-06,-2.6299e-06,6.8664e-06,-7.7485e-06,-1.5789e-06,2.2171e-06,4.5072e-06,7.9229e-06,4.8229e-06,-2.5464e-06,-2.3095e-06,-9.8438e-06,3.4377e-06,-9.7203e-07,1.1914e-05,-4.4454e-06,-9.4949e-07,-2.1631e-05,-8.8181e-06,1.3281e-05,4.9385e-06,5.0961e-06,5.6555e-07,-4.68e-06,3.4613e-06,3.6193e-06,-6.0363e-06,-3.6462e-06,-3.1128e-06,-2.7564e-06,-2.5456e-06,-4.4745e-07,4.0294e-06,2.9769e-06,2.4411e-06,2.4803e-06,-7.1067e-06,-3.1164e-06,-6.7932e-06,5.6469e-06,-7.9507e-06,-4.6328e-07,-5.6987e-06,-4.6019e-06,-6.4845e-06,-5.4228e-06,-4.6865e-06,5.1979e-06,-1.659e-07,-7.9735e-06,-1.1344e-06,-1.1995e-06,-1.2981e-05,-2.774e-06,6.9042e-06,-4.5154e-06,-2.5103e-07,-1.5099e-06,2.133e-06,-9.6642e-06,-1.2307e-06,-0.16056,-5.3014e-06,-7.907e-06
-2.2489e-05,-3e-05,-4.7094e-05,-0.00011192,1.1548e-09,4.5629e-06,-9.6871e-07,1.1196e-05,-6.1417e-05,-1.5752e-05,-6.5296e-06,4.1639e-06,-2.6079e-05,-8.1138e-06,1.5725e-05,-1.1954e-05,-3.0876e-05,-1.4028e-05,2.2438e-05,5.4327e-06,-2.852e-05,8.5663e-06,-7.1383e-06,9.5458e-07,-3.1881e-05,-8.4314e-06,4.1119e-06,4.6968e-06,1.7069e-05,7.9997e-06,-1.6164e-05,-2.527e-05,-3.6997e-05,-2.7095e-06,-2.4418e-06,1.879e-05,-1.6956e-05,-2.3666e-05,-0.0014407,-3.1657e-05,2.6262e-05,-1.2507e-05,-1.3062e-05,-1.7094e-05,-2.3043e-05,9.7465e-06,8.0373e-06,-3.038e-05,-4.2045e-05,-2.1285e-05,-2.0467e-05,-1.5665e-05,-1.5313e-05,2.4069e-06,4.696e-07,2.5237e-06,2.8983e-06,-0.00011204,-2.8786e-05,-4.3496e-05,8.8668e-06,-3.4077e-05,-2.4877e-06,-4.2392e-05,-2.4164e-05,-2.2289e-05,-2.2111e-05,-2.3139e-05,7.1161e-06,-1.1443e-05,-2.3539e-05,-1.0858e-05,-2.1841e-06,-8.5837e-05,-1.2563e-05,2.465e-06,-3.5946e-05,-3.1328e-06,-7.3473e-06,5.1439e-06,-0.00012316,-6.2023e-06,-0.19375,-3.2557e-05,-3.2227e-05
-7.796e-06,-7.1955e-06,-1.3295e-05,-1.8641e-05,6.8394e-07,1.1921e-09,2.529e-07,6.2544e-06,2.0917e-06,-3.2865e-06,1.5117e-06,5.4401e-06,-1.8504e-06,-2.9442e-06,7.645e-06,-8.4506e-07,-6.9131e-06,-3.898e-06,9.3173e-06,1.7493e-06,-8.8079e-06,1.5694e-06,-1.7709e-06,6.9451e-06,-7.6734e-06,-1.6081e-06,2.1668e-06,5.7251e-06,7.6312e-06,8.3727e-06,-1.014e-06,-2.071e-06,-7.2884e-06,4.7149e-06,1.728e-06,1.0992e-05,-5.4142e-06,-3.8121e-06,-3.5076e-05,-7.4324e-06,1.6369e-05,1.27e-05,1.2423e-05,-1.0041e-06,-5.2565e-06,3.7621e-06,3.8826e-06,-9.3092e-06,-4.7613e-07,5.0049e-06,-6.0789e-06,-4.5254e-06,8.3142e-06,1.6258e-07,-9.0234e-07,2.287e-06,1.2259e-06,-1.5786e-05,-6.0433e-06,-1.8485e-05,7.7342e-06,-1.1355e-05,-1.8875e-07,-9.5609e-06,-5.8627e-06,-6.127e-06,-6.4674e-06,-6.444e-06,1.1895e-05,-1.5238e-06,-7.0187e-06,-4.9742e-06,5.5408e-07,-1.4318e-05,-2.6299e-06,4.6397e-06,-5.7836e-06,-1.1414e-06,-2.5544e-06,2.4881e-06,-1.6129e-05,-6.6148e-07,-0.15874,-8.4291e-06,-8.4111e-06
-1.4365e-05,-1.9893e-05,-3.3313e-05,-0.00010735,-5.7363e-06,-4.437e-06,8.9908e-10,5.6299e-06,-5.4183e-05,-9.3721e-06,-7.8966e-06,-2.2437e-06,-2.3761e-05,-6.4054e-06,6.8439e-06,-9.1186e-06,-2.3374e-05,-8.1247e-06,8.7076e-06,1.8499e-06,-1.8501e-05,3.4806e-06,-5.2508e-06,-6.182e-06,-2.0319e-05,-6.6227e-06,3.4455e-06,-1.7674e-06,6.4752e-06,-3.72e-07,-1.6547e-05,-2.0703e-05,-2.8218e-05,-7.8644e-06,-1.2697e-06,6.35e-06,-1.2399e-05,-1.9984e-05,-0.2758,-2.2717e-05,1.0151e-05,-1.4761e-05,-1.763e-05,-1.6388e-05,-1.6834e-05,4.7354e-06,3.8735e-06,-2.1735e-05,-3.5579e-05,-2.1787e-05,-1.4737e-05,-1.0032e-05,-2.0196e-05,-1.2561e-06,-2.5056e-06,2.5386e-07,-2.2342e-07,-0.00010326,-2.1226e-05,-2.9804e-05,3.8731e-06,-2.3141e-05,-2.8708e-06,-3.2395e-05,-2.0744e-05,-1.4758e-05,-1.2649e-05,-1.6256e-05,9.2467e-07,-9.67e-06,-1.3838e-05,-7.5942e-06,-1.8842e-06,-7.5486e-05,-8.1084e-06,-2.6039e-06,-2.7468e-05,-3.3318e-06,-5.5309e-06,2.2048e-06,-0.00011884,-5.3946e-06,-0.21571,-2.3951e-05,-2.3532e-05
-1.8604e-05,-2.3997e-05,-4.3691e-05,-9.3769e-05,-7.2591e-06,-5.6853e-07,-1.1216e-06,9.9016e-10,-5.5964e-05,-6.8217e-06,-6.9559e-06,-2.9089e-06,-2.1058e-05,-7.3749e-06,1.2622e-05,-1.4937e-05,-2.9447e-05,-9.7209e-06,1.2145e-05,4.5918e-06,-2.3973e-05,3.3407e-06,-6.5439e-06,-5.9195e-06,-2.269e-05,-6.4295e-06,3.3131e-06,-1.3656e-06,8.059e-06,4.3571e-07,-2.0296e-05,-2.834e-05,-3.6012e-05,-1.0557e-05,2.3225e-06,1.0747e-05,-1.4611e-05,-2.2774e-05,-0.0025219,-2.9971e-05,1.3944e-05,-1.7862e-05,-2.4614e-05,-1.6591e-05,-2.1336e-05,7.6194e-06,7.2561e-06,-3.3165e-05,-3.8256e-05,-2.8521e-05,-1.6835e-05,-8.3846e-06,-2.5636e-05,-3.3044e-06,-5.5586e-06,3.2175e-06,-5.5434e-06,-7.6065e-05,-1.9936e-05,-3.8015e-05,5.9811e-06,-2.9802e-05,-3.7238e-06,-3.5743e-05,-2.6332e-05,-1.8241e-05,-1.5648e-05,-2.0265e-05,1.2399e-06,-9.4199e-06,-1.8588e-05,-9.6249e-06,-1.2634e-06,-7.0143e-05,-7.7708e-06,-6.4271e-07,-2.5937e-05,-2.8076e-06,-5.8197e-06,3.1698e-06,-0.00010054,-6.4469e-06,-0.22513,-3.0523e-05,-2.9887e-05
-1.0472e-05,-8.5102e-06,-2.2633e-05,-2.491e-05,2.6231e-06,4.983e-05,1.393e-06,1.2388e-05,1.2389e-09,-6.4794e-06,3.2679e-06,2.6059e-05,4.9863e-06,8.3818e-07,2.1148e-05,-4.2618e-06,-5.4373e-06,-2.9603e-06,2.5799e-05,1.004e-05,-1.8777e-05,9.9256e-06,-3.4631e-06,1.7633e-05,-1.2735e-05,-2.9895e-06,6.4652e-06,1.542e-05,1.9028e-05,2.7617e-05,-6.6048e-06,3.0198e-06,-1.5504e-05,1.4605e-05,-1.0764e-06,2.9232e-05,-8.9764e-06,1.7214e-06,-4.9321e-05,-1.4188e-05,4.775e-05,3.7564e-05,0.00027511,6.4833e-06,-6.6581e-06,6.1203e-06,8.421e-06,-1.0592e-05,7.5691e-06,7.1993e-06,-5.1719e-06,-6.2635e-06,5.9437e-05,7.9865e-06,5.6449e-06,5.3224e-06,7.9098e-06,-1.7136e-05,-4.7117e-06,-2.6407e-05,1.5838e-05,-1.5593e-05,5.4847e-07,-1.0251e-05,-8.222e-06,-9.3726e-06,-8.7408e-06,-5.867e-06,2.2822e-05,9.0618e-07,-1.3117e-05,-9.103e-07,-3.5644e-06,-1.6166e-05,-5.9473e-06,1.9124e-05,-6.7457e-06,-9.0369e-07,-4.4769e-06,3.923e-06,-2.1714e-05,-3.241e-07,-0.15984,-9.2489e-06,-1.3042e-05
-0.00012344,-0.00016941,-0.00033004,-0.0012911,-4.9407e-05,3.3375e-06,-1.5099e-06,0.00010791,-0.00069834,9.8681e-10,-4.1011e-05,1.3935e-05,-0.00016023,-3.8836e-05,0.00012151,-0.000103,-0.00022421,-6.2374e-05,0.00010757,3.9802e-05,-0.00017747,4.24e-05,-4.079e-05,-4.3134e-05,-0.00016613,-4.1741e-05,3.9537e-05,1.8774e-05,8.7598e-05,2.8369e-05,-0.00015583,-0.00020698,-0.00027415,-7.5388e-05,3.8583e-05,0.00011525,-9.4696e-05,-0.00015981,-0.079666,-0.00022052,0.00015351,-0.00014302,-0.00021107,-0.00011305,-0.00014925,7.2335e-05,6.6726e-05,-0.00023754,-0.00035159,-0.00027045,-0.00010931,-4.8815e-05,-0.00024123,-4.0776e-06,-2.0911e-05,2.3758e-05,-2.0301e-05,-0.00099457,-0.00015291,-0.00029189,5.9724e-05,-0.00021184,-1.5211e-05,-0.00027391,-0.00019753,-0.00013303,-0.0001056,-0.00013575,2.0472e-05,-6.9131e-05,-0.00013149,-5.7461e-05,-9.3095e-06,-0.00082034,-5.2668e-05,2.5947e-05,-0.00018672,-8.1355e-06,-3.1023e-05,2.9981e-05,-0.0014875,-4.1286e-05,-0.22637,-0.00023038,-0.00021729
-5.0623e-05,-6.1363e-05,-9.4608e-05,-0.00017336,-1.1671e-05,1.0676e-05,-3.7197e-06,2.5477e-05,-0.00010598,-2.4906e-05,1.243e-09,1.8854e-06,-4.3274e-05,-2.0006e-05,3.6928e-05,-2.9177e-05,-6.7313e-05,-2.7117e-05,5.5151e-05,8.2533e-06,-5.4857e-05,1.1933e-05,-1.5802e-05,-6.666e-07,-6.0554e-05,-1.572e-05,8.4919e-06,7.6337e-06,3.0168e-05,9.938e-06,-3.7544e-05,-5.3157e-05,-7.5188e-05,-1.0162e-05,1.6177e-06,3.5267e-05,-3.7193e-05,-4.9295e-05,-0.00050965,-6.647e-05,4.5005e-05,-2.9416e-05,-3.5644e-05,-3.5893e-05,-4.7294e-05,1.8094e-05,1.9284e-05,-6.8086e-05,-8.4631e-05,-5.2937e-05,-4.7337e-05,-3.0674e-05,-3.6004e-05,8.8825e-07,-2.5552e-06,3.6793e-06,-1.8332e-06,-0.00016121,-5.8972e-05,-8.6291e-05,1.4731e-05,-7.511e-05,-8.2715e-06,-8.2611e-05,-5.1923e-05,-4.4808e-05,-4.6147e-05,-5.2425e-05,9.6588e-06,-2.711e-05,-4.5813e-05,-2.5434e-05,4.0701e-07,-0.00016572,-2.129e-05,3.621e-06,-5.1966e-05,-8.0532e-06,-1.8588e-05,1.0436e-05,-0.00017523,-1.3352e-05,-0.18633,-7.2997e-05,-6.7802e-05
-0.0001057,-0.00013382,-0.00022217,-0.00039297,-1.769e-05,6.0659e-05,-1.2545e-05,4.9644e-05,-0.0001045,-7.4647e-05,-3.3326e-05,9.4933e-10,-9.0664e-05,-2.6632e-05,8.3147e-05,-3.0872e-05,-0.00010573,-4.6695e-05,0.0001233,3.1485e-05,-0.00016098,5.056e-05,-3.8587e-05,3.5924e-05,-0.00013359,-3.5214e-05,1.7375e-05,0.00014574,0.00011585,8.3558e-05,-5.1284e-05,-6.8217e-05,-0.00014679,4.0834e-05,-1.9441e-05,0.00021392,-7.1997e-05,-7.4097e-05,-0.00096757,-0.00013391,0.00029635,3.3168e-05,4.8229e-05,-2.661e-05,-8.2706e-05,4.3713e-05,4.787e-05,-0.00011143,-0.00011445,-8.2902e-05,-8.0668e-05,-6.9665e-05,-7.4974e-06,-1.9452e-07,-1.4322e-05,8.7485e-06,3.4727e-05,-0.00034758,-0.00010565,-0.00025579,6.4677e-05,-0.00015252,-3.1215e-06,-0.00015277,-0.00010015,-0.00010858,-9.9709e-05,-9.0032e-05,7.211e-05,-3.9841e-05,-0.00011516,-4.7147e-05,-9.2175e-06,-0.00024042,-4.8028e-05,6.9199e-05,-0.00015546,-1.5385e-05,-4.1733e-05,3.0081e-05,-0.00038197,-2.5998e-05,-0.13694,-0.00013301,-0.00013341
-6.1743e-06,-6.1857e-06,-1.2053e-05,-1.0793e-05,-5.4354e-07,6.1078e-06,-4.8311e-07,5.8612e-06,-5.4982e-06,-1.7316e-06,9.789e-07,3.7585e-06,8.4396e-10,-9.2118e-07,8.6042e-06,-4.2181e-06,-5.9051e-06,-3.055e-06,9.7738e-06,3.0216e-06,-8.6753e-06,2.2877e-06,-2.2818e-06,4.2152e-06,-6.7097e-06,-1.6923e-06,2.1901e-06,3.5318e-06,5.8239e-06,4.4139e-06,-3.6698e-06,-4.0205e-06,-9.4591e-06,1.2125e-06,5.0826e-07,9.8535e-06,-3.9749e-06,-2.3365e-06,-2.4231e-05,-8.5427e-06,1.0619e-05,2.4485e-06,1.3739e-06,-5.8036e-07,-4.8975e-06,3.0258e-06,3.1802e-06,-7.8966e-06,-4.0826e-06,-4.7103e-06,-3.4348e-06,-2.0286e-06,-2.8302e-06,1.9413e-06,9.3633e-07,1.7875e-06,1.2178e-08,-7.8247e-06,-3.8361e-06,-8.3146e-06,4.3177e-06,-8.1059e-06,-9.8185e-07,-6.3925e-06,-5.7443e-06,-5.756e-06,-4.671e-06,-5.2269e-06,3.9628e-06,-1.3561e-06,-6.8123e-06,-2.0333e-06,-8.2211e-07,-1.3353e-05,-2.4579e-06,4.6302e-06,-4.2231e-06,-3.8714e-07,-1.4714e-06,1.5088e-06,-1.1411e-05,-1.3822e-06,-0.13737,-6.4287e-06,-8.0417e-06
-1.7425e-05,-2.2144e-05,-4.1234e-05,-9.5961e-05,-9.171e-06,-8.9181e-06,-2.8779e-06,8.0397e-06,-5.8516e-05,-1.5111e-05,-1.179e-05,1.1059e-07,-2.8194e-05,1.2508e-09,1.0165e-05,-1.5283e-05,-2.3697e-05,-9.4059e-06,1.5635e-05,9.0577e-06,-2.899e-05,1.1193e-05,-8.4023e-06,-8.2058e-06,-2.6832e-05,-8.6569e-06,1.7449e-06,-4.2275e-07,9.7292e-06,-1.065e-06,-2.1966e-05,-2.7037e-05,-3.8895e-05,-1.1756e-05,-7.061e-06,1.3986e-05,-1.6027e-05,-1.949e-05,-0.0023265,-3.3303e-05,1.7818e-05,-1.0858e-05,-9.281e-06,-1.9768e-05,-2.1547e-05,6.0558e-06,4.937e-06,-2.3786e-05,-4.02e-05,-2.9965e-05,-1.3125e-05,-1.2163e-05,-2.0687e-05,1.3173e-06,-4.9003e-07,3.0388e-06,3.9487e-06,-0.00010133,-2.009e-05,-3.4508e-05,4.0204e-06,-2.5742e-05,-3.9721e-06,-3.6564e-05,-2.8522e-05,-2.1511e-05,-1.7668e-05,-1.6462e-05,-2.7006e-07,-8.3717e-06,-2.1808e-05,-2.98e-06,-5.7787e-06,-6.7932e-05,-1.1449e-05,2.2037e-06,-3.9626e-05,-3.7167e-06,-8.0252e-06,2.3412e-06,-0.00011459,-8.1223e-06,-0.2352,-2.5688e-05,-2.9722e-05
-6.7874e-05,-8.2884e-05,-0.00014099,-0.00025385,-2.4229e-05,-3.5865e-06,-5.4188e-06,3.7973e-05,-0.00015397,-3.0009e-05,-1.721e-05,-4.1888e-06,-6.2457e-05,-2.8201e-05,1.2396e-09,-5.0854e-05,-9.6899e-05,-3.73e-05,5.2362e-05,9.0811e-06,-8.8332e-05,1.3077e-05,-2.5964e-05,-2.096e-05,-8.3936e-05,-2.7795e-05,1.2487e-05,8.0105e-07,3.4012e-05,4.3804e-06,-7.5628e-05,-8.75e-05,-0.00012664,-3.7988e-05,1.0369e-06,5.0383e-05,-5.1587e-05,-7.0316e-05,-0.00077249,-0.00010818,5.0399e-05,-5.3177e-05,-6.7428e-05,-5.278e-05,-7.6576e-05,2.317e-05,2.318e-05,-0.0001074,-0.0001177,-0.00010719,-5.8904e-05,-3.6022e-05,-8.3769e-05,2.684e-06,-4.1688e-06,6.6668e-06,-1.4583e-05,-0.0002273,-7.8611e-05,-0.00012388,1.7573e-05,-0.00010532,-1.5896e-05,-0.00011409,-8.6216e-05,-6.7271e-05,-5.6972e-05,-7.5175e-05,7.1757e-07,-4.156e-05,-6.7215e-05,-3.4874e-05,-9.023e-06,-0.00023185,-3.1197e-05,4.1682e-06,-7.8218e-05,-1.3717e-05,-2.4503e-05,9.3503e-06,-0.00027251,-2.4713e-05,-0.20748,-0.00010394,-0.00010832
-1.5573e-05,-2.1607e-05,-3.1476e-05,-9.6837e-05,-4.3762e-06,1.4864e-06,-3.5152e-07,4.1111e-06,-4.7663e-05,-1.2842e-05,-7.7345e-06,3.8911e-06,-2.5737e-05,-6.7657e-06,6.5372e-06,9.7424e-10,-2.1463e-05,-8.5274e-06,1.2409e-05,1.2006e-06,-1.9589e-05,4.923e-06,-4.783e-06,-1.8713e-06,-2.3209e-05,-7.2479e-06,2.0234e-06,4.2583e-06,1.0988e-05,3.3498e-06,-1.1636e-05,-1.7197e-05,-2.2638e-05,-3.418e-06,-2.7289e-06,1.0622e-05,-1.0048e-05,-1.9164e-05,-0.029298,-2.1846e-05,1.8654e-05,-6.5737e-06,-9.5822e-06,-1.4102e-05,-1.5952e-05,5.7556e-06,4.9348e-06,-1.993e-05,-3.315e-05,-1.4105e-05,-1.6112e-05,-1.2509e-05,-8.7224e-06,-1.1203e-06,-2.6379e-06,-4.2981e-07,3.279e-06,-0.00011985,-2.2691e-05,-3.7085e-05,4.7399e-06,-2.384e-05,-1.8295e-06,-3.2463e-05,-1.7906e-05,-1.608e-05,-1.6607e-05,-1.5968e-05,3.9881e-06,-1.0862e-05,-1.6742e-05,-8.7467e-06,-3.7956e-07,-6.2444e-05,-8.5913e-06,9.3648e-07,-2.8727e-05,-3.0133e-06,-5.8281e-06,3.9638e-06,-9.9394e-05,-1.9783e-06,-0.18607,-2.3618e-05,-2.2958e-05
-7.5337e-05,-9.1379e-05,-0.00018228,-0.00035355,-1.4225e-05,4.7098e-05,-4.542e-06,6.1687e-05,-0.00015174,-7.3486e-05,-2.6807e-05,7.0051e-05,-7.0751e-05,1.5948e-05,9.7425e-05,-4.5886e-05,1.4001e-09,-3.4019e-05,0.00013065,7.6281e-05,-0.00014343,7.6251e-05,-3.3342e-05,4.1306e-05,-0.00013083,-3.1736e-05,1.7289e-05,5.1974e-05,0.00010168,4.8556e-05,-3.8226e-05,-6.2007e-05,-0.0001399,1.883e-05,-3.0973e-05,0.00014514,-6.7348e-05,-5.2027e-05,-0.0013943,-0.00013794,0.00017471,3.2738e-05,5.0878e-05,-3.7943e-05,-7.099e-05,4.026e-05,4.4049e-05,-7.6891e-05,-0.00011905,-8.3904e-05,-4.2257e-05,-5.2098e-05,-1.9672e-05,4.2514e-05,2.9058e-05,3.307e-05,5.1782e-05,-0.00036624,-6.1279e-05,-0.00016702,5.6835e-05,-0.0001044,-6.0513e-06,-0.00014233,-0.00011761,-9.0181e-05,-7.3485e-05,-6.0975e-05,5.1761e-05,-1.7907e-05,-0.00010223,5.1031e-06,-2.5319e-05,-0.00026418,-4.855e-05,9.2235e-05,-0.00016229,-8.9488e-06,-2.7174e-05,2.784e-05,-0.00038861,-1.978e-05,-0.17958,-8.6875e-05,-0.00011484
-6.6475e-06,-8.65e-06,-1.6146e-05,-3.8233e-05,-3.5523e-06,-3.1636e-06,-3.7445e-07,3.0418e-06,-2.1136e-05,-4.6494e-06,-4.1188e-06,-3.221e-08,-1.1285e-05,-2.0425e-06,3.4414e-06,-4.7089e-06,-1.0146e-05,1.1697e-09,4.8717e-06,1.3901e-06,-9.6366e-06,2.4613e-06,-2.8356e-06,-3.3945e-06,-1.0142e-05,-3.1419e-06,1.0797e-06,-6.8398e-07,2.776e-06,-9.1423e-07,-8.4732e-06,-1.0143e-05,-1.4173e-05,-4.7148e-06,-1.1411e-06,3.8352e-06,-5.7888e-06,-8.8338e-06,-0.025401,-1.2365e-05,5.5475e-06,-5.771e-06,-7.3878e-06,-7.7053e-06,-8.2733e-06,2.23e-06,2.9477e-06,-1.0378e-05,-1.5718e-05,-1.0976e-05,-6.1058e-06,-4.2878e-06,-1.0315e-05,-6.7321e-07,-1.2805e-06,8.7041e-07,-1.2002e-07,-3.8061e-05,-9.1954e-06,-1.4548e-05,1.5528e-06,-1.0107e-05,-1.2451e-06,-1.4144e-05,-1.0763e-05,-7.3374e-06,-6.3609e-06,-6.7345e-06,3.2364e-08,-4.0912e-06,-7.1751e-06,-2.4629e-06,-1.7282e-07,-2.9416e-05,-2.9785e-06,-3.2509e-07,-1.3178e-05,-1.2662e-06,-2.6726e-06,1.6795e-06,-4.3669e-05,-2.3283e-06,-0.25772,-1.0875e-05,-1.1573e-05
-5.0087e-05,-6.5336e-05,-9.0974e-05,-0.00017626,-1.3206e-05,-3.3843e-06,-6.924e-06,1.6672e-05,-0.00010932,-3.5856e-05,-5.3871e-06,1.4504e-06,-4.9465e-05,-1.81e-05,2.8321e-05,-2.815e-05,-6.6182e-05,-2.7911e-05,1.3268e-09,9.2938e-06,-5.1913e-05,1.4632e-05,-1.8156e-05,-7.9308e-06,-6.4497e-05,-2.0859e-05,1.1987e-06,4.9029e-06,3.281e-05,8.2629e-06,-2.7482e-05,-5.4979e-05,-7.2861e-05,-1.4932e-05,-9.7452e-06,3.7184e-05,-3.2618e-05,-5.1048e-05,-0.00050914,-6.8324e-05,4.3049e-05,-2.7052e-05,-2.7712e-05,-4.5554e-05,-5.1759e-05,1.6051e-05,1.2312e-05,-6.128e-05,-8.386e-05,-4.8545e-05,-4.5228e-05,-3.7221e-05,-1.8992e-05,-1.5068e-06,-5.5092e-06,1.4581e-06,-8.0012e-07,-0.00017883,-6.1466e-05,-7.9321e-05,1.0878e-05,-7.0371e-05,-9.6804e-06,-9.1813e-05,-5.6345e-05,-4.408e-05,-4.9922e-05,-5.3278e-05,4.5694e-06,-2.4396e-05,-4.7057e-05,-2.4203e-05,-2.4722e-06,-0.00016094,-2.6486e-05,3.9797e-06,-5.7836e-05,-1.1571e-05,-2.2479e-05,1.1421e-05,-0.00017416,-1.5204e-05,-0.19045,-6.7504e-05,-6.7348e-05
-2.4996e-05,-3.1265e-05,-5.8723e-05,-0.0001297,-1.1301e-05,-9.2291e-06,-1.8389e-06,1.6369e-05,-8.0427e-05,-2.0303e-05,-1.34e-05,-8.1554e-07,-3.8088e-05,-2.0937e-06,1.6903e-05,-2.1678e-05,-3.4451e-05,-1.3866e-05,2.4804e-05,1.2383e-09,-3.8567e-05,1.4622e-05,-1.0587e-05,-7.6327e-06,-3.7825e-05,-1.1566e-05,3.4193e-06,-8.7973e-07,1.6506e-05,-3.1635e-07,-2.9444e-05,-3.6464e-05,-5.3465e-05,-1.19e-05,-7.7423e-06,2.0004e-05,-2.3809e-05,-2.8987e-05,-0.0014195,-4.5625e-05,2.5097e-05,-1.7209e-05,-1.433e-05,-2.659e-05,-2.8415e-05,8.9231e-06,8.8489e-06,-3.3828e-05,-5.8187e-05,-3.8257e-05,-2.1195e-05,-1.7122e-05,-2.8056e-05,3.1725e-06,3.5343e-07,3.4174e-06,3.641e-06,-0.00013498,-2.7663e-05,-4.8308e-05,7.5112e-06,-3.7935e-05,-5.1256e-06,-5.2032e-05,-4.0437e-05,-2.8532e-05,-2.4641e-05,-2.4782e-05,2.5377e-06,-1.033e-05,-3.035e-05,-5.3011e-06,-6.2072e-06,-9.4373e-05,-1.5892e-05,1.4078e-06,-4.9528e-05,-4.5085e-06,-9.0308e-06,4.206e-06,-0.0001554,-1.0136e-05,-0.2157,-3.8514e-05,-4.2618e-05
-9.5767e-06,-1.3193e-05,-1.9375e-05,-4.9844e-05,-3.7244e-06,-3.7624e-06,-7.3657e-07,2.8451e-06,-3.119e-05,-6.4365e-06,-4.3932e-06,-2.1395e-06,-1.5035e-05,-4.5252e-06,3.3035e-06,-5.8742e-06,-1.4889e-05,-5.679e-06,7.2203e-06,4.6894e-07,1.0776e-09,2.554e-06,-3.0641e-06,-4.2626e-06,-1.2631e-05,-4.0216e-06,5.4997e-07,-7.7909e-07,4.153e-06,-8.8303e-07,-9.3488e-06,-1.3044e-05,-1.5895e-05,-4.9586e-06,-9.3959e-07,2.7136e-06,-7.5631e-06,-1.277e-05,-0.011992,-1.4278e-05,5.2852e-06,-1.0047e-05,-1.274e-05,-1.0497e-05,-1.0728e-05,3.2088e-06,2.5048e-06,-1.3993e-05,-2.2197e-05,-1.2726e-05,-9.3324e-06,-6.8642e-06,-1.1736e-05,-1.7077e-06,-2.276e-06,-3.0753e-07,-1.8218e-07,-5.039e-05,-1.3436e-05,-1.9233e-05,1.4914e-06,-1.4798e-05,-2.0134e-06,-2.0328e-05,-1.1883e-05,-8.9465e-06,-9.5634e-06,-1.0609e-05,-1.6629e-07,-6.2861e-06,-9.084e-06,-5.2269e-06,-4.7097e-07,-3.8597e-05,-4.8905e-06,-2.0263e-06,-1.5694e-05,-1.9385e-06,-3.7521e-06,1.7082e-06,-5.1948e-05,-3.5141e-06,-0.22551,-1.5414e-05,-1.4337e-05
-0.00012715,-0.0001746,-0.00030198,-0.0014521,-5.7936e-05,-8.7667e-05,-1.687e-05,4.7461e-05,-0.00073791,-0.00012007,-8.475e-05,-2.017e-06,-0.0002875,-1.6606e-05,7.0536e-05,-0.00010095,-0.00020558,-7.4944e-05,0.00010872,5.4147e-05,-0.00018625,8.9438e-10,-5.4661e-05,-6.1933e-05,-0.0002111,-5.7377e-05,1.1472e-05,-2.4462e-06,8.3924e-05,-1.442e-05,-0.00016765,-0.0002127,-0.00028698,-7.3348e-05,-4.6964e-05,7.9409e-05,-0.00011269,-0.00017405,-0.18268,-0.0002396,0.00013225,-0.00013569,-0.00014368,-0.00016124,-0.00015847,4.7235e-05,3.4284e-05,-0.00016866,-0.00040986,-0.00022174,-0.00011501,-9.896e-05,-0.00020826,1.3567e-05,1.7607e-06,1.4451e-05,3.0027e-05,-0.0016398,-0.00017926,-0.00026106,2.2441e-05,-0.00019562,-1.9758e-05,-0.00030791,-0.00020096,-0.00015109,-0.00014045,-0.00012496,4.5751e-06,-6.8778e-05,-0.00014554,-2.081e-05,-3.6383e-05,-0.0007948,-8.2337e-05,1.2383e-05,-0.00030536,-2.1442e-05,-5.5002e-05,2.2924e-05,-0.0019784,-5.5398e-05,-0.21397,-0.00021124,-0.0002206
-1.9161e-05,-2.7424e-05,-4.3631e-05,-0.00015419,-7.9775e-06,-7.6985e-06,-1.5128e-06,6.8305e-06,-8.1348e-05,-1.2822e-05,-1.0762e-05,-2.9606e-06,-3.4036e-05,-8.5244e-06,7.8657e-06,-1.2307e-05,-3.1869e-05,-1.1913e-05,1.1615e-05,1.7096e-06,-2.3996e-05,5.0199e-06,8.5245e-10,-1.0604e-05,-2.7419e-05,-8.7525e-06,1.8412e-06,-1.4311e-06,8.2953e-06,-6.9322e-07,-2.1339e-05,-2.9583e-05,-3.6105e-05,-1.2862e-05,-1.8554e-06,7.666e-06,-1.6139e-05,-2.6545e-05,-0.11713,-3.1229e-05,1.3462e-05,-2.0456e-05,-2.5383e-05,-2.1791e-05,-2.3534e-05,6.6958e-06,5.1852e-06,-3.0219e-05,-5.0268e-05,-2.9782e-05,-1.9422e-05,-1.3155e-05,-2.5239e-05,-3.025e-06,-4.6653e-06,-2.3685e-07,-4.9254e-07,-0.00014978,-2.7918e-05,-4.2231e-05,3.2689e-06,-2.9154e-05,-2.9908e-06,-4.3425e-05,-2.6471e-05,-2.0286e-05,-1.9882e-05,-2.0884e-05,-1.2506e-06,-1.2853e-05,-1.9981e-05,-1.0225e-05,-2.1144e-06,-0.00010068,-1.0817e-05,-3.6392e-06,-3.6579e-05,-4.0131e-06,-6.2189e-06,3.2881e-06,-0.00016641,-7.5122e-06,-0.21598,-3.3431e-05,-3.1703e-05
-1.0392e-05,-1.2312e-05,-2.0231e-05,-2.954e-05,3.9258e-07,1.2641e-05,1.077e-07,7.6573e-06,-1.2697e-05,-7.8479e-06,5.9904e-07,7.6238e-06,-4.7753e-06,-3.0427e-06,1.0005e-05,-2.9625e-06,-1.0369e-05,-5.4388e-06,1.5032e-05,4.7812e-06,-1.3703e-05,5.0374e-06,-3.7313e-06,1.1781e-09,-1.3832e-05,-2.2257e-06,3.2933e-06,7.3443e-06,1.1768e-05,7.9481e-06,-2.9556e-06,-1.7075e-06,-1.5343e-05,8.8189e-06,-6.6887e-07,1.5089e-05,-7.7923e-06,-8.0078e-06,-7.238e-05,-1.1702e-05,2.0815e-05,6.2937e-06,6.7673e-06,-9.9231e-07,-7.9128e-06,5.0449e-06,5.9106e-06,-1.1573e-05,-9.1075e-06,-2.9704e-06,-8.2521e-06,-6.7048e-06,2.0444e-06,2.3164e-06,1.2195e-06,2.0945e-06,3.8828e-06,-2.7107e-05,-1.0727e-05,-2.2273e-05,8.583e-06,-1.5847e-05,-2.0541e-07,-1.246e-05,-7.1431e-06,-1.0226e-05,-9.7969e-06,-1.0099e-05,1.2273e-05,-4.3463e-06,-1.0701e-05,-4.4159e-06,4.5644e-07,-2.5261e-05,-4.0191e-06,6.3386e-06,-1.3062e-05,-1.0118e-06,-3.0092e-06,4.1048e-06,-2.7702e-05,-1.4461e-06,-0.097969,-1.3095e-05,-1.2844e-05
-0.00013479,-0.00017375,-0.00030111,-0.0010055,-6.0142e-05,-1.8554e-05,-1.4937e-05,7.1293e-05,-0.00050823,-7.7646e-05,-6.3402e-05,1.0908e-05,-0.0001859,-3.7634e-05,8.6246e-05,-0.00010593,-0.00020659,-7.9388e-05,0.00010179,3.4487e-05,-0.00017904,4.2442e-05,-5.3563e-05,-4.3344e-05,1.1944e-09,-4.935e-05,2.3616e-05,1.8542e-05,7.1556e-05,-1.9075e-06,-0.00014271,-0.00019822,-0.0002546,-6.2038e-05,-5.8596e-06,0.0001066,-0.00010204,-0.0001427,-0.036417,-0.00021551,0.00013694,-9.8121e-05,-0.00013487,-0.00011794,-0.00015402,5.1105e-05,3.9487e-05,-0.00020616,-0.00029614,-0.00021784,-0.00010861,-7.6234e-05,-0.00018059,-1.4662e-05,-2.8536e-05,1.2308e-05,-1.8812e-07,-0.00091472,-0.00016509,-0.00028869,3.8218e-05,-0.00021146,-2.6222e-05,-0.0002721,-0.00018229,-0.00013837,-0.00012644,-0.00013922,1.032e-05,-7.4714e-05,-0.00013561,-5.9161e-05,-2.3047e-05,-0.00063835,-7.4098e-05,1.6157e-05,-0.00022616,-2.3471e-05,-5.0448e-05,1.5036e-05,-0.0010864,-5.4421e-05,-0.1709,-0.00021206,-0.00021614
-1.4399e-05,-1.8897e-05,-2.9778e-05,-7.0669e-05,-5.8728e-06,-3.7947e-06,-1.8121e-06,5.7025e-06,-4.2278e-05,-8.8864e-06,-6.664e-06,-9.6137e-07,-2.0071e-05,-5.7518e-06,6.0865e-06,-1.0143e-05,-2.1375e-05,-8.3608e-06,8.8164e-06,1.2865e-06,-1.7978e-05,3.6995e-06,-5.5349e-06,-4.8013e-06,-1.8255e-05,8.2101e-10,1.2162e-06,1.2306e-07,7.0528e-06,2.6621e-07,-1.3898e-05,-1.8375e-05,-2.4818e-05,-5.5323e-06,-8.4968e-07,6.9004e-06,-1.119e-05,-1.7409e-05,-0.023492,-2.0856e-05,1.0613e-05,-1.259e-05,-1.5482e-05,-1.3599e-05,-1.5399e-05,4.3586e-06,4.0544e-06,-2.0844e-05,-2.8369e-05,-1.8882e-05,-1.3398e-05,-9.4441e-06,-1.4868e-05,-2.7275e-06,-3.8437e-06,-4.9079e-08,-5.3603e-07,-6.6229e-05,-1.8329e-05,-2.8827e-05,3.0248e-06,-2.2172e-05,-2.6621e-06,-2.7263e-05,-1.8215e-05,-1.4471e-05,-1.3929e-05,-1.5162e-05,9.1431e-07,-8.9076e-06,-1.3736e-05,-6.8606e-06,-1.8753e-06,-5.1586e-05,-7.7562e-06,-1.3083e-06,-2.3123e-05,-3.2352e-06,-5.9125e-06,1.941e-06,-7.1095e-05,-5.2119e-06,-0.2103,-2.1984e-05,-2.1784e-05
-1.4891e-05,-1.9816e-05,-3.3677e-05,-7.9667e-05,-6.5695e-06,-5.8767e-06,4.1813e-07,5.4768e-06,-4.6089e-05,-8.5231e-06,-7.8227e-06,-3.3131e-06,-2.1848e-05,-7.0162e-06,6.6277e-06,-1.015e-05,-2.521e-05,-8.3365e-06,7.1271e-06,2.4091e-07,-1.9106e-05,2.3793e-06,-5.5823e-06,-7.4281e-06,-1.9372e-05,-6.5637e-06,1.1234e-09,-2.3179e-06,5.1327e-06,-1.8613e-06,-1.7706e-05,-2.2446e-05,-2.9098e-05,-9.6042e-06,-6.148e-07,5.7303e-06,-1.2398e-05,-1.9849e-05,-0.047699,-2.3671e-05,8.4128e-06,-1.4797e-05,-1.9454e-05,-1.6189e-05,-1.7767e-05,4.9381e-06,3.6818e-06,-2.4065e-05,-3.1694e-05,-2.3696e-05,-1.4915e-05,-9.4842e-06,-2.3697e-05,-2.5447e-06,-3.665e-06,-2.0974e-07,-1.8508e-06,-7.4295e-05,-2.1207e-05,-3.1499e-05,2.5942e-06,-2.3692e-05,-3.1538e-06,-3.0396e-05,-2.037e-05,-1.517e-05,-1.2963e-05,-1.6678e-05,-1.0859e-06,-1.0227e-05,-1.3741e-05,-8.6314e-06,-1.6668e-06,-5.996e-05,-7.9835e-06,-3.4402e-06,-2.6049e-05,-2.8901e-06,-5.56e-06,1.8333e-06,-8.6793e-05,-5.3011e-06,-0.23328,-2.461e-05,-2.4087e-05
-9.2654e-05,-0.00011767,-0.00017131,-0.00033681,-1.7569e-05,4.6603e-05,-1.3337e-05,3.9935e-05,-0.00015003,-5.7604e-05,-2.1076e-05,0.00010826,-7.8983e-05,-3.0458e-05,6.5046e-05,-2.8665e-05,-0.00010407,-5.3956e-05,9.6303e-05,1.7613e-05,-0.0001181,3.3155e-05,-2.9778e-05,2.1356e-05,-0.00010556,-2.7249e-05,1.1754e-05,9.1867e-10,8.9646e-05,4.7517e-05,-4.4784e-05,-6.2494e-05,-0.00011865,2.961e-05,-5.6321e-06,0.00017237,-5.4831e-05,-6.8658e-05,-0.0011457,-0.00011086,0.00021729,3.8216e-06,-2.0776e-05,-3.844e-05,-7.807e-05,4.1349e-05,3.2227e-05,-0.00010582,-0.00011716,-7.8593e-05,-8.2633e-05,-5.8095e-05,-1.5108e-05,-8.3827e-06,-1.8642e-05,4.5804e-06,1.8438e-05,-0.00030471,-0.00010291,-0.00019466,4.8965e-05,-0.00013906,-5.6743e-06,-0.00013739,-7.8117e-05,-8.4356e-05,-9.3171e-05,-8.8729e-05,4.9777e-05,-4.2792e-05,-9.5742e-05,-4.5201e-05,-7.6262e-06,-0.00019476,-4.246e-05,3.7687e-05,-0.00011527,-9.6507e-06,-3.1274e-05,2.2555e-05,-0.00029831,-2.8813e-05,-0.14289,-0.00011805,-0.00011015
-0.00010867,-0.00014799,-0.00022859,-0.00072394,-3.2563e-05,-6.8459e-06,-1.4628e-05,3.4182e-05,-0.00037401,-7.8264e-05,-4.5126e-05,1.9734e-05,-0.00016016,-4.8413e-05,5.6272e-05,-5.6198e-05,-0.00015653,-7.4202e-05,9.2835e-05,1.4882e-05,-0.00013599,3.0804e-05,-4.3509e-05,-1.9261e-05,-0.00015324,-4.0489e-05,5.7552e-06,2.6392e-05,8.3169e-10,1.2889e-05,-7.7041e-05,-0.00012489,-0.00016596,-2.108e-05,-1.7836e-05,8.7897e-05,-8.2068e-05,-0.00012051,-0.032213,-0.00011935,0.00012761,-9.4501e-05,-0.00010266,-8.7994e-05,-8.4975e-05,4.1983e-05,2.8188e-05,-0.00011117,-0.00023611,-0.00013842,-0.00010744,-7.7678e-05,-8.0638e-05,-1.3531e-05,-2.179e-05,-1.6576e-06,7.6782e-06,-0.00072687,-0.00014788,-0.00020726,2.8736e-05,-0.00016839,-1.0096e-05,-0.00022421,-0.00012907,-0.00010146,-0.0001097,-0.00011527,1.2152e-05,-7.0629e-05,-0.00010943,-5.9259e-05,-1.6739e-05,-0.00045102,-6.2413e-05,2.1771e-05,-0.00017867,-1.7575e-05,-4.6327e-05,1.6039e-05,-0.00072868,-3.4237e-05,-0.14681,-0.00016595,-0.00015106
-0.00014603,-0.00017591,-0.00027539,-0.00048629,-9.033e-06,0.00011777,-5.951e-06,7.5749e-05,-0.00011577,-8.1792e-05,-2.4826e-05,9.0751e-05,-0.00010415,-5.1922e-05,0.00010794,-5.157e-05,-0.00016736,-8.5987e-05,0.00016006,2.8591e-05,-0.00018103,3.8562e-05,-3.8958e-05,3.8057e-05,-0.00018757,-3.9582e-05,2.4633e-05,7.1246e-05,0.00011717,1.206e-09,-7.3118e-05,-9.5174e-05,-0.00019427,1.368e-05,-4.1073e-06,0.00016495,-0.00010054,-0.00011989,-0.00074438,-0.00018114,0.00024245,2.8014e-05,0.00011412,-5.7899e-05,-0.00012034,6.0908e-05,5.9252e-05,-0.00018661,-0.00013054,-6.9425e-05,-0.0001325,-0.00010124,6.5732e-05,9.7357e-06,-7.8496e-06,1.2821e-05,2.0662e-05,-0.00041433,-0.00014819,-0.00030738,8.9111e-05,-0.00021201,-1.5145e-05,-0.00021675,-0.00014507,-0.00013655,-0.00011748,-0.00014076,9.3798e-05,-6.3579e-05,-0.00013984,-6.9977e-05,-8.4879e-06,-0.00030239,-7.0014e-05,3.6895e-05,-0.00017853,-1.9667e-05,-4.7236e-05,4.1946e-05,-0.00042956,-3.1889e-05,-0.1304,-0.00019709,-0.00019114
-1.1327e-05,-1.4759e-05,-2.1479e-05,-4.2601e-05,-1.3249e-06,5.256e-06,-1.4023e-06,4.5095e-06,-2.7607e-05,-9.1719e-06,-2.9902e-06,5.0738e-06,-1.2536e-05,-4.1501e-06,5.5637e-06,-3.8036e-06,-1.1169e-05,-7.275e-06,1.5198e-05,2.4025e-06,-1.3956e-05,3.6875e-06,-3.8106e-06,2.8349e-06,-1.5144e-05,-3.7487e-06,7.1879e-07,5.3272e-06,1.1087e-05,4.8916e-06,1.1379e-09,-1.0256e-05,-1.2359e-05,2.2895e-06,-1.7199e-06,1.0861e-05,-7.7071e-06,-9.8084e-06,-0.00012564,-1.2811e-05,1.6337e-05,-2.0961e-06,-2.357e-06,-6.4239e-06,-9.1879e-06,4.3572e-06,3.404e-06,-1.2441e-05,-1.9927e-05,-7.1523e-06,-1.0914e-05,-9.4254e-06,-8.6516e-07,1.2871e-07,-1.0383e-06,2.075e-06,4.0255e-06,-4.2295e-05,-1.2897e-05,-2.3487e-05,4.7298e-06,-1.6559e-05,-7.2153e-07,-2.0444e-05,-1.0522e-05,-9.6944e-06,-1.1683e-05,-1.1149e-05,5.0602e-06,-4.7712e-06,-1.1991e-05,-5.8827e-06,-9.2008e-07,-2.7863e-05,-6.2355e-06,5.5991e-06,-1.6062e-05,-1.8532e-06,-4.4385e-06,2.7553e-06,-3.9192e-05,-2.3977e-06,-0.1613,-1.3518e-05,-1.3485e-05
-0.0001036,-0.00013415,-0.00020672,-0.00034803,-8.7416e-06,0.00010822,2.0718e-06,5.6814e-05,-0.0001202,-8.2484e-05,-1.7177e-05,9.6917e-05,-8.014e-05,-2.0459e-05,0.00010305,-3.3204e-05,-9.7556e-05,-5.4574e-05,0.00015927,5.5828e-05,-0.0001543,7.0469e-05,-3.6501e-05,0.00011188,-0.00015437,-2.9287e-05,2.4569e-05,9.1157e-05,0.0001356,9.2061e-05,-5.5653e-05,1.0255e-09,-0.00017104,6.3599e-05,-1.9599e-05,0.00018888,-8.0901e-05,-8.5879e-05,-0.00080223,-0.00014436,0.0002368,5.6439e-05,8.058e-05,-1.7603e-05,-8.8068e-05,6.0622e-05,5.5052e-05,-0.00011295,-9.324e-05,-3.6413e-05,-8.0091e-05,-7.058e-05,1.6808e-05,3.0165e-05,1.3667e-05,2.787e-05,4.56e-05,-0.00036047,-0.00010365,-0.00022115,7.9974e-05,-0.00014877,3.8259e-06,-0.00013678,-9.3004e-05,-0.00010412,-0.00010704,-9.039e-05,0.00010624,-4.4167e-05,-0.00011632,-3.6161e-05,-1.2583e-05,-0.00024974,-5.1555e-05,7.7661e-05,-0.00016647,-9.8185e-06,-2.9186e-05,3.8212e-05,-0.00033039,-2.2823e-05,-0.13203,-0.00012402,-0.00013969
-7.918e-05,-0.00010054,-0.00015002,-0.00031128,-1.1378e-05,4.499e-05,-8.6386e-06,3.4241e-05,-0.00015356,-5.6961e-05,-1.7122e-05,4.1399e-05,-7.6615e-05,-2.4379e-05,5.0433e-05,-2.1486e-05,-7.9265e-05,-4.7731e-05,9.8403e-05,2.3313e-05,-9.4929e-05,3.3647e-05,-2.3704e-05,1.2719e-05,-0.00010087,-2.5107e-05,7.761e-06,4.3267e-05,7.9802e-05,3.8056e-05,-2.0995e-05,-7.1277e-05,9.5467e-10,1.2009e-05,-8.3016e-06,8.5767e-05,-5.5852e-05,-6.6279e-05,-0.0028856,-8.9238e-05,0.00012867,2.0209e-06,-3.1207e-06,-4.0495e-05,-6.2491e-05,3.3433e-05,2.7047e-05,-8.7341e-05,-0.00011714,-5.6156e-05,-6.8395e-05,-5.7602e-05,-9.1298e-06,5.0259e-07,-6.8986e-06,9.8027e-06,1.979e-05,-0.00030027,-8.7338e-05,-0.00015895,3.8365e-05,-0.00011208,-3.454e-06,-0.00014408,-8.6583e-05,-7.4566e-05,-8.0679e-05,-7.3784e-05,3.7845e-05,-3.3953e-05,-8.8411e-05,-3.2977e-05,-6.015e-06,-0.00019768,-4.2153e-05,3.6124e-05,-0.00011292,-1.0461e-05,-2.868e-05,2.1258e-05,-0.00031168,-1.7307e-05,-0.15371,-9.4639e-05,-9.1349e-05
-1.3653e-05,-1.7564e-05,-2.471e-05,-4.3528e-05,-1.0331e-06,1.0189e-05,-1.0042e-06,5.3484e-06,-1.74e-05,-1.1231e-05,-2.2566e-06,9.6988e-06,-1.1629e-05,-5.6251e-06,7.4808e-06,-4.3713e-06,-1.3918e-05,-8.8165e-06,1.4665e-05,3.6585e-06,-1.6915e-05,5.1463e-06,-5.7006e-06,1.007e-05,-1.7386e-05,-3.1523e-06,1.527e-06,1.0173e-05,1.3508e-05,7.0397e-06,-4.0535e-06,-6.5895e-06,-1.69e-05,1.1953e-09,-1.9458e-06,1.5054e-05,-9.723e-06,-1.3257e-05,-0.00010598,-1.4721e-05,2.5571e-05,2.6378e-06,1.8639e-06,-4.4786e-06,-1.0038e-05,5.3974e-06,3.9282e-06,-1.3606e-05,-1.5453e-05,-4.4644e-06,-1.3072e-05,-1.0244e-05,3.5121e-06,-7.7034e-07,-1.523e-06,1.9015e-07,4.3866e-06,-4.0331e-05,-1.5505e-05,-2.8029e-05,8.5039e-06,-2.0666e-05,-6.0785e-07,-1.7364e-05,-8.7401e-06,-1.4109e-05,-1.4863e-05,-1.4165e-05,1.0527e-05,-6.1294e-06,-1.2443e-05,-7.8743e-06,-2.5559e-07,-3.4735e-05,-6.896e-06,3.6137e-06,-1.739e-05,-2.4542e-06,-5.9172e-06,2.9756e-06,-3.6422e-05,-3.9984e-06,-0.099162,-1.807e-05,-1.6933e-05
-1.0485e-05,-1.4101e-05,-2.2588e-05,-5.5297e-05,-4.5482e-06,-2.2254e-06,-7.9045e-07,4.7577e-06,-3.3377e-05,-2.9744e-06,-4.3725e-06,-2.7246e-06,-1.3672e-05,-6.2853e-06,4.3529e-06,-7.2035e-06,-1.7799e-05,-6.2388e-06,4.2192e-06,-1.2622e-06,-1.1728e-05,9.9471e-09,-3.442e-06,-5.4842e-06,-1.1992e-05,-3.7064e-06,1.2263e-06,-1.08e-06,3.0919e-06,-9.2151e-07,-1.1026e-05,-1.5108e-05,-1.7721e-05,-6.2624e-06,1.0625e-09,3.3875e-06,-7.7993e-06,-1.3843e-05,-0.11601,-1.493e-05,5.0259e-06,-1.2068e-05,-1.6756e-05,-1.0266e-05,-1.2451e-05,3.8087e-06,2.8222e-06,-1.8401e-05,-2.2127e-05,-1.5882e-05,-1.1026e-05,-5.7755e-06,-1.4549e-05,-3.3269e-06,-4.1544e-06,-2.1041e-07,-3.3483e-06,-4.5056e-05,-1.4432e-05,-2.2121e-05,1.8961e-06,-1.7459e-05,-1.8346e-06,-2.0508e-05,-1.3242e-05,-1.0053e-05,-9.5746e-06,-1.1965e-05,-6.8741e-07,-7.2805e-06,-8.8224e-06,-7.5992e-06,-4.1865e-07,-4.2465e-05,-4.7283e-06,-2.9135e-06,-1.3972e-05,-2.1594e-06,-3.4848e-06,1.2338e-06,-5.3804e-05,-3.9452e-06,-0.22622,-1.8379e-05,-1.5698e-05
-9.297e-05,-0.00010281,-0.00018533,-0.00030361,-1.8203e-05,5.3362e-05,-1.2148e-05,5.4286e-05,-0.00014163,-5.5208e-05,-1.8285e-05,0.00010165,-5.7445e-05,-1.884e-05,9.1689e-05,-4.6021e-05,-9.3533e-05,-4.6726e-05,0.00011589,3.2733e-05,-0.0001395,3.089e-05,-3.7362e-05,2.3335e-05,-0.00010586,-3.2325e-05,1.8825e-05,0.00011161,9.3369e-05,5.3358e-05,-5.7473e-05,-5.749e-05,-0.00013768,7.1103e-06,-6.2819e-06,8.7544e-10,-6.7513e-05,-5.8298e-05,-0.00066555,-0.00012889,0.0002158,9.7869e-06,-2.9207e-05,-3.3333e-05,-8.8182e-05,3.7108e-05,3.98e-05,-0.0001171,-8.2813e-05,-7.1943e-05,-7.4895e-05,-5.2349e-05,-6.1501e-05,5.7855e-06,-4.8123e-06,1.1188e-05,2.2629e-05,-0.00025317,-8.4883e-05,-0.00017985,5.0112e-05,-0.00013766,-1.0423e-05,-0.00013061,-9.0081e-05,-9.0258e-05,-7.6326e-05,-9.4126e-05,5.6905e-05,-3.5957e-05,-9.7131e-05,-3.6667e-05,-1.2754e-05,-0.00020778,-3.9652e-05,5.0426e-05,-0.00012065,-1.3072e-05,-2.7838e-05,2.1049e-05,-0.00028251,-3.419e-05,-0.14664,-0.00012855,-0.00011484
-1.2982e-05,-1.7807e-05,-3e-05,-8.967e-05,-5.1378e-06,-4.948e-06,-1.738e-06,5.5069e-06,-5.3858e-05,-8.4192e-06,-7.0485e-06,4.8727e-07,-1.9445e-05,-4.5425e-06,7.4373e-06,-7.1638e-06,-2.0074e-05,-7.5719e-06,1.1222e-05,1.9149e-06,-1.7667e-05,4.6914e-06,-5.1393e-06,-5.0368e-06,-1.78e-05,-5.4506e-06,1.3812e-06,1.6723e-06,7.77e-06,3.3207e-07,-1.293e-05,-1.8782e-05,-2.4772e-05,-6.2135e-06,-1.5552e-06,8.1447e-06,1.1661e-09,-1.5233e-05,-0.010782,-2.1644e-05,1.2138e-05,-1.1126e-05,-1.5668e-05,-1.4011e-05,-1.4515e-05,5.2449e-06,3.7234e-06,-1.9361e-05,-3.0785e-05,-2.067e-05,-1.1897e-05,-8.5355e-06,-1.5629e-05,-1.2489e-06,-2.5284e-06,1.0012e-06,1.544e-08,-8.9583e-05,-1.7871e-05,-2.5207e-05,3.225e-06,-2.0861e-05,-2.2356e-06,-2.6424e-05,-1.675e-05,-1.3335e-05,-1.2665e-05,-1.3686e-05,9.2291e-08,-8.277e-06,-1.367e-05,-5.699e-06,-1.5731e-06,-5.946e-05,-6.9725e-06,1.2342e-06,-2.2276e-05,-2.0577e-06,-5.2398e-06,2.4736e-06,-9.8262e-05,-3.6627e-06,-0.1783,-2.031e-05,-2.1208e-05
-7.0369e-05,-7.8066e-05,-0.0001463,-0.0002178,-1.358e-05,4.4382e-05,-9.0929e-06,4.943e-05,-9.5105e-05,-4.8523e-05,-1.5537e-05,5.0978e-05,-3.8766e-05,3.0513e-06,8.0571e-05,-4.5878e-05,-6.9579e-05,-3.519e-05,0.00010315,4.6655e-05,-0.00011668,4.994e-05,-2.7754e-05,2.007e-05,-8.9046e-05,-2.624e-05,1.7772e-05,4.5595e-05,7.9405e-05,3.8168e-05,-4.4484e-05,-6.6765e-05,-0.00012245,-7.2769e-06,-1.6033e-05,0.00011585,-4.9582e-05,9.3958e-10,-0.00044508,-0.00011015,0.00013742,1.8842e-05,3.0555e-05,-3.3482e-05,-6.304e-05,3.2355e-05,3.1494e-05,-8.1031e-05,-8.7964e-05,-6.5009e-05,-4.2216e-05,-3.8742e-05,-2.0701e-05,2.6014e-05,1.4786e-05,1.8337e-05,2.5598e-05,-0.00020424,-5.7181e-05,-0.00012438,3.9014e-05,-9.1722e-05,-7.1751e-06,-0.00010501,-7.9235e-05,-7.6954e-05,-6.5546e-05,-5.4015e-05,3.8403e-05,-1.6931e-05,-8.8106e-05,-1.0398e-05,-1.8272e-05,-0.00019305,-3.7847e-05,5.4992e-05,-0.00010342,-7.0477e-06,-2.2807e-05,1.9158e-05,-0.00022992,-1.8815e-05,-0.15228,-7.7488e-05,-0.00010158
-7.521e-06,-6.8552e-06,-1.219e-05,-4.3015e-06,2.4287e-06,1.8857e-05,-1.3019e-06,9.1898e-06,1.7951e-06,-2.3121e-06,5.1019e-06,1.0148e-05,1.0883e-05,4.493e-07,1.5398e-05,-3.6187e-06,-4.1367e-06,-3.8594e-06,2.1217e-05,7.1358e-06,-1.0588e-05,4.8478e-06,-2.1765e-06,1.298e-05,-7.281e-06,-7.1541e-07,3.4538e-06,1.0604e-05,1.1882e-05,1.2566e-05,4.4069e-07,1.4932e-06,-8.1581e-06,9.3643e-06,3.3381e-07,2.0644e-05,-3.5453e-06,2.1382e-06,1.29e-09,-9.2228e-06,2.4022e-05,1.3675e-05,1.1583e-05,4.798e-06,-3.6691e-06,5.531e-06,5.1344e-06,-8.1788e-06,2.1111e-06,1.8251e-06,-2.7429e-06,-1.7722e-06,6.6751e-06,5.1249e-06,3.6581e-06,3.9014e-06,2.0874e-06,-1.1907e-06,-1.5558e-06,-8.3358e-06,9.1311e-06,-9.1737e-06,-9.1503e-08,-4.363e-06,-4.1926e-06,-6.8511e-06,-5.8221e-06,-5.9855e-06,1.1859e-05,1.2514e-06,-9.3538e-06,-1.3004e-06,-6.597e-07,-6.7192e-06,-2.421e-06,1.1524e-05,-7.0193e-07,5.0921e-07,-1.2362e-06,3.2602e-06,-3.111e-06,-1.8022e-08,-0.090145,-4.8896e-06,-7.5981e-06
-3.1321e-05,-4.1857e-05,-6.4845e-05,-0.00014409,-7.6154e-06,3.9632e-06,-1.8736e-06,1.2151e-05,-7.6498e-05,-2.2936e-05,-1.1959e-05,8.7827e-06,-4.0207e-05,-1.1749e-05,1.6031e-05,-1.5834e-05,-4.1156e-05,-2.0843e-05,2.905e-05,6.1847e-06,-4.0992e-05,1.0802e-05,-1.1611e-05,1.3567e-06,-4.243e-05,-1.0868e-05,3.7558e-06,9.1838e-06,3.2239e-05,6.9646e-06,-1.9896e-05,-3.3287e-05,-4.4926e-05,-2.2438e-06,-3.5552e-06,2.4286e-05,-2.5249e-05,-3.296e-05,-0.0010673,1.2516e-09,3.8827e-05,-1.6529e-05,-1.6876e-05,-2.2795e-05,-2.5041e-05,1.3064e-05,9.4385e-06,-3.0385e-05,-5.5086e-05,-3.1232e-05,-2.9704e-05,-2.3115e-05,-1.7859e-05,-2.0066e-06,-4.6151e-06,1.7977e-06,5.2759e-06,-0.0001438,-3.9932e-05,-6.7595e-05,1.2317e-05,-4.7138e-05,-2.0011e-06,-5.9207e-05,-3.5288e-05,-3.0211e-05,-3.1974e-05,-3.183e-05,1.003e-05,-1.7786e-05,-3.1491e-05,-1.4738e-05,-2.9525e-06,-0.0001032,-1.825e-05,6.1476e-06,-5.2995e-05,-4.6193e-06,-1.2538e-05,6.0421e-06,-0.00014276,-9.3562e-06,-0.18099,-4.4298e-05,-3.9221e-05
-9.9223e-05,-0.00012148,-0.00019571,-0.00034159,-1.3575e-05,8.9468e-05,-1.0048e-05,5.1938e-05,-9.0674e-05,-6.4871e-05,-2.2385e-05,0.00013684,-7.7837e-05,-2.6464e-05,7.3214e-05,-2.2677e-05,-0.00010391,-4.8742e-05,0.00011203,2.756e-05,-0.00013966,4.0977e-05,-3.2284e-05,4.0805e-05,-0.00011898,-2.9458e-05,1.8188e-05,0.00013092,0.0001114,8.0396e-05,-4.1636e-05,-5.6514e-05,-0.00012246,4.8952e-05,-8.8583e-06,0.00019527,-6.7513e-05,-6.7149e-05,-0.00060844,-0.00011575,9.6678e-10,4.5373e-05,3.5475e-05,-2.8648e-05,-7.4602e-05,4.4711e-05,4.1383e-05,-0.00010687,-0.00010115,-4.8204e-05,-8.3705e-05,-6.6568e-05,1.1619e-05,-4.3727e-06,-1.7366e-05,7.9864e-06,3.6254e-05,-0.00029278,-0.0001031,-0.00021772,5.9418e-05,-0.00014226,1.1254e-06,-0.00014103,-8.6711e-05,-9.7187e-05,-9.311e-05,-8.8413e-05,7.6688e-05,-3.903e-05,-0.00010078,-4.5527e-05,-4.2959e-06,-0.00019221,-4.621e-05,5.3592e-05,-0.00012646,-1.1367e-05,-3.8133e-05,2.9396e-05,-0.00030066,-2.6452e-05,-0.13716,-0.00012969,-0.00011952
-7.2871e-06,-6.3886e-06,-1.369e-05,-1.9094e-05,-5.2118e-07,2.3187e-05,-7.3186e-07,4.2346e-06,4.0026e-06,-6.5453e-06,-9.2723e-07,9.941e-06,-1.6179e-06,7.9282e-07,7.4846e-06,-6.0573e-07,-4.313e-06,-2.7339e-06,1.22e-05,4.9749e-06,-1.205e-05,4.8881e-06,-2.601e-06,9.3296e-06,-8.854e-06,-2.7013e-06,2.1699e-06,7.9655e-06,7.8278e-06,9.6278e-06,-1.7954e-06,-8.0758e-07,-8.5054e-06,6.1424e-06,-2.7022e-06,1.4828e-05,-5.1694e-06,-2.0975e-06,-3.8298e-05,-9.8272e-06,2.2285e-05,1.1936e-09,2.7944e-05,1.4179e-06,-4.9103e-06,2.5317e-06,2.1364e-06,-6.0871e-06,1.5179e-06,7.6438e-06,-4.0388e-06,-5.03e-06,1.2366e-05,2.3653e-06,1.0092e-06,1.6439e-06,4.9423e-06,-1.831e-05,-5.0579e-06,-1.4138e-05,8.6332e-06,-8.9515e-06,-3.5023e-07,-7.7548e-06,-6.0747e-06,-7.6037e-06,-7.5412e-06,-4.8683e-06,1.4132e-05,-2.3705e-07,-9.7931e-06,-1.4598e-06,-1.5553e-06,-1.2279e-05,-4.0496e-06,7.5023e-06,-1.1032e-05,-1.2741e-06,-2.6941e-06,1.8677e-06,-1.8938e-05,-1.4295e-06,-0.11542,-6.3811e-06,-9.278e-06
-2.0221e-05,-1.4754e-05,-4.0288e-05,-6.2019e-05,3.7534e-06,9.2847e-05,-1.753e-06,1.1166e-05,0.00013683,-2.7235e-05,-1.6908e-06,4.746e-05,-5.5731e-06,1.1582e-05,2.7229e-05,-2.6656e-06,-4.8813e-06,-1.0535e-05,5.1708e-05,2.7714e-05,-4.7078e-05,2.4613e-05,-9.6232e-06,4.1859e-05,-3.2082e-05,-1.0879e-05,5.031e-06,2.504e-05,3.4801e-05,6.5859e-05,-1.7241e-06,8.1795e-06,-2.8016e-05,2.6114e-05,-1.7683e-05,4.4466e-05,-2.1213e-05,1.6133e-06,-0.00014334,-3.0299e-05,8.5292e-05,0.00011424,1.0191e-09,8.4447e-06,-3.0012e-06,1.2749e-05,1.0342e-05,-7.3903e-06,1.2034e-05,4.3333e-05,-7.0558e-06,-2.7451e-05,0.0041593,1.793e-05,1.3283e-05,9.346e-06,2.0992e-05,-7.1797e-05,-7.3976e-06,-5.9577e-05,3.741e-05,-2.8109e-05,6.1292e-06,-1.7877e-05,-2.0016e-05,-2.6442e-05,-2.3308e-05,-4.3812e-06,5.6926e-05,3.262e-06,-3.56e-05,-2.5859e-07,-7.6122e-06,-9.9708e-06,-1.7773e-05,3.427e-05,-3.3933e-05,-1.7498e-06,-1.5738e-05,8.4779e-06,-7.2701e-05,2.9712e-07,-0.14942,-9.9726e-06,-2.4236e-05
-7.501e-05,-8.8983e-05,-0.00014112,-0.00021231,-1.3134e-05,4.6468e-05,-1.1946e-05,4.7859e-05,-8.7317e-05,-4.2658e-05,-1.4592e-05,5.5636e-05,-3.8517e-05,-2.0293e-05,7.0956e-05,-3.9672e-05,-7.6666e-05,-4.2633e-05,7.8168e-05,2.5872e-05,-0.00010987,2.9539e-05,-2.9125e-05,4.135e-05,-9.0061e-05,-2.5106e-05,1.3034e-05,4.4294e-05,7.2339e-05,4.5901e-05,-4.0513e-05,-4.1833e-05,-0.00010891,1.9674e-05,-7.3834e-06,0.00010202,-6.0445e-05,-5.3974e-05,-0.0004321,-9.7697e-05,0.00013213,2.4156e-05,1.9805e-05,9.0249e-10,-6.2353e-05,3.2104e-05,3.0009e-05,-8.4899e-05,-7.6855e-05,-5.5904e-05,-5.6373e-05,-4.0802e-05,-1.0585e-05,8.2192e-06,-1.0196e-06,8.6357e-06,9.0953e-06,-0.00018527,-6.4458e-05,-0.00014691,4.3227e-05,-0.00010877,-6.6884e-06,-9.5894e-05,-7.4799e-05,-7.1886e-05,-6.2531e-05,-6.6873e-05,4.5616e-05,-2.6286e-05,-7.8473e-05,-2.6098e-05,-9.6916e-06,-0.00017579,-3.4652e-05,5.3564e-05,-8.2507e-05,-1.1175e-05,-2.9605e-05,1.4064e-05,-0.00020256,-2.6105e-05,-0.14697,-9.0115e-05,-9.9756e-05
-7.4039e-05,-8.4938e-05,-0.00015688,-0.00038447,-1.5573e-05,2.6313e-05,-3.617e-06,4.5249e-05,-0.0001807,-5.1518e-05,-1.9277e-05,4.1689e-05,-7.5386e-05,-1.1338e-05,6.2458e-05,-3.9436e-05,-8.1817e-05,-3.897e-05,8.8135e-05,4.1177e-05,-0.00010693,4.4881e-05,-2.856e-05,2.013e-05,-0.00010499,-2.3713e-05,1.5813e-05,3.354e-05,9.3903e-05,3.5135e-05,-4.6494e-05,-7.0877e-05,-0.00011899,7.6638e-06,-1.7195e-05,8.428e-05,-5.3218e-05,-6.2073e-05,-0.0074937,-9.3113e-05,0.00012707,-8.2085e-06,1.9902e-05,-4.2638e-05,1.2923e-09,3.88e-05,3.3124e-05,-5.804e-05,-0.00012688,-6.847e-05,-5.5956e-05,-4.4233e-05,-4.587e-05,1.1842e-05,1.2286e-06,1.4822e-05,2.5376e-05,-0.00039005,-7.461e-05,-0.00015326,4.0625e-05,-0.00010565,-2.2697e-06,-0.0001322,-9.0515e-05,-7.3385e-05,-6.7347e-05,-6.4411e-05,3.555e-05,-2.8774e-05,-8.3745e-05,-1.9545e-05,-1.4796e-05,-0.00026137,-4.0983e-05,4.5235e-05,-0.00012294,-1.3209e-06,-3.0984e-05,1.8182e-05,-0.00042449,-1.3392e-05,-0.17326,-9.4702e-05,-0.0001022
-2.9164e-05,-3.9925e-05,-6.6365e-05,-0.00024726,-1.2929e-05,-1.4748e-05,-3.1099e-06,1.0163e-05,-0.00014772,-1.6366e-05,-1.6992e-05,-8.0916e-06,-5.1845e-05,-1.3786e-05,1.0464e-05,-2.0282e-05,-5.197e-05,-1.8223e-05,1.3648e-05,-2.8656e-07,-3.4887e-05,5.4557e-06,-1.0385e-05,-1.8373e-05,-3.9044e-05,-1.3053e-05,2.7695e-06,-3.9696e-06,1.2502e-05,-4.6543e-06,-3.3842e-05,-4.6098e-05,-5.605e-05,-1.9415e-05,-4.6954e-07,8.601e-06,-2.2626e-05,-4.2935e-05,-0.14949,-4.4954e-05,1.6064e-05,-3.9685e-05,-4.4077e-05,-3.3494e-05,-3.3923e-05,8.9635e-10,7.1077e-06,-4.5578e-05,-7.7566e-05,-5.0742e-05,-3.0822e-05,-1.9584e-05,-4.1689e-05,-6.3669e-06,-8.7606e-06,-9.6796e-07,-5.335e-06,-0.00023918,-4.323e-05,-6.1136e-05,5.5802e-06,-4.8102e-05,-1.5134e-06,-6.7607e-05,-4.213e-05,-2.9762e-05,-2.8178e-05,-3.1952e-05,-3.2142e-06,-2.0802e-05,-2.7129e-05,-1.6382e-05,-2.9504e-06,-0.00015426,-1.591e-05,-7.76e-06,-5.3295e-05,-2.7805e-06,-1.1489e-05,3.0784e-06,-0.0002769,-1.0818e-05,-0.16821,-5.2348e-05,-4.7327e-05
-1.2131e-05,-1.621e-05,-2.7376e-05,-6.5406e-05,-5.2554e-06,-4.0417e-06,-1.1362e-06,5.0871e-06,-3.8601e-05,-6.6173e-06,-5.5711e-06,-1.6945e-06,-1.8108e-05,-5.803e-06,5.4369e-06,-7.9533e-06,-1.9545e-05,-5.679e-06,6.6494e-06,4.3829e-07,-1.4731e-05,1.8553e-06,-4.3465e-06,-5.432e-06,-1.6377e-05,-4.7852e-06,1.1778e-06,-1.2777e-06,4.8194e-06,-6.8176e-07,-1.352e-05,-1.7351e-05,-2.2585e-05,-7.6573e-06,-2.6634e-07,5.2119e-06,-9.9112e-06,-1.6308e-05,-0.061527,-1.9048e-05,7.5097e-06,-1.4023e-05,-1.5677e-05,-1.262e-05,-1.401e-05,4.0922e-06,1.0747e-09,-1.96e-05,-2.661e-05,-1.8558e-05,-1.2312e-05,-7.6914e-06,-1.4986e-05,-2.5893e-06,-3.4668e-06,7.0252e-08,-1.2895e-06,-6.1447e-05,-1.6941e-05,-2.5604e-05,2.2103e-06,-1.9162e-05,-2.4099e-06,-2.4337e-05,-1.613e-05,-1.1851e-05,-1.163e-05,-1.3576e-05,-5.0852e-07,-8.5158e-06,-1.1594e-05,-7.0539e-06,5.6273e-07,-4.9247e-05,-4.8783e-06,-2.3835e-06,-1.9263e-05,-2.3578e-06,-4.7269e-06,2.8127e-06,-6.7439e-05,-3.7767e-06,-0.24074,-2.0347e-05,-1.9409e-05
-7.9182e-05,-9.7771e-05,-0.00017464,-0.00047835,-2.4452e-05,-6.9164e-06,-7.5069e-06,2.4504e-05,-0.00024087,-9.2373e-05,-4.2793e-05,4.4747e-05,-0.00012646,3.2393e-07,5.6195e-05,-4.7646e-05,-8.281e-05,-4.7207e-05,0.00010633,5.5869e-05,-0.00013533,7.179e-05,-3.899e-05,9.9905e-06,-0.00013844,-3.8884e-05,7.4576e-06,3.1678e-05,0.00011077,1.781e-05,-6.3774e-05,-8.7533e-05,-0.00015268,1.0011e-06,-4.6108e-05,9.1098e-05,-7.2092e-05,-7.6557e-05,-0.014679,-0.00010462,0.00013873,-1.0118e-05,2.0457e-05,-6.0615e-05,-4.8037e-05,3.4239e-05,2.4168e-05,1.4424e-09,-0.00017258,-8.6822e-05,-6.1202e-05,-6.3507e-05,-6.4054e-05,2.634e-05,1.7495e-05,1.5754e-05,4.5085e-05,-0.0005831,-9.0588e-05,-0.0001502,3.7524e-05,-0.00010887,-1.5067e-06,-0.00016374,-0.00010935,-9.3786e-05,-8.8499e-05,-6.3395e-05,2.982e-05,-3.2565e-05,-0.00010278,-8.359e-06,-2.6133e-05,-0.00035039,-5.8634e-05,5.211e-05,-0.00018579,-9.775e-06,-4.1224e-05,1.582e-05,-0.00056351,-2.614e-05,-0.18399,-0.00010028,-0.00011111
-5.4813e-06,-5.1487e-06,-1.182e-05,-1.5336e-05,-1.6842e-07,1.2773e-05,-3.9248e-07,4.8493e-06,-4.4568e-07,-3.5936e-06,-6.8304e-07,6.8678e-06,-4.8342e-07,-2.8254e-07,7.652e-06,-3.0215e-06,-4.7818e-06,-2.8027e-06,9.781e-06,3.3807e-06,-9.7289e-06,3.5186e-06,-2.3453e-06,5.9257e-06,-6.9148e-06,-1.4119e-06,2.4196e-06,5.2086e-06,7.1135e-06,7.5868e-06,-4.0438e-06,-1.0938e-06,-9.0244e-06,3.319e-06,-6.2683e-07,1.3409e-05,-4.2685e-06,-2.46e-06,-3.1517e-05,-7.8481e-06,1.4741e-05,9.5984e-06,9.8742e-06,-2.24e-08,-4.6046e-06,3.3307e-06,3.3042e-06,-6.6777e-06,1.0823e-09,1.8693e-07,-3.1947e-06,-3.1349e-06,2.9718e-06,1.725e-06,7.6136e-07,1.1367e-06,1.6849e-06,-1.3093e-05,-3.9599e-06,-1.261e-05,7.0403e-06,-8.2011e-06,-4.5043e-07,-6.0636e-06,-5.8837e-06,-5.7558e-06,-4.2332e-06,-5.2247e-06,8.669e-06,-7.3737e-07,-6.1866e-06,-1.5107e-06,-1.0863e-06,-1.056e-05,-2.502e-06,5.191e-06,-7.4032e-06,-2.8904e-07,-1.656e-06,2.0325e-06,-1.3935e-05,-1.0801e-06,-0.15461,-5.9438e-06,-7.8163e-06
-9.6104e-06,-1.0865e-05,-1.6421e-05,-2.9366e-05,4.3689e-07,1.7027e-05,-6.1719e-07,3.4952e-06,-7.2649e-06,-9.1399e-06,-1.953e-06,5.0167e-06,-8.1562e-06,-3.1562e-06,4.1935e-06,-1.0051e-06,-9.551e-06,-5.3894e-06,1.1996e-05,2.9131e-06,-1.1308e-05,4.481e-06,-2.975e-06,5.8435e-06,-1.2727e-05,-2.9274e-06,6.3911e-07,4.2474e-06,8.2832e-06,7.5585e-06,-2.3996e-06,-3.6186e-06,-1.1196e-05,5.0862e-06,-2.4415e-06,1.1086e-05,-7.3086e-06,-7.0178e-06,-6.5947e-05,-1.0425e-05,1.6965e-05,1.2055e-05,1.4944e-05,-3.8191e-06,-6.6007e-06,3.0509e-06,2.685e-06,-8.5554e-06,-6.2841e-06,9.9403e-10,-7.9121e-06,-8.5471e-06,9.1914e-06,1.2251e-06,1.701e-07,8.839e-07,4.0972e-06,-3.1781e-05,-9.8067e-06,-1.9655e-05,7.328e-06,-1.307e-05,-2.75e-07,-1.4046e-05,-7.5677e-06,-8.6254e-06,-1.1143e-05,-7.4238e-06,1.3053e-05,-3.0563e-06,-1.0288e-05,-4.9098e-06,-1.3062e-08,-1.8258e-05,-5.42e-06,2.8631e-06,-1.4292e-05,-2.2599e-06,-3.4528e-06,2.7239e-06,-2.7852e-05,-1.5854e-06,-0.14992,-1.0702e-05,-1.1645e-05
-0.00010388,-0.00013346,-0.00026785,-0.00070049,-4.5503e-05,-2.3425e-05,-1.4888e-05,6.7612e-05,-0.00038315,-7.8978e-05,-6.7216e-05,2.5476e-05,-0.00014498,1.8608e-06,9.3471e-05,-9.452e-05,-0.00013781,-5.1668e-05,0.00010982,6.1092e-05,-0.00017301,7.1458e-05,-4.6833e-05,-1.8631e-05,-0.00015706,-4.6967e-05,2.0549e-05,6.7944e-06,7.9138e-05,4.2751e-06,-0.00013419,-0.00015308,-0.00024438,-5.9836e-05,-3.3403e-05,0.00010303,-9.1579e-05,-0.00010887,-0.01639,-0.00020572,0.0001376,-5.3543e-05,-4.4093e-05,-0.00010157,-0.00012596,4.0672e-05,4.0652e-05,-0.00014906,-0.00023788,-0.00018067,1.5036e-09,-6.1186e-05,-0.00016797,2.0812e-05,6.711e-06,3.5934e-05,9.4534e-06,-0.00072277,-0.00011501,-0.00021889,4.0199e-05,-0.00015172,-1.767e-05,-0.00021583,-0.00017266,-0.00011988,-9.765e-05,-8.5621e-05,1.5645e-05,-3.9056e-05,-0.00013872,-1.7643e-05,-3.1625e-05,-0.00047313,-6.5444e-05,4.8737e-05,-0.00023002,-1.7297e-05,-4.125e-05,1.788e-05,-0.00092866,-4.2744e-05,-0.20219,-0.00013585,-0.00018346
-1.1698e-05,-1.4685e-05,-2.8844e-05,-5.5966e-05,-5.1114e-06,-1.3188e-06,-9.0667e-07,9.4933e-06,-3.2446e-05,-5.2074e-06,-5.3847e-06,1.3798e-06,-1.2694e-05,-2.911e-06,1.0418e-05,-9.966e-06,-1.7557e-05,-5.8021e-06,1.0523e-05,4.2517e-06,-1.8118e-05,4.851e-06,-4.3051e-06,-2.6048e-06,-1.6103e-05,-4.7238e-06,3.1506e-06,1.6024e-06,7.9631e-06,8.205e-07,-1.4522e-05,-1.5854e-05,-2.5131e-05,-5.695e-06,2.3532e-07,1.0827e-05,-9.6757e-06,-1.2708e-05,-0.0031857,-2.1207e-05,1.3032e-05,-7.9132e-06,-1.2791e-05,-9.7612e-06,-1.3572e-05,5.6632e-06,5.4861e-06,-1.8737e-05,-2.3009e-05,-2.0296e-05,-9.6336e-06,1.1194e-09,-1.7268e-05,-1.6546e-07,-1.6946e-06,2.1947e-06,-6.2004e-07,-4.8803e-05,-1.2697e-05,-2.4413e-05,4.774e-06,-1.8048e-05,-2.2242e-06,-2.1871e-05,-1.7547e-05,-1.3054e-05,-1.0952e-05,-1.2467e-05,1.7315e-06,-5.9225e-06,-1.3698e-05,-5.1334e-06,-1.8879e-06,-4.6152e-05,-5.6748e-06,2.5928e-06,-1.9223e-05,-1.3344e-06,-2.974e-06,2.6451e-06,-6.165e-05,-4.1246e-06,-0.2306,-1.8481e-05,-2.0017e-05
-2.3457e-05,-2.6817e-05,-4.0294e-05,-7.1387e-05,2.9592e-07,4.4925e-05,-5.7238e-06,5.4482e-06,2.938e-05,-2.4907e-05,-3.1952e-06,2.0143e-05,-2.0752e-05,-5.5731e-06,1.1343e-05,-1.3143e-06,-1.7827e-05,-1.8313e-05,3.9398e-05,7.5604e-06,-3.2595e-05,7.4799e-06,-8.6415e-06,1.7353e-05,-3.1904e-05,-7.7243e-06,-4.6066e-06,1.9275e-05,2.688e-05,3.5379e-05,5.6698e-08,-6.8109e-06,-2.1289e-05,1.9727e-05,-9.2369e-06,2.2189e-05,-1.6448e-05,-1.3312e-05,-0.00014191,-2.3047e-05,5.058e-05,3.3358e-05,0.00057764,-3.752e-06,-1.8181e-05,8.6064e-06,6.6696e-06,-2.3629e-05,-1.4207e-05,1.4465e-05,-2.4519e-05,-2.5435e-05,7.5294e-10,1.0438e-06,-1.055e-07,-2.12e-06,9.5104e-06,-7.9219e-05,-2.5005e-05,-4.9116e-05,2.0898e-05,-3.7186e-05,6.9166e-07,-2.9543e-05,-1.1965e-05,-2.3434e-05,-2.7121e-05,-1.8729e-05,2.9214e-05,-9.9847e-06,-2.5385e-05,-1.1403e-05,-5.1839e-07,-2.8786e-05,-1.86e-05,6.0978e-06,-2.8397e-05,-6.5182e-06,-1.3459e-05,5.744e-06,-6.664e-05,-5.7753e-06,-0.11837,-2.5521e-05,-2.7192e-05
-0.0001094,-0.00014238,-0.00024748,-0.00070206,-2.6251e-05,-2.0466e-05,-1.3611e-06,5.5823e-05,-0.00038063,-9.2717e-05,-3.8456e-05,7.778e-06,-0.00015012,-1.427e-05,0.00011094,-7.8094e-05,-0.00015002,-6.0641e-05,0.00012262,6.1473e-05,-0.00016903,7.3192e-05,-4.3805e-05,-9.3397e-06,-0.00018114,-5.2976e-05,2.6928e-05,2.6152e-06,8.3217e-05,2.6789e-05,-0.0001154,-0.000148,-0.00024271,-5.1242e-05,-3.1584e-05,0.00010398,-9.8322e-05,-0.0001157,-0.025357,-0.00019986,0.00012746,-6.777e-05,-4.8813e-05,-0.00010415,-0.00013155,4.6904e-05,4.2241e-05,-0.00014545,-0.00026751,-0.00015679,-9.0223e-05,-7.87e-05,-0.00012561,1.3457e-09,5.7865e-05,1.9722e-05,2.7934e-05,-0.00076703,-0.00014359,-0.00018116,3.4649e-05,-0.0001595,-1.7832e-05,-0.00023114,-0.0001572,-0.00011852,-0.00010514,-0.00011094,2.8724e-05,-5.0713e-05,-0.00012936,-2.4543e-05,-2.4342e-05,-0.00064151,-6.7809e-05,2.5128e-05,-0.00021862,-1.549e-05,-3.2259e-05,2.6101e-05,-0.00090163,-3.5527e-05,-0.19569,-0.00016812,-0.00018269
-0.000107,-0.0001427,-0.00024276,-0.00071379,-2.4177e-05,-2.7344e-05,-8.979e-07,4.9884e-05,-0.00039046,-9.4199e-05,-3.6077e-05,4.8088e-06,-0.00015764,-1.357e-05,0.00010579,-7.7321e-05,-0.00014937,-5.9042e-05,0.00012058,5.9472e-05,-0.0001626,7.3715e-05,-4.2877e-05,-9.0821e-06,-0.00017897,-5.1307e-05,2.7025e-05,7.4657e-07,8.3244e-05,2.2411e-05,-0.00011483,-0.00015012,-0.00023653,-4.5042e-05,-3.2112e-05,0.00010031,-9.6981e-05,-0.00011822,-0.031901,-0.00019403,0.00012086,-7.5038e-05,-5.3708e-05,-0.00010513,-0.00013226,4.5552e-05,4.2513e-05,-0.00014027,-0.0002706,-0.00015662,-8.9842e-05,-7.9731e-05,-0.00011576,6.9461e-05,1.3289e-09,1.952e-05,3.0776e-05,-0.00080187,-0.00014607,-0.00018294,3.2765e-05,-0.00015664,-1.6567e-05,-0.00022922,-0.0001498,-0.0001166,-0.0001055,-0.00011101,2.9155e-05,-5.1426e-05,-0.00012341,-2.2708e-05,-2.0626e-05,-0.00063514,-6.6749e-05,2.0263e-05,-0.00021564,-1.6054e-05,-3.3194e-05,2.6799e-05,-0.00092341,-3.4038e-05,-0.19423,-0.00016507,-0.00017748
-0.00012993,-0.00018202,-0.00030793,-0.0012885,-4.4216e-05,1.2506e-06,-4.95e-06,9.3721e-05,-0.00068283,-8.3393e-05,-5.8892e-05,5.0981e-06,-0.00021542,-2.0952e-05,0.00010643,-9.9949e-05,-0.0001999,-5.7584e-05,0.00011995,5.125e-05,-0.00018869,6.8258e-05,-4.8601e-05,-3.4379e-05,-0.00018592,-5.1606e-05,2.8225e-05,7.341e-06,9.0627e-05,1.5505e-05,-0.00012533,-0.00019806,-0.00027234,-6.8467e-05,-1.019e-05,0.00010897,-0.00010205,-0.0001676,-0.10893,-0.00022491,0.00014743,-0.00012129,-0.00013842,-0.00013884,-0.00015356,5.8561e-05,5.5604e-05,-0.00019442,-0.00039271,-0.00021885,-9.5301e-05,-7.7484e-05,-0.00020676,9.853e-06,-4.0696e-06,9.4915e-10,1.1743e-05,-0.0012772,-0.00017122,-0.00028174,4.4699e-05,-0.00020521,-1.4199e-05,-0.00029784,-0.00019029,-0.00013879,-0.00012096,-0.00012545,1.9546e-05,-5.8259e-05,-0.00014882,-4.3992e-05,-1.6042e-05,-0.001093,-6.5593e-05,4.0421e-05,-0.00025177,-1.5295e-05,-4.4609e-05,3.2745e-05,-0.0016303,-4.2315e-05,-0.22362,-0.00019206,-0.00021377
-1.3374e-05,-1.8016e-05,-2.7996e-05,-8.4812e-05,-5.1322e-06,-5.314e-06,-1.1738e-06,1.0937e-06,-4.394e-05,-1.4119e-05,-8.6116e-06,9.8596e-07,-2.5801e-05,-3.088e-06,3.6708e-06,-6.8514e-06,-1.7826e-05,-8.327e-06,9.2694e-06,2.9797e-06,-1.7944e-05,6.3767e-06,-5.2076e-06,-4.2354e-06,-2.0206e-05,-6.1007e-06,7.1628e-07,8.2682e-07,8.1674e-06,-7.7931e-09,-1.1089e-05,-1.7808e-05,-2.4169e-05,-4.4244e-06,-5.6502e-06,8.959e-06,-1.1623e-05,-1.6328e-05,-0.060506,-2.0412e-05,1.3982e-05,-8.2919e-06,-1.0037e-05,-1.4826e-05,-1.4141e-05,2.9808e-06,3.2096e-06,-1.5466e-05,-3.2431e-05,-1.5786e-05,-1.3982e-05,-1.1594e-05,-1.2146e-05,-2.5804e-07,-1.1532e-06,-3.0608e-07,1.1714e-09,-0.00010051,-1.9391e-05,-2.6993e-05,2.1269e-06,-1.952e-05,-2.794e-06,-2.8545e-05,-1.5805e-05,-1.4299e-05,-1.4239e-05,-1.328e-05,1.8472e-06,-8.2746e-06,-1.4454e-05,-5.4894e-06,-2.1212e-06,-6.2871e-05,-9.3657e-06,-8.8536e-07,-3.0513e-05,-3.3896e-06,-6.8681e-06,2.2529e-06,-9.106e-05,-4.6691e-06,-0.17086,-2.0037e-05,-2.0676e-05
-5.9819e-06,-5.6164e-06,-1.1127e-05,-6.6136e-06,3.0357e-07,8.4156e-06,-5.3347e-07,7.222e-06,-1.8017e-06,-1.2337e-06,1.8812e-06,5.6665e-06,5.6702e-06,-2.8828e-07,1.0146e-05,-4.8803e-06,-4.9647e-06,-2.7683e-06,1.1057e-05,4.2996e-06,-8.838e-06,2.912e-06,-2.1739e-06,6.7466e-06,-6.0742e-06,-9.4898e-07,2.4208e-06,4.7675e-06,7.0183e-06,5.8052e-06,-2.4353e-06,-2.7832e-06,-8.5758e-06,3.6342e-06,9.2664e-07,1.2638e-05,-3.9544e-06,-5.2908e-07,-1.6032e-05,-8.0161e-06,1.3571e-05,4.4804e-06,2.6233e-06,1.6532e-06,-4.382e-06,3.2812e-06,3.6093e-06,-7.1885e-06,-1.9162e-06,-3.9797e-06,-2.7593e-06,-1.1056e-06,-1.9543e-06,2.7788e-06,1.6694e-06,2.2429e-06,7.185e-07,9.3159e-10,-2.348e-06,-6.566e-06,5.2251e-06,-7.7592e-06,-8.5004e-07,-5.4021e-06,-5.3861e-06,-5.5338e-06,-4.4226e-06,-4.9784e-06,5.3974e-06,1.568e-07,-6.5972e-06,-1.2791e-06,-1.0847e-06,-1.1059e-05,-2.0819e-06,5.6611e-06,-2.6816e-06,-2.1739e-07,-1.1957e-06,1.6304e-06,-6.2971e-06,-1.3316e-06,-0.14959,-5.3332e-06,-7.085e-06
-6.5576e-05,-6.9783e-05,-0.00015931,-0.00025213,-2.0785e-05,2.7798e-05,-6.4089e-06,7.2174e-05,-0.00013184,-3.7287e-05,-2.3553e-05,3.8327e-05,-4.9691e-05,1.0271e-05,7.9185e-05,-5.4861e-05,-6.5904e-05,-3.0245e-05,9.3341e-05,6.0463e-05,-0.00011322,5.5343e-05,-2.5043e-05,9.915e-06,-9.4024e-05,-2.2291e-05,1.9288e-05,2.5401e-05,6.7589e-05,3.2004e-05,-5.8423e-05,-6.9738e-05,-0.00013551,-1.1868e-05,-1.1822e-05,0.0001013,-5.5945e-05,-4.7006e-05,-0.00068991,-0.00011989,0.00011557,-9.6826e-07,1.5132e-05,-3.4882e-05,-6.4631e-05,3.8548e-05,3.6262e-05,-8.2827e-05,-9.9727e-05,-8.2471e-05,-3.6418e-05,-2.7381e-05,-5.4906e-05,1.9265e-05,7.6654e-06,2.4125e-05,1.6961e-05,-0.00023596,8.7769e-10,-0.00013583,4.0292e-05,-8.9152e-05,-7.5498e-06,-0.00010027,-8.9986e-05,-7.9934e-05,-5.4496e-05,-5.0227e-05,3.9009e-05,-1.145e-05,-8.3558e-05,1.1031e-06,-1.9198e-05,-0.00018385,-3.393e-05,5.1276e-05,-0.00011057,-4.2725e-06,-2.2106e-05,1.75e-05,-0.00029261,-1.5855e-05,-0.14907,-7.6851e-05,-0.00010516
-3.892e-06,-4.5931e-06,-7.3493e-06,-1.2236e-05,-1.6754e-06,-2.9502e-06,-7.1814e-07,1.1438e-06,-1.1965e-05,-3.3672e-06,-1.7844e-06,-1.0964e-06,-3.7328e-06,-6.4942e-07,2.1793e-06,-3.7788e-06,-5.0181e-06,-2.3658e-06,3.8238e-06,1.3963e-06,-5.6574e-06,1.7409e-06,-2.0801e-06,-1.7059e-06,-5.9444e-06,-2.0183e-06,-9.9303e-08,-6.5983e-07,2.0935e-06,-7.9407e-07,-4.3297e-06,-5.0476e-06,-7.6774e-06,-2.2421e-06,-1.6394e-06,2.2286e-06,-3.0155e-06,-3.5673e-06,-4.7925e-05,-6.8431e-06,2.4748e-06,-2.611e-06,-4.0762e-06,-3.804e-06,-4.5388e-06,7.478e-07,5.541e-07,-4.373e-06,-8.1232e-06,-6.0119e-06,-3.0742e-06,-2.5505e-06,-4.7609e-06,9.9985e-07,5.4083e-07,-2.5713e-08,2.3127e-07,-1.2497e-05,-4.4623e-06,1.3357e-09,2.106e-07,-4.8159e-06,-1.1022e-06,-6.8563e-06,-4.8358e-06,-4.0298e-06,-3.9811e-06,-3.5234e-06,-1.2882e-06,-1.9983e-06,-4.5515e-06,-9.6974e-07,-1.3407e-06,-1.4457e-05,-2.624e-06,-6.5247e-07,-6.4951e-06,-9.3652e-07,-1.4403e-06,1.1898e-07,-1.5398e-05,-1.9857e-06,-0.30877,-5.0978e-06,-5.8342e-06
-6.4908e-06,-7.4573e-06,-1.3017e-05,-2.7827e-05,-2.4375e-06,7.9568e-07,-4.8282e-07,2.3648e-06,-1.448e-05,-3.8465e-06,-3.2113e-06,-3.6067e-09,-8.0697e-06,-3.0906e-06,2.5559e-06,-3.9396e-06,-9.2667e-06,-3.8331e-06,3.5175e-06,1.1909e-07,-8.0845e-06,6.5541e-07,-2.6104e-06,-1.4174e-06,-8.3002e-06,-2.7199e-06,4.2512e-07,3.8842e-07,2.784e-06,8.5939e-07,-5.9752e-06,-7.539e-06,-1.0559e-05,-1.8651e-06,-5.1437e-07,3.3679e-06,-5.1724e-06,-7.7912e-06,-0.00014904,-8.969e-06,4.9924e-06,-2.9155e-06,-3.1606e-06,-5.416e-06,-6.7455e-06,2.1202e-06,1.4052e-06,-9.0732e-06,-9.6179e-06,-6.1531e-06,-6.3002e-06,-4.3628e-06,-3.7792e-06,-1.628e-06,-2.1839e-06,-3.9162e-07,-8.162e-07,-2.6654e-05,-8.379e-06,-1.3797e-05,1.0508e-09,-1.0484e-05,-1.199e-06,-1.1572e-05,-7.8881e-06,-6.3751e-06,-6.2229e-06,-6.6685e-06,1.6571e-06,-3.6721e-06,-6.2005e-06,-4.1808e-06,-6.3975e-07,-1.9564e-05,-3.5127e-06,-7.9549e-07,-9.7511e-06,-1.4078e-06,-2.9973e-06,7.3831e-07,-2.8812e-05,-2.2296e-06,-0.28095,-9.8532e-06,-9.5014e-06
-9.8232e-05,-0.00014082,-0.00025923,-0.00073844,-3.899e-05,-3.2944e-05,-7.515e-06,6.2355e-05,-0.00040581,-8.9131e-05,-6.3485e-05,2.7935e-05,-0.00016189,1.3386e-06,8.7502e-05,-7.9214e-05,-0.00013215,-4.618e-05,0.00012516,6.8926e-05,-0.00017564,8.6193e-05,-3.2884e-05,-2.1364e-05,-0.00017547,-4.9356e-05,2.3899e-05,1.1732e-05,9.2141e-05,1.5211e-05,-0.00011816,-0.0001442,-0.0002337,-5.0063e-05,-3.8737e-05,0.00010521,-9.6541e-05,-0.0001058,-0.019292,-0.00019779,0.00015146,-4.7169e-05,-5.2373e-05,-0.00010772,-0.00012253,4.6525e-05,4.7624e-05,-0.00013083,-0.00025907,-0.00017216,-7.1419e-05,-6.3234e-05,-0.0001538,3.4692e-05,2.1031e-05,2.5351e-05,3.791e-05,-0.00079677,-0.00011757,-0.00019975,3.5097e-05,1.4898e-09,-9.124e-06,-0.00021975,-0.00015884,-0.00012353,-0.00010457,-9.6404e-05,2.0782e-05,-3.8568e-05,-0.00013335,-6.985e-06,-2.505e-05,-0.00053231,-6.5814e-05,4.3882e-05,-0.00024794,-9.9265e-06,-3.1726e-05,2.8399e-05,-0.00091876,-3.675e-05,-0.20274,-0.00014851,-0.00018376
-1.9041e-05,-2.6784e-05,-4.3156e-05,-0.00015277,-8.2358e-06,-8.1227e-06,-2.0714e-06,6.2286e-06,-8.1712e-05,-1.37e-05,-1.1834e-05,-1.5687e-06,-3.5869e-05,-8.5679e-06,7.2342e-06,-1.2844e-05,-3.2216e-05,-1.1746e-05,1.1477e-05,1.384e-06,-2.6271e-05,5.8164e-06,-6.7746e-06,-9.4434e-06,-2.8114e-05,-8.6683e-06,1.5803e-06,-6.7394e-07,1.0801e-05,-1.6878e-06,-2.0739e-05,-2.8329e-05,-3.6172e-05,-1.0197e-05,-1.9335e-06,8.9465e-06,-1.6138e-05,-2.7035e-05,-0.10638,-2.975e-05,1.5772e-05,-2.0599e-05,-2.0376e-05,-2.1117e-05,-2.2158e-05,9.7662e-06,4.9215e-06,-2.7357e-05,-5.0526e-05,-2.9038e-05,-1.9635e-05,-1.4591e-05,-2.1973e-05,-3.3265e-06,-4.8959e-06,2.5301e-07,-1.0418e-06,-0.0001616,-2.9226e-05,-4.2051e-05,4.2053e-06,-3.0675e-05,8.0846e-10,-4.3751e-05,-2.7222e-05,-2.0117e-05,-2.0739e-05,-2.0315e-05,-3.6647e-07,-1.271e-05,-1.9629e-05,-1.0409e-05,-2.4536e-06,-0.00010174,-1.0812e-05,-2.986e-06,-3.9099e-05,-1.9957e-06,-7.8237e-06,3.4512e-06,-0.00018857,-7.3156e-06,-0.20328,-3.3336e-05,-3.1597e-05
-7.2188e-05,-7.7263e-05,-0.00017722,-0.00024838,-1.5471e-05,4.4223e-05,-1.1459e-05,6.4227e-05,-0.00012224,-4.7554e-05,-1.4735e-05,6.1516e-05,-3.3755e-05,-1.1732e-06,0.00010049,-5.6361e-05,-8.5591e-05,-3.7063e-05,0.00010868,5.3372e-05,-0.00013664,5.8247e-05,-3.403e-05,5.4839e-05,-0.0001102,-2.5525e-05,2.4717e-05,5.0035e-05,8.1372e-05,4.7674e-05,-6.7109e-05,-4.6813e-05,-0.00016134,2.9626e-05,-1.2593e-05,0.00012886,-5.7544e-05,-4.887e-05,-0.00064811,-0.00013195,0.00015798,2.7046e-05,4.3005e-05,-2.0681e-05,-7.6259e-05,3.7751e-05,4.4347e-05,-9.8374e-05,-8.2289e-05,-7.7916e-05,-4.7216e-05,-3.8095e-05,-2.4832e-05,2.7079e-05,1.5567e-05,2.3156e-05,2.3605e-05,-0.00024848,-5.5368e-05,-0.00015152,5.6642e-05,-0.00010808,-8.7474e-06,1.3073e-09,-2.0063e-05,-9.0994e-05,-7.398e-05,-6.6574e-05,5.3876e-05,-1.9906e-05,-9.4675e-05,-7.3275e-06,-1.5161e-05,-0.00021372,-3.7197e-05,7.0219e-05,-9.8952e-05,-9.1027e-06,-2.6483e-05,2.3972e-05,-0.00027958,-2.4205e-05,-0.17243,-9.0518e-05,-0.00012051
-8.8055e-05,-0.00010447,-0.0001824,-0.00039576,-3.1841e-06,4.4784e-05,-9.8498e-06,4.8546e-05,-0.0002013,-6.8605e-05,-1.1291e-05,5.5053e-05,-7.6502e-05,-2.2086e-05,8.1209e-05,-3.8617e-05,-0.00011643,-5.6238e-05,0.00011446,3.2947e-05,-0.00011644,4.8877e-05,-2.7693e-05,5.3722e-05,-0.00011987,-2.7282e-05,2.1419e-05,5.8739e-05,9.0867e-05,4.4627e-05,-4.4027e-05,-6.3872e-05,-0.0001501,3.964e-05,-1.0129e-05,0.00011917,-5.7002e-05,-6.8327e-05,-0.0054039,-0.00012087,0.00016038,7.697e-07,-7.4963e-06,-4.3293e-05,-8.411e-05,3.8905e-05,4.1115e-05,-0.00010634,-0.00014492,-6.9006e-05,-7.5182e-05,-5.9021e-05,-7.345e-06,1.8294e-05,1.0809e-05,1.6515e-05,3.9073e-05,-0.00045387,-9.3515e-05,-0.00016051,4.9121e-05,-0.00012694,-6.3042e-06,-6.5041e-05,1.2786e-09,-8.9917e-05,-0.00010168,-8.5064e-05,4.7034e-05,-3.2217e-05,-9.4716e-05,-3.2027e-05,-3.6263e-06,-0.00033284,-4.7621e-05,4.754e-05,-0.00012235,-1.2508e-05,-2.8664e-05,2.7166e-05,-0.00043069,-2.1613e-05,-0.17322,-0.00011001,-0.00012106
-1.0922e-05,-1.4517e-05,-2.4495e-05,-5.7326e-05,-4.4158e-06,-2.4534e-06,-9.0233e-07,4.73e-06,-2.9923e-05,-7.8894e-06,-5.4327e-06,-2.8696e-07,-1.6011e-05,-4.5066e-06,5.7419e-06,-7.7417e-06,-1.6138e-05,-6.4525e-06,9.4417e-06,1.958e-06,-1.4372e-05,3.3784e-06,-4.4385e-06,-4.0167e-06,-1.5667e-05,-4.959e-06,1.2982e-06,6.1226e-07,6.8085e-06,8.3338e-08,-1.0149e-05,-1.4454e-05,-2.0386e-05,-6.0661e-06,-1.7163e-06,6.775e-06,-8.8883e-06,-1.3624e-05,-0.019457,-1.7208e-05,9.4137e-06,-9.0466e-06,-1.0472e-05,-1.0542e-05,-1.2251e-05,3.8303e-06,3.6211e-06,-1.6076e-05,-2.2824e-05,-1.5159e-05,-1.019e-05,-7.6905e-06,-1.2374e-05,-6.4765e-07,-1.6971e-06,4.3194e-07,2.2117e-07,-5.5087e-05,-1.5401e-05,-2.2326e-05,2.869e-06,-1.7353e-05,-1.7762e-06,-2.288e-05,-1.521e-05,9.4173e-10,-1.1479e-05,-1.1408e-05,8.461e-07,-6.5848e-06,-1.1563e-05,-5.1818e-06,-1.686e-06,-4.3e-05,-6.2899e-06,-4.0312e-07,-1.95e-05,-1.9286e-06,-3.8718e-06,1.7155e-06,-5.9742e-05,-3.6529e-06,-0.20895,-1.6302e-05,-1.7138e-05
-7.3651e-06,-9.5844e-06,-1.8674e-05,-4.1909e-05,-3.0086e-06,-7.6727e-07,4.5133e-07,5.1648e-06,-2.03e-05,-4.4235e-06,-3.8386e-06,1.2436e-06,-9.5666e-06,-1.5685e-06,6.4274e-06,-6.0166e-06,-1.0235e-05,-3.6275e-06,7.0167e-06,3.1137e-06,-1.1677e-05,3.4247e-06,-3.2003e-06,-1.5159e-06,-1.0994e-05,-3.301e-06,2.4749e-06,4.053e-07,5.1964e-06,1.9588e-06,-8.5099e-06,-1.0276e-05,-1.5983e-05,-4.073e-06,-9.1274e-07,7.3967e-06,-6.2248e-06,-8.4262e-06,-0.004891,-1.3393e-05,8.789e-06,-5.2726e-06,-5.0022e-06,-6.2047e-06,-8.4446e-06,3.5362e-06,3.1624e-06,-1.1388e-05,-1.3826e-05,-1.3031e-05,-5.9451e-06,-4.4684e-06,-9.2811e-06,7.4257e-07,-2.383e-07,1.4004e-06,6.0138e-07,-3.9695e-05,-8.4052e-06,-1.6609e-05,2.9041e-06,-1.1588e-05,-1.4998e-06,-1.4899e-05,-1.2452e-05,-8.6737e-06,1.1231e-09,-7.5373e-06,1.6122e-06,-3.4199e-06,-7.6885e-06,-2.2054e-06,-1.4038e-06,-2.3439e-05,-4.0722e-06,2.0742e-06,-1.3579e-05,-8.8581e-07,-2.9225e-06,1.5223e-06,-4.8708e-05,-2.6047e-06,-0.22337,-1.1669e-05,-1.2895e-05
-0.00012703,-0.000158,-0.00031034,-0.0010031,-5.5171e-05,-2.9328e-05,-1.8941e-05,6.3615e-05,-0.00046288,-0.0001066,-8.458e-05,2.8793e-05,-0.00021394,-9.2525e-06,8.2431e-05,-9.7262e-05,-0.00017156,-6.2365e-05,0.00010947,6.5387e-05,-0.00021235,8.7281e-05,-5.4205e-05,-3.6333e-05,-0.00020561,-6.165e-05,1.702e-05,1.0273e-05,9.3063e-05,7.1599e-06,-0.00014797,-0.00018074,-0.00027827,-7.1649e-05,-4.1851e-05,0.00010176,-0.00011279,-0.0001358,-0.054324,-0.00023606,0.00016435,-7.2606e-05,-3.5242e-05,-0.00012717,-0.00014603,5.2031e-05,4.2127e-05,-0.00015981,-0.00033834,-0.00019385,-8.5266e-05,-8.7478e-05,-0.00014694,1.5271e-05,-2.0972e-06,2.5414e-05,2.9536e-05,-0.0011238,-0.00014565,-0.00026084,4.6339e-05,-0.00019153,-1.5215e-05,-0.00027447,-0.0001983,-0.00014317,-0.00012758,1.2791e-09,1.7687e-05,-5.3019e-05,-0.00015575,-2.2582e-05,-3.5447e-05,-0.0006461,-7.8199e-05,5.1819e-05,-0.00029266,-2.1882e-05,-5.1057e-05,2.0976e-05,-0.0014055,-5.0278e-05,-0.238,-0.00016835,-0.00022015
-8.7353e-05,-9.9025e-05,-0.00017759,-0.00032355,-6.8588e-06,0.00011913,5.9783e-06,5.6624e-05,-0.00010529,-5.7502e-05,-1.4965e-05,5.1382e-05,-7.1373e-05,-2.8029e-05,6.8569e-05,-2.9715e-05,-0.00010493,-4.222e-05,9.8278e-05,3.0987e-05,-0.00010853,3.9793e-05,-2.707e-05,5.937e-05,-0.00011117,-1.9799e-05,2.3294e-05,5.0215e-05,7.8901e-05,6.2623e-05,-4.5695e-05,-5.1803e-05,-0.00012687,3.3138e-05,1.1375e-06,0.00011449,-6.5306e-05,-7.6206e-05,-0.00094068,-0.00010796,0.0001572,5.9175e-05,5.3172e-05,-3.6336e-05,-7.695e-05,4.7328e-05,4.1884e-05,-0.00010857,-7.288e-05,1.6013e-06,-7.5662e-05,-5.7313e-05,1.9243e-05,1.0774e-05,2.2948e-06,1.2816e-05,2.7658e-05,-0.00029174,-8.7212e-05,-0.00021528,7.386e-05,-0.00013193,-2.1854e-06,-0.00013423,-9.1034e-05,-8.1476e-05,-7.9719e-05,-8.3072e-05,1.1969e-09,-3.1747e-05,-8.548e-05,-3.9995e-05,1.6332e-06,-0.00023132,-4.1058e-05,2.8834e-05,-0.00011669,-1.0873e-05,-3.0064e-05,2.6839e-05,-0.00030275,-1.2255e-05,-0.16343,-0.00011772,-0.00012489
-4.3853e-05,-5.3921e-05,-9.896e-05,-0.00019681,-1.7813e-05,-2.9605e-06,-5.8585e-06,2.4574e-05,-0.0001158,-3.3558e-05,-2.3934e-05,4.3738e-06,-5.82e-05,-8.6155e-06,2.476e-05,-3.6471e-05,-6.0627e-05,-2.3939e-05,4.1394e-05,1.8218e-05,-6.4756e-05,2.0902e-05,-1.8296e-05,-1.5202e-05,-6.4119e-05,-2.0051e-05,5.0377e-06,2.2455e-06,2.4161e-05,2.8767e-06,-4.2433e-05,-6.1587e-05,-8.487e-05,-1.9244e-05,-9.7496e-06,3.3547e-05,-3.9405e-05,-4.7087e-05,-0.00062077,-7.5132e-05,4.4936e-05,-2.2157e-05,-2.5443e-05,-3.9724e-05,-5.0236e-05,1.4862e-05,1.2059e-05,-6.1116e-05,-8.3536e-05,-5.6853e-05,-3.5025e-05,-2.9064e-05,-4.7149e-05,4.2452e-07,-4.4399e-06,6.6196e-06,3.1523e-06,-0.00018708,-4.92e-05,-8.8262e-05,1.6077e-05,-6.3922e-05,-7.2345e-06,-8.3972e-05,-6.0914e-05,-4.745e-05,-4.1029e-05,-4.0991e-05,6.773e-06,1.2822e-09,-4.921e-05,-1.4573e-05,-1.0067e-05,-0.00015049,-2.5204e-05,5.5108e-06,-8.1708e-05,-8.9977e-06,-1.8248e-05,6.4419e-06,-0.00021669,-1.927e-05,-0.21432,-6.2328e-05,-6.892e-05
-1.7999e-05,-2.4282e-05,-3.9023e-05,-0.00014598,-8.2641e-06,-7.9375e-06,-1.1643e-06,5.5518e-06,-7.4985e-05,-1.2073e-05,-9.9712e-06,-2.5794e-06,-3.1232e-05,-7.7493e-06,7.1112e-06,-1.341e-05,-2.7802e-05,-1.0326e-05,1.0859e-05,1.0915e-06,-2.2813e-05,4.7295e-06,-7.4397e-06,-8.4517e-06,-2.4171e-05,-7.5744e-06,2.2102e-06,-2.1952e-06,7.6187e-06,-1.5425e-06,-2.0457e-05,-2.612e-05,-3.5778e-05,-9.0236e-06,-1.6507e-06,7.6843e-06,-1.4636e-05,-2.4539e-05,-0.1538,-2.7855e-05,1.2285e-05,-2.1387e-05,-2.6161e-05,-1.8953e-05,-2.1146e-05,5.7426e-06,4.3736e-06,-2.6723e-05,-4.2412e-05,-2.963e-05,-1.8413e-05,-1.265e-05,-2.4316e-05,-2.8619e-06,-3.9741e-06,-1.1355e-06,-9.3494e-07,-0.00013655,-2.5429e-05,-3.7478e-05,3.1857e-06,-2.8391e-05,-3.4906e-06,-3.7987e-05,-2.4343e-05,-1.8129e-05,-1.5782e-05,-1.9289e-05,-7.3537e-07,-1.1577e-05,7.961e-10,-8.6445e-06,-2.3303e-06,-8.2289e-05,-9.8854e-06,-2.9853e-06,-3.3708e-05,-3.9036e-06,-7.6413e-06,2.3198e-06,-0.00014729,-6.5997e-06,-0.2111,-3.0954e-05,-2.8238e-05
-7.411e-06,-9.3629e-06,-1.8435e-05,-4.6142e-05,-3.5624e-06,-3.5686e-06,-7.4861e-07,4.4718e-06,-2.2996e-05,-6.9468e-06,-4.603e-06,9.9556e-07,-1.1831e-05,5.1721e-07,6.0433e-06,-6.7243e-06,-9.5334e-06,-3.3537e-06,8.6255e-06,5.3472e-06,-1.3015e-05,6.8622e-06,-3.3879e-06,-1.979e-06,-1.2584e-05,-3.2286e-06,1.3187e-06,6.7039e-07,5.7397e-06,8.2062e-07,-9.4569e-06,-1.1015e-05,-1.7034e-05,-4.4276e-06,-3.4059e-06,7.6096e-06,-6.7452e-06,-8.0641e-06,-0.008264,-1.4575e-05,9.6353e-06,-4.0625e-06,-3.594e-06,-7.3289e-06,-9.0047e-06,3.4447e-06,2.9447e-06,-9.8731e-06,-1.7067e-05,-1.3017e-05,-5.6986e-06,-5.6292e-06,-8.7733e-06,1.8831e-06,1.047e-06,1.6093e-06,2.0783e-06,-4.7044e-05,-7.9703e-06,-1.5126e-05,2.0832e-06,-1.0733e-05,-1.2415e-06,-1.4894e-05,-1.2232e-05,-9.0392e-06,-7.2766e-06,-6.808e-06,1.1889e-06,-3.1079e-06,-9.3902e-06,1.262e-09,-2.1768e-06,-2.9599e-05,-4.5309e-06,2.5678e-06,-1.758e-05,-1.1451e-06,-3.4808e-06,2.0138e-06,-5.7292e-05,-3.1187e-06,-0.22274,-1.0648e-05,-1.2967e-05
-1.2543e-05,-1.7391e-05,-2.6192e-05,-6.8544e-05,-5.2221e-06,-3.9186e-06,-1.3756e-06,3.8538e-06,-4.3998e-05,-7.4868e-06,-5.5271e-06,-2.1524e-06,-1.9044e-05,-6.9454e-06,3.9079e-06,-7.0671e-06,-2.0716e-05,-6.1957e-06,7.1175e-06,-8.2401e-07,-1.3859e-05,1.0427e-06,-4.3569e-06,-5.4009e-06,-1.6336e-05,-5.3477e-06,7.4581e-07,-1.2349e-06,4.2149e-06,-1.1361e-06,-1.2569e-05,-1.7566e-05,-2.1131e-05,-6.1071e-06,-5.192e-07,3.8813e-06,-9.4851e-06,-1.7066e-05,-0.19288,-1.8027e-05,7.1097e-06,-1.2874e-05,-1.5948e-05,-1.2681e-05,-1.4671e-05,3.7581e-06,4.3499e-06,-1.9424e-05,-2.7868e-05,-1.5915e-05,-1.3204e-05,-8.7435e-06,-1.28e-05,-3.2571e-06,-3.9346e-06,-5.2123e-07,-1.3222e-06,-6.6804e-05,-1.8603e-05,-2.5936e-05,2.231e-06,-1.9756e-05,-2.4702e-06,-2.5266e-05,-1.5088e-05,-1.2345e-05,-1.2396e-05,-1.3952e-05,-4.0579e-07,-8.929e-06,-1.1373e-05,-7.8548e-06,9.3636e-10,-5.1689e-05,-5.3197e-06,-3.4162e-06,-1.9027e-05,-2.7968e-06,-5.3388e-06,2.5748e-06,-6.9144e-05,-3.9692e-06,-0.24433,-2.0899e-05,-1.9122e-05
-0.00013302,-0.00014579,-0.00029795,-0.00040231,-1.7582e-05,0.00014044,-3.6671e-05,0.00010867,-0.0001113,-9.496e-05,-4.6333e-05,0.00016226,-6.0503e-05,9.9584e-06,0.00014649,-8.0133e-05,-0.00012054,-8.7073e-05,0.00020519,0.00010932,-0.00023348,0.00010038,-6.9671e-05,9.6958e-05,-0.00017621,-4.6873e-05,3.198e-05,0.00016343,0.00017278,0.0001546,-2.8019e-05,-5.2029e-05,-0.00017911,4.6169e-05,-4.358e-05,0.00027677,-0.00010369,-7.6244e-05,-0.00074179,-0.00019387,0.00038247,0.00011786,0.00028269,-2.4474e-05,-0.00010819,6.6665e-05,5.898e-05,-0.00015745,-8.2272e-05,-3.1109e-05,-6.9479e-05,-0.00010591,0.00012513,9.5815e-06,-8.6676e-06,-1.6006e-05,2.5383e-05,-0.00038066,-7.111e-05,-0.00030817,0.0001265,-0.00019847,-2.5553e-05,-0.000175,-0.00015467,-0.00016036,-7.5951e-05,-0.00011257,0.00011696,-1.9593e-05,-0.00015252,-1.9859e-05,-4.565e-05,1.174e-09,-7.9705e-05,0.00011563,-0.00019848,-2.4115e-06,-4.7438e-05,3.6681e-05,-0.00038816,-4.0427e-05,-0.10533,-0.00012684,-0.00017419
-5.588e-06,-7.3363e-06,-1.2926e-05,-2.939e-05,-2.7045e-06,-1.8658e-06,-6.4183e-07,2.4589e-06,-1.8658e-05,-3.2685e-06,-2.8173e-06,-4.5773e-07,-8.3111e-06,-2.4605e-06,2.6606e-06,-3.9422e-06,-8.8696e-06,-2.6619e-06,3.3893e-06,2.8736e-07,-7.1644e-06,1.2409e-06,-2.1979e-06,-2.3068e-06,-7.7648e-06,-2.5334e-06,5.0285e-07,-2.6288e-07,2.2713e-06,-4.9262e-07,-6.2757e-06,-7.8938e-06,-1.0665e-05,-3.1956e-06,-3.8394e-07,2.8681e-06,-4.4996e-06,-7.2173e-06,-0.012655,-9.224e-06,3.8777e-06,-5.5214e-06,-7.2342e-06,-5.613e-06,-6.7114e-06,1.7828e-06,2.1519e-06,-8.9371e-06,-1.1981e-05,-8.7166e-06,-5.5388e-06,-3.5302e-06,-8.3159e-06,-1.101e-06,-1.5795e-06,1.4228e-07,-8.7944e-07,-2.7738e-05,-7.575e-06,-1.1965e-05,1.0258e-06,-8.949e-06,-1.0703e-06,-1.1087e-05,-7.87e-06,-5.8627e-06,-5.4349e-06,-6.0178e-06,-2.8641e-07,-3.6267e-06,-5.6402e-06,-2.8411e-06,-1.3308e-07,-2.235e-05,1.1068e-09,-3.658e-07,-9.0888e-06,-1.1324e-06,-2.1348e-06,1.9855e-06,-3.1556e-05,-2.1464e-06,-0.25282,-9.1406e-06,-9.159e-06
-9.5055e-05,-0.00011408,-0.00021619,-0.00039703,-2.7766e-05,5.9842e-05,-1.6276e-05,7.1777e-05,-0.00016247,-6.6915e-05,-2.2967e-05,7.4991e-05,-6.6595e-05,-9.0066e-06,0.00011178,-5.6172e-05,-8.4569e-05,-4.8603e-05,0.00013798,4.881e-05,-0.000159,6.4361e-05,-4.3095e-05,3.5216e-05,-0.00013451,-3.4914e-05,2.0927e-05,5.915e-05,0.00012328,4.5038e-05,-3.9926e-05,-8.2267e-05,-0.00015972,-3.8068e-06,-2.0446e-05,0.00015268,-6.7056e-05,-6.283e-05,-0.0016244,-0.00014726,0.00018883,1.5189e-05,1.7625e-05,-2.2334e-05,-8.0172e-05,4.4112e-05,4.5423e-05,-0.00010711,-0.00014511,-0.00011127,-6.0875e-05,-5.4747e-05,-7.746e-05,1.8099e-05,2.1441e-06,3.6933e-05,2.1904e-05,-0.00040307,-8.4124e-05,-0.00023465,5.4391e-05,-0.00014304,-1.1887e-05,-0.00014517,-0.00011569,-0.00010864,-8.5492e-05,-7.6696e-05,4.6299e-05,-3.096e-05,-0.00012114,-2.1955e-05,-2.3195e-05,-0.00031397,-4.3141e-05,1.4378e-09,-0.00012628,-1.1512e-05,-4.9867e-05,2.734e-05,-0.00039808,-3.423e-05,-0.18415,-0.00011085,-0.00013775
-0.0001772,-0.0002023,-0.00034816,-0.00058139,-3.6402e-05,0.00011405,-2.3004e-05,0.00014948,-0.00028613,-4.8941e-05,2.7969e-05,5.8625e-05,-5.2129e-05,-6.1576e-05,0.00022751,-0.00011943,-0.00024446,-9.4021e-05,0.00025172,7.169e-05,-0.00022145,6.8395e-05,-6.239e-05,4.5707e-05,-0.00020817,-4.802e-05,4.0554e-05,7.8935e-05,0.00015737,8.1073e-05,-0.00011355,-0.00018266,-0.00029194,6.0193e-06,2.7584e-05,0.00019936,-0.00011054,-0.00013411,-0.0020619,-0.00026784,0.00026119,-6.5856e-05,-6.4364e-05,-5.6736e-05,-0.00017238,8.6001e-05,9.5967e-05,-0.00026755,-0.0002653,-0.0002134,-0.00014589,-7.8667e-05,-0.00010533,2.3645e-05,4.098e-06,3.9337e-05,-1.6314e-05,-0.00049549,-0.00017088,-0.00031029,0.00010048,-0.00028435,-3.3418e-05,-0.00024187,-0.00017841,-0.00016941,-0.00015426,-0.00018337,7.674e-05,-7.2719e-05,-0.00018977,-8.668e-05,-2.7399e-07,-0.00060093,-6.3336e-05,0.0001138,1.3139e-09,-2.5753e-05,-5.8259e-05,4.5241e-05,-0.0005836,-4.8145e-05,-0.2248,-0.00024641,-0.00025458
-2.3528e-05,-3.1774e-05,-5.4191e-05,-0.00017336,-1.0655e-05,-1.2749e-05,-2.9678e-06,8.9536e-06,-0.00010189,-1.5188e-05,-1.391e-05,-4.1755e-06,-4.0074e-05,-9.7508e-06,9.7336e-06,-1.7101e-05,-3.9585e-05,-1.38e-05,1.3046e-05,2.4094e-06,-3.0957e-05,6.8265e-06,-9.1611e-06,-1.2848e-05,-3.3348e-05,-1.1106e-05,2.7674e-06,-1.7732e-06,1.1414e-05,-2.644e-06,-2.7233e-05,-3.6853e-05,-4.6256e-05,-1.5311e-05,-2.8191e-06,1.0064e-05,-1.9072e-05,-3.234e-05,-0.079549,-3.7972e-05,1.6082e-05,-2.7217e-05,-3.0493e-05,-2.6771e-05,-2.6509e-05,1.0839e-05,6.4815e-06,-3.5244e-05,-5.896e-05,-4.0751e-05,-2.3571e-05,-1.5816e-05,-3.457e-05,-3.5805e-06,-5.7542e-06,1.8644e-07,-1.9035e-06,-0.00017259,-3.3941e-05,-4.8753e-05,4.6407e-06,-3.7148e-05,-2.1257e-06,-5.2626e-05,-3.4816e-05,-2.4217e-05,-2.295e-05,-2.5673e-05,-2.6096e-06,-1.5896e-05,-2.4017e-05,-1.2046e-05,-3.2338e-06,-0.0001068,-1.2933e-05,-3.7045e-06,-4.6123e-05,1.0987e-09,-9.2296e-06,3.5596e-06,-0.00020485,-8.7461e-06,-0.18835,-4.0036e-05,-3.8381e-05
-2.0759e-05,-2.9574e-05,-4.9044e-05,-0.00011674,-9.2948e-06,-1.0456e-05,-1.6819e-06,9.1883e-06,-7.7413e-05,-1.3241e-05,-1.3002e-05,-3.8337e-06,-3.3301e-05,-9.3045e-06,9.8749e-06,-1.5036e-05,-3.4722e-05,-1.2574e-05,1.228e-05,3.0328e-06,-2.863e-05,5.5352e-06,-6.5326e-06,-1.0602e-05,-3.0542e-05,-1.0049e-05,2.9515e-06,-1.6849e-06,9.0696e-06,-1.7573e-06,-2.484e-05,-3.1011e-05,-4.2191e-05,-1.4426e-05,-1.2129e-06,1.0764e-05,-1.8379e-05,-2.8343e-05,-0.039484,-3.5866e-05,1.384e-05,-2.2195e-05,-3.1155e-05,-2.4435e-05,-2.7746e-05,7.4626e-06,6.0599e-06,-3.5359e-05,-4.8953e-05,-3.3324e-05,-2.1549e-05,-1.2851e-05,-3.1753e-05,-2.0722e-06,-4.1562e-06,1.8924e-07,-2.7589e-06,-0.0001126,-3.0633e-05,-4.2739e-05,3.0925e-06,-3.3289e-05,-3.9636e-06,-4.5755e-05,-3.0777e-05,-2.1585e-05,-2.1919e-05,-2.3759e-05,-1.9317e-06,-1.4388e-05,-2.2727e-05,-1.2113e-05,-3.3197e-06,-8.7061e-05,-1.1369e-05,-5.8426e-06,-4.0401e-05,-4.1356e-06,1.0858e-09,3.5728e-06,-0.0001266,-8.7932e-06,-0.22792,-3.6499e-05,-3.571e-05
-9.6349e-06,-1.3063e-05,-2.0903e-05,-5.2153e-05,-4.21e-06,-3.79e-06,-1.0689e-06,2.787e-06,-3.2851e-05,-6.4825e-06,-5.1433e-06,-1.6745e-06,-1.535e-05,-4.7667e-06,3.1547e-06,-5.8477e-06,-1.5391e-05,-5.1851e-06,5.8156e-06,-1.8328e-07,-1.1447e-05,1.672e-06,-3.445e-06,-4.5863e-06,-1.3501e-05,-4.2877e-06,4.91e-07,-9.6181e-07,3.5685e-06,-6.4378e-07,-1.0081e-05,-1.3626e-05,-1.6997e-05,-5.6585e-06,-1.0431e-06,3.3309e-06,-7.6139e-06,-1.2894e-05,-0.10971,-1.4828e-05,5.7303e-06,-1.0089e-05,-1.162e-05,-1.0598e-05,-1.1374e-05,2.631e-06,2.9236e-06,-1.4803e-05,-2.1332e-05,-1.3226e-05,-1.0133e-05,-6.8659e-06,-1.0949e-05,-2.1013e-06,-2.7734e-06,-3.1461e-07,-8.1806e-07,-5.2027e-05,-1.4162e-05,-2.0008e-05,1.4657e-06,-1.5167e-05,-1.7388e-06,-1.9864e-05,-1.2622e-05,-9.8807e-06,-9.7833e-06,-1.0797e-05,-8.0204e-07,-6.8009e-06,-9.2638e-06,-5.3778e-06,-2.2663e-07,-3.8276e-05,-3.2736e-06,-2.1312e-06,-1.6621e-05,-2.1301e-06,-3.908e-06,1.0513e-09,-5.4733e-05,-3.5501e-06,-0.22761,-1.5973e-05,-1.521e-05
-9.654e-06,-9.8495e-06,-1.549e-05,-1.2467e-05,3.729e-07,1.3363e-05,-1.1193e-06,7.6078e-06,-4.4977e-06,-4.6816e-06,2.3939e-06,8.0033e-06,4.5963e-06,-1.167e-06,1.287e-05,-4.1481e-06,-7.283e-06,-5.2159e-06,1.8574e-05,5.4994e-06,-1.2662e-05,3.9168e-06,-3.2539e-06,1.0848e-05,-9.9587e-06,-1.4332e-06,2.3814e-06,8.7588e-06,1.1854e-05,9.2057e-06,-1.3849e-06,-1.7605e-06,-1.231e-05,8.3033e-06,-1.8789e-07,1.8055e-05,-5.8492e-06,-1.8222e-06,-2.6167e-05,-1.0798e-05,2.1331e-05,7.176e-06,4.7796e-06,1.9776e-06,-6.5675e-06,4.6912e-06,5.1015e-06,-9.2473e-06,-2.9299e-06,-2.7019e-06,-6.0506e-06,-4.0317e-06,1.0233e-06,3.4841e-06,2.0924e-06,2.232e-06,3.3913e-06,-8.6309e-06,-6.1515e-06,-1.2893e-05,7.6029e-06,-1.2365e-05,-1.6789e-06,-9.0259e-06,-6.3267e-06,-8.5144e-06,-8.2495e-06,-8.8518e-06,8.6855e-06,-1.1982e-06,-9.5774e-06,-3.2575e-06,-1.0228e-06,-1.5995e-05,-4.0721e-06,9.9594e-06,-5.2489e-06,-1.0219e-06,-2.5131e-06,2.8157e-06,1.1589e-09,-1.7545e-06,-0.10715,-8.5441e-06,-1.0211e-05
-5.6608e-06,-7.0639e-06,-1.1477e-05,-2.8378e-05,-2.1792e-06,-1.4941e-06,-5.1512e-07,1.8789e-06,-1.6287e-05,-3.8187e-06,-2.766e-06,-4.9222e-07,-8.3332e-06,-2.4872e-06,2.211e-06,-2.4997e-06,-8.3191e-06,-2.9913e-06,3.6313e-06,3.6154e-07,-7.0141e-06,1.2258e-06,-2.0923e-06,-2.1548e-06,-7.8086e-06,-2.3612e-06,6.5941e-07,-4.9147e-07,2.6796e-06,-1.156e-07,-5.2839e-06,-7.5431e-06,-9.6217e-06,-3.0191e-06,-7.2918e-07,2.0768e-06,-3.9942e-06,-6.9324e-06,-0.00049615,-8.3366e-06,3.7278e-06,-4.9062e-06,-5.1072e-06,-5.9776e-06,-5.8022e-06,1.8728e-06,1.7618e-06,-7.8937e-06,-1.1677e-05,-7.1778e-06,-5.5124e-06,-3.8363e-06,-6.018e-06,-7.9689e-07,-1.2158e-06,-1.1638e-08,-1.823e-08,-2.8366e-05,-7.3338e-06,-1.1799e-05,1.2645e-06,-8.5695e-06,-9.5699e-07,-1.1332e-05,-7.3078e-06,-5.3692e-06,-5.397e-06,-5.9035e-06,2.8363e-07,-3.8217e-06,-5.343e-06,-3.0037e-06,-3.0966e-07,-2.1283e-05,-2.9606e-06,-9.9019e-07,-9.7058e-06,-1.0337e-06,-2.3163e-06,9.2626e-07,-2.9854e-05,1.1046e-09,-0.22967,-8.4943e-06,-8.6216e-06
9.5726e-07,-3.7604e-06,-1.2198e-06,-7.7364e-06,1.0703e-06,1.4884e-06,8.3183e-07,1.2213e-06,-1.1187e-05,-1.9113e-06,1.4339e-06,4.7195e-05,6.4854e-06,-3.0449e-06,2.9055e-06,9.9054e-07,-1.6409e-06,-6.4314e-06,5.0384e-06,7.4753e-07,-4.4989e-06,2.0991e-06,-1.8662e-07,2.7144,3.546e-06,-1.0327e-07,-4.6761e-07,2.6932e-05,6.5765e-05,0.00062335,2.0247e-06,8.4635e-06,3.3115e-06,2.1591,-1.1271e-07,4.7648e-05,3.9363e-06,5.4646e-06,3.3452e-06,-1.1327e-06,0.00059812,3.723e-05,-1.2621e-06,6.65e-06,1.9406e-06,1.6191e-05,-1.0571e-06,-9.2769e-07,-2.3699e-06,1.4433e-06,-6.0488e-07,-2.9351e-06,2.5408e-05,3.2798e-06,3.23e-06,3.4208e-07,8.1013e-06,-5.0723e-06,7.0596e-06,-3.5238e-05,-8.0647e-06,-2.8817e-06,1.6163e-06,-1.8983e-06,6.2557e-07,-1.6005e-06,-3.6028e-06,-6.3665e-06,5.7188e-06,-2.1251e-06,-1.6723e-06,-1.7166e-06,-2.8163e-06,2.2577e-05,-5.5711e-06,2.4456e-06,-1.0454e-05,4.7985e-06,-1.6812e-06,6.6152e-08,6.211e-06,-2.4706e-06,1.0423e-09,-1.0427e-06,1.7015e-07
-9.173e-05,-0.00010264,-0.00019752,-0.00039999,-2.0472e-05,2.8195e-05,-6.5636e-06,5.9369e-05,-0.00020463,-7.8599e-05,-3.8421e-05,4.9315e-05,-8.3221e-05,8.7069e-06,9.0304e-05,-5.9101e-05,-8.806e-05,-4.2552e-05,0.00013156,6.6023e-05,-0.00015126,7.4769e-05,-4.073e-05,1.9168e-05,-0.00013904,-3.4498e-05,2.3543e-05,4.0226e-05,9.5123e-05,3.1032e-05,-6.0422e-05,-8.6706e-05,-0.00016583,-1.1243e-05,-3.5587e-05,0.00011052,-7.0488e-05,-6.1937e-05,-0.0021113,-0.00015121,0.00015301,8.5445e-06,3.6597e-05,-5.589e-05,-8.6731e-05,3.9135e-05,4.0506e-05,-9.6451e-05,-0.00014645,-0.0001001,-4.0973e-05,-5.6132e-05,-5.6742e-05,3.1849e-05,1.978e-05,3.9693e-05,3.8407e-05,-0.00041758,-7.5711e-05,-0.00017084,5.0784e-05,-0.0001198,-1.0787e-05,-0.00015229,-0.00011203,-9.1101e-05,-8.8728e-05,-5.962e-05,4.1154e-05,-2.0064e-05,-0.00012207,-2.5926e-06,-2.5068e-05,-0.00029086,-5.226e-05,7.2922e-05,-0.00016963,-1.0152e-05,-3.368e-05,2.4205e-05,-0.00046677,-2.1524e-05,-0.18315,1.4257e-09,-0.00013034
-7.4931e-05,-0.00010307,-0.00017007,-0.00042284,-1.416e-05,2.6781e-05,-4.9169e-06,4.8161e-05,-0.00020256,-5.8109e-05,-2.3103e-05,4.364e-05,-9.061e-05,-9.0959e-06,6.4962e-05,-4.468e-05,-8.8873e-05,-4.4085e-05,0.00010529,4.1351e-05,-0.00011454,5.2938e-05,-2.926e-05,2.0633e-05,-0.00011611,-2.8614e-05,1.787e-05,4.2548e-05,8.5485e-05,3.1696e-05,-4.8355e-05,-7.8264e-05,-0.00012586,-5.4009e-07,-1.1233e-05,0.00010578,-6.3185e-05,-7.201e-05,-0.005925,-0.00010602,0.0001376,-1.8029e-05,-3.7115e-06,-5.2625e-05,-7.3223e-05,4.0201e-05,3.4863e-05,-8.3856e-05,-0.00014604,-8.8184e-05,-6.1303e-05,-5.2425e-05,-4.8935e-05,1.7823e-05,9.1723e-06,2.0255e-05,2.5539e-05,-0.00042011,-8.7609e-05,-0.00015895,4.2488e-05,-0.00011829,-5.2858e-06,-0.00015002,-9.5003e-05,-8.0361e-05,-8.1112e-05,-7.4672e-05,3.0943e-05,-2.8154e-05,-8.8656e-05,-1.9403e-05,-1.1861e-05,-0.00028684,-4.5144e-05,4.4332e-05,-0.0001377,-6.0939e-06,-2.7309e-05,2.2043e-05,-0.00044161,-2.2217e-05,-0.17659,-0.00010078,1.3381e-09
