-2.882e-09,-0.00013493,-0.0002855,-0.00025566,7.039e-05,0.00010337,6.5443e-06,0.00012933,-1.5146,-5.6393e-05,3.398e-05,8.5327e-05,0.00011787,1.0948e-05,0.00024017,7.0844e-05,-8.4133e-05,-1.9625e-05,0.00021034,9.1259e-05,-0.00012034,0.00011327,2.6046e-05,0.00011477,-0.00012027,-7.0306e-05,9.7773e-05,3.8884e-05,-1.8197e-05,0.00013482,7.9484e-05,-7.4227e-05,-0.00019665,7.891e-05,2.746e-05,0.00025833,-0.00019017,-9.9648e-06,-2.8459,-0.00033159,1.2938,5.767e-05,-6.6515e-05,-0.0001238,-0.0002695,9.6933e-05,0.00012404,-0.00033764,-0.00024059,-4.3801e-05,-2.9875e-05,-8.641e-05,-0.0013597,0.00028689,0.00023719,0.00010581,0.00019083,-0.00039068,-6.9015e-05,-0.00030935,5.6151e-05,-0.00014341,4.5399e-05,-0.00010752,-0.00010551,-0.00011135,-3.2357e-05,-8.8968e-05,0.00013763,0.00010701,-0.00018384,-4.8259e-06,-1.3066e-05,-0.00097338,2.7186e-05,1.1515e-05,-0.00025909,7.2344e-06,9.3708e-06,0.00018341,-0.0010602,6.9428e-05,-0.22451,-7.5723e-05,-0.00011834
-2.5476e-05,-2.1844e-09,-6.3526e-05,-6.0759e-05,1.3399e-05,3.3656e-05,-3.2172e-06,2.9917e-05,-1.4916,-1.9063e-05,8.4373e-06,1.7851e-05,3.1672e-05,1.1929e-06,5.7711e-05,1.031e-05,-2.1333e-05,-6.2406e-06,4.7216e-05,2.3041e-05,-3.4801e-05,2.4277e-05,-2.2419e-07,3.153e-05,-3.2749e-05,-2.0179e-05,2.0527e-05,8.0566e-06,-8.9417e-06,3.3646e-05,2.0458e-05,-2.3807e-05,-5.313e-05,1.5172e-05,3.3743e-06,6.9582e-05,-5.4863e-05,-1.1689e-06,-2.6197,-8.9272e-05,1.0231,2.3633e-05,-5.021e-06,-3.221e-05,-6.5067e-05,1.9234e-05,2.7507e-05,-8.5785e-05,-4.9817e-05,-8.2578e-06,-1.0296e-05,-2.2636e-05,-0.00013112,6.6807e-05,5.3436e-05,2.0706e-05,4.5721e-05,-9.2995e-05,-1.3613e-05,-7.806e-05,1.8197e-05,-4.4331e-05,6.0948e-06,-2.1834e-05,-2.2241e-05,-2.9634e-05,-1.1607e-05,-2.1802e-05,3.8812e-05,2.66e-05,-5.0361e-05,-2.1695e-06,-8.2093e-06,-0.00022799,4.2751e-06,4.3354e-07,-6.3239e-05,-1.8683e-06,-3.3891e-06,4.1637e-05,-0.00027215,1.8426e-05,-0.2737,-1.558e-05,-3.6265e-05
-3.079e-05,-3.3329e-05,-2.6018e-09,-5.8862e-05,1.3869e-05,3.5294e-05,-4.6794e-06,2.7019e-05,-1.4855,-2.194e-05,1.0897e-05,2.3525e-05,2.9517e-05,2.2119e-06,6.1302e-05,1.9545e-05,-2.0596e-05,-1.1067e-05,5.6454e-05,2.1335e-05,-3.1241e-05,2.8918e-05,1.2914e-06,3.4098e-05,-3.1392e-05,-1.946e-05,1.831e-05,1.7435e-05,-5.9544e-06,3.676e-05,2.1745e-05,-1.6392e-05,-4.6683e-05,2.4115e-05,2.9429e-06,6.9119e-05,-5.7921e-05,-2.4306e-08,-2.1401,-8.7107e-05,1.2567,2.3584e-05,2.2301e-06,-2.4476e-05,-7.0788e-05,2.0663e-05,2.6934e-05,-8.1949e-05,-6.0194e-05,-1.1424e-05,-1.2338e-05,-2.9127e-05,-0.00050652,7.144e-05,5.8398e-05,2.6827e-05,5.018e-05,-9.8541e-05,-2.0104e-05,-7.853e-05,1.5373e-05,-4.4817e-05,8.5792e-06,-3.3326e-05,-2.8286e-05,-3.4309e-05,-1.8156e-05,-2.465e-05,3.2038e-05,2.4517e-05,-4.9412e-05,-2.4347e-06,-6.1088e-06,-0.00032401,1.3889e-06,3.0866e-06,-6.2698e-05,-2.4838e-06,-5.4719e-06,4.2724e-05,-0.0002317,1.8158e-05,-0.22102,-1.5874e-05,-3.0961e-05
-1.6552e-05,-1.8631e-05,-3.9011e-05,-2.527e-09,1.2467e-05,2.5323e-05,-1.6743e-06,2.2256e-05,-1.5046,-8.7633e-06,1.1602e-05,1.4627e-05,4.1262e-05,2.7418e-06,5.0035e-05,7.4315e-06,-1.2464e-05,-3.7251e-06,3.4129e-05,1.459e-05,-2.0783e-05,1.4076e-05,-5.9751e-07,2.9116e-05,-1.7345e-05,-1.0236e-05,1.4122e-05,5.5633e-06,-2.218e-06,1.6854e-05,1.4537e-05,-9.6343e-06,-3.2034e-05,1.5898e-05,2.778e-06,4.6689e-05,-3.2931e-05,4.3314e-06,-0.48246,-5.0426e-05,0.854,1.4025e-05,-5.5224e-06,-1.2154e-05,-4.2673e-05,1.2063e-05,1.9159e-05,-4.9375e-05,-3.2091e-05,-8.0995e-06,-2.4611e-06,-1.4114e-05,-0.00058583,4.7417e-05,3.8937e-05,1.5933e-05,2.9928e-05,-1.7742e-05,-6.7869e-06,-2.9808e-05,1.0147e-05,-2.4681e-05,3.606e-06,-7.4284e-06,-9.1942e-06,-2.0379e-05,-8.1795e-06,-1.1519e-05,1.7289e-05,1.7773e-05,-3.0825e-05,-3.1503e-06,-3.9948e-06,-0.0002898,4.0081e-06,5.6316e-06,-2.9229e-05,-1.6598e-06,-2.1648e-06,2.6065e-05,-9.1196e-05,8.7159e-06,-0.22783,-6.1299e-06,-1.9572e-05
-4.5213e-05,-6.6597e-05,-0.00012524,-9.701e-05,-2.3457e-09,6.9853e-05,5.2151e-06,6.3203e-05,-1.2844,-2.5143e-05,2.5848e-05,3.6558e-05,6.3892e-05,-1.6385e-06,0.00010544,3.2341e-05,-4.3718e-05,-1.5392e-05,8.8084e-05,3.2279e-05,-4.7401e-05,4.2726e-05,1.1281e-05,6.3991e-05,-5.6939e-05,-2.9266e-05,4.3649e-05,1.797e-05,-3.4842e-06,7.061e-05,4.9063e-05,-3.6353e-05,-7.6143e-05,4.1182e-05,1.5648e-05,0.00010775,-8.2906e-05,-4.5154e-06,-2.2228,-0.00013127,1.221,2.6674e-05,-1.6333e-05,-5.0417e-05,-0.00011191,4.3574e-05,5.4892e-05,-0.00015351,-0.0001023,1.0654e-06,-1.6592e-05,-4.2659e-05,-0.0008804,0.00012681,0.00010411,4.8351e-05,7.9766e-05,-0.00014468,-3.2712e-05,-0.0001376,2.7468e-05,-7.4917e-05,1.6913e-05,-5.6828e-05,-3.6202e-05,-5.0525e-05,-1.9934e-05,-4.1896e-05,6.7552e-05,4.5209e-05,-8.2149e-05,-1.1344e-05,-3.1626e-06,-0.00044529,9.0286e-06,-2.0854e-06,-0.00011052,3.4543e-06,1.8555e-06,7.9129e-05,-0.00045075,3.3196e-05,-0.24603,-2.9415e-05,-5.3117e-05
-4.4181e-05,-3.3163e-05,-9.0387e-05,-6.0033e-05,3.0188e-05,-2.9482e-09,6.6093e-06,6.4631e-05,-0.45674,-1.569e-05,3.1064e-05,1.7665e-05,6.3245e-05,-2.3042e-06,9.4312e-05,5.1294e-05,-2.5564e-05,-1.1871e-05,7.1239e-05,2.4291e-05,-4.1762e-05,2.2092e-05,6.3239e-06,6.9741e-05,-3.4567e-05,-2.3019e-05,3.2836e-05,1.5829e-05,-7.6944e-07,5.4915e-05,5.8892e-05,-1.5277e-05,-4.3747e-05,3.6463e-05,2.456e-05,9.2356e-05,-7.4316e-05,3.8189e-06,-1.627,-9.8557e-05,1.7636,0.00015287,4.4155e-05,-4.2405e-05,-9.08e-05,2.8036e-05,4.3179e-05,-0.00013197,-2.5418e-05,6.5154e-05,-1.3086e-05,-3.3609e-05,-8.1595e-05,8.2023e-05,6.2448e-05,4.8491e-05,5.7386e-05,-9.016e-05,-1.4425e-05,-0.00013923,4.0351e-05,-6.9772e-05,9.4407e-06,-4.0298e-05,-3.8042e-05,-3.4641e-05,-1.6061e-05,-2.9225e-05,0.00010394,5.5031e-05,-6.3474e-05,-2.1558e-05,-6.6529e-07,-0.00020306,9.5764e-06,1.1981e-05,-6.6937e-05,-6.1903e-06,-4.0197e-06,5.8009e-05,-0.00028722,2.6404e-05,-0.22614,-1.7414e-05,-3.7968e-05
-1.1793e-05,-1.8863e-05,-3.5814e-05,-3.1568e-05,8.1981e-06,1.7456e-05,-1.7437e-09,1.5445e-05,-1.3767,-5.3619e-06,5.7332e-06,8.6526e-06,1.4446e-05,-1.6041e-06,2.8175e-05,1.0077e-05,-1.3299e-05,-2.0742e-06,2.1914e-05,8.611e-06,-1.1774e-05,9.5572e-06,2.6994e-06,1.47e-05,-1.3494e-05,-7.8294e-06,1.4312e-05,3.8578e-06,-3.5098e-06,1.7534e-05,6.011e-06,-8.2623e-06,-2.276e-05,9.2261e-06,4.8863e-06,2.722e-05,-2.2096e-05,-3.3522e-06,-3.029,-3.7046e-05,1.1292,7.6438e-06,-6.7071e-06,-1.536e-05,-3.0364e-05,1.0422e-05,1.4045e-05,-4.234e-05,-2.8256e-05,-3.0452e-06,-5.7825e-06,-1.075e-05,-0.0028877,3.1501e-05,2.5468e-05,1.1654e-05,2.0787e-05,-3.9594e-05,-1.011e-05,-3.5165e-05,8.1357e-06,-2.0433e-05,3.3984e-06,-1.7688e-05,-1.3409e-05,-1.3462e-05,-1.8319e-06,-1.3553e-05,1.9265e-05,9.6996e-06,-1.9935e-05,-2.7453e-06,-4.6883e-07,-0.0002271,2.2915e-06,-3.3046e-06,-2.9672e-05,-3.4115e-07,-8.4e-08,2.0212e-05,-0.00011622,8.6503e-06,-0.27424,-9.3144e-06,-1.5811e-05
-2.2786e-05,-3.2436e-05,-6.9647e-05,-6.3167e-05,1.3938e-05,3.0681e-05,1.5015e-06,-1.5992e-09,-1.4704,-5.9432e-06,1.2109e-05,9.5526e-06,2.6296e-05,-2.3701e-06,5.2627e-05,6.6646e-06,-2.6821e-05,-3.2491e-06,4.4851e-05,1.7999e-05,-2.0274e-05,1.5228e-05,4.7188e-06,2.2151e-05,-2.2604e-05,-1.1025e-05,1.87e-05,3.6771e-06,-7.7429e-06,2.7537e-05,1.2765e-05,-2.3763e-05,-4.2018e-05,1.1242e-05,1.2265e-05,4.5771e-05,-3.7661e-05,-7.035e-06,-2.8658,-6.8539e-05,1.0924,9.1832e-06,-2.0994e-05,-2.5134e-05,-5.1359e-05,1.9424e-05,2.6301e-05,-9.0324e-05,-5.1995e-05,-3.5585e-06,-9.7043e-06,-1.3633e-05,-0.00011941,4.9347e-05,3.8249e-05,2.5728e-05,2.5488e-05,-5.9537e-05,-9.688e-06,-6.3935e-05,1.2512e-05,-3.9042e-05,5.8858e-06,-3.1055e-05,-2.3246e-05,-2.2219e-05,-8.3502e-06,-2.3333e-05,2.9255e-05,2.2315e-05,-3.6057e-05,-5.1166e-06,1.3127e-06,-0.00018327,6.6311e-06,-6.9697e-06,-4.3086e-05,8.314e-07,2.0344e-06,3.4469e-05,-0.00022814,1.4715e-05,-0.28458,-2.1236e-05,-2.9722e-05
-4.6708e-05,-4.3285e-05,-0.00011761,-5.1439e-05,3.2238e-05,0.00015253,7.1295e-06,6.4661e-05,-2.0063e-09,-3.744e-05,3.3918e-05,8.6441e-05,9.5305e-05,4.1957e-06,0.00015883,2.6633e-05,-2.4399e-05,-6.8857e-06,0.00015667,3.8072e-05,-6.6433e-05,5.6566e-05,6.6325e-06,8.7003e-05,-4.5684e-05,-3.6592e-05,4.7158e-05,3.0909e-05,-2.5031e-06,0.00010647,2.3446e-05,-4.3483e-06,-8.2497e-05,7.0127e-05,8.0957e-06,0.00014788,-0.00010104,2.0461e-05,-2.2247,-0.00016321,2.4913,0.00011164,0.00063549,-1.6286e-05,-0.00014093,3.158e-05,5.8788e-05,-0.00016888,-7.2438e-05,-4.0706e-06,-1.8857e-05,-5.1999e-05,2.1858e-05,0.00013732,0.00011346,5.0299e-05,9.2327e-05,-8.157e-05,-1.9934e-05,-0.00015457,4.0995e-05,-8.4948e-05,2.2748e-06,-3.1131e-05,-4.0602e-05,-5.4323e-05,-2.0147e-05,-3.9867e-05,6.1164e-05,6.1139e-05,-8.4578e-05,6.3016e-06,-2.3769e-05,-0.00073832,-6.4331e-07,4.1402e-05,-9.3738e-05,-1.5645e-05,-1.4981e-05,7.1484e-05,-0.00029379,3.0945e-05,-0.21277,-1.9286e-05,-4.4681e-05
-9.3695e-05,-0.00014659,-0.00029314,-0.00028196,5.2711e-05,0.00011088,8.8655e-06,0.0001345,-1.6988,-1.9369e-09,5.1546e-05,5.3344e-05,0.00011445,-1.5928e-05,0.00023895,3.3087e-05,-0.00012555,-1.9144e-05,0.00019559,5.2581e-05,-8.2753e-05,6.5159e-05,2.4397e-05,7.1353e-05,-0.00010071,-5.2867e-05,8.6748e-05,2.611e-05,-2.6027e-05,0.00013633,5.107e-05,-7.3752e-05,-0.00018099,3.5195e-05,7.8145e-05,0.00021201,-0.00015671,-2.2345e-05,-2.9114,-0.0002968,1.1885,1.74e-05,-9.2625e-05,-0.00010875,-0.00022416,9.7966e-05,0.00011812,-0.00038272,-0.00023287,-4.9808e-05,-4.569e-05,-6.1933e-05,-0.00072243,0.00022305,0.00017685,8.8747e-05,0.0001189,-0.0002761,-6.7688e-05,-0.00029941,4.8287e-05,-0.00016667,3.2199e-05,-0.00012998,-0.00010873,-0.00010333,-3.6388e-05,-9.8676e-05,0.00010851,6.9546e-05,-0.00015062,-3.1053e-05,4.1127e-06,-0.0010688,2.8429e-05,-2.2985e-05,-0.00017523,5.6891e-06,9.8244e-06,0.00015348,-0.00097494,6.2731e-05,-0.28175,-9.9754e-05,-0.00012701
-0.00010849,-0.00014078,-0.00024614,-0.00020071,5.901e-05,0.00012923,6.5982e-06,0.00012454,-1.5059,-3.0831e-05,-2.9265e-09,4.3643e-05,0.00012198,-1.0525e-05,0.00024571,4.7515e-05,-0.00010816,-1.6074e-05,0.00028771,6.1656e-05,-6.7707e-05,6.7923e-05,1.5256e-05,0.00011672,-0.00010271,-4.8959e-05,7.8542e-05,2.4536e-05,-1.4493e-05,0.00011147,6.2159e-05,-7.9938e-05,-0.00015385,5.7266e-05,4.4265e-05,0.00020276,-0.00016472,-2.0091e-05,-1.9202,-0.00026907,1.1656,3.3098e-05,-6.3359e-05,-0.00011157,-0.00020478,7.1567e-05,0.00011518,-0.0003195,-0.00023207,-3.6971e-05,-5.3901e-05,-8.0377e-05,-0.00049552,0.00023983,0.00019814,8.5897e-05,0.00013974,-0.00026834,-7.6039e-05,-0.00024015,3.2048e-05,-0.00016951,1.8688e-05,-0.00011911,-7.495e-05,-9.2622e-05,-4.5246e-05,-0.000107,0.00011107,6.6865e-05,-0.00014513,-2.7472e-05,1.2917e-05,-0.0022345,3.164e-05,-6.1839e-06,-0.0001449,-9.5239e-07,-1.0743e-05,0.00015236,-0.00076313,6.4509e-05,-0.23593,-9.4442e-05,-0.00011484
-4.0809e-05,-5.9608e-05,-0.00010111,-0.00010171,2.2129e-05,3.8159e-05,-4.2341e-06,3.3796e-05,-1.1051,-2.8061e-05,9.0235e-06,-1.9831e-09,4.5355e-05,-5.1263e-06,7.6534e-05,3.0709e-05,-3.1642e-05,-8.1439e-06,7.1535e-05,1.9755e-05,-5.039e-05,3.2464e-05,2.3722e-06,4.0447e-05,-4.1712e-05,-2.6618e-05,2.52e-05,5.3564e-05,-3.0884e-07,5.491e-05,3.9432e-05,-2.348e-05,-6.0498e-05,3.6974e-05,2.8923e-06,0.00013045,-6.7532e-05,-1.0969e-06,-2.9596,-0.00010909,3.6859,1.2529e-05,-2.8847e-05,-3.0378e-05,-9.2507e-05,2.5148e-05,4.0741e-05,-0.0001148,-8.4542e-05,-2.8964e-05,-1.3079e-05,-3.8086e-05,-0.012339,8.4753e-05,6.8286e-05,2.9316e-05,6.0171e-05,-0.00012951,-2.6683e-05,-0.00013533,1.7571e-05,-6.4224e-05,1.0251e-05,-3.9172e-05,-3.0173e-05,-4.4673e-05,-2.07e-05,-3.4895e-05,4.234e-05,3.4298e-05,-6.8753e-05,-1.3181e-05,-6.9313e-06,-0.00024248,6.5004e-06,1.3796e-05,-9.3469e-05,-4.5062e-06,-5.1794e-06,5.6964e-05,-0.00037314,2.4518e-05,-0.17243,-2.1625e-05,-4.1437e-05
-8.3352e-05,-8.6108e-05,-0.0002054,-4.4591e-05,4.8333e-05,0.00012344,-1.0841e-06,0.00011536,-1.504,-2.1154e-05,5.5244e-05,6.2582e-05,-2.76e-09,1.682e-06,0.00024724,1.9063e-05,-5.8136e-05,-2.2216e-05,0.00017234,4.8965e-05,-8.9994e-05,5.358e-05,6.3423e-07,0.00012397,-7.063e-05,-4.9429e-05,6.8019e-05,2.9848e-05,-1.0114e-05,0.00010215,6.8909e-05,-5.5347e-05,-0.00013682,5.7767e-05,2.9178e-05,0.0002158,-0.00013051,1.844e-05,-1.0474,-0.00022506,1.1721,9.2778e-05,-1.1008e-05,-5.7954e-05,-0.00017452,5.6919e-05,7.9841e-05,-0.00024915,-0.00011968,-2.7272e-05,-1.2921e-05,-5.3524e-05,-0.0015872,0.00020362,0.00016086,7.2074e-05,0.00010639,-7.789e-05,-3.0591e-05,-0.00014917,4.2145e-05,-0.00011154,1.1465e-05,-4.216e-05,-6.1212e-05,-8.0447e-05,-2.9837e-05,-6.0377e-05,9.3583e-05,7.1014e-05,-0.00013376,-1.6261e-05,-1.4462e-05,-0.0015538,1.3022e-05,2.4198e-05,-0.0001269,-1.9457e-06,-5.387e-06,0.00010962,-0.00047711,4.1521e-05,-0.17853,-3.5726e-05,-9.4132e-05
-2.0028e-05,-2.8014e-05,-5.4787e-05,-4.7255e-05,1.2187e-05,2.3577e-05,-2.448e-06,2.6221e-05,-1.5221,-1.5412e-05,8.9056e-06,1.527e-05,2.6206e-05,-1.5834e-09,4.6881e-05,9.7349e-06,-1.6695e-05,-3.8142e-06,4.9676e-05,2.2972e-05,-2.6469e-05,2.5706e-05,2.9766e-06,2.0109e-05,-2.1698e-05,-1.4576e-05,1.7905e-05,7.0346e-06,-9.1028e-06,2.8612e-05,1.3511e-05,-2.0094e-05,-4.3573e-05,9.9414e-06,1.4275e-06,5.5139e-05,-4.2074e-05,2.5974e-06,-2.7176,-7.1701e-05,1.3307,2.2882e-05,-4.2795e-07,-3.0806e-05,-5.6977e-05,1.8639e-05,2.3145e-05,-6.871e-05,-5.0119e-05,-9.0532e-06,-3.0158e-06,-1.9581e-05,-0.00010022,5.9506e-05,4.984e-05,2.5881e-05,4.441e-05,-7.9633e-05,-9.6639e-06,-5.9241e-05,8.6173e-06,-2.9651e-05,5.9395e-06,-2.7116e-05,-2.5329e-05,-2.8088e-05,-9.4088e-06,-1.6245e-05,2.5513e-05,2.3987e-05,-4.1674e-05,2.5743e-06,-6.0351e-06,-0.00015914,2.7033e-06,-6.8805e-07,-6.1991e-05,-6.9991e-07,-2.6127e-06,3.5096e-05,-0.00020746,1.2844e-05,-0.33227,-1.1037e-05,-2.4799e-05
-4.0427e-05,-5.4982e-05,-0.00010565,-9.0439e-05,2.1577e-05,4.8419e-05,1.6747e-06,5.1173e-05,-1.4277,-1.2276e-05,2.6125e-05,2.285e-05,5.335e-05,-5.4393e-06,-2.6404e-09,1.6712e-05,-4.2359e-05,-8.8799e-06,9.111e-05,2.2481e-05,-3.97e-05,2.7773e-05,5.1907e-06,3.415e-05,-4.0546e-05,-2.4081e-05,3.3148e-05,1.2599e-05,-9.4894e-06,4.7965e-05,1.6961e-05,-3.4191e-05,-7.8374e-05,1.2843e-05,1.6487e-05,9.6276e-05,-6.5051e-05,-4.8807e-06,-2.2399,-0.00012426,0.95983,1.3344e-05,-3.0025e-05,-4.0691e-05,-9.8398e-05,3.0887e-05,4.4463e-05,-0.00014448,-8.6622e-05,-2.929e-05,-1.7138e-05,-2.9746e-05,-0.00039368,0.00010679,8.6483e-05,3.7473e-05,5.0583e-05,-0.00010663,-2.8472e-05,-9.8376e-05,1.4471e-05,-6.7719e-05,7.5461e-06,-4.4419e-05,-3.6887e-05,-4.227e-05,-1.3107e-05,-4.2896e-05,3.9537e-05,2.7358e-05,-6.2496e-05,-9.1544e-06,-1.1895e-06,-0.00068472,1.1441e-05,-4.8043e-07,-6.4911e-05,-1.051e-06,-8.2847e-07,6.2752e-05,-0.00034057,2.1928e-05,-0.26224,-3.6288e-05,-5.6623e-05
-2.6516e-05,-4.0861e-05,-6.7027e-05,-6.8925e-05,1.8689e-05,4.7418e-05,4.6536e-06,3.2038e-05,-1.1297,-1.5552e-05,1.1793e-05,2.4784e-05,3.1331e-05,-1.9001e-06,5.97e-05,-2.245e-09,-2.539e-05,-1.3708e-06,5.5106e-05,1.6268e-05,-3.058e-05,2.4096e-05,7.0193e-06,3.3605e-05,-3.6927e-05,-2.1419e-05,2.7171e-05,1.4981e-05,-1.1266e-06,4.0455e-05,2.4185e-05,-1.5734e-05,-3.7789e-05,1.717e-05,7.9708e-06,6.1715e-05,-3.9121e-05,-4.6001e-06,-2.8068,-8.5543e-05,2.1899,2.394e-05,-1.9216e-05,-3.279e-05,-6.7146e-05,2.6038e-05,3.5389e-05,-9.5591e-05,-6.7611e-05,-8.741e-07,-1.3478e-05,-2.6308e-05,-0.00010302,7.0666e-05,5.6093e-05,2.4693e-05,4.7775e-05,-0.00013186,-2.0168e-05,-9.7578e-05,1.2837e-05,-4.3887e-05,9.5456e-06,-3.9251e-05,-2.8701e-05,-3.1231e-05,-1.0352e-05,-2.5349e-05,3.822e-05,1.9517e-05,-5.2292e-05,-5.5544e-06,1.4006e-06,-0.00023628,7.6333e-06,1.5533e-06,-6.4812e-05,8.8196e-07,1.3716e-06,5.0302e-05,-0.00023955,3.4119e-05,-0.23605,-1.7805e-05,-3.4977e-05
-2.7121e-05,-3.5207e-05,-7.3471e-05,-7.1695e-05,2.4138e-05,5.1043e-05,5.9058e-07,4.2806e-05,-1.1305,-2.494e-05,1.6717e-05,3.7338e-05,5.0493e-05,9.7326e-06,8.091e-05,2.8001e-05,-2.6619e-09,-4.7989e-06,8.5944e-05,3.5867e-05,-4.0183e-05,3.8395e-05,5.1935e-06,5.123e-05,-3.6723e-05,-2.4541e-05,2.3954e-05,1.9479e-05,-2.757e-07,4.5706e-05,6.0326e-05,-1.5928e-05,-4.2663e-05,3.8654e-05,4.7587e-06,9.7956e-05,-6.5393e-05,6.7081e-06,-2.2086,-9.6025e-05,1.7839,4.0339e-05,-2.0547e-07,-3.3971e-05,-7.4368e-05,2.7006e-05,3.7174e-05,-8.7592e-05,-6.8573e-05,-4.2848e-06,-2.815e-06,-3.2319e-05,-0.00013615,9.7715e-05,7.9867e-05,3.967e-05,7.0766e-05,-0.00012988,-8.7424e-06,-0.00010454,2.148e-05,-4.0728e-05,1.173e-05,-3.753e-05,-4.0041e-05,-3.3662e-05,-8.7435e-06,-2.015e-05,4.6412e-05,4.0194e-05,-5.5036e-05,3.7552e-06,-9.9441e-06,-0.0002648,4.9162e-06,2.505e-05,-9.1171e-05,-7.8059e-07,-2.2934e-06,5.5468e-05,-0.00029993,2.6445e-05,-0.2348,-7.7314e-06,-2.8853e-05
-3.4423e-05,-4.9096e-05,-0.00010457,-8.8656e-05,2.0961e-05,4.3016e-05,5.0326e-06,5.2178e-05,-1.5711,-1.7412e-05,1.9758e-05,3.2238e-05,4.1439e-05,2.3036e-06,8.9034e-05,3.2377e-05,-3.444e-05,-3.2381e-10,9.3824e-05,2.7815e-05,-3.4131e-05,3.5278e-05,7.9012e-06,4.1761e-05,-4.4232e-05,-2.1604e-05,3.817e-05,9.1032e-06,-1.7615e-05,4.9483e-05,2.4705e-05,-2.8487e-05,-7.3562e-05,1.9895e-05,1.2409e-05,9.3941e-05,-6.6862e-05,-6.7927e-06,-2.9527,-0.00013344,1.4893,3.2129e-05,-3.1385e-05,-4.6285e-05,-9.5877e-05,3.2619e-05,5.6081e-05,-0.00013656,-8.7687e-05,-8.3966e-06,-1.1732e-05,-2.8683e-05,-0.027577,9.7228e-05,8.0297e-05,4.4887e-05,6.0964e-05,-0.0001284,-2.448e-05,-0.00011254,1.9239e-05,-5.1764e-05,1.2346e-05,-4.5888e-05,-4.5266e-05,-4.0114e-05,-9.8321e-06,-3.2737e-05,5.6067e-05,3.6756e-05,-6.1665e-05,-4.1803e-07,8.6296e-06,-0.001207,1.9771e-05,-3.8377e-06,-8.8061e-05,1.3287e-06,2.2008e-06,7.3594e-05,-0.00036948,3.434e-05,-0.41168,-2.666e-05,-5.1219e-05
-0.00029765,-0.0004476,-0.0006746,-0.00063538,0.00013605,0.0002874,-1.746e-05,0.00029422,-1.5043,-0.00015387,0.00022389,0.00017166,0.00032365,-7.8513e-06,0.0005812,0.00014385,-0.00028932,-4.7477e-05,-2.7727e-09,0.00016599,-0.00018586,0.00020819,2.4219e-05,0.00026702,-0.0002991,-0.00018348,0.00017826,8.5481e-05,-2.8516e-05,0.00032355,0.00018954,-0.00023701,-0.00043539,0.00012617,5.98e-05,0.0006728,-0.00043073,-5.7226e-05,-1.7542,-0.00082044,0.84508,0.00013795,-0.00012849,-0.00036196,-0.00068283,0.00020702,0.00027519,-0.00088366,-0.00060074,-0.00010636,-0.00012532,-0.00027338,-0.0021646,0.00063005,0.0005166,0.00023393,0.00040034,-0.00090802,-0.00024091,-0.00069375,8.278e-05,-0.00042858,4.4082e-05,-0.00043215,-0.00028578,-0.00026689,-0.0001481,-0.00030716,0.00027271,0.00023204,-0.00041692,-7.8549e-05,1.0413e-05,-0.0040236,5.8234e-05,1.2832e-05,-0.00046651,-3.3222e-05,-5.2553e-05,0.00044946,-0.0020936,0.00015766,-0.24364,-0.00022759,-0.00034077
-0.00016793,-0.0002151,-0.0004801,-0.00039601,0.00011352,0.00021516,9.3672e-06,0.0002953,-1.6363,-0.000118,0.00010636,0.00012489,0.00022284,5.9151e-05,0.00043531,6.7012e-05,-0.00014155,-3.7732e-05,0.0003925,-3.0398e-09,-0.00019933,0.00020848,3.3294e-05,0.00021597,-0.00019763,-0.00012306,0.00015657,5.1771e-05,-3.8754e-05,0.00024238,0.00013846,-0.00015358,-0.00035886,0.00016803,3.1761e-05,0.0004797,-0.00038715,-8.0065e-06,-2.4699,-0.00060373,1.1512,0.00015428,-2.3702e-05,-0.00023832,-0.00044596,0.00015027,0.00022495,-0.00059617,-0.00046223,-4.4299e-05,-5.3321e-05,-0.00016911,-0.00077825,0.0005239,0.00043094,0.00019398,0.00035254,-0.00063204,-6.7797e-05,-0.0005043,9.8342e-05,-0.0002762,4.5338e-05,-0.00021901,-0.00022213,-0.00021999,-6.5833e-05,-0.00015401,0.00026371,0.00022833,-0.00033391,1.8122e-05,-2.9856e-05,-0.0012398,3.2539e-05,-2.7117e-05,-0.00045391,-2.1655e-06,6.1076e-06,0.00030536,-0.001844,0.00013076,-0.27379,-0.00012215,-0.00023306
-2.7421e-05,-4.0875e-05,-6.6984e-05,-7.0558e-05,1.3787e-05,2.2253e-05,2.1459e-06,3.1241e-05,-1.3861,-9.8867e-06,1.4811e-05,1.2478e-05,2.4911e-05,-3.966e-06,5.3084e-05,8.7546e-06,-3.1913e-05,-3.5167e-06,6.2684e-05,1.529e-05,-1.6971e-09,2.172e-05,6.7704e-06,2.4078e-05,-2.7005e-05,-1.5198e-05,2.1437e-05,8.1297e-06,-6.785e-06,2.9268e-05,1.3033e-05,-1.9691e-05,-4.4932e-05,1.3428e-05,1.0708e-05,5.3397e-05,-4.43e-05,-8.3207e-06,-2.592,-8.104e-05,1.075,5.6588e-06,-3.16e-05,-3.2535e-05,-6.1064e-05,2.3662e-05,3.0275e-05,-9.2924e-05,-6.7086e-05,-9.6122e-06,-1.1342e-05,-2.124e-05,-0.003163,5.7316e-05,4.6808e-05,2.2585e-05,3.8744e-05,-9.2394e-05,-2.0652e-05,-7.6872e-05,1.0671e-05,-4.3395e-05,6.1307e-06,-4.0454e-05,-2.5007e-05,-2.4883e-05,-1.0677e-05,-2.7442e-05,3.4584e-05,1.8545e-05,-4.0378e-05,-5.559e-06,1.9066e-06,-0.00023018,8.6153e-06,-8.1153e-06,-5.365e-05,1.5342e-06,-6.0854e-07,4.3954e-05,-0.00024454,1.6109e-05,-0.30305,-2.467e-05,-3.402e-05
-0.00013798,-0.00020917,-0.00037229,-0.0003682,0.00010245,0.00014475,-9.8271e-06,0.000185,-1.6021,-0.00010787,7.0073e-05,0.00012819,0.00018101,3.5945e-05,0.00034475,7.5969e-05,-0.000138,-3.3541e-05,0.00031412,0.00014146,-0.00014854,-1.9897e-09,3.0846e-05,0.00016274,-0.00017956,-9.6495e-05,0.00012894,7.064e-05,-3.2384e-05,0.00018755,9.292e-05,-0.00012034,-0.00027983,0.00012566,2.6459e-05,0.00035725,-0.00028453,4.4142e-06,-2.7187,-0.0004965,1.3194,0.00011177,-9.725e-05,-0.00017827,-0.00038185,0.00014327,0.00016988,-0.00046833,-0.00037626,-4.1891e-05,-3.9928e-05,-0.00014034,-0.0038684,0.00043802,0.0003653,0.00016888,0.00030277,-0.00054849,-8.6468e-05,-0.00039473,5.9037e-05,-0.00020832,6.1102e-05,-0.00017191,-0.00015795,-0.00018413,-6.8257e-05,-0.00011829,0.00020543,0.00017336,-0.00027599,2.0068e-05,-3.6675e-05,-0.0012614,3.6143e-05,5.1494e-06,-0.00039085,1.0802e-05,-5.9729e-06,0.00026962,-0.0016543,9.8431e-05,-0.27296,-9.1113e-05,-0.00017491
-1.9463e-05,-3.2673e-05,-5.7051e-05,-5.9941e-05,1.2554e-05,2.3024e-05,1.2132e-06,2.5163e-05,-1.3672,-8.2955e-06,8.687e-06,1.236e-05,1.9829e-05,-2.0832e-06,4.2911e-05,1.1761e-05,-2.4309e-05,-5.0532e-06,3.5258e-05,1.2289e-05,-1.7356e-05,1.6426e-05,-1.8455e-09,1.5981e-05,-2.3003e-05,-1.3201e-05,1.7325e-05,6.4754e-06,-6.926e-06,2.761e-05,1.0775e-05,-1.8066e-05,-3.6469e-05,6.9233e-06,7.997e-06,4.1488e-05,-3.5385e-05,-4.3147e-06,-2.8099,-6.5041e-05,1.2632,9.752e-06,-1.7071e-05,-2.6067e-05,-5.1461e-05,1.8887e-05,2.2854e-05,-7.5198e-05,-5.1119e-05,-7.5828e-06,-9.0597e-06,-1.5794e-05,-0.00017502,4.7165e-05,3.7869e-05,1.8926e-05,3.1274e-05,-7.232e-05,-1.5053e-05,-6.4868e-05,8.5645e-06,-2.9545e-05,7.7892e-06,-3.0491e-05,-2.065e-05,-2.2497e-05,-1.0115e-05,-1.9202e-05,2.3699e-05,1.701e-05,-3.5995e-05,-4.5725e-06,-1.9212e-07,-0.0002351,4.3496e-06,-5.3329e-06,-4.7789e-05,5.6296e-07,2.7656e-06,3.367e-05,-0.00021095,1.3225e-05,-0.27762,-1.9443e-05,-2.7741e-05
-7.5553e-05,-8.9989e-05,-0.00017506,-0.00012356,6.1095e-05,0.00014399,1.4485e-05,9.7386e-05,-0.92654,-5.2958e-05,5.8263e-05,5.8398e-05,0.00013247,-1.0809e-05,0.00015638,7.8697e-05,-5.2409e-05,-1.2575e-05,0.00017001,5.2592e-05,-6.8955e-05,5.7896e-05,2.2301e-06,-3.0624e-09,-8.2362e-05,-4.111e-05,7.1387e-05,2.7806e-05,-2.3791e-06,8.9842e-05,8.2395e-05,1.6876e-05,-0.00012813,0.00014936,2.4575e-05,0.00016892,-0.00013934,-2.3452e-05,-1.6167,-0.00018303,1.3628,9.9924e-05,3.0313e-05,-4.6356e-05,-0.00016497,5.9486e-05,9.4834e-05,-0.00022458,-0.0001234,2.5238e-05,-1.9867e-05,-6.85e-05,-0.00030835,0.00018308,0.00015095,6.6207e-05,0.00013571,-0.00019126,-4.9396e-05,-0.00023869,5.9023e-05,-0.00013272,2.4348e-05,-3.4043e-05,-2.9823e-05,-7.8264e-05,-3.2149e-05,-7.146e-05,0.0001685,4.9526e-05,-0.00011048,-2.3705e-05,1.1181e-05,-0.00054058,2.6961e-05,1.4995e-05,-0.00015702,-1.3724e-06,-5.9816e-06,0.00012617,-0.00049797,6.2374e-05,-0.12467,-4.9186e-05,-7.6255e-05
-0.00017938,-0.00024708,-0.00044172,-0.00043776,6.7108e-05,0.00019823,-9.3678e-06,0.00018934,-1.2862,-9.9146e-05,5.7295e-05,0.00012662,0.00018194,1.0799e-05,0.0003567,4.6434e-05,-0.00017772,-6.1719e-05,0.00031907,0.00011255,-0.00017655,0.00013297,1.2563e-05,0.00015063,-3.148e-09,-0.00010189,0.00013526,8.7178e-05,-5.6957e-05,0.0001681,0.00011205,-0.00015735,-0.00030208,0.00010554,5.3411e-05,0.00040307,-0.00028651,6.3059e-06,-2.6749,-0.00051496,1.4688,0.00013225,-6.4498e-05,-0.00019264,-0.00043201,0.00013377,0.00016107,-0.00058174,-0.00035419,-7.83e-05,-5.6077e-05,-0.0001471,-0.00076499,0.0003576,0.00028891,0.00015087,0.00027872,-0.00056065,-0.00012137,-0.00053185,7.0062e-05,-0.00028949,4.147e-05,-0.00021229,-0.00016272,-0.00019482,-8.9225e-05,-0.00016798,0.00019517,0.00012857,-0.0002737,-3.7647e-05,-2.5925e-05,-0.0012792,1.18e-05,-1.4907e-05,-0.00039213,-1.2339e-05,-2.6731e-05,0.00023901,-0.0014838,8.0371e-05,-0.1939,-0.00013693,-0.00022751
-7.2839e-05,-0.00010351,-0.00018332,-0.00016718,3.8581e-05,8.3287e-05,-3.4408e-06,8.7497e-05,-1.4232,-3.6682e-05,3.2363e-05,5.3592e-05,7.9609e-05,3.6725e-08,0.00014768,2.581e-05,-7.5749e-05,-1.7481e-05,0.00013032,4.7491e-05,-7.4702e-05,6.3248e-05,7.2418e-06,7.682e-05,-7.0163e-05,-2.9999e-09,5.6047e-05,2.8366e-05,-8.8383e-06,9.4058e-05,6.0914e-05,-4.9845e-05,-0.00012318,6.6054e-05,2.6402e-05,0.00015204,-0.00012939,-1.2323e-05,-2.7038,-0.00020319,1.4465,3.2192e-05,-4.0452e-05,-7.8127e-05,-0.00016706,5.5054e-05,8.0463e-05,-0.00023532,-0.00015789,-1.909e-05,-2.5985e-05,-6.2219e-05,-0.00081197,0.0001596,0.00013007,6.581e-05,0.00011461,-0.00021675,-4.8105e-05,-0.00020712,3.3219e-05,-0.00011916,1.9422e-05,-8.1717e-05,-6.2382e-05,-7.937e-05,-3.5798e-05,-6.8168e-05,9.2324e-05,6.2754e-05,-0.00011952,-1.0397e-05,-8.1451e-06,-0.00090763,9.4349e-06,5.8648e-06,-0.00015525,-4.2383e-06,-9.8002e-06,0.0001114,-0.00057758,4.476e-05,-0.2676,-5.1287e-05,-8.785e-05
-0.00012824,-0.00019381,-0.00038921,-0.0003474,8.2038e-05,0.00015673,3.6272e-05,0.00015784,-1.4484,-5.5639e-05,5.6986e-05,7.4096e-05,0.0001566,-1.4346e-05,0.00029938,8.8313e-05,-0.00017529,-2.2127e-05,0.00020873,7.5242e-05,-0.00013148,9.9113e-05,2.2382e-05,0.00014272,-0.00013394,-8.0218e-05,-1.3638e-09,3.1005e-05,-4.1965e-05,0.00015849,6.3408e-05,-0.00011392,-0.00026938,8.0406e-05,5.0065e-05,0.00029285,-0.00023171,-2.8738e-05,-2.8437,-0.00041056,1.1549,8.6854e-05,-0.00011479,-0.00016291,-0.0003292,0.00011866,0.00014605,-0.00048671,-0.00027948,-6.178e-05,-5.9238e-05,-0.00010345,-0.080625,0.0003194,0.00026076,0.00012282,0.00021057,-0.00041642,-0.00010906,-0.00038889,6.4908e-05,-0.00022033,3.5652e-05,-0.00016744,-0.00011846,-0.00014572,-3.1357e-05,-0.00013864,0.0001651,9.6927e-05,-0.00020175,-3.7846e-05,-2.2226e-06,-0.0017791,2.3805e-05,-3.4576e-05,-0.00031689,7.3824e-06,-2.8285e-07,0.00021082,-0.0013987,9.7567e-05,-0.30835,-0.00010993,-0.00017546
-0.00088737,-0.0012317,-0.0018589,-0.0021613,0.00032351,0.00092111,-0.00013532,0.0006734,-1.6857,-0.00049016,0.00022545,0.0011907,0.00070335,-0.00015913,0.0014727,0.00050235,-0.00084256,-0.00036678,0.0012624,0.00029348,-0.00082153,0.0005447,4.6408e-05,0.00060137,-0.00074208,-0.00053718,0.00045421,-2.8986e-09,-8.6047e-05,0.00075844,0.00043942,-0.00051974,-0.0012435,0.00058699,0.00015455,0.0026621,-0.0012163,-8.8888e-05,-2.5942,-0.0022729,3.5265,0.00042077,-0.000651,-0.00084425,-0.0019031,0.00056258,0.00064637,-0.0024859,-0.0017571,-0.00055959,-0.00049682,-0.00071513,-0.0042847,0.0014827,0.0011647,0.00052988,0.00099961,-0.0027366,-0.00073134,-0.0024606,0.00032709,-0.0015299,0.0001385,-0.0010301,-0.00065596,-0.00080432,-0.00061093,-0.00086873,0.00078653,0.00047384,-0.0014565,-0.00034289,-0.00018547,-0.0038112,5.6551e-05,-1.1867e-06,-0.0016642,-3.8236e-05,-7.6552e-05,0.001025,-0.0065449,0.00029547,-0.18307,-0.00058819,-0.00092453
-1.2407e-05,-1.7838e-05,-3.0557e-05,-2.6819e-05,6.6867e-06,1.3399e-05,-1.2493e-06,1.1502e-05,-1.4676,-7.5775e-06,5.0536e-06,1.0728e-05,1.3359e-05,-2.3708e-06,2.4228e-05,5.9648e-06,-1.1198e-05,-6.213e-06,2.2318e-05,6.9408e-06,-1.262e-05,9.0015e-06,-8.0349e-09,1.291e-05,-1.4487e-05,-7.2769e-06,7.6568e-06,6.5623e-06,-2.842e-09,1.2336e-05,1.3005e-05,-7.1493e-06,-1.4811e-05,1.0698e-05,1.9682e-06,2.9006e-05,-2.176e-05,-5.396e-07,-2.4498,-2.409e-05,1.8749,2.1851e-06,-8.7176e-06,-1.074e-05,-2.032e-05,1.0054e-05,1.1382e-05,-2.7458e-05,-2.6265e-05,-5.9029e-06,-6.2266e-06,-1.1321e-05,-6.0136e-05,2.4708e-05,2.0127e-05,8.4577e-06,1.8123e-05,-3.6965e-05,-9.5196e-06,-3.0677e-05,5.3514e-06,-2.0044e-05,3.9705e-06,-1.661e-05,-1.1074e-05,-1.1649e-05,-6.8658e-06,-1.2219e-05,1.2314e-05,7.4791e-06,-1.9795e-05,-4.6969e-06,-2.7372e-06,-7.645e-05,9.5713e-07,5.5789e-06,-2.5814e-05,1.3736e-07,-2.0413e-06,1.6686e-05,-9.1292e-05,7.2425e-06,-0.16753,-8.3175e-06,-1.1717e-05
-3.5931e-05,-4.7214e-05,-8.5818e-05,-0.00010582,2.3245e-05,4.3616e-05,3.2457e-06,4.0099e-05,-0.68373,-1.2001e-05,1.3672e-05,3.0417e-05,3.8077e-05,-2.4759e-06,7.1365e-05,1.8259e-05,-3.8398e-05,-1.0303e-05,6.3256e-05,1.8159e-05,-3.6244e-05,2.2437e-05,7.5624e-06,2.978e-05,-4.3196e-05,-1.84e-05,2.6941e-05,9.2296e-06,-1.0776e-05,-3.0561e-09,2.2392e-05,-2.1785e-05,-5.7294e-05,1.1603e-05,1.253e-05,7.1197e-05,-5.8873e-05,-9.9811e-06,-2.0934,-0.00010043,2.0749,1.3793e-05,2.7315e-05,-3.59e-05,-7.716e-05,2.782e-05,3.7082e-05,-0.00012647,-5.7815e-05,-1.1822e-05,-1.6609e-05,-3.2122e-05,-8.5604e-05,8.2153e-05,6.375e-05,3.0258e-05,4.471e-05,-0.00011158,-2.3759e-05,-0.00011538,2.2491e-05,-5.763e-05,8.7265e-06,-4.1177e-05,-3.9342e-05,-3.6806e-05,-4.7027e-06,-3.3625e-05,4.2074e-05,2.755e-05,-5.4994e-05,-7.5701e-06,-3.1263e-06,-0.000172,4.5281e-06,-3.3537e-06,-7.2549e-05,1.4014e-06,3.0283e-07,5.5019e-05,-0.00034025,2.1066e-05,-0.16258,-2.9168e-05,-4.5307e-05
-4.0165e-05,-5.3883e-05,-9.6024e-05,-9.6594e-05,2.8146e-05,7.0495e-05,-4.3558e-06,4.431e-05,-1.249,-2.4276e-05,1.71e-05,4.1815e-05,4.5663e-05,-5.6412e-06,6.9024e-05,3.1053e-05,-2.0052e-05,-1.1248e-05,7.9022e-05,2.1509e-05,-4.0215e-05,2.7418e-05,3.4966e-06,5.1036e-05,-4.2716e-05,-2.305e-05,2.6517e-05,1.9687e-05,7.913e-06,5.3195e-05,-3.0973e-09,-3.2334e-05,-3.48e-05,4.1862e-05,1.1302e-05,8.9075e-05,-6.7649e-05,3.2243e-06,-1.8545,-9.2099e-05,1.6668,2.958e-05,-2.0735e-06,-3.5556e-05,-7.8104e-05,2.9598e-05,3.8939e-05,-0.00011488,-0.00010287,4.3641e-06,-1.9328e-05,-4.1986e-05,-0.00018085,9.0589e-05,7.0374e-05,4.5657e-05,7.6049e-05,-0.00013289,-2.2788e-05,-0.00013802,1.6907e-05,-6.2713e-05,1.4871e-05,-5.8791e-05,-3.0891e-05,-3.2934e-05,-2.0723e-05,-3.484e-05,5.619e-05,4.0994e-05,-6.9395e-05,-1.527e-05,-3.9482e-06,-0.00019904,6.4115e-06,2.8284e-05,-7.9903e-05,3.4307e-07,-4.9e-06,5.838e-05,-0.00029485,3.0746e-05,-0.2183,-1.4e-05,-3.8053e-05
-0.00037549,-0.00058497,-0.00090756,-0.00081327,0.00026568,0.00076261,6.4094e-05,0.00041405,-1.0769,-0.00020715,0.00019046,0.00044085,0.00052733,-2.8406e-05,0.0009238,0.00043085,-0.00026858,-7.7498e-05,0.00081183,0.00030256,-0.00038958,0.00040137,5.2103e-05,0.0010568,-0.00051301,-0.00023769,0.0003469,0.00028475,3.8259e-05,0.00066112,0.00028225,-3.0999e-09,-0.00076028,0.00052965,0.00016053,0.0012271,-0.0007765,-0.00010986,-1.7133,-0.0011823,2.1617,0.00047289,4.3527e-05,-0.00028021,-0.0010203,0.00041482,0.00050833,-0.0013011,-0.00061694,0.00011083,-0.00011001,-0.00037078,-0.0032781,0.0010871,0.00085371,0.00043461,0.00070416,-0.001578,-0.0002396,-0.0013666,0.00029984,-0.000648,0.00017851,-0.00022032,-0.00029157,-0.00042822,-0.00018082,-0.00033069,0.00075667,0.00030428,-0.00066491,-0.00012872,-4.3276e-05,-0.0021798,0.00012305,0.00012542,-0.0010733,7.7602e-06,3.6509e-05,0.00071104,-0.0030396,0.00033447,-0.17312,-0.00020462,-0.00044612
-0.00012627,-0.00017693,-0.00029716,-0.00032823,7.1469e-05,0.00018879,-5.3741e-06,0.00013479,-1.1847,-7.2533e-05,6.0072e-05,0.00010584,0.00013562,-1.0091e-05,0.00023719,0.00011503,-8.2097e-05,-4.1389e-05,0.00023517,7.4002e-05,-0.00012188,0.00010515,1.6596e-05,0.00011382,-0.00013363,-7.9627e-05,7.8539e-05,6.3187e-05,2.3901e-05,0.00015207,0.00019072,-0.00010439,-2.8582e-09,9.9248e-05,3.5061e-05,0.00027186,-0.00022496,-9.2286e-06,-2.2198,-0.00030517,1.9194,9.2804e-05,-4.0104e-05,-0.00011621,-0.000255,9.2543e-05,0.00011781,-0.00036232,-0.00028634,-3.0128e-05,-5.3725e-05,-0.0001234,-0.00055691,0.00027127,0.00021812,0.00011557,0.00018844,-0.00042656,-8.325e-05,-0.00037414,5.4239e-05,-0.0001929,4.1774e-05,-0.00020232,-0.00014849,-0.00012988,-6.5908e-05,-0.00011042,0.00014265,0.00010825,-0.00023063,-2.2879e-05,-1.3478e-05,-0.00063016,1.831e-05,4.5491e-05,-0.00026566,-4.3373e-06,-1.7569e-05,0.00018738,-0.0011421,8.0542e-05,-0.18975,-6.1451e-05,-0.00010751
-0.00018359,-0.00027297,-0.0004138,-0.00035498,0.00010768,0.00025152,8.0528e-06,0.00017527,-1.0162,-0.00013444,7.9714e-05,0.00014893,0.00019968,-5.6789e-05,0.00027026,8.3451e-05,-0.00013526,-7.3212e-05,0.00025536,0.00011859,-0.00017382,0.00012788,-2.2045e-05,0.00038831,-0.00018868,-7.9312e-05,0.0001206,9.6822e-05,7.4351e-06,0.00014835,0.00024474,-6.2711e-05,-0.00025113,-2.5048e-09,4.0433e-05,0.00029083,-0.000318,-0.00010518,-1.7098,-0.00042461,2.1459,0.00010534,-0.00011879,-0.00014044,-0.00035015,0.00012095,0.0001413,-0.00048939,-0.00036647,1.8772e-05,-9.5155e-05,-0.00016796,-0.0013598,0.00031197,0.00027009,0.00012447,0.00027343,-0.00048032,-0.00015499,-0.00052865,0.00011804,-0.00033351,4.404e-05,-0.00010262,-7.7677e-05,-0.00022182,-0.00013853,-0.00021374,0.0002713,0.00013229,-0.00025002,-0.00010205,-3.1582e-06,-0.0016061,2.587e-05,-8.0831e-06,-0.00033067,-1.8952e-05,-3.7729e-05,0.00023037,-0.0010297,7.1416e-05,-0.13553,-0.00014376,-0.00022166
-1.5844e-05,-2.322e-05,-4.5251e-05,-4.4701e-05,8.1266e-06,2.2498e-05,1.2541e-06,2.0995e-05,-1.5617,8.1332e-08,7.7575e-06,7.2747e-06,1.6701e-05,-3.9807e-06,3.4385e-05,5.3506e-06,-2.0295e-05,-4.1759e-06,2.7048e-05,6.6337e-06,-1.3034e-05,9.1955e-06,3.1369e-06,1.4133e-05,-1.3938e-05,-6.9579e-06,1.3015e-05,4.5641e-06,-4.0785e-06,1.9268e-05,8.9622e-06,-1.1381e-05,-2.6164e-05,8.5539e-06,-1.7403e-09,3.2385e-05,-2.492e-05,-4.6805e-06,-2.9647,-4.3113e-05,1.181,6.0694e-06,-1.3325e-05,-1.6837e-05,-3.7396e-05,1.448e-05,1.6935e-05,-6.1424e-05,-3.2607e-05,-4.4669e-06,-8.6718e-06,-1.0492e-05,-0.00025948,3.218e-05,2.5296e-05,1.4236e-05,1.8141e-05,-4.1392e-05,-1.2113e-05,-4.7453e-05,7.5804e-06,-2.9626e-05,5.3186e-06,-2.027e-05,-1.3401e-05,-1.5851e-05,-7.0273e-06,-1.687e-05,2.0584e-05,1.2057e-05,-2.2197e-05,-7.4326e-06,5.779e-07,-0.00020965,3.56e-06,-4.4979e-06,-2.7797e-05,-8.5165e-08,1.1142e-06,2.2791e-05,-0.00013556,8.6783e-06,-0.29052,-1.7045e-05,-1.9033e-05
-0.0003411,-0.00039004,-0.00086373,-0.00074604,0.00016203,0.0004002,-2.4285e-05,0.00035987,-1.1455,-0.00017087,0.00013669,0.00043719,0.00042157,-8.8908e-06,0.0008275,6.5528e-05,-0.0002825,-7.7045e-05,0.00078332,0.00021519,-0.00040171,0.00021767,9.1128e-06,0.00029596,-0.00030013,-0.00023678,0.00026539,0.00039169,-1.7841e-05,0.00038638,0.00016696,-0.00018118,-0.00060525,8.5205e-05,9.7671e-05,-4.1024e-09,-0.00060247,1.5872e-05,-2.3756,-0.0010555,3.0362,0.00023096,-0.00032153,-0.00037998,-0.0009255,0.0002408,0.0003308,-0.0012091,-0.00048944,-0.00013217,-0.00017754,-0.00025987,-0.11488,0.00077913,0.00064532,0.00026508,0.00049388,-0.00089659,-0.00023774,-0.0010576,0.00016249,-0.00060306,5.7263e-05,-0.00038208,-0.00030812,-0.00036282,-0.00011899,-0.00040686,0.00043962,0.00025266,-0.00055866,-0.00011446,-6.9549e-05,-0.0019914,6.6713e-05,5.7986e-05,-0.00072869,-2.0316e-05,2.607e-05,0.00048204,-0.0025439,0.00012677,-0.18714,-0.00034523,-0.00038006
-4.3508e-05,-7.0412e-05,-0.00012748,-0.00012334,2.8455e-05,5.2252e-05,-5.5385e-07,5.4441e-05,-1.6233,-2.289e-05,1.6651e-05,4.1396e-05,5.5e-05,-5.3394e-07,0.0001031,5.3722e-05,-4.5398e-05,-1.1337e-05,0.00011102,2.6302e-05,-4.8923e-05,4.349e-05,8.2856e-06,4.2678e-05,-4.4936e-05,-3.0697e-05,3.8209e-05,3.0681e-05,-9.6121e-06,5.9227e-05,3.4547e-05,-3.7182e-05,-8.1196e-05,2.8817e-05,1.4265e-05,0.00010568,-2.7706e-09,-6.1231e-07,-2.6439,-0.00014866,1.5047,2.477e-05,-3.6081e-05,-6.0164e-05,-0.00011126,4.5458e-05,5.0249e-05,-0.00016034,-0.0001093,-2.0938e-05,-1.7286e-05,-4.0359e-05,-0.0011272,0.00011148,8.9448e-05,4.6398e-05,7.6975e-05,-0.00017296,-3.5192e-05,-0.00012261,1.9164e-05,-7.6477e-05,1.6002e-05,-5.1851e-05,-3.5637e-05,-4.7402e-05,-2.0567e-05,-3.9028e-05,5.1062e-05,3.5042e-05,-7.8925e-05,-4.2466e-06,-1.3517e-06,-0.00047477,1.0338e-05,4.0743e-06,-0.0001013,2.2874e-06,-3.2098e-06,7.578e-05,-0.00043317,3.4715e-05,-0.2065,-3.0799e-05,-6.0489e-05
-3.5735e-05,-4.1051e-05,-8.4365e-05,-5.8525e-05,2.268e-05,5.0468e-05,-3.9174e-06,4.3312e-05,-1.299,-2.0004e-05,1.7463e-05,3.602e-05,5.9029e-05,9.9042e-06,9.3686e-05,1.2083e-05,-2.4566e-05,-1.0233e-05,8.3594e-05,2.9539e-05,-4.516e-05,3.7947e-05,4.8286e-06,3.5075e-05,-2.8773e-05,-2.5427e-05,2.9903e-05,2.2048e-05,-2.2898e-07,4.1717e-05,4.3395e-05,-3.523e-05,-6.1367e-05,1.1459e-05,7.1292e-06,0.00010906,-6.1842e-05,-3.78e-09,-1.8969,-0.00010796,1.5764,3.5868e-05,-4.7495e-06,-4.4589e-05,-8.7438e-05,2.6714e-05,3.609e-05,-0.00011352,-7.3984e-05,-1.3435e-05,-5.7887e-06,-3.0357e-05,-0.0004052,9.9163e-05,7.9601e-05,3.5152e-05,6.7906e-05,-9.3841e-05,-1.5464e-05,-9.0322e-05,1.5031e-05,-4.6342e-05,9.4104e-06,-3.4226e-05,-2.9823e-05,-4.0332e-05,-1.6875e-05,-2.1831e-05,4.2126e-05,3.8754e-05,-6.6374e-05,-1.6264e-06,-1.1344e-05,-0.00090611,6.3564e-06,1.2572e-05,-8.3542e-05,-8.5075e-07,-1.2129e-06,5.7199e-05,-0.00031706,2.3379e-05,-0.18796,-1.2623e-05,-4.1162e-05
-3.6966e-05,-3.7611e-05,-7.3583e-05,9.8542e-07,2.7526e-05,8.1172e-05,-7.3336e-06,5.2602e-05,-1.1801,-1.4154e-05,3.222e-05,3.0143e-05,0.00011094,2.9962e-06,0.00012224,1.0468e-05,-2.3667e-05,-1.2491e-05,0.0001137,3.2587e-05,-3.9599e-05,2.9415e-05,3.4177e-06,6.6693e-05,-2.907e-05,-2.1749e-05,3.0075e-05,2.4121e-05,-1.3944e-06,6.2988e-05,4.2691e-05,-9.271e-06,-5.0019e-05,4.4734e-05,8.5607e-06,0.0001101,-6.2364e-05,1.8268e-05,-2.6567e-09,-0.00010931,1.644,6.3812e-05,7.1308e-06,-1.9014e-05,-8.06e-05,3.0437e-05,3.7406e-05,-0.00011876,-4.4909e-05,7.3652e-06,-6.5507e-06,-2.4963e-05,-8.9029e-05,9.962e-05,8.0231e-05,3.6568e-05,5.0468e-05,-2.2013e-05,-9.111e-06,-6.5932e-05,2.7569e-05,-5.0979e-05,7.3181e-06,-1.2223e-05,-2.5743e-05,-3.9406e-05,-1.4656e-05,-3.1568e-05,5.7445e-05,4.3632e-05,-6.8666e-05,-4.8351e-06,-7.6054e-06,-0.00010238,7.9484e-06,1.8064e-05,-4.9101e-05,-2.4207e-07,-2.7659e-06,5.5734e-05,-0.00013564,2.4535e-05,-0.15059,-1.0149e-05,-3.5656e-05
-5.706e-05,-8.3199e-05,-0.00014335,-0.00012779,4.0247e-05,7.9168e-05,2.0073e-06,6.2864e-05,-1.3637,-3.5744e-05,2.657e-05,5.5625e-05,7.0316e-05,1.4661e-07,0.00011517,2.8894e-05,-4.4599e-05,-2.7461e-05,0.00010942,3.954e-05,-6.4063e-05,5.0859e-05,4.3237e-06,8.1025e-05,-6.158e-05,-3.1785e-05,4.3497e-05,3.1356e-05,3.3927e-05,6.8548e-05,7.7106e-05,-3.6176e-05,-7.0759e-05,6.1088e-05,1.7101e-05,0.00012954,-0.00011117,-1.5013e-06,-2.5075,-2.7739e-09,1.7382,2.389e-05,-3.0614e-05,-5.0369e-05,-0.00010819,4.9913e-05,5.86e-05,-0.00012869,-0.00012297,-1.1491e-05,-2.1837e-05,-5.6151e-05,-0.0003736,0.00013382,0.00010937,5.3238e-05,9.9681e-05,-0.00018693,-3.6004e-05,-0.00017818,3.1795e-05,-9.0518e-05,2.0111e-05,-6.9592e-05,-4.8343e-05,-6.1014e-05,-2.8943e-05,-5.2332e-05,7.8363e-05,4.7516e-05,-9.3343e-05,-8.7159e-06,-5.4611e-06,-0.00035013,3.3503e-06,1.9175e-05,-0.00014076,-1.9507e-06,-7.8384e-06,8.5492e-05,-0.00044551,3.8362e-05,-0.22229,-3.0927e-05,-4.2086e-05
-0.00014037,-0.00019877,-0.00033385,-0.00040215,7.6386e-05,0.00023502,-1.3927e-05,0.00013076,-0.89538,-8.2222e-05,3.7738e-05,0.00048841,0.0001497,-1.7369e-06,0.00023375,0.00013583,-9.9968e-05,-2.4192e-05,0.0001877,6.7927e-05,-0.00016403,0.00010589,1.2346e-05,0.00018171,-0.00011364,-7.0141e-05,9.8707e-05,0.00039188,5.2885e-05,0.00026822,0.00016825,-3.7076e-05,-0.00014197,0.00022846,2.7013e-05,0.00076993,-0.00021986,1.403e-05,-1.6904,-0.00032149,-2.9961e-09,0.00024845,-0.00010035,-8.5381e-05,-0.0002699,9.1245e-05,0.00013225,-0.00035418,-0.00023755,-9.9537e-06,-3.8933e-05,-0.00012676,-0.02283,0.00024117,0.00018192,9.4353e-05,0.00033391,-0.00037297,-9.9902e-05,-0.00042454,6.9243e-05,-0.00019847,6.6304e-05,-0.00010454,-6.9402e-05,-0.0001356,-7.5387e-05,-0.00010294,0.00023101,0.00012454,-0.00020594,-4.7769e-05,-7.5884e-06,-0.0004826,2.8265e-05,5.3358e-05,-0.00028129,-1.0497e-05,-3.3097e-05,0.00021144,-0.0010103,5.3705e-05,-0.158,-0.00010042,-0.00011765
-0.00016658,-0.00017495,-0.00036321,-0.00023587,3.1284e-05,0.00045356,-2.9721e-05,0.00013351,-0.59189,-0.00010548,8.8807e-06,0.00019237,0.00025284,4.1756e-05,0.00028781,0.00016258,-0.00010399,-9.6551e-06,0.00021988,0.00010106,-0.00024353,0.00011498,-5.9626e-06,0.00024846,-0.00014466,-0.00012496,0.00012556,0.00010342,-0.0001191,0.00018335,7.5984e-05,-8.2779e-05,-0.00019842,0.00012941,-3.5833e-06,0.00035442,-0.00023652,-8.5785e-07,-1.7272,-0.00049704,2.428,-3.3593e-09,0.0003224,-8.4838e-05,-0.00043728,6.6396e-05,8.8102e-05,-0.00051017,-0.00012104,0.00017016,-3.2333e-05,-0.00014359,-0.00016745,0.00030848,0.00024009,0.00011024,0.00026068,-0.00045989,-0.00010992,-0.00038018,0.00017469,-0.00021573,1.4654e-05,-8.3241e-05,-0.00012211,-0.00020187,-0.00010946,-0.00012599,0.00035441,0.00014647,-0.00035368,-2.8522e-05,-3.3102e-05,-0.00071131,-7.716e-06,5.4901e-08,-0.00045081,-3.4851e-05,-2.4581e-05,0.0001898,-0.00146,8.1328e-05,-0.16593,-5.4605e-05,-0.00020734
-1.9597e-05,-1.7072e-05,-3.3091e-05,-2.6615e-05,1.327e-05,6.3844e-05,-2.0204e-06,1.7316e-05,-5.2743e-05,-2.0634e-05,8.3753e-06,2.2731e-05,3.3312e-05,1.2429e-05,3.7502e-05,1.895e-05,-5.3935e-06,-8.343e-06,4.6851e-05,2.3949e-05,-3.6885e-05,2.0883e-05,-7.7105e-07,4.4502e-05,-1.6411e-05,-1.7986e-05,1.3206e-05,7.0623e-06,-6.1711e-06,7.5642e-05,3.1316e-05,-3.4677e-07,-2.727e-05,1.2937e-05,-5.142e-06,3.9463e-05,-4.4118e-05,8.2383e-06,-1.8447,-6.4866e-05,0.4895,6.3594e-05,-3.2343e-09,-1.3531e-05,-3.2606e-05,1.5262e-05,1.7669e-05,-5.0533e-05,-2.442e-05,2.5798e-05,2.9088e-06,-3.3459e-05,0.00014005,5.8746e-05,4.5793e-05,2.407e-05,3.5684e-05,-6.5972e-05,8.8726e-07,-6.2437e-05,1.5767e-05,-2.8753e-05,1.2841e-05,-6.542e-06,-2.5353e-05,-2.4617e-05,-1.209e-05,-4.4349e-06,4.4371e-05,2.1631e-05,-4.9607e-05,-3.8208e-06,-8.6321e-06,-3.2921e-05,-1.9638e-06,1.4701e-05,-4.7676e-05,-3.1648e-06,-1.0432e-05,3.054e-05,-0.00018729,1.6219e-05,-0.19287,5.8614e-06,-1.8364e-05
-0.00013312,-0.00017419,-0.00027528,-0.00021487,6.3369e-05,0.00014605,-2.231e-05,0.00013593,-0.70291,-7.0701e-05,3.838e-05,0.00013288,0.00016896,-2.7336e-05,0.00028617,5.1536e-05,-0.00011284,-4.4436e-05,0.00018877,6.4387e-05,-0.00015632,9.6315e-05,-4.6491e-06,0.00017948,-0.00013204,-8.8561e-05,7.9751e-05,5.79e-05,-2.8644e-06,0.00014718,0.00010631,-5.1721e-05,-0.0001964,0.00011013,2.3393e-05,0.00028237,-0.0002535,-2.5333e-05,-1.9901,-0.00033747,1.6279,9.9243e-05,-3.9331e-05,-4.097e-09,-0.00028737,9.1932e-05,0.00011877,-0.00035194,-0.00025443,-4.2643e-05,-5.1957e-05,-0.00010275,-0.00049094,0.00027662,0.0002258,9.4869e-05,0.00017355,-0.00030775,-8.0966e-05,-0.00037275,5.3232e-05,-0.00021298,4.1958e-05,-0.00010106,-0.00011291,-0.00012453,-5.3015e-05,-0.00011259,0.00014861,0.00010185,-0.00020175,-2.7488e-05,-1.7249e-05,-0.0010692,1.758e-05,7.0055e-05,-0.00022876,-1.3261e-05,-3.0845e-05,0.00016935,-0.00094681,4.98e-05,-0.18638,-8.2633e-05,-0.00015048
-0.00012716,-0.00015121,-0.00030641,-0.00029334,7.6108e-05,0.00011977,4.7662e-07,0.00015134,-1.2679,-6.8419e-05,6.6197e-05,0.00010182,0.00015736,-2.3061e-06,0.00025345,6.8142e-05,-9.3006e-05,-3.4188e-05,0.0002247,0.00010126,-0.00012577,0.00011943,1.216e-05,0.00014704,-0.00014675,-7.514e-05,9.6967e-05,4.9934e-05,5.711e-05,0.00016872,0.00014158,-9.3229e-05,-0.00017748,0.00011619,2.0139e-05,0.00025051,-0.00022185,-4.624e-06,-2.4017,-0.00029927,1.6435,4.8049e-05,6.5754e-06,-0.00012756,-3.5169e-09,0.0001158,0.00013662,-0.00027583,-0.00029618,-2.452e-05,-4.8883e-05,-0.00011016,-0.00075443,0.00029005,0.00022858,0.00011503,0.00022663,-0.00044422,-6.9062e-05,-0.00037834,6.5841e-05,-0.00019019,4.9919e-05,-0.00015947,-0.00013621,-0.00012831,-4.3273e-05,-9.849e-05,0.00015077,0.00011079,-0.00020793,-1.8764e-05,-2.3586e-05,-0.00094122,1.6579e-05,3.4793e-05,-0.00029582,1.8956e-05,-2.5028e-05,0.00019206,-0.0012219,0.00011102,-0.20619,-7.4327e-05,-0.00013484
-0.0013687,-0.0020794,-0.0038441,-0.0035633,0.00085258,0.0015224,2.4043e-05,0.0017164,-1.6616,-0.00041371,0.00052135,0.00074147,0.0014452,-0.00010772,0.0029589,0.00074759,-0.0017018,-0.00038799,0.0023597,0.00071872,-0.0011839,0.0011043,0.00034161,0.0012457,-0.0014288,-0.00087273,0.0012521,0.00048428,-0.00013721,0.0017699,0.00076161,-0.00097638,-0.0025148,0.00077248,0.00069226,0.002867,-0.0021802,-0.00041233,-2.7688,-0.0040356,1.1872,0.00032529,-0.00078253,-0.0015182,-0.0031328,-4.1007e-09,0.001566,-0.0046266,-0.0030779,-0.00059479,-0.00072303,-0.0011396,-0.0078626,0.0032855,0.0026262,0.0012858,0.0019547,-0.0045179,-0.0010856,-0.0040781,0.00080229,-0.0023896,0.00087926,-0.0020896,-0.0015565,-0.001499,-0.00053491,-0.001311,0.001826,0.0010934,-0.0021515,-0.00031351,1.3585e-05,-0.010649,0.00027113,-0.00044914,-0.0031438,0.00036602,1.7391e-05,0.0021665,-0.012507,0.00096731,-0.18225,-0.0013096,-0.0017553
-1.4159e-05,-2.1086e-05,-4.2512e-05,-3.6127e-05,8.9701e-06,1.7915e-05,1.0502e-06,1.9568e-05,-1.5426,-4.1211e-06,8.7911e-06,9.6932e-06,1.5413e-05,-1.9657e-06,3.3921e-05,9.6506e-06,-1.782e-05,8.7928e-07,3.0212e-05,8.9926e-06,-1.1547e-05,1.0276e-05,3.3595e-06,1.5948e-05,-1.6204e-05,-7.2723e-06,1.312e-05,3.3092e-06,-3.6569e-06,1.9225e-05,8.2699e-06,-1.1012e-05,-2.772e-05,6.3036e-06,6.7813e-06,3.1495e-05,-2.4863e-05,-4.5272e-06,-2.8641,-4.4597e-05,1.3961,1.0436e-06,-1.2227e-05,-1.6524e-05,-3.401e-05,1.3142e-05,-1.3598e-09,-5.4047e-05,-3.2888e-05,-5.8886e-06,-7.1805e-06,-1.0482e-05,-0.00012743,3.4566e-05,2.8202e-05,1.3881e-05,2.3317e-05,-4.603e-05,-1.1458e-05,-4.4359e-05,6.3788e-06,-2.4192e-05,4.2327e-06,-1.8307e-05,-1.2717e-05,-1.3787e-05,-6.03e-06,-1.5611e-05,1.895e-05,1.0031e-05,-2.2276e-05,-4.0406e-06,4.5252e-06,-0.00015635,7.13e-06,-3.6112e-06,-2.8486e-05,9.2109e-07,8.1615e-07,2.7112e-05,-0.00012079,1.2893e-05,-0.33992,-1.331e-05,-1.9342e-05
-4.4511e-05,-5.7477e-05,-0.00010497,-8.1159e-05,3.2398e-05,5.2839e-05,-1.5297e-06,4.454e-05,-1.3056,-4.8201e-05,2.1806e-05,5.7221e-05,6.9016e-05,1.3613e-05,0.00010215,2.8978e-05,-1.9466e-05,-1.7781e-05,9.9538e-05,4.9937e-05,-6.3295e-05,6.5768e-05,1.8239e-06,6.8337e-05,-6.0885e-05,-3.6077e-05,3.4662e-05,3.3179e-05,3.0071e-05,5.3539e-05,5.9641e-05,-3.1708e-05,-7.3902e-05,6.0032e-05,-5.0114e-06,0.00011799,-0.00010297,6.3575e-06,-2.4009,-0.00010891,1.724,4.0174e-05,-3.1617e-06,-3.9604e-05,-8.2482e-05,4.4211e-05,4.931e-05,-3.0195e-09,-0.00011575,-1.2713e-05,-1.0664e-05,-4.9395e-05,-0.0014582,0.00014095,0.00011875,4.9693e-05,0.00010446,-0.00017242,-2.2198e-05,-0.0001148,2.7788e-05,-6.1849e-05,2.4529e-05,-5.222e-05,-4.9079e-05,-5.8442e-05,-2.2054e-05,-2.8112e-05,6.3e-05,5.4431e-05,-9.06e-05,2.0863e-06,-1.6805e-05,-0.0006913,7.8587e-07,2.7666e-05,-0.0001337,8.6334e-07,-1.3008e-05,7.6488e-05,-0.00039068,3.7115e-05,-0.22732,-1.1775e-05,-3.5009e-05
-0.00025393,-0.00023733,-0.0006752,-0.00042857,0.00017505,0.00071373,-5.6254e-07,0.00033048,-0.88941,-0.0001874,7.7418e-05,0.00032924,0.00051637,2.0337e-05,0.00071069,8.8932e-05,-0.00021466,-8.0801e-05,0.0006079,0.00018148,-0.00041372,0.00025508,-1.2698e-05,0.00049345,-0.00024627,-0.00018508,0.00029638,0.00015685,-4.4007e-05,0.00052946,9.0142e-05,-3.2034e-05,-0.00054598,0.00026257,6.9876e-05,0.0010721,-0.00054433,1.9687e-05,-1.6353,-0.00082619,1.7731,0.00050185,3.8937e-05,-0.0002519,-0.00075381,0.00023352,0.00031109,-0.00094368,-3.5504e-09,2.2938e-06,-4.3306e-05,-0.0002494,-0.0060704,0.00068335,0.00055785,0.00021925,0.00043141,-0.00062668,-0.00014576,-0.00090249,0.00029691,-0.00046319,5.8231e-05,-0.00012987,-0.00030205,-0.00030351,-5.7046e-05,-0.00029676,0.00054411,0.00031305,-0.00043462,-5.1591e-05,-9.3864e-05,-0.0012731,6.03e-05,4.2506e-05,-0.00071485,-1.1401e-05,9.2038e-06,0.00045842,-0.0017376,0.00016412,-0.21101,-9.6922e-05,-0.00032815
-3.921e-05,-5.4533e-05,-9.4764e-05,-9.1117e-05,3.1181e-05,0.00010164,3.9654e-06,5.0027e-05,-1.0912,-2.9157e-05,1.2866e-05,2.5976e-05,4.8684e-05,-3.438e-06,6.029e-05,3.8759e-05,-3.7222e-05,-6.3418e-06,9.2067e-05,2.828e-05,-4.064e-05,3.8377e-05,5.2147e-06,6.1825e-05,-4.6737e-05,-2.0511e-05,2.8042e-05,9.8221e-06,-1.21e-05,5.0197e-05,4.5712e-05,-9.2802e-06,-6.052e-05,4.2757e-05,9.3445e-06,8.5342e-05,-6.7401e-05,-6.5526e-06,-1.5861,-0.00010819,1.5432,8.849e-05,3.6141e-05,-3.4952e-05,-9.0377e-05,2.8419e-05,3.921e-05,-0.00012268,-6.4397e-05,-3.9205e-09,-9.571e-06,-4.2408e-05,-0.00010609,9.1487e-05,7.1363e-05,3.816e-05,6.183e-05,-0.00015713,-2.0524e-05,-0.00012,2.7307e-05,-6.192e-05,1.5169e-05,-4.3002e-05,-3.8266e-05,-3.98e-05,-3.275e-05,-2.7827e-05,9.9425e-05,3.6875e-05,-7.814e-05,-1.228e-05,3.8161e-07,-0.00015768,5.8255e-06,4.8781e-07,-9.6025e-05,-6.9146e-06,2.1431e-06,6.2128e-05,-0.00031013,2.7649e-05,-0.19824,-2.1351e-05,-4.5947e-05
-9.7451e-05,-0.00014111,-0.00028506,-0.00023108,6.3436e-05,0.00011651,-8.534e-06,0.0001274,-1.4429,-6.8969e-05,2.9604e-05,9.2495e-05,0.00013983,2.4584e-05,0.00023484,5.7405e-05,-7.8826e-05,-2.0388e-05,0.00020126,8.5381e-05,-0.00011627,0.00011017,1.5535e-05,0.0001217,-0.00010698,-6.8719e-05,8.593e-05,2.8732e-05,-3.4488e-05,0.00012747,7.6331e-05,-7.8456e-05,-0.00020453,6.3348e-05,1.217e-05,0.00023581,-0.00019791,3.9998e-06,-2.6248,-0.00034276,1.4817,9.7569e-05,-2.2782e-05,-0.00012432,-0.00027299,7.9724e-05,0.00010945,-0.00034047,-0.00023124,-2.6073e-05,-2.5925e-09,-9.1644e-05,-0.0014233,0.00027084,0.00022425,0.00012847,0.00016833,-0.00037715,-5.3458e-05,-0.00029988,5.158e-05,-0.00014108,3.4124e-05,-0.00011677,-0.00011885,-0.00011619,-3.9094e-05,-6.1026e-05,0.00012862,0.00011132,-0.00020487,-5.5634e-06,-2.1843e-05,-0.00071766,1.4349e-05,1.4225e-05,-0.00029376,-8.4419e-06,-1.2743e-05,0.00016675,-0.0011496,6.4185e-05,-0.24429,-3.2152e-05,-0.00012849
-6.6735e-05,-9.3577e-05,-0.00020692,-0.00021042,3.7931e-05,7.3806e-05,9.1898e-08,9.987e-05,-1.6408,-2.5587e-05,2.585e-05,4.631e-05,8.1605e-05,-2.8233e-06,0.00016579,2.7288e-05,-8.0163e-05,-1.2552e-05,0.00013188,4.5944e-05,-7.4695e-05,5.9269e-05,1.648e-05,6.4722e-05,-7.4399e-05,-4.4291e-05,6.3304e-05,2.3949e-05,-1.8841e-05,8.1196e-05,3.3778e-05,-6.0108e-05,-0.00014775,3.8969e-05,2.89e-05,0.00016868,-0.0001259,-1.1785e-05,-2.7454,-0.00023296,1.1528,3.6066e-05,-9.4781e-05,-7.6319e-05,-0.00017599,6.021e-05,8.1901e-05,-0.00024712,-0.0001711,-4.1632e-05,-2.6371e-05,-1.4911e-09,-0.00087334,0.00017028,0.00013785,6.9697e-05,0.00010747,-0.0002256,-4.156e-05,-0.00019782,3.4749e-05,-0.00010788,1.7905e-05,-9.1225e-05,-7.6693e-05,-7.8644e-05,-3.2085e-05,-6.7671e-05,8.5934e-05,5.9843e-05,-0.0001197,-1.9281e-05,-5.1449e-06,-0.00806,1.7943e-05,-1.1332e-05,-0.00016649,1.557e-06,7.6979e-06,0.00011478,-0.00073122,4.8353e-05,-0.30386,-6.3569e-05,-9.8191e-05
-0.00041174,-0.00043135,-0.00084712,-0.00083585,0.00014122,0.00083362,-0.00016431,0.00032379,-0.36671,-0.00037542,7.8979e-05,0.00025913,0.0002725,4.3713e-05,0.00049718,0.00058137,-0.00020195,-0.0002724,0.00067722,0.0002516,-0.00055926,0.00020775,-5.2754e-05,0.00049416,-0.00046202,-0.00026995,5.8695e-06,0.00024926,2.1523e-05,0.00062449,0.00036744,-0.00017352,-0.00049577,0.00043914,-4.6108e-05,0.0005488,-0.00060584,-8.0602e-05,-1.2954,-0.0010633,0.81487,0.00049055,0.0019885,-0.00029271,-0.0010171,0.00022141,0.00031331,-0.0013336,-0.00072929,0.00010878,-0.00024095,-0.0004471,-3.9571e-09,0.00063762,0.00054512,0.00016696,0.00051071,-0.0015605,-0.00027702,-0.0010057,0.00023273,-0.00077205,6.2235e-05,-0.00028686,-0.00016298,-0.00050186,-0.00034401,-0.0003318,0.00056888,0.00020218,-0.00077231,-0.00014704,-4.9886e-05,-0.0010059,-0.00012121,3.8952e-05,-0.00067764,-0.00015746,-0.00012447,0.00045935,-0.0027407,0.00011498,-0.16046,-0.00017921,-0.00051215
-3.5667e-05,-5.1458e-05,-9.6699e-05,-7.3441e-05,3.193e-05,4.4009e-05,5.7558e-06,4.9748e-05,-1.3307,-2.2462e-05,2.7368e-05,2.8824e-05,6.2639e-05,6.1677e-06,0.00011866,2.6661e-05,-3.1632e-05,-6.5788e-06,8.5428e-05,3.6649e-05,-4.4691e-05,4.445e-05,7.5692e-06,4.7248e-05,-5.0076e-05,-2.8279e-05,3.9454e-05,1.1624e-05,-1.1918e-05,5.9613e-05,3.2457e-05,-3.0355e-05,-8.0718e-05,2.0463e-05,1.0094e-05,0.00010191,-7.3551e-05,2.683e-06,-2.2352,-0.00013196,0.78302,2.7035e-05,-8.2727e-06,-4.5053e-05,-0.00010658,3.692e-05,4.8462e-05,-0.00012935,-9.5879e-05,-1.4793e-05,-1.2009e-05,-3.4841e-05,-0.001035,-2.7521e-09,0.00013161,4.2433e-05,7.2769e-05,-0.00011935,-2.6239e-05,-8.1431e-05,1.6694e-05,-5.338e-05,1.245e-05,-4.238e-05,-3.9776e-05,-4.2096e-05,-1.1443e-05,-3.3289e-05,5.4633e-05,4.0221e-05,-7.1367e-05,7.476e-07,-4.2705e-06,-0.0062651,1.0573e-05,-2.7579e-06,-9.219e-05,2.2746e-06,4.3248e-06,7.1376e-05,-0.00035326,2.9225e-05,-0.23339,-2.5802e-05,-4.6706e-05
-5.6344e-05,-8.5697e-05,-0.00015694,-0.00011862,5.3365e-05,6.7076e-05,9.3877e-06,7.8079e-05,-1.3688,-3.6934e-05,4.733e-05,4.6345e-05,0.00010043,1.2373e-05,0.00019115,4.4222e-05,-5.125e-05,-8.6176e-06,0.00013514,6.0666e-05,-6.9394e-05,7.4951e-05,1.2561e-05,7.8793e-05,-8.0016e-05,-4.4775e-05,6.5331e-05,1.7532e-05,-1.703e-05,9.2278e-05,5.015e-05,-5.2302e-05,-0.00012899,4.1133e-05,1.5814e-05,0.00016886,-0.00012022,3.1805e-06,-2.2154,-0.00021116,0.67396,4.0768e-05,-2.1208e-05,-7.1422e-05,-0.00017535,6.0169e-05,8.1038e-05,-0.00020451,-0.00015609,-2.7974e-05,-1.7514e-05,-5.5969e-05,-0.0008499,0.00025859,-2.8744e-09,6.997e-05,0.00012189,-0.00019615,-4.3305e-05,-0.00013531,2.6901e-05,-8.4638e-05,2.1209e-05,-6.7219e-05,-6.1101e-05,-6.9367e-05,-1.8747e-05,-5.4803e-05,9.1897e-05,6.5039e-05,-0.00011094,4.0451e-06,-3.96e-06,-0.0065611,1.9401e-05,-3.4971e-06,-0.0001461,3.099e-06,5.7538e-06,0.0001185,-0.00057125,4.8499e-05,-0.2296,-4.0031e-05,-7.3298e-05
-0.00010421,-0.00016714,-0.00027638,-0.00026871,7.3434e-05,0.00017519,6.2907e-06,0.00016986,-1.5595,-4.9315e-05,5.3231e-05,6.6144e-05,0.00013253,1.7299e-05,0.00026438,6.7274e-05,-9.7922e-05,-3.9752e-06,0.00022623,7.6717e-05,-0.00011154,0.00010328,2.3347e-05,0.00010513,-0.00011092,-6.0426e-05,0.00010079,2.825e-05,-3.7846e-05,0.00014361,0.00012196,-8.177e-05,-0.00019019,6.0906e-05,4.9364e-05,0.00024058,-0.00018141,-1.5881e-05,-2.6544,-0.00033215,1.1863,7.7689e-05,-4.7154e-05,-0.00013094,-0.00026591,9.8323e-05,0.00012683,-0.00036574,-0.00027108,-2.0499e-05,-1.4336e-05,-8.3168e-05,-0.0096022,0.00027127,0.00022092,-1.9347e-09,0.00017524,-0.00036056,-6.6143e-05,-0.00032879,4.9025e-05,-0.00016497,4.3051e-05,-0.00013922,-0.00010402,-0.00011569,-3.3962e-05,-8.6554e-05,0.00013574,0.00012005,-0.00019298,-1.461e-05,-8.3271e-07,-0.020117,3.2584e-05,1.3889e-05,-0.00024429,4.7699e-06,6.1768e-07,0.00018481,-0.0012164,7.5463e-05,-0.28579,-5.1844e-05,-0.00012453
-2.0338e-05,-2.8406e-05,-5.2127e-05,-3.9347e-05,1.4703e-05,2.7339e-05,1.6504e-06,2.0783e-05,-1.0616,-1.9242e-05,1.0131e-05,1.9959e-05,2.6751e-05,7.5281e-06,4.5695e-05,1.8647e-05,-1.5262e-05,-5.852e-06,3.9507e-05,2.0659e-05,-2.3748e-05,2.7075e-05,4.3429e-06,3.0187e-05,-2.2536e-05,-1.4466e-05,2.1524e-05,9.8787e-06,-3.3223e-06,2.5533e-05,2.6619e-05,-1.7665e-05,-3.92e-05,2.1593e-05,7.8891e-07,5.674e-05,-4.1556e-05,2.2291e-06,-2.7778,-6.8011e-05,2.0145,1.5224e-05,-1.1295e-05,-2.6767e-05,-5.2895e-05,1.7531e-05,2.8587e-05,-6.8645e-05,-5.6912e-05,-8.5589e-06,-8.9383e-06,-2.1848e-05,-0.0042795,5.9848e-05,5.0519e-05,2.2169e-05,-2.6284e-09,-7.5113e-05,-1.1885e-05,-6.3032e-05,9.9971e-06,-3.085e-05,5.5996e-06,-2.2203e-05,-1.3934e-05,-2.4809e-05,-6.3508e-06,-1.6497e-05,3.1389e-05,2.3532e-05,-3.9225e-05,-1.2964e-07,-2.349e-06,-0.00055077,1.7274e-06,1.8972e-06,-5.8884e-05,-3.8084e-07,-5.8552e-06,3.9247e-05,-0.00016262,1.7628e-05,-0.20693,-9.3938e-06,-2.4909e-05
-0.00011296,-0.00011965,-0.0002686,-2.3851e-05,6.5083e-05,0.00014942,-5.1443e-06,0.0001691,-1.1025,-3.0858e-05,6.167e-05,0.0001002,0.00029472,2.9236e-06,0.00034694,-3.774e-05,-9.4047e-05,-2.8671e-05,0.00020778,7.8047e-05,-0.00013796,8.3754e-05,6.0343e-07,0.00016408,-9.966e-05,-5.9133e-05,9.0909e-05,3.5558e-05,-1.0505e-05,0.00011675,8.1728e-05,-9.9247e-05,-0.00019395,0.00010282,4.3143e-05,0.00030768,-0.00020364,2.6719e-05,-0.57126,-0.00031402,1.1805,7.6416e-05,-0.00010013,-6.996e-05,-0.00026818,7.4862e-05,0.00010935,-0.00034562,-0.00018002,-8.725e-05,-2.354e-05,-6.261e-05,-0.01549,0.0002788,0.00022389,9.4899e-05,0.00015767,-3.4632e-09,-4.9165e-05,-0.00016536,6.3219e-05,-0.00016099,1.4397e-05,-7.6704e-05,-0.00010683,-0.0001132,-5.0791e-05,-9.4726e-05,0.00011444,0.00012977,-0.00016876,-8.6058e-06,-2.9995e-05,-0.0092154,1.7743e-05,-1.4904e-05,-0.00018766,-1.1994e-05,-9.963e-06,0.00014811,-0.00052648,4.4304e-05,-0.21417,-5.2126e-05,-0.00011971
-7.039e-05,-7.4635e-05,-0.00020606,-0.00012226,6.1699e-05,0.00014604,8.5364e-07,0.00016022,-1.2914,-2.9723e-05,4.7194e-05,9.2053e-05,0.00014245,3.6725e-05,0.00023702,6.3068e-05,-3.206e-05,-5.3706e-06,0.00019485,0.00010929,-8.8582e-05,0.00010492,2.6278e-05,0.00012122,-7.4765e-05,-4.6674e-05,8.0595e-05,4.1283e-05,-9.1659e-06,0.00013102,0.00010381,-4.8399e-05,-0.00013765,6.5897e-05,2.9902e-05,0.00025348,-0.00015679,2.442e-05,-2.1592,-0.00024957,1.2919,9.8744e-05,2.4236e-05,-7.7159e-05,-0.00018583,8.1849e-05,0.00010652,-0.00024704,-0.0001595,5.6699e-07,2.1252e-06,-4.8184e-05,-0.0003892,0.00023987,0.0001939,0.00010441,0.00017311,-0.00021279,-4.2545e-09,-0.00025878,5.4262e-05,-9.5836e-05,3.4669e-05,-4.2169e-05,-5.9644e-05,-9.3726e-05,-1.4217e-05,-3.6247e-05,0.00015232,0.00012345,-0.00014024,2.0984e-05,-1.6502e-05,-0.00040308,2.4657e-05,3.8064e-05,-0.00019298,9.3606e-06,4.8308e-06,0.00014641,-0.00083371,8.385e-05,-0.17323,-1.317e-05,-8.3479e-05
-0.00027938,-0.00047081,-0.00064623,-0.00037194,0.0001568,0.00031202,2.3466e-05,0.00021221,-0.0012999,-0.0002624,8.396e-05,5.6283e-05,0.00030721,1.9164e-05,0.00048771,-5.4589e-05,-0.00013733,-0.00011706,0.00041236,0.00014073,-0.0003753,0.00025497,-1.2328e-05,0.00019775,-0.00026312,-0.00013717,0.00016326,2.6216e-05,-0.00012789,0.00028158,0.00015837,-0.00023757,-0.0004502,0.00019035,-1.5823e-05,0.00059971,-0.00047074,6.5337e-05,-0.8368,-0.0007404,0.79023,0.00076143,-0.00015028,-0.0002406,-0.00080205,6.9148e-05,0.00010418,-0.00067694,-0.00061665,7.2668e-05,-8.563e-05,-0.00025246,-0.00056443,0.0006614,0.00054596,0.00020859,0.0003319,-0.000601,-0.00016285,1.4258e-09,-3.14e-05,-0.00028011,-6.9577e-06,-0.00040773,-0.00028877,-0.00038644,-0.00021453,-0.00028173,0.00029056,0.00018858,-0.00046,-4.2434e-05,-0.00014997,-0.038608,-5.7017e-05,-1.9415e-05,-0.00069055,-7.2566e-05,-4.6185e-05,0.00030301,-0.0015045,2.5767e-05,-10.341,-0.00026747,-0.00031655
-0.00017401,-0.00023733,-0.00044734,-0.0004336,9.0712e-05,0.00025966,2.925e-05,0.00017815,-0.33605,-8.8997e-05,2.753e-05,8.1927e-05,0.00013118,-3.8222e-05,0.00027449,4.8841e-05,-0.00015744,-5.1684e-05,0.00023902,7.1558e-05,-0.00019293,9.4963e-05,9.5227e-06,0.00016998,-0.00016893,-8.8813e-05,0.00012407,4.9387e-05,-7.4469e-05,0.00024039,9.2095e-05,-0.00011189,-0.00029108,0.00013995,4.8186e-05,0.0003664,-0.00030674,-5.3019e-05,-2.2646,-0.00044635,1.3023,0.00017234,-0.00010449,-0.00018533,-0.00042737,0.00011665,0.00012272,-0.00057232,-0.00028552,3.7128e-05,-7.8908e-05,-0.0001446,-0.00045355,0.00028907,0.00023175,0.00013341,0.00017599,-0.00056152,-0.00012742,-0.00059702,1.2748e-09,-0.00031659,3.6678e-05,-0.00025189,-0.00022198,-0.00020971,-8.763e-05,-0.00019604,0.00030855,0.00014224,-0.00026266,-7.6079e-05,-2.8938e-05,-0.0010166,5.8393e-07,-2.0006e-05,-0.00037829,-1.9121e-05,-3.4215e-05,0.00022312,-0.0013694,8.5816e-05,-4.7262,-0.00018287,-0.00022099
-0.00011647,-0.0002019,-0.00036943,-0.00033993,9.9927e-05,0.00013865,4.6584e-06,0.00018429,-1.5067,-8.6194e-05,5.953e-05,0.00012505,0.00020063,3.3868e-05,0.00033928,9.6774e-05,-9.5901e-05,-7.9385e-06,0.0003303,0.00013085,-0.00015858,0.00018048,5.6333e-05,0.00014673,-0.00017197,-0.00010192,0.00013344,3.9591e-05,-2.5614e-05,0.0001958,0.00013322,-0.00011565,-0.00026087,8.5429e-05,2.4419e-05,0.00034574,-0.00028432,2.3727e-05,-2.5053,-0.00046122,1.5869,0.0001279,-0.00010277,-0.00017832,-0.00036605,0.00013041,0.00017572,-0.00043791,-0.00035839,-5.2887e-05,-1.9639e-05,-0.00011513,-0.007002,0.00043263,0.00035906,0.00016321,0.00028619,-0.00055121,-6.4357e-05,-0.00035956,5.6163e-05,-2.6253e-09,6.3639e-05,-0.0001545,-0.00014155,-0.00016461,-5.075e-05,-0.00010621,0.00017693,0.00016826,-0.00026276,1.9807e-05,-1.8983e-05,-0.0023456,3.4053e-05,1.7071e-05,-0.00040632,1.1102e-05,1.2583e-05,0.00026385,-0.0014866,0.00011326,-0.25475,-7.0706e-05,-0.00017276
-1.7891e-05,-2.9068e-05,-5.1508e-05,-5.0603e-05,1.2875e-05,2.3513e-05,-4.1856e-08,2.4277e-05,-1.7036,-9.3212e-06,7.1938e-06,1.5711e-05,2.1633e-05,-1.0644e-06,4.184e-05,1.2757e-05,-2.1291e-05,-4.9081e-06,3.4275e-05,1.2002e-05,-2.2063e-05,1.898e-05,5.6774e-06,2.103e-05,-2.1975e-05,-1.2566e-05,1.7117e-05,7.5417e-06,-1.3415e-06,2.6354e-05,1.6113e-05,-1.3856e-05,-3.3501e-05,1.3746e-05,8.5293e-06,4.3504e-05,-3.5023e-05,-3.6789e-06,-2.826,-5.9691e-05,1.6851,1.1073e-05,-3.8956e-06,-1.966e-05,-4.6445e-05,2.5641e-05,2.2352e-05,-6.172e-05,-4.8408e-05,-5.1002e-06,-7.1824e-06,-1.8409e-05,-0.00010907,4.8269e-05,3.9162e-05,2.0757e-05,3.0783e-05,-7.108e-05,-1.4708e-05,-6.0284e-05,1.1093e-05,-3.0595e-05,-2.7391e-09,-2.6842e-05,-2.0639e-05,-2.2279e-05,-1.061e-05,-1.6267e-05,2.5409e-05,1.9375e-05,-3.414e-05,-4.1562e-06,-1.5307e-06,-0.00022985,5.2189e-06,-1.0687e-06,-5.0978e-05,4.2288e-06,6.5818e-08,3.4363e-05,-0.00023656,1.3635e-05,-0.24908,-1.5708e-05,-2.5117e-05
-3.9043e-05,-4.1485e-05,-0.0001169,-5.329e-05,3.0039e-05,6.7431e-05,-6.5913e-06,5.9696e-05,-1.5751,-2.4914e-05,2.5148e-05,5.4967e-05,8.9706e-05,4.9639e-06,0.00012974,2.5467e-05,-3.5681e-05,-1.1166e-05,8.1586e-05,4.1724e-05,-6.3495e-05,4.9761e-05,2.6724e-06,9.1402e-05,-4.5753e-05,-2.8267e-05,4.2531e-05,2.7534e-05,-1.1136e-05,6.6338e-05,3.1427e-05,-1.1021e-05,-9.8024e-05,7.0092e-05,1.2093e-05,0.00013076,-8.1583e-05,7.379e-06,-1.886,-0.00014584,1.4564,5.3881e-05,1.4429e-05,-3.1634e-05,-0.00012203,3.3311e-05,5.6724e-05,-0.0001523,-7.8615e-05,-1.8708e-05,-8.2909e-06,-3.8519e-05,-0.00019515,0.00012691,0.00010486,4.5576e-05,8.6715e-05,-0.00011727,-9.3354e-06,-0.00012481,2.7709e-05,-6.4739e-05,1.1833e-05,-3.1915e-09,3.1407e-05,-6.0637e-05,-2.1991e-05,-3.5751e-05,6.3055e-05,4.848e-05,-8.2518e-05,1.6563e-06,-7.8005e-06,-0.00053078,1.1461e-05,3.0835e-05,-8.7198e-05,-5.4773e-06,-5.3469e-06,7.9604e-05,-0.00036169,2.6829e-05,-0.21665,-1.5305e-05,-5.6279e-05
-1.7101e-05,-2.019e-05,-4.3664e-05,-2.9163e-05,1.1015e-05,1.9478e-05,-1.4949e-06,1.7312e-05,-1.2532,-1.1063e-05,8.8315e-06,1.3872e-05,2.1227e-05,-2.5243e-06,3.4115e-05,9.9541e-06,-2.0107e-05,-6.6351e-06,2.6831e-05,8.166e-06,-1.6213e-05,1.2568e-05,1.9625e-06,2.3814e-05,-1.688e-05,-9.8827e-06,1.4168e-05,8.155e-06,-3.8881e-06,1.5118e-05,1.4262e-05,-1.0078e-05,-3.297e-05,1.7636e-05,5.3764e-06,3.7875e-05,-2.5429e-05,-9.6211e-07,-2.0355,-4.804e-05,1.1355,7.0691e-06,-1.7802e-05,-1.7177e-05,-4.2373e-05,1.0444e-05,1.8426e-05,-5.6552e-05,-4.0497e-05,-7.1436e-06,-7.9454e-06,-1.5346e-05,-7.8844e-05,3.6094e-05,3.0138e-05,1.4883e-05,3.0078e-05,-5.6951e-05,-9.2865e-06,-4.0712e-05,5.8056e-06,-2.6332e-05,3.8655e-06,7.9077e-06,-2.418e-09,-1.9465e-05,-1.3168e-05,-1.5614e-05,1.5575e-05,1.4032e-05,-2.7245e-05,-4.7344e-06,1.0234e-06,-0.00014551,3.1857e-06,2.7588e-06,-3.314e-05,-2.4846e-06,-1.9181e-06,2.6432e-05,-0.00012997,8.5497e-06,-0.21359,-9.214e-06,-2.0761e-05
-0.00013373,-0.00018815,-0.00038663,-0.00039417,8.4967e-05,0.00017235,1.2171e-06,0.00018038,-1.5252,-8.0288e-05,6.7957e-05,0.00010707,0.00017409,-1.6733e-05,0.00031397,6.3142e-05,-0.00013138,-3.1826e-05,0.00031728,9.4849e-05,-0.00013157,0.00012334,2.1302e-05,0.00015129,-0.0001624,-9.2809e-05,0.00011913,7.2622e-05,-5.5583e-06,0.00017135,0.0001455,-0.00010663,-0.00025158,7.4579e-05,4.0884e-05,0.0003395,-0.00024933,-1.8044e-05,-2.7174,-0.00043481,1.4482,8.1352e-05,-0.00011774,-0.00014422,-0.00034051,0.00011936,0.00017241,-0.00048222,-0.00032366,-4.9093e-05,-4.7955e-05,-0.00012449,-0.017037,0.00036327,0.00029077,0.00013555,0.00024053,-0.00048347,-0.00011581,-0.00040809,7.0132e-05,-0.00023225,4.1059e-05,-0.0002122,-0.00015439,-2.5224e-09,-7.4213e-05,-0.00012158,0.00018933,0.00013088,-0.00023938,-2.1822e-05,-1.7961e-05,-0.0035156,3.2477e-05,3.8624e-06,-0.00033368,6.6057e-06,6.8062e-06,0.00022602,-0.0013065,0.00011186,-0.26059,-7.5284e-05,-0.00016208
-7.2046e-05,-0.00010785,-0.00024161,-0.00021954,5.4367e-05,9.9688e-05,2.3648e-05,0.00011176,-1.4523,-3.7421e-05,3.6373e-05,6.3761e-05,0.00010143,2.9802e-06,0.00021463,5.0394e-05,-7.1017e-05,-6.4391e-06,0.00017415,6.7333e-05,-8.3166e-05,7.6629e-05,1.4533e-05,9.1155e-05,-9.196e-05,-5.3904e-05,9.3674e-05,1.7329e-05,-2.1077e-05,0.0001446,5.3832e-05,-6.5113e-05,-0.00016501,3.8596e-05,2.6107e-05,0.00022137,-0.00014872,-1.1328e-05,-2.8121,-0.00026689,1.2404,2.6665e-05,-6.303e-05,-8.9234e-05,-0.00019353,7.9423e-05,9.6959e-05,-0.00028004,-0.00017023,-5.2879e-05,-2.2335e-05,-6.8348e-05,-0.025076,0.00023121,0.00018697,9.1941e-05,0.00015474,-0.00029031,-4.8209e-05,-0.00026204,4.5999e-05,-0.00012536,2.2025e-05,-0.00010846,-0.00010992,-9.6463e-05,-1.8979e-09,-6.9496e-05,0.00011757,9.2056e-05,-0.00012079,-8.4624e-08,-8.3209e-06,-0.00043411,1.8429e-05,8.2127e-06,-0.0001983,6.3233e-06,-3.4136e-06,0.00014014,-0.00087816,6.2882e-05,-0.28613,-6.342e-05,-0.00011232
-3.0455e-05,-3.8909e-05,-8.2181e-05,-6.5706e-05,2.1788e-05,4.3561e-05,-3.5776e-06,3.9536e-05,-1.4707,-2.0138e-05,1.1119e-05,2.866e-05,4.4876e-05,7.0377e-06,7.0326e-05,2.3758e-05,-2.2017e-05,-6.16e-06,6.1947e-05,2.8689e-05,-3.8582e-05,3.7422e-05,8.0515e-06,3.5342e-05,-3.7565e-05,-2.2183e-05,2.6693e-05,1.2131e-05,-7.9285e-06,4.3382e-05,3.2359e-05,-2.2256e-05,-5.7593e-05,1.7535e-05,6.2184e-06,6.9464e-05,-5.8366e-05,5.9971e-06,-2.7061,-0.00010396,1.6326,3.0928e-05,8.7378e-07,-3.5685e-05,-7.7095e-05,3.048e-05,3.5277e-05,-9.4855e-05,-8.1145e-05,-1.8747e-06,-1.1581e-07,-2.9239e-05,-0.00016998,8.8245e-05,7.1008e-05,3.7582e-05,6.3105e-05,-0.00012203,-1.1317e-05,-8.884e-05,1.7808e-05,-4.532e-05,1.4937e-05,-3.662e-05,-3.3408e-05,-3.3936e-05,-1.1046e-05,-1.3725e-09,4.3554e-05,3.8873e-05,-5.9612e-05,1.0321e-06,-6.8752e-06,-0.00032803,5.8999e-06,9.5313e-06,-8.7489e-05,2.1089e-07,-4.7919e-07,5.3436e-05,-0.00041062,2.3268e-05,-0.34034,-7.4174e-06,-3.9664e-05
-0.00010235,-0.00012544,-0.00028525,-0.00031282,7.2927e-05,0.00023561,3.5452e-05,0.0001436,-1.3586,-5.5205e-05,4.7421e-05,8.4565e-05,0.00011631,-1.4358e-05,0.00021146,9.4874e-05,-0.000119,-5.5289e-06,0.00018781,7.6099e-05,-8.4892e-05,9.2684e-05,1.6316e-05,0.00020686,-0.00010974,-4.9033e-05,0.00010291,4.263e-05,-3.2587e-05,0.0001485,9.4719e-05,-4.1584e-05,-0.00018753,0.00011367,5.5282e-05,0.00026823,-0.00019012,-3.4024e-05,-2.2228,-0.0002954,2.0854,0.00016547,3.1944e-05,-0.00010506,-0.00026755,0.00010659,0.00012974,-0.00036583,-0.00016925,8.9735e-05,-4.4114e-05,-8.8117e-05,-0.00031341,0.00026101,0.00021877,9.7986e-05,0.00018662,-0.00035153,-5.1197e-05,-0.00042529,9.8439e-05,-0.0001875,3.6119e-05,-0.0001163,-0.00011722,-0.00010231,-3.2057e-05,-0.00010253,-3.5656e-09,0.00010705,-0.00016777,-2.4175e-05,8.6965e-06,-0.00079313,2.5516e-05,-2.5596e-05,-0.00022369,-6.5423e-06,8.8426e-07,0.0001684,-0.00099601,9.105e-05,-0.20484,-8.512e-05,-0.00014952
-2.7623e-05,-3.5459e-05,-7.6416e-05,-6.5529e-05,1.7179e-05,4.4485e-05,-2.1955e-06,4.0594e-05,-1.543,-1.8765e-05,1.006e-05,2.201e-05,3.3877e-05,3.2996e-06,5.8705e-05,8.7987e-06,-2.5804e-05,-6.0797e-06,6.1395e-05,2.6136e-05,-3.283e-05,2.8768e-05,4.1962e-06,2.4363e-05,-3.3428e-05,-1.8904e-05,2.1722e-05,7.74e-06,-1.1075e-05,3.7913e-05,2.6822e-05,-2.9449e-05,-5.2171e-05,1.8811e-05,8.0393e-06,6.5776e-05,-5.7444e-05,-1.3164e-06,-2.399,-9.4056e-05,1.338,2.8749e-05,-1.1511e-05,-3.2796e-05,-7.2897e-05,2.2771e-05,2.7595e-05,-9.5471e-05,-6.0276e-05,-4.6358e-06,-7.7557e-06,-2.5921e-05,-0.0011773,7.0915e-05,5.71e-05,3.1651e-05,4.8466e-05,-8.6814e-05,-1.3749e-05,-8.5512e-05,1.7941e-05,-4.1816e-05,9.5377e-06,-3.6029e-05,-2.8866e-05,-3.1988e-05,-9.4864e-06,-2.2086e-05,4.0482e-05,-1.9519e-09,-4.9721e-05,-2.665e-06,-6.1666e-06,-0.0002239,5.2697e-06,4.0676e-08,-7.4451e-05,-1.8947e-06,-3.2972e-06,4.4116e-05,-0.00029049,1.5125e-05,-0.28423,-1.6927e-05,-3.4849e-05
-0.00030845,-0.00044601,-0.00077632,-0.0007377,0.00015521,0.00031873,8.8677e-06,0.00034601,-1.5457,-0.00015556,0.00013789,0.0002187,0.00034038,-3.3394e-05,0.00066936,9.9808e-05,-0.00027942,-6.5944e-05,0.00064929,0.00020073,-0.00029705,0.00025707,2.2802e-05,0.00034808,-0.00030651,-0.0001963,0.00027311,8.8029e-05,-4.5358e-05,0.00037941,0.00017495,-0.00020646,-0.00061121,0.00026057,0.00010728,0.00069915,-0.0005497,-5.3489e-05,-2.8821,-0.00089631,1.4806,7.6672e-05,-0.00034331,-0.0003068,-0.00071155,0.00027075,0.00034353,-0.00099347,-0.00061657,-0.00019149,-0.00015723,-0.00026406,-0.011441,0.00070589,0.00058935,0.00025129,0.00048717,-0.00090176,-0.00021531,-0.00087024,0.0001569,-0.00050129,8.377e-05,-0.00036998,-0.00029625,-0.0003278,-7.7364e-05,-0.00030155,0.00037555,0.00026985,-2.3497e-09,-4.5334e-05,-1.6004e-05,-0.0021442,6.1631e-05,-2.2282e-05,-0.00070385,7.9203e-08,-2.7299e-05,0.00049246,-0.0023223,0.00020922,-0.26692,-0.00027978,-0.00037739
-8.4475e-05,-0.00011603,-0.00024007,-0.00023605,6.0138e-05,8.7847e-05,5.7351e-07,0.0001316,-1.5791,-6.5844e-05,4.5738e-05,7.415e-05,0.00012776,3.5667e-05,0.00023686,5.8676e-05,-6.5661e-05,-4.6081e-06,0.00020705,0.00010965,-0.00010405,0.00013436,2.3175e-05,0.00010027,-0.00010781,-5.9359e-05,8.4081e-05,3.4497e-05,-3.364e-05,0.0001427,6.9018e-05,-9.0782e-05,-0.00017978,4.5167e-05,5.9958e-06,0.00023588,-0.00017577,8.0085e-06,-2.6237,-0.00031371,1.2667,7.6745e-05,-5.7396e-05,-0.00010855,-0.00024769,9.3105e-05,0.00011525,-0.00031629,-0.00023573,-5.1018e-05,-2.0132e-05,-9.4276e-05,-0.0011599,0.00028887,0.00024185,0.00010904,0.00019138,-0.00034315,-3.4355e-05,-0.00027283,3.7038e-05,-0.00012037,3.3046e-05,-9.6947e-05,-0.00010816,-0.00010756,-2.1485e-05,-6.8578e-05,0.00012791,0.00011467,-0.00016877,-1.4011e-09,-1.2631e-05,-0.0010608,3.0611e-05,1.1614e-05,-0.00027234,1.8725e-06,-1.1905e-05,0.00018419,-0.0010807,7.1116e-05,-0.29355,-4.1251e-05,-0.00011191
-0.00034507,-0.0005439,-0.00091721,-0.00087426,0.00016602,0.00040275,7.6325e-06,0.0004003,-1.6747,-0.00012873,0.0001749,0.00017622,0.00031496,-8.3155e-05,0.0006708,0.00020653,-0.00045347,4.5025e-06,0.00065269,0.00015579,-0.00027423,0.00019155,5.4817e-05,0.00034452,-0.00036389,-0.00019552,0.00027601,5.4036e-05,-0.00012805,0.00036361,0.00016359,-0.00028207,-0.00060104,0.00018649,0.0001301,0.00061854,-0.00053395,-0.00013366,-2.8396,-0.00098232,1.41,8.4892e-05,-0.00026676,-0.00035631,-0.0008243,0.0002725,0.00045136,-0.0012368,-0.00080778,-9.6872e-05,-0.00018112,-0.00026897,-0.0016787,0.00069812,0.00057407,0.00029003,0.0004629,-0.0010981,-0.00030474,-0.0009916,0.0001324,-0.00057392,7.7427e-05,-0.00044693,-0.00027872,-0.00035982,-0.00017041,-0.00037103,0.00040151,0.00020855,-0.00051184,-0.00010045,-1.5438e-09,-0.0032519,0.00013888,-9.9896e-05,-0.00061825,-1.2005e-05,-2.5789e-05,0.00057025,-0.0029028,0.00024277,-0.36759,-0.00033242,-0.00045629
-0.00013201,-0.00016607,-0.00039349,-0.00026673,7.3373e-05,0.00020503,-4.251e-05,0.00017616,-1.4197,-8.105e-05,9.5607e-06,0.0001773,0.00019726,2.3884e-05,0.00028532,5.8456e-05,-0.00010745,-7.0975e-05,0.00017592,0.00013047,-0.0001908,0.00013558,-8.811e-06,0.00017706,-0.00013188,-0.00010091,9.8806e-05,0.00013217,-1.6931e-05,0.00024641,0.00014743,-5.2805e-05,-0.00016773,8.1706e-05,2.5436e-06,0.00039619,-0.00026801,-1.7107e-05,-1.3792,-0.00040622,1.8105,0.00016479,0.00024219,-0.00013776,-0.00032896,8.9424e-05,0.00012357,-0.00047947,-0.00021306,1.5525e-05,-1.5714e-05,-0.00017151,-0.00023892,0.00027445,0.00021719,4.8538e-05,0.00017939,-0.00041739,-2.7312e-05,-0.00053491,9.6981e-05,-0.00022447,-1.6221e-07,-0.00011515,-0.00015785,-0.00018348,6.0798e-06,-0.0001171,0.00016747,0.00013407,-0.00022556,-9.2854e-06,-5.9144e-05,-3.8704e-09,1.4663e-06,3.3684e-05,-0.00036683,1.0222e-06,-1.3575e-05,0.00019883,-0.0014385,7.0544e-05,-0.13611,-3.5412e-05,-0.00015918
-1.7514e-05,-2.5131e-05,-5.2178e-05,-4.4963e-05,9.3319e-06,1.9447e-05,-1.0918e-08,2.228e-05,-1.513,-7.1148e-06,9.124e-06,1.1382e-05,1.7707e-05,-2.9475e-06,3.9941e-05,9.1856e-06,-2.1871e-05,-7.5711e-08,3.6966e-05,9.2332e-06,-1.506e-05,1.3254e-05,2.776e-06,1.8255e-05,-2.0691e-05,-1.1056e-05,1.4164e-05,4.5461e-06,-5.2806e-06,2.0626e-05,9.8072e-06,-1.3742e-05,-3.385e-05,9.5408e-06,6.5844e-06,3.8945e-05,-2.9927e-05,-4.5238e-06,-2.8393,-5.7847e-05,1.5683,5.6592e-06,-1.6751e-05,-1.9733e-05,-4.4172e-05,1.4158e-05,2.3013e-05,-6.633e-05,-3.9739e-05,-6.7222e-06,-8.9447e-06,-1.369e-05,-0.00017227,4.1137e-05,3.3318e-05,1.6781e-05,2.3397e-05,-5.808e-05,-1.4661e-05,-5.4202e-05,6.8731e-06,-3.034e-05,5.3273e-06,-2.2888e-05,-1.797e-05,-1.8753e-05,-8.6363e-06,-1.8422e-05,2.1079e-05,1.4129e-05,-2.8812e-05,-3.8326e-06,3.0883e-06,-0.00018915,-4.2569e-10,-1.4851e-06,-3.4907e-05,9.2511e-08,1.1093e-06,3.724e-05,-0.00017317,1.2167e-05,-0.39657,-1.5718e-05,-2.5292e-05
-3.4968e-05,-4.6685e-05,-9.1553e-05,-5.9195e-05,2.0896e-05,6.425e-05,-9.1428e-06,4.2685e-05,-1.1275,-2.5778e-05,2.2524e-05,5.1489e-05,6.6664e-05,2.1292e-06,0.00010494,3.2819e-05,-1.1046e-05,-1.1756e-05,0.00010616,2.3919e-05,-5.2249e-05,3.8095e-05,6.6326e-07,5.4331e-05,-3.9614e-05,-2.4086e-05,2.5731e-05,2.885e-05,1.8366e-05,5.1547e-05,7.9066e-05,-1.7509e-05,-4.4886e-05,3.2573e-05,3.0503e-06,0.00011545,-6.4562e-05,1.0836e-05,-2.3244,-0.00010153,1.8567,4.3682e-05,4.4397e-06,-1.5425e-05,-8.2724e-05,2.524e-05,3.9014e-05,-0.00010581,-8.2439e-05,-1.354e-05,-6.851e-06,-3.7697e-05,-0.00015469,9.3893e-05,7.5886e-05,4.447e-05,6.6662e-05,-0.00012552,-1.5735e-05,-0.00015579,1.7441e-05,-5.6877e-05,1.0092e-05,-2.16e-05,-2.8558e-05,-4.1873e-05,-1.1822e-05,-2.4608e-05,4.3573e-05,3.9132e-05,-7.0932e-05,-3.8129e-06,-1.1832e-05,-0.00035806,1.015e-05,-2.2185e-09,-6.9685e-05,-3.9817e-06,-1.6342e-05,6.2387e-05,-0.00032572,2.0501e-05,-0.2381,-1.0004e-05,-3.6973e-05
-0.00010136,-0.00012233,-0.00022802,-0.00013778,4.5402e-05,0.00015249,-1.1173e-05,0.00013107,-1.5783,-2.1709e-05,8.3357e-05,6.9462e-05,0.00015437,-2.2435e-05,0.00030001,4.9828e-05,-0.0001109,-2.6663e-05,0.00027009,6.3621e-05,-9.2574e-05,7.1168e-05,3.3494e-06,0.00010945,-9.4333e-05,-5.382e-05,6.4104e-05,4.7949e-05,-1.265e-05,0.00011826,8.2039e-05,-8.876e-05,-0.00015397,8.8606e-05,4.3718e-05,0.00022556,-0.00015383,-8.8584e-06,-1.724,-0.00030314,0.99803,3.9918e-05,-2.8352e-05,-6.6855e-05,-0.00023171,6.9289e-05,0.00011012,-0.00033889,-0.00022472,-5.6893e-05,-5.2998e-05,-7.9915e-05,-0.00030273,0.00022778,0.0001881,8.4524e-05,0.00013192,-0.00020638,-6.7726e-05,-0.00024794,5.0449e-05,-0.00018428,9.523e-06,-6.8219e-05,-7.1481e-05,-0.00010468,-4.7165e-05,-0.00010429,0.00011607,6.9053e-05,-0.00016409,-3.5405e-05,4.9391e-06,-0.0044492,3.1963e-05,4.0139e-05,-1.6825e-09,-1.4546e-05,-2.0106e-05,0.00014702,-0.00069584,4.9563e-05,-0.31609,-8.0313e-05,-0.00012692
-0.00022879,-0.00034512,-0.00066314,-0.00061927,0.00016478,0.00022798,4.2607e-07,0.00031409,-1.6926,-0.00010976,0.00010894,0.00016352,0.00028754,-9.6075e-06,0.00054775,0.00011794,-0.0002685,-5.4025e-05,0.00042803,0.00016209,-0.00022555,0.00022975,5.3919e-05,0.00024883,-0.00027352,-0.00016073,0.00023263,0.00010487,-2.1362e-05,0.00034119,0.00019505,-0.0001913,-0.00044089,0.00015355,8.1152e-05,0.00055985,-0.00042007,-3.9499e-05,-2.7735,-0.00075738,1.2718,8.6475e-05,-0.00017015,-0.00028848,-0.00053724,0.00029188,0.00029108,-0.00080589,-0.00056042,-0.00012515,-0.00011271,-0.00019879,-0.0026777,0.00062699,0.0005007,0.00024173,0.00039379,-0.00083548,-0.00017699,-0.00068805,0.00012836,-0.00038038,0.00012864,-0.00034785,-0.00027186,-0.00025257,-9.166e-05,-0.00023297,0.00028714,0.00020455,-0.00040809,-4.9664e-05,-1.4638e-05,-0.0017294,6.2065e-05,-3.8845e-05,-0.00060845,-3.2292e-09,7.3859e-06,0.00042214,-0.0024232,0.00018699,-0.21465,-0.00020407,-0.00030213
-5.2272e-05,-8.9039e-05,-0.00017372,-0.00017267,4.2152e-05,6.931e-05,4.7887e-06,8.5416e-05,-1.4577,-2.2194e-05,2.1803e-05,4.5772e-05,7.1611e-05,-3.9845e-06,0.00014226,3.2444e-05,-6.4835e-05,-9.6494e-06,0.00010747,4.8498e-05,-6.2255e-05,5.5411e-05,2.3507e-05,6.1053e-05,-6.877e-05,-4.0997e-05,5.7307e-05,2.694e-05,-1.4543e-05,8.6164e-05,3.6419e-05,-4.0843e-05,-0.000115,3.4381e-05,2.8069e-05,0.0001594,-0.00011045,-7.2747e-06,-2.7437,-0.00019715,0.87343,4.3018e-05,-5.938e-05,-7.8083e-05,-0.00016507,5.8151e-05,7.4294e-05,-0.00022993,-0.00013375,-1.2455e-05,-2.632e-05,-4.1937e-05,-0.00097852,0.00016549,0.00013215,6.0219e-05,8.4915e-05,-0.00021506,-4.5023e-05,-0.00017159,2.6714e-05,-9.0747e-05,2.336e-05,-8.3511e-05,-6.4199e-05,-6.0658e-05,-2.8857e-05,-5.5352e-05,7.9412e-05,5.209e-05,-0.00010436,-1.5506e-05,-4.5802e-06,-0.00067958,2.1972e-05,-2.1192e-05,-0.00015362,4.4667e-06,-1.3558e-09,0.00010863,-0.00064994,4.2416e-05,-0.29737,-5.2218e-05,-8.3179e-05
-1.8444e-05,-2.7583e-05,-5.2229e-05,-4.8593e-05,1.0638e-05,2.0686e-05,3.4762e-07,2.1854e-05,-1.6001,-8.8385e-06,8.7417e-06,1.1666e-05,1.9301e-05,-2.4845e-06,3.98e-05,1.2068e-05,-2.243e-05,-1.7934e-06,3.8505e-05,1.0033e-05,-1.5835e-05,1.4689e-05,3.8713e-06,1.8697e-05,-2.1821e-05,-1.1249e-05,1.5502e-05,5.3654e-06,-5.0348e-06,2.4805e-05,1.0663e-05,-1.47e-05,-3.2871e-05,9.5641e-06,6.0503e-06,3.8129e-05,-3.1949e-05,-4.3834e-06,-2.7884,-5.8402e-05,1.501,5.6189e-06,-1.1371e-05,-2.1949e-05,-4.6241e-05,1.5152e-05,2.3759e-05,-6.8355e-05,-4.2691e-05,-6.3561e-06,-9.2356e-06,-1.5704e-05,-0.00015096,4.3637e-05,3.5487e-05,1.6994e-05,2.8358e-05,-6.4712e-05,-1.5881e-05,-5.6152e-05,8.2383e-06,-3.0649e-05,5.9334e-06,-2.4618e-05,-1.7537e-05,-2.1004e-05,-8.9969e-06,-1.9861e-05,2.121e-05,1.3566e-05,-3.0057e-05,-3.5088e-06,2.5374e-06,-0.00018705,1.1818e-05,-1.666e-06,-4.0188e-05,4.8632e-07,-1.6737e-08,-1.5772e-09,-0.00017651,1.2564e-05,-0.3081,-1.64e-05,-2.5366e-05
-0.0031719,-0.0037936,-0.0064182,-0.0014305,0.0013553,0.0047468,-0.00034507,0.0031636,-0.94351,-0.001613,0.001619,0.0021789,0.006012,3.8715e-06,0.007449,0.0012453,-0.0023904,-0.0010383,0.0059242,0.0018499,-0.0033993,0.0018527,-6.272e-05,0.0046882,-0.0026629,-0.0016262,0.001978,0.0014768,-1.9622e-06,0.0032199,0.0028554,-0.0012481,-0.0051422,0.0036777,0.00057467,0.0075846,-0.005418,0.00039987,-0.43584,-0.0079317,1.3168,0.0020512,-0.0015204,-0.0021129,-0.0072662,0.0019466,0.0031081,-0.0085626,-0.0042048,-0.0012743,-0.0012839,-0.0024078,-0.027781,0.006896,0.0056075,0.0020459,0.005006,-0.0030651,-0.0020151,-0.00649,0.0014935,-0.0046086,2.415e-05,-0.0020551,-0.0021796,-0.0030879,-0.0016962,-0.0032871,0.0031326,0.0024921,-0.0045294,-0.00087999,-0.00057938,-0.01854,0.00027182,0.0010817,-0.0049285,-0.00049119,-0.00050656,0.0041416,-4.1837e-09,0.0014857,-0.16038,-0.0016279,-0.0031444
-0.00013424,-0.00016892,-0.000328,-0.00036268,8.3785e-05,0.00016385,1.041e-05,0.00016336,-1.4388,-6.5647e-05,6.6613e-05,0.00010464,0.00014786,-1.1173e-05,0.00027669,0.00015414,-0.00012885,-1.0602e-05,0.00025532,8.8598e-05,-0.00012929,0.00010634,2.519e-05,0.0001604,-0.0001536,-7.3537e-05,0.00012875,3.7594e-05,-1.1302e-05,0.00016991,0.00013039,-9.2304e-05,-0.00021827,7.6391e-05,4.1088e-05,0.00026354,-0.00021217,-1.8631e-05,-2.5744,-0.00038408,1.052,5.7279e-05,-6.1369e-05,-0.00015941,-0.00027699,0.00012033,0.00017444,-0.00041947,-0.00030417,-3.7536e-05,-5.4924e-05,-0.00010491,-0.0099891,0.00032209,0.00026172,0.00012421,0.00023091,-0.0004788,-7.0334e-05,-0.00042705,7.2216e-05,-0.00020742,4.1815e-05,-0.00017908,-0.00012862,-0.00012378,-5.129e-05,-0.00012247,0.00018592,0.00010112,-0.00020436,-2.7002e-05,1.0877e-05,-0.0018842,3.5365e-05,-1.9203e-05,-0.00030235,9.4992e-06,-5.0978e-06,0.00022074,-0.0013166,-1.5225e-09,-0.313,-7.991e-05,-0.0001587
0.0018454,-0.00028079,0.00051772,0.001482,-0.00076491,-0.0020489,-6.8447e-05,0.0012112,-9.4549,0.00041949,0.0006163,-0.00040914,0.0050181,-0.00017283,-0.00018617,-0.0019684,-0.0052022,-7.5299e-05,0.0020449,-0.0016814,-0.001533,-0.0010693,-0.00010869,17.178,0.0026731,-0.00026856,-0.00087892,-0.0011256,5.6538,0.012922,-0.0021927,-0.00054762,0.00040972,2.1376,0.00051073,0.0023346,-0.00034384,0.0028227,0.299,-0.0035585,-0.00024871,1.6671,-0.00274,0.0012295,-0.0016106,24.812,-0.00064451,-0.00031993,-0.002527,0.00089554,0.0007324,-0.0001099,0.00067537,0.0012654,0.0017471,0.0010757,0.0022026,-0.0038447,0.002881,-0.0056288,-0.020505,-0.0015853,-0.00038601,-0.00082257,-0.00068413,0.0009264,-0.00032394,-0.0031199,-0.001854,-0.0012304,-0.0018884,-0.0026878,-0.0018796,7.8893,-0.0023832,-0.0027369,-0.012768,0.0012973,0.00053833,0.00010666,0.00079024,-0.0011906,-3.5537e-15,7.4917e-05,0.0010088
-3.551e-05,-4.1268e-05,-8.267e-05,-7.0808e-05,2.4354e-05,5.1834e-05,2.4042e-08,3.9784e-05,-1.4219,-2.8271e-05,1.09e-05,3.7904e-05,5.1971e-05,9.2033e-06,7.5339e-05,3.2149e-05,-1.8503e-05,-7.6656e-06,7.151e-05,3.018e-05,-4.314e-05,3.9809e-05,2.5104e-06,4.1623e-05,-4.0701e-05,-2.4084e-05,2.9941e-05,2.1706e-05,-3.8404e-06,4.2875e-05,5.7986e-05,-2.1641e-05,-5.0801e-05,2.7821e-05,5.6586e-07,7.5682e-05,-6.5786e-05,7.5289e-06,-2.0269,-0.0001036,1.2809,3.7895e-05,1.2675e-05,-3.6237e-05,-8.5024e-05,2.5948e-05,3.8132e-05,-9.8539e-05,-7.2746e-05,-8.6207e-06,2.2995e-06,-3.5467e-05,-0.0001775,9.3867e-05,7.7933e-05,4.4418e-05,7.1677e-05,-0.00012784,-1.1517e-05,-9.9357e-05,1.8337e-05,-4.7176e-05,1.039e-05,-3.2413e-05,-2.5915e-05,-3.256e-05,-1.7201e-05,-1.6e-05,4.2723e-05,4.0481e-05,-7.0064e-05,3.2464e-06,-8.5627e-06,-0.00019787,6.2401e-06,1.4338e-05,-9.454e-05,-2.8858e-06,-4.9477e-06,5.7642e-05,-0.00032642,2.839e-05,-0.22832,-2.9055e-09,-3.2928e-05
-4.9451e-05,-7.8804e-05,-0.00013132,-0.00012755,3.8496e-05,7.8609e-05,1.1206e-06,6.6076e-05,-1.4695,-3.3993e-05,2.7067e-05,5.927e-05,6.8551e-05,8.8396e-06,0.00011708,3.3739e-05,-3.6467e-05,-1.694e-05,0.0001244,4.3929e-05,-5.9421e-05,6.0294e-05,8.0855e-06,7.2522e-05,-6.3378e-05,-3.6587e-05,4.7446e-05,3.5851e-05,5.1162e-06,6.7619e-05,5.6481e-05,-3.7072e-05,-7.1777e-05,4.6216e-05,1.656e-05,0.0001505,-0.00010747,-8.7837e-07,-2.2877,-0.00013959,1.4312,3.804e-05,-3.1303e-05,-5.874e-05,-0.00013138,4.835e-05,6.1765e-05,-0.00014716,-0.00012639,-1.9364e-05,-1.571e-05,-5.296e-05,-0.014122,0.00014901,0.00012305,5.9789e-05,0.00010375,-0.00018873,-3.4124e-05,-0.00015499,3.1124e-05,-8.5114e-05,1.8699e-05,-6.8853e-05,-4.9477e-05,-5.6819e-05,-2.9532e-05,-4.8327e-05,6.1006e-05,5.822e-05,-9.5623e-05,-3.0387e-06,-8.3637e-06,-0.00044544,7.005e-06,1.4374e-05,-0.00014039,7.3964e-07,-5.7337e-06,9.1041e-05,-0.00047072,3.8093e-05,-0.2137,-2.2985e-05,-3.0319e-09
