-2.882e-09,-0.00016718,-0.00032659,-1.1527,-4.4692e-05,2.1208e-05,-1.5941e-05,8.4973e-05,0.00014509,-0.0001245,-5.8638e-05,-1.3184e-05,-0.00013676,-1.1684e-05,7.2027e-05,-0.00026062,-0.000133,-0.0001024,0.00018367,0.00015055,-0.00021615,0.0001024,-6.3336e-05,1.8352e-05,-0.00021649,-2.3871e-05,2.2125e-05,-1.7699e-05,0.00030445,5.8369e-05,-0.0001984,-0.00013129,-0.00026756,-4.6472e-05,-4.7354e-05,9.1991e-05,-2.3775e-05,-0.00011636,-0.62902,-0.00018136,6.912e-05,-6.5061e-05,-4.43e-05,-9.823e-05,-5.1192e-05,5.5143e-05,2.1418e-05,-5.9787e-05,-9.7465e-05,-0.00012662,-5.0556e-05,-4.3141e-05,-3.0762e-05,1.2958e-05,-1.3193e-05,5.4913e-06,-1.574e-05,-0.00039984,-0.00011244,-0.00011499,3.1639e-05,-0.00016645,-5.1759e-05,-0.00031795,-0.00015385,-0.00011541,-0.0001448,-0.00015592,2.1834e-05,-9.6005e-05,-0.00013226,-5.5268e-06,-6.6987e-05,-0.000349,-0.00016177,0.00022094,-0.0001147,-1.3927e-06,-1.0578e-05,-4.2903e-05,-0.00025269,-8.1866e-05,-0.0013953,-0.00014806,-0.00022999
-4.1682e-05,-2.1844e-09,-7.7617e-05,-1.6497,-1.4188e-05,6.6046e-06,-6.4951e-06,1.8689e-05,3.5245e-05,-3.4992e-05,-1.5341e-05,-3.9835e-06,-3.2586e-05,-3.4285e-06,1.8576e-05,-7.0669e-05,-3.4402e-05,-2.5839e-05,4.0648e-05,3.5974e-05,-6.1049e-05,2.3303e-05,-2.0399e-05,1.4176e-06,-5.6351e-05,-8.4123e-06,3.6754e-06,-6.0833e-06,6.8765e-05,1.3238e-05,-5.5985e-05,-3.5619e-05,-7.1458e-05,-1.4691e-05,-1.5216e-05,2.6871e-05,-9.1853e-06,-2.8551e-05,-0.21353,-5.1287e-05,1.6261e-05,-1.2573e-05,-8.9896e-06,-2.7296e-05,-1.1632e-05,1.118e-05,3.1453e-06,-1.4563e-05,-2.2555e-05,-3.056e-05,-1.3905e-05,-1.2414e-05,-1.5256e-05,1.8193e-06,-5.0747e-06,-1.4506e-06,-5.5942e-06,-9.6148e-05,-2.5551e-05,-2.8075e-05,1.0049e-05,-4.7155e-05,-1.5645e-05,-7.7576e-05,-3.9309e-05,-3.1858e-05,-3.8489e-05,-3.8782e-05,5.9064e-06,-2.3961e-05,-3.7186e-05,-2.6116e-06,-2.0728e-05,-8.3537e-05,-4.216e-05,5.296e-05,-2.9907e-05,-2.39e-06,-7.0645e-06,-1.3716e-05,-6.35e-05,-2.0351e-05,-0.00052981,-3.5764e-05,-6.4296e-05
-4.6096e-05,-4.3651e-05,-2.6018e-09,-0.82152,-1.1027e-05,9.9324e-06,-6.5161e-06,1.7891e-05,3.9141e-05,-3.8847e-05,-1.2508e-05,-2.695e-06,-3.4582e-05,-3.6357e-06,2.0067e-05,-6.4521e-05,-3.4874e-05,-3.1334e-05,5.8973e-05,3.785e-05,-5.6313e-05,2.7652e-05,-1.8799e-05,6.4667e-06,-5.8383e-05,-5.3863e-06,3.1668e-06,-1.5346e-06,8.0148e-05,1.6662e-05,-4.806e-05,-3.1224e-05,-6.4763e-05,-8.8269e-06,-1.5062e-05,2.4477e-05,-8.0468e-06,-2.8703e-05,-0.67019,-4.6864e-05,1.9202e-05,-1.3804e-05,-4.0897e-06,-2.3763e-05,-1.1372e-05,1.2276e-05,2.463e-06,-1.2417e-05,-2.5325e-05,-2.7321e-05,-1.5879e-05,-1.6964e-05,-2.2164e-06,5.241e-06,-1.5574e-06,1.1544e-06,-1.635e-06,-9.8723e-05,-3.1388e-05,-2.4792e-05,9.3739e-06,-4.7052e-05,-1.4978e-05,-8.7541e-05,-3.8179e-05,-3.2424e-05,-4.3894e-05,-4.1791e-05,6.5175e-06,-2.5979e-05,-3.4654e-05,-4.1463e-06,-1.9415e-05,-8.9199e-05,-4.8927e-05,5.7674e-05,-2.7336e-05,-2.2382e-06,-5.9868e-06,-1.3927e-05,-4.5501e-05,-1.9855e-05,-0.00021968,-3.5102e-05,-6.0539e-05
-2.5129e-05,-2.1831e-05,-4.424e-05,-2.527e-09,-5.0073e-06,1.3557e-05,-2.8035e-06,1.9275e-05,4.3268e-05,-1.3999e-05,-2.1792e-06,2.0868e-06,1.0611e-06,-3.3841e-07,1.73e-05,-4.116e-05,-1.7445e-05,-1.5051e-05,4.5026e-05,2.7038e-05,-3.4237e-05,1.3034e-05,-1.1451e-05,1.2353e-05,-2.8104e-05,-2.6555e-06,4.9788e-06,2.3109e-07,4.9278e-05,1.1297e-05,-2.8493e-05,-1.5229e-05,-3.9772e-05,-3.9769e-06,-4.5409e-06,2.0398e-05,-3.3189e-06,-9.5014e-06,-3.2256e-05,-2.5619e-05,1.4708e-05,-3.2638e-06,-9.1338e-07,-7.8018e-06,-4.7167e-06,9.0728e-06,4.7144e-06,-7.5993e-06,-5.1624e-06,-1.7932e-05,-3.822e-06,-2.9282e-06,-8.6774e-06,5.2257e-06,2.0566e-07,2.968e-06,-4.6524e-06,-1.5512e-05,-9.1461e-06,-7.2306e-06,8.7504e-06,-2.5505e-05,-9.4918e-06,-3.7468e-05,-1.9522e-05,-1.8282e-05,-1.9816e-05,-2.2082e-05,5.0452e-06,-1.0373e-05,-2.2072e-05,-2.7584e-06,-1.1417e-05,-2.7811e-05,-2.3171e-05,4.6129e-05,-3.0953e-06,2.818e-07,-8.199e-07,-7.5513e-06,3.8645e-06,-1.1987e-05,-0.00014248,-1.7739e-05,-3.4274e-05
-7.969e-05,-8.7565e-05,-0.00014359,-0.77,-2.3457e-09,2.6591e-05,-4.6801e-06,4.0898e-05,6.0005e-05,-5.3222e-05,-1.4945e-05,-4.8743e-06,-5.3173e-05,-1.7698e-05,3.5636e-05,-0.00010294,-7.1517e-05,-5.2981e-05,9.6873e-05,5.4475e-05,-8.7611e-05,3.3255e-05,-2.6585e-05,1.4597e-05,-9.6221e-05,-9.2818e-06,1.1012e-05,-2.5821e-06,0.00013589,3.5301e-05,-7.4885e-05,-5.8076e-05,-0.00010352,-1.3796e-05,-1.1891e-05,3.9947e-05,-1.1564e-05,-5.5996e-05,-0.93459,-6.9847e-05,3.2877e-05,-3.2805e-05,-2.7855e-05,-3.9965e-05,-2.3462e-05,2.7121e-05,1.1102e-05,-3.9936e-05,-4.6353e-05,-4.2913e-05,-3.3016e-05,-2.6121e-05,-5.4337e-06,2.6344e-06,-7.6097e-06,1.3536e-06,-1.2623e-05,-0.00015239,-6.1265e-05,-6.1126e-05,1.9174e-05,-9.0914e-05,-2.3534e-05,-0.00015296,-5.8929e-05,-5.1829e-05,-7.0007e-05,-7.8806e-05,1.5764e-05,-4.6278e-05,-5.6237e-05,-1.9385e-05,-2.4377e-05,-0.00019511,-7.3977e-05,8.7934e-05,-4.0888e-05,-1.4344e-06,-7.8217e-06,-1.8319e-05,-8.0678e-05,-3.2402e-05,-0.00040335,-7.2588e-05,-0.00010398
-6.6674e-05,-5.8189e-05,-0.00011038,-1.248,-7.8191e-06,-2.9482e-09,-3.1414e-07,5.1911e-05,8.4946e-05,-2.422e-05,2.0172e-06,1.445e-06,-2.0188e-05,-1.818e-05,3.7271e-05,-7.3637e-05,-5.5738e-05,-3.831e-05,6.6379e-05,3.8826e-05,-6.7379e-05,1.7158e-05,-1.9607e-05,3.3076e-05,-6.0514e-05,-2.9223e-06,1.3405e-05,9.4208e-06,0.00011042,3.7351e-05,-4.4883e-05,-3.1621e-05,-6.8258e-05,-1.45e-06,7.3277e-06,3.8579e-05,-9.5616e-06,-3.5185e-05,-0.00030502,-4.8029e-05,4.2263e-05,1.0112e-05,-1.0449e-05,-1.9866e-05,-1.6072e-05,2.6484e-05,1.7032e-05,-4.4395e-05,-4.4281e-06,-1.1183e-05,-2.425e-05,-1.2396e-05,1.883e-06,-6.7952e-06,-1.6936e-05,8.9733e-06,-2.1297e-05,-7.6627e-05,-3.6772e-05,-7.921e-05,3.3137e-05,-8.3502e-05,-1.7418e-05,-0.00010137,-4.2537e-05,-3.5391e-05,-4.9933e-05,-6.3601e-05,4.2308e-05,-3.1411e-05,-4.0814e-05,-2.4434e-05,-1.215e-05,-7.975e-05,-4.692e-05,9.2697e-05,-5.1901e-06,-7.8805e-07,-5.3072e-06,-1.1222e-05,-1.9611e-05,-2.2155e-05,-0.00018291,-5.3994e-05,-7.7416e-05
-2.1243e-05,-2.3623e-05,-4.1539e-05,-1.1443,-4.7167e-06,6.1607e-06,-1.7437e-09,1.049e-05,1.3953e-05,-1.2807e-05,-5.4302e-06,-2.6171e-06,-1.4096e-05,-5.2402e-06,8.121e-06,-2.8438e-05,-2.0621e-05,-1.3218e-05,1.9148e-05,1.3662e-05,-2.4121e-05,7.287e-06,-7.4863e-06,1.0484e-06,-2.4674e-05,-3.0208e-06,4.73e-06,-1.8429e-06,3.1946e-05,7.9676e-06,-2.3152e-05,-1.5663e-05,-3.1059e-05,-5.0911e-06,-2.5658e-06,9.7102e-06,-4.3891e-06,-1.6025e-05,-1.1674,-2.0532e-05,7.4322e-06,-9.1234e-06,-9.8281e-06,-1.18e-05,-6.9177e-06,6.5709e-06,2.4714e-06,-1.2348e-05,-1.3264e-05,-1.3817e-05,-9.9267e-06,-6.4475e-06,-5.2596e-06,-4.6183e-07,-3.331e-06,1.835e-07,-4.2978e-06,-4.0468e-05,-1.658e-05,-1.6645e-05,5.145e-06,-2.5423e-05,-6.8192e-06,-4.2468e-05,-1.8408e-05,-1.412e-05,-1.63e-05,-2.1891e-05,4.041e-06,-1.3078e-05,-1.337e-05,-5.3767e-06,-6.6257e-06,-6.0496e-05,-1.8513e-05,2.0968e-05,-1.225e-05,-1.2912e-06,-2.5882e-06,-4.7737e-06,-2.2806e-05,-9.3596e-06,-0.00015088,-2.0484e-05,-2.9924e-05
-3.9763e-05,-4.354e-05,-8.2185e-05,-1.8279,-9.4485e-06,1.2851e-05,-3.3164e-06,-1.5992e-09,1.8736e-05,-1.5532e-05,-6.7834e-06,-6.7885e-06,-2.1681e-05,-1.1822e-05,1.6829e-05,-5.7742e-05,-4.3379e-05,-2.4361e-05,2.5553e-05,2.2986e-05,-4.2904e-05,8.4528e-06,-1.3607e-05,1.6599e-06,-3.8675e-05,-3.4105e-06,4.9851e-06,-3.7402e-06,5.1814e-05,1.3054e-05,-4.3414e-05,-3.3814e-05,-5.809e-05,-1.1107e-05,1.3951e-06,1.8625e-05,-8.2523e-06,-2.9934e-05,-0.096932,-3.9691e-05,1.1582e-05,-2.2684e-05,-3.0876e-05,-1.9406e-05,-1.5803e-05,1.2444e-05,6.4941e-06,-3.6208e-05,-2.3304e-05,-2.8572e-05,-1.9274e-05,-7.6557e-06,-1.6319e-05,-6.5698e-06,-1.2064e-05,1.7771e-06,-1.6003e-05,-6.1868e-05,-2.5016e-05,-3.5179e-05,8.8193e-06,-5.1267e-05,-1.2736e-05,-7.3641e-05,-3.3787e-05,-2.5406e-05,-2.9949e-05,-4.1657e-05,5.36e-06,-2.2534e-05,-2.6304e-05,-1.2957e-05,-9.4472e-06,-0.00010704,-2.8652e-05,3.5394e-05,-1.4324e-05,-1.5791e-06,-4.9171e-06,-7.9012e-06,-4.8632e-05,-1.6223e-05,-0.00051603,-4.2805e-05,-5.624e-05
-6.9672e-05,-5.7764e-05,-0.00013464,-1.1109,-1.1646e-05,8.3927e-05,6.4826e-07,6.3763e-05,-2.0063e-09,-4.2355e-05,-3.5542e-06,2.5421e-05,-9.5833e-06,4.5586e-06,5.4206e-05,-0.00012153,-3.6316e-05,-3.9607e-05,0.00013826,8.7789e-05,-0.00010498,5.2266e-05,-3.0227e-05,4.6243e-05,-8.5599e-05,-3.7816e-06,1.9485e-05,1.2694e-05,0.0001715,6.6701e-05,-6.6003e-05,-2.8696e-05,-0.00011201,7.0572e-06,-1.4656e-05,6.3896e-05,-7.0437e-08,-2.4741e-05,-0.00013112,-7.9111e-05,7.0004e-05,2.2973e-05,9.431e-05,-8.041e-06,-1.2096e-05,2.9043e-05,1.8516e-05,-2.4837e-05,4.7009e-06,-4.4133e-05,-9.1264e-06,-7.8369e-06,5.5114e-05,1.6729e-05,1.8026e-06,1.1447e-05,-1.4876e-05,-6.7468e-05,-2.2356e-05,-4.2661e-05,3.6987e-05,-7.6691e-05,-2.752e-05,-0.00010872,-5.9589e-05,-4.3124e-05,-5.2493e-05,-6.1015e-05,3.0534e-05,-2.8262e-05,-5.7318e-05,6.5768e-06,-3.8408e-05,-2.6576e-05,-7.4345e-05,0.00016161,-4.8618e-06,2.1621e-07,-2.2708e-06,-2.4355e-05,9.8511e-06,-3.4137e-05,-0.00027017,-4.4812e-05,-9.0967e-05
-0.00016874,-0.00019023,-0.00035232,-2.0069,-4.5542e-05,5.084e-05,-1.3826e-05,0.00010792,8.8436e-05,-1.9369e-09,-2.7035e-05,-2.4905e-05,-8.6361e-05,-5.4714e-05,7.6062e-05,-0.00025927,-0.00019175,-0.00010672,0.00011502,8.2532e-05,-0.00018745,3.3582e-05,-5.6739e-05,-8.5851e-06,-0.00016924,-1.6558e-05,2.8292e-05,-1.1926e-05,0.00022767,5.8845e-05,-0.00020083,-0.0001471,-0.0002475,-5.5977e-05,2.4613e-05,7.9391e-05,-3.23e-05,-0.00012585,-0.04361,-0.00017619,5.0848e-05,-0.00010634,-0.00014988,-7.91e-05,-6.7054e-05,5.951e-05,2.9957e-05,-0.00015985,-0.00010569,-0.00014717,-8.0595e-05,-2.8525e-05,-0.00010279,-2.9197e-05,-5.2744e-05,-6.1785e-07,-7.0013e-05,-0.00026474,-0.00011635,-0.00016087,3.6449e-05,-0.00022353,-5.5025e-05,-0.00031773,-0.00015623,-0.00011469,-0.00012989,-0.00018552,1.2856e-05,-0.00011177,-0.00011337,-6.1803e-05,-4.3204e-05,-0.00054253,-0.00012601,0.00015215,-4.9753e-05,-5.6155e-06,-1.5889e-05,-3.7074e-05,-0.00019408,-7.3636e-05,-0.0022074,-0.00019361,-0.00024314
-0.00017684,-0.0001845,-0.00029693,-1.2798,-3.4196e-05,5.6157e-05,-1.6619e-05,8.4595e-05,7.7645e-05,-7.9844e-05,-2.9265e-09,-2.1517e-05,-8.8517e-05,-5.5987e-05,7.0502e-05,-0.00021982,-0.00017967,-0.00010579,0.00017979,7.7813e-05,-0.00016679,3.7552e-05,-5.5652e-05,1.2602e-05,-0.00017716,-1.8018e-05,2.2624e-05,-9.3348e-06,0.00022458,5.5076e-05,-0.00016543,-0.00012856,-0.00021852,-4.0193e-05,-1.6839e-06,7.3782e-05,-3.7472e-05,-0.00012524,-0.28319,-0.00015312,4.5649e-05,-8.4508e-05,-0.00011264,-8.0573e-05,-6.0828e-05,4.7393e-05,2.6847e-05,-0.00012053,-0.00010967,-0.00010984,-9.0407e-05,-5.012e-05,-6.1455e-05,-1.2503e-05,-3.0883e-05,-3.379e-06,-5.2114e-05,-0.0002665,-0.00013835,-0.00013121,2.9791e-05,-0.0002202,-5.3408e-05,-0.00031365,-0.00012901,-0.00010458,-0.00014516,-0.00017913,1.8697e-05,-0.00010745,-0.00011046,-6.0513e-05,-3.3444e-05,-0.00051011,-0.00012825,0.00014185,-3.8302e-05,-1.0179e-05,-2.4552e-05,-3.5189e-05,-0.00015286,-6.5597e-05,-0.00096803,-0.00018155,-0.00023144
-6.4891e-05,-6.7461e-05,-0.00011841,-1.4156,-1.4225e-05,1.8968e-05,-7.7525e-06,2.8517e-05,5.7827e-05,-4.4813e-05,-1.4901e-05,-1.9831e-09,-4.1318e-05,-1.2355e-05,2.655e-05,-8.2884e-05,-5.3859e-05,-3.8045e-05,6.6824e-05,4.4538e-05,-8.1373e-05,2.8516e-05,-2.4319e-05,1.1272e-05,-7.3761e-05,-9.8423e-06,6.5325e-06,1.6625e-05,0.00010929,2.6808e-05,-5.9664e-05,-4.2829e-05,-8.4561e-05,-9.4978e-06,-1.384e-05,5.3967e-05,-9.8052e-06,-4.0629e-05,-0.25347,-5.9379e-05,4.9842e-05,-2.244e-05,-1.6558e-05,-2.6652e-05,-1.4597e-05,1.8804e-05,8.2254e-06,-2.5374e-05,-3.455e-05,-4.2344e-05,-2.3294e-05,-1.8858e-05,-9.7888e-06,-1.8636e-06,-1.1567e-05,-9.4425e-07,-1.1691e-05,-0.00012795,-4.4179e-05,-5.9198e-05,1.4715e-05,-7.3716e-05,-2.0733e-05,-0.00011444,-4.947e-05,-4.4729e-05,-5.5134e-05,-6.0161e-05,9.2377e-06,-3.6193e-05,-5.0089e-05,-1.4457e-05,-2.2208e-05,-0.00011451,-5.7391e-05,8.3104e-05,-3.3756e-05,-2.1437e-06,-7.4334e-06,-1.6238e-05,-8.2088e-05,-2.7211e-05,-0.00030081,-5.4269e-05,-8.1251e-05
-0.00012708,-0.00010804,-0.00023554,-0.34738,-2.9463e-05,7.0135e-05,-1.1688e-05,0.00010192,0.0001844,-4.0644e-05,-2.7484e-06,5.4688e-06,-2.76e-09,-1.7649e-05,6.7588e-05,-0.00020782,-9.7493e-05,-7.37e-05,0.00015866,9.2095e-05,-0.00016075,3.8358e-05,-4.8885e-05,4.6716e-05,-0.00012089,-1.1138e-05,2.7331e-05,5.0679e-06,0.00020199,6.1214e-05,-0.00014165,-8.2925e-05,-0.00018532,-2.5611e-05,3.7524e-07,9.914e-05,-1.6927e-05,-5.5799e-05,-0.00018005,-0.00012504,6.4125e-05,-2.4661e-05,-3.8671e-05,-3.6021e-05,-3.0167e-05,4.1131e-05,2.6344e-05,-7.4814e-05,-2.0234e-05,-0.0001005,-2.9641e-05,-9.2341e-06,-5.99e-05,2.9451e-06,-2.0841e-05,1.0803e-05,-4.9492e-05,-6.8193e-05,-4.8684e-05,-5.9082e-05,4.0543e-05,-0.00013317,-4.9475e-05,-0.00017795,-0.00010338,-8.306e-05,-8.4981e-05,-0.00011127,2.3275e-05,-5.7802e-05,-9.4468e-05,-2.5428e-05,-4.5599e-05,-0.00013947,-9.7481e-05,0.00018292,-5.7471e-06,-8.5499e-07,-6.2729e-06,-3.5035e-05,7.5628e-06,-5.4721e-05,-0.00080194,-9.8569e-05,-0.00016794
-3.3423e-05,-3.3546e-05,-6.4282e-05,-1.6446,-1.1077e-05,1.4686e-06,-5.0006e-06,1.6172e-05,2.9472e-05,-2.9772e-05,-1.3368e-05,-4.0004e-06,-2.8207e-05,-1.5834e-09,1.4284e-05,-5.9095e-05,-2.5185e-05,-2.1549e-05,3.658e-05,3.443e-05,-4.8607e-05,2.3849e-05,-1.5626e-05,-2.264e-07,-4.5048e-05,-5.5689e-06,3.0562e-06,-5.5124e-06,5.7948e-05,1.0323e-05,-4.5623e-05,-2.9604e-05,-5.8259e-05,-1.2531e-05,-1.463e-05,2.1458e-05,-6.8327e-06,-2.208e-05,-0.3668,-4.2202e-05,1.3241e-05,-1.058e-05,-5.7716e-06,-2.1491e-05,-1.0822e-05,9.0624e-06,2.331e-06,-1.0851e-05,-2.0464e-05,-2.5383e-05,-8.3878e-06,-1.0796e-05,-8.8345e-06,4.0256e-06,-1.2313e-06,2.4113e-06,-5.2826e-07,-8.1176e-05,-1.9719e-05,-1.8528e-05,4.7946e-06,-3.4053e-05,-1.3392e-05,-6.8414e-05,-3.5115e-05,-2.6827e-05,-3.044e-05,-3.0804e-05,3.3075e-06,-1.7866e-05,-2.9015e-05,1.1598e-06,-1.7871e-05,-6.2703e-05,-3.6072e-05,4.416e-05,-3.0176e-05,-1.7315e-06,-4.9574e-06,-1.1299e-05,-5.3976e-05,-1.7869e-05,-0.00032808,-2.7464e-05,-5.0118e-05
-7.0376e-05,-7.1949e-05,-0.00013061,-1.2546,-1.6903e-05,1.8362e-05,-5.9953e-06,3.6878e-05,3.7949e-05,-3.1925e-05,-9.5661e-06,-1.0586e-05,-3.6505e-05,-2.0505e-05,-2.6404e-09,-0.00010025,-7.0172e-05,-4.2962e-05,4.8234e-05,3.6032e-05,-8.1028e-05,1.6361e-05,-2.6377e-05,-1.3373e-06,-7.2994e-05,-1.0638e-05,9.8864e-06,-6.5626e-06,9.5406e-05,1.9337e-05,-8.7585e-05,-5.9743e-05,-0.0001113,-2.588e-05,-3.7722e-06,3.9687e-05,-1.3959e-05,-4.9077e-05,-0.15187,-7.765e-05,1.7033e-05,-3.7865e-05,-4.8564e-05,-3.4829e-05,-2.8607e-05,1.7571e-05,8.7745e-06,-5.4687e-05,-3.9068e-05,-6.4491e-05,-2.9246e-05,-1.6323e-05,-3.9586e-05,-4.0504e-07,-9.8956e-06,9.7991e-07,-2.6568e-05,-0.0001147,-4.9843e-05,-5.6014e-05,1.2528e-05,-8.9494e-05,-2.494e-05,-0.00012225,-6.0375e-05,-4.6298e-05,-5.2997e-05,-7.6183e-05,2.889e-06,-4.6886e-05,-4.8353e-05,-2.2128e-05,-2.2556e-05,-0.0002998,-5.6121e-05,6.5355e-05,-1.7905e-05,-6.3236e-06,-1.0688e-05,-1.9262e-05,-8.5824e-05,-3.0514e-05,-0.0013722,-7.2449e-05,-0.00010884
-4.6485e-05,-5.2215e-05,-8.1307e-05,-0.80536,-8.5971e-06,1.7385e-05,-1.9052e-06,2.1429e-05,3.4834e-05,-3.4301e-05,-1.1027e-05,-8.1747e-07,-3.4952e-05,-1.0579e-05,2.0245e-05,-2.245e-09,-4.1009e-05,-2.8472e-05,5.6216e-05,3.1417e-05,-5.3709e-05,2.1089e-05,-1.5361e-05,1.0498e-05,-6.0296e-05,-7.3977e-06,6.8429e-06,3.3993e-07,8.2252e-05,1.9022e-05,-4.5542e-05,-3.1504e-05,-5.678e-05,-7.4464e-06,-8.081e-06,2.4797e-05,-2.7263e-06,-3.4177e-05,-0.71028,-4.4588e-05,2.2139e-05,-1.6002e-05,-1.3653e-05,-2.4858e-05,-1.4053e-05,1.665e-05,7.3887e-06,-2.2097e-05,-3.0555e-05,-2.4498e-05,-2.0746e-05,-1.5506e-05,-2.7418e-06,7.3481e-07,-6.1556e-06,1.7868e-07,-6.6656e-06,-0.00011931,-3.6876e-05,-4.1685e-05,1.0207e-05,-5.3909e-05,-1.3391e-05,-9.1171e-05,-3.6658e-05,-3.2877e-05,-4.3147e-05,-4.5937e-05,9.8701e-06,-3.164e-05,-3.576e-05,-1.1244e-05,-1.2965e-05,-0.00010104,-4.2262e-05,5.7064e-05,-2.5891e-05,-7.482e-07,-4.2348e-06,-8.9853e-06,-5.4988e-05,-1.417e-05,-0.0001921,-4.2284e-05,-6.3014e-05
-4.869e-05,-4.8505e-05,-9.3035e-05,-1.2206,-1.3303e-05,8.7314e-06,-5.4986e-06,2.4767e-05,5.9709e-05,-4.8384e-05,-1.9567e-05,1.0071e-07,-4.2252e-05,3.5107e-06,2.6353e-05,-8.1911e-05,-2.6619e-09,-3.0691e-05,5.7005e-05,5.7867e-05,-7.1508e-05,3.8623e-05,-2.2697e-05,8.251e-06,-7.3401e-05,-7.409e-06,4.0055e-06,-4.4461e-06,0.00010177,1.9888e-05,-5.4159e-05,-3.7637e-05,-7.0347e-05,-1.2586e-05,-2.2025e-05,3.6119e-05,-8.1594e-06,-3.1964e-05,-0.098819,-5.56e-05,2.5417e-05,-1.2353e-05,1.7747e-06,-2.9536e-05,-9.9742e-06,1.349e-05,6.2447e-06,-5.4724e-06,-2.7123e-05,-3.4257e-05,-9.6043e-06,-1.6956e-05,1.3177e-06,1.1286e-05,2.3733e-06,4.4145e-06,3.9036e-06,-0.00013447,-2.7607e-05,-2.816e-05,1.1589e-05,-4.649e-05,-1.8801e-05,-0.00010336,-5.3376e-05,-3.6545e-05,-4.4392e-05,-4.4326e-05,7.3242e-06,-2.7433e-05,-3.982e-05,4.8828e-06,-2.7358e-05,-8.8909e-05,-5.579e-05,8.6469e-05,-4.6198e-05,-1.8824e-06,-5.2465e-06,-1.4645e-05,-8.0284e-05,-2.5275e-05,-0.00025568,-3.5225e-05,-6.6778e-05
-5.9625e-05,-6.0939e-05,-0.00012211,-1.6007,-1.7503e-05,1.1993e-05,-4.5624e-06,3.1973e-05,4.4637e-05,-4.2166e-05,-1.7316e-05,-3.3383e-06,-4.5353e-05,-8.696e-06,2.6511e-05,-9.2209e-05,-5.2023e-05,-3.2381e-10,6.0636e-05,4.7043e-05,-7.7981e-05,2.8909e-05,-2.4702e-05,3.5089e-06,-7.6545e-05,-8.4005e-06,9.3673e-06,-7.1382e-06,9.695e-05,1.9621e-05,-7.5512e-05,-5.0149e-05,-9.6647e-05,-1.9607e-05,-1.2743e-05,3.3856e-05,-1.0357e-05,-4.2463e-05,-0.57382,-7.2323e-05,2.4285e-05,-2.2499e-05,-2.6607e-05,-3.6652e-05,-2.0284e-05,1.8403e-05,1.3585e-05,-3.1118e-05,-3.823e-05,-4.3933e-05,-2.1849e-05,-1.5601e-05,-1.9118e-05,2.732e-07,-8.489e-06,5.3449e-06,-1.0953e-05,-0.00012872,-4.2799e-05,-4.4836e-05,1.259e-05,-6.4662e-05,-2.0306e-05,-0.00012014,-6.0691e-05,-4.3979e-05,-5.1342e-05,-5.5694e-05,9.1521e-06,-3.5707e-05,-4.5897e-05,-6.0715e-06,-1.6468e-05,-0.00013813,-5.1089e-05,7.1909e-05,-3.8904e-05,-1.1116e-06,-6.8351e-06,-1.1958e-05,-8.0626e-05,-2.5993e-05,-0.00072189,-5.4921e-05,-8.8901e-05
-0.0004762,-0.00053101,-0.00077183,-0.87343,-9.0127e-05,8.2201e-05,-5.5064e-05,0.00018221,0.00032337,-0.00032826,-2.6281e-05,-4.4168e-05,-0.00027747,-0.00011089,0.00019321,-0.00059879,-0.00044784,-0.00029419,-2.7727e-09,0.00028793,-0.00044338,0.00016999,-0.00016733,8.5218e-06,-0.00054597,-7.2353e-05,2.0768e-05,-3.7096e-05,0.00074777,0.00016472,-0.00034648,-0.00035018,-0.00056516,-0.00011509,-0.00010661,0.0002423,-3.8044e-05,-0.00034501,-0.39136,-0.00042645,0.00015123,-0.00017551,-0.0001705,-0.00030034,-0.00016875,0.00012361,3.5393e-05,-0.00021348,-0.00028373,-0.00028153,-0.00020794,-0.0001856,4.1172e-05,-2.3872e-05,-8.3952e-05,-1.4481e-05,-0.00010762,-0.0009139,-0.00036906,-0.00027655,5.3292e-05,-0.00051881,-0.00015543,-0.00095249,-0.00037701,-0.00028207,-0.00042699,-0.00048406,3.863e-05,-0.00026551,-0.00031869,-0.00011555,-0.00012508,-0.0015343,-0.00041282,0.00044667,-0.00014145,-4.0121e-05,-9.1613e-05,-8.6753e-05,-0.0004123,-0.00018661,-0.0032367,-0.00041772,-0.000615
-0.00029282,-0.00029464,-0.00057487,-1.2059,-8.4097e-05,3.0528e-05,-2.6014e-05,0.00019073,0.00026556,-0.00024204,-9.6035e-05,-3.6538e-05,-0.00023841,-8.5721e-08,0.00013191,-0.00050244,-0.00022647,-0.00018751,0.00032885,-3.0398e-09,-0.00039443,0.00019124,-0.00011951,2.6703e-05,-0.0003741,-3.5196e-05,3.4463e-05,-4.2776e-05,0.00053347,9.9412e-05,-0.00037841,-0.00024726,-0.00048009,-8.9959e-05,-0.00010219,0.00018312,-6.2474e-05,-0.00019559,-0.45792,-0.00034028,0.0001181,-9.6833e-05,-5.8906e-05,-0.00017792,-7.4405e-05,8.6513e-05,3.5799e-05,-8.7474e-05,-0.00018866,-0.00021051,-9.1638e-05,-8.7247e-05,-7.9495e-05,4.0498e-05,-7.8022e-06,1.5683e-05,-2.1725e-05,-0.00064533,-0.00015923,-0.00016292,5.4128e-05,-0.00030155,-0.00010632,-0.00060825,-0.00031329,-0.00021349,-0.00025975,-0.00027248,4.2298e-05,-0.00013872,-0.0002505,4.842e-06,-0.00013823,-0.00054188,-0.00030422,0.00036933,-0.00021129,-4.5199e-06,-2.4688e-05,-8.5961e-05,-0.00039693,-0.00014912,-0.0037847,-0.00025464,-0.00043312
-4.4123e-05,-5.143e-05,-7.967e-05,-0.84145,-9.8688e-06,7.6195e-06,-3.7955e-06,1.9953e-05,2.0278e-05,-2.6187e-05,-8.7653e-06,-8.0726e-06,-3.1976e-05,-1.2734e-05,1.5547e-05,-5.9835e-05,-4.4559e-05,-2.8905e-05,5.043e-05,2.435e-05,-1.6971e-09,1.562e-05,-1.4416e-05,6.4252e-07,-4.9108e-05,-5.2604e-06,3.6442e-06,-4.4167e-06,6.405e-05,1.3936e-05,-4.5763e-05,-3.5495e-05,-5.6799e-05,-1.1997e-05,-4.4659e-06,1.3263e-05,-7.7377e-06,-3.5408e-05,-0.85028,-4.4206e-05,1.0528e-05,-2.5185e-05,-2.9381e-05,-2.6371e-05,-1.6746e-05,1.4376e-05,5.9195e-06,-3.0231e-05,-3.2412e-05,-3.0349e-05,-2.003e-05,-1.422e-05,-1.3076e-05,-4.9205e-06,-9.8921e-06,-1.1362e-06,-1.0266e-05,-9.126e-05,-3.4128e-05,-3.6922e-05,7.0684e-06,-5.4185e-05,-1.4657e-05,-9.2459e-05,-3.6818e-05,-2.7657e-05,-3.9147e-05,-4.6816e-05,5.0481e-06,-2.7462e-05,-3.0198e-05,-1.2726e-05,-1.022e-05,-0.00011076,-3.6045e-05,4.1051e-05,-1.9944e-05,-2.3338e-06,-6.0458e-06,-8.803e-06,-5.0521e-05,-1.8663e-05,-0.0002089,-4.5649e-05,-6.0506e-05
-0.00023654,-0.00024929,-0.00043801,-1.1255,-6.73e-05,1.911e-05,-3.3253e-05,0.00010964,0.00020914,-0.00022269,-8.608e-05,-1.9429e-05,-0.0002169,2.3075e-06,0.00010401,-0.00038723,-0.0001923,-0.00016038,0.00030102,0.00023939,-0.00030503,-1.9897e-09,-0.00010135,2.2694e-05,-0.0003314,-2.3081e-05,2.1779e-05,-2.7816e-05,0.00044936,7.5733e-05,-0.00030915,-0.00019157,-0.00038486,-6.4743e-05,-0.00010064,0.00011941,-2.9488e-05,-0.00016684,-1.0756,-0.0002773,0.00010088,-8.1495e-05,-5.0245e-05,-0.00015594,-6.2844e-05,7.5373e-05,1.685e-05,-5.4883e-05,-0.00015197,-0.00016068,-7.3742e-05,-8.6069e-05,-5.2754e-05,3.1735e-05,-5.1001e-06,1.0841e-05,-3.8625e-06,-0.00058195,-0.00015039,-0.00014287,3.3962e-05,-0.00024211,-8.4641e-05,-0.00047999,-0.00022473,-0.0001872,-0.00023316,-0.00021816,4.0195e-05,-0.00013309,-0.00018531,2.2934e-05,-0.00011679,-0.0004639,-0.00025502,0.0003335,-0.00018272,-9.2282e-07,-3.226e-05,-7.2007e-05,-0.00035686,-0.00012119,-0.0015366,-0.00019982,-0.00033806
-3.4284e-05,-4.0222e-05,-6.6249e-05,-1.1125,-7.7615e-06,7.8336e-06,-2.7617e-06,1.6765e-05,1.7718e-05,-2.0263e-05,-7.6602e-06,-4.3615e-06,-2.3736e-05,-9.2213e-06,1.3229e-05,-4.6061e-05,-3.5392e-05,-2.2855e-05,3.6247e-05,2.1146e-05,-3.7196e-05,1.2014e-05,-1.8455e-09,4.0594e-07,-4.0215e-05,-4.4243e-06,4.4199e-06,-2.1557e-06,5.134e-05,1.2466e-05,-3.6717e-05,-2.8113e-05,-4.7286e-05,-1.0653e-05,-3.3255e-06,1.4725e-05,-6.5515e-06,-2.6562e-05,-1.0552,-3.487e-05,1.142e-05,-1.7e-05,-1.9889e-05,-1.8797e-05,-1.3269e-05,1.1197e-05,4.7315e-06,-2.3456e-05,-2.3324e-05,-2.3377e-05,-1.57e-05,-9.6562e-06,-1.0519e-05,-2.7485e-06,-7.2835e-06,-3.9486e-07,-7.5733e-06,-7.1269e-05,-2.6963e-05,-3.1292e-05,6.5147e-06,-3.872e-05,-1.0216e-05,-7.0247e-05,-2.8841e-05,-2.3971e-05,-3.1277e-05,-3.5678e-05,4.2361e-06,-2.1507e-05,-2.5015e-05,-9.6935e-06,-9.3936e-06,-0.00011258,-2.9575e-05,3.3849e-05,-1.7848e-05,-1.4126e-06,-2.2877e-06,-6.9297e-06,-3.9812e-05,-1.4881e-05,-0.00020941,-3.5893e-05,-4.931e-05
-0.00012315,-0.00013204,-0.00021812,-0.52374,-1.9882e-05,6.8905e-05,-9.3762e-06,6.9106e-05,0.00010668,-8.8223e-05,-1.7193e-05,-1.6189e-06,-6.7798e-05,-3.2305e-05,5.0224e-05,-0.00014567,-0.00011085,-7.791e-05,0.00011943,8.4664e-05,-0.00013875,4.8828e-05,-4.691e-05,-3.0624e-09,-0.00014714,-7.7604e-06,1.8943e-05,3.4419e-06,0.00021283,5.4609e-05,-0.00010298,-5.4041e-05,-0.00016748,4.4576e-06,-1.7866e-05,6.3346e-05,-2.1605e-05,-8.6539e-05,-0.03351,-9.0133e-05,6.124e-05,-2.1587e-05,-2.5937e-05,-4.3111e-05,-2.9179e-05,3.4786e-05,2.2047e-05,-5.6156e-05,-5.342e-05,-5.3779e-05,-5.2691e-05,-3.9093e-05,-8.0366e-07,-3.9948e-07,-1.673e-05,2.7082e-06,-2.0644e-05,-0.00020483,-0.00010254,-0.00011348,4.0597e-05,-0.00015095,-3.5201e-05,-0.00020152,-7.7955e-05,-8.1622e-05,-0.00010813,-0.00012188,5.2935e-05,-7.6219e-05,-8.4471e-05,-2.9788e-05,-3.3372e-05,-0.0002411,-0.00010149,0.00015375,-5.9486e-05,-3.3154e-06,-1.0052e-05,-2.2668e-05,-9.2761e-05,-4.9165e-05,-0.00052162,-0.00011378,-0.00015759
-0.0002872,-0.00030328,-0.0005341,-1.4288,-8.1532e-05,7.5061e-05,-3.1842e-05,0.00015698,0.00017299,-0.00016064,-6.7785e-05,-2.0365e-05,-0.0001808,-5.6958e-05,0.00012015,-0.00043006,-0.00027926,-0.00018425,0.00024819,0.00019356,-0.00032809,0.00010379,-0.00010903,9.6949e-06,-3.148e-09,-2.7463e-05,4.349e-05,-4.8658e-06,0.00042157,7.7741e-05,-0.00031837,-0.00023205,-0.00039909,-7.5632e-05,-2.4656e-05,0.00016428,-4.6831e-05,-0.00018227,-0.27342,-0.00028737,0.00010724,-0.00011974,-0.00014581,-0.00014124,-9.8864e-05,9.2047e-05,3.2917e-05,-0.00017606,-0.00015604,-0.00020673,-0.0001046,-6.8493e-05,-0.00011233,-2.7189e-05,-6.5816e-05,6.7961e-06,-6.7509e-05,-0.00053184,-0.00018979,-0.00024842,5.7865e-05,-0.00033825,-9.8059e-05,-0.00053002,-0.00024339,-0.00019354,-0.00024163,-0.00028525,3.2754e-05,-0.00016844,-0.00019719,-6.4506e-05,-9.409e-05,-0.0006089,-0.00024949,0.00031242,-0.00014015,-7.6228e-06,-3.3745e-05,-7.8233e-05,-0.00031676,-0.00013256,-0.0013803,-0.00026651,-0.00039276
-0.00011954,-0.00012981,-0.00021512,-1.407,-2.8913e-05,3.0358e-05,-1.3087e-05,6.4134e-05,8.1517e-05,-7.2128e-05,-2.6169e-05,-1.2971e-05,-8.0312e-05,-2.2598e-05,4.9116e-05,-0.00017591,-0.00010994,-7.5784e-05,0.00011317,8.4783e-05,-0.00013609,5.4785e-05,-4.3045e-05,1.7122e-05,-0.00013047,-2.9999e-09,1.49e-05,-6.9662e-06,0.00019388,4.4195e-05,-0.00012715,-8.9772e-05,-0.00016334,-2.5453e-05,-1.4007e-05,5.1832e-05,-1.7204e-05,-8.4189e-05,-0.83341,-0.00011148,4.237e-05,-5.9132e-05,-5.9449e-05,-6.3643e-05,-3.591e-05,3.692e-05,1.8315e-05,-6.7403e-05,-6.8442e-05,-8.124e-05,-4.7178e-05,-3.3352e-05,-1.9427e-05,-6.3875e-06,-2.1959e-05,-1.9547e-07,-2.1304e-05,-0.00022405,-8.1682e-05,-9.1742e-05,2.3719e-05,-0.00013826,-3.6803e-05,-0.00022757,-0.00010141,-8.0314e-05,-0.00010275,-0.0001196,2.0457e-05,-7.113e-05,-7.7606e-05,-1.861e-05,-4.0808e-05,-0.00036092,-0.00010748,0.00012756,-6.0766e-05,-4.164e-06,-1.2976e-05,-2.9076e-05,-0.00012483,-5.1282e-05,-0.00095872,-0.00010798,-0.00016288
-0.0002221,-0.00024094,-0.00044389,-1.3222,-5.047e-05,6.0913e-05,3.9945e-06,0.00011742,0.00014126,-0.00011748,-4.1558e-05,-2.5673e-05,-0.00013212,-5.3634e-05,9.5456e-05,-0.00030509,-0.00023582,-0.00013431,0.00019512,0.00013884,-0.00025849,7.567e-05,-7.5869e-05,2.0083e-05,-0.00023694,-2.4354e-05,-1.3638e-09,-1.5578e-05,0.00033267,7.5932e-05,-0.00025201,-0.0001787,-0.00033713,-6.0925e-05,-1.5356e-05,0.00011353,-4.174e-05,-0.00016352,-0.79707,-0.00022414,7.7371e-05,-9.4169e-05,-0.00013459,-0.00011232,-7.6355e-05,7.5265e-05,2.9102e-05,-0.00015269,-0.00012579,-0.00016268,-9.801e-05,-5.4936e-05,-9.9977e-05,-6.349e-06,-3.5014e-05,8.9251e-07,-5.1892e-05,-0.00041379,-0.00017039,-0.0001937,4.748e-05,-0.00026594,-7.1757e-05,-0.00043345,-0.00019114,-0.00014795,-0.00016728,-0.000231,3.162e-05,-0.00013449,-0.00013598,-5.5248e-05,-6.6303e-05,-0.00080089,-0.00018729,0.00023165,-0.00011495,-3.615e-06,-1.8145e-05,-5.0868e-05,-0.00026255,-9.0684e-05,-0.0028037,-0.00022084,-0.00031469
-0.0013775,-0.0014799,-0.0023038,-1.2983,-0.0003105,0.00048081,-0.0001614,0.00059691,0.00086887,-0.00076083,-0.00025284,0.00022715,-0.00079402,-0.00039068,0.00054939,-0.0016461,-0.0012991,-0.00088898,0.0012291,0.00069244,-0.0014832,0.00038497,-0.00045577,0.00015078,-0.0013715,-0.00017967,0.0001235,-2.8986e-09,0.002031,0.00045001,-0.0012136,-0.00092116,-0.0016509,-0.00021776,-0.00011047,0.0011524,-0.00020615,-0.00089723,-0.34118,-0.0011937,0.00082273,-0.00054189,-0.00066368,-0.00058433,-0.00044683,0.00041942,0.00013466,-0.0008171,-0.00075021,-0.00092692,-0.00063143,-0.00040201,-0.00022644,-0.00017602,-0.00035023,-4.4492e-05,-0.00035182,-0.0024638,-0.0010649,-0.0012157,0.00030111,-0.0017241,-0.00041831,-0.0023844,-0.00095745,-0.00086886,-0.0011791,-0.0013819,0.0001786,-0.00082405,-0.0010028,-0.00041276,-0.00039437,-0.0018503,-0.0010995,0.0013903,-0.00052322,-3.5336e-05,-0.00014351,-0.00031349,-0.0011534,-0.00057648,-0.0039743,-0.0012354,-0.0016821
-1.9486e-05,-2.1931e-05,-3.5707e-05,-0.92619,-3.7308e-06,5.607e-06,-1.9968e-06,9.217e-06,1.5173e-05,-1.2936e-05,-4.3258e-06,-6.748e-07,-1.3386e-05,-4.8778e-06,7.6758e-06,-2.5525e-05,-1.7745e-05,-1.37e-05,2.1696e-05,1.3096e-05,-2.1975e-05,7.8297e-06,-7.3548e-06,3.1095e-06,-2.3806e-05,-1.9434e-06,1.8065e-06,2.2779e-07,-2.842e-09,7.4239e-06,-1.6849e-05,-1.3424e-05,-2.3727e-05,-3.2073e-06,-3.3293e-06,1.1373e-05,-2.1753e-06,-1.2817e-05,-0.97036,-1.2047e-05,9.5501e-06,-9.8045e-06,-7.8784e-06,-9.4595e-06,-2.2334e-06,7.1138e-06,2.3731e-06,-4.5934e-06,-1.1207e-05,-1.2843e-05,-8.6157e-06,-6.0755e-06,-5.2066e-07,-1.0506e-06,-3.5234e-06,1.4937e-07,-3.2039e-06,-3.7915e-05,-1.4346e-05,-1.3696e-05,3.9925e-06,-2.3162e-05,-4.8827e-06,-3.8011e-05,-1.5088e-05,-1.1956e-05,-1.7071e-05,-1.9964e-05,2.7448e-06,-1.2569e-05,-1.4988e-05,-4.7884e-06,-6.5004e-06,-3.6863e-05,-1.8281e-05,2.4077e-05,-9.1804e-06,6.5026e-09,-2.6913e-06,-4.8484e-06,-1.8036e-05,-7.9626e-06,-0.00010042,-1.763e-05,-2.4641e-05
-5.954e-05,-6.2685e-05,-0.00010449,-1.0117,-9.7784e-06,2.1843e-05,-3.5185e-06,2.9452e-05,4.5514e-05,-3.1831e-05,-1.0409e-05,-3.2513e-06,-3.3112e-05,-1.6667e-05,2.1343e-05,-7.5605e-05,-5.733e-05,-3.8897e-05,5.8351e-05,3.1499e-05,-6.2534e-05,1.5838e-05,-1.8733e-05,7.5798e-06,-6.9481e-05,-6.2534e-06,6.3105e-06,-2.3533e-06,8.7597e-05,-3.0561e-09,-5.1093e-05,-4.0241e-05,-7.7324e-05,-1.3689e-05,-4.6641e-06,2.6006e-05,-9.5819e-06,-4.2645e-05,-0.65915,-5.3627e-05,2.2267e-05,-2.439e-05,-1.5846e-05,-2.7252e-05,-1.9982e-05,1.7452e-05,9.0892e-06,-3.9154e-05,-2.8141e-05,-3.2509e-05,-2.9022e-05,-1.8392e-05,6.5034e-07,-3.3978e-06,-1.1317e-05,-1.1115e-06,-1.5582e-05,-0.0001053,-4.3119e-05,-5.3033e-05,1.5678e-05,-7.2435e-05,-1.8877e-05,-0.00010677,-4.6857e-05,-3.7097e-05,-4.6071e-05,-6.054e-05,1.0059e-05,-3.5087e-05,-3.9094e-05,-1.812e-05,-1.6034e-05,-8.1752e-05,-4.8765e-05,5.5516e-05,-2.3672e-05,-2.8999e-06,-5.6958e-06,-1.1855e-05,-5.2892e-05,-2.3522e-05,-0.00024928,-5.9295e-05,-7.848e-05
-6.5429e-05,-7.4181e-05,-0.00011414,-0.46415,-1.0053e-05,2.9852e-05,-6.4163e-06,3.0203e-05,5.3743e-05,-4.5971e-05,-1.2268e-05,2.4094e-07,-4.6895e-05,-1.7568e-05,2.2421e-05,-8.219e-05,-4.9548e-05,-4.4239e-05,9.9313e-05,3.9899e-05,-7.075e-05,2.2096e-05,-2.2345e-05,1.6102e-05,-7.7709e-05,-7.4677e-06,5.3345e-06,1.1005e-06,0.00011863,2.9374e-05,-3.0973e-09,-4.404e-05,-6.4047e-05,-6.1889e-06,-9.7007e-06,3.222e-05,-8.3041e-06,-4.3485e-05,-0.38947,-4.8079e-05,3.2472e-05,-2.1568e-05,-1.7376e-05,-3.2307e-05,-1.6131e-05,2.0838e-05,7.6906e-06,-2.8919e-05,-4.4865e-05,-3.0433e-05,-3.1946e-05,-2.702e-05,1.4003e-05,-2.3634e-06,-1.1007e-05,4.1619e-06,-6.0722e-06,-0.00013318,-4.9231e-05,-6.0627e-05,1.4242e-05,-7.6613e-05,-1.7461e-05,-0.00013041,-4.7208e-05,-3.7033e-05,-5.8368e-05,-6.4362e-05,1.6256e-05,-3.6163e-05,-4.7675e-05,-1.8724e-05,-1.9732e-05,-8.9945e-05,-5.8231e-05,8.3593e-05,-2.7766e-05,-2.2408e-06,-9.1285e-06,-1.3569e-05,-6.0244e-05,-2.4295e-05,-0.00017492,-5.5559e-05,-7.6508e-05
-0.00065351,-0.0006986,-0.0011374,-1.0049,-0.00014363,0.000318,-2.0626e-05,0.00031968,0.00071877,-0.00051106,-0.00015728,2.4256e-05,-0.00046201,-9.96e-05,0.00028675,-0.00091198,-0.00050749,-0.00041726,0.00084939,0.00054858,-0.00083492,0.00037005,-0.00025769,0.00036495,-0.000861,-7.2494e-05,8.1565e-05,1.946e-05,0.0012875,0.00031876,-0.00065755,-3.0999e-09,-0.0010066,-4.4487e-05,-0.00017521,0.00047385,-0.00010392,-0.00048586,-0.16727,-0.00062126,0.00035056,-0.00013473,-2.6243e-05,-0.00026038,-0.00015326,0.00022507,9.5855e-05,-0.00022432,-0.00024862,-0.00031937,-0.00023839,-0.00019667,2.1844e-05,4.8235e-05,-6.2343e-05,3.6705e-05,-7.0694e-05,-0.0014881,-0.00046503,-0.00046821,0.00019401,-0.00069079,-0.0001907,-0.0011064,-0.00047346,-0.00042057,-0.00060803,-0.00059925,0.00021431,-0.00040028,-0.00048176,-9.4738e-05,-0.0002542,-0.00091644,-0.00062997,0.00089269,-0.00041718,-1.0135e-05,-4.2627e-05,-0.00016841,-0.00062162,-0.00031016,-0.0029033,-0.00053403,-0.00088069
-0.00020899,-0.00022558,-0.00035892,-0.75828,-4.0652e-05,7.1765e-05,-2.4197e-05,8.8819e-05,0.00012619,-0.00013806,-4.3801e-05,-7.9287e-06,-0.00014642,-4.5942e-05,7.6684e-05,-0.00024834,-0.00015678,-0.00013511,0.00025519,0.0001373,-0.0002122,8.4194e-05,-6.7452e-05,2.0893e-05,-0.00023418,-2.0556e-05,1.5298e-05,2.533e-06,0.00035188,7.3107e-05,-0.00015592,-0.00015951,-2.8582e-09,-3.868e-05,-2.7525e-05,0.00010003,-2.9673e-05,-0.0001417,-0.50741,-0.00015588,9.2697e-05,-8.1822e-05,-8.8111e-05,-0.00010883,-5.2984e-05,6.6694e-05,2.4682e-05,-9.4243e-05,-0.00013136,-0.00013073,-8.7073e-05,-7.0496e-05,-1.0405e-05,-1.6679e-05,-4.2067e-05,2.7869e-06,-3.3252e-05,-0.00042364,-0.00014933,-0.00017149,4.1068e-05,-0.00023161,-5.7088e-05,-0.00043411,-0.00017961,-0.00013185,-0.00018877,-0.00019615,3.0057e-05,-0.00011895,-0.00016511,-4.4405e-05,-6.4422e-05,-0.00032179,-0.00018564,0.00024376,-0.00010943,-4.5967e-06,-2.1395e-05,-4.4226e-05,-0.00024719,-8.1614e-05,-0.00066688,-0.0001711,-0.00023691
-0.00029771,-0.00033196,-0.00050212,-1.0264,-5.8688e-05,0.00010579,-2.4008e-05,0.00012887,0.00019905,-0.00020019,-5.9491e-05,-1.514e-05,-0.00019834,-8.8959e-05,9.1559e-05,-0.00035634,-0.00027153,-0.00019959,0.00031012,0.00016207,-0.00032156,9.6381e-05,-0.0001194,9.8521e-05,-0.00033456,-3.2996e-05,2.0579e-05,1.258e-06,0.00045124,9.1392e-05,-0.00025812,-0.00018104,-0.00037254,-2.5048e-09,-4.0935e-05,0.0001092,-5.0108e-05,-0.00023587,-0.49948,-0.00023889,0.00012204,-0.00011396,-0.00011536,-0.00013479,-8.6682e-05,8.4263e-05,2.2161e-05,-0.00014726,-0.00017498,-0.00014142,-0.00015068,-0.00010433,-7.8679e-06,-3.5061e-05,-6.6488e-05,-1.4158e-05,-6.0876e-05,-0.00051913,-0.00023853,-0.00025974,7.423e-05,-0.00037354,-8.0363e-05,-0.0004944,-0.00018994,-0.0002039,-0.00027856,-0.00031368,6.7958e-05,-0.00018139,-0.00018894,-0.00010026,-7.8231e-05,-0.00063625,-0.00025354,0.00028305,-0.00013707,-1.673e-05,-4.6919e-05,-7.2827e-05,-0.00021155,-0.00012686,-0.00060617,-0.00029036,-0.00039209
-2.8204e-05,-3.2009e-05,-5.4983e-05,-1.9353,-6.5416e-06,9.6998e-06,-2.0994e-06,1.591e-05,9.7047e-06,-7.6987e-06,-3.9267e-06,-4.6038e-06,-1.5001e-05,-1.1165e-05,1.0178e-05,-3.6864e-05,-3.2395e-05,-1.7553e-05,1.6219e-05,1.0528e-05,-2.8073e-05,3.5846e-06,-8.6169e-06,-2.4647e-07,-2.5878e-05,-2.2624e-06,3.9505e-06,-1.4093e-06,3.4376e-05,8.9242e-06,-2.8823e-05,-2.3231e-05,-3.5775e-05,-7.3459e-06,-1.7403e-09,1.1382e-05,-5.2765e-06,-2.1643e-05,-0.46673,-2.5577e-05,7.6278e-06,-1.7359e-05,-2.6043e-05,-1.3441e-05,-1.2397e-05,9.5412e-06,4.2275e-06,-2.7639e-05,-1.7348e-05,-2.092e-05,-1.543e-05,-6.037e-06,-1.2705e-05,-5.6776e-06,-9.0714e-06,-5.7451e-07,-1.1495e-05,-4.1888e-05,-2.192e-05,-2.7551e-05,5.5535e-06,-3.9087e-05,-7.7833e-06,-5.235e-05,-2.2216e-05,-1.8062e-05,-2.2128e-05,-3.0503e-05,3.2069e-06,-1.864e-05,-1.6005e-05,-1.2338e-05,-5.788e-06,-0.00011824,-1.9895e-05,2.185e-05,-8.3612e-06,-1.2722e-06,-2.7148e-06,-5.3515e-06,-2.8798e-05,-1.119e-05,-0.0003607,-3.2789e-05,-3.7389e-05
-0.00059645,-0.00055053,-0.0010846,-1.5937,-0.00016353,0.00011384,-7.8822e-05,0.00029087,0.00025968,-0.00032622,-0.00013194,5.4645e-05,-0.00028976,-0.0001151,0.00028458,-0.00084242,-0.00051632,-0.00036079,0.00045158,0.00035019,-0.00080839,0.00014414,-0.00024161,4.6039e-06,-0.00058504,-0.00011675,5.8542e-05,0.00011022,0.00085526,0.00016231,-0.00063225,-0.0004212,-0.00084971,-0.00020536,-7.1255e-05,-4.1024e-09,-0.0001388,-0.00036179,-0.24363,-0.00061852,0.00031628,-0.0002598,-0.00036431,-0.00026106,-0.00022831,0.00013916,7.2853e-05,-0.00038664,-0.00024097,-0.00038882,-0.00023655,-0.00015997,-0.00027727,-3.8688e-05,-0.00011823,-1.8698e-06,-0.00014952,-0.0008828,-0.0003807,-0.00040186,0.00011729,-0.00072269,-0.00020138,-0.00099239,-0.00049228,-0.00039005,-0.00043108,-0.00060868,5.4625e-05,-0.00032942,-0.00043875,-0.00013141,-0.00019807,-0.0010897,-0.00047928,0.00062361,-0.00027698,-3.1316e-05,-7.019e-05,-0.00016672,-0.0006266,-0.00028665,-0.0040596,-0.00057324,-0.00075595
-7.4879e-05,-8.1909e-05,-0.00014436,-1.3927,-1.7992e-05,1.5641e-05,-9.3102e-06,3.7212e-05,5.8195e-05,-5.1169e-05,-2.1824e-05,-5.2722e-06,-5.5638e-05,-1.3825e-05,3.2132e-05,-0.00010176,-6.8315e-05,-4.8342e-05,9.1049e-05,5.3355e-05,-9.0421e-05,3.7179e-05,-2.9468e-05,6.1657e-06,-8.914e-05,-8.1145e-06,7.9413e-06,-2.2323e-06,0.00013424,2.9188e-05,-7.7751e-05,-5.9548e-05,-0.00010728,-1.7358e-05,-1.3345e-05,3.8244e-05,-2.7706e-09,-5.0662e-05,-0.58848,-7.764e-05,3.0066e-05,-3.3765e-05,-3.1359e-05,-4.6093e-05,-2.1028e-05,2.5523e-05,8.7828e-06,-3.5048e-05,-4.7222e-05,-5.5757e-05,-2.8657e-05,-2.2814e-05,-9.4664e-06,-2.0973e-06,-1.2506e-05,2.4128e-06,-1.3844e-05,-0.00016621,-5.5645e-05,-5.2318e-05,1.4415e-05,-8.8507e-05,-2.466e-05,-0.00014602,-6.1924e-05,-5.0816e-05,-6.4675e-05,-7.7734e-05,8.6146e-06,-4.7636e-05,-5.4137e-05,-1.3003e-05,-2.6478e-05,-0.00016232,-6.9093e-05,9.2389e-05,-3.9034e-05,-4.0989e-07,-9.4315e-06,-1.6451e-05,-8.951e-05,-2.7111e-05,-0.00028847,-6.6081e-05,-0.00010447
-5.547e-05,-5.0838e-05,-0.0001001,-1.0655,-1.4325e-05,2.0036e-05,-7.0432e-06,3.367e-05,7.4278e-05,-3.8126e-05,-1.4079e-05,3.2328e-06,-2.7822e-05,1.1429e-07,2.9251e-05,-9.3043e-05,-4.0066e-05,-3.3054e-05,6.5817e-05,5.5764e-05,-7.9673e-05,3.3613e-05,-2.4346e-05,1.2291e-05,-6.2987e-05,-6.9447e-06,7.8213e-06,7.6528e-07,0.00010934,2.2315e-05,-6.2357e-05,-4.4131e-05,-8.5188e-05,-1.6966e-05,-1.4881e-05,4.464e-05,-4.8897e-06,-3.78e-09,-0.0016423,-5.8128e-05,3.2102e-05,-1.1216e-05,-4.992e-06,-2.576e-05,-1.1631e-05,1.6651e-05,7.4533e-06,-1.7047e-05,-2.2207e-05,-3.798e-05,-1.152e-05,-1.1411e-05,-6.0783e-06,8.2145e-06,-2.1146e-06,3.8505e-06,-6.4195e-06,-8.7915e-05,-2.743e-05,-2.8466e-05,1.2904e-05,-5.3495e-05,-2.0441e-05,-9.8108e-05,-4.8048e-05,-4.077e-05,-4.5597e-05,-4.7096e-05,9.5943e-06,-2.6378e-05,-4.7073e-05,-1.324e-06,-2.5955e-05,-8.5916e-05,-5.4251e-05,8.9885e-05,-2.7781e-05,-2.2634e-07,-4.6409e-06,-1.7345e-05,-4.0331e-05,-2.6051e-05,-0.00042356,-3.9902e-05,-7.6827e-05
-5.5109e-05,-4.644e-05,-8.9061e-05,-0.00033394,-7.5717e-06,5.1733e-05,-6.9438e-06,5.2116e-05,0.00012797,-1.9865e-05,4.0989e-06,8.9167e-06,1.9756e-05,-2.311e-06,4.0211e-05,-8.8086e-05,-3.4889e-05,-3.4608e-05,0.00010888,5.5652e-05,-6.8128e-05,2.495e-05,-2.1378e-05,3.6375e-05,-5.1676e-05,-1.7392e-06,1.3483e-05,1.0986e-05,0.00011195,3.8837e-05,-4.7736e-05,-2.7278e-05,-6.7039e-05,8.5923e-07,-1.8201e-06,5.3997e-05,1.4142e-06,-1.4062e-05,-2.6567e-09,-4.961e-05,4.4147e-05,2.6824e-06,-6.7692e-08,-1.0064e-05,-7.0189e-06,2.4291e-05,1.2898e-05,-2.7576e-05,4.5478e-06,-3.0985e-05,-6.7264e-06,-7.2658e-07,-6.5352e-06,6.9634e-06,-3.9088e-06,9.2123e-06,-1.9832e-05,-1.3225e-05,-1.5739e-05,-1.8167e-05,2.5887e-05,-5.6536e-05,-1.9835e-05,-7.2674e-05,-4.0098e-05,-3.4774e-05,-4.0328e-05,-5.1005e-05,2.2213e-05,-1.9072e-05,-4.4775e-05,-8.1728e-06,-2.1463e-05,-2.369e-05,-4.6097e-05,0.00011059,9.7289e-06,3.7753e-06,8.6444e-07,-1.5088e-05,3.5007e-05,-2.1456e-05,-0.0001387,-3.4542e-05,-6.4833e-05
-9.6053e-05,-0.00010627,-0.00017277,-1.0217,-1.7621e-05,3.1804e-05,-6.4395e-06,4.6701e-05,6.5699e-05,-6.6153e-05,-2.0383e-05,-2.9607e-06,-6.7783e-05,-2.2231e-05,3.491e-05,-0.00012925,-8.5416e-05,-6.6237e-05,0.00011788,6.5814e-05,-0.00011031,3.9559e-05,-3.4394e-05,2.6278e-05,-0.00011274,-8.6367e-06,1.131e-05,1.0322e-06,0.00019717,3.6763e-05,-8.3579e-05,-6.7257e-05,-0.00010968,-1.2719e-05,-1.4678e-05,4.9338e-05,-1.4649e-05,-6.5773e-05,-0.57962,-2.7739e-09,4.5085e-05,-4.2645e-05,-3.8514e-05,-4.6446e-05,-1.3526e-05,3.4504e-05,1.1612e-05,-2.0331e-05,-5.7784e-05,-5.641e-05,-4.2131e-05,-3.2063e-05,-3.7472e-06,-3.4634e-06,-1.5843e-05,1.0173e-06,-1.219e-05,-0.00019191,-7.1989e-05,-7.9857e-05,2.2575e-05,-0.0001094,-2.379e-05,-0.00018842,-7.399e-05,-5.9826e-05,-8.7359e-05,-9.5449e-05,2.0306e-05,-5.7864e-05,-6.8369e-05,-2.0603e-05,-3.0498e-05,-0.00016508,-8.851e-05,0.00011348,-5.4038e-05,1.1795e-06,-9.9811e-06,-2.2479e-05,-8.6905e-05,-4.013e-05,-0.00042337,-8.3957e-05,-0.00010945
-0.00022656,-0.00024228,-0.0004102,-1.2869,-4.9383e-05,9.8664e-05,-2.3287e-05,0.00010698,0.00017804,-0.00014171,-5.1116e-05,9.974e-05,-0.00014616,-4.9777e-05,8.4388e-05,-0.00027905,-0.00019627,-0.00013442,0.00021679,0.00013689,-0.00027243,8.1952e-05,-7.9635e-05,4.7224e-05,-0.00023772,-2.5609e-05,2.4549e-05,9.7554e-05,0.00038872,0.0001052,-0.00020191,-0.00014078,-0.00025824,-8.4656e-06,-3.0183e-05,0.0002464,-3.2706e-05,-0.00014341,-0.33348,-0.00018066,-2.9961e-09,-5.4615e-05,-8.0648e-05,-9.3117e-05,-5.601e-05,6.8352e-05,2.8775e-05,-9.7944e-05,-0.00010613,-0.00012765,-9.4193e-05,-6.9382e-05,-3.3359e-05,-2.8825e-05,-6.1134e-05,-3.3371e-06,-2.7416e-05,-0.00039215,-0.00016835,-0.00021263,5.2889e-05,-0.00026109,-5.7569e-05,-0.00039585,-0.00016041,-0.0001478,-0.00019237,-0.00020996,5.7292e-05,-0.00013034,-0.00015668,-5.9576e-05,-6.3073e-05,-0.00026196,-0.00019059,0.0002738,-9.9927e-05,-5.2002e-06,-3.1391e-05,-4.9212e-05,-0.00021173,-0.00010027,-0.00079203,-0.00020899,-0.00027792
-0.00021494,-0.00018154,-0.00039578,-1.076,-6.3339e-05,0.00021193,-1.7943e-05,0.00011782,0.00042973,-0.00017772,-6.0259e-05,4.7425e-05,-0.00010979,1.8673e-05,0.00011633,-0.00030799,-0.00013766,-0.0001133,0.00035565,0.00024452,-0.00033003,0.00014891,-9.2765e-05,0.00012525,-0.00026733,-3.9347e-05,4.6111e-05,2.128e-05,0.00041071,0.00011426,-0.00020882,-0.00011332,-0.000305,-1.9475e-05,-8.519e-05,0.00015826,-1.3557e-05,-0.00011056,-0.0079667,-0.00023984,0.00016527,-3.3593e-09,0.00014336,-7.318e-05,-3.97e-05,6.1026e-05,1.6386e-05,-3.8472e-05,-1.4472e-05,-3.2314e-05,-3.8882e-05,-4.7643e-05,3.3076e-05,3.1015e-05,-1.0723e-05,1.6292e-05,-2.2587e-06,-0.0004138,-0.0001117,-0.00012007,0.00010643,-0.00020637,-7.731e-05,-0.00034091,-0.00016487,-0.00015568,-0.0001932,-0.00018469,0.00013708,-8.6672e-05,-0.00021053,6.7157e-06,-0.00010318,-0.00019911,-0.00022392,0.00040391,-0.0001404,-4.4413e-06,-1.022e-05,-7.3191e-05,-0.00014646,-0.00010174,-0.00083779,-0.00013378,-0.00029651
-2.513e-05,-2.0944e-05,-4.1836e-05,-1.1589,-5.5566e-06,2.0777e-05,-2.2521e-06,1.2481e-05,8.5436e-05,-3.2385e-05,-9.9197e-06,6.2519e-06,-1.82e-05,7.6641e-06,1.3986e-05,-3.8793e-05,-9.82e-06,-1.7293e-05,5.1261e-05,3.9736e-05,-4.7117e-05,2.5618e-05,-1.3511e-05,1.8018e-05,-3.8154e-05,-6.2566e-06,2.305e-06,-1.8947e-07,5.9535e-05,2.6486e-05,-2.367e-05,-1.0078e-05,-4.1948e-05,-2.3841e-06,-1.9854e-05,1.6509e-05,-3.9115e-06,-1.0783e-05,-0.00030574,-3.0961e-05,2.4384e-05,1.6173e-05,-3.2343e-09,-1.1532e-05,2.918e-06,8.9311e-06,1.8276e-06,6.5408e-06,-3.833e-06,-1.292e-06,1.5337e-06,-1.3656e-05,5.5639e-05,1.1215e-05,4.8303e-06,4.1111e-06,2.2452e-06,-5.944e-05,-8.7158e-06,-1.4847e-05,1.0654e-05,-2.2021e-05,-7.2253e-06,-4.247e-05,-2.3899e-05,-1.952e-05,-2.596e-05,-1.7179e-05,1.491e-05,-9.6847e-06,-3.0305e-05,3.556e-06,-1.7507e-05,-5.2658e-06,-3.4492e-05,5.9413e-05,-1.9709e-05,4.3086e-07,-4.8113e-06,-1.0255e-05,-1.816e-05,-1.3146e-05,-0.00010241,-9.9403e-06,-3.1743e-05
-0.00020592,-0.00021394,-0.00035297,-1.5301,-4.8008e-05,7.6659e-05,-2.5677e-05,0.0001168,0.00022342,-0.00010969,-3.8769e-05,1.2036e-05,-9.3015e-05,-4.0667e-05,7.9488e-05,-0.00029574,-0.00017473,-0.00012975,0.00016956,0.00014172,-0.00026162,7.5407e-05,-7.8537e-05,6.0922e-05,-0.00021945,-2.8623e-05,2.8512e-05,6.1167e-06,0.00033801,8.1841e-05,-0.00021063,-0.00012303,-0.00028459,-3.441e-05,-2.4752e-05,0.00012614,-4.9384e-05,-0.00012644,-0.0077361,-0.00018785,0.0001048,-5.9142e-05,-6.5183e-05,-4.097e-09,-5.934e-05,6.1239e-05,2.8669e-05,-0.00010302,-8.5764e-05,-0.00013668,-7.5308e-05,-4.6141e-05,-5.1515e-05,-9.8285e-07,-3.1922e-05,-1.0945e-07,-5.8231e-05,-0.00028996,-0.00012448,-0.00016364,5.4316e-05,-0.00024,-6.5112e-05,-0.00032677,-0.00016448,-0.00013262,-0.00015314,-0.00019061,4.1659e-05,-0.00010875,-0.00014406,-4.0151e-05,-7.0829e-05,-0.00036196,-0.00017358,0.00027886,-6.455e-05,-4.9772e-06,-2.4918e-05,-5.9403e-05,-0.00013922,-0.00010022,-0.0013192,-0.00017667,-0.00027429
-0.00020495,-0.00019552,-0.00035942,-1.3412,-4.7913e-05,4.2321e-05,-1.3892e-05,9.8533e-05,0.00015001,-0.00014392,-5.1033e-05,-2.4449e-06,-0.0001439,-3.2006e-05,8.1338e-05,-0.00029251,-0.00016481,-0.00012794,0.00022527,0.00016283,-0.00024509,0.00010223,-8.1214e-05,3.412e-05,-0.0002496,-2.3371e-05,2.4525e-05,-1.0247e-05,0.00040518,7.2004e-05,-0.00020649,-0.00014676,-0.00027227,-4.228e-05,-5.1087e-05,0.00010339,-2.5932e-05,-0.00013332,-0.47828,-0.00015458,9.103e-05,-7.9848e-05,-4.1269e-05,-0.00010889,-3.5169e-09,7.1093e-05,2.6687e-05,-2.0757e-05,-0.00012575,-0.00011837,-7.136e-05,-5.5587e-05,-5.8258e-05,1.1563e-06,-3.0719e-05,5.4963e-06,-2.3181e-05,-0.00043347,-0.00013543,-0.00016006,4.5722e-05,-0.00021932,-5.8873e-05,-0.00038922,-0.00017629,-0.00013122,-0.00017564,-0.00018951,3.1557e-05,-0.0001176,-0.0001592,-3.0374e-05,-8.1791e-05,-0.00040072,-0.00019201,0.00026363,-0.00012079,4.6399e-06,-3.179e-05,-5.4966e-05,-0.0002359,-8.2719e-05,-0.0017929,-0.00017035,-0.00025834
-0.0024151,-0.0026544,-0.0045997,-1.425,-0.0005468,0.00064362,-0.00020786,0.0012317,0.0011589,-0.0012335,-0.000541,-0.00033458,-0.0016236,-0.00071108,0.00084379,-0.0032115,-0.0025946,-0.0015845,0.0020455,0.0012675,-0.0025341,0.00070954,-0.00081535,-2.8192e-05,-0.0025784,-0.00030095,0.00032169,-0.00012709,0.0036337,0.00078154,-0.0025378,-0.0019262,-0.0032747,-0.00062475,-6.8634e-05,0.0010051,-0.00039654,-0.0018866,-0.91459,-0.0022105,0.00077289,-0.0013386,-0.0013962,-0.0013024,-0.00079085,-4.1007e-09,0.00033353,-0.0015688,-0.0014505,-0.0017656,-0.0012015,-0.00068339,-0.00073887,-0.00028334,-0.00060048,-3.4069e-05,-0.00075285,-0.0044771,-0.0018148,-0.0020814,0.00053273,-0.0030477,-0.00045826,-0.0047782,-0.0020492,-0.0015976,-0.0020482,-0.0024942,0.00031323,-0.0015842,-0.0015775,-0.00073691,-0.00063129,-0.0053519,-0.0020001,0.002277,-0.0011425,0.00011616,-0.00031068,-0.00055896,-0.0025469,-0.00096401,-0.011043,-0.0025591,-0.0033033
-2.5757e-05,-2.8206e-05,-5.1094e-05,-1.5273,-6.2673e-06,7.0374e-06,-2.5619e-06,1.3287e-05,1.1073e-05,-1.2675e-05,-4.5596e-06,-3.5118e-06,-1.5717e-05,-7.9461e-06,9.3116e-06,-3.481e-05,-2.6666e-05,-1.4012e-05,2.013e-05,1.2995e-05,-2.7054e-05,6.0267e-06,-8.7229e-06,8.1502e-07,-2.8147e-05,-2.7266e-06,2.6022e-06,-2.5999e-06,3.4644e-05,8.6524e-06,-2.8354e-05,-2.0947e-05,-3.6235e-05,-7.8814e-06,-1.1855e-06,1.1611e-05,-5.3532e-06,-1.969e-05,-0.82679,-2.5859e-05,7.0685e-06,-1.5193e-05,-1.7451e-05,-1.3549e-05,-9.6205e-06,7.7915e-06,-1.3598e-09,-2.0211e-05,-1.5841e-05,-1.8287e-05,-1.252e-05,-6.8883e-06,-8.8544e-06,-3.5379e-06,-6.6155e-06,-5.9491e-08,-7.4779e-06,-4.5551e-05,-2.0063e-05,-2.2351e-05,4.9512e-06,-3.1588e-05,-8.0727e-06,-4.892e-05,-2.1585e-05,-1.6486e-05,-2.1528e-05,-2.7149e-05,2.9586e-06,-1.6595e-05,-1.7546e-05,-8.6813e-06,-4.1806e-06,-7.5759e-05,-1.805e-05,2.2612e-05,-1.0155e-05,-1.1626e-06,-3.4847e-06,-3.8347e-06,-2.7485e-05,-9.6884e-06,-0.00023829,-2.7129e-05,-3.665e-05
-7.2793e-05,-6.9224e-05,-0.00013051,-0.93085,-2.0304e-05,5.2435e-06,-7.6702e-06,2.7298e-05,7.94e-05,-8.3357e-05,-2.9554e-05,3.4868e-06,-6.7081e-05,4.0737e-06,3.0216e-05,-0.00011769,-4.4448e-05,-4.8869e-05,0.00010954,8.9031e-05,-0.00010982,6.5931e-05,-3.5693e-05,1.6303e-05,-0.000111,-1.3961e-05,5.1262e-06,-6.0479e-06,0.00018586,2.6333e-05,-8.3601e-05,-5.367e-05,-0.0001139,-1.4301e-05,-4.3035e-05,4.4508e-05,-8.471e-06,-4.4709e-05,-0.86668,-5.5207e-05,4.0773e-05,-1.4966e-05,1.257e-05,-4.6723e-05,8.14e-06,2.3017e-05,2.7709e-06,-3.0195e-09,-4.6056e-05,-4.199e-05,-1.7288e-05,-2.6579e-05,-7.3403e-06,1.7477e-05,5.1038e-06,5.8554e-06,9.0973e-06,-0.00018172,-4.2279e-05,-3.2578e-05,1.6088e-05,-6.6071e-05,-2.2744e-05,-0.0001483,-6.8213e-05,-5.5726e-05,-7.281e-05,-6.1455e-05,1.184e-05,-3.952e-05,-6.7294e-05,8.1004e-06,-4.2151e-05,-0.00011591,-8.7702e-05,0.00012689,-6.6946e-05,1.5588e-06,-1.3301e-05,-2.6432e-05,-8.3691e-05,-3.8531e-05,-0.00051467,-4.9417e-05,-9.1816e-05
-0.00042729,-0.0003809,-0.00081871,-1.1587,-0.0001076,0.00033298,-4.1858e-05,0.000318,0.00068809,-0.00026926,-9.7052e-05,3.9739e-05,-0.00015627,-2.3576e-05,0.00026733,-0.0007567,-0.00032918,-0.0002784,0.000518,0.00040213,-0.00063538,0.00024207,-0.00018674,0.00017855,-0.00049345,-3.365e-05,9.9935e-05,2.1001e-05,0.00085036,0.00025425,-0.00052482,-0.00025354,-0.00070395,-7.835e-05,-8.1231e-05,0.00042423,-5.4556e-05,-0.00024096,-0.001948,-0.00045839,0.00027507,-2.4611e-05,-4.0245e-05,-0.00015756,-0.0001174,0.00017065,9.0277e-05,-0.00020656,-3.5504e-09,-0.0002636,-9.239e-05,-8.2543e-05,-8.172e-05,2.8902e-05,-5.1204e-05,1.5215e-05,-0.00012573,-0.00058073,-0.00020776,-0.00031217,0.00019994,-0.00047757,-0.00016368,-0.00068022,-0.00038641,-0.00029421,-0.00031349,-0.00043806,0.00018433,-0.00020746,-0.00031382,-3.7368e-05,-0.00019005,-0.00042776,-0.00040654,0.00070638,-0.00017432,4.561e-06,-2.7078e-05,-0.00013059,-0.00018811,-0.00020824,-0.0023441,-0.0003396,-0.00060556
-6.634e-05,-6.8125e-05,-0.00010771,-0.80179,-1.0546e-05,4.0741e-05,-5.0674e-06,2.5562e-05,4.8125e-05,-5.7808e-05,-1.7161e-05,-3.8656e-06,-5.1298e-05,-1.2119e-05,1.5853e-05,-7.7173e-05,-5.609e-05,-4.2052e-05,7.1302e-05,4.5415e-05,-7.5305e-05,3.2088e-05,-2.4438e-05,1.7928e-05,-8.2194e-05,-9.4239e-06,2.9534e-06,-5.2852e-06,0.00010296,2.7354e-05,-5.3745e-05,-3.6988e-05,-8.727e-05,-4.9063e-06,-1.9758e-05,3.3094e-05,-1.3379e-05,-4.3782e-05,-0.54816,-5.8055e-05,2.9852e-05,1.4272e-06,5.5995e-06,-3.3011e-05,-1.6388e-05,1.4869e-05,5.0809e-06,-2.1074e-05,-2.9476e-05,-3.9205e-09,-2.5485e-05,-2.8079e-05,7.6325e-06,2.2583e-06,-6.6836e-06,-4.1225e-07,-3.9087e-06,-0.00015939,-4.6981e-05,-5.0413e-05,1.9855e-05,-7.1379e-05,-2.0016e-05,-0.00011634,-4.3628e-05,-4.1745e-05,-6.6717e-05,-5.6082e-05,3.2998e-05,-3.386e-05,-4.9781e-05,-1.4697e-05,-1.8737e-05,-7.7855e-05,-6.3293e-05,7.3087e-05,-4.3359e-05,-7.0072e-06,-7.8185e-06,-1.5454e-05,-6.3476e-05,-2.7919e-05,-0.00032518,-5.1865e-05,-8.5768e-05
-0.00016083,-0.00016463,-0.00032561,-1.7474,-4.9722e-05,2.1048e-05,-2.5454e-05,8.0608e-05,0.00014727,-0.00013229,-6.5572e-05,-1.0671e-05,-0.00012742,-1.0607e-06,8.4515e-05,-0.00027821,-0.00012085,-0.00010259,0.00017025,0.00015182,-0.00022177,0.00010078,-7.1503e-05,1.0337e-05,-0.00020656,-2.5043e-05,1.5529e-05,-2.2011e-05,0.00028664,4.7644e-05,-0.00022209,-0.00013841,-0.00027421,-6.0799e-05,-5.9908e-05,9.8717e-05,-2.7092e-05,-0.00010614,-0.049115,-0.0001984,6.032e-05,-5.728e-05,-2.5624e-05,-0.00010192,-4.6775e-05,4.3463e-05,1.5207e-05,-5.7319e-05,-9.2405e-05,-0.00011976,-2.5925e-09,-4.712e-05,-5.31e-05,1.5878e-05,-9.8591e-06,1.9469e-05,-2.6433e-05,-0.00038514,-9.9663e-05,-0.00010757,2.9774e-05,-0.00016252,-6.2491e-05,-0.00031673,-0.00016262,-0.00012052,-0.0001404,-0.00014225,1.7263e-05,-8.4954e-05,-0.00014454,-4.1454e-06,-7.8579e-05,-0.0002933,-0.00017083,0.00022491,-0.00013211,-6.0496e-06,-2.3092e-05,-5.4505e-05,-0.00027633,-8.3532e-05,-0.0014967,-0.00011965,-0.00023727
-0.00011478,-0.00012171,-0.0002455,-1.7138,-3.5376e-05,2.2676e-05,-1.2148e-05,7.1804e-05,8.2419e-05,-6.0734e-05,-3.198e-05,-1.3375e-05,-7.6578e-05,-2.4149e-05,5.224e-05,-0.00018566,-0.00011817,-7.0701e-05,8.959e-05,8.0589e-05,-0.0001469,4.3435e-05,-4.2789e-05,1.4603e-06,-0.00013151,-1.4813e-05,1.7436e-05,-1.1934e-05,0.00018198,3.6648e-05,-0.00015989,-9.9788e-05,-0.00019224,-3.9493e-05,-1.0189e-05,6.0678e-05,-2.2464e-05,-8.4591e-05,-0.085629,-0.00013434,3.8324e-05,-5.7247e-05,-8.454e-05,-6.3637e-05,-3.9511e-05,3.7289e-05,1.7149e-05,-7.3496e-05,-7.6081e-05,-9.9463e-05,-4.6893e-05,-1.4911e-09,-5.9548e-05,-1.0049e-05,-2.7885e-05,2.1225e-06,-3.0608e-05,-0.00023006,-8.0002e-05,-9.1764e-05,2.285e-05,-0.00013447,-4.1684e-05,-0.00023107,-0.00011299,-8.4285e-05,-9.9573e-05,-0.00012108,1.0137e-05,-7.1459e-05,-8.89e-05,-2.8692e-05,-4.1419e-05,-0.00047251,-0.00010034,0.00012943,-6.5316e-05,-3.7882e-06,-7.6646e-06,-2.89e-05,-0.0001787,-5.3819e-05,-0.0017448,-0.00011863,-0.00017868
-0.00055448,-0.0006215,-0.00092154,-0.2237,-7.6488e-05,0.00036935,-7.2582e-05,0.00023082,0.00098839,-0.00057259,-0.00015934,3.3656e-06,-0.00047421,-7.5713e-05,0.00018731,-0.00064897,-0.00034466,-0.00040644,0.0010182,0.00044004,-0.00070029,0.00025889,-0.00022051,0.00022507,-0.00079214,-5.6107e-05,-4.5746e-05,5.8314e-05,0.0011708,0.00039213,-0.00028135,-0.00027996,-0.00062821,3.9805e-05,-0.00021186,0.00022002,-4.1706e-05,-0.00033811,-1.1101,-0.00044952,0.00036711,-6.2991e-05,0.00072458,-0.00026264,-0.0001942,0.00016284,6.5776e-05,-0.00024183,-0.00028348,-0.00016436,-0.00024264,-0.0002813,-3.9571e-09,2.2012e-05,-3.8883e-05,-3.4898e-05,-4.6914e-06,-0.0014952,-0.00043066,-0.00038329,0.00015149,-0.00068651,-0.00012728,-0.0009893,-0.00031448,-0.00035009,-0.00053575,-0.00051568,0.00020518,-0.00033162,-0.00045217,-0.00010582,-0.000185,-0.00036359,-0.00065948,0.00063835,-0.00031393,-5.1815e-05,-7.9384e-05,-0.00014347,-0.00048737,-0.00024778,-0.0010425,-0.00043583,-0.00068402
-6.2993e-05,-6.5159e-05,-0.00011327,-0.64825,-1.316e-05,7.7822e-06,-3.7466e-06,2.875e-05,5.4477e-05,-5.3702e-05,-1.5583e-05,-6.6438e-06,-4.7286e-05,-3.9728e-06,3.3382e-05,-9.6961e-05,-4.8677e-05,-4.093e-05,7.1295e-05,5.9614e-05,-8.5439e-05,3.9206e-05,-2.6119e-05,7.9731e-06,-8.7523e-05,-1.0685e-05,9.5877e-06,-8.6929e-06,0.00011214,2.4911e-05,-7.6177e-05,-4.9497e-05,-0.00010727,-1.9577e-05,-2.126e-05,3.7166e-05,-1.1835e-05,-4.1124e-05,-0.76541,-7.2037e-05,2.2822e-05,-2.2456e-05,-1.1814e-05,-3.5119e-05,-1.9611e-05,1.8767e-05,6.3043e-06,-2.001e-05,-3.9936e-05,-4.2242e-05,-1.9978e-05,-2.2582e-05,-9.3276e-06,-2.7521e-09,1.6815e-05,1.916e-06,-3.7573e-06,-0.000134,-4.4461e-05,-2.6845e-05,1.0346e-05,-6.301e-05,-2.3012e-05,-0.00012403,-5.8856e-05,-4.4771e-05,-5.439e-05,-6.0744e-05,1.0897e-05,-3.5553e-05,-4.8665e-05,-3.0064e-06,-2.7121e-05,-0.00015097,-6.5685e-05,7.8356e-05,-4.4231e-05,-2.2561e-06,-6.0086e-06,-1.8615e-05,-7.9693e-05,-3.0337e-05,-0.00056753,-5.5359e-05,-9.0803e-05
-0.0001011,-0.00010611,-0.00018212,-0.50046,-1.9699e-05,1.0672e-05,-5.621e-06,4.4882e-05,8.9189e-05,-8.8681e-05,-2.3643e-05,-1.1207e-05,-7.9375e-05,-4.7375e-06,5.447e-05,-0.00015698,-7.7498e-05,-6.5137e-05,0.00011718,9.8298e-05,-0.00013553,6.6323e-05,-4.1757e-05,1.4613e-05,-0.00014144,-1.6096e-05,1.6779e-05,-1.4251e-05,0.00018587,3.9643e-05,-0.00012318,-8.0363e-05,-0.00017088,-2.9027e-05,-3.5371e-05,6.0297e-05,-1.7732e-05,-6.6811e-05,-0.8921,-0.00011394,3.6466e-05,-3.6672e-05,-1.9685e-05,-5.7028e-05,-3.2004e-05,3.0368e-05,1.1253e-05,-2.9095e-05,-6.5336e-05,-6.8478e-05,-3.0892e-05,-3.7166e-05,-1.1665e-05,4.6517e-05,-2.8744e-09,4.0351e-06,-3.1919e-06,-0.00022259,-7.3064e-05,-4.4071e-05,1.6471e-05,-9.9507e-05,-3.6447e-05,-0.00020068,-9.2534e-05,-7.147e-05,-8.8662e-05,-9.8183e-05,1.879e-05,-5.6976e-05,-7.5509e-05,-2.0463e-06,-4.227e-05,-0.00024223,-0.00010664,0.00012714,-7.1012e-05,-3.2703e-06,-9.7099e-06,-2.9659e-05,-0.00012907,-4.8043e-05,-0.00088639,-8.7635e-05,-0.00014485
-0.00018241,-0.00020263,-0.0003365,-1.3631,-4.5274e-05,5.7379e-05,-1.4382e-05,0.00010753,0.00011784,-0.00011287,-4.466e-05,-2.3799e-05,-0.00012121,-2.8945e-05,7.8696e-05,-0.00027064,-0.0001643,-0.00010304,0.00016951,0.00012645,-0.00021819,7.6601e-05,-6.9403e-05,1.1622e-05,-0.0002061,-2.4079e-05,2.1938e-05,-1.8175e-05,0.00028991,5.985e-05,-0.00019538,-0.00014389,-0.00026567,-5.4619e-05,-2.5279e-05,9.4886e-05,-2.7849e-05,-0.00013092,-0.6516,-0.00018768,6.0744e-05,-7.8841e-05,-8.474e-05,-0.00010366,-6.0543e-05,5.6325e-05,2.6776e-05,-9.5589e-05,-0.00012121,-0.00012473,-5.8589e-05,-4.934e-05,-6.2173e-05,-6.2241e-06,-3.1168e-05,-1.9347e-09,-3.8491e-05,-0.00035874,-0.00012852,-0.00014069,3.5931e-05,-0.00020963,-5.8286e-05,-0.00035452,-0.00016184,-0.00012589,-0.00015425,-0.0001721,2.256e-05,-0.00010249,-0.00014169,-3.6723e-05,-5.7216e-05,-0.00084458,-0.00015586,0.00021518,-9.7673e-05,-4.6942e-06,-2.3992e-05,-4.027e-05,-0.00022395,-7.8193e-05,-0.0019637,-0.0001539,-0.00025066
-3.3842e-05,-3.5103e-05,-5.958e-05,-0.20168,-7.9626e-06,5.6222e-06,-2.6045e-06,1.2998e-05,3.3655e-05,-3.4055e-05,-1.1867e-05,-1.1869e-06,-2.9494e-05,1.6877e-06,1.154e-05,-5.0976e-05,-2.269e-05,-2.2579e-05,3.796e-05,3.5672e-05,-4.4879e-05,2.6025e-05,-1.3453e-05,6.6699e-06,-4.6604e-05,-3.8484e-06,4.5434e-06,-1.7398e-06,6.9445e-05,1.2759e-05,-3.4055e-05,-2.5318e-05,-5.0868e-05,-6.5223e-06,-1.5299e-05,2.2664e-05,-4.8855e-06,-2.1538e-05,-1.635,-3.3846e-05,1.7546e-05,-9.0048e-06,-3.19e-06,-2.1121e-05,-6.7967e-06,9.3712e-06,4.329e-06,-5.2156e-06,-2.338e-05,-2.0043e-05,-1.1867e-05,-1.2207e-05,2.2203e-06,5.6632e-06,5.1806e-07,1.3756e-06,-2.6284e-09,-7.8626e-05,-2.3075e-05,-1.7374e-05,6.4325e-06,-3.281e-05,-1.2874e-05,-6.7511e-05,-2.7476e-05,-2.47e-05,-3.2045e-05,-3.1091e-05,7.251e-06,-1.8482e-05,-2.7591e-05,3.3135e-08,-1.4647e-05,-5.4438e-05,-3.9204e-05,4.908e-05,-2.8569e-05,-4.2858e-07,-4.1036e-06,-1.0085e-05,-3.3496e-05,-1.5771e-05,-0.00012958,-2.5212e-05,-4.5298e-05
-0.00017142,-0.00014225,-0.00031124,-0.066223,-3.9829e-05,0.00010113,-1.7854e-05,0.00015535,0.00031095,-4.9308e-05,-4.6851e-06,2.0966e-05,3.7835e-05,-1.4898e-05,8.3944e-05,-0.00030045,-0.00012821,-9.6749e-05,0.00021375,0.00014727,-0.00022677,6.2425e-05,-7.0203e-05,7.8395e-05,-0.00015862,-7.4476e-06,3.6587e-05,9.9762e-06,0.00029028,8.3658e-05,-0.0001886,-0.00011303,-0.00025084,-2.2415e-05,4.4069e-06,0.00014458,-1.8344e-05,-6.0051e-05,-0.00016568,-0.00016787,0.00010399,-3.1951e-05,-4.5184e-05,-3.5226e-05,-3.7721e-05,5.9087e-05,3.8429e-05,-9.1174e-05,-1.6481e-05,-0.00015271,-3.2569e-05,-4.7679e-07,-8.7867e-05,6.1395e-06,-2.829e-05,1.7864e-05,-6.5833e-05,-3.4632e-09,-5.0157e-05,-5.8173e-05,5.937e-05,-0.00017954,-6.8563e-05,-0.00023673,-0.00014897,-0.00011244,-0.00011387,-0.00014821,3.0691e-05,-6.4483e-05,-0.00012456,-2.3166e-05,-6.9498e-05,-0.0001488,-0.00013305,0.00027298,3.1573e-06,3.6854e-06,-7.884e-06,-5.2242e-05,5.8152e-05,-7.8602e-05,-0.0010507,-0.00012256,-0.00021387
-0.00012565,-0.00010643,-0.00024948,-1.8576,-3.8616e-05,4.8566e-05,-1.6533e-05,0.00011142,0.00018635,-7.6237e-05,-3.7819e-05,5.3956e-06,-6.1278e-05,1.1769e-05,7.2764e-05,-0.00023514,-7.9349e-05,-7.6881e-05,0.00015656,0.00015716,-0.00017931,9.3326e-05,-5.4336e-05,1.7933e-05,-0.00014963,-9.6353e-06,2.1018e-05,-9.6312e-06,0.0002529,5.9841e-05,-0.00015968,-9.9932e-05,-0.00020518,-3.6848e-05,-3.2635e-05,0.00010351,-1.727e-05,-6.5361e-05,-0.00087499,-0.00014447,7.2484e-05,-2.4878e-05,-5.4448e-06,-6.1496e-05,-2.3393e-05,5.0045e-05,2.246e-05,-3.3825e-05,-3.8827e-05,-9.674e-05,-1.8709e-05,-1.623e-05,-4.1009e-05,1.5961e-05,-9.9296e-06,1.6983e-05,-2.2351e-05,-0.00019035,-4.2545e-09,-7.0293e-05,3.7098e-05,-0.00011661,-4.8232e-05,-0.00021752,-0.00012255,-9.7744e-05,-9.3605e-05,-0.0001086,3.2195e-05,-5.3001e-05,-0.00010429,1.1075e-05,-6.7387e-05,-0.00013363,-0.00012376,0.0002191,-6.4298e-05,3.4666e-06,-1.0917e-05,-4.2327e-05,-0.00010722,-6.0539e-05,-0.00070741,-8.8206e-05,-0.00017951
-0.0004189,-0.00045726,-0.00072207,-1.44,-0.00012524,-7.2142e-05,-6.043e-05,0.00010601,0.00021798,-0.00039004,-0.00016301,-0.00012554,-0.00030686,-3.7594e-05,8.5271e-05,-0.00073942,-0.00029631,-0.00028063,0.00043783,0.00029369,-0.0005892,0.00019239,-0.00020699,-6.7828e-05,-0.00054767,-8.1633e-05,-1.6783e-05,-0.00011931,0.00056145,8.386e-05,-0.00055237,-0.00034896,-0.00068706,-0.00015935,-0.0001854,0.00020936,-0.00011174,-0.00025547,-0.32563,-0.00048155,4.719e-05,-0.00012169,-0.0001848,-0.00028574,-0.00020833,3.77e-05,-2.9021e-05,-0.00013554,-0.00030923,-0.00028322,-0.00015847,-0.0001675,-0.00010535,4.3438e-05,-1.7853e-05,-1.8181e-05,-5.3839e-05,-0.00073797,-0.00026633,1.4258e-09,-3.2933e-05,-0.00037118,-0.00017321,-0.00086593,-0.00041517,-0.00033485,-0.00038783,-0.00038531,-2.5206e-05,-0.0002416,-0.0003562,-2.5083e-05,-0.00022746,-0.00095137,-0.00043885,0.00034075,-0.00036688,-6.084e-05,-7.0786e-05,-0.00015131,-0.00047301,-0.00023386,-0.0049516,-0.00039353,-0.00059759
-0.00030543,-0.00030981,-0.00054789,-1.5507,-7.2997e-05,0.00010652,-2.0665e-05,0.00013164,0.00012394,-0.00015648,-7.3344e-05,-4.7991e-05,-0.00018343,-0.00010234,9.949e-05,-0.00039784,-0.00029704,-0.00018936,0.00021203,0.00011917,-0.00033401,5.0459e-05,-0.00011024,1.0739e-05,-0.00030944,-4.2144e-05,2.2367e-05,-2.3957e-05,0.00035216,9.8517e-05,-0.00030895,-0.0002279,-0.00040526,-6.6629e-05,-2.1035e-05,0.00012621,-7.438e-05,-0.00022781,-0.51308,-0.0002733,7.2164e-05,-0.00012571,-0.00017612,-0.00014553,-0.00012928,7.6071e-05,2.2419e-05,-0.00021811,-0.00014867,-0.00015331,-0.00015001,-9.353e-05,-9.6514e-05,-6.027e-05,-9.5568e-05,-1.2598e-05,-0.00010914,-0.00053735,-0.00022774,-0.00031953,1.2748e-09,-0.00039879,-9.6721e-05,-0.00055019,-0.00025576,-0.00020304,-0.00026071,-0.00031199,6.6312e-05,-0.0001856,-0.00020408,-0.0001233,-8.1706e-05,-0.00054311,-0.00023971,0.00024739,-0.00013478,-2.9063e-05,-5.9009e-05,-7.0658e-05,-0.00027885,-0.00012568,-0.0016354,-0.00031815,-0.00041602
-0.0002054,-0.00022858,-0.00041828,-1.3701,-5.7712e-05,1.1278e-05,-2.2362e-05,0.00011181,0.00021033,-0.00019659,-8.5214e-05,-1.2866e-05,-0.00018281,6.1002e-06,0.00010289,-0.00036553,-0.00015373,-0.00012946,0.00027753,0.00024073,-0.00030643,0.00016813,-7.7137e-05,2.0986e-05,-0.00030747,-3.1107e-05,3.1953e-05,-3.0746e-05,0.00042956,7.8703e-05,-0.00027919,-0.00016615,-0.00035705,-6.9801e-05,-9.2067e-05,0.00012721,-3.6961e-05,-0.00013667,-0.33221,-0.00024872,9.5742e-05,-6.7255e-05,-3.3877e-05,-0.00013836,-5.2523e-05,6.8111e-05,3.1261e-05,-4.1504e-05,-0.0001362,-0.00015695,-4.8152e-05,-5.767e-05,-5.0806e-05,4.7164e-05,1.0937e-05,1.4757e-05,4.13e-06,-0.00057124,-0.00012735,-0.00010202,3.4416e-05,-2.6253e-09,-7.4065e-05,-0.0004379,-0.00020458,-0.00016478,-0.00019553,-0.00020443,3.1142e-05,-0.00011086,-0.00018277,1.5218e-05,-0.00010142,-0.00052143,-0.0002383,0.00031492,-0.00019585,3.5577e-06,-1.1878e-05,-6.4131e-05,-0.00036269,-0.00010972,-0.0018078,-0.00016676,-0.00032471
-3.2806e-05,-3.6455e-05,-6.2022e-05,-0.8858,-7.7108e-06,8.3935e-06,-3.1063e-06,1.6327e-05,2.2103e-05,-2.2307e-05,-8.8248e-06,-3.064e-06,-2.5497e-05,-7.6475e-06,1.3381e-05,-4.6922e-05,-3.2412e-05,-2.1746e-05,3.5211e-05,2.3023e-05,-4.0911e-05,1.4309e-05,-1.1599e-05,3.3141e-06,-4.0768e-05,-3.9033e-06,3.864e-06,-2.0484e-06,5.8446e-05,1.1487e-05,-3.5216e-05,-2.5421e-05,-4.6148e-05,-6.8935e-06,-4.5487e-06,1.6903e-05,-5.6332e-06,-2.4995e-05,-1.1472,-3.0616e-05,1.3514e-05,-1.483e-05,-1.2965e-05,-1.7915e-05,-9.8784e-06,1.5674e-05,4.3848e-06,-1.5736e-05,-2.1807e-05,-2.2649e-05,-1.4571e-05,-1.0881e-05,-3.8937e-06,-1.7429e-06,-6.3239e-06,3.9933e-07,-7.4275e-06,-7.2013e-05,-2.5753e-05,-2.6068e-05,7.2555e-06,-3.8707e-05,-2.7391e-09,-6.7616e-05,-2.8861e-05,-2.2496e-05,-3.1144e-05,-3.3112e-05,5.1352e-06,-2.0632e-05,-2.3915e-05,-7.5215e-06,-1.0727e-05,-8.6109e-05,-3.019e-05,3.6371e-05,-2.0408e-05,1.8071e-06,-3.8258e-06,-7.3033e-06,-4.0904e-05,-1.4309e-05,-0.00020022,-3.2788e-05,-4.6821e-05
-6.5391e-05,-5.812e-05,-0.00013576,-1.2891,-1.7933e-05,3.2996e-05,-9.6381e-06,5.0994e-05,0.00011523,-4.4997e-05,-1.5788e-05,9.7572e-06,-2.718e-05,1.5387e-06,4.4153e-05,-0.00011679,-4.9343e-05,-4.3048e-05,8.5285e-05,7.3397e-05,-0.00010692,4.8368e-05,-3.0982e-05,3.5478e-05,-8.3837e-05,-6.6162e-06,1.2848e-05,4.3011e-06,0.00014174,3.5222e-05,-8.4483e-05,-3.8843e-05,-0.00012328,-4.6936e-06,-1.7238e-05,5.8934e-05,-5.7886e-06,-3.5037e-05,-0.0010712,-7.7701e-05,4.7091e-05,-5.958e-06,7.3414e-06,-2.3236e-05,-1.3546e-05,2.3539e-05,1.3645e-05,-2.1403e-05,-1.4477e-05,-4.906e-05,-1.0381e-05,-1.1055e-05,-1.0033e-05,1.0687e-05,-2.6906e-06,7.0389e-06,-9.6407e-06,-0.00010561,-2.7372e-05,-4.1097e-05,2.3881e-05,-6.7436e-05,-2.7287e-05,-3.1915e-09,-1.9188e-05,-5.1588e-05,-5.825e-05,-6.1144e-05,1.864e-05,-3.2859e-05,-5.4113e-05,3.9293e-06,-3.4706e-05,-8.3585e-05,-6.7359e-05,0.00013105,-2.331e-05,7.4898e-07,-5.0973e-06,-2.2727e-05,-4.0561e-05,-3.5187e-05,-0.0004235,-4.8031e-05,-9.9433e-05
-2.7701e-05,-2.8479e-05,-4.9588e-05,-0.64564,-5.0971e-06,8.7929e-06,-2.9375e-06,1.2239e-05,1.7611e-05,-1.9537e-05,-5.7303e-06,-1.6399e-06,-1.865e-05,-6.9914e-06,1.0791e-05,-3.4888e-05,-2.7918e-05,-1.916e-05,2.9899e-05,1.5317e-05,-3.0898e-05,1.0636e-05,-9.6515e-06,6.2226e-06,-3.1853e-05,-4.1999e-06,2.4777e-06,1.4803e-07,4.4087e-05,8.9817e-06,-2.6055e-05,-1.7684e-05,-4.0436e-05,-2.989e-06,-4.4377e-06,1.3647e-05,-3.7545e-06,-1.871e-05,-0.68655,-2.5619e-05,1.0834e-05,-1.0605e-05,-9.6901e-06,-1.3878e-05,-9.2813e-06,7.6891e-06,3.1345e-06,-1.4554e-05,-1.7237e-05,-1.4311e-05,-1.2065e-05,-9.5899e-06,-1.4912e-06,-1.6425e-06,-4.8614e-06,-4.1901e-07,-3.8331e-06,-5.6744e-05,-2.0489e-05,-1.9476e-05,5.9067e-06,-3.1181e-05,-8.6809e-06,-3.0328e-05,-2.418e-09,-1.8494e-05,-2.8221e-05,-2.7035e-05,3.727e-06,-1.6457e-05,-1.9078e-05,-6.6966e-06,-8.3481e-06,-5.804e-05,-2.4939e-05,3.0373e-05,-1.2826e-05,-1.6558e-06,-4.0398e-06,-6.7731e-06,-2.6323e-05,-1.1775e-05,-9.9862e-05,-2.4466e-05,-3.75e-05
-0.00023147,-0.00025149,-0.00044641,-0.82329,-5.3765e-05,6.5448e-05,-1.9322e-05,0.00012205,0.0002037,-0.00016209,-5.4024e-05,-2.2129e-05,-0.00016382,-4.6199e-05,0.00010302,-0.00035826,-0.00021183,-0.00015421,0.00024933,0.00017874,-0.00026912,0.00010256,-9.1697e-05,2.4345e-05,-0.00028306,-2.9489e-05,3.0908e-05,-1.1654e-05,0.00041409,8.9785e-05,-0.00023692,-0.00017078,-0.00033647,-6.0877e-05,-4.6407e-05,0.00013119,-3.405e-05,-0.00017107,-0.80643,-0.00022543,8.9624e-05,-9.3714e-05,-9.437e-05,-0.00012299,-6.4842e-05,7.598e-05,3.5095e-05,-0.00011821,-0.00013604,-0.00015483,-8.9619e-05,-7.1994e-05,-2.4433e-05,3.4203e-06,-2.9477e-05,2.0833e-06,-3.8848e-05,-0.00049223,-0.00018007,-0.00016552,5.4505e-05,-0.00027371,-7.2904e-05,-0.00046936,-0.00020188,-2.5224e-09,-0.00021673,-0.00022995,3.7567e-05,-0.00013673,-0.00017042,-4.1456e-05,-8.3369e-05,-0.0007454,-0.0002225,0.00025365,-0.00013179,-2.9945e-06,-1.9413e-05,-6.0447e-05,-0.00028758,-0.00010004,-0.001732,-0.00020526,-0.00032188
-0.00013678,-0.00014585,-0.00028607,-1.7226,-3.811e-05,2.3981e-05,-3.2326e-06,7.7712e-05,9.6821e-05,-8.5616e-05,-4.2656e-05,-1.4343e-05,-9.5437e-05,-2.2469e-05,5.8481e-05,-0.00022629,-0.00012227,-8.4436e-05,0.00012207,0.00010208,-0.00017767,5.7996e-05,-5.726e-05,4.6387e-06,-0.00016823,-2.0688e-05,2.7709e-05,-1.8216e-05,0.00022216,5.504e-05,-0.00017131,-0.00012034,-0.00022779,-4.9923e-05,-2.5166e-05,8.4054e-05,-2.4207e-05,-9.8992e-05,-0.26547,-0.0001567,5.1049e-05,-7.1472e-05,-7.2459e-05,-7.0076e-05,-4.6039e-05,4.324e-05,1.7471e-05,-7.7752e-05,-7.2751e-05,-0.00011873,-4.9736e-05,-3.7815e-05,-4.422e-05,3.6171e-06,-1.7702e-05,3.8726e-06,-2.8838e-05,-0.00028857,-8.9032e-05,-0.00010739,2.369e-05,-0.00015539,-5.168e-05,-0.00027756,-0.00015045,-0.00010302,-1.8979e-09,-0.00013853,1.7273e-05,-7.9742e-05,-8.8114e-05,-1.9954e-05,-5.2193e-05,-0.00020216,-0.00012543,0.00015761,-8.4674e-05,-3.3543e-06,-1.9789e-05,-3.8628e-05,-0.00019875,-6.3909e-05,-0.0022327,-0.00013231,-0.00020657
-5.1917e-05,-5.1024e-05,-9.8594e-05,-2.1095,-1.5842e-05,5.6164e-06,-7.7625e-06,2.3498e-05,4.6652e-05,-4.5709e-05,-2.0133e-05,-3.5199e-06,-4.1272e-05,-2.6246e-06,1.7251e-05,-8.3635e-05,-4.0218e-05,-3.1178e-05,5.2595e-05,4.795e-05,-7.4127e-05,3.3252e-05,-2.3348e-05,3.3589e-06,-7.0573e-05,-9.5685e-06,3.7372e-06,-7.351e-06,8.9441e-05,1.5672e-05,-6.5519e-05,-4.0513e-05,-8.1763e-05,-1.8311e-05,-1.9429e-05,2.501e-05,-1.1993e-05,-3.364e-05,-0.39409,-5.9885e-05,2.0538e-05,-1.7358e-05,-7.6618e-06,-3.1038e-05,-1.4896e-05,1.4308e-05,3.2848e-06,-1.4441e-05,-3.4618e-05,-3.3108e-05,-1.3675e-05,-1.782e-05,-9.6361e-06,2.848e-06,-5.8784e-06,2.5459e-06,-4.7869e-06,-0.00012397,-3.276e-05,-3.0492e-05,9.5825e-06,-5.5292e-05,-1.8561e-05,-0.00010309,-5.0248e-05,-3.8165e-05,-4.8697e-05,-1.3725e-09,5.5968e-06,-2.7902e-05,-4.3837e-05,-1.934e-06,-2.4435e-05,-0.00010753,-5.3194e-05,7.1064e-05,-4.1987e-05,-2.4395e-06,-7.0809e-06,-1.741e-05,-8.3285e-05,-2.6594e-05,-0.00038667,-3.7859e-05,-7.5157e-05
-0.00018333,-0.00018488,-0.00033239,-1.0421,-3.6408e-05,0.00010825,-2.9016e-06,9.8777e-05,0.00013538,-0.00011309,-3.7414e-05,-1.3844e-05,-0.00012195,-4.5448e-05,7.0509e-05,-0.00022827,-0.0001811,-0.00011133,0.00017812,0.00011193,-0.00019859,6.936e-05,-6.281e-05,5.775e-05,-0.00020475,-1.3869e-05,2.5679e-05,-4.4625e-06,0.00027868,7.3164e-05,-0.00017011,-0.00011726,-0.00024888,-2.3868e-05,-1.6676e-05,9.1283e-05,-3.3593e-05,-0.00013527,-0.48716,-0.0001588,7.0737e-05,-3.6988e-05,-5.6626e-05,-8.0677e-05,-6.1335e-05,6.1501e-05,2.8953e-05,-0.00010797,-7.4535e-05,-6.0032e-05,-8.147e-05,-5.6646e-05,-1.8868e-05,-5.8583e-06,-2.8856e-05,5.1297e-07,-3.3944e-05,-0.000356,-0.00013068,-0.00020024,6.2173e-05,-0.00022136,-5.2434e-05,-0.00032819,-0.0001448,-0.00011641,-0.00015288,-0.00018273,-3.5656e-09,-0.00010731,-0.0001172,-5.0391e-05,-4.6674e-05,-0.00035336,-0.00015532,0.00019258,-8.3308e-05,-8.1472e-06,-2.2759e-05,-4.0369e-05,-0.00018027,-7.1236e-05,-0.00081456,-0.00017189,-0.00025917
-4.6608e-05,-4.6173e-05,-8.8966e-05,-1.5169,-1.2383e-05,1.0403e-05,-5.5735e-06,2.5646e-05,3.4435e-05,-3.5893e-05,-1.445e-05,-4.0562e-06,-3.4107e-05,-4.0882e-06,1.7809e-05,-7.6335e-05,-3.9658e-05,-2.9384e-05,4.9532e-05,4.1649e-05,-5.8798e-05,2.4578e-05,-1.8773e-05,1.5262e-06,-5.8322e-05,-7.2171e-06,4.7081e-06,-5.2028e-06,7.4009e-05,1.6001e-05,-5.1229e-05,-3.8566e-05,-7.0316e-05,-1.3365e-05,-1.3112e-05,2.6219e-05,-1.0677e-05,-3.0787e-05,-0.23236,-5.1812e-05,1.7675e-05,-1.4142e-05,-1.2853e-05,-2.5224e-05,-1.4889e-05,1.2168e-05,3.9811e-06,-2.0136e-05,-2.5977e-05,-2.8486e-05,-1.4306e-05,-1.3862e-05,-1.24e-05,1.7633e-06,-5.176e-06,2.319e-06,-6.5919e-06,-9.3314e-05,-2.8635e-05,-3.1968e-05,9.8542e-06,-4.8213e-05,-1.6197e-05,-9.0993e-05,-4.2223e-05,-3.2744e-05,-3.9462e-05,-4.1972e-05,6.991e-06,-1.9519e-09,-3.6128e-05,-4.6225e-06,-1.9498e-05,-9.6224e-05,-4.4605e-05,5.5941e-05,-3.2103e-05,-2.3875e-06,-5.8245e-06,-1.3582e-05,-5.7976e-05,-2.376e-05,-0.00040386,-3.8436e-05,-6.4757e-05
-0.00052623,-0.00057733,-0.0009414,-1.3914,-0.00012897,0.00010971,-2.2036e-05,0.00024339,0.00028624,-0.00033194,-0.00013111,-7.4454e-05,-0.00036687,-0.00011574,0.0001814,-0.00076136,-0.00046695,-0.00033133,0.00046364,0.00031633,-0.00059959,0.00021749,-0.00019567,3.1253e-05,-0.00058896,-4.7652e-05,8.7457e-05,-5.6934e-05,0.00075749,0.00017743,-0.00057065,-0.00039432,-0.00080562,-0.00011678,-5.9855e-05,0.00021759,-8.565e-05,-0.00038831,-1.065,-0.00051617,0.00016464,-0.00026502,-0.00029892,-0.00027033,-0.00019168,0.00016622,5.4776e-05,-0.00030302,-0.00029263,-0.00036244,-0.00023663,-0.00016524,-0.0001317,-1.3703e-05,-7.5608e-05,-2.1674e-05,-0.00010828,-0.00097694,-0.0003851,-0.00040945,9.4129e-05,-0.00060533,-0.000164,-0.00096274,-0.00042987,-0.00034912,-0.00039759,-0.00052429,7.7523e-05,-0.00031445,-2.3497e-09,-0.00010036,-0.00016766,-0.0010001,-0.00046084,0.00052434,-0.00030833,-2.1905e-05,-6.8805e-05,-0.00012586,-0.00050427,-0.00021933,-0.0028541,-0.00051649,-0.00069688
-0.00014072,-0.00014311,-0.00028982,-1.8624,-4.8784e-05,-3.6825e-07,-1.8653e-05,7.6209e-05,0.00015337,-0.00013987,-6.0023e-05,-1.7452e-05,-0.00013279,1.2817e-05,6.6077e-05,-0.00027174,-0.00010253,-8.5335e-05,0.00017527,0.00017283,-0.00021499,0.00013369,-6.7375e-05,1.1294e-05,-0.00020831,-1.5085e-05,1.7711e-05,-2.0811e-05,0.00028338,5.0182e-05,-0.00020694,-0.00012693,-0.0002545,-5.713e-05,-7.1261e-05,9.8912e-05,-2.2625e-05,-9.7064e-05,-0.50898,-0.00017884,6.1854e-05,-4.8711e-05,-3.2092e-05,-9.2226e-05,-3.9325e-05,4.5915e-05,1.2441e-05,-3.1916e-05,-9.1456e-05,-0.00012308,-3.4895e-05,-5.1937e-05,-3.5926e-05,2.7635e-05,4.1021e-06,9.0012e-06,-4.4845e-06,-0.00036963,-8.1836e-05,-7.0153e-05,1.5493e-05,-0.0001392,-5.6012e-05,-0.00029327,-0.00015225,-0.00011225,-0.00012946,-0.00013202,1.5804e-05,-7.7595e-05,-0.00011813,-1.4011e-09,-7.9508e-05,-0.00030093,-0.00015889,0.00021682,-0.00014183,-1.4846e-06,-1.9499e-05,-4.5393e-05,-0.00026215,-7.8815e-05,-0.0018705,-0.00011489,-0.00021657
-0.00057817,-0.00067289,-0.0010908,-1.4006,-0.00013833,0.00015932,-5.5799e-05,0.00027725,0.00021512,-0.00029935,-9.3626e-05,-8.5222e-05,-0.00036988,-0.00020505,0.00019319,-0.00073495,-0.00064509,-0.00031715,0.00050659,0.00025359,-0.00056961,0.0001208,-0.00018917,1.4228e-05,-0.0006241,-8.2546e-05,5.7562e-05,-5.3497e-05,0.00075543,0.00017202,-0.00061107,-0.00046836,-0.00078889,-0.00014348,-2.4204e-05,0.00022745,-0.00011418,-0.00045233,-1.0728,-0.00056064,0.00015662,-0.00033169,-0.00039916,-0.00030531,-0.00025607,0.00017186,0.00012666,-0.00045987,-0.00038854,-0.00036364,-0.00029886,-0.00017701,-0.0001758,-8.5159e-05,-0.00014741,-9.6637e-06,-0.00016353,-0.0010749,-0.00049417,-0.00051118,0.00010763,-0.00072932,-0.00017639,-0.0011382,-0.00047102,-0.00038357,-0.00049451,-0.00060819,6.575e-05,-0.00037829,-0.0003824,-0.00021437,-1.5438e-09,-0.0016494,-0.00041165,0.00049025,-0.00021927,-3.2132e-05,-8.7916e-05,-8.7124e-05,-0.00058297,-0.00021775,-0.0034957,-0.00062252,-0.00081454
-0.000205,-0.00019081,-0.00043594,-1.3547,-6.1889e-05,9.4277e-05,-3.85e-05,0.00013653,0.00034478,-0.0001376,-7.5382e-05,2.7158e-05,-0.00012033,-3.7574e-06,9.3266e-05,-0.00034932,-0.00015678,-0.00014044,0.00026084,0.00020269,-0.00031469,0.00011753,-0.00010447,5.1669e-05,-0.00024506,-2.9758e-05,2.8224e-05,2.6122e-05,0.00038846,0.00012548,-0.00018944,-0.00013359,-0.0002864,-5.2671e-05,-6.2777e-05,0.00015323,-3.2178e-05,-0.00012522,-0.00086782,-0.00021924,0.00017051,-1.6314e-05,9.666e-05,-9.2556e-05,-4.968e-05,6.7011e-05,2.4564e-05,-8.6801e-05,-5.2734e-05,-0.00011763,-3.9539e-05,-6.6409e-05,2.7146e-05,-1.5889e-05,-4.8993e-05,-3.2198e-05,-6.327e-05,-0.00036117,-8.9184e-05,-0.00019621,7.0738e-05,-0.00023332,-8.8322e-05,-0.00036446,-0.00021363,-0.00016503,-0.00011732,-0.00018934,3.9639e-05,-9.9334e-05,-0.00015287,-1.3704e-05,-0.00011211,-3.8704e-09,-0.00020555,0.00030834,-0.00012013,6.9388e-06,-2.2224e-05,-6.9273e-05,-0.00012922,-0.00010724,-0.00093395,-0.00015048,-0.00028353
-3.0649e-05,-3.2996e-05,-6.3181e-05,-1.7573,-9.134e-06,5.9664e-06,-3.3528e-06,1.5458e-05,1.1475e-05,-1.6489e-05,-7.1239e-06,-4.4193e-06,-2.0658e-05,-9.0556e-06,1.0639e-05,-4.4074e-05,-3.2212e-05,-1.7244e-05,2.3626e-05,1.5506e-05,-3.3863e-05,8.4199e-06,-1.1339e-05,5.3291e-07,-3.4959e-05,-4.9817e-06,2.9372e-06,-3.329e-06,3.9703e-05,8.4237e-06,-3.5601e-05,-2.5683e-05,-4.5883e-05,-9.7447e-06,-2.5995e-06,1.3322e-05,-6.262e-06,-2.3665e-05,-0.60328,-3.3315e-05,7.4831e-06,-1.6976e-05,-2.2104e-05,-1.7042e-05,-1.2845e-05,8.4077e-06,5.8715e-06,-2.328e-05,-1.9933e-05,-2.3257e-05,-1.5056e-05,-8.4329e-06,-1.7009e-05,-4.3049e-06,-8.2402e-06,-1.613e-07,-1.0336e-05,-5.8462e-05,-2.3664e-05,-2.7417e-05,4.8622e-06,-3.8895e-05,-1.0023e-05,-5.8951e-05,-2.7971e-05,-2.1642e-05,-2.6133e-05,-3.1178e-05,2.1921e-06,-1.9624e-05,-2.1793e-05,-8.9926e-06,-6.9306e-06,-9.0617e-05,-4.2569e-10,2.8896e-05,-1.3929e-05,-1.8165e-06,-4.2514e-06,-2.0828e-06,-3.8001e-05,-1.3423e-05,-0.00033696,-3.1877e-05,-4.5096e-05
-5.6686e-05,-5.4328e-05,-0.00011009,-1.5559,-1.5197e-05,3.4529e-05,-7.6181e-06,4.2551e-05,9.6986e-05,-3.8223e-05,-1.1407e-05,1.0274e-05,-2.4937e-05,-1.1455e-06,3.3625e-05,-8.8055e-05,-3.2077e-05,-3.4847e-05,6.7652e-05,5.724e-05,-7.9065e-05,3.8406e-05,-2.507e-05,2.4491e-05,-6.7929e-05,-5.7765e-06,1.0591e-05,6.1876e-06,0.00012911,2.7501e-05,-5.219e-05,-3.8148e-05,-7.6982e-05,-1.065e-05,-1.2488e-05,5.1674e-05,-8.2913e-07,-2.7246e-05,-0.0015572,-5.5386e-05,4.2605e-05,-4.5625e-06,2.2585e-06,-1.7142e-05,-5.0107e-06,2.2343e-05,1.1077e-05,-1.2056e-05,-1.8061e-05,-3.8743e-05,-1.0194e-05,-9.9515e-06,-1.6942e-05,4.4469e-06,-6.9456e-06,1.1193e-05,-1.018e-05,-0.0001016,-2.5988e-05,-5.458e-05,2.0374e-05,-6.2195e-05,-2.1139e-05,-9.4836e-05,-4.7724e-05,-4.5413e-05,-4.5646e-05,-4.9124e-05,1.517e-05,-2.7613e-05,-4.8187e-05,-1.4206e-06,-2.5037e-05,-9.3579e-05,-5.1523e-05,-2.2185e-09,-1.5847e-05,3.213e-06,-9.8871e-06,-1.5832e-05,-2.1748e-05,-2.9108e-05,-0.00030636,-3.816e-05,-7.2532e-05
-0.00016395,-0.00016159,-0.0002847,-1.3503,-3.3798e-05,9.7627e-05,-1.9678e-05,0.00011795,0.00019173,-5.241e-05,1.1217e-05,1.4815e-06,-4.2787e-05,-4.6931e-05,0.00010434,-0.00022917,-0.00016593,-0.00010207,0.00022423,0.00010358,-0.00017061,5.0031e-05,-5.5513e-05,3.4734e-05,-0.00015806,-9.9245e-06,2.4488e-05,1.3704e-05,0.00026964,7.6896e-05,-0.00014629,-0.00011793,-0.00021665,-2.5887e-05,1.1377e-05,9.6544e-05,-1.0802e-05,-9.6908e-05,-0.00071302,-0.00015821,8.4629e-05,-6.3355e-05,-7.6224e-05,-5.4454e-05,-4.8686e-05,5.784e-05,3.9201e-05,-0.00011885,-6.6437e-05,-0.00012153,-6.5513e-05,-2.8073e-05,-4.9795e-05,-1.2529e-05,-3.5952e-05,7.5455e-06,-6.4998e-05,-0.00017467,-9.9602e-05,-0.0001237,5.0949e-05,-0.00021405,-5.7064e-05,-0.00025195,-0.00011797,-0.00010358,-0.0001271,-0.0001689,3.3235e-05,-9.1952e-05,-0.00011857,-5.6475e-05,-3.6003e-05,-0.00041299,-0.00011779,0.00022373,-1.6825e-09,-6.5244e-06,-1.7692e-05,-3.6388e-05,-4.9989e-05,-6.7711e-05,-0.001402,-0.00015885,-0.00022207
-0.0004146,-0.00044567,-0.00079465,-1.2982,-0.00010341,7.0027e-05,-4.8297e-05,0.00021112,0.00023223,-0.00025935,-0.00010803,-4.7887e-05,-0.00029926,-9.3326e-05,0.00014254,-0.00060205,-0.00040919,-0.00026211,0.00037986,0.00027725,-0.00049023,0.00017233,-0.00015465,2.0004e-05,-0.000482,-5.7807e-05,5.4952e-05,-2.3128e-05,0.00067293,0.00013729,-0.00046661,-0.0003366,-0.00059701,-0.00011232,-5.9732e-05,0.0002109,-6.5246e-05,-0.00030564,-0.81614,-0.00040024,0.00015347,-0.00021041,-0.00020377,-0.00022311,-0.00011798,0.00017506,5.597e-05,-0.00021402,-0.0002603,-0.00031782,-0.00017728,-0.00012064,-0.0001339,-2.2047e-05,-8.0032e-05,4.1951e-06,-9.0113e-05,-0.00082775,-0.0003074,-0.00031712,7.9172e-05,-0.00047471,-0.00010003,-0.00082283,-0.00036937,-0.00027974,-0.00035547,-0.00041801,4.4801e-05,-0.00025863,-0.00030038,-9.0755e-05,-0.00013348,-0.00081122,-0.00036674,0.00044969,-0.00025302,-3.2292e-09,-4.9073e-05,-9.9555e-05,-0.00048518,-0.00017744,-0.0023689,-0.0003988,-0.00056384
-9.8084e-05,-0.00011389,-0.000201,-0.78777,-2.4254e-05,2.0801e-05,-8.6692e-06,5.4431e-05,7.0775e-05,-6.1372e-05,-2.6862e-05,-1.0051e-05,-6.8438e-05,-2.1283e-05,4.0474e-05,-0.00015032,-9.8234e-05,-6.505e-05,9.0253e-05,7.5713e-05,-0.00012251,4.254e-05,-3.1136e-05,1.0635e-05,-0.00012052,-1.2103e-05,1.6522e-05,-4.4284e-06,0.0001634,4.0338e-05,-0.00011742,-7.8911e-05,-0.00014919,-2.9017e-05,-1.1526e-05,5.6708e-05,-1.7798e-05,-7.3948e-05,-0.75088,-0.0001056,4.0614e-05,-4.2917e-05,-5.5814e-05,-5.7257e-05,-3.963e-05,3.333e-05,1.4062e-05,-6.7045e-05,-6.2406e-05,-6.9976e-05,-4.3179e-05,-2.2634e-05,-2.9229e-05,-6.4557e-09,-1.5365e-05,1.4872e-07,-2.2206e-05,-0.00021455,-7.7272e-05,-7.1578e-05,1.8109e-05,-0.00011437,-3.261e-05,-0.00020879,-9.2549e-05,-6.7191e-05,-9.1541e-05,-0.0001026,1.299e-05,-6.1725e-05,-7.4974e-05,-2.2258e-05,-3.5353e-05,-0.00030878,-9.0496e-05,0.00010295,-6.1126e-05,-1.9446e-06,-1.3558e-09,-2.2639e-05,-0.00013068,-4.7186e-05,-0.001085,-0.00010268,-0.00014762
-3.1548e-05,-3.5465e-05,-6.1435e-05,-1.0324,-7.8364e-06,7.5556e-06,-2.8526e-06,1.5404e-05,1.641e-05,-1.9181e-05,-7.3697e-06,-3.8133e-06,-2.1684e-05,-8.6211e-06,1.0802e-05,-4.1831e-05,-3.1439e-05,-1.8653e-05,3.0575e-05,1.856e-05,-3.4146e-05,1.0592e-05,-1.0576e-05,2.5442e-06,-3.7468e-05,-4.3412e-06,3.2748e-06,-2.3898e-06,4.6298e-05,1.0846e-05,-3.2812e-05,-2.5222e-05,-4.3291e-05,-8.6164e-06,-3.6809e-06,1.3088e-05,-4.7567e-06,-2.409e-05,-1.2653,-3.1666e-05,9.9982e-06,-1.6373e-05,-1.7375e-05,-1.8277e-05,-1.2001e-05,9.1543e-06,6.0148e-06,-2.1602e-05,-2.0789e-05,-2.0788e-05,-1.5167e-05,-9.4651e-06,-8.6458e-06,-3.0094e-06,-7.095e-06,1.4442e-07,-7.6575e-06,-6.4617e-05,-2.5626e-05,-2.7245e-05,6.0825e-06,-3.8544e-05,-9.5443e-06,-6.3594e-05,-2.6972e-05,-2.1845e-05,-2.8639e-05,-3.3276e-05,3.5317e-06,-2.0127e-05,-2.2225e-05,-8.5068e-06,-7.2289e-06,-9.9272e-05,-2.0844e-05,3.1691e-05,-1.6041e-05,-1.3795e-06,-3.6296e-06,-1.5772e-09,-3.5138e-05,-1.3081e-05,-0.00029451,-3.2005e-05,-4.4896e-05
-0.0048855,-0.0042732,-0.0075668,-0.28552,-0.00096647,0.0030145,-0.00043832,0.0032964,0.0076288,-0.0021028,-0.00024886,0.00016496,1.8928e-05,-0.00072906,0.0023713,-0.0071572,-0.0035297,-0.0029314,0.0064464,0.0037267,-0.0056749,0.001576,-0.0018228,0.0022604,-0.0046312,-0.00024039,0.00071125,0.00048004,0.0083949,0.0024019,-0.0042436,-0.0026462,-0.0065602,-4.4977e-05,-0.00022412,0.0032962,-0.00045222,-0.0018882,-0.0055706,-0.0039129,0.0027585,-0.00084238,-0.00079962,-0.0010478,-0.001117,0.0015448,0.00088112,-0.0020246,-0.00071378,-0.0028108,-0.0014172,-0.0006554,-0.00090335,0.00010243,-0.00068466,0.00023995,-0.0011076,-0.0025626,-0.0024379,-0.0025055,0.0016573,-0.005197,-0.0018066,-0.0067738,-0.0033508,-0.0030452,-0.0036263,-0.0045147,0.0011295,-0.0019893,-0.0030978,-0.0010691,-0.0016305,-0.0046946,-0.0039423,0.0079193,-0.00020771,-6.06e-05,-0.0002932,-0.0012726,-4.1837e-09,-0.002098,-0.014628,-0.0034505,-0.0056268
-0.00022475,-0.00022805,-0.00039225,-1.0169,-4.814e-05,6.0219e-05,-2.1545e-05,0.00010819,0.00014445,-0.00014443,-4.8668e-05,-1.6014e-05,-0.00014823,-4.8944e-05,8.9484e-05,-0.00027143,-0.0002071,-0.00013387,0.00023077,0.00014399,-0.00025222,8.7286e-05,-8.0509e-05,2.5802e-05,-0.0002637,-2.5262e-05,3.0472e-05,-1.4724e-05,0.00035568,7.8581e-05,-0.00022326,-0.00017313,-0.00029777,-5.3255e-05,-3.4663e-05,9.7499e-05,-1.5452e-05,-0.00015551,-0.9557,-0.0002113,8.1409e-05,-9.9996e-05,-9.4773e-05,-0.00012761,-6.1186e-05,7.3106e-05,3.7276e-05,-0.00011857,-0.00013707,-0.00014387,-9.1976e-05,-6.4338e-05,-4.9171e-05,-7.5603e-06,-3.6188e-05,3.6972e-06,-3.7236e-05,-0.00046815,-0.00015948,-0.00018677,4.7963e-05,-0.00025872,-6.7081e-05,-0.00043792,-0.00018154,-0.00014246,-0.00019227,-0.00021962,3.5941e-05,-0.00013979,-0.00015018,-5.1726e-05,-6.1225e-05,-0.00080182,-0.00019484,0.0002354,-0.00011848,-3.5837e-06,-2.9376e-05,-4.8172e-05,-0.00026108,-1.5225e-09,-0.0019157,-0.00020316,-0.0003064
-4.8689e-05,-0.00025677,-0.00047047,-0.00064947,-0.00017992,3.5844e-06,-5.2889e-05,0.00040841,0.0003442,-0.00032053,-3.7016e-05,4.6335e-05,7.5452e-05,0.00021069,-6.5659e-06,-0.00041493,7.7449e-05,-0.00018419,1.791e-05,0.00033013,-0.0003402,0.00052278,-0.00012666,0.00025861,-0.00036063,0.00016787,4.042e-05,-6.1883e-05,0.00098501,0.00049127,-0.00040794,-9.3054e-05,4.4232e-05,3.2373e-05,-7.5184e-05,7.6625e-05,0.00029913,-6.9226e-05,6.5016e-05,-0.00032333,1.3235e-05,-0.00016746,-0.00035498,-0.00016701,-0.00011705,0.00030731,0.00013447,7.3684e-05,-9.1989e-05,-0.0001673,0.00011279,0.00010296,0.00011265,0.00011825,0.00010121,-4.4047e-05,0.00034143,-0.00071022,0.00015597,-1.4469e-05,-0.0001291,-0.00017748,-0.00042699,-0.00045949,-5.3798e-05,6.0771e-05,-0.00026103,-0.00044651,-0.00018151,-0.00034433,9.3773e-05,-3.9133e-05,-0.00016993,-7.1786e-06,-0.00065208,0.000749,-0.00037136,0.00020594,0.0003574,-6.302e-05,0.0003087,-0.00024938,-3.5537e-15,-0.00011983,-0.00023909
-5.4604e-05,-5.2143e-05,-9.6662e-05,-1.4894,-1.4136e-05,1.2435e-05,-5.7073e-06,2.5218e-05,5.8292e-05,-5.1646e-05,-2.1166e-05,3.534e-07,-4.4723e-05,1.3357e-06,2.579e-05,-8.3993e-05,-3.4944e-05,-3.3691e-05,6.4616e-05,5.5488e-05,-7.6285e-05,3.9104e-05,-2.4493e-05,8.0428e-06,-7.3058e-05,-6.736e-06,6.1906e-06,-2.0491e-06,0.00010637,1.788e-05,-6.0863e-05,-3.899e-05,-7.7418e-05,-1.4827e-05,-2.4015e-05,3.1484e-05,-5.9412e-06,-3.2189e-05,-0.090684,-5.6411e-05,2.6158e-05,-1.1661e-05,2.9544e-06,-3.0492e-05,-1.1203e-05,1.4268e-05,5.0322e-06,-8.0309e-06,-3.0263e-05,-3.3384e-05,-8.864e-06,-1.7653e-05,-4.2313e-06,7.2062e-06,-1.2013e-06,7.4981e-06,1.4069e-06,-0.00013454,-3.1035e-05,-3.2522e-05,1.1394e-05,-5.0553e-05,-1.9894e-05,-0.00010303,-4.6962e-05,-3.6208e-05,-4.9603e-05,-4.2341e-05,8.8153e-06,-2.6555e-05,-4.7657e-05,2.6352e-06,-2.6916e-05,-8.7851e-05,-5.7733e-05,8.5056e-05,-4.5806e-05,-7.3096e-07,-7.2704e-06,-1.6645e-05,-7.9359e-05,-2.558e-05,-0.00033329,-2.9055e-09,-7.1057e-05
-8.6512e-05,-9.7202e-05,-0.00016016,-1.0204,-1.8796e-05,2.7035e-05,-9.0601e-06,4.5012e-05,8.2819e-05,-6.8174e-05,-2.475e-05,1.8414e-06,-6.7784e-05,-9.691e-06,3.4919e-05,-0.00012898,-6.5662e-05,-5.901e-05,0.00010891,7.7299e-05,-0.0001097,5.3396e-05,-3.5211e-05,1.8772e-05,-0.0001122,-1.0528e-05,1.1408e-05,2.0946e-06,0.00017172,3.4889e-05,-8.2887e-05,-6.4446e-05,-0.00010975,-1.7379e-05,-1.9979e-05,5.9107e-05,-1.2029e-05,-5.9966e-05,-0.52962,-7.1011e-05,4.8009e-05,-3.036e-05,-1.3029e-05,-4.9001e-05,-1.7802e-05,3.101e-05,1.0928e-05,-2.0188e-05,-5.1556e-05,-5.8101e-05,-2.8968e-05,-2.9873e-05,-2.7104e-06,5.9278e-06,-7.1204e-06,4.9593e-06,-5.6883e-06,-0.0001904,-6.1372e-05,-6.1247e-05,2.042e-05,-9.7829e-05,-2.8888e-05,-0.00017835,-7.5051e-05,-6.0219e-05,-8.2766e-05,-8.423e-05,1.1882e-05,-4.8455e-05,-6.5385e-05,-7.48e-06,-3.5168e-05,-0.00016865,-8.9641e-05,0.0001285,-5.8905e-05,1.7852e-06,-9.9309e-06,-2.4209e-05,-9.2944e-05,-4.1394e-05,-0.00038973,-6.9219e-05,-3.0319e-09
