-2.882e-09,-0.00012517,-0.0003582,-1.1527,-7.9368e-05,2.2673e-05,1.9786e-05,7.2005e-05,0.00019764,-0.00013481,-0.00011208,-4.5184e-05,-0.00021538,-4.4804e-06,1.5481e-05,-0.00033819,-0.00020416,-9.8743e-05,0.00018871,0.00018251,-0.00022396,0.00011582,-7.8233e-05,-0.00011481,-0.00025652,-1.8395e-05,8.4757e-06,-3.2533e-05,0.00033894,5.5242e-05,-0.00021896,-0.00019003,-0.00027837,-9.3098e-05,-5.9511e-05,9.3118e-06,-4.2653e-06,-0.00015341,-0.62903,-0.00021648,5.1745e-05,-5.0582e-05,-6.7962e-06,-0.00016268,-3.1004e-05,7.6764e-05,1.1041e-05,-1.196e-05,-5.2935e-05,-0.0001457,-4.9094e-05,-5.5144e-05,6.5684e-05,-3.4225e-05,-6.6196e-05,1.0469e-05,-3.6485e-05,-0.00044285,-0.00011997,-4.749e-05,3.8643e-05,-0.00019398,-4.6146e-05,-0.00039926,-0.00014389,-0.00011498,-0.00015246,-0.00014992,3.1607e-05,-0.00010214,-0.00019988,1.4907e-05,-9.5119e-05,-0.00030824,-0.00018211,0.0001754,-0.00010498,-8.7944e-06,-3.6754e-05,-4.1065e-05,-0.00028536,-8.6377e-05,-0.0014907,-0.00017291,-0.00025879
-4.6738e-05,-2.1844e-09,-8.5515e-05,-1.6498,-2.2628e-05,6.5481e-06,2.3737e-06,1.5085e-05,4.7757e-05,-3.7328e-05,-2.8625e-05,-1.1557e-05,-5.2863e-05,-1.8736e-06,4.4357e-06,-8.9807e-05,-5.2751e-05,-2.4886e-05,4.2255e-05,4.3043e-05,-6.3497e-05,2.6627e-05,-2.3819e-05,-3.3333e-05,-6.6156e-05,-6.8814e-06,5.1062e-07,-9.3946e-06,7.7403e-05,1.2446e-05,-6.1175e-05,-4.9858e-05,-7.3735e-05,-2.6191e-05,-1.7778e-05,6.4188e-06,-3.7745e-06,-3.7895e-05,-0.21353,-5.9543e-05,1.1862e-05,-9.5981e-06,-4.2075e-07,-4.3188e-05,-6.5807e-06,1.674e-05,5.6552e-07,-2.8863e-06,-1.2293e-05,-3.5555e-05,-1.3582e-05,-1.5402e-05,9.7826e-06,-1.0053e-05,-1.8309e-05,-3.089e-07,-1.085e-05,-0.00010762,-2.7692e-05,-1.1599e-05,1.1657e-05,-5.3754e-05,-1.3996e-05,-9.8124e-05,-3.6937e-05,-3.1851e-05,-4.0386e-05,-3.7483e-05,7.9761e-06,-2.5586e-05,-5.3707e-05,2.2539e-06,-2.7695e-05,-7.3251e-05,-4.7494e-05,4.1414e-05,-2.7632e-05,-4.2174e-06,-1.3572e-05,-1.3287e-05,-7.2039e-05,-2.1412e-05,-0.00055316,-4.213e-05,-7.1149e-05
-5.1462e-05,-3.2479e-05,-2.6018e-09,-0.82154,-2.0303e-05,9.8503e-06,2.7257e-06,1.483e-05,5.2564e-05,-4.0986e-05,-2.6846e-05,-1.1293e-05,-5.5793e-05,-1.5991e-06,5.0091e-06,-8.5969e-05,-5.4464e-05,-3.0348e-05,5.9528e-05,4.5641e-05,-5.932e-05,3.1004e-05,-2.2661e-05,-3.0412e-05,-6.897e-05,-3.7624e-06,-6.9731e-09,-5.8432e-06,8.8597e-05,1.5344e-05,-5.398e-05,-4.705e-05,-6.7666e-05,-2.1696e-05,-1.7898e-05,2.0998e-06,-2.3479e-06,-3.8746e-05,-0.6702,-5.6314e-05,1.4226e-05,-1.0332e-05,4.8888e-06,-4.0887e-05,-6.1831e-06,1.819e-05,-2.7591e-07,-5.923e-07,-1.3585e-05,-3.2486e-05,-1.5482e-05,-1.9735e-05,2.1946e-05,-7.3702e-06,-1.56e-05,2.311e-06,-7.5151e-06,-0.00011073,-3.3102e-05,-7.8957e-06,1.1281e-05,-5.4119e-05,-1.3659e-05,-0.00010927,-3.6e-05,-3.2237e-05,-4.5383e-05,-4.0307e-05,9.1895e-06,-2.7641e-05,-5.1864e-05,1.0905e-06,-2.7213e-05,-7.824e-05,-5.4487e-05,4.5301e-05,-2.5444e-05,-4.0204e-06,-1.2866e-05,-1.3551e-05,-5.5236e-05,-2.1003e-05,-0.00024599,-4.2053e-05,-6.8389e-05
-2.8068e-05,-1.5882e-05,-4.9203e-05,-2.527e-09,-1.0495e-05,1.248e-05,2.6088e-06,1.6417e-05,4.9495e-05,-1.6288e-05,-1.1296e-05,-3.2479e-06,-1.3476e-05,4.1026e-07,7.7199e-06,-5.2905e-05,-2.8905e-05,-1.4664e-05,4.5021e-05,3.1918e-05,-3.5522e-05,1.5557e-05,-1.3704e-05,-9.9517e-06,-3.4833e-05,-1.8547e-06,2.5691e-06,-2.3763e-06,5.4452e-05,1.059e-05,-3.1796e-05,-2.5028e-05,-4.1247e-05,-1.1808e-05,-6.848e-06,5.7246e-06,-4.2026e-07,-1.5934e-05,-3.8545e-05,-3.1388e-05,1.1557e-05,-1.6907e-06,4.216e-06,-1.8711e-05,-2.212e-06,1.2301e-05,2.8495e-06,-4.1023e-07,4.2204e-07,-2.0797e-05,-4.0785e-06,-5.345e-06,7.7014e-06,-2.2355e-06,-7.9632e-06,3.4768e-06,-7.7001e-06,-2.4407e-05,-1.125e-05,2.4089e-06,9.3751e-06,-2.9924e-05,-8.4215e-06,-5.1093e-05,-1.8355e-05,-1.8281e-05,-2.13e-05,-2.1351e-05,6.3619e-06,-1.174e-05,-3.2401e-05,3.7174e-07,-1.593e-05,-2.2682e-05,-2.6668e-05,3.8022e-05,-3.0753e-06,-9.4396e-07,-4.875e-06,-7.1749e-06,-5.2964e-06,-1.2706e-05,-0.00015732,-2.2113e-05,-3.884e-05
-8.7472e-05,-6.7959e-05,-0.00015627,-0.77003,-2.3457e-09,2.5007e-05,9.9427e-06,3.505e-05,8.3219e-05,-5.7492e-05,-3.8515e-05,-1.7988e-05,-8.7327e-05,-1.3206e-05,1.102e-05,-0.00013567,-0.00010027,-5.0521e-05,9.7902e-05,6.9368e-05,-9.1961e-05,3.9939e-05,-3.2771e-05,-4.4325e-05,-0.0001132,-6.6014e-06,5.1764e-06,-9.3264e-06,0.00015017,3.3114e-05,-8.4129e-05,-8.2499e-05,-0.00010827,-3.4483e-05,-1.8195e-05,4.6462e-06,-3.1014e-06,-7.0836e-05,-0.93459,-8.5297e-05,2.5244e-05,-2.56e-05,-9.9637e-06,-6.7014e-05,-1.4409e-05,3.6054e-05,6.43e-06,-1.7488e-05,-2.651e-05,-5.1357e-05,-3.1258e-05,-3.0359e-05,3.4329e-05,-1.673e-05,-2.9345e-05,3.3691e-06,-2.1004e-05,-0.00017127,-6.2995e-05,-3.0401e-05,2.1911e-05,-0.00010093,-2.0939e-05,-0.00018676,-5.5277e-05,-5.1391e-05,-7.2464e-05,-7.5283e-05,1.9257e-05,-4.7613e-05,-8.4481e-05,-8.9563e-06,-3.7229e-05,-0.00017553,-8.2573e-05,6.932e-05,-3.7492e-05,-4.4226e-06,-1.9178e-05,-1.776e-05,-9.5835e-05,-3.4179e-05,-0.00044601,-8.2221e-05,-0.00011585
-7.2105e-05,-4.3617e-05,-0.00011991,-1.248,-2.0051e-05,-2.9482e-09,1.1032e-05,4.5193e-05,0.00010041,-2.9185e-05,-1.8018e-05,-9.2741e-06,-4.943e-05,-1.3928e-05,1.6997e-05,-0.00010066,-7.692e-05,-3.6066e-05,6.7105e-05,5.0761e-05,-7.1305e-05,2.3596e-05,-2.4506e-05,-1.625e-05,-7.4332e-05,-9.7253e-07,8.6083e-06,3.3775e-06,0.00012122,3.4591e-05,-5.2344e-05,-5.062e-05,-7.2594e-05,-1.793e-05,5.0064e-07,9.8066e-06,-2.7652e-06,-4.73e-05,-0.000317,-5.9765e-05,3.4733e-05,1.2206e-05,3.0258e-06,-4.2238e-05,-9.2021e-06,3.2747e-05,1.2545e-05,-2.4926e-05,7.4058e-06,-1.9036e-05,-2.2381e-05,-1.6539e-05,3.5207e-05,-2.0301e-05,-3.201e-05,1.0109e-05,-2.5902e-05,-9.3953e-05,-3.903e-05,-5.1613e-05,3.3961e-05,-9.0198e-05,-1.5232e-05,-0.00012729,-3.9232e-05,-3.4891e-05,-5.224e-05,-6.0475e-05,4.2838e-05,-3.2997e-05,-6.1763e-05,-1.4311e-05,-2.2915e-05,-6.6829e-05,-5.4386e-05,7.5846e-05,-6.1751e-06,-2.9528e-06,-1.3878e-05,-1.0742e-05,-3.5826e-05,-2.3724e-05,-0.00021756,-6.0823e-05,-8.6281e-05
-2.3192e-05,-1.8593e-05,-4.489e-05,-1.1443,-8.6334e-06,5.7792e-06,-1.7437e-09,8.8998e-06,1.9954e-05,-1.407e-05,-1.1744e-05,-6.1328e-06,-2.3227e-05,-4.0129e-06,1.8157e-06,-3.7473e-05,-2.7963e-05,-1.2581e-05,1.9656e-05,1.7644e-05,-2.5194e-05,9.1266e-06,-9.1297e-06,-1.4697e-05,-2.9111e-05,-2.2923e-06,3.0905e-06,-3.5997e-06,3.5675e-05,7.3409e-06,-2.5495e-05,-2.2054e-05,-3.2239e-05,-1.0461e-05,-4.2647e-06,5.263e-07,-2.1438e-06,-1.9905e-05,-1.1674,-2.4516e-05,5.4262e-06,-7.3678e-06,-4.9105e-06,-1.9184e-05,-4.5047e-06,8.9815e-06,1.2217e-06,-6.1957e-06,-8.1153e-06,-1.603e-05,-9.361e-06,-7.6536e-06,5.9688e-06,-5.3567e-06,-8.8615e-06,7.9345e-07,-6.3266e-06,-4.5561e-05,-1.7071e-05,-8.7012e-06,5.8156e-06,-2.8014e-05,-6.0593e-06,-5.1403e-05,-1.7391e-05,-1.3997e-05,-1.7062e-05,-2.0894e-05,4.8281e-06,-1.3522e-05,-2.0441e-05,-2.5183e-06,-9.9478e-06,-5.5389e-05,-2.0788e-05,1.6174e-05,-1.1479e-05,-2.0611e-06,-5.5552e-06,-4.5867e-06,-2.6651e-05,-9.8885e-06,-0.00016182,-2.2995e-05,-3.2971e-05
-4.2745e-05,-3.516e-05,-8.7112e-05,-1.8279,-1.5602e-05,1.1955e-05,3.2565e-06,-1.5992e-09,2.9204e-05,-1.821e-05,-1.7284e-05,-1.2305e-05,-3.7093e-05,-9.3668e-06,5.6924e-06,-7.1189e-05,-5.4898e-05,-2.3359e-05,2.7095e-05,3.0283e-05,-4.4782e-05,1.2108e-05,-1.6042e-05,-2.3352e-05,-4.6212e-05,-2.2751e-06,2.4083e-06,-6.5055e-06,5.8719e-05,1.2179e-05,-4.6691e-05,-4.3425e-05,-5.973e-05,-1.9326e-05,-2.1013e-06,2.9527e-06,-4.2072e-06,-3.6265e-05,-0.096936,-4.5616e-05,8.5084e-06,-1.8958e-05,-2.0993e-05,-3.1513e-05,-1.1653e-05,1.6342e-05,4.297e-06,-2.3756e-05,-1.4338e-05,-3.1494e-05,-1.8234e-05,-9.9109e-06,4.4837e-06,-1.3838e-05,-2.0277e-05,2.7647e-06,-1.8349e-05,-7.0758e-05,-2.589e-05,-2.0335e-05,9.6935e-06,-5.4833e-05,-1.1386e-05,-8.8229e-05,-3.1463e-05,-2.5111e-05,-3.1172e-05,-3.949e-05,7.2056e-06,-2.2973e-05,-3.8275e-05,-7.9996e-06,-1.4856e-05,-9.811e-05,-3.2461e-05,2.8282e-05,-1.3499e-05,-2.7633e-06,-9.8871e-06,-7.4027e-06,-5.4823e-05,-1.6931e-05,-0.00053189,-4.6349e-05,-6.1014e-05
-8.0563e-05,-4.0095e-05,-0.00015171,-1.1109,-2.9685e-05,7.7861e-05,1.7365e-05,5.404e-05,-2.0063e-09,-4.9631e-05,-3.2215e-05,5.7313e-06,-5.6665e-05,6.7283e-06,2.3742e-05,-0.00016182,-7.473e-05,-3.8586e-05,0.00013759,0.00010209,-0.00010994,5.8231e-05,-3.7735e-05,-3.0916e-05,-0.00010742,-1.8077e-06,1.1666e-05,3.3745e-06,0.00018717,6.2394e-05,-7.7098e-05,-6.1126e-05,-0.00011875,-1.9429e-05,-2.2258e-05,1.8641e-05,7.493e-06,-4.7385e-05,-0.0001554,-9.8428e-05,5.7967e-05,2.4949e-05,0.00010318,-4.533e-05,-4.5348e-06,3.9184e-05,1.1766e-05,-2.6156e-06,1.9998e-05,-5.3719e-05,-9.9931e-06,-1.58e-05,9.8678e-05,-8.084e-06,-2.5354e-05,1.3e-05,-2.4728e-05,-9.7888e-05,-3.062e-05,-1.1794e-05,3.8719e-05,-9.0935e-05,-2.4718e-05,-0.00015165,-5.555e-05,-4.3727e-05,-5.8605e-05,-5.9771e-05,3.4101e-05,-3.3079e-05,-8.9728e-05,1.6403e-05,-5.2832e-05,-1.503e-05,-8.6357e-05,0.00013437,-5.8485e-06,-3.8033e-06,-1.5956e-05,-2.3286e-05,-2.0489e-05,-3.7492e-05,-0.00032656,-5.9078e-05,-0.00010728
-0.00018262,-0.00015183,-0.00037401,-2.007,-7.2815e-05,4.6949e-05,1.4506e-05,9.2418e-05,0.00013388,-1.9369e-09,-7.4108e-05,-4.8966e-05,-0.00015623,-4.3937e-05,2.6785e-05,-0.0003194,-0.00024074,-0.00010152,0.00012142,0.00011263,-0.00019497,4.99e-05,-6.7966e-05,-0.00011625,-0.00020338,-1.1653e-05,1.5965e-05,-2.4991e-05,0.00025543,5.3883e-05,-0.00021551,-0.0001926,-0.00025412,-9.2377e-05,8.0824e-06,8.202e-06,-1.5309e-05,-0.0001536,-0.04363,-0.00020297,3.64e-05,-8.9836e-05,-0.0001064,-0.00013168,-4.8299e-05,7.5448e-05,1.9544e-05,-0.00010624,-6.7304e-05,-0.00015856,-7.5486e-05,-3.9246e-05,-6.4267e-06,-6.168e-05,-8.95e-05,3.8768e-06,-8.0615e-05,-0.0003048,-0.0001198,-9.7231e-05,4.0818e-05,-0.0002401,-4.9235e-05,-0.00038281,-0.00014715,-0.00011445,-0.00013491,-0.00017618,2.0971e-05,-0.00011418,-0.00016519,-3.9783e-05,-6.7818e-05,-0.00050183,-0.00014348,0.00011851,-4.7737e-05,-1.1216e-05,-3.8079e-05,-3.5747e-05,-0.0002225,-7.5879e-05,-0.0022806,-0.00020899,-0.00026402
-0.00018863,-0.00014611,-0.00031783,-1.2799,-6.0301e-05,5.2885e-05,9.9579e-06,7.2109e-05,0.00012501,-8.9773e-05,-2.9265e-09,-4.2983e-05,-0.00014968,-4.5162e-05,2.6035e-05,-0.00027588,-0.0002263,-0.0001001,0.00018282,0.00010503,-0.00017498,5.3003e-05,-6.6172e-05,-9.1115e-05,-0.00020859,-1.3382e-05,1.1659e-05,-2.0367e-05,0.00025133,5.2224e-05,-0.00017909,-0.00016973,-0.00022523,-7.6037e-05,-1.5246e-05,9.4219e-06,-1.9468e-05,-0.00014985,-0.28321,-0.00017913,3.352e-05,-6.7554e-05,-7.1256e-05,-0.00012835,-4.3423e-05,6.3105e-05,1.7483e-05,-7.3461e-05,-7.0412e-05,-0.00012095,-8.3226e-05,-5.7491e-05,2.481e-05,-4.4389e-05,-6.7004e-05,1.0789e-06,-6.4409e-05,-0.00030047,-0.00013988,-7.2195e-05,3.5373e-05,-0.00023487,-4.829e-05,-0.0003719,-0.00012002,-0.00010316,-0.00014862,-0.00016919,2.6719e-05,-0.00010765,-0.00016173,-3.759e-05,-5.7565e-05,-0.00046164,-0.00014475,0.00010914,-3.4667e-05,-1.5018e-05,-4.3321e-05,-3.396e-05,-0.00017987,-6.8408e-05,-0.0010349,-0.00019425,-0.00025069
-7.1436e-05,-5.133e-05,-0.00012907,-1.4156,-2.6124e-05,1.8387e-05,4.507e-06,2.3795e-05,7.6219e-05,-4.8173e-05,-3.3321e-05,-1.9831e-09,-6.9311e-05,-9.0849e-06,6.9389e-06,-0.00010913,-7.7944e-05,-3.6415e-05,6.8905e-05,5.6391e-05,-8.4935e-05,3.3895e-05,-2.9092e-05,-3.5983e-05,-8.8081e-05,-7.3755e-06,2.146e-06,9.5622e-06,0.0001212,2.5145e-05,-6.7341e-05,-6.3198e-05,-8.8172e-05,-2.6872e-05,-1.8138e-05,2.2406e-05,-2.8362e-06,-5.3155e-05,-0.25348,-7.1698e-05,4.1547e-05,-1.6937e-05,-2.8445e-06,-4.9525e-05,-7.5649e-06,2.6568e-05,4.5892e-06,-7.6261e-06,-1.8692e-05,-4.8404e-05,-2.218e-05,-2.2545e-05,2.4698e-05,-1.7134e-05,-2.8635e-05,9.5721e-07,-1.8239e-05,-0.00014341,-4.62e-05,-3.2874e-05,1.7182e-05,-8.2334e-05,-1.8389e-05,-0.00014242,-4.6467e-05,-4.4543e-05,-5.7341e-05,-5.7664e-05,1.2454e-05,-3.7749e-05,-7.3005e-05,-5.7918e-06,-3.2414e-05,-9.9938e-05,-6.4598e-05,6.6322e-05,-3.1046e-05,-4.3343e-06,-1.6443e-05,-1.5494e-05,-9.4529e-05,-2.8392e-05,-0.00033722,-6.2685e-05,-9.1265e-05
-0.00013943,-8.0117e-05,-0.00025541,-0.34742,-5.2994e-05,6.4716e-05,1.16e-05,8.7202e-05,0.00021297,-5.306e-05,-4.3541e-05,-1.7477e-05,-2.76e-09,-1.2403e-05,2.689e-05,-0.00025792,-0.00014463,-7.123e-05,0.00015994,0.00011351,-0.00016747,5.0105e-05,-5.8283e-05,-4.7508e-05,-0.00015103,-7.4427e-06,1.678e-05,-5.9552e-06,0.00022459,5.7516e-05,-0.00015412,-0.00012165,-0.00019199,-5.8477e-05,-1.2317e-05,3.7936e-05,-4.4457e-06,-8.3358e-05,-0.00021185,-0.0001486,5.0481e-05,-1.6675e-05,-1.2044e-05,-8.3675e-05,-1.7864e-05,5.3977e-05,1.7779e-05,-3.9109e-05,3.7008e-06,-0.00011083,-2.9772e-05,-2.0307e-05,1.9048e-05,-2.7902e-05,-5.4682e-05,1.2862e-05,-5.8715e-05,-0.00010988,-5.7694e-05,-1.5836e-05,4.3415e-05,-0.00015056,-4.4884e-05,-0.00023643,-9.7539e-05,-8.312e-05,-9.1411e-05,-0.00010693,2.8687e-05,-6.2467e-05,-0.00013977,-9.5475e-06,-6.5472e-05,-0.00011651,-0.00011306,0.00014805,-8.1315e-06,-6.4121e-06,-2.4249e-05,-3.3173e-05,-3.2396e-05,-5.7647e-05,-0.00086755,-0.00011539,-0.00018694
-3.7615e-05,-2.5085e-05,-7.0733e-05,-1.6446,-1.8128e-05,1.9647e-06,2.6148e-06,1.3734e-05,4.0321e-05,-3.1489e-05,-2.4378e-05,-1.0561e-05,-4.5042e-05,-1.5834e-09,2.5527e-06,-7.5175e-05,-4.0211e-05,-2.095e-05,3.7771e-05,4.0855e-05,-5.0205e-05,2.6617e-05,-1.8494e-05,-2.8802e-05,-5.3453e-05,-4.1102e-06,4.1477e-07,-8.4685e-06,6.5124e-05,9.7397e-06,-4.9603e-05,-4.1574e-05,-6.0253e-05,-2.203e-05,-1.6572e-05,3.4901e-06,-2.534e-06,-3.018e-05,-0.36681,-4.9444e-05,9.5457e-06,-7.9406e-06,1.554e-06,-3.4803e-05,-6.6987e-06,1.3975e-05,2.9842e-07,-1.3404e-06,-1.1182e-05,-2.9388e-05,-8.3715e-06,-1.3269e-05,1.1671e-05,-6.0074e-06,-1.2478e-05,3.3364e-06,-5.1641e-06,-9.0431e-05,-2.1336e-05,-5.4758e-06,6.4745e-06,-3.9917e-05,-1.2087e-05,-8.5672e-05,-3.3029e-05,-2.6688e-05,-3.2033e-05,-2.9862e-05,5.5668e-06,-1.9256e-05,-4.2481e-05,4.9955e-06,-2.3575e-05,-5.4279e-05,-4.0311e-05,3.4892e-05,-2.7837e-05,-3.1262e-06,-1.0513e-05,-1.0898e-05,-6.0877e-05,-1.8717e-05,-0.00034717,-3.3028e-05,-5.6226e-05
-7.5857e-05,-5.6429e-05,-0.00013969,-1.2546,-2.7978e-05,1.7479e-05,5.6779e-06,3.1329e-05,5.6979e-05,-3.6297e-05,-2.7964e-05,-2.0104e-05,-6.3771e-05,-1.6425e-05,-2.6404e-09,-0.00012446,-9.114e-05,-4.1066e-05,5.1098e-05,4.687e-05,-8.359e-05,2.3182e-05,-3.0722e-05,-4.4616e-05,-8.6367e-05,-8.2864e-06,4.9448e-06,-1.1262e-05,0.00010625,1.8238e-05,-9.2999e-05,-7.7665e-05,-0.00011377,-4.0133e-05,-9.3096e-06,1.0226e-05,-7.0896e-06,-6.0631e-05,-0.15188,-8.8254e-05,1.2035e-05,-3.136e-05,-3.1796e-05,-5.6034e-05,-2.1085e-05,2.4412e-05,4.9154e-06,-3.4661e-05,-2.3877e-05,-6.8279e-05,-2.7899e-05,-2.0346e-05,7.7898e-07,-1.5e-05,-2.6219e-05,2.4046e-06,-3.1495e-05,-0.00013048,-5.091e-05,-3.1508e-05,1.4669e-05,-9.6682e-05,-2.2542e-05,-0.00014846,-5.642e-05,-4.5936e-05,-5.5442e-05,-7.2396e-05,6.5885e-06,-4.7405e-05,-6.9008e-05,-1.3094e-05,-3.223e-05,-0.00028266,-6.2757e-05,5.113e-05,-1.6991e-05,-8.667e-06,-1.9127e-05,-1.8122e-05,-9.695e-05,-3.1521e-05,-0.0014005,-7.9078e-05,-0.00011689
-5.1393e-05,-4.0592e-05,-8.9735e-05,-0.80538,-1.7563e-05,1.5849e-05,6.2344e-06,1.8221e-05,4.7883e-05,-3.6788e-05,-2.4716e-05,-8.6678e-06,-5.5396e-05,-8.152e-06,5.569e-06,-2.245e-09,-5.8396e-05,-2.7585e-05,5.6864e-05,4.0188e-05,-5.6437e-05,2.5322e-05,-1.9247e-05,-2.5162e-05,-7.0493e-05,-5.8217e-06,3.1385e-06,-3.8395e-06,9.0692e-05,1.7645e-05,-5.1857e-05,-4.7065e-05,-5.9816e-05,-2.06e-05,-1.1619e-05,4.3068e-06,1.6556e-06,-4.3346e-05,-0.71028,-5.397e-05,1.7176e-05,-1.2548e-05,-3.8789e-06,-4.139e-05,-9.2133e-06,2.2072e-05,4.9211e-06,-8.948e-06,-1.8995e-05,-2.9803e-05,-1.9768e-05,-1.781e-05,1.9713e-05,-1.0942e-05,-1.929e-05,1.3807e-06,-1.1918e-05,-0.00012968,-3.82e-05,-2.2783e-05,1.1514e-05,-6.0601e-05,-1.2161e-05,-0.00011095,-3.4264e-05,-3.3334e-05,-4.4573e-05,-4.3883e-05,1.1526e-05,-3.2546e-05,-5.2687e-05,-5.3926e-06,-2.0786e-05,-8.9713e-05,-4.7269e-05,4.5338e-05,-2.3819e-05,-2.5059e-06,-1.1123e-05,-8.6292e-06,-6.4828e-05,-1.5901e-05,-0.00021818,-4.8283e-05,-7.0265e-05
-5.588e-05,-3.5665e-05,-0.00010473,-1.2207,-2.5189e-05,9.3471e-06,6.1444e-06,2.067e-05,7.6592e-05,-5.0712e-05,-3.718e-05,-1.0902e-05,-6.9101e-05,5.0796e-06,7.1858e-06,-0.00010777,-2.6619e-09,-2.9858e-05,5.811e-05,6.8032e-05,-7.4284e-05,4.2742e-05,-2.7265e-05,-3.6858e-05,-8.6955e-05,-4.8685e-06,-1.5874e-07,-9.4376e-06,0.00011273,1.8864e-05,-6.1327e-05,-5.8001e-05,-7.4543e-05,-2.9076e-05,-2.509e-05,6.5568e-06,-2.2995e-06,-4.5276e-05,-0.098825,-6.8095e-05,1.9184e-05,-8.424e-06,1.2754e-05,-5.0849e-05,-4.2331e-06,2.1327e-05,3.4214e-06,8.1554e-06,-1.2878e-05,-4.082e-05,-9.7425e-06,-2.0898e-05,3.2715e-05,-5.2094e-06,-1.5875e-05,5.5879e-06,-3.906e-06,-0.00014895,-3.058e-05,-8.1612e-06,1.4384e-05,-5.6627e-05,-1.6843e-05,-0.00013098,-5.0609e-05,-3.7013e-05,-4.7501e-05,-4.2923e-05,1.0812e-05,-2.9948e-05,-6.1468e-05,1.0549e-05,-3.6079e-05,-7.6147e-05,-6.2263e-05,7.0315e-05,-4.2386e-05,-4.3494e-06,-1.4429e-05,-1.3871e-05,-9.117e-05,-2.6793e-05,-0.00028899,-4.4814e-05,-7.6841e-05
-6.6443e-05,-4.6239e-05,-0.00013307,-1.6008,-2.9451e-05,1.1816e-05,7.5468e-06,2.652e-05,6.3118e-05,-4.5933e-05,-3.6361e-05,-1.4528e-05,-7.3493e-05,-6.2399e-06,6.1985e-06,-0.00011957,-7.6325e-05,-3.2381e-10,6.2009e-05,5.8056e-05,-8.19e-05,3.4027e-05,-2.9693e-05,-4.428e-05,-9.0615e-05,-6.4253e-06,4.4559e-06,-1.2527e-05,0.00010882,1.8284e-05,-8.3113e-05,-7.0692e-05,-0.00010037,-3.5666e-05,-1.7281e-05,4.1495e-06,-3.475e-06,-5.5207e-05,-0.57383,-8.384e-05,1.7953e-05,-1.7608e-05,-1.169e-05,-5.9214e-05,-1.3371e-05,2.5788e-05,9.3815e-06,-1.3206e-05,-2.273e-05,-5.0017e-05,-2.0934e-05,-1.9707e-05,1.6007e-05,-1.5621e-05,-2.6352e-05,6.4987e-06,-1.7915e-05,-0.00014461,-4.507e-05,-2.1403e-05,1.5007e-05,-7.3762e-05,-1.8159e-05,-0.00014836,-5.7147e-05,-4.4371e-05,-5.4081e-05,-5.3518e-05,1.2053e-05,-3.7635e-05,-6.8446e-05,1.4976e-06,-2.6545e-05,-0.00012193,-5.8735e-05,5.6448e-05,-3.6136e-05,-3.6877e-06,-1.6257e-05,-1.159e-05,-9.1869e-05,-2.7824e-05,-0.00075512,-6.3374e-05,-9.8674e-05
-0.00051759,-0.00041846,-0.00084338,-0.8736,-0.0001727,7.4792e-05,2.6851e-05,0.00015222,0.00044482,-0.00035015,-0.000161,-0.00011511,-0.00046615,-8.5401e-05,5.8092e-05,-0.00078144,-0.00061343,-0.00028317,-2.7727e-09,0.00036854,-0.00047411,0.00021212,-0.00019897,-0.00031892,-0.00064176,-5.5642e-05,-6.1776e-06,-7.185e-05,0.00082327,0.00015262,-0.00040684,-0.00048451,-0.00059324,-0.00022552,-0.00013589,4.334e-05,1.0355e-05,-0.00042746,-0.3914,-0.00051132,0.00010934,-0.00013769,-7.4351e-05,-0.00044499,-0.00011881,0.0001751,9.4469e-06,-9.2121e-05,-0.0001704,-0.00032573,-0.00019806,-0.00020888,0.00023217,-0.00012669,-0.00020096,-3.275e-06,-0.00015146,-0.0010147,-0.00037497,-0.00011648,7.0134e-05,-0.00057317,-0.00014067,-0.0011286,-0.00035626,-0.00028589,-0.0004375,-0.00046083,6.2416e-05,-0.00027527,-0.00047412,-5.5668e-05,-0.00019649,-0.001408,-0.00046018,0.00033979,-0.00012911,-5.4024e-05,-0.00014832,-8.7533e-05,-0.00050579,-0.00019578,-0.0034535,-0.00047099,-0.00068063
-0.00032892,-0.00022612,-0.00063616,-1.206,-0.00014402,3.4412e-05,4.1681e-05,0.0001718,0.00036041,-0.00025772,-0.00019726,-9.2948e-05,-0.00038484,1.0917e-05,2.422e-05,-0.00063908,-0.00035435,-0.00018133,0.00033918,-3.0398e-09,-0.00041007,0.00021571,-0.00014194,-0.00021782,-0.00044575,-2.0428e-05,1.1486e-05,-6.7942e-05,0.00059991,9.3184e-05,-0.00041301,-0.00035163,-0.00049618,-0.00017827,-0.000123,2.9685e-05,-2.5448e-05,-0.00026255,-0.45796,-0.0003995,8.9032e-05,-7.112e-05,5.5077e-06,-0.00029249,-3.9164e-05,0.00013043,1.9717e-05,-3.5801e-07,-0.00010489,-0.00024404,-8.956e-05,-0.00010899,0.00010926,-4.4674e-05,-0.0001025,2.6415e-05,-5.6735e-05,-0.00072591,-0.00017313,-4.8747e-05,6.8613e-05,-0.00034971,-9.0492e-05,-0.00075606,-0.00029355,-0.00020795,-0.00027376,-0.00026146,6.2549e-05,-0.00014862,-0.00037027,4.0744e-05,-0.00018691,-0.00047604,-0.00034062,0.00029223,-0.00019494,-1.3617e-05,-7.2731e-05,-8.055e-05,-0.00046106,-0.00015742,-0.0039574,-0.00030097,-0.00048471
-4.7502e-05,-4.1314e-05,-8.6279e-05,-0.84146,-1.7408e-05,6.8134e-06,3.9193e-06,1.6519e-05,3.2658e-05,-2.8646e-05,-2.1386e-05,-1.4899e-05,-4.9624e-05,-9.9189e-06,3.1531e-06,-7.6623e-05,-5.8012e-05,-2.7863e-05,5.0367e-05,3.2113e-05,-1.6971e-09,1.9627e-05,-1.7736e-05,-2.9096e-05,-5.7764e-05,-3.9978e-06,5.9736e-07,-8.3551e-06,7.1348e-05,1.2951e-05,-5.039e-05,-4.7704e-05,-5.9318e-05,-2.2267e-05,-8.1835e-06,-5.6842e-06,-3.3813e-06,-4.2813e-05,-0.85028,-5.2172e-05,6.6094e-06,-2.1e-05,-1.8962e-05,-4.0123e-05,-1.1931e-05,1.868e-05,3.4492e-06,-1.7642e-05,-2.1754e-05,-3.4527e-05,-1.8756e-05,-1.6594e-05,8.2567e-06,-1.422e-05,-2.0428e-05,1.7432e-08,-1.4199e-05,-0.00010068,-3.4272e-05,-2.0784e-05,8.2229e-06,-5.8907e-05,-1.3455e-05,-0.00010946,-3.4844e-05,-2.7259e-05,-4.0264e-05,-4.4357e-05,6.6094e-06,-2.8267e-05,-4.421e-05,-7.3284e-06,-1.7154e-05,-9.8647e-05,-4.0498e-05,3.1893e-05,-1.868e-05,-4.0899e-06,-1.1776e-05,-8.8879e-06,-5.7994e-05,-1.9692e-05,-0.00022908,-5.0186e-05,-6.6477e-05
-0.00026829,-0.00018839,-0.00048828,-1.1256,-0.00012069,2.1394e-05,1.9382e-05,9.1333e-05,0.00028547,-0.0002356,-0.00016699,-6.8578e-05,-0.00033799,1.1136e-05,2.1704e-05,-0.00050258,-0.00030063,-0.00015552,0.00030864,0.0002855,-0.00031937,-1.9897e-09,-0.00012424,-0.00019388,-0.00039355,-1.3321e-05,2.1108e-06,-5.184e-05,0.00050072,6.9616e-05,-0.00034409,-0.00028264,-0.00040413,-0.0001376,-0.00011531,-7.357e-06,5.5412e-07,-0.0002262,-1.0756,-0.00033425,7.2848e-05,-6.221e-05,1.0368e-07,-0.00025625,-3.5113e-05,0.00010912,1.7171e-06,1.2309e-05,-8.5893e-05,-0.00019129,-7.4231e-05,-0.00010521,8.4873e-05,-4.1767e-05,-8.767e-05,1.6071e-05,-3.8545e-05,-0.00064959,-0.00016128,-5.1696e-05,4.3997e-05,-0.00028784,-7.6812e-05,-0.00060532,-0.00021248,-0.00018949,-0.00024553,-0.00021168,5.3903e-05,-0.00014432,-0.00028162,5.1485e-05,-0.00015989,-0.00040546,-0.00028618,0.00026529,-0.00016728,-1.3806e-05,-7.3954e-05,-7.0833e-05,-0.000407,-0.00012796,-0.0016841,-0.00024137,-0.00038345
-3.7489e-05,-3.1922e-05,-7.1457e-05,-1.1126,-1.3898e-05,7.3597e-06,3.3508e-06,1.4274e-05,2.781e-05,-2.2202e-05,-1.7495e-05,-9.7074e-06,-3.7881e-05,-7.2219e-06,3.0227e-06,-5.9784e-05,-4.6667e-05,-2.179e-05,3.6902e-05,2.7597e-05,-3.9157e-05,1.4977e-05,-1.8455e-09,-2.3487e-05,-4.7399e-05,-3.1551e-06,1.9823e-06,-5.001e-06,5.7355e-05,1.1662e-05,-4.0198e-05,-3.8322e-05,-4.9068e-05,-1.8909e-05,-5.9547e-06,-5.2533e-08,-2.8775e-06,-3.2644e-05,-1.0552,-4.0908e-05,8.3182e-06,-1.3894e-05,-1.1833e-05,-3.0003e-05,-9.2358e-06,1.4837e-05,2.8892e-06,-1.3336e-05,-1.4663e-05,-2.6334e-05,-1.4797e-05,-1.1531e-05,7.5799e-06,-1.0347e-05,-1.589e-05,5.4061e-07,-1.0733e-05,-7.9018e-05,-2.7544e-05,-1.7779e-05,7.7819e-06,-4.2733e-05,-9.2256e-06,-8.4187e-05,-2.7119e-05,-2.3935e-05,-3.2167e-05,-3.395e-05,5.9176e-06,-2.1998e-05,-3.6388e-05,-5.2549e-06,-1.4691e-05,-0.00010309,-3.3095e-05,2.6381e-05,-1.6429e-05,-2.639e-06,-7.0597e-06,-6.6407e-06,-4.5807e-05,-1.5663e-05,-0.00022626,-3.9524e-05,-5.399e-05
-0.00013368,-0.00010231,-0.00023729,-0.52378,-4.2405e-05,6.6896e-05,1.2608e-05,5.9622e-05,0.00014369,-9.4201e-05,-5.3493e-05,-2.1458e-05,-0.0001153,-2.5471e-05,1.4185e-05,-0.00019525,-0.00015266,-7.4195e-05,0.00012272,0.00010787,-0.00014466,5.8438e-05,-5.5578e-05,-3.0624e-09,-0.0001731,-2.8265e-06,1.0543e-05,-5.3595e-06,0.00023581,5.2944e-05,-0.00011537,-9.0603e-05,-0.00017321,-2.8728e-05,-2.772e-05,9.0715e-06,-8.5685e-06,-0.00010731,-0.03352,-0.00011412,5.0676e-05,-1.0268e-05,3.8329e-07,-8.3859e-05,-1.7034e-05,4.6032e-05,1.555e-05,-2.3274e-05,-2.3182e-05,-6.5584e-05,-4.9737e-05,-4.449e-05,6.4145e-05,-2.8275e-05,-4.7792e-05,6.9396e-06,-3.1687e-05,-0.00023215,-0.00010831,-6.1968e-05,4.4457e-05,-0.00016565,-3.1967e-05,-0.00025275,-7.3196e-05,-8.112e-05,-0.0001113,-0.00011569,5.6982e-05,-7.7219e-05,-0.00012952,-1.2375e-05,-5.3434e-05,-0.00020906,-0.00011476,0.00012481,-5.51e-05,-8.3139e-06,-2.3729e-05,-2.0961e-05,-0.00011391,-5.201e-05,-0.0005855,-0.000127,-0.00017481
-0.00031297,-0.0002339,-0.00057693,-1.4289,-0.00013146,7.2089e-05,2.2004e-05,0.00013446,0.00025652,-0.00017875,-0.00015069,-6.7432e-05,-0.00030272,-4.1488e-05,3.3651e-05,-0.00054221,-0.00037748,-0.00017524,0.00025611,0.00024577,-0.00034058,0.00012839,-0.00012952,-0.00019002,-3.148e-09,-1.8224e-05,2.3632e-05,-2.8561e-05,0.00047289,7.2403e-05,-0.00034575,-0.00031178,-0.000411,-0.00014509,-4.9282e-05,3.883e-05,-1.7369e-05,-0.00023527,-0.27345,-0.0003351,7.994e-05,-9.2221e-05,-7.7953e-05,-0.00023791,-6.8261e-05,0.00012316,1.771e-05,-9.1789e-05,-8.8859e-05,-0.00023167,-9.8174e-05,-8.6509e-05,5.3738e-05,-8.9764e-05,-0.00013594,1.5956e-05,-9.1938e-05,-0.0005993,-0.00019372,-0.00013843,6.6385e-05,-0.00037105,-8.8094e-05,-0.00064711,-0.00022647,-0.00018967,-0.00024998,-0.00027191,4.8403e-05,-0.00017435,-0.00029339,-2.8429e-05,-0.00013737,-0.00054025,-0.00028017,0.0002455,-0.00013253,-1.7216e-05,-7.2076e-05,-7.5319e-05,-0.00036857,-0.00013833,-0.001518,-0.0002973,-0.00043089
-0.00013155,-0.00010155,-0.00023387,-1.4071,-5.0547e-05,2.9808e-05,9.695e-06,5.5109e-05,0.00011588,-7.8841e-05,-6.1164e-05,-3.2149e-05,-0.00013071,-1.6101e-05,1.2891e-05,-0.00022439,-0.00015081,-7.2422e-05,0.00011697,0.00010759,-0.0001422,6.533e-05,-5.129e-05,-6.6855e-05,-0.0001559,-2.9999e-09,6.5471e-06,-1.6523e-05,0.00021493,4.1282e-05,-0.00013876,-0.00012544,-0.00016921,-5.6104e-05,-2.3334e-05,-1.2402e-06,-4.774e-06,-0.00010696,-0.83343,-0.00013319,3.1467e-05,-4.6953e-05,-3.1263e-05,-0.00010411,-2.2311e-05,5.0209e-05,1.1321e-05,-3.3001e-05,-3.9112e-05,-9.0712e-05,-4.4768e-05,-4.0229e-05,4.2426e-05,-3.3809e-05,-5.2774e-05,3.0775e-06,-3.2322e-05,-0.00025242,-8.4662e-05,-4.8621e-05,2.8749e-05,-0.00015303,-3.2883e-05,-0.00027886,-9.6128e-05,-7.9902e-05,-0.00010691,-0.00011414,2.6925e-05,-7.2996e-05,-0.00011745,-4.1868e-06,-5.9794e-05,-0.00033206,-0.00012041,9.972e-05,-5.6127e-05,-8.7038e-06,-2.8823e-05,-2.8048e-05,-0.0001463,-5.4083e-05,-0.0010206,-0.00012219,-0.00018005
-0.00024292,-0.0001877,-0.00047609,-1.3222,-9.0332e-05,5.8355e-05,4.3169e-05,0.00010031,0.00020447,-0.00013145,-0.00010579,-6.0296e-05,-0.00022582,-4.1095e-05,2.7922e-05,-0.00039414,-0.00031037,-0.00012806,0.00020288,0.00017876,-0.00026978,9.5402e-05,-9.2118e-05,-0.00013463,-0.00028307,-1.7253e-05,-1.3638e-09,-3.2221e-05,0.00037136,7.0365e-05,-0.00027344,-0.00024095,-0.0003468,-0.00011516,-3.3345e-05,1.9026e-05,-1.7201e-05,-0.00020353,-0.79709,-0.00026295,5.7313e-05,-7.3757e-05,-8.0762e-05,-0.00018737,-5.1333e-05,9.8812e-05,1.6433e-05,-8.6522e-05,-7.2081e-05,-0.00018117,-9.2254e-05,-6.8821e-05,2.5687e-05,-5.7103e-05,-9.186e-05,6.9499e-06,-7.1778e-05,-0.00046598,-0.0001773,-0.00010883,5.4176e-05,-0.0002914,-6.4142e-05,-0.00052588,-0.00017985,-0.00014666,-0.00017498,-0.00021977,4.2325e-05,-0.00013856,-0.00020887,-2.5599e-05,-0.0001003,-0.00074451,-0.00021135,0.00018215,-0.00010647,-1.1805e-05,-4.8552e-05,-4.874e-05,-0.00030033,-9.5841e-05,-0.0029112,-0.00024522,-0.00034469
-0.0014875,-0.0011552,-0.0024963,-1.2987,-0.00053488,0.00045476,7.4149e-05,0.00050569,0.0012318,-0.0008364,-0.00061039,-5.2538e-06,-0.0013042,-0.00031013,0.00017048,-0.0021484,-0.0017167,-0.00084573,0.0012647,0.00093167,-0.0015616,0.00050023,-0.00054965,-0.00070753,-0.0016381,-0.00013549,4.1883e-05,-2.8986e-09,0.0022551,0.00042085,-0.0013496,-0.0012855,-0.001718,-0.00053365,-0.00021745,0.00056975,-7.3967e-05,-0.0011198,-0.3413,-0.0014173,0.00067981,-0.00042475,-0.00036195,-0.0010014,-0.000296,0.00055294,6.4697e-05,-0.00044472,-0.00043604,-0.001034,-0.00058706,-0.00046922,0.00043008,-0.00044282,-0.00065285,-6.7376e-06,-0.00045454,-0.0027371,-0.0010903,-0.00068915,0.00033724,-0.0018587,-0.00037184,-0.00289,-0.00088571,-0.00086621,-0.0012064,-0.0013126,0.00023924,-0.00083679,-0.0014252,-0.00022618,-0.00058994,-0.0015629,-0.0012344,0.0010941,-0.00048557,-7.7106e-05,-0.00031162,-0.00029964,-0.0013777,-0.0005985,-0.0046302,-0.0013686,-0.0018538
-2.1408e-05,-1.7215e-05,-3.9121e-05,-0.9262,-7.4867e-06,5.1895e-06,1.6471e-06,7.9621e-06,2.0454e-05,-1.4115e-05,-1.0299e-05,-4.1114e-06,-2.2127e-05,-3.8481e-06,1.4672e-06,-3.3844e-05,-2.5017e-05,-1.3077e-05,2.1858e-05,1.6787e-05,-2.3165e-05,9.5462e-06,-8.8736e-06,-1.1727e-05,-2.8089e-05,-1.4271e-06,3.5618e-07,-1.6221e-06,-2.842e-09,6.9081e-06,-1.9361e-05,-1.9705e-05,-2.5212e-05,-8.3656e-06,-4.9498e-06,2.392e-06,-2.2134e-07,-1.6728e-05,-0.97036,-1.6283e-05,7.4713e-06,-8.0578e-06,-3.8722e-06,-1.6365e-05,-4.1645e-07,9.2663e-06,1.2364e-06,3.4432e-07,-6.5786e-06,-1.4884e-05,-8.2404e-06,-7.176e-06,8.509e-06,-5.7306e-06,-8.8349e-06,7.1121e-07,-5.3041e-06,-4.2794e-05,-1.4874e-05,-6.5187e-06,4.63e-06,-2.5683e-05,-4.3893e-06,-4.6496e-05,-1.4272e-05,-1.1997e-05,-1.7744e-05,-1.9032e-05,3.619e-06,-1.3043e-05,-2.2285e-05,-2.0598e-06,-9.5095e-06,-3.2855e-05,-2.0441e-05,1.9318e-05,-8.7308e-06,-7.4844e-07,-5.5607e-06,-4.6688e-06,-2.2396e-05,-8.4995e-06,-0.00011146,-2.0137e-05,-2.7908e-05
-6.4475e-05,-4.9199e-05,-0.00011332,-1.0117,-2.001e-05,2.0229e-05,6.2578e-06,2.5119e-05,6.0986e-05,-3.5432e-05,-2.6447e-05,-1.2418e-05,-5.6336e-05,-1.3292e-05,4.9122e-06,-9.8071e-05,-7.5751e-05,-3.7014e-05,5.9073e-05,4.1443e-05,-6.552e-05,2.0737e-05,-2.2886e-05,-3.1382e-05,-8.1093e-05,-4.6264e-06,2.1791e-06,-7.0674e-06,9.7383e-05,-3.0561e-09,-5.7168e-05,-5.6816e-05,-8.0387e-05,-2.7027e-05,-9.4417e-06,2.2667e-06,-4.0034e-06,-5.2555e-05,-0.65916,-6.3931e-05,1.693e-05,-1.9262e-05,-4.1034e-06,-4.6009e-05,-1.3855e-05,2.3185e-05,5.8552e-06,-2.2804e-05,-1.5619e-05,-3.7817e-05,-2.723e-05,-2.1184e-05,2.7609e-05,-1.6122e-05,-2.5535e-05,5.6554e-07,-2.0439e-05,-0.00011828,-4.4262e-05,-3.0305e-05,1.7231e-05,-7.8725e-05,-1.714e-05,-0.00012946,-4.3889e-05,-3.688e-05,-4.8207e-05,-5.7515e-05,1.2328e-05,-3.5759e-05,-5.8457e-05,-1.0603e-05,-2.4862e-05,-6.9796e-05,-5.4634e-05,4.3088e-05,-2.2031e-05,-5.0973e-06,-1.3225e-05,-1.1482e-05,-6.3438e-05,-2.4891e-05,-0.0002784,-6.512e-05,-8.6355e-05
-7.1632e-05,-5.8316e-05,-0.00012459,-0.46418,-2.2447e-05,2.8228e-05,5.7206e-06,2.6038e-05,7.2819e-05,-4.8996e-05,-3.0996e-05,-1.1042e-05,-7.3571e-05,-1.3333e-05,3.4591e-06,-0.00011024,-7.2268e-05,-4.2437e-05,9.8329e-05,5.2091e-05,-7.4484e-05,2.7485e-05,-2.691e-05,-3.1829e-05,-9.1061e-05,-4.8531e-06,1.2532e-06,-4.5656e-06,0.00013,2.7787e-05,-3.0973e-09,-6.3235e-05,-6.8418e-05,-2.3293e-05,-1.4759e-05,2.4999e-06,-2.1722e-06,-5.5416e-05,-0.38948,-6.104e-05,2.5584e-05,-1.5516e-05,-2.9979e-06,-5.4333e-05,-9.4321e-06,2.805e-05,4.3316e-06,-1.12e-05,-2.727e-05,-3.7366e-05,-2.9725e-05,-3.0196e-05,4.5646e-05,-1.7462e-05,-2.7806e-05,5.7786e-06,-1.2994e-05,-0.00014755,-5.0203e-05,-3.4331e-05,1.6535e-05,-8.4095e-05,-1.5846e-05,-0.0001567,-4.4552e-05,-3.7139e-05,-6.0039e-05,-6.1269e-05,1.9235e-05,-3.7245e-05,-7.0017e-05,-9.3157e-06,-3.0211e-05,-7.4184e-05,-6.519e-05,6.7443e-05,-2.5307e-05,-4.2861e-06,-1.7829e-05,-1.3185e-05,-7.3034e-05,-2.6097e-05,-0.0002103,-6.3191e-05,-8.6025e-05
-0.00072928,-0.00052206,-0.0012603,-1.0052,-0.00027921,0.00030849,0.00011591,0.0002807,0.0009187,-0.0005492,-0.00036396,-0.00010283,-0.00076503,-6.1802e-05,6.7943e-05,-0.0012216,-0.00078465,-0.00040131,0.00086042,0.00067955,-0.00086915,0.00042585,-0.0003144,-0.00019578,-0.0010066,-4.6071e-05,3.8733e-05,-3.9538e-05,0.0014177,0.00029999,-0.00073453,-3.0999e-09,-0.0010467,-0.0002355,-0.00022578,0.0001517,-2.819e-05,-0.00062241,-0.16735,-0.00076343,0.00027838,-7.6564e-05,0.00010619,-0.00052211,-7.9455e-05,0.00030434,5.4811e-05,-4.2265e-05,-8.2765e-05,-0.00039934,-0.00022878,-0.00024136,0.00038952,-0.00013042,-0.00025914,5.4541e-05,-0.00014718,-0.0016533,-0.00049408,-0.00020305,0.0002174,-0.0007891,-0.00017358,-0.001427,-0.00044079,-0.00041046,-0.00063293,-0.00057561,0.00024164,-0.00041154,-0.00073459,-1.1531e-06,-0.00036556,-0.0007614,-0.00071326,0.0007084,-0.00038874,-3.8321e-05,-0.00014717,-0.00016348,-0.00077052,-0.00032564,-0.0032817,-0.00062815,-0.00099027
-0.00022956,-0.00017489,-0.00039151,-0.75836,-7.9238e-05,6.6889e-05,1.4081e-05,7.3857e-05,0.00018487,-0.00014845,-0.0001044,-4.2238e-05,-0.00023374,-3.4541e-05,1.4234e-05,-0.00033286,-0.00023119,-0.00012942,0.00025619,0.00017527,-0.00022515,0.00010015,-8.3111e-05,-0.00012864,-0.00027636,-1.3413e-05,2.0519e-06,-1.5718e-05,0.00038669,6.8103e-05,-0.00018048,-0.00022251,-2.8582e-09,-9.248e-05,-4.3046e-05,1.1262e-05,-9.0366e-06,-0.00017912,-0.50743,-0.00019584,7.0802e-05,-6.3851e-05,-4.0198e-05,-0.00017639,-3.1216e-05,9.0086e-05,1.4022e-05,-3.8344e-05,-8.1042e-05,-0.0001504,-8.2038e-05,-8.0917e-05,9.2422e-05,-6.35e-05,-9.4914e-05,8.0136e-06,-5.3686e-05,-0.00047114,-0.0001518,-9.5789e-05,4.8218e-05,-0.00025684,-5.0852e-05,-0.00052009,-0.00017046,-0.0001322,-0.00019445,-0.00018721,3.9902e-05,-0.00012239,-0.00023695,-1.8562e-05,-9.6936e-05,-0.00027563,-0.00020766,0.00019398,-0.00010207,-1.1277e-05,-4.9444e-05,-4.3044e-05,-0.00028561,-8.7586e-05,-0.00077685,-0.00019561,-0.0002687
-0.00032211,-0.00026197,-0.00054516,-1.0265,-0.00011013,9.9905e-05,2.6159e-05,0.00011055,0.00027966,-0.00021341,-0.00014159,-6.2574e-05,-0.00031527,-7.0406e-05,1.0722e-05,-0.00047504,-0.00036928,-0.00018906,0.00031336,0.00021063,-0.00033648,0.00012165,-0.00013918,-0.0001172,-0.00039342,-2.5298e-05,9.2026e-07,-2.3357e-05,0.00050135,8.6771e-05,-0.00029058,-0.0002654,-0.00038993,-2.5048e-09,-6.2115e-05,-9.7899e-06,-1.7682e-05,-0.00028283,-0.4995,-0.00029254,9.3853e-05,-8.8787e-05,-5.0696e-05,-0.00022857,-5.6904e-05,0.00011442,6.692e-06,-6.993e-05,-0.00010622,-0.00017183,-0.00014064,-0.00011806,0.00012732,-9.5793e-05,-0.00013588,-4.2096e-06,-8.7397e-05,-0.00058541,-0.00024082,-0.00014667,8.1779e-05,-0.00040342,-7.226e-05,-0.00060948,-0.00017637,-0.00020088,-0.00028416,-0.00029841,7.8978e-05,-0.00018459,-0.00028534,-5.9979e-05,-0.00012223,-0.00055761,-0.00028332,0.00022029,-0.00012851,-2.5863e-05,-8.3437e-05,-7.0422e-05,-0.00026691,-0.00013174,-0.00076773,-0.00031855,-0.00043108
-3.0101e-05,-2.5755e-05,-5.815e-05,-1.9353,-1.0756e-05,8.8673e-06,2.1819e-06,1.3615e-05,1.696e-05,-9.6042e-06,-1.095e-05,-8.0732e-06,-2.5068e-05,-9.2167e-06,2.9328e-06,-4.6019e-05,-3.9619e-05,-1.657e-05,1.7394e-05,1.5154e-05,-2.9377e-05,6.3048e-06,-1.0264e-05,-1.6789e-05,-3.1075e-05,-1.5757e-06,2.16e-06,-3.4199e-06,3.8494e-05,8.2157e-06,-3.1207e-05,-3.0045e-05,-3.6844e-05,-1.2975e-05,-1.7403e-09,8.8577e-07,-2.438e-06,-2.559e-05,-0.46673,-2.9779e-05,5.4497e-06,-1.4647e-05,-1.9041e-05,-2.1331e-05,-9.2074e-06,1.1909e-05,2.7409e-06,-1.9027e-05,-1.1314e-05,-2.2674e-05,-1.4312e-05,-7.4225e-06,8.6597e-07,-1.0368e-05,-1.4448e-05,1.4626e-07,-1.3121e-05,-4.766e-05,-2.2096e-05,-1.7586e-05,6.2308e-06,-4.1313e-05,-6.9793e-06,-6.1729e-05,-2.0812e-05,-1.8024e-05,-2.2699e-05,-2.8886e-05,4.3161e-06,-1.8819e-05,-2.3848e-05,-8.5777e-06,-9.5912e-06,-0.00011185,-2.2387e-05,1.6897e-05,-7.9043e-06,-2.1058e-06,-5.9573e-06,-5.0951e-06,-3.2816e-05,-1.1496e-05,-0.00037197,-3.4893e-05,-4.0521e-05
-0.00064322,-0.00041118,-0.0011691,-1.5939,-0.00025871,0.00010928,2.6135e-05,0.00024868,0.00042949,-0.00036312,-0.00028839,-3.7384e-05,-0.00051951,-8.6563e-05,0.00010892,-0.0010448,-0.00071181,-0.0003441,0.00047434,0.00044924,-0.00084308,0.00019376,-0.00028068,-0.00037799,-0.00069878,-9.8677e-05,2.4647e-05,6.8117e-05,0.00095658,0.00015406,-0.00069516,-0.00057281,-0.00087117,-0.00033534,-0.00011621,-4.1024e-09,-7.5956e-05,-0.00046157,-0.24369,-0.00070575,0.00026144,-0.0002073,-0.00023228,-0.00044663,-0.00015414,0.00020407,3.97e-05,-0.00022016,-0.00011693,-0.00044049,-0.00022213,-0.00019211,4.8401e-05,-0.00016472,-0.00026107,1.4611e-05,-0.00019197,-0.0010139,-0.00040028,-0.00019058,0.00013039,-0.00078923,-0.00017641,-0.001221,-0.00046215,-0.00038765,-0.00045062,-0.00057869,7.9489e-05,-0.00033985,-0.0006367,-5.2576e-05,-0.00028023,-0.00095916,-0.00054129,0.00049532,-0.00026316,-4.5166e-05,-0.00014462,-0.00015846,-0.00072861,-0.00029239,-0.0043127,-0.00063258,-0.00082636
-8.2955e-05,-6.2623e-05,-0.00015646,-1.3927,-3.2973e-05,1.5103e-05,5.3529e-06,3.152e-05,7.9664e-05,-5.562e-05,-4.4476e-05,-1.8821e-05,-9.0184e-05,-9.9175e-06,7.6381e-06,-0.00013575,-9.8393e-05,-4.626e-05,9.2922e-05,6.7351e-05,-9.5011e-05,4.3889e-05,-3.5603e-05,-5.3205e-05,-0.00010666,-5.8492e-06,2.5044e-06,-9.2841e-06,0.00014813,2.6776e-05,-8.794e-05,-8.4432e-05,-0.00011231,-3.6993e-05,-1.8607e-05,2.744e-06,-2.7706e-09,-6.6044e-05,-0.58849,-9.2549e-05,2.2538e-05,-2.7441e-05,-1.4866e-05,-7.3133e-05,-1.2806e-05,3.4262e-05,3.6555e-06,-1.3203e-05,-2.7769e-05,-6.312e-05,-2.7368e-05,-2.7525e-05,2.7273e-05,-2.1088e-05,-3.3758e-05,4.2031e-06,-2.2396e-05,-0.00018502,-5.796e-05,-2.4687e-05,1.7408e-05,-9.8922e-05,-2.2305e-05,-0.00017954,-5.7565e-05,-5.1474e-05,-6.7831e-05,-7.4158e-05,1.288e-05,-4.9788e-05,-8.0883e-05,-3.8848e-06,-3.8983e-05,-0.0001451,-7.8136e-05,7.3274e-05,-3.6136e-05,-3.5444e-06,-2.056e-05,-1.622e-05,-0.00010353,-2.9206e-05,-0.0003321,-7.6099e-05,-0.00011641
-6.2497e-05,-3.6999e-05,-0.00011121,-1.0655,-2.6205e-05,1.9062e-05,5.0883e-06,2.832e-05,8.9468e-05,-4.2084e-05,-3.3007e-05,-8.281e-06,-5.7596e-05,1.8137e-06,8.9676e-06,-0.00011935,-6.5563e-05,-3.1983e-05,6.7057e-05,6.6393e-05,-8.2911e-05,3.7944e-05,-2.9205e-05,-3.4754e-05,-7.7541e-05,-5.1798e-06,3.1131e-06,-4.8847e-06,0.00012072,2.0939e-05,-6.9517e-05,-6.4157e-05,-8.8609e-05,-3.2723e-05,-1.9255e-05,1.4192e-05,1.5063e-06,-3.78e-09,-0.0016524,-7.0125e-05,2.5292e-05,-7.3113e-06,6.5731e-06,-4.8717e-05,-5.4114e-06,2.4152e-05,3.7708e-06,-1.1324e-06,-8.7143e-06,-4.4618e-05,-1.175e-05,-1.5937e-05,2.6826e-05,-8.2647e-06,-2.0236e-05,5.3641e-06,-1.3384e-05,-0.00010506,-3.0699e-05,-7.0981e-06,1.5159e-05,-6.2984e-05,-1.8402e-05,-0.00012686,-4.4648e-05,-4.1297e-05,-4.8394e-05,-4.5866e-05,1.2527e-05,-2.8685e-05,-7.0123e-05,5.477e-06,-3.5212e-05,-7.3636e-05,-6.1606e-05,7.2816e-05,-2.6015e-05,-2.6394e-06,-1.3703e-05,-1.6733e-05,-5.5483e-05,-2.7463e-05,-0.00045786,-4.9165e-05,-8.6703e-05
-6.1128e-05,-3.3023e-05,-9.9325e-05,-0.00035683,-1.9351e-05,4.7429e-05,4.781e-06,4.4935e-05,0.00014018,-2.571e-05,-1.6363e-05,-2.9389e-06,-1.417e-05,1.1021e-08,1.9599e-05,-0.00011278,-5.8416e-05,-3.3594e-05,0.00010876,6.5985e-05,-7.1336e-05,3.0656e-05,-2.6461e-05,-1.3842e-05,-6.6774e-05,-4.1344e-07,8.214e-06,4.3931e-06,0.00012246,3.6219e-05,-5.5186e-05,-4.81e-05,-7.1185e-05,-1.669e-05,-7.7645e-06,2.176e-05,7.5691e-06,-2.7789e-05,-2.6567e-09,-6.2001e-05,3.6151e-05,5.4421e-06,1.1485e-05,-3.4243e-05,-1.5616e-06,3.0451e-05,8.3423e-06,-1.0469e-05,1.5384e-05,-3.7445e-05,-6.8067e-06,-6.5052e-06,2.6906e-05,-7.9832e-06,-2.029e-05,9.9279e-06,-2.4946e-05,-3.3765e-05,-2.0968e-05,3.816e-06,2.6879e-05,-6.5458e-05,-1.7806e-05,-0.00010179,-3.7412e-05,-3.5027e-05,-4.3858e-05,-4.9056e-05,2.4255e-05,-2.1623e-05,-6.6609e-05,-9.9154e-07,-3.176e-05,-1.5628e-05,-5.4173e-05,9.1701e-05,8.1308e-06,8.7102e-07,-7.9176e-06,-1.4567e-05,1.2757e-05,-2.3235e-05,-0.00017183,-4.3771e-05,-7.4037e-05
-0.00010552,-8.1801e-05,-0.00018846,-1.0217,-3.6143e-05,3.0852e-05,1.1427e-05,4.0165e-05,9.2916e-05,-7.1081e-05,-4.9087e-05,-1.9381e-05,-0.0001092,-1.6953e-05,5.6072e-06,-0.00017005,-0.0001211,-6.2626e-05,0.00011851,8.4447e-05,-0.00011646,4.7076e-05,-4.1551e-05,-4.782e-05,-0.00013252,-5.2791e-06,4.6734e-06,-7.2003e-06,0.00021387,3.4163e-05,-9.5163e-05,-9.7635e-05,-0.00011569,-3.8284e-05,-2.2251e-05,7.6937e-06,-4.1472e-06,-8.3684e-05,-0.57963,-2.7739e-09,3.5292e-05,-3.3866e-05,-1.6785e-05,-7.9204e-05,-3.6733e-06,4.5545e-05,6.3636e-06,5.2245e-06,-3.359e-05,-6.651e-05,-3.9295e-05,-3.6985e-05,4.3539e-05,-2.6389e-05,-4.1671e-05,3.8294e-06,-2.1937e-05,-0.0002144,-7.3793e-05,-4.2436e-05,2.6257e-05,-0.00012115,-2.0373e-05,-0.00022981,-6.979e-05,-5.8755e-05,-8.9985e-05,-9.1236e-05,2.4819e-05,-5.9557e-05,-0.00010285,-7.7994e-06,-4.5599e-05,-0.00014204,-9.8839e-05,9.0249e-05,-4.9712e-05,-1.7144e-06,-2.3223e-05,-2.1483e-05,-0.00010511,-4.2534e-05,-0.00047349,-9.5436e-05,-0.00012425
-0.00024726,-0.00018926,-0.00044573,-1.287,-8.9686e-05,9.1699e-05,1.7562e-05,9.0838e-05,0.00024008,-0.00015486,-0.00011518,4.9124e-05,-0.00023965,-3.8626e-05,1.8837e-05,-0.00037055,-0.00027562,-0.00012887,0.00022117,0.00017828,-0.00028561,0.00010047,-9.6637e-05,-0.00011235,-0.00028709,-1.8929e-05,8.6691e-06,6.7271e-05,0.00042717,9.7156e-05,-0.00022858,-0.00020982,-0.00027455,-6.994e-05,-4.8286e-05,0.00012557,-9.5284e-06,-0.00018545,-0.3335,-0.00022407,-2.9961e-09,-3.9806e-05,-3.186e-05,-0.00017028,-3.3705e-05,9.2556e-05,1.5618e-05,-3.8816e-05,-5.4587e-05,-0.00014994,-8.9513e-05,-8.1657e-05,8.1206e-05,-7.7135e-05,-0.00011555,3.4127e-06,-5.1817e-05,-0.0004462,-0.0001751,-0.00012301,5.977e-05,-0.00029017,-5.1019e-05,-0.00049104,-0.0001515,-0.00014756,-0.00019962,-0.00020081,6.4888e-05,-0.00013467,-0.00023341,-2.9653e-05,-9.7902e-05,-0.00021981,-0.00021495,0.00021912,-9.3666e-05,-1.2935e-05,-6.0767e-05,-4.7075e-05,-0.00025519,-0.0001045,-0.00091389,-0.00023506,-0.00031161
-0.00024472,-0.00012798,-0.0004416,-1.0761,-0.00011052,0.00019727,3.1662e-05,0.00010057,0.00048976,-0.0001918,-0.00013319,-3.9592e-06,-0.00023061,2.4827e-05,3.5803e-05,-0.00042174,-0.0002425,-0.0001102,0.00035704,0.00028797,-0.00034113,0.00016765,-0.00011235,-7.778e-05,-0.00032292,-2.7786e-05,2.8041e-05,-2.8025e-06,0.00045986,0.00010854,-0.00023741,-0.00019685,-0.0003214,-8.8165e-05,-9.9557e-05,3.8975e-05,1.0023e-05,-0.00016673,-0.0080118,-0.00028961,0.00013441,-3.3593e-09,0.00017641,-0.00016936,-1.5406e-05,9.2469e-05,4.3003e-06,2.2772e-05,3.5247e-05,-6.9069e-05,-4.0284e-05,-6.6182e-05,0.00016579,-3.5207e-05,-8.3038e-05,2.3859e-05,-3.3453e-05,-0.00048318,-0.00012584,-3.372e-05,0.00011134,-0.00024658,-6.8367e-05,-0.00046017,-0.0001531,-0.00015392,-0.00020429,-0.00017951,0.00014288,-9.6676e-05,-0.00029832,3.584e-05,-0.00014256,-0.00015671,-0.00025452,0.0003312,-0.00012931,-1.3398e-05,-4.668e-05,-6.9703e-05,-0.00020929,-0.00010842,-0.00099103,-0.00017295,-0.00033775
-2.9645e-05,-1.4249e-05,-4.8989e-05,-1.1589,-1.242e-05,1.9678e-05,4.8083e-06,1.0587e-05,9.2996e-05,-3.3652e-05,-2.0004e-05,-8.8588e-07,-3.4684e-05,7.8584e-06,3.2305e-06,-5.4841e-05,-2.532e-05,-1.6442e-05,5.1281e-05,4.4839e-05,-4.8726e-05,2.7279e-05,-1.6294e-05,-1.2437e-05,-4.6087e-05,-4.7658e-06,1.9917e-08,-3.3189e-06,6.5638e-05,2.4591e-05,-2.8324e-05,-2.3186e-05,-4.4124e-05,-1.1897e-05,-2.1039e-05,9.4164e-08,-5.4117e-07,-1.9234e-05,-0.0003116,-3.8097e-05,1.9947e-05,1.6214e-05,-3.2343e-09,-2.5232e-05,5.0814e-06,1.3502e-05,5.663e-08,1.3496e-05,3.0412e-06,-6.675e-06,8.5479e-07,-1.5536e-05,6.9102e-05,9.1081e-07,-6.2471e-06,4.8646e-06,-2.5951e-06,-6.8764e-05,-1.1129e-05,-3.7352e-06,1.2002e-05,-2.8206e-05,-6.3717e-06,-5.9464e-05,-2.2212e-05,-1.9779e-05,-2.7615e-05,-1.7386e-05,1.5963e-05,-1.1321e-05,-4.1954e-05,7.1187e-06,-2.252e-05,-1.4198e-06,-3.8403e-05,4.8595e-05,-1.8119e-05,-1.0801e-06,-9.8117e-06,-9.6611e-06,-2.6913e-05,-1.4095e-05,-0.00012392,-1.6437e-05,-3.8269e-05
-0.00022576,-0.00016526,-0.00038575,-1.5302,-8.4772e-05,7.1991e-05,1.1281e-05,9.8076e-05,0.00027487,-0.00012332,-9.8402e-05,-2.455e-05,-0.00018656,-2.9853e-05,1.7113e-05,-0.00037832,-0.00024716,-0.0001248,0.00017738,0.00017917,-0.00027091,9.2263e-05,-9.3069e-05,-8.8988e-05,-0.00026541,-2.1697e-05,1.2536e-05,-1.1584e-05,0.0003747,7.6189e-05,-0.00023317,-0.0001888,-0.00029407,-8.6847e-05,-4.1838e-05,3.0966e-05,-2.6117e-05,-0.00016658,-0.0077661,-0.00022519,8.2734e-05,-4.3576e-05,-2.335e-05,-4.097e-09,-3.7371e-05,8.405e-05,1.67e-05,-4.6806e-05,-3.9826e-05,-0.00015745,-7.3607e-05,-5.9558e-05,5.7456e-05,-4.9727e-05,-8.6115e-05,5.0018e-06,-7.4871e-05,-0.00034475,-0.00013213,-8.3841e-05,6.0565e-05,-0.00026551,-5.7439e-05,-0.00041605,-0.00015424,-0.00013202,-0.00016134,-0.00018212,5.0797e-05,-0.00011373,-0.00021866,-1.4643e-05,-0.00010223,-0.00031954,-0.00019707,0.00022723,-6.3541e-05,-1.1279e-05,-5.2791e-05,-5.7345e-05,-0.00018508,-0.00010428,-0.0014238,-0.00020069,-0.00030539
-0.0002261,-0.00014541,-0.00039393,-1.3413,-8.6981e-05,4.114e-05,2.6796e-05,8.2316e-05,0.0002085,-0.00015514,-0.00011494,-3.8686e-05,-0.00023771,-2.1912e-05,1.5666e-05,-0.00038284,-0.00024422,-0.00012249,0.00022827,0.00020028,-0.00025668,0.00011943,-9.6469e-05,-0.00013018,-0.00029702,-1.5793e-05,9.515e-06,-2.7312e-05,0.00044318,6.694e-05,-0.00023226,-0.00021433,-0.00028533,-9.7617e-05,-6.4369e-05,1.3281e-05,-3.8156e-06,-0.00017509,-0.4783,-0.00019689,6.9607e-05,-6.3353e-05,-8.3587e-07,-0.00018243,-3.5169e-09,9.6819e-05,1.4128e-05,3.162e-05,-7.35e-05,-0.00014109,-6.7543e-05,-6.8674e-05,5.5847e-05,-4.9549e-05,-8.7427e-05,1.0404e-05,-4.6247e-05,-0.00048549,-0.00014047,-8.1027e-05,5.5221e-05,-0.00024769,-5.0736e-05,-0.00048161,-0.00016556,-0.00012952,-0.00018332,-0.00018216,4.1519e-05,-0.000123,-0.00023429,-4.8588e-06,-0.00011414,-0.00034991,-0.00021577,0.0002089,-0.00011299,-3.835e-06,-6.1591e-05,-5.3384e-05,-0.00027797,-8.7712e-05,-0.0019001,-0.00019951,-0.00029162
-0.0026277,-0.0021046,-0.0049478,-1.4259,-0.00096475,0.00058635,0.00021656,0.0010496,0.0018074,-0.0013871,-0.001225,-0.00069757,-0.0026248,-0.00056525,0.00014159,-0.0041263,-0.00335,-0.0015141,0.0021057,0.0017057,-0.0026699,0.00092569,-0.00099262,-0.0017988,-0.0030741,-0.00023588,0.00014521,-0.00033085,0.0040347,0.00071115,-0.0027928,-0.002635,-0.0033947,-0.0012008,-0.00027662,1.702e-05,-0.00016312,-0.0022996,-0.91484,-0.0026309,0.0005549,-0.0011305,-0.00084081,-0.0020779,-0.0005229,-4.1007e-09,0.00019958,-0.00086322,-0.00089621,-0.0019716,-0.00113,-0.00082419,0.00042841,-0.00078688,-0.0011717,2.8087e-05,-0.00095264,-0.0050346,-0.0018308,-0.0011776,0.00059724,-0.003306,-0.00039886,-0.0057204,-0.0019179,-0.0015875,-0.0021121,-0.0023781,0.00040971,-0.0016279,-0.0023536,-0.00042646,-0.0009915,-0.0047718,-0.0022468,0.0017723,-0.0010665,1.9381e-05,-0.00064621,-0.00054216,-0.0029937,-0.0010181,-0.012191,-0.0028047,-0.0036285
-2.7887e-05,-2.2588e-05,-5.4715e-05,-1.5273,-1.0534e-05,6.4167e-06,1.648e-06,1.1223e-05,1.781e-05,-1.4351e-05,-1.1673e-05,-7.2709e-06,-2.5733e-05,-6.5352e-06,2.0363e-06,-4.3891e-05,-3.4257e-05,-1.3417e-05,2.0657e-05,1.7438e-05,-2.8335e-05,8.2723e-06,-1.043e-05,-1.5677e-05,-3.3149e-05,-2.0693e-06,8.2585e-07,-4.5689e-06,3.8799e-05,8.0269e-06,-3.0778e-05,-2.7987e-05,-3.7344e-05,-1.3694e-05,-3.311e-06,9.8468e-07,-2.9907e-06,-2.3912e-05,-0.82679,-3.0063e-05,4.9118e-06,-1.2801e-05,-1.1556e-05,-2.1447e-05,-7.0144e-06,1.031e-05,-1.3598e-09,-1.2828e-05,-1.014e-05,-2.0362e-05,-1.1844e-05,-8.2242e-06,3.8125e-06,-8.682e-06,-1.2452e-05,4.8936e-07,-9.4507e-06,-5.12e-05,-2.0472e-05,-1.2831e-05,5.6404e-06,-3.427e-05,-7.2992e-06,-5.8762e-05,-2.0511e-05,-1.6509e-05,-2.2193e-05,-2.5747e-05,3.942e-06,-1.6928e-05,-2.5895e-05,-5.6089e-06,-7.919e-06,-6.9255e-05,-2.0564e-05,1.7581e-05,-9.489e-06,-2.032e-06,-6.6906e-06,-3.7033e-06,-3.1923e-05,-1.0362e-05,-0.00024945,-2.965e-05,-3.9926e-05
-8.375e-05,-4.9952e-05,-0.00014836,-0.93089,-3.7954e-05,6.1623e-06,1.0349e-05,2.3077e-05,0.00010334,-8.6457e-05,-5.6594e-05,-1.3352e-05,-0.00010891,5.9207e-06,2.1114e-06,-0.00015741,-8.3694e-05,-4.713e-05,0.00011037,0.00010419,-0.00011491,7.1361e-05,-4.2744e-05,-5.7734e-05,-0.00013076,-1.0558e-05,-8.2121e-07,-1.399e-05,0.00020226,2.4466e-05,-9.5254e-05,-8.529e-05,-0.00012025,-3.9306e-05,-4.6602e-05,3.1225e-06,1.2854e-06,-6.478e-05,-0.86669,-7.4108e-05,3.1153e-05,-9.9612e-06,2.7016e-05,-7.9851e-05,1.5664e-05,3.533e-05,-1.7009e-06,-3.0195e-09,-2.4319e-05,-5.3721e-05,-1.7598e-05,-3.2268e-05,3.8409e-05,-8.0228e-06,-2.3159e-05,7.9993e-06,-3.777e-06,-0.00020493,-4.6166e-05,-4.6179e-06,1.9978e-05,-8.1717e-05,-1.9818e-05,-0.00019021,-6.4334e-05,-5.577e-05,-7.6296e-05,-6.0324e-05,1.6396e-05,-4.3473e-05,-9.931e-05,1.7219e-05,-5.5715e-05,-9.7998e-05,-9.7616e-05,0.00010219,-6.2025e-05,-1.7421e-06,-2.7071e-05,-2.5351e-05,-0.00010325,-4.0603e-05,-0.00056413,-6.4617e-05,-0.00010788
-0.00048225,-0.00027588,-0.00090285,-1.1589,-0.0002012,0.00031027,5.5696e-05,0.0002775,0.00080579,-0.00030202,-0.00024725,-5.3035e-05,-0.00039967,-2.9704e-06,0.00010447,-0.00096764,-0.00052201,-0.00026734,0.00053538,0.00049303,-0.00065896,0.00028306,-0.00022217,-0.00021442,-0.00060901,-1.7781e-05,6.2382e-05,-2.3193e-05,0.00094278,0.00023534,-0.00057373,-0.00041634,-0.0007325,-0.00021017,-0.00011822,0.00016816,-4.8573e-07,-0.00034931,-0.0020432,-0.00055486,0.00022195,3.9502e-06,5.6841e-05,-0.00034284,-6.3035e-05,0.00023013,5.9459e-05,-6.7529e-05,-3.5504e-09,-0.0003136,-9.3825e-05,-0.00012051,0.00018781,-9.4147e-05,-0.00018754,2.9402e-05,-0.00017113,-0.00072778,-0.00023858,-0.00013008,0.00021165,-0.00054751,-0.000144,-0.00091368,-0.00036058,-0.00029431,-0.00033905,-0.00042113,0.00020526,-0.00022496,-0.00048965,2.1565e-05,-0.00026407,-0.000341,-0.00046607,0.0005734,-0.00016357,-1.3534e-05,-0.00010167,-0.00012331,-0.00032233,-0.00021772,-0.0026145,-0.00041156,-0.00068303
-7.3012e-05,-5.2951e-05,-0.00011827,-0.80182,-2.3009e-05,3.8406e-05,6.5264e-06,2.1448e-05,6.7402e-05,-6.009e-05,-3.5227e-05,-1.465e-05,-7.8099e-05,-8.9713e-06,-2.0367e-06,-0.00010471,-7.9277e-05,-3.9771e-05,7.235e-05,5.6964e-05,-7.9352e-05,3.7077e-05,-2.8877e-05,-3.077e-05,-9.5772e-05,-6.3031e-06,-9.2541e-07,-1.0483e-05,0.00011462,2.576e-05,-6.1728e-05,-5.7673e-05,-9.0924e-05,-2.2624e-05,-2.3448e-05,3.778e-06,-5.8989e-06,-5.6288e-05,-0.54816,-7.0673e-05,2.3288e-05,4.4386e-06,1.7115e-05,-5.5908e-05,-9.6319e-06,2.2751e-05,1.8564e-06,-4.9651e-06,-1.4123e-05,-3.9205e-09,-2.4006e-05,-3.0527e-05,3.9036e-05,-1.3417e-05,-2.4135e-05,1.4735e-06,-1.1663e-05,-0.0001743,-4.8902e-05,-2.6978e-05,2.2236e-05,-7.9686e-05,-1.8133e-05,-0.00014382,-4.0438e-05,-4.1531e-05,-6.8248e-05,-5.393e-05,3.4152e-05,-3.5444e-05,-7.1004e-05,-6.1331e-06,-2.9135e-05,-6.4426e-05,-7.0263e-05,5.647e-05,-3.996e-05,-9.192e-06,-1.635e-05,-1.4664e-05,-7.6372e-05,-2.9421e-05,-0.00036098,-6.0005e-05,-9.5599e-05
-0.00018107,-0.00012328,-0.0003574,-1.7475,-8.4316e-05,2.2969e-05,1.0664e-05,6.6761e-05,0.0002006,-0.0001417,-0.00011731,-4.2691e-05,-0.00020887,4.4786e-06,2.4642e-05,-0.00035553,-0.00019266,-9.8487e-05,0.0001752,0.00018325,-0.00023079,0.00011331,-8.5755e-05,-0.0001269,-0.00024695,-1.8955e-05,2.6926e-06,-3.6076e-05,0.00032073,4.5143e-05,-0.000241,-0.00019749,-0.00028383,-0.00010651,-7.0506e-05,1.4119e-05,-7.5291e-06,-0.00014435,-0.049134,-0.00023191,4.344e-05,-4.3728e-05,1.1595e-05,-0.00016834,-2.6827e-05,6.6455e-05,5.1143e-06,-9.8874e-06,-4.967e-05,-0.00013798,-2.5925e-09,-5.9254e-05,5.253e-05,-3.171e-05,-6.2897e-05,2.373e-05,-4.6385e-05,-0.00043046,-0.00010681,-4.3087e-05,3.7833e-05,-0.00019086,-5.5724e-05,-0.00039919,-0.00015141,-0.00012039,-0.00014879,-0.00013791,2.7546e-05,-9.1147e-05,-0.00020862,1.475e-05,-0.00010605,-0.00025315,-0.00019132,0.00017928,-0.00012222,-1.248e-05,-4.9401e-05,-5.236e-05,-0.00030747,-8.7661e-05,-0.0015912,-0.00014682,-0.00026497
-0.00012674,-9.4191e-05,-0.0002641,-1.7139,-5.6631e-05,2.1688e-05,1.0192e-05,6.1481e-05,0.00011648,-6.8981e-05,-6.6616e-05,-3.2822e-05,-0.0001295,-1.8445e-05,1.4688e-05,-0.00023192,-0.00016107,-6.7498e-05,9.3747e-05,0.00010155,-0.00015309,5.3126e-05,-5.1561e-05,-8.2121e-05,-0.00015807,-1.0928e-05,8.0922e-06,-2.1564e-05,0.00020424,3.4569e-05,-0.00017226,-0.00013658,-0.00019764,-6.8635e-05,-1.9897e-05,6.698e-06,-9.6592e-06,-0.00010746,-0.085643,-0.00015527,2.7662e-05,-4.7054e-05,-5.5043e-05,-0.00010452,-2.6468e-05,5.044e-05,1.0635e-05,-3.8784e-05,-4.767e-05,-0.00010886,-4.4996e-05,-1.4911e-09,1.0097e-05,-3.748e-05,-5.8742e-05,5.3726e-06,-4.1411e-05,-0.00026079,-8.4557e-05,-4.6732e-05,2.7065e-05,-0.00014965,-3.7436e-05,-0.00028307,-0.00010588,-8.4512e-05,-0.00010392,-0.00011573,1.6087e-05,-7.4247e-05,-0.00013095,-1.4701e-05,-5.8757e-05,-0.00044208,-0.00011314,0.00010172,-6.1326e-05,-8.3382e-06,-2.4305e-05,-2.7171e-05,-0.00020054,-5.6323e-05,-0.0018045,-0.00013258,-0.00019658
-0.00061561,-0.00047647,-0.0010251,-0.22394,-0.00019417,0.00035756,5.003e-05,0.00019889,0.0011607,-0.00059219,-0.00032514,-9.8913e-05,-0.00070826,-4.6883e-05,1.7288e-05,-0.00092542,-0.00056352,-0.00038222,0.0010003,0.00055586,-0.00073582,0.00030033,-0.00026442,-0.00023308,-0.00090629,-3.6926e-05,-7.5378e-05,3.6001e-06,0.0012663,0.00037192,-0.00035456,-0.00046862,-0.00066715,-0.00012833,-0.00024976,-2.7438e-05,5.0954e-06,-0.00045226,-1.1102,-0.0005726,0.00030222,-1.3759e-05,0.00079048,-0.00047324,-0.0001246,0.00022955,3.3483e-05,-8.0144e-05,-0.00013683,-0.0002329,-0.0002201,-0.00030502,-3.9571e-09,-0.00011972,-0.00020067,-4.053e-06,-7.3243e-05,-0.0016172,-0.00043256,-0.00016771,0.00017915,-0.00075959,-0.00011157,-0.0012399,-0.00029669,-0.00034724,-0.00055592,-0.00049371,0.00023186,-0.00033203,-0.00066765,-2.6345e-05,-0.00028262,-0.00025913,-0.00071926,0.00049127,-0.00028897,-6.6815e-05,-0.00015749,-0.00013519,-0.0006126,-0.00026656,-0.0014135,-0.00050757,-0.00077475
-7.0812e-05,-4.9434e-05,-0.0001254,-0.64827,-2.6797e-05,8.358e-06,9.4572e-06,2.4445e-05,7.4333e-05,-5.6891e-05,-3.6409e-05,-1.847e-05,-7.816e-05,-1.5368e-06,1.1174e-05,-0.00012669,-7.5819e-05,-3.9514e-05,7.3016e-05,7.1605e-05,-8.9234e-05,4.4124e-05,-3.1523e-05,-4.4056e-05,-0.00010254,-8.1127e-06,4.3191e-06,-1.3983e-05,0.00012506,2.3194e-05,-8.408e-05,-7.1805e-05,-0.00011088,-3.7252e-05,-2.5287e-05,4.7541e-06,-4.2305e-06,-5.5479e-05,-0.76542,-8.5348e-05,1.6583e-05,-1.7047e-05,1.8915e-06,-5.9968e-05,-1.186e-05,2.7372e-05,2.5441e-06,-2.4923e-06,-2.2527e-05,-4.9463e-05,-1.9553e-05,-2.6615e-05,2.7301e-05,-2.7521e-09,-5.7779e-06,3.7535e-06,-1.2348e-05,-0.00015152,-4.7027e-05,-4.1413e-06,1.367e-05,-7.3539e-05,-2.0665e-05,-0.00015552,-5.577e-05,-4.4727e-05,-5.7296e-05,-5.8616e-05,1.4555e-05,-3.7727e-05,-7.3761e-05,4.1203e-06,-3.7547e-05,-0.00013383,-7.3218e-05,6.1323e-05,-4.0665e-05,-4.8906e-06,-1.6275e-05,-1.7647e-05,-9.297e-05,-3.1954e-05,-0.00060363,-6.4921e-05,-0.00010196
-0.0001141,-8.0447e-05,-0.00020189,-0.5005,-4.1996e-05,1.198e-05,1.5747e-05,3.8115e-05,0.00012167,-9.3737e-05,-5.7544e-05,-3.0333e-05,-0.00012964,-9.6317e-07,1.8188e-05,-0.00020566,-0.00012174,-6.2933e-05,0.00011972,0.0001178,-0.00014172,7.3978e-05,-5.0617e-05,-6.9757e-05,-0.00016567,-1.186e-05,8.3053e-06,-2.2777e-05,0.00020669,3.7095e-05,-0.00013563,-0.00011629,-0.00017673,-5.7958e-05,-4.1901e-05,7.2744e-06,-5.2897e-06,-9.0104e-05,-0.89211,-0.00013567,2.6461e-05,-2.7468e-05,3.0557e-06,-9.736e-05,-1.932e-05,4.4349e-05,5.1192e-06,-8.9122e-07,-3.6811e-05,-8.001e-05,-3.0267e-05,-4.3707e-05,4.758e-05,1.2784e-05,-2.8744e-09,6.8612e-06,-1.7433e-05,-0.00025105,-7.7163e-05,-7.3847e-06,2.203e-05,-0.00011667,-3.2732e-05,-0.00025177,-8.7373e-05,-7.1069e-05,-9.3449e-05,-9.4678e-05,2.4655e-05,-6.035e-05,-0.00011646,9.2666e-06,-5.9348e-05,-0.00021441,-0.00011896,9.9247e-05,-6.5213e-05,-7.4693e-06,-2.6328e-05,-2.8227e-05,-0.00015078,-5.0645e-05,-0.00094488,-0.0001033,-0.00016313
-0.00020043,-0.00015987,-0.00036655,-1.3632,-7.9627e-05,5.3985e-05,1.9973e-05,9.2495e-05,0.00017153,-0.00012383,-9.9386e-05,-5.4227e-05,-0.00020126,-2.02e-05,2.0886e-05,-0.00034627,-0.00023111,-9.937e-05,0.00017337,0.00016023,-0.00022818,9.1247e-05,-8.3518e-05,-0.00012026,-0.00024505,-1.8561e-05,8.3669e-06,-3.3621e-05,0.00032337,5.6002e-05,-0.00021577,-0.0002009,-0.00027615,-9.969e-05,-3.9834e-05,1.2433e-05,-9.1202e-06,-0.00016553,-0.65162,-0.00022182,4.417e-05,-6.2708e-05,-4.2255e-05,-0.00016712,-4.1159e-05,7.6928e-05,1.538e-05,-4.3977e-05,-7.5643e-05,-0.00014273,-5.5623e-05,-6.0565e-05,4.4128e-05,-4.9457e-05,-8.0022e-05,-1.9347e-09,-5.6067e-05,-0.00040387,-0.00013233,-7.0585e-05,4.206e-05,-0.00023419,-5.283e-05,-0.00043416,-0.00015417,-0.00012619,-0.00016041,-0.00016513,3.1648e-05,-0.00010774,-0.00020609,-1.4047e-05,-8.5969e-05,-0.00079424,-0.00017709,0.00017142,-9.2449e-05,-1.1922e-05,-4.9862e-05,-3.9274e-05,-0.00025685,-8.2839e-05,-0.0020542,-0.0001772,-0.00027859
-3.8515e-05,-2.6116e-05,-6.7039e-05,-0.2017,-1.601e-05,5.8566e-06,5.0451e-06,1.0866e-05,4.4481e-05,-3.5592e-05,-2.4062e-05,-8.4349e-06,-4.7299e-05,2.8203e-06,-6.9647e-07,-6.8789e-05,-3.8812e-05,-2.1899e-05,3.8942e-05,4.2587e-05,-4.7434e-05,2.8501e-05,-1.6672e-05,-2.4192e-05,-5.5351e-05,-2.345e-06,1.724e-06,-5.0659e-06,7.6533e-05,1.1992e-05,-3.9336e-05,-3.8455e-05,-5.3532e-05,-1.7396e-05,-1.7525e-05,4.7383e-06,-8.7253e-07,-3.0165e-05,-1.635,-4.1807e-05,1.3196e-05,-6.4626e-06,3.9421e-06,-3.5042e-05,-2.9318e-06,1.434e-05,2.2277e-06,3.9422e-06,-1.3399e-05,-2.5024e-05,-1.1553e-05,-1.4521e-05,2.1577e-05,-5.4314e-06,-1.1872e-05,2.465e-06,-2.6284e-09,-8.8769e-05,-2.4808e-05,-4.4565e-06,8.132e-06,-3.91e-05,-1.1643e-05,-8.5894e-05,-2.6515e-05,-2.4927e-05,-3.3615e-05,-3.0196e-05,8.957e-06,-2.0121e-05,-4.245e-05,3.9757e-06,-2.0849e-05,-4.6681e-05,-4.3556e-05,3.8709e-05,-2.6702e-05,-1.9303e-06,-9.8625e-06,-9.8723e-06,-4.2323e-05,-1.6926e-05,-0.00015277,-3.1276e-05,-5.1836e-05
-0.0001889,-0.00010344,-0.00034034,-0.06629,-7.2595e-05,9.3566e-05,1.576e-05,0.00013386,0.00034707,-6.7078e-05,-6.2174e-05,-1.2146e-05,-6.036e-05,-7.5871e-06,2.7876e-05,-0.00036881,-0.00019428,-9.391e-05,0.00021733,0.00017778,-0.00023472,7.858e-05,-8.3367e-05,-6.2152e-05,-0.00020066,-2.8361e-06,2.2181e-05,-5.6991e-06,0.00032325,7.831e-05,-0.00020586,-0.00016824,-0.00025964,-7.005e-05,-1.3849e-05,5.7125e-05,-1.6056e-07,-9.904e-05,-0.00021471,-0.00020035,8.3539e-05,-2.0339e-05,-7.8615e-06,-0.00010368,-2.0164e-05,7.8109e-05,2.6066e-05,-4.0476e-05,1.6101e-05,-0.0001674,-3.3178e-05,-1.7536e-05,2.4343e-05,-3.7438e-05,-7.5852e-05,2.0565e-05,-7.8871e-05,-3.4632e-09,-6.2517e-05,-2.6175e-07,6.2832e-05,-0.00020388,-6.1879e-05,-0.00031853,-0.00014004,-0.00011233,-0.00012293,-0.0001427,3.8747e-05,-7.2474e-05,-0.00018902,-1.6392e-06,-9.7311e-05,-0.00011968,-0.00015543,0.00022281,-1.2084e-06,-3.5942e-06,-3.3624e-05,-4.9555e-05,-5.5121e-06,-8.1771e-05,-0.0011436,-0.00014729,-0.00024075
-0.00014456,-7.6487e-05,-0.00027727,-1.8576,-6.8337e-05,4.4047e-05,1.1967e-05,9.4969e-05,0.00021879,-8.8101e-05,-8.6446e-05,-2.4061e-05,-0.00013997,1.5013e-05,2.2707e-05,-0.00030069,-0.00014277,-7.5587e-05,0.00015949,0.00018114,-0.00018624,0.00010436,-6.6789e-05,-0.00011511,-0.00018407,-5.6882e-06,6.9937e-06,-2.4999e-05,0.00028016,5.4575e-05,-0.0001782,-0.0001536,-0.00021367,-7.6922e-05,-4.4205e-05,2.4712e-05,-2.6285e-06,-0.00010022,-0.0009073,-0.00017477,5.3644e-05,-1.7605e-05,2.175e-05,-0.00011916,-8.6682e-06,6.9223e-05,1.2638e-05,4.6549e-06,-1.0234e-05,-0.00011438,-2.0331e-05,-3.0571e-05,4.6271e-05,-2.5161e-05,-5.511e-05,2.0116e-05,-3.9543e-05,-0.00023672,-4.2545e-09,-2.0618e-05,4.1314e-05,-0.00014143,-4.343e-05,-0.00029108,-0.00011562,-9.9142e-05,-0.00010333,-0.0001065,3.7111e-05,-6.1259e-05,-0.00016189,2.4004e-05,-9.1267e-05,-0.00011036,-0.00014296,0.00017665,-6.3647e-05,-3.3983e-06,-3.6179e-05,-4.2081e-05,-0.0001499,-6.5001e-05,-0.00078866,-0.00011293,-0.00020554
-0.00045978,-0.00036144,-0.00078994,-1.4401,-0.00019921,-6.5686e-05,1.425e-05,8.5774e-05,0.00033332,-0.00040682,-0.00028017,-0.00018657,-0.00047396,-2.6524e-05,-3.0567e-05,-0.00090249,-0.00046074,-0.00027272,0.00044307,0.00036128,-0.00060921,0.00021683,-0.00023675,-0.00034781,-0.00063656,-7.3019e-05,-4.4003e-05,-0.00014464,0.0006369,8.0559e-05,-0.00059518,-0.00047762,-0.00071405,-0.00025932,-0.00020942,2.586e-05,-6.9615e-05,-0.00033813,-0.32566,-0.00055868,1.7882e-05,-9.9635e-05,-0.00010467,-0.00042044,-0.00016077,9.1162e-05,-4.5062e-05,-4.1494e-05,-0.00020757,-0.00033192,-0.00015629,-0.00018856,9.6174e-05,-6.3565e-05,-0.00013755,-6.6738e-06,-0.00010227,-0.00083322,-0.00028458,1.4258e-09,-1.1437e-05,-0.00043668,-0.00015844,-0.0010448,-0.00038821,-0.00033214,-0.00040091,-0.00036953,-3.9754e-06,-0.00025562,-0.00050704,1.4846e-05,-0.0002822,-0.00084641,-0.0004781,0.00025595,-0.00033582,-7.2431e-05,-0.00012556,-0.00014303,-0.00054307,-0.00023937,-0.0051374,-0.00044821,-0.00066004
-0.00032766,-0.00024588,-0.00058482,-1.5508,-0.00011843,9.8738e-05,2.6251e-05,0.00011002,0.0002003,-0.00017239,-0.00014663,-8.7066e-05,-0.00029118,-8.4611e-05,2.1678e-05,-0.00050295,-0.00037899,-0.00017926,0.00021846,0.00016886,-0.00034792,7.5556e-05,-0.00012767,-0.00017194,-0.00036574,-3.2366e-05,3.218e-06,-4.6091e-05,0.00039938,9.1547e-05,-0.00033619,-0.00030412,-0.00041819,-0.00013096,-4.3323e-05,8.1385e-06,-4.355e-05,-0.00027248,-0.5131,-0.000319,5.0278e-05,-0.0001032,-0.00010905,-0.00023093,-9.43e-05,0.00010437,8.6648e-06,-0.00013558,-8.7811e-05,-0.00017709,-0.00013971,-0.00010685,4.7037e-05,-0.00011211,-0.00015488,-4.8552e-06,-0.0001286,-0.00059735,-0.0002308,-0.0002065,1.2748e-09,-0.00042485,-8.7324e-05,-0.00065458,-0.00024017,-0.00019897,-0.00026737,-0.00029603,7.465e-05,-0.00018885,-0.00028942,-8.5765e-05,-0.0001222,-0.00047554,-0.00026755,0.00018856,-0.00012591,-3.7442e-05,-9.2094e-05,-6.7656e-05,-0.00032489,-0.00013043,-0.0017585,-0.00034274,-0.00045097
-0.00023559,-0.00016917,-0.00046362,-1.3702,-0.00010656,1.6302e-05,2.8278e-05,9.6478e-05,0.00028595,-0.00020805,-0.00015907,-5.8277e-05,-0.00029676,1.3768e-05,2.15e-05,-0.00047831,-0.00026008,-0.00012497,0.00028533,0.00028557,-0.00031888,0.00018328,-9.7097e-05,-0.00017176,-0.000363,-2.1492e-05,1.4753e-05,-4.997e-05,0.00047881,7.5239e-05,-0.00030632,-0.00024973,-0.00037075,-0.00013433,-0.00010547,7.0828e-06,-8.6283e-06,-0.00019034,-0.33224,-0.00029703,7.0116e-05,-4.8295e-05,1.7167e-05,-0.00022885,-2.5266e-05,0.0001014,1.7819e-05,2.0203e-05,-7.181e-05,-0.00018327,-4.8655e-05,-7.3645e-05,9.0742e-05,-2.2715e-05,-6.6494e-05,2.0584e-05,-2.7812e-05,-0.00063321,-0.00013852,-1.6561e-05,4.7576e-05,-2.6253e-09,-6.6064e-05,-0.00055544,-0.00019081,-0.00016339,-0.00020561,-0.00019817,4.6346e-05,-0.00012009,-0.0002769,3.9665e-05,-0.0001389,-0.00045903,-0.00026682,0.00025049,-0.0001781,-6.6481e-06,-4.9541e-05,-6.1563e-05,-0.0004092,-0.00011613,-0.0019431,-0.0002046,-0.00036661
-3.6185e-05,-2.8092e-05,-6.7649e-05,-0.88582,-1.4006e-05,8.1451e-06,3.4903e-06,1.3838e-05,3.2089e-05,-2.4184e-05,-1.897e-05,-8.6978e-06,-4.0061e-05,-5.8075e-06,2.8648e-06,-6.1187e-05,-4.4469e-05,-2.0676e-05,3.5946e-05,2.973e-05,-4.2799e-05,1.7206e-05,-1.4302e-05,-2.2351e-05,-4.8153e-05,-2.8148e-06,1.4555e-06,-4.8111e-06,6.4564e-05,1.0706e-05,-3.9162e-05,-3.626e-05,-4.8037e-05,-1.5678e-05,-7.2466e-06,2.0727e-06,-1.9663e-06,-3.1388e-05,-1.1472,-3.6867e-05,1.0362e-05,-1.1765e-05,-5.2804e-06,-2.9472e-05,-5.8068e-06,1.9363e-05,2.4722e-06,-6.0244e-06,-1.3082e-05,-2.6042e-05,-1.3682e-05,-1.2786e-05,1.3549e-05,-9.6834e-06,-1.5296e-05,1.2993e-06,-1.0743e-05,-8.0042e-05,-2.6433e-05,-1.2992e-05,8.498e-06,-4.3147e-05,-2.7391e-09,-8.2041e-05,-2.6967e-05,-2.2203e-05,-3.203e-05,-3.1664e-05,6.9247e-06,-2.1142e-05,-3.5734e-05,-3.0757e-06,-1.607e-05,-7.7256e-05,-3.3906e-05,2.8757e-05,-1.8727e-05,6.2644e-07,-8.5808e-06,-7.0554e-06,-4.6734e-05,-1.5056e-05,-0.0002175,-3.6744e-05,-5.1698e-05
-7.481e-05,-4.0074e-05,-0.00015022,-1.2891,-3.3729e-05,3.215e-05,6.5715e-06,4.3635e-05,0.00013617,-5.0799e-05,-4.0486e-05,-5.8593e-06,-6.7639e-05,4.0436e-06,1.7091e-05,-0.00015032,-8.282e-05,-4.156e-05,8.8748e-05,8.7467e-05,-0.00011054,5.441e-05,-3.7261e-05,-3.1146e-05,-0.00010275,-4.3837e-06,6.383e-06,-2.8884e-06,0.00015719,3.3308e-05,-9.3173e-05,-6.6851e-05,-0.00012762,-2.7224e-05,-2.2866e-05,1.8527e-05,3.0422e-06,-5.3195e-05,-0.001087,-9.3831e-05,3.7465e-05,-8.8203e-07,2.2091e-05,-5.4364e-05,-5.3585e-06,3.3791e-05,8.5182e-06,8.252e-09,2.5031e-06,-5.7221e-05,-1.0852e-05,-1.7705e-05,3.6025e-05,-1.125e-05,-2.6788e-05,8.6096e-06,-1.8633e-05,-0.00012906,-3.2781e-05,-1.2695e-05,2.6718e-05,-8.0405e-05,-2.4186e-05,-3.1915e-09,-1.6998e-05,-5.129e-05,-6.2589e-05,-5.926e-05,2.3054e-05,-3.6337e-05,-8.3535e-05,1.2771e-05,-4.7176e-05,-6.9127e-05,-7.7366e-05,0.00010704,-2.1883e-05,-2.6779e-06,-1.7635e-05,-2.1761e-05,-6.1856e-05,-3.6938e-05,-0.000471,-6.0717e-05,-0.00011242
-3.0184e-05,-2.1838e-05,-5.3818e-05,-0.64565,-1.0128e-05,8.5273e-06,2.1537e-06,1.0591e-05,2.5798e-05,-2.0905e-05,-1.3526e-05,-6.2054e-06,-3.026e-05,-5.3803e-06,2.7213e-06,-4.5849e-05,-3.7516e-05,-1.8154e-05,3.0254e-05,2.0439e-05,-3.2378e-05,1.3001e-05,-1.1634e-05,-1.4623e-05,-3.7437e-05,-3.4561e-06,5.8424e-07,-1.9616e-06,4.9026e-05,8.5661e-06,-2.9168e-05,-2.5915e-05,-4.1988e-05,-9.7196e-06,-6.3793e-06,1.6581e-06,-6.1747e-07,-2.3479e-05,-0.68656,-3.0748e-05,8.2857e-06,-8.0738e-06,-3.5194e-06,-2.3046e-05,-6.1016e-06,1.1049e-05,1.5517e-06,-6.7618e-06,-1.0356e-05,-1.68e-05,-1.1146e-05,-1.0849e-05,1.1953e-05,-7.9945e-06,-1.1991e-05,2.1071e-07,-6.886e-06,-6.3122e-05,-2.087e-05,-8.8929e-06,6.9701e-06,-3.4447e-05,-7.6725e-06,-4.1642e-05,-2.418e-09,-1.8334e-05,-2.8982e-05,-2.5729e-05,5.1547e-06,-1.6954e-05,-2.833e-05,-2.7804e-06,-1.2806e-05,-5.078e-05,-2.7806e-05,2.3957e-05,-1.1966e-05,-2.4181e-06,-7.8022e-06,-6.5701e-06,-3.1584e-05,-1.2228e-05,-0.0001149,-2.7741e-05,-4.1304e-05
-0.00025445,-0.00019197,-0.00048369,-0.82338,-9.755e-05,6.6333e-05,2.8805e-05,0.00010504,0.00027627,-0.00017595,-0.00012435,-6.248e-05,-0.00026797,-3.2266e-05,2.8273e-05,-0.00046114,-0.00030051,-0.00014777,0.00025529,0.00022772,-0.00027877,0.00012259,-0.00010988,-0.0001548,-0.00033247,-2.0965e-05,1.459e-05,-3.1902e-05,0.00046004,8.5603e-05,-0.0002625,-0.00024057,-0.00034939,-0.00011999,-6.551e-05,2.1212e-05,-8.8829e-06,-0.00021822,-0.80646,-0.00026763,6.7825e-05,-6.9966e-05,-3.7887e-05,-0.00020568,-3.472e-05,0.00010558,2.135e-05,-4.7303e-05,-7.4457e-05,-0.00017691,-8.3866e-05,-8.652e-05,0.00010423,-5.3665e-05,-9.2754e-05,9.1805e-06,-6.3038e-05,-0.0005497,-0.0001856,-7.3786e-05,6.5874e-05,-0.00030337,-6.2703e-05,-0.00057156,-0.00018778,-2.5224e-09,-0.00022474,-0.00021972,5.1103e-05,-0.00014093,-0.00025612,-1.0762e-05,-0.00012115,-0.00068057,-0.00024994,0.00019449,-0.00012071,-1.082e-05,-5.302e-05,-5.8294e-05,-0.00033143,-0.00010551,-0.0018588,-0.00023498,-0.00035777
-0.00015184,-0.00011317,-0.00030854,-1.7226,-6.4755e-05,2.2544e-05,2.278e-05,6.5201e-05,0.00013671,-9.4696e-05,-8.5399e-05,-3.8593e-05,-0.00015871,-1.6259e-05,1.2743e-05,-0.00028453,-0.00017669,-8.1647e-05,0.00012691,0.00012696,-0.00018511,6.944e-05,-6.8025e-05,-9.99e-05,-0.00019959,-1.6449e-05,1.6243e-05,-2.9433e-05,0.00024829,5.0024e-05,-0.00018686,-0.00016513,-0.00023516,-8.5284e-05,-3.6035e-05,1.6692e-05,-9.5825e-06,-0.00012686,-0.26549,-0.00018305,3.7022e-05,-5.8876e-05,-3.9811e-05,-0.00012046,-3.0802e-05,5.9869e-05,9.3329e-06,-3.6733e-05,-3.9846e-05,-0.00013202,-4.8419e-05,-4.7275e-05,3.1284e-05,-3.1853e-05,-5.7407e-05,7.5317e-06,-4.3131e-05,-0.00032381,-9.4757e-05,-5.3177e-05,2.8248e-05,-0.00017456,-4.6243e-05,-0.00034118,-0.00014325,-0.00010351,-1.8979e-09,-0.00013291,2.3733e-05,-8.4525e-05,-0.0001409,-4.0405e-06,-7.3419e-05,-0.0001739,-0.00014088,0.00012477,-7.9162e-05,-8.5948e-06,-4.0145e-05,-3.7043e-05,-0.00022397,-6.7537e-05,-0.0023032,-0.00015028,-0.00022794
-5.8307e-05,-3.8479e-05,-0.00010886,-2.1096,-2.6802e-05,5.7774e-06,3.2747e-06,1.9478e-05,6.2484e-05,-4.8671e-05,-3.6821e-05,-1.3788e-05,-6.6528e-05,-1.0919e-06,-9.6632e-08,-0.00010806,-6.3153e-05,-3.0388e-05,5.4508e-05,5.7866e-05,-7.6853e-05,3.7134e-05,-2.7919e-05,-3.9076e-05,-8.3481e-05,-7.562e-06,-2.9273e-07,-1.2076e-05,0.00010023,1.4759e-05,-7.2248e-05,-5.9666e-05,-8.5304e-05,-3.3321e-05,-2.2913e-05,-1.1753e-06,-5.4771e-06,-4.6041e-05,-0.39409,-7.1291e-05,1.4882e-05,-1.3435e-05,2.8837e-06,-5.153e-05,-9.3388e-06,2.115e-05,3.7462e-07,-4.9343e-07,-2.0722e-05,-3.9818e-05,-1.3852e-05,-2.1527e-05,2.0163e-05,-1.2116e-05,-2.2479e-05,3.6263e-06,-1.1801e-05,-0.00013791,-3.5698e-05,-1.0001e-05,1.1637e-05,-6.4341e-05,-1.6895e-05,-0.00012931,-4.7402e-05,-3.8476e-05,-5.1193e-05,-1.3725e-09,8.4042e-06,-3.0291e-05,-6.4629e-05,3.9144e-06,-3.3173e-05,-9.4846e-05,-5.9729e-05,5.6409e-05,-3.8564e-05,-4.7634e-06,-1.5393e-05,-1.657e-05,-9.3621e-05,-2.8075e-05,-0.00041761,-4.693e-05,-8.452e-05
-0.00019987,-0.00014316,-0.00035873,-1.0422,-6.9358e-05,0.00010179,2.8281e-05,8.6162e-05,0.00018674,-0.00012252,-8.8352e-05,-4.3562e-05,-0.00019714,-3.418e-05,1.7558e-05,-0.00030351,-0.00024013,-0.00010609,0.00018236,0.00014598,-0.00020951,8.5305e-05,-7.5619e-05,-7.7778e-05,-0.00024147,-7.635e-06,1.2835e-05,-1.9583e-05,0.00031083,6.819e-05,-0.00018864,-0.00017195,-0.0002581,-6.8982e-05,-3.0896e-05,1.1109e-05,-1.337e-05,-0.00016768,-0.48717,-0.00019176,5.4282e-05,-2.3794e-05,-1.7136e-05,-0.00014113,-4.1034e-05,8.0881e-05,1.8301e-05,-5.6111e-05,-3.2396e-05,-8.0542e-05,-7.6143e-05,-6.6442e-05,7.333e-05,-4.6063e-05,-7.4478e-05,6.0896e-06,-5.1753e-05,-0.00039806,-0.00013484,-0.00012513,6.6849e-05,-0.00024181,-4.6228e-05,-0.00040106,-0.00013553,-0.00011582,-0.00015837,-0.00017415,-3.5656e-09,-0.00010992,-0.00017666,-2.6147e-05,-7.5652e-05,-0.00030829,-0.00017479,0.00015263,-7.6919e-05,-1.3788e-05,-4.6842e-05,-3.8473e-05,-0.000212,-7.618e-05,-0.0009031,-0.00019114,-0.00028344
-5.1658e-05,-3.4843e-05,-9.7022e-05,-1.5169,-2.1037e-05,1.0295e-05,3.9178e-06,2.226e-05,4.8986e-05,-3.8391e-05,-2.8056e-05,-1.2075e-05,-5.4802e-05,-1.9888e-06,3.3093e-06,-9.6095e-05,-5.7902e-05,-2.8079e-05,5.1003e-05,5.0647e-05,-6.1218e-05,2.833e-05,-2.2195e-05,-3.2371e-05,-6.882e-05,-5.1465e-06,1.3946e-06,-8.6833e-06,8.3236e-05,1.5455e-05,-5.6166e-05,-5.2967e-05,-7.2455e-05,-2.523e-05,-1.6333e-05,4.1019e-06,-5.1657e-06,-4.0047e-05,-0.23236,-6.0487e-05,1.3436e-05,-9.9759e-06,-1.9625e-06,-4.1795e-05,-9.2754e-06,1.8049e-05,1.6039e-06,-6.8788e-06,-1.3842e-05,-3.3281e-05,-1.3522e-05,-1.6613e-05,1.6082e-05,-1.0052e-05,-1.8323e-05,3.565e-06,-1.1885e-05,-0.0001051,-3.0371e-05,-1.3866e-05,1.179e-05,-5.4866e-05,-1.4109e-05,-0.00011225,-3.9411e-05,-3.2338e-05,-4.1357e-05,-4.0337e-05,9.7851e-06,-1.9519e-09,-5.3414e-05,1.0292e-06,-2.6778e-05,-8.421e-05,-4.982e-05,4.437e-05,-2.9106e-05,-3.8687e-06,-1.2441e-05,-1.2866e-05,-6.6456e-05,-2.4664e-05,-0.00042876,-4.4618e-05,-7.19e-05
-0.00057788,-0.00045584,-0.0010197,-1.3916,-0.00022362,0.00011107,7.6021e-05,0.00020517,0.00044713,-0.00035805,-0.00028257,-0.00015718,-0.00058538,-8.6551e-05,3.3677e-05,-0.00096933,-0.0006406,-0.00031506,0.00047895,0.00040799,-0.00062349,0.00026598,-0.00023239,-0.00034536,-0.00069685,-2.6485e-05,5.4244e-05,-9.6795e-05,0.00084087,0.00016286,-0.00062511,-0.00054631,-0.00083303,-0.00024568,-9.6765e-05,-1.715e-05,-2.4858e-05,-0.00048534,-1.0651,-0.00061197,0.00011879,-0.00021331,-0.00016652,-0.00045075,-0.0001347,0.00022479,2.1461e-05,-0.00015204,-0.00016361,-0.00040331,-0.00022107,-0.00019605,0.00013328,-0.00013309,-0.00021003,-7.4728e-06,-0.0001614,-0.0010999,-0.00040072,-0.00022492,0.0001144,-0.00066962,-0.00014529,-0.001172,-0.00040171,-0.00034799,-0.00041891,-0.0004996,0.0001065,-0.00032523,-2.3497e-09,-3.5264e-05,-0.00025022,-0.00087016,-0.00051532,0.00041053,-0.00028331,-4.1187e-05,-0.00013869,-0.00012134,-0.0005845,-0.00023123,-0.0031024,-0.00057361,-0.00076739
-0.00016064,-0.00010481,-0.00032189,-1.8625,-8.1618e-05,4.9426e-06,1.7196e-05,6.3904e-05,0.00020628,-0.00014865,-0.00010959,-4.6492e-05,-0.00020815,1.695e-05,1.2745e-05,-0.00034671,-0.00017466,-8.191e-05,0.00018167,0.00020271,-0.00022465,0.00014572,-8.1251e-05,-0.00011483,-0.00024759,-9.6986e-06,6.1837e-06,-3.2771e-05,0.000319,4.755e-05,-0.00022416,-0.00018195,-0.00026443,-0.00010079,-8.0232e-05,2.0408e-05,-4.8459e-06,-0.00013355,-0.509,-0.00021204,4.6465e-05,-3.3974e-05,5.0892e-06,-0.00015459,-2.1104e-05,6.8029e-05,2.0153e-06,1.243e-05,-4.8011e-05,-0.00013962,-3.5501e-05,-6.4498e-05,6.085e-05,-2.0807e-05,-5.0066e-05,1.3471e-05,-2.697e-05,-0.00041127,-9.2336e-05,-1.0747e-05,2.3467e-05,-0.00016862,-4.9669e-05,-0.00037235,-0.00014033,-0.0001126,-0.00013845,-0.00012807,2.6287e-05,-8.4496e-05,-0.0001819,-1.4011e-09,-0.00010653,-0.00026259,-0.00018017,0.00017298,-0.0001307,-8.7026e-06,-4.4193e-05,-4.3639e-05,-0.00028996,-8.3456e-05,-0.0019621,-0.00014141,-0.00024487
-0.00062226,-0.00054527,-0.0011709,-1.4008,-0.000233,0.00014222,3.6163e-05,0.00023514,0.00036431,-0.00033363,-0.00025016,-0.00016772,-0.0005904,-0.00017122,3.3462e-05,-0.00094393,-0.0008088,-0.00030064,0.00051465,0.00035143,-0.00060258,0.00017042,-0.00022845,-0.00036161,-0.00073487,-6.9001e-05,1.8795e-05,-9.7601e-05,0.00084752,0.00015672,-0.00067082,-0.00062212,-0.00081754,-0.00027242,-7.1372e-05,1.2357e-06,-5.9046e-05,-0.00054047,-1.0728,-0.00065351,0.00011013,-0.0002815,-0.00026644,-0.00047806,-0.00019412,0.00022612,9.4252e-05,-0.00029576,-0.00025694,-0.00041381,-0.00028056,-0.00020271,9.0816e-05,-0.00019482,-0.00027278,4.2589e-06,-0.00020796,-0.0011975,-0.00050152,-0.00029778,0.0001205,-0.00078324,-0.00015986,-0.0013493,-0.00045076,-0.00038337,-0.00050558,-0.00057623,8.4755e-05,-0.00038505,-0.00056186,-0.00014261,-1.5438e-09,-0.0015023,-0.000465,0.00037861,-0.00020517,-4.9641e-05,-0.00015717,-8.4152e-05,-0.00067958,-0.00023163,-0.003749,-0.00067395,-0.0008857
-0.00023162,-0.00013883,-0.00047326,-1.3548,-0.00010452,8.9827e-05,8.9029e-06,0.00011471,0.000403,-0.00015303,-0.00014134,-1.6892e-05,-0.0002294,3.387e-06,2.0815e-05,-0.00044922,-0.00024891,-0.00013297,0.00026534,0.00023731,-0.00032438,0.00013478,-0.000121,-0.00012804,-0.00029868,-2.0349e-05,1.1383e-05,2.5111e-06,0.00042921,0.00011739,-0.00021632,-0.00021066,-0.00030203,-0.00011154,-7.8387e-05,3.8595e-05,-8.5721e-06,-0.00017483,-0.00091258,-0.00026328,0.00013901,-3.6232e-06,0.00012965,-0.00018208,-2.5398e-05,9.5083e-05,1.1815e-05,-2.3334e-05,-4.8017e-06,-0.00014255,-4.0566e-05,-8.2102e-05,0.00014585,-7.1758e-05,-0.00011118,-2.3248e-05,-8.5142e-05,-0.00042472,-0.00010481,-0.00010468,7.7425e-05,-0.00026635,-7.8288e-05,-0.00047034,-0.00019931,-0.00016247,-0.00013411,-0.00018308,5.1702e-05,-0.00010763,-0.00023404,1.217e-05,-0.0001467,-3.8704e-09,-0.00023196,0.00024639,-0.00010922,-4.0675e-06,-5.6334e-05,-6.5983e-05,-0.0001871,-0.00011193,-0.0010658,-0.00018492,-0.0003174
-3.3204e-05,-2.6353e-05,-6.7644e-05,-1.7573,-1.4203e-05,5.4214e-06,1.8549e-06,1.3076e-05,1.972e-05,-1.8396e-05,-1.5735e-05,-9.0101e-06,-3.2789e-05,-7.4124e-06,1.983e-06,-5.5199e-05,-4.1635e-05,-1.6609e-05,2.4449e-05,2.074e-05,-3.5353e-05,1.1086e-05,-1.3394e-05,-1.9764e-05,-4.1116e-05,-4.0741e-06,7.7843e-07,-5.707e-06,4.4789e-05,7.7838e-06,-3.8676e-05,-3.4408e-05,-4.7318e-05,-1.6775e-05,-4.9781e-06,3.7039e-07,-3.2734e-06,-2.8848e-05,-0.60328,-3.8359e-05,5.0071e-06,-1.4443e-05,-1.4947e-05,-2.6701e-05,-9.6135e-06,1.1513e-05,4.1793e-06,-1.4408e-05,-1.3042e-05,-2.5923e-05,-1.4264e-05,-1.0074e-05,-3.8207e-07,-1.0536e-05,-1.532e-05,4.6463e-07,-1.2753e-05,-6.5249e-05,-2.4284e-05,-1.567e-05,5.6473e-06,-4.2247e-05,-9.0816e-06,-7.0955e-05,-2.6492e-05,-2.1741e-05,-2.6877e-05,-2.9661e-05,3.4283e-06,-2.0136e-05,-3.1478e-05,-5.4397e-06,-1.1275e-05,-8.254e-05,-4.2569e-10,2.2774e-05,-1.2983e-05,-2.8908e-06,-8.142e-06,-2.1897e-06,-4.302e-05,-1.4142e-05,-0.00035012,-3.5076e-05,-4.8972e-05
-6.5021e-05,-4.0549e-05,-0.00012326,-1.5559,-2.8595e-05,3.1354e-05,5.2463e-06,3.7235e-05,0.00011194,-4.3016e-05,-3.3902e-05,-4.415e-06,-6.0334e-05,7.338e-07,1.0752e-05,-0.00011826,-6.1587e-05,-3.4227e-05,6.8065e-05,6.8815e-05,-8.3066e-05,4.3446e-05,-3.0503e-05,-3.2359e-05,-8.4909e-05,-4.1675e-06,5.1609e-06,-1.5793e-06,0.00014109,2.5168e-05,-6.2542e-05,-6.2879e-05,-8.2791e-05,-2.9878e-05,-1.7585e-05,1.645e-05,5.1485e-06,-4.3838e-05,-0.0015728,-7.0078e-05,3.3624e-05,-2.2084e-06,1.2474e-05,-4.3969e-05,-3.1635e-07,3.0398e-05,7.1209e-06,3.7635e-06,-4.5977e-06,-4.8001e-05,-1.1175e-05,-1.573e-05,1.8501e-05,-1.3809e-05,-2.7195e-05,1.1844e-05,-1.8016e-05,-0.00012252,-3.0781e-05,-2.7914e-05,2.1365e-05,-7.3155e-05,-1.867e-05,-0.00012916,-4.5823e-05,-4.6881e-05,-4.9132e-05,-4.7966e-05,1.786e-05,-3.1067e-05,-7.2666e-05,5.5644e-06,-3.5541e-05,-8.2441e-05,-5.9496e-05,-2.2185e-09,-1.5661e-05,2.9051e-07,-2.0388e-05,-1.5068e-05,-4.142e-05,-3.1477e-05,-0.00034708,-4.9672e-05,-8.4662e-05
-0.00017849,-0.00012423,-0.00031072,-1.3503,-6.2753e-05,8.835e-05,9.4337e-06,0.00010116,0.00023005,-6.6665e-05,-3.9661e-05,-2.6462e-05,-0.00012006,-3.7592e-05,5.1023e-05,-0.00029255,-0.00022097,-9.7769e-05,0.00022548,0.00013197,-0.00017981,6.5815e-05,-6.7214e-05,-8.9082e-05,-0.00019572,-5.85e-06,1.2311e-05,-1.9864e-06,0.00029614,7.1524e-05,-0.00016367,-0.00016835,-0.00022613,-6.8061e-05,-5.0672e-06,1.9691e-05,4.5448e-06,-0.00012843,-0.00074407,-0.0001872,6.6416e-05,-5.0123e-05,-3.9522e-05,-0.00011457,-3.2313e-05,7.4908e-05,2.8473e-05,-7.0401e-05,-3.1492e-05,-0.00013541,-6.2697e-05,-4.011e-05,3.7607e-05,-4.8294e-05,-7.599e-05,9.7802e-06,-7.7994e-05,-0.00022138,-0.0001076,-6.2319e-05,5.4308e-05,-0.00023199,-5.0843e-05,-0.00032192,-0.00011163,-0.0001034,-0.00013359,-0.00016076,4.0003e-05,-9.4992e-05,-0.0001729,-3.4804e-05,-6.1616e-05,-0.00037506,-0.00013638,0.00018277,-1.6825e-09,-1.2172e-05,-3.943e-05,-3.4618e-05,-9.4129e-05,-7.1479e-05,-0.0014833,-0.00017754,-0.00024522
-0.00045507,-0.00034672,-0.00085936,-1.2984,-0.00017959,6.9327e-05,2.9915e-05,0.00017977,0.00035607,-0.00028355,-0.00022977,-0.00011474,-0.0004766,-7.0382e-05,1.4749e-05,-0.00076958,-0.00055593,-0.00025006,0.00039278,0.00035813,-0.00051439,0.00020632,-0.00018602,-0.00028547,-0.00057055,-4.4737e-05,2.4258e-05,-5.6559e-05,0.00074989,0.00012666,-0.00050845,-0.00046356,-0.00061639,-0.00021526,-9.2648e-05,2.9984e-05,-2.0423e-05,-0.00038139,-0.81618,-0.00047308,0.00011578,-0.00016963,-0.00010673,-0.00036119,-7.2064e-05,0.00022002,3.2269e-05,-9.2988e-05,-0.00015509,-0.00035678,-0.00016611,-0.00014532,9.7811e-05,-0.00011839,-0.0001881,1.5588e-05,-0.00012889,-0.00092421,-0.0003157,-0.00015665,9.3574e-05,-0.00052707,-8.493e-05,-0.00099931,-0.0003444,-0.0002774,-0.00036742,-0.0003986,6.7422e-05,-0.00026544,-0.00044661,-3.818e-05,-0.00019711,-0.00071195,-0.00041249,0.00035663,-0.00023311,-3.2292e-09,-0.00010685,-9.628e-05,-0.00055884,-0.00018613,-0.0025741,-0.00044612,-0.00062305
-0.00010814,-8.8443e-05,-0.00021714,-0.78781,-4.3748e-05,2.0681e-05,1.0721e-05,4.57e-05,0.00010228,-6.8123e-05,-5.6865e-05,-2.7277e-05,-0.00011232,-1.5971e-05,8.7145e-06,-0.00019291,-0.00013619,-6.2375e-05,9.4583e-05,9.4602e-05,-0.00012792,5.1068e-05,-3.9482e-05,-5.9579e-05,-0.00014299,-8.1667e-06,8.7633e-06,-1.29e-05,0.00018219,3.8182e-05,-0.00012804,-0.00011086,-0.00015424,-5.4635e-05,-2.0077e-05,9.4426e-06,-6.234e-06,-9.3187e-05,-0.75089,-0.00012432,3.0978e-05,-3.2954e-05,-3.0772e-05,-9.2581e-05,-2.7428e-05,4.433e-05,8.1529e-06,-3.6771e-05,-3.6692e-05,-7.9039e-05,-4.0903e-05,-2.8791e-05,2.9094e-05,-2.4915e-05,-4.3147e-05,3.0848e-06,-3.1742e-05,-0.00023895,-8.0879e-05,-3.2199e-05,2.228e-05,-0.00012777,-2.909e-05,-0.00025399,-8.7086e-05,-6.6902e-05,-9.4895e-05,-9.8026e-05,1.8626e-05,-6.3788e-05,-0.00011163,-8.6727e-06,-5.144e-05,-0.00028331,-0.00010191,7.8863e-05,-5.6087e-05,-5.8388e-06,-1.3558e-09,-2.149e-05,-0.00014898,-4.9674e-05,-0.0011371,-0.0001145,-0.00016287
-3.4359e-05,-2.8134e-05,-6.6219e-05,-1.0324,-1.3387e-05,7.2404e-06,2.8205e-06,1.3213e-05,2.5525e-05,-2.0973e-05,-1.6352e-05,-8.716e-06,-3.4368e-05,-6.924e-06,1.8336e-06,-5.4068e-05,-4.1721e-05,-1.7782e-05,3.1088e-05,2.4243e-05,-3.608e-05,1.3186e-05,-1.2843e-05,-1.8986e-05,-4.3997e-05,-3.3715e-06,1.1353e-06,-4.8781e-06,5.1791e-05,1.0144e-05,-3.619e-05,-3.4513e-05,-4.499e-05,-1.6228e-05,-6.0445e-06,-9.3181e-08,-1.5826e-06,-2.9669e-05,-1.2653,-3.7166e-05,7.3453e-06,-1.3518e-05,-1.0031e-05,-2.8617e-05,-8.5794e-06,1.2523e-05,4.2142e-06,-1.2473e-05,-1.3074e-05,-2.3586e-05,-1.4341e-05,-1.1046e-05,7.8567e-06,-9.7647e-06,-1.4777e-05,9.3608e-07,-1.0595e-05,-7.1581e-05,-2.6398e-05,-1.4977e-05,7.1279e-06,-4.2283e-05,-8.586e-06,-7.637e-05,-2.5504e-05,-2.1822e-05,-2.9458e-05,-3.1634e-05,5.0854e-06,-2.0642e-05,-3.271e-05,-4.5454e-06,-1.2026e-05,-9.1564e-05,-2.4388e-05,2.4903e-05,-1.4768e-05,-2.5215e-06,-7.7217e-06,-1.5772e-09,-4.0633e-05,-1.3839e-05,-0.0003097,-3.5461e-05,-4.915e-05
-0.0053546,-0.0031727,-0.0083375,-0.28739,-0.0018657,0.0028128,0.0004899,0.0028336,0.0087258,-0.0024625,-0.0017998,-0.00071316,-0.0023978,-0.00050613,0.00086379,-0.0091975,-0.0052749,-0.0027809,0.0064404,0.0045532,-0.0059404,0.0020333,-0.0021913,-0.001352,-0.0057248,-8.0154e-05,0.00037519,4.8272e-05,0.0092162,0.0022487,-0.0048117,-0.004192,-0.0068452,-0.0013357,-0.00063394,0.00095833,8.0779e-05,-0.0029037,-0.0066966,-0.0047998,0.0022247,-0.00049333,0.00018795,-0.002828,-0.00064301,0.0020411,0.00054347,-0.00070074,0.00022368,-0.0032876,-0.0013419,-0.0010192,0.0016291,-0.0010484,-0.0019635,0.00037305,-0.0015435,-0.004089,-0.0027478,-0.00076116,0.001781,-0.005828,-0.0015984,-0.0089356,-0.0031502,-0.0030357,-0.0038016,-0.0043189,0.001368,-0.0021365,-0.0046761,-0.00040044,-0.002409,-0.0037897,-0.0045237,0.0066425,-0.00027541,-0.00024868,-0.00096642,-0.0012225,-4.1837e-09,-0.0021934,-0.017211,-0.0040569,-0.0063218
-0.00024611,-0.00017534,-0.00042666,-1.017,-8.8304e-05,5.7732e-05,1.8855e-05,9.1559e-05,0.00020639,-0.00015539,-0.00011296,-5.1415e-05,-0.00024174,-3.6977e-05,2.3025e-05,-0.00036292,-0.0002844,-0.00012814,0.00023647,0.0001829,-0.00026422,0.0001065,-9.7249e-05,-0.0001356,-0.00031078,-1.8656e-05,1.4257e-05,-3.2241e-05,0.00039476,7.3317e-05,-0.00024791,-0.00023959,-0.00031106,-0.00010746,-5.001e-05,3.5269e-06,7.3525e-06,-0.00019566,-0.95572,-0.00025253,6.1154e-05,-8.0227e-05,-4.474e-05,-0.00020211,-3.6811e-05,9.7783e-05,2.3455e-05,-5.5599e-05,-8.1602e-05,-0.00016513,-8.6791e-05,-7.679e-05,6.3132e-05,-5.8474e-05,-9.3427e-05,9.4454e-06,-5.9347e-05,-0.00051848,-0.00016451,-9.9642e-05,5.5708e-05,-0.00028672,-5.974e-05,-0.00052986,-0.00016951,-0.00014255,-0.00019929,-0.00020987,4.5463e-05,-0.00014414,-0.00022689,-2.4285e-05,-9.6422e-05,-0.00074501,-0.00021922,0.00018299,-0.00010965,-1.1363e-05,-6.008e-05,-4.6987e-05,-0.00030074,-1.5225e-09,-0.0020276,-0.00023006,-0.00033794
-0.00013549,0.00026977,-0.00050964,-0.00068293,-0.0002963,0.00031396,0.00016811,0.00022997,0.00066859,-0.00026914,-0.00017194,6.2782e-05,-0.00016963,0.00032752,-8.3082e-05,-0.00051421,-0.0002979,-0.00011458,0.00046439,0.00055282,-0.00024576,0.00062602,-0.00020449,-4.0332e-05,-0.00044526,0.00026336,0.00014026,0.00011213,0.0011233,0.00043827,-0.00039415,-0.00028925,0.00015969,-0.00027424,-5.4997e-07,-0.0002602,0.00040231,-0.00012135,0.0001604,-0.00037795,1.0032e-05,0.00021073,0.00016179,-0.0003449,6.3883e-05,0.00048967,0.00019479,0.00045276,0.00043587,-0.00016394,0.00024363,0.00013936,0.00070044,-2.2842e-05,-7.8653e-05,5.4666e-05,0.00024296,-0.00051076,4.5457e-05,0.00050541,7.218e-05,-0.00028869,-0.00024385,-0.00077886,0.00010072,0.00015366,-0.00019771,-0.00035924,0.00011945,-0.00023995,-0.00036739,3.3988e-05,-0.00030809,0.00039678,-0.00062707,0.00031756,-1.588e-05,0.00019985,0.00033144,1.5316e-05,0.00028729,-0.0001023,-3.5537e-15,-0.00015971,-0.00025304
-6.1552e-05,-3.8118e-05,-0.00010792,-1.4895,-2.6049e-05,1.3024e-05,6.3261e-06,2.1239e-05,7.6473e-05,-5.4277e-05,-3.8481e-05,-1.0888e-05,-7.1977e-05,3.0616e-06,6.2319e-06,-0.00011061,-6.0739e-05,-3.2489e-05,6.6299e-05,6.6079e-05,-7.9476e-05,4.3072e-05,-2.9057e-05,-3.7645e-05,-8.6328e-05,-4.5125e-06,1.9837e-06,-7.0987e-06,0.00011796,1.716e-05,-6.799e-05,-5.923e-05,-8.107e-05,-3.0486e-05,-2.7261e-05,3.0617e-06,6.3332e-07,-4.5328e-05,-0.09069,-6.8399e-05,2.0015e-05,-7.2282e-06,1.4041e-05,-5.2041e-05,-5.4136e-06,2.2272e-05,1.8176e-06,6.4249e-06,-1.5405e-05,-4.0027e-05,-9.1938e-06,-2.1259e-05,2.929e-05,-9.1467e-06,-1.9473e-05,8.7851e-06,-6.4532e-06,-0.00014971,-3.4022e-05,-1.111e-05,1.4151e-05,-6.0263e-05,-1.7548e-05,-0.00013142,-4.4197e-05,-3.6355e-05,-5.1996e-05,-4.146e-05,1.2471e-05,-2.8736e-05,-6.9844e-05,8.8733e-06,-3.6089e-05,-7.487e-05,-6.475e-05,6.8705e-05,-4.2009e-05,-2.9193e-06,-1.5826e-05,-1.5903e-05,-9.0577e-05,-2.7249e-05,-0.0003673,-2.9055e-09,-8.1314e-05
-9.6897e-05,-7.3208e-05,-0.00017707,-1.0205,-3.7666e-05,2.6665e-05,9.5763e-06,3.8021e-05,0.00011045,-7.3142e-05,-5.3597e-05,-1.5641e-05,-0.00011002,-5.599e-06,5.4446e-06,-0.00017054,-0.0001028,-5.6508e-05,0.00011083,9.4573e-05,-0.00011543,6.0631e-05,-4.2771e-05,-5.4077e-05,-0.00013289,-7.2101e-06,4.7185e-06,-6.2419e-06,0.00018851,3.2716e-05,-9.4287e-05,-9.5202e-05,-0.0001164,-4.2971e-05,-2.6974e-05,1.5164e-05,-1.4986e-06,-7.9013e-05,-0.52963,-9.0755e-05,3.7608e-05,-2.2253e-05,6.3051e-06,-8.3664e-05,-7.9285e-06,4.2367e-05,5.3627e-06,4.1815e-06,-2.7257e-05,-6.8397e-05,-2.7154e-05,-3.5946e-05,4.7235e-05,-1.8938e-05,-3.5014e-05,7.1413e-06,-1.6517e-05,-0.00021361,-6.46e-05,-2.574e-05,2.3949e-05,-0.00011173,-2.5533e-05,-0.00022062,-7.0115e-05,-6.0405e-05,-8.6096e-05,-8.0955e-05,1.7445e-05,-5.1117e-05,-9.9857e-05,3.8268e-06,-5.0692e-05,-0.00014509,-0.0001002,0.00010382,-5.4146e-05,-1.9122e-06,-2.3942e-05,-2.3272e-05,-0.00011134,-4.3665e-05,-0.00044192,-8.2553e-05,-3.0319e-09
