-2.882e-09,-0.00016727,-0.00025617,-0.00030892,-1.6044e-05,6.0736e-05,-2.7721e-05,7.4279e-05,4.2973e-05,-0.00012522,-1.8512e-05,2.2281e-05,-6.2152e-05,-2.2348e-05,0.00022954,-0.00015239,-0.00013184,-8.6316e-05,0.00029955,9.0241e-05,-0.00026158,9.4736e-05,-5.834e-05,0.00012854,-0.00018045,-6.2597e-05,3.4784e-05,3.9799e-06,0.0002205,6.2542e-05,-0.00016941,-1.4625e-05,-0.000293,2.7449e-06,-7.0921e-05,0.0001905,-0.00012898,-6.9454e-05,-0.62943,-0.00018595,0.00010296,-1.71e-05,7.7461e-07,2.1266e-05,-6.3203e-05,3.6968e-05,4.435e-05,-0.00012399,-0.00012787,-7.3721e-05,-7.2581e-05,-5.8474e-05,-8.6382e-05,7.7027e-05,6.2821e-05,2.5157e-05,1.8072e-05,-0.00037389,-0.00012607,-0.00017674,3.8499e-05,-0.00016239,-1.221e-05,-0.00021588,-0.00016295,-0.00011268,-0.00017385,-0.00012001,7.6636e-05,-8.057e-05,-0.00016678,-4.1403e-05,-4.4892e-05,-0.00044127,-0.0001231,0.00015174,-0.00013358,-9.2825e-06,-2.548e-05,-2.5367e-05,-0.00043295,-4.9359e-05,-0.0014103,-0.00013672,-0.0002194
-3.6167e-05,-2.1844e-09,-5.8835e-05,-7.3601e-05,-7.3074e-06,1.7565e-05,-9.8485e-06,1.6021e-05,1.3592e-05,-3.5514e-05,-5.31e-06,4.5998e-06,-1.3381e-05,-5.1267e-06,5.6815e-05,-4.2711e-05,-3.2757e-05,-2.1528e-05,6.6849e-05,2.2728e-05,-7.1275e-05,2.1845e-05,-1.9356e-05,3.0288e-05,-4.723e-05,-1.7881e-05,6.7024e-06,-8.8955e-07,4.8263e-05,1.4104e-05,-4.8139e-05,-7.5845e-06,-7.781e-05,-2.5867e-06,-2.1676e-05,5.2001e-05,-3.6226e-05,-1.6175e-05,-0.21363,-5.3072e-05,2.4808e-05,1.3783e-06,5.4958e-06,3.1346e-06,-1.4149e-05,6.1598e-06,8.7568e-06,-2.962e-05,-2.7671e-05,-1.6258e-05,-1.8632e-05,-1.5677e-05,-2.852e-05,1.8039e-05,1.3808e-05,3.3527e-06,3.6678e-06,-8.908e-05,-2.7953e-05,-4.3229e-05,1.2012e-05,-4.5999e-05,-6.3334e-06,-5.0928e-05,-4.0709e-05,-3.0694e-05,-4.5115e-05,-2.8946e-05,2.0549e-05,-1.9731e-05,-4.55e-05,-1.0201e-05,-1.5238e-05,-0.00010494,-3.2428e-05,3.7209e-05,-3.4299e-05,-4.4168e-06,-1.0609e-05,-9.4149e-06,-0.00010873,-1.1689e-05,-0.00053391,-3.1933e-05,-6.172e-05
-4.1929e-05,-4.444e-05,-2.6018e-09,-7.1049e-05,-3.8351e-06,2.0772e-05,-9.9941e-06,1.3276e-05,9.6023e-06,-4.0625e-05,-1.8631e-06,6.612e-06,-1.6695e-05,-7.3644e-06,5.7692e-05,-3.465e-05,-3.5362e-05,-2.7609e-05,8.9528e-05,2.1562e-05,-6.6989e-05,2.5515e-05,-1.7656e-05,3.6571e-05,-4.9113e-05,-1.6163e-05,5.6529e-06,4.9933e-06,5.8482e-05,1.8033e-05,-3.9568e-05,-1.3693e-06,-7.1813e-05,4.6113e-06,-2.1915e-05,5.0413e-05,-3.8638e-05,-1.7103e-05,-0.67126,-4.8219e-05,2.8629e-05,-1.4759e-06,8.4175e-06,7.9635e-06,-1.4968e-05,6.926e-06,7.7378e-06,-2.8257e-05,-3.4384e-05,-1.3251e-05,-2.3159e-05,-2.2509e-05,-1.5293e-05,2.1791e-05,1.8044e-05,5.8419e-06,7.9723e-06,-9.388e-05,-3.6872e-05,-4.0556e-05,1.091e-05,-4.7218e-05,-4.8074e-06,-6.303e-05,-4.0805e-05,-3.254e-05,-5.341e-05,-3.2928e-05,1.9976e-05,-2.2887e-05,-4.4769e-05,-1.4038e-05,-1.2852e-05,-0.00011588,-3.9328e-05,3.887e-05,-3.2149e-05,-5.1771e-06,-1.0583e-05,-9.7012e-06,-9.4809e-05,-1.1513e-05,-0.00022347,-3.2713e-05,-5.8368e-05
-2.1928e-05,-2.1385e-05,-3.308e-05,-2.527e-09,-6.1694e-07,2.0316e-05,-4.8232e-06,1.7691e-05,2.883e-05,-1.4382e-05,4.4933e-06,7.5151e-06,1.6107e-05,-1.1274e-06,5.3644e-05,-2.4789e-05,-1.7074e-05,-1.2119e-05,6.5734e-05,1.7759e-05,-4.1515e-05,1.2216e-05,-1.106e-05,3.1168e-05,-2.271e-05,-8.3316e-06,6.8804e-06,3.1867e-06,3.6116e-05,1.1247e-05,-2.4624e-05,2.9928e-06,-4.5081e-05,3.8834e-06,-8.8889e-06,4.0129e-05,-1.9922e-05,-1.5633e-06,-5.5554e-05,-2.6536e-05,1.986e-05,4.3675e-06,7.4445e-06,1.403e-05,-6.329e-06,5.5672e-06,8.3698e-06,-1.6884e-05,-8.9939e-06,-1.1163e-05,-6.5505e-06,-5.2693e-06,-1.6983e-05,1.5829e-05,1.2464e-05,5.9063e-06,1.0343e-06,-9.2562e-06,-1.0544e-05,-1.358e-05,9.4113e-06,-2.456e-05,-3.6809e-06,-2.0501e-05,-2.0799e-05,-1.792e-05,-2.4152e-05,-1.551e-05,1.28e-05,-7.7783e-06,-2.7336e-05,-7.1208e-06,-8.1465e-06,-3.935e-05,-1.6908e-05,3.371e-05,-4.9335e-06,-1.2446e-06,-3.6058e-06,-5.0015e-06,-1.3418e-05,-7.1756e-06,-0.00014619,-1.5174e-05,-3.301e-05
-7.389e-05,-9.2326e-05,-0.00011591,-0.00013463,-2.3457e-09,4.6308e-05,-9.6436e-06,3.455e-05,-1.1291e-06,-5.5819e-05,2.3958e-06,7.7974e-06,-2.6243e-05,-2.6953e-05,9.8969e-05,-5.6499e-05,-7.7276e-05,-4.8986e-05,0.00014683,2.2891e-05,-0.00010484,2.7731e-05,-2.4652e-05,6.157e-05,-8.3082e-05,-2.6883e-05,1.5545e-05,6.1646e-06,9.9933e-05,3.7902e-05,-6.1481e-05,-1.3271e-05,-0.00011511,7.0942e-06,-2.0873e-05,7.7871e-05,-5.9226e-05,-4.1262e-05,-1.0239,-7.1551e-05,4.6157e-05,-1.8381e-05,-1.451e-05,6.1903e-06,-3.0903e-05,1.9571e-05,2.0421e-05,-7.4089e-05,-6.5195e-05,-1.9163e-05,-4.8556e-05,-3.6663e-05,-2.7174e-05,2.6848e-05,2.1645e-05,8.582e-06,1.2536e-06,-0.00014844,-7.3732e-05,-9.3205e-05,2.1404e-05,-9.4041e-05,-7.6234e-06,-0.00011736,-6.2906e-05,-5.199e-05,-8.7034e-05,-6.6816e-05,3.9441e-05,-4.3919e-05,-7.2874e-05,-4.0136e-05,-1.2849e-05,-0.00025572,-5.9254e-05,4.9354e-05,-5.1484e-05,-6.1727e-06,-1.4962e-05,-1.0407e-05,-0.00019074,-1.9061e-05,-0.00041046,-7.2113e-05,-0.0001022
-6.4186e-05,-6.1921e-05,-9.0515e-05,-8.109e-05,1.3655e-06,-2.9482e-09,-5.2522e-06,4.7391e-05,2.8523e-05,-2.6915e-05,1.5815e-05,8.4518e-06,1.9841e-06,-2.7501e-05,9.5679e-05,-3.7828e-05,-6.1903e-05,-3.6495e-05,0.00010028,1.2342e-05,-8.2098e-05,1.0253e-05,-1.8848e-05,6.8665e-05,-5.1328e-05,-1.75e-05,1.573e-05,1.5051e-05,8.1389e-05,3.9142e-05,-3.4423e-05,1.6152e-06,-7.7624e-05,1.4251e-05,1.5864e-06,7.1108e-05,-4.9098e-05,-2.585e-05,-0.78059,-5.1016e-05,5.3856e-05,3.0742e-05,-7.331e-08,1.5294e-05,-2.481e-05,1.902e-05,2.3624e-05,-7.803e-05,-1.4741e-05,1.2613e-05,-3.9969e-05,-2.1988e-05,-1.4542e-05,7.9228e-06,1.2377e-06,1.3801e-05,-1.1949e-05,-7.713e-05,-4.74e-05,-0.00010847,3.5235e-05,-8.8649e-05,-6.1775e-06,-7.9914e-05,-5.0177e-05,-3.6367e-05,-6.4074e-05,-5.4956e-05,6.5079e-05,-2.9834e-05,-5.4968e-05,-4.3499e-05,-3.3388e-06,-0.00011968,-3.6214e-05,5.214e-05,-1.2275e-05,-6.6238e-06,-1.134e-05,-5.664e-06,-9.3876e-05,-1.2726e-05,-0.00018787,-5.6615e-05,-7.7402e-05
-1.9455e-05,-2.471e-05,-3.3944e-05,-3.9363e-05,-1.3816e-06,1.1214e-05,-1.7437e-09,9.0026e-06,-5.0032e-07,-1.3119e-05,-4.207e-07,9.8259e-07,-6.6824e-06,-7.4604e-06,2.7101e-05,-1.5595e-05,-2.1691e-05,-1.1833e-05,3.096e-05,5.9879e-06,-2.8068e-05,6.0274e-06,-6.7285e-06,1.392e-05,-2.0793e-05,-7.2671e-06,6.2285e-06,7.0775e-07,2.2886e-05,8.6976e-06,-1.9517e-05,-3.5872e-06,-3.3434e-05,5.3483e-07,-4.6954e-06,2.0075e-05,-1.6243e-05,-1.1904e-05,-1.1703,-2.0835e-05,1.1133e-05,-4.8413e-06,-6.643e-06,2.6202e-07,-8.7718e-06,4.5868e-06,5.1015e-06,-2.1393e-05,-1.7903e-05,-7.9329e-06,-1.3578e-05,-8.7807e-06,-1.1169e-05,5.9033e-06,4.377e-06,1.9809e-06,-3.6172e-07,-3.8989e-05,-1.9431e-05,-2.4574e-05,5.8611e-06,-2.5775e-05,-2.6314e-06,-3.2742e-05,-1.9454e-05,-1.3875e-05,-2.0252e-05,-1.8777e-05,1.0506e-05,-1.219e-05,-1.7748e-05,-1.0268e-05,-3.5011e-06,-7.5694e-05,-1.4526e-05,1.1632e-05,-1.4426e-05,-2.3795e-06,-4.2055e-06,-2.6711e-06,-4.8399e-05,-5.4768e-06,-0.00015201,-2.0025e-05,-2.9027e-05
-3.6764e-05,-4.5073e-05,-7.0091e-05,-7.932e-05,-4.0816e-06,2.2347e-05,-5.6262e-06,-1.5992e-09,-3.3421e-06,-1.5326e-05,1.6458e-06,-1.2945e-06,-7.6512e-06,-1.5536e-05,5.2025e-05,-3.7569e-05,-4.529e-05,-2.1734e-05,4.5165e-05,9.8086e-06,-4.9557e-05,5.7358e-06,-1.2506e-05,2.1797e-05,-3.2568e-05,-1.0328e-05,7.3982e-06,9.0376e-08,3.6287e-05,1.4309e-05,-3.7962e-05,-1.5416e-05,-6.257e-05,-2.5239e-06,-1.5147e-06,3.6365e-05,-2.8068e-05,-2.2856e-05,-0.097263,-4.1087e-05,1.7256e-05,-1.5815e-05,-2.5342e-05,2.1375e-06,-1.9339e-05,9.1915e-06,1.1286e-05,-5.6677e-05,-3.1172e-05,-1.8306e-05,-2.5157e-05,-1.0779e-05,-2.671e-05,3.0797e-06,-4.1118e-07,5.5102e-06,-1.1087e-05,-5.7383e-05,-2.908e-05,-5.0213e-05,1.0244e-05,-5.2258e-05,-5.8042e-06,-5.7531e-05,-3.6215e-05,-2.4754e-05,-3.6012e-05,-3.6271e-05,1.5367e-05,-2.0876e-05,-3.2967e-05,-2.1387e-05,-4.1138e-06,-0.00012935,-2.1828e-05,1.7935e-05,-1.6782e-05,-3.5648e-06,-7.4066e-06,-4.5349e-06,-9.2241e-05,-9.7076e-06,-0.00052103,-4.2308e-05,-5.5031e-05
-5.9491e-05,-5.3408e-05,-9.935e-05,-4.1351e-05,6.3244e-08,0.00011418,-7.1009e-06,5.8971e-05,-2.0063e-09,-4.3971e-05,1.5618e-05,4.7726e-05,3.7818e-05,1.8562e-06,0.00017323,-7.2978e-05,-3.3867e-05,-2.9904e-05,0.00019517,5.721e-05,-0.00012966,4.9349e-05,-2.9998e-05,0.00010738,-6.561e-05,-2.2878e-05,2.507e-05,2.3003e-05,0.00012805,7.0625e-05,-5.5133e-05,3.2498e-05,-0.00012646,3.176e-05,-2.801e-05,0.00012403,-5.2779e-05,2.9798e-06,-0.00017642,-8.3459e-05,9.0284e-05,5.7045e-05,0.0001525,6.6143e-05,-1.6901e-05,1.7161e-05,2.8983e-05,-5.5475e-05,-1.6944e-06,-2.1338e-05,-1.9319e-05,-1.4474e-05,3.2223e-05,4.8465e-05,3.842e-05,2.0513e-05,2.5839e-06,-4.3013e-05,-2.4607e-05,-6.6855e-05,4.0363e-05,-7.5435e-05,-1.198e-05,-5.654e-05,-6.6178e-05,-4.2464e-05,-6.405e-05,-4.1548e-05,5.4973e-05,-1.9318e-05,-7.5044e-05,-6.2455e-06,-3.0392e-05,-5.1633e-05,-5.5844e-05,0.00012986,-1.1824e-05,-6.1274e-06,-1.1602e-05,-1.8782e-05,-4.0603e-05,-1.8529e-05,-0.00027408,-3.7629e-05,-8.5463e-05
-0.00015501,-0.00019758,-0.0002982,-0.00034276,-2.198e-05,9.1741e-05,-2.2962e-05,0.00010236,-1.0312e-05,-1.9369e-09,9.7317e-06,5.675e-07,-2.3129e-05,-7.1168e-05,0.00024148,-0.00016515,-0.00020191,-9.5463e-05,0.00020075,2.4975e-05,-0.00021758,2.3177e-05,-5.1346e-05,7.9031e-05,-0.00014052,-4.6287e-05,3.9256e-05,7.6585e-06,0.00016498,6.6965e-05,-0.00017665,-5.3757e-05,-0.00026823,-1.7175e-05,1.3707e-05,0.00016565,-0.00011587,-9.3736e-05,-0.044775,-0.00018019,7.8523e-05,-7.6935e-05,-0.00012438,1.5596e-05,-8.1677e-05,4.8261e-05,5.2749e-05,-0.00024383,-0.00013906,-0.00010458,-0.00010664,-4.1632e-05,-0.00015227,1.4632e-05,8.7418e-07,1.4678e-05,-4.6747e-05,-0.00024651,-0.00013525,-0.00022928,4.1928e-05,-0.00022552,-2.2473e-05,-0.00024179,-0.0001642,-0.00011168,-0.00015684,-0.00015956,5.7445e-05,-0.00010471,-0.00014068,-9.7053e-05,-1.8998e-05,-0.00065147,-9.4478e-05,8.232e-05,-5.8679e-05,-1.2261e-05,-2.6716e-05,-2.1287e-05,-0.00037159,-4.5487e-05,-0.0022211,-0.00018998,-0.00023739
-0.00016808,-0.00019642,-0.00024605,-0.00028099,-1.1201e-05,9.5401e-05,-2.3774e-05,7.606e-05,-4.211e-05,-8.2738e-05,-2.9265e-09,-2.292e-06,-3.9242e-05,-7.5454e-05,0.00023111,-0.00013295,-0.0001931,-9.8269e-05,0.00027671,2.042e-05,-0.00019319,2.6131e-05,-5.1832e-05,0.00010163,-0.0001528,-4.7639e-05,3.1369e-05,5.3816e-06,0.00016335,5.8884e-05,-0.00014266,-5.0789e-05,-0.00023767,-1.5174e-06,-1.5064e-05,0.00014547,-0.00012556,-9.978e-05,-0.46478,-0.0001566,6.6738e-05,-6.2754e-05,-9.7278e-05,-9.4157e-07,-7.4946e-05,3.4851e-05,4.7068e-05,-0.00019474,-0.0001512,-6.9658e-05,-0.00012382,-7.0113e-05,-0.00010443,2.9885e-05,2.1322e-05,9.2455e-06,-2.7213e-05,-0.00026254,-0.0001637,-0.00019229,3.2045e-05,-0.00022813,-2.3835e-05,-0.00025177,-0.00013631,-0.00010297,-0.00017644,-0.00016255,6.0984e-05,-0.00010641,-0.00013696,-0.00010126,-9.3354e-06,-0.00067245,-9.9715e-05,6.9959e-05,-5.1477e-05,-1.871e-05,-3.9024e-05,-1.9326e-05,-0.00033926,-3.9022e-05,-0.00098735,-0.00018521,-0.00022772
-5.9564e-05,-7.1007e-05,-9.3911e-05,-0.00012229,-4.6896e-06,3.2703e-05,-1.2563e-05,2.1986e-05,1.5732e-05,-4.7302e-05,-2.5333e-06,-1.9831e-09,-1.7391e-05,-1.8221e-05,7.7035e-05,-4.3906e-05,-5.5554e-05,-3.3578e-05,0.00010482,2.0172e-05,-9.6803e-05,2.4562e-05,-2.338e-05,4.8951e-05,-6.2154e-05,-2.4241e-05,9.5161e-06,2.9568e-05,8.139e-05,2.9148e-05,-4.6826e-05,-4.3635e-06,-9.3297e-05,9.0911e-06,-2.311e-05,0.00010131,-4.804e-05,-2.6212e-05,-0.26508,-6.0893e-05,6.7099e-05,-8.4099e-06,-1.3966e-06,1.5545e-05,-1.9535e-05,1.1209e-05,1.5422e-05,-5.0078e-05,-4.8167e-05,-2.5478e-05,-3.3687e-05,-2.6861e-05,-2.7031e-05,1.77e-05,1.1802e-05,4.2669e-06,-1.4547e-07,-0.00012291,-5.1659e-05,-8.6433e-05,1.6109e-05,-7.4891e-05,-7.7035e-06,-8.2419e-05,-5.2376e-05,-4.4631e-05,-6.7744e-05,-4.9418e-05,2.7671e-05,-3.308e-05,-6.3112e-05,-3.0439e-05,-1.4092e-05,-0.00015099,-4.5548e-05,5.743e-05,-4.2144e-05,-6.6884e-06,-1.3366e-05,-1.075e-05,-0.00017437,-1.6321e-05,-0.00030201,-5.1694e-05,-7.7905e-05
-0.00011246,-0.00010642,-0.00018803,-4.91e-05,-9.4528e-06,0.00010579,-1.9679e-05,9.9929e-05,0.00012273,-3.7573e-05,2.8631e-05,3.0316e-05,-2.76e-09,-2.2763e-05,0.00027123,-0.00013527,-9.4595e-05,-6.0962e-05,0.00024252,5.2592e-05,-0.00018814,3.4446e-05,-4.6539e-05,0.00012822,-9.3532e-05,-3.5178e-05,3.7009e-05,1.978e-05,0.00014819,6.4841e-05,-0.00012281,-5.7168e-06,-0.00020408,8.9549e-06,-1.3915e-05,0.00019174,-8.4503e-05,-1.9196e-05,-0.00025092,-0.00012906,8.9485e-05,1.2012e-05,-1.6085e-06,6.1782e-05,-3.7059e-05,2.8917e-05,4.2931e-05,-0.00012375,-3.2417e-05,-6.8709e-05,-4.1728e-05,-1.6072e-05,-9.8989e-05,4.8651e-05,3.2199e-05,2.4884e-05,-2.7729e-05,-3.2807e-05,-5.3551e-05,-9.0064e-05,4.3438e-05,-0.00012886,-2.3135e-05,-0.00010162,-0.00010944,-7.852e-05,-0.00010193,-8.5185e-05,6.0363e-05,-4.7081e-05,-0.00011644,-4.5888e-05,-2.996e-05,-0.00018851,-7.0028e-05,0.00013345,-9.618e-06,-5.5054e-06,-1.5946e-05,-2.346e-05,-6.9756e-05,-3.2369e-05,-0.00080959,-8.8452e-05,-0.000161
-2.8865e-05,-3.2797e-05,-4.8965e-05,-5.7495e-05,-5.3121e-06,9.6695e-06,-7.8893e-06,1.3878e-05,1.1901e-05,-3.0175e-05,-4.7816e-06,3.8507e-06,-1.1997e-05,-1.5834e-09,4.538e-05,-3.6103e-05,-2.449e-05,-1.7417e-05,5.9909e-05,2.3206e-05,-5.7592e-05,2.281e-05,-1.4658e-05,2.3342e-05,-3.6903e-05,-1.3538e-05,5.4593e-06,-7.6413e-07,4.1202e-05,1.132e-05,-3.959e-05,-5.4525e-06,-6.3926e-05,-2.6872e-06,-2.0216e-05,4.3056e-05,-2.8553e-05,-1.0946e-05,-0.36687,-4.3046e-05,2.0695e-05,1.1562e-06,6.6457e-06,2.9999e-06,-1.2676e-05,5.0956e-06,6.9333e-06,-2.246e-05,-2.6002e-05,-1.4647e-05,-1.178e-05,-1.3341e-05,-1.9559e-05,1.7914e-05,1.513e-05,7.0329e-06,7.3931e-06,-7.5336e-05,-2.1645e-05,-3.0212e-05,5.8469e-06,-3.2334e-05,-5.3213e-06,-4.6112e-05,-3.6847e-05,-2.6356e-05,-3.6239e-05,-2.2116e-05,1.4289e-05,-1.4257e-05,-3.6795e-05,-4.8519e-06,-1.3315e-05,-7.8779e-05,-2.7751e-05,3.0913e-05,-3.4068e-05,-3.4451e-06,-8.0144e-06,-7.6909e-06,-8.7938e-05,-1.1049e-05,-0.00033266,-2.3805e-05,-4.7386e-05
-6.3835e-05,-7.3406e-05,-0.00010699,-0.00011817,-7.4216e-06,3.3838e-05,-9.9138e-06,3.47e-05,2.5126e-06,-3.1296e-05,6.1964e-06,6.5095e-07,-9.1032e-06,-2.5244e-05,-2.6404e-09,-6.2695e-05,-7.1604e-05,-3.7324e-05,8.3847e-05,1.4735e-05,-9.3144e-05,1.3258e-05,-2.4104e-05,3.5183e-05,-6.1135e-05,-2.246e-05,1.4226e-05,8.9429e-07,6.8623e-05,2.2394e-05,-7.8031e-05,-2.0674e-05,-0.0001183,-9.7565e-06,-9.8161e-06,7.5937e-05,-4.8178e-05,-3.4135e-05,-0.15205,-7.8371e-05,2.765e-05,-2.3633e-05,-3.5764e-05,7.3957e-06,-3.3725e-05,1.2539e-05,1.7894e-05,-8.2941e-05,-5.0183e-05,-4.6299e-05,-3.889e-05,-2.1597e-05,-5.8807e-05,2.0418e-05,1.4623e-05,7.4979e-06,-1.5097e-05,-0.00010261,-5.568e-05,-7.6327e-05,1.3664e-05,-8.8306e-05,-1.2581e-05,-9.0879e-05,-6.2968e-05,-4.5018e-05,-6.2429e-05,-6.356e-05,2.1069e-05,-4.2419e-05,-5.8738e-05,-3.4139e-05,-1.2464e-05,-0.00033896,-4.1992e-05,4.0681e-05,-2.218e-05,-8.3914e-06,-1.4888e-05,-1.2108e-05,-0.00014391,-1.9225e-05,-0.0013785,-6.9568e-05,-0.00010449
-4.348e-05,-5.5212e-05,-6.3501e-05,-8.6565e-05,-1.7883e-06,2.9263e-05,-4.8768e-06,1.6035e-05,-7.7378e-07,-3.6257e-05,-1.5441e-06,6.8261e-06,-1.9437e-05,-1.6217e-05,5.5634e-05,-2.245e-09,-4.4518e-05,-2.558e-05,8.6608e-05,1.2088e-05,-6.4274e-05,1.7099e-05,-1.4207e-05,3.7512e-05,-5.3088e-05,-1.8557e-05,9.5916e-06,5.9809e-06,6.0824e-05,2.0893e-05,-3.68e-05,-3.4025e-06,-6.3596e-05,3.9273e-06,-1.4186e-05,4.5993e-05,-2.9043e-05,-2.5129e-05,-2.1212,-4.6201e-05,3.0375e-05,-6.3659e-06,-5.2768e-06,2.7744e-06,-1.8429e-05,1.1414e-05,1.2833e-05,-4.2341e-05,-4.3021e-05,-1.0676e-05,-3.0492e-05,-2.2962e-05,-1.3864e-05,1.4751e-05,1.0778e-05,3.0851e-06,2.672e-06,-0.00012124,-4.4569e-05,-6.1962e-05,1.138e-05,-5.5043e-05,-4.3427e-06,-7.1037e-05,-3.9782e-05,-3.235e-05,-5.3565e-05,-3.8655e-05,2.3723e-05,-3.035e-05,-4.7005e-05,-2.357e-05,-6.0199e-06,-0.00013328,-3.3761e-05,3.377e-05,-3.1807e-05,-4.1761e-06,-8.7584e-06,-4.3772e-06,-0.0001122,-4.6731e-06,-0.00019598,-4.1949e-05,-6.2086e-05
-4.0864e-05,-4.6177e-05,-6.684e-05,-8.8673e-05,-3.7805e-06,2.3232e-05,-9.4381e-06,2.1069e-05,3.04e-05,-4.9605e-05,-5.9055e-06,1.3644e-05,-1.6162e-05,1.3637e-06,7.5173e-05,-4.5087e-05,-2.6619e-09,-2.3916e-05,9.3828e-05,3.8931e-05,-8.6606e-05,3.6677e-05,-2.1308e-05,4.7886e-05,-6.0094e-05,-2.0953e-05,7.6589e-06,3.6911e-06,7.4295e-05,2.1212e-05,-4.2957e-05,4.0037e-06,-7.846e-05,5.5457e-06,-3.0859e-05,7.4163e-05,-4.2387e-05,-1.4199e-05,-0.098965,-5.5948e-05,3.783e-05,7.0767e-06,2.2518e-05,1.14e-05,-1.1575e-05,6.8473e-06,1.2898e-05,-2.1351e-05,-3.4381e-05,-1.5686e-05,-1.5251e-05,-2.1654e-05,-1.5854e-05,3.4076e-05,2.8632e-05,1.179e-05,1.6219e-05,-0.00012572,-3.0296e-05,-4.6482e-05,1.3844e-05,-4.316e-05,-6.1403e-06,-6.8315e-05,-5.6317e-05,-3.4562e-05,-5.2886e-05,-2.9668e-05,2.5369e-05,-2.1422e-05,-5.1613e-05,-5.1472e-06,-2.0445e-05,-0.00011362,-4.299e-05,6.8435e-05,-5.2355e-05,-4.6817e-06,-9.9688e-06,-9.4346e-06,-0.00013683,-1.4063e-05,-0.00026006,-2.8833e-05,-6.2353e-05
-5.3084e-05,-6.1989e-05,-9.6936e-05,-0.00010777,-7.6393e-06,2.7174e-05,-8.3866e-06,2.9218e-05,9.8342e-06,-4.2157e-05,-2.5048e-06,9.2526e-06,-1.9697e-05,-1.2475e-05,8.5649e-05,-5.3304e-05,-5.2124e-05,-3.2381e-10,9.9592e-05,2.5659e-05,-9.0463e-05,2.6124e-05,-2.2417e-05,4.298e-05,-6.4482e-05,-2.1471e-05,1.3916e-05,1.0875e-06,6.8252e-05,2.1858e-05,-6.4367e-05,-8.5966e-06,-0.00010587,-2.9977e-06,-2.0547e-05,7.1314e-05,-4.6284e-05,-2.7023e-05,-0.57397,-7.5685e-05,3.6244e-05,-5.2865e-06,-1.2398e-05,5.1263e-06,-2.4621e-05,1.1902e-05,2.3102e-05,-5.6805e-05,-4.9242e-05,-2.5099e-05,-2.9947e-05,-2.0779e-05,-3.8237e-05,2.1738e-05,1.7048e-05,1.2897e-05,1.2695e-06,-0.00012067,-4.8422e-05,-6.7308e-05,1.4896e-05,-6.341e-05,-7.5739e-06,-8.5187e-05,-6.4013e-05,-4.2061e-05,-6.1526e-05,-4.4285e-05,2.9588e-05,-3.0871e-05,-5.776e-05,-1.8776e-05,-7.1436e-06,-0.00017679,-3.6951e-05,4.733e-05,-4.42e-05,-4.3645e-06,-1.1338e-05,-4.8013e-06,-0.00014498,-1.3719e-05,-0.00072935,-5.1006e-05,-8.5653e-05
-0.0004526,-0.00057691,-0.0006307,-0.00079855,-3.354e-05,0.0001766,-9.6868e-05,0.00014112,-3.2498e-05,-0.00035033,7.7955e-05,1.7377e-05,-0.000144,-0.00017061,0.00050597,-0.00034383,-0.00048207,-0.0002724,-2.7727e-09,0.00011096,-0.00052435,0.0001287,-0.00016355,0.00026444,-0.00047154,-0.00017965,2.5809e-05,2.6046e-06,0.00055241,0.00016918,-0.00024972,-0.00012525,-0.00062614,-1.5538e-05,-0.00016445,0.00046976,-0.00031727,-0.00026925,-0.71376,-0.00044604,0.00021909,-0.0001039,-0.00011097,-6.7968e-05,-0.0002223,8.1131e-05,8.1618e-05,-0.00040283,-0.00039476,-0.0001619,-0.0002974,-0.00025049,-4.6836e-05,9.0769e-05,5.785e-05,1.6832e-05,-4.8799e-05,-0.00090986,-0.00045193,-0.00045147,5.3825e-05,-0.00054244,-7.2977e-05,-0.00078606,-0.00041336,-0.00027568,-0.00053296,-0.00043194,0.00014336,-0.00025363,-0.00039964,-0.00023749,-5.7809e-05,-0.0019904,-0.00033586,0.00027761,-0.00018957,-7.0975e-05,-0.00015188,-4.0778e-05,-0.00091792,-0.00012289,-0.0033082,-0.00042179,-0.00060528
-0.00025378,-0.00028536,-0.00043581,-0.00047842,-3.6048e-05,0.00010525,-4.9076e-05,0.00017011,8.9063e-05,-0.00024722,-1.9353e-05,2.647e-05,-9.9612e-05,-1.0398e-05,0.00042364,-0.00030814,-0.00022263,-0.00015557,0.00052781,-3.0398e-09,-0.00047045,0.00018012,-0.00011365,0.00023448,-0.00031072,-0.00010965,5.5858e-05,-6.7027e-06,0.00038408,0.00010633,-0.00032621,-4.1081e-05,-0.00053225,6.172e-06,-0.00015017,0.00036916,-0.00025822,-0.00010928,-0.45859,-0.00034865,0.00017605,-5.9958e-06,4.0351e-05,3.6889e-05,-8.8938e-05,4.6705e-05,7.4749e-05,-0.00019399,-0.00024501,-0.00011134,-0.00012698,-0.00011539,-0.0001757,0.00015907,0.00013093,5.1063e-05,4.2934e-05,-0.00059735,-0.00017979,-0.00026514,6.4988e-05,-0.00029391,-4.3046e-05,-0.00041754,-0.00032847,-0.00021107,-0.00030827,-0.00020259,0.0001398,-0.00010983,-0.0003109,-5.3304e-05,-9.7292e-05,-0.000679,-0.00023694,0.00024424,-0.00024229,-2.4734e-05,-5.2697e-05,-5.8783e-05,-0.00071805,-8.7328e-05,-0.0038248,-0.00022939,-0.00041568
-4.2477e-05,-5.4882e-05,-6.541e-05,-8.8443e-05,-3.7404e-06,1.6818e-05,-6.0796e-06,1.7124e-05,-1.3017e-05,-2.7279e-05,8.9296e-07,-2.37e-06,-1.8452e-05,-1.8591e-05,4.8388e-05,-3.5508e-05,-4.955e-05,-2.6397e-05,7.8813e-05,7.4952e-06,-1.6971e-09,1.2017e-05,-1.3174e-05,2.3475e-05,-4.2453e-05,-1.4145e-05,6.2476e-06,1.6814e-07,4.5726e-05,1.4595e-05,-3.9775e-05,-1.3645e-05,-6.3052e-05,-1.8203e-06,-8.2804e-06,3.324e-05,-3.2544e-05,-2.8749e-05,-1.5167,-4.5649e-05,1.6251e-05,-1.8963e-05,-2.5785e-05,-3.9673e-06,-2.1582e-05,1.072e-05,1.1095e-05,-5.1109e-05,-4.5082e-05,-1.827e-05,-2.9099e-05,-1.9895e-05,-2.4788e-05,6.2443e-06,3.9962e-06,2.2742e-06,-3.5112e-06,-9.089e-05,-4.2383e-05,-5.4955e-05,8.4022e-06,-5.6564e-05,-6.5659e-06,-7.5077e-05,-3.9102e-05,-2.7759e-05,-4.8131e-05,-4.1719e-05,1.7589e-05,-2.6647e-05,-3.8268e-05,-2.3989e-05,-3.5798e-06,-0.00014762,-2.8286e-05,1.8498e-05,-2.4848e-05,-4.7072e-06,-1.0109e-05,-4.2246e-06,-0.00010757,-1.1598e-05,-0.00021505,-4.6308e-05,-5.9863e-05
-0.00020602,-0.00024909,-0.00032571,-0.00044353,-2.3578e-05,7.4483e-05,-5.0399e-05,8.9626e-05,6.2228e-05,-0.0002251,-2.3092e-05,3.4889e-05,-0.00010371,-1.1376e-05,0.00031757,-0.00022682,-0.00019365,-0.00013432,0.00047505,0.00014962,-0.00036744,-1.9897e-09,-9.2889e-05,0.00019237,-0.00027553,-8.4199e-05,4.1118e-05,7.219e-06,0.0003255,8.2294e-05,-0.00025997,-1.8375e-05,-0.00042389,1.0137e-05,-0.00013701,0.00026464,-0.00019164,-9.3455e-05,-1.0763,-0.00028125,0.00015215,-6.5716e-06,2.4573e-05,2.6949e-05,-7.8021e-05,4.7595e-05,5.0126e-05,-0.00014015,-0.00019935,-7.8008e-05,-0.00010515,-0.00010598,-0.00013154,0.00013157,0.00011293,4.2957e-05,5.3852e-05,-0.00054165,-0.0001737,-0.00022067,4.2985e-05,-0.00023206,-2.4052e-05,-0.00032751,-0.0002375,-0.00018185,-0.00027845,-0.00016158,0.00012185,-0.00010902,-0.00024385,-3.0827e-05,-8.2351e-05,-0.00059111,-0.00019643,0.00022888,-0.00021179,-1.31e-05,-5.1795e-05,-4.4225e-05,-0.00062761,-7.2357e-05,-0.0015685,-0.00018027,-0.00032361
-3.1982e-05,-4.2617e-05,-5.463e-05,-7.3568e-05,-2.789e-06,1.555e-05,-4.8036e-06,1.4235e-05,-9.0769e-06,-2.1077e-05,-5.9046e-07,6.0245e-07,-1.3313e-05,-1.3281e-05,4.016e-05,-2.6097e-05,-3.8385e-05,-2.0935e-05,5.7427e-05,7.7786e-06,-4.3945e-05,9.5604e-06,-1.8455e-09,1.877e-05,-3.4596e-05,-1.1824e-05,6.3231e-06,1.5155e-06,3.6522e-05,1.329e-05,-3.2142e-05,-9.1873e-06,-5.234e-05,-2.6664e-06,-6.8313e-06,2.9981e-05,-2.6175e-05,-2.0517e-05,-1.102,-3.6329e-05,1.6572e-05,-1.1133e-05,-1.5555e-05,-2.0283e-07,-1.6805e-05,8.3935e-06,8.6355e-06,-3.9642e-05,-3.2508e-05,-1.4491e-05,-2.2408e-05,-1.381e-05,-2.0589e-05,6.5996e-06,4.1621e-06,2.4941e-06,-2.0451e-06,-7.0797e-05,-3.25e-05,-4.6077e-05,7.1739e-06,-3.9891e-05,-3.1354e-06,-5.5409e-05,-3.069e-05,-2.3817e-05,-3.8444e-05,-3.0673e-05,1.3495e-05,-2.0824e-05,-3.2144e-05,-1.8253e-05,-4.5409e-06,-0.00014353,-2.3424e-05,1.691e-05,-2.2372e-05,-3.2134e-06,-5.0146e-06,-3.6577e-06,-8.7747e-05,-9.2003e-06,-0.00021322,-3.6275e-05,-4.8696e-05
-0.00011514,-0.00013707,-0.00017155,-0.00018992,4.2091e-07,0.00010096,-1.3888e-05,5.985e-05,2.3222e-05,-9.2464e-05,1.371e-05,1.8771e-05,-2.6963e-05,-4.5576e-05,0.00015073,-7.1993e-05,-0.00011638,-6.9724e-05,0.00019981,3.8617e-05,-0.00016475,4.0507e-05,-4.415e-05,-3.0624e-09,-0.00012598,-3.5291e-05,2.7837e-05,1.6136e-05,0.00015841,5.7123e-05,-7.9379e-05,2.2599e-05,-0.00018648,4.603e-05,-3.1388e-05,0.00012504,-9.6849e-05,-6.5794e-05,-0.040448,-9.096e-05,8.2084e-05,8.2276e-06,2.9228e-06,3.3681e-05,-3.7848e-05,2.3913e-05,3.8181e-05,-0.00010482,-7.6328e-05,-1.4466e-05,-7.5495e-05,-5.5097e-05,-3.1775e-05,3.6008e-05,2.747e-05,1.2522e-05,2.3023e-06,-0.00019631,-0.00011752,-0.00016479,4.638e-05,-0.00015582,-9.1714e-06,-0.00014366,-8.1756e-05,-7.9664e-05,-0.0001331,-0.00010389,9.853e-05,-7.2684e-05,-0.00010688,-6.2857e-05,-1.3049e-05,-0.00032097,-7.7294e-05,9.2047e-05,-7.1457e-05,-1.0729e-05,-2.302e-05,-9.7468e-06,-0.0002271,-2.7236e-05,-0.00053502,-0.0001128,-0.000154
-0.00026431,-0.0003148,-0.00042993,-0.00052482,-4.1568e-05,0.00014225,-4.9968e-05,0.00013554,6.2636e-06,-0.00016562,-6.8431e-06,2.9085e-05,-7.1374e-05,-8.0617e-05,0.00036012,-0.00026644,-0.00028808,-0.00016771,0.00041521,9.0227e-05,-0.00038841,8.6959e-05,-0.00010246,0.00017007,-3.148e-09,-8.4911e-05,5.9261e-05,2.9924e-05,0.00030136,8.442e-05,-0.00027276,-7.1259e-05,-0.00044038,-4.1805e-06,-5.5739e-05,0.00031318,-0.00020398,-0.00011933,-0.27506,-0.00029723,0.00015712,-5.9698e-05,-8.4681e-05,3.3914e-05,-0.00012371,6.441e-05,6.4145e-05,-0.0002958,-0.00020892,-0.0001308,-0.00014746,-9.8365e-05,-0.0001903,5.4344e-05,3.2881e-05,3.1465e-05,-1.8472e-05,-0.0005074,-0.00022607,-0.00036068,6.6186e-05,-0.00034426,-4.0747e-05,-0.00039469,-0.00025805,-0.00019247,-0.00029517,-0.00023929,0.00011124,-0.00015422,-0.00025135,-0.00012772,-5.7019e-05,-0.00077387,-0.00019818,0.0001896,-0.00016592,-2.5711e-05,-5.9626e-05,-5.3793e-05,-0.00062782,-8.5357e-05,-0.0014051,-0.00025956,-0.00038458
-0.00010944,-0.00013396,-0.00017263,-0.00021647,-1.1663e-05,5.7873e-05,-2.097e-05,5.6549e-05,9.2035e-06,-7.3196e-05,6.9858e-07,7.6992e-06,-3.5114e-05,-3.361e-05,0.00014343,-0.00010654,-0.00011695,-6.7957e-05,0.00018437,3.9242e-05,-0.00016215,4.5818e-05,-4.0996e-05,8.5167e-05,-0.00010833,-2.9999e-09,2.2637e-05,7.2597e-06,0.00014321,4.785e-05,-0.00010992,-1.8963e-05,-0.00018173,7.1602e-06,-2.6226e-05,0.00011287,-8.6836e-05,-5.8984e-05,-0.834,-0.00011429,6.2818e-05,-3.5153e-05,-3.6752e-05,9.0444e-06,-4.5664e-05,2.5512e-05,3.3048e-05,-0.00011844,-9.1286e-05,-4.9137e-05,-6.5786e-05,-4.5025e-05,-5.2482e-05,2.8728e-05,2.0325e-05,1.0911e-05,-1.9633e-06,-0.00021101,-9.5971e-05,-0.00013539,2.7062e-05,-0.00014109,-1.2775e-05,-0.00016776,-0.00010614,-7.9128e-05,-0.00012399,-9.9668e-05,5.4786e-05,-6.6098e-05,-0.00010299,-4.607e-05,-2.4214e-05,-0.00044181,-8.418e-05,7.9572e-05,-7.0641e-05,-1.1052e-05,-2.4006e-05,-1.7619e-05,-0.00024531,-3.0602e-05,-0.00096969,-0.00010452,-0.00015938
-0.00020427,-0.00025153,-0.00036841,-0.00042864,-1.8014e-05,0.00011001,-9.0145e-06,0.00010227,-8.3155e-06,-0.00012168,4.8381e-06,8.4024e-06,-5.4133e-05,-7.6785e-05,0.00029953,-0.00017463,-0.00024977,-0.00012089,0.00031455,5.8196e-05,-0.00030257,6.1949e-05,-7.0696e-05,0.00014755,-0.0002001,-6.8736e-05,-1.3638e-09,7.0073e-06,0.00024006,8.1223e-05,-0.00022153,-5.6836e-05,-0.00037013,-5.1493e-06,-3.9703e-05,0.00021881,-0.00016594,-0.0001192,-0.8041,-0.00023153,0.00011329,-5.1275e-05,-9.9886e-05,1.6343e-05,-9.6567e-05,5.5271e-05,5.6562e-05,-0.00025353,-0.00017111,-0.00010512,-0.00013483,-7.8115e-05,-0.00016838,5.8353e-05,4.2935e-05,2.1406e-05,-1.5475e-05,-0.00039859,-0.00019788,-0.00028087,5.3916e-05,-0.00027131,-2.7248e-05,-0.00032919,-0.00020156,-0.00014705,-0.00020814,-0.00019723,9.4449e-05,-0.00012618,-0.00018013,-0.00010797,-3.496e-05,-0.00098065,-0.0001462,0.00012938,-0.00014089,-1.4373e-05,-3.7423e-05,-2.9392e-05,-0.00055689,-5.0498e-05,-0.002824,-0.00021623,-0.00030888
-0.0013088,-0.0015903,-0.0018623,-0.0026001,-0.00014004,0.00076966,-0.00025837,0.00046592,-6.7457e-05,-0.0008056,-1.3019e-05,0.00051208,-0.00041881,-0.00054936,0.0014682,-0.0008982,-0.0014058,-0.00083286,0.0019131,0.0001747,-0.0017482,0.00028551,-0.00043369,0.00080421,-0.0011708,-0.00045565,0.00017141,-2.8986e-09,0.0014973,0.00046743,-0.0010008,-0.00022412,-0.0018279,0.00010594,-0.00025013,0.0020043,-0.00091385,-0.00067352,-0.72571,-0.0012401,0.0011008,-0.00031784,-0.00050093,0.0001204,-0.00058019,0.00029886,0.00026618,-0.0013906,-0.0010821,-0.00061001,-0.00092107,-0.00057114,-0.00055618,0.00013882,3.8299e-05,3.7049e-05,-0.0001604,-0.0024858,-0.0012778,-0.0017737,0.0003298,-0.001806,-0.00017887,-0.0018719,-0.0010406,-0.00086478,-0.0014652,-0.00123,0.00051628,-0.0008182,-0.0012808,-0.00076588,-0.00023189,-0.0025394,-0.00088474,0.00078509,-0.0006886,-0.00012092,-0.00026055,-0.00020679,-0.0028561,-0.00038452,-0.0040469,-0.0012502,-0.0016557
-1.8222e-05,-2.3196e-05,-2.8643e-05,-3.4139e-05,-8.484e-07,1.0178e-05,-3.5256e-06,7.2098e-06,1.8999e-06,-1.3379e-05,1.1061e-07,2.9701e-06,-6.469e-06,-7.0703e-06,2.4672e-05,-1.3811e-05,-1.9062e-05,-1.2899e-05,3.3507e-05,5.4958e-06,-2.6246e-05,6.3074e-06,-7.0387e-06,1.4485e-05,-2.0465e-05,-6.0234e-06,2.894e-06,2.924e-06,-2.842e-09,7.8154e-06,-1.3361e-05,-1.7059e-06,-2.6045e-05,2.0444e-06,-5.4967e-06,2.1838e-05,-1.3924e-05,-8.9961e-06,-0.97482,-1.1642e-05,1.321e-05,-6.4055e-06,-3.9641e-06,2.6886e-06,-3.1351e-06,5.1619e-06,4.5676e-06,-1.1743e-05,-1.571e-05,-7.3108e-06,-1.2302e-05,-8.6496e-06,-5.4533e-06,4.4056e-06,3.2053e-06,1.4862e-06,5.1552e-08,-3.6672e-05,-1.7154e-05,-2.1077e-05,4.4446e-06,-2.3805e-05,-1.0744e-06,-2.9098e-05,-1.6214e-05,-1.1807e-05,-2.1207e-05,-1.6984e-05,8.1257e-06,-1.1838e-05,-1.848e-05,-1.0037e-05,-3.9791e-06,-4.765e-05,-1.4559e-05,1.5534e-05,-1.11e-05,-1.2304e-06,-4.4617e-06,-3.0666e-06,-4.0114e-05,-4.6056e-06,-0.00010213,-1.738e-05,-2.3731e-05
-5.606e-05,-6.6707e-05,-8.5266e-05,-0.00012429,-1.2679e-06,3.58e-05,-7.0712e-06,2.5245e-05,5.4186e-06,-3.258e-05,1.1647e-06,6.1273e-06,-1.6026e-05,-2.3263e-05,6.7181e-05,-4.1719e-05,-6.2286e-05,-3.6048e-05,9.0636e-05,9.8908e-06,-7.4258e-05,1.1543e-05,-1.734e-05,3.7434e-05,-6.0432e-05,-1.7738e-05,9.4017e-06,3.6525e-06,6.3767e-05,-3.0561e-09,-4.1466e-05,-9.5913e-06,-8.4348e-05,-8.3373e-07,-9.8362e-06,5.1072e-05,-4.1757e-05,-3.3486e-05,-0.7036,-5.533e-05,3.1799e-05,-1.4662e-05,-4.1001e-06,3.6856e-06,-2.5237e-05,1.2364e-05,1.5563e-05,-6.6317e-05,-3.8735e-05,-1.7139e-05,-4.0854e-05,-2.6159e-05,-1.2151e-05,1.2004e-05,7.1182e-06,3.5912e-06,-7.0403e-06,-0.00010465,-5.1572e-05,-7.8756e-05,1.7781e-05,-7.5046e-05,-8.2977e-06,-8.3232e-05,-5.0875e-05,-3.708e-05,-5.6292e-05,-5.3093e-05,2.5988e-05,-3.4093e-05,-4.9895e-05,-3.236e-05,-7.9973e-06,-0.00011266,-3.9061e-05,2.8703e-05,-3.0263e-05,-6.0549e-06,-1.0425e-05,-6.3802e-06,-0.00013248,-1.4187e-05,-0.00025233,-5.9898e-05,-7.7374e-05
-6.2245e-05,-7.9119e-05,-9.2245e-05,-0.00012724,2.1933e-08,4.7671e-05,-1.1097e-05,2.4146e-05,2.0269e-06,-4.8886e-05,1.0696e-06,1.1992e-05,-2.8136e-05,-2.6671e-05,6.4541e-05,-4.2701e-05,-5.4496e-05,-4.1408e-05,0.00014561,1.3062e-05,-8.5102e-05,1.6773e-05,-2.1907e-05,5.426e-05,-6.73e-05,-2.2274e-05,7.6776e-06,9.0214e-06,8.9495e-05,3.1511e-05,-3.0973e-09,-9.7108e-06,-7.1909e-05,1.1548e-05,-1.6421e-05,6.5506e-05,-4.6381e-05,-3.2635e-05,-1.1134,-4.8607e-05,4.5313e-05,-1.0266e-05,-7.3937e-06,4.8609e-06,-2.1101e-05,1.4129e-05,1.3929e-05,-5.6527e-05,-6.5053e-05,-1.1231e-05,-4.7018e-05,-3.7247e-05,-1.5549e-06,1.5019e-05,9.858e-06,1.0116e-05,5.8819e-06,-0.00013415,-6.0383e-05,-9.151e-05,1.5746e-05,-8.0952e-05,-4.3545e-06,-0.00010542,-5.0991e-05,-3.6478e-05,-7.2662e-05,-5.6244e-05,3.4915e-05,-3.5055e-05,-6.1422e-05,-3.808e-05,-1.0403e-05,-0.00012841,-4.691e-05,5.6011e-05,-3.6399e-05,-6.7226e-06,-1.5895e-05,-7.4984e-06,-0.00013866,-1.3457e-05,-0.00018005,-5.5939e-05,-7.5355e-05
-0.00058149,-0.00072902,-0.00085611,-0.0010401,-3.2094e-05,0.00051207,-6.9007e-05,0.00023434,0.00030136,-0.0005237,-8.8021e-06,0.00016428,-0.00020615,-0.00016183,0.0008863,-0.00046432,-0.00050649,-0.00034812,0.0012971,0.00028783,-0.0010018,0.00033261,-0.00023427,0.00088097,-0.00073494,-0.00022303,0.00011826,0.00011867,0.00097998,0.00034614,-0.00053503,-3.0999e-09,-0.0011011,0.0001772,-0.00026616,0.00088976,-0.00051245,-0.00033188,-0.16951,-0.00062534,0.00048907,5.2477e-05,0.00019562,0.00021798,-0.00019844,0.00016221,0.0001858,-0.00046921,-0.00034096,-7.9215e-05,-0.00034068,-0.00026847,-0.00014654,0.00028104,0.00021061,0.00011162,6.8545e-05,-0.0014579,-0.00054627,-0.00071791,0.00023089,-0.00069337,-2.9514e-05,-0.00072114,-0.00049756,-0.00041165,-0.0007429,-0.00046603,0.00045767,-0.00037627,-0.00063078,-0.00026211,-0.00015569,-0.0012438,-0.00048078,0.00063443,-0.00050645,-4.4942e-05,-8.8467e-05,-9.4339e-05,-0.0012565,-0.00018347,-0.0029624,-0.00049324,-0.0008393
-0.00019498,-0.00024001,-0.00028826,-0.00041183,-1.0703e-05,0.00012382,-3.5875e-05,7.1106e-05,-2.6677e-05,-0.00014643,4.7376e-07,2.6481e-05,-8.1993e-05,-7.2321e-05,0.00021305,-0.00012797,-0.00017336,-0.0001267,0.00038664,5.2358e-05,-0.00025764,6.811e-05,-6.4079e-05,0.00013164,-0.00020263,-6.8022e-05,2.4251e-05,2.7281e-05,0.00026286,7.9584e-05,-0.00012009,-4.3595e-05,-2.8582e-09,1.5657e-05,-5.1312e-05,0.00019781,-0.00015571,-0.00010633,-1.1717,-0.00015986,0.00013013,-4.3618e-05,-5.2383e-05,1.38e-05,-6.9946e-05,4.4718e-05,4.5643e-05,-0.00017992,-0.00018413,-7.1814e-05,-0.0001305,-0.00010053,-6.3702e-05,3.9264e-05,2.6484e-05,1.7715e-05,-1.3804e-06,-0.00042075,-0.0001861,-0.00025615,4.6631e-05,-0.00024289,-1.6613e-05,-0.00034452,-0.0001936,-0.00013277,-0.00023279,-0.00016927,8.6317e-05,-0.00011658,-0.00020742,-9.9758e-05,-3.5062e-05,-0.00043325,-0.00014869,0.00015031,-0.0001325,-1.9529e-05,-4.4113e-05,-2.5456e-05,-0.00052641,-4.798e-05,-0.00069062,-0.00017269,-0.00023205
-0.00028121,-0.00035495,-0.00040616,-0.0005096,-1.7338e-05,0.00017609,-4.1503e-05,0.0001015,-1.5859e-05,-0.0002129,1.8528e-06,3.2121e-05,-0.00011078,-0.00012802,0.00027139,-0.00019897,-0.00028988,-0.00018911,0.00047888,5.9457e-05,-0.00037881,7.3726e-05,-0.00011604,0.00028659,-0.00029069,-8.93e-05,3.5095e-05,3.5196e-05,0.00033023,9.2219e-05,-0.00021063,-1.8161e-05,-0.00040792,-2.5048e-09,-7.1122e-05,0.00021951,-0.00022565,-0.00019902,-0.82267,-0.00024165,0.00016999,-6.2817e-05,-8.0132e-05,2.351e-05,-0.00010754,5.763e-05,5.0596e-05,-0.00026406,-0.00024455,-5.7182e-05,-0.0002114,-0.00014202,-7.8013e-05,3.4865e-05,2.2427e-05,3.357e-06,-1.3393e-05,-0.0005074,-0.00028902,-0.00038352,8.5161e-05,-0.00039151,-2.6018e-05,-0.00036863,-0.00019907,-0.00020958,-0.00034396,-0.00028188,0.00015286,-0.00017656,-0.00024261,-0.00018075,-3.758e-05,-0.00088362,-0.00020315,0.00014503,-0.00016502,-3.7422e-05,-7.418e-05,-4.9158e-05,-0.00050078,-8.5934e-05,-0.00060114,-0.00029685,-0.0003885
-2.66e-05,-3.3818e-05,-4.6937e-05,-5.6829e-05,-2.8502e-06,1.6896e-05,-3.459e-06,1.4812e-05,-7.7399e-06,-7.5044e-06,1.5935e-06,-1.1836e-06,-6.5569e-06,-1.4481e-05,3.3711e-05,-2.2439e-05,-3.4547e-05,-1.6518e-05,2.885e-05,8.536e-07,-3.2373e-05,1.5705e-06,-7.8302e-06,1.3217e-05,-2.1698e-05,-6.7665e-06,5.467e-06,1.5981e-06,2.477e-05,1.0086e-05,-2.4588e-05,-9.7076e-06,-3.8832e-05,-1.1659e-06,-1.7403e-09,2.3752e-05,-1.8752e-05,-1.7575e-05,-1.2591,-2.5971e-05,1.1736e-05,-1.3448e-05,-2.3067e-05,2.2939e-07,-1.5436e-05,7.8192e-06,7.4549e-06,-4.2152e-05,-2.3013e-05,-1.4038e-05,-2.0551e-05,-8.8337e-06,-1.9315e-05,3.5877e-07,-1.475e-06,1.5128e-06,-7.8034e-06,-4.0162e-05,-2.5837e-05,-3.8994e-05,6.4348e-06,-4.0198e-05,-2.8849e-06,-4.2098e-05,-2.3276e-05,-1.7716e-05,-2.7043e-05,-2.7561e-05,1.0562e-05,-1.8029e-05,-2.045e-05,-1.9035e-05,-1.93e-06,-0.00013608,-1.5611e-05,9.6212e-06,-1.0101e-05,-2.5958e-06,-4.5e-06,-2.9345e-06,-5.7887e-05,-7.0626e-06,-0.00036266,-3.3058e-05,-3.6741e-05
-0.00053805,-0.0005585,-0.00086977,-0.00094148,-8.1011e-05,0.00025719,-0.00011402,0.00025642,4.1539e-06,-0.0003261,-8.9927e-06,0.00018742,-8.1826e-05,-0.00015465,0.00083937,-0.00051795,-0.00051377,-0.00030855,0.0007652,0.00016693,-0.00090405,0.00012069,-0.0002259,0.0003271,-0.00048457,-0.00021898,9.296e-05,0.00020627,0.00063038,0.00018346,-0.00052602,-7.4035e-05,-0.00091264,-6.5806e-05,-0.00013116,-4.1024e-09,-0.00044064,-0.00022708,-0.2448,-0.00063403,0.00044012,-0.000114,-0.00021687,8.1052e-05,-0.00027666,8.985e-05,0.00013841,-0.0006155,-0.00030508,-0.00024143,-0.00032015,-0.00019971,-0.00042364,0.00013069,8.5216e-05,4.4572e-05,-6.0177e-05,-0.00081856,-0.00042823,-0.00062296,0.00013799,-0.00071733,-9.2537e-05,-0.00071567,-0.00051077,-0.00038128,-0.0005169,-0.00051671,0.00022328,-0.0003013,-0.00052898,-0.00025335,-0.00012964,-0.0013109,-0.000365,0.00042266,-0.00031772,-6.1493e-05,-0.00010444,-0.00011251,-0.0011135,-0.00019461,-0.0040881,-0.00055184,-0.00072379
-6.7947e-05,-8.5651e-05,-0.00011732,-0.00014742,-6.036e-06,3.4697e-05,-1.4283e-05,3.1921e-05,1.1256e-05,-5.1513e-05,-4.7405e-06,9.038e-06,-2.5439e-05,-2.0674e-05,9.8965e-05,-5.2384e-05,-7.0757e-05,-4.2677e-05,0.00013619,2.4323e-05,-0.00010747,3.1692e-05,-2.7037e-05,5.0947e-05,-7.3963e-05,-2.5126e-05,1.312e-05,8.975e-06,9.899e-05,3.1751e-05,-6.3186e-05,-1.1704e-05,-0.00011875,1.6694e-06,-2.2219e-05,7.8164e-05,-2.7706e-09,-3.2859e-05,-0.58895,-8.1289e-05,4.374e-05,-1.6112e-05,-1.4567e-05,2.3021e-06,-2.71e-05,1.8774e-05,1.8922e-05,-6.8923e-05,-6.3038e-05,-3.4044e-05,-4.129e-05,-3.1028e-05,-2.8528e-05,2.2131e-05,1.6205e-05,1.0616e-05,5.6012e-07,-0.00016053,-6.4742e-05,-7.8484e-05,1.6314e-05,-8.9619e-05,-8.2559e-06,-0.00010654,-6.5469e-05,-4.9401e-05,-7.8541e-05,-6.1978e-05,3.1266e-05,-4.3113e-05,-6.9816e-05,-3.0247e-05,-1.4744e-05,-0.00020683,-5.3394e-05,6.1706e-05,-4.6376e-05,-4.5928e-06,-1.6424e-05,-9.0975e-06,-0.00017861,-1.3286e-05,-0.00029378,-6.3873e-05,-0.00010219
-4.8143e-05,-4.9861e-05,-7.466e-05,-6.3775e-05,-4.8284e-06,3.4514e-05,-1.1691e-05,3.0143e-05,4.3771e-05,-3.8333e-05,3.8554e-07,1.6507e-05,2.0195e-06,-1.4181e-06,9.5256e-05,-5.6013e-05,-3.8119e-05,-2.6976e-05,0.00010494,3.553e-05,-9.4589e-05,3.1957e-05,-2.2783e-05,4.97e-05,-4.9451e-05,-2.0138e-05,1.2213e-05,9.4092e-06,8.0746e-05,2.3365e-05,-5.2097e-05,-5.6044e-06,-9.464e-05,-2.2244e-06,-2.3486e-05,8.7581e-05,-3.942e-05,-3.78e-09,-0.001739,-6.0224e-05,4.5394e-05,7.2196e-06,1.3685e-05,1.7475e-05,-1.4948e-05,9.7324e-06,1.474e-05,-3.8169e-05,-3.0081e-05,-2.1113e-05,-1.7299e-05,-1.5768e-05,-2.4038e-05,3.126e-05,2.4445e-05,1.0509e-05,5.8178e-06,-7.6544e-05,-3.0351e-05,-4.5616e-05,1.3989e-05,-5.0868e-05,-7.4549e-06,-6.2228e-05,-5.1411e-05,-3.8961e-05,-5.4975e-05,-3.252e-05,2.7532e-05,-2.0681e-05,-5.9023e-05,-1.1503e-05,-1.9226e-05,-0.00011354,-4.0662e-05,6.6978e-05,-3.289e-05,-3.5908e-06,-9.4946e-06,-1.1413e-05,-9.3655e-05,-1.4714e-05,-0.00042954,-3.4306e-05,-7.3672e-05
-4.9442e-05,-4.6799e-05,-6.6127e-05,5.5062e-07,1.3584e-06,6.9671e-05,-1.2128e-05,4.8641e-05,9.411e-05,-1.9855e-05,1.9198e-05,1.9791e-05,5.785e-05,-6.024e-06,0.00013387,-5.6715e-05,-3.6946e-05,-2.9356e-05,0.0001491,3.4531e-05,-8.4171e-05,2.1629e-05,-2.0604e-05,7.5637e-05,-3.9635e-05,-1.4434e-05,1.7254e-05,1.8508e-05,8.316e-05,4.0843e-05,-4.0055e-05,1.2353e-05,-7.8285e-05,1.7492e-05,-1.0035e-05,9.9818e-05,-3.4889e-05,1.9225e-06,-2.6567e-09,-5.3612e-05,5.6933e-05,2.0732e-05,1.631e-05,3.9338e-05,-1.1459e-05,1.7624e-05,2.0167e-05,-5.3492e-05,-2.2898e-06,-1.5577e-05,-1.5112e-05,-5.5864e-06,-2.2839e-05,2.7568e-05,2.0026e-05,1.4924e-05,-1.0478e-05,1.4759e-06,-1.8774e-05,-3.278e-05,2.7248e-05,-5.5912e-05,-7.4008e-06,-3.8586e-05,-4.4798e-05,-3.4133e-05,-4.9423e-05,-3.9183e-05,4.0182e-05,-1.4651e-05,-5.7318e-05,-1.8993e-05,-1.4336e-05,-3.9327e-05,-3.3059e-05,7.9402e-05,7.527e-06,7.8047e-08,-5.3669e-06,-9.9542e-06,6.748e-07,-1.1548e-05,-0.00014604,-3.0855e-05,-6.3794e-05
-8.9491e-05,-0.00011356,-0.00013828,-0.00016865,-2.5735e-06,5.4322e-05,-1.2574e-05,3.6974e-05,-7.9847e-06,-6.9741e-05,7.5037e-07,1.3406e-05,-3.6502e-05,-3.3373e-05,0.00010836,-7.1627e-05,-9.2037e-05,-6.3227e-05,0.00018255,2.7647e-05,-0.00013096,3.3028e-05,-3.2798e-05,8.394e-05,-9.7215e-05,-2.9726e-05,1.6315e-05,1.2815e-05,0.00015476,3.8868e-05,-6.6771e-05,-1.1083e-05,-0.00012314,1.4023e-05,-2.5589e-05,9.4077e-05,-7.612e-05,-4.8707e-05,-1.0557,-2.7739e-09,6.2825e-05,-2.572e-05,-2.2812e-05,1.0972e-05,-2.089e-05,2.423e-05,2.2068e-05,-5.7002e-05,-8.0366e-05,-2.8095e-05,-6.1623e-05,-4.5548e-05,-2.9378e-05,2.4396e-05,1.8253e-05,8.6328e-06,4.4669e-06,-0.00018921,-8.722e-05,-0.00011963,2.5102e-05,-0.00011353,-5.2699e-06,-0.00014488,-7.9292e-05,-6.0288e-05,-0.00010842,-8.15e-05,4.8614e-05,-5.5014e-05,-8.7245e-05,-4.5351e-05,-1.7008e-05,-0.00022595,-7.1603e-05,6.7648e-05,-6.7182e-05,-6.2152e-06,-2.0353e-05,-1.3755e-05,-0.00020711,-2.3886e-05,-0.00043438,-8.3983e-05,-0.00010636
-0.00021155,-0.00025706,-0.00033045,-0.00048381,-1.7868e-05,0.00015904,-3.9548e-05,8.4827e-05,2.3362e-05,-0.00014908,-7.9692e-06,0.00017574,-7.446e-05,-7.2168e-05,0.00023868,-0.00014727,-0.00020665,-0.0001213,0.00034617,4.8958e-05,-0.00032243,6.6253e-05,-7.5696e-05,0.0001742,-0.00019774,-7.1181e-05,3.5801e-05,0.00015796,0.00029489,0.00011842,-0.00015956,-8.9836e-06,-0.00028182,6.1124e-05,-5.5643e-05,0.00049234,-0.00016045,-9.82e-05,-0.40235,-0.00018081,-2.9961e-09,4.1001e-06,-4.0371e-05,4.3782e-05,-7.0071e-05,4.4817e-05,5.2876e-05,-0.00018135,-0.00015327,-6.2424e-05,-0.0001346,-9.7842e-05,-9.2247e-05,2.7289e-05,7.0794e-06,1.0881e-05,1.9311e-05,-0.00037847,-0.00020081,-0.00030866,5.7576e-05,-0.0002655,-1.1333e-05,-0.00029038,-0.00016828,-0.00014671,-0.00023682,-0.00017718,0.00012757,-0.00012424,-0.00019848,-0.0001177,-3.4e-05,-0.00035372,-0.00015083,0.00017808,-0.00012568,-2.0504e-05,-5.4079e-05,-2.9203e-05,-0.00048523,-6.6701e-05,-0.00080176,-0.00020759,-0.000269
-0.00018913,-0.00017924,-0.00029791,-0.00025828,-3.504e-05,0.00030401,-4.1766e-05,8.9614e-05,0.00029412,-0.00018689,-1.7581e-05,0.0001051,-4.4841e-07,9.673e-06,0.00031801,-0.00015835,-0.00013343,-8.7375e-05,0.00050769,0.0001552,-0.0004005,0.00013669,-9.2365e-05,0.0002926,-0.00022259,-0.00010128,5.7253e-05,5.3241e-05,0.00028204,0.00011766,-0.00017126,4.3141e-05,-0.00034343,4.927e-05,-0.00013035,0.00030162,-0.00015677,-4.5538e-05,-0.0091132,-0.00025511,0.00022323,-3.3593e-09,0.00026403,0.00011513,-5.9132e-05,2.3878e-05,3.5951e-05,-0.00012283,-3.1174e-05,6.7133e-05,-6.8948e-05,-7.5257e-05,-2.7616e-05,0.00011355,8.4626e-05,3.5387e-05,4.8958e-05,-0.00038893,-0.00013303,-0.00019492,0.00012367,-0.00020138,-2.8925e-05,-0.00019751,-0.00018143,-0.00015823,-0.00024001,-0.00013196,0.0002348,-6.6781e-05,-0.00027635,-4.0516e-05,-7.5013e-05,-0.00028631,-0.00017395,0.00029887,-0.00018788,-2.259e-05,-3.6555e-05,-5.4121e-05,-0.00040373,-6.1685e-05,-0.00084276,-0.00011582,-0.00028683
-2.1359e-05,-1.927e-05,-2.6992e-05,-2.7763e-05,-6.3197e-07,3.1056e-05,-5.9273e-06,8.1697e-06,6.7953e-05,-3.4596e-05,-3.2659e-06,1.4246e-05,-3.1189e-06,7.9963e-06,3.7731e-05,-1.7994e-05,-7.4917e-06,-1.4199e-05,7.3541e-05,2.9673e-05,-5.7338e-05,2.5035e-05,-1.3416e-05,4.3447e-05,-3.0544e-05,-1.4969e-05,3.6839e-06,3.2854e-06,4.3373e-05,3.0126e-05,-1.7054e-05,1.5507e-05,-4.65e-05,6.176e-06,-2.7125e-05,3.4526e-05,-2.5031e-05,-1.7538e-07,-0.00040082,-3.2479e-05,3.2961e-05,3.3326e-05,-3.2343e-09,1.4231e-05,3.2801e-06,4.3551e-06,4.4659e-06,-1.0438e-06,-6.8329e-06,1.2237e-05,-1.3151e-06,-1.812e-05,5.3843e-05,2.4988e-05,2.0215e-05,8.1651e-06,9.6268e-06,-5.5989e-05,-9.3314e-06,-2.3344e-05,1.1567e-05,-2.0616e-05,5.9398e-07,-2.1901e-05,-2.7166e-05,-1.9421e-05,-3.1611e-05,-7.8664e-06,2.6774e-05,-5.9261e-06,-3.9947e-05,-2.2446e-06,-1.4994e-05,-1.0247e-05,-2.8045e-05,4.8385e-05,-2.5207e-05,-2.176e-06,-8.4371e-06,-8.1008e-06,-5.2784e-05,-6.9691e-06,-0.00010409,-5.2236e-06,-2.9232e-05
-0.00018673,-0.00021778,-0.00027251,-0.00026501,-1.8892e-05,0.00012334,-4.2862e-05,0.0001042,0.00010976,-0.00011298,2.7977e-06,5.3113e-05,-7.5812e-06,-5.7847e-05,0.00031048,-0.00017586,-0.00017836,-0.00011374,0.00027911,6.8974e-05,-0.00030884,6.5748e-05,-7.6005e-05,0.00018984,-0.00018163,-7.1468e-05,3.9137e-05,3.1027e-05,0.00025125,8.6537e-05,-0.00017584,5.9426e-06,-0.00031087,2.0888e-05,-5.0486e-05,0.0002458,-0.00016849,-8.0705e-05,-0.008365,-0.00019151,0.0001456,-6.5747e-06,-1.1016e-05,-4.097e-09,-7.3056e-05,4.0037e-05,5.2376e-05,-0.00017609,-0.00012082,-8.1567e-05,-0.00010245,-6.5159e-05,-0.00010531,6.1131e-05,4.2825e-05,1.882e-05,-2.4609e-05,-0.00026333,-0.00014399,-0.000235,5.8324e-05,-0.00024106,-2.2744e-05,-0.00021994,-0.00017519,-0.00012744,-0.00018908,-0.00015578,9.9253e-05,-9.7753e-05,-0.00018455,-8.2062e-05,-4.5395e-05,-0.00046805,-0.00013339,0.00019714,-7.5409e-05,-1.8333e-05,-4.3429e-05,-4.0652e-05,-0.00033381,-6.5826e-05,-0.0013367,-0.00016715,-0.0002634
-0.00018754,-0.00020328,-0.00028295,-0.00035794,-1.6793e-05,8.2544e-05,-2.9396e-05,8.0121e-05,1.3158e-05,-0.0001512,-3.8375e-06,3.4512e-05,-6.8278e-05,-5.0083e-05,0.00024781,-0.00016717,-0.00017066,-0.00011347,0.00035346,8.8578e-05,-0.00029245,9.0021e-05,-7.6779e-05,0.00016078,-0.00021318,-6.9347e-05,3.5921e-05,1.3935e-05,0.00031467,7.7041e-05,-0.00016817,-2.3134e-05,-0.00029986,1.7034e-05,-8.1655e-05,0.00019912,-0.00015041,-8.8716e-05,-0.49933,-0.00015648,0.00013133,-3.6454e-05,9.9913e-06,2.0949e-05,-3.5169e-09,4.6577e-05,5.1288e-05,-8.7289e-05,-0.00017395,-5.7932e-05,-0.00010657,-8.0974e-05,-0.00012115,6.5629e-05,4.6627e-05,2.523e-05,1.7151e-05,-0.00042439,-0.00016287,-0.00023792,4.8261e-05,-0.00022241,-1.6324e-05,-0.0002901,-0.00019078,-0.00013051,-0.00021455,-0.00015038,9.1143e-05,-0.00010702,-0.00019937,-7.6766e-05,-5.3872e-05,-0.00053004,-0.00015216,0.00017506,-0.00014721,-7.1244e-06,-5.236e-05,-3.5055e-05,-0.00050738,-4.4228e-05,-0.001823,-0.00016278,-0.00025128
-0.00225,-0.0028099,-0.0038134,-0.0045751,-0.00019833,0.0011757,-0.00036205,0.0010585,-0.00051721,-0.0012544,-3.377e-05,1.8824e-06,-0.00084436,-0.00097735,0.0028164,-0.0018955,-0.0027788,-0.0014751,0.003361,0.00034968,-0.0029813,0.00054071,-0.00073041,0.0012663,-0.0021903,-0.00076998,0.00046817,0.00015043,0.0026506,0.00084822,-0.0021886,-0.0006124,-0.0036056,-4.5727e-05,-0.00027219,0.0020668,-0.0016619,-0.0014812,-0.99114,-0.0022847,0.0011403,-0.00096686,-0.0010647,1.7691e-05,-0.0010379,-4.1007e-09,0.00060475,-0.0026755,-0.0020119,-0.0011402,-0.0016545,-0.0009588,-0.0013284,0.00034691,0.00017581,0.00016089,-0.00037987,-0.004404,-0.0022172,-0.0030653,0.00061382,-0.0031344,2.7793e-05,-0.0038013,-0.0022053,-0.0015986,-0.0025165,-0.0021753,0.00098663,-0.001517,-0.002009,-0.0013207,-0.00028908,-0.007005,-0.0015803,0.0011017,-0.0014156,8.9259e-06,-0.0004892,-0.00033262,-0.0053774,-0.00057783,-0.011255,-0.0025643,-0.0032666
-2.3895e-05,-2.9461e-05,-4.2854e-05,-4.8085e-05,-2.6034e-06,1.2848e-05,-3.8782e-06,1.2095e-05,-5.5187e-06,-1.2622e-05,1.0645e-06,2.5395e-07,-7.7058e-06,-1.0578e-05,3.205e-05,-2.069e-05,-2.8631e-05,-1.2205e-05,3.3942e-05,4.0969e-06,-3.1375e-05,4.3618e-06,-7.9538e-06,1.4382e-05,-2.4113e-05,-7.3317e-06,4.3575e-06,1.4676e-07,2.482e-05,9.4864e-06,-2.4909e-05,-7.4009e-06,-3.9536e-05,-2.0412e-06,-3.1783e-06,2.3455e-05,-1.8511e-05,-1.5398e-05,-0.82741,-2.6571e-05,1.0779e-05,-1.135e-05,-1.4453e-05,8.1891e-08,-1.1788e-05,5.7851e-06,-1.3598e-09,-3.1975e-05,-2.1371e-05,-1.1908e-05,-1.706e-05,-9.3005e-06,-1.5822e-05,3.1184e-06,1.5844e-06,2.1576e-06,-3.4655e-06,-4.4458e-05,-2.3645e-05,-3.2766e-05,5.5012e-06,-3.2367e-05,-3.4999e-06,-3.8176e-05,-2.256e-05,-1.6106e-05,-2.5988e-05,-2.3954e-05,9.9329e-06,-1.5995e-05,-2.1553e-05,-1.4347e-05,-3.4976e-07,-9.485e-05,-1.3398e-05,1.1219e-05,-1.2339e-05,-2.3434e-06,-5.2462e-06,-1.2139e-06,-5.469e-05,-5.2304e-06,-0.00024155,-2.7054e-05,-3.5943e-05
-6.191e-05,-6.7952e-05,-9.0395e-05,-0.00010413,-5.9658e-06,2.3577e-05,-1.4039e-05,1.7057e-05,3.3651e-05,-8.6533e-05,-9.4484e-06,2.2903e-05,-2.9732e-05,1.878e-06,9.6851e-05,-6.2177e-05,-3.9657e-05,-4.1038e-05,0.00016973,6.0677e-05,-0.00013053,6.456e-05,-3.3438e-05,7.5617e-05,-9.2924e-05,-3.3648e-05,1.0294e-05,6.5131e-06,0.00014477,2.7766e-05,-6.6347e-05,6.8369e-06,-0.00012518,1.2751e-05,-5.8504e-05,9.2514e-05,-6.3639e-05,-2.023e-05,-0.86713,-5.452e-05,5.9717e-05,1.1005e-05,4.3831e-05,1.7359e-05,7.5556e-06,1.1964e-05,1.2811e-05,-3.0195e-09,-6.046e-05,-1.2928e-05,-2.6208e-05,-3.5203e-05,-3.1531e-05,5.2524e-05,4.6099e-05,1.5458e-05,2.9952e-05,-0.00017001,-4.7914e-05,-5.3824e-05,1.8482e-05,-6.1504e-05,-3.3661e-06,-9.7384e-05,-7.2323e-05,-5.458e-05,-8.816e-05,-3.9848e-05,3.8815e-05,-3.0914e-05,-8.4767e-05,-6.8004e-06,-3.1262e-05,-0.00015467,-6.9178e-05,9.7797e-05,-7.698e-05,-3.3816e-06,-2.0815e-05,-1.7969e-05,-0.000166,-2.2155e-05,-0.00052214,-4.0206e-05,-8.4358e-05
-0.0003702,-0.0003613,-0.00062244,-0.00046846,-3.3374e-05,0.0004938,-7.8474e-05,0.00028393,0.00046209,-0.00027365,9.6759e-06,0.00014537,9.2101e-05,-4.8956e-05,0.00079337,-0.00047394,-0.00032048,-0.00023016,0.00081629,0.00023302,-0.00076627,0.00021939,-0.00018295,0.00051594,-0.0003879,-0.00013448,0.00013806,8.1161e-05,0.00062284,0.00028596,-0.00046171,9.5959e-05,-0.00078298,5.8062e-05,-0.00014782,0.00081574,-0.00033808,-0.00010258,-0.0024721,-0.00046671,0.0003723,0.00015062,0.00011833,0.0001975,-0.00015184,0.00011293,0.00014971,-0.00038973,-3.5504e-09,-0.00011981,-0.00014168,-0.00011494,-0.0002193,0.00019438,0.00014254,6.0445e-05,-4.3694e-05,-0.00047384,-0.00023194,-0.00046421,0.00022756,-0.00047025,-6.7891e-05,-0.00038918,-0.00042109,-0.00028436,-0.00038308,-0.00033891,0.00034798,-0.00016429,-0.00040285,-0.00012442,-0.0001408,-0.00058401,-0.00029673,0.00050359,-0.0002227,-2.2313e-05,-5.8133e-05,-8.43e-05,-0.00050273,-0.00012602,-0.0023822,-0.00029533,-0.00057914
-6.1672e-05,-7.1616e-05,-8.4638e-05,-0.00011807,-1.7077e-07,6.1223e-05,-9.7292e-06,1.9057e-05,3.9416e-07,-6.1902e-05,-4.523e-06,6.1101e-06,-3.2573e-05,-2.0199e-05,5.2083e-05,-3.8422e-05,-6.0947e-05,-3.8712e-05,0.00011043,2.0971e-05,-8.7999e-05,2.8489e-05,-2.3569e-05,5.6975e-05,-7.2367e-05,-2.4016e-05,5.4132e-06,1.4291e-06,7.4762e-05,2.9041e-05,-4.2047e-05,2.4024e-06,-9.5712e-05,1.3538e-05,-2.8647e-05,6.3256e-05,-5.2368e-05,-3.2858e-05,-1.5857,-5.93e-05,4.2103e-05,2.1344e-05,2.1967e-05,3.4318e-06,-2.2218e-05,7.8986e-06,1.1233e-05,-4.4944e-05,-4.3115e-05,-3.9205e-09,-3.8268e-05,-3.8485e-05,-6.5003e-06,2.0449e-05,1.5256e-05,4.536e-06,8.4502e-06,-0.00016058,-5.5859e-05,-7.5941e-05,2.1667e-05,-7.4121e-05,-6.4646e-06,-9.0203e-05,-4.8835e-05,-4.2073e-05,-8.3256e-05,-4.632e-05,5.754e-05,-3.184e-05,-6.6679e-05,-3.152e-05,-9.395e-06,-0.0001077,-5.1793e-05,4.2624e-05,-5.4007e-05,-1.2244e-05,-1.3637e-05,-9.6277e-06,-0.00014657,-1.7085e-05,-0.00033037,-5.1309e-05,-8.4255e-05
-0.00013905,-0.00016262,-0.00025242,-0.00027677,-2.1712e-05,5.8579e-05,-3.8094e-05,7.0826e-05,5.1544e-05,-0.00013345,-2.6263e-05,2.7224e-05,-4.6878e-05,-7.0709e-06,0.00023508,-0.00016753,-0.00011757,-8.3768e-05,0.00028092,9.4699e-05,-0.00026358,9.5534e-05,-6.6597e-05,0.00012345,-0.00016805,-6.2308e-05,2.8647e-05,-2.5368e-06,0.0002061,4.998e-05,-0.00019393,-1.9553e-05,-0.00030134,-1.2526e-05,-8.5826e-05,0.00019435,-0.00013167,-5.4535e-05,-0.049512,-0.00020309,9.296e-05,-4.543e-06,2.6373e-05,2.4904e-05,-5.7009e-05,2.3917e-05,3.641e-05,-0.00011643,-0.00011796,-6.6883e-05,-2.5925e-09,-5.9782e-05,-0.00011245,8.0359e-05,6.5881e-05,4.2458e-05,6.7916e-06,-0.00035582,-0.00011056,-0.00016264,3.461e-05,-0.0001543,-2.2599e-05,-0.00021339,-0.00017429,-0.00011676,-0.00016675,-9.748e-05,7.0507e-05,-6.7851e-05,-0.00018118,-3.448e-05,-5.6397e-05,-0.00037286,-0.00013111,0.00015885,-0.00015337,-1.5736e-05,-3.6947e-05,-3.6911e-05,-0.00046734,-5.1259e-05,-0.0015172,-0.00010163,-0.000227
-0.00010283,-0.00012298,-0.00020078,-0.00024725,-1.7589e-05,5.1275e-05,-1.9786e-05,6.7006e-05,1.7582e-05,-5.9914e-05,-5.5348e-06,8.2686e-06,-2.7126e-05,-3.1844e-05,0.00016855,-0.00011731,-0.00011994,-6.0359e-05,0.00015792,3.992e-05,-0.00017215,3.8772e-05,-3.9095e-05,7.1178e-05,-0.00010847,-3.8084e-05,2.6075e-05,3.1259e-06,0.00013029,3.9017e-05,-0.00014174,-2.6226e-05,-0.00020941,-7.7266e-06,-2.3359e-05,0.00012841,-8.8899e-05,-5.5766e-05,-0.085975,-0.00013803,5.9391e-05,-2.9411e-05,-5.9447e-05,1.318e-05,-4.8513e-05,2.6106e-05,3.2936e-05,-0.00012306,-9.6185e-05,-6.7498e-05,-6.1944e-05,-1.4911e-09,-9.5589e-05,2.7412e-05,1.7125e-05,1.4986e-05,-1.0173e-05,-0.00021229,-8.8765e-05,-0.00013544,2.7335e-05,-0.00013275,-1.7483e-05,-0.00016695,-0.00011884,-8.1604e-05,-0.00011923,-9.7848e-05,4.624e-05,-6.3497e-05,-0.00010999,-5.1477e-05,-2.5382e-05,-0.00055551,-7.5817e-05,8.2825e-05,-7.4869e-05,-8.8331e-06,-1.7039e-05,-1.7555e-05,-0.00030343,-3.2299e-05,-0.0017541,-0.00011272,-0.00017147
-0.00053402,-0.00065729,-0.00072842,-0.0010947,-4.1617e-06,0.00053912,-0.00014125,0.00016814,0.00048576,-0.00060367,-4.4593e-05,0.00010098,-0.00031015,-0.00014628,0.00046384,-0.00027459,-0.00040493,-0.00039743,0.0014262,0.0001923,-0.00085107,0.00019894,-0.00022518,0.00057078,-0.00069532,-0.0002027,-4.3005e-05,0.00013439,0.00088407,0.00041686,-0.00018376,6.4375e-05,-0.00072253,0.00020248,-0.0002876,0.00044371,-0.00039206,-0.00024715,-1.2205,-0.00047972,0.00048742,7.2089e-05,0.0010281,8.8773e-05,-0.00027012,0.00010265,0.0001167,-0.00052834,-0.00041933,1.7259e-05,-0.00039282,-0.00037291,-3.9571e-09,0.0001688,0.00014574,-1.4287e-05,7.8728e-05,-0.0015024,-0.00052938,-0.00060893,0.00017487,-0.00075257,-2.8616e-05,-0.00073582,-0.00034034,-0.0003749,-0.00067091,-0.00044233,0.00037716,-0.00032602,-0.00060854,-0.00027872,-0.00010417,-0.00059337,-0.00056339,0.00037599,-0.00037266,-0.00011996,-0.00014577,-0.00010322,-0.001138,-0.00016176,-0.0010652,-0.00045182,-0.00069757
-5.513e-05,-6.5238e-05,-8.5389e-05,-9.6702e-05,-1.6647e-06,2.2062e-05,-7.7538e-06,2.3848e-05,1.442e-05,-5.4489e-05,1.1082e-06,6.4469e-06,-1.8413e-05,-7.7179e-06,0.00010804,-5.5074e-05,-4.8646e-05,-3.4342e-05,0.00011277,3.6657e-05,-0.00010073,3.7051e-05,-2.4134e-05,5.065e-05,-7.4098e-05,-2.5557e-05,1.4544e-05,-1.1399e-06,8.0394e-05,2.7068e-05,-6.5113e-05,-6.4204e-06,-0.0001176,-1.7478e-06,-3.0568e-05,7.5347e-05,-5.1686e-05,-2.3141e-05,-0.76558,-7.4002e-05,3.4638e-05,-4.8256e-06,5.9971e-06,8.6772e-06,-2.4204e-05,1.1887e-05,1.5092e-05,-4.2885e-05,-5.2802e-05,-2.337e-05,-2.8864e-05,-2.8595e-05,-2.9734e-05,-2.7521e-09,5.1014e-05,9.8243e-06,1.052e-05,-0.00012315,-5.0584e-05,-4.4561e-05,1.1418e-05,-6.1084e-05,-8.2113e-06,-8.5886e-05,-6.1783e-05,-4.3197e-05,-6.6083e-05,-4.6197e-05,3.158e-05,-3.0264e-05,-6.2836e-05,-1.558e-05,-1.8059e-05,-0.00019298,-5.0916e-05,5.1565e-05,-5.0868e-05,-5.3253e-06,-1.0887e-05,-1.1619e-05,-0.00014722,-1.7376e-05,-0.00057488,-5.1113e-05,-8.7329e-05
-8.8257e-05,-0.00010676,-0.00013703,-0.0001578,-1.096e-06,3.292e-05,-1.2018e-05,3.6278e-05,2.2677e-05,-8.9929e-05,3.5462e-06,9.485e-06,-3.2515e-05,-1.084e-05,0.00017259,-8.9166e-05,-7.819e-05,-5.4453e-05,0.00018414,6.0596e-05,-0.00016047,6.2961e-05,-3.8689e-05,8.3909e-05,-0.00011973,-4.0477e-05,2.4707e-05,-2.5885e-06,0.00013409,4.2267e-05,-0.00010667,-1.1353e-05,-0.00018824,3.3998e-07,-5.0383e-05,0.00012221,-8.3493e-05,-3.8022e-05,-0.89238,-0.00011715,5.4784e-05,-9.2321e-06,7.6621e-06,1.4246e-05,-3.9622e-05,1.9263e-05,2.5675e-05,-6.595e-05,-8.6783e-05,-3.866e-05,-4.5571e-05,-4.6848e-05,-4.5585e-05,9.5072e-05,-2.8744e-09,1.6962e-05,2.0175e-05,-0.00020478,-8.3589e-05,-7.3157e-05,1.7996e-05,-9.6866e-05,-1.2305e-05,-0.00013914,-9.7435e-05,-6.9631e-05,-0.0001081,-7.4824e-05,5.2714e-05,-4.8994e-05,-9.8286e-05,-2.2575e-05,-2.7347e-05,-0.0003111,-8.2453e-05,8.33e-05,-8.1477e-05,-8.5502e-06,-1.7983e-05,-1.7969e-05,-0.00023826,-2.7183e-05,-0.0009,-8.119e-05,-0.0001394
-0.00016559,-0.00020964,-0.00026796,-0.00033517,-1.5692e-05,0.00010346,-2.6588e-05,9.8638e-05,7.7468e-07,-0.0001149,-3.1976e-06,6.6084e-06,-5.3565e-05,-4.3415e-05,0.00025328,-0.00016719,-0.00017012,-8.7963e-05,0.00027738,6.1101e-05,-0.00025523,6.8004e-05,-6.3288e-05,0.00011577,-0.00017333,-6.0993e-05,3.5155e-05,1.9235e-06,0.00020791,6.6017e-05,-0.00016393,-3.4877e-05,-0.00029194,-9.5318e-06,-4.4717e-05,0.00018574,-0.00012901,-9.2279e-05,-0.65434,-0.00019268,8.8822e-05,-3.988e-05,-4.7906e-05,8.6927e-06,-7.453e-05,3.9536e-05,5.0261e-05,-0.00017064,-0.00016255,-7.2809e-05,-8.4756e-05,-6.6929e-05,-0.00011743,5.1582e-05,3.8434e-05,-1.9347e-09,-5.228e-06,-0.00034387,-0.0001528,-0.00021218,3.9713e-05,-0.0002098,-1.9768e-05,-0.00026503,-0.00017032,-0.00012172,-0.00018748,-0.00013962,7.5013e-05,-9.062e-05,-0.00017624,-7.666e-05,-3.0528e-05,-0.0010056,-0.00011898,0.00013575,-0.00011534,-1.4054e-05,-3.7647e-05,-2.2128e-05,-0.00045968,-4.592e-05,-0.0019864,-0.00014596,-0.00024117
-3.0035e-05,-3.5404e-05,-4.3543e-05,-4.9561e-05,-1.6539e-06,1.4569e-05,-4.7821e-06,8.724e-06,1.2191e-05,-3.5548e-05,-2.8733e-06,6.558e-06,-1.4164e-05,-6.1152e-07,4.2501e-05,-2.5044e-05,-2.3434e-05,-1.9136e-05,5.8144e-05,2.1911e-05,-5.3751e-05,2.4716e-05,-1.2524e-05,3.188e-05,-3.8793e-05,-1.2806e-05,6.9408e-06,3.1161e-06,5.1075e-05,1.342e-05,-2.6125e-05,-2.5066e-07,-5.7016e-05,4.8986e-06,-2.0911e-05,4.2877e-05,-2.7921e-05,-1.1653e-05,-1.6379,-3.4804e-05,2.5541e-05,1.2361e-06,7.1098e-06,3.812e-06,-8.833e-06,5.1546e-06,9.2011e-06,-1.7604e-05,-3.1559e-05,-7.9736e-06,-1.8059e-05,-1.6528e-05,-8.3251e-06,1.9976e-05,1.7525e-05,5.4161e-06,-2.6284e-09,-7.3901e-05,-2.6697e-05,-2.9272e-05,7.6526e-06,-3.2336e-05,-4.5258e-06,-4.564e-05,-2.798e-05,-2.4263e-05,-3.9198e-05,-2.299e-05,1.9817e-05,-1.5611e-05,-3.5506e-05,-7.9038e-06,-9.3706e-06,-7.1495e-05,-3.1084e-05,3.3608e-05,-3.2794e-05,-2.619e-06,-8.2918e-06,-5.9771e-06,-6.9016e-05,-8.4934e-06,-0.00013157,-2.2807e-05,-4.3554e-05
-0.00014893,-0.00013824,-0.00024128,-1.6729e-05,-1.2414e-05,0.00014666,-2.9907e-05,0.00015278,0.00023434,-4.5039e-05,3.7674e-05,5.7891e-05,0.00016093,-2.0614e-05,0.00039133,-0.00020576,-0.0001254,-7.741e-05,0.00033505,9.2541e-05,-0.00026923,5.8255e-05,-6.6877e-05,0.0001967,-0.00012128,-4.1006e-05,4.9684e-05,3.082e-05,0.00021243,8.7581e-05,-0.00016376,-6.2979e-06,-0.00028014,2.8211e-05,-1.7001e-05,0.00028388,-0.00011901,-6.7733e-06,-0.00021497,-0.00017486,0.00014156,1.5915e-05,2.3094e-06,0.00010923,-4.921e-05,3.9058e-05,6.0843e-05,-0.00015854,-3.1394e-05,-0.00011375,-4.8222e-05,-7.6927e-06,-0.00014306,7.2193e-05,4.8028e-05,3.7692e-05,-3.4354e-05,-3.4632e-09,-5.64e-05,-9.2448e-05,6.4294e-05,-0.00017335,-3.2547e-05,-0.00012989,-0.00015996,-0.00010688,-0.00013681,-0.00011179,8.0972e-05,-4.564e-05,-0.00015465,-4.8392e-05,-4.942e-05,-0.00020859,-9.3932e-05,0.00019566,4.2264e-07,-5.8375e-06,-2.1606e-05,-3.6928e-05,-2.972e-05,-4.9602e-05,-0.0010624,-0.00010756,-0.00020541
-0.00010275,-9.6889e-05,-0.00018551,-0.00012389,-1.3955e-05,9.116e-05,-2.6133e-05,0.00011092,0.00013013,-7.2181e-05,1.3773e-07,4.1893e-05,2.2494e-05,1.1956e-05,0.00024614,-0.00014427,-6.8871e-05,-5.7321e-05,0.00025201,0.00011513,-0.00021643,9.0467e-05,-4.9559e-05,0.00012631,-0.00011607,-3.8837e-05,3.4816e-05,1.2146e-05,0.00018742,6.7254e-05,-0.00013187,3.5965e-06,-0.0002276,5.1373e-06,-5.2019e-05,0.00021616,-9.8922e-05,-1.5018e-05,-0.00098221,-0.00014548,0.00010785,2.7686e-05,5.3027e-05,5.6357e-05,-2.7566e-05,3.2612e-05,4.2896e-05,-7.778e-05,-4.8873e-05,-4.7417e-05,-2.7112e-05,-1.8577e-05,-8.3412e-05,7.4245e-05,5.6576e-05,3.5535e-05,9.0699e-06,-0.00015233,-4.2545e-09,-0.00011215,4.3617e-05,-0.00010643,-1.4992e-05,-0.00011571,-0.00012722,-9.1953e-05,-0.00011031,-6.7119e-05,8.4622e-05,-3.3405e-05,-0.00012881,-6.9761e-06,-4.9037e-05,-0.00017093,-8.8491e-05,0.00017258,-7.0184e-05,-1.4801e-06,-1.9911e-05,-2.7236e-05,-0.00020455,-2.9473e-05,-0.00071674,-6.7851e-05,-0.00016721
-0.00036663,-0.00046221,-0.00055261,-0.00050157,-5.0341e-05,5.1907e-05,-7.5386e-05,8.8703e-05,8.3231e-05,-0.00039127,-5.7753e-05,-4.4378e-05,-0.0001181,-4.7187e-05,0.00045442,-0.00048248,-0.00026462,-0.00023515,0.00072196,0.00017817,-0.00066837,0.00019516,-0.00018877,0.00020523,-0.00044796,-0.00014761,1.7681e-05,-6.2556e-05,0.00039345,0.0001019,-0.00047132,-6.2109e-05,-0.00072131,-3.3666e-05,-0.00023664,0.00045563,-0.00032295,-0.00012209,-0.32602,-0.00047306,0.00012238,4.2583e-05,-4.9078e-05,1.0091e-05,-0.00023063,-8.1371e-06,1.0601e-05,-0.00023899,-0.00035459,-0.00013452,-0.00018405,-0.00019256,-0.00019191,0.00021139,0.00017676,3.2797e-05,2.6344e-05,-0.0006367,-0.00028165,1.4258e-09,-2.2711e-05,-0.00033539,-9.3392e-05,-0.00060913,-0.0004246,-0.00032903,-0.00044679,-0.00030235,0.00011751,-0.00019788,-0.00042094,-8.7647e-05,-0.00018258,-0.0011546,-0.00035143,0.00024144,-0.00039583,-7.8197e-05,-0.00010115,-0.00011627,-0.00070543,-0.00016751,-0.004998,-0.00035368,-0.00056207
-0.00028574,-0.00032832,-0.00045833,-0.00055735,-3.3515e-05,0.00017596,-3.5867e-05,0.00011315,-5.5933e-05,-0.00016427,-2.1601e-05,-1.0129e-05,-0.00010655,-0.00013438,0.00029002,-0.00023844,-0.00031466,-0.00017569,0.00036181,2.0617e-05,-0.00038155,3.1862e-05,-0.00010356,0.00015737,-0.00026367,-9.3675e-05,3.8328e-05,7.0411e-06,0.00024225,0.00010982,-0.00026474,-7.6846e-05,-0.00043514,4.0165e-06,-4.6413e-05,0.0002587,-0.00022879,-0.00018506,-0.96825,-0.00027673,0.00011026,-6.9238e-05,-0.00014142,-2.1103e-06,-0.00016351,5.2852e-05,4.7352e-05,-0.000347,-0.00020321,-7.272e-05,-0.00020325,-0.00012561,-0.00015928,1.7785e-06,-1.6998e-05,7.0422e-06,-6.9071e-05,-0.00053753,-0.00026937,-0.00044742,1.2748e-09,-0.00040894,-4.4628e-05,-0.00044476,-0.0002764,-0.00020601,-0.0003141,-0.00027936,0.00015482,-0.00017682,-0.0002526,-0.00018919,-4.4535e-05,-0.00070846,-0.0001936,0.00012357,-0.0001719,-4.4629e-05,-8.1294e-05,-4.6031e-05,-0.00061351,-8.1916e-05,-0.0016649,-0.00032135,-0.0004063
-0.00017518,-0.000229,-0.00031521,-0.00040044,-1.8942e-05,6.1789e-05,-3.9903e-05,9.2257e-05,6.8635e-05,-0.00019928,-3.0362e-05,3.7393e-05,-7.5019e-05,-4.2835e-06,0.00031148,-0.00020603,-0.00014699,-0.00010322,0.00043793,0.00015451,-0.00036871,0.00016231,-7.0061e-05,0.00017749,-0.00025771,-8.8562e-05,4.8089e-05,-3.6503e-06,0.00031179,8.2284e-05,-0.00024272,-3.2437e-06,-0.00039894,-4.064e-06,-0.0001297,0.00026699,-0.00018854,-6.5056e-05,-0.33286,-0.00025648,0.00014374,5.5122e-06,3.4806e-05,3.0104e-05,-6.6965e-05,3.9885e-05,6.0772e-05,-0.00011967,-0.00018062,-8.4536e-05,-7.3603e-05,-7.7454e-05,-0.00013674,0.00014394,0.00012312,4.4514e-05,5.6852e-05,-0.00053638,-0.00014579,-0.00017323,3.9738e-05,-2.6253e-09,-1.7266e-05,-0.00029054,-0.00021715,-0.00016128,-0.00023959,-0.00014616,0.00010578,-8.9466e-05,-0.00023512,-2.8052e-05,-7.1277e-05,-0.00066736,-0.00018389,0.00022283,-0.00022803,-8.1991e-06,-3.2527e-05,-3.9522e-05,-0.00062599,-6.2153e-05,-0.0018355,-0.00014636,-0.0003104
-2.9858e-05,-3.8164e-05,-4.9357e-05,-6.3912e-05,-2.5476e-06,1.6265e-05,-5.4612e-06,1.38e-05,-1.8965e-06,-2.2678e-05,-1.2733e-06,2.8707e-06,-1.3304e-05,-1.1017e-05,3.9455e-05,-2.7203e-05,-3.4484e-05,-1.9906e-05,5.6848e-05,9.6517e-06,-4.8249e-05,1.2371e-05,-1.0292e-05,2.3496e-05,-3.4386e-05,-1.1036e-05,6.1681e-06,2.0811e-06,4.2993e-05,1.2325e-05,-2.94e-05,-4.7802e-06,-5.0899e-05,2.0486e-06,-8.0924e-06,3.311e-05,-2.5247e-05,-1.8065e-05,-1.1475,-3.1829e-05,1.9463e-05,-7.6858e-06,-6.1164e-06,2.8402e-06,-1.2738e-05,1.2974e-05,8.1676e-06,-2.9825e-05,-2.9831e-05,-1.2645e-05,-2.0207e-05,-1.478e-05,-1.3705e-05,8.5105e-06,6.1186e-06,3.6497e-06,-1.5663e-06,-6.979e-05,-3.0411e-05,-3.9902e-05,8.4774e-06,-3.9081e-05,-2.7391e-09,-5.1303e-05,-3.0677e-05,-2.2496e-05,-3.8034e-05,-2.7555e-05,1.5017e-05,-1.9093e-05,-3.0764e-05,-1.5612e-05,-6.0387e-06,-0.00011144,-2.3577e-05,2.1284e-05,-2.4813e-05,1.2932e-07,-6.5652e-06,-3.9192e-06,-8.4984e-05,-8.4926e-06,-0.00020412,-3.2118e-05,-4.5759e-05
-5.4004e-05,-5.3873e-05,-0.00010245,-6.3007e-05,-5.5632e-06,5.0252e-05,-1.5821e-05,4.6429e-05,7.9043e-05,-4.3825e-05,2.7274e-06,2.8277e-05,1.5781e-05,2.7039e-07,0.00013588,-7.0023e-05,-4.5746e-05,-3.3389e-05,0.00013322,4.9508e-05,-0.00012814,4.6455e-05,-2.9123e-05,9.2273e-05,-6.6017e-05,-2.2708e-05,1.9114e-05,1.4626e-05,0.00010367,3.7733e-05,-7.2875e-05,1.9534e-05,-0.00013695,2.1261e-05,-2.9095e-05,0.00011422,-5.112e-05,-1.0147e-05,-0.0011484,-8.04e-05,6.5764e-05,2.0725e-05,3.8035e-05,4.0095e-05,-1.7441e-05,1.3625e-05,2.4562e-05,-4.8124e-05,-2.1463e-05,-2.8752e-05,-1.6905e-05,-1.5042e-05,-3.3062e-05,4.1885e-05,3.3334e-05,1.632e-05,6.9573e-06,-8.8221e-05,-2.8103e-05,-6.1749e-05,2.6033e-05,-6.2811e-05,-9.6312e-06,-3.1915e-09,-1.8585e-05,-5.0413e-05,-6.9257e-05,-4.2105e-05,4.2499e-05,-2.3964e-05,-7.0801e-05,-7.4989e-06,-2.5008e-05,-0.00010792,-4.9248e-05,0.000103,-2.7731e-05,-3.412e-06,-1.0492e-05,-1.5072e-05,-9.8826e-05,-2.1039e-05,-0.00042705,-3.9744e-05,-9.499e-05
-2.5817e-05,-2.9821e-05,-4.0371e-05,-4.2982e-05,-8.9781e-07,1.4235e-05,-4.8491e-06,9.5164e-06,-2.1928e-06,-2.0464e-05,1.955e-07,2.9059e-06,-9.6952e-06,-1.0047e-05,3.1429e-05,-1.8775e-05,-2.9908e-05,-1.778e-05,4.6309e-05,5.1804e-06,-3.638e-05,8.6533e-06,-8.8711e-06,2.2476e-05,-2.7238e-05,-9.7006e-06,4.1394e-06,3.1656e-06,3.1895e-05,9.161e-06,-2.1607e-05,-2.2365e-06,-4.4387e-05,4.5519e-06,-7.3953e-06,2.7169e-05,-1.9312e-05,-1.3894e-05,-1.1137,-2.6415e-05,1.5401e-05,-5.8653e-06,-5.7373e-06,1.705e-06,-1.2163e-05,4.7076e-06,6.3743e-06,-2.6646e-05,-2.452e-05,-7.5929e-06,-1.7725e-05,-1.3137e-05,-8.1444e-06,6.1708e-06,4.7223e-06,1.8827e-06,1.536e-06,-5.6095e-05,-2.4593e-05,-2.9525e-05,6.2314e-06,-3.2065e-05,-3.2635e-06,-1.8155e-05,-2.418e-09,-1.8603e-05,-3.4271e-05,-2.3405e-05,1.0707e-05,-1.5514e-05,-2.4635e-05,-1.3673e-05,-3.9551e-06,-7.704e-05,-2.0076e-05,1.7675e-05,-1.5959e-05,-3.6398e-06,-6.2162e-06,-4.0806e-06,-5.8449e-05,-7.6155e-06,-0.00010164,-2.4254e-05,-3.7056e-05
-0.00021141,-0.00025896,-0.00035998,-0.00047099,-1.7854e-05,0.0001204,-3.5683e-05,0.00010697,5.5131e-05,-0.00016497,1.2836e-06,2.0189e-05,-7.0148e-05,-7.059e-05,0.00030458,-0.00020802,-0.00021986,-0.00013519,0.00040735,8.6509e-05,-0.00032369,8.749e-05,-8.5339e-05,0.00017105,-0.00023993,-8.0577e-05,4.5401e-05,1.9582e-05,0.00030669,9.5648e-05,-0.00019609,-2.6844e-05,-0.0003724,-9.7219e-07,-7.3252e-05,0.00025582,-0.00017326,-0.00011629,-0.80777,-0.00023363,0.00013111,-4.0619e-05,-4.7854e-05,3.1226e-05,-8.4937e-05,5.0466e-05,6.4948e-05,-0.00022128,-0.00018476,-8.8311e-05,-0.00012917,-9.6605e-05,-9.3274e-05,7.9612e-05,6.0265e-05,2.666e-05,2.8084e-06,-0.00046745,-0.00020978,-0.00025585,6.0042e-05,-0.0002777,-2.5561e-05,-0.00035415,-0.00021677,-2.5224e-09,-0.00026237,-0.00018748,0.0001102,-0.00012424,-0.0002182,-9.5355e-05,-5.0622e-05,-0.00093734,-0.00017217,0.00016433,-0.00015583,-1.6054e-05,-4.0131e-05,-3.6829e-05,-0.00054404,-5.6266e-05,-0.0017502,-0.00019615,-0.00031256
-0.00011946,-0.00014415,-0.00023099,-0.00026411,-1.5573e-05,5.964e-05,-1.1349e-05,7.4017e-05,2.8455e-05,-8.3233e-05,-7.9358e-06,1.4537e-05,-3.4693e-05,-3.0263e-05,0.00021158,-0.00013948,-0.00011948,-6.9542e-05,0.00020704,5.7954e-05,-0.00020685,5.2158e-05,-5.2798e-05,9.4071e-05,-0.00013894,-4.7879e-05,3.9646e-05,-7.1231e-07,0.00016017,6.4093e-05,-0.00014566,-2.8685e-05,-0.00024593,-1.2891e-05,-4.0995e-05,0.0001728,-0.00010105,-6.1925e-05,-0.26568,-0.0001593,7.987e-05,-3.6045e-05,-3.5471e-05,2.2648e-05,-5.2901e-05,3.0253e-05,3.726e-05,-0.00013379,-9.1789e-05,-8.1596e-05,-6.448e-05,-4.7183e-05,-8.3149e-05,5.2254e-05,3.9323e-05,2.0629e-05,-2.5256e-06,-0.00026635,-9.845e-05,-0.00015849,2.9863e-05,-0.00015276,-2.2267e-05,-0.0001982,-0.00015842,-9.901e-05,-1.8979e-09,-0.00010783,6.1527e-05,-6.6919e-05,-0.00011277,-4.5278e-05,-3.3148e-05,-0.00025561,-9.4529e-05,0.00010752,-9.4002e-05,-9.5678e-06,-2.9172e-05,-2.3787e-05,-0.00033353,-3.5989e-05,-0.0022472,-0.00012301,-0.00019862
-4.4981e-05,-4.9913e-05,-7.4371e-05,-8.3933e-05,-6.1045e-06,2.0469e-05,-1.1498e-05,2.023e-05,1.7725e-05,-4.5395e-05,-7.4059e-06,8.4291e-06,-1.6624e-05,-4.2533e-06,6.6241e-05,-4.6587e-05,-3.7761e-05,-2.5669e-05,8.8344e-05,3.028e-05,-8.6348e-05,3.1882e-05,-2.0639e-05,3.9579e-05,-5.8203e-05,-2.1127e-05,8.0241e-06,9.0594e-08,6.5163e-05,1.7571e-05,-5.4779e-05,-2.5511e-06,-8.935e-05,-2.5766e-06,-2.7263e-05,5.5791e-05,-4.1921e-05,-1.6376e-05,-0.39425,-6.0432e-05,3.1521e-05,2.1438e-07,1.0766e-05,7.9187e-06,-1.6398e-05,8.8001e-06,1.0257e-05,-3.1137e-05,-4.3575e-05,-1.4548e-05,-1.7762e-05,-2.1543e-05,-2.531e-05,2.4362e-05,1.9253e-05,9.9224e-06,7.8174e-06,-0.00011608,-3.5024e-05,-4.8031e-05,1.222e-05,-5.2213e-05,-5.6508e-06,-6.9781e-05,-5.2717e-05,-3.6038e-05,-5.6869e-05,-1.3725e-09,2.3821e-05,-2.2043e-05,-5.5306e-05,-1.1335e-05,-1.7337e-05,-0.00013551,-4.0981e-05,5.2879e-05,-4.8088e-05,-5.1189e-06,-1.1021e-05,-1.1566e-05,-0.00014599,-1.5408e-05,-0.00038972,-3.1295e-05,-7.1643e-05
-0.00017091,-0.00019353,-0.00027415,-0.00037961,-9.4302e-06,0.00015911,-1.2368e-05,8.3171e-05,8.0313e-06,-0.00011899,-7.9798e-07,1.4992e-05,-6.7569e-05,-6.7878e-05,0.00020439,-0.00012264,-0.00019681,-0.00010008,0.00027539,4.2407e-05,-0.00023245,5.6299e-05,-5.9482e-05,0.00017115,-0.0001765,-5.0723e-05,3.6815e-05,1.5316e-05,0.0001998,7.8757e-05,-0.00014401,-1.4021e-05,-0.00027526,2.3638e-05,-3.3691e-05,0.00018183,-0.00013707,-0.00010643,-0.82774,-0.00016313,9.8522e-05,7.1326e-06,-2.5593e-05,1.7667e-05,-8.0272e-05,4.6343e-05,5.029e-05,-0.00018868,-0.00011071,6.6986e-07,-0.0001176,-7.7783e-05,-6.5886e-05,4.3459e-05,3.223e-05,1.3988e-05,-1.0247e-06,-0.00035192,-0.00015607,-0.00028406,7.0721e-05,-0.00022944,-1.7522e-05,-0.00025459,-0.00015882,-0.00011459,-0.00018981,-0.00015805,-3.5656e-09,-0.00010281,-0.00015398,-9.4413e-05,-1.9419e-05,-0.00047693,-0.00012252,0.00010153,-0.00010632,-1.9902e-05,-3.73e-05,-2.4278e-05,-0.0004194,-3.8811e-05,-0.00083518,-0.00017328,-0.00025752
-4.1428e-05,-4.6723e-05,-7.0244e-05,-8.026e-05,-5.1133e-06,2.287e-05,-9.0984e-06,2.2628e-05,5.8059e-06,-3.6854e-05,-4.4539e-06,4.7532e-06,-1.5318e-05,-7.3626e-06,5.5941e-05,-4.6715e-05,-4.0276e-05,-2.5302e-05,8.0575e-05,2.4926e-05,-6.9565e-05,2.2589e-05,-1.7861e-05,2.9704e-05,-4.9117e-05,-1.7939e-05,7.5142e-06,-3.2712e-07,5.2715e-05,1.6905e-05,-4.3412e-05,-1.1064e-05,-7.8048e-05,-7.1229e-07,-1.9283e-05,5.1124e-05,-3.9247e-05,-1.9198e-05,-0.23261,-5.3393e-05,2.5851e-05,-1.3279e-06,-6.1803e-07,4.7112e-06,-1.8294e-05,7.1495e-06,9.1197e-06,-3.7923e-05,-3.4532e-05,-1.4099e-05,-2.0789e-05,-1.8718e-05,-2.6551e-05,1.7719e-05,1.3589e-05,7.8275e-06,2.6174e-06,-8.6946e-05,-3.3044e-05,-4.969e-05,1.1751e-05,-4.8006e-05,-6.1097e-06,-6.5262e-05,-4.4626e-05,-3.2152e-05,-4.7783e-05,-3.2583e-05,2.1571e-05,-1.9519e-09,-4.5674e-05,-1.4489e-05,-1.3473e-05,-0.00012228,-3.4934e-05,3.6344e-05,-3.8501e-05,-5.0702e-06,-1.0333e-05,-9.2517e-06,-0.00011482,-1.5212e-05,-0.00040886,-3.597e-05,-6.2457e-05
-0.0004778,-0.00059014,-0.00075547,-0.00095899,-5.2133e-05,0.00022147,-6.2307e-05,0.00021142,-3.7236e-05,-0.00033347,-9.2536e-06,1.7686e-05,-0.00017482,-0.00016603,0.00064072,-0.00046956,-0.00049234,-0.00029357,0.000779,0.00013918,-0.00070398,0.00017867,-0.00018518,0.00033952,-0.00049301,-0.00015992,0.00011727,1.1392e-06,0.00055489,0.00019391,-0.00048576,-9.875e-05,-0.00087421,2.0544e-05,-0.00011399,0.00050494,-0.00038003,-0.00027635,-1.0667,-0.00052289,0.00025453,-0.00016686,-0.00022411,3.501e-05,-0.00022872,0.00012076,0.00012546,-0.00051655,-0.00038672,-0.00024291,-0.00032142,-0.00021206,-0.00028296,0.00013862,0.00010964,2.8072e-05,-1.8254e-05,-0.00091928,-0.00044022,-0.00059198,0.00011164,-0.00061311,-6.0577e-05,-0.00072457,-0.00045841,-0.00034144,-0.00048794,-0.00044575,0.00022101,-0.00028731,-2.3497e-09,-0.00022043,-9.0543e-05,-0.0013029,-0.00035887,0.00030091,-0.00034969,-4.6908e-05,-0.0001097,-7.3828e-05,-0.0010092,-0.000126,-0.0029113,-0.0005076,-0.00068035
-0.00011841,-0.00013603,-0.00021389,-0.00027476,-2.1829e-05,3.6922e-05,-2.9909e-05,6.8816e-05,7.9766e-05,-0.0001364,-1.9409e-05,1.7905e-05,-5.1097e-05,1.0901e-05,0.000222,-0.00016569,-9.4918e-05,-6.5508e-05,0.0002864,0.00012063,-0.0002548,0.00012794,-6.1603e-05,0.00011958,-0.00016935,-5.1213e-05,2.9868e-05,-2.5814e-08,0.00020185,5.591e-05,-0.00018132,-1.3704e-05,-0.00028038,-1.141e-05,-9.594e-05,0.0001942,-0.00011914,-4.31e-05,-0.5092,-0.00018154,9.4023e-05,5.3121e-06,2.2052e-05,2.955e-05,-4.5235e-05,2.7934e-05,3.6481e-05,-8.3687e-05,-0.00011197,-7.336e-05,-4.7227e-05,-5.9924e-05,-8.8186e-05,9.6642e-05,8.4313e-05,3.0885e-05,3.1722e-05,-0.00033235,-8.4903e-05,-0.00011942,2.2568e-05,-0.00012762,-1.8058e-05,-0.00018387,-0.00016108,-0.00010593,-0.00015179,-8.9349e-05,7.0724e-05,-5.853e-05,-0.00015268,-1.4011e-09,-5.687e-05,-0.00036819,-0.00011702,0.00016117,-0.00015481,-8.4867e-06,-3.3785e-05,-2.7076e-05,-0.00040643,-4.5514e-05,-0.0018875,-9.5357e-05,-0.00020575
-0.00055361,-0.00072012,-0.00091528,-0.0011276,-6.131e-05,0.0002912,-8.7444e-05,0.00024062,-0.0001949,-0.00030949,2.2096e-05,-1.4442e-05,-0.00021014,-0.00027896,0.00062085,-0.00042853,-0.00070564,-0.00029153,0.0008181,4.3899e-05,-0.00066586,7.2905e-05,-0.0001763,0.00030689,-0.00054222,-0.00018925,8.9607e-05,-1.3525e-06,0.00053009,0.0001852,-0.00053089,-0.00018877,-0.00086043,-1.6491e-05,-7.02e-05,0.00045151,-0.00040995,-0.00037783,-1.7553,-0.00058093,0.00022719,-0.00025509,-0.00035941,-2.3059e-05,-0.00031849,0.00012697,0.00019456,-0.00073967,-0.00054437,-0.00022169,-0.0004163,-0.00024745,-0.00031797,4.6074e-05,1.7928e-05,3.1996e-05,-8.2219e-05,-0.0010733,-0.00059023,-0.00075403,0.00011992,-0.00076135,-7.7898e-05,-0.00092054,-0.00049138,-0.00038469,-0.00061001,-0.00055461,0.00021653,-0.00037448,-0.00047927,-0.0003564,-1.5438e-09,-0.0021184,-0.00031624,0.00020816,-0.00027325,-6.5764e-05,-0.00013605,-3.2133e-05,-0.0012669,-0.0001283,-0.0035619,-0.00063611,-0.00080938
-0.00017671,-0.00018772,-0.00035135,-0.00028214,-3.0778e-05,0.00015317,-6.34e-05,0.00012777,0.000226,-0.00013811,-3.6089e-05,8.0049e-05,-1.6962e-05,-8.3573e-06,0.00031316,-0.00021268,-0.00015185,-0.00012463,0.00040402,0.00013765,-0.00037585,0.0001112,-0.00010296,0.00020042,-0.0001945,-8.2201e-05,4.2102e-05,6.6347e-05,0.00028703,0.00013645,-0.00014204,2.2763e-05,-0.00031039,-3.1344e-07,-9.8423e-05,0.00031886,-0.00016928,-6.6481e-05,-0.0010459,-0.00022882,0.00023916,6.4009e-05,0.00022758,7.6267e-05,-6.1269e-05,3.9265e-05,5.0356e-05,-0.00017633,-7.1575e-05,-4.4605e-05,-5.8149e-05,-9.0981e-05,-2.9745e-05,5.1036e-05,3.1671e-05,-1.9833e-05,-2.8217e-05,-0.00032718,-9.0481e-05,-0.00028951,8.3557e-05,-0.0002303,-4.7379e-05,-0.00023058,-0.00023202,-0.00016831,-0.00013731,-0.00014065,0.00010553,-7.4844e-05,-0.00019924,-5.0007e-05,-8.9739e-05,-3.8704e-09,-0.0001569,0.00023006,-0.00014856,-3.0401e-06,-3.8352e-05,-4.9206e-05,-0.00030236,-6.8745e-05,-0.00094642,-0.00012743,-0.00027459
-2.8197e-05,-3.4222e-05,-5.279e-05,-5.8737e-05,-4.8079e-06,1.2957e-05,-5.1469e-06,1.388e-05,-7.4182e-06,-1.6594e-05,-3.9027e-07,1.8361e-07,-1.0448e-05,-1.1785e-05,3.7219e-05,-2.7212e-05,-3.3859e-05,-1.4884e-05,4.0272e-05,5.0144e-06,-3.9195e-05,6.6549e-06,-1.0468e-05,1.7194e-05,-3.006e-05,-1.0671e-05,4.8192e-06,-6.5658e-08,2.8052e-05,9.1205e-06,-3.1028e-05,-8.8425e-06,-4.9599e-05,-2.419e-06,-5.5601e-06,2.836e-05,-2.224e-05,-1.7776e-05,-0.6034,-3.4457e-05,1.1783e-05,-1.1143e-05,-1.7834e-05,8.0741e-08,-1.5565e-05,5.8673e-06,9.7902e-06,-3.6979e-05,-2.5746e-05,-1.5179e-05,-1.9827e-05,-1.1267e-05,-2.6236e-05,3.9813e-06,1.9149e-06,2.6763e-06,-5.5224e-06,-5.6265e-05,-2.7497e-05,-3.9686e-05,5.7066e-06,-3.9321e-05,-4.2132e-06,-4.5508e-05,-2.9519e-05,-2.0935e-05,-3.1478e-05,-2.7031e-05,1.0643e-05,-1.8398e-05,-2.7129e-05,-1.5293e-05,-2.4847e-06,-0.00011265,-4.2569e-10,1.6118e-05,-1.6433e-05,-3.2383e-06,-6.3699e-06,1.3635e-06,-7.0994e-05,-8.1903e-06,-0.00034141,-3.1169e-05,-4.4192e-05
-4.8884e-05,-5.3557e-05,-8.1736e-05,-6.2383e-05,-5.516e-06,5.002e-05,-1.3157e-05,3.5365e-05,6.2979e-05,-3.992e-05,4.4758e-06,2.6327e-05,8.154e-06,-4.5532e-06,0.00011086,-4.8042e-05,-2.9133e-05,-2.8301e-05,0.00011295,3.41e-05,-9.7085e-05,3.5446e-05,-2.445e-05,6.5826e-05,-5.4622e-05,-1.9748e-05,1.3801e-05,1.5906e-05,9.8215e-05,2.8647e-05,-3.7639e-05,8.6249e-06,-8.5688e-05,7.432e-06,-2.3508e-05,9.9014e-05,-3.8329e-05,-8.1029e-06,-0.0018327,-5.607e-05,5.7358e-05,1.6074e-05,2.444e-05,3.389e-05,-7.2828e-06,1.3204e-05,1.8189e-05,-3.2049e-05,-2.9016e-05,-1.964e-05,-1.7956e-05,-1.5971e-05,-3.5194e-05,2.7652e-05,2.027e-05,1.8443e-05,2.8916e-06,-9.3623e-05,-2.9912e-05,-7.8235e-05,2.1413e-05,-5.9835e-05,-7.008e-06,-5.533e-05,-5.1222e-05,-4.2126e-05,-5.5893e-05,-3.3326e-05,3.3854e-05,-2.1907e-05,-6.244e-05,-1.3469e-05,-1.8342e-05,-0.00012005,-3.7944e-05,-2.2185e-09,-2.0381e-05,-1.9794e-06,-1.6233e-05,-9.6832e-06,-8.4587e-05,-1.7504e-05,-0.0003095,-3.1902e-05,-6.8993e-05
-0.00015262,-0.00016919,-0.00022711,-0.00016913,-1.2455e-05,0.00014119,-3.0436e-05,0.00010876,7.5387e-05,-5.308e-05,4.8151e-05,2.6477e-05,2.7593e-05,-6.3251e-05,0.00031557,-0.00013594,-0.0001755,-9.0786e-05,0.00032467,4.4283e-05,-0.00020582,3.8031e-05,-5.3701e-05,0.00013007,-0.00012839,-4.168e-05,3.2375e-05,3.125e-05,0.00020101,7.9904e-05,-0.00012379,-3.0256e-05,-0.00023878,1.743e-05,-4.7028e-06,0.0001903,-0.00010094,-6.3933e-05,-0.0018914,-0.00016583,0.00011436,-3.641e-05,-5.0886e-05,6.1589e-05,-6.3951e-05,4.0394e-05,5.8502e-05,-0.00019452,-0.00010472,-8.3212e-05,-9.601e-05,-4.4731e-05,-9.3688e-05,3.3962e-05,2.0705e-05,2.2014e-05,-3.7965e-05,-0.00015362,-0.00011901,-0.00017957,5.251e-05,-0.00022014,-2.8603e-05,-0.00017515,-0.00012722,-0.00010275,-0.00015615,-0.00014635,7.5678e-05,-8.8126e-05,-0.00014733,-9.2932e-05,-1.3659e-05,-0.00054331,-8.7263e-05,0.00014726,-1.6825e-09,-1.7643e-05,-3.3339e-05,-2.1703e-05,-0.00019882,-4.1433e-05,-0.0014212,-0.00015702,-0.00021711
-0.00037455,-0.00045874,-0.00064059,-0.00077636,-3.7186e-05,0.00015918,-7.3137e-05,0.00018348,-3.3844e-05,-0.00026142,-1.3019e-05,2.25e-05,-0.00014354,-0.0001298,0.00051707,-0.00035576,-0.00042661,-0.00023334,0.00063614,0.00012216,-0.00057204,0.00015015,-0.00013829,0.00026341,-0.00040849,-0.00014386,8.6384e-05,2.8403e-05,0.00049226,0.00015222,-0.000399,-8.5943e-05,-0.00065608,-5.7583e-06,-0.00010427,0.00041598,-0.00030029,-0.0002194,-0.81797,-0.00041454,0.00022553,-0.00012427,-0.00013002,2.0633e-05,-0.00014751,0.00014222,0.0001094,-0.00038602,-0.00034622,-0.00020383,-0.00024686,-0.0001601,-0.00026227,0.00010798,7.5214e-05,4.5187e-05,-1.5787e-05,-0.00079967,-0.00035925,-0.00047346,9.465e-05,-0.00047691,-1.0742e-05,-0.00062334,-0.00039417,-0.00027211,-0.00043376,-0.00035109,0.00016535,-0.00023669,-0.00037744,-0.00018448,-7.3766e-05,-0.0010545,-0.0002832,0.00025515,-0.00030041,-3.2292e-09,-7.9168e-05,-5.4675e-05,-0.00096746,-0.00010254,-0.0024186,-0.00039039,-0.00055148
-8.8779e-05,-0.00011746,-0.0001628,-0.00020585,-7.3891e-06,4.7575e-05,-1.4597e-05,4.9132e-05,3.3693e-06,-6.1738e-05,-4.3675e-06,9.0192e-06,-2.9753e-05,-3.0869e-05,0.00013444,-8.7131e-05,-0.00010199,-5.6836e-05,0.00014871,3.7464e-05,-0.00014506,3.7311e-05,-2.6919e-05,7.0492e-05,-0.00010156,-3.434e-05,2.3394e-05,9.104e-06,0.00011893,4.43e-05,-0.00010008,-1.279e-05,-0.00016498,-1.3545e-06,-2.2107e-05,0.00011504,-7.8178e-05,-5.0995e-05,-0.7518,-0.00010937,6.0164e-05,-1.9718e-05,-3.4638e-05,7.3923e-06,-4.8914e-05,2.4705e-05,2.7793e-05,-0.00011247,-8.0946e-05,-3.8675e-05,-5.9568e-05,-3.3224e-05,-5.7924e-05,3.3747e-05,2.4645e-05,1.1051e-05,-5.6802e-06,-0.00020544,-8.9482e-05,-0.00011285,2.1922e-05,-0.00011499,-1.0082e-05,-0.00015356,-9.6342e-05,-6.534e-05,-0.00011023,-8.434e-05,4.5248e-05,-5.676e-05,-9.4691e-05,-4.694e-05,-2.0385e-05,-0.00037416,-6.9138e-05,5.8663e-05,-7.2578e-05,-6.5347e-06,-1.3558e-09,-1.2192e-05,-0.00025358,-2.8048e-05,-0.0010959,-9.9739e-05,-0.00014313
-2.9341e-05,-3.7218e-05,-5.0892e-05,-6.2002e-05,-3.2304e-06,1.4581e-05,-4.7959e-06,1.2998e-05,-7.5975e-06,-1.9854e-05,-5.7205e-07,8.3542e-07,-1.1801e-05,-1.2004e-05,3.5747e-05,-2.3885e-05,-3.4077e-05,-1.6624e-05,4.8825e-05,6.5171e-06,-3.9961e-05,8.5542e-06,-9.7611e-06,1.976e-05,-3.2375e-05,-1.068e-05,5.1853e-06,9.5998e-07,3.318e-05,1.1686e-05,-2.7985e-05,-7.8693e-06,-4.7671e-05,-1.2126e-06,-6.9088e-06,2.7293e-05,-2.2776e-05,-1.8329e-05,-1.2913,-3.2886e-05,1.4587e-05,-1.0876e-05,-1.3204e-05,-3.4196e-07,-1.4982e-05,6.3967e-06,9.9178e-06,-3.601e-05,-2.8053e-05,-1.254e-05,-2.0925e-05,-1.3201e-05,-1.7586e-05,5.6909e-06,3.6462e-06,2.6851e-06,-2.301e-06,-6.373e-05,-3.0289e-05,-4.0524e-05,6.899e-06,-3.9449e-05,-3.4122e-06,-4.9676e-05,-2.8541e-05,-2.165e-05,-3.4725e-05,-2.8894e-05,1.1956e-05,-1.9291e-05,-2.8063e-05,-1.5853e-05,-2.5479e-06,-0.00012296,-1.4833e-05,1.7406e-05,-1.9501e-05,-2.9763e-06,-6.3985e-06,-1.5772e-09,-7.6104e-05,-7.8392e-06,-0.00029838,-3.1851e-05,-4.4117e-05
-0.004406,-0.0044393,-0.0058406,-0.0019123,-0.00033032,0.0042439,-0.00085195,0.0028473,0.0045004,-0.0022365,0.00081457,0.00095225,0.0021813,-0.0010643,0.0082565,-0.0043139,-0.0037535,-0.0025769,0.0092987,0.0019601,-0.0068153,0.0012994,-0.0017514,0.0051253,-0.0037711,-0.0012498,0.00093619,0.00093689,0.0061781,0.0023694,-0.0035347,0.00030196,-0.0073569,0.0012337,-0.00088966,0.0062191,-0.003398,-0.00084988,-0.010728,-0.0041489,0.0036104,0.00014788,8.1237e-05,0.0021978,-0.0015408,0.0010159,0.0014709,-0.0039417,-0.0014006,-0.0016804,-0.0022061,-0.0011405,-0.0022347,0.0016147,0.0011261,0.000608,-0.00025122,-0.0017877,-0.002884,-0.0039038,0.0016735,-0.0052143,-0.00094167,-0.0044077,-0.003667,-0.002974,-0.0045467,-0.0037755,0.0023465,-0.0018114,-0.0040795,-0.0020535,-0.0010292,-0.007026,-0.0029905,0.0052313,-0.00056707,-0.0004115,-0.00075336,-0.00084257,-4.1837e-09,-0.0013406,-0.015189,-0.0033344,-0.0055352
-0.00020885,-0.00023769,-0.00031549,-0.00044647,-1.6186e-05,0.00010898,-3.3735e-05,9.3466e-05,-1.7805e-05,-0.00014928,-3.8242e-07,1.8892e-05,-7.5249e-05,-7.3182e-05,0.00026032,-0.00013708,-0.00022151,-0.00011947,0.00035693,6.2898e-05,-0.00029848,7.1418e-05,-7.5217e-05,0.00015095,-0.00022663,-7.1217e-05,4.6478e-05,7.9719e-06,0.00025959,8.373e-05,-0.00018959,-5.0249e-05,-0.00033036,-1.535e-06,-5.9127e-05,0.00019406,-0.00014333,-0.00011331,-1.0064,-0.00021858,0.00011628,-6.165e-05,-5.6852e-05,1.0906e-06,-7.8409e-05,5.1735e-05,6.6242e-05,-0.00021357,-0.00019163,-8.4193e-05,-0.00013402,-8.994e-05,-0.00011278,5.7439e-05,4.2363e-05,2.2227e-05,1.5116e-06,-0.00046363,-0.00018854,-0.00028437,5.4236e-05,-0.00026419,-2.4148e-05,-0.00034043,-0.00019774,-0.00014008,-0.00023452,-0.00018612,0.00010163,-0.00013228,-0.00019196,-0.000105,-2.8746e-05,-0.0010074,-0.00015234,0.00013128,-0.00014501,-1.6681e-05,-4.8972e-05,-2.662e-05,-0.00059851,-1.5225e-09,-0.001943,-0.00019944,-0.00030199
0.00016495,-0.00022127,2.025e-06,0.00017715,-0.00018075,3.5117e-05,4.5594e-05,0.00033002,1.1001e-05,-0.00038008,4.5354e-06,3.9508e-06,0.00053303,5.3097e-05,0.00015359,-0.00017636,-0.0003197,-3.1994e-05,-7.7118e-05,-4.665e-05,-0.00085547,0.0003601,-0.00016239,0.00084313,5.6441e-05,-0.00010555,-8.3538e-05,-0.00013764,0.0010164,0.00069675,-0.00055598,0.00031634,-0.00032983,0.00027322,-0.00030224,0.00050378,-0.00011323,0.00040243,-4.0096e-05,-0.00050443,3.4014e-06,0.00019749,-0.00027341,0.00042161,-0.00011963,0.00030417,9.9479e-05,3.7627e-07,-0.00033218,1.1467e-05,0.00011368,1.6343e-06,-0.00029697,0.00037992,0.00050246,0.00017395,0.00057521,-0.00099587,0.00033503,-0.00010713,-0.00027869,-0.00031968,-0.00032979,-0.00026217,-0.00029663,8.6315e-05,-0.00062325,-0.00028624,-9.3233e-05,-0.00038369,-0.00041104,-0.00029235,-0.00022756,-3.954e-06,-0.00077346,0.00059007,-0.00042178,0.00023481,0.0001138,-0.00017199,7.6132e-05,-0.00019169,-3.5537e-15,-4.9177e-05,-8.782e-05
-4.7967e-05,-5.1819e-05,-7.1701e-05,-9.1906e-05,-4.7541e-06,2.5808e-05,-1.0319e-05,1.9916e-05,2.3796e-05,-5.3081e-05,-8.6265e-06,1.3193e-05,-1.9027e-05,-1.1343e-06,7.2347e-05,-4.6265e-05,-3.3428e-05,-2.7832e-05,0.00010113,3.4868e-05,-9.1103e-05,3.6883e-05,-2.3774e-05,4.569e-05,-6.132e-05,-2.0436e-05,1.0049e-05,5.4975e-06,7.7511e-05,1.8385e-05,-5.0621e-05,1.1399e-06,-8.6858e-05,1.1062e-06,-3.371e-05,6.2582e-05,-4.2833e-05,-1.5271e-05,-0.090955,-5.8125e-05,3.7772e-05,5.9336e-06,2.3215e-05,1.028e-05,-1.4241e-05,6.9387e-06,1.1784e-05,-2.6423e-05,-3.9453e-05,-1.5383e-05,-1.4806e-05,-2.366e-05,-2.2797e-05,2.9e-05,2.4428e-05,1.485e-05,1.4184e-05,-0.00012609,-3.4731e-05,-5.1403e-05,1.2919e-05,-4.8878e-05,-7.1669e-06,-6.9059e-05,-4.9862e-05,-3.4925e-05,-6.0587e-05,-2.7676e-05,2.6409e-05,-2.1524e-05,-6.1425e-05,-8.2853e-06,-1.9716e-05,-0.00011394,-4.4807e-05,6.3137e-05,-5.3274e-05,-4.8243e-06,-1.3182e-05,-1.1047e-05,-0.00014636,-1.414e-05,-0.0003387,-2.9055e-09,-6.758e-05
-7.7306e-05,-0.00010086,-0.00012282,-0.00015994,-3.8403e-06,5.0158e-05,-1.5215e-05,3.6655e-05,1.9188e-05,-7.1115e-05,-3.0706e-06,2.1284e-05,-3.1811e-05,-1.7057e-05,0.00010758,-7.046e-05,-6.8386e-05,-5.2133e-05,0.00017114,4.1285e-05,-0.00013151,4.7967e-05,-3.2956e-05,7.721e-05,-9.5184e-05,-3.2513e-05,1.6835e-05,1.4874e-05,0.0001289,3.6796e-05,-6.5567e-05,-4.4502e-06,-0.0001233,8.7454e-06,-3.2573e-05,0.0001129,-7.1656e-05,-3.8996e-05,-0.54285,-7.1688e-05,6.7524e-05,-7.4076e-06,1.0669e-05,1.4396e-05,-2.4881e-05,2.0067e-05,2.2254e-05,-5.2609e-05,-7.1555e-05,-3.0218e-05,-4.4778e-05,-4.0048e-05,-3.0673e-05,3.7543e-05,3.0775e-05,1.5298e-05,1.2497e-05,-0.00018359,-7.3124e-05,-9.5632e-05,2.4071e-05,-9.8685e-05,-8.7908e-06,-0.00013087,-8.0606e-05,-5.9089e-05,-0.00010213,-6.8047e-05,3.8583e-05,-4.2808e-05,-8.5693e-05,-2.9871e-05,-2.2179e-05,-0.00022874,-7.0954e-05,8.5616e-05,-7.0303e-05,-4.8019e-06,-1.8749e-05,-1.4618e-05,-0.00020944,-2.4704e-05,-0.00039916,-6.5337e-05,-3.0319e-09
