-1.5109e-09,-7.8988e-05,-0.00022144,-7.1958,-5.3935e-05,-4.7401e-06,2.3002e-05,2.249e-05,0.00033807,-8.7626e-05,-8.6224e-05,-3.6487e-05,-0.0001348,-2.604e-07,-9.5597e-05,-0.00027987,-0.00017686,-6.4997e-05,7.3338e-05,0.00018041,-7.2205e-05,6.8748e-05,-4.2976e-05,-7.7201e-05,-0.00017466,2.2315e-05,-7.667e-06,-3.1732e-05,0.00040084,4.8176e-05,-0.00013858,-0.00013541,-0.00011113,-6.6367e-05,-4.0708e-05,-8.676e-05,7.8001e-05,-9.9446e-05,-9.1139e-05,-9.8211e-05,1.8088e-07,-5.0584e-05,-7.6437e-06,-0.00022165,-1.2678e-05,3.5724e-05,-1.8383e-05,3.7272e-05,-1.3444e-06,-8.1694e-05,-7.1468e-06,-2.4723e-05,0.0002415,-5.1178e-05,-7.5457e-05,1.1388e-06,-1.4992e-05,-0.00014797,-7.2365e-05,3.3036e-05,1.2044e-05,-9.4884e-05,-4.9864e-05,-0.00044974,-6.9699e-05,-5.7615e-05,-7.7825e-05,-0.00010602,-1.3626e-05,-6.9976e-05,-9.8645e-05,1.3728e-05,-5.4239e-05,-2.1344e-05,-0.00014616,0.00024472,-1.9415e-05,-1.0242e-06,1.0114e-05,-3.9295e-05,3.7006e-05,-6.7578e-05,-0.0012706,-9.8763e-05,-0.0001577
-0.00013917,-1.2305e-09,-0.00032122,-7.3278,-8.6105e-05,1.1694e-06,3.1283e-05,3.3929e-05,0.00052986,-0.00013441,-0.00012751,-4.3944e-05,-0.00018553,4.9995e-06,-0.00013878,-0.0004495,-0.00028788,-9.1981e-05,0.00011766,0.00026987,-0.0001325,0.00010633,-7.5392e-05,-0.00012958,-0.0002615,3.2116e-05,-1.0758e-05,-4.3953e-05,0.00058218,7.6682e-05,-0.0002288,-0.00019522,-0.00016738,-0.00010127,-6.7827e-05,-0.00011116,0.00012371,-0.000138,-0.00011787,-0.00015067,5.8311e-06,-5.919e-05,-4.8758e-06,-0.00035217,-5.9074e-06,5.2963e-05,-3.0644e-05,6.9179e-05,9.2469e-06,-0.0001216,-3.3234e-06,-3.5514e-05,0.00034478,-7.6287e-05,-0.00011398,-1.1336e-06,-2.8741e-05,-0.00018986,-8.9123e-05,6.3231e-05,2.9115e-05,-0.0001423,-7.8906e-05,-0.00064711,-0.00010627,-9.2703e-05,-0.00011593,-0.00015414,-1.7225e-05,-9.504e-05,-0.00015795,2.2589e-05,-9.6183e-05,-1.0792e-05,-0.00022319,0.00038428,-2.1688e-05,-1.5541e-06,7.4935e-06,-6.8874e-05,8.525e-05,-0.00010021,-0.0027838,-0.00013356,-0.00024372
-9.6576e-05,-7.6876e-05,-1.3733e-09,-6.8931,-4.9399e-05,1.3095e-06,1.8586e-05,1.9127e-05,0.00035112,-9.3952e-05,-7.7219e-05,-3.4858e-05,-0.00012466,4.432e-07,-8.8015e-05,-0.0002712,-0.00018614,-7.2422e-05,8.7614e-05,0.00016999,-7.4716e-05,6.9624e-05,-4.5245e-05,-7.6937e-05,-0.00017458,2.5938e-05,-9.7524e-06,-2.7696e-05,0.00038685,4.8472e-05,-0.00013252,-0.00012294,-9.9877e-05,-5.9533e-05,-4.3181e-05,-8.5999e-05,7.872e-05,-9.2621e-05,-7.5574e-05,-9.5486e-05,-5.7602e-09,-4.359e-05,2.4905e-06,-0.00021189,-7.2639e-06,3.2399e-05,-2.2803e-05,3.9259e-05,9.7246e-07,-6.7905e-05,-8.9825e-06,-3.1528e-05,0.00027158,-4.5028e-05,-6.8024e-05,1.1465e-06,-1.1551e-05,-0.00013149,-7.0741e-05,4.2633e-05,1.4362e-05,-9.4979e-05,-5.0929e-05,-0.0004339,-6.3035e-05,-5.7373e-05,-8.1959e-05,-0.00010459,-7.9055e-06,-6.7639e-05,-9.0625e-05,7.8859e-06,-5.881e-05,-1.9853e-05,-0.00016088,0.00024338,-1.5297e-05,-2.0752e-06,5.6905e-06,-4.3334e-05,6.1381e-05,-6.1679e-05,-0.0012359,-8.8505e-05,-0.00015566
-0.00010257,-6.9473e-05,-0.00023777,-1.5701e-09,-6.7862e-05,-1.1819e-05,1.22e-05,2.6615e-05,0.00031012,-7.0472e-05,-8.8343e-05,-3.7452e-05,-0.00018393,-3.6224e-06,-0.00015155,-0.00034069,-0.00021138,-6.5153e-05,5.3912e-05,0.00014277,-0.00010041,4.8251e-05,-5.1936e-05,-0.00013572,-0.00017468,1.7371e-05,-1.2999e-05,-3.8506e-05,0.00030509,3.4805e-05,-0.00019464,-0.00015239,-0.00013268,-7.7763e-05,-3.3086e-05,-0.00010776,5.9167e-05,-0.00011477,-0.00030514,-0.00010888,-9.9531e-06,-5.7456e-05,-2.3715e-05,-0.00033603,-1.6899e-05,2.9556e-05,-1.9857e-05,2.2446e-05,-2.7201e-06,-0.00010652,-8.5931e-06,-2.7091e-05,0.00012792,-7.0371e-05,-0.00010081,-4.9337e-06,-3.951e-05,-0.00020598,-4.8274e-05,3.0737e-05,1.1342e-05,-9.9494e-05,-6.2134e-05,-0.0026388,-8.7932e-05,-7.4297e-05,-6.9514e-05,-8.9041e-05,-2.7845e-05,-6.202e-05,-9.2076e-05,8.2115e-06,-5.9578e-05,-1.0322e-05,-0.00012985,0.00020937,-1.3397e-05,-6.9112e-06,-8.778e-06,-4.6885e-05,2.8086e-05,-7.4465e-05,-1.966,-9.5489e-05,-0.000167
-0.00095586,-0.00088204,-0.0020205,-7.0722,-1.5326e-09,5.7883e-05,0.00021447,0.0002655,0.0032674,-0.00075319,-0.0006692,-0.00030489,-0.0011292,-0.00010785,-0.00077269,-0.0024325,-0.0016693,-0.00067437,0.0007623,0.0015545,-0.000666,0.00051515,-0.00038703,-0.00064443,-0.0015882,0.00022556,-5.1062e-05,-0.00023702,0.0036643,0.00052521,-0.0011948,-0.0012098,-0.00091697,-0.00054936,-0.0002816,-0.00073853,0.00069592,-0.00092611,-0.00074735,-0.00084498,3.1387e-05,-0.00049112,-0.00017018,-0.0018695,-0.00014002,0.00035063,-0.00014724,0.00021323,-4.3671e-05,-0.00068499,-0.00015693,-0.00027192,0.0024191,-0.00046793,-0.00066717,-1.4743e-05,-0.00021062,-0.0011989,-0.00074605,0.00023796,0.00015854,-0.0010376,-0.00045478,-0.0040181,-0.00058246,-0.00053005,-0.00072152,-0.0011137,-7.9801e-05,-0.00066658,-0.00082906,-1.4716e-05,-0.00047058,-0.00022408,-0.0013744,0.0021678,-0.00010031,-1.1693e-05,4.7111e-05,-0.00036333,0.00048273,-0.00058337,-0.012834,-0.0010119,-0.0015005
-8.6916e-05,-6.6621e-05,-0.0001804,-6.7151,-3.5808e-05,-2.3556e-09,2.6963e-05,5.0982e-05,0.00068255,-4.4416e-05,-4.5125e-05,-1.3159e-05,-7.7989e-05,-8.9934e-06,-6.3117e-05,-0.00021456,-0.00013855,-5.3978e-05,6.8385e-05,0.00015173,-5.6912e-05,4.6578e-05,-3.2324e-05,-2.0449e-05,-0.00012625,3.0251e-05,4.3441e-06,-3.6183e-06,0.00036687,6.6757e-05,-9.0463e-05,-8.478e-05,-6.8305e-05,-3.448e-05,-7.7966e-06,-6.1901e-05,6.9749e-05,-6.8724e-05,-4.4042e-05,-6.5659e-05,2.0839e-05,-1.5379e-05,2.4468e-06,-0.00014615,-3.8522e-06,4.4591e-05,-2.9696e-07,1.8128e-05,3.3157e-05,-4.2568e-05,-2.3486e-06,-1.2184e-05,0.00033475,-4.5689e-05,-6.6746e-05,1.0758e-05,-2.8472e-05,-7.1666e-05,-4.9361e-05,-5.363e-06,3.8159e-05,-0.00010023,-3.8238e-05,-0.00028191,-3.7337e-05,-4.0063e-05,-5.6136e-05,-0.00010351,2.2799e-05,-5.2435e-05,-6.5899e-05,-3.1733e-06,-3.4295e-05,6.6455e-06,-0.00010428,0.0004158,1.8085e-05,4.968e-06,8.7538e-06,-2.6814e-05,9.0926e-05,-4.7909e-05,-0.0010301,-7.8664e-05,-0.00012366
-0.00032584,-0.000299,-0.00074495,-7.6866,-0.0001629,1.2213e-05,-1.0703e-09,8.2191e-05,0.0010235,-0.0002551,-0.00026389,-0.00012635,-0.00040351,-3.4943e-05,-0.00029075,-0.00089177,-0.00058401,-0.00022194,0.00022884,0.00051903,-0.00025292,0.00016817,-0.00014071,-0.00027872,-0.00054549,6.7667e-05,4.5613e-06,-9.8484e-05,0.0011398,0.00015962,-0.00045401,-0.00042101,-0.00036732,-0.0002073,-9.771e-05,-0.00026479,0.00021146,-0.00033356,-0.00029429,-0.00030859,-4.602e-06,-0.00017672,-6.9219e-05,-0.00067027,-5.0865e-05,0.00011449,-5.8735e-05,6.84e-05,-2.7083e-05,-0.00025499,-6.9226e-05,-9.3234e-05,0.00079562,-0.00016457,-0.000236,-1.4762e-06,-7.5714e-05,-0.00043729,-0.0002637,6.9654e-05,5.2403e-05,-0.00037152,-0.00016031,-0.0014509,-0.00022708,-0.0001863,-0.00022135,-0.00038528,-3.0795e-05,-0.00023938,-0.00024743,-2.0102e-06,-0.0001691,-9.15e-05,-0.00045349,0.00064457,-7.233e-05,-1.3932e-05,1.0181e-05,-0.00012067,0.00013515,-0.0002166,-0.018807,-0.00036215,-0.00055806
-0.00046733,-0.00042405,-0.001074,-7.4003,-0.00021207,8.0135e-05,9.8501e-05,-8.392e-10,0.0013925,-0.00025285,-0.00029323,-0.00014784,-0.00046843,-4.9867e-05,-0.00035036,-0.0012398,-0.00078276,-0.00032174,0.00029642,0.00079465,-0.00033825,0.00021932,-0.00018279,-0.0002644,-0.00065034,0.00012907,-4.2315e-06,-9.496e-05,0.0016152,0.0002458,-0.00060004,-0.00057103,-0.00048472,-0.00025146,-6.4576e-05,-0.00030353,0.00032132,-0.00043585,-0.00031601,-0.00039475,2.4231e-05,-0.0002633,-0.00017051,-0.00088618,-7.4954e-05,0.00018341,-4.6967e-05,5.3315e-05,2.8704e-05,-0.00037786,-7.6654e-05,-7.2998e-05,0.0010788,-0.00024822,-0.00035257,2.1188e-05,-0.00015896,-0.00046678,-0.00028919,5.1956e-05,9.5364e-05,-0.00056306,-0.0002241,-0.0018216,-0.00028506,-0.00025544,-0.00031237,-0.00057028,-1.0665e-05,-0.00029359,-0.00037506,-2.3136e-05,-0.00020452,-0.00010564,-0.00055918,0.0011147,-7.4029e-06,8.2653e-06,2.601e-05,-0.00015203,0.00026037,-0.00027754,-0.0051728,-0.0005406,-0.00078153
-3.1506e-05,-2.0532e-05,-8.0065e-05,-6.5679,-1.5473e-05,2.4146e-05,1.5528e-05,2.2839e-05,-1.76e-09,-2.2146e-05,-2.1953e-05,-1.5009e-06,-3.0787e-05,7.3134e-06,-3.5361e-05,-0.00011268,-6.4165e-05,-1.8932e-05,4.5449e-05,9.9642e-05,-2.7227e-05,3.2863e-05,-1.5255e-05,-1.1087e-05,-6.2917e-05,1.5663e-05,2.5007e-06,-1.5521e-06,0.00020943,3.9617e-05,-3.8424e-05,-3.6929e-05,-3.6591e-05,-1.3398e-05,-1.143e-05,-3.0768e-05,4.3114e-05,-2.6999e-05,-1.6294e-05,-3.6831e-05,1.5458e-05,2.3381e-06,2.914e-05,-6.7185e-05,3.6448e-06,1.9763e-05,-2.2356e-06,2.1431e-05,2.5456e-05,-2.3516e-05,8.6393e-06,-1.4267e-06,0.00027243,-1.5158e-05,-2.5882e-05,7.1059e-06,-9.7277e-06,-2.8159e-05,-1.2901e-05,2.154e-05,1.6386e-05,-3.0777e-05,-1.8049e-05,-0.00014188,-2.0134e-05,-1.5613e-05,-1.8806e-05,-3.3286e-05,7.904e-06,-1.6768e-05,-3.3598e-05,1.2352e-05,-2.2691e-05,2.579e-05,-5.2786e-05,0.00018989,1.6102e-05,4.0197e-06,8.9081e-06,-1.5226e-05,5.8232e-05,-2.4083e-05,-0.00096864,-2.4445e-05,-5.1918e-05
-0.00018107,-0.00016194,-0.00042746,-7.5369,-9.0859e-05,3.3939e-05,4.0943e-05,8.679e-05,0.00062079,-7.8317e-10,-0.00011735,-5.5203e-05,-0.00018216,-2.0159e-05,-0.00014642,-0.00053837,-0.00030465,-0.00012451,0.00012488,0.00029164,-0.00013617,8.4268e-05,-7.1723e-05,-0.00012872,-0.00026756,5.2434e-05,5.0051e-06,-3.7712e-05,0.00064942,9.9213e-05,-0.00025432,-0.00025505,-0.00018472,-0.00011046,-7.2436e-06,-0.00014266,0.00013362,-0.0001685,-0.00012625,-0.00016792,8.5554e-06,-0.00010575,-8.3309e-05,-0.00034638,-2.6609e-05,7.6834e-05,-1.8241e-05,1.5737e-05,1.3233e-05,-0.00017083,-2.0552e-05,-2.2532e-05,0.00037537,-0.00010383,-0.0001476,5.298e-06,-6.7729e-05,-0.00017676,-0.00011215,2.8578e-05,4.0059e-05,-0.00022333,-9.195e-05,-0.00076818,-0.00012775,-0.00010692,-0.00011951,-0.00023405,-1.4206e-05,-0.00012972,-0.00015226,-1.3349e-05,-8.7185e-05,-2.5872e-05,-0.00022869,0.00044214,1.2228e-05,3.9655e-06,1.872e-05,-6.7054e-05,0.00011663,-0.00011487,-0.0049629,-0.00021747,-0.00030498
-0.00051209,-0.00044612,-0.0010147,-7.0104,-0.00021183,9.7296e-05,8.6102e-05,0.00017493,0.0018513,-0.00029874,-1.5451e-09,-0.00012444,-0.00045737,-7.6758e-05,-0.00039116,-0.0012396,-0.00080651,-0.00033751,0.00041496,0.0007302,-0.00033568,0.0002207,-0.00018679,-0.00029561,-0.00074239,0.00012351,1.3293e-06,-8.0379e-05,0.0017283,0.00027392,-0.00058153,-0.00057752,-0.00045518,-0.00026392,-7.8146e-05,-0.00034142,0.0003343,-0.00045523,-0.00031344,-0.00041403,3.4568e-05,-0.00022315,-0.00013439,-0.00087079,-7.9188e-05,0.00018178,-5.1207e-05,6.2392e-05,3.1052e-06,-0.00034894,-9.182e-05,-0.00010896,0.0012307,-0.00024166,-0.00033979,3.6246e-07,-0.00015643,-0.00046823,-0.00037723,8.1005e-05,0.00010141,-0.00058913,-0.00023587,-0.001936,-0.00029713,-0.00026488,-0.00037228,-0.00058712,-2.6344e-05,-0.00032955,-0.00042122,-3.4181e-05,-0.00019588,-8.7608e-05,-0.00063094,0.0011918,6.1721e-05,-2.9726e-06,3.1824e-05,-0.00017656,0.0003427,-0.00029133,-0.0041851,-0.00054205,-0.00078862
-0.00016045,-0.000126,-0.00035109,-7.1222,-7.5421e-05,2.8258e-05,3.3548e-05,4.896e-05,0.00064272,-0.00012189,-0.00010745,-4.4333e-09,-0.00017459,-1.2232e-05,-0.00014402,-0.00040253,-0.00028179,-0.00010154,0.00013029,0.00027318,-0.0001257,9.3533e-05,-6.688e-05,-9.6507e-05,-0.00025919,3.7362e-05,-6.8076e-06,-1.2958e-05,0.00063865,9.1267e-05,-0.00020058,-0.00018785,-0.00014915,-8.8062e-05,-4.7134e-05,-0.00010425,0.00012544,-0.00014211,-0.00010823,-0.00014226,3.7441e-05,-6.2149e-05,-9.8312e-06,-0.00031347,-6.0738e-06,6.3559e-05,-2.1634e-05,5.3185e-05,1.408e-05,-0.00011209,-1.3789e-05,-3.5582e-05,0.00042415,-8.4927e-05,-0.00012318,2.4324e-06,-3.9541e-05,-0.00016979,-0.00010801,2.9266e-05,3.4575e-05,-0.00017121,-7.9616e-05,-0.00065719,-9.9691e-05,-9.447e-05,-0.00011571,-0.0001716,-1.059e-05,-0.00010368,-0.00015508,2.0585e-06,-7.9155e-05,-1.0777e-05,-0.0002172,0.00045562,-5.5236e-06,3.0955e-06,1.0526e-05,-5.9889e-05,0.00010608,-9.7307e-05,-0.0021065,-0.00015205,-0.00023949
-7.1607e-05,-4.9169e-05,-0.00015676,-5.7645,-3.6464e-05,2.0746e-05,1.5895e-05,3.909e-05,0.00038578,-3.4579e-05,-4.1135e-05,-1.4387e-05,-3.9237e-09,-2.2694e-06,-6.7772e-05,-0.00022246,-0.00012282,-4.5513e-05,6.5236e-05,0.0001246,-6.0887e-05,3.4648e-05,-3.0673e-05,-2.7838e-05,-0.00010808,2.1153e-05,2.211e-06,-1.0106e-05,0.00027319,4.982e-05,-9.7328e-05,-8.5202e-05,-7.3425e-05,-4.1837e-05,-1.0606e-05,-4.9663e-05,5.6259e-05,-5.6588e-05,-3.2795e-05,-6.6829e-05,9.9793e-06,-2.5042e-05,-1.3226e-05,-0.00014128,-5.2194e-06,2.8015e-05,-5.5818e-06,1.3713e-05,2.3365e-05,-6.1874e-05,-2.3936e-07,-6.0753e-06,0.00018868,-3.7678e-05,-5.7319e-05,5.0948e-06,-2.8217e-05,-3.9469e-05,-3.2877e-05,2.9961e-05,2.1188e-05,-7.1964e-05,-4.1411e-05,-0.00029601,-4.7293e-05,-4.182e-05,-4.1011e-05,-7.5507e-05,-3.148e-06,-3.9745e-05,-6.8098e-05,1.5301e-06,-3.8441e-05,8.2285e-06,-8.9192e-05,0.00022472,1.7481e-05,1.2314e-06,1.046e-05,-2.9012e-05,9.7285e-05,-4.5334e-05,-0.0008677,-6.5266e-05,-0.00010956
-0.0010995,-0.00087781,-0.0025683,-7.4529,-0.00068143,-0.00011085,0.00027906,0.0002832,0.0042762,-0.0011604,-0.0010824,-0.00043841,-0.0016148,-1.2149e-09,-0.0011678,-0.0036578,-0.0020769,-0.00079206,0.00095107,0.0024167,-0.00099255,0.00098267,-0.00057984,-0.0010987,-0.0021495,0.00029317,-9.7145e-05,-0.00040685,0.0046775,0.00055893,-0.0017905,-0.0016387,-0.0013474,-0.00083087,-0.00062807,-0.0010064,0.00096255,-0.001146,-0.0010171,-0.0012911,6.2092e-06,-0.00051527,8.3697e-06,-0.0026678,-0.0001212,0.00039547,-0.00026831,0.00054539,6.3252e-05,-0.0009271,1.1383e-05,-0.00033396,0.0031641,-0.00055761,-0.00085097,6.5318e-05,-0.00010167,-0.0016686,-0.00072281,0.0005927,0.0001412,-0.0010786,-0.00066942,-0.0057034,-0.00090672,-0.000744,-0.00089931,-0.0012345,-0.00013474,-0.0007294,-0.0011641,0.00025495,-0.00080697,-0.00016428,-0.0018782,0.003014,-0.0003406,-1.596e-05,7.415e-05,-0.00055664,0.00055746,-0.00083389,-0.015922,-0.0010656,-0.0019738
-2.1494e-05,-1.7185e-05,-4.3835e-05,-6.8664,-9.0423e-06,4.4895e-06,4.6965e-06,7.5127e-06,7.008e-05,-1.0933e-05,-1.1325e-05,-6.2314e-06,-1.8194e-05,-3.9105e-06,-8.4637e-10,-5.358e-05,-3.4174e-05,-1.4037e-05,1.3174e-05,2.8679e-05,-1.5841e-05,6.7917e-06,-8.727e-06,-1.2773e-05,-2.9183e-05,3.4099e-06,6.7616e-07,-4.088e-06,7.6276e-05,9.1366e-06,-2.8246e-05,-2.7186e-05,-2.4744e-05,-1.3296e-05,-2.833e-06,-1.2311e-05,1.3268e-05,-1.8106e-05,-1.2277e-05,-1.9644e-05,4.4189e-07,-1.0791e-05,-7.0953e-06,-4.232e-05,-3.4255e-06,6.6782e-06,-2.776e-06,-6.64e-08,1.4675e-06,-2.0502e-05,-2.0484e-06,-3.3408e-06,3.9556e-05,-9.2733e-06,-1.3804e-05,1.0483e-06,-9.5598e-06,-1.9611e-05,-1.3992e-05,-5.2835e-07,4.9289e-06,-2.6553e-05,-1.062e-05,-7.7418e-05,-1.3497e-05,-1.1772e-05,-1.382e-05,-2.7718e-05,-2.1251e-06,-1.575e-05,-1.7594e-05,-4.1646e-06,-1.0762e-05,-5.5684e-06,-2.7027e-05,5.9195e-05,4.6839e-06,-1.414e-06,4.7481e-07,-9.3208e-06,1.2213e-05,-1.2439e-05,-0.00019369,-2.2358e-05,-3.9979e-05
-7.4461e-05,-6.8791e-05,-0.00016768,-6.9167,-3.4895e-05,9.0939e-06,2.0649e-05,2.4154e-05,0.00029173,-7.019e-05,-5.8039e-05,-1.9586e-05,-0.00010079,-3.9877e-06,-6.723e-05,-1.5152e-09,-0.00013571,-5.1785e-05,6.7327e-05,0.00014237,-5.6349e-05,5.5779e-05,-3.093e-05,-4.2919e-05,-0.00013944,2.0446e-05,-3.2615e-06,-1.5846e-05,0.00033598,4.4654e-05,-0.00010254,-9.475e-05,-6.7555e-05,-4.1062e-05,-2.6345e-05,-5.5781e-05,7.0555e-05,-7.7386e-05,-6.189e-05,-7.1028e-05,8.8456e-06,-3.303e-05,7.2552e-07,-0.00016146,-7.6662e-06,3.428e-05,-9.7107e-06,3.1064e-05,8.6581e-07,-5.147e-05,-8.6518e-06,-1.8996e-05,0.00020592,-3.728e-05,-5.6303e-05,3.131e-06,-1.4134e-05,-0.00010545,-5.9344e-05,2.1481e-05,1.38e-05,-8.2829e-05,-3.623e-05,-0.00031782,-4.55e-05,-4.805e-05,-6.1719e-05,-8.8132e-05,-2.3116e-06,-5.9842e-05,-7.0529e-05,4.2727e-06,-3.883e-05,-1.3018e-05,-0.00011301,0.00022144,-1.1572e-05,3.3054e-06,8.8533e-06,-2.6728e-05,3.7611e-05,-4.3968e-05,-0.0011889,-7.6303e-05,-0.00012091
-0.00010804,-8.3466e-05,-0.00027067,-6.7794,-6.5564e-05,4.5728e-06,3.4226e-05,3.382e-05,0.00060638,-0.00011813,-0.00011046,-3.309e-05,-0.00016007,2.4348e-05,-0.0001193,-0.00035764,-1.69e-09,-7.3622e-05,0.0001018,0.00029409,-9.1229e-05,0.00011389,-5.5504e-05,-9.277e-05,-0.00023408,4.0923e-05,-9.2511e-06,-3.4025e-05,0.0005708,7.4988e-05,-0.00015611,-0.00015942,-0.00011044,-8.3286e-05,-6.3874e-05,-0.00011396,0.00011415,-0.00011262,-8.672e-05,-0.00012525,1.2054e-05,-4.031e-05,3.1751e-05,-0.00027664,2.9194e-06,4.4976e-05,-1.8251e-05,8.3682e-05,2.4035e-05,-9.1955e-05,1.708e-05,-2.9313e-05,0.00047134,-5.0314e-05,-8.2533e-05,1.2264e-05,-1.856e-07,-0.0001593,-6.3006e-05,7.4497e-05,2.5892e-05,-9.8425e-05,-6.6071e-05,-0.00057555,-9.1253e-05,-7.2237e-05,-8.5135e-05,-0.0001193,-8.9761e-06,-7.1934e-05,-0.0001144,4.0886e-05,-8.2312e-05,5.577e-06,-0.00018995,0.00041989,-2.4076e-05,2.5249e-06,1.557e-05,-4.932e-05,9.3542e-05,-8.3548e-05,-0.0015053,-9.3298e-05,-0.00017629
-0.00055296,-0.00045453,-0.0013563,-7.6009,-0.00031668,1.2893e-05,0.00014507,0.00013641,0.0019768,-0.00050253,-0.00047686,-0.00018467,-0.00075638,-2.1292e-05,-0.00054213,-0.0016511,-0.0010598,1.3092e-09,0.00041999,0.0010297,-0.00049867,0.00036746,-0.00027077,-0.00047948,-0.0010031,0.00013934,-2.2739e-05,-0.00018078,0.0022208,0.00027794,-0.00087133,-0.00081268,-0.00063188,-0.00038931,-0.00020787,-0.00050473,0.00045281,-0.00056137,-0.00053606,-0.00057762,1.732e-05,-0.00027965,-7.4961e-05,-0.0013428,-7.3727e-05,0.00020663,-6.9013e-05,0.00019778,-1.7669e-05,-0.00046398,-5.1032e-05,-0.00013907,0.0014691,-0.00030817,-0.0004443,3.0137e-05,-0.00012066,-0.00080474,-0.0004261,0.00018445,9.4173e-05,-0.00057485,-0.00029093,-0.0027216,-0.00043801,-0.00036877,-0.00044136,-0.00060009,-6.8378e-05,-0.00040179,-0.0005478,7.0592e-05,-0.00027621,-9.3844e-05,-0.00080328,0.0013982,-0.00011865,6.8372e-06,3.4251e-05,-0.00021177,0.00026345,-0.000381,-0.026789,-0.00057614,-0.0009574
-0.00092782,-0.00083688,-0.0017993,-6.6825,-0.00039188,-2.5486e-06,0.00017786,0.00021307,0.0035417,-0.00075949,-0.00051702,-0.00027636,-0.00094035,-8.5787e-05,-0.00070273,-0.0023381,-0.0018201,-0.00064008,-1.8145e-09,0.0015204,-0.00057359,0.00051071,-0.00036826,-0.00080738,-0.0015197,0.00021211,-6.1974e-05,-0.00022743,0.0036109,0.00048629,-0.00098259,-0.0011065,-0.00080454,-0.00052175,-0.00032821,-0.00067936,0.00078921,-0.00090335,-0.00052617,-0.00079298,2.0021e-05,-0.00037455,-9.2884e-05,-0.0020299,-0.00014423,0.00030177,-0.00017236,0.00026732,-7.8079e-06,-0.00065777,-0.00013697,-0.00030158,0.0021154,-0.00046831,-0.00067864,-2.4756e-05,-0.00024786,-0.0010281,-0.00067609,0.00032581,8.9186e-05,-0.00093584,-0.00045899,-0.0037917,-0.00056524,-0.00050047,-0.00072477,-0.0010659,-8.1889e-05,-0.0006008,-0.00082372,1.0622e-05,-0.00043407,-0.00023084,-0.0012848,0.0018807,7.3764e-05,-3.4382e-05,1.7197e-05,-0.00031479,0.00060745,-0.00052814,-0.01173,-0.00086696,-0.0014355
-0.00010779,-9.117e-05,-0.00026068,-7.0922,-5.9886e-05,-8.3426e-06,3.1523e-05,4.4042e-05,0.00043567,-0.00010562,-0.00010058,-4.2157e-05,-0.00015471,7.3416e-06,-0.00011365,-0.00033835,-0.00020039,-7.6129e-05,9.453e-05,-1.3464e-09,-8.8415e-05,8.8698e-05,-4.7996e-05,-9.1049e-05,-0.00019438,3.4797e-05,-7.5177e-06,-3.5731e-05,0.00047044,5.7633e-05,-0.00016571,-0.00015462,-0.00011942,-8.2192e-05,-5.202e-05,-9.6452e-05,9.1423e-05,-0.0001069,-0.00010327,-0.00011324,3.2652e-06,-4.8897e-05,-2.7092e-06,-0.0002575,-8.93e-06,4.2827e-05,-2.0491e-05,5.5614e-05,1.374e-06,-8.9859e-05,-6.0927e-06,-2.9622e-05,0.00034428,-5.1259e-05,-7.9008e-05,5.8311e-06,-1.2627e-05,-0.00015434,-6.5738e-05,5.5819e-05,1.5202e-05,-0.00010311,-5.7072e-05,-0.00055751,-9.0085e-05,-6.4285e-05,-8.7726e-05,-0.00011801,-1.166e-05,-6.4081e-05,-0.00011623,2.4553e-05,-7.1176e-05,-2.3252e-05,-0.00017462,0.000276,-2.3156e-05,3.8437e-06,1.3288e-05,-4.6185e-05,6.0977e-05,-7.97e-05,-0.004194,-0.00010717,-0.00018269
-0.00010397,-0.00010428,-0.00024095,-7.0899,-5.2687e-05,3.1778e-06,2.4635e-05,2.9061e-05,0.00038012,-8.8166e-05,-8.3638e-05,-4.13e-05,-0.00014183,-7.8039e-06,-9.5583e-05,-0.00029895,-0.00018133,-8.2137e-05,8.743e-05,0.00019397,-9.0561e-10,7.1913e-05,-4.4793e-05,-8.4608e-05,-0.00018041,3.019e-05,-9.1821e-06,-3.1422e-05,0.00043477,5.9778e-05,-0.00014155,-0.00014224,-0.00010106,-6.767e-05,-3.4414e-05,-0.0001138,8.5557e-05,-0.00011344,-9.1333e-05,-0.00010666,-1.2022e-06,-6.2579e-05,-2.6429e-05,-0.00023394,-1.6582e-05,4.4544e-05,-1.5898e-05,2.5258e-05,-4.8614e-06,-9.1624e-05,-1.1424e-05,-2.9771e-05,0.00026806,-5.923e-05,-8.2911e-05,-1.2635e-06,-2.3231e-05,-0.00014729,-7.5898e-05,2.823e-05,1.4244e-05,-0.00012166,-5.6607e-05,-0.00050825,-7.385e-05,-5.9064e-05,-8.6118e-05,-0.0001336,-1.2906e-05,-7.7848e-05,-9.5313e-05,3.6109e-06,-5.2776e-05,-2.7787e-05,-0.00015563,0.0002899,-9.5881e-06,-1.4197e-06,8.5486e-06,-4.2063e-05,5.2468e-05,-7.1171e-05,-0.0015876,-0.00012045,-0.00017863
-4.8451e-05,-4.1124e-05,-0.00010894,-7.5832,-2.846e-05,-5.9797e-06,9.8431e-06,7.9058e-06,0.00015987,-5.4011e-05,-4.6008e-05,-2.0194e-05,-7.64e-05,1.7586e-06,-4.6468e-05,-0.00014275,-9.3422e-05,-3.6095e-05,3.9729e-05,9.3389e-05,-3.7526e-05,-1.2432e-09,-2.4218e-05,-4.8497e-05,-9.3796e-05,1.3502e-05,-6.2599e-06,-1.8557e-05,0.00019745,2.0785e-05,-7.9293e-05,-7.0118e-05,-5.8009e-05,-3.519e-05,-2.7108e-05,-4.94e-05,4.0814e-05,-5.2899e-05,-5.0987e-05,-5.4998e-05,-1.8928e-06,-2.5501e-05,-4.998e-06,-0.00012246,-5.8447e-06,1.6191e-05,-1.288e-05,2.2513e-05,-3.8038e-06,-3.8806e-05,-5.7266e-06,-1.8516e-05,0.00011159,-2.4926e-05,-3.6802e-05,-6.2657e-07,-6.0602e-06,-8.4891e-05,-3.5033e-05,1.7257e-05,3.0853e-06,-5.0538e-05,-2.7377e-05,-0.00024248,-3.6579e-05,-3.3019e-05,-4.4083e-05,-5.3458e-05,-6.3166e-06,-3.5967e-05,-4.4962e-05,1.1693e-05,-3.2179e-05,-1.4268e-05,-8.0514e-05,0.0001167,-1.3485e-05,-1.1083e-06,5.5463e-07,-2.2974e-05,1.555e-05,-3.4986e-05,-0.00089142,-4.9763e-05,-8.3434e-05
-0.00026088,-0.0002514,-0.00059817,-7.5567,-0.00013088,5.8915e-06,6.0239e-05,7.5007e-05,0.00086412,-0.00020667,-0.00019796,-9.2029e-05,-0.00032434,-2.4934e-05,-0.00022918,-0.00071918,-0.00046573,-0.00019178,0.00020547,0.00046318,-0.00019399,0.00015491,-1.1075e-09,-0.00020407,-0.00044943,7.0485e-05,-1.0086e-05,-6.7713e-05,0.001006,0.00014214,-0.00034866,-0.00036282,-0.00026291,-0.00017311,-7.4075e-05,-0.00021991,0.00019317,-0.00027447,-0.00023214,-0.00024808,6.2983e-06,-0.00014717,-6.7834e-05,-0.00053313,-4.4997e-05,9.7877e-05,-3.7289e-05,5.7324e-05,-8.9221e-06,-0.00020773,-3.9301e-05,-6.5167e-05,0.00065139,-0.00014048,-0.00020064,-2.6927e-06,-5.4834e-05,-0.00035767,-0.00020106,5.8555e-05,4.2558e-05,-0.00027393,-0.00013199,-0.0011929,-0.00017767,-0.00016013,-0.00020908,-0.00032207,-2.4658e-05,-0.00019074,-0.00023158,2.6142e-06,-0.00013105,-7.9204e-05,-0.00037597,0.00061314,-3.4358e-05,-2.8616e-06,2.9705e-05,-9.4413e-05,0.00012105,-0.00017352,-0.0047874,-0.00029323,-0.00044641
-0.00077633,-0.00070858,-0.001774,-5.9961,-0.0003512,0.00034225,0.00018745,0.00036529,0.0040683,-0.00065102,-0.00054921,-0.00015584,-0.00074038,-6.0482e-05,-0.00075744,-0.0019578,-0.0013664,-0.00055372,0.00065053,0.0015694,-0.00058027,0.00052207,-0.00034077,-4.4101e-09,-0.0013762,0.00031389,6.6102e-07,-7.045e-05,0.003711,0.00060795,-0.00089608,-0.00076145,-0.00073535,-0.0003435,-0.00023296,-0.00064728,0.00071741,-0.00068162,-0.0004896,-0.00059739,0.00018314,-0.0001888,4.5984e-05,-0.0014099,-6.0011e-06,0.00029342,-7.7677e-05,0.00029707,0.00018376,-0.00047684,-5.948e-05,-0.00016696,0.0030867,-0.00038505,-0.00057419,6.7848e-05,-0.00016769,-0.00076079,-0.00067108,0.00016184,0.00026077,-0.00086036,-0.00040221,-0.0030939,-0.00040444,-0.00046832,-0.00059345,-0.00089984,0.00010115,-0.00051067,-0.00075986,8.0561e-05,-0.0004122,-4.349e-06,-0.0010904,0.00306,-2.0492e-05,2.8222e-05,0.00015536,-0.0002658,0.00097198,-0.00050613,-0.0080893,-0.0007634,-0.0011753
-1.8701e-05,-1.6279e-05,-4.117e-05,-7.1552,-9.5797e-06,1.8529e-06,3.6943e-06,6.9331e-06,6.0079e-05,-1.2203e-05,-1.3349e-05,-5.7187e-06,-2.0874e-05,-1.986e-06,-1.601e-05,-5.2465e-05,-3.39e-05,-1.2692e-05,1.2535e-05,3.1212e-05,-1.3221e-05,9.408e-06,-7.9468e-06,-1.4035e-05,-1.5391e-09,4.8806e-06,-9.1996e-08,-3.9457e-06,6.5404e-05,8.4411e-06,-2.5311e-05,-2.4302e-05,-1.7869e-05,-1.1275e-05,-3.8876e-06,-1.3087e-05,1.3394e-05,-1.6913e-05,-1.372e-05,-1.6743e-05,7.496e-07,-9.2503e-06,-5.37e-06,-3.8475e-05,-2.8017e-06,7.3217e-06,-2.5379e-06,2.9258e-06,2.5505e-07,-1.4667e-05,-1.9682e-06,-3.6934e-06,4.457e-05,-1.046e-05,-1.4568e-05,6.7473e-07,-5.2477e-06,-2.0408e-05,-1.2061e-05,2.5741e-06,3.3156e-06,-2.0845e-05,-9.6589e-06,-7.8276e-05,-1.2432e-05,-1.0562e-05,-1.377e-05,-2.167e-05,-1.6064e-06,-1.2755e-05,-1.6158e-05,-4.8427e-07,-8.971e-06,-4.0475e-06,-2.4853e-05,4.7183e-05,-1.3321e-06,2.9197e-07,1.3292e-06,-7.3537e-06,9.9638e-06,-1.1973e-05,-0.00018026,-1.9144e-05,-2.9415e-05
-0.00013353,-0.00012192,-0.00027552,-7.6487,-6.4306e-05,6.3518e-06,2.5117e-05,3.8489e-05,0.00039299,-9.5295e-05,-9.3835e-05,-4.8673e-05,-0.00015438,-1.4423e-05,-0.00010626,-0.00035976,-0.00021665,-9.2148e-05,9.2429e-05,0.00021503,-9.2672e-05,7.5331e-05,-5.3035e-05,-8.5174e-05,-0.00020326,-1.3205e-09,-7.1936e-06,-3.4506e-05,0.0004683,6.3092e-05,-0.00017009,-0.0001732,-0.00012616,-8.1637e-05,-3.3293e-05,-0.00011339,9.3188e-05,-0.00012897,-0.0001047,-0.00011613,-1.2974e-06,-7.8376e-05,-4.1033e-05,-0.00026649,-2.0047e-05,4.5086e-05,-1.855e-05,2.1344e-05,-7.3739e-06,-0.00010053,-2.2824e-05,-3.4446e-05,0.00030759,-7.0856e-05,-9.847e-05,-2.9897e-06,-2.895e-05,-0.00016202,-9.5705e-05,2.2108e-05,1.9695e-05,-0.00014784,-6.3555e-05,-0.00057806,-9.2318e-05,-7.7165e-05,-0.00010363,-0.00015734,-9.8896e-06,-9.457e-05,-0.00010209,1.8988e-06,-6.7683e-05,-3.4869e-05,-0.00018371,0.000272,-1.5853e-05,-3.0573e-06,8.0071e-06,-5.0533e-05,6.2021e-05,-8.2182e-05,-0.002274,-0.00013838,-0.00021443
-0.00021589,-0.00019135,-0.00048267,-7.5254,-0.00010573,1.3454e-05,6.2547e-05,6.411e-05,0.00065163,-0.00014429,-0.00014729,-7.429e-05,-0.00023995,-2.4933e-05,-0.00018457,-0.00058344,-0.00038281,-0.0001424,0.00015248,0.00032929,-0.00016957,0.00010518,-8.6992e-05,-0.00015511,-0.00032733,4.9945e-05,-9.1455e-10,-5.4548e-05,0.00073455,0.00010256,-0.00029388,-0.00028342,-0.0002282,-0.00013879,-4.7523e-05,-0.00015613,0.00014397,-0.00021535,-0.00017583,-0.00019821,1.6866e-07,-0.00011155,-7.0835e-05,-0.00042864,-3.5482e-05,7.9258e-05,-3.4195e-05,3.1175e-05,-7.4177e-06,-0.00017405,-4.0468e-05,-5.1572e-05,0.00043871,-0.00011108,-0.00015558,-3.8636e-06,-5.5847e-05,-0.00025965,-0.00016975,3.1136e-05,3.2084e-05,-0.00024147,-0.00010721,-0.00095308,-0.00015294,-0.00012213,-0.00014208,-0.00025688,-2.2178e-05,-0.00015228,-0.0001612,-2.1663e-06,-0.00010479,-5.6074e-05,-0.0002861,0.00046715,-2.8202e-05,-1.9645e-06,1.5949e-05,-7.963e-05,9.8569e-05,-0.00013469,-0.0038384,-0.00023849,-0.00035548
-6.3198e-05,-5.4405e-05,-0.00013225,-7.0917,-2.8771e-05,1.4369e-05,1.32e-05,2.2142e-05,0.00024775,-4.2987e-05,-3.9284e-05,-8.3591e-06,-6.3216e-05,-6.6029e-06,-4.8778e-05,-0.00015649,-0.0001053,-4.3553e-05,4.8906e-05,0.0001043,-4.5981e-05,3.3119e-05,-2.426e-05,-3.0426e-05,-9.4713e-05,1.6494e-05,-1.464e-06,-4.9528e-09,0.00024547,3.5566e-05,-7.4163e-05,-7.3257e-05,-5.4972e-05,-3.1437e-05,-1.3981e-05,-2.9734e-05,4.7475e-05,-5.594e-05,-4.1035e-05,-5.2218e-05,1.4129e-05,-2.6817e-05,-9.7114e-06,-0.00011365,-6.1847e-06,2.5572e-05,-8.2584e-06,1.3383e-05,5.8026e-06,-4.7071e-05,-6.5509e-06,-1.4095e-05,0.00017487,-3.3184e-05,-4.7258e-05,1.0994e-06,-1.5538e-05,-6.5231e-05,-4.6229e-05,9.2073e-06,1.3914e-05,-7.0821e-05,-2.9861e-05,-0.00023971,-3.3943e-05,-3.5694e-05,-4.5072e-05,-7.2492e-05,-1.9884e-06,-4.0921e-05,-5.4961e-05,9.0114e-07,-2.9423e-05,-6.4208e-06,-8.2153e-05,0.00017644,1.3725e-06,2.4472e-06,6.1092e-06,-2.2371e-05,4.786e-05,-3.7778e-05,-0.0006129,-6.0912e-05,-9.2e-05
-2.8699e-05,-2.7389e-05,-6.4326e-05,-7.2866,-1.3452e-05,1.3647e-06,5.7491e-06,8.3165e-06,9.1929e-05,-2.271e-05,-2.2114e-05,-9.8366e-06,-3.6221e-05,-4.4031e-06,-2.6904e-05,-7.5826e-05,-5.4677e-05,-2.115e-05,2.073e-05,4.5771e-05,-2.068e-05,1.5422e-05,-1.2348e-05,-2.0825e-05,-4.8984e-05,6.9054e-06,-2.7102e-06,-7.2922e-06,-3.6472e-09,1.4974e-05,-3.4727e-05,-3.7562e-05,-2.8032e-05,-1.6794e-05,-8.9149e-06,-2.1806e-05,2.1923e-05,-2.7732e-05,-2.4238e-05,-2.1667e-05,1.791e-06,-1.7113e-05,-9.0007e-06,-5.9379e-05,-1.5272e-06,1.1565e-05,-4.5941e-06,1.1336e-05,-1.7397e-06,-2.2515e-05,-5.7399e-06,-7.7232e-06,6.4959e-05,-1.5922e-05,-2.2277e-05,2.4845e-07,-6.4641e-06,-3.7503e-05,-2.2095e-05,6.8433e-06,4.0252e-06,-3.3406e-05,-1.252e-05,-0.0001278,-1.8132e-05,-1.5665e-05,-2.1965e-05,-3.4685e-05,-2.904e-06,-2.2354e-05,-2.9671e-05,-1.8192e-07,-1.3893e-05,-8.5381e-06,-4.1689e-05,6.9758e-05,-3.6884e-06,2.9128e-07,3.6892e-07,-1.0833e-05,1.222e-05,-1.783e-05,-0.00073886,-3.115e-05,-4.6473e-05
-7.2753e-05,-6.4318e-05,-0.00015295,-7.0835,-3.0552e-05,1.0603e-05,1.5146e-05,2.174e-05,0.00025835,-4.9075e-05,-4.6142e-05,-2.235e-05,-7.1402e-05,-1.1843e-05,-5.9562e-05,-0.00018718,-0.00011999,-5.1425e-05,4.9135e-05,0.00010336,-4.8796e-05,2.9971e-05,-2.7705e-05,-4.2142e-05,-0.00011666,1.5814e-05,-4.2934e-06,-1.6388e-05,0.00025333,-5.2155e-09,-8.2764e-05,-8.6431e-05,-7.1421e-05,-3.8343e-05,-1.6525e-05,-5.1823e-05,4.7561e-05,-6.7627e-05,-4.7552e-05,-6.2703e-05,2.2636e-06,-3.4507e-05,-1.288e-05,-0.00013124,-1.2998e-05,2.4171e-05,-8.0203e-06,9.1897e-06,-5.9712e-07,-4.7664e-05,-1.498e-05,-1.7964e-05,0.00019398,-3.7056e-05,-5.2062e-05,-1.7808e-06,-2.0824e-05,-7.5818e-05,-5.2815e-05,1.2576e-05,1.4394e-05,-8.4405e-05,-3.5096e-05,-0.00027914,-4.3298e-05,-3.8744e-05,-5.1836e-05,-8.6424e-05,-4.6594e-06,-4.9335e-05,-6.0222e-05,-6.2814e-06,-3.2793e-05,-9.4005e-06,-9.2953e-05,0.00015777,-2.0241e-06,-2.8318e-06,3.7898e-06,-2.5098e-05,4.2389e-05,-4.2908e-05,-0.0011509,-8.0483e-05,-0.00011331
-5.7603e-05,-5.5442e-05,-0.00012652,-6.2705,-2.5294e-05,1.6267e-05,1.5576e-05,2.1409e-05,0.0003305,-4.8822e-05,-4.0323e-05,-1.4301e-05,-6.8724e-05,-3.2635e-06,-5.4202e-05,-0.00015906,-9.3751e-05,-4.326e-05,5.893e-05,0.00011436,-3.8483e-05,3.5771e-05,-2.1752e-05,-3.1398e-05,-0.00010026,1.9367e-05,-1.8489e-06,-9.6023e-06,0.00029018,4.1393e-05,-2.5186e-09,-6.5813e-05,-4.1094e-05,-2.7714e-05,-1.815e-05,-5.1547e-05,5.2288e-05,-5.2898e-05,-3.6253e-05,-4.6698e-05,9.0003e-06,-1.9108e-05,4.8696e-06,-0.00012103,-3.2227e-06,2.6558e-05,-7.0547e-06,2.3952e-05,4.9471e-06,-3.5965e-05,-6.2641e-06,-1.8072e-05,0.00027739,-2.9838e-05,-4.2999e-05,4.8187e-06,-7.8674e-06,-6.6924e-05,-4.1171e-05,1.5661e-05,1.3683e-05,-6.1279e-05,-2.7539e-05,-0.00024313,-3.2245e-05,-2.9155e-05,-4.4444e-05,-6.6692e-05,3.2667e-06,-3.5673e-05,-5.4685e-05,4.3545e-06,-3.0631e-05,-3.7018e-07,-8.5025e-05,0.000206,3.2053e-06,2.2195e-06,5.6285e-06,-2.0486e-05,4.6898e-05,-3.5079e-05,-0.00064175,-5.5142e-05,-8.1041e-05
-0.00020186,-0.0001623,-0.00044134,-6.6117,-9.9426e-05,6.2199e-05,6.8848e-05,8.1461e-05,0.0010561,-0.00018774,-0.00015063,-4.3969e-05,-0.00023571,3.5015e-06,-0.00020634,-0.00056108,-0.00037612,-0.00014083,0.00020013,0.00042765,-0.00015576,0.00015915,-9.0541e-05,-6.6521e-05,-0.0003622,6.4957e-05,-3.6973e-06,-3.511e-05,0.00098506,0.00014206,-0.0002492,-4.8652e-09,-0.00021672,-9.8556e-05,-8.4544e-05,-0.00015055,0.00018352,-0.00019781,-0.00015331,-0.00018944,3.6005e-05,-5.5852e-05,2.8913e-05,-0.00040225,-7.7723e-07,8.3545e-05,-3.1542e-05,9.7594e-05,4.7939e-05,-0.00013135,-9.6928e-06,-4.8654e-05,0.00076496,-9.8055e-05,-0.00015026,1.4978e-05,-3.0459e-05,-0.00024107,-0.00014385,8.5713e-05,5.2349e-05,-0.00018988,-0.0001043,-0.00085164,-0.00010964,-0.00010394,-0.0001641,-0.00021457,9.7651e-06,-0.00012897,-0.00018786,3.2005e-05,-0.00011752,-6.6906e-07,-0.00031123,0.00062305,-1.7725e-05,6.8526e-06,2.7735e-05,-8.4842e-05,0.00017243,-0.00014185,-0.0021452,-0.00018337,-0.00031607
-1.1299e-05,-9.8831e-06,-2.3655e-05,-6.679,-5.1143e-06,1.58e-06,2.2535e-06,3.0416e-06,4.1458e-05,-8.7126e-06,-8.1632e-06,-3.1277e-06,-1.3419e-05,-6.5426e-07,-9.494e-06,-2.7532e-05,-1.8263e-05,-7.7246e-06,9.5452e-06,2.0986e-05,-6.7857e-06,6.7693e-06,-4.1752e-06,-7.7351e-06,-1.783e-05,3.4666e-06,-6.6222e-07,-2.1416e-06,4.7045e-05,5.9886e-06,-1.1674e-05,-1.4517e-05,-3.0257e-09,-6.3755e-06,-2.954e-06,-8.7788e-06,9.241e-06,-1.0238e-05,-7.5818e-06,-8.6734e-06,1.0368e-06,-5.1585e-06,-1.7893e-06,-2.3961e-05,-9.495e-07,4.7818e-06,-1.4458e-06,3.5799e-06,1.3849e-07,-8.7393e-06,-9.8738e-07,-2.8651e-06,3.4245e-05,-6.099e-06,-8.5568e-06,4.3296e-07,-2.05e-06,-1.3243e-05,-7.3697e-06,2.273e-06,2.0075e-06,-1.1411e-05,-5.1217e-06,-5.2831e-05,-7.4197e-06,-6.0919e-06,-8.7941e-06,-1.2233e-05,-6.2249e-07,-7.1765e-06,-1.0979e-05,6.7175e-07,-5.7456e-06,-1.9819e-06,-1.5994e-05,3.3933e-05,-1.097e-06,4.219e-07,1.2911e-06,-3.9963e-06,6.4004e-06,-6.7664e-06,-0.00012082,-1.0156e-05,-1.5574e-05
-0.00011588,-0.00010352,-0.00024358,-6.9517,-5.2746e-05,2.4691e-05,2.8513e-05,4.0081e-05,0.00051826,-9.5564e-05,-8.3314e-05,-3.1056e-05,-0.00013734,-8.4558e-06,-0.00010311,-0.00028906,-0.00021082,-8.2623e-05,9.9416e-05,0.00019588,-8.3444e-05,7.2681e-05,-5.1738e-05,-5.8045e-05,-0.00019366,3.1364e-05,-7.7709e-06,-1.9752e-05,0.00048989,7.0135e-05,-0.00013707,-0.00013094,-0.00010971,-5.1114e-09,-3.5443e-05,-9.2389e-05,0.00010174,-0.00010982,-7.7481e-05,-9.7449e-05,1.5393e-05,-4.5576e-05,1.6943e-06,-0.0002212,-1.1599e-05,4.6139e-05,-1.8538e-05,3.8908e-05,6.6355e-06,-7.3636e-05,-1.737e-05,-3.1946e-05,0.0003688,-5.9088e-05,-8.4916e-05,1.9706e-06,-2.4122e-05,-0.00013799,-8.5008e-05,2.4723e-05,2.7014e-05,-0.00012618,-5.2602e-05,-0.00045372,-6.1056e-05,-6.4423e-05,-9.1317e-05,-0.00013811,2.3859e-06,-7.8631e-05,-9.9851e-05,1.9331e-06,-5.7161e-05,-9.8018e-06,-0.00016824,0.00032334,-9.2693e-06,3.0524e-06,8.8024e-06,-4.5106e-05,9.3205e-05,-7.1494e-05,-0.0012418,-0.00011775,-0.0001785
-7.9826e-05,-7.4889e-05,-0.00017863,-7.8568,-3.7357e-05,1.1885e-05,1.661e-05,3.1994e-05,0.00023245,-3.7104e-05,-4.8496e-05,-2.4637e-05,-7.9993e-05,-1.3823e-05,-6.3042e-05,-0.00020835,-0.00013166,-5.2891e-05,5.1692e-05,0.00011467,-5.6891e-05,3.2799e-05,-2.9303e-05,-5.0806e-05,-0.00011332,2.1279e-05,7.7271e-07,-1.6015e-05,0.00026285,4.0578e-05,-0.00010374,-0.00010599,-7.33e-05,-4.5006e-05,-1.3182e-09,-5.9012e-05,5.6284e-05,-7.5826e-05,-5.9599e-05,-6.937e-05,2.0423e-06,-4.8281e-05,-3.9863e-05,-0.00014925,-1.4317e-05,3.2174e-05,-8.0481e-06,4.8237e-06,-8.4731e-07,-6.8359e-05,-1.4967e-05,-1.3148e-05,0.00015662,-4.3277e-05,-6.0828e-05,1.5766e-07,-2.898e-05,-8.1793e-05,-5.7679e-05,7.9286e-06,1.4737e-05,-0.00010069,-3.6517e-05,-0.00031858,-5.0335e-05,-4.5501e-05,-5.4752e-05,-9.9571e-05,-6.2862e-06,-5.9046e-05,-5.7943e-05,-8.3096e-06,-3.4436e-05,-1.9236e-05,-9.6826e-05,0.00017578,-3.5934e-07,9.8897e-07,7.3536e-06,-2.6487e-05,4.5287e-05,-4.7039e-05,-0.0017096,-9.7842e-05,-0.0001268
-0.00027213,-0.00020533,-0.00058178,-7.2997,-0.00013288,8.156e-06,4.3227e-05,8.5912e-05,0.00073474,-0.00018085,-0.00017848,-5.1486e-05,-0.00024772,-2.0792e-05,-0.00020007,-0.00069642,-0.00045169,-0.00017961,0.00016972,0.00039522,-0.0002688,0.00010847,-0.0001206,-0.00018745,-0.0003777,3.8785e-05,-1.2364e-05,-1.3665e-05,0.00091151,0.00011674,-0.00036607,-0.00032815,-0.00027146,-0.00016818,-6.7255e-05,-3.9717e-09,0.00016618,-0.00023059,-0.00018399,-0.0002377,3.9702e-05,-0.0001447,-0.00011277,-0.0004896,-3.8933e-05,8.1544e-05,-3.2541e-05,3.6257e-05,1.3605e-05,-0.0001926,-3.2319e-05,-6.7503e-05,0.00055481,-0.00013798,-0.00019772,5.6093e-06,-6.659e-05,-0.0002586,-0.00017588,8.3394e-05,4.2935e-05,-0.00030653,-0.00012842,-0.001004,-0.00017672,-0.00014966,-0.00017436,-0.00030489,-3.2519e-05,-0.00016684,-0.00025295,7.8677e-06,-0.0001276,-8.1222e-05,-0.00034323,0.00058586,-2.507e-05,1.9993e-07,8.2968e-06,-0.00010792,0.00012095,-0.00016943,-0.0024179,-0.00027124,-0.00039583
-0.00047797,-0.00041418,-0.0010417,-7.4035,-0.0002413,1.0571e-06,8.5712e-05,0.00012164,0.001573,-0.00038519,-0.00037231,-0.0001665,-0.00060767,-4.7556e-05,-0.00043155,-0.0012812,-0.000932,-0.00033143,0.00041429,0.00077762,-0.00035341,0.00029003,-0.00021833,-0.00038508,-0.00079988,0.00012216,-3.8296e-05,-0.00013036,0.001922,0.00024235,-0.00063895,-0.00065559,-0.0004814,-0.00027359,-0.00013965,-0.00039677,-1.3536e-09,-0.00046234,-0.0003326,-0.00044519,1.1147e-05,-0.00026864,-0.00011104,-0.0010681,-5.4778e-05,0.00017119,-9.1872e-05,0.00015078,-2.2782e-05,-0.00038813,-6.2768e-05,-0.00013057,0.00101,-0.00026547,-0.00036716,1.5052e-07,-0.00012516,-0.00061483,-0.00037087,9.9452e-05,7.5651e-05,-0.00054543,-0.00024658,-0.0021264,-0.00031789,-0.00028583,-0.00036573,-0.00059633,-5.5082e-05,-0.00036071,-0.00041111,-5.9327e-06,-0.00025391,-0.00011128,-0.0006756,0.0011491,-4.24e-05,3.0743e-06,2.0394e-05,-0.00017068,0.00025827,-0.0002655,-0.0078587,-0.00048401,-0.00077564
-0.00013533,-9.6708e-05,-0.00030986,-6.5306,-7.6172e-05,2.3526e-05,3.6057e-05,5.1396e-05,0.00067814,-0.00011687,-0.00011588,-3.2291e-05,-0.00016336,1.3632e-05,-0.00014248,-0.00043137,-0.00026519,-8.7975e-05,0.00012492,0.00031613,-0.00012408,0.00011069,-6.8971e-05,-8.0911e-05,-0.0002394,4.4576e-05,-6.9633e-06,-3.0785e-05,0.00066162,8.8267e-05,-0.00019312,-0.00018474,-0.0001442,-8.8439e-05,-5.8742e-05,-0.0001154,0.00013697,-2.6189e-09,-9.3697e-05,-0.00013384,1.9374e-05,-4.6541e-05,1.4537e-05,-0.00030684,2.41e-07,5.5144e-05,-2.3269e-05,7.8845e-05,3.0532e-05,-0.00010674,9.9501e-06,-2.5852e-05,0.00046797,-6.5226e-05,-0.00010355,1.0829e-05,-2.1589e-05,-0.00015032,-7.5294e-05,7.4574e-05,3.1025e-05,-0.00012493,-7.899e-05,-0.00061704,-9.0975e-05,-8.848e-05,-9.5466e-05,-0.0001456,-8.0278e-06,-7.9695e-05,-0.00014787,3.0554e-05,-8.9004e-05,1.478e-05,-0.00021488,0.00047478,-5.2421e-06,6.9517e-06,1.9456e-05,-6.5229e-05,0.00013513,-9.5533e-05,-0.0031967,-0.00011594,-0.00021776
-2.7388e-05,-1.7548e-05,-5.9934e-05,-4.4948,-1.3787e-05,1.2468e-05,6.4661e-06,1.9294e-05,0.00030921,-1.2721e-05,-1.7083e-05,-3.6458e-06,-1.901e-05,1.7969e-06,-3.1153e-05,-8.711e-05,-4.9349e-05,-1.7755e-05,3.1487e-05,5.8534e-05,-2.1348e-05,1.6788e-05,-1.2546e-05,-1.2685e-05,-4.3034e-05,1.04e-05,7.3803e-07,-3.1846e-06,0.00012463,2.2411e-05,-3.527e-05,-3.3694e-05,-2.4574e-05,-1.4328e-05,-3.9248e-06,-2.3005e-05,2.9375e-05,-1.9731e-05,-4.3184e-09,-2.4973e-05,7.0586e-06,-6.1054e-06,2.1857e-06,-6.2861e-05,5.9202e-07,1.4062e-05,-2.0885e-06,8.2416e-06,1.5383e-05,-2.2075e-05,4.3655e-06,-8.0551e-07,7.7751e-05,-1.5494e-05,-2.3603e-05,3.7115e-06,-1.2164e-05,-1.4027e-05,-1.0277e-05,1.53e-05,1.0738e-05,-2.7377e-05,-1.6051e-05,-0.00012537,-1.7517e-05,-1.5938e-05,-1.6755e-05,-2.7953e-05,1.3909e-06,-1.269e-05,-2.695e-05,2.3598e-06,-1.5388e-05,9.7207e-06,-3.5216e-05,0.00015541,1.2578e-05,2.4586e-06,4.8908e-06,-1.1714e-05,5.6211e-05,-1.7306e-05,-0.00041901,-2.1893e-05,-3.8408e-05
-0.0011096,-0.00098531,-0.0024373,-7.0079,-0.00051826,0.00016929,0.0002757,0.00038859,0.0040729,-0.00086944,-0.00080595,-0.00032391,-0.0013059,-0.00011671,-0.0010455,-0.0029901,-0.0020504,-0.00078023,0.00094258,0.0019897,-0.00082132,0.00064005,-0.00044838,-0.00060538,-0.00181,0.00033014,-4.024e-05,-0.0002274,0.0054392,0.00063551,-0.0013184,-0.0013983,-0.00093005,-0.0006085,-0.00032217,-0.00082553,0.00092968,-0.0010233,-0.00074368,-1.3752e-09,0.00010582,-0.00054016,-0.00017643,-0.0022004,1.982e-05,0.00049807,-0.0001629,0.00059255,1.0096e-05,-0.00081693,-0.00014954,-0.00027481,0.0030057,-0.00059805,-0.00085024,2.769e-05,-0.00020077,-0.0012922,-0.00081158,0.00024609,0.00023566,-0.0011846,-0.0004657,-0.0049219,-0.00069011,-0.00057327,-0.00086613,-0.0012992,-2.6234e-05,-0.00076841,-0.0010395,3.3459e-05,-0.00056542,-0.00014736,-0.0015732,0.0031817,-9.2021e-05,8.2166e-05,0.00012018,-0.00041124,0.0008429,-0.00070213,-0.011516,-0.0010977,-0.0015775
-8.4327e-06,-7.2161e-06,-1.8767e-05,-7.065,-3.9462e-06,1.7776e-06,1.9318e-06,2.9847e-06,3.494e-05,-6.2253e-06,-5.7961e-06,-7.0161e-07,-9.3043e-06,-7.5717e-07,-7.2348e-06,-2.1417e-05,-1.4993e-05,-5.5067e-06,6.3929e-06,1.4589e-05,-6.5666e-06,4.7049e-06,-3.4059e-06,-4.5502e-06,-1.3385e-05,2.1548e-06,-3.4987e-07,-2.8246e-07,3.5558e-05,4.867e-06,-1.0361e-05,-9.9185e-06,-7.5515e-06,-4.3027e-06,-2.2341e-06,-5.0681e-06,6.6641e-06,-7.631e-06,-5.5655e-06,-7.1017e-06,-3.4745e-09,-3.5329e-06,-8.8634e-07,-1.6283e-05,-7.5613e-07,3.4214e-06,-1.0766e-06,2.442e-06,9.326e-07,-6.0351e-06,-1.1092e-06,-1.9986e-06,2.3172e-05,-4.6818e-06,-6.6514e-06,2.7153e-07,-1.9706e-06,-9.0452e-06,-6.1128e-06,1.1525e-06,1.9058e-06,-9.387e-06,-3.8388e-06,-3.6001e-05,-5.0894e-06,-4.8184e-06,-6.1484e-06,-9.2589e-06,-1.0102e-07,-5.532e-06,-7.5445e-06,1.3294e-07,-3.8379e-06,-8.0436e-07,-1.1367e-05,2.5738e-05,-1.5821e-07,3.0155e-07,6.0024e-07,-2.991e-06,5.8776e-06,-5.2535e-06,-0.00012942,-8.5446e-06,-1.2742e-05
-3.6297e-05,-2.3745e-05,-8.4769e-05,-6.5371,-1.9528e-05,1.7156e-05,1.3361e-05,1.5211e-05,0.00030382,-3.5621e-05,-2.8595e-05,-5.4773e-06,-4.3502e-05,6.2071e-06,-3.8392e-05,-0.00010945,-7.1346e-05,-2.2463e-05,4.3908e-05,9.686e-05,-3.1996e-05,3.5164e-05,-1.705e-05,-1.2978e-05,-6.6972e-05,1.1984e-05,1.6111e-06,-6.121e-06,0.00018532,2.9532e-05,-4.5534e-05,-4.0192e-05,-3.7357e-05,-1.95e-05,-1.8293e-05,-3.3306e-05,3.8898e-05,-3.2581e-05,-2.3229e-05,-3.7906e-05,8.9559e-06,-4.8012e-09,1.9393e-05,-8.3143e-05,3.0838e-06,1.6729e-05,-6.0184e-06,2.7465e-05,1.57e-05,-1.7105e-05,4.1903e-06,-6.0682e-06,0.00016872,-1.6734e-05,-2.7348e-05,5.2364e-06,-2.8976e-06,-4.0951e-05,-1.9902e-05,2.1168e-05,1.353e-05,-3.3327e-05,-2.0109e-05,-0.00016053,-2.0319e-05,-2.0743e-05,-2.7461e-05,-3.7823e-05,7.5089e-06,-1.8746e-05,-3.9703e-05,1.0972e-05,-2.4757e-05,9.2494e-06,-5.96e-05,0.00016806,3.5651e-07,2.0057e-06,7.6655e-06,-1.7421e-05,4.7542e-05,-2.5406e-05,-0.00056184,-2.7755e-05,-5.7458e-05
-5.9571e-05,-3.8287e-05,-0.00014902,-6.6328,-3.5222e-05,2.6993e-05,3.0977e-05,2.6315e-05,0.018345,-8.9836e-05,-6.6869e-05,-7.6765e-06,-9.5856e-05,2.6179e-05,-7.8031e-05,-0.00020623,-0.00012781,-4.1832e-05,9.4566e-05,0.00022818,-6.4585e-05,8.9392e-05,-3.5902e-05,-3.1556e-05,-0.00014867,2.4487e-05,-4.8268e-06,-1.3917e-05,0.00039885,6.9165e-05,-8.5187e-05,-7.4166e-05,-7.6192e-05,-3.1571e-05,-5.7863e-05,-7.7152e-05,8.4521e-05,-5.8961e-05,-3.8656e-05,-7.4648e-05,2.3213e-05,1.3213e-05,-1.6737e-09,-0.00017245,2.1109e-05,3.4821e-05,-1.384e-05,9.429e-05,3.8148e-05,-2.3203e-05,2.844e-05,-2.2774e-05,0.00068163,-2.2243e-05,-4.4506e-05,1.2545e-05,2.5723e-06,-8.7034e-05,-2.9744e-05,4.8888e-05,2.6379e-05,-4.7444e-05,-3.63e-05,-0.0003023,-3.705e-05,-3.8717e-05,-5.3506e-05,-6.0886e-05,1.4181e-05,-3.118e-05,-8.073e-05,3.4338e-05,-5.544e-05,4.3954e-05,-0.00013185,0.00036383,-2.0809e-06,8.5876e-06,1.0693e-05,-3.528e-05,0.00010451,-5.0661e-05,-0.0016352,-3.9578e-05,-9.8991e-05
-1.9367e-05,-1.6283e-05,-4.1928e-05,-7.0113,-9.3221e-06,4.8169e-06,4.1841e-06,7.7107e-06,8.6954e-05,-1.2301e-05,-1.2639e-05,-4.0512e-06,-1.9216e-05,-8.7022e-07,-2.0553e-05,-5.4183e-05,-3.2662e-05,-1.3229e-05,1.4361e-05,3.489e-05,-1.5696e-05,1.0518e-05,-7.9297e-06,-8.5098e-06,-3.0505e-05,5.0596e-06,-1.2344e-07,-2.9465e-06,7.7855e-05,1.1963e-05,-2.5671e-05,-2.2425e-05,-1.9277e-05,-1.0452e-05,-4.5926e-06,-1.4922e-05,1.4097e-05,-1.6792e-05,-1.279e-05,-1.712e-05,2.8451e-06,-7.3019e-06,-2.5795e-06,-3.3955e-09,-1.8464e-06,7.6844e-06,-2.2634e-06,4.5434e-06,3.6676e-06,-1.4647e-05,-1.7821e-06,-3.5716e-06,4.7896e-05,-9.7194e-06,-1.4523e-05,4.4323e-07,-5.7548e-06,-1.7821e-05,-1.178e-05,4.0661e-06,5.2417e-06,-2.0783e-05,-9.8453e-06,-7.6722e-05,-1.2097e-05,-1.1099e-05,-1.2253e-05,-2.0634e-05,2.1234e-07,-1.1536e-05,-1.7771e-05,8.8225e-07,-9.9727e-06,-8.956e-07,-2.5873e-05,6.2255e-05,5.8825e-07,8.2292e-07,1.8447e-06,-8.1201e-06,1.7932e-05,-1.318e-05,-0.00022828,-1.8171e-05,-3.0434e-05
-8.26e-05,-6.272e-05,-0.00017883,-7.2555,-4.2054e-05,8.1708e-06,2.3765e-05,2.5202e-05,0.00031427,-7.0741e-05,-6.7763e-05,-2.0416e-05,-0.00010451,-1.4896e-06,-8.058e-05,-0.00023695,-0.00015191,-5.5967e-05,6.9354e-05,0.00016223,-6.4e-05,5.9847e-05,-3.7701e-05,-5.7566e-05,-0.00014613,2.4775e-05,-3.2149e-06,-1.9332e-05,0.00040533,4.6118e-05,-0.00011143,-0.00010533,-8.2425e-05,-5.1784e-05,-3.1207e-05,-6.3997e-05,7.4471e-05,-7.7706e-05,-6.3165e-05,-6.5983e-05,7.0999e-06,-3.4886e-05,-8.6599e-07,-0.00018103,-1.6279e-09,3.7723e-05,-1.3081e-05,5.6025e-05,4.0311e-06,-5.7924e-05,-3.1496e-06,-1.749e-05,0.00022871,-4.1511e-05,-6.2497e-05,3.0197e-06,-1.3559e-05,-0.00010419,-5.4781e-05,2.5014e-05,1.8887e-05,-8.2159e-05,-3.9916e-05,-0.00035962,-5.3994e-05,-4.4432e-05,-6.3389e-05,-9.3184e-05,-4.5155e-06,-5.579e-05,-8.4435e-05,8.8949e-06,-5.008e-05,-1.0221e-05,-0.00012554,0.00024648,-1.048e-05,4.7208e-06,5.5899e-06,-3.5333e-05,5.2512e-05,-5.4026e-05,-0.0015923,-7.8877e-05,-0.00012475
-0.00067375,-0.00061192,-0.00149,-7.759,-0.00032473,4.0123e-05,0.00013172,0.00019541,0.0018168,-0.0004501,-0.00048562,-0.00023714,-0.00080604,-0.00011207,-0.00058801,-0.0017321,-0.001187,-0.00047432,0.00040493,0.00097152,-0.00046988,0.000302,-0.00028164,-0.00063343,-0.0010277,0.00013643,-3.5372e-05,-0.00017499,0.0023342,0.00029652,-0.00088314,-0.00092557,-0.00065925,-0.00041173,-0.00013596,-0.00051572,0.00042628,-0.0006877,-0.0005419,-0.00058222,-3.0304e-06,-0.00040995,-0.00024711,-0.001369,-0.00010713,-2.0799e-09,-9.071e-05,8.7041e-05,-3.8748e-05,-0.00055772,-0.0001531,-0.00017297,0.0012328,-0.00037641,-0.00052133,-1.9562e-05,-0.00021652,-0.00082509,-0.00048497,0.00010011,0.00010114,-0.00081539,-0.0002576,-0.0028891,-0.00044205,-0.00037624,-0.00050547,-0.00081368,-7.9196e-05,-0.0005186,-0.0005445,-4.7469e-05,-0.00030303,-0.00020928,-0.00088181,0.0014609,-7.4553e-05,2.9892e-05,5.17e-06,-0.00025126,0.00023614,-0.00040004,-0.0096681,-0.00079726,-0.0010939
-0.00057877,-0.00052631,-0.0013208,-7.7663,-0.00028633,5.9886e-05,0.00010502,0.00016991,0.0016458,-0.00040101,-0.00040379,-0.00019589,-0.0006431,-8.4691e-05,-0.00049367,-0.0015156,-0.00094954,-0.00035775,0.00035584,0.00087443,-0.00041932,0.00026063,-0.00023439,-0.00040278,-0.0009107,0.00013527,-3.9351e-05,-0.00015374,0.0019851,0.00029174,-0.00076759,-0.000772,-0.0005763,-0.00036407,-0.0001348,-0.00043636,0.00036811,-0.00056855,-0.00046349,-0.00053451,2.9349e-06,-0.00033309,-0.00019027,-0.0011417,-0.00010031,0.00020797,-1.0061e-09,5.8087e-05,-1.8134e-05,-0.00045238,-0.00010273,-0.00014177,0.0012639,-0.00032198,-0.00044485,-3.035e-06,-0.00016163,-0.00067862,-0.0004376,0.00010469,0.00010214,-0.00065007,-0.00027641,-0.0024064,-0.00039246,-0.00032571,-0.00043348,-0.00069302,-5.5908e-05,-0.00041705,-0.00052323,-4.4286e-05,-0.00022186,-0.00015877,-0.00069957,0.001271,-3.7907e-05,-8.0588e-06,2.0645e-05,-0.00017884,0.00024169,-0.00035014,-0.010492,-0.00065219,-0.00096758
-2.3275e-05,-1.6993e-05,-5.5219e-05,-7.1883,-1.4135e-05,-3.0045e-06,6.9433e-06,4.6177e-06,9.5908e-05,-3.031e-05,-2.4363e-05,-7.5045e-06,-3.8206e-05,2.2939e-06,-2.7028e-05,-7.2832e-05,-4.9187e-05,-1.633e-05,2.3161e-05,5.7329e-05,-2.1855e-05,2.4193e-05,-1.2814e-05,-2.1767e-05,-4.9418e-05,5.8335e-06,-2.882e-06,-8.9633e-06,0.000136,1.3077e-05,-3.54e-05,-3.3722e-05,-2.7507e-05,-1.7159e-05,-1.6433e-05,-2.4011e-05,2.4671e-05,-2.3637e-05,-2.3948e-05,-1.9525e-05,1.0221e-06,-8.4934e-06,5.2835e-06,-6.4181e-05,5.5133e-06,9.499e-06,-6.955e-06,-1.525e-09,5.9522e-07,-1.7297e-05,2.4011e-07,-7.5101e-06,7.2293e-05,-1.1212e-05,-1.7562e-05,1.6124e-06,-8.4196e-08,-3.8237e-05,-1.5266e-05,1.3126e-05,3.8821e-06,-2.0979e-05,-1.2577e-05,-0.00012132,-1.7198e-05,-1.4733e-05,-2.0371e-05,-2.5001e-05,-2.9584e-06,-1.6352e-05,-2.6912e-05,7.2289e-06,-1.8193e-05,-6.5985e-07,-4.2664e-05,7.1284e-05,-8.108e-06,1.2356e-06,6.7575e-07,-1.2359e-05,1.5182e-05,-1.8109e-05,-0.00045451,-2.0854e-05,-3.7429e-05
-0.00018743,-0.0001381,-0.00044911,-6.6175,-0.00010235,8.8249e-05,5.9789e-05,0.00011551,0.0012274,-0.00013448,-0.00014562,-3.6538e-05,-0.00020114,1.8454e-05,-0.00018842,-0.00063504,-0.00035991,-0.00012932,0.00019198,0.00044138,-0.00016454,0.0001516,-8.515e-05,-9.4048e-05,-0.00033183,7.3541e-05,6.9271e-06,-2.7224e-05,0.00095803,0.00014815,-0.00026599,-0.00023966,-0.00021129,-0.0001149,-5.8852e-05,-0.00015218,0.00019505,-0.00017369,-0.00011097,-0.00019651,4.7892e-05,-4.9688e-05,1.8215e-05,-0.00040462,-8.7891e-07,0.00010389,-1.5548e-05,8.3968e-05,-2.0447e-09,-0.00013875,1.8242e-05,-2.8519e-05,0.00063147,-9.7694e-05,-0.00015345,1.9084e-05,-5.89e-05,-0.00019299,-9.6982e-05,8.0955e-05,7.7315e-05,-0.0001874,-0.00010586,-0.00081457,-0.00012187,-0.00010869,-0.00011453,-0.00021972,2.8363e-05,-0.00010912,-0.00018235,3.5235e-05,-0.00011045,3.7903e-05,-0.00028257,0.0008116,2.9018e-05,1.5926e-05,2.737e-05,-8.5919e-05,0.0002144,-0.00013011,-0.0027188,-0.00017584,-0.00030888
-1.8151e-05,-1.4953e-05,-3.682e-05,-6.7633,-8.1516e-06,5.4395e-06,4.4294e-06,4.622e-06,7.7242e-05,-1.7833e-05,-1.3287e-05,-4.8903e-06,-2.1857e-05,-2.0102e-07,-1.7092e-05,-4.5399e-05,-3.1253e-05,-1.2388e-05,1.498e-05,3.2706e-05,-1.4307e-05,1.2296e-05,-7.6646e-06,-9.6212e-06,-3.1471e-05,4.697e-06,-1.4886e-06,-4.7728e-06,7.2934e-05,1.139e-05,-2.0759e-05,-2.0235e-05,-1.8621e-05,-8.9552e-06,-7.759e-06,-1.3937e-05,1.4058e-05,-1.6135e-05,-1.187e-05,-1.6135e-05,1.6179e-06,-3.5393e-06,4.0707e-06,-3.6159e-05,-8.0046e-07,5.9782e-06,-2.9067e-06,8.1414e-06,2.6801e-06,-2.4732e-09,-1.223e-06,-5.3397e-06,6.3392e-05,-7.7865e-06,-1.1859e-05,4.6776e-07,-2.3201e-06,-2.2811e-05,-1.2773e-05,5.1228e-06,5.0401e-06,-1.7611e-05,-9.2123e-06,-6.7773e-05,-8.3547e-06,-9.6243e-06,-1.4453e-05,-1.8346e-05,2.3866e-06,-1.0755e-05,-1.5078e-05,1.108e-06,-9.1869e-06,-6.1627e-07,-2.7587e-05,5.2684e-05,-2.3173e-06,-6.9058e-07,1.4474e-06,-7.0217e-06,1.3441e-05,-1.1761e-05,-0.00059778,-1.5662e-05,-2.8501e-05
-0.00014294,-0.00010958,-0.00035182,-7.2738,-8.7453e-05,8.5052e-06,3.4326e-05,4.4422e-05,0.00065885,-0.00013414,-0.00013672,-4.6587e-05,-0.00019565,1.7666e-05,-0.00014355,-0.00048453,-0.00027504,-9.7726e-05,0.00012652,0.00032421,-0.00012347,0.00012142,-7.3184e-05,-0.00012613,-0.00026746,4.3047e-05,-1.1489e-05,-4.2082e-05,0.00065755,8.2855e-05,-0.00023477,-0.00021455,-0.00016939,-0.00011039,-7.0996e-05,-0.00013052,0.00014082,-0.00014166,-0.00011089,-0.0001629,7.7921e-06,-6.2797e-05,1.9758e-05,-0.00038443,-3.8801e-06,5.7066e-05,-2.7335e-05,7.586e-05,2.3221e-05,-0.00012267,-1.428e-09,-3.3845e-05,0.00047802,-7.3619e-05,-0.0001131,1.8925e-05,-2.923e-05,-0.0001948,-8.7244e-05,6.735e-05,2.8837e-05,-0.0001369,-8.8291e-05,-0.00070439,-0.00010942,-9.2502e-05,-0.00010874,-0.00015785,-1.429e-05,-8.8045e-05,-0.00016208,3.1903e-05,-9.9326e-05,-2.0863e-06,-0.0002394,0.00046805,-2.2283e-05,5.1641e-06,1.3702e-05,-7.2766e-05,0.00010339,-0.00010652,-0.0027987,-0.00012521,-0.00024139
-0.00014651,-0.00012316,-0.00035934,-7.2735,-8.316e-05,1.1813e-05,3.3493e-05,6.2319e-05,0.00052622,-9.4297e-05,-0.00011389,-4.8096e-05,-0.00017031,-1.1739e-05,-0.00014209,-0.00044125,-0.00028409,-9.8183e-05,0.00010005,0.00026186,-0.00012228,7.8618e-05,-6.3795e-05,-0.00011172,-0.00023984,3.9751e-05,-3.5952e-06,-4.0241e-05,0.0005847,8.1522e-05,-0.0002368,-0.0002115,-0.00016674,-0.00010237,-3.1403e-05,-0.00013063,0.0001158,-0.00014465,-0.00011764,-0.00015057,4.4362e-06,-7.6803e-05,-4.9912e-05,-0.00033027,-1.5446e-05,6.0835e-05,-1.9712e-05,3.3294e-05,4.7356e-06,-0.00013211,-1.5476e-05,-7.8658e-10,0.00032825,-8.9566e-05,-0.00012786,4.2384e-06,-4.4856e-05,-0.00016904,-0.00010167,4.0778e-05,2.8288e-05,-0.00016039,-8.1081e-05,-0.0006995,-0.00011229,-9.4844e-05,-0.0001094,-0.00018043,-1.9204e-05,-0.00010172,-0.00014685,-4.7311e-06,-7.9167e-05,-2.3662e-05,-0.00020243,0.00038205,-9.5327e-06,7.2581e-07,1.996e-05,-5.7862e-05,8.709e-05,-0.00010025,-0.0023141,-0.00015778,-0.00026203
-2.9597e-05,-3.1154e-05,-6.3661e-05,-6.5584,-1.2342e-05,9.1012e-06,9.125e-06,7.8953e-06,0.00030574,-3.4659e-05,-2.3838e-05,-8.6329e-06,-4.0773e-05,-1.5784e-06,-2.5397e-05,-8.2329e-05,-4.6907e-05,-2.1662e-05,2.9721e-05,5.9205e-05,-2.2225e-05,1.9726e-05,-1.2966e-05,-1.4239e-05,-5.9205e-05,9.2386e-06,-4.7531e-06,-5.103e-06,0.00015389,2.4909e-05,-2.5111e-05,-3.3427e-05,-2.5388e-05,-1.2602e-05,-1.483e-05,-2.562e-05,2.5431e-05,-2.6813e-05,-2.4559e-05,-2.6031e-05,4.9329e-06,-9.5416e-06,2.0976e-05,-6.1113e-05,-4.5052e-06,1.09e-05,-4.4943e-06,1.172e-05,1.8547e-06,-1.6364e-05,-2.8032e-06,-1.2152e-05,-4.8213e-09,-1.3837e-05,-2.0517e-05,7.2207e-07,-1.9261e-06,-4.733e-05,-2.3763e-05,9.5735e-06,6.3417e-06,-3.2704e-05,-1.2153e-05,-0.00012104,-1.4899e-05,-1.4731e-05,-2.3611e-05,-3.3469e-05,2.1319e-06,-2.1135e-05,-2.8253e-05,1.9425e-06,-1.6367e-05,4.292e-06,-5.3683e-05,7.721e-05,-4.1358e-06,1.2889e-07,2.045e-06,-1.165e-05,1.8209e-05,-1.9932e-05,-0.00042043,-2.8996e-05,-4.4296e-05
-0.00017207,-0.00014403,-0.00037214,-6.803,-8.8562e-05,-8.697e-06,4.5071e-05,3.6233e-05,0.00062844,-0.00017627,-0.00014143,-6.4812e-05,-0.00023377,3.0831e-06,-0.00016263,-0.00049653,-0.00030995,-0.00012344,0.00014493,0.00033829,-0.00014626,0.00012806,-8.1888e-05,-0.00013165,-0.00032456,3.9574e-05,-1.1238e-05,-5.6289e-05,0.00069846,9.1477e-05,-0.00025004,-0.00023337,-0.00020197,-0.00011659,-8.2418e-05,-0.00015191,0.00013613,-0.00017005,-0.00016208,-0.00017835,-1.3292e-06,-8.0753e-05,-1.1552e-06,-0.00037198,-1.8732e-05,5.7829e-05,-3.8381e-05,7.7694e-05,-1.2918e-06,-0.00012448,-1.1681e-05,-5.8797e-05,0.00049712,-1.484e-09,-9.3889e-05,-5.1213e-07,-2.2431e-05,-0.00025945,-0.00012848,8.3579e-05,2.3612e-05,-0.00016642,-9.589e-05,-0.0008076,-0.00012699,-0.00010419,-0.00013203,-0.00019581,-1.5805e-05,-0.00011735,-0.0001626,2.3018e-05,-0.00010511,-3.2056e-05,-0.00028012,0.00040762,-4.2899e-05,-3.9725e-06,1.1885e-05,-7.7139e-05,8.3925e-05,-0.00012059,-0.002526,-0.00017239,-0.00028716
-0.00020475,-0.00017119,-0.00044473,-6.7615,-0.00010363,-1.0785e-05,5.5967e-05,4.2686e-05,0.0007672,-0.00021934,-0.0001677,-7.6702e-05,-0.00029125,9.6872e-06,-0.00019009,-0.00059406,-0.00036478,-0.00014717,0.00018007,0.00041882,-0.00017033,0.00016434,-9.741e-05,-0.000149,-0.00039085,5.2753e-05,-9.5924e-06,-6.5247e-05,0.00086354,0.00011398,-0.00029268,-0.00027694,-0.00023612,-0.00013715,-0.00010344,-0.00018291,0.00017368,-0.00020451,-0.00020354,-0.0002105,3.3478e-07,-9.4644e-05,4.5741e-06,-0.00044287,-2.1686e-05,6.9711e-05,-4.5255e-05,0.00010391,9.4161e-07,-0.00014872,-8.5509e-06,-7.2312e-05,0.00062359,-5.9878e-05,-1.5088e-09,5.2587e-07,-1.8957e-05,-0.00032988,-0.00015646,0.00010281,2.8784e-05,-0.00019332,-0.0001148,-0.00095386,-0.00014673,-0.00012039,-0.00015866,-0.00023721,-1.7668e-05,-0.00013886,-0.00018701,3.6218e-05,-0.00012678,-3.3501e-05,-0.00034354,0.00048276,-5.358e-05,-2.0678e-06,1.8324e-05,-9.3691e-05,9.7493e-05,-0.00014293,-0.0049386,-0.00020208,-0.00034127
-0.0002706,-0.00024698,-0.00059638,-7.4353,-0.00014319,2.0881e-05,6.1334e-05,8.7105e-05,0.00086911,-0.00020778,-0.00021004,-9.9035e-05,-0.00032496,-1.7304e-05,-0.00024367,-0.00075425,-0.000485,-0.00017408,0.00018258,0.00044945,-0.00021531,0.00014989,-0.00012199,-0.00019846,-0.00043391,5.8546e-05,-1.9974e-05,-7.6538e-05,0.0010264,0.00012758,-0.00036486,-0.00036432,-0.00028147,-0.00017447,-8.1547e-05,-0.00020807,0.00019527,-0.00026632,-0.00021256,-0.00026002,5.0554e-06,-0.00014128,-5.9085e-05,-0.00059123,-4.3825e-05,9.5712e-05,-4.1257e-05,6.6614e-05,-1.5385e-05,-0.00021166,-2.3367e-05,-6.9655e-05,0.00074036,-0.00014807,-0.0002091,-9.4059e-10,-6.575e-05,-0.00034019,-0.00019334,7.0587e-05,4.3746e-05,-0.00030096,-0.00013879,-0.0012198,-0.00019539,-0.00016535,-0.0002045,-0.00030349,-2.8675e-05,-0.00018691,-0.00025956,3.5201e-06,-0.00013634,-8.3953e-05,-0.00037213,0.0006741,-4.3001e-05,-2.4604e-06,7.2729e-06,-9.8888e-05,0.00013274,-0.00017257,-0.0037586,-0.00026667,-0.00044409
-6.9225e-05,-6.0974e-05,-0.00015336,-7.1188,-3.94e-05,-9.4059e-06,1.6861e-05,1.0105e-05,0.000231,-7.896e-05,-6.7223e-05,-2.888e-05,-0.00010517,3.4443e-06,-7.5544e-05,-0.0002104,-0.00012538,-5.1398e-05,5.6632e-05,0.00013765,-5.8108e-05,5.5009e-05,-3.2852e-05,-6.0717e-05,-0.00013434,1.8259e-05,-7.0175e-06,-2.4178e-05,0.00029647,3.3574e-05,-9.9348e-05,-9.9061e-05,-7.8388e-05,-4.9979e-05,-4.042e-05,-5.6589e-05,5.4012e-05,-7.2304e-05,-7.644e-05,-7.0161e-05,-1.9395e-06,-3.4192e-05,-4.7366e-06,-0.00015987,-7.856e-06,2.088e-05,-1.6271e-05,3.5505e-05,-8.8747e-06,-5.4128e-05,-1.044e-05,-2.3536e-05,0.00020297,-3.5583e-05,-5.2556e-05,-4.2359e-07,-1.5312e-09,-0.00011801,-5.6601e-05,3.3696e-05,5.8923e-06,-6.8687e-05,-3.993e-05,-0.00034461,-5.2061e-05,-4.3932e-05,-5.9843e-05,-7.9713e-05,-1.0246e-05,-5.1933e-05,-7.1621e-05,9.5393e-06,-4.3728e-05,-1.8765e-05,-0.00012089,0.00015989,-2.6253e-05,-1.5409e-06,5.1166e-06,-3.2575e-05,2.8805e-05,-4.9654e-05,-0.001233,-6.8813e-05,-0.00011719
-0.00011972,-7.738e-05,-0.00026251,-5.3155,-6.1761e-05,3.8916e-05,2.6821e-05,7.4706e-05,0.00075555,-5.2717e-05,-7.0365e-05,-1.9641e-05,-6.9046e-05,1.4348e-06,-0.00012977,-0.00037926,-0.0002022,-7.3936e-05,0.00010628,0.00022499,-0.00010345,6.1376e-05,-5.5406e-05,-4.8504e-05,-0.00017477,3.9576e-05,2.725e-06,-1.799e-05,0.00046739,8.3152e-05,-0.0001608,-0.00014408,-0.00012181,-6.8693e-05,-1.5449e-05,-8.4706e-05,0.00010141,-8.5694e-05,-4.7788e-05,-0.00011014,2.0839e-05,-3.8755e-05,-1.71e-05,-0.00022337,-5.5131e-06,5.0064e-05,-8.9479e-06,2.9019e-05,4.5666e-05,-0.00010901,3.6511e-06,-5.38e-06,0.0003076,-6.5499e-05,-9.9759e-05,9.5841e-06,-4.9738e-05,-2.3194e-09,-4.2721e-05,5.6816e-05,3.488e-05,-0.00011987,-6.9891e-05,-0.00047864,-8.337e-05,-6.9188e-05,-6.4329e-05,-0.00012232,-6.1375e-06,-6.2384e-05,-0.0001133,7.0786e-06,-6.9391e-05,2.5991e-05,-0.00014823,0.00040802,3.4598e-05,7.3241e-06,1.6106e-05,-5.2145e-05,0.00017429,-7.6671e-05,-0.0016492,-0.00010206,-0.00017427
-4.117e-05,-2.6644e-05,-9.9595e-05,-7.3389,-2.5598e-05,4.9922e-06,1.0138e-05,2.1558e-05,0.0002049,-3.1017e-05,-3.886e-05,-1.1823e-05,-5.2204e-05,6.5325e-06,-4.4811e-05,-0.00014401,-7.9027e-05,-2.7689e-05,3.7886e-05,0.00010486,-3.3898e-05,3.7268e-05,-2.0347e-05,-4.7581e-05,-7.1074e-05,1.4805e-05,-2.9921e-06,-1.3629e-05,0.00019434,2.6615e-05,-6.4918e-05,-6.0824e-05,-4.5719e-05,-2.9312e-05,-1.7008e-05,-4.1695e-05,3.9432e-05,-3.7824e-05,-3.3961e-05,-4.5415e-05,3.5298e-06,-1.5299e-05,2.3355e-06,-0.00010489,2.7711e-07,2.0818e-05,-6.8852e-06,2.393e-05,1.189e-05,-3.9039e-05,4.6405e-06,-7.0002e-06,0.0001375,-2.2182e-05,-3.4617e-05,5.3726e-06,-1.0633e-05,-4.5454e-05,-3.4008e-09,2.433e-05,9.834e-06,-3.6267e-05,-2.4518e-05,-0.00020903,-3.2049e-05,-2.7605e-05,-2.6195e-05,-4.522e-05,-3.4748e-06,-2.3322e-05,-4.6508e-05,1.0775e-05,-3.0384e-05,3.4295e-06,-6.3177e-05,0.00014479,-1.3528e-06,2.1395e-06,4.2613e-06,-2.1055e-05,2.8777e-05,-3.0531e-05,-0.00047141,-3.6028e-05,-6.8939e-05
-0.0002475,-0.00022288,-0.00052031,-7.3227,-0.00014074,-8.5334e-05,4.2192e-05,2.0365e-05,0.0007256,-0.00027747,-0.00022634,-0.00012202,-0.00031678,6.3072e-06,-0.0002812,-0.00082879,-0.00047138,-0.00017658,0.00019565,0.00043898,-0.0002366,0.0001594,-0.00013602,-0.00024744,-0.0004779,3.7362e-05,-4.6106e-05,-0.00010618,0.00089753,0.00010187,-0.00039454,-0.00035668,-0.00032242,-0.0001938,-0.00015062,-0.00020962,0.00014758,-0.00023702,-0.00021641,-0.0002627,-3.4737e-05,-0.00013475,-5.2534e-05,-0.00066096,-5.885e-05,5.4012e-05,-6.8557e-05,9.9416e-05,-3.8082e-05,-0.00022658,-3.5063e-05,-8.5326e-05,0.00053619,-0.00011355,-0.00017525,-4.8883e-06,-3.7684e-05,-0.00033219,-0.0001664,4.1045e-10,-1.3514e-05,-0.00021718,-0.00014129,-0.0014616,-0.00019781,-0.00016572,-0.00020229,-0.00026412,-7.6054e-05,-0.00016678,-0.00028246,4.059e-05,-0.0001749,-5.673e-05,-0.00041343,0.00042534,-7.5269e-05,-1.9691e-05,1.3828e-05,-0.00012367,0.00010809,-0.00017842,-0.0054152,-0.00025162,-0.00042003
-0.00060499,-0.00052417,-0.0012657,-7.5035,-0.00027346,0.0001204,0.0001285,0.00017689,0.0018063,-0.00038615,-0.00039432,-0.00018785,-0.00060588,-9.6772e-05,-0.0004556,-0.0015984,-0.00095786,-0.00039573,0.00034934,0.00080551,-0.00046336,0.00023652,-0.00024229,-0.00036745,-0.00089326,0.00012863,-3.6059e-05,-0.00013555,0.0018914,0.00029803,-0.00076538,-0.00075156,-0.00059009,-0.00032911,-0.00012839,-0.00043615,0.00037079,-0.00055149,-0.00038026,-0.00048885,1.2669e-05,-0.00029322,-0.00014843,-0.0010858,-0.00010627,0.00019905,-7.2906e-05,7.5628e-05,2.2254e-05,-0.00038047,-0.00011316,-0.00014707,0.0014079,-0.00032062,-0.00044298,-6.9733e-07,-0.00019582,-0.0006329,-0.00042378,1.1993e-06,8.8679e-10,-0.0006878,-0.00028531,-0.0022513,-0.00036199,-0.0003267,-0.00045816,-0.00070101,-6.8637e-06,-0.00041241,-0.00048907,-7.8639e-05,-0.00027004,-0.00015265,-0.00076191,0.0013567,-3.6238e-05,-2.5611e-05,-6.1977e-06,-0.00021214,0.00032973,-0.00035867,-0.0092974,-0.00065228,-0.00097333
-0.00038842,-0.00032307,-0.00096013,-7.1441,-0.00023141,-2.0286e-05,0.00012406,0.0001251,0.0018685,-0.00044308,-0.0003996,-0.00013994,-0.00059933,5.4301e-05,-0.00044567,-0.0013339,-0.00082829,-0.00026956,0.00041674,0.0010264,-0.00034641,0.00038801,-0.0001712,-0.00034981,-0.00080875,0.00013326,-1.5301e-05,-0.00013215,0.0020211,0.00024622,-0.00061524,-0.00055259,-0.00045657,-0.00028915,-0.00023213,-0.00042602,0.00039927,-0.00040812,-0.00038507,-0.00043116,1.7256e-05,-0.0001682,6.5433e-05,-0.0010337,2.723e-06,0.00016894,-7.3877e-05,0.00028347,4.9933e-05,-0.00032484,2.6191e-05,-9.5132e-05,0.0013706,-0.00018926,-0.00029886,2.812e-05,-1.9752e-05,-0.00062689,-0.00025287,0.00025055,6.9118e-05,-7.7683e-10,-0.00023415,-0.0020744,-0.00029411,-0.0002627,-0.0003152,-0.00046606,-3.3542e-05,-0.00025383,-0.00044417,0.00011368,-0.0002684,-2.7141e-05,-0.00071256,0.0012763,-9.7683e-05,2.0377e-05,6.8328e-05,-0.00019396,0.00026772,-0.00030808,-0.006214,-0.00035859,-0.00071292
-1.6133e-05,-1.4689e-05,-3.6112e-05,-7.4112,-8.1412e-06,3.4141e-07,3.4747e-06,3.7726e-06,4.9618e-05,-1.3301e-05,-1.2751e-05,-6.0267e-06,-2.1468e-05,-2.2509e-06,-1.4051e-05,-4.3573e-05,-2.9087e-05,-1.1252e-05,1.0984e-05,2.6485e-05,-1.2982e-05,8.5521e-06,-7.0092e-06,-1.3426e-05,-2.7881e-05,3.5754e-06,-1.3058e-06,-4.6621e-06,6.3116e-05,7.3619e-06,-2.206e-05,-2.2195e-05,-1.6608e-05,-9.7024e-06,-4.7965e-06,-1.2397e-05,1.1016e-05,-1.6818e-05,-1.511e-05,-1.4044e-05,1.5717e-07,-9.2512e-06,-4.1303e-06,-3.3446e-05,-2.4966e-06,7.4001e-06,-2.5409e-06,3.8962e-06,-1.5718e-06,-1.3205e-05,-3.445e-06,-4.8805e-06,4.0211e-05,-9.0823e-06,-1.2681e-05,-4.1092e-07,-4.2296e-06,-2.3376e-05,-1.3143e-05,3.8978e-06,2.2234e-06,-1.8706e-05,-7.8272e-10,-7.4138e-05,-1.1183e-05,-9.1766e-06,-1.3373e-05,-1.9237e-05,-1.7766e-06,-1.2267e-05,-1.4103e-05,-4.038e-07,-8.0222e-06,-5.1805e-06,-2.2978e-05,3.4259e-05,-2.9292e-06,7.7886e-07,4.5214e-07,-5.9961e-06,6.1309e-06,-1.0219e-05,-0.00022155,-1.8517e-05,-2.7447e-05
-0.0017944,-0.0012819,-0.0044406,-6.7448,-0.0010593,0.00051719,0.00047769,0.0008481,0.009818,-0.0015136,-0.0015378,-0.00042056,-0.0021647,0.00013532,-0.001913,-0.0057551,-0.0036926,-0.0012816,0.0018532,0.0039461,-0.0017647,0.001545,-0.00093789,-0.0010045,-0.0033492,0.00057359,-9.0488e-05,-0.0003653,0.0087748,0.0012746,-0.0027745,-0.002379,-0.0022929,-0.0011182,-0.00071989,-0.001647,0.0018015,-0.0017112,-0.0013731,-0.0019934,0.00026713,-0.00055608,0.00024131,-0.0040572,-1.6059e-05,0.00081187,-0.00028776,0.00095803,0.000605,-0.001382,0.00014416,-0.00035233,0.0065118,-0.00099231,-0.0015242,0.00014865,-0.00041719,-0.0020678,-0.001016,0.00078888,0.0005506,-0.0017918,-0.0011177,-1.7774e-09,-0.00046407,-0.0011386,-0.0013849,-0.0019944,1.1557e-05,-0.0011733,-0.0018283,0.00040851,-0.0012777,0.00021158,-0.0028373,0.0067286,0.00012552,7.1601e-05,0.00018876,-0.0009146,0.0017517,-0.0013466,-0.029218,-0.0016419,-0.0030911
-0.00010898,-9.4602e-05,-0.00023555,-6.7319,-5.0083e-05,2.3782e-05,2.599e-05,3.6308e-05,0.00043778,-9.5412e-05,-7.9979e-05,-3.3227e-05,-0.00013301,-8.5589e-06,-9.5049e-05,-0.00028295,-0.0002107,-8.1497e-05,9.5344e-05,0.00018199,-8.1499e-05,7.0887e-05,-4.5638e-05,-6.3607e-05,-0.00018565,2.5485e-05,-8.4553e-06,-1.8931e-05,0.0004677,6.4321e-05,-0.00013577,-0.00012608,-0.00011554,-5.3609e-05,-3.6047e-05,-8.8405e-05,9.2359e-05,-0.00010068,-8.4173e-05,-9.9179e-05,9.0841e-06,-4.3151e-05,-2.7079e-07,-0.00022091,-1.0631e-05,4.4612e-05,-1.7967e-05,3.7202e-05,6.485e-06,-6.2736e-05,-9.934e-06,-3.0533e-05,0.00034794,-5.8542e-05,-8.2953e-05,-4.9312e-07,-2.1157e-05,-0.00014077,-8.0577e-05,3.1262e-05,2.5161e-05,-0.00011361,-5.4367e-05,-0.00030011,-1.8028e-09,-6.0898e-05,-9.8313e-05,-0.00012479,-1.8341e-06,-7.5943e-05,-9.5725e-05,7.0599e-06,-6.1533e-05,-1.9655e-05,-0.00016374,0.0003118,-7.0477e-06,2.0154e-06,5.6988e-06,-4.5163e-05,7.1848e-05,-6.8091e-05,-0.0025577,-0.0001092,-0.0001742
-0.0037889,-0.0034954,-0.0085163,-6.9743,-0.0019211,0.00033546,0.00096919,0.0010277,0.014504,-0.0033774,-0.002967,-0.0013959,-0.0049941,-0.00028642,-0.0034212,-0.011349,-0.0069892,-0.0028616,0.0029419,0.0070804,-0.0027292,0.0022772,-0.001767,-0.0030627,-0.0065224,0.00091972,-0.00018448,-0.0011093,0.015872,0.0021208,-0.0049711,-0.0048122,-0.003958,-0.002357,-0.0014298,-0.0030443,0.0029775,-0.0040377,-0.0034224,-0.0033981,5.7398e-05,-0.0019063,-0.00053799,-0.0081493,-0.00034963,0.0015182,-0.0005954,0.0012395,-2.3649e-05,-0.0028759,-0.00046618,-0.0011572,0.011212,-0.0019786,-0.0027917,-3.7154e-05,-0.00077688,-0.0053943,-0.0030868,0.0011785,0.00077768,-0.0042248,-0.0018588,-0.016456,-0.0025359,-1.4211e-09,-0.0032351,-0.0045011,-0.0003814,-0.0027278,-0.0035626,0.00012274,-0.0020813,-0.00077311,-0.0059275,0.0078234,-0.00059185,9.7175e-06,0.00033644,-0.0015796,0.0016872,-0.0025406,-0.047524,-0.0039266,-0.0063667
-0.00022332,-0.00019023,-0.00053132,-7.4486,-0.00012131,9.7373e-06,6.9125e-05,7.4226e-05,0.00078351,-0.00017495,-0.00018887,-7.3461e-05,-0.00027323,-2.2419e-06,-0.00022656,-0.00068878,-0.00042127,-0.00015262,0.00017207,0.00040704,-0.00018894,0.00014129,-0.00010533,-0.00016798,-0.00038678,5.6585e-05,3.0276e-06,-6.2808e-05,0.00091297,0.00012386,-0.00033264,-0.00032396,-0.00025984,-0.00015361,-7.5607e-05,-0.00018775,0.00018287,-0.00021744,-0.00021051,-0.00022945,7.7109e-06,-0.00011831,-4.728e-05,-0.0004582,-2.7601e-05,8.7903e-05,-3.7343e-05,7.4671e-05,2.5028e-05,-0.00019861,-1.488e-05,-5.3596e-05,0.00054807,-0.00011174,-0.00016793,7.601e-06,-5.1178e-05,-0.00028405,-0.00014475,7.5766e-05,3.3043e-05,-0.00022746,-0.00012422,-0.0010592,-0.00018372,-0.00014331,-7.8838e-10,-0.00026637,-2.0972e-05,-0.00015132,-0.00019652,2.0494e-05,-0.00012897,-1.1094e-05,-0.000324,0.00055738,-3.2055e-05,5.2345e-06,1.4527e-05,-9.7776e-05,0.00012862,-0.00015389,-0.010275,-0.0002252,-0.00037786
-6.8901e-05,-5.4431e-05,-0.00016249,-7.9668,-4.2667e-05,-6.2704e-06,1.5332e-05,1.553e-05,0.00026896,-7.5074e-05,-6.5514e-05,-2.4064e-05,-9.65e-05,2.4532e-06,-7.9603e-05,-0.00021595,-0.00013466,-4.5295e-05,5.6741e-05,0.00014369,-6.5356e-05,5.6606e-05,-3.7459e-05,-5.8102e-05,-0.00013539,1.5775e-05,-7.9666e-06,-2.4367e-05,0.00029011,3.4555e-05,-0.0001077,-9.6209e-05,-7.8466e-05,-5.2137e-05,-3.6966e-05,-7.0435e-05,5.35e-05,-7.16e-05,-6.4658e-05,-7.6505e-05,1.4304e-06,-3.23e-05,1.7617e-06,-0.0001693,-7.9428e-06,2.3466e-05,-1.6664e-05,3.5346e-05,5.9897e-07,-5.6533e-05,-2.2302e-06,-2.2754e-05,0.00019181,-3.8442e-05,-5.737e-05,1.7439e-06,-1.174e-05,-9.8782e-05,-4.9723e-05,3.3814e-05,9.5216e-06,-7.1529e-05,-4.0841e-05,-0.00035126,-5.2728e-05,-4.5722e-05,-6.0374e-05,-8.291e-10,-1.0818e-05,-4.6854e-05,-7.3767e-05,1.2059e-05,-4.6837e-05,-7.9796e-06,-0.00011297,0.00018511,-1.6715e-05,-9.2263e-07,4.3846e-06,-3.5017e-05,4.0656e-05,-5.2586e-05,-0.0018496,-6.2858e-05,-0.0001163
-0.0014185,-0.0012083,-0.0029614,-6.9435,-0.00064153,0.00047046,0.00037037,0.00055447,0.0057347,-0.0010177,-0.00094716,-0.00042396,-0.0015636,-0.00011691,-0.0011841,-0.0036042,-0.0023975,-0.00095434,0.0011186,0.002385,-0.0010293,0.00080669,-0.00055061,-0.00071442,-0.0022224,0.00041571,-3.983e-05,-0.00027922,0.0054499,0.00081893,-0.0016243,-0.0016426,-0.0013392,-0.00070135,-0.00034525,-0.0011015,0.00105,-0.0013225,-0.0009082,-0.0011685,0.00012797,-0.00047962,-0.00010622,-0.0025118,-0.00015671,0.00056018,-0.0001576,0.00030522,0.00020866,-0.00076333,-0.00018622,-0.00036201,0.0042705,-0.00068782,-0.0010026,4.0954e-05,-0.00033833,-0.0016242,-0.0010173,0.00010414,0.00038662,-0.0015477,-0.00064374,-0.0053476,-0.00079761,-0.00078062,-0.0010183,-0.0016293,-2.1215e-09,-0.00094119,-0.001107,-3.4654e-05,-0.00064774,-0.00020358,-0.0019051,0.0039779,-3.2861e-05,1.588e-05,6.9722e-05,-0.00049747,0.00097762,-0.00086238,-0.015665,-0.0014041,-0.0022822
-0.0001888,-0.0001477,-0.00043063,-7.2079,-9.9017e-05,8.7784e-06,4.8311e-05,7.0387e-05,0.00075253,-0.00017356,-0.00015043,-5.7073e-05,-0.00023344,1.3373e-05,-0.00018368,-0.00058115,-0.00033971,-0.00012932,0.00016603,0.00041642,-0.00014897,0.00014337,-8.4431e-05,-0.00012982,-0.00033643,5.516e-05,-7.7117e-06,-4.5916e-05,0.00078102,0.00011244,-0.00025191,-0.00024162,-0.00019116,-0.00011881,-8.3499e-05,-0.00015184,0.00015809,-0.00017408,-0.00014168,-0.00018659,1.5806e-05,-7.2903e-05,4.7532e-06,-0.00040112,-1.3589e-05,6.8622e-05,-3.2912e-05,8.2267e-05,2.2504e-05,-0.00013796,4.3369e-06,-4.3278e-05,0.0006052,-9.0343e-05,-0.00013651,1.0653e-05,-3.1658e-05,-0.00023654,-0.00011675,8.0127e-05,3.6e-05,-0.00017608,-0.00010261,-0.00088029,-0.00013185,-0.000112,-0.00014105,-0.00020173,-1.303e-05,-1.07e-09,-0.00018584,3.2438e-05,-0.00011703,-1.7295e-05,-0.00029176,0.00053875,-2.2341e-05,2.8266e-06,2.2693e-05,-8.3854e-05,0.00015596,-0.00013638,-0.0053859,-0.00016629,-0.0003004
-0.00021294,-0.00019825,-0.00043378,-7.8505,-0.00010175,3.9996e-06,5.1956e-05,4.3534e-05,0.00058035,-0.00015636,-0.00015527,-8.4666e-05,-0.0002521,-2.8436e-05,-0.00018253,-0.00055274,-0.00032869,-0.00014427,0.00011922,0.00027248,-0.00015304,0.00010742,-8.6154e-05,-0.00016618,-0.00032292,4.9005e-05,-2.354e-06,-6.2631e-05,0.00061019,8.7946e-05,-0.00028216,-0.00026742,-0.00023658,-0.00012494,-4.9275e-05,-0.0001898,0.00013296,-0.00021328,-0.00017465,-0.00019707,-1.1219e-05,-0.0001227,-6.7405e-05,-0.00039898,-4.998e-05,6.7582e-05,-4.1796e-05,2.0051e-05,-1.8697e-05,-0.00014674,-4.8021e-05,-6.4706e-05,0.000416,-0.00010446,-0.00014455,-1.4169e-05,-5.4369e-05,-0.00027831,-0.00016797,1.9317e-05,2.2328e-05,-0.00023741,-9.7431e-05,-0.00082561,-0.00013428,-0.00012009,-0.00014209,-0.00024115,-1.8873e-05,-0.00015334,-1.2187e-09,-5.2279e-06,-0.00010202,-6.113e-05,-0.00027885,0.00040024,-4.4065e-05,-9.2496e-06,1.014e-06,-7.7757e-05,8.7392e-05,-0.00012696,-0.0019987,-0.00023379,-0.00033027
-0.00021949,-0.00017711,-0.0005738,-7.8167,-0.00014699,-2.2918e-05,6.7881e-05,5.9203e-05,0.0010045,-0.00027465,-0.00023195,-8.9507e-05,-0.00036193,4.0847e-05,-0.00025597,-0.00080088,-0.00044803,-0.00015214,0.00022237,0.00058443,-0.00021348,0.00026735,-0.00012427,-0.00018481,-0.00047451,8.2571e-05,-1.3336e-05,-7.44e-05,0.0011331,0.00012852,-0.0003756,-0.00034046,-0.00028256,-0.00018088,-0.00014831,-0.00020251,0.00022397,-0.00024082,-0.00025355,-0.00026123,1.0246e-05,-0.00010489,9.0305e-06,-0.00057968,-1.2158e-05,9.2545e-05,-6.3276e-05,0.0001616,2.132e-05,-0.00021464,9.219e-06,-8.2315e-05,0.00073158,-0.00011356,-0.00017772,1.3539e-05,-2.0607e-05,-0.0003894,-0.00015468,0.00015886,1.8903e-05,-0.00021768,-0.00013987,-0.0011983,-0.00018222,-0.00015528,-0.00019006,-0.00026048,-3.5321e-05,-0.00015646,-0.00023892,-8.4209e-10,-0.0001842,-2.3874e-05,-0.0004165,0.00066312,-8.4012e-05,6.6388e-06,3.0604e-05,-0.00011921,0.0001347,-0.00018354,-0.0074433,-0.00021684,-0.00039852
-0.00010845,-0.00010617,-0.00024634,-7.877,-5.4065e-05,6.3555e-06,2.0066e-05,3.0487e-05,0.00029757,-7.8502e-05,-7.4229e-05,-3.8273e-05,-0.00012876,-2.0164e-05,-9.077e-05,-0.00028545,-0.00019111,-6.7154e-05,7.0731e-05,0.00015608,-7.5877e-05,4.8355e-05,-4.3827e-05,-8.3946e-05,-0.00017388,2.0694e-05,-7.0175e-06,-2.9035e-05,0.00037455,5.0388e-05,-0.0001499,-0.00014655,-0.00011478,-6.5788e-05,-2.5073e-05,-8.1895e-05,6.9321e-05,-0.0001092,-9.0213e-05,-0.00010184,1.0675e-06,-6.7604e-05,-4.0056e-05,-0.00021645,-2.5814e-05,3.8491e-05,-7.1201e-06,8.1536e-06,-7.7388e-06,-8.3674e-05,-2.3287e-05,-2.9025e-05,0.00022247,-5.8912e-05,-8.1009e-05,-1.7291e-06,-2.9725e-05,-0.00014035,-9.2787e-05,1.7616e-05,1.641e-05,-0.00012862,-5.166e-05,-0.00048441,-7.7307e-05,-6.3356e-05,-8.1507e-05,-0.00013154,-1.2583e-05,-8.3002e-05,-9.4964e-05,-1.0892e-05,8.3669e-11,-3.9683e-05,-0.00013513,0.00024101,-9.1395e-06,-1.6923e-06,2.74e-06,-3.3873e-05,3.975e-05,-6.575e-05,-0.0052032,-0.00012887,-0.00018841
-8.8212e-06,-6.2206e-06,-2.2004e-05,-6.8257,-5.0401e-06,2.531e-06,2.5288e-06,4.025e-06,6.9509e-05,-7.378e-06,-7.4738e-06,-1.5033e-06,-1.1108e-05,1.0852e-06,-9.8681e-06,-2.9269e-05,-1.718e-05,-5.9044e-06,9.3579e-06,2.0152e-05,-8.3497e-06,7.4372e-06,-4.8029e-06,-5.4963e-06,-1.6271e-05,3.249e-06,-7.3448e-08,-1.3915e-06,4.3197e-05,7.5801e-06,-1.1312e-05,-1.1544e-05,-9.4525e-06,-5.4106e-06,-3.8859e-06,-8.4898e-06,9.2352e-06,-8.1049e-06,-6.214e-06,-8.8031e-06,2.2158e-06,-2.1914e-06,3.2684e-06,-2.0742e-05,5.1749e-08,4.3039e-06,-1.3861e-06,5.3158e-06,3.3009e-06,-6.7214e-06,1.0066e-06,-1.8984e-06,4.0917e-05,-5.1161e-06,-7.5978e-06,-2.2343e-07,-2.3763e-06,-1.0359e-05,-4.8834e-06,3.7012e-06,2.6909e-06,-8.812e-06,-5.1869e-06,-4.0229e-05,-6.7968e-06,-5.5551e-06,-4.645e-06,-9.7994e-06,4.1484e-08,-5.2776e-06,-8.3721e-06,1.8113e-06,-6.5598e-06,-4.2281e-09,-1.4154e-05,3.0399e-05,1.8147e-07,8.7994e-07,1.2372e-06,-4.4255e-06,9.2381e-06,-6.531e-06,-0.00028872,-7.8451e-06,-1.3841e-05
-0.0011625,-0.0010266,-0.002806,-7.7889,-0.0006399,7.9647e-05,0.00025088,0.00037489,0.0034715,-0.0008779,-0.00089949,-0.00038355,-0.0014095,-0.00012567,-0.0010468,-0.0032175,-0.0020342,-0.00074985,0.0007906,0.001893,-0.00089974,0.0006304,-0.00050765,-0.00081269,-0.0019381,0.00025225,-5.4988e-05,-0.00029991,0.0040967,0.00058621,-0.001631,-0.0015985,-0.0012632,-0.00076644,-0.00031308,-0.00097512,0.00085445,-0.0011796,-0.0010011,-0.0011299,1.4092e-05,-0.00065218,-0.00035431,-0.002483,-0.0002074,0.00041861,-0.00010223,0.00021385,-3.1454e-05,-0.00098786,-0.00019119,-0.00027803,0.0024817,-0.00065615,-0.0009265,8.217e-06,-0.00034978,-0.0014923,-0.00086874,0.00023561,0.00018259,-0.0013537,-0.00060084,-0.0050444,-0.00083407,-0.00073953,-0.00087921,-0.0013562,-0.00013807,-0.00084899,-0.0010546,-1.8721e-05,-0.00053723,-0.00028822,1.2176e-09,0.002841,-0.00011111,-1.2539e-05,6.9786e-05,-0.00029349,0.00050603,-0.00077927,-0.020324,-0.0012861,-0.0019726
-7.0477e-05,-5.3167e-05,-0.00016965,-7.0307,-4.0076e-05,2.215e-05,1.7809e-05,3.7492e-05,0.00036607,-5.5511e-05,-6.129e-05,-1.7126e-05,-8.7893e-05,3.4153e-06,-7.7975e-05,-0.00021323,-0.00013681,-4.6764e-05,5.3994e-05,0.00014992,-5.4245e-05,5.7111e-05,-3.3467e-05,-4.1316e-05,-0.0001266,2.1195e-05,-1.4784e-06,-1.5473e-05,0.00034909,4.6106e-05,-9.4692e-05,-9.85e-05,-7.0021e-05,-4.6613e-05,-2.3242e-05,-6.209e-05,7.0733e-05,-6.5021e-05,-4.7923e-05,-7.2569e-05,1.3266e-05,-2.1645e-05,5.7303e-06,-0.00015269,9.0863e-07,3.4735e-05,-8.4773e-06,3.6248e-05,1.8605e-05,-5.6364e-05,3.2395e-06,-1.3256e-05,0.00018873,-4.0844e-05,-6.1814e-05,9.8863e-06,-1.7061e-05,-7.8083e-05,-3.9509e-05,2.0577e-05,2.0888e-05,-7.4716e-05,-4.0261e-05,-0.00032521,-4.666e-05,-5.3649e-05,-4.9932e-05,-7.4523e-05,2.8335e-07,-4.4109e-05,-7.2866e-05,1.2449e-05,-4.042e-05,1.8747e-07,-9.8234e-05,-1.3749e-09,4.6871e-06,6.8799e-06,1.9133e-06,-2.9308e-05,8.3309e-05,-5.1268e-05,-0.0015352,-6.1768e-05,-0.00010572
-0.0012149,-0.00098998,-0.0025917,-6.8085,-0.0005438,0.00040196,0.00021918,0.00062282,0.0061209,-0.00055457,-0.00055695,-0.00027413,-0.0010558,-0.00019159,-0.00090286,-0.0033534,-0.0021949,-0.00084121,0.0011863,0.0019823,-0.00078013,0.00059586,-0.00046163,-0.00087739,-0.001815,0.00036407,-8.8833e-06,-0.0001386,0.0047395,0.00082128,-0.0013762,-0.0015235,-0.00116,-0.00068293,-9.2166e-05,-0.0009737,0.0010057,-0.001052,-0.00061527,-0.001079,0.00016815,-0.00050396,-0.00026644,-0.0025182,-0.00015192,0.00054978,-4.4553e-05,0.00011536,0.00021331,-0.00096038,-0.00012924,-0.00019383,0.0029198,-0.00070141,-0.00098685,2.6901e-05,-0.0005343,-0.00097904,-0.00075082,0.00022857,0.00035265,-0.0014622,-0.00060491,-0.0046306,-0.00070191,-0.00067411,-0.00082178,-0.0014359,-6.1659e-06,-0.00075517,-0.0011168,-0.00014459,-0.00048054,-2.7136e-05,-0.001426,0.0040495,-6.2942e-10,1.12e-05,0.00010242,-0.00042488,0.001151,-0.00073795,-0.018138,-0.001293,-0.0019017
-0.00012381,-0.00011016,-0.00027205,-7.5243,-6.2635e-05,1.698e-07,2.1193e-05,3.1844e-05,0.00035455,-9.2909e-05,-9.2887e-05,-4.3379e-05,-0.00015015,-1.6129e-05,-0.00011806,-0.00032976,-0.00022109,-8.3393e-05,7.7819e-05,0.00019262,-9.5831e-05,6.3125e-05,-5.4083e-05,-0.00010023,-0.00019511,2.4599e-05,-8.3009e-06,-3.192e-05,0.00044249,5.3284e-05,-0.0001689,-0.00016828,-0.00012544,-7.5904e-05,-3.4462e-05,-8.999e-05,8.5133e-05,-0.00012107,-0.00010058,-0.00010655,1.3136e-06,-7.2274e-05,-3.3493e-05,-0.00023954,-1.8279e-05,5.1312e-05,-1.9712e-05,2.6407e-05,-9.5225e-06,-0.00010232,-2.1324e-05,-3.3897e-05,0.00027677,-6.7628e-05,-9.3958e-05,-1.8017e-06,-3.1283e-05,-0.00015363,-9.3874e-05,2.6156e-05,1.5175e-05,-0.00013722,-5.2005e-05,-0.00054289,-8.4017e-05,-7.1712e-05,-9.3684e-05,-0.00014264,-1.531e-05,-9.044e-05,-0.00010918,-3.1766e-06,-5.9796e-05,-3.4818e-05,-0.00016856,0.00028095,-2.136e-05,-1.5695e-09,3.1241e-06,-4.798e-05,4.893e-05,-7.641e-05,-0.0015091,-0.00013185,-0.00019434
-0.00018686,-0.00018089,-0.0004321,-6.9253,-9.9974e-05,-5.9955e-06,3.8697e-05,4.6542e-05,0.00062153,-0.00014698,-0.00014582,-7.2365e-05,-0.00022511,-2.2392e-05,-0.00017934,-0.00053609,-0.00035252,-0.0001379,0.00013724,0.00032208,-0.00014566,9.9088e-05,-7.4857e-05,-0.00012599,-0.00031593,4.684e-05,-7.6012e-06,-5.1732e-05,0.00068249,9.7592e-05,-0.00027088,-0.00026573,-0.00019538,-0.00012534,-5.2569e-05,-0.00015638,0.00013632,-0.00019368,-0.00016376,-0.00017961,1.895e-07,-0.00010543,-6.1331e-05,-0.00041258,-3.8348e-05,6.4603e-05,-3.2504e-05,2.6207e-05,-1.7551e-05,-0.00015375,-3.5226e-05,-4.1183e-05,0.00045612,-0.00010426,-0.00014759,-5.7386e-06,-4.3841e-05,-0.00024834,-0.00015503,6.4975e-05,2.2676e-05,-0.00021039,-9.9208e-05,-0.00095186,-0.00014207,-0.0001112,-0.00015794,-0.00022887,-2.8488e-05,-0.00013869,-0.00017593,-1.5411e-06,-9.9602e-05,-6.0883e-05,-0.00027154,0.0003856,-3.0587e-05,-4.4872e-06,-7.9608e-10,-7.0726e-05,8.4866e-05,-0.00013053,-0.0023254,-0.00021678,-0.00032556
-0.00022544,-0.0002144,-0.00051355,-7.6645,-0.00011722,1.181e-06,4.4616e-05,5.8514e-05,0.00063672,-0.00017611,-0.00017334,-8.3595e-05,-0.00027501,-3.4782e-05,-0.0001958,-0.00059815,-0.00038521,-0.00014962,0.00014461,0.00034278,-0.00017387,0.00010708,-9.3027e-05,-0.0001614,-0.00038045,4.3132e-05,-1.72e-05,-6.4849e-05,0.00076937,0.00010258,-0.0003029,-0.00031157,-0.00023596,-0.00014652,-6.2728e-05,-0.00018495,0.00015628,-0.00023606,-0.00019969,-0.0002143,-4.2998e-06,-0.00014017,-7.5638e-05,-0.00048786,-4.978e-05,7.1249e-05,-2.5853e-05,2.6115e-05,-2.7263e-05,-0.00017941,-5.1643e-05,-6.2144e-05,0.00051424,-0.0001241,-0.00017357,-2.7178e-06,-6.2588e-05,-0.00030943,-0.0001889,4.3014e-05,2.854e-05,-0.00026831,-0.00010988,-0.0010295,-0.00016202,-0.00013667,-0.00018358,-0.00027825,-3.0053e-05,-0.00017398,-0.00019847,-1.209e-05,-0.00010028,-8.1331e-05,-0.00026153,0.00045527,-3.7176e-05,-9.6403e-06,9.8669e-06,-1.2018e-09,7.5508e-05,-0.00014279,-0.0047882,-0.00026058,-0.00039014
-0.00014862,-9.7027e-05,-0.00028561,-5.6109,-6.8e-05,4.6049e-05,3.7542e-05,7.4596e-05,0.00096101,-8.7542e-05,-9.0618e-05,-3.1618e-05,-0.00010228,2.6064e-07,-0.00014288,-0.00043706,-0.00023344,-9.5421e-05,0.00014117,0.0002806,-0.0001116,8.4823e-05,-6.3106e-05,-4.2167e-05,-0.00022233,5.1415e-05,-1.848e-06,-1.4336e-05,0.00060952,0.00010788,-0.00017617,-0.00016499,-0.00014297,-6.3163e-05,-3.0824e-05,-0.00010965,0.0001337,-0.00010304,-4.213e-05,-0.00011324,2.5752e-05,-3.6378e-05,1.5697e-05,-0.0002489,-5.5703e-06,5.6266e-05,-1.8125e-05,5.9089e-05,4.8821e-05,-9.7668e-05,2.5754e-06,-1.9102e-05,0.00039452,-7.129e-05,-0.00010962,9.9417e-06,-3.3414e-05,-8.6707e-05,-8.0273e-05,6.1048e-05,4.6706e-05,-0.00014316,-7.8374e-05,-0.00054003,-8.1043e-05,-8.181e-05,-9.0109e-05,-0.00014931,5.7035e-06,-6.7569e-05,-0.00011082,1.0869e-05,-8.1598e-05,2.5853e-05,-0.00019612,0.00063596,2.8522e-05,6.5346e-06,2.0342e-05,-6.0409e-05,-4.0653e-09,-9.3566e-05,-0.003312,-0.00011343,-0.00019661
-0.00038533,-0.00032707,-0.00080075,-7.3486,-0.00018673,1.6246e-05,6.8604e-05,9.4346e-05,0.0011379,-0.00030392,-0.00028612,-0.00012541,-0.00045073,-4.0005e-05,-0.00031749,-0.00096935,-0.00065849,-0.0002586,0.00027972,0.00058573,-0.00029193,0.00020511,-0.00016784,-0.00028905,-0.00063559,8.3563e-05,-2.6359e-05,-0.0001022,0.0013881,0.0001823,-0.00049401,-0.00050941,-0.00038049,-0.00022995,-0.00011532,-0.00029579,0.00030371,-0.00036785,-0.00029481,-0.00035622,3.4098e-06,-0.00020261,-8.9576e-05,-0.00082134,-5.941e-05,0.00013825,-5.7215e-05,7.8467e-05,-1.6733e-05,-0.00029997,-5.8652e-05,-0.00010369,0.00081942,-0.00020259,-0.00028317,-2.1976e-06,-8.7638e-05,-0.00047626,-0.00028548,0.00010006,5.6262e-05,-0.00042685,-0.0001837,-0.0016259,-0.00024841,-0.00022156,-0.0002936,-0.00044318,-4.5272e-05,-0.00028732,-0.00033153,-6.3768e-06,-0.00018558,-9.564e-05,-0.00053694,0.00084641,-5.7334e-05,-2.288e-06,6.3591e-06,-0.00014272,0.00017032,-8.7811e-10,-0.0060443,-0.00040563,-0.0006322
3.4734e-05,-1.2242e-05,-0.00028446,-0.0003226,-0.00020362,0.00012114,-5.4333e-05,6.1292e-06,0.00026299,-0.00011842,-5.2736e-05,8.7473e-05,-3.9304e-05,0.00010596,-8.0226e-05,-4.4108e-05,-2.1375e-05,-4.3165e-05,0.00010058,8.2072e-05,-5.0228e-05,8.3898e-05,-0.00019838,-1.7983e-06,-0.00040594,0.00017457,8.5657e-05,3.9677e-05,0.0004374,0.00013099,-0.00027218,0.00012755,6.3612e-05,-0.00014026,-4.1421e-06,-0.00018607,0.00019691,-9.9516e-05,-3.2349e-06,-8.9685e-05,-0.00011702,-4.9893e-05,-6.7236e-05,-4.8786e-05,-0.00014049,0.00013822,7.358e-05,4.7553e-05,0.00011294,-5.7556e-05,0.00017657,2.726e-06,0.00019461,-5.945e-05,-0.00013824,8.2508e-05,0.00012541,-0.00017459,8.0797e-05,1.6091e-05,-5.5038e-05,-8.917e-05,-9.7377e-05,-0.00020827,2.7717e-05,2.8793e-05,0.00010732,-9.509e-05,-7.3873e-05,-0.00015219,1.7133e-05,-0.00011283,0.00011937,1.2728e-06,-0.00020283,0.00010688,-4.6639e-05,-3.7904e-05,0.00019653,3.1064e-05,6.3658e-05,-0.00014619,-2.1863e-16,-5.1283e-05,-0.00017819
-0.00052945,-0.00038333,-0.0012061,-7.045,-0.00029982,7.1443e-05,0.0001623,0.00017493,0.0028307,-0.00056397,-0.00048646,-0.00014282,-0.00073001,7.8117e-05,-0.00056117,-0.0016473,-0.0010452,-0.00035228,0.00054744,0.0012971,-0.00046282,0.00050752,-0.00026061,-0.00038551,-0.0010074,0.00018821,-2.6465e-05,-0.000124,0.0027155,0.00032932,-0.00075806,-0.00070178,-0.00052765,-0.00034932,-0.00029585,-0.00049912,0.00057693,-0.00049418,-0.00039718,-0.0005332,6.7258e-05,-0.0001533,0.00013752,-0.0012654,1.7603e-05,0.0002183,-0.00010488,0.00037752,9.5726e-05,-0.00038344,7.3238e-05,-0.00012279,0.0020335,-0.00026169,-0.00040676,8.1429e-05,-3.5645e-05,-0.00071034,-0.0003192,0.0002805,0.00012485,-0.00045892,-0.00030709,-0.0025014,-0.00036719,-0.00031371,-0.00040544,-0.00052932,-1.173e-05,-0.00030318,-0.00057838,0.00015494,-0.00036606,1.7332e-05,-0.00089104,0.0019603,-8.4362e-05,3.8194e-05,6.8786e-05,-0.00025088,0.00049404,-0.00038478,-0.0078463,-1.5532e-09,-0.00083361
-5.6642e-05,-5.042e-05,-0.00012933,-6.9678,-2.9203e-05,5.8673e-06,1.3715e-05,1.8072e-05,0.00024328,-4.9942e-05,-4.7588e-05,-1.7072e-05,-7.3304e-05,-1.5685e-06,-5.6897e-05,-0.00016415,-0.00010006,-4.0987e-05,4.9142e-05,0.00011579,-4.3948e-05,4.2227e-05,-2.6369e-05,-3.8721e-05,-0.00010027,1.6514e-05,-2.8243e-06,-1.3115e-05,0.0002567,3.3329e-05,-7.1775e-05,-7.5965e-05,-5.1626e-05,-3.5833e-05,-2.0402e-05,-4.5359e-05,5.1365e-05,-5.505e-05,-3.8536e-05,-4.8685e-05,5.5576e-06,-2.5804e-05,6.9831e-07,-0.0001342,-1.9032e-06,2.486e-05,-1.057e-05,2.7979e-05,4.1261e-06,-4.5541e-05,-2.0289e-06,-1.6818e-05,0.00018129,-3.0112e-05,-4.4383e-05,2.2472e-06,-8.8334e-06,-7.0864e-05,-4.0452e-05,1.9941e-05,1.0349e-05,-6.1556e-05,-3.0196e-05,-0.00026279,-3.8533e-05,-3.4367e-05,-4.5672e-05,-6.394e-05,-4.7691e-06,-3.8425e-05,-5.4031e-05,7.5749e-06,-3.3956e-05,-4.1081e-06,-8.8903e-05,0.00019549,-7.2979e-06,3.351e-06,4.7537e-06,-2.4899e-05,4.6396e-05,-3.9564e-05,-0.00064796,-5.3359e-05,-1.4737e-09
