-1.5109e-09,-9.6162e-05,-0.00016645,-1.5354e-05,5.9979e-05,9.2547e-06,-5.0459e-05,7.6607e-05,-0.0030004,-8.5427e-05,4.6834e-05,6.8365e-06,0.00027925,4.4235e-06,9.4562e-05,-3.071e-05,-1.9598e-05,-4.9069e-05,-1.873e-05,3.4721e-05,-7.2302e-05,2.6527e-05,-5.3152e-06,6.0582e-05,-3.1653e-05,-7.7096e-05,2.4203e-05,-9.7851e-05,-0.0001796,7.9413e-05,0.00027874,-9.0028e-05,-8.0992e-05,0.00035283,-3.3573e-05,3.5623e-05,-0.00023752,1.7654e-06,-3.8307,-0.00043688,2.5581,0.00011354,0.25929,-7.5637e-05,-0.0001721,2.3119e-05,3.9785e-05,-0.00034142,-0.00024496,-1.2416e-05,7.0892e-05,-0.00010412,-5.8451e-05,0.00045985,0.00024178,9.21e-05,0.00021906,-3.6923e-05,-1.9378e-05,-0.00036139,1.3503e-05,-0.0001454,1.3853e-05,-4.0277e-05,-5.537e-05,-9.2246e-05,-3.0223e-05,-7.4643e-05,8.2424e-05,0.00010509,-0.00016509,-7.2572e-05,-4.5977e-05,-0.077811,5.8553e-06,9.7359e-05,-0.00020374,-4.0366e-05,-8.6538e-05,0.00011566,-0.0018904,5.2592e-05,-0.00018947,4.7073e-05,-5.2077e-05
-0.00013932,-1.2305e-09,-0.00021839,-1.5125e-05,7.3573e-05,8.4749e-06,-9.2014e-05,0.00010891,-0.0011355,-0.00014448,7.2809e-05,1.6893e-05,0.00042301,-3.9279e-07,0.00014004,-7.9913e-05,-2.7026e-05,-7.6763e-05,-3.7862e-05,5.831e-05,-0.00012537,3.0739e-05,-3.3774e-05,0.00010897,-5.1305e-05,-0.00012479,2.3835e-05,-0.00014009,-0.00028623,0.00011507,0.00047137,-0.00016066,-0.00012739,0.00063221,-6.5779e-05,6.8758e-05,-0.00041153,1.2967e-05,-3.5932,-0.00066419,2.3536,0.0001574,0.62856,-0.00010158,-0.00024352,1.9576e-05,5.261e-05,-0.00050523,-0.00032181,-4.4254e-05,9.0337e-05,-0.00015723,-7.2249e-05,0.0005777,0.00031757,0.00010903,0.00031526,-3.1318e-05,-1.3736e-05,-0.00049485,3.1448e-05,-0.00025131,3.4046e-06,-3.8503e-05,-6.1567e-05,-0.00014954,-5.781e-05,-0.00011415,0.00012339,0.00015415,-0.00025985,-9.9956e-05,-8.707e-05,-0.10239,3.9591e-06,0.00015078,-0.00029367,-7.1812e-05,-0.0001523,0.00016381,-0.0036904,8.8044e-05,-0.0002878,8.4695e-05,-9.6766e-05
-0.00010268,-9.0807e-05,-1.3733e-09,-1.4319e-05,4.2084e-05,1.1996e-05,-6.3421e-05,5.9886e-05,-0.0010778,-9.7706e-05,5.1417e-05,7.0348e-06,0.00024519,-1.9737e-07,8.9889e-05,-3.1621e-05,-1.7852e-05,-6.1158e-05,-1.5708e-05,2.7135e-05,-6.8926e-05,2.2635e-05,-2.0217e-05,6.8258e-05,-2.905e-05,-7.9726e-05,7.0956e-06,-8.1709e-05,-0.00019476,7.7029e-05,0.0002864,-8.1298e-05,-7.4059e-05,0.00044347,-4.3419e-05,3.5828e-05,-0.00027988,8.639e-06,-3.1508,-0.0004292,2.5343,0.00016602,0.77522,-4.9283e-05,-0.00017856,1.1145e-05,2.5897e-05,-0.00033438,-0.00021654,-2.8198e-05,5.5442e-05,-0.00011452,-4.9247e-05,0.00037597,0.00021102,8.4047e-05,0.00019637,-3.38e-05,-2.4167e-05,-0.00033147,1.0623e-05,-0.00016287,3.7445e-06,-5.0051e-05,-6.2476e-05,-0.00010741,-5.8084e-05,-7.8693e-05,6.6344e-05,8.8765e-05,-0.00016364,-7.2763e-05,-5.1139e-05,-0.13874,-2.8884e-06,9.6779e-05,-0.0001781,-5.0516e-05,-0.00010355,9.8612e-05,-0.001115,4.9401e-05,-0.00017683,4.696e-05,-5.3344e-05
-9.0569e-05,-8.4218e-05,-0.0001418,-1.5701e-09,5.586e-05,1.6211e-05,-5.5874e-05,6.7481e-05,-0.00048901,-8.4343e-05,6.0979e-05,6.8328e-06,0.00069997,7.2527e-06,0.00010513,-4.1754e-05,-1.9025e-05,-4.7948e-05,-1.7422e-05,3.0172e-05,-7.8693e-05,1.3819e-05,-2.6424e-05,8.883e-05,-3.0944e-05,-6.8266e-05,1.0856e-05,-9.3125e-05,-0.00015937,3.8374e-05,0.00029748,-8.5077e-05,-8.2474e-05,0.00031174,-4.0431e-05,4.1412e-05,-0.00024235,1.6822e-05,-1.4058,-0.00037317,2.186,0.00010056,0.92237,-3.5317e-05,-0.00017641,6.7827e-06,3.409e-05,-0.00027471,-0.00021893,-3.0515e-05,6.4927e-05,-0.00010502,-1.6288e-05,0.00044065,0.00022465,6.8666e-05,0.00019884,4.4451e-05,-1.7868e-05,-0.0001598,1.1046e-05,-0.00014568,-4.1787e-06,-1.4052e-05,-2.4607e-05,-0.00010287,-4.6269e-05,-6.0389e-05,4.5366e-05,8.8292e-05,-0.00015348,-6.8173e-05,-5.0621e-05,-0.1679,7.0762e-07,9.6494e-05,-0.00015054,-5.1225e-05,-9.7434e-05,9.2729e-05,-0.00054903,3.2296e-05,-0.00016999,6.0233e-05,-5.5483e-05
-0.00081598,-0.00098835,-0.0015373,-3.3785e-07,-1.5326e-09,0.00016531,-0.00043059,0.00075073,-0.0097478,-0.00076514,0.00051944,0.00013523,0.00328,-6.5693e-06,0.00086286,-0.00026625,-0.00025846,-0.00050799,-0.00019462,0.00025374,-0.00061869,0.00021961,-6.115e-05,0.00070674,-0.0003435,-0.00068435,0.00024721,-0.00082145,-0.0016044,0.00081672,0.0030216,-0.00089489,-0.00070323,0.0041804,-0.00029319,0.0002992,-0.002082,4.0588e-05,-3.2966,-0.003587,2.5263,0.00094277,0.54654,-0.00059444,-0.0015601,0.0002162,0.00036598,-0.003247,-0.0022835,-2.0551e-05,0.00069031,-0.00097223,-0.00035932,0.0050016,0.0024088,0.00084127,0.0019215,-0.00013475,-0.00015615,-0.002636,0.00010245,-0.0014367,7.7768e-05,-0.00038464,-0.00034737,-0.000893,-0.00031546,-0.00069637,0.00073951,0.00090308,-0.0015671,-0.00072143,-0.00040194,-0.020951,2.7565e-05,0.00075776,-0.0018801,-0.00035457,-0.00078464,0.0010284,-0.013036,0.00049565,-0.0014863,0.00055662,-0.00047702
-8.1244e-05,-5.0704e-05,-0.00011496,1.6935e-05,7.1849e-05,-2.3556e-09,-2.5943e-05,9.5154e-05,-0.00030875,-6.6456e-05,7.3301e-05,1.2713e-05,0.00034638,3.5358e-06,0.0001151,5.182e-05,6.0476e-06,-4.2291e-05,-3.6122e-06,3.051e-05,-5.9993e-05,1.0431e-05,1.9521e-07,9.3373e-05,-2.3068e-05,-6.4233e-05,2.1553e-05,-6.3426e-05,-0.00014433,8.4815e-05,0.00063581,-5.2185e-05,-3.9224e-05,0.0007625,-9.2834e-06,6.3595e-05,-0.00021245,2.6349e-05,-2.8263,-0.00031323,2.574,0.36847,1.1194,-6.605e-05,-0.00016584,9.0718e-06,4.6056e-05,-0.00033416,-8.0443e-05,0.00013682,6.7503e-05,-9.3114e-05,2.9782e-05,0.00046726,0.00021505,0.00010833,0.00021264,4.7309e-06,9.5647e-06,-0.00053457,3.2512e-05,-0.00013304,5.3514e-06,-2.9777e-05,-4.2742e-05,-6.2287e-05,-2.1313e-05,-4.9406e-05,0.0001549,0.00017538,-0.00012665,-7.7781e-05,-3.3699e-05,-0.027651,1.5347e-05,9.6534e-05,-0.00013408,-4.6664e-05,-7.2383e-05,0.0001021,-0.00066961,5.1122e-05,-9.0215e-05,7.3291e-05,-2.5431e-05
-0.00027883,-0.0003343,-0.00052838,-4.7983e-05,0.00018324,0.00012306,-1.0703e-09,0.00024176,-0.0027538,-0.00024765,0.00017535,2.4495e-05,0.00094813,-1.7354e-05,0.00030284,-2.7201e-05,-8.9695e-05,-0.00013868,-4.7018e-05,0.00010364,-0.00018775,5.515e-05,-2.0874e-05,0.00023866,-9.4548e-05,-0.00023114,0.00012855,-0.00028045,-0.00057519,0.00030229,0.00066258,-0.00024205,-0.00025111,0.0011475,-8.6531e-05,9.8778e-05,-0.00074319,-8.3304e-06,-4.1011,-0.0013303,2.4425,0.00053235,0.18055,-0.00025066,-0.00052142,5.4304e-05,0.00012273,-0.0011083,-0.00074182,4.0954e-06,0.00020471,-0.0003293,-0.0001856,0.0015364,0.00074519,0.00026432,0.00068684,-7.0146e-05,-6.9487e-05,-0.00082524,6.5654e-05,-0.0004923,1.1258e-05,-0.00016268,-0.00018655,-0.00030342,-4.8672e-05,-0.00027607,0.000325,0.00026387,-0.00049223,-0.0002319,-0.00013411,-0.15094,2.6015e-06,0.00024605,-0.00065174,-0.00014296,-0.00028001,0.00034449,-0.0084716,0.00018413,-0.00049388,0.00018095,-0.00017526
-0.00040132,-0.00044739,-0.00075342,-6.1112e-05,0.00025029,0.00010573,-0.00020856,-8.392e-10,-0.0084908,-0.00032366,0.00024081,1.686e-05,0.0011903,-6.4997e-06,0.0004437,-0.00020674,-0.00014147,-0.00018747,-6.3981e-05,0.00021196,-0.00027175,9.4055e-05,-3.1043e-05,0.00025416,-0.00013223,-0.00029261,8.3603e-05,-0.00040507,-0.00086026,0.00028828,0.00091883,-0.00050635,-0.00034746,0.0010308,-8.9216e-05,0.00012083,-0.00099559,-1.9654e-05,-4.0101,-0.0020386,2.4137,0.00056429,0.32033,-0.00030517,-0.00068852,9.1858e-05,0.00018297,-0.0022747,-0.0011625,1.1828e-05,0.00029779,-0.00038706,-0.0002745,0.0016768,0.00088256,0.00045833,0.00067867,-2.7068e-05,2.5902e-05,-0.0010397,8.2093e-05,-0.00074031,3.2926e-05,-0.00022125,-0.00023787,-0.00038892,-0.0001614,-0.00035275,0.00033632,0.00050297,-0.00069468,-0.00032519,-0.00016787,-0.079729,2.1098e-05,0.00035475,-0.00079572,-0.00018238,-0.00035647,0.00045507,-0.057468,0.00024026,-0.00092091,0.00020311,-0.00022389
-3.6632e-05,-3.0831e-05,-6.0079e-05,5.1189e-06,1.9591e-05,1.8818e-05,-1.7064e-05,2.9583e-05,-1.76e-09,-3.7688e-05,3.2377e-05,1.6437e-05,0.00015368,1.9096e-06,4.9959e-05,-3.327e-05,-1.1155e-05,-1.0326e-05,2.7037e-06,1.2353e-05,-3.2668e-05,1.8995e-05,-6.3372e-06,2.2832e-05,-1.2042e-05,-3.1574e-05,1.4247e-05,-3.4582e-05,-7.2992e-05,3.237e-05,6.5917e-05,-3.4636e-05,-3.2699e-05,0.00019355,-1.3863e-05,1.7624e-05,-9.7193e-05,7.9317e-06,-3.5605,-0.00017844,3.5097,3.1251e-05,1.3953,-2.3506e-05,-7.9006e-05,5.9216e-06,2.062e-05,-0.00013747,-9.8777e-05,-1.4857e-05,2.0605e-05,-4.805e-05,2.5899e-05,0.00015885,9.3144e-05,4.399e-05,7.1157e-05,1.2464e-06,-1.2313e-05,-0.00021823,1.0355e-05,-6.906e-05,-1.5976e-06,-9.164e-06,-2.474e-05,-3.8932e-05,-1.148e-05,-2.9619e-05,1.8502e-05,5.8399e-05,-5.5755e-05,-1.8621e-05,-2.275e-05,-0.14862,-3.0513e-06,6.4034e-05,-6.4857e-05,-2.1466e-05,-4.605e-05,4.3178e-05,-0.00035914,2.5148e-05,-4.997e-05,2.3583e-05,-1.595e-05
-0.00015873,-0.00018309,-0.00028961,-2.3575e-05,9.4942e-05,3.488e-05,-8.3497e-05,0.00014146,-0.016399,-7.8317e-10,0.00010278,1.1325e-05,0.00050905,-7.5927e-06,0.00019604,-7.0277e-05,-6.3825e-05,-8.5136e-05,-1.5434e-05,4.8928e-05,-0.0001042,3.5684e-05,-5.297e-06,8.2539e-05,-5.4695e-05,-0.00012685,4.1109e-05,-0.00016093,-0.00032097,0.00016643,0.00041423,-0.00013591,-0.00014362,0.0004644,-5.5566e-06,6.4076e-05,-0.00038914,9.372e-06,-3.9751,-0.00084057,2.4448,0.00021014,0.30988,-0.00012751,-0.00027399,5.5914e-05,7.8363e-05,-0.0008651,-0.00043953,-1.8379e-05,0.00011422,-0.00016541,-0.000115,0.0008009,0.00040593,0.00015262,0.00032283,-3.0476e-05,-3.2197e-05,-0.00049531,2.58e-05,-0.00028398,2.0388e-05,-7.4573e-05,-0.00010091,-0.00016799,-6.5204e-05,-0.00012924,0.00012879,0.00015204,-0.00026754,-0.000144,-7.2285e-05,-0.10371,8.5237e-06,0.00015357,-0.00029881,-6.961e-05,-0.00014397,0.0001925,-0.026782,9.5788e-05,-0.00031598,7.9341e-05,-9.5015e-05
-0.00047685,-0.00050174,-0.00071316,1.64e-05,0.00025859,0.00012441,-0.00021976,0.00036678,-0.0037922,-0.00035275,-1.5451e-09,-2.8726e-06,0.0017803,-4.5515e-07,0.00054912,-0.00012639,-0.00014373,-0.00020247,4.7168e-05,0.0001683,-0.00024935,9.9151e-05,-5.4151e-05,0.00038089,-0.00014862,-0.0003241,8.8082e-05,-0.00041638,-0.0008112,0.00028566,0.00111,-0.00045918,-0.00032935,0.0016092,-0.00012138,0.00017678,-0.001095,1.4413e-05,-3.0258,-0.0020597,2.3824,0.00060841,0.44446,-0.00036719,-0.00077099,5.2691e-05,0.00020988,-0.0016881,-0.0012396,-9.4789e-05,0.00027834,-0.00052102,-0.00032203,0.0029129,0.0012853,0.00038378,0.00098139,-8.1683e-05,-0.00012043,-0.001035,-1.0875e-05,-0.00078707,-1.1264e-05,-0.00017833,-0.00017567,-0.0004319,-0.00019391,-0.00043316,0.00032069,0.00037343,-0.0007195,-0.00036048,-0.0001574,-0.1424,4.9243e-05,0.00041289,-0.00068169,-0.00021684,-0.00044244,0.00052966,-0.0052817,0.00024194,-0.00085712,0.0001901,-0.00023524
-0.00016054,-0.00016493,-0.00025081,-2.7188e-05,8.7033e-05,6.6085e-05,-9.8024e-05,9.3689e-05,-0.0010305,-0.00015291,6.5863e-05,-4.4333e-09,0.00050137,-1.7993e-05,0.00012827,-1.9871e-05,-1.617e-05,-7.5919e-05,-4.253e-05,2.2849e-05,-0.00012923,2.4396e-05,-2.3809e-05,0.00010235,-4.8283e-05,-0.00013014,4.5012e-06,-3.7042e-05,-0.00023517,0.00015716,0.00064846,-0.00013278,-0.00011165,0.00083434,-7.0886e-05,0.00014405,-0.00039106,2.0759e-05,-3.9349,-0.00060865,5.2721,0.00021181,0.41775,-8.5568e-05,-0.00025409,6.6772e-06,5.1881e-05,-0.00054435,-0.00035027,-5.6657e-05,0.00011653,-0.00018492,-4.7259e-05,0.00047245,0.00028653,0.00011849,0.00029536,-4.7169e-05,-2.1723e-05,-0.00089786,1.0181e-05,-0.00026047,6.755e-06,-6.5433e-05,-8.737e-05,-0.00015587,-8.8431e-05,-0.00011876,0.00013763,0.00016154,-0.00027785,-0.00014623,-8.4722e-05,-0.0016394,7.9617e-06,0.00018249,-0.00033151,-8.32e-05,-0.00014763,0.00015741,-0.0034582,8.8488e-05,-0.00019563,9.6602e-05,-9.1623e-05
-7.4294e-05,-6.8959e-05,-0.00012346,2.5847e-05,3.9208e-05,1.1978e-05,-3.8121e-05,5.9052e-05,-0.0004485,-5.4482e-05,4.7266e-05,1.3096e-05,-3.9237e-09,-9.8508e-07,9.2731e-05,-2.9001e-05,-1.3111e-05,-4.0302e-05,-7.3011e-06,1.4123e-05,-5.4862e-05,9.6625e-06,-1.6353e-05,6.497e-05,-2.0703e-05,-5.7985e-05,1.3745e-05,-6.1164e-05,-0.00012462,5.058e-05,0.00023148,-7.3131e-05,-5.6881e-05,0.00021587,-2.2683e-05,3.7855e-05,-0.00015969,1.518e-05,-2.0937,-0.00030131,2.3489,0.00015216,0.64066,-3.4205e-05,-0.00012335,6.0985e-06,2.1023e-05,-0.00025784,-0.00015163,-1.633e-05,5.4851e-05,-7.5685e-05,-4.2058e-05,0.0003656,0.00017541,5.6259e-05,0.00013807,3.1943e-05,-1.4249e-05,-0.00012985,4.7997e-06,-0.00010868,-3.2723e-06,-1.4481e-05,-2.7671e-05,-6.9362e-05,-3.2097e-05,-5.3832e-05,4.598e-05,6.1714e-05,-0.00012211,-5.2882e-05,-3.8025e-05,-0.0020556,-3.3982e-06,7.8713e-05,-0.00012027,-3.5363e-05,-7.0657e-05,6.8096e-05,-0.00061285,2.8373e-05,-0.00011031,4.7978e-05,-4.6602e-05
-0.0011107,-0.0012198,-0.0018917,-4.5602e-05,0.00064422,0.00020547,-0.00075511,0.00091762,-0.0085283,-0.0012076,0.00064973,4.0148e-05,0.0036763,-1.2149e-09,0.0010809,-0.00059093,-0.00025404,-0.00059676,-0.00013619,0.00057259,-0.00094982,0.0003927,-0.00017745,0.00059184,-0.0002259,-0.00095862,0.00021129,-0.0011968,-0.002908,0.00093129,0.0030861,-0.0013969,-0.0011056,0.0049808,-0.00058778,0.0005064,-0.0031046,0.00023758,-3.8544,-0.0053051,2.6559,0.0025263,0.59867,-0.0011522,-0.0025041,0.00024584,0.00039569,-0.0040855,-0.0028542,-0.0002486,0.0010389,-0.0013272,-0.00033383,0.0057357,0.0031443,0.0012822,0.0029925,-0.00029508,-9.1433e-05,-0.0036378,3.7251e-05,-0.0018153,3.7056e-05,-0.00070207,-0.00081638,-0.0013926,-0.00052231,-0.00087364,0.00086119,0.0014132,-0.0022272,-0.00071622,-0.00068383,-0.08093,-3.3207e-05,0.0010525,-0.0029546,-0.00061106,-0.0012492,0.001306,-0.013519,0.00053723,-0.002539,0.00072289,-0.00057006
-1.7734e-05,-1.9288e-05,-2.8277e-05,-4.261e-07,9.6529e-06,3.6016e-06,-8.9652e-06,1.4972e-05,-0.0002302,-1.3366e-05,1.2966e-05,8.0859e-07,6.7485e-05,-9.5806e-07,-8.4637e-10,-5.5477e-06,-5.6142e-06,-8.7524e-06,-3.4073e-07,4.381e-06,-1.1996e-05,3.334e-06,-2.2703e-06,1.0061e-05,-5.2852e-06,-1.3675e-05,4.0363e-06,-1.616e-05,-3.2498e-05,1.3989e-05,4.1226e-05,-1.7209e-05,-1.5111e-05,4.4288e-05,-4.7218e-06,8.3514e-06,-4.1868e-05,1.2805e-06,-3.1812,-8.1269e-05,2.3345,2.317e-05,0.3505,-1.2197e-05,-3.1304e-05,3.5746e-06,7.4841e-06,-7.2314e-05,-4.2785e-05,-5.3643e-06,1.1591e-05,-1.8866e-05,-1.4674e-05,0.0001122,4.944e-05,1.6824e-05,3.3999e-05,-2.1771e-06,-4.2403e-06,-4.3017e-05,9.5938e-07,-3.0916e-05,2.4008e-07,-7.1112e-06,-8.9418e-06,-1.7877e-05,-5.6691e-06,-1.6299e-05,1.2099e-05,1.487e-05,-2.9039e-05,-1.4572e-05,-7.6227e-06,-0.12863,1.5143e-06,1.7908e-05,-2.7754e-05,-8.015e-06,-1.648e-05,2.0947e-05,-0.00027024,9.1125e-06,-3.4173e-05,7.7854e-06,-1.1491e-05
-6.4583e-05,-8.0264e-05,-0.00010081,-1.1011e-05,5.1936e-05,3.3213e-05,-2.9138e-05,5.7515e-05,-0.0015685,-6.0634e-05,3.9789e-05,1.2255e-05,0.0002238,-1.249e-06,7.7373e-05,-1.5152e-09,-1.716e-05,-2.2846e-05,-1.6017e-05,1.847e-05,-5.9006e-05,2.0215e-05,-1.0496e-06,3.7808e-05,-3.6928e-05,-7.1257e-05,2.5927e-05,-5.9962e-05,-0.0001167,7.2828e-05,0.00020984,-6.1088e-05,-3.8558e-05,0.00021731,-2.4961e-05,2.8112e-05,-0.00011911,8.1131e-06,-4.3346,-0.00032937,4.4364,0.00010108,0.30014,-5.9083e-05,-0.00013869,2.7064e-05,4.6148e-05,-0.00026038,-0.0001853,1.7081e-05,4.4124e-05,-8.5962e-05,-1.9344e-05,0.00039996,0.00019222,6.4111e-05,0.00014431,-8.5636e-05,-1.9538e-05,-0.00054458,8.0108e-07,-0.00011583,8.3489e-06,-4.9481e-05,-5.4103e-05,-7.6301e-05,-1.1775e-05,-5.899e-05,6.145e-05,5.2329e-05,-0.00014836,-5.2674e-05,-2.6486e-05,-0.1002,1.05e-05,8.0839e-05,-0.00016575,-2.8981e-05,-6.1547e-05,0.00010812,-0.00095385,0.00010684,-0.0001011,4.8771e-05,-4.4153e-05
-0.00010588,-0.00010835,-0.00017492,-3.8539e-06,8.2385e-05,4.1249e-05,-7.0582e-05,0.0001087,-0.00095508,-0.00012323,8.315e-05,5.5867e-05,0.00051585,1.5347e-05,0.00014385,-2.0804e-05,-1.69e-09,-5.5943e-05,-1.2267e-05,5.7461e-05,-0.00010162,3.8055e-05,-1.2274e-05,0.00012018,-2.7391e-05,-0.00010708,1.6012e-05,-9.0575e-05,-0.00022653,0.00010771,0.0011194,-0.00010099,-5.5708e-05,0.10468,-5.3568e-05,8.9239e-05,-0.00031352,3.0614e-05,-3.4498,-0.00045844,3.0277,0.00026347,0.87681,-7.3298e-05,-0.00018983,2.2294e-05,4.4571e-05,-0.00037029,-0.00028618,-1.7168e-05,0.00012092,-0.00014202,-5.8168e-05,0.00064087,0.00033359,0.00013717,0.00032978,-2.6445e-05,1.6403e-05,-0.00064122,2.1734e-05,-0.00016756,1.0025e-05,-5.4363e-05,-7.9176e-05,-0.00011232,-2.6652e-05,-7.5422e-05,0.0001077,0.00016141,-0.00019636,-7.6952e-05,-7.4601e-05,-0.067892,-6.571e-07,0.00021599,-0.00027419,-6.2327e-05,-0.00012428,0.00013675,-0.0013491,8.3584e-05,-0.0001849,0.0001078,-4.3883e-05
-0.00052873,-0.00061844,-0.00097134,-5.8503e-05,0.00032065,0.00020246,-0.00024724,0.00048005,-0.0063573,-0.00051181,0.00035211,0.00012287,0.0016019,4.2524e-05,0.0005578,-0.00014207,-7.048e-05,1.3092e-09,-3.4392e-05,0.00017022,-0.00034866,0.00015761,-4.6781e-05,0.00046886,-0.00016543,-0.00037245,0.00017023,-0.00053894,-0.0013447,0.00055185,0.0019427,-0.00050613,-0.00047157,0.0018361,-0.00018786,0.00027326,-0.0014773,1.7324e-05,-3.8058,-0.0028347,2.7232,0.0014189,0.080191,-0.00042264,-0.0011408,7.1074e-05,0.00032,-0.0021969,-0.0013645,0.00010181,0.00046167,-0.00060788,-0.00045575,0.0024755,0.0014118,0.00063426,0.0011774,-0.00015502,-2.0386e-05,-0.0021221,5.9162e-05,-0.00081184,4.5482e-05,-0.00024537,-0.00036865,-0.00058821,-0.00018072,-0.00046687,0.00069448,0.00063588,-0.00087783,-0.00039084,-0.00016557,-0.16209,0.00011186,0.00058762,-0.0011734,-0.00028489,-0.00054305,0.0007879,-0.0083774,0.00039183,-0.0013829,0.00030425,-0.00035856
-0.00090725,-0.0010714,-0.0013835,-0.00010484,0.00037832,0.0001208,-0.00053056,0.00059324,-0.0066803,-0.00078388,0.00067014,-5.3533e-06,0.0031067,2.0278e-05,0.00085802,-0.00025941,-0.00030667,-0.00040538,-1.8145e-09,0.00020804,-0.0004582,0.0001423,-0.00017301,0.00051782,-0.00025768,-0.00070452,4.0263e-05,-0.00082739,-0.0014298,0.00057121,0.0019088,-0.00091267,-0.00068534,0.0021037,-0.00036121,0.00042373,-0.001929,2.1407e-05,-2.895,-0.0040699,2.214,0.0012687,0.50736,-0.00073327,-0.0016997,0.00013084,0.00027023,-0.0031872,-0.0019951,-0.00020511,0.00056576,-0.0010667,-0.00036679,0.0037242,0.0019982,0.00070334,0.0016669,-0.0002347,-0.00032577,-0.0023843,-3.7778e-05,-0.0014172,-4.3572e-05,-0.0005798,-0.0006293,-0.00081856,-0.00041787,-0.0008435,0.00052986,0.0007869,-0.0013159,-0.00071486,-0.00034538,-0.065793,4.7629e-05,0.00094593,-0.001351,-0.00047388,-0.0010047,0.00099402,-0.011576,0.00040084,-0.0018772,0.00034072,-0.00054264
-0.00010223,-9.986e-05,-0.00017733,-4.3083e-06,6.4312e-05,1.6193e-05,-5.874e-05,0.00011614,-0.00095327,-0.00010643,7.4603e-05,2.7603e-06,0.00032677,2.1803e-05,0.00011014,-7.1435e-05,-2.02e-05,-5.7997e-05,-1.9578e-05,-1.3464e-09,-7.662e-05,3.4312e-05,-1.3007e-05,7.525e-05,-2.8636e-05,-8.8995e-05,2.0814e-05,-0.00012174,-0.0002229,8.5239e-05,0.00031222,-0.00011432,-0.00010052,0.00060731,-4.6437e-05,4.8487e-05,-0.00031466,6.2234e-06,-3.5821,-0.00050588,2.4505,0.00014595,0.36862,-9.6891e-05,-0.00018926,1.8957e-05,5.1078e-05,-0.00038295,-0.00029901,-7.8658e-06,8.5281e-05,-0.00012811,-5.6002e-05,0.00056212,0.00028818,0.00010584,0.00026553,-2.5658e-05,-7.8565e-07,-0.00035037,1.3328e-05,-0.00017914,1.2063e-06,-5.099e-05,-7.0996e-05,-0.00012176,-3.63e-05,-8.928e-05,9.6078e-05,0.0001442,-0.00018922,-6.8825e-05,-5.4533e-05,-0.050539,5.5647e-07,8.0087e-05,-0.00023268,-5.5216e-05,-9.9418e-05,0.00012419,-0.0016613,6.5339e-05,-0.00027454,5.8238e-05,-6.3856e-05
-0.00010879,-0.00012202,-0.00016602,-1.8982e-05,5.4572e-05,-3.2977e-06,-5.2778e-05,8.2894e-05,-0.037746,-8.6489e-05,6.7266e-05,2.654e-06,0.00032841,-4.176e-06,9.9945e-05,-5.3796e-05,-4.2112e-05,-4.9106e-05,-4.1563e-06,3.3719e-05,-9.0561e-10,2.9651e-05,-5.8392e-06,7.0884e-05,-3.0339e-05,-8.3355e-05,2.1333e-05,-9.7947e-05,-0.00020201,7.5561e-05,0.0002569,-8.8528e-05,-9.4978e-05,0.00050418,-3.0299e-05,3.6025e-05,-0.00026405,-2.4403e-06,-3.7166,-0.00057043,2.4448,0.00011359,0.23737,-8.1967e-05,-0.00019776,2.684e-05,4.7913e-05,-0.00042187,-0.00029697,-2.2705e-05,7.3591e-05,-0.00011512,-8.0811e-05,0.00047247,0.00025202,8.9026e-05,0.00022528,-3.6838e-05,-2.1823e-05,-0.00032324,7.9334e-06,-0.00018329,2.849e-06,-5.463e-05,-5.1026e-05,-9.8482e-05,-3.6477e-05,-9.1243e-05,9.9541e-05,8.7115e-05,-0.0001715,-8.1227e-05,-4.4857e-05,-0.098052,1.2409e-05,7.7223e-05,-0.00020585,-4.4423e-05,-0.00010352,0.00013374,-0.0066241,5.557e-05,-0.00021691,4.9824e-05,-6.6973e-05
-4.6132e-05,-5.2463e-05,-7.7165e-05,-9.9841e-06,2.887e-05,2.0698e-06,-2.956e-05,3.7867e-05,-0.00085285,-4.7708e-05,2.7538e-05,2.5977e-06,0.00015231,4.3389e-06,4.6893e-05,-2.5847e-05,-1.5323e-05,-2.6713e-05,-8.3414e-06,1.711e-05,-3.094e-05,-1.2432e-09,-5.2429e-06,2.7552e-05,-1.5959e-05,-3.9034e-05,7.8293e-06,-4.691e-05,-9.881e-05,3.696e-05,0.00011766,-5.1418e-05,-4.114e-05,0.00019923,-1.956e-05,1.3489e-05,-0.00012336,5.1962e-06,-3.754,-0.00022797,2.5628,7.0717e-05,0.39284,-3.7367e-05,-8.9323e-05,1.1002e-05,1.6587e-05,-0.00017395,-0.00013093,-3.1698e-06,3.7958e-05,-5.4882e-05,-4.4205e-05,0.00024261,0.00012708,4.821e-05,0.00011219,-1.4413e-05,-7.6584e-06,-0.00012757,4.9027e-07,-7.5362e-05,5.1664e-06,-2.4328e-05,-3.0151e-05,-5.241e-05,-2.1768e-05,-3.632e-05,4.1412e-05,5.6292e-05,-8.7261e-05,-3.2196e-05,-2.6908e-05,-0.064322,3.0724e-06,4.4965e-05,-0.00010391,-2.166e-05,-4.8055e-05,5.7923e-05,-0.0013058,2.3285e-05,-0.00011033,2.6393e-05,-2.7879e-05
-0.00023217,-0.00029628,-0.00042733,-5.9057e-05,0.0001505,5.4314e-05,-0.00012984,0.00020463,-0.008216,-0.00020577,0.00013718,2.5851e-05,0.0006775,-2.1079e-07,0.00023901,-8.6751e-05,-8.0368e-05,-0.00013334,-5.4967e-05,7.4336e-05,-0.00015824,6.2263e-05,-1.1075e-09,0.00012047,-8.3022e-05,-0.000207,5.0079e-05,-0.000225,-0.00049426,0.00023006,0.00061338,-0.00025836,-0.00020939,0.00077857,-7.5102e-05,8.1394e-05,-0.00061594,1.4362e-05,-3.712,-0.0012511,2.5197,0.00040461,0.27226,-0.00020865,-0.00044883,6.5398e-05,0.0001008,-0.00096377,-0.0006482,-3.8241e-05,0.00018212,-0.00026258,-0.00018662,0.0010077,0.00055959,0.00022706,0.00054812,-8.8147e-05,-3.4554e-05,-0.00087494,1.8169e-05,-0.00037348,3.7217e-05,-0.00014183,-0.00014572,-0.00025332,-0.00011429,-0.00018867,0.00018995,0.0002525,-0.00045264,-0.00019696,-0.00011794,-0.11186,5.446e-06,0.00023076,-0.00056093,-0.00011068,-0.00020284,0.00029574,-0.0075886,0.00014021,-0.00042726,0.00011801,-0.00015776
-0.00079671,-0.00074081,-0.0011774,0.00018175,0.00062635,0.00030185,-0.00032521,0.00069044,-0.0085307,-0.00081196,0.00064126,0.00014475,0.0061894,-8.027e-05,0.0007438,7.9692e-05,-0.00010039,-0.00033302,-9.8498e-05,0.00027485,-0.00053209,0.00014729,-0.00018795,-4.4101e-09,-0.00026929,-0.00060653,0.00025861,-0.00080952,-0.0014334,0.00047803,0.0028723,-0.00016298,-0.00069747,0.10844,-0.0002523,0.00029228,-0.0020185,-0.00011153,-2.9183,-0.0028744,3.0088,0.0013595,1.201,-0.00027391,-0.0014954,0.00014375,0.00043924,-0.0029521,-0.001627,0.000166,0.00070632,-0.00094586,-0.00044605,0.0038689,0.002048,0.00065748,0.0019377,1.3921e-05,-0.00011904,-0.0026729,0.00019539,-0.0014737,3.7847e-05,6.4198e-05,-7.1403e-05,-0.00084537,-0.00033048,-0.00073139,0.0012051,0.00055455,-0.0012338,-0.00069579,-0.0002262,-0.013242,0.0001286,0.00081759,-0.0015652,-0.00037869,-0.0007896,0.00099405,-0.0083353,0.00058421,-0.0016484,0.00044374,-0.00042305
-1.7843e-05,-1.9595e-05,-2.7598e-05,-3.5054e-06,7.4978e-06,1.4345e-06,-1.0207e-05,1.2131e-05,-0.00018622,-1.6104e-05,8.449e-06,1.9324e-06,4.9775e-05,1.754e-06,1.5855e-05,-9.8678e-06,-5.5584e-06,-1.0512e-05,-2.5019e-06,5.2389e-06,-1.1823e-05,3.2958e-06,-2.7624e-06,9.2584e-06,-1.5391e-09,-1.3249e-05,3.3529e-06,-1.4157e-05,-3.5871e-05,1.032e-05,4.944e-05,-1.8627e-05,-1.5225e-05,0.00010191,-5.409e-06,7.4114e-06,-3.9921e-05,3.6126e-06,-3.7646,-7.7558e-05,2.9405,3.8023e-05,0.29583,-1.3635e-05,-3.2747e-05,3.2227e-06,5.1597e-06,-6.7476e-05,-3.9639e-05,-2.8956e-06,1.2326e-05,-1.9161e-05,-1.0578e-05,6.3346e-05,3.5498e-05,1.528e-05,4.0797e-05,-6.6991e-06,-3.4985e-06,-6.1081e-05,4.6089e-07,-3.0473e-05,7.6973e-07,-8.7026e-06,-9.048e-06,-1.8189e-05,-8.52e-06,-1.4935e-05,1.2964e-05,1.5199e-05,-2.8173e-05,-1.3631e-05,-8.6754e-06,-0.078424,-7.328e-07,1.4507e-05,-3.8124e-05,-8.6505e-06,-1.7536e-05,1.7547e-05,-0.00022463,8.1101e-06,-2.9746e-05,7.6649e-06,-1.1331e-05
-0.00011991,-0.00013288,-0.00019661,-1.1443e-05,6.1861e-05,1.8081e-05,-6.5522e-05,9.7184e-05,-0.0023526,-0.00010439,6.551e-05,7.1492e-06,0.00033637,5.9986e-08,0.0001109,-6.2037e-05,-4.8035e-05,-5.7151e-05,-2.0069e-05,3.3305e-05,-8.5906e-05,2.4948e-05,-2.066e-05,7.2606e-05,-3.3667e-05,-1.3205e-09,2.0434e-05,-0.00011944,-0.00022099,0.00010584,0.00038147,-0.00011056,-0.00010378,0.00065402,-2.929e-05,3.404e-05,-0.00031171,-5.053e-08,-3.6741,-0.00050836,2.8142,0.00014611,0.50848,-9.4558e-05,-0.00021403,1.6941e-05,5.2714e-05,-0.00046244,-0.00029659,2.0097e-06,8.0567e-05,-0.00013132,-4.9546e-05,0.00046439,0.00025555,0.00010742,0.00024807,-2.5798e-05,-2.4877e-05,-0.00038429,9.8575e-06,-0.00021069,4.2176e-06,-5.591e-05,-6.1116e-05,-0.00012218,-5.6026e-05,-0.00010354,0.00010295,0.00012227,-0.00020971,-9.3472e-05,-5.3305e-05,-0.11735,1.3366e-06,9.8334e-05,-0.00023919,-6.1142e-05,-0.00012053,0.00013632,-0.0014898,6.6557e-05,-0.00023146,5.3292e-05,-7.3406e-05
-0.00018952,-0.00021759,-0.00035565,-3.2575e-05,0.00011687,5.4032e-05,-6.9952e-05,0.00014831,-0.010689,-0.00016446,0.00010378,-5.6275e-06,0.00060536,-7.364e-06,0.00018672,-3.9351e-05,-9.1466e-05,-9.8118e-05,-4.4945e-05,4.664e-05,-0.00013752,3.3673e-05,-2.5423e-05,0.00013702,-5.9952e-05,-0.00015575,-9.1455e-10,-0.00020251,-0.00038937,0.00014895,0.00045639,-0.00019995,-0.00019819,0.00056558,-5.9429e-05,5.9614e-05,-0.0004967,2.5238e-07,-3.7828,-0.00092875,2.5299,0.00034839,0.26023,-0.00016818,-0.00036908,4.8438e-05,7.6825e-05,-0.00077976,-0.00045704,-3.3974e-05,0.00012669,-0.00021022,-0.00014741,0.00086533,0.0004631,0.00017378,0.00042004,-5.9035e-05,-5.272e-05,-0.00054566,2.1923e-05,-0.00034013,1.2439e-05,-9.3938e-05,-9.7016e-05,-0.00020784,-5.8743e-05,-0.00017318,0.0001714,0.00016257,-0.00031707,-0.00016944,-8.2903e-05,-0.094993,1.1035e-07,0.00015516,-0.00044323,-8.1852e-05,-0.00018667,0.00022218,-0.011969,0.00012437,-0.00038731,0.00010536,-0.00012348
-6.2711e-05,-6.4248e-05,-8.2779e-05,-1.4127e-05,2.8023e-05,2.2424e-05,-3.771e-05,3.4572e-05,-0.00035065,-5.6329e-05,2.8145e-05,3.8518e-05,0.00015763,-3.9541e-06,5.289e-05,-1.096e-05,-1.3498e-05,-4.0557e-05,-1.0757e-05,7.4878e-06,-4.3315e-05,1.1856e-05,-9.0446e-06,2.9533e-05,-1.458e-05,-4.9389e-05,2.2477e-06,-4.9528e-09,-8.6857e-05,3.6003e-05,0.00016268,-4.7399e-05,-4.4874e-05,0.00025886,-2.3053e-05,6.6302e-05,-0.0001331,9.4511e-06,-3.5981,-0.00025002,5.2677,0.00010807,0.32119,-4.1096e-05,-9.5784e-05,8.526e-06,1.3834e-05,-0.00020334,-0.00013158,-2.5969e-05,3.1467e-05,-6.6564e-05,-6.5295e-06,0.00019316,0.00011067,4.4062e-05,0.00010739,-3.1231e-05,-1.6623e-05,-0.00019893,3.0089e-06,-0.00011112,-2.1384e-07,-3.3306e-05,-3.141e-05,-5.2107e-05,-4.207e-05,-5.1416e-05,4.2232e-05,4.9698e-05,-0.00011382,-5.3986e-05,-3.7939e-05,-0.003697,-1.3522e-06,6.6494e-05,-0.00011868,-2.6499e-05,-5.5471e-05,5.6428e-05,-0.0011841,2.2672e-05,-7.3688e-05,3.6347e-05,-3.2004e-05
-2.7628e-05,-3.2186e-05,-4.7143e-05,-4.8845e-06,1.2575e-05,-2.2096e-06,-1.7857e-05,1.4556e-05,-0.00041524,-2.6247e-05,1.2612e-05,4.4998e-06,8.3459e-05,-6.2821e-06,2.2831e-05,-1.2184e-05,-1.0894e-05,-2.0687e-05,-6.1764e-06,4.1725e-06,-2.1012e-05,3.4183e-06,-6.3377e-06,1.2816e-05,-1.1496e-05,-2.1714e-05,1.694e-06,-2.2056e-05,-3.6472e-09,1.1085e-05,9.5835e-05,-2.6945e-05,-1.5798e-05,8.8761e-05,-1.1011e-05,1.2592e-05,-7.0472e-05,2.3092e-06,-3.7533,-8.2114e-05,3.1141,1.7496e-05,0.87119,-1.7435e-05,-3.6988e-05,4.5696e-06,6.704e-06,-7.7522e-05,-7.2701e-05,-1.3442e-05,1.3904e-05,-3.1551e-05,-1.7196e-05,9.2102e-05,5.2138e-05,1.6987e-05,5.0542e-05,-5.2017e-06,-1.252e-05,-6.0089e-05,2.9192e-07,-4.7815e-05,1.0485e-06,-1.8202e-05,-1.6335e-05,-2.5013e-05,-1.6307e-05,-2.5794e-05,1.5582e-05,1.8961e-05,-4.6479e-05,-2.5785e-05,-1.6071e-05,-0.065443,-7.9696e-07,3.1462e-05,-5.4576e-05,-1.3247e-05,-2.6849e-05,2.5649e-05,-0.00036791,1.1913e-05,-4.8228e-05,1.1e-05,-1.3563e-05
-6.5556e-05,-7.015e-05,-9.943e-05,-2.5517e-05,3.7533e-05,4.6523e-06,-3.0365e-05,4.3089e-05,-0.00042218,-5.0175e-05,2.7251e-05,1.6927e-05,0.00017393,-3.9293e-06,5.7118e-05,-3.2019e-05,-2.9052e-05,-3.7126e-05,-1.5834e-05,1.0491e-05,-4.8363e-05,8.2199e-06,-6.3441e-06,2.6563e-05,-3.1106e-05,-4.6647e-05,1.072e-05,-6.1216e-05,-0.00014181,-5.2155e-09,0.00013459,-5.573e-05,-5.7237e-05,0.00021727,-1.8801e-05,1.9812e-05,-0.00015994,-8.8638e-06,-3.3218,-0.00030197,3.4351,7.3068e-05,0.60182,-4.8509e-05,-0.00011228,1.0631e-05,1.976e-05,-0.00025933,-0.00012734,-2.1003e-05,4.3317e-05,-7.9464e-05,-8.958e-06,0.00025782,0.00013443,5.4919e-05,0.00010018,-2.6967e-05,-2.1251e-05,-0.00029071,1.4076e-05,-0.0001113,2.6974e-06,-3.0992e-05,-5.1611e-05,-6.7929e-05,-1.1752e-05,-5.5698e-05,4.658e-05,5.6369e-05,-0.0001076,-5.4144e-05,-3.5239e-05,-0.0006022,-4.772e-06,4.7993e-05,-0.00013574,-2.8571e-05,-5.7927e-05,6.8474e-05,-0.0011908,2.7467e-05,-9.8952e-05,2.6563e-05,-4.7324e-05
-5.9039e-05,-5.7897e-05,-9.1182e-05,-4.0769e-06,3.6631e-05,3.8749e-05,-4.0585e-05,4.0501e-05,-0.00037091,-5.7483e-05,2.7491e-05,2.687e-05,0.00022959,-5.2515e-06,4.4042e-05,-8.1779e-06,6.5458e-06,-3.4007e-05,-1.5335e-05,1.141e-05,-4.864e-05,7.7944e-06,-1.154e-05,4.2109e-05,-1.6028e-05,-4.5124e-05,4.9379e-06,-4.5144e-05,-8.6551e-05,4.6999e-05,-2.5186e-09,-6.7947e-05,-1.7624e-05,0.0663,-2.149e-05,2.3656e-05,-0.00014453,1.7185e-05,-3.2192,-0.0002064,2.936,0.0001134,0.3562,-2.9226e-05,-8.8812e-05,5.3407e-06,1.7035e-05,-0.00019813,-0.00018084,8.1154e-06,4.2835e-05,-7.7524e-05,-7.3333e-07,0.00024639,0.00012496,6.6214e-05,0.00016801,-1.1913e-05,-3.2132e-06,-0.00032427,1.8352e-06,-9.7098e-05,5.5606e-06,-3.5787e-05,-2.5934e-05,-4.8692e-05,-2.9081e-05,-4.6317e-05,5.2778e-05,7.2528e-05,-0.00011348,-5.431e-05,-3.2133e-05,-0.0005625,-2.0809e-06,9.3774e-05,-0.00011397,-2.9376e-05,-6.6009e-05,5.8601e-05,-0.00048385,3.6271e-05,-7.4107e-05,6.4342e-05,-2.7358e-05
-0.00019774,-0.00023722,-0.00029797,-3.374e-06,0.00011861,0.00012646,-9.9937e-05,0.000125,-0.0037363,-0.00018427,0.00011344,5.3998e-05,0.0007361,-2.6601e-05,0.00020761,-2.0974e-05,-2.9584e-05,-0.00010987,-4.3089e-05,6.032e-05,-0.00012888,4.3553e-05,-3.5397e-05,0.00039631,-8.1519e-05,-0.00016101,3.5594e-05,-0.00015782,-0.00037386,0.00023212,0.00050652,-4.8652e-09,-0.00019347,0.0012782,-5.187e-05,0.00013913,-0.00053706,-2.5537e-05,-2.7685,-0.00092147,3.2115,0.00065087,1.0121,-8.7134e-05,-0.00048455,5.9628e-05,8.9225e-05,-0.00084192,-0.00035113,6.8094e-05,0.00017784,-0.00024442,-6.9881e-05,0.0010571,0.00050208,0.0001999,0.00041444,-9.3464e-05,-4.0407e-05,-0.00092242,4.6205e-05,-0.00036192,2.3511e-05,-6.7865e-06,-7.948e-05,-0.00021142,-8.6638e-05,-0.00015907,0.00026254,0.0001654,-0.00034112,-0.00019552,-0.0001021,-0.0030435,2.0779e-05,0.00023766,-0.00048849,-0.00010455,-0.00018554,0.00024676,-0.0020922,0.00012262,-0.00043383,0.00013598,-0.00012851
-1.0434e-05,-1.125e-05,-1.5911e-05,-1.55e-06,6.0466e-06,5.6984e-06,-6.3026e-06,7.9468e-06,-7.0054e-05,-9.9894e-06,6.4485e-06,2.6594e-06,3.9593e-05,-4.136e-07,1.0372e-05,-5.6467e-07,-1.0349e-07,-6.522e-06,-1.9395e-06,2.6072e-06,-8.1138e-06,2.5997e-06,-1.3785e-06,6.4333e-06,-3.3449e-06,-8.7767e-06,8.0769e-07,-8.0899e-06,-1.3497e-05,8.5378e-06,8.2745e-05,-1.169e-05,-3.0257e-09,7.4643e-05,-3.6671e-06,4.6496e-06,-2.8275e-05,1.8226e-06,-3.4037,-3.8288e-05,3.1673,2.2727e-05,0.30407,-5.5788e-06,-1.5874e-05,1.2553e-06,3.0065e-06,-3.4348e-05,-2.5706e-05,-5.6811e-07,8.0142e-06,-1.3122e-05,-5.5901e-06,4.6764e-05,2.4275e-05,1.0136e-05,2.215e-05,-1.8571e-06,-1.4911e-06,-3.6193e-05,6.7844e-07,-1.7349e-05,1.1016e-06,-6.9056e-06,-8.0706e-06,-1.0498e-05,-5.2055e-06,-8.1537e-06,8.1354e-06,1.2109e-05,-2.0755e-05,-8.1396e-06,-5.5726e-06,-0.00018474,3.2115e-07,1.4067e-05,-2.0634e-05,-5.3684e-06,-1.1082e-05,1.1618e-05,-0.0001377,5.7732e-06,-1.5883e-05,9.1277e-06,-3.4295e-06
-0.00011093,-0.00012849,-0.00015988,1.3686e-05,7.908e-05,4.9407e-05,-5.4594e-05,8.016e-05,-0.00067749,-0.00011653,6.6435e-05,3.1169e-05,0.00044828,-1.9179e-05,7.8783e-05,-3.1841e-05,9.5098e-06,-7.8371e-05,-3.5554e-05,5.2665e-05,-7.1122e-05,2.6232e-05,-3.5437e-05,0.0002655,-3.188e-05,-6.7613e-05,1.7413e-05,-8.5564e-05,-0.00015935,6.1068e-05,0.00082719,-6.8371e-05,-7.4044e-05,-5.1114e-09,-3.4325e-05,-4.58e-06,-0.00029665,-2.8339e-05,-2.5966,-0.00037093,3.748,0.00012711,0.51516,-4.5278e-05,-0.00017215,1.7656e-05,3.1766e-05,-0.00035508,-0.00028945,2.1311e-05,7.6402e-05,-0.0001311,9.7458e-05,0.00034575,0.00023205,8.5277e-05,0.00024739,-3.7371e-06,-3.4822e-05,-0.00032659,2.9111e-05,-0.00020419,5.9081e-06,2.3109e-05,-5.2475e-07,-0.00013999,-9.0996e-05,-0.00011363,0.00012158,0.00011778,-0.00016693,-0.00011655,-4.6965e-05,-0.13122,1.2615e-05,9.4232e-05,-0.00019537,-5.7271e-05,-0.00010962,0.00011966,-0.0008284,3.9491e-05,4.8221e-05,6.761e-05,-6.581e-05
-6.7386e-05,-7.6207e-05,-0.00011867,-9.0259e-06,3.7343e-05,2.6378e-05,-3.5003e-05,6.202e-05,-0.0009076,-3.8308e-05,4.1716e-05,3.0734e-06,0.00021596,-3.4599e-06,7.6195e-05,-3.0196e-05,-2.5361e-05,-3.518e-05,-7.116e-06,1.9533e-05,-4.4667e-05,1.5648e-05,-4.6393e-06,4.297e-05,-1.6561e-05,-4.6507e-05,1.6233e-05,-6.176e-05,-0.00012817,6.2315e-05,0.00017414,-5.1855e-05,-5.3874e-05,0.00021943,-1.3182e-09,2.7767e-05,-0.00016174,3.3229e-06,-4.0285,-0.00031692,2.4599,0.00011972,0.32001,-4.8618e-05,-0.0001203,2.0769e-05,3.0415e-05,-0.00039386,-0.00015664,1.3819e-06,4.5843e-05,-7.0241e-05,-2.1301e-05,0.00030251,0.0001552,6.731e-05,0.00013597,-6.4993e-06,-1.5608e-05,-0.00019018,9.4443e-06,-0.00012567,8.7349e-06,-2.6821e-05,-3.2311e-05,-6.8321e-05,-2.8433e-05,-5.9004e-05,6.1872e-05,7.2301e-05,-0.00010669,-6.3096e-05,-3.0274e-05,-0.12036,2.7394e-06,6.437e-05,-0.00013062,-3.0816e-05,-5.8417e-05,7.9653e-05,-0.0022364,3.6388e-05,-0.00012158,3.1258e-05,-3.7489e-05
-0.00023218,-0.00021366,-0.00035361,-1.4476e-05,0.00012053,4.4057e-05,-0.00013656,0.00015431,-0.0014523,-0.00020967,0.00013455,0.00012743,0.00081018,7.2823e-06,0.00026134,-0.0001369,-2.7821e-05,-0.00012715,1.5461e-06,7.5555e-05,-0.00017891,3.6745e-05,-4.028e-05,0.00013318,-5.1055e-05,-0.00019345,3.9224e-05,-5.2783e-05,-0.00031099,0.00019379,0.00062052,-0.00016235,-0.00018736,0.00037974,-8.7217e-05,-3.9717e-09,-0.00060751,4.9759e-05,-3.4255,-0.00096765,4.8344,0.00037188,0.26603,-0.0001515,-0.00044629,3.6602e-05,6.8164e-05,-0.00083516,-0.00038569,-5.9281e-05,0.000129,-0.00023983,-9.8591e-05,0.0011536,0.0006018,0.00018507,0.00049004,-3.8416e-05,-4.8268e-05,-0.0012194,1.3333e-05,-0.00040776,1.5964e-06,-0.00011065,-0.00011138,-0.00023497,-8.4677e-05,-0.00024224,0.00021033,0.0002029,-0.00039015,-0.00020596,-0.00013776,-0.0069183,8.5471e-06,0.00026327,-0.00045468,-0.00011121,-0.00018985,0.00024302,-0.0026278,8.5233e-05,-0.00043385,7.4095e-05,-0.0001037
-0.00043144,-0.00053929,-0.000811,-0.00010694,0.0002686,0.00015464,-0.00025013,0.00034744,-0.0047376,-0.00037418,0.00024237,6.8246e-05,0.0017508,-1.5418e-05,0.00046187,5.1275e-05,-0.00013758,-0.00026436,3.9755e-07,6.6605e-05,-0.00031219,0.00010569,-3.8202e-05,0.00026535,-9.2894e-05,-0.00037228,9.0314e-05,-0.00030883,-0.00083738,0.00041417,0.0014253,-0.00043602,-0.00039372,0.0022487,-0.00013139,0.00014465,-1.3536e-09,6.9196e-05,-3.5131,-0.0022356,2.7653,0.0008865,0.2908,-0.00036927,-0.00071492,0.00014773,0.00015484,-0.0017363,-0.0011334,-5.7746e-05,0.00032632,-0.00049465,-0.00012767,0.0020285,0.0010437,0.00044057,0.00098277,-0.0002044,-0.00010912,-0.0011815,2.3456e-05,-0.00078344,5.0231e-05,-0.00017225,-0.00017006,-0.00041324,-0.00019054,-0.00031356,0.0003516,0.00038752,-0.00076759,-0.00034471,-0.00019086,-0.11958,2.4748e-05,0.00057294,-0.00085225,-0.00018421,-0.0004871,0.00050554,-0.0083531,0.00024673,-0.0006011,0.00025583,-0.00030993
-0.00015108,-0.00014144,-0.00022239,8.4202e-06,8.1269e-05,3.0624e-05,-0.00010067,9.8194e-05,-0.0019839,-0.00013949,8.4e-05,3.7428e-05,0.00060247,1.9956e-05,0.00016193,-8.4312e-05,-2.1781e-05,-9.7089e-05,-1.7048e-05,4.0363e-05,-0.00013603,4.1501e-05,-2.3604e-05,5.762e-05,-1.6641e-05,-0.00012697,2.1625e-05,-0.0001087,-0.00023673,7.521e-05,0.00067453,-0.00019152,-0.00010507,0.000377,-6.5696e-05,9.3789e-05,-0.0003379,-2.6189e-09,-3.0238,-0.00060633,2.9061,0.00025557,0.486,-0.00011997,-0.00025081,1.2366e-05,3.5249e-05,-0.00050718,-0.0003392,-4.1881e-05,0.0001144,-0.00017219,-6.2307e-05,0.00060676,0.00033927,0.00012293,0.00035909,-9.5642e-07,-2.164e-05,-0.00041363,1.2011e-06,-0.00022112,-1.153e-06,-6.1534e-05,-6.4223e-05,-0.0001557,-8.4646e-05,-9.4747e-05,9.0915e-05,0.00015282,-0.0002624,-0.00010649,-9.7582e-05,-0.1585,-5.8116e-06,0.00019797,-0.000304,-7.8629e-05,-0.00015144,0.00015555,-0.0019994,7.3386e-05,-0.00026935,0.00011774,-8.2764e-05
-2.9567e-05,-2.8219e-05,-4.7309e-05,3.5317e-06,1.4149e-05,2.8898e-06,-1.917e-05,2.3185e-05,-0.00040589,-2.388e-05,1.663e-05,2.1014e-06,0.00010968,-9.7836e-07,3.3167e-05,-1.8866e-05,-9.5493e-06,-1.6791e-05,-5.9913e-06,6.9127e-06,-2.3832e-05,3.9518e-06,-6.2241e-06,1.8714e-05,-8.4382e-06,-2.4251e-05,4.5215e-06,-2.8065e-05,-5.7767e-05,2.3029e-05,7.2309e-05,-2.7934e-05,-2.6737e-05,0.0001005,-1.1771e-05,1.2095e-05,-7.3009e-05,3.9713e-06,-4.3184e-09,-0.00015479,2.4403,4.7414e-05,0.31961,-1.6577e-05,-5.4506e-05,3.2478e-06,8.3141e-06,-0.00011825,-6.6863e-05,-7.512e-06,1.8202e-05,-3.044e-05,-1.8503e-05,0.00010884,6.0923e-05,2.3655e-05,5.2794e-05,2.6396e-06,-6.8784e-06,-7.2099e-05,2.3667e-06,-4.8264e-05,-8.5139e-07,-1.0329e-05,-1.7376e-05,-3.1327e-05,-1.4024e-05,-2.516e-05,1.9769e-05,2.7263e-05,-5.477e-05,-2.3209e-05,-1.63e-05,-0.059361,2.4102e-07,3.0894e-05,-5.4215e-05,-1.555e-05,-3.0201e-05,2.886e-05,-0.00035303,1.3374e-05,-5.749e-05,1.3544e-05,-2.0368e-05
-0.0010347,-0.001125,-0.0016679,7.2631e-06,0.00067445,0.00032874,-0.00061692,0.00073027,-0.010589,-0.0010376,0.00058657,0.00024426,0.0043206,2.7073e-05,0.00099509,-0.00053545,-0.00012437,-0.00080961,-0.00026774,0.00033708,-0.00089175,0.00024718,-0.00021717,0.00093661,-0.00028882,-0.00077899,0.00012306,-0.00086739,-0.0010959,0.00058381,0.0054174,-0.00098715,-0.00059136,0.0089441,-0.00036352,0.00041176,-0.0029838,0.00019703,-3.7516,-1.3752e-09,2.985,0.0012554,0.47778,-0.0005485,-0.0014701,0.0001992,0.00031223,-0.0026486,-0.0025621,-7.1471e-05,0.00084434,-0.001278,-0.00057281,0.0046047,0.0024663,0.00093031,0.002408,-8.2228e-05,-0.00011564,-0.0036203,0.0001305,-0.0017609,5.5696e-05,-0.00046921,-0.00054489,-0.0010965,-0.00055929,-0.00086038,0.00093133,0.0010644,-0.0017701,-0.00079139,-0.00054065,-0.022513,-7.5532e-05,0.0011913,-0.0024185,-0.00058348,-0.0011071,0.0010709,-0.010587,0.00053998,-0.0018715,0.00076272,-0.00026196
-7.9743e-06,-8.7186e-06,-1.2569e-05,-1.4136e-06,4.7512e-06,6.7828e-06,-4.7713e-06,5.1059e-06,-2.9433e-05,-7.7472e-06,3.85e-06,3.1097e-05,2.9353e-05,2.8017e-07,5.8466e-06,9.388e-07,1.0615e-06,-3.4586e-06,-2.836e-06,1.503e-06,-7.3291e-06,1.5149e-06,-1.0132e-06,8.5466e-06,-4.8699e-07,-5.4556e-06,8.9061e-07,1.3108e-05,-6.5136e-06,1.807e-05,6.0244e-05,-3.8952e-06,-1.3263e-06,0.00013191,-3.2967e-06,2.7869e-05,-1.8519e-05,3.1783e-06,-2.5503,-2.4603e-05,-3.4745e-09,0.86804,1.016,-2.0263e-06,-1.0778e-05,4.1519e-07,2.7824e-06,-2.2184e-05,-1.6015e-05,-1.6526e-07,8.427e-06,-9.3121e-06,1.2929e-06,1.9571e-05,1.1192e-05,5.6073e-06,6.064e-05,3.2005e-06,-9.7131e-07,-2.211e-05,1.311e-06,-1.0975e-05,2.3363e-06,-9.9434e-07,-1.4912e-06,-6.6314e-06,-4.8295e-06,-4.6927e-06,1.1582e-05,1.0736e-05,-1.1324e-05,-6.9813e-06,-3.4803e-06,-2.2763e-05,9.2367e-07,1.2807e-05,-1.4604e-05,-4.1194e-06,-9.2652e-06,9.6359e-06,-8.4017e-05,1.8709e-06,-6.8206e-06,4.9806e-06,-2.047e-06
-4.6529e-05,-4.8516e-05,-7.1508e-05,-8.6301e-08,1.256e-05,4.7819e-05,-2.5987e-05,2.4519e-05,-0.00021059,-4.126e-05,1.4258e-05,1.9349e-05,0.00019434,4.3009e-06,3.1413e-05,-8.7372e-06,-1.1191e-05,-1.7073e-05,-1.3001e-05,5.9475e-06,-4.4932e-05,4.4542e-06,-8.1484e-06,3.6596e-05,-8.9939e-06,-3.8435e-05,1.3433e-05,-2.9634e-05,-0.0001595,2.48e-05,8.2024e-05,-3.9823e-05,-2.6393e-05,0.0001239,-1.8806e-05,1.7296e-05,-8.6824e-05,6.1713e-07,-2.8308,-0.0002313,3.914,-4.8012e-09,0.23244,-1.2177e-05,-0.00010073,-4.6146e-06,1.2701e-06,-0.00017379,-6.114e-05,2.7152e-05,3.3784e-05,-4.7466e-05,-1.2413e-05,0.00011297,7.3321e-05,3.5429e-05,8.9829e-05,-7.739e-06,-1.4499e-05,-8.2645e-05,1.9391e-05,-6.6813e-05,-1.6579e-06,-3.9768e-06,-1.2459e-05,-5.2774e-05,-3.45e-05,-3.2057e-05,6.146e-05,4.6338e-05,-9.6899e-05,-3.521e-05,-2.2369e-05,-0.047784,-4.7108e-06,5.258e-05,-0.0001221,-2.8762e-05,-3.9139e-05,3.5631e-05,-0.0037385,2.0218e-05,-5.3411e-05,2.7346e-05,-3.5697e-05
-8.6333e-05,-6.2071e-05,-8.256e-05,2.6502e-05,5.7423e-05,0.00014054,-6.1071e-05,4.7508e-05,-9.2969e-05,-9.5467e-05,5.1768e-05,3.5558e-05,0.00046954,2.43e-05,7.3254e-05,2.8811e-05,1.705e-05,-5.4253e-05,-6.9334e-06,4.0225e-05,-0.0001001,2.2602e-05,-2.2499e-05,0.00013121,-1.6425e-05,-8.4717e-05,5.5819e-06,-6.3804e-05,-0.00015001,0.00028428,0.00038944,-2.4233e-05,-4.5033e-05,0.00051281,-5.6484e-05,3.0685e-05,-0.00020635,2.8554e-05,-3.6414,-0.00045213,2.1667,0.00054133,-1.6737e-09,-4.097e-05,-7.5476e-05,2.157e-05,3.2055e-05,-0.00019307,-0.00014146,0.00012665,7.5661e-05,-0.00015797,0.50748,0.00041387,0.0002192,9.7641e-05,0.00013828,-3.1288e-05,1.2775e-05,-0.00039913,2.148e-05,-0.00015171,3.9516e-05,5.2934e-06,-7.0558e-05,-0.00010383,-5.2584e-05,-3.6231e-05,0.00011828,7.9309e-05,-0.00022185,-7.071e-05,-5.2914e-05,-0.00016966,-4.5914e-06,0.00015646,-0.00017796,-5.3305e-05,-0.0001084,0.0001062,-0.00095747,9.0555e-05,-0.00011186,0.0001154,-3.4458e-05
-1.9802e-05,-1.9139e-05,-2.5492e-05,1.0645e-06,9.7005e-06,4.4213e-06,-1.3196e-05,1.2506e-05,-0.00013979,-1.8086e-05,8.3513e-06,4.0124e-06,6.8708e-05,-4.1087e-06,1.8001e-05,-7.2493e-06,-5.1212e-06,-1.2048e-05,-5.4645e-06,2.2931e-06,-1.5592e-05,3.2599e-06,-5.0154e-06,1.6861e-05,-6.8084e-06,-1.6688e-05,8.4057e-07,-1.8017e-05,-3.2768e-05,1.1293e-05,6.5874e-05,-1.3994e-05,-1.3917e-05,7.8848e-05,-7.6367e-06,6.8287e-06,-5.5776e-05,-9.4963e-07,-3.2105,-7.5384e-05,3.0692,3.5564e-05,0.4896,-3.3955e-09,-3.5748e-05,2.2621e-06,4.757e-06,-6.32e-05,-4.3933e-05,1.6305e-07,1.1502e-05,-2.0896e-05,-6.7869e-06,7.1841e-05,4.0416e-05,1.4161e-05,3.5693e-05,-1.6219e-06,-5.2942e-06,-8.2062e-05,8.233e-07,-3.3249e-05,1.3864e-06,-6.3775e-06,-1.1007e-05,-1.705e-05,-8.4729e-06,-1.537e-05,1.5403e-05,1.8237e-05,-3.1725e-05,-1.5656e-05,-9.8675e-06,-0.10477,-2.7416e-07,2.3883e-05,-3.29e-05,-1.0701e-05,-2.1358e-05,1.8262e-05,-0.00019887,6.8663e-06,-3.1378e-05,9.6332e-06,-1.1469e-05
-8.2998e-05,-8.0298e-05,-0.00013641,-1.7027e-05,4.402e-05,-1.1168e-05,-4.8972e-05,6.2907e-05,-0.012917,-7.5036e-05,4.6643e-05,1.4294e-05,0.00028235,-8.6495e-06,7.7165e-05,-3.7283e-05,-1.4927e-05,-5.1206e-05,-1.9457e-05,2.7958e-05,-6.5822e-05,1.9754e-05,-1.3534e-05,4.7535e-05,-2.9627e-05,-6.8122e-05,1.0579e-05,-7.2575e-05,-0.00011317,6.416e-05,0.00028524,-0.00010379,-5.6106e-05,0.00038718,-3.5616e-05,1.8785e-05,-0.00020185,8.6612e-06,-3.6218,-0.00031057,2.6531,6.7781e-05,0.99091,-5.997e-05,-1.6279e-09,1.826e-05,2.8449e-05,-0.00021287,-0.00024226,-2.9883e-05,5.2394e-05,-9.5182e-05,-6.7197e-05,0.00033217,0.00017744,6.4813e-05,0.00019489,-2.3683e-05,-1.4712e-05,-0.00024973,5.1545e-06,-0.00013629,8.2785e-06,-4.5803e-05,-5.6211e-05,-8.3012e-05,-3.4548e-05,-6.3684e-05,5.5816e-05,8.1294e-05,-0.00014091,-6.0471e-05,-4.614e-05,-0.089468,-2.5859e-06,8.487e-05,-0.00017948,-3.495e-05,-8.9505e-05,8.6875e-05,-0.001498,5.38e-05,-0.0001571,4.3e-05,-5.0666e-05
-0.00056103,-0.00065457,-0.0010086,-0.00012128,0.00034376,3.5555e-05,-0.00032313,0.00046436,-0.014024,-0.00043093,0.00027451,-7.7021e-06,0.0016596,1.0805e-05,0.00057332,-0.00020441,-0.00024988,-0.00032754,-0.00010228,0.00014207,-0.00035711,0.00014178,-3.2313e-05,0.00032263,-0.0001696,-0.00047603,0.00016397,-0.00053242,-0.00099199,0.00048827,0.0013818,-0.00050465,-0.00054529,0.0020879,-0.0001283,0.00019143,-0.0012926,-2.5223e-05,-3.7431,-0.0026608,2.2997,0.00055627,0.38709,-0.00042833,-0.00099168,-2.0799e-09,0.00024159,-0.0022768,-0.0013672,-0.00010416,0.00038869,-0.0006313,-0.00018967,0.0032066,0.0015034,0.00053278,0.0012242,-0.00021635,-0.00013615,-0.0016345,0.00011585,-0.001038,0.00017789,-0.00038387,-0.00041359,-0.00057453,-0.00019589,-0.00044524,0.00052836,0.00057137,-0.00093044,-0.00046106,-0.00024679,-0.092721,1.3723e-05,0.00042968,-0.0012813,-0.00014822,-0.00053905,0.00066133,-0.010715,0.0003487,-0.0010115,0.00025327,-0.00033612
-0.00048961,-0.00053896,-0.00088129,-2.0763e-05,0.00031288,0.00017145,-0.00025891,0.0004477,-0.0046618,-0.00040159,0.0003403,7.8069e-05,0.0015302,-5.1246e-06,0.00055917,-0.00011599,-0.00019039,-0.00015098,-6.0872e-05,0.00019072,-0.00029916,0.0001076,-3.9545e-05,0.00041787,-0.00017006,-0.0003501,0.00013386,-0.00049257,-0.00093824,0.0004333,0.0013718,-0.0004511,-0.0004618,0.0020447,-0.00013552,0.00017957,-0.0012953,-1.8009e-05,-3.828,-0.0023488,2.5574,0.00053326,0.49807,-0.00038836,-0.00088594,0.00012361,-1.0061e-09,-0.0020233,-0.0012209,-6.5366e-05,0.00036279,-0.00053716,-0.00016261,0.0025134,0.0013075,0.00047763,0.001322,-0.00012898,-0.00010699,-0.00155,6.3023e-05,-0.00085588,3.3269e-05,-0.00020848,-0.00022307,-0.00045058,-0.00020266,-0.0004463,0.00048496,0.00046843,-0.00078763,-0.00041683,-0.00011352,-0.11232,0.00010411,0.000451,-0.00096848,-0.00021483,-0.00047474,0.00071623,-0.0065349,0.00039064,-0.00099207,0.0002774,-0.00031239
-2.4035e-05,-2.3896e-05,-3.571e-05,2.3453e-06,1.4924e-05,1.8979e-06,-1.5889e-05,1.4562e-05,-0.0002994,-2.9668e-05,1.5101e-05,5.8943e-06,0.00010069,2.0593e-06,2.2846e-05,-1.1546e-05,3.6355e-07,-1.7608e-05,-7.1035e-06,9.3968e-06,-2.1518e-05,8.9251e-06,-5.536e-06,1.8204e-05,-8.5997e-06,-2.1861e-05,1.5139e-06,-2.0511e-05,-3.1259e-05,1.2131e-05,0.00010215,-2.9198e-05,-1.6493e-05,0.00018379,-1.5493e-05,7.9226e-06,-7.2631e-05,4.087e-06,-3.5813,-7.2293e-05,3.0443,3.0438e-05,0.80895,-1.2138e-05,-2.915e-05,5.6317e-06,6.9516e-06,-1.525e-09,-6.8709e-05,-6.5515e-06,1.9543e-05,-3.0174e-05,-1.3964e-05,0.00012223,6.7294e-05,2.1469e-05,5.9574e-05,-4.7415e-06,-2.9131e-06,-6.0527e-05,2.2883e-06,-3.7555e-05,3.4341e-06,-1.3442e-05,-1.6552e-05,-2.7836e-05,-1.0949e-05,-1.6424e-05,1.99e-05,2.8381e-05,-4.5525e-05,-1.7086e-05,-1.6058e-05,-0.12965,-2.367e-06,3.1117e-05,-5.6128e-05,-1.3199e-05,-2.9941e-05,2.5917e-05,-0.00026118,1.5111e-05,-4.879e-05,2.014e-05,-7.6948e-06
-0.00019039,-0.00015296,-0.00030892,1.4698e-05,0.00012024,0.0001986,-0.00011954,0.00013882,-0.0010245,-0.00020156,9.9666e-05,8.4421e-05,0.00094149,2.7505e-06,0.0002331,-0.00010093,-2.9818e-05,-0.00010919,-1.7475e-05,4.4736e-05,-0.00019727,4.2399e-05,-4.9532e-05,0.00024322,-3.3231e-05,-0.00016948,7.1585e-05,-0.00016265,-0.00039582,0.00026319,0.00039563,-7.1411e-05,-0.00018159,0.00070267,-7.5827e-05,0.00022939,-0.00051616,2.525e-05,-2.6337,-0.00081116,3.0027,0.00070949,0.65828,-0.00010142,-0.00045353,4.114e-05,8.6811e-05,-0.00078242,-2.0447e-09,-1.4488e-05,0.00015807,-0.00023382,-1.0507e-05,0.00079177,0.00048407,0.00015564,0.00038844,2.0379e-05,-5.1231e-05,-0.00098645,7.8561e-05,-0.00033774,5.4399e-06,-9.1904e-06,-0.00013122,-0.00021684,-5.5583e-05,-0.00020472,0.00025273,0.00024177,-0.00029706,-0.00015175,-0.00012154,-0.0020944,2.3207e-05,0.00023154,-0.00049372,-0.00010264,-0.00017662,0.00025225,-0.0013517,0.00010584,-0.00044021,0.00017162,-0.00011731
-1.6115e-05,-2.008e-05,-2.9506e-05,-1.2805e-06,1.3284e-05,2.0084e-05,-7.5462e-06,1.7019e-05,-0.00012798,-1.6821e-05,9.0238e-06,3.3047e-06,7.5534e-05,-1.0984e-06,1.4144e-05,-3.1529e-06,-4.1752e-06,-7.4932e-06,-1.8076e-06,6.5164e-06,-1.2964e-05,5.3059e-06,-1.7349e-06,1.9134e-05,-5.626e-06,-1.1401e-05,3.4616e-06,-1.7307e-05,-4.068e-05,1.3089e-05,8.0322e-05,-9.2879e-06,-1.2787e-05,0.00023373,-5.6752e-06,6.7652e-06,-4.1033e-05,6.4155e-07,-2.5167,-6.8527e-05,2.6131,0.00013423,1.0402,-7.1729e-06,-3.4873e-05,2.5496e-06,6.8939e-06,-6.0059e-05,-3.7833e-05,-2.4732e-09,1.6751e-05,-2.1026e-05,-1.3458e-07,8.8292e-05,4.2992e-05,1.7846e-05,3.4061e-05,-3.0953e-06,2.2879e-07,-5.7679e-05,3.1181e-06,-2.6322e-05,3.1675e-06,-5.1288e-06,-9.8409e-06,-1.6937e-05,-1.1353e-05,-1.1144e-05,3.0284e-05,2.0639e-05,-3.4781e-05,-1.4023e-05,-6.6028e-06,-0.00011387,1.7376e-06,1.5531e-05,-3.7699e-05,-1.0403e-05,-1.4392e-05,2.0635e-05,-0.00020087,9.7335e-06,-3.2582e-05,1.1164e-05,-8.8454e-06
-0.00014799,-0.00016865,-0.00027353,-8.2955e-06,9.6289e-05,2.7289e-05,-0.00010031,0.00013345,-0.0058691,-0.00014586,7.7488e-05,2.8035e-05,0.00059608,2.2917e-05,0.00015385,-5.2439e-05,-2.4612e-05,-7.708e-05,-3.6066e-05,5.2576e-05,-0.00010671,4.4514e-05,-1.843e-05,0.00011626,-3.5431e-05,-0.00012587,2.9404e-05,-0.00017245,-0.00035673,0.00013813,0.00048698,-0.00014779,-0.00013738,0.00066461,-6.8778e-05,4.231e-05,-0.00039888,2.5201e-05,-3.7001,-0.00072641,2.8365,0.00030665,0.4787,-0.00011713,-0.00032245,2.4161e-05,5.7507e-05,-0.00060555,-0.00037512,-2.0081e-06,-1.428e-09,-0.00017226,-9.6037e-05,0.00065495,0.00037742,0.00018239,0.0003047,-3.6439e-05,-7.9042e-06,-0.00055542,1.4465e-05,-0.00023632,1.5035e-05,-7.2293e-05,-0.00010654,-0.0001575,-5.2777e-05,-8.8854e-05,0.00012925,0.0001775,-0.00030723,-0.00011383,-8.124e-05,-0.058754,2.5623e-06,0.00016229,-0.00038398,-8.4033e-05,-0.0001636,0.00017917,-0.0032642,8.5839e-05,-0.00033744,0.00013044,-9.4652e-05
-0.00014003,-0.00014462,-0.000252,-2.8947e-05,7.9087e-05,1.5111e-05,-8.163e-05,0.00013132,-0.01184,-0.00011568,6.9424e-05,6.7953e-06,0.00043024,-2.7801e-07,0.00014149,-6.8264e-05,-4.9982e-05,-7.5227e-05,-3.6271e-05,3.6697e-05,-0.00010353,3.1037e-05,-1.1315e-05,8.2153e-05,-4.405e-05,-0.00011529,3.4073e-05,-0.00013931,-0.00027475,0.00010486,0.00034209,-0.00014658,-0.00014192,0.00048682,-4.2755e-05,6.1181e-05,-0.00036779,3.1809e-06,-3.7571,-0.00072204,2.5343,0.00021239,0.23287,-0.00010336,-0.00026723,2.856e-05,5.8336e-05,-0.00056372,-0.00037159,-3.3443e-05,0.00010232,-7.8658e-10,-0.00012614,0.00058539,0.00032227,0.00013442,0.00030286,-2.7056e-05,-1.4241e-05,-0.00043546,1.7255e-05,-0.00023304,3.5342e-06,-7.095e-05,-8.8487e-05,-0.00015248,-6.1887e-05,-0.00012134,0.0001182,0.00013843,-0.00024764,-0.00012149,-7.0648e-05,-0.2203,3.7421e-06,0.00012556,-0.00032416,-6.5679e-05,-0.00013513,0.00016379,-0.012886,8.2376e-05,-0.00027508,6.2068e-05,-9.512e-05
-3.4411e-05,-2.973e-05,-5.4873e-05,-2.9403e-06,1.3321e-05,2.6142e-05,-2.3886e-05,2.1438e-05,-0.00011397,-3.618e-05,1.5221e-05,2.6563e-06,8.5859e-05,3.3863e-06,1.8463e-05,-2.6441e-06,-5.0754e-06,-2.8091e-05,-5.0281e-06,9.2538e-06,-2.9633e-05,-2.9459e-07,-1.1388e-05,2.5722e-05,-1.2686e-05,-2.6931e-05,-7.6594e-06,-1.9484e-05,-4.1442e-05,2.763e-05,0.00012647,-3.0198e-05,-2.3219e-05,0.041559,-1.4636e-05,2.9316e-06,-7.706e-05,-1.1956e-06,-1.9475,-0.00013629,1.8535,7.4e-05,1.9059,-1.3299e-05,-6.5419e-05,2.7549e-06,7.7641e-06,-0.00011286,-6.9725e-05,-1.0804e-06,1.3561e-05,-3.7732e-05,-4.8213e-09,8.2477e-05,5.361e-05,1.9194e-05,5.1981e-05,-1.2824e-05,-7.149e-06,-5.9034e-05,8.0421e-06,-6.1753e-05,-1.7064e-06,-6.0435e-06,-4.6101e-06,-4.2526e-05,-2.2611e-05,-2.626e-05,2.7976e-05,2.5393e-05,-6.7203e-05,-3.1906e-05,-1.5389e-05,-0.00029073,-7.4702e-06,2.8166e-05,-4.9123e-05,-2.212e-05,-3.6071e-05,2.5606e-05,-0.00037656,6.5695e-06,-3.6466e-05,1.9154e-05,-2.6986e-05
-0.0001617,-0.00017699,-0.00027053,3.0157e-06,0.00011851,3.2633e-05,-8.4019e-05,0.00013846,-0.0021461,-0.000158,0.00012466,8.3087e-06,0.00079159,1.6946e-05,0.00022099,-4.9802e-05,-3.5786e-05,-8.8182e-05,-1.5805e-05,6.3475e-05,-0.00012417,5.2771e-05,-2.1838e-05,0.00011505,-6.534e-05,-0.00014328,4.3899e-05,-0.00017304,-0.00034581,0.00016289,0.00053179,-0.00016403,-0.0001518,0.00046066,-6.7696e-05,6.5673e-05,-0.00042702,2.1831e-05,-3.1473,-0.00080424,2.1011,0.00023416,0.35423,-0.00012804,-0.00031592,4.3315e-05,7.0907e-05,-0.00058186,-0.00042556,-1.647e-05,0.00012907,-0.00019833,-8.9441e-05,-1.484e-09,0.00067857,0.00016222,0.00035998,-2.7789e-05,-3.6463e-05,-0.00037756,1.1834e-05,-0.00026156,7.0471e-06,-7.9046e-05,-0.00010856,-0.00016287,-5.0056e-05,-0.00013231,0.00014407,0.0001662,-0.00031494,-0.00012326,-8.8031e-05,-0.18968,4.4776e-06,0.00016936,-0.00034384,-7.228e-05,-0.00015639,0.00020505,-0.0020274,0.00010119,-0.00035276,0.00010252,-8.9953e-05
-0.00019373,-0.00021408,-0.00032433,9.5972e-06,0.00014271,3.4313e-05,-0.00010508,0.00015904,-0.016223,-0.00019353,0.00015502,5.1985e-06,0.00084265,2.32e-05,0.00026731,-5.6413e-05,-4.5854e-05,-0.0001033,-1.2826e-05,8.1784e-05,-0.00014502,6.9026e-05,-3.0442e-05,0.00014041,-7.6191e-05,-0.00017437,5.3727e-05,-0.00021711,-0.00039336,0.00017101,0.00054176,-0.0002165,-0.0001786,0.00056992,-8.5622e-05,0.00010382,-0.00053517,2.1705e-05,-3.1408,-0.0010006,2.1114,0.00026444,0.37263,-0.00014474,-0.00038722,5.1876e-05,8.9432e-05,-0.00068889,-0.00050486,-3.5177e-05,0.00015097,-0.00024424,-0.00012406,0.0023469,-1.5088e-09,0.00018931,0.00046227,-3.054e-05,-5.1656e-05,-0.00049125,1.8548e-05,-0.00031845,6.1333e-06,-9.6251e-05,-0.00012433,-0.00021229,-6.0656e-05,-0.00017527,0.00018107,0.0001907,-0.00034801,-0.00014339,-0.00010304,-0.16427,7.2741e-06,0.00021535,-0.00040087,-9.1769e-05,-0.00019814,0.00025368,-0.0041059,0.00012038,-0.00045603,0.00011449,-0.00011084
-0.00023622,-0.00031078,-0.00040185,-3.7301e-05,0.00015994,0.0001475,-0.00013393,0.00026761,-0.0021437,-0.00021259,0.00014307,1.6918e-05,0.00090016,3.8186e-05,0.00026917,-5.3214e-05,-5.4071e-05,-9.7058e-05,-3.5349e-05,8.0979e-05,-0.00017841,7.4089e-05,-2.1652e-05,0.0001361,-6.7473e-05,-0.0001859,6.4181e-05,-0.00024294,-0.00060976,0.00025565,0.0011381,-0.00022744,-0.00018112,0.0011794,-5.9138e-05,7.768e-05,-0.00057531,8.6144e-06,-3.644,-0.0011357,2.4331,0.00056168,0.65708,-0.00020314,-0.00050413,5.9899e-05,0.00010701,-0.0010039,-0.00068846,1.7741e-05,0.00024962,-0.00026621,-7.5671e-05,0.0012035,0.0006143,-9.4059e-10,0.00052527,-6.8432e-05,-1.1308e-05,-0.0008881,1.5359e-05,-0.0004088,3.2771e-05,-0.0001206,-0.00012524,-0.00024784,-6.7664e-05,-0.00018103,0.00020915,0.00031961,-0.00045084,-0.00018777,-0.00010229,-0.26783,2.3486e-05,0.00026217,-0.00051574,-0.00011196,-0.00023864,0.00030398,-0.0071283,0.00013742,-0.00057378,0.00021004,-0.00013016
-6.7761e-05,-7.195e-05,-0.00011032,1.072e-07,4.1097e-05,1.1327e-05,-3.7844e-05,4.1448e-05,-0.00054198,-7.5432e-05,4.1478e-05,4.0916e-06,0.00023157,9.979e-06,6.2289e-05,-1.2894e-05,-1.3299e-05,-4.1516e-05,-1.1449e-05,2.5822e-05,-5.0973e-05,2.1879e-05,-8.4293e-06,5.4475e-05,-1.6681e-05,-5.7836e-05,1.5723e-05,-7.4858e-05,-0.00012959,3.7847e-05,0.0002768,-7.9975e-05,-6.321e-05,0.00038001,-3.5693e-05,2.3658e-05,-0.00017999,1.2894e-05,-3.8525,-0.0002994,3.6668,8.0633e-05,0.55296,-5.3355e-05,-0.00011662,1.2403e-05,3.5324e-05,-0.00021507,-0.00021317,-1.8033e-05,5.182e-05,-8.2142e-05,-4.5651e-05,0.00030004,0.00017149,6.1026e-05,-1.5312e-09,-1.7903e-05,-9.3715e-06,-0.0003061,-1.2039e-06,-0.0001096,1.3961e-06,-3.3148e-05,-2.8757e-05,-7.4873e-05,-2.1752e-05,-5.3676e-05,6.4281e-05,7.03e-05,-0.00012177,-5.0332e-05,-3.196e-05,-0.16748,-8.7871e-07,7.1411e-05,-0.00015389,-3.4875e-05,-8.4348e-05,8.615e-05,-0.00059526,4.7264e-05,-0.00011969,4.5492e-05,-4.3077e-05
-0.00012331,-0.00010586,-0.0001926,6.6358e-05,6.9997e-05,1.1197e-05,-6.7425e-05,0.00011677,-0.00065472,-9.1606e-05,7.1012e-05,1.4484e-05,0.0013771,2.6154e-06,0.00015504,-0.00012184,-3.2721e-05,-6.2466e-05,-1.8467e-05,3.5378e-05,-0.00010064,2.4652e-05,-2.9319e-05,0.00010589,-4.0631e-05,-8.5375e-05,1.548e-05,-0.00012847,-0.00017553,6.6491e-05,0.00037784,-0.00015035,-9.3981e-05,0.00030828,-3.2121e-05,6.1334e-05,-0.00032275,2.4738e-05,-1.4794,-0.0004581,2.9192,0.00014626,0.43164,-5.2234e-05,-0.00020446,6.7185e-06,3.6801e-05,-0.00041454,-0.00023859,-3.5677e-05,7.9962e-05,-0.00011601,-5.308e-05,0.00055242,0.00028062,9.0891e-05,0.0002395,-2.3194e-09,-2.9146e-05,-0.0001904,1.4373e-05,-0.00019406,-5.3849e-06,-4.9297e-05,-7.5173e-05,-0.00011718,-6.2608e-05,-0.00010041,8.1705e-05,0.00014983,-0.00017878,-8.1789e-05,-7.015e-05,-0.19803,-4.198e-06,0.0001033,-0.00021985,-6.5294e-05,-0.00011613,0.0001153,-0.00083098,4.5878e-05,-0.00021536,7.2988e-05,-7.0357e-05
-3.936e-05,-3.4482e-05,-6.991e-05,-9.5845e-07,2.916e-05,1.8539e-05,-2.4331e-05,5.161e-05,-0.00031743,-3.5799e-05,2.6769e-05,1.4264e-05,0.00014194,8.5378e-06,5.3018e-05,-6.2421e-06,2.1383e-06,-1.9084e-05,-9.8808e-06,2.5193e-05,-3.179e-05,1.5858e-05,2.0925e-07,3.435e-05,-8.9389e-06,-3.3722e-05,1.121e-05,-3.9751e-05,-9.4856e-05,3.9687e-05,0.00017209,-4.0742e-05,-3.2406e-05,0.00018056,-1.6225e-05,2.5317e-05,-0.00010751,9.7198e-06,-3.478,-0.00018441,2.565,8.3169e-05,0.67223,-2.7908e-05,-7.5326e-05,1.0195e-05,1.9222e-05,-0.00014815,-0.0001038,4.9834e-06,4.2682e-05,-4.1183e-05,-2.3409e-05,0.00019798,0.00010978,4.705e-05,0.00011555,-7.3522e-06,-3.4008e-09,-0.00025768,5.6772e-06,-6.0121e-05,4.9819e-06,-8.1896e-06,-1.5707e-05,-4.7051e-05,-1.2292e-05,-2.3929e-05,5.1304e-05,6.3421e-05,-7.2673e-05,-2.2142e-05,-2.3219e-05,-0.0054399,2.1317e-06,5.5718e-05,-9.5576e-05,-2.0078e-05,-4.3293e-05,5.2901e-05,-0.00073371,3.5428e-05,-6.7862e-05,3.8025e-05,-2.1831e-05
-0.00024677,-0.00061134,-0.00039429,5.2745e-05,0.00022312,0.00028733,-3.661e-05,6.7644e-05,-0.012067,-0.00035758,0.00018822,-0.00010504,0.00051599,7.3979e-05,0.00015659,-0.00042881,5.2986e-05,-0.00011581,1.0787e-05,2.354e-06,-0.00023334,0.00021977,-1.5783e-07,0.00012694,-4.5262e-05,-0.00010986,7.647e-05,-0.00018523,-0.00071064,0.00017046,0.001717,-0.00030033,-6.9587e-05,0.80089,-0.00021272,0.00018667,-0.00098676,0.00022721,-1.2274,-0.00052521,1.5285,0.00039603,0.003949,-3.2616e-05,-0.00073163,-0.00012404,-6.5192e-05,-0.00046769,-0.00081646,0.00031512,0.00021437,-0.00026739,-0.00015719,0.0012356,0.00083067,0.00025483,0.00039883,8.0611e-05,0.00011501,4.1045e-10,-0.00015338,-0.00019369,-6.56e-05,-0.00012978,-0.00011326,-0.00044674,-0.00017578,-0.00030516,0.00021246,0.00044138,-0.00043405,-0.00017421,-0.00023149,-0.0018133,-0.00012504,0.00047569,-0.00054059,-0.00021332,-0.00031802,0.00020924,-0.00081413,-3.0295e-05,-0.0012168,6.0113e-05,4.3233e-05
-0.00045382,-0.00082061,-0.00079858,-4.9074e-05,0.00046073,0.00050902,-9.118e-05,0.00030769,-0.03218,-0.00053037,0.00020891,9.0036e-05,0.0010175,2.9017e-05,0.00035561,-0.00048007,0.00018065,-0.00024965,-6.9025e-05,9.8796e-05,-0.00043227,0.00020481,-2.1916e-05,0.00045401,-2.5076e-05,-0.00022732,0.00020856,-0.00038207,-0.0012815,0.00084881,0.0035467,-0.00036377,-0.00024932,0.399,-0.00020034,0.00046989,-0.0015174,0.00020532,-2.793,-0.0012317,2.196,0.0012127,0.51028,-0.00019648,-0.0012945,-2.3994e-05,2.8118e-07,-0.0017818,-0.00099567,0.00049,0.00052137,-0.00054054,-0.00049826,0.0017552,0.0011648,0.00062268,0.00093977,-9.7715e-05,0.00024421,-0.0026483,8.8679e-10,-0.00068386,2.6904e-05,-0.0002774,-0.0004048,-0.00072395,-0.00017109,-0.00058173,0.0010586,0.00098456,-0.00065054,-0.00041341,-0.0003625,-0.0088309,-9.3019e-05,0.000793,-0.0012966,-0.00029523,-0.00061175,0.00056598,-0.0033848,0.0001964,-0.0014005,0.00012142,-6.1749e-05
-0.00040348,-0.00050647,-0.00076326,-6.7798e-05,0.00028035,6.7725e-05,-0.00026,0.00037658,-0.0085936,-0.00041814,0.00025403,6.4161e-05,0.0016961,4.7746e-05,0.00045502,-0.00012262,-4.7253e-05,-0.00019979,-6.9104e-05,0.00014263,-0.00033925,0.00015669,1.6258e-05,0.00025197,-0.00014585,-0.00038687,9.3828e-05,-0.00048934,-0.00089518,0.00041124,0.0015085,-0.00051408,-0.00036182,0.0016868,-0.00019902,0.00014756,-0.0012125,8.6318e-05,-3.5769,-0.002104,2.8394,0.00088205,0.11512,-0.00037476,-0.00083047,8.9319e-05,0.00018629,-0.0015701,-0.0011859,-4.6681e-05,0.00039949,-0.00049092,-0.00039488,0.0020786,0.0011664,0.00046624,0.0010805,-0.00014053,-2.1288e-05,-0.0014231,1.7776e-05,-7.7683e-10,6.3969e-05,-0.00020032,-0.00025531,-0.00047211,-0.00017552,-0.00032073,0.00036572,0.00052224,-0.0008312,-0.00029399,-0.00022871,-0.090167,1.0751e-05,0.00049575,-0.0010865,-0.00021422,-0.00041882,0.00056121,-0.0069952,0.000291,-0.00088388,0.0002938,-0.00028071
-1.3495e-05,-1.6608e-05,-2.4307e-05,-3.1544e-06,8.7377e-06,1.6879e-06,-8.6552e-06,1.1741e-05,-0.0031135,-1.2395e-05,6.9107e-06,1.6477e-06,4.515e-05,-5.1351e-07,1.3571e-05,-5.3755e-06,-5.6897e-06,-7.725e-06,-4.1031e-06,3.1827e-06,-1.1098e-05,3.9992e-06,-2.2784e-07,8.4192e-06,-4.6672e-06,-1.186e-05,3.2461e-06,-1.4435e-05,-2.696e-05,1.3444e-05,4.4388e-05,-1.3745e-05,-1.1706e-05,5.0236e-05,-3.6775e-06,4.4489e-06,-3.5663e-05,-2.5534e-08,-3.9136,-7.0166e-05,2.9642,2.176e-05,0.61523,-9.9103e-06,-2.492e-05,7.186e-06,5.5546e-06,-5.54e-05,-3.939e-05,-2.2937e-07,1.1827e-05,-1.7083e-05,-1.0525e-05,6.315e-05,3.3468e-05,1.4689e-05,3.0186e-05,-5.1371e-06,-3.1187e-06,-4.7406e-05,2.0904e-06,-2.4071e-05,-7.8272e-10,-8.2819e-06,-9.1306e-06,-1.495e-05,-7.317e-06,-1.0511e-05,1.215e-05,1.6658e-05,-2.5949e-05,-1.2421e-05,-6.9634e-06,-0.14096,1.2631e-06,1.1997e-05,-3.5262e-05,-4.7398e-06,-1.3282e-05,1.8121e-05,-0.014574,8.3761e-06,-3.0767e-05,7.2773e-06,-9.1729e-06
-0.0018193,-0.0014882,-0.0032833,0.00037251,0.0012592,0.00054391,-0.001252,0.001597,-0.01729,-0.0017884,0.0012848,0.00035535,0.0099856,-0.00015585,0.0023182,-0.00088061,-0.00053656,-0.0010111,-0.0005077,0.00065625,-0.0016367,0.00049741,-0.00038458,0.0025975,-0.00060069,-0.0015638,0.00047541,-0.002061,-0.0041784,0.001762,0.0050337,-0.0011786,-0.0021402,0.020297,-0.00063979,0.00093864,-0.0047398,0.00022316,-2.8314,-0.0087172,2.9842,0.0041638,0.791,-0.0010198,-0.0039028,0.00015706,0.00088285,-0.007829,-0.004168,-0.00015846,0.0014012,-0.0022691,-0.00030703,0.0082071,0.0047652,0.0017779,0.0042802,-0.00039811,4.798e-06,-0.0070345,0.0002036,-0.0031177,2.9492e-05,-1.7774e-09,0.0014508,-0.0024569,-0.00099593,-0.0016644,0.0017542,0.001985,-0.0034582,-0.0014558,-0.00094658,-0.053638,0.00018338,0.0025376,-0.0033946,-0.0011346,-0.0019252,0.0024987,-0.022416,0.00094239,-0.003326,0.0012822,-0.0014287
-0.00010758,-9.1902e-05,-0.00018267,1.8998e-05,7.2442e-05,2.4208e-05,-6.5251e-05,7.9465e-05,-0.00091977,-0.00010513,6.9283e-05,9.782e-06,0.00051504,-1.1003e-05,0.0001026,-4.2706e-05,-4.3931e-05,-6.7356e-05,-2.8481e-05,2.2678e-05,-7.2001e-05,1.8474e-05,-1.6146e-05,0.00011764,-3.1338e-05,-8.1886e-05,2.6289e-05,-0.00010421,-0.0001941,4.2578e-05,0.00036445,-9.1518e-05,-0.0001149,0.00094089,-3.06e-05,4.6322e-05,-0.00023976,1.7896e-05,-2.9393,-0.00046377,2.919,0.00015125,0.80399,-7.3071e-05,-0.00021076,5.7403e-06,4.6709e-05,-0.00042289,-0.00029395,-2.5321e-05,6.3117e-05,-0.00012684,-5.8428e-06,0.00037623,0.00022337,9.4887e-05,0.0002574,-3.5164e-05,-5.7155e-06,-0.00025983,-3.934e-06,-0.0001771,-4.6311e-07,9.1296e-05,-1.8028e-09,-0.0001226,-7.5275e-05,-9.4267e-05,6.1049e-05,0.00010751,-0.00018222,-9.1913e-05,-4.115e-05,-0.12423,7.2486e-06,0.00010812,-0.00019844,-5.9063e-05,-0.00010037,0.00012809,-0.001589,4.3902e-05,-0.00016389,7.3056e-05,-6.8616e-05
-0.0035318,-0.0038586,-0.0063641,-0.000756,0.0020261,0.00066814,-0.0022161,0.0029749,-0.030412,-0.0034719,0.0020897,0.00066173,0.012773,-0.00037575,0.0036337,-0.0014573,-0.00074055,-0.0019988,-0.00050513,0.00087367,-0.0023973,0.0007399,-0.00046304,0.0022431,-0.0012409,-0.0030604,0.00058262,-0.0026829,-0.0056841,0.0028059,0.014587,-0.0034479,-0.0029055,0.012167,-0.0013378,0.0013861,-0.0089786,0.00020696,-3.7905,-0.016746,2.7775,0.00522,0.34261,-0.0021515,-0.0063595,0.00073727,0.001714,-0.013832,-0.0094769,-0.00077572,0.002829,-0.0042897,-0.0020529,0.016988,0.0088181,0.0033255,0.0078611,-0.00080142,-0.001118,-0.011485,0.00026437,-0.006153,0.00025056,-0.0023883,-0.0024734,-1.4211e-09,-0.0018616,-0.0028089,0.0031616,0.0036337,-0.0062584,-0.0027963,-0.001872,-0.081365,0.00020799,0.0041356,-0.0079153,-0.0015662,-0.003515,0.0040693,-0.042214,0.0024502,-0.0063618,0.0029507,-0.0018902
-0.00019509,-0.00020463,-0.00037784,-2.1415e-05,0.0001371,8.2739e-05,-8.5802e-05,0.00018394,-0.0058983,-0.00018931,0.00012912,2.8647e-05,0.00069335,9.0786e-06,0.00026505,-4.9567e-05,-2.5411e-05,-0.00010077,-3.0439e-05,9.0184e-05,-0.00014466,5.5645e-05,-2.7605e-05,0.00015417,-6.0139e-05,-0.00017774,7.6281e-05,-0.00022751,-0.00042721,0.00029154,0.00059755,-0.00020204,-0.00018708,0.00069238,-7.4405e-05,0.00011173,-0.00054673,9.9498e-06,-3.8188,-0.0010081,2.4301,0.00023315,0.26968,-0.00014592,-0.00036476,5.9025e-05,8.8328e-05,-0.00075381,-0.0004821,-6.5115e-05,0.00017942,-0.00024457,-6.5203e-05,0.0013086,0.00061018,0.00022546,0.00057175,-6.13e-05,-2.3298e-05,-0.00085091,4.0928e-05,-0.00034484,9.5034e-06,-0.00010604,-0.00015864,-0.00023363,-7.8838e-10,-0.00015377,0.00021692,0.00027224,-0.00032177,-0.00014831,-0.00011143,-0.0089669,-5.6551e-07,0.00025655,-0.00045627,-9.6448e-05,-0.00022351,0.00025715,-0.022766,0.00013399,-0.0004347,0.00012833,-0.00013658
-6.62e-05,-6.8624e-05,-0.0001112,3.111e-06,4.627e-05,2.5001e-05,-4.5244e-05,5.6051e-05,-0.0009352,-6.4067e-05,3.6157e-05,1.6922e-05,0.00024642,7.5745e-06,6.9977e-05,-1.4169e-05,-4.4337e-06,-3.6768e-05,-1.801e-05,2.4652e-05,-5.4838e-05,2.4802e-05,-2.799e-06,4.3374e-05,-2.1459e-05,-5.8067e-05,1.3306e-05,-6.2933e-05,-0.00013675,6.0981e-05,0.00025392,-6.3143e-05,-5.2388e-05,0.00032161,-2.7804e-05,1.9068e-05,-0.0001619,1.9316e-05,-3.8073,-0.00030698,2.9302,0.00011961,0.57323,-4.5134e-05,-0.00011938,2.1054e-05,2.6224e-05,-0.0002248,-0.00019093,1.7592e-07,7.4568e-05,-7.9972e-05,-3.2414e-05,0.00031834,0.00017175,7.4757e-05,0.00017526,-2.07e-05,2.2914e-06,-0.00022481,8.7692e-06,-0.00010708,1.3181e-05,-3.1857e-05,-4.0344e-05,-6.7318e-05,-2.2157e-05,-8.291e-10,5.7569e-05,8.5982e-05,-0.00012287,-4.6896e-05,-3.8708e-05,-0.11283,1.4905e-06,8.7555e-05,-0.0001647,-3.2953e-05,-6.9818e-05,8.2185e-05,-0.0028217,4.1997e-05,-0.00010981,6.3631e-05,-3.9783e-05
-0.0012028,-0.0012266,-0.0021843,-0.00040634,0.00089126,0.00090453,-0.00033825,0.0011996,-0.015227,-0.0010904,0.00074427,0.00036124,0.0040183,-8.9261e-05,0.0012172,4.8126e-05,-0.00044806,-0.00038114,-0.00022861,0.00046494,-0.00061085,0.00036643,-0.00012093,0.0018771,-0.00038643,-0.00083134,0.00050695,-0.0012313,-0.002685,0.0012663,0.0044332,-0.00073657,-0.0010994,0.0082844,-0.00024545,0.00069387,-0.0030953,-9.5626e-05,-3.2938,-0.0051843,3.4955,0.0033284,0.47584,-0.0007743,-0.00247,0.00044918,0.00074592,-0.0052293,-0.0025723,0.0010477,0.0010101,-0.0013566,-0.0011104,0.0072608,0.0036752,0.0012384,0.0033121,-0.00030382,0.00013038,-0.011685,0.00045368,-0.0021956,0.00015022,-0.00048045,-0.00090312,-0.0011559,-0.00023693,-0.0011026,-2.1215e-09,0.0015381,-0.0020123,-0.0010039,-0.00041425,-0.048865,0.00017876,0.0010304,-0.0025668,-0.00062479,-0.0012155,0.001614,-0.021917,0.0011171,-0.0023079,0.00067883,-0.00083192
-0.00018388,-0.00019005,-0.00031687,-7.0299e-06,0.00011001,9.3602e-05,-0.00012309,0.00018193,-0.0013883,-0.00018964,9.7243e-05,3.8375e-05,0.00057596,1.7726e-05,0.0001761,-9.8163e-05,-4.2324e-05,-0.00010149,-2.7911e-05,8.6477e-05,-0.00015812,5.7867e-05,-2.703e-05,8.6909e-05,-6.6231e-05,-0.00015513,2.1036e-05,-0.00018715,-0.00041917,0.00017532,0.00062444,-0.00023398,-0.00015233,0.0011066,-7.1471e-05,6.7795e-05,-0.00052257,2.2247e-05,-3.4626,-0.00096838,2.7268,0.00035532,0.31096,-0.00012826,-0.00035967,3.31e-05,5.6188e-05,-0.000721,-0.0004387,-2.2536e-05,0.00014301,-0.00022587,-4.0007e-05,0.00071801,0.00041446,0.00019581,0.00041366,6.4298e-08,-9.8754e-06,-0.00079632,3.731e-05,-0.00030679,1.8049e-05,-9.4826e-05,-0.00010561,-0.00020411,-6.2925e-05,-0.00014392,0.00016094,-1.07e-09,-0.00032973,-0.00013533,-0.0001085,-0.08217,3.8688e-06,0.00018764,-0.00045086,-0.00010126,-0.00019636,0.00021072,-0.015909,8.9309e-05,-0.00037074,0.00012092,-0.00010643
-0.00018141,-0.00020015,-0.00028549,-2.5682e-05,8.4454e-05,9.7012e-06,-0.00010083,0.00012671,-0.0035603,-0.00015574,9.5357e-05,1.1212e-05,0.00054957,-1.5442e-05,0.00016902,-8.6573e-05,-4.7656e-05,-9.4884e-05,-1.6766e-05,5.0657e-05,-0.00012333,3.2353e-05,-3.6744e-05,0.00013192,-4.9406e-05,-0.00014813,3.6996e-05,-0.00018163,-0.00031812,0.00014645,0.00042016,-0.00015705,-0.0001814,0.00076857,-5.4033e-05,5.9428e-05,-0.00045245,2.1278e-06,-3.9809,-0.00077071,2.7519,0.00016199,0.22889,-0.000118,-0.00030664,3.9835e-05,7.146e-05,-0.00070228,-0.00039791,-6.9582e-05,9.8572e-05,-0.00019697,-0.00011733,0.0006775,0.00038595,0.00014207,0.00036923,-2.7274e-05,-4.0707e-05,-0.00052974,2.2626e-05,-0.00031811,5.688e-06,-9.2762e-05,-0.00010189,-0.00018022,-6.2503e-05,-0.00015651,0.00014217,0.00017242,-1.2187e-09,-0.00014343,-7.7831e-05,-0.044057,5.5122e-06,0.00014191,-0.00036985,-8.5021e-05,-0.00017886,0.00020544,-0.0020441,0.00010308,-0.00035546,6.636e-05,-0.0001129
-0.00024108,-0.00023059,-0.00037805,-1.6232e-05,0.00015452,4.1781e-05,-0.00014496,0.00023088,-0.013196,-0.00025582,0.00016555,2.3449e-05,0.00090003,5.1083e-05,0.0002813,-9.7189e-05,-2.4154e-05,-0.00012143,-4.1441e-05,0.00013024,-0.00017673,0.00010501,-2.2315e-05,0.0001626,-6.214e-05,-0.00019575,4.15e-05,-0.0002432,-0.00052064,0.00024285,0.00075399,-0.00029362,-0.00018742,0.00097875,-0.00012409,8.835e-05,-0.00063282,4.366e-05,-3.5382,-0.0010365,2.5556,0.00041815,0.3519,-0.00016754,-0.00041736,6.8189e-05,0.00010046,-0.0008153,-0.00060884,-4.8961e-05,0.00020429,-0.00030678,-0.00018015,0.0011985,0.00067098,0.00025948,0.0006159,-2.4947e-05,2.2147e-05,-0.00092509,2.4672e-05,-0.00037469,2.0457e-05,-9.9083e-05,-0.00015172,-0.00024999,-7.2087e-05,-0.0001729,0.0002287,0.00031834,-0.00041961,-8.4209e-10,-0.00012925,-0.090979,1.7821e-05,0.00029545,-0.00058074,-0.00012335,-0.000285,0.00032855,-0.017812,0.00015544,-0.00056376,0.00019601,-0.0001244
-9.8243e-05,-0.00011888,-0.00016515,-1.5926e-05,5.1401e-05,3.2098e-05,-5.2228e-05,7.9019e-05,-0.0020073,-8.2291e-05,5.8773e-05,4.0665e-06,0.00029064,-7.4156e-06,9.3212e-05,-2.7463e-05,-4.4793e-05,-3.1089e-05,-1.0007e-05,2.6086e-05,-6.375e-05,1.3795e-05,-1.2433e-05,8.1196e-05,-3.3701e-05,-7.3136e-05,2.4236e-05,-0.00010185,-0.00020438,6.3588e-05,0.00025165,-9.1888e-05,-8.7881e-05,0.00038273,-2.9137e-05,2.3647e-05,-0.00023595,-7.9028e-06,-3.788,-0.00044289,2.6664,0.00013791,0.22123,-6.7942e-05,-0.00018461,1.9946e-05,6.1209e-05,-0.00040794,-0.00024888,-1.0304e-08,6.395e-05,-0.00010844,-4.8598e-05,0.00039292,0.00022069,8.878e-05,0.00021853,-3.6118e-05,-2.5065e-05,-0.00030189,8.662e-06,-0.00017268,3.5414e-06,-4.3288e-05,-4.1447e-05,-0.00010089,-4.7394e-05,-8.9262e-05,8.7403e-05,8.6399e-05,-0.00015589,-8.3216e-05,8.3669e-11,-0.13355,1.7607e-05,7.166e-05,-0.00018112,-4.7212e-05,-9.9349e-05,0.00012924,-0.0022119,6.4842e-05,-0.00020443,4.3927e-05,-6.1482e-05
-9.4924e-06,-9.942e-06,-1.8171e-05,-1.9347e-06,6.0831e-06,3.3262e-06,-8.3695e-06,8.6443e-06,-0.00032755,-9.1346e-06,2.9975e-06,4.2908e-06,5.9908e-05,1.0154e-07,9.4044e-06,-5.5184e-06,-1.5473e-06,-7.6171e-06,-3.7787e-06,4.0035e-06,-8.7825e-06,3.0682e-06,-2.2908e-06,7.8026e-06,-2.6633e-06,-9.2891e-06,1.5087e-06,-4.256e-06,-1.7311e-05,1.1785e-05,3.4607e-05,-7.3159e-06,-4.3171e-06,3.5548e-05,-4.9548e-06,7.7417e-06,-2.7115e-05,3.0255e-07,-2.3989,-4.097e-05,3.362,2.0944e-05,0.71992,-7.1584e-06,-1.7956e-05,9.6883e-07,2.4527e-06,-4.4276e-05,-2.1874e-05,1.2408e-06,7.685e-06,-1.4957e-05,2.8328e-06,4.5083e-05,2.2275e-05,4.8398e-06,1.6926e-05,-3.3185e-06,8.3062e-07,-3.6475e-05,2.3956e-06,-1.7618e-05,-1.1069e-06,-3.2882e-06,-6.4313e-06,-1.2101e-05,-6.7389e-07,-8.2873e-06,7.1819e-06,1.0352e-05,-1.5677e-05,-7.5058e-06,-7.1772e-06,-4.2281e-09,-8.1723e-07,1.1646e-05,-2.6972e-05,-4.0077e-06,-9.4939e-06,1.0434e-05,-0.064256,5.3741e-06,-1.547e-05,8.2768e-06,-5.2412e-06
-0.0010556,-0.0011899,-0.0018249,-8.3203e-05,0.00062288,0.0003208,-0.00062113,0.00083237,-0.11703,-0.00098355,0.00066944,0.00019899,0.0029693,-3.9702e-05,0.0011526,-0.00037122,-0.00035959,-0.00040539,-0.00010788,0.0002693,-0.00066882,0.00029816,-0.00013847,0.00082445,-0.00037124,-0.00084037,0.0001973,-0.00094002,-0.0019602,0.00081806,0.0030433,-0.00093169,-0.00086225,0.0051934,-0.00037316,0.00049563,-0.0027077,7.083e-05,-3.7531,-0.0052867,2.7775,0.0015603,0.3435,-0.00070475,-0.0020648,0.0001631,0.00053637,-0.0043083,-0.0024959,-2.2834e-05,0.00073461,-0.0012203,-0.0010176,0.0045593,0.0025742,0.001018,0.0022342,-0.00032804,-0.00025223,-0.0034849,7.8952e-05,-0.0018543,9.5618e-05,-0.00044278,-0.00052551,-0.001097,-0.00056892,-0.00096531,0.00095383,0.0011338,-0.0017663,-0.00083827,-0.00038708,-0.11426,1.2176e-09,0.0012009,-0.0020501,-0.00051827,-0.00099693,0.0017902,-0.023564,0.00063251,-0.0025086,0.00058153,-0.00070008
-6.9249e-05,-7.5914e-05,-0.000114,-3.7651e-06,3.8914e-05,2.3238e-05,-5.4458e-05,4.5774e-05,-0.00055128,-7.6315e-05,4.9696e-05,3.1808e-05,0.00029187,-7.4101e-06,8.8759e-05,2.5891e-06,8.4151e-06,-4.4699e-05,3.0883e-07,2.5402e-06,-7.0236e-05,1.5766e-05,-1.4634e-05,5.4778e-05,-2.5086e-05,-6.1554e-05,3.5091e-06,-5.0766e-05,-8.1563e-05,5.7969e-05,0.00098345,-6.2673e-05,-3.2079e-05,0.0015163,-3.5395e-05,4.8791e-05,-0.00016231,2.0675e-05,-3.5187,-0.00026189,3.2867,0.00015607,0.50685,-1.8165e-05,-0.00012624,3.0617e-07,2.0712e-05,-0.00025169,-0.00020539,-2.0296e-05,5.7934e-05,-9.3121e-05,-6.4739e-05,0.00028704,0.00016619,7.6428e-05,0.00016362,-3.9958e-05,-1.1419e-05,-0.002808,-4.2011e-06,-0.00011807,4.4375e-07,-1.7597e-05,-3.0617e-05,-6.8942e-05,-2.6588e-05,-5.1725e-05,4.7878e-05,7.2643e-05,-0.00013824,-6.1066e-05,-4.71e-05,-0.088205,6.8684e-06,-1.3749e-09,-0.00012068,-4.5888e-05,-9.5559e-05,8.5472e-05,-0.00079339,3.5208e-05,-9.6825e-05,5.3913e-05,-3.6554e-05
-0.001132,-0.0010957,-0.0015989,0.00011721,0.00054399,0.00031845,-0.0006853,0.00093285,-0.010728,-0.00079434,0.00091806,1.2542e-06,0.0046033,-0.00019619,0.0015776,-0.00038789,-0.00043163,-0.00059312,9.7565e-05,0.00031138,-0.00074183,0.00023021,-0.00024247,0.00076602,-0.00040006,-0.00085546,0.00010489,-0.0011147,-0.0019847,0.00073445,0.0036246,-0.0012924,-0.0008299,0.0041904,-0.00027883,0.00042673,-0.0025684,8.9378e-05,-2.7951,-0.0057788,2.5823,0.0011741,0.27267,-0.00053427,-0.0020612,0.00012688,0.00046733,-0.0046106,-0.0031447,-0.00032115,0.00056501,-0.0013167,-0.00064106,0.0062532,0.0030301,0.00095579,0.0021873,-0.0001732,-0.0003663,-0.002919,7.9548e-05,-0.0021061,-9.5235e-05,-0.00023831,-0.00049858,-0.0011742,-0.00047816,-0.0010839,0.00085069,0.00086803,-0.0019278,-0.0010652,-0.00042915,-0.089955,0.00016959,0.0014131,-6.2942e-10,-0.00063843,-0.0012321,0.0012936,-0.011197,0.00052161,-0.0025052,0.00053098,-0.00074057
-0.000104,-0.00011918,-0.00018656,-2.3721e-05,6.7524e-05,-3.9911e-06,-6.3824e-05,8.6306e-05,-0.0011597,-9.3234e-05,5.6505e-05,6.7492e-06,0.00034981,-4.0099e-06,0.00010782,-5.1775e-05,-4.2438e-05,-6.1547e-05,-2.7633e-05,2.8253e-05,-6.9476e-05,2.8075e-05,-1.0052e-05,6.5724e-05,-3.6379e-05,-9.1735e-05,3e-05,-9.5495e-05,-0.00019645,0.00010376,0.00031441,-0.00010964,-9.7366e-05,0.00039686,-3.6333e-05,3.7587e-05,-0.00026182,8.5353e-07,-3.8502,-0.00057951,2.4303,0.00011621,0.2202,-9.0542e-05,-0.00018295,4.6315e-05,4.5207e-05,-0.00041598,-0.00027416,-3.1758e-05,7.2092e-05,-0.00011876,-6.0866e-05,0.00057422,0.00027503,0.00010055,0.00023474,-3.9441e-05,-2.7713e-05,-0.00029444,1.4624e-05,-0.00018655,2.2639e-05,-6.7499e-05,-7.1024e-05,-0.00010327,-4.3476e-05,-9.084e-05,8.165e-05,0.00010197,-0.00018824,-8.9265e-05,-5.163e-05,-0.048435,4.7729e-06,8.4534e-05,-0.00025134,-1.5695e-09,-0.00010442,0.00013196,-0.00221,6.6261e-05,-0.00020603,5.0795e-05,-6.7517e-05
-0.00016396,-0.00020137,-0.00031829,-4.3013e-05,0.0001104,2.5266e-05,-9.4853e-05,0.00015684,-0.0025244,-0.0001448,8.4203e-05,1.7849e-05,0.00051872,-8.235e-06,0.00017238,-0.00010453,-6.4847e-05,-9.1359e-05,-3.482e-05,6.3626e-05,-0.00012411,4.0436e-05,5.6478e-06,0.00010675,-6.2603e-05,-0.00014652,4.1442e-05,-0.00016511,-0.0003383,0.00014877,0.00041798,-0.00015327,-0.00017294,0.00053034,-4.4358e-05,9.0058e-05,-0.00047917,2.8002e-06,-3.7308,-0.00090423,2.2079,0.00030497,0.10351,-0.00015964,-0.00034772,4.1547e-05,7.2373e-05,-0.00075077,-0.00041408,-8.6597e-07,0.00011855,-0.0001809,-0.00012765,0.00086558,0.00043287,0.0001663,0.00031438,-5.3203e-05,-4.6996e-05,-0.00052054,1.0661e-05,-0.00028701,2.1178e-05,-9.1834e-05,-9.8034e-05,-0.00016924,-9.1923e-05,-0.0001454,0.00014876,0.00016917,-0.00031035,-0.00016465,-9.0212e-05,-0.061509,1.8387e-05,0.00011979,-0.00041621,-7.9493e-05,-7.9608e-10,0.00021148,-0.0034106,8.9685e-05,-0.0003904,8.2039e-05,-0.00012669
-0.00019989,-0.00022678,-0.00034879,-2.7542e-05,0.00011059,2.6003e-05,-0.00011239,0.00014915,-0.022893,-0.0001823,0.00011536,1.3491e-05,0.00058165,-1.0801e-05,0.00020326,-6.9065e-05,-9.2711e-05,-8.4713e-05,-2.67e-05,4.3693e-05,-0.0001219,4.3404e-05,-2.2891e-05,0.00013296,-7.7569e-05,-0.00015499,4.1299e-05,-0.00019479,-0.00038563,0.00016795,0.00048388,-0.0001917,-0.00017888,0.00077323,-6.8375e-05,5.963e-05,-0.00051456,-1.319e-06,-3.7359,-0.0010121,2.705,0.00021966,0.48669,-0.00015661,-0.00038272,3.6431e-05,0.00010146,-0.00081439,-0.000491,-3.0511e-05,0.00013439,-0.00022648,-0.00012985,0.00083645,0.00046401,0.00018072,0.00043827,-6.7311e-05,-5.7863e-05,-0.00061531,1.9966e-05,-0.00035042,1.8366e-05,-9.0925e-05,-9.8677e-05,-0.00021616,-9.5694e-05,-0.00018367,0.00015455,0.00017838,-0.0003322,-0.00016314,-7.01e-05,-0.081997,6.5543e-05,0.00017954,-0.00040507,-9.0872e-05,-0.00019251,-1.2018e-09,-0.0044652,0.00011233,-0.00043116,9.3182e-05,-0.00014053
-0.00014878,-0.00013877,-0.0002035,7.5764e-05,6.09e-05,5.761e-05,-9.1707e-05,8.8544e-05,-0.00064028,-0.00014111,8.6998e-05,5.3121e-06,0.00074447,6.6253e-06,0.00014724,-6.4273e-05,-2.3526e-05,-8.9235e-05,-4.2203e-06,3.8894e-05,-0.00011467,1.4554e-05,-3.9513e-05,0.00014789,-3.7293e-05,-0.00010231,3.8614e-06,-0.00012694,-0.00018954,6.7381e-05,0.00051818,-0.00011042,-0.00012319,0.0056414,-5.8552e-05,6.9827e-05,-0.00040536,2.5132e-05,-1.2223,-0.00051235,2.6318,0.00016581,0.55995,-6.3223e-05,-0.0002449,9.7329e-06,5.3324e-05,-0.00040453,-0.00023925,-4.7687e-05,7.7404e-05,-0.00016223,-7.1127e-08,0.00056363,0.00032146,9.0017e-05,0.00037528,6.6977e-05,-4.4825e-05,-0.0003334,1.6554e-05,-0.00023132,-2.2231e-05,-3.9539e-05,-6.2369e-05,-0.00013908,-8.7079e-05,-0.00014147,9.1335e-05,0.00012821,-0.00020841,-0.0001217,-8.3926e-05,-0.11016,-1.267e-05,0.00016425,-0.00024517,-8.6628e-05,-0.00015658,0.00014044,-4.0653e-09,6.1525e-05,-0.00029953,8.1428e-05,-7.6619e-05
-0.00035498,-0.00034878,-0.00056339,-8.4711e-05,0.00019499,9.7372e-05,-0.00017039,0.00028111,-0.0096678,-0.00031055,0.00019656,6.3628e-05,0.00098602,-2.6014e-05,0.00032328,4.1711e-05,-9.1355e-05,-0.00014889,-6.8975e-05,0.00010418,-0.00026294,5.4559e-05,-4.2141e-05,0.00026993,-0.0001212,-0.00026283,0.00010846,-0.00034161,-0.00063425,0.00026376,0.0012031,-0.00033226,-0.00028301,0.0011088,-0.00012439,7.3333e-05,-0.00083652,1.1357e-05,-3.5128,-0.0015892,2.0467,0.00050247,0.85828,-0.00028641,-0.00056073,7.9954e-05,0.00018493,-0.0012665,-0.00087515,-5.7748e-05,0.00024361,-0.0003816,-0.00024861,0.0014781,0.0008015,0.00029621,0.00083303,-0.00013349,-1.3306e-05,-0.0013067,4.9594e-05,-0.00056952,2.0963e-05,-0.00020566,-0.00023712,-0.00031124,-0.00014052,-0.0002942,0.000347,0.0003075,-0.00055308,-0.00027582,-0.00012783,-0.11055,1.8978e-05,0.00032863,-0.00075013,-0.00015079,-0.00035871,0.00039801,-0.022711,-8.7811e-10,-0.00062869,0.00022495,-0.00022538
0.0041098,0.0015033,-0.00098432,-0.00070349,-0.0014274,0.00035286,0.0014074,0.003034,-0.00068552,0.00054598,0.00073933,-0.00031654,0.0022711,-0.0040534,0.00069827,-0.0015878,-0.0045094,-0.00024403,-4.9654e-05,-0.0051313,-0.0023193,8.1506e-05,-0.00092951,0.0031208,9.3869e-06,-0.0025034,-0.0021108,-0.001697,0.0017507,0.0029291,-0.0047377,-0.0021534,0.0045172,1.3968e-06,0.0014564,-0.0028604,-0.0022379,0.0041457,-8.1735e-05,-0.00028144,-0.0013803,0.0035125,-0.0013607,0.0015781,-0.00066938,0.0036141,0.0003592,0.0029093,-0.0017329,0.0010223,0.0014018,0.00031832,0.0047868,0.00095249,0.0014647,0.0014347,0.0022917,-0.0024151,0.0022849,-0.0013728,-0.0026961,0.00054484,-0.000319,-0.0011446,-0.00082637,0.00363,0.0022857,-0.0035694,0.00068151,0.00073582,-0.0021309,-0.0017467,-0.0017617,-0.00061354,8.643e-05,-0.001095,-0.0048579,-0.0010571,0.0026796,0.0018053,-0.0006826,-0.0023205,-2.1863e-16,0.0021811,0.0012082
-0.00058742,-0.00054149,-0.00091965,2.7029e-05,0.00039101,0.0002947,-0.00031599,0.00046952,-0.0040518,-0.00059705,0.00030292,0.00017435,0.0027208,6.7458e-05,0.00056438,-5.9872e-05,-1.4217e-05,-0.00028172,-0.00014815,0.00017785,-0.00045026,0.00017359,-0.00010946,0.00039158,-0.00017792,-0.00049418,0.00014402,-0.00044863,-0.001148,0.0004345,0.0049284,-0.0005499,-0.00033088,0.0031916,-0.00028552,0.00016757,-0.001487,0.00017827,-3.1112,-0.0024003,2.4807,0.0015426,0.9748,-0.00037859,-0.0011112,7.3818e-05,0.00022356,-0.0019768,-0.0012953,-5.518e-05,0.00064264,-0.00070534,-0.000153,0.0025655,0.0014415,0.00069675,0.0014259,-5.932e-05,3.3435e-05,-0.0020839,5.7842e-05,-0.0008843,2.6632e-05,-0.00020301,-0.00024548,-0.00048347,-0.00025424,-0.00030201,0.00048206,0.00073044,-0.0011605,-0.00037195,-0.00031897,-0.01645,3.8588e-05,0.0007723,-0.0013115,-0.00031468,-0.00064447,0.00066696,-0.0077834,0.0003916,-0.0010464,-1.5532e-09,-0.00026557
-5.3084e-05,-6.1677e-05,-8.7547e-05,-5.1396e-06,3.5641e-05,2.3061e-05,-3.4674e-05,4.5622e-05,-0.00051812,-5.4876e-05,3.4798e-05,1.1776e-05,0.00018766,6.451e-06,5.543e-05,-2.2846e-05,-5.4524e-06,-3.6049e-05,-1.0745e-05,1.9064e-05,-4.2916e-05,1.6355e-05,-8.9692e-06,4.5988e-05,-1.8506e-05,-4.7727e-05,9.8725e-06,-4.8012e-05,-9.255e-05,3.9027e-05,0.00020243,-5.7224e-05,-3.1638e-05,0.00024481,-2.1296e-05,3.0282e-05,-0.00016016,7.0114e-06,-3.3953,-0.00019706,2.812,9.5573e-05,0.76652,-3.7219e-05,-9.8832e-05,1.1252e-05,1.8645e-05,-0.00016861,-0.00014038,-6.2986e-06,4.5911e-05,-6.7332e-05,-2.1922e-05,0.00027116,0.00014694,5.6522e-05,0.00012804,-1.2711e-05,-6.4218e-06,-0.00018003,7.0738e-06,-9.6174e-05,3.1641e-06,-3.12e-05,-3.3257e-05,-5.6076e-05,-3.0426e-05,-4.7173e-05,4.2898e-05,6.581e-05,-0.00010205,-4.3144e-05,-3.0472e-05,-0.054496,-1.6159e-06,6.6052e-05,-0.0001236,-2.8603e-05,-6.139e-05,6.245e-05,-0.00071868,2.9958e-05,-0.00010132,4.1613e-05,-1.4737e-09
